#mdl#-1903191304#6622
#rdr#44/23/0
10:u:%x[-3,0],
10:u:%x[-2,0],
10:u:%x[-1,0],
9:u:%x[0,0],
9:u:%x[1,0],
9:u:%x[2,0],
9:u:%x[3,0],
18:u:%x[-1,0]/%x[0,0],
17:u:%x[0,0]/%x[1,0],
9:u:%x[0,1],
10:u:%x[-1,1],
9:u:%x[0,2],
9:u:%x[0,3],
9:u:%x[0,4],
9:u:%x[0,5],
9:u:%x[0,6],
9:u:%x[0,7],
9:u:%x[0,8],
9:u:%x[0,9],
11:u:%x[-2,10],
11:u:%x[-1,10],
10:u:%x[0,10],
10:u:%x[1,10],
10:u:%x[2,10],
10:u:%x[0,11],
11:u:%x[-1,12],
10:u:%x[0,12],
10:u:%x[1,12],
20:u:%x[-1,12]/%x[0,12],
19:u:%x[0,12]/%x[1,12],
10:u:%x[0,13],
10:u:%x[0,14],
10:u:%x[0,15],
10:u:%x[0,16],
10:u:%x[0,17],
10:u:%x[0,18],
10:u:%x[0,19],
10:u:%x[0,20],
10:u:%x[0,21],
29:u:%x[-1,21]/%x[0,22]/%x[0,10],
29:u:%x[-1,21]/%x[0,22]/%x[1,11],
10:u:%x[0,23],
19:u:%x[0,23]/%x[1,12],
1:b,
#qrk#26
6:author,
5:title,
6:editor,
9:booktitle,
4:date,
7:journal,
6:volume,
5:genre,
9:authority,
5:pages,
8:location,
9:publisher,
3:url,
4:note,
7:unknown,
7:edition,
6:source,
10:translator,
4:isbn,
3:doi,
8:accessed,
7:section,
8:director,
6:medium,
8:producer,
5:event,
#qrk#3084
6:u:_x-3,
6:u:_x-2,
6:u:_x-1,
4:u:A.,
4:u:R.,
3:u:.,
3:u:A,
3:u:a,
3:u:r,
8:u:single,
6:u:none,
11:u:_x-1/none,
11:u:none/none,
4:u:32,
9:u:no-name,
10:u:no-month,
10:u:no-place,
14:u:no-publisher,
12:u:no-journal,
12:u:no-editors,
3:u:0,
10:u:terminal,
20:u:_x-1/other/initial,
1:b,
5:u:and,
3:u:,,
3:u:C,
4:u:Ca,
9:u:initial,
10:u:internal,
23:u:terminal/other/single,
3:u:R,
4:u:16,
9:u:journal,
3:u:1,
24:u:internal/other/initial,
4:u:de,
3:u:K,
4:u:r,,
5:u:er,,
6:u:name,
22:u:terminal/other/other,
7:u:lower,
4:u:an,
3:u:d,
4:u:nd,
7:u:other,
8:u:others,
20:u:internal/other/and,
20:u:internal/other/all,
3:u:W,
4:u:W.,
4:u:P.,
5:u:all,
3:u:2,
20:u:others/other/other,
3:u:e,
4:u:30,
7:u:month,
7:u:place,
11:u:publisher,
24:u:terminal/other/initial,
13:u:development,
4:u:Ro,
4:u:r.,
5:u:er.,
22:u:others/other/initial,
3:u:F,
4:u:Fo,
3:u:g,
4:u:ng,
5:u:ing,
3:u:3,
3:u:D,
4:u:Di,
3:u:s,
3:u:t,
4:u:nt,
5:u:ent,
6:u:ment,
4:u:st,
3:u:y,
4:u:In,
3:u:w,
6:u:with,
3:u:n,
4:u:in,
3:u:4,
4:u:C.,
3:u:S,
4:u:St,
4:u:B.,
3:u:f,
4:u:fo,
5:u:for,
4:u:m.,
3:u:c,
8:u:Jones,,
3:u:I,
3:u:b,
4:u:21,
3:u:5,
19:u:terminal/other/in,
7:u:jones,
21:u:others/other/single,
3:u:B,
3:u:J,
4:u:Jo,
4:u:s,,
5:u:es,,
3:u:6,
23:u:internal/other/single,
4:u:T.,
4:u:Sh,
3:u:7,
10:u:editors,,
7:u:Proc.,
3:u:T,
9:u:editors,
4:u:De,
6:u:proc,
3:u:8,
4:u:ed,
5:u:edi,
6:u:edit,
24:u:internal/other/editors,
3:u:P,
4:u:Pr,
5:u:Pro,
6:u:Proc,
4:u:c.,
5:u:oc.,
6:u:roc.,
9:u:ordinal,
14:u:none/ordinal,
22:u:internal/other/other,
11:u:Workshop,,
4:u:h.,
5:u:th.,
14:u:ordinal/none,
20:u:terminal/other/all,
7:u:1992.,
7:u:upper,
4:u:CS,
10:u:workshop,
3:u:9,
8:u:hyphen,
6:u:_x+1,
4:u:Re,
6:u:1992,
22:u:hyphen/other/initial,
6:u:_x+2,
4:u:Wo,
5:u:Wor,
6:u:Work,
4:u:p,,
5:u:op,,
6:u:hop,,
6:u:year,
11:u:none/year,
6:u:_x+3,
4:u:19,
5:u:199,
4:u:2.,
11:u:year/_x+1,
4:u:10,
21:u:internal/other/_x+1,
11:u:none/_x+1,
4:u:M.,
4:u:H.,
3:u:M,
3:u:m,
3:u:h,
4:u:a,,
3:u:H,
4:u:of,
4:u:Mo,
4:u:a.,
4:u:to,
4:u:Ap,
5:u:App,
6:u:Appl,
4:u:on,
5:u:ion,
6:u:tion,
6:u:data,
3:u:o,
4:u:28,
17:u:others/other/of,
6:u:base,
9:u:machine,
5:u:its,
4:u:se,
4:u:ma,
5:u:ine,
6:u:hine,
5:u:New,
18:u:others/other/and,
3:u:i,
5:u:new,
12:u:Computing,,
6:u:arch,
4:u:e.,
5:u:re.,
3:u:N,
4:u:Ne,
4:u:ew,
11:u:computing,
4:u:25,
7:u:1983.,
3:u:G,
4:u:11,
4:u:Co,
5:u:Com,
6:u:Comp,
4:u:g,,
5:u:ng,,
6:u:ing,,
6:u:1983,
8:u:volume,
13:u:none/volume,
5:u:1(1,
4:u:),,
5:u:1),,
6:u:(1),,
25:u:internal-closing-parens,
5:u:198,
4:u:3.,
36:u:internal-closing-parens/other/_x+1,
11:u:Alexander,
10:u:language,
4:u:Al,
4:u:er,
5:u:der,
11:u:alexander,
3:u:V,
4:u:y.,
11:u:Technical,
5:u:Mod,
8:u:Report,
3:u:l,
4:u:ge,
5:u:age,
11:u:technical,
4:u:TU,
4:u:n.,
5:u:on.,
6:u:ion.,
8:u:report,
6:u:Wien,
18:u:Technical/Report,
4:u:Te,
5:u:Tec,
6:u:Tech,
4:u:al,
5:u:cal,
6:u:ical,
26:u:terminal/other/technical,
5:u:Rep,
6:u:Repo,
4:u:rt,
5:u:ort,
6:u:port,
21:u:others/other/report,
18:u:others/other/all,
9:u:version,
3:u:U,
6:u:2.0,,
4:u:Wi,
4:u:en,
6:u:page,
11:u:none/page,
4:u:2,,
4:u:20,
11:u:page/none,
6:u:dept,
9:u:numeric,
14:u:none/numeric,
11:u:Real-Time,
14:u:numeric/none,
10:u:Systems,,
5:u:Dep,
4:u:t.,
10:u:realtime,
4:u:or,
9:u:systems,
4:u:24,
12:u:University,
5:u:Rea,
4:u:me,
5:u:ime,
6:u:Time,
4:u:Sy,
5:u:Sys,
6:u:Syst,
5:u:ms,,
12:u:university,
5:u:May,
15:u:University/of,
4:u:Un,
5:u:Uni,
6:u:Univ,
4:u:ty,
5:u:ity,
6:u:sity,
25:u:others/other/university,
7:u:1993.,
5:u:may,
4:u:Vi,
6:u:1993,
4:u:Ma,
19:u:others/other/_x+1,
6:u:Marc,
5:u:Mar,
26:u:others/proceedings/other,
6:u:Fast,
28:u:others/proceedings/initial,
4:u:Su,
5:u:san,
10:u:accurate,
4:u:Fa,
5:u:ast,
28:u:terminal/proceedings/other,
4:u:te,
5:u:ive,
6:u:tive,
10:u:analysis,
13:u:Proceedings,
3:u:p,
4:u:s.,
13:u:proceedings,
28:u:hyphen/proceedings/initial,
5:u:the,
16:u:In/Proceedings,
25:u:terminal/proceedings/in,
30:u:terminal/proceedings/initial,
16:u:Proceedings/of,
4:u:gs,
5:u:ngs,
6:u:ings,
32:u:others/proceedings/proceedings,
8:u:of/the,
5:u:ACM,
4:u:th,
4:u:he,
8:u:annual,
24:u:others/proceedings/the,
11:u:Symposium,
5:u:4th,
5:u:acm,
4:u:An,
11:u:symposium,
24:u:others/proceedings/all,
12:u:Principles,
4:u:AC,
12:u:principles,
13:u:Programming,
12:u:Languages,,
4:u:es,
5:u:les,
13:u:programming,
9:u:January,
11:u:languages,
7:u:1997.,
6:u:Prog,
9:u:january,
3:u:L,
4:u:La,
6:u:1997,
4:u:Ja,
5:u:Jan,
4:u:ry,
5:u:ary,
6:u:uary,
28:u:internal/proceedings/other,
4:u:7.,
25:u:others/proceedings/_x+1,
4:u:G.,
9:u:problem,
4:u:ut,
3:u::,
4:u:s:,
8:u:Center,
8:u:center,
10:u:Computer,
6:u:Aids,
4:u:Ce,
5:u:Cen,
6:u:Cent,
5:u:ter,
10:u:computer,
4:u:13,
6:u:aids,
12:u:Industrial,
6:u:uter,
14:u:Productivity,
4:u:Ai,
12:u:industrial,
14:u:productivity,
5:u:ial,
13:u:University,,
11:u:September,
4:u:5,,
7:u:1990.,
4:u:rs,
5:u:ers,
11:u:september,
4:u:y,,
5:u:ty,,
6:u:ity,,
6:u:1990,
4:u:Se,
5:u:Sep,
6:u:Sept,
5:u:ber,
6:u:mber,
26:u:internal/other/september,
19:u:_x-1/other/single,
3:u:E,
4:u:En,
4:u:Im,
18:u:others/other/the,
11:u:numerical,
4:u:ns,
5:u:ons,
6:u:ions,
8:u:in/the,
17:u:others/other/in,
8:u:Trans.,
7:u:Math.,
5:u:ns.,
6:u:ons.,
7:u:trans,
6:u:math,
4:u:Tr,
6:u:ans.,
5:u:Mat,
6:u:Math,
4:u:42,
4:u:17,
6:u:June,
5:u:Sof,
6:u:Soft,
4:u:.,,
5:u:2),,
6:u:june,
13:u:volume/page,
4:u:12,
4:u:6,,
6:u:1978,
39:u:internal-closing-parens/other/initial,
4:u:Ju,
5:u:Jun,
5:u:197,
4:u:8.,
5:u:78.,
3:u:j,
4:u:E.,
5:u:H.,,
4:u:J.,
3:u:&,
4:u:e,,
7:u:EMPTY,
4:u:D.,
4:u:K.,
30:u:internal/proceedings/initial,
3:u:k,
27:u:others/proceedings/single,
10:u:decision,
3:u:(,
4:u:(1,
5:u:(19,
6:u:(199,
4:u:).,
17:u:terminal-parens,
10:u:approach,
4:u:ic,
5:u:tic,
4:u:co,
15:u:International,
7:u:Joint,
15:u:international,
12:u:Conference,
5:u:Int,
6:u:Inte,
5:u:nal,
12:u:conference,
12:u:Artificial,
15:u:Intelligence,,
5:u:Con,
6:u:Conf,
4:u:ce,
5:u:nce,
6:u:ence,
12:u:artificial,
5:u:pp.,
14:u:intelligence,
26:u:Artificial/Intelligence,,
4:u:Ar,
5:u:Art,
6:u:Arti,
6:u:cial,
4:u:pp,
9:u:Sydney,,
5:u:ce,,
6:u:nce,,
4:u:p.,
11:u:page/page,
6:u:ney,,
4:u:Au,
27:u:internal/proceedings/_x+1,
4:u:S.,
4:u:Bo,
6:u:Book,
4:u:n,,
5:u:in,,
4:u:by,
4:u:wo,
5:u:nth,
6:u:enth,
10:u:Research,
4:u:SI,
10:u:research,
13:u:Development,
5:u:rch,
13:u:Information,
13:u:information,
11:u:retrieval,
23:u:others/proceedings/in,
5:u:Inf,
6:u:Info,
7:u:1995.,
5:u:Ret,
6:u:Retr,
4:u:l,,
6:u:1995,
14:u:page/numeric,
4:u:31,
4:u:7,,
14:u:numeric/year,
4:u:5.,
4:u:U.,
3:u:u,
4:u:Da,
4:u:Ka,
4:u:o,,
7:u:Third,
3:u:-,
4:u:Th,
4:u:rd,
10:u:database,
5:u:ge.,
17:u:others/other/on,
7:u:pages,
13:u:Washington,,
6:u:Data,
5:u:ges,
6:u:ages,
12:u:washington,
5:u:C.,,
4:u:Wa,
5:u:on,,
6:u:ton,,
18:u:internal/other/d,
4:u:Me,
4:u:m,,
5:u:em,,
15:u:communication,
3:u:",
7:u:quote,
6:u:Comm,
21:u:quote/other/initial,
14:u:Multiplexing,
11:u:Optically,
4:u:Pa,
16:u:Interconnected,
11:u:optically,
16:u:Multiprocessor,
16:u:interconnected,
11:u:Systems",,
3:u:O,
4:u:Op,
4:u:ly,
16:u:multiprocessor,
31:u:Interconnected/Multiprocessor,
5:u:ted,
4:u:",,
5:u:s",,
18:u:internal-unquote,
22:u:others/other/systems,
10:u:Proc./of,
4:u:1,,
5:u:ge,,
9:u:(1989).,
5:u:The,
6:u:(198,
5:u:9).,
11:u:year/none,
10:u:Systems.,
5:u:Dis,
5:u:ms.,
6:u:ems.,
7:u:IEEE,,
4:u:77,
6:u:ieee,
4:u:IE,
5:u:IEE,
6:u:IEEE,
4:u:E,,
8:u:double,
13:u:none/double,
16:u:double/numeric,
5:u:(1),
14:u:numeric/page,
17:u:internal-parens,
5:u:98.,
11:u:page/_x+1,
4:u:Sc,
5:u:Sch,
6:u:son,,
6:u:1994,
6:u:94).,
16:u:implementation,
29:u:terminal-parens/other/other,
10:u:learning,
5:u:sed,
4:u:le,
4:u:g.,
5:u:ng.,
6:u:ing.,
4:u:14,
4:u:4,,
4:u:1.,
5:u:E.,,
4:u:Hi,
4:u:No,
6:u:1987,
7:u:guide,
23:u:others/other/learning,
4:u:ca,
4:u:ex,
5:u:M.,,
5:u:Cam,
11:u:Efficient,
7:u:logic,
10:u:programs,
10:u:bulletin,
23:u:others/other/programs,
13:u:none/single,
16:u:single/numeric,
4:u:33,
4:u:Ch,
5:u:Cha,
10:u:Approach,
8:u:Theory,
6:u:Appr,
8:u:theory,
6:u:Theo,
6:u:ent.,
9:u:Machine,
11:u:Learning,,
19:u:Machine/Learning,,
5:u:Mac,
6:u:Mach,
7:u:1991.,
4:u:Le,
5:u:Lea,
6:u:Lear,
6:u:1991,
4:u:9,,
11:u:page/year,
36:u:internal-unquote/proceedings/other,
13:u:Distributed,
11:u:year/page,
4:u:15,
27:u:terminal/proceedings/_x+1,
4:u:Pe,
6:u:1988,
11:u:Reasoning,
11:u:reasoning,
13:u:Intelligent,
6:u:Reas,
13:u:intelligent,
10:u:networks,
8:u:morgan,
5:u:ce.,
5:u:Mor,
6:u:Morg,
5:u:Kau,
6:u:Kauf,
5:u:Li.,
4:u:He,
4:u:i.,
13:u:Processing,,
10:u:parallel,
12:u:processing,
5:u:Par,
6:u:Para,
4:u:el,
5:u:St.,
5:u:IL,,
9:u:charles,
8:u:August,
4:u:il,
8:u:august,
5:u:Aug,
6:u:Augu,
5:u:ust,
6:u:gust,
21:u:terminal/other/_x+1,
4:u:re,
10:u:National,
10:u:national,
4:u:Na,
5:u:San,
5:u:CA.,
4:u:72,
4:u:4.,
6:u:AAAI,
4:u:Sa,
8:u:Press.,
7:u:press,
26:u:internal/proceedings/all,
4:u:AA,
5:u:AAA,
4:u:AI,
27:u:terminal/proceedings/aaai,
5:u:Pre,
6:u:Pres,
8:u:editor,
8:u:Models,
8:u:models,
10:u:Advanced,
6:u:Mode,
10:u:advanced,
18:u:Morgan-Kaufmann,,
4:u:Ad,
5:u:Adv,
6:u:Adva,
14:u:applications,
16:u:morgankaufmann,
5:u:nn,,
6:u:ann,,
4:u:Bl,
5:u:Bla,
9:u:support,
9:u:Fortran,
9:u:fortran,
4:u:sy,
6:u:July,
6:u:july,
5:u:uly,
4:u:is,
13:u:definitions,
19:u:quote/other/other,
7:u:Conf.,
6:u:conf,
3:u:',
9:u:unquote,
23:u:unquote/other/initial,
5:u:Rec,
11:u:compilers,
9:u:methods,
5:u:Pra,
6:u:Prac,
6:u:John,
5:u:Met,
14:u:optimization,
6:u:john,
7:u:wiley,
7:u:1987.,
5:u:ns,,
6:u:ons,,
5:u:L.,,
4:u:as,
4:u:L.,
5:u:in:,
4:u:n:,
19:u:internal/other/in,
9:u:(eds.),,
7:u:Logic,
5:u:eds,
4:u:Mi,
5:u:Min,
4:u:(e,
5:u:(ed,
5:u:.),,
18:u:others/other/eds,
4:u:Lo,
5:u:Log,
6:u:Logi,
29:u:internal-parens/other/other,
8:u:Press,,
6:u:Base,
6:u:ses,,
7:u:York,,
5:u:ss,,
6:u:ess,,
6:u:york,
20:u:others/other/press,
11:u:New/York,,
20:u:internal/other/new,
3:u:Y,
4:u:Yo,
5:u:Yor,
6:u:York,
19:u:others/other/york,
4:u:I.,
4:u:t,,
5:u:nt,,
10:u:problems,
6:u:hard,
4:u:d.,
27:u:terminal/other/artificial,
27:u:others/other/intelligence,
6:u:time,
5:u:os.,
6:u:IROS,
5:u:'91,
4:u:91,
16:u:opening-parens,
5:u:n),,
5:u:D.,,
4:u:mi,
8:u:berlin,
6:u:1996,
14:u:numeric/_x+1,
7:u:Chern,
7:u:chern,
8:u:design,
6:u:Cher,
4:u:rn,
5:u:ern,
8:u:VLSI,",
6:u:vlsi,
4:u:,",
6:u:Vol.,
5:u:81,,
5:u:vol,
5:u:No.,
4:u:Vo,
5:u:Vol,
4:u:l.,
5:u:ol.,
4:u:no,
4:u:o.,
7:u:gupta,
8:u:memory,
11:u:Computing,
13:u:Conference,,
5:u:OR,,
7:u:April,
4:u:Po,
7:u:april,
5:u:Apr,
6:u:Apri,
5:u:ril,
6:u:pril,
7:u:David,
4:u:Ha,
7:u:david,
8:u:markov,
5:u:Dav,
6:u:Davi,
4:u:vo,
9:u:related,
13:u:statistical,
6:u:SAC-,
4:u:EE,
5:u:EEE,
6:u:1986,
4:u:6.,
4:u:i,,
4:u:o:,
16:u:specifications,
9:u:Journal,
9:u:Systems,
12:u:Journal/of,
5:u:Jou,
6:u:Jour,
6:u:rnal,
10:u:software,
4:u:3,,
11:u:knowledge,
6:u:edge,
5:u:exp,
4:u:Bi,
5:u:rd,,
6:u:ord,,
5:u:B.,,
4:u:O.,
5:u:ry,,
10:u:physical,
6:u:from,
4:u:".,
18:u:terminal-unquote,
32:u:terminal-unquote/other/initial,
4:u:43,
4:u:9.,
7:u:Using,
4:u:Do,
7:u:using,
9:u:Models,,
4:u:29,
7:u:J.-S.,
4:u:js,
13:u:variational,
6:u:Pang,
4:u:Fi,
4:u:va,
17:u:complementarity,
9:u:theory,,
12:u:algorithms,
15:u:applications.,
6:u:ory,,
14:u:Mathematical,
14:u:Programming,,
14:u:mathematical,
8:u:48(2),,
6:u:appl,
10:u:161-220,,
27:u:Mathematical/Programming,,
5:u:482,
5:u:20,,
5:u:A.,,
13:u:polynomials,
8:u:finite,
5:u:ite,
6:u:Soc.,
4:u:Am,
12:u:year-range,
17:u:none/year-range,
4:u:22,
4:u:Fe,
10:u:Symbolic,
10:u:symbolic,
4:u:27,
19:u:hyphen/other/_x+1,
11:u:Hennessy.,
5:u:Hen,
3:u:),
5:u:94),
8:u:parens,
22:u:parens/other/initial,
10:u:internet,
6:u:ACM,,
4:u:M,,
5:u:CM,,
4:u:37,
10:u:Kennedy,,
9:u:kennedy,
9:u:system.,
8:u:system,
5:u:21,,
10:u:Science,,
9:u:science,
5:u:Sci,
6:u:Scie,
22:u:others/other/science,
5:u:ne,,
6:u:ine,,
12:u:Scheduling,
12:u:scheduling,
6:u:Page,
5:u:Ros,
6:u:Rose,
16:u:Scheduling/and,
11:u:Operating,
11:u:operating,
5:u:CA,,
4:u:(A,
31:u:internal-parens/other/initial,
4:u:A,,
7:u:1994.,
9:u:october,
4:u:Oc,
5:u:Oct,
4:u:TR,
9:u:editor,,
8:u:Neural,
4:u:To,
8:u:neural,
12:u:Processing,
5:u:ll,,
6:u:1979,
10:u:planning,
25:u:hyphen/proceedings/_x+1,
5:u:es.,
9:u:SIGPLAN,
9:u:sigplan,
4:u:90,
9:u:Program,
10:u:Language,
9:u:program,
4:u:am,
17:u:Implementation,,
7:u:White,
9:u:Plains,,
7:u:white,
5:u:NY,,
6:u:ion,,
8:u:plains,
15:u:White/Plains,,
4:u:ny,
4:u:NY,
11:u:Execution,
4:u:Ti,
5:u:Tim,
5:u:Ana,
6:u:Anal,
10:u:Software,
13:u:Engineering,
7:u:Ltd.,,
15:u:York/Software,
4:u:rk,
5:u:ork,
13:u:engineering,
5:u:ltd,
5:u:Eng,
7:u:York:,
18:u:Ltd.,/University,
6:u:Ltd.,
6:u:Task,
10:u:of/York:,
6:u:task,
8:u:Volume,
13:u:single/none,
6:u:Volu,
5:u:ume,
6:u:lume,
10:u:contract,
5:u:act,
10:u:variable,
5:u:mic,
4:u:Va,
9:u:Lecture,
7:u:Notes,
9:u:lecture,
7:u:notes,
15:u:Lecture/Notes,
9:u:Science,
10:u:Notes/in,
5:u:Not,
6:u:Note,
13:u:in/Computer,
4:u:Sp,
5:u:Spr,
6:u:Spri,
5:u:ag,,
6:u:lag,,
8:u:Hughes,
9:u:Network,
9:u:DirecPC,
9:u:network,
6:u:Home,
6:u:work,
9:u:direcpc,
7:u:Page,,
6:u:Oct,,
7:u:1996.,
4:u:ht,
5:u:htt,
6:u:http,
5:u:url,
11:u:Anderson,,
10:u:anderson,
4:u:N.,
4:u:Be,
5:u:Ber,
4:u:F.,
4:u:k.,
14:u:Transactions,
14:u:Engineering,,
9:u:Methuen,
5:u:Co.,
13:u:Methuen/and,
10:u:temporal,
9:u:Series,,
32:u:internal-unquote/other/initial,
10:u:England,,
8:u:series,
6:u:Engl,
10:u:adaptive,
6:u:less,
5:u:ess,
8:u:Tokyo,,
6:u:ber,,
11:u:discovery,
11:u:empirical,
24:u:terminal/other/machine,
5:u:16,,
6:u:are.,
6:u:12th,
5:u:11,,
8:u:Murray,
8:u:murray,
5:u:NJ:,
6:u:AT&T,
14:u:Murray/Hill,,
4:u:nj,
5:u:Hil,
6:u:Hill,
12:u:Statistics,
12:u:statistics,
5:u:Lab,
12:u:department,
4:u:cs,
5:u:ics,
6:u:tics,
6:u:Depa,
4:u:V.,
10:u:protocol,
33:u:internal-unquote/proceedings/in,
6:u:13th,
14:u:Intelligence,
25:u:Artificial/Intelligence,
5:u:le,,
5:u:on:,
6:u:tech,
4:u:at,
5:u:via,
5:u:net,
4:u:ia,
7:u:(Vol.,
6:u:(pp.,
4:u:(V,
5:u:(Vo,
6:u:(Vol,
18:u:others/other/vol,
5:u:CO:,
5:u:5).,
30:u:opening-parens/other/initial,
5:u:Sub,
5:u:inc,
6:u:166,,
9:u:(1995).,
11:u:Research,,
5:u:in.,
5:u:art,
4:u:18,
5:u:CMU,
6:u:ley,,
7:u:simon,
14:u:Applications,
16:u:Communications,
19:u:Communications/of,
4:u:38,
14:u:Optimization,
17:u:others/other/by,
5:u:220,
8:u:triple,
13:u:none/triple,
7:u:Ph.D.,
9:u:thesis,,
5:u:phd,
8:u:thesis,
4:u:Ph,
5:u:Ph.,
6:u:Ph.D,
5:u:.D.,
6:u:h.D.,
21:u:unquote/other/other,
5:u:is,,
6:u:sis,,
7:u:march,
5:u:Mic,
8:u:Philip,
8:u:philip,
12:u:Simulation,
10:u:behavior,
5:u:che,
5:u:Beh,
6:u:Beha,
4:u:r:,
5:u:Fir,
6:u:Firs,
5:u:rst,
6:u:irst,
4:u:8,,
5:u:18,,
22:u:internal/other/april,
4:u:be,
10:u:modeling,
5:u:rep,
13:u:California.,
12:u:california,
5:u:(IJ,
6:u:(IJC,
4:u:v.,
11:u:databases,
9:u:Logical,
13:u:Foundations,
9:u:logical,
13:u:foundations,
10:u:Science.,
5:u:Fou,
12:u:Symposium,,
23:u:internal/other/volume,
19:u:Computer/Science,,
5:u:van,
5:u:Box,
16:u:in/Proceedings,
7:u:Barry,
12:u:Wilkinson,,
9:u:Digital,
8:u:System,
11:u:wilkinson,
9:u:digital,
10:u:Prentice,
16:u:Digital/System,
6:u:Hall,
6:u:hall,
5:u:Hal,
4:u:Er,
12:u:Department,
15:u:Department/of,
5:u:len,
11:u:submitted,
6:u:Subm,
26:u:terminal/other/submitted,
10:u:february,
5:u:rn,,
6:u:orn,,
5:u:MIT,
5:u:mit,
5:u:Don,
8:u:User's,
7:u:users,
6:u:SIAM,
15:u:Publications,,
6:u:User,
6:u:siam,
14:u:publications,
5:u:PA,,
20:u:SIAM/Publications,,
5:u:SIA,
4:u:AM,
5:u:IAM,
21:u:terminal/other/siam,
7:u:1979.,
4:u:Pu,
5:u:Pub,
6:u:Publ,
27:u:others/other/publications,
4:u:EM,
7:u:Royal,
13:u:Statistical,
7:u:royal,
9:u:Society,
5:u:Roy,
9:u:society,
10:u:Puschner,
7:u:Anton,
9:u:Schedl.,
7:u:anton,
6:u:tool,
6:u:case,
7:u:times,
20:u:others/other/times,
5:u:st,,
10:u:automata,
4:u:41,
17:u:interconnection,
11:u:networks.,
9:u:Applied,
9:u:applied,
9:u:appear.,
17:u:Applied/Optics,,
5:u:cs,,
6:u:ics,,
8:u:appear,
12:u:to/appear.,
6:u:appe,
12:u:multimedia,
5:u:dia,
3:u:/,
5:u:95,,
9:u:Thesis,,
22:u:Universiteit/Twente,,
13:u:netherlands,
8:u:Gupta.,
18:u:Characterization,
5:u:2nd,
11:u:Numerical,
15:u:Prentice-Hall,
8:u:Series,
14:u:prenticehall,
13:u:mathematics,
6:u:Inc,,
11:u:Englewood,
9:u:Cliffs,,
11:u:englewood,
5:u:Inc,
8:u:cliffs,
20:u:internal/other/inc,
9:u:Jersey,,
19:u:Englewood/Cliffs,,
10:u:obstacle,
7:u:1988.,
5:u:88.,
6:u:988.,
4:u:On,
11:u:semantics,
12:u:of/STRIPS.,
7:u:about,
9:u:Actions,
9:u:actions,
8:u:Plans:,
4:u:Ac,
7:u:plans,
4:u:86,
11:u:Reprinted,
11:u:reprinted,
10:u:Readings,
14:u:Reprinted/in,
6:u:Repr,
6:u:nted,
10:u:readings,
32:u:terminal/proceedings/reprinted,
11:u:Planning,,
8:u:Allen,,
14:u:in/Planning,,
7:u:allen,
8:u:convex,
13:u:Statistics,,
10:u:Norfolk,,
4:u:VA,
9:u:norfolk,
8:u:23529,,
5:u:Nor,
7:u:23529,
11:u:VA/23529,,
14:u:23529,/1993.,
4:u:23,
5:u:235,
6:u:2352,
5:u:29,,
6:u:529,,
20:u:others/other/23529,
19:u:and/Applications,,
11:u:amsterdam,
5:u:Aca,
5:u:Kar,
4:u:et,
4:u:.",
5:u:41,,
5:u:4),,
16:u:representation,
7:u:keane,
5:u:al.,
6:u:[4],,
8:u:et/al.,
3:u:[,
4:u:Ab,
17:u:Logic/Programs,,
18:u:Springer-Verlag,,
5:u:Val,
7:u:model,
4:u:Br,
10:u:Personal,
16:u:communication.,
10:u:personal,
25:u:Personal/communication.,
5:u:Per,
6:u:Pers,
7:u:Meyer,
10:u:mitchell,
8:u:lambda,
9:u:calculi,
9:u:summary,
8:u:parikh,
6:u:193,,
7:u:1985.,
6:u:Man,,
9:u:Special,
13:u:cybernetics,
7:u:Issue,
9:u:special,
7:u:issue,
15:u:Special/Issue,
10:u:Issue/on,
17:u:year-range/none,
8:u:./_x+1,
20:u:hyphen/other/EMPTY,
8:u:Random,
8:u:random,
16:u:factorization.,
11:u:Automata,,
9:u:(1996),,
5:u:auf,
7:u:Heide,
6:u:vol.,
4:u:Ed,
6:u:1099,
6:u:23rd,
7:u:ICALP,
7:u:icalp,
12:u:Paderborn,,
5:u:3rd,
11:u:paderborn,
24:u:Conference,/Paderborn,,
17:u:Paderborn,/July,
6:u:Pade,
32:u:internal/proceedings/paderborn,
10:u:Analysis,
11:u:Language.,
5:u:PhD,
21:u:others/other/thesis,
7:u:study,
5:u:989,
4:u:98,
5:u:no.,
9:u:Cooper,,
14:u:Ramamritham.,
13:u:ramamritham,
8:u:Dept.,,
16:u:Massachusetts,,
15:u:massachusetts,
19:u:of/Massachusetts,,
5:u:Mas,
6:u:Mass,
5:u:ts,,
6:u:tts,,
28:u:others/other/massachusetts,
5:u:Amh,
6:u:Amhe,
6:u:rst,,
24:u:internal/other/amherst,
10:u:Learning,
6:u:text,
4:u:e:,
10:u:queueing,
16:u:numeric/single,
8:u:Weber,,
6:u:Lind,
7:u:weber,
9:u:(1993).,
4:u:(E,
5:u:(Ed,
11:u:Behavior.,
20:u:Adaptive/Behavior.,
12:u:Cambridge,,
29:u:others/proceedings/behavior,
5:u:MA.,
12:u:MIT/Press,,
11:u:cambridge,
6:u:Camb,
4:u:MA,
9:u:detroit,
5:u:415,
7:u:their,
5:u:ch.,
7:u:Appl.,
5:u:25-,
5:u:32,,
15:u:addisonwesley,
5:u:Add,
6:u:Addi,
6:u:Lisp,
6:u:lisp,
12:u:Functional,
8:u:Keller,
7:u:Julie,
4:u:ie,
6:u:ised,
13:u:California,,
11:u:Berkeley,,
10:u:berkeley,
11:u:Published,
23:u:California,/Berkeley,,
6:u:Berk,
11:u:published,
25:u:internal/other/berkeley,
6:u:PARC,
11:u:CSL-84-5.,
8:u:csl845,
5:u:MA,,
26:u:internal/other/cambridge,
19:u:internal/other/ma,
26:u:terminal/proceedings/all,
14:u:Proceedings,,
5:u:gs,,
6:u:ngs,,
11:u:Knowledge,
9:u:The/MIT,
9:u:(Eds.).,
6:u:(Eds,
6:u:s.).,
8:u:Social,
8:u:social,
13:u:University.,
17:u:implementation.,
4:u:US,
13:u:publication,
4:u:pu,
5:u:pub,
6:u:publ,
26:u:others/other/publication,
25:u:others/proceedings/york,
14:u:environments,
6:u:21st,
6:u:VLDB,
13:u:Swizerland,,
12:u:swizerland,
21:u:Zurich,/Swizerland,,
8:u:Louis,,
7:u:Doron,
8:u:Rotem,,
7:u:doron,
6:u:Arie,
7:u:rotem,
11:u:Shoshani,,
6:u:arie,
13:u:Rotem,/Arie,
10:u:shoshani,
14:u:organization,
16:u:Arie/Shoshani,,
14:u:Definitions,,
15:u:Bibliography,,
19:u:and/Bibliography,,
6:u:323,,
6:u:Lazy,
6:u:lazy,
9:u:Richter,
9:u:(Eds.),,
8:u:Topics,
8:u:topics,
12:u:Case-Based,
12:u:Reasoning.,
11:u:Topics/in,
5:u:Top,
6:u:Topi,
11:u:casebased,
9:u:Berlin:,
7:u:eds.,,
20:u:internal/other/eds,
9:u:natural,
10:u:Academic,
11:u:New/York:,
6:u:Acad,
6:u:emic,
12:u:techniques,
17:u:multiprocessor.,
13:u:Measurement,
10:u:Modeling,
11:u:Sciences,,
5:u:43,,
10:u:sciences,
10:u:Hardware,
13:u:Description,
13:u:description,
6:u:Hard,
8:u:kluwer,
17:u:Kluwer/Academic,
12:u:publishers,
17:u:numeric/numeric,
4:u:Mc,
10:u:Compiler,
10:u:189-208.,
6:u:Also,
6:u:also,
8:u:(Allen,
5:u:08.,
9:u:Also/in,
6:u:al.,,
11:u:in/(Allen,
8:u:1990).,
11:u:(Allen/et,
5:u:(Al,
6:u:(All,
6:u:llen,
20:u:others/other/allen,
16:u:Contingencies:,
16:u:Decision-based,
15:u:decisionbased,
5:u:www,
10:u:url/_x+1,
13:u:Correctness,
13:u:correctness,
8:u:patent,
6:u:0054,
5:u:881,
8:u:digits,
13:u:none/digits,
7:u:under,
5:u:und,
10:u:Temporal,
4:u:S,,
12:u:Analysis",,
11:u:Software.,
16:u:IEEE/Software.,
16:u:Software./_x+1,
5:u:Van,
8:u:coding,
5:u:30,,
11:u:discourse,
5:u:le:,
6:u:Logo,
14:u:instruction.,
11:u:Discourse,
13:u:instruction,
12:u:Processes,,
11:u:processes,
10:u:183-201.,
22:u:Discourse/Processes,,
12:u:Francisco,,
6:u:Jan.,
10:u:Selected,
7:u:Areas,
10:u:selected,
7:u:areas,
16:u:Communication,,
13:u:volume/none,
10:u:preprint,
6:u:Prep,
6:u:int,,
10:u:machines,
5:u:28,,
6:u:King,
12:u:firstorder,
25:u:terminal/other/modeling,
6:u:273,,
6:u:1982,
9:u:London.,
17:u:Academic/Press,,
8:u:london,
9:u:Borman,,
9:u:Editor,,
10:u:``Telnet,
8:u:borman,
8:u:telnet,
11:u:Option,'',
5:u:Edi,
6:u:Edit,
17:u:Internet-Draft,,
10:u:Internet,
15:u:internetdraft,
8:u:Force,,
22:u:Internet/Engineering,
8:u:Telnet,
7:u:force,
9:u:Working,
7:u:Group,
9:u:working,
7:u:(July,
7:u:group,
4:u:(J,
5:u:(Ju,
6:u:(Jul,
19:u:others/other/july,
5:u:Meg,
10:u:practice,
15:u:specification,
10:u:Interval,
9:u:Logic",,
10:u:interval,
10:u:December,
10:u:december,
5:u:Bro,
6:u:self,
9:u:Invited,
10:u:lectures,
9:u:SemStat,
6:u:ited,
12:u:(Seminaire,
10:u:Europeen,
10:u:europeen,
14:u:Statistique,,
9:u:(1985).,
6:u:Paul,
11:u:Waterloo,,
10:u:waterloo,
20:u:Waterloo,/Ontario.,
5:u:ct.,
6:u:(3),,
10:u:document,
6:u:Carl,
6:u:diss,
9:u:pattern,
9:u:Pattern,
11:u:Generated,
11:u:generated,
14:u:Box/Splines,,
8:u:Livny.,
8:u:Condor,
8:u:condor,
10:u:Summary.,
7:u:Univ.,
6:u:univ,
18:u:wisconsinmadison,
8:u:forces,
11:u:Institute,
11:u:institute,
4:u:a:,
15:u:Institute/for,
9:u:Central,
9:u:central,
10:u:American,
10:u:american,
13:u:association,
10:u:floating,
6:u:(See,
5:u:see,
8:u:LAPACK,
5:u:See,
12:u:sequential,
6:u:9603,
12:u:(Submitted,
15:u:publication),,
16:u:(Submitted/for,
19:u:for/publication),,
12:u:Electrical,
26:u:publication),/Department,
6:u:on),,
11:u:Functions,
8:u:Having,
8:u:Global,
8:u:having,
8:u:global,
17:u:Global/Support,,
9:u:Clinger,
9:u:revised,
8:u:Thomas,
8:u:thomas,
24:u:Nearest-Hyperrectangle,
13:u:Algorithms.,
5:u:19,,
10:u:Toronto,,
9:u:toronto,
14:u:Negotiation.,
9:u:Harvard,
9:u:harvard,
7:u:1982.,
19:u:Cambridge,/Mass.,,
12:u:1982./_x+1,
5:u:82.,
6:u:982.,
21:u:internal/other/1982,
11:u:Inductive,
7:u:Anoop,
7:u:anoop,
7:u:order,
12:u:imperative,
12:u:Institute,,
5:u:K.,,
7:u:Human,
7:u:human,
12:u:Publishing,
10:u:Company,,
12:u:publishing,
9:u:London,,
9:u:company,
15:u:Massachusets,,
14:u:massachusets,
26:u:Cambridge,/Massachusets,,
7:u:child,
6:u:102.,
5:u:102,
13:u:double/none,
9:u:william,
7:u:Inc.,,
10:u:edition,,
9:u:edition,
8:u:effect,
6:u:Karl,
4:u:Ot,
4:u:we,
9:u:dynamic,
6:u:IFIP,
6:u:ifip,
10:u:concepts,
5:u:Ed.,
14:u:northholland,
6:u:Co.,,
6:u:Nort,
4:u:(P,
9:u:glasgow,
10:u:985-987.,
8:u:985987,
23:u:Engineering,/985-987.,
18:u:985-987./Special,
5:u:985,
6:u:985-,
23:u:internal/other/985987,
11:u:Discovery,
14:u:construction,
5:u:40,,
5:u:Two,
12:u:networking,
5:u:se.,
8:u:77-84.,
10:u:Physical,
13:u:Laboratory.,
12:u:laboratory,
22:u:Physical/Laboratory.,
10:u:Minsky`s,
7:u:(ed.),
9:u:minskys,
10:u:Semantic,
16:u:Minsky`s/(ed.),
6:u:Mins,
4:u:`s,
5:u:y`s,
6:u:ky`s,
10:u:semantic,
28:u:others/proceedings/minskys,
4:u:.),
6:u:ed.),
10:u:Brachman,
17:u:Representation,,
9:u:english,
5:u:Sun,
12:u:stochastic,
14:u:algorithms",,
11:u:Damgaard,,
7:u:in/P.,
10:u:damgaard,
11:u:Graphical,
6:u:Mark,
6:u:Redo,
7:u:after,
9:u:Ullman.,
12:u:Compilers:,
13:u:Principles,,
13:u:Techniques,,
8:u:Tools.,
17:u:Addison-Wesley,,
7:u:tools,
8:u:second,
17:u:second/edition,,
5:u:sec,
7:u:space,
10:u:graphics,
4:u:OC,
8:u:Review,
8:u:review,
5:u:Rev,
6:u:Revi,
10:u:Stanford,
7:u:FLASH,
10:u:stanford,
7:u:flash,
6:u:Unit,
9:u:Project,
9:u:project,
10:u:Wagener.,
11:u:Handbook.,
14:u:McGraw-Hill,,
10:u:handbook,
6:u:ook.,
5:u:McG,
6:u:McGr,
6:u:Ruth,
6:u:ruth,
12:u:retrieval.,
10:u:Jean-Luc,
9:u:Vidick,,
9:u:jeanluc,
13:u:In/Jean-Luc,
8:u:vidick,
17:u:Vidick,/editor,,
4:u:50,
13:u:Determinant,
10:u:Problem,,
17:u:Information/and,
10:u:Germany.,
9:u:germany,
12:u:(NIPS*92),,
8:u:nips92,
10:u:855-862,,
14:u:5/(NIPS*92),,
8:u:Hudak,,
7:u:Simon,
8:u:Peyton,
7:u:hudak,
8:u:peyton,
8:u:Wadler,
12:u:(Editors).,
8:u:wadler,
10:u:Haskell,,
9:u:haskell,
8:u:change,
5:u:MA:,
20:u:Change./Cambridge,,
4:u:A:,
10:u:Benthem,,
9:u:benthem,
14:u:van/Benthem,,
11:u:parallels,
9:u:MacKay,,
11:u:presented,
4:u:97,
18:u:Thermomechanical,
14:u:Processing),,
18:u:thermomechanical,
31:u:Thermomechanical/Processing),,
26:u:terminal/proceedings/acm,
11:u:available,
5:u:WWW,
4:u:Av,
5:u:Ava,
6:u:Avai,
9:u:gaudiot,
9:u:Gaudiot,
9:u:Lubomir,
6:u:Bic,,
9:u:lubomir,
10:u:November,
10:u:november,
5:u:Nov,
6:u:Nove,
6:u:Dec.,
4:u:95,
14:u:Cybernetics:,
13:u:Scheduling,,
10:u:Triggers,
12:u:Transition,
9:u:Graphs.,
12:u:transition,
7:u:henry,
6:u:131.,
5:u:ll.,
4:u:d:,
7:u:#296,,
9:u:lincoln,
6:u:labs,
6:u:Linc,
22:u:others/other/lincoln,
9:u:virtual,
6:u:SPIE,
7:u:1993,,
9:u:Masters,
9:u:masters,
17:u:Masters/Thesis,,
6:u:Mast,
5:u:ham,
11:u:Byzantine,
5:u:Bad,
14:u:Honnef/Bonn,,
5:u:bad,
12:u:honnefbonn,
18:u:Bad/Honnef/Bonn,,
23:u:others/other/practice,
11:u:November,,
7:u:Utah,,
6:u:utah,
9:u:Medical,
6:u:Utah,
12:u:Biophysics,
9:u:medical,
12:u:biophysics,
6:u:Salt,
6:u:Lake,
16:u:and/Computing,,
6:u:salt,
7:u:City,,
6:u:lake,
11:u:Salt/Lake,
6:u:city,
12:u:Lake/City,,
18:u:specifications",,
7:u:Draft,
8:u:Paper,,
7:u:draft,
7:u:paper,
14:u:Draft/Paper,,
6:u:B39,,
11:u:Concepts.,
10:u:Progress,
10:u:progress,
14:u:Recognition,,
13:u:Progress/in,
7:u:Tech.,
6:u:ech.,
7:u:Voice,
12:u:Annotation,
12:u:annotation,
9:u:Virtual,
15:u:Environments,,
8:u:Stone,,
8:u:Kernel,
8:u:kernel,
7:u:Audio,
7:u:audio,
8:u:Video,,
7:u:video,
12:u:and/Video,,
4:u:3D,
11:u:Modeling,,
24:u:Ramamritham./Modeling,,
23:u:Modeling,/Correctness,
9:u:effect.,
6:u:ect.,
10:u:AAAI-91.,
7:u:AAAI.,
8:u:aaai91,
16:u:AAAI-91./AAAI.,
12:u:AAAI./_x+1,
5:u:AI.,
6:u:AAI.,
8:u:speech,
12:u:evaluation,
11:u:Networked,
5:u:r).,
5:u:F.,,
14:u:populations.,
10:u:Bulletin,
5:u:29.,
10:u:Context,,
8:u:Focus,,
6:u:[Jan,
15:u:opening-brace,
13:u:Charleston,,
12:u:charleston,
8:u:71-84.,
18:u:Charleston,/ACM,,
6:u:7184,
13:u:qualitative,
6:u:rep.,
5:u:87,,
4:u:Ir,
6:u:Map.,
15:u:Construction,,
9:u:speech.,
9:u:SPLASH:,
14:u:Anoop/Gupta.,
8:u:splash,
5:u:201,
8:u:Bonnie,
6:u:Lynn,
8:u:bonnie,
6:u:Eric,
12:u:Mays,/Eric,
5:u:Eri,
5:u:ric,
27:u:internal/proceedings/eric,
12:u:Karlsruhe.,
11:u:karlsruhe,
10:u:650-652.,
26:u:Intelligence,/Karlsruhe.,
18:u:Karlsruhe./pages,
5:u:he.,
6:u:uhe.,
8:u:650652,
32:u:internal/proceedings/karlsruhe,
10:u:Machines,
11:u:Machines.,
14:u:Northwestern,
4:u:(2,
9:u:Michael,
9:u:michael,
6:u:Goh,,
8:u:Spyros,
13:u:Potamianos.,
8:u:spyros,
12:u:potamianos,
8:u:rules,,
20:u:Spyros/Potamianos.,
9:u:Stephen,
9:u:stephen,
11:u:Wadsworth,
11:u:wadsworth,
9:u:Brooks.,
8:u:brooks,
6:u:Micr,
7:u:italy,
6:u:Nick,
11:u:universal,
12:u:hypermedia,
13:u:Educational,
12:u:Multimedia,
13:u:educational,
16:u:of/Educational,
13:u:Hypermedia,,
24:u:Educational/Multimedia,
6:u:2(1),
16:u:Multimedia/and,
8:u:39-66,,
5:u:Ron,
5:u:CMS,
5:u:om.,
5:u:33,,
5:u:Los,
5:u:416,
6:u:429,,
5:u:429,
7:u:Study,
11:u:Volume/E,,
6:u:Ltd,,
5:u:VI,,
4:u:60,
7:u:James,
7:u:james,
6:u:Rpt.,
8:u:Kansas,
8:u:kansas,
23:u:Isomor-phism/Theorem,,
7:u:games,
8:u:Markov,
5:u:ved,
14:u:dissertation,
29:u:terminal/other/dissertation,
18:u:STAN-CS-92-1462,,
14:u:stancs921462,
12:u:Electronic,
12:u:electronic,
14:u:Multivariate,
13:u:Statistics.,
14:u:multivariate,
13:u:Chichester:,
12:u:chichester,
25:u:Statistics./Chichester:,
20:u:Chichester:/Wiley.,
5:u:er:,
6:u:ter:,
27:u:terminal/other/chichester,
5:u:ACA,
6:u:ton:,
13:u:Uncorrected,
10:u:Variable,
12:u:Assignment,
8:u:Signal,
8:u:signal,
5:u:um.,
6:u:aum.,
12:u:Biomedical,
6:u:1808,
9:u:section,
9:u:theory.,
8:u:McGraw,
8:u:mcgraw,
14:u:McGraw/Hill,,
15:u:Massachusetts,
19:u:Massachusetts/and,
30:u:internal/other/massachusetts,
13:u:and/London,,
8:u:Keane,,
9:u:Padraig,
13:u:Cunningham,,
9:u:padraig,
6:u:Mike,
12:u:cunningham,
8:u:Brady,,
6:u:mike,
7:u:brady,
19:u:University/Press,,
13:u:enumeration,
10:u:methods.,
10:u:Handbook,
16:u:Combinatorics,,
15:u:combinatorics,
9:u:Graham,,
19:u:of/Combinatorics,,
14:u:Coordination,
14:u:Algorithms",,
8:u:Ferris,
8:u:ferris,
6:u:35th,
9:u:meeting,
8:u:steven,
14:u:nonmonotonic,
12:u:scientific,
5:u:PDP,
5:u:pdp,
11:u:universe.,
10:u:universe,
13:u:Networking:,
24:u:Electronic/Networking:,
9:u:Policy,,
7:u:About,
8:u:Plans,,
11:u:analyses,,
10:u:analyses,
10:u:interact,
13:u:INTERACT/90,
6:u:1-5,,
6:u:T3D.,
21:u:others/other/center,
5:u:try,
6:u:etry,
8:u:factor,
6:u:13a.,
5:u:(G.,
15:u:(G./Geymonat,,
5:u:ed.,
19:u:internal/other/ed,
11:u:factoring,
8:u:fields,
7:u:world,
8:u:model.,
7:u:Patt.,
7:u:Anal.,
15:u:Introduction.,
13:u:Perception,,
12:u:perception,
10:u:391-410.,
19:u:Human/Perception,,
6:u:Meta,
17:u:others/other/ed,
5:u:19.,
5:u:von,
14:u:Nonmonotonic,
11:u:TR-96-66,,
11:u:Graphics:,
20:u:Computer/Graphics:,
11:u:Practice,,
10:u:992-996,,
15:u:and/Practice,,
8:u:smooth,
6:u:1998,
5:u:ed,,
6:u:998.,
21:u:internal/other/1998,
7:u:[24],,
9:u:chapter,
10:u:In/[24],,
10:u:220-263.,
12:u:chapter/7,,
11:u:Approach.,
7:u:tioga,
6:u:Palo,
6:u:1-4,,
15:u:Microsystems.,
6:u:Java,
7:u:(tm):,
19:u:Sun/Microsystems.,
5:u:sun,
14:u:microsystems,
6:u:java,
27:u:others/other/microsystems,
12:u:Java/(tm):,
5:u:Jav,
5:u:ava,
21:u:terminal/other/java,
4:u:):,
11:u:Internet.,
22:u:http://java.sun.com.,
16:u:httpjavasuncom,
32:u:Internet./http://java.sun.com.,
27:u:http://java.sun.com./_x+1,
6:u:com.,
31:u:terminal/other/httpjavasuncom,
12:u:Hillsdale,,
11:u:hillsdale,
10:u:Erlbaum.,
9:u:erlbaum,
15:u:Erlbaum./_x+1,
5:u:Erl,
6:u:Erlb,
7:u:Bled,,
11:u:Slovenia.,
6:u:bled,
19:u:Programming/Bled,,
10:u:slovenia,
17:u:Bled,/Slovenia.,
5:u:Ble,
6:u:Bled,
6:u:led,,
25:u:others/proceedings/bled,
11:u:Evolution,
9:u:Baldwin,
9:u:baldwin,
14:u:evolutionary,
8:u:verbal,
9:u:Married,
9:u:Couple.,
8:u:couple,
11:u:Lawrence,,
11:u:of/Kansas,
22:u:Kansas/Publications,,
10:u:lawrence,
5:u:Irw,
6:u:Irwi,
10:u:131-138.,
10:u:Society,,
15:u:PABS-Methode.,
16:u:Projektarbeit,,
13:u:Universitat,
15:u:projektarbeit,
17:u:Kaiserslautern.,
13:u:universitat,
16:u:kaiserslautern,
29:u:Universitat/Kaiserslautern.,
12:u:Fourteenth,
12:u:fourteenth,
13:u:WG6.1/WG6.4,
23:u:implementation./First,
12:u:First/IFIP,
10:u:wg61wg64,
22:u:terminal/other/first,
8:u:CONVEX,
14:u:Corporation,,
11:u:"Exemplar,
13:u:corporation,
23:u:Computer/Corporation,,
10:u:exemplar,
15:u:polymorphism.,
13:u:Computation,
8:u:accent,
11:u:synthetic,
4:u:pi,
11:u:Davidson,,
10:u:davidson,
10:u:Toronto.,
5:u:ale,
8:u:Papers,
10:u:Regional,
9:u:Chicago,
9:u:chicago,
5:u:IL.,
15:u:Resolutions,",
9:u:Fields:,
5:u:(R.,
13:u:the/special,
15:u:special/issue,
10:u:issue/on,
9:u:on/Lazy,
15:u:Lazy/Learning,
13:u:Learning/in,
9:u:Review.,
15:u:in/Artificial,
22:u:Intelligence/Review.,
5:u:Las,
6:u:Last,
16:u:Pericak-Vance.,
14:u:Confirmation,
14:u:pericakvance,
5:u:5q.,
5:u:Am.,
5:u:269,
9:u:Revised,
24:u:terminal/other/revised,
6:u:From,
12:u:difference,
5:u:566,
12:u:volume/566,
10:u:Detroit,,
5:u:MI.,
14:u:Detroit,/MI.,
16:u:Resource-Bound,
15:u:resourcebound,
20:u:Real-Time/Systems.,
8:u:82(1),,
19:u:IEEE/Proceedings,,
5:u:821,
12:u:Australian,
12:u:australian,
12:u:Melbourne,,
11:u:melbourne,
6:u:2001,
5:u:(20,
6:u:(200,
9:u:therapy,
5:u:DC:,
14:u:Association.,
8:u:health,
9:u:(2005).,
6:u:2005,
17:u:Person-Centered,
16:u:personcentered,
6:u:2004,
15:u:personcentred,
8:u:(Eds.),
16:u:Person-Centred,
6:u:PCCS,
6:u:Ross,
5:u:ye:,
6:u:Wye:,
26:u:terminal/other/rossonwye,
13:u:PCCS/Books.,
7:u:would,
8:u:Rogers,
6:u:carl,
8:u:rogers,
13:u:Carl/Rogers,
6:u:2000,
14:u:experiential,
15:u:psychotherapy,
8:u:Velha:,
6:u:Vale,
7:u:velha,
10:u:a/Velha:,
6:u:vale,
8:u:Vale/&,
21:u:internal/other/vale,
16:u:psychotherapy.,
11:u:research.,
9:u:London:,
10:u:emotions,
19:u:Lawrence/Erlbaum.,
12:u:expression,
12:u:dialogical,
6:u:2003,
9:u:89-98).,
6:u:lind,
5:u:US:,
12:u:suggestion,
5:u:cia,
14:u:Dissertation,
11:u:Abstracts,
16:u:International:,
11:u:abstracts,
9:u:Section,
24:u:Dissertation/Abstracts,
6:u:Diss,
4:u:B:,
14:u:Experiential,
9:u:Sanders,
7:u:(Ed.),
8:u:Tribes,
8:u:tribes,
12:u:The/Tribes,
11:u:Tribes/of,
9:u:Nation:,
20:u:the/Person-Centred,
8:u:nation,
7:u:Guide,
24:u:Person-Centred/Nation:,
9:u:Schools,
9:u:A/Guide,
10:u:Guide/to,
9:u:schools,
9:u:Therapy,
12:u:to/Schools,
9:u:Related,
10:u:Talahite,
10:u:Counsels,
10:u:counsels,
7:u:Black,
9:u:Client:,
7:u:black,
6:u:Race,
8:u:client,
6:u:Blac,
6:u:(2nd,
7:u:ed.).,
5:u:(2n,
18:u:others/other/2nd,
10:u:focusing,
8:u:Warner,
8:u:warner,
6:u:2006,
11:u:approach:,
8:u:agenda,
8:u:mental,
5:u:men,
8:u:Mental,
8:u:Health,
13:u:reflections,
18:u:Psychotherapies,,
5:u:144,
9:u:(2003).,
5:u:re:,
10:u:64(6-A),,
6:u:646a,
16:u:64(6-A),/1983.,
12:u:philosophy,
9:u:(Eugene,
8:u:eugene,
11:u:Gendlin).,
9:u:gendlin,
7:u:adult,
11:u:childhood,
7:u:abuse,
10:u:Thinking,
7:u:edge:,
15:u:philosophical,
5:u:NP.,
12:u:Nathaniel.,
12:u:Hawthorne:,
7:u:Tales,
11:u:hawthorne,
7:u:tales,
11:u:Sketches.,
8:u:Edited,
8:u:edited,
11:u:Edited/by,
5:u:roy,
23:u:terminal/other/edited,
9:u:library,
10:u:America,,
9:u:america,
13:u:of/America,,
12:u:Abjection.,
11:u:abjection,
10:u:Columbia,
10:u:columbia,
16:u:York:/Columbia,
21:u:Columbia/University,
14:u:Press,/1982.,
12:u:afterword.,
10:u:Chicago:,
11:u:afterword,
21:u:Chicago:/University,
7:u:2003.,
16:u:Chicago/Press,,
14:u:Press,/2003.,
5:u:200,
12:u:Routledge,,
12:u:translated,
8:u:Donald,
18:u:Nicholson-Smith.,
8:u:donald,
9:u:Oxford:,
8:u:oxford,
5:u:rd:,
6:u:ord:,
23:u:terminal/other/oxford,
26:u:internal/other/blackwell,
7:u:Colli,
11:u:Montinari,
10:u:Mazzino.,
11:u:montinari,
9:u:mazzino,
11:u:Kritische,
17:u:Studienausgabe.,
11:u:kritische,
16:u:studienausgabe,
27:u:Kritische/Studienausgabe.,
6:u:1999,
8:u:women,,
10:u:Leonard.,
9:u:leonard,
15:u:John/Leonard.,
8:u:Keith,,
11:u:Flâneur.,
10:u:flâneur,
15:u:The/Flâneur.,
10:u:William.,
7:u:Texts,
6:u:four,
8:u:(1798,,
7:u:1799,,
6:u:1798,
7:u:1805,,
6:u:1799,
8:u:1850).,
6:u:1805,
12:u:literature,
21:u:American/Literature,
5:u:194,
8:u:Kurtz.,
9:u:‘Mary,
9:u:Rogers,,
12:u:Others’.,
5:u:Oth,
6:u:Othe,
5:u:3/4,
10:u:Reprint,,
14:u:illustrated.,
9:u:reprint,
14:u:Bloomington:,
13:u:illustrated,
8:u:Idiana,
23:u:Reprint,/illustrated.,
13:u:bloomington,
7:u:iliad,
6:u:4th.,
20:u:Erscheinungsformen,
12:u:Deutungen.,
11:u:deutungen,
11:u:expanded.,
20:u:Deutungen./Revised,
11:u:München:,
13:u:Revised/and,
10:u:expanded,
10:u:Prestel,,
15:u:and/expanded.,
10:u:münchen,
21:u:expanded./München:,
6:u:expa,
6:u:ded.,
9:u:prestel,
23:u:others/other/expanded,
7:u:Ovid.,
17:u:Metamorphoseon.,
23:u:Ovid./Metamorphoseon.,
6:u:ovid,
16:u:metamorphoseon,
24:u:Metamorphoseon./Edited,
6:u:eon.,
31:u:terminal/other/metamorphoseon,
12:u:by/Michael,
15:u:Reclam,/1994.,
6:u:Recl,
6:u:lam,,
23:u:internal/other/reclam,
6:u:2010,
12:u:Chronotope,
12:u:chronotope,
11:u:Novel’.,
7:u:novel,
10:u:dialogic,
14:u:imagination:,
13:u:imagination,
9:u:essays,,
8:u:essays,
14:u:four/essays,,
10:u:holquist,
7:u:Caryl,
9:u:Emerson,
7:u:caryl,
15:u:interpolating,
10:u:splines,,
6:u:R.E.,
10:u:Barnhill,
10:u:barnhill,
7:u:Aided,
11:u:Geometric,
7:u:aided,
11:u:geometric,
6:u:ed.,,
11:u:Macmillan,
11:u:macmillan,
7:u:1872.,
6:u:1872,
4:u:].,
6:u:ISBN,
6:u:isbn,
5:u:2):,
5:u:doi,
6:u:doi:,
7:u:Lloyd,
5:u:A.;,
6:u:(2).,
8:u:Green,,
9:u:(2009).,
5:u:"We,
7:u:green,
6:u:2009,
6:u:Need,
12:u:T./(2009).,
13:u:(2009)./"We,
6:u:09).,
6:u:need,
21:u:terminal/other/2009,
11:u:Standards,
11:u:standards,
11:u:Retrieved,
11:u:retrieved,
23:u:Retrieved/2010-08-07.,
6:u:eved,
8:u:2/ed.,,
11:u:Cambridge,
22:u:Cambridge/University,
4:u:BP,
17:u:Interpolation",,
10:u:Recipes:,
9:u:recipes,
20:u:Numerical/Recipes:,
12:u:Scientific,
6:u:(3rd,
8:u:haykin,
9:u:(1999).,
12:u:Foundation,
7:u:Upper,
8:u:Saddle,
8:u:River,,
8:u:saddle,
14:u:Upper/Saddle,
7:u:river,
13:u:Irwin./ISBN,
6:u:win.,
12:u:1557388113,
22:u:internal/other/irwin,
10:u:Kellert,,
9:u:kellert,
6:u:Wake,
6:u:wake,
8:u:Chaos:,
15:u:Unpredictable,
7:u:chaos,
7:u:Order,
15:u:unpredictable,
6:u:Chao,
11:u:Dynamical,
11:u:dynamical,
10:u:Kyrtsou,,
11:u:approach,,
8:u:Trends,
8:u:trends,
13:u:aftershocks,
9:u:College,
9:u:college,
10:u:Imperial,
13:u:of/Science,,
10:u:imperial,
5:u:pic,
9:u:viscous,
10:u:liquid".,
9:u:Doklady,
8:u:liquid,
10:u:Akademii,
9:u:doklady,
6:u:Nauk,
10:u:akademii,
6:u:SSSR,
18:u:Doklady/Akademii,
6:u:nauk,
9:u:Abraham,
9:u:abraham,
5:u:Abr,
6:u:Abra,
6:u:aham,
7:u:World,
10:u:Chapters,
9:u:hanover,
10:u:Concord,,
9:u:concord,
14:u:Concord,/New,
24:u:terminal/other/concord,
6:u:ire:,
6:u:1961,
5:u:546,
5:u:272,
5:u:368,
12:u:Heinz-Otto,
9:u:Peitgen,
9:u:Dietmar,
20:u:Heinz-Otto/Peitgen,
11:u:heinzotto,
9:u:peitgen,
7:u:Saupe,
9:u:dietmar,
9:u:Fractal,
9:u:Images,,
9:u:fractal,
5:u:312,
11:u:Sciences:,
6:u:2013,
5:u:Lux,
5:u:(M.,
9:u:Stiles,,
7:u:Eds.),
19:u:Person-Centered/&,
7:u:Henry,
8:u:James,,
14:u:“Nathaniel,
15:u:Hawthorne,”,
14:u:Henry/James,,
10:u:Literary,
12:u:Criticism:,
10:u:literary,
8:u:Essays,
11:u:criticism,
13:u:Literature,,
10:u:Writers,,
9:u:English,
9:u:writers,
9:u:Writers,
6:u:(New,
6:u:427,,
6:u:426.,
5:u:427,
5:u:426,
12:u:Europeans,,
9:u:Novels,,
16:u:The/Europeans,,
13:u:1871–1880,
8:u:novels,
12:u:in/Novels,,
10:u:18711880,
21:u:Novels,/1871–1880,
10:u:Lincoln,,
10:u:Speeches,
18:u:Abraham/Lincoln,,
10:u:speeches,
11:u:Writings,,
5:u:ln,,
6:u:oln,,
14:u:1832–1858,,
10:u:writings,
10:u:18321858,
24:u:Writings,/1832–1858,,
14:u:Fehrenbacher,
7:u:2004.,
5:u:nny,
6:u:enny,
8:u:Fenner,
10:u:Fenner/M,
8:u:fenner,
12:u:Available:,
6:u:ble:,
26:u:terminal/other/available,
12:u:Quarterly.,
11:u:quarterly,
22:u:Standards/Quarterly.,
6:u:2008,
10:u:"Charles,
8:u:Hise.",
13:u:"Charles/R.,
8:u:R./Van,
6:u:hise,
12:u:Wikipedia.,
11:u:wikipedia,
10:u:modified,
15:u:In/Wikipedia.,
6:u:last,
15:u:Last/modified,
21:u:terminal/other/last,
7:u:2013.,
5:u:CIA,
11:u:Factbook.,
11:u:CIA/World,
10:u:factbook,
9:u:Agency,,
7:u:2009.,
8:u:agency,
22:u:Intelligence/Agency,,
10:u:Business,
7:u:2006.,
17:u:houghtonmifflin,
10:u:257-263.,
25:u:York:/Houghton-Mifflin,,
25:u:Houghton-Mifflin,/2006.,
5:u:Hou,
8:u:257263,
12:u:Frontier.",
8:u:Times,,
7:u:2008.,
12:u:2008./_x+1,
6:u:008.,
21:u:internal/other/2008,
11:u:Marshall,,
7:u:Nancy,
7:u:Rose.,
10:u:marshall,
7:u:nancy,
6:u:rose,
13:u:Nancy/Rose.,
8:u:Joseph,
14:u:Rose./Review,
6:u:ose.,
19:u:others/other/rose,
9:u:Glasgow,
7:u:Boys.,
12:u:Cambridge:,
22:u:Cambridge:/Cambridge,
6:u:sec.,
5:u:1A,,
12:u:Provincial,
12:u:provincial,
11:u:950-1100.,
9:u:9501100,
21:u:Reprint,/Cambridge:,
14:u:Press,/2008.,
14:u:Shakespeare,,
10:u:Othello.,
11:u:Milwaukee,
13:u:shakespeare,
9:u:othello,
11:u:Repertory,
19:u:William./Othello.,
11:u:milwaukee,
10:u:Theater,,
20:u:Othello./Milwaukee,
5:u:lo.,
6:u:llo.,
11:u:repertory,
24:u:terminal/other/othello,
12:u:Milwaukee,,
21:u:Milwaukee/Repertory,
9:u:theater,
20:u:Repertory/Theater,,
13:u:Soderbergh,,
9:u:Steven,,
11:u:director.,
6:u:Che.,
21:u:Soderbergh,/Steven,,
12:u:soderbergh,
10:u:director,
6:u:DVD.,
19:u:Steven,/director.,
5:u:dvd,
11:u:Che./DVD.,
20:u:terminal/other/che,
11:u:Criterion,
10:u:DVD./New,
4:u:DV,
5:u:DVD,
5:u:VD.,
20:u:terminal/other/dvd,
8:u:United,
8:u:united,
12:u:"Sincerity,
11:u:(February,
26:u:Objectification."/Poetry,
8:u:1931):,
6:u:Poet,
22:u:unquote/other/poetry,
6:u:269.,
14:u:37/(February,
17:u:others/other/37,
8:u:Quoted,
8:u:quoted,
11:u:Costello,,
10:u:Marianne,
10:u:costello,
8:u:Moore:,
10:u:marianne,
11:u:Imaginary,
7:u:moore,
13:u:Possessions,
13:u:(Cambridge:,
10:u:Carroll,,
11:u:Elizabeth,
13:u:(Director).,
14:u:Davidson,/J.,
16:u:J./(Director).,
6:u:or).,
9:u:skinner,
7:u:fresh,
11:u:appraisal,
9:u:[Motion,
11:u:picture].,
8:u:motion,
9:u:picture,
9:u:States:,
19:u:[Motion/picture].,
4:u:[M,
5:u:[Mo,
6:u:[Mot,
21:u:others/other/motion,
6:u:pict,
8:u:states,
16:u:United/States:,
28:u:closing-brace/other/united,
29:u:closing-brace/other/initial,
7:u:FITNE,
13:u:(Producer).,
7:u:Nurse,
19:u:FITNE/(Producer).,
7:u:fitne,
10:u:producer,
5:u:(Pr,
6:u:(Pro,
10:u:Chaffin,,
14:u:(Producers),,
11:u:producers,
10:u:Fincher,,
9:u:fincher,
9:u:(2008).,
13:u:Fincher,/D.,
16:u:D./(Director).,
7:u:Bros.,
11:u:Pictures.,
6:u:bros,
14:u:Warner/Bros.,
10:u:pictures,
17:u:Bros./Pictures.,
9:u:Barron,,
9:u:Heyman,,
8:u:barron,
8:u:heyman,
8:u:prince,
10:u:Kingdom:,
9:u:kingdom,
17:u:United/Kingdom:,
8:u:Moore,,
20:u:(Writer/Director).,
11:u:Moore,/M.,
16:u:writerdirector,
9:u:Bowling,
23:u:M./(Writer/Director).,
4:u:AV,
6:u:Gale,
14:u:encyclopedia,
11:u:disorders,
6:u:28).,
10:u:England:,
23:u:Research/Association.,
6:u:Aged,
6:u:ACT:,
19:u:depression,/1998.,
10:u:canberra,
12:u:psychology,
14:u:Sociological,
6:u:held,
8:u:Monash,
8:u:monash,
6:u:7-10,
5:u:710,
11:u:281-289).,
12:u:Churchill,,
11:u:Victoria:,
11:u:churchill,
8:u:Celts.,
10:u:victoria,
7:u:celts,
8:u:(2006,,
7:u:Paper,
10:u:Vehicles,
10:u:vehicles,
8:u:Ellis,,
7:u:ellis,
13:u:Utah,/1988.,
27:u:internal/proceedings/1988,
16:u:Retrieved/from,
26:u:terminal/other/retrieved,
16:u:retrieved/none,
9:u:Empathy,
17:u:mental/illness.,
6:u:194.,
7:u:2010,,
5:u:AU.,
6:u:West,
7:u:2005.,
17:u:September/2005.,
12:u:Australia,,
7:u:Child,
12:u:Protection,
10:u:website:,
12:u:protection,
125:u:http://www.community.wa.gov.au/NR/rdonlyres/851183A4-A822-4592-AB66-C410E453AEEC/0/DCDRPTGwennMurrayreportwithcover2006.pdf,
9:u:website,
8:u:kills?,
6:u:Age:,
8:u:Extra,,
7:u:extra,
6:u:29).,
9:u:smoking,
6:u:ban.,
8:u:Theses,
10:u:Program.,
8:u:theses,
16:u:(WU2006.0058).,
12:u:wu20060058,
13:u:(Producer),,
14:u:Davidson,/F.,
16:u:F./(Producer),,
6:u:DRD2,
4:u:A1,
7:u:Jenny,
8:u:Holzer,
7:u:2011,,
13:u:About/Jenny,
7:u:jenny,
8:u:holzer,
6:u:dvd,,
14:u:Jenny/Holzer,
6:u:2011,
13:u:Microcinema,
6:u:011,,
13:u:microcinema,
19:u:others/other/2011,
3:u:+,
6:u:soul,
12:u:aboriginal,
12:u:television,
10:u:program,,
14:u:Broadcasting,
21:u:television/program,,
14:u:broadcasting,
27:u:Broadcasting/Corporation,,
12:u:4/October.,
3:u:=,
17:u:Cantene/Titanus,
8:u:chains,
10:u:picture,,
9:u:British,
6:u:Film,
17:u:motion/picture,,
9:u:british,
6:u:film,
14:u:British/Film,
17:u:Film/Institute,,
10:u:fashion,,
12:u:exhibition,
9:u:fashion,
12:u:catalogue,,
11:u:catalogue,
10:u:March-27,
23:u:exhibition/catalogue,,
9:u:march27,
13:u:11/March-27,
9:u:Gallery,
20:u:March-27/November,,
9:u:gallery,
11:u:Victoria,,
18:u:National/Gallery,
6:u:Newb,
5:u:ury,
6:u:bury,
24:u:internal/other/newbury,
0=0x1.ac0d6297a1d85p-6
1=-0x1.c52c89d76548fp-13
2=0x1.4d6f44b3228fcp-5
22=0x1.1d2caecb5db8p-19
24=0x1.595e5a2189289p-15
26=0x1.09098dee9b64ep-3
27=-0x1.0d929fd2b0633p-2
28=0x1.a9625b388a0e1p-3
29=-0x1.316ac143f408dp-6
34=0x1.9f92fa9e23393p-6
48=0x1.c69eb5658e3bap-8
50=0x1.354157b67d2b7p-5
52=0x1.662758a3f8e82p-1
53=-0x1.7b69f9ff581dcp-4
54=0x1.6688a6bb40078p-2
55=-0x1.1d743f78837a2p-1
56=-0x1.118c7602c2a17p-1
57=-0x1.a80f57e22a3d4p-2
59=-0x1.0205787f02092p-1
60=0x1.854986c607b98p-3
62=-0x1.cec29a90db3ddp-2
63=-0x1.ca5901403eef2p-2
65=-0x1.bbebaf98cc972p-2
67=-0x1.688a5e21fc2f8p-3
72=-0x1.09a9923443397p-4
74=0x1.32fa740d5ce63p-2
76=0x1.57cd29a2fd018p-3
78=0x1.6d7e4579b7873p-3
79=-0x1.3d783ecae3092p-5
80=0x1.eaa2a628460cep-2
81=0x1.f1e1fb704652cp-5
104=0x1.1fcdac2e71a45p-4
105=0x1.ddad0061c5f06p-4
106=0x1.6451f089c48e2p-3
117=-0x1.d308a17f67fb1p-9
130=0x1.3911da4e9ba48p-2
131=0x1.0a2887ba70928p-5
132=0x1.0803ddadb509fp-3
133=-0x1.b7d46f2c030adp-2
134=0x1.63a048b7ccf2ap-3
135=-0x1.a2babc43e8cf2p-4
136=0x1.cb0402e69f502p-3
137=-0x1.6cd411602bc73p-5
138=-0x1.4c397975cdc17p-9
139=-0x1.2dbbe75546bbp-6
140=0x1.713f85744dda6p-8
141=-0x1.3affc77c24a2ap-3
142=-0x1.46ff07a6e8e24p-3
143=-0x1.81e67b55ebe7ap-3
144=0x1.083932f19991fp+0
145=0x1.4e66f1d327977p-4
146=-0x1.6e5a374a73c66p-5
147=-0x1.76e82f5daae8dp-5
150=-0x1.302ec4c37db7p-2
152=-0x1.0fceef730b96p-4
153=0x1.9982323e0f0c8p-8
154=-0x1.224eafb002ec4p-4
155=-0x1.39b36f44ed25p-1
156=0x1.0dfc66090a5afp-7
157=0x1.ba8aa80abe612p-2
159=0x1.76780c3fa1bf8p-3
161=0x1.7213f40d92d3fp-2
162=-0x1.45e1f0493ddfp-4
163=-0x1.5f1dea66794cp-2
166=-0x1.28924a99f634dp-2
167=0x1.ba396281f3936p-5
168=0x1.45fa6203c166cp-4
169=-0x1.301e54f868105p-2
182=0x1.43657d5eef9bp-2
183=0x1.016e9cd2600dfp-2
184=-0x1.5cf8c211e4f1p-14
185=-0x1.9847b296a9c05p-5
187=-0x1.b049403319f11p-5
189=-0x1.55f51305addadp-3
190=-0x1.8691a467cdc54p-4
192=0x1.5df0aac15f6dbp-1
193=-0x1.238b87b6f84bcp-4
197=-0x1.a479cd2c2f135p-8
208=0x1.d640441b92037p-6
209=0x1.5fb84e65c0246p-5
210=0x1.a5026141eee1dp-3
211=-0x1.49f7b358ab61bp-5
212=0x1.570444e812bcfp-1
213=-0x1.2c4f0f1cab318p-3
216=-0x1.a432680877f07p-16
218=-0x1.9b267950ebbcdp-3
221=0x1.05497a5f97828p+0
234=0x1.c64380a34252bp-3
235=-0x1.18dd0962f2b0dp+0
236=0x1.07d1959f75443p-2
238=-0x1.89c9a1ae6d193p-2
239=0x1.71e6f79443852p-5
244=0x1.4a3a1d74d3794p-3
245=-0x1.47697d7e1b0b2p+0
258=-0x1.484d00b3c0a36p-6
260=0x1.9b0f478fcdc57p-2
261=0x1.035cae7686b71p-2
262=0x1.1de26a21bdb44p-2
263=0x1.4342d061fc368p-2
264=0x1.144559848bbe8p-3
265=0x1.699d1de5ba7c9p-2
266=0x1.35c34cb02b1efp-3
267=0x1.f8675702403c3p-3
268=-0x1.9f82411f2747cp-7
269=-0x1.b83e7bba8fde2p-1
270=0x1.1a3e31be72708p-2
271=0x1.0c111826d54e5p-2
272=-0x1.7b6978a1643a6p-2
273=0x1.9dfc11b3d5795p-3
274=-0x1.3024064ef500fp-1
275=0x1.e16209269cd3bp-4
276=-0x1.2669795b580bfp-3
277=-0x1.787b65eb64ddep-2
278=-0x1.8e173c31071c6p-3
279=-0x1.ce66e4784846cp-3
280=-0x1.653b34325668bp-7
281=-0x1.4a75d20f8cd0ap-3
282=0x1.171bc6b1bb79cp-3
283=0x1.12721464958bep-3
284=0x1.05fb3a17c0cfdp-2
285=0x1.62bdc5f2bbc5fp-4
286=0x1.a6c2e14cbca3ep-6
288=0x1.30237481b467fp-5
310=0x1.599a0360a183ep-15
312=0x1.124cb5db14febp-2
313=0x1.2d4a201128cf7p-1
314=0x1.c212494016d86p-2
315=0x1.1d0852e5bcb77p-5
316=-0x1.084c6250a58afp-1
317=0x1.41e2e89928885p-5
318=-0x1.f692370e7e12p-1
319=0x1.1a555cff44342p-3
320=0x1.43f0ef5d00d34p-2
321=-0x1.61b7c9f08abb1p-2
322=0x1.ffada57310054p-2
323=0x1.b52757847be59p-3
324=-0x1.0a00efc7688a1p-2
325=0x1.805174d967f06p-4
326=-0x1.087567df8499bp-1
327=0x1.231c9a4e404d1p-4
328=-0x1.2d293b3946d5ep-8
329=0x1.ed2f0a37ba952p-3
330=-0x1.a43078299193fp-2
331=-0x1.728dc00f669d1p-1
332=-0x1.4a4916c1ed59bp-6
333=-0x1.d112955097cdbp-2
334=0x1.ea39563d0433bp-5
335=0x1.6e7cd703e54bcp-2
336=0x1.715df8f7bd79fp-3
337=0x1.8befa6752bfcdp-9
338=-0x1.9f416c12350ebp-4
339=0x1.f2bf61f44863ep-8
340=-0x1.455992f42ddcap-1
341=0x1.cc7c4d7c6a3f1p-3
342=-0x1.e9d3e6eb86a35p-3
343=0x1.eff848d69d94ep-1
345=-0x1.954b1f1597842p-1
346=0x1.575b8952e4475p-2
348=-0x1.75ebe81f22929p-2
349=0x1.1884c3e97ad38p-6
351=-0x1.f2fbeb326e63p-2
353=-0x1.6c42f623af349p-9
364=-0x1.51477742896bcp-3
365=0x1.8ba36b881a609p-3
366=-0x1.1ce674111b896p-1
367=0x1.10d7ce33f50ecp-2
368=0x1.08086510ccb8fp-4
369=0x1.4940d670eef9ep-4
370=0x1.fb1025eddf0a7p-4
371=0x1.cab8aa050f945p-5
372=0x1.158c192972abfp-3
373=0x1.5e6bd0536e64bp-4
374=0x1.23168ff310ec4p-6
375=0x1.0af6adff90a57p-7
376=0x1.8fd44da9c738cp-4
377=-0x1.8e9f27be5e99bp-7
379=0x1.009dee0f31e4cp-4
380=-0x1.aa3b82329d5e1p-8
381=-0x1.4611d87c7e0bep-6
384=-0x1.259f94f4f86dfp-11
386=0x1.81a4e6c41a9fp-7
387=0x1.50aea0dc58d94p-8
388=-0x1.cf69ac8d53464p-6
389=-0x1.d2a72530ed261p-7
390=-0x1.a29ddac46a428p-3
391=0x1.81ca7418858e4p-3
392=-0x1.0a74092afa4bep-4
393=0x1.14ecf5981a94ap-2
394=-0x1.e8d3b019df698p-6
395=0x1.afbe48abeee31p-4
396=0x1.22a4dcf57f08cp-3
397=0x1.394b0651f8aadp-4
398=-0x1.9318d5713e4cep-8
399=0x1.5c09ba4191e05p-3
400=0x1.b9f202a4a941fp-5
401=0x1.1a8dd15aff765p-4
402=0x1.e29f7a0350d4ap-4
403=0x1.eb3af027cfb7p-5
405=0x1.b4fea537b807ep-4
406=0x1.8c9bbd6263feep-13
410=0x1.2d2536b87052p-10
412=-0x1.4d8242a3e55b8p-6
413=0x1.0df9426c368a5p-12
414=-0x1.bfb8d43cc3e77p-4
415=-0x1.45c90ce784ca2p-5
416=-0x1.2e569d6d35b5ap-7
417=0x1.5fd083b50fbf6p-3
418=-0x1.495125e8b9a49p-3
419=0x1.4b7372133319p-5
420=-0x1.5991a96d85af6p-5
421=0x1.201c15b7b3abbp-3
422=0x1.1460455b1bc8dp-3
423=0x1.e0b939e3f654dp-4
424=-0x1.192415b77e203p-6
425=0x1.a740b0618d998p-3
426=-0x1.6d5ab17bc38b5p-1
427=0x1.41f4d18a72754p-3
428=0x1.bf577237e333ep-4
429=0x1.4b78c300037ecp-7
431=0x1.137745d6eb862p-4
432=-0x1.e9c168dba4p-8
433=-0x1.5c8b3d027d43cp-6
438=-0x1.08e25ad9bb82fp-2
439=0x1.dc4b7b9fc4a54p-13
440=-0x1.e7badca8c7618p-5
441=-0x1.a6b3d938adf92p-4
442=0x1.cbc786b0ef3d8p-8
443=-0x1.b050a80e15e2p-5
444=0x1.607eee56afcf7p-9
445=0x1.79e6195961357p-4
446=0x1.6a3fb07e8e545p-3
447=-0x1.c1e8be56c8afbp-4
448=0x1.0071fcea3d985p-3
449=0x1.f75ae723e5bdfp-4
450=0x1.4501309735ed2p-11
451=0x1.d7bea1e18a673p-3
452=-0x1.18c7b821c7a52p-10
453=-0x1.079d092c74b03p-1
454=0x1.954413fb1cfbfp-4
455=-0x1.9495d4e12d3ep-12
457=0x1.15c5bd710026cp-4
458=0x1.914af2f4cb15cp-18
459=-0x1.458dff76f677p-6
464=0x1.a017a2c00231ep-7
465=0x1.6f5502ac9799dp-8
466=-0x1.16d10fd269cdep-5
467=-0x1.2284744a31281p-6
468=-0x1.35b7390893a0dp-4
469=0x1.5a5040ec11103p-5
470=0x1.23aaa01bcd5d3p-5
471=-0x1.201d526551551p-6
472=0x1.b1784ef0c6cb6p-3
473=-0x1.09467bcb8e17ep-4
474=0x1.cf967ceb1c19ap-4
475=0x1.ea941b2b025ccp-4
476=-0x1.1d9334d4059b4p-4
477=0x1.4975e324dc102p-2
478=0x1.920cfd6e2aa6dp-10
479=0x1.d6ff46cd9e181p-5
480=0x1.773ac9257228ep-4
481=-0x1.1ba7494a63c8fp-5
483=0x1.5dbdb9f5ca96ep-4
490=-0x1.49496281d1e1p-13
491=0x1.5597077b4c656p-8
492=-0x1.8a98bcd915538p-6
493=-0x1.ee31d52f390f3p-7
494=-0x1.32e48a95efc99p-7
495=-0x1.c8e2c9bc3b85ep-6
497=0x1.ac26e3ae84b45p-5
498=0x1.a38dd61ee2decp-5
499=-0x1.606877a42cea2p-5
500=0x1.be3be68d7c2bfp-5
501=0x1.c97ab7dd1b5bp-5
502=-0x1.27069c003da8fp-11
503=0x1.a369228e8a94ap-4
504=0x1.7230dbd742713p-4
505=0x1.1010a50016e89p-4
507=0x1.9c0074b238f2dp-5
508=-0x1.b47da26a838e1p-7
509=0x1.a7980e783e06p-6
510=-0x1.9e93f6da1dd73p-9
516=0x1.2b947093bd349p-9
517=-0x1.5f167480ed012p-5
518=-0x1.1d9da18790ecap-4
519=-0x1.4389951e41035p-6
520=-0x1.74eb3ae3935d4p-4
521=0x1.f726589e627c5p-3
522=-0x1.29d6243d3f46cp-1
523=0x1.7565dfa142816p-3
524=-0x1.c9f2430440eb2p-4
525=-0x1.b046b62bd1fa6p-3
526=0x1.42347620a2f0fp-2
527=0x1.2c61c6f1a89ffp-2
528=-0x1.ae46da996983ep-2
529=0x1.23455d48aba3ap-2
530=-0x1.1cd31f5851c4ep+0
531=-0x1.8f73acc32e8ebp-2
532=0x1.552413b6f4cc7p-4
533=0x1.3c1fc017e2c6cp-6
534=-0x1.c19d52e09fa79p-7
535=0x1.5448c2d47eb79p-3
538=0x1.5866c3b00b8eep-3
540=-0x1.43c47dd5c3e21p-7
542=0x1.f9f5066a07da6p-10
543=0x1.0926ee72b2286p-3
544=-0x1.928a0cc87bc19p-5
545=-0x1.01d2a9f6d8143p+0
546=0x1.7e18b3ed35705p+1
547=0x1.de08be1834299p-2
548=-0x1.d016cfe0d0b47p-7
549=-0x1.8c30f4a305823p-3
550=0x1.58ffa0abe4f9fp-6
551=-0x1.0206fc39f6948p-1
552=-0x1.72bc930df7808p-5
553=-0x1.e3ef23fdbeef5p-2
554=0x1.01bf4bbfa5768p-3
555=0x1.26f3fdec2d21ap-1
556=-0x1.83e6270ffb15bp-5
557=-0x1.2061631d43daap-2
558=-0x1.adfa563d85977p-9
559=-0x1.009c08ee0bc85p+0
561=0x1.f2efc96b277dp-7
566=-0x1.702220aae29e2p-5
569=-0x1.7d6cb6c6e3e6dp-3
572=0x1.fea2a0b4f511ap-11
573=-0x1.e5ab48dad9d46p-7
574=0x1.60e8fd08e4a08p-5
598=0x1.a7c1d3b9cb3f8p+1
599=0x1.b95295d05757fp-1
600=-0x1.1c72cb096a994p+2
601=-0x1.9c6753c7bb8ep-1
602=0x1.44bf4337b8922p-1
603=-0x1.5f9d11a9c8313p+1
605=-0x1.68326d8f3d71ep-1
606=-0x1.5be0a2c3461eep+0
608=-0x1.4217eb3ffcfb8p+1
609=-0x1.8a7d8ae09c22cp+1
611=-0x1.abdb727f9744cp-1
613=-0x1.6d651e9d30e08p-2
614=-0x1.dc00d11e2e2bp-6
620=-0x1.7c9de82432835p-1
622=-0x1.3a2b7520d13aap-2
624=-0x1.35d48c3b8c4a6p+1
625=0x1.d677e2ee4bf27p+1
626=-0x1.51e813e326c37p-11
627=-0x1.a6301cec5ece8p-4
628=-0x1.4e3f44df9319ap-1
629=0x1.20242796410b9p-1
630=-0x1.1e455d3f2b7aep+1
631=0x1.b661a3b004ddap-3
632=-0x1.88a258fe50f7cp+0
634=-0x1.182fcc2da3611p-3
635=0x1.c75e54c417099p-4
637=-0x1.36ed2cf135bf4p-1
639=0x1.4aa7f73195aafp-1
640=0x1.4f2eb245684a4p-7
647=0x1.cf379b7f7661ep-6
650=-0x1.f689e6a0aa058p+0
651=-0x1.a3f249bb28d22p-2
652=0x1.ef80d05ad5bbdp+1
653=0x1.4f7c4b69807c1p-5
654=-0x1.6b62a70d297a8p-4
655=-0x1.9936e8a1ffe12p-1
658=-0x1.84c36ab273c4p-10
661=-0x1.19ce635f1580dp-1
676=-0x1.a5899a8943621p+0
677=-0x1.dfaa7606f8ed3p+1
678=-0x1.4cfb7711a6b2p-1
679=0x1.aa95f78114e56p+1
680=-0x1.68aa0cb9dcdf8p-2
681=-0x1.84cd833c287f8p+1
682=0x1.fbe097a7c4473p-2
683=-0x1.2865fbc6bba93p+0
684=-0x1.1c424d8f958cbp+0
685=0x1.85e41f2411d2p-1
686=0x1.2928f1fe895p-2
689=-0x1.aa0b6d4fa1c75p+0
691=-0x1.54b69e6955406p-3
702=-0x1.367c87e45427p-3
703=0x1.a9a0e031a84f6p+0
705=-0x1.bc6817ff05053p-1
706=0x1.64461c49f84fcp-1
707=-0x1.1772214f9209p-3
708=-0x1.3cb48cff2807fp+0
711=0x1.4618f69a3c324p+0
712=-0x1.f1f861c709ca7p+0
713=-0x1.807fe7049645ap-5
715=0x1.4ecb849433d49p-1
725=0x1.4cf388aea9a55p+0
728=-0x1.a1b0be4751902p-2
729=-0x1.456eedaa85b9bp+0
730=-0x1.a542ecbd8c24bp-2
731=-0x1.a20ca116447cep+1
732=-0x1.536b3f28935b3p-1
733=0x1.047abdb412db6p+2
734=0x1.436e72431fc3ap+1
735=-0x1.90598d34ba95cp-1
736=-0x1.6b938206ca655p-1
737=0x1.6ae8248425b32p-11
738=-0x1.dc0680fe7aa73p+0
739=-0x1.04e6618ca01e4p+0
741=-0x1.53c8f8acc77e2p-1
760=0x1.2d38f252ac9afp+0
763=0x1.01afc12b1c973p+1
764=-0x1.0f9b93977ca82p-4
781=-0x1.4faa670541971p+0
783=-0x1.03b009f4c8337p-1
785=-0x1.aa22d99043364p-3
786=-0x1.ba656b2a7d27ap-4
787=0x1.7599979968acbp+1
788=0x1.1792010f6a46p+1
789=-0x1.3b80b066a70dap-2
790=-0x1.b98f776461f58p-4
791=-0x1.dd95b0dd9e948p-2
806=-0x1.ae37cfdbafa94p+0
807=-0x1.9a120808b0ebp-2
809=-0x1.23e90f8c62d7p+0
810=0x1.bfafd093959d2p-2
814=0x1.3cdfb85941323p+2
817=-0x1.89c04b444751cp+0
833=-0x1.35ffce6087abp-3
836=0x1.ac0789b9b2e19p-2
841=-0x1.694a437c23c28p-4
842=0x1.3207595108d2ep-1
845=0x1.ca656f7af9683p-1
846=0x1.f1681805cc7dcp-3
852=0x1.5098eea104fb3p-7
859=-0x1.86e8400be72ap+0
860=-0x1.c902c9b5057d6p-2
861=-0x1.54ccd83c3f1c9p-1
862=0x1.040c0eb34defcp-2
863=-0x1.6e4b0768df65bp-1
864=-0x1.54094003033e4p-1
866=-0x1.1297ca2955df6p-4
867=-0x1.411a486261308p-3
868=0x1.057c7b5045e05p+1
869=0x1.158e9da8303b2p+1
884=-0x1.4e48c229b414ap-2
885=-0x1.0c9a72486e237p+1
887=-0x1.a452b717be5adp+0
888=0x1.c25392ab6b06ep-3
889=-0x1.0d79ba2437538p+0
890=-0x1.911856dcca056p-7
891=-0x1.19512bfca6781p-6
892=-0x1.9c3f16fce6cb3p-1
893=0x1.d72c5c89392ap-6
894=0x1.55b7a3b6b6b43p-1
895=0x1.6c37bebcd77a1p+1
897=-0x1.35bd62e716f32p+0
902=0x1.099f6b1158413p-3
922=0x1.3783b6cd6dcc2p-2
937=-0x1.1f2e1095d5cb6p+0
939=-0x1.997667c3bcdd1p+0
940=-0x1.2e9eaff8d6875p-3
943=-0x1.8b0a5c017d589p-5
946=-0x1.4fec93efeb7ffp-1
947=-0x1.46d04ee32c517p-2
949=0x1.eae3164d308c1p+1
989=-0x1.1468aadc454e9p-2
998=0x1.fea08ea44f292p-2
1003=0x1.6be6360f52545p+1
1030=0x1.2df3fa26b9544p+2
1057=0x1.13643d4826086p-1
1084=0x1.90b230ade23c4p-2
1122=-0x1.47d62d83c36b8p-2
1130=0x1.b32b1537c6e01p+0
1138=0x1.42ffad8632dd7p+2
1174=0x1.62ad719cefb33p-5
1192=0x1.2850a74edcdf5p+2
1206=0x1.39b8a40f1a287p-1
1207=0x1.0eb02318c4f0ep-1
1219=0x1.b6a1726cdc42ep-2
1222=-0x1.fb0fbbdadd443p-3
1223=-0x1.0db98f3bae6e3p-5
1244=0x1.a9f89ce833eecp-11
1246=0x1.4d274ff6e45ddp+2
1273=0x1.9c9682f7028b5p-2
1274=0x1.2f7335f085395p-1
1275=-0x1.43fc95dd7b6bp-4
1276=0x1.e29f2087f4bd7p-2
1277=0x1.1260234c75dacp-3
1278=-0x1.1583622533b89p-4
1279=0x1.bb68819616e85p-5
1280=-0x1.cccf1464af9d8p-3
1281=-0x1.352d91ebcdb7p-1
1282=0x1.83473eea6194fp-4
1283=0x1.7a4c79c6dc687p-16
1284=0x1.a297401e335e6p-8
1285=0x1.685c609d7bb38p-5
1287=-0x1.01d9daf78ab46p-5
1289=0x1.8e8779d3aadb5p-4
1290=0x1.2b108fa084f1ap-3
1291=0x1.67d34b31fedb5p-3
1294=-0x1.40b716ebfa99p-2
1297=-0x1.21256c6cbaaf9p-2
1300=0x1.c114dd6cb24f7p-2
1301=-0x1.e0bddb674e4d8p-3
1302=0x1.06ac03ce09aa4p-2
1303=-0x1.81ee9fe86252p-6
1304=0x1.e4f2bcc1776ecp-4
1305=-0x1.b26c4137c000dp-5
1306=0x1.de9fac90d3e17p-3
1307=0x1.66f0c3a76d072p-5
1308=-0x1.3f30babc8c15ep-3
1309=0x1.1690da26a8d11p-3
1310=0x1.43c401e627258p-1
1311=-0x1.7bca27649a53ep-6
1312=-0x1.b3832b6f5c509p-5
1313=-0x1.ecb6f8972ec8bp-5
1314=-0x1.72b69868b0598p-3
1315=-0x1.a4d5184d8a78bp-7
1316=0x1.b684d2180fa4p-8
1318=-0x1.2b580933450cdp-3
1319=-0x1.dbdb41c5a9c69p-5
1320=-0x1.98324f65ea391p-2
1322=0x1.7dadf9e4d5e09p-4
1324=0x1.74ee4b7d573a8p-4
1325=-0x1.67d7a0ace65d2p-7
1327=0x1.70052cb01c142p-5
1328=-0x1.c54e9ee75fd26p-1
1329=0x1.543b55f41686ap-4
1330=-0x1.3709e82ccf435p-1
1331=0x1.999363bab8504p-5
1334=0x1.31dc0e6fd960ap-3
1336=-0x1.f431ee80b71fcp-7
1337=0x1.ee7d4b2602f8p-8
1348=-0x1.c6201dd003d7ep-4
1353=0x1.cb69b4a042eaep-5
1363=-0x1.07941e4ba5c21p-5
1378=0x1.db896467d3ebfp-5
1379=-0x1.9a4ed585a932ap-2
1380=-0x1.265e7738be181p-2
1381=0x1.1ba07b21a5ce4p-2
1382=0x1.409b200a73aaep-9
1383=0x1.03657f6e244c3p-2
1384=-0x1.09ef187ea828ep+1
1385=-0x1.a0bb9d696ba43p-4
1386=0x1.98e7e94c5f999p-2
1387=-0x1.2891b89f5c238p+0
1388=0x1.716f87c2ec2e3p-3
1389=0x1.bab1d7f57e2p-2
1391=-0x1.89e5bf7243d75p-8
1392=-0x1.1284292b0053p-4
1393=-0x1.6a021d6d022f6p-1
1401=-0x1.e63ca5a4daaefp+0
1402=-0x1.30d65dbbb1761p-7
1404=0x1.9a9d5db3a3b41p-2
1405=-0x1.4eee6548dc9afp-5
1406=0x1.bc870749e2d3ep-4
1408=-0x1.018764c62f6c1p+0
1409=0x1.8e39f03af72d4p-5
1410=-0x1.1a92db4dbc545p-4
1411=0x1.71718d9feb84dp-2
1412=-0x1.92d98a3832c44p-6
1413=0x1.a1c616d123922p-4
1414=0x1.2634e74c9cfb7p-1
1415=-0x1.e3c88892a504fp-5
1416=0x1.983500dfb2376p-2
1417=-0x1.654530f1dc042p-3
1419=-0x1.30f2399add23p-7
1421=-0x1.48886bd949fa9p-4
1426=0x1.36d7bdd4ad34ap-10
1428=-0x1.0b139c9e023dfp-5
1431=-0x1.7726dfb0d554cp-1
1432=0x1.81f3e02bf24e5p-3
1435=0x1.e9e268d5bb3ecp-6
1456=-0x1.49313d8995fbfp-8
1457=-0x1.9fbe491814941p-5
1459=0x1.d8525396121e6p-9
1463=0x1.316ec9bc65ed2p-11
1469=0x1.d76ea8fd5531dp-9
1471=0x1.01e84c8852e84p-3
1476=0x1.649a36a81ed42p-4
1482=-0x1.760277e16a986p-8
1483=0x1.37759966b001cp-7
1484=0x1.526d89e78c861p-6
1485=0x1.d5a156220dc05p-5
1487=-0x1.1c8be7f4ace7ep-3
1490=0x1.5e8370e34dd8bp-8
1493=0x1.4105ea6d050e4p+0
1508=-0x1.d115bd178c5b5p-4
1509=-0x1.5fc2fb7c0daa4p-2
1510=-0x1.3a7a87542009p-5
1511=0x1.fe07eb3c0059dp-4
1512=-0x1.70ddeeedc1541p+0
1513=0x1.706c10c07599fp-2
1514=-0x1.31581f9d70dd2p-4
1515=-0x1.448d7e9cc1ecap-1
1516=0x1.34adf69b69bbdp-2
1518=0x1.b2986323a5f2bp-2
1519=0x1.814046d0243b6p-7
1521=0x1.3f6b1e5c7245fp-4
1523=-0x1.3d328955a4084p-3
1534=0x1.0252e29153cc3p-1
1535=0x1.2bd62afd44beap-8
1536=0x1.0992157acb4f7p-4
1537=-0x1.15b942a85df03p-2
1538=0x1.b24d5306243bdp-4
1539=-0x1.b813bbfb8041bp-4
1540=0x1.398c44a61ab77p-2
1543=0x1.5678c22ceffa9p-4
1544=-0x1.57633950554fbp-3
1545=-0x1.0a40026d294e6p+0
1547=-0x1.51159c1cfa611p-2
1549=-0x1.7e507faef2a55p-1
1556=0x1.38db4d33d36aap-6
1558=0x1.0bf2753c2caa2p-3
1560=-0x1.e2c46d95cab84p-3
1561=-0x1.e7e992b8bb734p-3
1562=0x1.a9f12bcecbaecp-10
1563=0x1.fc5cd65ebfee6p-8
1564=0x1.9821a3e117763p-3
1565=-0x1.d88992e3a1086p-5
1567=-0x1.41d0246bf47a6p+0
1568=0x1.7cf61157442c5p-2
1570=0x1.5b699f8355c0ep-4
1571=0x1.f901a82f5a887p-1
1573=-0x1.8129be3ec109cp-8
1582=0x1.cf6dd62d013ffp-4
1584=0x1.55f42c975fab8p-5
1587=0x1.27f6b30803aaep-4
1589=-0x1.0e89c194d9b74p-4
1593=0x1.090d8c55f3b87p-2
1594=-0x1.e2ba12d2c2361p-6
1596=-0x1.e0ff6c9fa4807p-4
1597=0x1.f06b9b6bade29p-3
1601=0x1.96d22b4d1b0f8p-3
1612=0x1.b3cc75811fc5cp-3
1613=-0x1.58d595318d89p-3
1615=-0x1.bfd02c2b97fd2p-4
1620=0x1.4dd2a6ffebdffp-10
1623=0x1.81554edfc0a56p-3
1638=0x1.4d1f19e5c4418p-6
1639=-0x1.61d7dfac4c68ep-8
1640=0x1.782d901b96594p-2
1642=0x1.500e5eac227cep-7
1648=-0x1.435ac47f4f324p-2
1664=0x1.81e8b924f883dp-5
1668=0x1.7fdfa18c6386bp-7
1674=-0x1.3efa4e21cfa4dp-5
1690=0x1.d75d9686a50f4p-3
1691=-0x1.9b8c67d26d82cp-4
1692=0x1.0a02ccaa55314p-2
1693=-0x1.1e4e7198da486p-4
1694=0x1.77eaea3ade2a4p-4
1695=0x1.8aeaf97d21a16p-10
1697=0x1.8f83f6b4044f2p-6
1698=-0x1.e4fad11d3c95fp-5
1700=0x1.4d71d3ed3cfb8p-2
1701=0x1.e804a180ab9cbp-4
1703=0x1.26f87547ef773p-3
1706=-0x1.fad41965c3e81p-9
1714=-0x1.eb8a6464d0527p-11
1716=-0x1.4eefba3a3feafp+1
1717=-0x1.cfcfbaa2f5231p-1
1718=0x1.7a23979b9c3dbp-2
1719=0x1.c551e222170d3p-4
1720=-0x1.30d09a3e5ce55p+1
1721=0x1.bf7c7d75dcf9dp+0
1722=0x1.2acfebd12f6ebp-1
1723=0x1.b440e6ca2d5c8p-1
1724=-0x1.974e6acf76755p-4
1725=-0x1.b3e9fca09cb88p-3
1727=0x1.7362cf2a7f0bep-5
1728=0x1.2d87636c16f6p-3
1729=0x1.11859faee727dp+0
1731=0x1.9fa7a5546f525p-2
1732=-0x1.580aa98baf448p-11
1736=0x1.86cf4467b6977p-6
1738=0x1.26e9c434eda57p-8
1742=-0x1.1345422b2471ep-1
1743=0x1.822d6dbb0dbaap-2
1744=-0x1.cb16c0fe9c51ep-3
1745=0x1.5155704417817p-2
1746=0x1.5cf9e7bd3530dp-4
1747=0x1.9359b9ff26b28p-4
1748=-0x1.856a4a0ad2af3p-2
1749=-0x1.d9361b8176714p-6
1750=0x1.b385f5cc3a9f9p-3
1751=-0x1.cd36dbb8086d5p-3
1752=-0x1.a146cfa38a0cfp-1
1753=-0x1.702aaef44e798p-6
1754=-0x1.2ca26fb3ab11fp-4
1755=0x1.b7ccef3236e79p-3
1757=-0x1.ba64f13863faep-9
1758=0x1.71fd4d5965457p-10
1760=-0x1.9d9bbd458d35dp-2
1762=0x1.c3301af198592p-7
1764=-0x1.306021a978099p+0
1765=0x1.c70c74f6d6663p-8
1766=-0x1.519348f5799edp+0
1768=-0x1.3eb3bf9e9dc5dp-11
1769=0x1.b32c0ed7fec3ep-7
1770=-0x1.7c32684cd4542p-11
1771=0x1.5910e717f3172p-7
1773=0x1.31c5a7ffc462p-8
1794=0x1.daea627b3f74dp-6
1795=-0x1.4442565445879p-3
1796=-0x1.af5f2502a47ep-7
1797=-0x1.99139931d82d9p-5
1799=0x1.2e3d797f9f123p-8
1802=-0x1.70c798c0cb395p-7
1804=0x1.346e3cc2d5711p-4
1805=0x1.5eb9ec547dep-8
1807=0x1.346a4b814ce3bp-2
1809=0x1.95ac490de6c56p-3
1814=0x1.be99abccd197dp-2
1816=0x1.7c519a889186fp-3
1818=0x1.3a84692d0c8c7p-5
1820=0x1.5ea92c502238bp-7
1821=-0x1.8ba9b0a15987dp-8
1822=-0x1.cd61c78275bd2p-14
1823=-0x1.a82b94f013e32p-6
1825=0x1.e9df272f386fp-17
1831=0x1.bf20602215556p-6
1835=0x1.2bd8f408998d9p-4
1846=-0x1.5e4b2387e2dfap-2
1847=0x1.053980bb1c42cp-1
1848=-0x1.e5c40cafe34e4p-4
1849=-0x1.be6afe6289982p-6
1850=0x1.a1d56fc8fbcbbp-1
1851=-0x1.fae53c460d78fp-1
1852=0x1.8fa9942553ad4p-2
1853=0x1.d1833077021aap-2
1854=-0x1.311d448d45115p+1
1855=0x1.e333d4e8621acp+0
1856=-0x1.d7698c97c23d1p-3
1857=-0x1.8d513d9658d48p+0
1858=0x1.ee28794cdf878p-6
1859=0x1.521bc6500492dp-3
1861=0x1.e0a8824d3df07p-3
1864=0x1.0a632423e3ba7p-15
1866=-0x1.ea2ce3b5f790bp-4
1869=0x1.1055a5b05990dp-3
1870=-0x1.d61f8bc8cb5b5p-2
1872=-0x1.a34fd31b1067ap-2
1873=-0x1.2599f1beee304p-3
1874=-0x1.fbe16969da7d9p-4
1875=0x1.40b3cbad2349fp-2
1876=-0x1.aeb084b031d53p-1
1877=0x1.bcd268fde0e2ep-2
1878=0x1.c95286ce66773p-2
1879=0x1.de500ec5cce23p-5
1880=0x1.0939d0d4be1dcp-3
1881=0x1.ab02f8edf0f51p-8
1882=-0x1.6f6299fe7f54bp-3
1883=0x1.1044260e48144p+0
1885=0x1.05092233276ebp-3
1887=-0x1.bf2c319dbe014p-13
1888=0x1.47300e1daf4d4p-10
1892=0x1.5f4592441aa1ep-5
1895=-0x1.945f2643b72a6p-1
1899=0x1.83cc1ad41e7d2p-6
1925=-0x1.1ad52f5ffaa98p-7
1934=0x1.6115f7a921b9ap-1
1950=0x1.ea8c6734ac2p-2
1951=-0x1.7cf7e26bb534ep-4
1961=0x1.37723448d3e91p-2
1976=0x1.03b663ee5d9bap-6
1978=0x1.4beedd104ccb2p-2
1981=-0x1.131359ddbbc66p-14
2002=0x1.09b539a4d0152p-2
2003=-0x1.0f600525f0b16p-11
2004=0x1.27fced75a3a71p-3
2028=-0x1.18b3258454533p-2
2029=-0x1.bc39315d5ffa4p-2
2031=0x1.13a46738e5af3p+0
2032=-0x1.ab0e267aa29e4p-4
2033=0x1.6dda5bf2cf273p-3
2034=-0x1.9ebb522f5638fp-2
2036=0x1.6643c64bfae02p-8
2038=0x1.3b8f4fc5e69c5p-6
2039=0x1.38e5f1bb877b4p-4
2051=0x1.63afbe312fc64p-4
2054=0x1.91662745fa3eap-3
2055=0x1.e29d2ed17585p-4
2056=0x1.7762f4897d69p-6
2057=-0x1.38767ea3f17e5p-2
2058=0x1.0fbaffa8e78dp-1
2059=-0x1.d9dd8fbe4834p-2
2060=0x1.c6af43cfbe1dfp-2
2061=-0x1.c073026bbb8dbp-2
2063=0x1.81b0f73b8037dp-3
2064=-0x1.2f9c36ad02becp-2
2065=-0x1.558250e80f50cp-2
2067=-0x1.0b03fbcbda6f6p-2
2069=0x1.88b36a72a9346p-2
2074=0x1.5e6d5270cdb8fp-6
2076=0x1.d85c8c05c1076p-7
2080=-0x1.09e8803a8a81dp-6
2081=0x1.c28dd2a7914p-2
2082=-0x1.cc8db8cb2bc33p-3
2083=0x1.7c32a5ee9549dp-7
2084=-0x1.669d7efc95245p-2
2085=0x1.25caa24f90808p-2
2086=0x1.8eaae9dce981bp-8
2087=-0x1.44bf201b784d8p-4
2088=0x1.f55fca58ca92cp-4
2089=-0x1.475cef4ee8428p-13
2090=-0x1.bc98fe0d40ddfp-2
2091=0x1.64354a71e9f9p-7
2092=-0x1.f474d39a8b303p-4
2093=-0x1.42361fbbc170ap-12
2095=-0x1.65f52f2137a77p-6
2100=0x1.c9967eb570913p-4
2106=-0x1.599e3d872ee5ap-2
2107=0x1.3c3aca229048cp-4
2108=0x1.5fab6221b4fc2p-6
2109=0x1.1afb12c76657fp-10
2111=0x1.57302645090e1p-3
2112=0x1.9c7ab73b246ccp-5
2113=-0x1.abc65e3b87d2ap-5
2114=0x1.f1a2d6c5aca3p-5
2116=-0x1.2db8ecc877744p-2
2117=0x1.3beb78b222f1p-7
2119=0x1.7bba7907e7a73p-9
2121=0x1.4aa8884ba3409p-2
2142=0x1.2d2c7b92ffbe6p-2
2143=-0x1.11843932cdb6cp-3
2158=0x1.d0aaae8dd989fp-2
2159=-0x1.47defb8602e74p-2
2160=0x1.b8d0453628307p-1
2161=-0x1.387f721332389p-1
2162=0x1.4ea758f7ee2cap+0
2163=-0x1.7fbf2b7d84552p-3
2168=-0x1.828bda6d4ce69p-3
2169=-0x1.7a7d915889188p-9
2171=-0x1.3bf5281dfd516p-5
2173=-0x1.563a89229b40fp-3
2182=-0x1.fbf71f297536dp-9
2184=0x1.a468825216a95p-3
2185=-0x1.38314062ffd53p-2
2186=0x1.1a32bb051dddbp-5
2187=0x1.0e335a2061f7fp-6
2188=0x1.1e2a9c3243834p-1
2189=-0x1.5cb2252a301bdp-7
2191=-0x1.32e1b1e4bdb4p-2
2192=0x1.f77b4f4b486edp-3
2194=0x1.39375163d0a3fp+0
2195=-0x1.43523c3b03e26p-3
2197=0x1.1fd9d5e3a402bp-11
2206=0x1.e68a6938a3936p-9
2210=-0x1.bfdd350cf69efp-9
2211=0x1.670f09fd5e1e2p-7
2212=0x1.3402f3c66716fp-5
2213=-0x1.ff211f3351bf6p-4
2215=0x1.8969a5a8c3b9cp-3
2217=-0x1.7d6afd6fb9ba4p-2
2218=0x1.d5630a9288a7dp-4
2220=0x1.fbb6acd828532p-3
2221=0x1.1f914e0326bbbp-1
2223=0x1.fd99d9c23bf33p-5
2225=-0x1.6da3f958dc272p-12
2236=-0x1.16f6e0b99383cp-2
2237=-0x1.53ab2c6082156p+0
2239=0x1.7c0751e35675p-10
2241=0x1.7ad128d07590ep+0
2242=0x1.fc81de02aee31p-7
2243=0x1.d1b2538878e59p-2
2244=-0x1.56a6b544d4699p-3
2246=0x1.c8474ca904c1fp-3
2247=0x1.060a36517031dp+0
2260=-0x1.b7cb288083079p-7
2263=-0x1.f562216f23b1cp-19
2265=0x1.1293d297c7d2ep-8
2289=0x1.4d1b0c41059d4p-13
2298=0x1.3609cf95a71f2p-15
2315=-0x1.011701aa4746cp-11
2340=0x1.7df52e260a5b9p-2
2341=-0x1.035860f42d07p-9
2366=0x1.e6887e86c6e61p-1
2367=0x1.5394fa427dbe3p-2
2368=0x1.6b53e99a50379p-4
2369=-0x1.41dcb79269101p-3
2370=0x1.418cbd71aaecdp-1
2371=-0x1.32c58324a207fp-2
2372=-0x1.6006097ba6151p-1
2373=0x1.5065e64712462p-5
2374=0x1.9628a301d3df7p-3
2375=0x1.dc71bc64f3823p-3
2376=-0x1.8929eede5b968p+0
2377=-0x1.207288de87576p-1
2379=0x1.fc09fa8c16718p-7
2381=-0x1.4c8bbc14f7673p-7
2386=-0x1.f0877df9f5b79p-6
2393=0x1.fbb9331a829e4p-3
2395=0x1.3d0cbd7935496p-7
2403=-0x1.82f3b6d3387cap-3
2405=-0x1.f63be2067c94dp-8
2416=0x1.3597cbc6fdc6ap-10
2419=0x1.01a6c2fa803aep-3
2445=0x1.114cc81a886dep-1
2446=0x1.34e347df40f62p-5
2447=0x1.4c10b9c3f5dc4p-12
2448=0x1.831a718dfb8ecp-10
2449=-0x1.e28a61affe92p-15
2470=-0x1.0252345431095p-2
2471=0x1.27409528d88a3p-1
2473=0x1.064ba07a337b6p-6
2478=0x1.ac1b00a9a3544p-7
2496=-0x1.08b2c633fde6dp-2
2497=0x1.288d95217d526p-1
2499=0x1.117bf4a850d4ap-6
2504=0x1.084623e234467p-9
2522=0x1.38adbf43681d3p-2
2523=0x1.ed7803c82ba5dp-2
2524=-0x1.f6a6cdb48685fp-5
2525=-0x1.3c9946b4d33f9p-2
2526=0x1.0e7828ce7756ep-2
2527=-0x1.706a77ae7a6a8p-2
2528=0x1.dbb71227a1b28p-2
2532=0x1.1bd073b5d6a8dp-2
2533=-0x1.165c816e76f9dp-2
2535=0x1.f06defc9146bp-6
2546=-0x1.1d67bf2d56ec3p-9
2548=-0x1.3f042cf1e438dp-8
2549=-0x1.70f0d956dcf1ap-5
2551=0x1.9b816a88b18cep-9
2555=-0x1.e0d5f499eb5a6p-8
2556=0x1.9e3c8a971b556p-3
2561=0x1.8a371fece972ep-10
2564=0x1.67b5642c11e21p-5
2572=-0x1.c9eb4aa5fc464p-9
2575=-0x1.ddc068de7aa48p-5
2590=0x1.63c013640e4d2p-4
2600=-0x1.13de71fe4bb59p-6
2601=0x1.83c7572a6c5fdp-4
2603=0x1.bd820f5035a7bp-6
2604=-0x1.03cebf84e4c5bp-1
2605=0x1.3d6b0ac6825eep-5
2611=-0x1.0e3ef9023bea9p-2
2613=-0x1.dee1066299552p-12
2627=0x1.00837db6708a7p-3
2628=-0x1.692dcb054e293p-8
2629=-0x1.3eeccce821864p-8
2631=-0x1.271403973fdd6p-6
2633=0x1.1d23fabfc95bap-3
2634=0x1.3130a167d0389p-6
2637=-0x1.686b46b022a05p-2
2642=-0x1.79a347763646ap-12
2660=0x1.d088f8acb94c1p-5
2679=0x1.07ac6372cd4c8p-9
2686=0x1.db42ac7d002b3p-5
2712=0x1.b9bf902c880e8p-4
2734=0x1.ac8dca2647e7p-3
2757=0x1.7ae0cc8a9996ep-4
2759=-0x1.bde3dd027e0b7p-5
2760=0x1.7fccd45901678p-1
2761=0x1.b1f9e3d545283p-10
2764=-0x1.1c1acd86387e6p-5
2767=0x1.e61d7b022e065p-3
2769=-0x1.288401481e096p-16
2782=-0x1.6885db58a6c0dp-1
2783=-0x1.5dd8f0e656021p-7
2784=0x1.f70e998a701e4p-2
2785=0x1.c266d2cec9b9ep-2
2786=-0x1.770ebff5020e8p-1
2787=0x1.cee7873a53a69p-7
2792=-0x1.4dd4f51a501ecp+0
2793=0x1.828914940220ap-7
2795=0x1.9b3b22b65fd64p-4
2798=0x1.cdb8de39e661fp-2
2810=0x1.55fffb083f4e5p-6
2818=0x1.7b2aa1a29c89ap-2
2819=-0x1.7f3e1ffca78e7p-3
2835=0x1.234a8236c68dep-1
2860=0x1.06eee77716d5ep-6
2861=-0x1.0fbdedbb7b229p-2
2862=0x1.7f7151cacc182p-4
2863=0x1.d5022eca76eafp-5
2865=-0x1.91b0645d042abp-10
2870=-0x1.6eea150779c78p-1
2871=0x1.10ab1a90ed357p-1
2873=-0x1.c8b36b8341e33p-14
2876=0x1.fdeb2c60807bep-2
2883=0x1.9d97ae9d9c873p-2
2886=0x1.4118e62c1a77dp-9
2887=0x1.0f9e3a74836a5p-2
2888=0x1.8069bdda136cfp-3
2889=0x1.fe1775a414344p-2
2890=-0x1.512580a84be26p-3
2891=0x1.8c45d0f30074ep-6
2892=-0x1.cbf0699ba9deep-5
2893=-0x1.c2cdeea69dfe6p-2
2894=-0x1.22dbbe2e7594ep-11
2895=0x1.9d1b90bb59062p-3
2896=-0x1.6720458e6ad22p-2
2899=0x1.b7962b1635ef6p-2
2901=-0x1.6cbc3595d226p-3
2906=-0x1.9d35ac6155988p-4
2912=-0x1.7acb0cd65c239p-5
2913=0x1.471fbabd68ef4p-2
2914=0x1.ae33ac38eb2bep-3
2915=-0x1.2c48c6f52996dp-3
2916=0x1.a041633da8a2p-3
2917=-0x1.d10ccb8b3b23ep-3
2918=0x1.7e5fe9164bb78p-2
2919=0x1.78743fe1347fp-4
2920=-0x1.b0218481f9621p-9
2922=0x1.4a5ceb5f29868p-13
2923=-0x1.035533d8118c4p-3
2925=-0x1.ddbeec58622ap-5
2932=0x1.addc0200ae7p-2
2935=0x1.90555053cc8d2p-6
2938=0x1.a0287323705ddp-8
2939=-0x1.3790f6c329c28p-5
2940=0x1.6275c11165c41p-3
2941=-0x1.df18f21c91e0ep-4
2943=0x1.5dd5d1de171ep-2
2948=0x1.a998546e5f1ffp-3
2949=-0x1.a697d58cf2e2cp-3
2964=0x1.d8af782fec461p-6
2965=-0x1.ee0d1b40ff407p-5
2966=-0x1.f0655eb17f70fp-7
2967=0x1.0e79abe17e9f5p-4
2968=0x1.7f61c2a8fc3b2p-5
2969=0x1.9924971ad7bd6p-6
2975=0x1.0d0a274e914ep-15
2977=0x1.13d69ca68ee8fp-7
2986=0x1.18ac3e96a4207p-7
2988=-0x1.6450734f1877bp-7
2991=-0x1.b3a8895c8383p-9
3000=0x1.d7dea6ede4b8ap-4
3001=-0x1.68ce06e9133c9p-5
3017=0x1.4c20f9a3f519p-2
3018=0x1.088f68f700babp-3
3021=-0x1.5e568e15b91a9p-17
3038=0x1.73953285d476bp-9
3042=0x1.f431ae00b0a44p-11
3043=-0x1.1c31daa9652a8p-7
3044=0x1.375b92e7adee4p-11
3045=0x1.90043bc68fdf2p-6
3047=0x1.6c9ab59adc6fep-8
3066=0x1.b21d79aeda8bep-8
3069=-0x1.9a191b109e2dcp-12
3094=-0x1.727d4b1d6c819p-3
3095=0x1.39f0f1a384a5ep-3
3096=-0x1.a4b7e9c8960a4p-3
3097=-0x1.ede1a791d064bp-7
3098=-0x1.d138e82219134p-7
3099=-0x1.20e392ec4de6ep-5
3101=-0x1.e4dc8c2c6c614p-9
3102=0x1.767ab57ed05dbp-2
3104=0x1.1094c04bcfed2p-5
3107=0x1.154ed34c22b0fp-3
3117=0x1.0d3823c03886fp-18
3118=-0x1.d97c1f58d4ab1p-13
3130=0x1.16c5a4dd58024p-9
3146=-0x1.62a4753f3a8bfp-3
3147=0x1.8b68eff3c5dbcp-3
3148=0x1.aabf985ddda61p-5
3149=-0x1.28a13b8c36217p-8
3151=-0x1.00c38c54a167dp-10
3172=0x1.00973b194edf8p-13
3173=-0x1.933dd652ce09cp-2
3174=0x1.259dc26e88cfcp-3
3199=-0x1.069b2899441ffp-3
3201=0x1.af2d401506d13p-4
3203=0x1.8e35876a64a7p-3
3208=-0x1.2196bfa77961fp+0
3209=0x1.725663ee7d8dap-4
3211=0x1.da469a91e1cefp-10
3226=0x1.57b8290066da8p-3
3251=-0x1.b89b4c1f4b926p-1
3252=0x1.402f39e60baadp-4
3253=0x1.9fe1df4f36efp-4
3255=-0x1.ffece11ef7c36p-8
3256=0x1.217dc548d1226p-1
3261=-0x1.c348433fc8994p+0
3263=0x1.6bce34411c59p-6
3276=-0x1.11d6e58e4129bp-2
3277=0x1.2b97fd5d917a1p-3
3278=0x1.58eb6bf385b64p-2
3279=-0x1.6fbcffdb1b31cp-8
3280=-0x1.571a484cacb4dp-1
3281=-0x1.f9a0770c3af91p-4
3282=0x1.7565a34d2f779p-3
3283=0x1.86cf894e953c4p-2
3284=0x1.12526a84c69d3p-3
3286=0x1.5989ebc75d563p-2
3287=-0x1.59bf5c57317afp-4
3289=-0x1.bdc20d3848511p-5
3291=0x1.cc5cbdf665bep-2
3300=-0x1.635a7a1287d3dp-6
3303=-0x1.cd5b881f556d1p-8
3330=0x1.fd29e69fe389p-4
3354=0x1.07bb7049b7c9cp-3
3359=-0x1.8bdea077dc3d5p-2
3376=0x1.90e38bc2490bcp-8
3380=0x1.aeecd63c6f60ep-5
3381=-0x1.32db377a2f15ap-12
3382=0x1.c65ca51ee808ap-5
3383=0x1.aa34fa6c00b6p-16
3390=-0x1.c384ecf00d413p-9
3406=0x1.aa73fbbb06b88p-5
3407=-0x1.fa4419dff473bp-3
3408=0x1.63533f0da7808p-5
3410=0x1.b54467a623dbbp-1
3411=0x1.f8b3392185855p-4
3414=-0x1.1dbbc7d800dd8p-1
3417=-0x1.99d477ea40c39p-6
3433=-0x1.3b0a04a7e004dp-5
3458=0x1.c27c761d0acd8p-8
3459=0x1.4770a5c087691p+0
3461=0x1.9bcc80400b218p-5
3463=0x1.57121be8c3591p-6
3466=-0x1.8b84d8b82c61bp-16
3468=-0x1.aeb879096da31p-6
3471=-0x1.f23769f107ac1p-1
3473=-0x1.8cdf9e969e0bep-7
3485=0x1.26499fa58bfa8p-5
3487=0x1.26aae8e0ff7d8p-1
3510=-0x1.4711fd83b9a66p-1
3511=-0x1.c6a0e2b9b9ef5p-4
3512=0x1.31b9abdd70977p-3
3513=0x1.99892f4666aa5p-3
3514=0x1.c0ad16315cc23p-7
3515=0x1.f78698888ed65p-5
3516=0x1.47f2bf2eec69ep-2
3517=0x1.4d48c47730d3cp-4
3518=-0x1.33d053a691a24p-2
3520=0x1.0b5c73d3aeb3p-3
3521=0x1.474d2daa53cep-2
3523=-0x1.058c6305d9b28p-3
3525=0x1.96d74143e4c1p-10
3532=0x1.0a8f7b5a13eb4p-11
3536=0x1.33278c4b5be6bp-6
3538=0x1.1535bc5732931p+0
3539=-0x1.a3afa4d092a5ap-3
3562=0x1.0d4359fe773fdp-2
3563=0x1.f8b58bbc7c8d8p-4
3588=0x1.65c9ad7581223p-1
3589=-0x1.312ea40b96681p-5
3614=-0x1.e94b90b67440cp-1
3615=-0x1.4ae428767fca7p-1
3616=-0x1.06aad7a2cfc2bp-7
3617=0x1.c7c867289ace9p-4
3618=0x1.d63b8c618da1bp-4
3619=0x1.18ba8953514e6p-2
3620=0x1.7512fbd363f35p-1
3621=0x1.c611e3febf4bep-6
3622=-0x1.8acbd539f69cap-7
3623=0x1.6e4207a9f596p-3
3624=0x1.24273ffb46e1bp-2
3625=0x1.04f0c485c1827p-5
3627=0x1.d3abe116a43a6p-3
3629=-0x1.dd0289a836328p-5
3641=-0x1.1af388154a123p-4
3643=0x1.10a9b4a4861d1p-3
3667=0x1.5339200fa3b7p-6
3669=0x1.0076f700a3744p-2
3692=-0x1.7e20b8417a091p-4
3693=0x1.2a87e037f838ap-8
3694=-0x1.0ce556125d9dap-4
3695=-0x1.6dc5bffcc14bbp-9
3697=0x1.b869c7abaa5dfp-2
3699=0x1.831bb9876999fp-1
3703=0x1.29a233b003021p-2
3718=-0x1.304d18b1b81f5p-2
3719=-0x1.764a7db3545a2p-4
3720=0x1.3ac27c34ba86dp-1
3721=0x1.cfd7557067bd4p-5
3745=0x1.50cc15e05f842p-3
3751=-0x1.101511097bb21p-4
3752=0x1.d1c0eda5dd29cp-3
3755=-0x1.42a1cd43d577p-4
3771=0x1.8f8f63f28e54p-7
3773=0x1.b6c16aff44e16p-3
3774=-0x1.5e8abe2fcdb96p-8
3796=-0x1.cbb98dd242d34p-1
3797=-0x1.1702fb3a321bcp+0
3798=-0x1.3e095a4fd5335p-4
3799=0x1.5c7b28b867f38p-2
3801=0x1.05d03205b37ebp-2
3802=0x1.4fa3d5b280287p-2
3803=0x1.d1a2b7391c5f1p-14
3804=0x1.5e5fcb4120d06p-5
3805=-0x1.00570730e9498p-6
3806=0x1.138d3fdfb97abp-1
3807=0x1.1e7932319cfccp-2
3809=0x1.77d921848d11dp-4
3811=-0x1.31b2367d8f23dp-4
3816=-0x1.7a9ea130b05bfp-7
3819=-0x1.6d1015536719ep-5
3820=-0x1.0356b2f35f1f9p-5
3822=-0x1.353bccae1b8a8p+0
3823=-0x1.bf74fd47c6af6p-3
3824=0x1.df5dec5d14dd4p-1
3825=-0x1.652f4a6f0f421p-9
3830=-0x1.d491869649da7p-4
3832=0x1.9b2b0f8f84d64p-4
3833=-0x1.82e7b54821a68p-12
3835=0x1.b2480c0f91204p-3
3837=0x1.387a306d80f9p-1
3842=0x1.8a64c5b88c8bfp-2
3850=0x1.8e0b750bdcd75p+0
3876=0x1.8ca678e11859p+0
3902=0x1.598713815e2cp-6
3926=0x1.59f361877d772p-2
3927=-0x1.7072a32e6d416p-3
3928=-0x1.ff3c00b33614ap-8
3929=0x1.d5491a7709b9ep-3
3930=-0x1.7c91f13d468a6p-3
3932=-0x1.9c89c96890c06p-6
3933=0x1.a98cdb7a72b59p-2
3936=-0x1.5d29138ec0c18p-1
3937=0x1.067748e129173p-1
3939=0x1.736c839925141p-7
3941=0x1.062f7d779ca7ep-4
3952=-0x1.1257214c36d86p-1
3953=0x1.83e485d0332adp-3
3955=0x1.423395fb9a493p-2
3957=-0x1.bbce0f12ddc9ap-4
3962=-0x1.f27f25e8b1e87p-1
3963=0x1.d71290c876256p-4
3967=0x1.35da1874f4278p-2
3978=-0x1.b2cc6752424acp-3
3981=0x1.95ea30c81c049p-2
3983=-0x1.010e6f657484cp-5
4005=-0x1.a7889683e2a46p-3
4007=0x1.5e9e0788373abp+0
4031=-0x1.140aaf6b1c4d6p-7
4033=0x1.310fa6df5de99p-1
4057=-0x1.b4a1f67157b01p-3
4059=0x1.316d3a42c6b1cp-1
4083=-0x1.ae018ec677c04p-3
4085=0x1.326ff2aa6f62p-1
4109=0x1.14468bd61d473p-5
4110=-0x1.1039fd0ca33e4p-5
4111=0x1.552232a59c0d6p-6
4123=0x1.41a7eb6d9f188p-2
4135=0x1.3b3858f241f7p-3
4137=0x1.53eabd28e225cp-4
4149=-0x1.145d131350468p-2
4160=-0x1.81a1836bf9b29p-5
4161=-0x1.beed85e2b5ad3p-6
4162=-0x1.02677f1cd8924p-3
4163=-0x1.7108d050fd751p-5
4164=0x1.50859be510bc6p-2
4165=-0x1.c4e48f7fc844bp-2
4166=0x1.9410f391c2fbp-1
4167=-0x1.034c2de39eef7p-2
4168=-0x1.5c50fb391d15ep-4
4170=-0x1.90db2e2b5deafp-2
4171=0x1.dfb88618726d5p-4
4173=0x1.4156fa128a1bbp-5
4183=0x1.c86f80c664759p-5
4189=0x1.db750bda55ae2p-5
4213=-0x1.1b74452d849bp-18
4239=-0x1.157e3a376b638p-10
4265=-0x1.432b12b68ee53p-3
4279=0x1.37a1fe7b6937ep+0
4291=-0x1.00675526782cp+0
4293=0x1.5cd2b1be4edaap-3
4300=0x1.f8f398a91b344p-2
4320=0x1.9055743980c33p-3
4324=0x1.492d950a350c8p-3
4325=0x1.2de29b07dcdbbp-5
4342=-0x1.3c39797eab39fp+0
4343=-0x1.7ec6c9edda732p-5
4345=0x1.d92cdece97e32p-4
4347=0x1.3a4688e11cd03p-2
4348=-0x1.4032acc81cfc8p-3
4349=0x1.bd039bdb7de3ep-3
4351=-0x1.b6380daf858b4p-2
4352=-0x1.1c78276f6ff93p-4
4353=0x1.619bee6b1e20cp-3
4355=-0x1.f0adb86bb1ec3p-17
4360=0x1.ad0f6d572951fp-1
4375=0x1.0688079f00becp-4
4397=0x1.4adf1bded09bp-1
4420=-0x1.038849a61f24bp-1
4421=-0x1.4daea1514f257p-1
4422=-0x1.450d5809cab16p-3
4423=-0x1.452f0b084431bp-6
4424=0x1.b6532f3e9962dp-7
4425=0x1.ae1e968668169p-3
4426=0x1.c89bc629e9b5bp-3
4427=-0x1.06a16a29c1f27p-1
4428=-0x1.786e804b849bep-14
4429=0x1.b2563112eb93ep-3
4430=0x1.dff2184e0f362p-3
4431=0x1.7eb52f8317945p-2
4433=0x1.1afd83921b0bdp-3
4435=0x1.6a274a4380c66p-4
4438=0x1.0b6e3e8f25f1fp-3
4440=0x1.ed87092ea15fep-6
4444=-0x1.42f0e05557f07p-5
4447=0x1.7c464e1706a4ep-4
4449=-0x1.327a77c63b9aep-11
4450=0x1.ecb511dbd2d3cp-8
4451=0x1.2d51a1900c90cp-6
4472=-0x1.02dbdf9650e5p+1
4473=-0x1.512a5608764e4p-3
4474=-0x1.072b15fca6c87p+0
4475=-0x1.30d84db318ddbp-5
4476=0x1.4baedbee89c1ep-3
4477=-0x1.6af654ec25938p-3
4478=-0x1.bfda3fc6c4e04p-7
4479=-0x1.298327c3b797ap-3
4480=0x1.71bcd4a8facfap-3
4481=0x1.42cfa5f67b7cap-2
4482=0x1.bc739208b4dccp-2
4483=0x1.ba2a3a2ff28edp-2
4484=0x1.2184a43e74807p-2
4485=0x1.d47da1f7bac87p-2
4486=-0x1.46d2c8d9ca72cp-4
4487=-0x1.b40f1f4f02641p-5
4488=0x1.03bce60f2331p-3
4490=0x1.242d69e321433p-3
4491=0x1.eff3e3b28dc76p-5
4492=0x1.29a246f0767acp-2
4493=-0x1.acd95e1b7ef99p-7
4494=-0x1.5cc5815ba7c8bp-2
4495=-0x1.c278619fa238dp-2
4496=-0x1.581aa42dbbc4p-1
4498=-0x1.63807ac5d9922p-4
4499=-0x1.bbc11e0803a4bp-4
4500=-0x1.6084b46fc9f0cp-10
4501=0x1.9d915867768bep-7
4503=-0x1.316af2d5ff7a9p-11
4505=0x1.720e6f9c040d6p-11
4506=-0x1.657ba37cd1e46p-10
4508=-0x1.1ac2f86bfd54ap-4
4511=0x1.872e1f2e04aa9p-4
4513=0x1.1c9b8e3e3f66bp-3
4518=0x1.15e3c4f6eb6e4p-3
4528=0x1.309e979c9bd26p-2
4532=0x1.37dbee09ad08bp-4
4535=-0x1.d4fcf63dd3c08p-3
4551=0x1.12ba43ff18215p-1
4577=-0x1.2dea75c6304dbp-3
4579=0x1.be49297f51563p-5
4581=-0x1.8ae3cd4a3934cp-7
4582=-0x1.231ac0539bdadp-4
4584=0x1.02d558afee326p-6
4585=0x1.b546eec020472p-4
4586=-0x1.4753b08e46cf7p-11
4587=0x1.7d307abba906dp-3
4588=0x1.7910c33377fb7p-5
4589=0x1.5b63028ab037ep-2
4592=0x1.0bbc5c862fce9p-3
4594=0x1.1ba1499574e99p-4
4595=0x1.73c3cd1eda408p-5
4596=0x1.1962e7c9680eap-3
4605=0x1.7f4f35cd28801p-4
4629=0x1.8465df9537a64p-9
4631=0x1.94e000d5d0421p-4
4657=0x1.36ab5518010c4p-5
4683=0x1.191e4a579e67ap-5
4709=0x1.298c4b69dcdbcp-5
4735=0x1.298c4b69dcdbcp-5
4758=0x1.56907f7ee8709p-4
4759=0x1.1a26868b22298p-1
4760=-0x1.070e2706e97bfp-3
4761=0x1.2729d7ba0c936p-6
4762=0x1.1d7b89bb8feap+0
4763=-0x1.0e168db08cd2dp-1
4764=-0x1.c40b821dcc325p-3
4766=-0x1.cf2a9cedf7589p-6
4768=-0x1.361a4a197421p-3
4769=-0x1.93a059de0c765p-7
4782=-0x1.2f1b88c34420dp-10
4784=0x1.05e3b394cb8e3p+0
4785=0x1.6689a47507e2ep-7
4786=-0x1.f2899e950f2f6p-4
4788=0x1.c0cef6c5770e6p-1
4790=0x1.16014f9e9a86p-8
4791=-0x1.dc3e24151a417p-5
4792=-0x1.5f44cffc9e27fp-6
4794=-0x1.55e3713323f0fp-4
4795=0x1.aa958cbf424dcp-5
4797=-0x1.be93cb59f8345p-4
4799=0x1.1b1f79586f198p-8
4804=-0x1.deb3320e418d9p-4
4806=0x1.068636c0334f2p-3
4807=-0x1.13590b0184a8cp-4
4809=-0x1.951c030424465p-7
4811=-0x1.1cd8d4aa747cfp-7
4814=-0x1.b65df3c5a3221p-3
4815=0x1.230cc47788aafp-15
4816=-0x1.091a30c1d1339p-2
4819=-0x1.216fbd0f02f1bp-9
4820=0x1.f32cc09b2c655p-5
4821=0x1.3ed0ddc3de4f5p-5
4823=0x1.0b3c0b8f9b95ap-4
4826=0x1.0a4c3b47c7762p-5
4828=0x1.bea31753c3086p-8
4840=0x1.a80cd0ea76a41p+1
4842=-0x1.10b1f351379cfp-11
4845=-0x1.44ed84de39b22p-2
4866=0x1.04833868dfba1p+1
4871=-0x1.0e5cb5569ab71p-4
4889=0x1.0fa045e0abaeep-4
4894=0x1.64289b4a67fcp-3
4915=0x1.b0c4d0272f0fp-2
4918=0x1.b886800ae2d98p+0
4923=-0x1.0d6a1816a9283p+1
4925=-0x1.c021208625e7p-5
4940=0x1.caeaebc0a3b64p-5
4941=-0x1.9d95301e4c906p-2
4943=0x1.734c174cd0214p-6
4944=-0x1.909296fc586f1p-3
4946=-0x1.792533b74bfb9p-2
4949=0x1.b7a1bfb819512p-5
4951=0x1.025a8892aceddp-3
4953=0x1.8d85805bde186p-3
4956=0x1.87f0a117cd47ap-6
4960=0x1.0bec61d562912p-7
4970=0x1.2537f85e136adp-7
4975=0x1.db02d9df974ap-7
4976=-0x1.3036630b90ae1p-5
4977=0x1.00dda51dc765ap-5
4993=-0x1.7e3f23b0e85e4p-4
4996=-0x1.f98878daa3dc3p-2
4997=0x1.897d2e807a928p-10
4998=-0x1.a22cd3154012dp-3
5000=0x1.58bdb12890eccp-4
5001=-0x1.7b2ba7bfd0976p-5
5002=0x1.0259a4e54c552p-2
5003=0x1.9ed0bc5aa027ap-2
5004=-0x1.3a11edfdcb2dep-1
5005=0x1.1c3296baea1f6p-3
5012=0x1.16be9c316f22ap-4
5018=0x1.285c3709abb17p-7
5019=-0x1.d144513dfde22p-5
5020=0x1.beb171f910137p-3
5021=0x1.ec905e6728d7ep-6
5023=0x1.189fbdae1019ap-4
5040=0x1.b261a91daf946p-2
5044=0x1.e671b7d3e9f88p-4
5045=-0x1.fa8e00669e2edp-12
5046=0x1.02d877d66a01ep-3
5057=-0x1.93f1164f1d4aap-5
5070=0x1.baf5b622c4c7p-6
5071=-0x1.59667672cc35fp-3
5072=-0x1.c1d153bf0cae3p-13
5073=0x1.057d7e970633dp-9
5075=0x1.0b0f15a23032cp-7
5077=0x1.ec14cd15db7c2p-14
5078=-0x1.405af7505d625p-8
5080=0x1.6df4d9b61d82ep-3
5081=0x1.882ea9727a95fp-4
5083=-0x1.bfb7cb548ad7ep-10
5097=0x1.71235660bc623p-5
5098=0x1.0b97ee9c4be44p-3
5099=-0x1.19078347a12bbp-5
5118=0x1.c866a12594445p-4
5122=0x1.be0deeb9b8497p-6
5123=-0x1.b831e129d90e8p-4
5124=0x1.bc10cd65b8e65p-3
5125=0x1.ac30d68b7e63cp-7
5134=0x1.7b33542c5a49bp-1
5142=-0x1.ac65589360a08p-5
5149=-0x1.08e227e8ebd26p-7
5175=0x1.e46b4a7d1d1dbp-13
5178=-0x1.97d03b941f442p-3
5185=0x1.3441995c57d8fp-2
5200=-0x1.07f1220ba7baep-2
5201=0x1.a780936047629p-2
5202=-0x1.637813c324702p-4
5203=0x1.d4f63ed8e03fcp-2
5205=0x1.b0cd9b9eb4a77p-2
5206=0x1.dcda84d0f16d1p-4
5207=0x1.28266187690d2p-3
5208=0x1.04ebd6576a1f6p-1
5210=0x1.012bbf1f9ed11p-2
5211=0x1.6abb016fafc2dp-2
5213=-0x1.0535df66c9d12p-2
5215=0x1.7150d1b302f46p-6
5216=-0x1.5bfe369c50027p-3
5220=0x1.4cfbc2ff61b8cp-2
5223=-0x1.505f1e858f3cbp-4
5225=0x1.e1dc9887c078ap-2
5226=-0x1.fb21b55d4fcd7p-5
5227=0x1.38b5bd65f8503p-1
5237=0x1.acdb910916cc8p-7
5252=0x1.22dbc19746c95p-1
5262=0x1.aa2407961272ep+0
5263=-0x1.048c60771161ap-3
5279=0x1.6d56e01fd730cp-3
5281=0x1.00c5e42fde64p-3
5282=-0x1.029c61df38cdfp-1
5288=-0x1.807b8d22b37b3p-4
5291=0x1.762a69e57967cp-2
5298=-0x1.4a0470410c1b4p-6
5305=0x1.397883d5ee7a5p-6
5307=0x1.6e34ff544f536p-7
5308=0x1.871d270c3cad2p-3
5309=0x1.f35709643d768p-6
5315=-0x1.40d30c64aa738p-2
5333=0x1.8a5c3e706835cp-5
5335=0x1.28935c0e697f9p-5
5361=0x1.64168909e3e9ep-3
5383=0x1.77043c23930c8p-3
5384=-0x1.2586c1a7fcddbp-6
5385=0x1.a2229e1ebfa9ep-2
5386=-0x1.ef06d33c16bf4p-2
5387=0x1.b4ee2e4686da5p-2
5388=-0x1.2c0dfcd7d41cep-3
5390=-0x1.7e5c0adff4d87p-3
5391=0x1.b533376ecb12cp-9
5392=-0x1.fe9f95e851ddbp-4
5393=-0x1.21b72fd4f57bp-2
5395=0x1.17ddbf82fee3ap-1
5398=0x1.f21733c735ccp-7
5408=-0x1.cb2a4945bd441p-5
5411=-0x1.9c957b5ef3734p-5
5424=0x1.67e2e5edfe936p-3
5431=0x1.3f3f36c2482f2p+0
5434=-0x1.29334942c8dcap-5
5435=0x1.9326af2273caap-9
5437=-0x1.12d396302931bp-5
5450=0x1.7514033b93ee6p-3
5457=0x1.b775807f9daefp-2
5461=0x1.d87a7d7f40dbp-3
5465=0x1.fdc3175b6bae7p-5
5469=0x1.3eb495ceb726p-10
5487=-0x1.c66c53f6cbf9bp-9
5489=0x1.87ada150b5f79p-7
5491=0x1.4e5ef29467139p-5
5496=0x1.562564d309875p-4
5499=0x1.94e64538ae47bp-2
5513=-0x1.490eaef4d3e7cp-3
5515=0x1.96a589aee5424p-6
5516=0x1.844dabc0f45efp-2
5517=0x1.bba324e8044b5p-6
5518=-0x1.f900d636e8625p-8
5520=0x1.17e2168e3722ep-4
5523=0x1.0a3c472f0e71cp-2
5539=-0x1.f80de97a0b225p-6
5541=-0x1.80a67f689d0acp-15
5543=0x1.9c782532403d2p-5
5549=0x1.f925d32c7f929p-4
5567=0x1.c2f9253a35531p-7
5593=0x1.18d1fb101d716p-2
5617=0x1.3e1959283c8cfp-2
5645=0x1.3549f49b6438fp-5
5678=-0x1.07eab30c9033ep-5
5679=0x1.9822382a36b13p-5
5697=0x1.b396913c0fed2p-4
5723=0x1.1a1ea4b267df8p-3
5746=-0x1.8f5ff9ade66dp-3
5747=0x1.305c63272e9ccp-2
5748=-0x1.5144cdc955c74p-4
5749=0x1.d17e63177c50fp-6
5751=0x1.ae55053561fc7p-3
5756=0x1.e0dd77e429be1p-2
5757=-0x1.446161173cfedp-5
5761=-0x1.3e33e387d8451p-4
5773=-0x1.3019c4cfbf391p-5
5775=-0x1.7369821684325p-6
5777=0x1.328863564b5e8p-11
5783=0x1.19a1dd5a30759p-5
5799=-0x1.cb973c1738aaep-3
5801=0x1.7065837251d9ap-6
5803=0x1.4121951ca26dbp-3
5825=0x1.b0b408fd8dfa6p-4
5827=0x1.2cc2a70d416ccp-2
5834=-0x1.bbf0849612e9bp-11
5846=-0x1.119c24a48929bp-8
5851=-0x1.c2c7d8d1dd23cp-4
5855=0x1.1d8770856f157p-5
5858=0x1.cf3c863291fd6p-9
5860=0x1.56e15402089fap-13
5861=-0x1.662ff29c4dbd4p-5
5877=-0x1.f9c5dabac073p-9
5880=0x1.29e68b3f2e2ecp-5
5881=0x1.5b3c120ff0943p-9
5903=0x1.06c043e6d9f86p+1
5933=0x1.7ac400ff73dc1p-12
5955=-0x1.5fd04e264db3p-4
5957=0x1.f2b2d88c6d351p-6
5959=0x1.44b190bbf64d6p-5
5965=-0x1.0cf48336779bap-4
5990=0x1.4f26a945d4cf3p-2
5991=-0x1.b2f1393e9625dp-5
6016=0x1.e5f538f75dbdap+0
6017=-0x1.a5b042c2e4069p-2
6033=-0x1.e62a076f9bd14p-4
6035=0x1.f5b87448663cap-12
6037=0x1.99efe5c0f3bfep-4
6038=-0x1.a8ec96d4b542ep-9
6040=0x1.2a8a0d1fad562p-6
6063=0x1.f7a6c4a8fdb48p-5
6068=0x1.5eea564d97539p-1
6069=-0x1.64ed58f8ee15ap-2
6071=-0x1.4808df827740ep-17
6100=0x1.35e99c0a7099cp-4
6110=0x1.cb244790dd122p-3
6137=-0x1.fb46b551e53fdp-1
6140=0x1.5b882352fb2fp-2
6141=-0x1.42470cd0f0cd1p-4
6142=-0x1.e869d7e027883p-10
6143=0x1.ef15425e05e58p-4
6144=-0x1.7b21ed59af60bp-6
6145=0x1.5f899ed6e049cp-2
6147=-0x1.5194e496f5024p-2
6162=-0x1.52c1b266e8afcp-2
6163=0x1.eb5b41781b872p-10
6164=-0x1.0852980f2dd6bp-5
6165=0x1.27e1e67e5a564p-3
6167=0x1.373d43c947a91p-2
6170=0x1.01feebea79628p-5
6172=-0x1.47db47a206e6p-3
6173=0x1.4f9a3219ddef6p-6
6188=-0x1.2efb7067339f3p-3
6191=0x1.89c116337ee47p-5
6193=0x1.56b5dcd25f637p-2
6196=0x1.8726d9b11675ap-6
6214=-0x1.0a8e60a51e9a8p-4
6215=0x1.81df77d520a8ap-9
6217=0x1.0bdf427a31052p-4
6219=0x1.bb3958b365399p-4
6222=0x1.b9c0dcd7c2ccp-6
6240=-0x1.4e2f7a5b5476fp-11
6241=0x1.379ab3bfaeac7p-4
6243=0x1.d982abc7866d9p-5
6251=0x1.401685df956f5p-2
6267=0x1.194c6e8549f96p-4
6269=0x1.64ade102a522p-2
6292=-0x1.0131611419287p-8
6293=0x1.67b8712bcf13p-6
6295=0x1.6873bc88396bp-2
6324=-0x1.5d7debb46ed7ap-3
6334=0x1.4d341937e1ddcp-1
6345=-0x1.73bafeb3fd092p-3
6347=0x1.dfbadd88171efp-2
6349=-0x1.1ecf2752b85fdp-6
6350=0x1.a9649d7c78d83p+0
6353=0x1.76004a2576195p-1
6373=0x1.3146e4ae6f15cp-6
6374=-0x1.ba965e5964bdep-4
6375=0x1.54e11d097c4b3p-1
6376=0x1.700852f890732p-1
6402=0x1.cd49013d03db6p-4
6424=0x1.536e8646ec15bp-3
6426=-0x1.ccbf414c2dc05p-9
6428=0x1.19559dd268253p-2
6431=-0x1.84d4d16b62d2fp-1
6435=0x1.1c52132f1b425p-2
6446=0x1.819ef973995eep-6
6454=0x1.57b9927411fbdp-2
6480=0x1.53f24a22c1092p-1
6503=-0x1.9fe4d6cbebc0ap-2
6506=0x1.c97f14d4773ep-4
6513=0x1.dae1ccf5ce75ep-4
6527=0x1.af351bc839c0cp-8
6530=0x1.3fe06d341f82dp-1
6532=-0x1.490693db778a4p-1
6535=-0x1.b6419b838227cp-1
6556=-0x1.7e0e2d1c46157p-3
6558=0x1.9004d22d85dafp-4
6594=0x1.b663b4503e785p-1
6604=0x1.4aecdeedf61f1p-7
6631=-0x1.c22367a2ed2p-9
6645=0x1.3818e20628593p-3
6656=0x1.01474a14478bbp-2
6667=-0x1.2b542d81a9aaep-5
6682=0x1.7b08e80fda06ep-14
6683=-0x1.7772b69acf26cp-14
6686=0x1.7ad7e9113fcd7p-2
6687=-0x1.2150409219d69p-8
6692=-0x1.9cf6c4efdbe02p-5
6708=0x1.c2c34abbcaff4p-3
6715=0x1.1800d7a60aa3cp-2
6719=-0x1.507cd76b04d73p-3
6734=0x1.251492d24cf99p-7
6760=0x1.6facbc91602aap-3
6766=0x1.f4083311719d8p-2
6771=-0x1.17879cffa5432p-16
6787=0x1.483ac600d87bfp-1
6788=-0x1.c8153bbcfcdc4p-2
6789=-0x1.78a154896d08dp-3
6813=0x1.a0613c668a46dp-7
6819=0x1.240ff344cc5a3p-3
6820=0x1.7d8828ce439cfp-4
6838=-0x1.4e94d783fdbf8p-2
6839=0x1.950954b4ce93ap-1
6865=0x1.21738b51742c8p-10
6871=0x1.442d425c39438p-1
6872=0x1.23125ce29a29bp-2
6874=0x1.f68d3b19cf4a8p-9
6875=-0x1.01d6d75dbb9b2p-1
6877=0x1.f8f92858c4c64p-3
6890=-0x1.a933f5efe88d5p-5
6891=-0x1.2125fad4b9c82p-7
6892=-0x1.08a8d867754ap-9
6893=0x1.23e364904205bp-6
6894=0x1.9d41f4f941324p-5
6895=0x1.40216715b1bacp-4
6897=0x1.0bcb7b7a00a8cp-3
6898=-0x1.884ba6d7fd7d6p-9
6900=-0x1.2935c05526b2cp-4
6921=0x1.1428309474a24p-3
6947=0x1.1572ac7f5db0fp-3
6969=0x1.ef54a05948bdbp-7
6975=0x1.9f222e21f10bdp-6
6981=0x1.733edb7643978p-6
6995=-0x1.9e1b5d2cd4d8ep-14
7001=0x1.c065d635cace5p-5
7020=0x1.4ea28823ade63p-1
7021=0x1.2021433c4bcc1p-2
7022=-0x1.32e735a3911d2p-4
7028=0x1.7a2032aee9a12p-2
7030=-0x1.77490a7e82669p-3
7047=0x1.a882627d12543p-1
7048=-0x1.766db3d72df23p-6
7073=0x1.5e70e44db3509p+0
7105=0x1.d0031a5a25bcep-1
7131=0x1.98a9186db8559p-4
7151=-0x1.0ff7950526a7fp-3
7157=0x1.25cd8dd7a954ap-2
7158=-0x1.965aa7ed960b2p-9
7177=-0x1.20f5694d20debp-4
7183=0x1.4ba128646af9cp-1
7203=-0x1.0f2be705cf033p-3
7209=0x1.284428ac3005cp-1
7229=-0x1.30f497e52e6bep-4
7235=0x1.2d9419026380bp-1
7254=-0x1.070f76047b41p-5
7255=-0x1.7402b8d1d37e2p-4
7256=0x1.8af1c99463af3p-15
7257=0x1.e0e7ebc5c6fe9p-5
7259=0x1.549ac11f79f1ep-4
7261=0x1.81c1926ef26d5p-4
7264=-0x1.29b99db4bb22p-10
7267=-0x1.f9e1a3f46a6f8p-11
7283=0x1.17abe5fe359fap-6
7287=0x1.c70ab5976ce97p-6
7307=-0x1.7024202128442p-6
7309=0x1.a724b95275b9ep-7
7313=0x1.01c67267d84fdp-5
7333=-0x1.17b05700397bfp-4
7339=0x1.35a2c0828d9f3p-3
7359=-0x1.9b9cf00e32a42p-4
7366=-0x1.086251ba3b849p-6
7371=0x1.3d78d1d48412p-3
7391=0x1.887451c80ef6p-4
7417=0x1.c0a1c37d301afp-3
7418=-0x1.1a0882e949416p-8
7443=0x1.cbe747322975bp-3
7469=0x1.cbb9851b04c19p-3
7495=0x1.63f699c836512p-3
7515=0x1.dcb6e3453ae78p+0
7519=-0x1.b38e6f3dead2p-2
7525=-0x1.57254318d293ap-17
7543=-0x1.c60859302e0cp-5
7547=0x1.86c8b84ed9ec9p-7
7566=0x1.04f68cdabaaa7p-4
7567=-0x1.3790b069ff0a2p-3
7574=0x1.3b4601dde8428p-2
7576=0x1.d4ff757d37bcbp-3
7599=0x1.5f13f1fcf65e2p-4
7618=0x1.66b2b45a0a64fp-1
7644=0x1.05a74110e6a5cp-5
7670=-0x1.8c21b45f9548fp-8
7671=-0x1.d08e42ed3ed48p-4
7672=0x1.832f3f13fe937p-8
7673=-0x1.888eb4bb84ed7p-3
7674=0x1.f10ca031beda4p-5
7675=-0x1.5fa984955b61ap-3
7676=-0x1.d4956bcac9f8ep-11
7677=-0x1.2a384e64e6508p-7
7678=0x1.b01aef815637ep-4
7679=0x1.557f6a0dafbdap+1
7680=-0x1.d965500548ceep-6
7681=-0x1.751578c2d5405p-5
7683=0x1.2988ded5f416dp-10
7685=-0x1.6727cf8688895p-1
7686=-0x1.39c6f7f8a321dp-4
7688=0x1.f8025b3a351f5p-4
7692=-0x1.c122ddb3db83cp-5
7693=-0x1.333dda462d668p-4
7696=-0x1.15e70fa705f0cp-6
7697=0x1.43130645132fep-5
7698=0x1.9ab5a44441fa5p-5
7699=0x1.4df7ebc06c2e2p-3
7700=-0x1.3ec06452f6fcfp-13
7701=0x1.d72a81f11e4b6p-5
7702=0x1.ef4e60baf7f7ap-5
7703=0x1.63741125b9e58p-4
7704=-0x1.8cd55bcbde586p-1
7705=-0x1.c2091676a72a6p-1
7706=-0x1.7090cc141b313p-2
7707=0x1.35e50c2c62745p-6
7709=0x1.afe898a7b9953p-7
7714=0x1.3315b6730212ap-2
7723=-0x1.48fe12deb6d3cp-5
7727=0x1.14624c5b191c3p-5
7728=0x1.70c5c94af3c74p-3
7749=-0x1.424d8875dd5b8p-4
7752=0x1.fb81255177c13p-3
7754=0x1.c19bdfffe08f3p-2
7759=-0x1.e4f591204e774p-4
7768=0x1.fa5bf98479005p-3
7775=-0x1.68cae3b4a8822p-3
7776=0x1.95145e75ba6a4p-6
7777=-0x1.7a9e2853e7f55p+0
7778=0x1.31eb575f9dcf3p-3
7779=-0x1.3e5b078d22ddfp+0
7780=-0x1.26042c1769482p-1
7782=0x1.030821f4f9493p-8
7783=0x1.010d53b41b494p+0
7784=0x1.2bdb45d60f7p-3
7808=0x1.d7461020d0014p-6
7826=-0x1.5c2d3f98b0229p-2
7827=-0x1.a1ab740c383d7p-3
7828=-0x1.5fd82cdc6fc57p-4
7829=0x1.4136bb312633dp-4
7830=-0x1.ffc0c335afeeep-11
7831=-0x1.a734a638b1531p-2
7832=0x1.25624d26edf1fp-2
7833=-0x1.9d1eaba4b6e31p-4
7834=-0x1.7650d377d69a2p-2
7835=0x1.33e2b9781686ep-3
7836=0x1.3625366bd04fcp-6
7841=-0x1.97fef98e78b9cp-7
7842=0x1.43e519d19d21ep-2
7845=0x1.6e437314dca6dp-4
7846=0x1.940f6e6efd0aep-5
7851=-0x1.2a0df8e558774p-5
7852=-0x1.0597b8633fecfp-4
7853=-0x1.7b75351ca0ad1p-2
7854=-0x1.db79c45e683efp-6
7855=0x1.7589cf6f076f1p-5
7856=0x1.5f4f992f0ad6cp-1
7857=0x1.b16e5e73ca1d8p-4
7858=0x1.9afe082e2bf6ap-2
7859=0x1.0cc1b679104a1p-15
7860=-0x1.80053b838f06ep-2
7861=-0x1.ece6964160a18p-1
7862=-0x1.eec360a9a0193p-3
7863=-0x1.9242511a539b6p-3
7864=0x1.46abc8a2da66cp-1
7865=0x1.1b62dd7835db7p-5
7867=-0x1.297c6e23cf61fp-3
7873=0x1.02e6547129e3bp-4
7879=0x1.5b474ea0ec869p-7
7881=-0x1.b4f629b4f9f1p-10
7883=-0x1.eb0900dfb3105p-4
7885=0x1.382d39f34788p-3
7904=-0x1.dd7b9b71c7673p-3
7905=-0x1.98d4981c6ca9bp-10
7907=0x1.9a1c91241b2e3p-5
7908=0x1.1ea95cbe5dc59p+0
7909=-0x1.37107bc7da74p-1
7911=-0x1.5faec717245b6p-6
7913=0x1.b60d5ea1bd77bp-20
7915=0x1.21e66eb9177b6p-2
7931=-0x1.f0c835b4f31afp-3
7933=-0x1.8c6636a316a22p-9
7935=0x1.0e38af893cb15p-3
7938=0x1.56aa48cd82e3cp-1
7964=0x1.4f5a16f54c2cap-1
7983=0x1.42fff2b049f4bp-3
7985=-0x1.67c07a490973ep-6
8009=0x1.0bbc61e45de0bp-4
8011=-0x1.a09c10980d1a6p-11
8015=0x1.3bba3910aeb8ep-4
8035=0x1.c004401277e1bp-4
8061=0x1.57db8b6ac9b8p-5
8063=0x1.fdb35e36c5211p-6
8065=0x1.290873c8a1e92p-11
8068=0x1.75a9f61ed20e4p-5
8086=-0x1.39e18690cf863p-5
8087=-0x1.64f82d93d8042p-7
8089=0x1.bfe5c5fb5d235p-14
8091=0x1.43d532c72a04fp-8
8099=0x1.2a772b6e49a33p-3
8113=0x1.22e369e6c5d23p-3
8115=-0x1.93809198635bap-10
8117=-0x1.96d2ff31ca5b9p-4
8120=0x1.71c7bd20962ffp-4
8122=-0x1.1adf559e65546p-5
8123=0x1.1c70b1e8498c2p-3
8125=0x1.ce231818212e8p-2
8141=0x1.c7549e1eb20dbp-7
8165=0x1.b122580cbca75p-2
8170=0x1.853eb9774c3dp-3
8191=0x1.71d9e72702356p-9
8221=0x1.3f71ad372e871p-7
8243=0x1.751810264205p-5
8245=-0x1.e4df80ef13e87p-7
8269=0x1.4d26fd8777e71p-3
8295=0x1.4d26fd8777e71p-3
8321=0x1.014fdc3a03e76p-1
8347=-0x1.b0a3ae7fb2c0fp-8
8349=-0x1.439c3deac03a2p-3
8353=0x1.5159954a6c982p-2
8354=0x1.2f3a8cc3e6088p-1
8356=-0x1.a120f3215e8ccp-1
8357=0x1.3e0ed4dc2792ep-4
8359=0x1.998c02480539ap-2
8376=0x1.04cfdad6f1483p+0
8377=0x1.a1d16bedb6769p-9
8382=-0x1.536d9ef09dafap-4
8384=0x1.15b0b7c4f9484p-4
8392=0x1.ec33e12e3416ap-2
8399=-0x1.3c1ce10a4401ap-5
8406=-0x1.b55d63d3d9d35p-14
8408=0x1.754c24c36121dp-3
8409=0x1.9a0895fa2359ap-1
8425=-0x1.af384bc625745p-6
8432=0x1.2a587fd68062bp-2
8434=0x1.060ee5b3c8d88p-3
8451=-0x1.864bf2027bc82p-6
8458=0x1.49e5d54a9a8bbp-2
8460=0x1.0c530a71d984cp-3
8477=-0x1.c8a4f44cf916ep-6
8484=0x1.77c70eee093bep-2
8487=0x1.55d0cb0372581p-8
8503=0x1.106f82e5f4ec8p-4
8513=0x1.14957bca93b4p-3
8529=0x1.13639346a4c68p-4
8539=0x1.06ad69e48f88dp-3
8562=-0x1.379d64202082bp-10
8565=0x1.11e5756261396p-3
8588=0x1.555f94b85a12ep-3
8591=-0x1.db9cad30167e2p-16
8616=0x1.e247af31615a2p-2
8636=0x1.bd7d9b02564e4p-3
8652=0x1.c49d9a0e323dap-1
8659=0x1.f4d17b1a81a08p-9
8687=0x1.f9b45fe72c4eap-3
8688=0x1.5158698132e03p-3
8694=0x1.35270630aee14p-10
8711=-0x1.9819d6065bb9ap-1
8713=0x1.b5b198d523492p-1
8717=0x1.0759beb7e53a5p-3
8720=0x1.77840d9a2cd63p-3
8721=-0x1.46078c2443972p+0
8739=0x1.1597aed3f9371p-7
8740=-0x1.ddaf35bceab38p-7
8741=0x1.7a1380b39f1a4p-11
8744=0x1.9fd79834fc7fap-4
8745=-0x1.3f1273b4119ffp+1
8746=-0x1.68ac1b3ffd98bp-2
8749=0x1.cb81db79da23cp-4
8754=0x1.e92a07a2a1249p-2
8756=0x1.70c110287e492p-6
8766=0x1.4966c877ba992p-2
8792=0x1.b622286023839p-5
8815=0x1.0e9ba2df05dd7p-2
8816=0x1.00e3d85bba485p-7
8817=0x1.15f5e39f37a3ep-2
8819=-0x1.05ca0fa64535ep-2
8825=-0x1.1af373c3faa3cp-7
8827=-0x1.4f19567faf8f3p-9
8840=-0x1.a99f4c964aa8fp-6
8841=0x1.fdf073436d746p-3
8866=0x1.be6395dcc786p+0
8867=0x1.351d3f6b25b4cp-3
8868=-0x1.be023c3a21edep-7
8869=0x1.84b43fc37e498p-2
8872=-0x1.68b888c4f5a1fp-2
8874=0x1.99bb387b42eedp-10
8876=-0x1.671868cc0ea84p-3
8905=0x1.a72a088821a9fp-2
8928=0x1.e8c51638f6badp-3
8944=-0x1.0202ef620ea92p-7
8945=0x1.2db91ad9f2667p-4
8971=0x1.36360b48ef487p-4
9016=0x1.7f7f6fcf6e5a9p-10
9022=-0x1.1ef5517593721p-1
9023=0x1.3193707a3f8ecp+0
9026=-0x1.4add647ae6c9p-6
9035=0x1.6741c306257aep-2
9051=-0x1.1f4cd721d44p-2
9075=0x1.432a0cd7ad015p-4
9101=0x1.ce50c718a8a42p-6
9127=0x1.369824a7acaa2p-3
9129=-0x1.24c749ad508d7p-4
9131=0x1.84e7fbb9adb72p-3
9137=-0x1.12dd5e3092ab8p-2
9153=0x1.42ffb0758b40ep-1
9155=-0x1.1f1009be5c76cp-7
9157=0x1.7b003b3b87587p-12
9163=0x1.1009431568441p-4
9178=0x1.708dd213761dfp-2
9179=-0x1.a5aa32733a6fep-7
9180=0x1.3aa3a1eebc3dap-6
9181=-0x1.20be980eba9f4p-4
9182=-0x1.99f9bba76214ep-7
9184=-0x1.345f0a90864b6p-1
9187=0x1.b13af1745e822p-1
9201=0x1.906f5d9ce65d8p-4
9204=0x1.0d35fa2c17b2ep-8
9205=0x1.72cccac791a2ep+0
9206=-0x1.0ef78696ef67fp-3
9207=-0x1.95aab16ebd1b4p-3
9211=-0x1.597a98dc1f378p-4
9215=0x1.55b862162266ep-4
9224=-0x1.47dfacc7270f7p-6
9231=0x1.289e3a4a857bdp-2
9233=0x1.04ec04e51a6eap-3
9257=0x1.dcf406772c6bp-4
9282=0x1.b640f0c674e25p-3
9283=0x1.c489e7e67adebp-3
9284=-0x1.d3472810b7a44p-3
9285=0x1.a41fb0a47a87bp-2
9287=0x1.2e5c7fa71d5bdp-2
9289=-0x1.d104eb45bb3a6p-3
9290=0x1.21482fd5c9254p-5
9292=0x1.e71905b733f4ap-2
9293=-0x1.38f562e16015fp-4
9294=-0x1.7c17a8ab453d4p-2
9295=0x1.05193c19f8fe8p-3
9297=-0x1.ee934026f72d7p-3
9306=-0x1.4bbdca870dbdp-5
9311=0x1.2e252f5e29ba5p-2
9335=-0x1.45e6894c1c2b1p-2
9337=0x1.97f5e539d61b2p-1
9360=0x1.8c2fe9f0394a7p-2
9361=-0x1.fe6cfff142174p-1
9363=0x1.0106a24bce6ddp-5
9371=0x1.9259450e13479p+0
9387=-0x1.4e5db62e49aaep+1
9389=0x1.3d50cd6a2ace1p-2
9391=0x1.aca12e280fc4dp-6
9413=-0x1.804fb63709bb1p-2
9415=0x1.11500177713ecp-4
9439=-0x1.804fb63709bb1p-2
9441=0x1.11500177713ecp-4
9465=-0x1.804fb63709bb1p-2
9467=0x1.11500177713ecp-4
9493=0x1.f23198a7eac0dp-6
9517=-0x1.0ea5839c0914bp-4
9519=0x1.c257bc8be97c3p-5
9521=0x1.d17f35fde4f0cp-3
9543=-0x1.4cc5c3402c3f2p-2
9545=-0x1.807c0b7669d48p-7
9547=0x1.8ca77f08d1803p-2
9553=0x1.746107ae77b03p-7
9555=0x1.6e63e47a3d858p-5
9569=-0x1.281c24844bda8p-6
9571=0x1.7f407a33b3619p-5
9573=0x1.396dd72a8d2a6p-1
9595=0x1.57972cf44986ap-5
9597=0x1.9998f2f9965b4p-8
9599=0x1.446fe4767e663p-4
9623=0x1.670ca1122aea8p-2
9649=0x1.f66f2aacfe6fdp-7
9675=0x1.d19e0c547179ep-5
9699=-0x1.021feaa2e0858p-5
9701=0x1.154ef0fe5bc7fp-1
9713=0x1.60a544d57da1dp-3
9727=0x1.8f26c020849fp-6
9729=0x1.953003bcd1f8fp-3
9735=0x1.93219599c7288p-7
9750=-0x1.8c839e5ffd4e8p-5
9751=0x1.56036386f0a6fp-2
9753=0x1.cf104679afdebp-3
9779=0x1.61f22c96c0784p-3
9781=-0x1.c4e2717ed6168p-7
9786=-0x1.346334880b9cp-6
9789=0x1.ab9865cdae0fbp-2
9805=0x1.ac857764ffe8p-3
9813=-0x1.fc43b727b4babp-3
9829=0x1.08b4825423016p-3
9831=-0x1.7a9696e29d16dp-12
9859=0x1.1b45dae2fc77cp-4
9865=0x1.0e82ea95e9455p-4
9881=0x1.98be175b50594p-4
9907=-0x1.f61e702305437p-7
9909=0x1.177eb3432abe1p-3
9911=0x1.208829e75baf1p-5
9914=0x1.6de68809dd4f6p-6
9916=0x1.2dfd53ea7c91cp-4
9917=-0x1.583bbf02c4b2dp-6
9935=0x1.d192e56838ce9p-5
9958=-0x1.fe7c3a1e39efap-6
9959=-0x1.b5fa6e58e2114p-9
9960=-0x1.ad0500e12b18dp-2
9961=0x1.3fc59c349d223p-4
9967=0x1.e472c587dff07p-3
9985=0x1.4aae9599b5ba6p-5
10011=0x1.0b107cc5a6324p-10
10013=0x1.d582a646f0628p-3
10020=0x1.9f818d12b101fp-8
10039=0x1.130971d778dbp-6
10041=-0x1.53ced04372054p-5
10065=0x1.290d9ba26c0dcp-4
10089=0x1.fad4ff7da2059p-8
10091=-0x1.3f2bc79e8f542p-4
10115=0x1.82db6acddaec9p-3
10117=0x1.323762bae2412p-5
10144=0x1.a911ae82bfa44p-5
10166=0x1.7c4c58554b0f3p-12
10167=-0x1.d859a89423819p-6
10168=0x1.7f402d36854e3p-3
10169=0x1.102260e5b6986p-2
10171=0x1.c513198880618p-13
10172=-0x1.266928c998031p-1
10174=0x1.3c52c49bf5a8p-5
10177=-0x1.bf2a265c96f5fp-2
10179=-0x1.8df2fb441ac8cp-9
10193=0x1.59dc9548e8d0cp-9
10229=0x1.b15aea7339ccp-4
10244=0x1.1b9ce26e84672p-3
10252=-0x1.40270489e0e54p-12
10270=0x1.1a81d32e2fbf7p-5
10271=-0x1.790203c6f62a3p-4
10274=0x1.2d9f6e5d9cb02p-1
10300=0x1.04cf57aa9cf2cp-2
10307=0x1.f456e554cc81ap-6
10326=0x1.c67b4134376fp-2
10352=0x1.d10ab68bfda5bp-2
10374=-0x1.226d406cb6cdep-1
10375=0x1.cbaa6a475a0e7p-3
10377=-0x1.38b2b3e42ec51p-1
10378=0x1.34490af3958bcp-1
10384=0x1.939baa4e2d9a4p-3
10385=-0x1.968f13c105079p-5
10403=0x1.0ded875f6e442p-1
10409=0x1.5d6740724f763p-5
10429=0x1.7976fd6eb8f8ep-2
10452=0x1.6765371bbca22p-3
10454=0x1.fbb5ca554f7ap-12
10479=-0x1.a3379487bbd82p-14
10483=0x1.6106aaf1ed803p-15
10486=0x1.a80d992699137p-4
10505=0x1.ae6b6e881f465p-4
10530=-0x1.293bb4492282ep+1
10531=0x1.6884598c654ffp-4
10532=-0x1.d24bd35b24815p-8
10533=-0x1.63366762505eap-6
10535=-0x1.bc7054141b79fp-2
10536=-0x1.5dceed62726a8p-4
10537=-0x1.7e61e1bf40c06p-3
10538=-0x1.4df48d49c6278p-4
10539=-0x1.420bc8fcfa0cep-14
10540=0x1.704d38f655d47p-1
10541=0x1.049eb1351f926p-2
10542=0x1.07f542c8a994cp+0
10559=0x1.472405a247f27p-9
10583=-0x1.1bf2da8ded18dp-12
10590=0x1.223a3cc091b6ep-11
10616=0x1.1038f137df17cp-2
10635=-0x1.8313df9870afcp-5
10637=0x1.5c09d1e6661b7p-4
10639=-0x1.8f6a4e6ff80b4p-4
10640=0x1.ab911dfd42c74p-3
10641=0x1.f73eac4cd1425p-4
10642=0x1.c7635336768b7p-2
10645=0x1.a2e215b60b126p-7
10661=-0x1.2405f356ae277p-6
10668=0x1.0c8bf9193f624p-1
10694=0x1.6e075efa4ab78p-4
