#mdl#2#4692
#rdr#69/31/0
1:*,
17:u:Ln-1 X=%x[ 0,1],
17:u:Ln-2 X=%x[ 0,2],
17:u:Ln-3 X=%x[ 0,3],
17:u:Ln-4 X=%x[ 0,4],
17:*:Ln-5LL=%x[-2,5],
17:u:Ln-5 L=%x[-1,5],
17:u:Ln-5 X=%x[ 0,5],
17:*:Ln-6LL=%x[-2,6],
17:u:Ln-6 L=%x[-1,6],
17:u:Ln-6 X=%x[ 0,6],
17:u:Ln-7 X=%x[ 0,7],
17:u:Ln-8 X=%x[ 0,8],
17:u:Ln-9 X=%x[ 0,9],
19:*:Fst-1 X=%x[ 0,10],
19:u:Fst-1 R=%x[ 1,10],
19:*:Lst-1 L=%x[-1,11],
19:u:Lst-1 X=%x[ 0,11],
29:u:Fst-2 L=%x[-1,11]/%x[ 0,10],
29:u:Lst-2 R=%x[ 0,11]/%x[ 1,10],
19:*:Wrd-1 X=%x[ 0,12],
29:u:Wrd-2 X=%x[-1,12]/%x[ 1,12],
39:u:Wrd-3LL=%x[-2,12]/%x[-1,12]/%x[ 0,12],
19:u:Avg-1 X=%x[ 0,13],
19:u:Med-1 X=%x[ 0,14],
19:u:Spc-1 X=%x[ 0,15],
19:u:Fwd-1 L=%x[-1,16],
19:u:Fwd-1 X=%x[ 0,16],
29:u:Fwd-2LL=%x[-2,16]/%x[-1,16],
19:u:Num-1 X=%x[ 0,17],
19:u:Ttl-1 X=%x[ 0,18],
19:u:Nme-1LL=%x[-2,19],
19:u:Nme-1 L=%x[-1,19],
19:u:Nme-1 X=%x[ 0,19],
19:u:Loc-1 X=%x[ 0,20],
19:u:Loc-1 R=%x[ 1,20],
19:u:Loc-1RR=%x[ 2,20],
19:u:Pub-1 X=%x[ 0,21],
19:u:Pub-1 R=%x[ 1,21],
19:u:Pub-1RR=%x[ 2,21],
19:u:Jnl-1 X=%x[ 0,22],
19:u:Jnl-1 R=%x[ 1,22],
19:u:Jnl-1RR=%x[ 2,22],
19:u:Idt-1 X=%x[ 0,23],
19:*:Idt-2 X=%x[ 0,24],
29:u:Idt-2 L=%x[-1,24]/%x[ 0,24],
39:u:Idt-2LL=%x[-2,24]/%x[-1,24]/%x[ 0,24],
19:u:Ref-1LL=%x[-2,25],
19:*:Ref-1 L=%x[-1,25],
19:u:Ref-1 X=%x[ 0,25],
19:u:Ref-1 R=%x[ 1,25],
19:u:Ref-1RR=%x[ 2,25],
19:u:Ref-2LL=%x[-2,26],
19:u:Ref-2 L=%x[-1,26],
19:u:Ref-2 X=%x[ 0,26],
19:u:Ref-2 R=%x[ 1,26],
19:u:Ref-2RR=%x[ 2,26],
19:u:Ref-3LL=%x[-2,27],
19:u:Ref-3 L=%x[-1,27],
19:u:Ref-3 X=%x[ 0,27],
19:u:Ref-4 L=%x[-1,28],
19:u:Ref-4 X=%x[ 0,28],
19:u:Ref-4 R=%x[ 1,28],
19:u:Ref-4RR=%x[ 2,28],
19:u:Ref-5LL=%x[-2,29],
19:u:Ref-5 L=%x[-1,29],
19:u:Ref-5 X=%x[ 0,29],
19:u:Pos-1 X=%x[ 0,30],
19:u:Pag-1 X=%x[ 0,31],
#qrk#5
5:title,
5:blank,
4:text,
4:meta,
3:ref,
#qrk#1399
1:*,
11:u:Ln-1 X=46,
11:u:Ln-2 X=51,
11:u:Ln-3 X=10,
10:u:Ln-4 X=9,
13:*:Ln-5LL=_x-2,
13:u:Ln-5 L=_x-1,
10:u:Ln-5 X=1,
13:*:Ln-6LL=_x-2,
13:u:Ln-6 L=_x-1,
10:u:Ln-6 X=0,
11:u:Ln-7 X=10,
13:u:Ln-8 X=none,
10:u:Ln-9 X=0,
12:*:Fst-1 X=Lu,
12:u:Fst-1 R=Lu,
14:*:Lst-1 L=_x-1,
12:u:Lst-1 X=Lu,
17:u:Fst-2 L=_x-1/Lu,
15:u:Lst-2 R=Lu/Lu,
11:*:Wrd-1 X=6,
11:u:Avg-1 X=7,
11:u:Med-1 X=8,
11:u:Spc-1 X=0,
14:u:Fwd-1 L=_x-1,
15:u:Fwd-1 X=alpha,
19:u:Fwd-2LL=_x-2/_x-1,
11:u:Num-1 X=0,
11:u:Ttl-1 X=0,
14:u:Nme-1LL=_x-2,
14:u:Nme-1 L=_x-1,
11:u:Nme-1 X=0,
11:u:Loc-1 X=0,
11:u:Loc-1 R=0,
11:u:Loc-1RR=0,
11:u:Pub-1 X=0,
11:u:Pub-1 R=0,
11:u:Pub-1RR=0,
11:u:Jnl-1 X=3,
11:u:Jnl-1 R=6,
11:u:Jnl-1RR=0,
11:u:Idt-1 X=F,
11:*:Idt-2 X==,
14:u:Ref-1LL=_x-2,
14:*:Ref-1 L=_x-1,
11:u:Ref-1 X=-,
11:u:Ref-1 R=-,
11:u:Ref-1RR=-,
14:u:Ref-2LL=_x-2,
14:u:Ref-2 L=_x-1,
11:u:Ref-2 X=-,
11:u:Ref-2 R=-,
11:u:Ref-2RR=-,
14:u:Ref-3LL=_x-2,
14:u:Ref-3 L=_x-1,
11:u:Ref-3 X=-,
14:u:Ref-4 L=_x-1,
11:u:Ref-4 X=-,
11:u:Ref-4 R=-,
11:u:Ref-4RR=-,
14:u:Ref-5LL=_x-2,
14:u:Ref-5 L=_x-1,
11:u:Ref-5 X=F,
15:u:Pos-1 X=first,
15:u:Pag-1 X=first,
11:u:Ln-1 X=37,
11:u:Ln-2 X=47,
10:u:Ln-4 X=8,
13:*:Ln-5LL=_x-1,
10:u:Ln-5 L=1,
10:u:Ln-5 X=2,
13:*:Ln-6LL=_x-1,
10:u:Ln-6 L=0,
10:u:Ln-7 X=9,
14:u:Fst-1 R=none,
12:*:Lst-1 L=Lu,
15:u:Fst-2 L=Lu/Lu,
17:u:Lst-2 R=Lu/none,
11:*:Wrd-1 X=5,
13:u:Wrd-2 X=6/0,
11:u:Med-1 X=5,
15:u:Fwd-1 L=alpha,
20:u:Fwd-2LL=_x-1/alpha,
14:u:Nme-1LL=_x-1,
11:u:Nme-1 L=0,
11:u:Nme-1 X=2,
11:u:Jnl-1 X=6,
11:u:Jnl-1 R=0,
11:u:Idt-1 X=T,
11:*:Idt-2 X=+,
13:u:Idt-2 L==/+,
14:u:Ref-1LL=_x-1,
11:*:Ref-1 L=-,
14:u:Ref-2LL=_x-1,
11:u:Ref-2 L=-,
14:u:Ref-3LL=_x-1,
11:u:Ref-3 L=-,
11:u:Ref-4 L=-,
14:u:Ref-5LL=_x-1,
11:u:Ref-5 L=F,
11:u:Pos-1 X=0,
10:u:Ln-1 X=0,
10:u:Ln-2 X=0,
10:u:Ln-3 X=0,
10:u:Ln-4 X=0,
10:*:Ln-5LL=1,
10:u:Ln-5 L=2,
10:u:Ln-5 X=0,
10:*:Ln-6LL=0,
10:u:Ln-7 X=0,
14:*:Fst-1 X=none,
14:u:Lst-1 X=none,
11:*:Wrd-1 X=0,
13:u:Wrd-2 X=5/0,
11:u:Avg-1 X=0,
11:u:Med-1 X=0,
14:u:Fwd-1 X=none,
21:u:Fwd-2LL=alpha/alpha,
11:u:Nme-1LL=0,
11:u:Nme-1 L=2,
11:u:Jnl-1 X=0,
11:*:Idt-2 X=-,
13:u:Idt-2 L=+/-,
15:u:Idt-2LL==/+/-,
11:u:Ref-1LL=-,
11:u:Ref-2LL=-,
11:u:Ref-3LL=-,
11:u:Ref-5LL=F,
11:u:Pos-1 X=1,
10:*:Ln-5LL=2,
10:u:Ln-5 L=0,
14:*:Lst-1 L=none,
13:u:Wrd-2 X=0/0,
14:u:Fwd-1 L=none,
20:u:Fwd-2LL=alpha/none,
11:u:Nme-1LL=2,
13:u:Idt-2 L=-/=,
15:u:Idt-2LL=+/-/=,
10:*:Ln-5LL=0,
19:u:Fwd-2LL=none/none,
13:u:Idt-2 L==/=,
15:u:Idt-2LL=-/=/=,
11:u:Pos-1 X=2,
13:u:Wrd-2 X=0/2,
15:u:Idt-2LL==/=/=,
11:u:Ln-1 X=13,
11:u:Ln-2 X=33,
10:u:Ln-4 X=4,
10:u:Ln-5 X=6,
10:u:Ln-7 X=6,
17:u:Fst-2 L=none/Lu,
11:*:Wrd-1 X=2,
15:u:Wrd-3LL=0/0/2,
11:u:Avg-1 X=6,
11:u:Med-1 X=6,
15:u:Idt-2LL==/=/+,
11:u:Pos-1 X=3,
10:u:Ln-5 L=6,
13:u:Wrd-2 X=2/0,
20:u:Fwd-2LL=none/alpha,
10:*:Ln-5LL=6,
11:u:Pub-1RR=4,
11:u:Jnl-1RR=9,
11:u:Pos-1 X=4,
11:u:Ln-1 X=11,
11:u:Ln-2 X=32,
10:u:Ln-4 X=3,
10:u:Ln-5 X=7,
13:u:Wrd-2 X=0/7,
11:u:Avg-1 X=5,
11:u:Pub-1 R=4,
11:u:Pub-1RR=3,
11:u:Jnl-1RR=8,
15:u:Idt-2LL=-/=/+,
11:u:Ln-1 X=45,
11:u:Ln-2 X=52,
10:u:Ln-5 L=7,
11:*:Wrd-1 X=7,
13:u:Wrd-2 X=2/6,
15:u:Wrd-3LL=0/2/7,
11:u:Med-1 X=7,
11:u:Loc-1RR=7,
11:u:Pub-1 X=4,
11:u:Pub-1 R=3,
11:u:Pub-1RR=7,
11:u:Jnl-1 X=9,
11:u:Jnl-1 R=8,
11:u:Jnl-1RR=7,
11:u:Pos-1 X=5,
11:u:Ln-1 X=32,
11:u:Ln-2 X=44,
10:u:Ln-4 X=7,
10:*:Ln-5LL=7,
10:u:Ln-5 X=3,
10:u:Ln-7 X=8,
13:u:Wrd-2 X=7/3,
15:u:Wrd-3LL=2/7/6,
11:u:Loc-1 R=7,
11:u:Pub-1 X=3,
11:u:Pub-1 R=7,
11:u:Pub-1RR=2,
11:u:Jnl-1 X=8,
11:u:Jnl-1 R=7,
11:u:Jnl-1RR=5,
13:u:Idt-2 L=-/+,
15:u:Idt-2LL=+/-/+,
11:u:Ln-1 X=20,
11:u:Ln-2 X=37,
10:u:Ln-4 X=5,
10:u:Ln-5 L=3,
10:u:Ln-5 X=5,
10:u:Ln-7 X=7,
11:*:Wrd-1 X=3,
13:u:Wrd-2 X=6/6,
11:u:Nme-1 X=3,
11:u:Loc-1 X=7,
11:u:Pub-1 X=7,
11:u:Pub-1 R=2,
11:u:Pub-1RR=5,
11:u:Jnl-1 X=7,
11:u:Jnl-1 R=5,
13:u:Idt-2 L=+/+,
15:u:Idt-2LL=-/+/+,
11:u:Ln-2 X=48,
10:*:Ln-5LL=3,
10:u:Ln-5 L=5,
13:u:Wrd-2 X=3/4,
15:u:Wrd-3LL=6/3/6,
11:u:Nme-1 L=3,
11:u:Pub-1 X=2,
11:u:Pub-1 R=5,
11:u:Jnl-1 X=5,
15:u:Idt-2LL=+/+/-,
11:u:Pos-1 X=6,
11:u:Ln-1 X=14,
11:u:Ln-2 X=35,
10:*:Ln-5LL=5,
11:*:Wrd-1 X=4,
13:u:Wrd-2 X=6/3,
15:u:Wrd-3LL=3/6/4,
11:u:Avg-1 X=3,
11:u:Med-1 X=3,
11:u:Nme-1LL=3,
11:u:Pub-1 X=5,
11:u:Ln-1 X=18,
11:u:Ln-2 X=36,
13:u:Wrd-2 X=4/0,
15:u:Idt-2LL=-/+/-,
11:u:Pos-1 X=7,
13:u:Wrd-2 X=3/0,
13:u:Idt-2 L=-/-,
15:u:Idt-2LL=+/-/-,
15:u:Idt-2LL=-/-/=,
11:u:Pos-1 X=8,
11:u:Ref-1RR=+,
11:u:Pos-1 X=9,
11:u:Ln-2 X=34,
10:u:Ln-3 X=3,
12:u:Lst-1 X=Ll,
15:u:Lst-2 R=Ll/Lu,
11:u:Nme-1 X=5,
12:u:Jnl-1RR=10,
11:u:Ref-1 R=+,
10:u:Ln-1 X=9,
10:u:Ln-3 X=1,
12:*:Lst-1 L=Ll,
11:u:Lst-1 X=N,
15:u:Fst-2 L=Ll/Lu,
14:u:Lst-2 R=N/Lu,
13:u:Wrd-2 X=2/1,
15:u:Wrd-3LL=0/2/2,
11:u:Num-1 X=1,
11:u:Nme-1 L=5,
12:u:Jnl-1 R=10,
13:u:Idt-2 L=+/=,
15:u:Idt-2LL==/+/=,
11:u:Ref-1 X=+,
14:u:Pos-1 X=last,
10:u:Ln-1 X=8,
11:u:Ln-2 X=46,
10:u:Ln-4 X=2,
10:u:Ln-5 X=8,
10:u:Ln-7 X=5,
11:*:Lst-1 L=N,
14:u:Fst-2 L=N/Lu,
11:*:Wrd-1 X=1,
15:u:Wrd-3LL=2/2/1,
11:u:Avg-1 X=8,
12:u:Ttl-1 X=10,
11:u:Nme-1LL=5,
12:u:Jnl-1 X=10,
15:u:Idt-2LL=+/=/+,
11:*:Ref-1 L=+,
11:u:Pag-1 X=0,
11:u:Ln-1 X=67,
11:u:Ln-2 X=86,
10:u:Ln-5 L=8,
17:u:Lst-2 R=Ll/none,
12:*:Wrd-1 X=12,
13:u:Wrd-2 X=1/0,
11:u:Nme-1 X=1,
11:u:Pub-1RR=1,
11:u:Ref-1LL=+,
10:*:Ln-5LL=8,
12:u:Fst-1 R=Ll,
15:u:Wrd-2 X=12/12,
11:u:Nme-1 L=1,
11:u:Pub-1 R=1,
11:u:Ln-2 X=81,
12:*:Fst-1 X=Ll,
11:u:Lst-1 X=P,
17:u:Fst-2 L=none/Ll,
16:u:Lst-2 R=P/none,
17:u:Wrd-3LL=12/0/12,
11:u:Nme-1LL=1,
11:u:Loc-1RR=1,
11:u:Pub-1 X=1,
11:*:Lst-1 L=P,
11:u:Loc-1 R=1,
11:u:Ln-1 X=64,
11:u:Ln-2 X=75,
11:*:Wrd-1 X=9,
16:u:Wrd-3LL=12/0/9,
11:u:Med-1 X=9,
11:u:Loc-1 X=1,
14:u:Wrd-2 X=9/11,
11:u:Ln-1 X=77,
11:u:Ln-2 X=87,
12:*:Wrd-1 X=11,
16:u:Wrd-3LL=9/0/11,
15:u:Wrd-2 X=11/10,
11:u:Ln-1 X=73,
11:u:Ln-2 X=84,
12:*:Wrd-1 X=10,
17:u:Wrd-3LL=11/0/10,
11:u:Jnl-1RR=3,
14:u:Wrd-2 X=10/9,
11:u:Jnl-1 R=3,
11:u:Ln-1 X=60,
11:u:Ln-2 X=78,
10:u:Ln-6 X=1,
10:u:Ln-6 L=1,
11:u:Ln-1 X=76,
11:u:Ln-2 X=88,
10:*:Ln-6LL=1,
16:u:Wrd-3LL=9/0/12,
11:u:Ln-1 X=72,
12:*:Wrd-1 X=13,
17:u:Wrd-3LL=12/0/13,
15:u:Wrd-2 X=13/13,
11:u:Ln-1 X=69,
11:u:Ln-2 X=85,
17:u:Wrd-3LL=13/0/13,
11:u:Ln-2 X=90,
11:u:Jnl-1RR=4,
11:u:Jnl-1 R=4,
11:u:Ln-1 X=71,
12:*:Wrd-1 X=18,
11:u:Jnl-1 X=4,
11:u:Jnl-1RR=6,
12:u:Fst-1 R=Ps,
11:u:Ln-1 X=66,
12:*:Fst-1 X=Ps,
17:u:Fst-2 L=none/Ps,
12:*:Wrd-1 X=17,
11:u:Med-1 X=4,
11:u:Ln-1 X=57,
17:u:Wrd-3LL=17/0/11,
11:u:Ln-1 X=70,
11:u:Ln-2 X=83,
15:u:Wrd-2 X=10/11,
17:u:Wrd-3LL=10/0/11,
17:u:Wrd-3LL=11/0/11,
12:*:Wrd-1 X=14,
17:u:Wrd-3LL=11/0/14,
11:u:Ln-1 X=68,
11:u:Ln-2 X=80,
17:u:Wrd-3LL=14/0/12,
15:u:Wrd-2 X=12/14,
11:u:Ln-2 X=82,
17:u:Wrd-3LL=12/0/14,
11:u:Avg-1 X=4,
11:u:Ln-2 X=89,
17:u:Wrd-3LL=14/0/13,
15:u:Wrd-2 X=13/12,
12:u:Pos-1 X=10,
15:u:Lst-2 R=Ll/Ll,
14:u:Wrd-2 X=0/11,
17:u:Wrd-3LL=13/0/12,
11:u:Ln-1 X=65,
15:u:Fst-2 L=Ll/Ll,
14:u:Wrd-2 X=12/0,
11:u:Jnl-1RR=2,
11:u:Jnl-1 R=2,
17:u:Wrd-3LL=11/0/13,
11:u:Jnl-1 X=2,
15:u:Wrd-2 X=13/10,
17:u:Wrd-3LL=13/0/10,
11:u:Ln-1 X=74,
17:u:Wrd-3LL=10/0/10,
17:u:Wrd-3LL=10/0/14,
15:u:Wrd-2 X=14/10,
11:u:Ln-1 X=62,
11:u:Ln-2 X=77,
17:u:Wrd-3LL=14/0/10,
14:u:Wrd-2 X=10/1,
11:u:Ln-2 X=15,
10:u:Ln-7 X=2,
14:u:Lst-2 R=P/Lu,
13:u:Wrd-2 X=0/1,
16:u:Wrd-3LL=10/0/1,
12:u:Avg-1 X=14,
12:u:Med-1 X=14,
11:u:Ln-1 X=15,
11:u:Ln-2 X=45,
14:u:Fst-2 L=P/Lu,
14:u:Wrd-2 X=1/12,
15:u:Wrd-3LL=0/1/1,
12:u:Avg-1 X=15,
12:u:Med-1 X=15,
14:u:Wrd-2 X=12/7,
11:u:Ln-1 X=41,
16:u:Wrd-3LL=12/0/7,
16:u:Wrd-3LL=7/0/14,
11:u:Ref-3 X=+,
11:u:Ref-3 L=+,
12:*:Wrd-1 X=15,
11:u:Loc-1RR=2,
11:u:Ref-3LL=+,
11:u:Loc-1 R=2,
11:u:Ln-2 X=73,
17:u:Wrd-3LL=15/0/13,
11:u:Loc-1 X=2,
15:u:Wrd-2 X=13/14,
17:u:Wrd-3LL=13/0/14,
15:u:Wrd-2 X=14/14,
17:u:Wrd-3LL=14/0/14,
11:u:Jnl-1RR=1,
11:u:Jnl-1 R=1,
11:u:Jnl-1 X=1,
15:u:Wrd-2 X=13/11,
11:u:Ln-1 X=75,
17:u:Wrd-3LL=13/0/11,
14:u:Wrd-2 X=11/3,
11:u:Ln-1 X=12,
16:u:Wrd-3LL=11/0/3,
11:u:Med-1 X=2,
11:u:Ln-1 X=59,
11:u:Loc-1RR=3,
11:u:Loc-1 R=3,
11:u:Ln-1 X=55,
11:u:Ln-2 X=74,
11:u:Loc-1 X=3,
11:u:Ln-1 X=53,
11:u:Nme-1 X=4,
11:u:Nme-1 L=4,
17:u:Wrd-3LL=15/0/15,
11:u:Nme-1LL=4,
17:u:Wrd-3LL=15/0/12,
15:u:Wrd-2 X=15/10,
11:u:Ln-1 X=52,
11:u:Ln-2 X=62,
14:u:Wrd-2 X=0/14,
17:u:Wrd-3LL=15/0/10,
11:u:Ln-1 X=63,
14:u:Wrd-2 X=10/0,
12:*:Wrd-1 X=16,
11:u:Ln-2 X=40,
11:*:Wrd-1 X=8,
10:u:Ln-2 X=8,
11:u:Ln-4 X=10,
10:u:Ln-7 X=1,
11:u:Fst-1 R=N,
14:u:Lst-2 R=Ll/N,
15:u:Wrd-3LL=0/8/1,
12:u:Ln-2 X=123,
10:u:Ln-4 X=1,
10:u:Ln-6 X=8,
12:u:Ln-8 X=toc,
11:*:Fst-1 X=N,
14:u:Fst-2 L=Ll/N,
16:u:Lst-2 R=N/none,
15:u:Wrd-3LL=8/1/3,
11:u:Spc-1 X=1,
16:u:Fwd-1 X=number,
11:u:Num-1 X=2,
11:u:Ttl-1 X=3,
13:u:Wrd-2 X=3/7,
16:u:Fwd-1 L=number,
22:u:Fwd-2LL=alpha/number,
11:u:Ln-1 X=21,
12:u:Ln-2 X=116,
10:*:Ln-6LL=8,
16:u:Fst-2 L=none/N,
15:u:Wrd-3LL=3/0/7,
21:u:Fwd-2LL=number/none,
21:u:Fwd-2LL=none/number,
11:u:Ln-1 X=30,
10:*:Ln-6LL=7,
10:u:Ln-6 X=6,
15:u:Wrd-3LL=7/0/7,
13:u:Wrd-2 X=7/6,
11:u:Ln-1 X=33,
12:u:Ln-2 X=108,
15:u:Wrd-3LL=7/0/6,
12:u:Ln-2 X=109,
10:u:Ln-3 X=2,
11:u:Ln-1 X=24,
15:u:Wrd-3LL=8/0/5,
13:u:Wrd-2 X=5/4,
15:u:Wrd-3LL=5/0/4,
13:u:Wrd-2 X=4/3,
15:u:Wrd-3LL=4/0/3,
13:u:Wrd-2 X=3/6,
11:u:Ln-1 X=35,
10:u:Ln-6 X=5,
15:u:Wrd-3LL=3/0/6,
10:u:Ln-6 L=5,
11:u:Ln-1 X=19,
10:*:Ln-6LL=5,
15:u:Wrd-3LL=6/0/4,
13:u:Wrd-2 X=4/4,
11:u:Ln-1 X=25,
12:u:Ln-2 X=111,
15:u:Wrd-3LL=4/0/4,
11:u:Ln-1 X=47,
11:u:Ln-2 X=91,
10:u:Ln-6 X=3,
15:u:Wrd-3LL=4/0/8,
10:*:Ln-6LL=3,
15:u:Wrd-3LL=8/0/3,
13:u:Wrd-2 X=3/8,
15:u:Wrd-3LL=3/0/8,
11:u:Ln-1 X=23,
15:u:Wrd-3LL=8/0/6,
13:u:Lst-2 R=N/N,
13:u:Wrd-2 X=0/5,
15:u:Wrd-3LL=6/0/7,
13:u:Fst-2 L=N/N,
13:u:Wrd-2 X=7/0,
15:u:Idt-2LL=-/+/=,
13:u:Wrd-2 X=5/6,
23:u:Fwd-2LL=number/number,
13:u:Idt-2 L==/-,
15:u:Idt-2LL=+/=/-,
11:u:Ln-1 X=38,
12:u:Ln-2 X=105,
15:u:Idt-2LL==/-/=,
15:u:Wrd-3LL=6/0/3,
15:u:Wrd-3LL=7/0/4,
11:u:Ln-1 X=10,
11:u:Ln-2 X=72,
16:u:Wrd-3LL=3/0/10,
10:u:Ln-1 X=5,
10:u:Ln-6 X=9,
16:u:Wrd-3LL=10/0/2,
13:u:Wrd-2 X=2/3,
15:u:Wrd-3LL=2/0/3,
11:u:Ln-2 X=93,
15:u:Wrd-3LL=4/0/9,
11:u:Ln-1 X=40,
11:u:Ln-2 X=98,
10:u:Ln-6 X=4,
15:u:Wrd-3LL=9/0/7,
11:u:Ln-1 X=17,
12:u:Ln-2 X=117,
10:*:Ln-6LL=4,
11:u:Ln-1 X=61,
11:u:Ln-2 X=76,
14:u:Wrd-2 X=10/5,
16:u:Wrd-3LL=10/0/5,
11:u:Ln-1 X=36,
13:u:Wrd-2 X=0/8,
11:u:Ln-1 X=39,
13:u:Wrd-2 X=8/0,
11:u:Pag-1 X=1,
15:u:Idt-2LL==/-/+,
16:u:Wrd-3LL=10/0/4,
13:u:Wrd-2 X=9/4,
15:u:Wrd-3LL=9/0/4,
12:u:Ln-2 X=122,
12:u:Ln-2 X=120,
11:u:Ln-1 X=43,
11:u:Ln-2 X=95,
15:u:Wrd-3LL=4/0/7,
13:u:Wrd-2 X=3/5,
13:u:Wrd-2 X=3/3,
10:u:Ln-1 X=7,
12:u:Ln-2 X=124,
15:u:Wrd-3LL=3/0/3,
13:u:Wrd-2 X=3/2,
13:u:Wrd-2 X=0/3,
15:u:Wrd-3LL=3/0/2,
11:u:Ref-2RR=+,
14:u:Wrd-2 X=2/10,
11:u:Nme-1 X=7,
11:u:Ref-2 R=+,
11:u:Ln-1 X=49,
11:u:Num-1 X=3,
11:u:Nme-1 L=7,
11:u:Ref-2 X=+,
15:u:Wrd-2 X=10/12,
11:u:Nme-1LL=7,
11:u:Ref-2 L=+,
12:u:Ln-8 X=cap,
17:u:Wrd-3LL=10/0/12,
11:u:Ref-2LL=+,
17:u:Wrd-3LL=12/0/11,
15:u:Wrd-2 X=13/15,
11:u:Ln-1 X=56,
17:u:Wrd-3LL=13/0/15,
12:u:Lst-1 X=Pd,
17:u:Lst-2 R=Pd/none,
12:*:Lst-1 L=Pd,
16:u:Wrd-3LL=14/0/3,
14:u:Wrd-2 X=3/12,
11:u:Ln-2 X=79,
16:u:Wrd-3LL=3/0/12,
11:u:Ln-2 X=71,
11:u:Ln-1 X=26,
15:u:Wrd-3LL=9/0/8,
11:u:Ln-2 X=70,
12:u:Lst-1 X=Pe,
17:u:Lst-2 R=Pe/none,
16:u:Wrd-3LL=8/0/10,
12:*:Lst-1 L=Pe,
14:u:Wrd-2 X=7/11,
12:u:Ln-2 X=110,
16:u:Wrd-3LL=11/0/6,
11:u:Ln-2 X=68,
16:u:Wrd-3LL=6/0/10,
17:u:Wrd-3LL=10/0/13,
14:u:Wrd-2 X=13/0,
17:u:Wrd-3LL=0/13/11,
11:u:Ln-1 X=29,
16:u:Wrd-3LL=6/0/11,
12:u:Ln-2 X=102,
11:u:Num-1 X=4,
14:u:Wrd-2 X=11/8,
11:u:Ln-2 X=67,
16:u:Wrd-3LL=11/0/8,
15:u:Wrd-3LL=8/0/9,
13:u:Wrd-2 X=9/9,
12:u:Ln-2 X=100,
15:u:Wrd-3LL=9/0/9,
17:u:Wrd-3LL=11/0/12,
11:u:Ln-1 X=27,
16:u:Wrd-3LL=12/0/5,
16:u:Wrd-3LL=3/0/13,
11:u:Ln-2 X=94,
10:u:Ln-4 X=6,
10:u:Ln-6 X=2,
10:u:Ln-6 L=2,
10:*:Ln-6LL=2,
15:u:Wrd-2 X=15/14,
17:u:Wrd-3LL=15/0/14,
14:u:Wrd-2 X=0/10,
11:u:Avg-1 X=2,
11:u:Num-1 X=5,
14:u:Wrd-2 X=11/0,
15:u:Wrd-2 X=15/16,
11:u:Ln-1 X=44,
17:u:Wrd-3LL=15/0/16,
11:u:Fst-1 R=P,
12:u:Ln-2 X=133,
11:*:Fst-1 X=P,
16:u:Fst-2 L=none/P,
16:u:Wrd-3LL=16/0/1,
13:u:Wrd-2 X=1/9,
15:u:Wrd-3LL=1/0/9,
16:u:Wrd-3LL=12/0/3,
11:u:Ln-1 X=54,
14:u:Wrd-2 X=12/6,
16:u:Wrd-3LL=12/0/6,
15:u:Wrd-3LL=6/0/9,
14:u:Wrd-2 X=9/14,
11:u:Ln-1 X=28,
11:u:Ln-1 X=50,
16:u:Wrd-3LL=8/0/14,
15:u:Wrd-2 X=14/11,
17:u:Wrd-3LL=14/0/11,
16:u:Wrd-3LL=2/0/12,
11:u:Ln-1 X=51,
16:u:Wrd-3LL=14/0/7,
14:u:Wrd-2 X=0/13,
11:u:Ln-1 X=58,
16:u:Wrd-3LL=15/0/4,
16:u:Wrd-3LL=4/0/11,
16:u:Wrd-3LL=11/0/9,
14:u:Wrd-2 X=13/3,
10:u:Ln-1 X=2,
16:u:Wrd-3LL=13/0/3,
15:u:Wrd-3LL=3/0/9,
14:u:Wrd-2 X=9/10,
16:u:Wrd-3LL=9/0/10,
15:u:Wrd-2 X=12/10,
17:u:Wrd-3LL=12/0/10,
14:u:Wrd-2 X=12/8,
11:u:Ln-1 X=48,
16:u:Wrd-3LL=12/0/2,
11:u:Ttl-1 X=1,
16:u:Wrd-3LL=13/0/8,
11:u:Ln-2 X=66,
11:u:Ln-2 X=69,
12:u:Ln-2 X=103,
11:u:Ref-2RR=*,
11:u:Ref-2 R=*,
11:u:Ref-2 X=*,
11:u:Ref-2 L=*,
11:u:Ref-2LL=*,
16:u:Wrd-3LL=10/0/8,
14:u:Wrd-2 X=8/12,
11:u:Ln-2 X=92,
11:u:Ln-2 X=99,
16:u:Wrd-3LL=8/0/11,
14:u:Wrd-2 X=0/12,
17:u:Fwd-1 X=numeric,
17:u:Fwd-1 L=numeric,
22:u:Fwd-2LL=none/numeric,
23:u:Fwd-2LL=numeric/alpha,
14:u:Wrd-2 X=13/7,
16:u:Wrd-3LL=13/0/7,
22:u:Fwd-2LL=numeric/none,
10:u:Ln-1 X=1,
16:u:Wrd-3LL=2/0/13,
15:u:Wrd-3LL=0/3/3,
16:u:Wrd-3LL=3/3/11,
11:u:Ln-1 X=16,
11:u:Ln-2 X=16,
11:u:Ttl-1 X=5,
11:u:Ln-2 X=29,
10:u:Ln-7 X=3,
15:u:Wrd-3LL=2/0/6,
15:u:Wrd-2 X=13/17,
11:u:Ln-2 X=19,
16:u:Wrd-3LL=10/0/3,
13:u:Wrd-2 X=0/9,
15:u:Wrd-3LL=0/0/9,
14:u:Wrd-2 X=15/0,
11:u:Ln-1 X=34,
11:u:Ln-2 X=41,
13:u:Wrd-2 X=9/0,
13:u:Wrd-2 X=0/6,
11:u:Ln-2 X=38,
10:u:Ln-7 X=4,
15:u:Wrd-3LL=0/0/6,
17:u:Wrd-3LL=16/0/12,
11:u:Ref-1RR=*,
11:u:Ref-1 R=*,
11:u:Ref-1 X=*,
11:*:Ref-1 L=*,
11:u:Ref-1LL=*,
14:u:Wrd-2 X=0/15,
11:u:Ref-4RR=+,
11:u:Ref-4 X=+,
11:u:Ref-4 L=+,
10:u:Ln-2 X=4,
16:u:Wrd-3LL=14/0/1,
16:u:Wrd-3LL=1/0/12,
11:u:Ln-1 X=22,
11:u:Ln-2 X=27,
13:u:Lst-2 R=P/N,
13:u:Fst-2 L=P/N,
16:u:Wrd-3LL=14/0/9,
16:u:Wrd-3LL=9/0/15,
12:u:Med-1 X=10,
17:u:Wrd-3LL=14/0/15,
17:u:Wrd-3LL=16/0/16,
17:u:Wrd-3LL=16/0/13,
15:u:Wrd-2 X=16/14,
11:u:Pag-1 X=2,
17:u:Wrd-3LL=11/0/16,
17:u:Wrd-3LL=16/0/15,
11:u:Ln-2 X=11,
10:u:Ln-5 X=9,
10:u:Ln-5 L=9,
10:*:Ln-5LL=9,
13:u:Wrd-2 X=2/2,
15:u:Wrd-3LL=2/0/2,
12:*:Wrd-1 X=19,
14:u:Wrd-2 X=4/10,
16:u:Wrd-3LL=4/0/10,
17:u:Wrd-3LL=15/0/11,
12:*:Wrd-1 X=20,
11:u:Ln-2 X=43,
16:u:Wrd-3LL=7/0/10,
10:u:Ln-1 X=4,
10:u:Ln-2 X=9,
11:u:Ln-2 X=39,
10:u:Ln-5 X=4,
11:u:Spc-1 X=2,
10:u:Ln-5 L=4,
10:*:Ln-5LL=4,
13:u:Wrd-2 X=0/4,
10:u:Ln-1 X=3,
15:u:Wrd-3LL=0/0/4,
11:u:Spc-1 X=3,
10:u:Ln-3 X=5,
11:u:Avg-1 X=1,
11:u:Med-1 X=1,
16:u:Wrd-3LL=0/0/11,
11:u:Ln-2 X=20,
14:u:Wrd-2 X=11/4,
11:u:Avg-1 X=9,
11:u:Ln-2 X=30,
11:u:Ln-2 X=13,
16:u:Wrd-3LL=3/0/11,
15:u:Lst-2 R=Ll/Ps,
15:u:Fst-2 L=Ll/Ps,
11:u:Ln-1 X=78,
11:u:Ln-5 X=10,
14:u:Lst-2 R=N/Ll,
16:u:Wrd-3LL=0/12/1,
11:u:Ln-5 L=10,
14:u:Fst-2 L=N/Ll,
11:*:Ln-5LL=10,
22:u:Fwd-2LL=number/alpha,
11:u:Ln-2 X=63,
16:u:Wrd-3LL=0/10/1,
16:u:Wrd-3LL=11/0/4,
14:u:Wrd-2 X=14/0,
11:u:Ln-2 X=65,
11:u:Ttl-1 X=2,
12:u:Med-1 X=11,
23:u:Fwd-2LL=alpha/numeric,
11:u:Ln-2 X=61,
15:u:Wrd-3LL=0/9/4,
14:u:Wrd-2 X=4/13,
16:u:Wrd-3LL=4/0/13,
11:u:Ln-2 X=18,
13:u:Lst-2 R=N/P,
16:u:Wrd-3LL=13/0/2,
16:u:Wrd-3LL=0/0/12,
11:u:Ln-2 X=55,
14:u:Wrd-2 X=5/12,
16:u:Wrd-3LL=5/0/12,
16:u:Wrd-3LL=11/0/5,
15:u:Wrd-3LL=0/0/5,
11:u:Pag-1 X=3,
14:u:Lst-2 R=P/Ll,
14:u:Fst-2 L=P/Ll,
11:u:Ln-2 X=14,
16:u:Wrd-3LL=2/0/11,
12:u:Fst-1 R=Pd,
12:*:Fst-1 X=Pd,
17:u:Fst-2 L=none/Pd,
14:u:Wrd-2 X=13/4,
11:u:Ln-2 X=50,
11:u:Ln-2 X=24,
14:u:Lst-2 R=Pd/N,
14:u:Fst-2 L=Pd/N,
11:u:Spc-1 X=7,
12:u:Avg-1 X=13,
16:u:Wrd-3LL=5/0/15,
16:u:Wrd-3LL=15/0/8,
14:u:Wrd-2 X=10/6,
11:u:Ln-2 X=31,
16:u:Wrd-3LL=15/0/6,
15:u:Wrd-3LL=6/0/2,
16:u:Wrd-3LL=6/0/13,
15:u:Wrd-2 X=17/16,
13:u:Wrd-2 X=3/1,
16:u:Wrd-3LL=0/0/15,
17:u:Wrd-3LL=0/13/12,
14:u:Pos-1 X=only,
10:u:Ln-2 X=2,
14:u:Wrd-2 X=16/0,
14:u:Wrd-2 X=18/0,
17:u:Wrd-3LL=14/0/16,
15:u:Wrd-3LL=0/0/3,
14:u:Wrd-2 X=0/17,
17:u:Wrd-3LL=17/0/14,
11:u:Pag-1 X=4,
15:u:Lst-2 R=Pe/Lu,
15:u:Fst-2 L=Pe/Lu,
14:u:Lst-2 R=Pe/N,
14:u:Fst-2 L=Pe/N,
11:u:Ln-2 X=23,
11:u:Ln-2 X=59,
11:u:Ln-2 X=56,
16:u:Wrd-3LL=0/12/7,
13:u:Wrd-2 X=7/2,
15:u:Wrd-3LL=7/0/2,
11:u:Ref-3 X=*,
11:u:Ref-3 L=*,
11:u:Ref-3LL=*,
14:u:Wrd-2 X=4/14,
16:u:Wrd-3LL=4/0/14,
11:u:Ln-2 X=21,
11:u:Ln-2 X=49,
11:u:Ln-2 X=17,
16:u:Wrd-3LL=13/4/5,
14:u:Wrd-2 X=5/14,
16:u:Wrd-3LL=6/0/12,
15:u:Wrd-3LL=0/1/8,
11:u:Ln-2 X=53,
12:u:Avg-1 X=11,
12:u:Lst-1 X=Pf,
17:u:Lst-2 R=Pf/none,
12:*:Lst-1 L=Pf,
16:u:Wrd-3LL=14/0/6,
11:u:Pag-1 X=5,
17:u:Wrd-3LL=17/0/10,
16:u:Wrd-3LL=12/0/1,
16:u:Wrd-3LL=0/1/11,
16:u:Wrd-3LL=13/0/1,
15:u:Wrd-3LL=0/1/5,
13:u:Wrd-2 X=5/2,
15:u:Wrd-3LL=5/0/2,
11:u:Ln-2 X=58,
16:u:Wrd-3LL=6/0/15,
15:u:Lst-2 R=Pd/Ll,
15:u:Fst-2 L=Pd/Ll,
11:u:Ln-2 X=12,
15:u:Lst-2 R=Lu/Ll,
15:u:Fst-2 L=Lu/Ll,
15:u:Lst-2 R=Pd/Lu,
10:u:Ln-3 X=4,
15:u:Fst-2 L=Pd/Lu,
14:u:Wrd-2 X=0/16,
16:u:Wrd-3LL=0/0/13,
11:u:Loc-1RR=5,
11:u:Loc-1 R=5,
11:u:Loc-1 X=5,
12:u:Ln-2 X=101,
12:u:Ln-8 X=num,
16:u:Wrd-3LL=0/11/1,
13:u:Wrd-2 X=1/1,
10:u:Ln-2 X=1,
15:u:Idt-2LL==/+/+,
16:u:Wrd-3LL=5/0/10,
11:u:Num-1 X=7,
11:u:Pag-1 X=6,
14:u:Wrd-2 X=8/13,
16:u:Wrd-3LL=8/0/13,
11:u:Ln-2 X=57,
10:u:Ln-2 X=6,
14:u:Wrd-2 X=1/13,
16:u:Wrd-3LL=1/0/13,
14:u:Wrd-2 X=8/15,
14:u:Wrd-2 X=1/10,
16:u:Wrd-3LL=1/0/10,
13:u:Wrd-2 X=7/9,
11:u:Ln-2 X=28,
11:u:Ln-2 X=10,
17:u:Wrd-3LL=15/14/1,
12:u:Nme-1 X=10,
12:u:Nme-1 L=10,
12:u:Nme-1LL=10,
16:u:Wrd-3LL=13/0/4,
11:u:Ln-2 X=22,
11:u:Nme-1 X=6,
11:u:Nme-1 L=6,
11:u:Nme-1LL=6,
16:u:Wrd-3LL=0/15/1,
11:u:Pag-1 X=7,
17:u:Wrd-3LL=16/0/11,
11:u:Num-1 X=8,
15:u:Wrd-3LL=0/0/7,
14:u:Wrd-2 X=9/16,
14:u:Wrd-2 X=1/15,
16:u:Wrd-3LL=1/0/15,
12:u:Lst-1 X=Pi,
17:u:Lst-2 R=Pi/none,
12:*:Lst-1 L=Pi,
10:u:Ln-2 X=3,
16:u:Wrd-3LL=0/16/1,
11:u:Ln-2 X=26,
15:u:Wrd-3LL=4/0/2,
11:u:Pag-1 X=8,
11:u:Num-1 X=6,
11:u:Spc-1 X=4,
13:u:Wrd-2 X=2/7,
11:u:Ln-1 X=42,
16:u:Wrd-3LL=0/0/14,
13:u:Wrd-2 X=7/8,
15:u:Wrd-3LL=0/0/8,
13:u:Wrd-2 X=1/4,
15:u:Wrd-3LL=0/1/9,
11:u:Ln-2 X=25,
15:u:Wrd-3LL=1/9/4,
14:u:Wrd-2 X=11/1,
16:u:Wrd-3LL=11/0/1,
12:u:Avg-1 X=10,
15:u:Fst-2 L=Pd/Ps,
17:u:Wrd-3LL=0/10/13,
11:u:Pag-1 X=9,
15:u:Lst-2 R=Pe/Ll,
15:u:Fst-2 L=Pe/Ll,
10:u:Ln-2 X=5,
15:u:Idt-2LL=+/=/=,
15:u:Idt-2LL==/=/-,
15:u:Wrd-3LL=0/1/2,
14:u:Wrd-2 X=11/7,
11:u:Ln-1 X=31,
15:u:Wrd-3LL=0/5/1,
11:u:Pub-1RR=6,
11:u:Ref-5 X=T,
11:u:Pub-1 R=6,
11:u:Ref-5 L=T,
11:u:Pub-1 X=6,
11:u:Ref-5LL=T,
15:u:Wrd-3LL=9/0/3,
11:u:Ln-2 X=54,
14:u:Wrd-2 X=17/5,
16:u:Wrd-3LL=11/0/7,
16:u:Wrd-3LL=7/0/15,
10:u:Ln-3 X=6,
10:u:Ln-2 X=7,
14:u:Wrd-2 X=1/14,
16:u:Wrd-3LL=1/0/14,
16:u:Wrd-3LL=6/0/14,
11:u:Ln-2 X=60,
16:u:Wrd-3LL=13/0/5,
11:u:Ln-2 X=64,
16:u:Wrd-3LL=3/0/15,
16:u:Wrd-3LL=15/0/3,
10:u:Ln-1 X=6,
15:u:Wrd-3LL=2/0/9,
12:u:Pag-1 X=10,
16:u:Wrd-3LL=16/0/2,
14:u:Wrd-2 X=5/16,
16:u:Wrd-3LL=5/0/16,
16:u:Wrd-3LL=0/11/9,
14:u:Fst-2 L=Ll/P,
16:u:Wrd-3LL=17/0/1,
13:u:Wrd-2 X=9/6,
15:u:Wrd-3LL=9/0/6,
14:u:Fst-2 L=N/Ps,
16:u:Wrd-3LL=17/0/4,
14:u:Loc-1RR=_x+1,
14:u:Pub-1RR=_x+1,
14:u:Jnl-1RR=_x+1,
14:u:Ref-1RR=_x+1,
14:u:Ref-2RR=_x+1,
14:u:Ref-4RR=_x+1,
16:u:Wrd-2 X=_x-1/0,
15:u:Wrd-3LL=0/2/1,
16:u:Wrd-3LL=0/0/10,
15:u:Wrd-2 X=16/10,
17:u:Wrd-3LL=16/0/10,
15:u:Wrd-3LL=0/0/1,
16:u:Wrd-3LL=0/1/13,
16:u:Wrd-3LL=0/0/16,
15:u:Wrd-3LL=0/1/3,
11:u:Ttl-1 X=7,
15:u:Wrd-3LL=0/1/7,
11:u:Spc-1 X=6,
16:u:Wrd-3LL=11/0/2,
13:u:Wrd-2 X=5/1,
15:u:Wrd-3LL=5/0/1,
15:u:Wrd-3LL=0/1/6,
15:u:Idt-2LL=-/-/+,
15:u:Wrd-3LL=9/0/2,
13:u:Wrd-2 X=9/1,
15:u:Wrd-3LL=9/0/1,
15:u:Wrd-3LL=3/0/1,
16:u:Wrd-3LL=0/1/14,
16:u:Wrd-3LL=0/0/17,
16:u:Wrd-3LL=0/1/12,
15:u:Wrd-3LL=2/0/1,
12:u:Avg-1 X=12,
12:u:Med-1 X=12,
11:u:Ln-1 X=81,
12:u:Pub-1RR=10,
12:u:Pub-1 R=10,
12:u:Pub-1 X=10,
16:u:Wrd-3LL=15/0/5,
16:u:Wrd-3LL=0/1/16,
16:u:Wrd-3LL=0/1/10,
11:u:Ln-2 X=42,
14:u:Lst-2 R=Lu/N,
14:u:Fst-2 L=Lu/N,
16:u:Wrd-3LL=0/14/4,
24:u:Fwd-2LL=number/numeric,
14:u:Wrd-2 X=1/11,
16:u:Wrd-3LL=1/0/11,
13:u:Wrd-2 X=1/8,
14:u:Wrd-2 X=16/9,
10:u:Ln-3 X=7,
17:u:Wrd-3LL=0/12/10,
17:u:Wrd-3LL=0/14/12,
17:u:Wrd-3LL=0/15/10,
13:u:Wrd-2 X=1/5,
16:u:Wrd-3LL=1/12/5,
13:u:Wrd-2 X=1/2,
15:u:Wrd-3LL=1/1/2,
11:u:Fst-1 R=S,
11:*:Fst-1 X=S,
16:u:Fst-2 L=none/S,
11:u:Lst-1 X=C,
11:*:Lst-1 L=C,
16:u:Wrd-3LL=15/0/1,
14:u:Wrd-2 X=13/6,
16:u:Wrd-3LL=13/0/6,
16:u:Wrd-3LL=16/0/9,
17:u:Wrd-3LL=14/0/19,
17:u:Wrd-3LL=14/13/1,
16:u:Wrd-3LL=0/14/8,
16:u:Wrd-3LL=0/12/4,
12:u:Avg-1 X=23,
12:u:Med-1 X=23,
25:u:Fwd-2LL=numeric/numeric,
17:u:Wrd-3LL=19/0/13,
13:u:Wrd-2 X=1/7,
12:u:Loc-1 R=10,
12:u:Loc-1 X=10,
13:u:Wrd-2 X=5/5,
15:u:Wrd-3LL=5/0/5,
12:u:Med-1 X=13,
15:u:Wrd-3LL=2/0/8,
11:u:Ref-4RR=*,
11:u:Ref-4 X=*,
12:u:Fst-1 R=Pi,
12:*:Fst-1 X=Pi,
17:u:Fst-2 L=none/Pi,
16:u:Wrd-3LL=0/1/18,
13:u:Wrd-2 X=8/4,
15:u:Wrd-3LL=8/0/4,
16:u:Wrd-3LL=18/0/2,
12:u:Num-1 X=11,
11:u:Lst-1 X=S,
16:u:Lst-2 R=S/none,
11:*:Lst-1 L=S,
10:u:Ln-3 X=8,
11:u:Spc-1 X=9,
12:u:Num-1 X=10,
11:u:Nme-1 X=8,
13:u:Wrd-2 X=9/5,
15:u:Wrd-3LL=9/0/5,
11:u:Pub-1RR=8,
11:u:Pub-1 R=8,
11:u:Pub-1 X=8,
14:u:Wrd-2 X=17/7,
11:u:Ln-2 X=96,
15:u:Wrd-3LL=0/4/1,
14:u:Wrd-2 X=7/12,
16:u:Wrd-3LL=7/0/12,
15:u:Wrd-3LL=1/0/7,
15:u:Wrd-3LL=2/0/7,
15:u:Wrd-3LL=1/0/8,
15:u:Wrd-3LL=6/0/6,
13:u:Wrd-2 X=2/5,
15:u:Wrd-3LL=2/0/5,
15:u:Wrd-3LL=0/1/4,
15:u:Wrd-3LL=4/0/5,
12:u:Avg-1 X=19,
12:u:Med-1 X=19,
13:u:Wrd-2 X=8/2,
15:u:Wrd-3LL=8/0/2,
15:u:Wrd-3LL=6/0/1,
11:u:Num-1 X=9,
13:u:Lst-2 R=P/P,
13:u:Fst-2 L=P/P,
11:u:Spc-1 X=5,
17:u:Wrd-3LL=11/11/7,
17:u:Wrd-3LL=0/13/10,
15:u:Wrd-3LL=1/1/5,
13:u:Wrd-2 X=1/6,
14:u:Fst-2 L=N/Pd,
13:u:Wrd-2 X=1/3,
15:u:Wrd-3LL=1/0/1,
16:u:Wrd-3LL=4/0/15,
16:u:Wrd-3LL=13/9/7,
17:u:Wrd-3LL=0/10/12,
15:u:Wrd-3LL=0/2/6,
18:u:Wrd-3LL=10/12/11,
18:u:Wrd-3LL=13/10/12,
15:u:Wrd-3LL=1/0/2,
15:u:Wrd-3LL=0/7/3,
13:u:Wrd-2 X=8/8,
13:u:Wrd-2 X=5/8,
15:u:Wrd-3LL=5/5/3,
15:u:Wrd-3LL=4/4/3,
15:u:Wrd-3LL=4/3/3,
15:u:Wrd-3LL=0/5/3,
15:u:Wrd-3LL=6/5/6,
18:u:Wrd-3LL=12/12/12,
17:u:Wrd-3LL=12/12/8,
18:u:Wrd-3LL=13/12/11,
17:u:Wrd-3LL=14/16/6,
16:u:Wrd-3LL=13/6/7,
17:u:Wrd-3LL=0/10/10,
16:u:Wrd-3LL=0/13/5,
15:u:Wrd-3LL=5/5/5,
15:u:Wrd-3LL=5/4/4,
10:u:Ln-3 X=9,
12:u:Num-1 X=14,
14:u:Lst-2 R=S/Ll,
14:u:Fst-2 L=S/Ll,
15:u:Wrd-3LL=4/0/6,
15:u:Wrd-3LL=0/2/5,
15:u:Idt-2LL=+/+/+,
15:u:Wrd-3LL=3/7/2,
15:u:Wrd-3LL=2/3/7,
15:u:Wrd-3LL=4/2/1,
18:u:Wrd-3LL=15/14/16,
16:u:Wrd-3LL=18/3/1,
15:u:Wrd-3LL=2/3/5,
11:u:Fst-1 R=C,
11:*:Fst-1 X=C,
17:u:Wrd-3LL=16/17/1,
15:u:Fst-2 L=Pe/Ps,
15:u:Wrd-3LL=1/8/1,
16:u:Wrd-3LL=0/20/6,
15:u:Wrd-3LL=0/3/4,
14:u:Fst-2 L=S/Lu,
13:u:Fst-2 L=S/N,
18:u:Wrd-3LL=14/16/14,
11:u:Ln-1 X=83,
16:u:Wrd-3LL=0/14/2,
15:u:Wrd-3LL=1/2/4,
18:u:Wrd-3LL=15/15/14,
16:u:Wrd-3LL=0/17/1,
17:u:Wrd-3LL=15/16/7,
17:u:Wrd-3LL=16/16/1,
15:u:Wrd-3LL=4/5/4,
15:u:Wrd-3LL=0/6/7,
18:u:Wrd-3LL=16/14/14,
17:u:Wrd-3LL=13/1/13,
17:u:Wrd-3LL=1/13/15,
15:u:Wrd-3LL=0/3/2,
18:u:Wrd-3LL=13/15/15,
16:u:Wrd-3LL=0/3/10,
15:u:Wrd-3LL=1/3/1,
15:u:Wrd-3LL=0/7/2,
14:u:Fst-2 L=Ll/S,
15:u:Wrd-3LL=1/3/2,
16:u:Wrd-3LL=0/10/2,
15:u:Wrd-3LL=1/3/3,
15:u:Wrd-3LL=1/6/3,
15:u:Wrd-3LL=4/1/4,
18:u:Wrd-3LL=12/11/12,
15:u:Wrd-3LL=2/1/1,
15:u:Wrd-3LL=0/3/1,
17:u:Wrd-3LL=14/16/1,
16:u:Wrd-3LL=0/10/5,
14:u:Lst-2 R=C/Lu,
15:u:Wrd-3LL=1/1/3,
18:u:Wrd-3LL=10/10/12,
17:u:Wrd-3LL=18/16/2,
16:u:Wrd-3LL=0/11/8,
15:u:Wrd-3LL=3/2/2,
17:u:Wrd-3LL=12/17/1,
18:u:Wrd-3LL=14/14/11,
16:u:Wrd-3LL=0/13/4,
15:u:Wrd-3LL=7/0/5,
15:u:Wrd-3LL=0/8/3,
15:u:Wrd-3LL=3/3/3,
15:u:Wrd-3LL=7/0/1,
15:u:Wrd-3LL=1/6/7,
17:u:Wrd-3LL=13/14/4,
17:u:Wrd-3LL=13/12/6,
15:u:Wrd-3LL=0/4/2,
16:u:Wrd-3LL=12/1/2,
16:u:Wrd-3LL=2/0/10,
15:u:Wrd-3LL=1/0/5,
15:u:Wrd-3LL=6/1/6,
13:u:Ln-8 X=http,
18:u:Wrd-3LL=10/12/12,
11:u:Nme-1 X=9,
11:u:Nme-1 L=9,
17:u:Wrd-3LL=3/13/12,
16:u:Wrd-3LL=0/5/13,
18:u:Wrd-3LL=12/11/10,
17:u:Wrd-3LL=9/10/11,
16:u:Fst-2 L=none/C,
15:u:Wrd-3LL=1/1/1,
15:u:Wrd-3LL=1/0/6,
14:u:Lst-2 R=C/Ll,
15:u:Wrd-3LL=4/1/1,
15:u:Idt-2LL=-/-/-,
17:u:Wrd-3LL=11/9/10,
15:u:Wrd-3LL=3/5/5,
15:u:Wrd-3LL=0/6/1,
15:u:Wrd-3LL=7/7/7,
16:u:Wrd-3LL=14/4/2,
17:u:Wrd-3LL=13/13/4,
15:u:Wrd-3LL=4/2/2,
16:u:Wrd-3LL=11/9/9,
16:u:Wrd-3LL=9/9/10,
15:u:Wrd-3LL=9/9/9,
15:u:Wrd-3LL=2/4/5,
15:u:Wrd-3LL=1/0/3,
11:u:Loc-1RR=4,
11:u:Loc-1 R=4,
11:u:Loc-1 X=4,
15:u:Wrd-3LL=1/9/1,
16:u:Wrd-3LL=11/6/6,
17:u:Wrd-3LL=13/11/3,
15:u:Wrd-3LL=5/0/9,
15:u:Wrd-3LL=0/9/7,
15:u:Wrd-3LL=7/3/2,
16:u:Wrd-3LL=0/10/7,
15:u:Wrd-3LL=7/0/8,
15:u:Wrd-3LL=1/6/1,
10:u:Ln-9 X=1,
12:u:Lst-1 X=Pc,
17:u:Lst-2 R=Pc/none,
12:*:Lst-1 L=Pc,
15:u:Wrd-3LL=2/3/6,
15:u:Wrd-3LL=6/6/6,
15:u:Wrd-3LL=8/0/8,
15:u:Wrd-3LL=0/8/2,
15:u:Lst-2 R=Ll/Pi,
15:u:Lst-2 R=Pf/Lu,
15:u:Fst-2 L=Pf/Lu,
15:u:Wrd-3LL=1/0/4,
15:u:Wrd-2 X=20/10,
16:u:Wrd-3LL=0/6/10,
15:u:Wrd-3LL=2/2/3,
17:u:Wrd-3LL=12/10/1,
15:u:Wrd-3LL=3/4/5,
15:u:Wrd-3LL=0/2/8,
15:u:Wrd-3LL=2/2/2,
17:u:Wrd-3LL=5/13/14,
17:u:Wrd-3LL=11/12/7,
17:u:Wrd-3LL=11/10/9,
16:u:Wrd-3LL=1/11/4,
16:u:Wrd-3LL=9/10/1,
11:u:Loc-1RR=6,
11:u:Loc-1 R=6,
11:u:Loc-1 X=6,
17:u:Wrd-3LL=10/12/1,
16:u:Wrd-3LL=1/12/2,
17:u:Wrd-3LL=11/13/1,
17:u:Wrd-3LL=12/10/2,
17:u:Wrd-3LL=14/11/1,
15:u:Wrd-3LL=1/5/4,
15:u:Wrd-3LL=7/7/8,
17:u:Wrd-3LL=10/11/9,
17:u:Wrd-3LL=1/10/10,
12:u:Ln-2 X=147,
15:u:Lst-2 R=Ll/Pd,
16:u:Wrd-3LL=1/12/4,
17:u:Wrd-3LL=10/12/6,
15:u:Wrd-3LL=3/1/1,
15:u:Wrd-3LL=0/7/7,
15:u:Wrd-3LL=2/7/1,
16:u:Wrd-3LL=2/13/1,
15:u:Wrd-3LL=0/8/7,
10:u:Ln-9 X=4,
17:u:Wrd-3LL=10/13/9,
14:u:Fst-2 L=N/Pi,
15:u:Wrd-3LL=2/9/2,
11:u:Ln-9 X=71,
15:u:Wrd-3LL=4/3/7,
15:u:Wrd-3LL=0/9/3,
14:u:Fst-2 L=Pe/C,
15:u:Wrd-3LL=0/9/2,
15:u:Wrd-3LL=5/1/2,
15:u:Wrd-3LL=2/1/5,
16:u:Wrd-3LL=13/4/1,
16:u:Wrd-3LL=14/1/4,
15:u:Wrd-3LL=8/2/2,
15:u:Wrd-3LL=7/4/2,
16:u:Wrd-3LL=1/12/9,
11:u:Loc-1 R=8,
11:u:Loc-1 X=8,
15:u:Wrd-3LL=8/8/7,
17:u:Wrd-3LL=10/11/5,
16:u:Wrd-3LL=11/6/5,
14:u:Lst-2 R=Pd/S,
11:u:Ln-1 X=91,
16:u:Wrd-3LL=9/0/20,
12:*:Wrd-1 X=23,
15:u:Wrd-3LL=5/9/1,
14:u:Wrd-2 X=0/23,
16:u:Wrd-3LL=17/2/1,
16:u:Wrd-3LL=0/18/8,
15:u:Wrd-3LL=1/8/5,
15:u:Wrd-3LL=8/7/1,
16:u:Wrd-3LL=11/6/2,
11:u:Ln-9 X=10,
15:u:Wrd-3LL=4/8/1,
11:u:Ln-1 X=98,
17:u:Wrd-3LL=0/13/23,
11:u:Ln-1 X=95,
14:u:Wrd-2 X=23/6,
18:u:Wrd-3LL=13/23/11,
14:u:Fst-2 L=Pd/C,
11:u:Fst-1 R=Z,
14:u:Lst-2 R=Ll/Z,
11:*:Fst-1 X=Z,
11:u:Lst-1 X=Z,
13:u:Lst-2 R=Z/Z,
11:*:Lst-1 L=Z,
13:u:Fst-2 L=Z/Z,
14:u:Fst-2 L=Z/Lu,
16:u:Lst-2 R=Z/none,
13:u:Lst-2 R=Z/N,
13:u:Fst-2 L=Z/N,
14:u:Fst-2 L=Z/Ll,
13:u:Lst-2 R=N/Z,
13:u:Fst-2 L=N/Z,
13:u:Lst-2 R=P/Z,
12:u:Avg-1 X=52,
12:u:Med-1 X=52,
16:u:Wrd-3LL=1/3/13,
0=-2.177499e-02
1=-9.584249e-02
2=-1.567789e-01
3=-1.094097e-02
4=8.555593e-02
5=2.981801e-01
6=4.109012e-02
7=-1.156187e-01
8=-1.460922e+00
9=-8.009559e-01
10=4.675708e-02
11=-2.037962e-01
12=-1.493670e-01
13=-1.552824e-02
14=4.326743e-02
15=-4.859865e-01
16=-2.347739e-01
17=4.374830e-01
18=-3.574280e-02
19=-4.052530e+00
20=-1.483049e-02
21=3.573134e-02
22=-1.949037e-01
23=1.953172e-01
24=-1.259890e-01
25=-1.589981e+00
26=1.048079e-02
27=-2.649024e+00
29=5.356646e-01
32=-3.246434e-01
34=3.568930e-01
35=-5.430512e-01
38=1.016314e-03
39=7.179325e-04
40=6.622102e-02
42=-6.867897e-01
43=1.169053e+00
44=-6.382031e-01
45=2.731802e-01
47=-6.130967e-03
48=-1.701156e-02
49=-2.020106e-01
50=2.028632e-01
80=2.028632e-01
85=2.122827e-01
86=-8.531618e-06
87=5.088392e-02
88=-3.528960e-01
89=2.434668e-02
90=2.028632e-01
120=2.028632e-01
125=5.484179e-02
127=-6.155181e-02
128=1.511387e-01
129=-1.030296e+00
130=-2.089404e+00
132=3.060110e-03
133=6.401060e-01
134=6.801341e-02
135=8.280922e-02
137=5.443755e-02
138=-1.251638e+00
139=1.989154e-01
140=3.217959e-02
141=-3.467880e+00
142=3.141958e-01
143=-6.891577e-01
144=7.605724e-02
145=-8.736154e-03
147=4.666489e-02
148=2.147278e-01
149=9.278402e-02
150=-1.358435e-03
152=1.722400e-01
153=-6.802796e-02
154=-1.903330e+00
155=-1.885537e-02
157=1.071508e-01
158=-8.939886e-02
159=5.409245e-02
160=-3.481521e-01
162=4.972621e-02
163=8.689831e-02
165=2.843235e-03
167=-1.171373e-02
168=2.095897e-01
169=-8.981395e-01
172=-3.757509e-01
173=-1.434696e-01
174=2.305819e-01
175=1.291456e-01
176=-8.230691e-02
177=-1.298054e-01
178=1.729954e-01
179=1.739737e-03
180=2.028632e-01
210=1.970150e-01
212=-3.330214e-02
213=-2.138360e-03
214=-5.477837e-01
215=2.029228e-01
220=8.425574e-02
222=1.123404e-02
223=-1.756112e+00
225=9.237172e-02
227=-1.580507e-01
228=1.821190e-01
229=-8.656538e-02
230=3.029301e-02
232=-1.436968e+00
235=7.141444e-01
237=-8.283764e-02
238=-1.639257e-01
239=5.717967e-03
240=-2.750418e-01
242=4.994876e-02
243=1.265667e+00
245=-6.685139e-01
247=-1.142999e+00
248=2.228764e-01
249=-1.521254e-02
253=-2.006524e-04
254=1.510094e-02
255=1.027478e-01
257=-1.431255e-01
258=2.077765e-01
259=3.945437e-02
260=1.414713e-01
262=-9.790862e-02
263=-1.490370e-01
264=2.479324e-01
265=-4.100025e-03
266=-1.675428e-03
267=-1.289353e-01
268=-9.940893e-02
269=1.034209e-01
270=2.028632e-01
275=-1.658945e-01
276=-1.486972e+00
277=1.644761e-01
278=-2.103094e-02
279=7.567999e-02
280=2.028632e-01
285=-1.160868e-02
286=1.171035e-01
287=4.200898e-02
288=-6.971751e-02
289=-1.341990e-01
290=-1.165711e-01
291=-1.127884e-01
292=2.834749e-01
293=-2.768414e-01
294=2.049378e-01
295=2.028632e-01
300=2.028632e-01
305=3.476601e-01
307=-1.684597e-01
308=-8.035890e-02
309=-1.128148e-02
310=8.738375e-02
311=-2.943384e-02
312=-8.026380e-02
313=-1.295482e-01
314=-8.482680e-02
315=-1.677481e-02
316=-9.014074e-02
317=7.714275e-02
318=-9.509571e-02
319=7.523730e-02
320=-1.037117e-02
321=-4.932913e-02
322=1.551521e-01
323=-1.144389e-01
324=3.993961e-02
325=1.286977e-01
327=-1.858320e-01
328=9.664852e-02
329=-2.111598e-01
330=-3.787402e-02
331=-2.336682e-01
332=2.147468e-01
333=-2.081271e-01
334=5.993458e-02
335=-5.982774e-02
336=-6.448148e-03
337=2.308551e-01
338=-6.342259e-02
339=8.638896e-02
340=-1.590522e-02
341=-3.515091e-02
342=8.853860e-02
343=-6.702613e-03
344=-1.745130e-02
345=-4.394677e-04
347=-1.250755e-01
348=-2.030369e-03
349=1.978789e-01
350=-4.904417e-02
352=2.436685e-03
353=-9.277621e-02
354=-1.073789e-02
355=9.341819e-02
356=1.549475e-01
357=-1.476695e-01
358=6.116232e-02
359=-2.342446e-01
360=4.505895e-03
361=-1.337876e-02
362=-1.026085e-01
363=2.733307e-02
364=3.769300e-02
365=1.376566e-02
366=6.824436e-03
367=5.789864e-03
369=-1.160160e-01
370=1.376882e-01
372=-1.538756e-01
373=6.084004e-03
374=3.906959e-02
375=-2.269224e-01
376=-1.543131e-01
377=2.760647e-01
378=-3.845519e-01
379=-2.563377e-01
380=-4.927547e-01
381=2.071616e-01
382=-2.033975e+00
383=8.967913e-01
384=-9.621247e-01
385=-8.157208e-01
386=-6.506860e-02
387=-1.262527e+00
388=-1.087797e+00
389=1.250544e-01
390=2.028632e-01
395=2.028632e-01
425=-4.857504e-05
426=-5.445876e-02
427=6.164942e-02
428=6.275903e-02
429=-3.446538e-01
430=-1.826160e-02
431=-8.387250e-02
432=-5.245554e-02
433=-6.315169e-02
434=1.589217e-01
435=-1.558166e-02
436=-1.207810e-01
437=2.290031e-01
438=-1.125507e-01
439=-3.223743e-01
440=2.028632e-01
445=2.028632e-01
450=-1.455270e-02
451=-1.241784e-01
452=9.351234e-03
453=1.063466e-01
454=-3.546033e-01
455=-1.622371e-02
456=-9.799405e-02
457=-1.989046e-02
458=1.218888e-01
459=-3.391512e-01
460=-1.334649e-02
461=-1.021745e-01
462=2.291514e-01
463=1.034187e-01
464=-1.563065e-01
465=2.028632e-01
470=2.028632e-01
475=-5.957048e-02
476=-1.198996e-01
477=1.374871e-01
478=7.029588e-02
479=-3.533666e-01
480=2.028632e-01
485=-1.910069e-02
486=-1.047649e-01
487=-1.533105e-01
488=1.247021e-01
489=1.008546e-01
490=-2.102382e-02
491=-9.378353e-02
492=-1.529530e-01
493=-1.062414e-02
494=1.003329e-01
495=-2.201538e-02
496=-1.001506e-01
497=-1.549752e-01
498=-1.008187e-02
499=1.065356e-01
500=2.028632e-01
505=2.028632e-01
510=-1.406064e-02
511=-1.045664e-01
512=6.747381e-02
513=1.258735e-01
514=5.178832e-02
515=6.150356e-01
517=-1.911266e+00
518=9.047358e-01
519=-5.658391e-02
520=4.028924e-01
522=-1.228915e-01
523=-2.220985e-02
524=-7.342391e-01
525=-2.727642e-01
527=3.985325e-02
529=3.065362e-05
530=1.548434e+00
532=-3.040327e-01
533=8.857757e-02
534=-1.603557e-03
535=-2.700703e-03
537=1.144496e-01
538=-6.152423e-01
539=-6.292045e-03
540=6.035723e-02
542=-1.299341e-02
545=7.080964e-02
546=5.358264e-02
547=-1.512976e-03
570=-1.133019e-01
572=-1.734424e-01
573=1.174968e-01
574=4.569359e-02
575=-8.911514e-02
578=-6.818137e-01
579=1.560503e-01
580=6.035723e-02
582=-1.299341e-02
585=7.080964e-02
586=5.358264e-02
587=-1.512976e-03
610=-2.496862e-03
611=-7.331077e-02
612=2.328222e-02
613=8.023944e-02
614=-1.193895e-01
615=-1.788645e+00
617=2.592551e-01
618=-1.647081e+00
619=1.518589e-01
620=9.167390e-03
621=-2.136655e-02
622=-2.590305e-02
623=-3.934608e-02
624=1.106914e-02
625=1.294380e-01
627=-3.137630e-02
628=1.190038e-02
629=-3.619666e-04
630=2.108937e-01
631=1.303023e-01
632=-6.226733e-01
640=-9.502692e-01
641=-1.817056e-01
642=3.213338e-01
643=6.219200e-02
646=5.918882e-01
647=-2.310484e+00
648=-2.072579e-03
651=-6.715861e-01
654=7.300847e-03
655=1.975884e-01
657=-2.275156e-02
658=-1.005772e+00
660=1.209644e-01
662=-1.012082e-01
663=5.958818e-01
664=-6.740274e-01
665=6.260048e-01
667=-7.156242e-02
668=-1.563898e-01
669=-3.727108e-04
670=-1.277115e-03
672=-1.641243e+00
675=3.867555e-01
677=-1.237503e-01
678=-7.705327e-02
679=-2.091746e-03
682=3.703513e-01
683=8.036663e-03
685=1.137852e-01
687=-8.395477e-02
688=-1.101049e-02
689=-3.624435e-01
694=2.716340e-02
695=-1.639704e-01
697=-1.823858e-01
698=6.885304e-01
699=-3.396762e-01
700=1.085288e-02
701=-3.782075e-02
702=9.605972e-02
703=-1.212965e-01
704=-4.752942e-02
705=-8.282229e-02
707=-1.176015e-02
708=1.280919e-01
709=8.061990e-02
710=6.037790e-02
712=-1.297915e-02
715=6.035723e-02
717=-1.299341e-02
720=-2.336782e-03
721=-2.751262e-02
722=-5.579080e-02
723=-2.356574e-01
724=1.543902e-02
725=-9.900797e-02
726=-3.105809e-02
727=7.598883e-02
728=-6.403787e-01
729=3.969483e-02
730=1.967098e-02
732=-6.909025e-02
733=-1.909467e-01
734=6.632525e-01
735=-1.817853e-02
736=-1.892271e-01
737=3.364200e-01
738=-1.571711e-01
739=7.185381e-03
740=-1.508696e-01
741=-2.002073e+00
742=1.854269e-02
743=-5.835964e-02
744=1.729160e-01
745=-1.248312e-01
747=-3.656338e-02
748=-5.710905e-02
749=8.557326e-02
750=1.535439e-01
752=9.396455e-02
754=-1.328839e+00
755=-4.401610e-01
757=1.572733e-02
758=-4.652732e-02
759=7.764775e-02
760=-2.250755e-01
762=7.717448e-02
763=6.836610e-02
764=-4.583727e-01
765=-2.669585e-04
767=-5.844005e-02
768=-1.877106e+00
769=-3.363539e-01
773=-4.700062e-03
774=8.745713e-01
775=-3.813103e-01
777=3.269300e-03
778=1.722844e-01
779=1.165136e-01
780=6.035723e-02
782=-1.299341e-02
785=-1.815246e-02
786=-6.921898e-02
787=2.759495e-03
788=-8.149528e-02
789=-5.727107e-02
790=2.458236e-01
791=5.182085e-02
792=-7.713652e-02
793=-1.106982e+00
794=-4.409589e-01
795=4.484750e-02
796=-2.116019e-01
797=-1.498980e-01
798=2.796563e-04
799=7.829430e-02
800=-6.269045e-01
801=1.341347e-01
802=1.086284e-01
803=-2.569695e-02
804=-7.416618e-01
805=1.488231e-02
806=5.492199e-02
807=-9.044472e-02
808=7.801929e-02
809=-5.699209e-02
810=-7.668590e-01
811=-8.737675e-02
812=-1.651203e+00
813=-8.579946e-02
814=1.799716e-01
815=6.035723e-02
817=-1.299341e-02
820=-2.170913e-02
821=-1.427815e-01
822=6.877916e-02
823=1.196692e-01
824=7.983749e-02
825=6.035723e-02
827=-1.299341e-02
830=-2.443633e-02
831=-9.726157e-02
832=1.138927e-02
833=1.288979e-01
834=-3.450704e-01
835=-2.426560e-02
836=-9.509038e-02
837=-1.510395e-01
838=-7.256977e-03
839=9.599006e-02
840=6.035723e-02
842=-1.299341e-02
845=-3.485022e-02
846=-9.546155e-02
847=7.006565e-02
848=7.841547e-02
849=1.705789e-01
850=4.939628e-05
852=-3.106916e-02
853=-1.244249e-01
854=-1.724731e-02
855=-3.110698e+00
856=3.375477e-01
857=-2.733931e-01
858=3.220271e-02
859=2.348104e-01
861=5.782530e+00
862=-1.397287e+00
864=-7.883960e-02
865=-9.750337e-02
866=1.902881e-03
867=4.084462e-01
868=-5.379677e-02
869=-4.912603e-01
870=-2.060877e+00
871=3.107202e-01
872=-9.285177e-02
873=4.994710e-02
874=1.503662e-01
875=2.393244e-02
876=-1.086346e-02
877=5.369290e-03
878=1.433167e-02
879=1.413044e-02
880=7.078345e-02
881=-7.987147e-03
882=-5.883828e-02
885=1.280368e-01
887=5.249417e-03
888=-2.027468e-02
889=4.676627e-02
890=-5.767549e-02
891=-4.086112e-01
892=2.663791e-02
893=3.077032e-01
895=-5.405897e-02
896=3.202130e-01
897=1.541635e-02
898=-2.745207e-02
901=4.565363e-02
904=1.241183e-01
905=-7.810832e-02
907=-3.374158e-02
908=2.973406e-02
909=1.862419e-02
910=2.816409e-02
911=2.190832e+00
912=-2.485132e-01
913=-4.691080e-01
914=-6.910858e-01
915=2.324906e-02
916=-3.824440e-02
917=-9.714193e-03
918=8.994191e-02
919=-2.666239e-01
920=2.197402e-01
921=3.646295e-02
922=-1.271150e-01
923=-8.148371e-01
924=-5.934886e-01
925=4.325195e-02
926=-6.441973e-02
927=2.016216e-01
928=1.844001e-03
929=-4.436447e-01
930=-3.754282e-01
931=8.202538e-02
932=1.292740e-01
933=-2.145310e-02
934=-6.895172e-01
935=-1.014715e-03
936=4.696696e-03
937=-3.083141e-02
938=8.124839e-02
939=-6.982664e-02
940=-9.025338e-01
941=7.585110e-03
942=-1.714856e+00
943=-5.250959e-01
944=1.767241e-01
945=-2.576490e+00
946=1.432136e-01
947=-1.635684e+00
948=7.792317e-02
949=-1.196290e+00
951=6.894280e-01
954=-7.738528e-02
956=5.482745e-02
966=4.771739e-03
971=3.287037e-02
976=8.084863e-02
981=6.894280e-01
984=-7.738528e-02
985=-2.934970e-01
986=1.000565e+00
987=-2.333865e-03
988=-2.202005e-01
991=5.645088e-02
995=-2.340584e-03
1001=1.302276e-02
1002=2.702168e-03
1006=7.354039e-02
1007=-3.194894e-02
1011=8.173524e-02
1015=5.233288e-02
1017=-7.692234e-02
1018=6.075510e-02
1019=-1.039456e-01
1020=-2.934970e-01
1021=1.000565e+00
1022=-2.333865e-03
1023=-2.202005e-01
1025=-2.934970e-01
1026=1.000565e+00
1027=-2.333865e-03
1028=-2.202005e-01
1030=-2.934970e-01
1031=1.000565e+00
1032=-2.333865e-03
1033=-2.202005e-01
1035=-4.529594e-02
1036=-3.859406e-02
1037=3.017620e-02
1038=9.216527e-02
1039=-3.501582e-02
1040=8.116039e-02
1042=-1.044719e-01
1043=-1.200404e-01
1044=5.361480e-02
1045=-1.061509e+00
1047=1.050874e-02
1048=1.462011e-01
1049=7.160137e-03
1050=-1.644935e-01
1051=1.390990e-01
1052=-1.027646e-02
1053=6.765435e-02
1054=-2.632052e-01
1055=1.054390e-02
1057=2.482347e-02
1058=-4.666455e-02
1059=-3.289361e-02
1060=2.353886e-02
1061=5.147230e-02
1062=-4.065163e-01
1070=-6.332197e-01
1071=7.375678e-02
1072=2.842398e-02
1073=1.993227e-01
1074=-2.480437e-01
1075=3.801941e-02
1076=-1.721963e+00
1077=7.367534e-02
1078=-2.755135e-02
1079=1.573791e-03
1081=1.876886e-01
1083=5.413222e-01
1084=-1.378668e-02
1087=5.525162e-02
1088=-2.621206e-02
1089=-4.232422e-02
1090=9.829559e-04
1092=7.604922e-02
1093=-5.148848e-02
1094=-8.689538e-02
1095=-2.392145e-02
1096=-1.081292e-01
1097=7.580955e-02
1098=1.104799e-01
1099=-3.318174e-01
1100=-2.359269e-02
1101=-1.052929e-01
1102=5.946307e-03
1103=1.234921e-01
1104=-1.049944e-01
1105=-2.235832e-02
1106=-9.559747e-02
1107=2.571935e-01
1108=1.228318e-01
1109=-3.595485e-01
1110=-2.221624e-02
1111=-9.759927e-02
1112=6.559557e-02
1113=8.121831e-02
1114=6.495409e-02
1115=1.021184e-01
1117=1.058468e-02
1118=-2.802589e+00
1119=-1.293010e-03
1120=-1.237170e-01
1121=-7.712036e-02
1122=-3.935867e-02
1123=1.065151e-02
1124=9.979974e-02
1125=-3.904921e-03
1126=2.450920e-01
1127=-7.450643e-01
1130=4.317903e-02
1132=-4.713206e-02
1133=-4.582240e-02
1134=1.454418e-01
1135=-4.759493e-02
1136=-4.835259e-01
1137=9.778251e-02
1138=1.487889e-01
1139=-7.308873e-01
1141=3.295961e-01
1142=1.247624e+00
1143=-5.284699e-01
1146=1.393754e-02
1147=-2.596105e-02
1149=-1.080439e-02
1150=1.650759e-02
1152=4.754934e-02
1153=-4.800482e-02
1154=3.118661e-02
1155=3.203891e-02
1157=4.424920e-02
1158=-2.884392e-02
1159=4.654225e-02
1165=9.374851e-02
1167=1.079495e-01
1168=4.947533e-03
1169=9.953685e-02
1185=-5.334952e-03
1187=4.350945e-01
1188=-8.850428e-01
1189=8.829223e-03
1190=-5.646046e-03
1192=3.314026e-02
1193=-9.403694e-03
1194=4.813598e-02
1195=-1.140085e-02
1197=6.927031e-02
1198=-3.371522e-04
1199=2.557780e-02
1200=-1.042299e-01
1202=4.392857e-02
1203=-6.963713e-03
1204=-3.516398e-02
1205=-9.044323e-01
1207=-2.433194e-02
1208=-3.834432e-01
1209=1.049059e-01
1210=-2.264052e-02
1212=-4.583383e-04
1213=-2.065202e-01
1214=5.028474e-02
1215=1.409962e-02
1217=-2.357389e-01
1218=-2.583620e-02
1219=9.319026e-02
1220=1.412934e-01
1221=3.918127e-02
1222=3.648993e-02
1224=-9.377735e-02
1225=6.751952e-02
1227=-5.951660e-02
1228=8.883928e-02
1229=-2.650672e-01
1230=-2.112109e-01
1231=4.996245e-01
1232=-1.265050e-01
1233=-4.374528e-01
1235=1.227209e-02
1236=-6.826242e-01
1237=2.794545e-02
1238=3.923133e-02
1239=-1.125867e-02
1241=1.454076e-02
1243=-6.052326e-01
1244=3.369449e-01
1245=1.234346e-01
1247=-7.518967e-02
1248=6.784684e-02
1249=-3.887767e-02
1250=1.694717e-01
1251=-2.005097e-01
1252=4.687540e-02
1253=3.314434e-02
1254=-3.380770e-01
1255=-5.295940e-03
1257=1.971433e-02
1258=-2.860738e-02
1259=-3.029690e-02
1260=-2.812293e-01
1262=1.459087e-01
1263=-1.700845e+00
1264=1.874764e-01
1265=-7.275128e-03
1267=1.452196e-01
1268=-5.642004e-01
1269=8.073397e-03
1270=1.602023e-01
1271=-2.515733e-01
1272=5.185383e-02
1273=2.754234e-02
1274=-5.520191e-01
1275=-2.932650e-01
1277=1.436887e-01
1278=4.464236e-01
1279=1.482606e-03
1280=-2.669189e-03
1282=-2.549804e-03
1284=2.256520e-03
1285=-1.333501e-01
1287=-1.207244e-02
1288=5.614295e-01
1289=-1.191860e-02
1290=-1.425906e-02
1292=2.591216e-02
1293=3.357831e-01
1294=-5.719448e-02
1295=-1.681685e-02
1297=1.230936e-01
1298=-8.176885e-02
1299=-2.249223e-02
1300=-2.766427e-02
1302=5.160182e-02
1303=-9.585928e-02
1304=5.836806e-02
1305=2.739245e-01
1307=-9.091403e-03
1308=-1.512065e-01
1309=-3.069603e-02
1310=1.597110e-01
1312=-1.765420e+00
1315=1.187694e-01
1317=1.256910e-01
1318=-1.019621e+00
1319=-1.827655e-01
1320=2.506141e-02
1322=1.744312e-01
1323=-2.525603e-01
1325=1.258661e-02
1327=-9.868328e-01
1328=-1.707349e-02
1329=-6.392795e-01
1333=2.916879e-01
1334=1.172085e-02
1335=-1.051018e-01
1337=9.080615e-01
1339=-7.760807e-01
1340=5.556993e-02
1342=-6.572576e-02
1343=3.982979e-02
1344=5.370734e-02
1345=-8.199112e-02
1347=-6.575276e-02
1348=-6.377982e-02
1349=2.418456e-01
1350=-1.107066e-01
1352=-2.495750e-02
1353=1.737070e-01
1354=5.612570e-02
1355=-9.356669e-02
1357=1.631782e-01
1358=-3.724007e+00
1359=5.132500e-01
1360=-3.017754e-02
1362=7.064176e-02
1363=-1.630074e-02
1367=2.500563e-03
1370=-3.105080e-02
1372=-1.145319e-01
1373=-5.628800e-03
1374=1.711019e-01
1377=9.418604e-02
1378=1.866062e-03
1379=-1.147273e+00
1381=-3.461226e-03
1382=-6.379952e-01
1385=-1.261958e-01
1387=1.831135e-02
1389=-1.106005e-01
1390=3.750226e-02
1391=-2.599846e-02
1392=1.830376e-01
1393=8.518491e-02
1395=-4.611498e-03
1396=2.187185e-01
1398=-6.879142e-02
1405=-7.158368e-03
1407=3.349249e-04
1408=-1.755817e-01
1409=8.526152e-02
1414=6.925216e-03
1415=-4.139588e-03
1417=2.965592e-01
1418=-5.305563e+00
1419=-2.816400e-02
1420=1.419784e-01
1422=-2.875258e-02
1423=2.284551e-01
1424=-1.116284e-01
1425=4.688499e-01
1427=-1.861664e-01
1428=7.816151e-01
1429=-2.391035e-02
1430=-1.637840e-01
1432=-2.926826e-02
1433=2.184826e-03
1434=1.656428e-01
1435=-6.267420e-01
1437=8.453289e-03
1438=5.540072e-01
1439=-6.016181e-02
1440=-1.777599e-02
1442=-1.161675e-01
1443=3.756933e-02
1444=2.186761e-01
1445=-6.382302e-03
1447=8.270770e-02
1448=-1.122706e-01
1449=5.567957e-02
1450=-4.578783e-03
1452=-6.829328e-03
1453=-5.769765e-01
1454=6.985204e-01
1455=-8.200528e-03
1457=-7.621671e-02
1458=-9.657733e-02
1459=1.075488e-02
1460=-4.608163e-02
1462=-3.141747e-01
1463=7.819294e-01
1464=6.663737e-01
1465=-1.732535e+00
1467=8.739058e-02
1468=-2.430227e-01
1469=1.224532e-01
1470=8.565339e-01
1472=-2.630534e-01
1473=-1.667690e+00
1474=4.157885e-01
1475=6.968896e-01
1477=5.530857e-05
1479=-5.875599e-01
1480=-1.102471e-05
1482=2.450883e-01
1483=-5.298082e-02
1484=-4.042301e-01
1485=1.230707e-01
1487=-7.223905e-02
1488=6.738817e-02
1489=5.328855e-03
1490=-2.091865e-02
1492=-2.515814e-01
1495=1.689218e-01
1498=4.146164e-05
1499=-8.645451e-02
1500=6.904283e-04
1502=6.598292e-03
1503=1.926713e-01
1505=-2.575925e-02
1507=-1.024307e-05
1508=1.695153e-03
1514=3.330096e-01
1515=-1.115530e-01
1517=6.572410e-01
1520=-1.626558e-02
1522=1.227941e-01
1525=1.117790e-01
1527=-9.176035e-02
1528=3.192617e-02
1529=7.865458e-02
1530=-4.648125e-01
1532=8.229746e-02
1535=4.860970e-03
1537=-8.449981e-03
1538=-5.208768e-01
1539=4.157671e-01
1540=5.970472e-03
1542=-8.210730e-02
1543=5.195808e-01
1544=-7.876908e-03
1545=-5.079708e-01
1547=4.156823e-01
1549=2.017477e-01
1552=-7.378591e-01
1554=1.202805e+00
1555=-8.224049e-02
1557=-1.181301e-02
1558=1.452906e-02
1559=5.963284e-02
1560=2.342038e-02
1562=-1.232754e-01
1563=-2.772128e-01
1564=9.989138e-01
1565=3.031337e-03
1567=2.842942e-01
1568=-4.144373e+00
1569=7.884302e-03
1570=-5.354040e-01
1572=3.246116e-03
1573=1.429390e+00
1574=-6.322141e-01
1575=5.896021e-01
1577=-1.283250e-01
1578=-2.215750e-02
1579=1.979287e-04
1580=6.388312e-02
1581=-1.083252e-02
1582=2.788197e-02
1583=-3.726414e-01
1584=-4.651049e-02
1585=-2.984903e-02
1587=1.493803e-01
1588=1.050647e-03
1589=-5.006128e-01
1591=4.333916e-03
1595=-2.678628e-01
1597=8.996831e-01
1598=-1.378217e-01
1600=7.612310e-02
1601=4.683901e-04
1602=2.049018e-01
1603=1.220534e-01
1606=-3.678492e-03
1607=-2.062394e-01
1608=4.810709e-03
1614=-1.721431e-02
1615=-5.324773e-02
1617=-6.741339e-03
1618=4.032468e-01
1619=3.131906e-02
1620=-1.111832e+00
1622=5.022670e-01
1623=-8.924495e-01
1624=1.748964e-02
1625=-7.529723e-03
1627=8.085073e-03
1630=-8.796578e-03
1632=8.973010e-03
1635=-2.717927e-06
1637=1.764928e-03
1640=-1.580004e-03
1642=-7.190494e-03
1643=1.139185e-02
1644=1.237338e-02
1645=-1.243519e-04
1647=-4.010541e-02
1650=8.482984e-02
1652=2.076500e-02
1653=2.758675e-03
1654=-1.111807e-01
1655=9.098196e-01
1657=-4.947150e-01
1658=-1.615259e+00
1659=9.695752e-01
1660=4.761245e-02
1662=-7.168494e-02
1663=-2.282911e-01
1664=2.518544e-01
1665=-1.243846e-02
1667=-3.063927e-02
1668=6.046380e-02
1669=2.746675e-02
1670=-5.415210e-03
1672=2.311133e-03
1673=-1.785424e-01
1674=8.028781e-02
1675=-9.116341e-02
1677=9.387271e-03
1678=-3.346735e-01
1679=1.385792e-01
1680=-4.802526e-03
1682=2.294224e-03
1683=-5.410805e-01
1684=2.694930e-04
1685=5.687220e-02
1687=-1.309216e-02
1689=6.890814e-03
1690=-3.295383e-01
1692=-2.014759e-01
1693=5.056433e-01
1694=1.124861e-01
1695=-9.870213e-02
1697=1.430324e-02
1698=-6.197675e-02
1699=1.546179e-02
1700=4.412152e-04
1702=-3.433466e-02
1703=5.705096e-01
1704=-5.826752e-01
1705=-2.242928e-02
1707=2.417830e-01
1708=-1.272028e+00
1709=1.514295e-02
1710=2.086013e-01
1712=-6.041417e-02
1713=-1.372597e-04
1714=5.754911e-03
1715=3.091052e-02
1717=-9.622332e-01
1720=1.055770e-01
1722=-6.670031e-02
1723=5.186667e-01
1724=-7.440105e-03
1725=-7.348793e-02
1727=6.995140e-02
1728=-1.022836e-01
1730=1.466974e-01
1732=-8.581078e-01
1733=1.825399e-02
1739=9.274509e-02
1740=1.724366e-03
1742=2.532309e-02
1745=-2.730513e-01
1747=2.396389e-02
1748=6.596273e-01
1749=-9.838820e-03
1750=-1.089096e-01
1752=1.532666e-01
1754=6.313466e-06
1755=-9.356079e-02
1757=-4.448755e-02
1759=9.620749e-01
1760=1.758688e-01
1762=-9.017169e-03
1763=2.797273e-02
1764=-1.803574e-01
1765=-4.994353e-01
1767=7.001401e-03
1768=1.150182e-01
1769=1.244195e+00
1770=6.448637e-01
1772=-5.359251e-01
1773=-1.570762e+00
1774=6.478708e-01
1775=2.631003e-01
1777=-7.821578e-02
1778=1.326789e-03
1779=2.141224e-02
1780=-2.050836e-03
1782=6.684989e-01
1783=-3.465383e-01
1784=-9.521834e-01
1785=-4.589302e-02
1787=5.278535e-01
1788=-2.572040e-02
1789=-1.525417e-01
1790=1.124468e+00
1792=-1.130451e-01
1793=-9.005228e-03
1794=-2.780845e-03
1795=-1.605136e-01
1797=1.448987e-02
1798=2.401767e-02
1799=-1.722555e-03
1800=-4.355643e-03
1805=-6.802084e-02
1807=1.040873e-01
1808=1.889649e-01
1809=-8.181980e-02
1811=-1.202158e-02
1812=3.850894e-01
1813=-2.352231e-03
1815=1.412330e-01
1816=-8.665889e-03
1818=-1.541878e-03
1821=2.118098e-02
1822=-6.326304e-04
1824=2.726651e-02
1825=-4.733263e-02
1827=3.748578e-02
1828=1.714681e-01
1829=-1.183077e+00
1830=2.610663e-03
1832=1.404288e-04
1835=1.850209e-02
1837=-3.323063e-03
1840=-4.904770e-02
1842=-6.789869e-03
1843=7.448627e-03
1844=8.087370e-03
1845=-3.010154e-02
1846=-4.482209e-02
1847=1.563063e-01
1848=-4.241812e-01
1849=-1.290502e-02
1850=4.375985e-03
1852=-2.604340e-02
1854=3.532179e-01
1855=2.552424e-02
1856=-3.981022e-02
1857=-4.823767e-03
1858=-7.968368e-01
1859=4.026537e-01
1860=-3.705184e-01
1862=8.357079e-02
1865=-4.531038e-04
1867=2.659072e-01
1868=-2.602759e+00
1869=8.004148e-03
1870=-1.094734e-02
1872=1.624474e-01
1873=-7.173278e-01
1875=5.086108e-02
1877=-1.790374e-02
1878=5.977085e-01
1879=-1.612893e-01
1880=-2.908267e-01
1882=3.126859e-02
1884=-1.208783e+00
1885=-1.094238e-04
1890=-3.278163e-04
1892=4.014520e-03
1893=-2.271716e-03
1894=-1.859680e-02
1896=-5.948839e-03
1897=2.583138e-01
1898=-1.847749e-02
1901=3.310791e-03
1902=-7.471046e-01
1903=1.772742e+00
1906=-3.538225e-03
1909=-6.337637e-05
1910=8.442441e-02
1912=-1.766404e-01
1913=5.208243e-01
1914=-3.977717e-01
1915=6.234394e-02
1917=-1.501504e+00
1920=9.956225e-02
1922=-1.427616e-01
1923=1.125669e-01
1924=-3.605129e-01
1925=-2.962235e-01
1927=2.986867e-02
1928=4.443392e-02
1930=-2.465237e-02
1932=2.911069e-02
1933=7.505539e-02
1939=2.403352e-02
1940=1.170781e-02
1945=3.869809e-02
1947=-4.643632e-03
1950=-6.319950e-01
1952=1.159754e-01
1953=5.717921e-02
1954=-1.390348e-01
1955=-1.850849e-01
1956=-1.591388e-01
1957=1.892296e-01
1958=1.503634e-01
1959=-3.408563e-01
1960=-3.214721e-02
1962=-4.312808e-03
1963=9.250716e-02
1964=1.506968e-03
1965=-3.704880e-02
1967=-2.240820e-01
1968=9.396272e-02
1969=1.129507e+00
1970=2.004932e-02
1972=2.849424e-01
1973=-4.988557e-01
1974=-1.962961e-01
1975=8.221944e-02
1977=-1.924622e-03
1978=-1.813485e-01
1979=3.053544e-05
1980=6.312207e-01
1982=-8.447468e-02
1983=2.825577e-02
1985=-2.087280e-02
1987=-1.210649e-02
1988=1.280592e-03
1989=4.779695e-02
1990=-6.204207e-02
1992=2.464174e-01
1993=-1.873397e+00
1994=1.254333e-02
1995=2.246615e-04
1997=-5.102944e-02
2000=1.369428e-02
2002=-4.667305e-02
2003=1.528443e-03
2005=2.528714e-03
2007=-1.860076e-03
2008=1.706949e-03
2010=-1.048389e+00
2012=1.124926e-01
2013=1.299201e-02
2015=-2.143593e-01
2017=1.799734e-01
2018=-1.366999e+00
2019=1.729356e-02
2020=-1.709343e-01
2022=-6.584040e-01
2023=7.914953e-01
2024=9.009073e-01
2025=-8.102938e-01
2027=2.945466e-03
2028=-3.906328e-02
2029=-3.376964e-02
2030=9.336931e-02
2032=-1.584320e-03
2033=-1.110008e+00
2034=6.257711e-02
2035=-2.559186e-01
2037=-5.935802e-03
2038=-4.094464e-02
2039=8.657696e-01
2040=4.331699e-01
2041=-2.796836e-01
2042=-4.514235e-02
2043=-9.607008e-02
2044=6.393162e-02
2045=2.124303e-01
2047=-2.635780e-01
2048=-1.296891e-01
2049=2.282486e-02
2050=2.437344e-01
2052=-7.224850e-02
2053=-2.111362e-01
2054=3.067771e-02
2055=1.409222e-01
2057=-3.316711e-01
2058=4.468733e-01
2059=1.522080e-01
2060=-3.101356e-01
2062=2.281233e-01
2063=1.637456e-02
2064=-4.460533e-01
2065=-4.209744e-01
2067=1.576742e-01
2068=3.884767e-01
2069=-5.827282e-01
2070=3.491072e-01
2072=5.156967e-02
2073=-4.859476e-01
2074=1.261399e-01
2075=-1.204977e-02
2077=1.802067e-02
2078=1.053167e-02
2079=2.004991e-02
2080=1.328564e-02
2081=2.459242e-01
2082=9.915068e-02
2084=-3.824862e-02
2087=-1.385373e-01
2090=-2.423936e+00
2091=-2.853742e-03
2092=6.586856e-02
2093=1.315284e-02
2094=-9.413419e-01
2095=3.168312e-02
2096=-2.493836e-03
2097=-2.287136e-01
2098=-4.429706e-03
2099=-1.245505e+00
2101=-7.264734e-02
2102=-8.902325e-01
2103=-1.504960e+00
2104=2.642143e-01
2105=-1.929505e-01
2107=5.881081e-02
2108=4.065085e-01
2109=-6.796878e-02
2110=-2.155127e-02
2112=-2.298445e-02
2113=-4.509086e-01
2114=2.219281e-02
2115=-2.492385e+00
2117=-4.090781e-03
2118=6.426028e-01
2119=-4.577404e-01
2120=2.619342e-03
2122=3.454596e-03
2123=-3.616541e-01
2127=7.162606e-01
2128=-3.023759e-02
2130=4.263395e-02
2131=-6.656799e-01
2132=-3.789828e-02
2133=-1.636008e-02
2134=4.843882e-02
2135=1.939056e-04
2137=4.526431e-01
2139=-3.131642e-01
2140=-9.182883e-03
2142=3.481597e-02
2143=-1.813796e+00
2144=4.444781e-01
2145=3.546047e-02
2147=-6.162973e-02
2148=-6.824996e-03
2149=1.504595e-01
2150=1.692063e-02
2152=-1.289342e-01
2153=2.239480e-03
2154=7.639126e-02
2155=-1.630307e+00
2157=-1.693353e-01
2158=-7.529028e-03
2159=6.220601e-01
2160=-3.655572e+00
2162=-1.402925e+00
2163=2.145589e+00
2164=-8.464801e-01
2165=-5.811074e-02
2167=3.954352e-01
2168=-5.148815e-01
2169=-6.623319e-01
2170=2.031922e-01
2172=-5.097513e-01
2173=2.898302e-01
2174=-1.294744e-02
2175=-7.713545e-02
2177=4.160323e-01
2178=-3.862951e-02
2179=-1.067904e-01
2180=-5.355003e-02
2182=2.512652e-01
2183=1.273122e-02
2184=-1.205048e+00
2185=6.108955e-01
2187=-1.209877e-01
2188=6.293724e-01
2189=-2.807571e-01
2190=-2.962852e-01
2192=7.004071e-02
2193=8.372689e-03
2194=-2.222912e-01
2195=-3.464767e+00
2196=2.050536e-02
2205=-1.899574e-01
2206=-6.039944e-02
2207=3.608141e-01
2208=-9.621634e-01
2210=-1.133864e-01
2211=2.426206e-01
2212=-1.985162e-02
2213=2.683152e-01
2214=3.315906e-02
2216=1.912325e-01
2219=-3.560834e-01
2220=-2.449182e-01
2222=2.635687e-02
2223=2.614690e-01
2224=-7.074282e-01
2225=3.700630e-02
2226=-1.020718e+00
2227=-2.041219e-01
2228=2.807346e-01
2229=6.368698e-03
2232=-2.124202e+00
2235=8.771631e-02
2237=-6.645220e-02
2238=3.661902e-01
2239=-2.962641e-02
2240=-4.460499e-02
2242=1.247285e-03
2243=3.080754e-02
2245=-2.491840e-02
2247=-7.531265e-01
2248=3.413033e-03
2250=-1.067863e-05
2253=3.417116e-03
2254=1.336465e+00
2255=1.725856e+00
2257=-3.197802e-01
2260=1.443190e-01
2262=-2.126944e-01
2263=-6.785599e-02
2264=1.491434e-02
2265=2.761206e+00
2267=-2.453082e+00
2268=-1.697574e-01
2269=-1.379284e-01
2270=-7.784126e-02
2272=-1.751886e-02
2273=8.376089e-06
2274=4.541905e-02
2275=3.522682e-01
2277=-4.577791e-01
2278=4.220926e-01
2279=-3.247213e-02
2280=7.284293e-04
2282=-2.883069e-04
2285=-8.818329e-01
2287=-1.116789e-01
2288=8.107578e-01
2289=1.116491e-01
2291=-6.774120e-01
2292=2.175306e-04
2300=4.538992e-01
2301=-1.464137e-01
2302=-2.596032e-03
2303=-1.271203e-01
2304=-4.594258e-01
2305=-1.323323e-01
2306=-3.145594e-01
2307=-1.945265e+00
2308=1.396297e+00
2311=5.394584e-01
2312=-2.864329e-01
2313=2.071787e-03
2314=3.405695e-01
2315=-1.101884e+00
2317=3.124323e-01
2318=-3.159026e-02
2319=-1.027523e+00
2320=-8.480249e-01
2322=6.290658e-01
2323=-5.828100e-01
2324=2.423113e-04
2325=-1.616333e+00
2327=1.975559e-03
2328=-1.896229e-01
2329=9.253242e-03
2330=-6.693350e-01
2332=3.680986e-01
2333=-9.441767e-02
2335=5.738069e-01
2337=-1.559644e-02
2338=-1.775968e-02
2339=-7.365200e-02
2340=-2.065488e+00
2342=1.921554e-01
2343=-4.693916e-01
2344=4.030533e-02
2347=5.384525e-01
2350=-2.864212e-01
2352=1.357476e-01
2354=2.871304e-02
2357=4.948468e-02
2358=-1.448679e+00
2360=-6.363071e-01
2362=-4.124156e-02
2363=2.211028e-02
2364=8.582201e-03
2369=2.798976e-02
2370=2.678510e-02
2372=3.340949e-02
2373=-1.029848e-01
2374=-4.865266e-02
2375=-3.221605e-01
2376=-8.808646e-02
2377=1.555558e-01
2378=-5.038423e-02
2379=1.973547e-02
2380=3.415066e-01
2382=2.183835e-02
2383=-1.700659e-02
2384=-1.427440e-01
2385=-1.442667e+00
2387=-4.522492e-01
2388=1.194231e-03
2389=6.463084e-01
2390=-2.183137e-01
2392=9.345090e-01
2393=-5.404605e-03
2394=-1.458563e+00
2396=-1.468713e-01
2400=-3.636748e-02
2402=8.874777e-02
2403=2.402609e-03
2404=-4.002255e-01
2406=1.127493e-01
2407=3.785698e-01
2408=-1.188935e-02
2411=-1.380068e-02
2412=-5.043719e-02
2413=1.978397e-03
2420=-1.732562e-01
2422=-1.008082e-02
2423=-1.290309e-02
2424=2.306199e-02
2427=4.599954e-03
2428=-2.248105e-02
2429=4.136723e-04
2430=-6.197093e-01
2432=-6.922216e-04
2433=-2.785735e-02
2434=5.441358e-02
2435=3.011232e-01
2437=-3.928113e-01
2438=2.303656e-01
2439=-9.010150e-03
2440=-7.738616e-01
2442=1.592527e-02
2443=-4.504486e-02
2444=3.011895e-02
2445=-5.278073e-01
2446=-1.499411e-02
2447=1.808871e-01
2448=-3.370923e-01
2449=4.727631e-02
2450=8.159394e-01
2452=-5.245585e+00
2455=-1.856365e+00
2457=1.048762e-01
2458=2.649366e-01
2459=5.851439e-03
2460=-3.005137e+00
2461=-1.307633e-01
2462=1.770243e-01
2463=-1.607955e+00
2464=-2.588622e-01
2465=-3.197057e+00
2467=3.132854e-01
2468=8.457154e-04
2469=-5.498630e-02
2470=-1.058712e-06
2472=-3.973548e-01
2474=3.603894e-01
2475=-1.484089e+00
2476=-6.645814e-01
2477=5.531318e-02
2478=-1.762392e+00
2479=2.004828e-01
2480=-2.135790e+00
2482=2.400451e-01
2483=3.309625e-01
2484=-3.051588e-03
2485=-1.177582e+00
2487=7.169981e-02
2488=-1.492464e+00
2489=2.441600e-01
2492=1.458704e-01
2494=-7.532798e-03
2495=-2.797460e-02
2497=9.567777e-03
2498=4.770767e-02
2499=-5.169497e-02
2500=6.051182e-02
2502=1.086418e-02
2503=-8.987033e-02
2504=2.216989e-02
2505=-6.414528e-02
2506=-9.880800e-02
2507=1.871658e-01
2508=-1.358088e+00
2509=9.730892e-02
2510=1.320828e-01
2512=-1.086397e-01
2513=1.420716e-01
2514=2.088191e-02
2515=1.688269e-02
2516=-8.525129e-01
2517=-2.257106e-01
2525=1.559144e-01
2526=8.322647e-02
2527=6.899972e-02
2528=1.435765e-01
2530=-1.798661e+00
2531=-1.237465e+00
2532=-1.805412e+00
2533=-6.350600e-03
2536=2.529024e-01
2538=4.577159e-02
2539=1.627398e-01
2540=8.299487e-03
2542=-6.393334e-03
2543=9.133649e-02
2544=-1.146367e-01
2545=-2.832774e-01
2547=1.524930e-01
2549=-5.082599e-04
2550=-1.632366e+00
2552=3.401650e-01
2554=3.854332e-03
2555=3.555311e-02
2557=-1.244216e-02
2558=-4.906730e-03
2559=4.357860e-02
2565=3.785626e-02
2567=-2.385450e-03
2568=-3.763116e-01
2569=1.636253e-02
2572=-1.858009e-02
2573=6.187184e-01
2575=-1.384696e-03
2577=4.915052e-02
2578=-1.330891e-02
2579=-1.092207e+00
2584=5.314543e-02
2589=2.294125e-02
2590=4.820100e-01
2592=-2.072783e-01
2593=-1.879989e+00
2594=6.168884e-03
2595=-9.934072e-01
2597=1.667345e-01
2598=-2.138467e-01
2599=4.053410e-02
2604=2.005602e-03
2607=4.763827e-02
2608=-1.251435e-01
2610=-8.680372e-01
2612=4.305013e-02
2613=9.243297e-03
2614=1.550029e-04
2615=-8.917694e-01
2617=1.595418e-01
2618=-7.409926e-01
2619=4.012595e-02
2622=4.476051e-02
2625=-4.017799e-01
2627=9.758157e-02
2628=-1.250278e-01
2629=3.490929e-02
2630=-2.504787e-01
2632=6.784150e-03
2633=-8.311717e-01
2637=3.617386e-01
2638=2.032152e-02
2639=6.018186e-02
2644=6.025311e-02
2645=-4.599720e-02
2647=1.421695e-01
2654=1.807920e-03
2655=-1.927323e+00
2657=-1.198014e-01
2658=5.169181e-02
2659=9.818050e-02
2660=-7.173653e-01
2662=8.016410e-02
2663=-6.382694e-01
2664=-4.875574e-04
2665=-2.281515e-01
2667=1.203742e-02
2668=-3.238365e-02
2669=4.851662e-02
2670=6.446117e-03
2672=5.967421e-01
2675=-1.660371e-01
2677=2.743334e-02
2678=-2.824491e-02
2679=1.288541e-02
2682=-7.998718e-02
2683=4.436172e-01
2685=3.276402e-02
2687=-7.572550e-02
2688=-9.940460e-01
2689=-5.887787e-04
2694=7.709583e-02
2695=-4.039012e-02
2697=3.031891e-01
2699=-3.955200e-02
2700=1.102386e-01
2702=2.791702e-02
2703=1.759399e-04
2704=-6.637137e-02
2707=6.479947e-04
2710=-9.468703e-03
2712=-1.776622e-03
2713=7.323792e-02
2714=-1.527266e-02
2715=-1.788864e+00
2717=3.161269e-02
2718=5.011066e-05
2719=-1.753154e-02
2720=-6.361208e-01
2722=6.683676e-03
2723=-3.024870e-02
2724=2.016549e-01
2725=-5.283548e-02
2726=-1.339137e-02
2727=-1.969500e-02
2728=-8.209983e-01
2729=2.430474e-01
2730=-2.864295e-02
2731=-1.657912e-02
2732=-3.703637e-02
2733=2.985533e-02
2734=7.317157e-02
2737=8.600575e-03
2738=-4.179988e-01
2739=9.151778e-04
2740=-9.661998e-01
2742=1.506231e-03
2744=9.660095e-03
2745=-1.358568e-01
2747=-3.697158e-02
2748=1.444048e-02
2749=1.212051e-01
2751=-5.072540e-04
2752=-3.858177e-02
2755=4.226958e-02
2757=-2.920444e-02
2758=1.179001e-01
2759=1.381522e-01
2760=-2.531925e-01
2761=-1.321466e-01
2762=2.482511e-01
2763=-1.790139e-03
2764=-1.437485e+00
2765=-1.371648e-02
2766=3.296891e-02
2768=1.297106e-01
2771=4.943078e-02
2772=-3.357715e-01
2773=4.474330e-03
2774=2.460886e-02
2777=1.942292e-03
2779=-2.200293e-06
2780=-1.612146e-01
2782=2.576417e-01
2784=1.501849e-02
2785=-2.389577e+00
2787=3.204189e-01
2788=-2.872644e-01
2789=1.729004e-02
2792=1.266026e-01
2794=-2.188630e-03
2795=-3.255382e-01
2797=-3.133348e-02
2798=2.884225e-04
2799=5.605005e-02
2802=3.772005e-02
2803=-5.492105e-01
2807=6.928572e-02
2809=-2.466745e-03
2814=-7.532078e-02
2817=9.043971e-01
2819=-2.158957e-02
2822=-5.012885e-04
2823=1.298082e-03
2825=-9.076263e-01
2827=6.759910e-01
2828=-2.731579e-02
2829=2.782590e-03
2830=-2.390942e-01
2832=8.419754e-02
2833=-1.553237e-04
2834=-4.471362e-03
2837=1.036863e+00
2839=-2.151772e-01
2840=-8.533279e-01
2842=7.640197e-02
2843=-4.587049e-02
2844=1.476051e-02
2845=2.215119e-03
2847=2.517154e-02
2848=1.522300e-01
2849=-1.266954e-01
2850=4.408462e-02
2852=-7.930118e-03
2853=8.233386e-02
2854=-1.047871e+00
2855=-1.056920e+00
2857=6.881950e-02
2858=-4.845241e-01
2859=4.336427e-02
2860=-4.368396e-01
2862=2.167491e-01
2863=-1.336272e-01
2867=3.320490e-03
2870=-3.541877e-02
2872=1.135159e-02
2874=1.642140e-03
2882=1.605346e-01
2890=-6.944432e-01
2891=-8.219865e-03
2892=5.542326e-02
2893=6.210847e-01
2894=-2.758033e-04
2895=3.301873e-01
2897=-9.527525e-02
2898=-1.837564e-02
2899=7.976658e-02
2900=-1.764745e-01
2902=-1.964160e-03
2904=7.909878e-03
2905=-1.680592e+00
2907=2.992044e-02
2908=-7.753551e-01
2909=2.528211e-02
2910=-8.580719e-02
2912=6.698898e-01
2913=-1.780464e+00
2914=-1.822809e-01
2917=-1.685563e+00
2920=-4.663002e-03
2922=3.438558e-01
2923=-5.277764e-01
2924=-9.136972e-02
2927=-1.216702e-02
2930=-4.999261e-01
2932=1.062266e-01
2934=1.170190e-01
2939=1.957578e-02
2940=-9.782419e-03
2942=3.935810e-01
2943=-4.455288e-01
2944=-8.022490e-02
2947=7.110945e-01
2949=-7.054025e-03
2957=1.054454e-01
2962=3.711530e-04
2967=5.158710e-01
2975=-1.437487e-01
2977=1.936676e-01
2978=-2.905703e-01
2979=9.283472e-04
2982=6.027571e-02
2984=-4.330982e-03
2987=2.196662e-03
2989=-1.719743e-06
2992=2.282402e-01
2994=2.882214e-04
2995=-2.997053e-01
2997=-9.257638e-03
2998=-6.375873e-02
2999=3.673186e-01
3002=-1.136459e-02
3004=1.390723e-01
3007=1.233315e+00
3009=-2.294864e-02
3012=2.126813e-01
3014=-3.683494e-02
3015=-2.942146e+00
3017=1.690237e-01
3018=-1.289532e+00
3019=2.726341e-03
3022=6.903366e-01
3025=-4.273797e-02
3027=1.723290e-01
3029=2.718073e-02
3032=5.245999e-02
3033=-2.871320e-01
3037=4.430874e-01
3039=-1.249976e-03
3044=-1.700221e+00
3047=5.734569e-01
3049=-1.717074e-01
3050=-7.488398e-01
3052=1.662340e-01
3054=8.416519e-05
3055=-1.182084e+00
3057=1.635903e-01
3058=-1.525332e-01
3059=-8.377329e-03
3062=6.514781e-01
3064=-6.743245e-03
3067=1.236616e-02
3069=-2.516114e-04
3070=-2.309601e+00
3072=-8.131299e-02
3073=-1.937496e-01
3074=1.928104e-01
3077=1.286490e-01
3079=-4.461796e-02
3080=-3.918264e-02
3082=1.964093e-01
3083=-1.810560e-01
3084=-1.287432e-03
3085=-6.541327e-01
3087=5.552128e-02
3088=-1.008603e-02
3089=5.587613e-03
3092=9.987092e-02
3094=-5.322943e-03
3099=2.835824e-04
3102=5.260306e-02
3103=1.612193e+00
3104=-6.416244e-02
3105=-9.093356e-02
3106=-1.035635e-01
3107=1.251657e-02
3108=-2.765146e-02
3109=2.956615e-02
3110=2.822566e-02
3112=-1.484851e-01
3113=1.823175e-01
3114=2.426460e-02
3117=1.267241e-01
3119=-8.650123e-03
3120=-5.845221e-01
3122=7.354610e-02
3123=-3.007211e-01
3124=1.037333e-03
3125=1.080156e-01
3126=-1.405243e-01
3127=3.307076e-02
3128=-1.305905e+00
3129=5.999976e-02
3130=-3.027668e-01
3132=-1.639802e-01
3133=1.609052e+00
3134=4.930635e-02
3137=1.439286e-01
3138=2.552315e-02
3139=-2.146228e-01
3140=3.712795e-01
3142=4.890751e-02
3143=4.204773e-03
3144=-4.783052e-01
3147=2.393538e-01
3149=-1.504018e-02
3150=-1.060584e-01
3152=6.416103e-01
3153=-1.188977e+00
3154=-8.469535e-02
3157=2.039402e-03
3158=-4.107881e-01
3160=-4.572351e-01
3162=-8.910221e-05
3164=5.384816e-02
3165=-8.682179e-02
3168=-9.028290e-02
3169=3.553051e-02
3172=2.613817e-04
3174=9.209467e-05
3177=3.887182e-03
3179=-3.677536e-04
3182=8.505708e-01
3183=-2.698118e+00
3185=-7.122366e-01
3187=9.127873e-02
3189=2.198891e-03
3190=-1.246049e+00
3192=2.828854e-02
3193=-4.483102e-01
3194=1.436080e-02
3197=2.252429e-04
3199=-2.230586e-04
3202=-5.807204e-01
3203=5.868926e-02
3204=2.200627e+00
3205=9.550393e-01
3207=-1.010191e-01
3209=3.825912e-03
3210=4.548633e-01
3212=-2.964778e-02
3213=-5.371626e-01
3214=-1.206020e-02
3215=-5.472674e-02
3217=7.620507e-02
3218=-1.347648e-01
3219=-1.563091e-02
3220=-5.245096e-01
3222=1.904554e-01
3223=-2.198366e-01
3224=-1.361712e-02
3225=7.581371e-01
3227=-9.288888e-01
3228=-1.264265e-02
3229=1.033557e+00
3232=-9.019965e-04
3234=1.377657e-02
3235=6.873578e-04
3237=-5.057533e-03
3239=1.318139e-02
3240=6.527776e-01
3242=-1.692215e-02
3244=-1.321099e-01
3245=9.882509e-02
3247=4.904236e-02
3248=3.549369e-02
3249=-6.528851e-01
3250=4.046095e-02
3252=2.999603e-02
3253=4.471050e-02
3254=-4.248694e-02
3257=1.016061e-01
3258=-1.487728e+00
3260=-1.278975e-02
3263=-1.722864e-03
3265=1.033914e+00
3267=-2.425781e-01
3270=1.042761e+00
3272=-2.447771e-01
3277=2.225579e-01
3278=-2.189261e-01
3280=-1.358622e-01
3282=1.793978e-01
3283=-1.610401e-02
3284=-6.198359e-03
3285=-4.991063e-03
3289=1.053265e-02
3292=-1.566421e-03
3295=6.962778e-01
3297=-1.002722e+00
3298=7.308756e-02
3299=2.823616e-01
3300=2.714551e-03
3302=2.808108e-04
3303=-5.394564e-02
3304=3.798260e-02
3305=-2.030098e+00
3307=1.183272e+00
3308=-1.169284e+00
3309=-4.867239e-02
3312=4.065816e-01
3317=2.356574e-01
3319=6.955366e-04
3322=-7.145820e-03
3327=7.881491e-01
3334=-4.403724e-01
3335=2.510036e-01
3337=-1.628534e-01
3338=1.974245e-01
3339=2.949713e-02
3340=-6.543999e-01
3342=-3.484821e-02
3343=-7.530461e-03
3344=6.006814e-01
3345=-5.224792e-02
3347=6.123859e-03
3348=-2.032560e-02
3349=1.098233e-03
3350=-1.191647e+00
3352=1.181165e-02
3353=1.838833e-02
3354=-1.272799e-03
3357=1.062106e+00
3359=-7.340844e-02
3360=-7.846489e-02
3362=-3.535291e-02
3364=2.270848e-01
3367=3.525082e-04
3368=-6.086564e-02
3372=7.514032e-01
3374=-1.814577e-01
3377=9.452094e-01
3379=-5.567490e-01
3382=3.271874e-01
3384=-1.303283e-01
3385=-5.887498e-01
3387=3.184941e-01
3388=-7.167426e-02
3389=-2.137946e-02
3390=-4.796005e-02
3392=1.771162e-01
3393=-1.473242e-03
3394=-3.241822e-01
3395=-4.708683e-01
3397=4.661679e-01
3398=-5.810146e-01
3399=-2.132674e-02
3402=1.234713e-02
3403=4.470974e-02
3404=-3.130309e-02
3407=1.687970e-02
3408=-5.256241e-01
3409=2.927659e-03
3412=2.213399e-02
3414=6.974981e-03
3417=-2.758657e-02
3419=4.688126e-02
3420=2.185283e-01
3422=6.406345e-04
3423=-2.972752e-04
3424=-1.982925e-01
3425=2.297575e-02
3427=-8.122008e-01
3428=-1.445270e-03
3429=6.814633e-01
3430=-1.058118e+00
3432=6.637767e-02
3433=1.511135e-01
3434=-1.976496e-01
3435=-6.234506e-02
3437=1.018507e-01
3439=-1.270220e-02
3440=-8.819806e-01
3442=-2.314423e-01
3443=1.689147e+00
3444=5.468378e-01
3445=-1.589723e-01
3447=2.299661e-01
3448=-2.115873e-01
3449=6.403048e-03
3450=4.650566e-01
3452=3.489698e-01
3454=-4.180875e-02
3455=-1.025494e+00
3457=-3.031193e-04
3458=-4.111123e-02
3459=6.333272e-01
3460=-9.454378e-01
3462=-2.802189e-01
3463=2.170756e+00
3464=-2.955321e-03
3465=-5.454329e-02
3467=-5.860966e-03
3469=1.224856e-01
3470=6.085589e-03
3472=2.447632e-03
3473=-1.380847e-01
3474=1.646507e-02
3477=2.655950e-03
3478=7.993842e-03
3479=-1.433266e-02
3482=2.134939e-01
3484=-8.672405e-02
3485=-7.662934e-02
3487=-2.880004e-02
3489=2.194759e-02
3492=5.591242e-01
3494=-5.837118e-02
3497=-1.133108e-01
3498=3.753923e-02
3502=-2.563634e-02
3503=3.479931e-01
3504=2.048962e-02
3505=2.533160e-02
3507=-6.756749e-02
3508=3.325594e-02
3509=-4.095136e-04
3510=3.753831e-01
3512=-2.409655e-01
3513=3.147491e-01
3514=-9.526662e-03
3517=1.312438e-01
3519=-5.991566e-02
3520=-1.458635e-01
3522=2.113508e-02
3524=2.946138e-02
3525=9.654866e-01
3527=-5.203644e-02
3528=-5.838913e-03
3529=4.645198e-02
3530=-1.460210e+00
3532=6.939711e-01
3533=-3.970158e-01
3534=-9.631298e-03
3537=2.813345e-02
3540=-1.664566e-01
3542=9.518121e-02
3544=2.616692e-03
3547=1.678187e-02
3552=-2.639963e-05
3559=-3.358259e-01
3560=2.160782e-01
3562=7.302810e-03
3563=-6.918491e-03
3564=-7.625658e-01
3565=1.073255e-02
3567=6.412009e-03
3568=-1.516250e-03
3569=-6.312271e-02
3570=-3.042951e-01
3572=-1.425815e-01
3575=7.524885e-02
3577=7.462136e-03
3579=-1.663842e-01
3582=3.698425e-02
3583=1.547276e-01
3585=2.510096e-04
3587=2.914812e-02
3588=-4.942956e-02
3594=5.254367e-02
3595=-8.003524e-02
3597=4.645988e-01
3598=-5.144101e-02
3600=8.427034e-01
3602=-3.399739e-01
3603=-1.426766e-01
3604=-3.232291e-01
3605=2.307214e-01
3607=-1.288912e-01
3608=5.798844e-02
3609=-1.309860e-01
3610=-6.491834e-01
3612=1.773911e-01
3613=-7.943178e-02
3614=-1.750697e-02
3615=-6.360786e-03
3617=-2.552734e-02
3618=7.439060e-01
3619=-3.864504e-04
3620=3.058990e-03
3622=-1.769969e-03
3627=4.643684e-01
3628=-5.546564e-02
3630=-1.512061e-01
3632=2.573473e-01
3633=3.741442e-01
3634=-9.217957e-02
3637=2.869796e+00
3638=-6.804767e-01
3640=-3.625846e+00
3642=1.444547e+00
3643=-8.354484e-02
3644=-1.830110e+00
3645=6.462561e-01
3646=-4.201127e-01
3647=-2.134507e-01
3648=-3.213853e-02
3649=1.057189e-01
3652=-2.901087e-01
3655=7.420399e-01
3657=-7.379985e-02
3658=-1.574804e-01
3659=1.155228e-01
3660=5.916259e-02
3662=4.955485e-02
3663=1.983853e-01
3664=-2.495491e-01
3665=3.043731e-02
3667=-1.386536e-01
3668=-3.871692e-02
3669=8.700060e-02
3672=-4.340400e-02
3673=1.135180e-01
3675=-2.879090e-01
3677=-6.479774e-03
3678=4.409296e-01
3679=3.395311e-03
3680=1.112554e-02
3682=-2.791853e-02
3683=2.414397e-01
3684=1.795400e-01
3687=3.279735e-04
3690=-5.727857e-01
3692=-4.184511e-02
3693=2.269213e-01
3694=7.755372e-01
3695=6.505400e-01
3696=-6.209807e-01
3697=-2.155334e-01
3698=1.450158e-01
3699=-7.594412e-04
3702=-3.904284e-02
3703=4.713086e-01
3704=-2.779362e-02
3705=2.602966e+00
3707=-1.494275e+00
3708=9.358945e-03
3710=-1.085242e-02
3712=1.196479e-02
3715=1.842961e-02
3717=1.100147e-01
3718=-2.492522e-01
3719=-8.037846e-03
3720=-5.861819e-01
3722=1.724625e-01
3723=-2.741914e-02
3724=-5.423579e-04
3725=3.441130e-01
3727=-1.456689e-01
3728=4.771338e-02
3729=-3.574271e-04
3733=8.477974e-02
3734=-8.276938e-04
3737=9.598761e-01
3738=-2.314900e-03
3747=3.564145e-01
3765=7.474524e-01
3767=-7.520188e-02
3768=-9.080488e-01
3769=8.784484e-02
3770=-1.080420e-01
3772=-3.388701e-05
3773=1.047597e-01
3774=-1.383391e-03
3775=-4.701875e-02
3777=1.188069e-02
3778=-1.770098e-02
3779=8.316406e-02
3780=4.755509e-02
3782=3.405735e-02
3783=-1.042115e-01
3784=1.826467e-02
3785=2.132442e-01
3787=-3.387331e-02
3788=-2.398525e-02
3792=1.651677e-01
3822=8.674639e-01
3823=-2.497116e-02
3825=-1.150179e-03
3827=5.913578e-04
3832=1.047399e-03
3837=-4.763226e-03
3838=-6.083939e-02
3839=1.675038e-02
3842=5.562446e-02
3844=-1.253599e-05
3847=1.645147e-03
3849=-1.011167e-02
3852=1.800872e-02
3854=-1.457261e-05
3855=-3.882828e-04
3857=-1.500624e-01
3858=-6.026343e-02
3859=5.957193e-01
3860=4.820317e-01
3862=-1.887578e-02
3863=-4.452685e-01
3867=-7.269106e-03
3869=1.411898e-01
3870=-1.757627e-03
3875=-1.499246e-02
3877=2.846245e-01
3879=-2.132197e+00
3880=-9.108101e-02
3882=8.688845e-01
3885=-7.695411e-01
3887=1.820458e-01
3888=2.683191e+00
3889=-2.977152e+00
3892=6.371141e-02
3893=-5.195294e-03
3895=5.679864e-02
3897=-4.520203e-02
3898=1.580281e+00
3899=-9.274148e-02
3902=1.229238e+00
3905=-6.240736e-04
3907=1.601633e-02
3912=-1.256203e-01
3913=1.170707e-01
3915=-3.282354e-03
3917=3.887000e-03
3918=-1.202152e-02
3937=-3.711280e-01
3942=6.081715e-02
3950=1.903680e-02
3952=-1.787234e-03
3953=1.657638e-03
3955=-1.215638e-01
3957=1.686175e+00
3959=-2.140432e-03
3960=1.318608e-01
3964=-7.477025e-01
3968=2.323503e-04
3970=-1.777696e-03
3972=7.161952e-01
3975=1.391398e-02
3977=-5.675117e-01
3978=1.988275e-02
3979=1.063981e-01
3980=-4.943624e-01
3982=1.148085e-01
3983=2.255965e-02
3984=-1.703594e-01
3985=-9.740741e-03
3987=5.221667e-03
3988=-7.731856e-04
3989=5.831186e-01
3990=-2.092263e-03
3992=7.076229e-03
3995=-8.338979e-07
3997=-2.482128e-01
3999=1.162994e-01
4005=-6.843832e-07
4007=-9.752000e-02
4009=1.982989e-01
4012=-1.888119e-01
4013=2.026663e-02
4025=1.068616e-02
4027=-1.487604e-02
4029=4.449228e-04
4030=7.801436e-03
4035=-2.997209e-03
4040=-3.326254e-02
4042=-6.753126e-02
4043=1.785765e+00
4044=-3.150847e-03
4045=-1.005931e-01
4047=7.266996e-04
4049=2.729905e-02
4050=-2.198565e-01
4052=6.518676e-01
4053=-6.841377e-02
4054=-1.022007e-01
4055=-5.530974e-01
4058=-1.001146e-01
4059=2.837672e-01
4060=4.377793e-02
4064=-7.996315e-02
4065=4.329814e-02
4067=2.095371e-01
4068=-2.086882e-01
4069=5.806466e-01
4070=-1.835805e-03
4072=-9.774119e-01
4073=3.166948e-01
4074=1.593846e-01
4077=-1.708776e-02
4078=-5.179617e-02
4079=7.966082e-02
4082=-2.340786e-03
4083=4.076805e-02
4085=1.449572e-02
4087=3.702035e-01
4088=-4.985519e-03
4089=-1.558177e-01
4090=3.925749e-01
4092=-6.621678e-02
4093=6.040539e-03
4095=8.825877e-01
4097=-3.447999e-02
4098=-4.060329e-03
4099=4.986656e-03
4100=-8.273072e-03
4104=9.132694e-04
4107=7.238150e-01
4108=-3.879298e-03
4110=1.801504e-02
4112=-1.039895e-01
4113=-2.663286e-01
4114=1.627773e-01
4115=-2.735681e-01
4117=1.464927e+00
4120=6.850450e-01
4122=-1.156582e-03
4125=1.053758e-01
4127=-1.094608e-02
4128=-9.025034e-02
4129=4.664910e-02
4130=-6.451119e-01
4132=6.830330e-02
4134=-1.808978e-03
4135=-8.581278e-02
4137=5.596514e-01
4140=-1.839859e-01
4142=2.548368e-02
4143=-1.053855e-02
4144=-2.470351e-03
4147=2.570205e+00
4148=-1.325008e+00
4150=-6.795815e-04
4154=6.201454e-02
4157=1.828000e-01
4159=-8.717309e-05
4160=2.234774e-02
4162=3.986472e-03
4164=-1.446898e+00
4165=-4.784499e-01
4167=-5.706667e-04
4168=6.954417e-03
4169=2.308013e-04
4172=-1.050646e-03
4174=3.860513e-03
4175=5.328266e-01
4177=-4.660821e-03
4178=-4.816419e-01
4179=-3.938888e-01
4182=6.819931e-03
4187=2.262410e-01
4188=-3.527962e-02
4189=2.650620e-04
4190=3.596488e-04
4192=-7.406625e-03
4194=4.765932e-06
4195=1.299187e-01
4197=-1.371784e-03
4199=-1.580665e-02
4202=-4.194654e-02
4203=3.204486e+00
4204=-2.320739e-04
4207=-1.038114e-06
4235=-2.377073e-01
4237=1.603917e-01
4239=-9.762109e-03
4240=-5.635106e-01
4242=8.483117e-03
4244=8.694767e-02
4247=-1.489063e-02
4249=2.593643e-03
4252=-3.313702e-02
4254=8.876749e-01
4255=2.435335e-01
4257=-2.892821e-03
4258=-2.365628e-05
4259=-1.578768e-02
4260=-1.755787e+00
4262=-4.844119e-03
4264=5.734589e-02
4265=5.286371e-03
4267=-5.275666e-03
4268=1.928584e-02
4269=-2.496609e-02
4270=-2.341558e-03
4272=3.683493e-03
4273=-9.328724e-01
4274=8.557267e-03
4275=-3.758757e-03
4277=8.032013e-02
4278=1.406202e-02
4279=-1.122872e+00
4280=1.972939e-01
4282=-5.653185e-02
4283=3.171617e-01
4284=3.370252e-02
4285=5.141522e-01
4287=-1.356268e+00
4292=2.378242e-03
4297=-2.045806e-02
4299=3.169447e-01
4303=5.016053e-04
4304=-1.693354e-02
4307=1.514208e+00
4308=-3.486162e-01
4310=2.876018e-02
4312=-2.286907e-01
4314=9.085950e-02
4317=7.260914e-01
4319=-3.923272e-03
4320=-5.638439e-04
4322=4.554092e-02
4325=-3.872607e-02
4327=1.509915e+00
4329=-1.586005e-04
4333=-3.010336e-03
4335=8.730934e-01
4337=-1.855495e-01
4338=-6.964920e-03
4339=-7.427743e-03
4342=1.074071e-01
4347=1.128044e-02
4349=-1.243486e+00
4352=-1.454066e-04
4353=1.131533e-02
4355=-1.719961e-01
4357=-8.865253e-04
4358=1.353576e-02
4359=3.581074e-02
4360=-3.121555e-03
4362=5.370001e-01
4363=-1.070117e-01
4365=-4.065330e-01
4367=-5.204359e-01
4368=-7.571861e-02
4369=6.596393e-01
4372=7.142850e-02
4375=1.049177e-01
4377=-1.057279e-01
4378=1.764842e-01
4379=-1.547727e-02
4380=-2.740285e-01
4382=-2.398353e-02
4383=7.035218e-01
4384=1.839215e-01
4385=-4.836526e-01
4387=5.301995e-02
4388=1.040861e+00
4389=-9.782453e-02
4390=-1.087734e+00
4392=-1.247410e-02
4393=1.206539e-01
4394=9.309608e-02
4395=3.627239e-02
4397=-3.762146e-02
4398=6.813209e-03
4399=-3.745772e-03
4400=-3.806494e-01
4402=-3.961331e-01
4403=-3.220765e-01
4404=1.277863e+00
4407=3.539541e-02
4408=-1.492769e+00
4409=-2.621149e-04
4410=-1.078345e+00
4412=4.844256e-02
4413=-1.443280e-01
4414=5.695587e-02
4417=1.078259e-03
4418=3.382255e-02
4419=3.218727e-02
4420=-3.056074e-01
4422=3.482845e+00
4423=-2.725585e+00
4424=-1.868910e+00
4427=5.242322e-03
4430=-1.952744e-01
4432=-2.992120e-02
4433=-2.579384e-02
4434=2.808938e-01
4437=-1.066027e-01
4439=4.009644e-01
4442=-9.707960e-05
4443=2.590387e-02
4444=-2.093622e-01
4445=-2.885889e-02
4447=5.778726e-02
4449=-1.612469e-02
4452=7.365930e-02
4454=-1.846782e-02
4455=3.660276e-03
4457=-8.811476e-02
4458=1.441598e-03
4459=4.545695e-02
4462=-4.415638e-04
4464=5.950568e-02
4465=6.230039e-01
4467=-1.384571e-02
4468=-1.389497e-01
4470=4.871267e-01
4481=-1.717968e-03
4482=-3.096394e-02
4483=-6.174964e-02
4485=1.946491e-01
4487=1.039515e-01
4488=2.012221e-03
4489=-1.505144e+00
4491=5.311541e-02
4494=2.792418e-01
4495=4.240372e-02
4497=-1.225450e-03
4499=-4.750245e-02
4502=7.733725e-04
4504=-1.548842e-05
4505=-1.128465e+00
4507=1.029177e-01
4508=-2.435803e-02
4509=-9.692463e-03
4512=-9.126303e-05
4514=3.340901e-03
4515=4.864289e-04
4517=5.064261e-02
4518=-6.775153e-02
4519=-7.401733e-03
4520=1.156856e-01
4522=-2.030140e-02
4524=-1.971091e-01
4527=4.288842e-01
4529=-4.459900e-02
4530=-1.122291e-02
4532=8.620709e-04
4533=1.025692e+00
4534=-4.552034e-04
4535=-8.629642e-02
4537=1.475363e+00
4538=-3.116576e+00
4539=-4.394092e-01
4540=-3.811069e-02
4542=3.588064e-01
4544=-4.921123e-02
4545=-1.475840e-03
4547=1.973180e-05
4549=4.262186e-04
4552=2.319582e-01
4553=-1.758397e-02
4554=-1.013860e+00
4556=-3.617813e-02
4557=7.360658e-04
4566=2.499433e-01
4567=4.896087e-01
4568=7.624148e-02
4573=-2.677655e-01
4576=-4.936116e-02
4579=-2.033681e-01
4582=-4.356827e-01
4583=1.215898e-01
4587=1.315446e-02
4590=-1.071266e-05
4592=-7.465215e-03
4594=1.065411e+00
4595=-1.333304e+00
4597=1.759734e-01
4599=-6.608207e-04
4602=5.081008e-03
4604=-6.982922e-05
4607=2.334786e-01
4609=-1.932059e-02
4610=-6.717290e-01
4612=-1.992133e-02
4613=2.071660e-02
4614=1.005318e-02
4617=2.159671e-03
4619=-2.359789e-01
4620=4.886726e-01
4622=-1.571598e-01
4623=-4.344059e-02
4627=5.186897e-03
4629=-2.578618e-03
4632=9.600100e-02
4634=-1.257984e+00
4635=-2.077796e-01
4637=2.657785e-03
4638=-1.616252e+00
4639=7.865527e-02
4642=4.615158e-03
4645=-8.199320e-01
4647=1.104993e-01
4648=-1.459486e-02
4649=1.370389e-01
4652=-2.679255e-03
4654=1.049717e-02
4657=-3.184992e-04
4659=1.187430e-02
4663=-7.451564e-03
4667=-6.534183e-03
4670=2.765834e-01
4672=-7.811533e-01
4674=4.015085e-01
4677=3.269876e-01
4679=-1.208818e-02
4680=3.729968e-02
4682=-1.416036e-01
4684=-2.628811e-01
4685=2.817896e-02
4687=-4.310711e-02
4692=-1.252024e-01
4694=9.911840e-02
4697=5.420893e-03
4698=3.332804e-02
4699=-2.251427e-03
4700=3.039321e-02
4702=-7.245216e-02
4703=-2.449214e-01
4704=2.112077e-01
4705=-2.697245e-01
4707=-3.185951e-02
4708=-1.217389e+00
4709=8.517625e-01
4710=-9.172100e-02
4712=-2.930289e-02
4713=-1.577227e-04
4714=3.558926e-02
4715=1.996896e-02
4717=-1.111086e-01
4719=2.496952e-01
4720=3.683624e-03
4721=-1.163204e+00
4727=-2.392348e-01
4729=3.156083e-01
4732=4.480890e-02
4733=-2.712805e-02
4736=7.061027e-01
4737=-4.727877e-02
4738=-1.412913e-04
4741=-6.348195e-03
4744=1.004954e-01
4747=4.255113e-03
4749=-3.607072e-01
4752=1.578529e+00
4754=-5.982556e-01
4755=3.034138e-01
4757=-3.018789e-01
4758=-2.260470e-02
4759=3.956425e-02
4760=-8.231560e-01
4762=1.231806e-01
4763=1.700792e-01
4764=-9.795817e-01
4765=-5.436337e-01
4767=6.252513e-01
4769=-6.299663e-02
4770=4.532430e-01
4772=-9.969848e-02
4774=3.928498e-02
4777=1.500110e-01
4779=-1.869061e-01
4782=2.782497e-04
4784=-2.961861e-03
4787=1.817044e-03
4789=-1.586378e-03
4792=-2.842531e-02
4793=7.436731e-04
4794=1.035839e-04
4797=2.498011e-05
4802=3.764450e-01
4803=-1.178099e-02
4804=-9.669351e-02
4812=1.989769e-01
4814=-7.510868e-01
4817=1.099366e+00
4818=-1.026521e-01
4820=2.345766e-03
4829=8.191797e-05
4832=2.427150e-01
4834=-7.383283e-01
4837=1.705179e-02
4839=-3.975372e-02
4841=1.017442e-02
4842=-9.096941e-04
4843=-1.524984e-02
4845=-2.753914e-02
4849=1.238497e-02
4852=-9.161914e-03
4854=1.197235e-02
4855=-1.032863e-01
4857=4.191631e-02
4858=-3.609645e-01
4859=1.499597e-02
4863=-2.433255e-02
4867=-8.517331e-02
4869=5.116068e-02
4872=4.256582e-01
4874=-1.000345e-01
4875=-8.803202e-03
4877=4.599490e-01
4880=2.712895e-01
4882=-1.277925e-02
4883=-1.359271e-01
4884=1.701464e-03
4885=-9.228293e-02
4887=-8.079607e-04
4888=-3.811628e-02
4889=2.495714e-01
4892=-2.045030e-02
4894=9.054614e-01
4897=4.042639e-01
4898=-1.279934e-03
4899=-1.011865e-01
4900=-3.438226e-03
4902=-4.619657e-05
4904=3.197142e-01
4907=3.777794e-02
4909=-3.022158e-03
4910=-9.239662e-02
4912=-1.485117e-02
4913=1.136238e-02
4914=7.116491e-02
4915=1.442198e-02
4917=-1.957170e-02
4920=6.570779e-01
4922=-1.158119e-01
4924=-1.318234e-01
4925=-1.859781e-01
4927=3.416805e-01
4929=-3.384425e-04
4932=9.400777e-03
4934=-1.757725e-02
4937=-2.854581e-01
4939=5.206539e-01
4940=-1.014404e+00
4942=-8.649437e-04
4944=5.871633e-03
4947=9.803473e-03
4949=-1.093704e-01
4950=-3.650776e-01
4952=6.293713e-02
4953=-1.554714e-02
4954=-7.978038e-04
4957=-8.125072e-04
4959=1.176970e-04
4962=2.344657e-02
4967=-2.078947e-05
4969=6.449497e-04
4972=1.639330e-02
4974=-1.255345e-02
4977=3.319874e-02
4979=-1.280510e-03
4982=1.235816e-02
4984=-1.077553e-04
4987=7.779943e-02
4989=-7.722858e-05
4990=6.284368e-01
4992=-4.353599e-01
4993=-1.777334e-02
4995=7.861555e-01
4997=-8.671429e-01
4999=4.611313e-03
5000=2.529863e-01
5002=-5.748336e-01
5003=1.563669e+00
5004=-5.551416e-01
5007=-6.519302e-02
5009=1.120754e+00
5012=5.396567e-02
5013=-1.033168e+00
5014=-3.411710e-03
5015=-1.576774e-02
5017=5.111465e-01
5018=-1.871257e+00
5019=1.215302e-01
5020=-1.969696e-01
5022=9.324579e-02
5025=-1.968317e+00
5027=-1.293122e+00
5028=-4.887106e-01
5029=1.999719e+00
5030=-4.944907e-01
5034=5.776815e-01
5035=-6.449840e-01
5037=-8.184143e-01
5039=1.699628e+00
5042=-2.400143e-02
5044=1.741545e-02
5047=-1.889811e-01
5049=5.936433e-01
5052=-1.302582e-02
5054=2.495030e-02
5055=-2.059101e-03
5057=4.970304e-03
5060=3.481932e-01
5062=1.277598e-03
5063=-4.446819e-02
5064=-5.122908e-03
5067=7.127701e-02
5074=1.247564e-03
5075=2.087691e-01
5077=-4.938666e-01
5078=5.124113e-01
5079=-3.947075e-01
5080=1.027942e-01
5082=3.154731e-01
5083=-1.721564e+00
5084=-1.139843e-02
5085=-8.598926e-04
5087=-1.749605e-02
5088=1.049090e-02
5089=4.434373e-02
5090=-2.401675e-02
5092=-8.799462e-02
5094=6.621546e-01
5097=4.785406e-02
5098=-1.264843e-02
5099=-6.549040e-03
5102=2.743320e-02
5104=-1.014966e-03
5107=8.788026e-01
5109=-2.826731e-01
5112=4.885913e-01
5114=-1.116596e+00
5117=2.582934e-02
5118=-3.541867e-02
5119=1.494169e-01
5122=-1.421615e-01
5124=2.017175e-01
5127=-1.250837e-04
5128=8.220641e-05
5130=6.050501e-02
5135=2.067306e-01
5137=-1.129313e-02
5138=-6.961365e-01
5140=1.209464e-01
5142=-1.190816e-02
5143=-2.743574e-02
5144=4.029847e-02
5145=5.824308e-01
5147=-8.692338e-01
5148=4.706595e-02
5149=-1.874988e+00
5150=1.846307e-01
5152=-6.298402e-03
5154=-1.586635e-02
5155=5.255675e-01
5157=-8.709516e-02
5158=7.956466e-02
5159=-5.571440e-01
5162=1.141050e-01
5164=-1.537354e+00
5167=-8.965548e-01
5168=9.509776e-01
5170=4.227511e-01
5172=-1.197152e-01
5173=-5.254593e-01
5174=7.084554e-01
5177=-5.773563e-01
5179=9.558158e-01
5182=-6.230734e-02
5183=3.813548e-02
5184=3.740195e-02
5185=3.274960e-01
5187=-1.939638e-03
5189=-1.774532e+00
5190=-1.501499e-02
5193=2.574503e-02
5195=-3.178587e-02
5197=1.452572e-01
5198=-9.118056e-03
5199=-3.029701e-01
5200=2.215092e-02
5202=5.450167e-04
5203=-1.543374e-04
5205=6.657987e-01
5207=-1.086193e-01
5209=3.101207e-02
5210=-1.065698e-02
5212=1.172243e-01
5213=-7.854258e-02
5215=-3.399492e-02
5217=5.781237e-02
5218=-9.089819e-01
5219=-9.439917e-02
5220=5.743640e-01
5222=4.617231e-02
5223=-6.984914e-02
5224=-7.117811e-01
5225=2.263708e-01
5227=2.230621e-04
5229=-6.892521e-03
5232=5.229502e-02
5234=-2.521499e-03
5235=2.277613e-01
5237=3.774253e-02
5239=-3.441392e-03
5242=5.618340e-02
5244=-1.044384e-02
5245=-1.236926e-01
5247=2.272350e-01
5248=-1.023516e+00
5249=-2.429458e-02
5252=1.138905e-01
5253=-2.805605e-01
5254=-2.472466e-02
5256=-1.382821e-01
5266=1.119442e-01
5267=4.150907e-01
5273=-3.222299e-02
5276=-8.843956e-03
5279=-7.314037e-04
5280=1.501514e-01
5282=1.895914e-01
5283=-1.713795e-01
5284=-6.942270e-02
5285=3.289667e-01
5287=-4.526011e-01
5290=8.446795e-04
5292=3.584544e-01
5294=-1.138685e+00
5295=-2.324350e-01
5297=1.102801e-01
5299=1.270868e-02
5302=-2.209486e-02
5304=7.641659e-02
5305=-3.483456e-02
5307=-3.432738e-01
5308=6.077771e-01
5309=1.767784e-01
5310=1.033821e-01
5312=-1.591593e-05
5317=-2.046979e-04
5319=7.429121e-03
5320=5.856424e-01
5322=-7.766450e-02
5323=-9.792837e-03
5324=-8.844725e-03
5325=5.847047e-01
5327=-2.301174e-02
5328=-1.970293e-01
5329=-1.609839e-02
5332=1.134571e-01
5333=-1.503535e+00
5334=3.551752e-02
5335=5.094962e-02
5337=-1.127098e-01
5338=5.768738e-01
5339=-6.568416e-04
5342=-1.894288e-02
5344=1.492049e-01
5347=1.438121e-03
5349=-2.227055e-04
5350=1.504337e-02
5352=-1.607689e-02
5353=-2.215057e-01
5354=6.101889e-03
5359=-2.329415e-02
5362=4.973423e-02
5367=2.072054e-02
5372=6.712491e-02
5374=-4.595891e-01
5375=6.303786e-03
5377=5.465636e-02
5378=-1.285397e-02
5379=-1.265319e+00
5382=2.149564e-02
5384=-2.235739e-03
5387=3.646135e-02
5389=-1.562132e-02
5390=9.745169e-02
5392=-9.146700e-01
5393=7.359827e-04
5394=9.322392e-02
5395=1.328326e-01
5397=7.860690e-01
5398=-9.201194e-03
5399=-6.615116e-01
5400=-2.003288e-01
5402=4.041672e-01
5403=-5.946046e-02
5404=-7.664885e-02
5405=-3.096499e-03
5407=3.640128e-01
5408=-1.594469e-01
5409=-1.642714e-01
5410=2.869049e-03
5411=-5.671452e-02
5412=-1.332363e-01
5415=-2.934381e-02
5417=7.541391e-01
5419=-1.643853e+00
5420=-2.575479e-01
5421=9.508444e-02
5422=3.871932e-01
5423=-1.238062e-01
5425=8.582741e-02
5426=-5.996058e-04
5427=-3.516965e-01
5431=-2.575010e-01
5434=3.372251e-01
5437=7.387811e-02
5439=-2.398099e-03
5440=2.564282e-01
5444=-2.128505e+00
5447=2.697065e-01
5449=-2.820644e-01
5457=1.931845e-02
5459=-8.539482e-02
5477=-6.404236e-01
5478=4.139422e-01
5480=1.154934e-01
5482=-1.287457e-02
5484=4.286231e-04
5487=6.078699e-05
5492=-3.771951e-01
5493=2.760317e-01
5502=-6.014909e-02
5503=1.427044e-01
5520=2.990037e-02
5522=-9.535355e-02
5523=3.229001e-01
5524=-2.930486e-02
5527=1.040544e+00
5529=-9.510390e-01
5530=-3.676368e-01
5532=-4.274254e-01
5533=5.240564e-01
5534=7.726650e-03
5535=4.762432e-01
5537=5.615288e-03
5538=-1.823807e+00
5539=-3.577812e-01
5540=3.349609e-01
5542=-2.610753e-01
5543=1.530083e+00
5544=-3.243329e-01
5545=3.454104e-02
5546=5.129031e-01
5547=4.319832e-02
5548=-1.612876e-02
5549=-6.883448e-01
5550=-2.939879e+00
5552=1.083107e+00
5553=3.408579e-02
5554=-6.105973e-01
5555=4.280497e-02
5557=1.279829e-02
5558=2.010362e-01
5559=-5.833226e-01
5560=5.843154e-03
5562=1.110914e-01
5563=1.047071e-01
5564=-7.506923e-01
5565=5.781854e-02
5566=1.009761e-01
5567=-5.388090e-01
5570=-2.270633e-02
5572=5.370711e-02
5573=1.284454e-01
5574=-7.236364e-02
5576=-3.343486e-02
5577=4.367957e-02
5578=-4.009039e-01
5580=2.608890e-03
5581=1.326810e-01
5582=-1.346449e+00
5583=1.878891e-01
5586=-8.643301e-01
5589=-4.329297e-02
5590=-2.997089e-03
5592=8.912014e-03
5594=1.092698e-02
5595=-9.047843e-01
5597=7.297175e-02
5598=3.641817e-01
5599=-5.514728e-04
5600=-4.650315e-03
5602=-1.738507e-01
5603=9.284321e-01
5604=-9.372353e-01
5605=-2.279180e+00
5607=2.391027e-01
5608=5.996297e-02
5609=-4.313291e-01
5614=2.450905e-03
5615=-2.753636e-01
5617=8.423260e-01
5618=-8.610310e-02
5619=-1.916371e+00
5620=-7.714806e-01
5622=5.119448e-01
5623=-6.956593e-02
5624=1.425459e+00
5625=-2.124194e-02
5627=1.354068e-01
5629=-7.020868e-03
5630=3.262524e-02
5632=2.295039e-03
5634=-2.622413e-04
5637=-1.895173e-02
5638=2.603113e-02
5640=1.772471e-01
5642=-6.856192e-02
5643=-7.350815e-01
5644=6.127349e-01
5645=1.259873e-01
5647=-2.188731e-01
5648=2.132067e-02
5649=1.033841e+00
5650=-3.792535e-03
5652=-1.284861e-01
5653=4.196342e-01
5654=-6.282142e-03
5659=5.136339e-03
5660=-2.276597e-02
5662=8.086619e-02
5664=3.283175e-03
5667=-1.125029e-01
5669=8.187022e-02
5673=-3.558330e-01
5674=5.429511e-03
5677=2.512165e-02
5678=1.236369e-01
5679=-3.438331e+00
5682=-1.114859e-02
5683=1.105166e-01
5687=4.447532e-01
5688=-2.868192e-02
5689=-1.220279e-02
5690=-1.634805e-03
5692=5.065561e-02
5693=-5.999502e-01
5694=2.065732e-02
5697=1.072011e-01
5698=-2.675865e-03
5699=1.575386e-02
5700=-1.657449e-01
5702=1.118582e-01
5703=-4.778529e-02
5704=-1.808097e-01
5705=5.040121e-02
5706=-6.886259e-02
5707=3.913153e-03
5710=-2.126756e-01
5712=6.832269e-01
5713=-1.027273e+00
5714=-9.629889e-01
5716=1.687766e-02
5717=4.814665e-01
5718=-2.794376e-01
5720=-1.586628e-01
5721=-2.401953e-01
5722=-7.569843e-01
5723=1.908421e-01
5726=1.479301e-02
5729=9.855085e-02
5730=1.183787e-01
5732=-1.935001e-02
5733=4.289889e-02
5734=8.052441e-03
5737=1.660712e-03
5738=-2.397215e-02
5739=2.253075e-03
5742=9.109468e-04
5745=1.755597e+00
5747=-9.335423e-01
5749=1.032845e-02
5750=-1.087665e-02
5752=-4.597355e-03
5753=6.175967e-03
5754=4.075890e-03
5755=-1.416031e-03
5757=3.313895e-04
5759=-2.512780e-04
5762=-1.633063e+00
5763=1.053824e+00
5764=3.447095e-02
5765=2.793742e-01
5767=-5.052340e-01
5768=3.469424e-01
5769=-1.074472e-04
5770=-1.053958e-01
5772=-3.481021e-01
5773=5.012343e-01
5779=-3.510687e-03
5782=-6.832428e-02
5784=1.969457e-02
5785=-2.873154e-02
5787=1.118199e+00
5792=-1.483672e-01
5793=1.872880e-03
5794=-2.612159e-02
5795=4.661961e-02
5797=9.567964e-05
5798=-8.682249e-02
5799=-1.328128e-03
5802=-9.129189e-05
5805=-1.997329e-04
5807=-2.814073e-04
5809=1.092545e-03
5812=-2.359057e-01
5814=8.403894e-01
5815=5.035973e-03
5817=-5.518206e-03
5818=-2.099928e-02
5819=2.975108e-04
5822=-5.608447e-02
5823=2.211008e-02
5828=9.690496e-02
5832=-1.019897e+00
5834=3.079040e-01
5835=1.611757e-01
5837=6.503189e-04
5838=-2.725993e-02
5839=-6.675515e-01
5840=9.433690e-03
5842=3.058463e-01
5843=-1.865236e-02
5844=-3.486287e-01
5847=1.091826e-02
5849=1.100578e-03
5850=-4.978295e-03
5852=3.971566e-02
5853=-1.695925e+00
5854=6.481197e-03
5855=-1.712062e-01
5857=1.220102e-01
5859=-2.442591e-03
5860=1.416350e-01
5862=-1.540295e-02
5867=9.449073e-01
5868=-8.404006e-03
5869=-2.574184e-04
5872=-4.753210e-02
5873=5.929573e-03
5874=2.612642e-01
5882=-5.676306e-02
5883=3.975498e-03
5884=4.760106e-01
5887=1.157795e+00
5892=-8.067534e-03
5902=-5.842724e-02
5903=3.552335e-03
5904=4.686204e-01
5907=2.111483e-01
5909=-9.705629e-02
5910=-1.121218e-01
5912=3.231645e-01
5913=-1.624796e-01
5914=-5.859691e-01
5915=2.239967e-02
5917=3.174725e-02
5918=-2.366941e+00
5919=6.196990e-04
5922=-5.921275e-02
5923=4.333602e-01
5924=-9.145086e-04
5927=-3.792377e-01
5928=1.008057e-01
5929=-8.214974e-02
5930=7.072487e-02
5932=-5.039489e-01
5933=-2.253166e-02
5934=1.236710e+00
5935=9.832188e-02
5937=-2.916874e-02
5942=6.485840e-01
5944=-4.740193e-01
5947=5.558521e-04
5949=-5.193465e-03
5952=-4.318300e-05
5955=1.114842e-03
5957=-9.267749e-02
5958=-3.258189e-01
5959=3.936433e-02
5960=-2.335793e-02
5962=4.213818e-02
5967=1.108172e-04
5969=-4.893419e-02
5972=-3.996106e-02
5974=4.756791e-02
5977=3.936259e-04
5978=-5.187675e-04
5982=-8.133748e-04
5983=6.134558e-03
5989=2.920922e-04
5992=2.009557e+00
5994=-1.531631e+00
5995=-2.810976e-02
5997=-8.413031e-02
5998=3.542161e-01
6000=3.107785e-01
6002=-4.281363e-02
6003=7.990406e-02
6004=-4.920049e-02
6005=6.483051e-02
6014=7.437087e-04
6017=2.932550e-01
6020=-6.059175e-02
6022=5.791449e-02
6024=-1.049315e+00
6027=2.179512e-04
6028=-8.945995e-05
6032=4.666924e-02
6035=1.123477e-02
6037=7.975525e-02
6038=-4.456374e-02
6039=-8.193034e-01
6040=3.134202e-03
6042=1.333591e-01
6043=-8.785781e-01
6047=1.473533e-01
6048=-4.842180e-01
6050=-1.464687e-02
6052=1.892154e-01
6054=-1.473134e-02
6055=-8.139483e-03
6057=5.432783e-02
6059=-1.496623e-02
6060=1.819970e-02
6062=-2.070626e-04
6063=-4.320029e-03
6064=-1.997448e-03
6065=-1.108510e-01
6067=1.721811e-01
6069=-3.746339e-01
6070=1.266189e-01
6072=-2.417579e-03
6074=-1.580327e-06
6077=-1.711824e-03
6082=-2.379542e-02
6083=3.625471e-03
6085=1.655942e-02
6087=-9.967204e-04
6092=-1.351142e+00
6094=1.679334e+00
6097=-1.915051e-01
6098=-2.673347e-01
6099=2.398796e-01
6100=-3.599350e-01
6102=-1.404827e+00
6104=1.605971e+00
6105=1.123721e-03
6107=-6.937718e-01
6112=-1.574412e-02
6114=7.572359e-01
6115=-2.169909e-01
6117=3.914102e-02
6118=-1.844415e-01
6120=1.585634e-02
6122=-6.293591e-03
6125=-3.752353e-01
6127=6.852218e-01
6128=7.419183e-04
6129=-3.848336e-02
6130=2.476885e-06
6133=-3.219528e-07
6137=7.458699e-02
6139=-6.850937e-02
6142=-9.586359e-04
6144=9.710309e-03
6147=7.289666e-03
6148=-9.662670e-01
6150=4.853917e-04
6152=5.637648e-04
6153=-2.853207e-02
6154=-1.910106e-04
6155=1.987819e-01
6157=-7.034205e-01
6158=4.461277e-01
6159=-1.610857e-04
6160=-8.967498e-01
6162=6.683647e-02
6164=1.716708e-02
6165=-4.092358e-01
6167=1.560690e-01
6172=-6.077935e-02
6174=6.719563e-03
6176=-3.788897e-01
6186=1.657672e-01
6187=-1.914018e-03
6196=2.000379e-03
6199=1.030673e-02
6202=2.348813e-02
6203=-4.791307e-03
6205=3.426464e-01
6207=1.196244e-01
6208=-2.358887e-01
6209=-1.503961e+00
6212=-3.703214e-01
6214=9.476209e-01
6217=-6.556926e-01
6218=3.871208e-01
6219=9.520859e-03
6220=-4.394870e-02
6222=5.868690e-04
6224=1.722849e-01
6225=6.970367e-01
6227=-9.293851e-01
6228=-9.541003e-02
6229=1.467815e-01
6230=7.848111e-02
6232=2.519312e-03
6233=-1.446943e+00
6235=3.574232e-01
6237=-2.578979e-01
6240=2.533540e-02
6244=-4.752434e-02
6245=6.360868e-01
6247=-4.434401e-02
6248=1.015913e+00
6249=-6.034137e-01
6252=-6.206872e-03
6254=1.319951e-01
6255=1.209627e-01
6257=-7.983169e-02
6259=1.692653e-02
6260=1.200439e-01
6262=4.554377e-03
6263=-1.636764e+00
6265=-3.313343e-03
6267=2.612277e-02
6268=-8.007474e-04
6272=3.804692e-02
6277=7.770008e-04
6283=1.072922e-03
6285=-2.672725e-01
6287=-3.131581e-02
6288=3.632055e-02
6289=6.423933e-01
6290=1.003989e-02
6292=2.269569e-01
6294=-2.133054e-01
6295=1.397794e-03
6297=-4.146676e-03
6298=9.310258e-03
6300=4.194430e-05
6302=-1.749437e-01
6304=8.664771e-01
6305=-2.201275e+00
6307=3.184423e-04
6308=2.955822e-04
6310=-1.919945e-03
6312=-3.328743e-02
6314=-4.036509e-04
6317=-6.593553e-02
6319=1.368851e-02
6322=5.884408e-01
6323=-4.420111e-04
6325=-5.690239e-01
6327=-7.147284e-01
6328=1.176702e+00
6332=-2.824932e-01
6334=1.442184e-01
6335=-4.127943e-01
6337=4.936100e-01
6338=-3.428095e-03
6342=-4.646961e-02
6343=1.001126e+00
6345=-6.471730e-05
6347=2.000212e-01
6348=-6.314708e-02
6352=-3.552634e-04
6354=6.449473e-04
6355=1.496350e-02
6357=-3.843148e-03
6358=1.248890e-02
6359=-2.902204e+00
6360=-2.956805e-01
6362=8.907205e-02
6363=2.717804e-03
6364=-1.352796e-01
6367=3.122610e-04
6372=-7.876694e-04
6374=5.363301e-03
6375=5.038620e-03
6377=-2.572291e-01
6379=6.146296e-02
6380=-9.994175e-03
6382=1.029775e+00
6383=-2.928525e-02
6384=-1.368553e-01
6387=1.162589e-02
6388=-1.081319e+00
6392=-2.351737e-01
6394=3.623416e-01
6395=4.476640e-03
6397=-3.033906e-03
6402=3.802792e-05
6404=-1.622308e-05
6405=3.299235e-03
6407=-1.974211e-01
6409=8.571500e-04
6412=-6.104374e-03
6413=1.724485e-02
6415=-3.887552e-02
6417=3.734543e-03
6420=-1.022031e-01
6422=-4.396480e-02
6423=4.590710e-01
6424=4.204734e-03
6427=3.292237e-02
6428=-8.320357e-02
6430=-2.241491e-01
6432=7.708729e-01
6433=-2.725665e-02
6434=1.952564e-03
6435=-2.777526e-02
6437=4.714327e-02
6440=-3.560766e-02
6442=-5.395562e-03
6444=4.844226e-01
6447=2.991145e-01
6449=-2.738388e-03
6450=-2.253181e-04
6452=-1.659007e-03
6453=-5.810999e-02
6454=1.431756e-01
6455=1.252914e-04
6457=-4.554163e-02
6459=5.170526e-01
6462=6.903870e-01
6464=-3.409402e-01
6465=-1.120217e+00
6467=-1.152017e-02
6469=6.515471e-01
6472=-3.147986e-01
6473=2.175203e+00
6475=-4.387228e-01
6477=-2.928775e-02
6478=3.936102e-01
6479=1.683288e-01
6482=-7.134747e-03
6484=2.219160e-02
6488=1.018703e-01
6489=-6.863354e-01
6490=6.870005e-01
6492=-2.135976e-01
6493=9.970768e-03
6495=-3.674902e-05
6497=3.865959e-05
6502=2.532439e-02
6504=-3.333318e-01
6507=-1.841132e-01
6509=1.519810e-01
6512=1.061943e-02
6514=-1.085794e-03
6517=1.010330e-02
6519=-1.081943e-03
6536=1.097213e-02
6546=-1.094847e-03
6552=-5.883336e-02
6553=2.729300e-01
6554=-1.230979e-03
6557=6.120624e-04
6558=-2.395553e-02
6560=4.118813e-02
6562=2.843817e-03
6564=-2.488788e-01
6565=3.525873e-01
6569=-1.814785e+00
6570=3.083232e-02
6572=-8.989862e-03
6573=5.847762e-04
6574=-1.180525e-03
6575=-9.207870e-02
6577=1.041333e+00
6578=4.737620e-03
6579=-1.090326e-01
6580=-5.200914e+00
6582=2.072283e-01
6583=7.588177e-01
6584=-9.375041e-07
6585=7.319103e-04
6590=3.699278e-03
6592=-1.850473e-03
6594=8.371117e-03
6597=-3.553387e-02
6599=5.900753e-01
6602=-5.723245e-03
6603=1.621528e-02
6605=1.621525e-01
6607=2.527195e-03
6609=-5.210946e-01
6610=1.720468e-01
6612=-8.253306e-01
6613=2.768333e-01
6614=8.174003e-02
6615=-1.160362e-03
6617=1.684022e-02
6619=-6.740310e-03
6620=-4.750363e-02
6622=-9.094542e-02
6623=1.573653e+00
6624=6.294890e-03
6625=1.314474e-01
6627=-2.207418e-02
6634=4.457094e-03
6637=-9.828973e-04
6639=7.226394e-02
6640=1.845935e-01
6642=-2.103074e-01
6643=-2.821097e-03
6644=4.207442e-01
6647=-5.154923e-04
6649=6.855150e-02
6652=1.074892e-03
6654=-6.746036e-04
6655=-6.755570e-01
6657=-1.174480e-01
6658=-7.244812e-02
6659=1.264994e+00
6662=5.332600e-01
6664=-1.314859e-01
6667=-1.066601e-01
6668=2.968049e-01
6669=-1.229090e-01
6671=1.202594e-02
6672=7.709565e-04
6673=5.175026e-01
6674=-2.892665e-01
6675=-1.515928e-03
6677=-4.429202e-02
6678=3.681881e-05
6679=9.514174e-03
6682=-1.672026e-02
6683=7.446299e-01
6687=1.296180e-01
6688=-1.035482e+00
6689=-3.092940e-01
6692=-8.257305e-04
6694=9.084311e-01
6695=1.949938e-01
6697=-5.209914e-03
6699=-1.515670e-02
6700=1.087428e+00
6702=-1.184156e+00
6707=-2.046074e+00
6708=2.339249e-02
6710=-1.018473e+00
6712=-1.278308e-01
6713=-5.178727e-01
6714=6.364150e-01
6715=-5.543010e-03
6717=4.651995e-02
6720=9.325460e-03
6722=-9.066026e-02
6723=2.568847e-02
6724=1.032581e-01
6727=-1.420507e-01
6729=7.293962e-01
6730=-1.212043e+00
6732=-3.430559e-01
6733=-1.087425e-02
6734=4.808190e-01
6737=-1.357509e+00
6739=4.682750e-01
6740=6.279622e-02
6742=-7.053728e-03
6743=5.064833e-02
6744=-8.814811e-04
6747=7.694477e-03
6748=-7.695119e-03
6750=-1.323064e-02
6752=7.348270e-03
6757=-2.750669e-05
6759=1.581354e-03
6760=7.033279e-06
6762=9.246888e-04
6764=-2.000319e-03
6765=7.756336e-03
6767=-6.860086e-04
6768=-1.829930e-03
6769=1.350821e-03
6772=6.390254e-03
6773=-1.147321e+00
6777=-3.445624e-02
6779=8.818813e-01
6782=-3.685406e-02
6784=1.853488e-01
6785=9.199398e-05
6787=5.922863e-02
6789=-2.903866e-01
6792=-1.270284e-03
6794=1.133314e-02
6795=2.076516e-01
6797=-8.637113e-04
6798=-1.148293e-02
6799=-4.768175e-03
6802=-1.043041e-01
6804=9.526477e-02
6807=8.170133e-01
6809=-1.646098e-01
6810=1.066347e-01
6812=-9.789044e-02
6813=2.255233e-01
6814=3.582244e-02
6815=2.146587e-03
6817=-2.510116e-02
6820=-3.881912e-01
6822=-7.339369e-01
6823=-2.860231e-02
6824=1.325973e+00
6827=1.014813e-02
6830=4.370576e-02
6832=-6.229888e-02
6837=-1.645328e-02
6839=1.897928e-02
6842=-8.804928e-03
6844=1.113801e-02
6845=1.665397e-02
6847=-7.617107e-03
6852=1.599038e-01
6854=-4.102461e-01
6858=-1.503300e-01
6860=2.304566e+00
6862=-7.236147e-01
6864=3.282379e-03
6865=-4.040272e-01
6867=9.096755e-03
6872=5.141940e-02
6873=-3.313807e-05
6877=-6.388102e-04
6878=2.152382e-03
6882=-6.388102e-04
6883=2.152382e-03
6887=-6.388102e-04
6888=2.152382e-03
6892=-6.388102e-04
6893=2.152382e-03
6897=-6.388102e-04
6898=2.152382e-03
6902=-6.388102e-04
6903=2.152382e-03
6905=5.346005e-02
6912=1.095979e-01
6915=9.348559e-03
6917=-5.735403e-03
6919=-3.511301e-03
6922=1.258687e-01
6923=-7.937234e-01
6927=-4.617717e-01
6929=1.602415e-01
6930=-1.048975e+00
6932=1.797787e-01
6933=5.313611e-01
6934=-3.111063e+00
6937=1.218935e+00
6939=-3.193609e-04
6942=-4.803018e-02
6944=1.385237e+00
6945=1.349650e+00
6947=-8.957934e-02
6948=-1.759203e+00
6950=8.418342e-01
6952=-5.994337e-01
6955=-5.602676e-03
6957=1.961388e-02
