#mdl#2#2077
#rdr#52/26/0
1:*,
17:u:Ln-1 X=%x[ 0,1],
17:u:Ln-1 X=%x[ 0,2],
17:u:Ln-1 X=%x[ 0,3],
17:u:Ln-1 X=%x[ 0,4],
17:u:Ln-1 X=%x[ 0,5],
17:u:Ln-1 X=%x[ 0,6],
17:u:Ln-1 X=%x[ 0,7],
18:*:Fst-1 X=%x[ 0,8],
18:u:Fst-1 R=%x[ 1,8],
18:*:Lst-1 L=%x[-1,9],
18:u:Lst-1 X=%x[ 0,9],
27:u:Fst-2 L=%x[-1,9]/%x[ 0,8],
27:u:Lst-2 R=%x[ 0,9]/%x[ 1,8],
19:u:Wrd-1 X=%x[ 0,10],
19:u:Wrd-2 X=%x[ 0,11],
19:u:Wrd-2 R=%x[ 1,11],
19:u:Num-1 X=%x[ 0,12],
19:u:Ttl-1 X=%x[ 0,13],
19:u:Nme-1 L=%x[-1,14],
19:u:Nme-1 X=%x[ 0,14],
19:u:Loc-1 X=%x[ 0,15],
19:u:Loc-1 R=%x[ 1,15],
19:u:Loc-1RR=%x[ 2,15],
19:u:Pub-1 X=%x[ 0,16],
19:u:Pub-1 R=%x[ 1,16],
19:u:Pub-1RR=%x[ 2,16],
19:u:Jnl-1 X=%x[ 0,17],
19:u:Jnl-1 R=%x[ 1,17],
19:u:Idt-1 X=%x[ 0,18],
19:*:Idt-2 X=%x[ 0,19],
29:*:Idt-2 L=%x[-1,19]/%x[ 0,19],
19:u:Ref-1LL=%x[-2,20],
19:u:Ref-1 L=%x[-1,20],
19:u:Ref-1 X=%x[ 0,20],
19:u:Ref-1 R=%x[ 1,20],
19:u:Ref-1RR=%x[ 2,20],
19:u:Ref-2LL=%x[-2,21],
19:u:Ref-2 L=%x[-1,21],
19:u:Ref-2 X=%x[ 0,21],
19:u:Ref-2 R=%x[ 1,21],
19:u:Ref-2RR=%x[ 2,21],
19:u:Ref-3 L=%x[-1,22],
19:u:Ref-3 X=%x[ 0,22],
19:u:Ref-4 L=%x[-1,23],
19:u:Ref-4 X=%x[ 0,23],
19:u:Ref-4 R=%x[ 1,23],
19:u:Ref-4RR=%x[ 2,23],
19:u:Ref-5 L=%x[-1,24],
19:u:Ref-5 X=%x[ 0,24],
19:u:Pos-1 X=%x[ 0,25],
19:u:Pag-1 X=%x[ 0,26],
#qrk#5
5:title,
5:blank,
4:text,
4:meta,
3:ref,
#qrk#494
1:*,
11:u:Ln-1 X=33,
11:u:Ln-1 X=43,
10:u:Ln-1 X=1,
10:u:Ln-1 X=8,
10:u:Ln-1 X=2,
10:u:Ln-1 X=0,
10:u:Ln-1 X=4,
12:*:Fst-1 X=Lu,
12:u:Fst-1 R=Ll,
14:*:Lst-1 L=_x-1,
12:u:Lst-1 X=Ll,
17:u:Fst-2 L=_x-1/Lu,
15:u:Lst-2 R=Ll/Ll,
11:u:Wrd-1 X=4,
15:u:Wrd-2 X=alpha,
15:u:Wrd-2 R=alpha,
11:u:Num-1 X=0,
11:u:Ttl-1 X=0,
14:u:Nme-1 L=_x-1,
11:u:Nme-1 X=0,
11:u:Loc-1 X=0,
11:u:Loc-1 R=0,
11:u:Loc-1RR=0,
11:u:Pub-1 X=3,
11:u:Pub-1 R=2,
11:u:Pub-1RR=4,
11:u:Jnl-1 X=8,
11:u:Jnl-1 R=6,
11:u:Idt-1 X=T,
11:*:Idt-2 X=+,
16:*:Idt-2 L=_x-1/+,
14:u:Ref-1LL=_x-2,
14:u:Ref-1 L=_x-1,
11:u:Ref-1 X=-,
11:u:Ref-1 R=-,
11:u:Ref-1RR=-,
14:u:Ref-2LL=_x-2,
14:u:Ref-2 L=_x-1,
11:u:Ref-2 X=-,
11:u:Ref-2 R=-,
11:u:Ref-2RR=-,
14:u:Ref-3 L=_x-1,
11:u:Ref-3 X=-,
14:u:Ref-4 L=_x-1,
11:u:Ref-4 X=-,
11:u:Ref-4 R=-,
11:u:Ref-4RR=-,
14:u:Ref-5 L=_x-1,
11:u:Ref-5 X=F,
15:u:Pos-1 X=first,
15:u:Pag-1 X=first,
11:u:Ln-1 X=37,
11:u:Ln-1 X=48,
10:u:Ln-1 X=5,
12:*:Fst-1 X=Ll,
12:*:Lst-1 L=Ll,
15:u:Fst-2 L=Ll/Ll,
11:u:Wrd-1 X=5,
11:u:Nme-1 L=0,
11:u:Pub-1 X=2,
11:u:Pub-1 R=4,
11:u:Pub-1RR=0,
11:u:Jnl-1 X=6,
11:u:Jnl-1 R=8,
11:*:Idt-2 X==,
13:*:Idt-2 L=+/=,
14:u:Ref-1LL=_x-1,
11:u:Ref-1 L=-,
14:u:Ref-2LL=_x-1,
11:u:Ref-2 L=-,
11:u:Ref-3 L=-,
11:u:Ref-4 L=-,
11:u:Ref-5 L=F,
11:u:Pos-1 X=0,
11:u:Ln-1 X=24,
11:u:Ln-1 X=34,
10:u:Ln-1 X=7,
10:u:Ln-1 X=3,
14:u:Fst-1 R=none,
17:u:Lst-2 R=Ll/none,
14:u:Wrd-2 R=none,
11:u:Pub-1 X=4,
11:u:Pub-1 R=0,
11:u:Jnl-1 R=0,
13:*:Idt-2 L==/=,
11:u:Ref-1LL=-,
11:u:Ref-2LL=-,
11:u:Pos-1 X=1,
14:*:Fst-1 X=none,
12:u:Fst-1 R=Lu,
14:u:Lst-1 X=none,
11:u:Wrd-1 X=0,
14:u:Wrd-2 X=none,
11:u:Pub-1 X=0,
12:u:Pub-1RR=10,
11:u:Jnl-1 X=0,
11:u:Idt-1 X=F,
11:*:Idt-2 X=-,
13:*:Idt-2 L==/-,
11:u:Ln-1 X=15,
11:u:Ln-1 X=22,
14:*:Lst-1 L=none,
17:u:Fst-2 L=none/Lu,
15:u:Lst-2 R=Ll/Lu,
11:u:Wrd-1 X=2,
12:u:Nme-1 X=10,
12:u:Pub-1 R=10,
12:u:Jnl-1 R=10,
13:*:Idt-2 L=-/+,
11:u:Ln-1 X=18,
11:u:Ln-1 X=25,
11:u:Fst-1 R=N,
15:u:Fst-2 L=Ll/Lu,
14:u:Lst-2 R=Ll/N,
16:u:Wrd-2 R=number,
12:u:Nme-1 L=10,
11:u:Nme-1 X=5,
12:u:Pub-1 X=10,
11:u:Pub-1RR=3,
12:u:Jnl-1 X=10,
11:*:Fst-1 X=N,
11:u:Lst-1 X=N,
14:u:Fst-2 L=Ll/N,
14:u:Lst-2 R=N/Lu,
11:u:Wrd-1 X=1,
16:u:Wrd-2 X=number,
11:u:Num-1 X=1,
11:u:Nme-1 L=5,
11:u:Loc-1RR=1,
11:u:Pub-1 R=3,
11:u:Jnl-1 R=5,
11:u:Pos-1 X=2,
11:u:Ln-1 X=65,
11:u:Ln-1 X=84,
10:u:Ln-1 X=9,
11:*:Lst-1 L=N,
14:u:Fst-2 L=N/Lu,
12:u:Wrd-1 X=14,
11:u:Nme-1 X=1,
11:u:Loc-1 R=1,
11:u:Pub-1RR=1,
11:u:Jnl-1 X=5,
11:u:Ref-1RR=+,
11:u:Ln-1 X=70,
11:u:Ln-1 X=88,
12:u:Wrd-1 X=13,
11:u:Nme-1 L=1,
11:u:Nme-1 X=2,
11:u:Loc-1 X=1,
11:u:Pub-1 R=1,
11:u:Ref-1 R=+,
11:u:Ln-1 X=62,
11:u:Ln-1 X=85,
12:u:Lst-1 X=Pd,
15:u:Lst-2 R=Pd/Ll,
12:u:Wrd-1 X=12,
11:u:Nme-1 L=2,
11:u:Nme-1 X=3,
11:u:Pub-1 X=1,
11:u:Jnl-1 R=4,
11:u:Ref-1 X=+,
11:u:Ln-1 X=64,
12:*:Lst-1 L=Pd,
15:u:Fst-2 L=Pd/Ll,
11:u:Nme-1 L=3,
11:u:Pub-1RR=2,
11:u:Jnl-1 X=4,
11:u:Ref-1 L=+,
11:u:Ref-3 X=+,
11:u:Pos-1 X=3,
14:u:Lst-2 R=N/Ll,
11:u:Jnl-1 R=2,
11:u:Ref-1LL=+,
11:u:Ref-3 L=+,
11:u:Ln-1 X=69,
11:u:Ln-1 X=90,
14:u:Fst-2 L=N/Ll,
11:u:Jnl-1 X=2,
11:u:Ln-1 X=91,
11:u:Ln-1 X=17,
11:u:Ln-1 X=27,
10:u:Ln-1 X=6,
11:u:Lst-1 X=P,
14:u:Lst-2 R=P/Lu,
11:u:Pos-1 X=4,
11:u:Ln-1 X=73,
11:u:Ln-1 X=96,
11:u:Ln-1 X=10,
11:*:Lst-1 L=P,
14:u:Fst-2 L=P/Lu,
13:*:Idt-2 L==/+,
11:u:Ln-1 X=71,
11:u:Ln-1 X=94,
12:u:Wrd-1 X=15,
11:u:Nme-1 X=4,
11:u:Ln-1 X=72,
11:u:Ln-1 X=92,
12:u:Wrd-1 X=11,
11:u:Ttl-1 X=1,
11:u:Nme-1 L=4,
11:u:Ln-1 X=74,
12:u:Wrd-1 X=10,
11:u:Pos-1 X=5,
11:u:Ln-1 X=68,
11:u:Jnl-1 R=3,
11:u:Ln-1 X=67,
11:u:Jnl-1 X=3,
11:u:Pos-1 X=6,
11:u:Ln-1 X=75,
11:u:Jnl-1 R=1,
11:u:Ln-1 X=97,
11:u:Jnl-1 X=1,
11:u:Ln-1 X=76,
11:u:Ln-1 X=95,
11:u:Ln-1 X=55,
12:u:Wrd-1 X=17,
11:u:Num-1 X=3,
11:u:Pos-1 X=7,
11:u:Ln-1 X=77,
11:u:Ln-1 X=98,
11:u:Pos-1 X=8,
11:u:Ln-1 X=36,
11:u:Ln-1 X=50,
16:u:Lst-2 R=P/none,
11:u:Wrd-1 X=6,
13:*:Idt-2 L=-/=,
11:u:Pos-1 X=9,
11:u:Ref-2RR=+,
11:u:Ln-1 X=26,
11:u:Ln-1 X=40,
12:u:Lst-1 X=Lu,
14:u:Lst-2 R=Lu/N,
17:u:Wrd-2 R=numeric,
11:u:Ref-2 R=+,
11:u:Ln-1 X=41,
12:*:Lst-1 L=Lu,
14:u:Fst-2 L=Lu/N,
15:u:Lst-2 R=Lu/Lu,
17:u:Wrd-2 X=numeric,
11:u:Num-1 X=5,
11:u:Ref-2 X=+,
14:u:Pos-1 X=last,
11:u:Ln-1 X=29,
15:u:Fst-2 L=Lu/Lu,
14:u:Lst-2 R=P/Ll,
11:u:Ref-2 L=+,
11:u:Pag-1 X=1,
11:u:Ln-1 X=21,
14:u:Fst-2 L=P/Ll,
11:u:Wrd-1 X=3,
11:u:Ref-2LL=+,
11:u:Ref-4RR=+,
16:u:Fst-2 L=none/N,
11:u:Ref-4 R=+,
11:u:Ln-1 X=87,
11:u:Ref-4 X=+,
11:u:Ln-1 X=86,
11:u:Ref-4 L=+,
12:u:Fst-1 R=Ps,
15:u:Lst-2 R=Ll/Ps,
12:*:Fst-1 X=Ps,
15:u:Fst-2 L=Ll/Ps,
11:u:Ln-1 X=60,
11:u:Ln-1 X=82,
11:u:Ln-1 X=66,
11:u:Ln-1 X=89,
11:u:Jnl-1 R=7,
11:u:Ln-1 X=93,
11:u:Jnl-1 X=7,
12:u:Wrd-1 X=16,
13:*:Idt-2 L=+/-,
17:u:Lst-2 R=Lu/none,
11:u:Wrd-1 X=8,
17:u:Fst-2 L=none/Ll,
11:u:Ln-1 X=28,
11:u:Ln-1 X=83,
11:u:Ln-1 X=80,
11:u:Ln-1 X=79,
11:u:Ln-1 X=49,
11:u:Ln-1 X=81,
11:u:Loc-1RR=2,
11:u:Loc-1 R=2,
11:u:Loc-1 X=2,
11:u:Ln-1 X=53,
11:u:Ln-1 X=63,
12:u:Pos-1 X=10,
11:u:Ln-1 X=39,
11:u:Pag-1 X=2,
11:u:Ln-1 X=59,
11:u:Wrd-1 X=9,
11:u:Pag-1 X=3,
11:u:Ln-1 X=78,
11:u:Num-1 X=2,
11:u:Ln-1 X=58,
11:u:Ln-1 X=61,
11:u:Ln-1 X=54,
11:u:Pag-1 X=4,
12:u:Lst-1 X=Pe,
15:u:Lst-2 R=Pe/Ll,
12:*:Lst-1 L=Pe,
15:u:Fst-2 L=Pe/Ll,
14:u:Lst-2 R=Pd/N,
14:u:Fst-2 L=Pd/N,
11:u:Ln-1 X=56,
12:u:Lst-1 X=Pf,
12:*:Lst-1 L=Pf,
11:u:Loc-1RR=3,
11:u:Loc-1 R=3,
11:u:Loc-1 X=3,
15:u:Lst-2 R=Lu/Ll,
15:u:Fst-2 L=Lu/Ll,
11:u:Ln-1 X=51,
12:u:Wrd-1 X=19,
11:u:Pag-1 X=5,
11:u:Ln-1 X=47,
12:u:Wrd-1 X=18,
12:u:Fst-1 R=Pi,
15:u:Lst-2 R=Ll/Pi,
12:*:Fst-1 X=Pi,
11:u:Ln-1 X=13,
11:u:Ln-1 X=19,
11:u:Pag-1 X=6,
11:u:Ln-1 X=46,
11:u:Wrd-1 X=7,
11:u:Nme-1 X=7,
11:u:Nme-1 L=7,
15:u:Lst-2 R=Pf/Ps,
11:u:Ln-1 X=16,
15:u:Fst-2 L=Pf/Ps,
11:u:Pag-1 X=7,
11:u:Nme-1 X=6,
11:u:Nme-1 L=6,
11:u:Ln-1 X=30,
11:u:Pag-1 X=8,
11:u:Pub-1RR=5,
11:u:Pub-1 R=5,
12:u:Ttl-1 X=10,
11:u:Pub-1 X=5,
13:*:Idt-2 L=+/+,
11:u:Ln-1 X=57,
11:u:Pub-1RR=6,
11:u:Pub-1 R=6,
11:u:Pub-1 X=6,
13:u:Lst-2 R=P/N,
11:u:Ln-1 X=23,
13:u:Fst-2 L=P/N,
11:u:Ln-1 X=52,
11:u:Ttl-1 X=2,
12:u:Ref-3 X=++,
11:u:Ln-1 X=45,
12:u:Ref-3 L=++,
11:u:Jnl-1 X=9,
15:u:Lst-2 R=Pf/Lu,
12:u:Fst-1 R=Pd,
15:u:Fst-2 L=Pf/Lu,
14:u:Lst-2 R=P/Pd,
11:u:Num-1 X=4,
12:*:Fst-1 X=Pd,
11:u:Loc-1RR=5,
11:u:Loc-1 R=5,
11:u:Ln-1 X=20,
11:u:Loc-1 X=5,
11:u:Pag-1 X=9,
11:u:Ln-1 X=14,
12:u:Ref-1RR=++,
12:u:Ref-1 R=++,
12:u:Ref-1 X=++,
12:u:Ref-1 L=++,
11:u:Ln-1 X=11,
12:u:Ref-1LL=++,
14:u:Pos-1 X=only,
16:*:Idt-2 L=_x-1/=,
11:u:Ln-1 X=38,
11:u:Ln-1 X=35,
11:u:Loc-1RR=7,
11:u:Pub-1RR=7,
11:u:Ln-1 X=32,
11:u:Loc-1 R=7,
11:u:Pub-1 R=7,
11:u:Loc-1 X=7,
11:u:Pub-1 X=7,
13:*:Idt-2 L=-/-,
11:u:Fst-1 R=S,
13:u:Lst-2 R=N/S,
11:*:Fst-1 X=S,
11:u:Pag-1 X=0,
16:u:Lst-2 R=N/none,
11:u:Ref-5 X=T,
11:u:Ref-5 L=T,
11:u:Ln-1 X=42,
11:u:Nme-1 X=8,
11:u:Ttl-1 X=3,
11:u:Ttl-1 X=5,
11:u:Ln-1 X=12,
13:u:Lst-2 R=N/N,
13:u:Fst-2 L=N/N,
11:u:Ln-1 X=44,
12:u:Ln-1 X=107,
12:u:Ln-1 X=128,
12:u:Ln-1 X=104,
12:u:Ln-1 X=106,
12:u:Ln-1 X=117,
12:u:Ln-1 X=116,
12:u:Ln-1 X=101,
12:u:Ln-1 X=114,
12:u:Ln-1 X=127,
11:u:Ln-1 X=31,
11:u:Fst-1 R=P,
13:u:Lst-2 R=P/P,
11:*:Fst-1 X=P,
13:u:Fst-2 L=P/P,
14:u:Lst-2 R=Ll/P,
14:u:Fst-2 L=Ll/P,
12:u:Ln-1 X=102,
12:u:Ln-1 X=105,
11:u:Num-1 X=7,
12:u:Ln-1 X=123,
11:u:Lst-1 X=S,
12:u:Num-1 X=10,
11:*:Lst-1 L=S,
11:u:Num-1 X=6,
12:u:Ln-1 X=122,
11:u:Ln-1 X=99,
17:u:Lst-2 R=Pe/none,
17:u:Fst-2 L=none/Ps,
12:u:Ln-1 X=113,
13:u:Fst-2 L=S/N,
12:u:Ln-1 X=103,
14:u:Lst-2 R=N/Ps,
14:u:Fst-2 L=N/Ps,
15:u:Lst-2 R=Pe/Lu,
15:u:Fst-2 L=Pe/Lu,
11:u:Num-1 X=9,
12:u:Wrd-1 X=21,
12:u:Ln-1 X=108,
17:u:Lst-2 R=Pd/none,
12:u:Ref-2RR=++,
12:u:Ref-2 R=++,
12:u:Ref-2 X=++,
12:u:Ref-2LL=++,
12:u:Pag-1 X=10,
11:u:Loc-1RR=4,
11:u:Loc-1 R=4,
11:u:Loc-1 X=4,
14:u:Lst-2 R=Pe/N,
14:u:Fst-2 L=Pe/N,
11:u:Loc-1RR=6,
11:u:Loc-1 R=6,
11:u:Loc-1 X=6,
11:u:Pub-1RR=8,
11:u:Pub-1 X=8,
17:u:Lst-2 R=Pf/none,
11:u:Loc-1 R=8,
11:u:Loc-1 X=8,
11:u:Nme-1 X=9,
11:u:Nme-1 L=9,
12:u:Wrd-1 X=23,
17:u:Fst-2 L=none/Pd,
15:u:Lst-2 R=Ll/Pd,
15:u:Fst-2 L=Ll/Pd,
14:u:Lst-2 R=N/Pd,
14:u:Fst-2 L=N/Pd,
12:u:Ln-1 X=156,
12:u:Ln-1 X=132,
12:u:Ln-1 X=139,
12:u:Ln-1 X=149,
12:u:Ln-1 X=124,
12:u:Ln-1 X=138,
12:u:Ln-1 X=118,
17:u:Fst-2 L=none/Pi,
12:u:Ln-1 X=145,
11:u:Fst-1 R=C,
11:*:Fst-1 X=C,
11:u:Lst-1 X=C,
11:*:Lst-1 L=C,
11:u:Lst-1 X=M,
11:*:Lst-1 L=M,
16:u:Lst-2 R=M/none,
12:u:Num-1 X=11,
11:u:Fst-1 R=Z,
11:*:Fst-1 X=Z,
11:u:Lst-1 X=Z,
16:u:Fst-2 L=none/Z,
11:*:Lst-1 L=Z,
14:u:Fst-2 L=Z/Ll,
14:u:Fst-2 L=Z/Lu,
13:u:Fst-2 L=Z/N,
13:u:Lst-2 R=Z/Z,
13:u:Fst-2 L=Z/Z,
16:u:Lst-2 R=Z/none,
12:u:Lst-1 X=Pc,
17:u:Lst-2 R=Pc/none,
12:*:Lst-1 L=Pc,
0=-1.017024e-01
1=-1.491727e-01
2=2.183295e-01
3=1.022494e-02
4=1.880941e-01
5=4.494767e-01
6=5.686581e-02
7=-1.284386e-01
8=-2.469565e+00
9=-4.538933e-01
10=9.450133e-02
11=-2.939527e-02
12=-2.320963e-02
13=-9.244894e-02
14=-1.855397e-03
15=-2.010503e+00
16=-1.628010e-01
17=9.457641e-01
18=-3.225468e-02
19=-3.133569e+00
20=-2.384746e-01
21=6.654763e-02
22=-3.982828e-01
23=2.555644e-01
24=-1.174090e-01
25=-3.015967e+00
26=-1.553338e-03
27=-7.500566e+00
28=-5.339390e-01
29=9.969633e-01
30=5.665072e-01
32=-4.352441e-02
33=-4.916240e-01
34=5.714246e-03
35=5.390446e-02
37=-1.486278e-01
38=2.065798e-02
39=9.332948e-03
40=3.605116e-01
41=-1.131888e+00
42=-1.524313e-01
44=6.921441e-01
45=-3.090810e-01
46=-3.052201e+00
47=3.789835e-01
48=-6.689423e-01
49=-3.088847e-02
50=4.982501e-02
51=-1.519904e+00
52=-1.360084e-01
53=-2.918141e-01
54=8.569957e-01
55=-3.245414e-01
56=1.780932e+00
57=-4.039382e-01
58=2.734621e-01
59=-3.812249e-01
60=4.692475e-01
62=-4.501101e-02
63=6.639799e-01
64=-1.296489e-01
65=3.415753e-02
67=-1.644372e-01
68=4.046865e-01
69=8.638648e-02
70=1.766469e-01
72=2.458585e-01
74=-3.910058e-01
75=3.557616e-02
77=-5.451826e-02
78=-7.072725e-02
79=8.443062e-02
80=-8.649734e-01
82=3.003388e-03
83=1.298405e-01
84=-4.211460e-01
85=3.486534e-02
87=-2.678533e-01
88=2.677139e-01
89=-7.323999e-01
90=-4.362721e-01
93=-2.348303e-01
94=3.104377e-01
95=2.301347e-01
97=-6.660679e-02
98=-6.131693e-02
99=2.491811e-01
100=2.306308e-01
130=7.622721e-01
131=-1.874143e-01
132=-2.836613e-01
133=-3.767798e-02
134=7.636937e-02
135=2.306308e-01
140=-1.005920e-02
142=8.916871e-02
143=-2.144216e-01
144=1.299338e-01
145=1.061033e-01
147=-3.692328e-01
148=8.204182e-02
149=-7.951265e-01
150=-2.050385e-01
151=-8.612683e-01
152=2.884940e-01
153=4.710444e-02
154=2.461470e-01
155=4.609824e-02
156=-1.294703e-02
157=2.255078e-02
158=1.320793e-01
159=5.078108e-02
160=2.926476e-01
161=1.959449e-01
162=-1.180988e-01
163=1.461888e-02
164=-5.138169e-02
165=-2.050318e-01
166=-1.847988e-01
167=4.405708e-01
168=-3.164179e-01
169=2.162338e-01
170=2.306308e-01
175=7.632848e-01
176=2.980430e-02
177=-2.422057e-01
178=-2.041485e-02
179=1.258400e-02
180=4.493091e-01
181=-1.524767e-01
182=6.909901e-02
183=-1.427283e-01
184=-9.418051e-02
185=3.703530e-02
186=-1.142660e-01
187=1.842872e-01
188=-9.423877e-04
189=2.717155e-01
190=-4.688388e-02
191=-1.754332e-01
192=2.121690e-01
193=-1.056247e-01
194=1.963044e-01
195=7.828809e-02
197=-1.237138e-01
198=6.256773e-02
199=3.634370e-02
200=3.159914e-02
202=7.430753e-03
203=2.244656e-02
204=-5.886982e-02
205=-2.925737e-02
207=-2.020529e-04
209=5.962572e-02
210=8.831366e-01
212=-7.015295e-01
213=-1.519416e-01
214=7.311818e-01
215=6.658457e-03
217=-2.233405e-01
218=-3.950582e-04
219=3.179870e-01
220=-1.088870e-01
221=-3.302113e+00
222=2.349462e-01
223=-1.537895e-01
224=2.133404e-01
225=-1.060024e-01
227=1.387330e-01
228=-3.132560e-02
229=3.152183e-01
230=1.288022e-01
232=4.906049e-02
233=-9.275437e-02
235=-6.178711e-01
237=1.996133e-01
238=6.050156e-02
239=-5.037056e-04
240=-5.993835e-01
242=2.549063e-01
243=-5.023213e-02
245=1.076236e-01
247=-3.925452e-02
248=-1.751647e+00
249=-5.072737e-02
253=-2.673426e-03
254=2.054471e+00
255=3.026756e+00
258=-1.080490e-02
285=2.306308e-01
290=2.306308e-01
295=3.735113e-01
296=-1.899275e-01
297=-5.783041e-02
298=-5.500345e-03
299=-1.503739e-01
300=4.096683e-02
301=-1.243950e-01
302=-1.674189e-01
303=-2.794009e-02
304=-7.241577e-02
305=1.850365e-02
306=-2.014914e-01
307=2.957215e-01
308=-7.990565e-02
309=-2.066485e-01
310=2.306308e-01
315=2.306308e-01
320=6.038387e-02
321=-1.964155e-01
322=3.258769e-02
323=1.038719e-01
324=-2.748045e-01
325=5.616334e-02
326=-1.653110e-01
327=6.162991e-02
328=7.054919e-02
329=-2.298972e-01
330=6.072559e-02
331=-1.499447e-01
332=2.156179e-01
333=7.289755e-02
334=-3.294308e-01
335=2.306308e-01
340=-1.108762e-01
341=-1.912287e-01
342=3.356785e-01
343=6.947361e-02
344=-8.368797e-01
345=2.306308e-01
350=-7.253944e-02
351=-1.674202e-01
352=2.187708e-02
353=6.496920e-02
354=2.044530e-01
355=-9.309687e-02
356=-1.428478e-01
357=2.171500e-01
358=9.234161e-03
359=1.856408e-01
360=-8.639432e-02
361=-1.578623e-01
362=1.986833e-01
363=5.724692e-02
364=2.078917e-01
365=2.306308e-01
370=-6.252175e-02
371=-1.630338e-01
372=1.179477e-01
373=6.384592e-02
374=1.677681e-01
375=1.658597e-01
377=-2.811311e+00
378=2.640979e+00
379=1.827834e-03
380=4.219278e-01
382=-2.364350e-01
383=3.550844e-03
384=-7.129780e-01
385=1.971240e-01
387=-5.548249e-02
388=-8.989927e-01
389=5.525732e-01
390=9.393678e-01
392=1.788160e-03
393=-1.012368e+00
395=-6.467681e-02
396=-3.666723e-01
397=-2.353252e-01
398=5.521435e-01
399=-2.107782e-01
400=-2.247361e-01
401=-2.898749e-01
402=2.265453e-01
403=-1.629020e-01
404=1.615485e-01
405=1.806765e+00
407=-4.574050e+00
410=-4.545639e+00
412=1.966830e-02
413=3.618705e-01
414=-3.814539e-02
415=-6.093909e-01
417=8.014052e-01
418=-3.139885e+00
419=-4.432644e-01
420=-3.348099e+00
422=-1.048828e-01
423=5.683136e-02
424=2.913264e-01
429=9.609724e-01
430=-1.501026e-01
432=-1.046376e-03
433=3.727946e-02
434=1.595589e-01
435=-2.548483e-02
436=5.237385e-01
437=8.593725e-02
438=-2.490873e-01
439=-9.066009e-02
442=-1.814266e-04
445=-1.067934e+00
446=9.871946e-02
447=2.284933e-01
448=-3.351160e-02
449=-1.603171e+00
450=-5.640351e-02
451=-1.279131e-01
452=-1.276312e-01
453=1.746212e-01
454=-1.287926e+00
455=-5.826030e-01
456=-1.487091e-01
457=-1.674295e+00
458=-7.612531e-01
459=8.090763e-01
460=1.830589e-02
462=1.012335e-01
463=-5.702572e-01
464=1.167198e-01
465=1.549354e+00
467=-6.572465e-02
468=-5.599616e-01
469=-2.779205e-02
470=1.303154e-01
471=-1.464693e-01
472=1.662594e-01
473=-4.702646e-01
474=-1.018333e-01
475=-1.912759e-04
477=7.481080e-02
478=-1.197669e+00
479=5.781752e-02
480=-9.641154e-03
482=-1.982968e-02
484=1.342204e-01
485=-1.141926e-01
486=-7.969698e-02
487=2.678262e-01
488=-2.378476e-01
489=5.112149e-02
490=2.773756e-02
492=-2.554381e-01
493=3.255997e-02
494=7.457061e-01
495=-9.494992e-02
497=-9.718687e-02
498=3.082499e-01
499=3.271933e-01
500=6.113524e-02
501=-5.751293e-03
502=-8.483296e-02
503=1.125195e-01
504=-2.138934e-01
505=3.081211e-01
506=7.402975e-02
507=-6.137185e-02
509=-6.175565e-02
510=1.833152e-01
512=-4.376232e-02
513=-1.425539e-01
514=1.785447e-02
515=-1.561291e+00
516=-1.739490e-01
517=3.091377e-01
518=-1.949111e-01
519=-9.549151e-01
520=-4.619328e-01
521=1.923255e-01
522=-1.808954e+00
523=5.704611e-01
524=-1.027888e+00
525=-6.903727e-01
526=-4.194224e-01
527=-2.037750e+00
528=-1.356069e+00
529=4.813233e-01
530=1.665075e-03
532=-2.782977e-01
533=2.348994e-01
534=1.293282e-01
535=1.134240e-01
537=1.640295e-01
545=-4.516576e-02
547=-5.329562e-02
548=-3.386832e+00
549=-1.924153e-04
552=-3.770458e-02
553=3.066528e+00
558=-1.471279e-01
559=3.594505e-01
560=7.684748e-01
562=-5.365356e-01
565=3.850447e-02
566=-1.520122e-01
567=2.564798e-01
568=-4.101125e-02
569=-1.560303e-01
570=7.684748e-01
572=-5.365356e-01
575=2.808540e-02
576=-1.131776e-01
577=8.121452e-03
578=6.919081e-02
579=2.473393e-01
580=4.453410e-02
581=-1.628804e-01
582=2.367404e-01
583=1.118386e-01
584=-8.291950e-01
585=-9.932239e-02
586=-1.448905e-01
587=2.154061e-01
588=9.448851e-02
589=1.846380e-01
590=-1.061790e-01
591=-1.566458e-01
592=2.514813e-01
593=1.555454e-02
594=1.484290e-01
595=2.279850e-02
597=-1.308682e-01
598=9.331053e-02
599=-2.513462e-02
600=1.720959e-01
602=2.662609e-02
603=-3.502939e+00
604=-1.018973e-01
605=2.328276e-01
607=3.282500e-03
608=-1.766105e+00
609=-4.697783e-02
610=1.861429e-01
611=-1.199016e-01
612=1.621244e-01
613=-1.780214e-01
614=1.107123e-01
615=2.409908e-01
616=-5.969655e-01
617=-1.372926e-01
618=2.848811e-01
619=4.227621e-02
620=-8.661738e-03
621=-6.527173e-02
622=1.621482e-01
623=1.195711e-02
624=2.799846e-03
625=5.199271e-01
627=1.816430e-02
628=-1.300974e-01
629=-1.408686e-01
630=1.176950e-02
631=-3.695337e-02
632=1.032475e-01
633=3.347438e-02
634=-8.372651e-03
635=3.710506e-05
637=-4.065835e-02
638=-8.226815e-01
639=5.440094e-01
640=-2.011535e-02
641=-7.921078e-02
642=4.360755e-01
643=-7.293514e-02
644=2.121870e-02
645=-1.141740e-02
646=-7.372573e-02
647=6.326928e-01
648=-1.936176e-01
649=1.673596e-03
650=1.029536e-01
651=-3.438875e-06
652=8.636088e-02
653=6.782377e-02
654=-3.915637e-01
655=1.903272e-01
656=6.081864e-02
657=-4.194718e-01
660=2.875592e-01
661=-1.242935e-01
662=-1.038971e-01
663=-9.781519e-02
664=-9.907505e-02
665=-4.307038e-01
666=-1.062319e-01
667=2.834368e-01
668=3.116184e-02
670=-1.902370e-01
671=2.259355e-01
672=-5.058152e-01
673=2.507019e-01
674=-1.107161e+00
675=-3.946055e-02
676=-1.828455e-01
677=-1.205612e+00
678=-4.871953e-01
679=2.901960e-01
680=3.361609e-02
681=-1.582194e-01
682=9.728861e-02
683=1.584338e-02
684=-2.065339e-01
685=3.228586e-02
686=-1.607758e-01
687=2.598743e-01
688=7.687937e-02
689=-2.937944e-01
690=3.037936e-01
692=2.351453e-02
693=-1.760560e+00
694=5.088510e-02
696=8.860260e-01
697=-5.106722e-01
701=5.667155e-02
711=1.893262e-01
712=-3.160234e-01
716=4.290480e-02
721=3.709450e-02
725=9.281086e-02
726=-1.062442e+00
727=-2.144617e-01
728=6.519997e-03
729=-5.406376e-02
731=8.860260e-01
732=-5.106722e-01
736=1.187219e+00
737=-2.506120e-01
738=-1.467605e+00
741=1.187219e+00
742=-2.506120e-01
743=-1.467605e+00
745=1.674689e-01
746=1.526488e-02
747=-1.634942e-01
748=2.352858e-01
749=-4.005994e-01
752=-1.650841e-01
754=9.626549e-01
755=-5.795562e-01
756=7.590041e-02
757=1.445693e-01
758=2.418308e-01
759=-2.413576e-01
760=6.212975e-02
761=6.278886e-01
762=-1.023462e-01
763=2.121479e-01
764=-1.707461e-01
765=4.031362e-02
766=4.822052e-02
767=1.487027e-01
768=-2.936673e-01
769=-1.952845e-01
770=5.411423e-02
771=-1.068494e-01
772=-1.964042e+00
781=2.868409e-01
782=2.886457e-01
783=6.107813e-02
784=-8.384965e-01
785=1.774108e-01
786=-2.599431e-01
787=1.387019e-02
788=-1.557857e-01
790=-2.206707e-01
791=9.809881e-01
793=1.231660e-02
794=6.141838e-02
795=4.505985e-02
797=1.922259e-01
798=-7.560731e-01
801=4.601597e-01
810=1.391000e-01
811=-1.398026e+00
812=8.035316e-01
813=-4.000615e-01
814=-7.169592e-02
815=2.868840e-02
816=3.354630e-01
817=-3.370503e-02
818=-1.196704e+00
821=1.084842e-01
823=7.952889e-01
824=1.319955e-02
825=1.218183e+00
827=1.341121e-02
828=-3.956988e+00
829=3.104512e-03
830=8.570450e-01
832=-9.274952e-03
833=-1.014132e+00
834=-3.436881e-02
835=9.623640e-02
836=-2.016169e-01
837=1.134101e-01
838=3.094200e-03
839=-6.722511e-03
845=1.662496e-01
847=1.558618e-01
848=6.740474e-02
849=3.016168e-02
852=-2.598390e-01
865=4.758968e-02
867=5.130044e-02
868=-3.344097e-02
869=9.166911e-02
870=4.003755e-02
872=-2.038908e-01
873=6.045080e-02
874=3.080854e-02
875=7.078387e-01
877=4.726395e-02
878=-1.863825e-01
879=-8.053367e-02
880=-1.258149e-03
882=9.532096e-01
883=-2.519975e+00
884=1.063043e-02
885=-1.480302e+00
887=1.438072e-02
889=1.263863e+00
890=-3.449172e-01
892=2.513806e-02
893=-1.486560e+00
894=5.596671e-01
895=-1.698212e-02
897=2.253862e-01
898=-1.017356e-01
899=6.848610e-02
900=2.406655e-02
902=-1.199164e+00
905=-2.312474e-02
907=1.807831e-01
908=-2.715922e-01
909=1.787774e-02
912=1.968112e-01
913=-2.615152e-02
917=-5.702379e-01
924=1.758467e-01
925=6.666118e-02
927=2.280075e-01
928=-1.723731e+00
929=-1.081984e-01
930=-4.332428e-03
932=-8.593717e-02
933=1.174882e+00
934=-1.137494e+00
935=-2.023051e-01
937=3.721267e-02
938=7.982702e-03
939=-1.342307e-03
940=-8.549472e-02
942=1.309858e-01
943=7.071955e-02
944=2.191188e-02
945=-2.573961e-03
947=-2.716249e-02
948=8.229238e-01
949=-1.550059e-02
950=-4.777664e-01
952=1.252380e-01
953=-6.323054e-02
954=-1.212893e-03
957=2.457932e-01
960=3.811352e-01
962=-1.037587e-01
963=7.965522e-02
964=8.259389e-03
965=-3.166106e-04
967=1.976496e-02
968=-3.177033e-01
969=6.938351e-01
970=-3.690130e-01
972=-6.555662e-02
973=-7.868334e-02
974=6.678149e-02
975=4.997981e-01
977=-4.391472e-01
978=2.082300e-01
979=-1.932947e-02
980=6.231433e-01
981=-1.533029e+00
982=-1.137330e-01
983=5.796366e-02
984=-7.293507e-04
985=3.083549e-02
987=-5.123749e-01
990=5.609713e-01
992=-1.375634e-01
993=-3.103263e-01
994=-3.940369e-01
995=2.170481e-03
997=1.836902e-01
998=6.003403e-01
999=-7.612771e-01
1000=-8.853528e-03
1002=4.173696e-01
1003=-8.940732e-02
1004=-1.348700e-05
1008=-9.203268e-03
1009=1.488143e-01
1010=-7.408080e-01
1011=-9.335656e-01
1012=1.268194e-01
1013=9.054280e-01
1014=-6.877436e-01
1015=-3.789487e-02
1017=-4.522115e-02
1018=6.830596e-01
1019=-1.248706e-02
1020=-1.134187e+00
1022=-5.693536e-02
1023=1.441254e+00
1024=-2.118586e-01
1025=-7.655532e-04
1026=-2.197565e+00
1027=-5.455228e-01
1028=4.821629e-01
1029=2.959538e-01
1030=3.767825e-01
1031=-1.878310e+00
1032=-1.338035e-01
1033=1.092549e-01
1034=-4.739775e-03
1035=1.387834e-02
1036=-1.723911e+00
1037=-1.058750e-01
1038=2.046073e-02
1039=1.936984e-01
1040=-4.825722e-01
1042=-7.169927e-03
1044=5.202939e-02
1045=1.545957e-01
1047=-2.507856e-02
1048=-6.430968e-02
1049=1.749644e-02
1050=-2.487254e-01
1052=-1.657420e-01
1053=6.108815e-01
1054=1.087966e-02
1055=1.339599e-02
1057=-1.905467e-01
1058=1.026934e-01
1059=5.493404e-02
1060=-6.562778e-01
1062=4.360401e-01
1063=-4.548168e-01
1064=-3.090456e-03
1065=5.841856e-08
1067=4.180377e-02
1068=-5.030265e-02
1069=2.138559e-02
1070=-1.175239e+00
1072=1.249803e-01
1073=-1.643532e+00
1074=1.251851e-01
1075=-2.116862e-01
1076=-1.282712e+00
1077=2.963262e-01
1078=-3.474456e-01
1079=1.022651e-01
1080=-6.446430e-02
1082=2.483165e-01
1083=7.747270e-03
1084=-2.030345e-01
1085=2.159731e-02
1086=-2.951595e-01
1087=-1.621880e+00
1095=-3.024718e-01
1096=7.641747e-03
1097=4.263977e-01
1098=-1.020154e+00
1100=-9.287570e-02
1101=1.581907e-01
1102=6.397280e-02
1103=2.190151e-01
1104=3.901878e-02
1106=-2.661766e-01
1109=-3.493466e-02
1110=-5.521753e-02
1112=-7.431952e-03
1113=2.680536e-01
1114=-5.738913e-01
1115=-3.297056e+00
1117=7.681692e-01
1118=-3.729524e+00
1119=7.912972e-02
1120=1.899254e-02
1122=8.201036e-02
1123=-8.801301e-02
1124=4.327870e-02
1125=2.693494e-01
1127=1.636882e-02
1128=2.879182e-02
1129=-1.394208e-01
1130=6.152587e-01
1132=-4.127704e-02
1133=-8.395731e-02
1134=-2.875935e-02
1135=6.808390e-02
1137=-3.383269e-02
1138=-1.121595e+00
1139=4.686919e-01
1140=5.532906e-03
1142=-9.345484e-01
1143=4.631172e-01
1144=6.451029e-01
1145=-5.051029e-01
1146=-2.040762e-01
1147=2.197205e-01
1148=-5.594061e-02
1149=-7.241829e-02
1150=-1.950301e+00
1152=3.281326e-01
1154=3.510486e-04
1155=-2.265343e+00
1157=1.227915e+00
1158=-6.421957e-02
1159=4.080756e-04
1160=-3.248657e-01
1162=-1.374199e-02
1163=7.236588e-02
1164=2.731735e-02
1165=-6.833725e-03
1167=1.403938e-01
1168=-1.140799e-01
1169=2.100397e-02
1170=-1.161537e+00
1172=2.512117e-01
1173=-6.050858e-01
1174=6.234143e-02
1175=9.622043e-01
1177=-3.427848e-01
1178=3.983513e-01
1179=-2.532071e-01
1180=4.335313e-02
1182=-2.871977e-02
1183=5.847330e-01
1184=-4.207751e-01
1185=-9.216772e-01
1187=-9.494267e-03
1188=3.831202e-04
1189=2.653007e-01
1190=-3.925750e-01
1192=5.871115e-01
1193=-1.620469e-01
1194=-4.335820e-05
1195=5.406904e-02
1197=-1.333389e-02
1199=1.735991e-01
1200=3.220463e-01
1202=-2.885020e-02
1205=-2.572393e+00
1207=9.094714e-01
1208=-3.918680e-01
1209=1.423084e-02
1210=-8.123485e-01
1212=-3.225602e-02
1213=5.652076e-01
1214=-2.029999e-03
1215=-4.129768e-02
1217=1.447867e-02
1218=8.493665e-01
1219=-7.340523e-02
1220=1.292260e-01
1222=2.336199e-01
1223=-1.705172e+00
1224=1.054214e-01
1225=4.127933e-03
1227=-1.123911e-03
1228=1.999140e-01
1229=-5.665086e-01
1230=-1.435300e+00
1232=-1.265197e-01
1233=5.565548e-02
1234=5.689212e-01
1235=-2.408648e-01
1237=6.212739e-02
1238=-4.681966e+00
1239=4.005359e-01
1240=2.619718e-01
1242=-2.052956e-01
1243=-1.202075e+00
1244=3.582865e-01
1245=1.354429e+00
1256=7.648130e-02
1257=1.504264e-02
1258=-1.102762e-01
1266=-3.122568e-04
1269=5.797803e-01
1270=4.679782e-01
1272=-7.298110e-02
1273=-1.001149e+00
1274=5.890281e-03
1275=-8.909533e-01
1277=1.135910e-01
1278=-3.697630e-02
1279=5.789247e-02
1280=2.780469e-01
1282=-1.470171e-01
1283=1.063964e-01
1284=-6.126493e-02
1285=-5.405651e-01
1287=5.418879e-02
1288=1.537917e-01
1289=1.614533e-03
1290=-1.688873e+00
1292=-3.446378e-01
1293=7.264343e-01
1294=3.064700e-01
1295=3.071539e-01
1297=-8.327836e-01
1298=-1.998549e-01
1299=3.229788e-01
1300=-1.234252e-02
1302=2.049108e-01
1303=-1.194436e+00
1304=1.298467e-01
1307=-2.456495e-01
1308=7.989683e-01
1309=-5.290593e-03
1310=3.299323e-01
1312=6.607149e-02
1313=-1.749202e-02
1314=-4.064618e-01
1315=-4.896507e-01
1317=-2.956823e-01
1318=3.462585e-02
1319=9.219852e-01
1322=-1.096015e-01
1323=-3.390430e-01
1324=4.370209e-01
1325=-8.123953e-01
1327=6.949724e-01
1328=-2.367224e+00
1329=4.880589e-03
1330=-2.903907e+00
1332=1.929045e-01
1333=3.007668e-02
1334=-1.998914e-02
1335=-1.148686e-02
1337=1.879017e-01
1338=-7.604850e-01
1339=2.571671e-02
1340=-9.170586e-02
1342=4.853392e-01
1343=-1.183376e+00
1344=-1.229018e-01
1345=-1.597929e+00
1347=-8.062086e-02
1348=1.248230e+00
1349=-4.322064e-02
1350=6.941344e-02
1352=2.654438e-02
1354=-2.433887e-01
1355=2.068841e-01
1357=-6.032091e-01
1358=5.164078e-01
1359=-8.837428e-01
1360=1.265600e-01
1362=-8.321828e-02
1363=-1.752497e-02
1364=9.620292e-02
1365=-1.785635e+00
1366=-6.337613e-01
1367=1.954312e-01
1368=-2.045832e+00
1369=6.681733e-01
1370=7.815309e-03
1372=4.302231e-02
1373=-2.907460e-01
1374=1.326687e-02
1375=6.021728e-02
1377=2.037768e-01
1378=-3.103097e+00
1379=-6.345861e-01
1380=-1.483584e+00
1382=-2.545158e-02
1383=1.364763e+00
1384=-4.670045e-03
1387=6.179188e-01
1388=-7.313613e-03
1389=-2.856385e-01
1390=-6.326804e-02
1391=-1.408319e+00
1392=-2.195295e-02
1393=7.633575e-01
1394=-1.766633e-01
1395=-6.109148e-02
1396=-4.929632e-06
1397=-3.551909e-01
1398=1.438109e-01
1399=1.360896e-01
1400=1.991488e+00
1401=-7.158228e-01
1402=-6.241202e-03
1410=-1.169783e-02
1411=1.347118e-01
1412=1.348340e-01
1413=2.116358e-01
1416=-1.471624e+00
1417=-3.187300e+00
1418=-6.881525e-02
1421=4.055919e-01
1423=-1.756227e-03
1424=3.631693e-01
1425=2.741878e-02
1427=-1.234293e-02
1428=3.021143e-01
1429=1.916365e-02
1430=-4.330694e-01
1432=-1.412389e-01
1433=4.737151e-01
1434=2.628200e-01
1435=-4.486842e-02
1437=7.981708e-01
1440=-1.256664e+00
1442=9.946532e-02
1443=2.925745e-01
1444=-4.701292e-02
1447=-3.652172e-01
1448=3.789673e-02
1452=1.483014e-01
1453=-1.161330e-01
1454=4.576535e-02
1459=1.625806e+00
1460=-5.800309e-01
1462=2.890925e-01
1463=-1.419003e+00
1464=8.649191e-03
1465=-2.146925e-01
1469=4.427302e-03
1470=-1.237468e+00
1472=1.346653e+00
1473=-2.168031e+00
1474=-2.677067e-03
1475=-1.153191e+00
1477=8.415597e-03
1478=6.596437e-02
1479=1.515931e-02
1480=-1.321820e-01
1482=4.602874e-01
1483=-2.601607e-01
1484=6.752215e-05
1485=-6.533225e-01
1487=5.401946e-01
1489=-3.609917e-04
1490=-1.349575e+00
1492=3.214422e-01
1493=-1.030580e+00
1494=1.400700e-01
1495=6.457907e-01
1497=-1.329221e+00
1498=1.587376e+00
1499=-1.464338e+00
1500=-5.394497e-02
1502=-4.127225e-02
1504=4.128566e-02
1505=-4.514860e-01
1507=2.830858e-01
1508=-1.150872e+00
1509=1.592127e-01
1510=-1.786604e-01
1512=3.210330e-02
1513=-1.466302e-01
1514=2.965344e-01
1515=3.799084e-03
1517=1.639724e-01
1518=-3.392152e+00
1519=4.724703e-02
1520=-1.303216e-01
1522=6.878087e-01
1523=-6.166022e-02
1524=3.143970e-04
1525=-4.352653e-02
1527=7.508718e-03
1528=3.112772e-01
1529=-4.721220e-02
1530=-1.756072e-01
1532=4.723078e-01
1533=-2.535455e+00
1534=4.640691e-03
1535=2.937764e-03
1537=8.637227e-02
1538=-6.078278e-02
1539=-2.484659e-02
1540=-7.012418e-03
1542=1.969835e-01
1543=-1.646640e+00
1544=2.327946e-02
1545=-2.443850e+00
1547=3.116520e-01
1548=-1.500675e+00
1549=1.534335e-01
1550=7.255920e-04
1552=1.410596e-01
1553=1.234266e-02
1554=-7.081915e-01
1555=-1.972507e+00
1557=4.906699e-01
1560=-6.697351e-01
1562=7.467298e-01
1563=-2.507393e-01
1564=-2.352723e-02
1565=-8.624762e-01
1567=2.073433e-01
1568=-1.389960e+00
1569=5.748613e-02
1572=-2.553055e-01
1573=1.450554e+00
1574=-1.395799e-01
1575=2.971685e-04
1577=3.549912e-03
1578=-3.506860e-01
1579=2.162500e-01
1582=2.145818e+00
1585=-2.987591e-01
1587=1.581675e-01
1588=-1.972344e-01
1589=5.648623e-01
1590=2.358956e-02
1591=-1.770511e-02
1592=1.280750e-01
1593=-1.563013e+00
1594=7.057114e-02
1595=-4.153974e-01
1597=9.169292e-02
1598=-2.407769e-02
1599=-2.227179e-02
1602=-1.368751e-01
1603=4.258073e-01
1605=8.264489e-03
1607=1.735245e-01
1608=-8.863411e-01
1609=3.135691e-02
1610=9.368839e-01
1612=-4.535633e-02
1613=-5.728124e-02
1614=-6.179162e-01
1615=-2.923117e-02
1617=7.048270e-03
1618=-1.400658e+00
1619=5.807031e-01
1620=-8.041846e-01
1622=1.089012e-01
1623=-1.418484e+00
1624=3.963501e-01
1625=4.237371e-01
1627=-1.630959e-01
1628=3.669793e-01
1629=-6.175360e-02
1630=-1.711726e+00
1632=7.216541e-02
1633=1.419539e-02
1634=1.522303e-02
1635=-5.491300e-02
1636=2.837257e-01
1637=1.136913e-02
1640=-1.017467e+00
1641=1.921406e-01
1642=-3.149626e-04
1643=-1.164875e+00
1644=1.015067e+00
1646=-1.402020e-01
1647=2.899863e-01
1648=-5.894570e-02
1651=4.724613e-03
1652=-3.074396e+00
1653=5.212523e-01
1654=-3.098509e-03
1656=-8.944888e-01
1659=-1.609433e+00
1660=-2.550370e-01
1662=-1.571210e-01
1663=5.035738e-01
1664=-4.463805e-02
1665=-9.202277e-01
1667=-4.505802e-01
1668=-8.601677e-02
1669=1.018791e+00
1670=1.233862e-01
1672=-6.738517e-02
1673=6.794590e-03
1674=-1.891046e-02
1675=1.820750e+00
1677=7.036368e-02
1678=-7.644703e-01
1679=-2.619941e-02
1680=3.458768e-01
1682=-1.321582e-02
1683=-8.175429e-03
1684=-1.855956e-02
1685=2.629411e-01
1687=-9.510832e-02
1688=1.010189e+00
1689=-7.093189e-03
1690=-2.824052e+00
1692=-1.124214e-01
1693=-1.201379e-02
1694=9.967622e-02
1695=-1.912282e-01
1697=-2.667406e-01
1698=2.237785e-01
1699=3.839780e-01
1700=1.998611e-01
1702=-7.575098e-02
1703=4.512643e-02
1704=-5.068592e-02
1705=2.271568e-01
1707=-3.348385e-02
1708=1.037181e-01
1709=2.796593e-03
1710=2.694562e-01
1711=3.564499e-01
1712=-1.145918e+00
1720=-4.084587e-03
1721=-1.581853e-01
1722=1.387635e-01
1723=4.153380e-02
1724=-6.402424e-03
1725=1.090954e-02
1726=6.276207e-01
1727=-1.615320e+00
1728=9.419351e-03
1729=-2.146078e-08
1731=-1.401623e+00
1734=2.482192e-02
1735=4.324918e-02
1737=-2.036196e-02
1738=1.299751e+00
1739=-3.441004e-03
1740=1.927287e-01
1742=1.118925e-02
1743=-1.355304e+00
1744=1.538398e-02
1745=7.349113e-02
1747=7.745116e-03
1748=-2.285064e+00
1749=8.961111e-02
1750=-1.987836e+00
1752=1.089811e-01
1753=-1.133496e-01
1754=2.398768e-02
1755=-6.552251e-01
1757=-2.020744e-01
1758=-9.757830e-01
1759=1.316947e+00
1760=-3.686226e+00
1761=-3.514785e-03
1762=-1.537919e+00
1763=3.318489e+00
1764=-9.445007e-01
1765=6.247454e-01
1767=-2.424211e-01
1768=-1.181102e-01
1769=-5.931724e-01
1770=2.531140e-01
1772=-8.660409e-02
1773=-1.612323e+00
1774=6.440028e-03
1775=2.789915e-02
1777=-1.173188e-01
1779=5.797623e-03
1782=5.920039e-02
1783=6.892372e-06
1784=-1.092572e-01
1785=2.447414e-01
1787=5.478844e-02
1788=6.702978e-02
1789=-3.426948e-01
1790=5.806168e-01
1792=-3.829780e-01
1793=2.689797e-03
1794=-2.564929e-02
1795=2.118826e-02
1797=2.789532e-04
1798=-1.736130e+00
1799=8.612125e-03
1800=5.561201e-01
1802=-3.174163e-01
1803=1.108157e-01
1804=-5.241676e-05
1805=-1.054511e+00
1807=-2.220592e-01
1808=-8.549847e-02
1809=1.165068e+00
1810=-1.968984e-01
1812=9.787432e-01
1814=-1.309866e+00
1815=1.006003e+00
1817=-1.825603e-01
1818=-5.471103e-01
1819=-1.983381e-01
1822=-9.703018e-02
1823=2.653849e-02
1824=2.597041e-01
1825=-2.037195e+00
1827=2.259803e-01
1828=-1.581346e-01
1829=4.016939e-02
1830=-9.525545e-01
1832=7.436419e-01
1833=-8.088934e-02
1834=-5.427866e-02
1835=-1.682087e+00
1837=1.338578e-02
1838=4.795209e-01
1839=-2.810197e-02
1842=4.891454e-02
1843=-1.803257e+00
1844=4.796199e-02
1845=-4.826243e-02
1847=4.219358e-02
1848=-9.988797e-02
1849=2.791380e-02
1850=-4.972568e-01
1852=3.109251e-02
1854=5.146267e-03
1855=-8.720565e-02
1857=1.118717e-01
1858=-1.137945e+00
1859=5.483593e-02
1860=7.776161e-03
1862=-9.145335e-01
1865=-4.166933e-02
1867=1.211131e-02
1869=-8.887871e-02
1872=5.241218e-01
1873=-7.459768e-01
1875=-1.159575e-02
1877=-4.214097e-02
1879=3.302522e-01
1884=3.499356e-02
1885=-1.179883e-02
1887=7.187821e-02
1888=-4.015179e-01
1889=6.808478e-03
1890=-1.449257e+00
1892=4.104684e-04
1893=-1.388541e-02
1894=5.454528e-01
1895=-2.969541e+00
1897=-1.656647e-02
1898=-1.726425e+00
1899=3.816342e-01
1900=-4.174310e-02
1902=5.441498e-01
1903=-2.097551e+00
1904=7.665399e-03
1905=-2.073624e+00
1907=6.296080e-01
1908=-4.372791e-02
1909=2.622349e-04
1910=9.017713e-02
1912=-1.738171e-01
1913=-3.358310e-02
1914=7.765416e-01
1915=-2.717059e+00
1917=4.441675e-01
1919=1.834543e-02
1920=6.535634e-01
1922=-6.342855e-01
1923=-1.870266e+00
1924=3.748940e-01
1925=-2.727831e-01
1927=1.324831e+00
1928=-9.908270e-01
1929=4.026291e-03
1930=9.060384e-02
1931=1.307845e-02
1932=7.725348e-02
1933=-1.692844e-01
1934=-1.450288e-01
1935=4.619787e-02
1936=-4.051620e-01
1937=-2.265223e-01
1945=-2.403676e-01
1946=4.544409e-01
1947=2.049807e-01
1948=8.445671e-01
1950=9.817923e-02
1951=-1.158748e+00
1952=1.536853e-01
1953=-1.910435e-01
1954=7.941108e-02
1955=-9.983736e-02
1956=4.124865e-01
1959=-4.747922e-02
1960=3.046557e-01
1962=-1.342616e-01
1963=6.355305e-01
1964=-1.401351e+00
1965=5.640089e-02
1967=3.707407e-02
1968=-8.625613e-02
1969=2.530038e-02
1970=-1.441322e+00
1972=-7.082627e-02
1973=3.326882e-01
1974=-1.024181e-02
1975=6.308151e-01
1977=-4.126012e-02
1978=-1.895205e+00
1979=8.142997e-03
1980=-1.517856e+00
1982=3.957503e-02
1983=-1.570081e+00
1984=5.833855e-01
1985=-3.444970e+00
1987=2.483232e-01
1988=-1.355232e+00
1989=1.788951e-01
1990=-2.502612e+00
1992=7.841365e-02
1994=-1.010994e-02
1995=-6.302241e-01
1997=1.831578e-01
1998=-3.874478e-03
1999=-4.616076e-02
2000=-2.890920e+00
2002=-1.217571e-02
2003=-9.030942e-01
2004=5.676147e-01
2005=-1.174737e-02
2007=1.294290e-01
2008=-1.950721e-01
2009=-1.650262e-01
2010=-1.794006e-03
2012=2.260893e-02
2013=-6.404891e-01
2014=4.679999e-02
2015=-2.970912e-01
2017=-1.547421e-02
2018=3.844875e-02
2019=4.809519e-02
2020=-7.623313e-03
2022=2.727428e-02
2023=-8.175566e-01
2024=7.928877e-03
2025=-1.007994e-01
2027=4.835241e-02
2028=-2.545514e+00
2029=1.464885e-01
2031=3.081368e-02
2032=-6.853503e-01
2033=1.104268e+00
2034=-1.222868e-01
2037=-4.442338e-02
2038=7.649415e-01
2039=-2.782277e-01
2040=-2.246351e-03
2042=9.373319e-02
2043=7.311718e-02
2044=-4.750241e-01
2045=1.542843e-02
2047=3.672666e-02
2048=-1.863739e+00
2049=3.322081e-02
2050=-3.308319e-02
2052=-4.142450e-02
2054=2.990643e-01
2055=-1.463859e-02
2058=1.874575e-04
2059=7.110736e-02
2060=-7.449661e-01
2062=4.478242e-02
2063=-1.048715e+00
2064=1.372899e-01
2065=2.576613e-01
2067=2.636364e-02
2068=1.393998e-01
2069=-1.033452e-01
2070=3.976672e-01
2072=-4.135223e-02
2073=4.559710e-02
2074=-1.216434e-03
2075=-1.062877e-01
2077=1.446938e-01
2078=-6.286216e-02
2079=-5.055343e-03
2080=5.662756e-01
2082=9.615003e-03
2083=-6.292134e-01
2084=-5.219595e-02
2085=-1.396090e-02
2087=1.840868e-02
2088=1.071690e-01
2089=-5.104111e-02
2090=-2.480462e-02
2092=1.963103e+00
2093=-2.327657e+00
2094=-1.655873e-01
2097=1.229464e-01
2099=-6.897756e-03
2102=2.340576e-01
2104=-1.231152e-01
2116=1.950760e-01
2117=6.952209e-01
2118=2.033418e-02
2123=-1.054113e-01
2126=1.219459e-03
2129=-3.819269e-02
2132=-4.006632e-02
2133=1.052331e-01
2134=-5.285504e-03
2137=-1.137276e+00
2139=1.412915e+00
2142=-3.693731e-02
2144=1.980167e+00
2145=1.219934e-03
2147=9.523695e-03
2148=-2.989271e-01
2153=-2.177741e-01
2154=1.226634e-02
2157=-4.473528e-02
2159=1.042883e-01
2171=2.150351e-01
2172=-3.025418e-03
2184=3.270231e-01
2185=-8.050411e-01
2187=-1.496707e-01
2188=1.360459e+00
2189=-1.919002e-03
2190=-2.442899e+00
2192=4.218195e-01
2193=-6.818990e-01
2194=9.361515e-02
2195=-1.833839e+00
2197=-1.285868e-01
2198=3.385258e+00
2199=1.262737e-01
2200=-3.254140e-02
2202=2.039601e-02
2204=-1.337153e-04
2205=-5.371714e-02
2207=5.480173e-03
2210=1.242564e-02
2212=-1.040062e-02
2213=3.004908e-03
2214=2.985838e-02
2217=5.442597e-02
2219=-1.752849e-02
2220=6.280137e-01
2222=3.432351e-02
2223=-7.554328e-03
2224=-9.276166e-01
2225=6.297072e-01
2227=-1.025398e-01
2229=-2.392695e-03
2230=-8.940445e-02
2232=1.016627e+00
2233=-1.355485e-01
2235=-5.870055e-03
2237=1.485244e-01
2240=-5.723170e-03
2242=2.022040e-01
2245=-1.323781e-01
2247=1.562037e+00
2248=-9.438374e-02
2255=-9.879665e-02
2257=1.063402e+00
2262=4.382276e-01
2275=6.156388e-01
2277=-2.556022e-02
2278=-8.118334e-02
2279=-3.367456e-02
2280=9.189029e-01
2282=-2.141286e-01
2283=-2.669499e-01
2284=4.222698e-03
2285=-5.809267e-02
2287=2.385991e-01
2288=5.860860e-02
2289=-3.790878e-01
2290=4.471189e-01
2292=-1.498907e-02
2293=-3.919103e-01
2294=2.554234e-02
2295=-3.281893e-02
2297=-1.492870e-01
2298=1.161387e-01
2299=2.900531e-02
2300=-3.608144e-02
2302=8.646234e-02
2303=-9.554469e-02
2304=-1.567599e-01
2305=2.015833e-03
2307=-3.068834e-05
2308=-1.779528e-03
2312=-1.933590e-02
2314=2.381743e-02
2315=7.108336e-01
2317=1.505699e-03
2318=-3.498336e+00
2319=-7.539535e-03
2322=-5.022041e-03
2324=5.953517e-03
2325=-1.069396e-02
2327=-3.335366e-02
2328=7.043794e-02
2329=1.204683e-01
2330=-4.465924e-01
2332=4.550799e-01
2334=7.823068e-04
2337=6.529050e-01
2339=-2.195110e-02
2340=1.233145e+00
2342=-4.347182e-02
2343=-9.264277e-01
2344=-9.834108e-03
2345=1.501204e-02
2347=-7.007448e-02
2348=-3.974930e-02
2349=7.502718e-01
2350=-4.454589e-01
2352=-8.695614e-02
2353=7.870061e-01
2354=6.856882e-02
2355=-4.681113e-03
2357=-1.188571e-02
2359=3.929482e-01
2360=4.368383e+00
2362=-1.948804e+00
2363=-1.224577e+00
2364=-8.440196e-02
2365=-4.472516e-03
2367=-1.026148e-01
2368=1.322174e-01
2369=2.357893e-01
2370=1.452155e-02
2372=8.493057e-01
2373=-8.910740e-01
2374=-1.016206e-01
2375=-2.077916e-03
2377=-2.493578e+00
2387=2.212499e-01
2388=-8.841076e-02
2390=8.159451e-02
2392=3.304669e-01
2393=-5.974716e-01
2394=-3.750982e-01
2399=4.270035e-02
2400=-3.945931e-02
2402=1.594816e-02
2403=-8.586360e-01
2404=1.182954e-01
2407=-1.253819e-01
2408=3.639380e-02
2410=-9.156555e-04
2412=2.184294e-02
2417=-3.543057e-01
2419=1.377754e+00
2420=7.018455e-05
2422=-3.593138e-02
2424=1.118915e-01
2425=7.464156e-02
2427=-2.492995e-01
2428=6.679861e-01
2429=8.626851e-03
2430=-4.748871e-03
2432=-4.349054e-01
2433=7.584975e-02
2434=3.239455e-01
2435=6.510028e-02
2437=-9.427586e-02
2438=-5.718396e-03
2439=3.200629e-01
2440=-6.938490e-02
2442=-1.799457e+00
2443=1.728127e+00
2447=-1.802205e+00
2448=-2.762555e-01
2449=2.539053e+00
2450=8.004072e-01
2452=-1.420580e-01
2453=-1.413734e-03
2454=1.091889e-02
2457=-7.522752e-01
2458=-5.064201e-01
2459=1.527197e+00
2460=1.255823e-01
2462=-1.458439e+00
2463=-6.402471e-02
2464=1.005636e+00
2469=1.462721e-01
2470=-4.676743e-01
2472=2.156866e-01
2473=-8.514094e-03
2477=-7.559661e-02
2479=1.126456e-01
2480=-1.713878e-03
2482=2.082641e-03
2485=-3.503645e-01
2487=3.282836e-01
2488=-2.068580e+00
2489=5.131559e-02
2490=-2.255865e+00
2492=6.377484e-02
2493=-1.214998e-01
2494=3.363479e-01
2497=-1.680316e-02
2499=-1.275939e-04
2500=-3.485783e-01
2502=-5.958651e-03
2503=-8.765719e-01
2504=5.692557e-01
2507=2.209927e-01
2510=-1.079662e-02
2522=-4.943463e-02
2523=2.607922e-01
2524=-2.849252e-03
2525=-4.749398e-01
2527=-1.958707e-01
2528=3.964425e-01
2529=-9.779879e-03
2530=2.961984e-01
2532=-5.646876e-04
2533=-2.210315e-01
2534=2.484374e-03
2535=-6.157783e-04
2537=7.271328e-02
2538=-1.346762e-01
2540=-2.849774e-01
2541=-1.415534e-02
2542=6.523556e-03
2543=-2.492472e-01
2544=6.863960e-01
2545=1.049701e+00
2547=7.947728e-03
2548=-1.046750e+00
2549=-2.328397e-02
2552=9.403649e-01
2553=-4.691194e-02
2554=-1.660312e-02
2557=2.176080e-03
2559=1.349418e-03
2560=-1.053706e-01
2562=3.190222e-01
2563=-2.105010e+00
2564=-2.507879e-03
2567=4.802222e-01
2568=-3.722053e-01
2569=-2.330694e-03
2570=1.366873e+00
2572=-9.093501e-01
2573=2.542374e-02
2574=-3.596202e-04
2575=1.094757e-03
2578=-4.423487e-01
2579=-1.286020e-03
2580=-4.013573e-03
2582=-3.834052e-02
2583=6.122693e-01
2585=-6.151174e-01
2588=8.167208e-02
2615=1.762170e-01
2617=-3.919239e-03
2618=-1.302143e-02
2619=-6.140972e-03
2620=3.533387e-01
2622=-3.431987e-01
2623=4.949412e-01
2624=-1.348158e+00
2625=-6.862875e-04
2627=2.463339e-02
2630=-7.536895e-04
2632=5.970948e-03
2635=7.477328e-02
2637=-7.282107e-02
2638=5.386489e-01
2639=-3.472270e-01
2640=1.248442e-04
2642=-1.313380e-04
2645=-1.191826e-03
2647=-5.531860e-02
2649=3.469032e-02
2652=-1.452125e-02
2655=-8.048408e-04
2657=-4.138315e-02
2660=-3.786294e-04
2662=1.249711e-02
2666=2.662407e-01
2676=-1.112699e-01
2677=8.898161e-01
2681=-1.038204e+00
2682=-2.130383e+00
2686=5.842171e-01
2692=2.377121e-01
2693=-2.618484e-01
2697=4.348399e-02
2698=-1.869809e-02
2702=2.479021e+00
2703=-5.609429e-01
2712=2.107849e-01
2717=1.310832e+00
2718=-2.137931e-01
2722=-1.777948e-01
2730=-2.137450e-01
2732=4.861119e-01
2733=3.937559e-02
2734=-7.955999e-01
2735=-2.488328e-01
2737=9.289497e-02
2738=1.574978e-01
2739=-2.730818e-01
2740=-1.011401e-01
2742=1.936566e-01
2743=-9.110834e-01
2744=1.947871e-01
2745=1.159219e-05
2747=-1.808438e-01
2748=6.514231e-02
2749=2.218040e-01
2750=6.048353e-01
2752=-3.821045e-01
2753=-3.287809e-01
2754=2.152190e-01
2757=-6.158171e-04
2758=-9.056745e-03
2759=4.928417e-01
2760=1.132420e+00
2762=-5.128463e-02
2763=-1.248998e-01
2765=-9.388114e-03
2767=-2.816301e-01
2768=1.671482e+00
2769=-6.026116e-01
2770=2.081691e-01
2772=-1.784674e-01
2773=4.992048e-02
2774=-3.939299e-01
2775=-3.740223e-01
2777=7.321356e-01
2778=-1.363165e-01
2779=-6.737604e-04
2780=1.304750e-02
2782=5.650506e-01
2783=-1.132892e+00
2785=8.329743e-01
2787=-2.151869e-03
2788=-2.074341e-02
2792=9.127076e-03
2795=-2.071542e-04
2797=2.268073e-01
2802=1.870860e-01
2807=6.323401e-02
2810=-1.969894e-01
2812=-1.553441e+00
2813=2.326974e+00
2817=-8.568786e-01
2818=2.277067e+00
2822=8.766243e-01
2823=-3.201830e-03
2824=-4.687040e-01
2827=2.543253e-02
2830=-2.911212e-02
2832=4.309813e-01
2835=-7.504775e-03
2837=-2.663261e-01
2838=6.405135e-01
2839=-4.181869e-01
2840=-4.458763e-01
2842=5.939133e-03
2843=-2.331162e-01
2844=7.310048e-02
2847=-7.905082e-03
2849=1.667464e-01
2850=-5.121371e-01
2852=3.631542e-01
2854=1.910955e-02
2857=-2.454007e-01
2862=6.344903e-01
2867=8.847988e-01
2879=2.273230e-01
2882=-1.428725e-03
2884=1.992541e-01
2885=-9.817507e-02
2887=2.040048e+00
2892=1.487986e-01
2897=5.599837e-01
2898=-1.827554e-02
2899=-1.865846e-03
2902=4.020244e-01
2903=-5.155331e-05
2904=-1.375676e-01
2907=2.327097e-02
2909=-4.036086e-02
2910=-4.516875e-01
2912=1.332067e+00
2917=1.098605e-02
2918=-5.574905e-02
2922=4.881694e-01
2923=-3.165307e-02
2925=1.975069e-01
2927=-4.058045e-03
2940=9.344342e-02
2942=-2.964914e-02
2955=-4.499900e-02
2957=4.859441e-01
2959=-1.065386e+00
2962=-3.078859e-01
2963=1.521108e+00
2967=9.261872e-01
2968=-1.459106e-01
2972=2.145409e-01
2975=-3.330964e-02
2977=1.029353e-02
2979=-8.735690e-02
2982=9.560636e-01
2985=2.121232e-02
2987=-9.184679e-07
2992=2.847116e-01
2994=-1.865482e-01
2995=5.855896e-02
2997=-1.738275e-02
3000=2.761446e-05
3002=-1.826580e-01
3004=1.746411e+00
3007=1.244913e+00
3008=-4.120629e-01
3012=1.117314e-01
3013=-4.186969e-02
3017=2.316757e+00
3019=-5.677295e-01
3022=4.244936e-01
3027=7.655391e-04
3032=9.351308e-02
3034=-4.645639e-04
3038=-9.450804e-02
3042=-2.455895e-03
3044=7.460878e-01
3047=-3.983547e-02
3049=1.618917e+00
3052=-6.070163e-02
3054=2.276975e-01
3055=-4.349767e-02
3057=-4.720011e-01
3058=-2.595723e-01
3059=9.233143e-01
3060=-9.960904e-01
3062=1.071764e+00
3065=-4.915109e-03
3069=3.296781e-02
3072=-3.056849e-03
3074=1.486359e-01
3077=3.534249e-03
3079=-1.939022e-03
3082=2.992132e-02
3083=4.514964e-04
3084=-1.942137e-03
3087=-5.721400e-04
3089=3.821695e-02
3092=-1.060020e-01
3094=1.915105e-02
3097=-5.132413e-03
3099=1.690607e-02
3102=-1.556916e-01
3104=4.758953e-01
3107=-4.549816e-01
3109=1.087630e+00
3112=1.538736e-01
3117=-3.754936e-03
3119=1.433755e-02
3122=-2.062046e-03
3124=4.451116e-03
3127=3.602468e-02
3129=-4.472883e-03
3132=3.596721e-03
3134=-3.244635e-03
3137=-9.894770e-01
3138=2.190916e+00
3140=-3.738709e-01
3142=-5.793210e-03
3143=-8.793060e-01
3144=5.661595e-01
3145=-1.576692e-02
3147=5.630318e-01
3152=6.512777e-02
3154=-1.575352e-02
3157=9.658454e-03
3158=-7.147164e-03
3160=-1.059930e-02
3162=9.617636e-02
3163=-1.200947e-04
3167=1.862605e-01
3168=-3.737385e-02
3172=4.974250e-02
3177=1.146841e+00
3179=-2.833430e-02
3182=4.478033e-01
3184=-1.018963e-03
3185=-8.360301e-01
3187=1.949261e+00
3192=3.716389e-02
3197=7.688306e-01
3198=-3.269316e-02
3200=-8.265714e-02
3202=2.557271e-01
3205=1.865989e-03
3207=-2.795068e-03
3212=3.114383e-01
3213=-8.126793e-02
3214=-1.593925e-02
3231=4.357586e-02
3232=2.368772e-03
3241=-2.411942e-03
3247=8.702189e-02
3248=-1.034056e-01
3252=1.398107e+00
3262=1.962098e-01
3267=4.793229e-01
3280=4.869854e-02
3282=-3.742080e-02
3291=8.445690e-02
3301=-6.283971e-02
3315=8.518346e-02
3317=-4.796421e-02
3320=-2.080021e-03
3322=9.270181e-01
3327=-1.068730e+00
3328=2.351953e+00
3331=5.570281e-02
3332=-7.641439e-01
3333=1.301489e-01
3341=2.082786e-02
3342=-2.280028e-01
3343=1.034278e-01
3346=-4.024271e-01
3351=1.128405e+00
3360=-1.108064e+00
3361=6.614337e-03
3362=-4.291132e-01
3363=6.664153e-01
3364=-1.175548e-01
3367=-1.934584e-01
3368=2.936353e-01
3370=-1.912788e-01
3371=4.235440e-02
3372=5.828045e-01
3373=-1.390413e-01
3374=-2.123121e-01
3376=-1.840371e-02
3380=-4.081783e-01
3381=7.489469e-03
3382=2.839330e-01
3383=2.964144e-02
3384=-2.186983e-01
3386=-2.767436e-01
3387=1.582153e-04
3388=-6.431284e-01
3390=4.861555e-03
3391=7.124211e-01
3392=-8.996933e-03
3394=2.683021e-04
3396=-6.695427e-03
3402=7.698388e-01
3403=-1.945709e+00
3404=3.741421e-02
3405=-4.546721e-02
3407=6.871079e-01
3408=-6.983194e-01
3409=-1.232696e+00
3410=-5.479163e-02
3412=-7.299790e-02
3413=1.860166e+00
3416=1.170243e-02
3417=-5.742429e-01
3418=1.204394e+00
3421=1.016028e-01
3427=1.388773e-01
3432=-3.051898e-03
3434=2.836092e-01
3437=-2.381074e-01
3439=3.421834e-01
3456=-2.370579e-01
3457=9.435999e-04
3466=3.429227e-01
