#mdl#2#1823
#rdr#52/26/0
1:*,
17:u:Ln-1 X=%x[ 0,1],
17:u:Ln-1 X=%x[ 0,2],
17:u:Ln-1 X=%x[ 0,3],
17:u:Ln-1 X=%x[ 0,4],
17:u:Ln-1 X=%x[ 0,5],
17:u:Ln-1 X=%x[ 0,6],
17:u:Ln-1 X=%x[ 0,7],
18:*:Fst-1 X=%x[ 0,8],
18:u:Fst-1 R=%x[ 1,8],
18:*:Lst-1 L=%x[-1,9],
18:u:Lst-1 X=%x[ 0,9],
27:u:Fst-2 L=%x[-1,9]/%x[ 0,8],
27:u:Lst-2 R=%x[ 0,9]/%x[ 1,8],
19:u:Wrd-1 X=%x[ 0,10],
19:u:Wrd-2 X=%x[ 0,11],
19:u:Wrd-2 R=%x[ 1,11],
19:u:Num-1 X=%x[ 0,12],
19:u:Ttl-1 X=%x[ 0,13],
19:u:Nme-1 L=%x[-1,14],
19:u:Nme-1 X=%x[ 0,14],
19:u:Loc-1 X=%x[ 0,15],
19:u:Loc-1 R=%x[ 1,15],
19:u:Loc-1RR=%x[ 2,15],
19:u:Pub-1 X=%x[ 0,16],
19:u:Pub-1 R=%x[ 1,16],
19:u:Pub-1RR=%x[ 2,16],
19:u:Jnl-1 X=%x[ 0,17],
19:u:Jnl-1 R=%x[ 1,17],
19:u:Idt-1 X=%x[ 0,18],
19:*:Idt-2 X=%x[ 0,19],
29:*:Idt-2 L=%x[-1,19]/%x[ 0,19],
19:u:Ref-1LL=%x[-2,20],
19:u:Ref-1 L=%x[-1,20],
19:u:Ref-1 X=%x[ 0,20],
19:u:Ref-1 R=%x[ 1,20],
19:u:Ref-1RR=%x[ 2,20],
19:u:Ref-2LL=%x[-2,21],
19:u:Ref-2 L=%x[-1,21],
19:u:Ref-2 X=%x[ 0,21],
19:u:Ref-2 R=%x[ 1,21],
19:u:Ref-2RR=%x[ 2,21],
19:u:Ref-3 L=%x[-1,22],
19:u:Ref-3 X=%x[ 0,22],
19:u:Ref-4 L=%x[-1,23],
19:u:Ref-4 X=%x[ 0,23],
19:u:Ref-4 R=%x[ 1,23],
19:u:Ref-4RR=%x[ 2,23],
19:u:Ref-5 L=%x[-1,24],
19:u:Ref-5 X=%x[ 0,24],
19:u:Pos-1 X=%x[ 0,25],
19:u:Pag-1 X=%x[ 0,26],
#qrk#5
5:title,
5:blank,
4:text,
4:meta,
3:ref,
#qrk#455
1:*,
11:u:Ln-1 X=30,
11:u:Ln-1 X=36,
11:u:Ln-1 X=10,
10:u:Ln-1 X=8,
10:u:Ln-1 X=2,
10:u:Ln-1 X=0,
10:u:Ln-1 X=7,
12:*:Fst-1 X=Lu,
14:u:Fst-1 R=none,
14:*:Lst-1 L=_x-1,
12:u:Lst-1 X=Lu,
17:u:Fst-2 L=_x-1/Lu,
17:u:Lst-2 R=Lu/none,
11:u:Wrd-1 X=4,
15:u:Wrd-2 X=alpha,
14:u:Wrd-2 R=none,
11:u:Num-1 X=0,
11:u:Ttl-1 X=0,
14:u:Nme-1 L=_x-1,
11:u:Nme-1 X=3,
11:u:Loc-1 X=3,
11:u:Loc-1 R=0,
11:u:Loc-1RR=0,
11:u:Pub-1 X=3,
11:u:Pub-1 R=0,
11:u:Pub-1RR=0,
11:u:Jnl-1 X=8,
11:u:Jnl-1 R=0,
11:u:Idt-1 X=T,
11:*:Idt-2 X=+,
16:*:Idt-2 L=_x-1/+,
14:u:Ref-1LL=_x-2,
14:u:Ref-1 L=_x-1,
11:u:Ref-1 X=-,
11:u:Ref-1 R=-,
11:u:Ref-1RR=-,
14:u:Ref-2LL=_x-2,
14:u:Ref-2 L=_x-1,
11:u:Ref-2 X=-,
11:u:Ref-2 R=-,
11:u:Ref-2RR=-,
14:u:Ref-3 L=_x-1,
11:u:Ref-3 X=-,
14:u:Ref-4 L=_x-1,
11:u:Ref-4 X=-,
11:u:Ref-4 R=-,
11:u:Ref-4RR=-,
14:u:Ref-5 L=_x-1,
11:u:Ref-5 X=F,
15:u:Pos-1 X=first,
15:u:Pag-1 X=first,
14:*:Fst-1 X=none,
12:u:Fst-1 R=Lu,
12:*:Lst-1 L=Lu,
14:u:Lst-1 X=none,
11:u:Wrd-1 X=0,
14:u:Wrd-2 X=none,
15:u:Wrd-2 R=alpha,
11:u:Nme-1 L=3,
11:u:Nme-1 X=0,
11:u:Loc-1 X=0,
11:u:Pub-1 X=0,
11:u:Jnl-1 X=0,
11:u:Jnl-1 R=5,
11:u:Idt-1 X=F,
11:*:Idt-2 X=-,
13:*:Idt-2 L=+/-,
14:u:Ref-1LL=_x-1,
11:u:Ref-1 L=-,
14:u:Ref-2LL=_x-1,
11:u:Ref-2 L=-,
11:u:Ref-3 L=-,
11:u:Ref-4 L=-,
11:u:Ref-5 L=F,
11:u:Pos-1 X=0,
11:u:Ln-1 X=27,
11:u:Ln-1 X=35,
14:*:Lst-1 L=none,
17:u:Fst-2 L=none/Lu,
11:u:Wrd-1 X=2,
11:u:Nme-1 L=0,
11:u:Jnl-1 X=5,
13:*:Idt-2 L=-/+,
11:u:Ref-1LL=-,
11:u:Ref-2LL=-,
11:u:Pos-1 X=1,
11:*:Idt-2 X==,
13:*:Idt-2 L=-/=,
13:*:Idt-2 L==/=,
11:u:Pos-1 X=2,
11:u:Ln-1 X=13,
11:u:Ln-1 X=33,
10:u:Ln-1 X=4,
10:u:Ln-1 X=6,
11:u:Pub-1RR=1,
13:*:Idt-2 L==/+,
11:u:Pos-1 X=3,
11:u:Pub-1 R=1,
11:u:Jnl-1 R=6,
11:u:Ln-1 X=47,
11:u:Ln-1 X=53,
10:u:Ln-1 X=9,
10:u:Ln-1 X=1,
11:u:Wrd-1 X=7,
11:u:Pub-1 X=1,
11:u:Pub-1RR=3,
11:u:Jnl-1 X=6,
11:u:Pub-1 R=3,
11:u:Jnl-1 R=8,
11:u:Pos-1 X=4,
11:u:Ln-1 X=32,
11:u:Ln-1 X=44,
10:u:Ln-1 X=3,
11:u:Wrd-1 X=6,
11:u:Loc-1RR=7,
11:u:Pub-1RR=7,
11:u:Loc-1 R=7,
11:u:Pub-1 R=7,
11:u:Jnl-1 R=7,
11:u:Ln-1 X=20,
11:u:Ln-1 X=37,
10:u:Ln-1 X=5,
11:u:Wrd-1 X=3,
11:u:Loc-1 X=7,
11:u:Pub-1 X=7,
11:u:Pub-1RR=2,
11:u:Jnl-1 X=7,
11:u:Pos-1 X=5,
11:u:Pub-1 R=2,
11:u:Pub-1 X=2,
11:u:Pub-1RR=5,
11:u:Pos-1 X=6,
11:u:Pub-1 R=5,
11:u:Ln-1 X=14,
11:u:Pub-1 X=5,
11:u:Pos-1 X=7,
11:u:Ln-1 X=18,
11:u:Pos-1 X=8,
11:u:Pos-1 X=9,
12:u:Lst-1 X=Ll,
17:u:Lst-2 R=Ll/none,
11:u:Nme-1 X=5,
11:u:Ref-1RR=+,
12:*:Lst-1 L=Ll,
11:u:Nme-1 L=5,
11:u:Ref-1 R=+,
11:u:Fst-1 R=S,
11:u:Lst-1 X=N,
13:u:Lst-2 R=N/S,
16:u:Wrd-2 R=number,
11:u:Num-1 X=1,
11:u:Loc-1RR=2,
11:u:Jnl-1 R=3,
11:u:Ref-1 X=+,
14:u:Pos-1 X=last,
11:u:Ln-1 X=66,
11:*:Fst-1 X=S,
11:*:Lst-1 L=N,
11:u:Lst-1 X=P,
14:u:Lst-2 R=P/Lu,
16:u:Wrd-2 X=number,
11:u:Loc-1 R=2,
11:u:Jnl-1 X=3,
11:u:Ref-1 L=+,
11:u:Pag-1 X=0,
11:u:Ln-1 X=58,
11:u:Ln-1 X=77,
11:*:Lst-1 L=P,
14:u:Fst-2 L=P/Lu,
16:u:Lst-2 R=P/none,
11:u:Wrd-1 X=9,
11:u:Nme-1 X=1,
11:u:Loc-1 X=2,
13:*:Idt-2 L=-/-,
11:u:Ref-1LL=+,
11:u:Nme-1 L=1,
11:u:Ln-1 X=50,
11:u:Ln-1 X=84,
12:u:Lst-1 X=Pd,
15:u:Lst-2 R=Pd/Lu,
11:u:Nme-1 X=2,
11:u:Jnl-1 R=4,
11:u:Ln-1 X=65,
12:u:Fst-1 R=Ll,
12:*:Lst-1 L=Pd,
14:u:Lst-2 R=P/Ll,
11:u:Wrd-1 X=5,
17:u:Wrd-2 R=numeric,
11:u:Nme-1 L=2,
11:u:Jnl-1 X=4,
13:*:Idt-2 L=+/=,
11:u:Ln-1 X=74,
12:*:Fst-1 X=Ll,
14:u:Fst-2 L=P/Ll,
11:u:Wrd-1 X=1,
17:u:Wrd-2 X=numeric,
13:*:Idt-2 L==/-,
11:u:Ln-1 X=49,
11:u:Ln-1 X=68,
16:u:Lst-2 R=N/none,
11:u:Num-1 X=2,
11:u:Loc-1RR=1,
11:u:Ln-1 X=45,
17:u:Fst-2 L=none/Ll,
15:u:Lst-2 R=Ll/Lu,
11:u:Loc-1 R=1,
11:u:Jnl-1 R=2,
11:u:Ln-1 X=72,
11:u:Ln-1 X=90,
15:u:Fst-2 L=Ll/Lu,
15:u:Lst-2 R=Ll/Ll,
12:u:Wrd-1 X=17,
11:u:Loc-1 X=1,
11:u:Jnl-1 X=2,
11:u:Ln-1 X=64,
11:u:Ln-1 X=78,
15:u:Fst-2 L=Ll/Ll,
12:u:Wrd-1 X=14,
11:u:Ln-1 X=91,
11:u:Ln-1 X=23,
11:u:Ln-1 X=88,
11:u:Ln-1 X=11,
11:u:Ln-1 X=94,
11:u:Loc-1RR=5,
11:u:Loc-1 R=5,
11:u:Loc-1 X=5,
11:u:Pub-1RR=4,
11:u:Pub-1 R=4,
11:u:Ln-1 X=67,
11:u:Pub-1 X=4,
11:u:Ln-1 X=85,
11:u:Nme-1 X=4,
11:u:Ref-3 X=+,
11:u:Nme-1 L=4,
11:u:Ref-3 L=+,
12:u:Wrd-1 X=12,
11:u:Ln-1 X=83,
12:u:Wrd-1 X=15,
12:u:Jnl-1 R=10,
12:u:Jnl-1 X=10,
12:u:Pos-1 X=10,
12:u:Ttl-1 X=10,
11:u:Ln-1 X=81,
12:u:Fst-1 R=Ps,
15:u:Lst-2 R=Ll/Ps,
11:u:Ln-1 X=69,
12:*:Fst-1 X=Ps,
15:u:Fst-2 L=Ll/Ps,
12:u:Wrd-1 X=10,
11:u:Ln-1 X=73,
11:u:Ln-1 X=61,
12:u:Lst-1 X=Pe,
12:*:Lst-1 L=Pe,
15:u:Fst-2 L=Pe/Ll,
11:u:Ln-1 X=82,
11:u:Ln-1 X=71,
11:u:Ln-1 X=89,
12:u:Wrd-1 X=11,
11:u:Ln-1 X=80,
11:u:Ln-1 X=60,
11:u:Ln-1 X=79,
11:u:Num-1 X=3,
11:u:Ln-1 X=62,
12:u:Wrd-1 X=13,
11:u:Ln-1 X=16,
11:u:Ln-1 X=41,
11:u:Wrd-1 X=8,
11:u:Ln-1 X=52,
11:u:Ln-1 X=63,
11:u:Ln-1 X=40,
11:u:Ln-1 X=57,
11:u:Ln-1 X=54,
11:u:Ln-1 X=51,
11:u:Nme-1 X=7,
11:u:Nme-1 L=7,
11:u:Ln-1 X=15,
11:u:Ln-1 X=17,
11:u:Ttl-1 X=3,
11:u:Ln-1 X=19,
11:u:Fst-1 R=N,
13:u:Lst-2 R=N/N,
11:u:Ttl-1 X=5,
11:*:Fst-1 X=N,
13:u:Fst-2 L=N/N,
11:u:Ln-1 X=26,
12:u:Ln-1 X=114,
11:u:Ln-1 X=22,
12:u:Ln-1 X=120,
12:u:Ln-1 X=132,
12:u:Ln-1 X=127,
12:u:Ln-1 X=117,
11:u:Ln-1 X=28,
11:u:Ln-1 X=34,
11:u:Num-1 X=4,
11:u:Jnl-1 R=1,
12:u:Ln-1 X=105,
11:u:Jnl-1 X=1,
11:u:Ln-1 X=31,
11:u:Ln-1 X=29,
12:u:Ln-1 X=118,
11:u:Ttl-1 X=2,
11:u:Ln-1 X=12,
12:u:Ln-1 X=128,
12:u:Ln-1 X=123,
12:u:Ln-1 X=116,
12:u:Ln-1 X=107,
12:u:Ln-1 X=104,
11:u:Ln-1 X=21,
11:u:Ln-1 X=96,
11:u:Nme-1 X=6,
12:u:Ln-1 X=103,
14:u:Lst-2 R=Ll/N,
14:u:Fst-2 L=Ll/N,
12:u:Ln-1 X=100,
11:u:Ln-1 X=39,
12:u:Ln-1 X=122,
14:u:Lst-2 R=N/Lu,
14:u:Fst-2 L=N/Lu,
11:u:Ln-1 X=24,
12:u:Ln-1 X=115,
11:u:Ln-1 X=98,
12:u:Ln-1 X=101,
11:u:Ln-1 X=59,
11:u:Ln-1 X=25,
11:u:Num-1 X=5,
15:u:Lst-2 R=Lu/Ll,
11:u:Ln-1 X=48,
12:u:Ln-1 X=124,
11:u:Pag-1 X=1,
11:u:Ln-1 X=86,
11:u:Ln-1 X=87,
11:u:Ln-1 X=55,
11:u:Ln-1 X=93,
11:u:Ln-1 X=56,
11:u:Ln-1 X=75,
11:u:Ref-5 X=T,
11:u:Ref-5 L=T,
14:u:Lst-2 R=N/Ll,
14:u:Fst-2 L=N/Ll,
11:u:Ln-1 X=92,
11:*:Lst-1 L=S,
11:u:Ref-4RR=+,
11:u:Ref-4 R=+,
11:u:Ref-4 X=+,
11:u:Ref-4 L=+,
15:u:Lst-2 R=Pd/Ll,
15:u:Fst-2 L=Pd/Ll,
11:u:Ref-2RR=+,
11:u:Ref-2 R=+,
13:u:Fst-2 L=S/N,
11:u:Ref-2 X=+,
11:u:Ref-2 L=+,
11:u:Ref-2LL=+,
11:u:Ttl-1 X=1,
11:u:Ln-1 X=42,
12:u:Wrd-1 X=18,
15:u:Lst-2 R=Pe/Lu,
15:u:Fst-2 L=Pe/Lu,
11:u:Ln-1 X=38,
11:u:Ln-1 X=99,
11:u:Ln-1 X=97,
11:u:Ln-1 X=43,
14:u:Fst-2 L=Pe/N,
11:u:Num-1 X=7,
12:u:Wrd-1 X=16,
11:u:Ln-1 X=76,
14:u:Lst-2 R=P/Ps,
14:u:Fst-2 L=P/Ps,
11:u:Loc-1RR=3,
11:u:Loc-1 R=3,
11:u:Num-1 X=9,
15:u:Lst-2 R=Lu/Lu,
15:u:Fst-2 L=Lu/Lu,
11:u:Ln-1 X=46,
11:u:Ttl-1 X=7,
16:u:Fst-2 L=none/N,
11:u:Pag-1 X=2,
11:u:Ln-1 X=70,
14:u:Lst-2 R=Pd/N,
14:u:Fst-2 L=Pd/N,
13:*:Idt-2 L=+/+,
13:u:Lst-2 R=P/N,
13:u:Fst-2 L=P/N,
12:u:Wrd-1 X=19,
11:u:Fst-1 R=P,
11:*:Fst-1 X=P,
17:u:Lst-2 R=Pe/none,
11:u:Pag-1 X=3,
12:*:Fst-1 X=Pi,
12:u:Ref-3 X=++,
12:u:Ref-3 L=++,
12:u:Nme-1 X=10,
12:u:Nme-1 L=10,
11:u:Ln-1 X=95,
11:u:Pag-1 X=4,
13:u:Lst-2 R=P/P,
13:u:Fst-2 L=P/P,
14:u:Lst-2 R=Ll/P,
14:u:Fst-2 L=Ll/P,
11:u:Pag-1 X=5,
11:u:Num-1 X=6,
11:u:Pag-1 X=6,
11:u:Pag-1 X=7,
11:u:Pag-1 X=8,
12:*:Lst-1 L=Pf,
11:u:Pub-1 R=6,
11:u:Pub-1 X=6,
11:u:Pag-1 X=9,
17:u:Fst-2 L=none/Ps,
12:u:Ref-2RR=++,
12:u:Ref-2 X=++,
12:u:Ref-1RR=++,
12:u:Ref-2LL=++,
12:u:Ref-1 R=++,
12:u:Ref-1 X=++,
12:u:Ref-1 L=++,
12:u:Ref-1LL=++,
11:u:Jnl-1 R=9,
11:u:Jnl-1 X=9,
12:u:Pag-1 X=10,
11:u:Loc-1RR=4,
11:u:Loc-1 R=4,
11:u:Loc-1 X=4,
14:u:Pos-1 X=only,
12:u:Pub-1 R=10,
12:u:Pub-1 X=10,
14:u:Lst-2 R=Lu/N,
14:u:Fst-2 L=Lu/N,
12:*:Fst-1 X=Pd,
16:*:Idt-2 L=_x-1/=,
12:u:Wrd-1 X=21,
17:u:Lst-2 R=Pd/none,
11:u:Nme-1 X=9,
11:u:Nme-1 L=9,
11:u:Lst-1 X=C,
11:*:Lst-1 L=C,
13:u:Lst-2 R=N/C,
12:u:Num-1 X=11,
17:u:Lst-2 R=Pf/none,
17:u:Fst-2 L=none/Pd,
11:u:Loc-1 R=8,
11:u:Loc-1 X=8,
12:u:Wrd-1 X=23,
12:u:Num-1 X=14,
11:u:Fst-1 R=Z,
11:u:Lst-1 X=Z,
13:u:Lst-2 R=Z/Z,
11:*:Fst-1 X=Z,
11:*:Lst-1 L=Z,
13:u:Fst-2 L=Z/Z,
14:u:Fst-2 L=Z/Ll,
14:u:Fst-2 L=Z/Lu,
13:u:Fst-2 L=Z/N,
16:u:Lst-2 R=Z/none,
0=4.690735e-02
1=-1.139311e-01
2=7.384743e-02
3=-2.854580e-03
4=2.281990e-03
5=5.891689e-01
6=-6.910010e-03
7=-1.429536e-01
8=-1.875300e+00
9=-3.046160e-01
10=7.970803e-02
11=-5.542663e-02
12=3.361225e-02
13=-1.685655e-02
14=-6.861522e-02
15=-1.879232e+00
16=-2.898039e-02
17=1.191753e+00
18=-1.541101e-01
19=-5.648870e+00
20=-1.448668e-01
21=6.404565e-02
22=-2.853001e-01
23=4.385375e-01
24=-3.091121e-01
25=-3.061466e+00
26=-3.699436e-02
27=-5.225286e+00
28=-6.210465e-02
29=1.129773e+00
30=7.537488e-01
32=-2.838513e-03
33=-1.706789e+00
35=2.758704e-01
37=-2.343422e-02
38=-1.968732e-01
39=6.518903e-04
40=-8.516796e-02
41=-1.860012e+00
42=4.348581e-02
43=9.356020e-01
44=-2.382314e-01
45=-2.736854e-01
46=-2.143520e+00
47=5.150813e-01
48=-2.958257e-01
49=-1.029055e-03
50=3.541698e-02
51=-1.114752e+00
52=4.038614e-02
53=-3.154446e-01
54=4.860224e-01
55=-3.213683e-01
56=1.372980e+00
57=-4.035263e-01
58=1.750627e-01
59=-6.106898e-01
60=6.585680e-02
62=1.015517e-01
63=-1.862017e-01
64=1.037545e-01
65=-4.817480e-03
67=4.130440e-02
68=2.360727e-01
69=6.083546e-02
70=8.190997e-02
72=1.165810e-01
74=-3.549812e-01
75=-2.592122e-02
77=4.589899e-02
78=-6.807925e-02
79=7.347899e-02
80=-6.751819e-01
82=6.635227e-02
83=3.159369e-01
85=-2.052585e-02
87=-4.054539e-01
88=6.465446e-01
89=-1.177150e+00
92=-4.339879e-01
94=2.320908e-01
95=-7.298090e-03
97=1.063082e-01
98=5.115683e-04
100=5.618399e-02
103=-2.856277e-03
130=3.318947e-01
132=-2.738881e-03
133=-3.582257e-03
134=-5.095865e-02
135=5.618399e-02
138=-2.856277e-03
140=9.045194e-02
142=-1.870470e-01
143=8.652088e-01
144=-1.132906e+00
145=3.093662e-02
147=-1.608163e-01
148=6.523557e-01
149=-3.053967e-01
150=-2.201442e-01
151=-9.365608e-01
152=2.835740e-01
153=-9.684224e-04
154=1.738385e-01
155=-3.955531e-03
157=1.184434e-02
158=2.826364e-02
159=-8.400856e-02
160=-3.643026e-02
161=1.187412e-01
162=4.693890e-03
163=-3.558752e-03
164=-2.944937e-02
165=-2.284360e-01
166=-1.355566e-01
167=2.326418e-01
168=-4.379453e-02
169=7.292919e-02
170=5.618399e-02
173=-2.856277e-03
175=-2.998262e-01
177=-3.023962e-02
178=1.040105e+00
179=-6.917370e-03
180=-2.165543e+00
182=-1.069839e-01
183=3.126147e+00
184=4.564029e-03
185=6.627408e-02
186=-7.901332e-02
187=9.667813e-05
188=-3.384157e-02
189=1.052096e-01
190=3.792886e-02
191=-1.616403e-01
192=1.875327e-01
193=-4.059261e-02
194=1.246201e-01
195=-2.127736e-03
197=-2.278561e-02
198=5.911120e-02
199=4.179316e-02
200=-6.476377e-02
201=-1.170394e-01
202=3.535373e-01
203=-1.382930e-01
204=3.751721e-02
205=-1.061722e-01
206=-1.190206e-01
207=1.983361e-01
208=-7.058168e-02
209=7.376225e-02
210=1.056893e+00
212=-6.381160e-01
213=-1.345658e+00
214=2.630167e-02
215=-3.208868e-02
216=-2.263197e-02
217=3.063670e-01
218=-1.088617e-01
219=-5.272355e-02
220=-9.968177e-02
221=-3.942251e+00
222=1.813697e-01
223=-1.711725e-01
224=1.959263e-01
225=-9.492485e-02
227=1.336288e-01
228=-1.946778e-03
229=1.428205e-01
230=1.444299e-01
232=-2.255847e-03
235=-9.128601e-02
237=1.380743e-01
238=6.292168e-02
239=-9.962516e-02
240=-8.004699e-01
242=2.526443e-01
243=-4.288454e-02
247=2.957970e-01
248=-1.495726e+00
249=9.398540e-02
254=2.375691e+00
255=3.171202e+00
258=-9.463662e-01
285=5.618399e-02
288=-2.856277e-03
290=5.618399e-02
293=-2.856277e-03
295=1.293592e-01
296=-1.915191e-01
297=1.248363e-01
298=-1.458587e-02
299=-1.752878e-01
300=9.094918e-02
301=-1.001404e-01
302=-3.336493e-03
303=-3.684222e-02
304=2.153878e-01
305=1.110810e-03
306=-1.393061e-01
307=2.455485e-01
308=-2.651505e-02
309=-1.971544e-01
310=5.618399e-02
313=-2.856277e-03
315=5.618399e-02
318=-2.856277e-03
320=5.679967e-02
321=-1.446259e-01
322=3.134645e-02
323=-1.379627e-02
324=-3.505416e-01
325=3.270997e-02
326=-1.222281e-01
327=2.389262e-02
328=9.925803e-04
329=-3.487469e-01
330=6.765152e-03
331=-1.025328e-01
332=1.432170e-02
333=1.600277e-03
335=5.618399e-02
338=-2.856277e-03
340=2.715762e-03
341=-1.450319e-01
342=2.836793e-01
343=-1.705742e-02
344=-6.660866e-01
345=5.618399e-02
348=-2.856277e-03
350=3.188683e-02
351=-1.256070e-01
352=8.917477e-02
353=1.733162e-03
354=8.006052e-02
355=2.784756e-03
356=-1.175260e-01
357=7.361216e-02
358=-1.713159e-02
359=7.857342e-02
360=-1.676062e-02
361=-1.159774e-01
362=6.057213e-02
363=-1.473885e-02
364=5.259649e-02
365=5.618399e-02
368=-2.856277e-03
370=5.745852e-02
371=-1.176129e-01
372=2.037645e-02
373=-1.525370e-02
375=1.792847e-01
377=-2.692869e+00
378=2.099319e+00
379=-3.496192e-01
380=4.361566e-01
382=-3.200934e-01
383=-2.166526e-02
386=1.544454e+00
387=-2.212149e-01
391=1.204422e-01
401=1.341377e-01
406=3.102665e-02
411=3.882662e-02
415=1.187090e-01
416=-1.246369e+00
417=-1.078383e-01
418=-5.925291e-03
419=-3.557989e-03
420=2.487155e-01
422=-1.056128e-01
425=3.713088e-01
426=9.963954e-02
427=-1.567609e+00
435=-4.196441e-01
436=-2.404642e-01
437=8.294539e-02
438=4.937864e-02
440=8.814722e-04
441=8.518723e-01
442=-1.718488e+00
446=-1.148597e+00
449=2.985265e-02
451=1.544454e+00
452=-2.212149e-01
456=1.764936e+00
458=-1.561249e+00
461=1.764936e+00
463=-1.561249e+00
465=4.436576e-02
466=-7.329222e-02
467=-3.418950e-02
468=5.706873e-02
469=8.937707e-02
470=-2.216854e-01
472=3.274179e-02
473=3.031631e-03
474=2.649714e-02
475=5.262909e-01
476=-2.727363e-03
477=-2.535031e-01
478=-3.940627e-02
479=3.640919e-02
480=2.554840e-01
481=-2.277780e-01
482=7.808772e-02
483=-2.911043e-02
484=-1.292829e-02
485=1.044346e-01
486=-1.758620e-05
487=-1.266960e-01
488=1.690607e-01
489=-5.018569e-01
490=-1.065702e+00
491=5.158652e-02
492=2.387744e-02
493=5.500727e-02
494=-3.720319e-01
495=1.535457e-02
497=-1.632909e-01
498=2.199939e-01
499=9.807297e-02
500=7.629621e-02
501=2.997971e-01
502=-2.199500e-01
503=-9.603174e-02
504=-7.085321e-02
505=2.421113e-02
507=1.120319e-02
508=-2.634959e-01
509=-2.633706e-02
510=8.040841e-02
511=-2.033656e-03
512=-1.758104e+00
521=2.217171e-01
522=2.438452e-01
523=1.185946e-01
525=-1.333690e-01
526=-1.563679e-01
527=2.275288e-02
528=-9.067032e-01
529=-1.800810e-02
531=1.965896e-01
532=-1.897205e-01
533=1.044481e-02
534=8.386743e-02
535=1.208554e-01
537=1.869245e-02
538=-3.140875e-01
539=-3.908922e-02
540=1.189611e-01
541=-9.088591e-01
542=-3.979257e-01
550=-1.693472e-01
551=8.915294e-01
552=2.094272e-01
553=4.758201e-01
555=-4.078446e-01
556=-1.368733e+00
557=2.155046e-01
558=-3.329653e-01
559=-6.396310e-03
561=1.290599e-02
562=-1.591202e-02
564=2.698393e-02
565=1.035485e+00
567=-5.927933e-01
570=9.287112e-02
571=-1.155127e-01
572=1.780920e-01
573=-2.326586e-02
574=-5.973819e-02
575=1.035485e+00
577=-5.927933e-01
580=-6.047826e-03
581=-8.011423e-02
582=-4.207535e-03
583=-1.413833e-02
584=6.526359e-02
585=-1.440093e-02
586=-1.243178e-01
587=2.754252e-01
588=-1.228548e-02
589=-1.404314e-01
590=-3.773054e-02
591=-1.214496e-01
592=6.440476e-02
593=4.589436e-03
594=7.831767e-02
595=-3.208081e-02
596=-1.167264e-01
597=-1.036760e-02
598=-2.914320e-03
599=-3.953705e-03
600=4.473402e-01
602=-1.483914e-01
603=-2.797330e-02
604=-2.689905e-02
605=8.860489e-02
607=-5.351537e-01
608=4.191942e-01
609=-4.357216e-01
610=2.504225e-01
612=-5.080339e-01
613=6.077262e-01
614=-7.014699e-01
615=1.146579e-01
616=-3.105386e-01
617=-2.708282e-02
618=-2.007987e-02
619=-3.362899e-02
625=1.933312e-01
627=1.161582e-01
628=3.838976e-02
629=-1.848630e-02
645=-1.628808e-02
647=1.972803e-02
648=-3.061844e-02
649=9.033669e-02
650=9.773368e-01
652=-3.503133e-02
653=-7.629515e-02
654=-4.991366e-02
655=8.417951e-02
656=-2.032179e-01
657=1.169552e-01
658=-1.392567e-01
659=-8.476515e-02
660=8.351477e-03
662=5.336735e-02
663=-1.122164e+00
664=3.714466e-02
665=5.693508e-03
667=1.426190e-01
668=-5.632062e-01
669=6.768419e-02
670=6.321407e-02
672=-5.784282e-01
675=-4.080683e-03
677=2.570515e-01
678=-4.662642e-01
679=-1.915067e-02
682=1.068202e-01
683=-7.621946e-02
687=-1.241798e-01
694=2.925383e-01
695=-6.007923e-03
696=-1.083446e-01
697=1.234571e-02
698=-1.060899e-02
699=-3.561499e-02
700=5.612409e-03
701=-1.133536e-01
702=4.226108e-02
703=-1.420632e-02
704=-4.626665e-02
705=9.490107e-02
707=3.196628e-02
708=-1.620674e+00
709=2.733282e-01
710=7.627905e-02
711=-9.173994e-03
712=-1.193611e-01
713=1.441394e-02
714=5.582810e-02
715=1.231620e-01
716=1.272398e-01
717=-9.175365e-02
720=2.659745e-01
722=-2.731243e-02
723=-1.450026e-01
724=-5.125101e-03
725=-1.549803e+00
726=-6.932050e-02
727=2.844743e-01
728=-3.129738e-01
729=-8.965397e-01
730=-1.184827e-01
731=1.900977e-01
732=-7.268692e-01
733=9.487115e-01
734=-6.086957e-01
735=-2.648745e-01
736=-3.666869e-01
737=-1.646029e+00
738=-2.362131e+00
739=5.865262e-01
740=-1.134083e+00
742=3.633968e-01
744=-9.409298e-03
746=3.534253e-01
750=-6.066881e-01
752=4.041261e-01
753=-1.217165e+00
754=1.368822e-01
756=2.472464e-02
757=2.288124e-01
758=-3.030440e-02
760=2.434289e-02
761=-5.968675e-02
762=-3.457775e+00
763=3.112895e-01
766=-1.328844e+00
769=-2.459150e+00
770=1.178616e-01
771=-4.109082e-01
772=2.202776e-02
773=9.827512e-03
774=-5.263794e-02
775=8.675223e-02
776=2.920088e-02
777=-2.761991e-01
780=3.311717e-01
781=-7.945287e-01
782=-3.466787e-02
783=-6.296156e-02
784=-8.272262e-02
785=-4.855917e-01
786=-2.451068e-02
787=2.873367e-01
788=4.317481e-02
789=-3.180507e-01
790=-7.361870e-02
791=3.574620e-01
792=-3.284157e-01
793=1.623611e-01
794=-3.943133e-01
796=-1.413851e-01
797=-1.062854e+00
799=2.146119e-01
800=-7.874697e-01
802=3.180955e-01
803=-5.778741e-01
804=-1.730559e-02
805=7.978211e-03
807=-3.701179e-02
808=-1.153465e-02
810=7.142124e-01
812=-3.867375e-02
813=-8.464251e-01
814=5.088975e-03
815=3.168154e-01
816=-3.633054e-01
817=-1.422581e-02
818=2.115950e-01
819=-2.417566e-01
820=1.305396e-01
822=5.816357e-03
823=-7.115627e-02
824=5.064175e-02
825=4.916748e-01
826=-9.789866e-02
827=-3.762526e-02
828=-4.409415e-02
829=2.133389e-02
830=-1.928673e-01
832=-2.643662e-02
833=1.562717e-01
834=6.510656e-02
835=1.480467e-02
837=1.045387e+00
840=-1.049205e+00
842=7.910602e-02
843=3.265638e-01
844=-3.655228e-01
847=-1.322153e-01
848=1.467999e-01
852=-4.392399e-02
858=-2.182616e-02
859=3.005500e+00
860=7.379375e-03
862=1.372531e-01
863=-1.412993e+00
864=5.437140e-02
865=9.775303e-01
867=-1.932345e-01
868=8.677674e-01
869=-8.863207e-02
870=1.047806e-02
872=-1.095227e-01
873=-4.006436e-02
874=1.819002e-01
875=1.211926e-01
877=-1.685099e-01
879=4.852659e-03
880=-1.277563e-02
882=1.865830e-02
883=-9.473722e-01
884=2.033833e-02
885=-3.032224e-01
886=-8.595403e-01
887=2.012734e-01
888=-7.315936e-01
889=1.182135e-01
890=4.381380e-01
891=-1.172421e+00
892=1.054988e-01
893=-1.608360e-01
894=5.169683e-01
895=-1.419655e-01
897=-6.797961e-02
898=1.514140e-01
899=1.722958e-02
900=-2.169601e-01
902=2.813730e-01
903=-9.906157e-01
904=9.234382e-02
905=-7.025268e-02
907=1.915093e-03
908=2.644990e-01
909=-3.217347e-02
910=-4.182123e-03
912=-1.029453e-01
914=1.801995e-01
915=4.616840e-03
917=-1.041413e-01
918=1.082655e+00
919=2.237014e-02
920=-2.637840e-02
922=-1.329209e-01
924=1.196559e-01
925=1.531070e-02
927=1.805545e-01
928=-2.743765e+00
929=-4.450071e-01
930=1.254151e-02
932=-9.225225e-03
933=9.118967e-02
934=-4.897312e-01
935=2.853470e-01
937=-1.965539e-03
938=-1.780128e-01
939=-2.568190e-03
940=1.216930e-01
941=-7.095874e-01
942=-7.616985e-02
943=1.528785e-01
944=1.519917e-01
945=2.565573e-01
947=-6.996844e-02
948=3.410441e-01
949=-4.247085e-01
950=-8.129069e-03
952=6.177754e-03
955=-6.300999e-03
957=1.381284e-04
960=-5.732663e-03
962=3.192553e-03
965=-7.453394e-03
967=-1.411927e-03
970=6.674906e-02
972=-2.113175e-01
973=-7.144858e-02
974=3.822669e-01
975=1.271399e-02
977=4.989425e-02
978=-7.481320e-01
980=8.925458e-02
982=1.859602e-03
983=-6.461354e-01
984=6.325901e-04
985=-2.897862e-02
987=-1.841658e-02
988=5.657832e-01
989=-8.300827e-02
990=5.388071e-01
992=-7.022021e-02
993=2.571945e-01
994=-1.725043e-02
995=3.610002e-04
997=-5.940690e-03
1000=1.087341e-03
1002=-7.713954e-02
1005=3.776047e-01
1007=-8.607233e-02
1008=3.104732e-02
1009=-5.904401e-02
1010=4.182868e-01
1012=-3.741229e-01
1013=-1.962351e+00
1014=2.742375e-01
1015=6.653325e-03
1017=2.308245e-01
1018=-2.993226e+00
1019=2.392748e-02
1020=8.014404e-02
1022=-2.615386e-02
1023=8.675103e-02
1024=-2.195977e-02
1025=-6.919174e-03
1027=2.400263e-01
1028=-9.307520e-01
1029=1.808943e-02
1030=-7.785956e-01
1032=-3.594204e-02
1033=6.050341e-01
1034=-7.537458e-02
1035=-9.751642e-03
1037=4.028268e-01
1038=-1.743550e+00
1039=-3.238599e-03
1040=-2.243494e-02
1042=-1.153878e-02
1044=3.035427e-01
1045=5.707534e-01
1048=-7.465963e-01
1049=-1.507183e-02
1050=-1.341894e-02
1052=-1.085216e-01
1053=2.444566e-01
1054=2.477707e-01
1055=4.821674e-03
1057=3.561252e-01
1058=-1.843312e+00
1059=-6.855592e-03
1060=-1.902109e-03
1062=1.673039e-01
1063=-2.475257e+00
1064=-2.333459e-02
1065=-5.368622e-03
1067=3.032730e-01
1068=-1.032404e+00
1069=-1.261792e-02
1070=-7.184143e-01
1072=-1.736401e-01
1073=4.139485e-01
1074=2.395785e-03
1075=5.966611e-01
1077=-1.683922e-01
1078=-1.021427e-01
1079=3.945331e-02
1080=4.268661e-01
1082=-7.787675e-03
1083=-3.296111e-02
1084=-6.808037e-01
1085=1.357644e-01
1087=-1.417469e-01
1088=1.939246e-01
1089=-1.759129e-02
1090=4.929353e-01
1092=-5.400204e-01
1093=5.181114e-02
1094=8.181019e-01
1095=-6.667500e-02
1097=-1.597550e-02
1098=1.052204e-01
1099=1.117926e-01
1100=1.066227e-01
1101=4.494652e-01
1102=8.255963e-02
1103=-4.340833e-02
1110=-1.502478e+00
1111=1.728218e-01
1112=1.104789e-01
1113=-2.303689e-02
1114=-3.856281e-01
1115=-3.898134e-01
1116=-3.710438e-02
1117=-5.529100e-01
1118=2.714581e-01
1119=-6.850917e-01
1121=-7.266724e-01
1122=-1.227736e+00
1123=-7.494077e-02
1124=7.692015e-01
1125=-1.909341e-01
1127=2.876547e-02
1129=7.821841e-02
1130=1.067357e-01
1132=-4.498805e-02
1133=7.706337e-01
1134=-3.870883e-01
1137=1.563577e-01
1138=-4.523312e-01
1140=-9.807404e-01
1142=3.497727e-02
1143=7.189494e-01
1144=-4.138548e-01
1147=1.618095e-01
1148=-6.253147e-02
1150=-1.257141e+00
1152=9.576117e-02
1153=-1.421706e-01
1154=-3.367673e-03
1155=2.982164e-02
1156=-1.319028e+00
1157=-3.523882e-02
1158=-3.469252e-03
1159=4.129749e-01
1160=1.221527e-02
1162=3.761878e-02
1163=-9.828390e-02
1164=-5.221418e-02
1165=-1.491940e-02
1167=1.865716e-02
1168=7.519319e-02
1169=-3.103348e-02
1170=-2.362358e+00
1172=-2.306718e-01
1173=1.207802e-02
1174=4.450093e-01
1175=-3.858706e+00
1176=-2.323886e-02
1177=-9.120648e-01
1178=3.798928e+00
1179=-1.154536e+00
1180=-1.092338e-01
1182=8.257713e-01
1183=-1.239317e+00
1187=2.185261e+00
1188=-3.232766e-01
1197=7.321445e-01
1202=2.074633e+00
1207=-2.897535e-01
1215=-6.787045e-02
1217=9.933536e-02
1218=5.523256e-03
1219=-4.051076e-03
1221=-2.320022e-01
1222=-1.771513e+00
1230=-5.443153e-01
1231=1.710297e-02
1232=3.341358e-01
1233=-1.438702e+00
1235=-7.538409e-02
1236=1.926313e-01
1237=3.291567e-01
1238=2.405705e-01
1241=-7.486496e-01
1245=-1.251071e+00
1246=-8.150646e-01
1247=1.998236e-02
1248=-2.410843e+00
1249=6.559289e-01
1250=-6.879798e-03
1252=1.208045e-01
1253=-1.680280e-01
1254=-5.007758e-03
1255=5.334100e-01
1256=-1.371690e+00
1257=-1.436370e-01
1258=6.971821e-02
1259=-1.597490e-02
1260=7.830401e-05
1262=-8.241531e-03
1263=-1.384456e-01
1264=5.824104e-02
1265=-9.705070e-04
1267=1.038979e-01
1268=-1.954569e-01
1269=1.819500e-02
1270=-1.791681e+00
1272=-3.367655e-01
1273=1.211286e+00
1274=3.503429e-01
1275=-2.506669e-01
1277=4.893683e-01
1278=-4.453754e-03
1280=2.952612e-02
1282=-2.892785e-03
1283=4.368297e-01
1284=-6.225495e-01
1285=-6.456518e-05
1287=1.719524e-02
1289=1.223683e-03
1290=-1.611145e-01
1292=-1.092079e-01
1293=1.857721e-01
1294=1.057419e-01
1295=2.075405e-02
1296=-8.609527e-01
1297=-1.344776e-02
1306=9.870233e-02
1307=1.609690e-01
1308=9.104547e-02
1311=-1.480052e+00
1312=-2.453733e+00
1313=-3.613996e-02
1316=3.907850e-01
1319=5.243909e-01
1322=2.128910e-02
1323=3.403241e-01
1324=-3.961815e-04
1325=-1.018502e+00
1327=1.865352e-02
1328=-1.175129e+00
1329=3.874883e-01
1330=-3.197009e-02
1332=4.107667e-03
1333=-2.590182e-01
1334=5.841841e-02
1335=-7.569907e-02
1337=1.120143e-01
1338=-2.964209e-01
1339=-3.823875e-03
1340=-1.105791e+00
1342=3.743014e-03
1343=-9.562345e-03
1344=1.708355e-01
1347=-6.113085e-03
1348=4.479792e-03
1350=2.988894e-04
1351=1.380364e-02
1361=-7.956690e-02
1362=6.093985e-01
1363=2.215475e-01
1366=-1.757088e+00
1367=-1.427603e+00
1371=1.424097e+00
1375=-8.463398e-03
1377=-1.245923e-01
1378=5.585090e-02
1379=1.704113e-01
1380=-9.759962e-02
1382=-2.810879e-02
1383=1.302496e-01
1384=2.411859e-02
1385=-1.155709e-01
1387=1.293996e-02
1388=-8.142350e-01
1389=9.575886e-02
1390=-7.054199e-01
1392=2.349927e-01
1393=-2.299337e+00
1394=2.872586e-02
1395=2.599933e-02
1397=-2.739153e-02
1399=1.124941e-01
1402=1.804085e-02
1405=-1.547812e-01
1407=1.904413e-01
1408=-1.949940e-02
1409=-6.040421e-03
1410=2.552397e-03
1412=1.329090e-03
1413=5.079894e-01
1414=-1.175622e+00
1415=-1.344714e-02
1417=-6.521094e-03
1418=1.769437e-02
1419=1.053186e-02
1420=-9.945679e-02
1422=-1.019285e-02
1423=-1.685076e-01
1424=3.812434e-02
1425=1.482631e-01
1427=-4.477617e-01
1429=3.163659e-01
1430=5.544938e-01
1441=1.744775e-01
1442=-6.964225e-04
1454=4.008737e-01
1457=-2.424192e-02
1459=3.570152e-03
1460=1.368004e+00
1462=-2.953761e-02
1463=-1.531052e-01
1464=-1.756937e-02
1465=-2.120274e+00
1467=9.793941e-01
1468=8.993653e-01
1469=-1.042016e-01
1470=-1.203017e+00
1472=-3.389307e-02
1473=8.879269e-01
1474=3.703162e-02
1475=-7.063513e-01
1477=3.836914e-02
1478=1.191860e-01
1479=3.754367e-02
1480=1.420971e-03
1482=-2.762068e-01
1483=5.112670e-01
1484=2.126768e-01
1485=1.088539e-01
1487=8.220364e-02
1495=-6.079193e-02
1497=-5.580737e-02
1498=-3.405984e+00
1503=3.249627e+00
1509=4.071120e-01
1510=-1.019553e+00
1512=4.006928e-01
1513=-5.883478e-01
1514=5.618006e-03
1515=-1.207639e-02
1516=-1.577514e-02
1517=4.906009e-01
1518=-7.564883e-02
1519=1.068346e-01
1520=9.661165e-01
1522=-4.458945e+00
1525=-3.905896e+00
1527=2.292883e-02
1528=3.047205e-01
1529=-7.453864e-01
1530=-7.945415e-01
1532=5.655364e-01
1533=-6.391273e+00
1535=-2.808990e+00
1537=-5.063410e-01
1538=1.265741e-01
1539=-7.984094e-04
1542=-7.323281e-03
1544=7.438137e-01
1547=-7.857408e-03
1549=1.173116e-02
1550=-2.024253e-02
1551=-1.146173e+00
1552=-1.570206e-01
1553=4.285541e-01
1554=7.779073e-02
1555=6.156773e-01
1557=1.562086e-01
1558=-2.384147e+00
1559=1.095571e-03
1560=6.935152e-01
1563=-6.782401e-01
1566=2.635892e-01
1575=3.119149e-03
1576=-9.155918e-01
1577=8.484525e-01
1578=-2.162410e-01
1580=1.196487e-02
1581=3.894958e-01
1582=-1.645299e-01
1583=-7.225196e-01
1586=1.018151e-01
1590=-4.243723e-01
1592=5.883033e-02
1593=-2.022920e-02
1594=2.023645e-02
1595=-3.492603e-01
1597=9.292584e-01
1598=-2.378842e-01
1599=-8.290331e-06
1600=-2.278431e-01
1602=6.292282e-02
1603=1.926726e-01
1604=-7.645791e-01
1605=1.088569e-01
1607=-4.280885e-02
1608=1.922114e-01
1609=-2.738358e-02
1610=2.307484e-01
1612=2.981449e-02
1613=-6.495918e-02
1614=8.756059e-03
1615=3.210413e-02
1617=-2.768676e-01
1618=-2.774426e-02
1619=2.924607e-03
1620=-2.319411e+00
1622=1.944923e-03
1623=8.640151e-01
1624=-6.417997e-01
1625=2.738509e-01
1627=-1.392440e-01
1628=3.875123e-02
1629=3.648732e-02
1630=7.632427e-01
1632=-2.638244e-02
1633=7.403471e-01
1634=-5.159536e-02
1635=1.579772e-01
1637=8.396078e-02
1638=-1.334108e-02
1639=-7.668774e-02
1640=-2.653796e-01
1642=4.630414e-01
1643=-1.279194e-01
1644=-1.598359e-03
1645=-3.315665e+00
1647=3.761754e-01
1648=4.033062e-02
1649=-1.887929e-03
1650=-3.493345e-02
1652=-7.923975e-02
1653=2.421550e-01
1654=-1.334175e-05
1655=-1.243871e-01
1657=2.808273e-02
1658=-2.231364e-01
1659=3.258939e-02
1662=3.114419e+00
1663=-6.554418e-01
1665=-1.324723e+00
1667=1.449571e-01
1668=-1.055132e+00
1669=8.508397e-02
1670=-1.073025e-01
1672=3.024575e-01
1673=-6.588343e-01
1674=-8.776143e-03
1675=-2.342038e-01
1677=1.141880e+00
1678=-1.475160e+00
1679=6.293109e-04
1680=-2.416795e-01
1682=3.960071e-03
1683=-5.675124e-01
1684=9.259545e-02
1685=-1.825012e-02
1687=2.155020e-03
1688=2.172445e-01
1689=3.148304e-02
1690=-2.202634e+00
1692=1.041336e+00
1693=-3.519902e+00
1694=2.082448e-02
1695=-2.152209e+00
1697=-1.462700e-02
1698=1.289407e+00
1699=-2.445151e-02
1700=2.686128e-04
1702=-1.659806e-01
1703=8.726474e-01
1704=1.409336e-03
1705=-2.172260e+00
1707=6.581763e-01
1709=-1.427309e-03
1710=7.681200e-01
1712=-9.831779e-01
1713=8.036876e-02
1714=-5.133465e-03
1717=-9.870535e-06
1719=1.084604e-02
1722=-4.268192e-02
1723=1.395810e-01
1727=-1.906803e-01
1728=2.189458e-01
1729=1.202300e-05
1730=-2.574869e-01
1732=1.376185e+00
1733=-3.428423e-01
1735=-4.084765e-01
1737=2.602635e-03
1739=2.183151e-02
1742=8.823942e-04
1744=2.490048e-01
1745=-2.694499e-01
1747=6.478103e-01
1748=-2.073415e+00
1749=1.997433e-02
1750=6.355462e-02
1752=-5.256702e-03
1753=-2.860027e+00
1754=5.896816e-01
1755=-3.855394e-01
1757=7.264263e-01
1758=-1.849340e-01
1759=-1.784155e-03
1760=-1.481476e+00
1762=-1.856509e-02
1763=6.734816e-02
1764=1.758237e-01
1765=3.520025e-01
1767=-5.649552e-01
1768=4.758973e-02
1769=5.378928e-01
1770=-1.279299e+00
1772=-6.252718e-02
1773=1.094114e-01
1774=2.355831e-02
1777=-1.984211e-01
1778=-1.196082e+00
1779=5.910713e-01
1780=-2.349949e+00
1782=5.318028e-01
1783=-5.044541e-01
1784=3.775648e-02
1785=-1.548040e+00
1787=6.823169e-02
1788=-1.731335e+00
1789=7.420676e-02
1790=-2.441928e+00
1792=1.000168e+00
1793=-2.819537e+00
1794=2.283657e-02
1795=-1.752086e-01
1797=1.426314e-01
1798=-8.020361e-01
1799=3.612942e-01
1800=5.091318e-01
1802=-8.719804e-01
1803=1.575056e-01
1804=-4.361624e-01
1805=2.381921e-06
1807=-4.832006e-01
1808=6.062913e-01
1809=-3.301803e-01
1810=3.672999e+00
1812=-2.445657e+00
1813=-1.066007e+00
1815=-1.443222e+00
1817=5.631140e-02
1818=-3.402862e-01
1819=3.356848e-02
1820=-4.248153e-01
1822=8.812475e-02
1823=-2.312127e-02
1824=9.023522e-03
1825=-1.972776e-01
1827=7.108327e-02
1829=2.954103e-02
1830=-9.015825e-01
1832=1.264832e+00
1833=-1.806939e+00
1834=8.877120e-02
1835=-3.943977e-02
1837=4.000679e-01
1838=-1.683705e+00
1839=-1.363297e-01
1842=-1.044592e+00
1847=7.633840e-02
1849=-2.227311e-01
1852=7.803397e-01
1864=2.748391e-02
1867=6.220608e-04
1869=5.288617e-02
1870=-1.537126e-01
1872=4.296302e-02
1873=-7.125212e-01
1874=1.274765e-01
1875=-2.268886e+00
1877=-2.053619e-02
1878=1.641435e+00
1879=-5.258340e-03
1882=1.470741e-02
1883=-6.811166e-01
1884=2.978408e-02
1885=-3.558255e-01
1887=2.178030e+00
1888=-1.467109e+00
1892=2.226063e-02
1893=-1.184177e-02
1896=-1.192161e-01
1906=1.098301e-02
1907=4.474952e-01
1908=1.086615e-03
1922=5.604709e-02
1925=-3.001125e+00
1927=3.163291e-01
1928=-6.792774e-01
1929=3.931558e-02
1930=-8.361794e-01
1932=1.033679e-01
1933=-1.258888e+00
1934=7.093511e-01
1935=-2.482222e+00
1937=4.707405e-01
1938=-2.052157e-01
1939=1.763327e-01
1940=-1.156216e+00
1942=1.881855e-01
1943=-1.329256e+00
1944=4.919539e-02
1945=-1.737786e+00
1947=-9.865195e-04
1948=-1.179868e+00
1949=2.301661e-01
1950=-1.355370e+00
1952=2.043849e-01
1953=-1.842347e-01
1954=3.426955e-02
1955=-1.759277e+00
1957=-1.837286e-03
1958=-2.676855e-04
1959=7.165085e-02
1960=-3.844867e-01
1962=7.287968e-02
1963=-2.268357e-01
1964=9.249009e-02
1965=-3.842520e-01
1967=4.854070e-01
1968=-3.309503e-01
1969=2.809093e-02
1970=-1.914437e+00
1972=1.318704e+00
1973=-7.617377e-01
1974=1.771346e-02
1975=4.512623e-01
1977=3.347114e-02
1978=-3.129128e+00
1979=-2.711206e-02
1980=4.328786e-03
1982=-4.809025e-02
1983=6.787946e-02
1984=-1.470726e-02
1985=-3.950795e-01
1987=1.803122e-01
1988=2.018731e-03
1989=-3.252846e-03
1990=2.763379e-01
1992=-3.052557e-01
1994=5.254537e-02
1995=1.328086e-01
1997=1.150284e+00
1998=-5.416122e-01
1999=-7.619067e-04
2000=1.521279e+00
2002=-1.530506e-01
2003=-1.108462e+00
2004=-1.122562e-04
2005=-3.927858e-02
2007=8.105158e-03
2008=-2.413168e-02
2009=2.805002e-02
2010=8.499687e-01
2012=5.763336e-03
2013=-7.743690e-02
2014=-6.083926e-03
2015=-2.634808e-01
2017=3.993932e-02
2018=5.857638e-02
2022=2.558958e-02
2023=-1.828068e-01
2024=-1.782289e-03
2027=-3.523286e-02
2029=2.009446e-03
2030=6.011244e-01
2032=-7.306890e-03
2033=-2.156719e+00
2035=-2.971636e-02
2037=1.052696e-01
2038=-1.083316e-02
2039=-1.450430e-02
2040=1.129788e+00
2042=1.216347e-01
2043=-8.632966e-01
2045=1.112522e+00
2047=-2.320963e-02
2049=-1.793055e-02
2050=-4.355348e-01
2052=1.418736e-02
2053=-9.799074e-03
2054=-1.188130e-03
2057=1.894459e+00
2058=-2.326091e-01
2060=-5.332497e-02
2062=-3.965392e-01
2063=2.082793e+00
2064=-2.387527e-01
2065=3.354668e-01
2066=-1.209418e+00
2067=-7.481355e-02
2068=4.908849e-02
2069=-8.813181e-03
2072=-3.759566e-01
2075=6.734767e-01
2077=-2.510852e-01
2078=-5.359842e-01
2079=-4.688098e-01
2082=2.048287e-01
2083=6.728615e-01
2085=-1.346021e-03
2087=7.545370e-02
2088=-2.249534e-01
2089=2.739874e-03
2094=2.044654e-01
2097=4.664417e-01
2098=-8.619052e-01
2099=2.211417e-01
2100=2.430508e-03
2102=-1.926524e-02
2103=1.901976e-01
2104=6.170203e-03
2107=3.177403e-02
2108=-4.461026e-06
2110=6.103693e-01
2112=3.560387e-03
2113=-1.101011e+00
2114=-1.123820e-02
2117=1.999814e-03
2122=5.509421e-01
2125=-1.547821e-01
2127=7.131216e-01
2132=-1.492465e+00
2133=2.401348e+00
2135=1.510113e-01
2137=-3.776544e-02
2138=-1.921513e+00
2139=3.304581e-03
2140=1.126888e-01
2142=8.283620e-02
2143=-2.470845e+00
2144=-1.151801e-03
2145=-1.295254e-01
2147=2.886340e-01
2148=-1.838967e+00
2149=5.988645e-02
2150=2.175344e-01
2152=2.116568e-01
2153=-1.339981e-02
2154=-9.527506e-01
2157=2.656711e-01
2160=-8.527687e-01
2162=5.325984e-01
2164=1.861819e-03
2165=4.457508e-03
2167=-2.674841e-01
2168=5.264396e-01
2169=-1.344169e+00
2170=2.364121e-01
2172=-1.734392e-01
2174=-7.553301e-01
2177=1.274053e-01
2180=8.533363e-04
2182=-1.918124e+00
2183=1.177882e+00
2185=-2.905166e-02
2187=-2.047801e-02
2188=5.030186e-01
2189=-2.030489e-01
2190=-1.355116e-02
2192=2.960680e-02
2197=1.075710e-02
2199=-1.961227e-02
2202=-1.529218e+00
2203=3.101963e+00
2207=6.252330e-02
2208=-5.244253e-06
2212=7.126029e-01
2213=-1.667516e-03
2215=7.745436e-02
2217=-3.681597e-02
2218=-7.379549e-03
2222=1.677524e-02
2224=-5.511248e-04
2225=-8.842294e-01
2227=2.997804e-01
2228=-2.275079e-07
2229=1.208635e-02
2230=-1.009048e-05
2232=1.859020e-01
2234=-9.556468e-03
2237=-1.176116e-02
2238=5.493064e-01
2239=-4.078277e-02
2240=-3.156863e-02
2242=-4.334403e-02
2243=7.848581e-01
2244=-3.784762e-02
2247=1.449498e-01
2248=-5.016989e-02
2250=-2.268653e-01
2252=-8.199301e-03
2253=1.002457e+00
2254=-7.527735e-01
2257=-9.691665e-02
2258=1.362798e+00
2260=-1.535018e+00
2262=-3.940554e-02
2263=5.776920e-01
2265=-2.727895e-02
2267=-1.365888e-02
2268=3.921720e-01
2269=-1.822890e-01
2270=1.003459e-01
2272=5.385495e-03
2273=-3.737101e+00
2277=8.452585e-02
2282=-4.533122e-02
2283=1.815728e-01
2287=1.608318e+00
2289=-2.567478e-02
2290=-1.706019e-05
2292=1.615378e-01
2293=-3.413312e+00
2294=-4.618067e-03
2295=-2.407851e-01
2297=-3.732227e-02
2298=1.454617e+00
2299=-7.107154e-01
2300=-1.124152e+00
2302=1.741223e-01
2303=-1.177189e-01
2304=8.208483e-04
2307=2.895083e-02
2310=7.211224e-01
2312=1.030888e-03
2313=-9.569231e-01
2314=-1.237623e-04
2317=5.279588e-02
2319=-3.416459e-02
2320=2.973729e-02
2322=5.601711e-02
2323=3.768807e-02
2324=-1.551670e-01
2325=-2.234199e+00
2327=2.147423e-03
2328=1.637291e-01
2329=-4.705409e-03
2330=-1.676197e+00
2332=4.091024e-01
2333=-4.061651e-02
2335=-4.653354e-03
2337=3.643145e-01
2338=-1.190391e+00
2339=2.263031e-02
2340=-2.805781e+00
2342=1.911878e-01
2343=-1.360263e-03
2344=4.943599e-03
2345=2.795161e-01
2347=2.912650e-04
2348=-1.396555e-02
2349=-5.301432e-03
2350=-2.641083e+00
2352=3.688118e-01
2353=-1.411827e+00
2354=9.624802e-02
2357=-1.684458e+00
2359=3.002216e+00
2362=-5.966097e-01
2364=6.768206e-01
2367=-1.152050e-01
2368=4.609707e-01
2372=1.953908e+00
2373=-9.446426e-01
2374=-4.756151e-04
2377=3.132834e-01
2380=2.300156e-03
2382=-2.028758e-02
2395=5.972434e-03
2397=-7.574336e-05
2410=-1.155233e-01
2412=6.645855e-02
2413=-7.365258e-03
2415=-1.956212e-02
2418=1.708653e-01
2422=6.858461e-02
2427=4.748649e-01
2428=-8.504702e-01
2430=1.105086e-01
2432=-3.493945e-02
2435=2.659050e-01
2437=-3.889539e-01
2440=-6.195112e-01
2442=-3.384780e-01
2444=3.994961e-01
2445=-1.009646e+00
2447=-4.969404e-01
2449=5.848220e-01
2450=2.860049e-03
2452=-8.373042e-02
2457=-4.588830e-01
2458=-5.013361e-01
2459=8.835519e-01
2462=3.085221e-02
2464=1.006624e-01
2465=-1.559089e+00
2467=-5.737040e-01
2469=1.697594e+00
2470=1.351646e+00
2472=-1.051679e+00
2473=6.538216e-01
2474=-1.856068e-01
2475=3.381232e-01
2477=-7.279960e-02
2478=-3.630539e-01
2479=4.900515e-01
2480=-1.235600e-01
2482=1.558796e+00
2483=-4.618800e-02
2487=8.315044e-01
2488=-2.602991e-01
2492=1.106971e-01
2495=1.244930e-01
2497=-5.302498e-03
2499=-6.308245e-04
2502=5.489343e-01
2503=-5.673702e-01
2505=-2.823653e+00
2507=1.015454e-01
2510=1.305604e-01
2512=-3.625399e-02
2513=5.191835e-02
2514=-5.227802e-02
2517=-5.961047e-03
2518=3.140598e-05
2520=-1.767564e-01
2522=1.043846e-01
2524=-8.950793e-03
2525=-8.054762e-01
2527=1.245200e+00
2528=-1.614587e+00
2529=1.994022e-02
2530=-7.505618e-01
2532=8.315697e-02
2533=-7.451128e-01
2534=4.365559e-02
2537=3.744894e-02
2542=8.453552e-02
2544=-2.420198e-04
2545=-7.411051e-01
2547=-7.997523e-02
2548=8.218904e-01
2550=-1.606799e+00
2552=5.118702e-01
2553=-7.238683e-01
2554=2.097326e-02
2559=-8.350318e-03
2560=1.534684e-01
2562=2.123068e-02
2563=-1.352515e+00
2565=2.857325e-01
2567=-1.132797e-01
2568=-6.238131e-01
2570=1.010163e-01
2572=-6.702702e-03
2574=2.324738e-02
2575=2.074817e-03
2580=6.755829e-01
2582=-1.853305e-02
2583=-4.700330e-02
2584=-4.881266e-01
2585=-2.507577e-03
2587=6.700375e-02
2588=1.857905e-02
2589=-1.705612e-01
2590=-1.258980e-01
2591=-5.440237e-02
2592=1.134352e-01
2593=-9.181766e-03
2594=-3.514893e-05
2597=-4.355599e-01
2599=5.052411e-01
2602=-1.712779e-01
2604=1.162635e+00
2605=-2.978644e-02
2607=1.535684e+00
2608=-1.334399e+00
2612=-2.511643e+00
2622=3.405685e-01
2627=5.101176e-01
2629=-3.832450e-03
2637=-4.173331e-03
2639=7.774047e-04
2642=-1.967066e-01
2643=3.185097e-02
2644=1.077937e-01
2647=6.684277e-02
2649=-9.493945e-04
2650=-8.826756e-01
2652=2.152711e-01
2653=-2.025307e-01
2654=9.616684e-03
2655=-3.127257e-01
2657=1.033176e+00
2662=-3.154965e-01
2667=5.573597e-01
2672=1.498245e+00
2684=3.280999e-02
2685=-1.233187e-01
2687=2.297595e-02
2692=-3.409638e-02
2693=-2.712458e-03
2694=1.556517e-01
2697=1.951236e+00
2707=6.598505e-01
2727=-1.733842e+00
2729=2.081649e+00
2732=-1.026773e+00
2734=1.693708e+00
2735=-2.198308e-01
2737=4.827143e-01
2738=-1.717070e+00
2739=8.711957e-03
2740=-1.821273e-02
2742=1.673285e-01
2747=-5.794350e-02
2748=5.722222e-01
2749=-1.674062e-01
2750=1.436587e-02
2752=-4.421450e-02
2753=8.541411e-02
2754=2.441549e-01
2757=-7.109501e-04
2759=1.400154e-02
2764=3.551066e-02
2765=-1.707459e-01
2767=1.801405e+00
2772=1.015095e-01
2775=4.364985e-01
2777=8.385123e-02
2778=-8.310945e-02
2779=-6.205364e-01
2780=-1.207671e-01
2782=6.191714e-01
2785=-1.925903e-02
2787=5.044032e-02
2788=-3.215970e-03
2789=-7.350056e-02
2790=-2.403434e-02
2792=4.101115e-02
2793=4.689748e-02
2794=-1.218565e-01
2795=2.311662e-02
2797=2.239861e-02
2798=-6.220485e-02
2799=-7.066627e-02
2816=6.945354e-03
2830=-1.255293e-03
2832=1.501834e-02
2835=4.312058e-02
2837=-1.630699e-01
2840=-2.135597e-01
2841=-1.481741e-02
2842=2.904330e-03
2843=-2.314188e-01
2844=3.622982e-01
2845=3.849897e-03
2847=5.635690e-02
2849=-2.177490e-01
2852=-2.221702e-01
2854=2.572183e+00
2857=-1.236594e-02
2859=1.899020e+00
2862=8.392344e-02
2864=-1.622739e-02
2869=7.659733e-03
2872=-1.031280e-02
2874=4.940446e-04
2875=-7.000840e-02
2877=9.392050e-02
2879=1.069984e-02
2882=1.297571e+00
2883=-1.004877e-02
2884=-3.828211e-03
2885=1.170377e-01
2887=2.744336e-02
2889=-1.361947e-01
2894=3.149229e-02
2895=4.728990e-02
2897=-7.907976e-01
2899=2.132483e-02
2902=-5.157099e-01
2903=-5.152608e-01
2904=7.615055e-01
2905=-8.659076e-01
2907=1.965483e+00
2910=-2.895280e-02
2914=5.261715e-01
2919=1.090117e-01
2920=-3.219913e-03
2922=-7.763402e-03
2923=3.735139e-02
2925=-1.797652e+00
2929=9.652516e-01
2932=5.960818e-03
2933=-2.336409e-01
2934=2.099173e-02
2935=-3.498914e-03
2938=2.716344e-01
2940=-1.786231e-04
2942=-8.593074e-01
2943=1.649707e+00
2945=-9.839601e-01
2949=8.398382e-01
2955=-8.486512e-01
2959=1.138105e+00
2975=-4.624161e-04
2978=1.684917e-02
3007=4.312711e-02
3012=4.888282e-01
3017=1.592519e-01
3019=-6.132407e-04
3022=8.307129e-04
3024=-1.074949e-03
3027=1.933529e-03
3032=1.184368e+00
3042=3.405945e-03
3047=4.840045e-01
3062=-1.577159e-01
3063=1.870415e-01
3065=-3.821516e-03
3067=2.248430e-01
3072=6.543671e-03
3075=-9.136571e-01
3079=1.128951e+00
3082=-3.755555e-03
3084=9.971192e-03
3089=9.902436e-03
3092=-7.535443e-01
3093=1.147710e+00
3097=1.671373e-01
3099=-9.006623e-02
3102=-6.445329e-01
3103=3.130136e+00
3105=-1.273197e+00
3107=-1.470913e-01
3108=3.798640e-01
3112=-1.911450e+00
3113=6.707669e-01
3118=-6.258141e-02
3126=7.161006e-03
3131=-3.643403e-01
3136=5.489593e-01
3145=-2.654742e-01
3147=4.084223e-01
3148=-4.270544e-02
3151=-5.579108e-02
3155=-1.794946e-01
3156=2.042662e-04
3157=3.017955e-01
3158=3.029526e-03
3161=-2.458495e-01
3162=3.498077e-01
3163=-6.042166e-01
3166=1.027805e+00
3178=-4.225920e-04
3182=1.436505e+00
3183=-8.420067e-01
3185=-1.760318e-01
3187=8.190747e-01
3188=-8.252282e-01
3190=-1.198200e-01
3192=-2.433262e-01
3193=1.537820e+00
3197=3.252474e-02
