#mdl#2#2595
#rdr#56/29/0
1:*,
17:u:Ln-1 X=%x[ 0,1],
17:u:Ln-1 X=%x[ 0,2],
17:u:Ln-1 X=%x[ 0,3],
17:u:Ln-1 X=%x[ 0,4],
17:u:Ln-1 X=%x[ 0,5],
17:u:Ln-1 X=%x[ 0,6],
17:u:Ln-1 X=%x[ 0,7],
18:*:Fst-1 X=%x[ 0,8],
18:u:Fst-1 R=%x[ 1,8],
18:*:Lst-1 L=%x[-1,9],
18:u:Lst-1 X=%x[ 0,9],
27:u:Fst-2 L=%x[-1,9]/%x[ 0,8],
27:u:Lst-2 R=%x[ 0,9]/%x[ 1,8],
19:u:Wrd-1 X=%x[ 0,10],
29:u:Wrd-2 X=%x[-1,10]/%x[ 1,10],
19:u:Avg-1 X=%x[ 0,11],
19:u:Med-1 X=%x[ 0,12],
19:u:Spc-1 X=%x[ 0,13],
19:u:Fwd-2 X=%x[ 0,14],
19:u:Fwd-2 R=%x[ 1,14],
19:u:Num-1 X=%x[ 0,15],
19:u:Ttl-1 X=%x[ 0,16],
19:u:Nme-1 L=%x[-1,17],
19:u:Nme-1 X=%x[ 0,17],
19:u:Loc-1 X=%x[ 0,18],
19:u:Loc-1 R=%x[ 1,18],
19:u:Loc-1RR=%x[ 2,18],
19:u:Pub-1 X=%x[ 0,19],
19:u:Pub-1 R=%x[ 1,19],
19:u:Pub-1RR=%x[ 2,19],
19:u:Jnl-1 X=%x[ 0,20],
19:u:Jnl-1 R=%x[ 1,20],
19:u:Idt-1 X=%x[ 0,21],
19:*:Idt-2 X=%x[ 0,22],
29:*:Idt-2 L=%x[-1,22]/%x[ 0,22],
19:u:Ref-1LL=%x[-2,23],
19:u:Ref-1 L=%x[-1,23],
19:u:Ref-1 X=%x[ 0,23],
19:u:Ref-1 R=%x[ 1,23],
19:u:Ref-1RR=%x[ 2,23],
19:u:Ref-2LL=%x[-2,24],
19:u:Ref-2 L=%x[-1,24],
19:u:Ref-2 X=%x[ 0,24],
19:u:Ref-2 R=%x[ 1,24],
19:u:Ref-2RR=%x[ 2,24],
19:u:Ref-3 L=%x[-1,25],
19:u:Ref-3 X=%x[ 0,25],
19:u:Ref-4 L=%x[-1,26],
19:u:Ref-4 X=%x[ 0,26],
19:u:Ref-4 R=%x[ 1,26],
19:u:Ref-4RR=%x[ 2,26],
19:u:Ref-5 L=%x[-1,27],
19:u:Ref-5 X=%x[ 0,27],
19:u:Pos-1 X=%x[ 0,28],
19:u:Pag-1 X=%x[ 0,29],
#qrk#5
5:title,
5:blank,
4:text,
4:meta,
3:ref,
#qrk#721
1:*,
11:u:Ln-1 X=33,
11:u:Ln-1 X=43,
10:u:Ln-1 X=1,
10:u:Ln-1 X=8,
10:u:Ln-1 X=2,
10:u:Ln-1 X=0,
10:u:Ln-1 X=4,
12:*:Fst-1 X=Lu,
12:u:Fst-1 R=Ll,
14:*:Lst-1 L=_x-1,
12:u:Lst-1 X=Ll,
17:u:Fst-2 L=_x-1/Lu,
15:u:Lst-2 R=Ll/Ll,
11:u:Wrd-1 X=4,
11:u:Avg-1 X=8,
11:u:Med-1 X=9,
11:u:Spc-1 X=0,
15:u:Fwd-2 X=alpha,
15:u:Fwd-2 R=alpha,
11:u:Num-1 X=0,
11:u:Ttl-1 X=0,
14:u:Nme-1 L=_x-1,
11:u:Nme-1 X=0,
11:u:Loc-1 X=0,
11:u:Loc-1 R=0,
11:u:Loc-1RR=0,
11:u:Pub-1 X=3,
11:u:Pub-1 R=2,
11:u:Pub-1RR=4,
11:u:Jnl-1 X=8,
11:u:Jnl-1 R=6,
11:u:Idt-1 X=T,
11:*:Idt-2 X=+,
16:*:Idt-2 L=_x-1/+,
14:u:Ref-1LL=_x-2,
14:u:Ref-1 L=_x-1,
11:u:Ref-1 X=-,
11:u:Ref-1 R=-,
11:u:Ref-1RR=-,
14:u:Ref-2LL=_x-2,
14:u:Ref-2 L=_x-1,
11:u:Ref-2 X=-,
11:u:Ref-2 R=-,
11:u:Ref-2RR=-,
14:u:Ref-3 L=_x-1,
11:u:Ref-3 X=-,
14:u:Ref-4 L=_x-1,
11:u:Ref-4 X=-,
11:u:Ref-4 R=-,
11:u:Ref-4RR=-,
14:u:Ref-5 L=_x-1,
11:u:Ref-5 X=F,
15:u:Pos-1 X=first,
15:u:Pag-1 X=first,
11:u:Ln-1 X=37,
11:u:Ln-1 X=48,
10:u:Ln-1 X=5,
12:*:Fst-1 X=Ll,
12:*:Lst-1 L=Ll,
15:u:Fst-2 L=Ll/Ll,
11:u:Wrd-1 X=5,
11:u:Avg-1 X=7,
12:u:Med-1 X=10,
11:u:Nme-1 L=0,
11:u:Pub-1 X=2,
11:u:Pub-1 R=4,
11:u:Pub-1RR=0,
11:u:Jnl-1 X=6,
11:u:Jnl-1 R=8,
11:*:Idt-2 X==,
13:*:Idt-2 L=+/=,
14:u:Ref-1LL=_x-1,
11:u:Ref-1 L=-,
14:u:Ref-2LL=_x-1,
11:u:Ref-2 L=-,
11:u:Ref-3 L=-,
11:u:Ref-4 L=-,
11:u:Ref-5 L=F,
11:u:Pos-1 X=0,
11:u:Ln-1 X=24,
11:u:Ln-1 X=34,
10:u:Ln-1 X=7,
10:u:Ln-1 X=3,
14:u:Fst-1 R=none,
17:u:Lst-2 R=Ll/none,
13:u:Wrd-2 X=5/0,
11:u:Avg-1 X=4,
11:u:Med-1 X=3,
14:u:Fwd-2 R=none,
11:u:Pub-1 X=4,
11:u:Pub-1 R=0,
11:u:Jnl-1 R=0,
13:*:Idt-2 L==/=,
11:u:Ref-1LL=-,
11:u:Ref-2LL=-,
11:u:Pos-1 X=1,
14:*:Fst-1 X=none,
12:u:Fst-1 R=Lu,
14:u:Lst-1 X=none,
11:u:Wrd-1 X=0,
13:u:Wrd-2 X=5/2,
11:u:Avg-1 X=0,
11:u:Med-1 X=0,
14:u:Fwd-2 X=none,
11:u:Pub-1 X=0,
12:u:Pub-1RR=10,
11:u:Jnl-1 X=0,
11:u:Idt-1 X=F,
11:*:Idt-2 X=-,
13:*:Idt-2 L==/-,
11:u:Ln-1 X=15,
11:u:Ln-1 X=22,
14:*:Lst-1 L=none,
17:u:Fst-2 L=none/Lu,
15:u:Lst-2 R=Ll/Lu,
11:u:Wrd-1 X=2,
13:u:Wrd-2 X=0/2,
11:u:Med-1 X=7,
12:u:Nme-1 X=10,
12:u:Loc-1 R=10,
12:u:Pub-1 R=10,
12:u:Jnl-1 R=10,
13:*:Idt-2 L=-/+,
11:u:Ln-1 X=18,
11:u:Ln-1 X=25,
11:u:Fst-1 R=N,
15:u:Fst-2 L=Ll/Lu,
14:u:Lst-2 R=Ll/N,
13:u:Wrd-2 X=2/1,
11:u:Avg-1 X=9,
16:u:Fwd-2 R=number,
11:u:Nme-1 X=5,
12:u:Pub-1 X=10,
11:u:Pub-1RR=3,
12:u:Jnl-1 X=10,
11:*:Fst-1 X=N,
11:u:Lst-1 X=N,
14:u:Fst-2 L=Ll/N,
14:u:Lst-2 R=N/Lu,
11:u:Wrd-1 X=1,
14:u:Wrd-2 X=2/14,
11:u:Avg-1 X=3,
16:u:Fwd-2 X=number,
11:u:Num-1 X=1,
11:u:Nme-1 L=5,
11:u:Loc-1RR=1,
11:u:Pub-1 R=3,
11:u:Jnl-1 R=5,
11:u:Pos-1 X=2,
11:u:Ln-1 X=65,
11:u:Ln-1 X=84,
10:u:Ln-1 X=9,
11:*:Lst-1 L=N,
14:u:Fst-2 L=N/Lu,
12:u:Wrd-1 X=14,
14:u:Wrd-2 X=1/13,
11:u:Med-1 X=4,
11:u:Nme-1 X=1,
11:u:Loc-1 R=1,
11:u:Pub-1RR=1,
11:u:Jnl-1 X=5,
11:u:Ref-1RR=+,
11:u:Ln-1 X=70,
11:u:Ln-1 X=88,
12:u:Wrd-1 X=13,
11:u:Avg-1 X=5,
11:u:Nme-1 L=1,
11:u:Nme-1 X=2,
11:u:Loc-1 X=1,
11:u:Pub-1 R=1,
11:u:Ref-1 R=+,
11:u:Ln-1 X=62,
11:u:Ln-1 X=85,
12:u:Lst-1 X=Pd,
15:u:Lst-2 R=Pd/Ll,
12:u:Wrd-1 X=12,
15:u:Wrd-2 X=13/13,
11:u:Nme-1 L=2,
11:u:Nme-1 X=3,
11:u:Pub-1 X=1,
11:u:Jnl-1 R=4,
11:u:Ref-1 X=+,
11:u:Ln-1 X=64,
12:*:Lst-1 L=Pd,
15:u:Fst-2 L=Pd/Ll,
11:u:Med-1 X=5,
11:u:Nme-1 L=3,
11:u:Pub-1RR=2,
11:u:Jnl-1 X=4,
11:u:Ref-1 L=+,
11:u:Ref-3 X=+,
11:u:Pos-1 X=3,
14:u:Lst-2 R=N/Ll,
11:u:Jnl-1 R=2,
11:u:Ref-1LL=+,
11:u:Ref-3 L=+,
11:u:Ln-1 X=69,
11:u:Ln-1 X=90,
14:u:Fst-2 L=N/Ll,
15:u:Wrd-2 X=12/14,
11:u:Jnl-1 X=2,
11:u:Ln-1 X=91,
14:u:Wrd-2 X=13/4,
11:u:Ln-1 X=17,
11:u:Ln-1 X=27,
10:u:Ln-1 X=6,
11:u:Lst-1 X=P,
14:u:Lst-2 R=P/Lu,
11:u:Pos-1 X=4,
11:u:Ln-1 X=73,
11:u:Ln-1 X=96,
11:u:Ln-1 X=10,
11:*:Lst-1 L=P,
14:u:Fst-2 L=P/Lu,
13:*:Idt-2 L==/+,
11:u:Ln-1 X=71,
11:u:Ln-1 X=94,
12:u:Wrd-1 X=15,
11:u:Nme-1 X=4,
11:u:Ln-1 X=72,
11:u:Ln-1 X=92,
12:u:Wrd-1 X=11,
11:u:Avg-1 X=6,
11:u:Ttl-1 X=1,
11:u:Nme-1 L=4,
11:u:Ln-1 X=74,
12:u:Wrd-1 X=10,
11:u:Pos-1 X=5,
11:u:Med-1 X=6,
11:u:Ln-1 X=68,
15:u:Wrd-2 X=13/15,
11:u:Jnl-1 R=3,
11:u:Ln-1 X=67,
15:u:Wrd-2 X=15/13,
11:u:Jnl-1 X=3,
11:u:Pos-1 X=6,
11:u:Ln-1 X=75,
11:u:Jnl-1 R=1,
11:u:Ln-1 X=97,
11:u:Jnl-1 X=1,
11:u:Ln-1 X=76,
11:u:Ln-1 X=95,
11:u:Ln-1 X=55,
12:u:Wrd-1 X=17,
11:u:Num-1 X=3,
11:u:Pos-1 X=7,
11:u:Ln-1 X=77,
11:u:Ln-1 X=98,
15:u:Wrd-2 X=13/14,
11:u:Pos-1 X=8,
14:u:Wrd-2 X=14/6,
11:u:Ln-1 X=36,
11:u:Ln-1 X=50,
16:u:Lst-2 R=P/none,
11:u:Wrd-1 X=6,
14:u:Wrd-2 X=12/0,
13:u:Wrd-2 X=6/0,
13:u:Wrd-2 X=0/0,
13:*:Idt-2 L=-/=,
11:u:Pos-1 X=9,
14:u:Wrd-2 X=0/10,
13:u:Wrd-2 X=0/5,
11:u:Med-1 X=8,
11:u:Ref-2RR=+,
11:u:Ln-1 X=26,
11:u:Ln-1 X=40,
12:u:Lst-1 X=Lu,
14:u:Lst-2 R=Lu/N,
14:u:Wrd-2 X=10/5,
17:u:Fwd-2 R=numeric,
11:u:Ref-2 R=+,
11:u:Ln-1 X=41,
12:*:Lst-1 L=Lu,
14:u:Fst-2 L=Lu/N,
15:u:Lst-2 R=Lu/Lu,
12:u:Avg-1 X=11,
12:u:Med-1 X=11,
17:u:Fwd-2 X=numeric,
11:u:Num-1 X=5,
11:u:Ref-2 X=+,
14:u:Pos-1 X=last,
11:u:Ln-1 X=29,
15:u:Fst-2 L=Lu/Lu,
14:u:Lst-2 R=P/Ll,
11:u:Ref-2 L=+,
11:u:Pag-1 X=1,
11:u:Ln-1 X=21,
14:u:Fst-2 L=P/Ll,
11:u:Wrd-1 X=3,
13:u:Wrd-2 X=2/0,
11:u:Ref-2LL=+,
13:u:Wrd-2 X=3/2,
13:u:Wrd-2 X=0/1,
11:u:Ref-4RR=+,
16:u:Fst-2 L=none/N,
14:u:Wrd-2 X=0/13,
11:u:Ref-4 R=+,
11:u:Ln-1 X=87,
14:u:Wrd-2 X=1/12,
11:u:Ref-4 X=+,
11:u:Ln-1 X=86,
11:u:Ref-4 L=+,
12:u:Fst-1 R=Ps,
15:u:Lst-2 R=Ll/Ps,
15:u:Wrd-2 X=12/10,
12:*:Fst-1 X=Ps,
15:u:Fst-2 L=Ll/Ps,
15:u:Wrd-2 X=10/12,
11:u:Ln-1 X=60,
11:u:Ln-1 X=82,
11:u:Ln-1 X=66,
11:u:Ln-1 X=89,
11:u:Jnl-1 R=7,
11:u:Ln-1 X=93,
11:u:Jnl-1 X=7,
12:u:Wrd-1 X=16,
13:*:Idt-2 L=+/-,
15:u:Wrd-2 X=13/11,
14:u:Wrd-2 X=14/0,
13:u:Wrd-2 X=5/8,
17:u:Lst-2 R=Lu/none,
11:u:Wrd-1 X=8,
11:u:Med-1 X=2,
14:u:Wrd-2 X=8/14,
17:u:Fst-2 L=none/Ll,
14:u:Wrd-2 X=0/14,
11:u:Ln-1 X=28,
11:u:Ln-1 X=83,
15:u:Wrd-2 X=12/15,
11:u:Ln-1 X=80,
11:u:Ln-1 X=79,
14:u:Wrd-2 X=12/6,
11:u:Ln-1 X=49,
11:u:Ln-1 X=81,
15:u:Wrd-2 X=13/10,
15:u:Wrd-2 X=10/11,
11:u:Loc-1RR=2,
11:u:Loc-1 R=2,
15:u:Wrd-2 X=11/12,
11:u:Loc-1 X=2,
11:u:Ln-1 X=53,
11:u:Ln-1 X=63,
12:u:Pos-1 X=10,
14:u:Wrd-2 X=14/5,
11:u:Ln-1 X=39,
14:u:Wrd-2 X=13/0,
11:u:Pag-1 X=2,
14:u:Wrd-2 X=5/13,
14:u:Wrd-2 X=0/11,
11:u:Ln-1 X=59,
11:u:Wrd-1 X=9,
15:u:Wrd-2 X=15/11,
11:u:Pag-1 X=3,
11:u:Ln-1 X=78,
14:u:Wrd-2 X=14/9,
11:u:Num-1 X=2,
11:u:Ln-1 X=58,
11:u:Ln-1 X=61,
11:u:Ln-1 X=54,
14:u:Wrd-2 X=9/14,
11:u:Pag-1 X=4,
14:u:Wrd-2 X=0/12,
15:u:Wrd-2 X=10/10,
12:u:Lst-1 X=Pe,
15:u:Lst-2 R=Pe/Ll,
12:*:Lst-1 L=Pe,
15:u:Fst-2 L=Pe/Ll,
14:u:Lst-2 R=Pd/N,
14:u:Fst-2 L=Pd/N,
11:u:Ln-1 X=56,
15:u:Wrd-2 X=10/13,
12:u:Lst-1 X=Pf,
12:u:Avg-1 X=13,
12:*:Lst-1 L=Pf,
14:u:Wrd-2 X=10/9,
11:u:Loc-1RR=3,
11:u:Loc-1 R=3,
11:u:Loc-1 X=3,
13:u:Wrd-2 X=0/8,
11:u:Spc-1 X=1,
15:u:Lst-2 R=Lu/Ll,
15:u:Fst-2 L=Lu/Ll,
11:u:Ln-1 X=51,
12:u:Wrd-1 X=19,
11:u:Pag-1 X=5,
11:u:Ln-1 X=47,
15:u:Wrd-2 X=13/17,
12:u:Wrd-1 X=18,
12:u:Fst-1 R=Pi,
15:u:Lst-2 R=Ll/Pi,
12:*:Fst-1 X=Pi,
14:u:Wrd-2 X=13/2,
11:u:Ln-1 X=13,
11:u:Ln-1 X=19,
14:u:Wrd-2 X=13/8,
14:u:Wrd-2 X=11/0,
11:u:Pag-1 X=6,
13:u:Wrd-2 X=0/7,
11:u:Ln-1 X=46,
11:u:Wrd-1 X=7,
15:u:Wrd-2 X=10/14,
11:u:Nme-1 X=7,
11:u:Nme-1 L=7,
15:u:Lst-2 R=Pf/Ps,
11:u:Ln-1 X=16,
15:u:Fst-2 L=Pf/Ps,
11:u:Avg-1 X=2,
13:u:Wrd-2 X=4/0,
11:u:Pag-1 X=7,
15:u:Wrd-2 X=16/11,
11:u:Nme-1 X=6,
11:u:Nme-1 L=6,
11:u:Ln-1 X=30,
11:u:Pag-1 X=8,
11:u:Pub-1RR=5,
11:u:Pub-1 R=5,
12:u:Ttl-1 X=10,
11:u:Pub-1 X=5,
13:*:Idt-2 L=+/+,
11:u:Ln-1 X=57,
11:u:Pub-1RR=6,
11:u:Pub-1 R=6,
11:u:Pub-1 X=6,
14:u:Wrd-2 X=7/10,
13:u:Lst-2 R=P/N,
14:u:Wrd-2 X=11/8,
11:u:Ln-1 X=23,
13:u:Fst-2 L=P/N,
14:u:Wrd-2 X=11/1,
14:u:Wrd-2 X=7/11,
11:u:Ln-1 X=52,
11:u:Ttl-1 X=2,
12:u:Ref-3 X=++,
11:u:Ln-1 X=45,
12:u:Ref-3 L=++,
13:u:Wrd-2 X=4/7,
11:u:Jnl-1 X=9,
13:u:Wrd-2 X=7/3,
13:u:Wrd-2 X=3/3,
13:u:Wrd-2 X=3/5,
12:u:Fst-1 R=Pd,
11:u:Num-1 X=4,
12:*:Fst-1 X=Pd,
13:u:Wrd-2 X=7/1,
14:u:Wrd-2 X=1/11,
11:u:Loc-1RR=5,
11:u:Loc-1 R=5,
11:u:Ln-1 X=20,
11:u:Loc-1 X=5,
11:u:Pag-1 X=9,
13:u:Wrd-2 X=8/2,
11:u:Ln-1 X=14,
13:u:Wrd-2 X=2/2,
13:u:Wrd-2 X=2/6,
12:u:Ref-1RR=++,
12:u:Ref-1 R=++,
12:u:Ref-1 X=++,
13:u:Wrd-2 X=6/3,
12:u:Ref-1 L=++,
11:u:Ln-1 X=11,
14:u:Wrd-2 X=15/0,
14:u:Loc-1RR=_x+1,
14:u:Pub-1RR=_x+1,
12:u:Ref-1LL=++,
14:u:Ref-1RR=_x+1,
14:u:Ref-2RR=_x+1,
14:u:Ref-4RR=_x+1,
14:u:Pos-1 X=only,
16:*:Idt-2 L=_x-1/=,
11:u:Ln-1 X=38,
13:u:Wrd-2 X=7/0,
13:u:Wrd-2 X=3/0,
11:u:Ln-1 X=35,
11:u:Loc-1RR=7,
11:u:Pub-1RR=7,
11:u:Ln-1 X=32,
11:u:Loc-1 R=7,
11:u:Pub-1 R=7,
13:u:Wrd-2 X=6/6,
11:u:Loc-1 X=7,
11:u:Pub-1 X=7,
13:u:Wrd-2 X=3/4,
13:*:Idt-2 L=-/-,
13:u:Wrd-2 X=0/3,
13:u:Wrd-2 X=1/2,
11:u:Fst-1 R=S,
13:u:Lst-2 R=N/S,
11:*:Fst-1 X=S,
11:u:Pag-1 X=0,
13:u:Wrd-2 X=8/0,
13:u:Wrd-2 X=9/0,
13:u:Wrd-2 X=0/9,
15:u:Lst-2 R=Pd/Lu,
13:u:Wrd-2 X=9/1,
13:u:Wrd-2 X=1/0,
13:u:Wrd-2 X=0/6,
16:u:Lst-2 R=N/none,
14:u:Wrd-2 X=0/17,
14:u:Wrd-2 X=1/14,
14:u:Wrd-2 X=17/0,
14:u:Wrd-2 X=14/2,
14:u:Wrd-2 X=0/15,
13:u:Wrd-2 X=1/1,
14:u:Lst-2 R=P/Ps,
14:u:Fst-2 L=P/Ps,
11:u:Ref-5 X=T,
14:u:Wrd-2 X=15/1,
11:u:Ref-5 L=T,
14:u:Wrd-2 X=12/1,
11:u:Avg-1 X=1,
11:u:Med-1 X=1,
14:u:Wrd-2 X=10/0,
11:u:Ln-1 X=42,
14:u:Wrd-2 X=14/1,
15:u:Wrd-2 X=14/17,
14:u:Wrd-2 X=10/1,
14:u:Wrd-2 X=1/15,
11:u:Nme-1 X=8,
11:u:Ttl-1 X=3,
11:u:Ttl-1 X=5,
11:u:Ln-1 X=12,
13:u:Lst-2 R=N/N,
13:u:Fst-2 L=N/N,
13:u:Wrd-2 X=3/6,
11:u:Ln-1 X=44,
14:u:Wrd-2 X=10/2,
14:u:Wrd-2 X=11/3,
13:u:Wrd-2 X=2/3,
13:u:Wrd-2 X=4/1,
13:u:Wrd-2 X=1/3,
13:u:Wrd-2 X=8/9,
13:u:Wrd-2 X=4/6,
14:u:Wrd-2 X=11/2,
12:u:Ln-1 X=128,
12:u:Ln-1 X=104,
14:u:Wrd-2 X=10/7,
12:u:Ln-1 X=109,
13:u:Wrd-2 X=7/6,
12:u:Ln-1 X=117,
14:u:Wrd-2 X=1/10,
14:u:Wrd-2 X=12/8,
12:u:Ln-1 X=116,
12:u:Ln-1 X=101,
13:u:Wrd-2 X=8/6,
12:u:Ln-1 X=115,
14:u:Wrd-2 X=12/4,
12:u:Ln-1 X=127,
14:u:Wrd-2 X=13/1,
12:u:Avg-1 X=12,
12:u:Med-1 X=12,
11:u:Ln-1 X=31,
11:u:Fst-1 R=P,
13:u:Lst-2 R=P/P,
11:*:Fst-1 X=P,
13:u:Fst-2 L=P/P,
14:u:Wrd-2 X=5/12,
14:u:Lst-2 R=Ll/P,
14:u:Fst-2 L=Ll/P,
13:u:Wrd-2 X=9/2,
14:u:Wrd-2 X=4/11,
14:u:Wrd-2 X=13/3,
12:u:Ln-1 X=102,
12:u:Ln-1 X=105,
13:u:Wrd-2 X=2/7,
12:u:Ln-1 X=110,
11:u:Spc-1 X=4,
11:u:Num-1 X=7,
13:u:Wrd-2 X=7/2,
14:u:Wrd-2 X=2/10,
11:u:Spc-1 X=2,
12:u:Ln-1 X=123,
11:u:Lst-1 X=S,
11:u:Spc-1 X=5,
12:u:Num-1 X=10,
11:*:Lst-1 L=S,
13:u:Wrd-2 X=1/6,
11:u:Spc-1 X=3,
11:u:Num-1 X=6,
13:u:Wrd-2 X=0/4,
14:u:Wrd-2 X=4/10,
12:u:Ln-1 X=122,
11:u:Ln-1 X=99,
14:u:Wrd-2 X=10/6,
14:u:Wrd-2 X=1/16,
17:u:Lst-2 R=Pe/none,
16:u:Fst-2 L=none/P,
13:u:Wrd-2 X=1/4,
17:u:Fst-2 L=none/Ps,
14:u:Wrd-2 X=16/7,
12:u:Ln-1 X=113,
13:u:Wrd-2 X=4/2,
14:u:Wrd-2 X=14/7,
12:u:Ln-1 X=100,
14:u:Wrd-2 X=0/16,
12:u:Ln-1 X=103,
14:u:Lst-2 R=N/Ps,
14:u:Fst-2 L=N/Ps,
14:u:Wrd-2 X=8/13,
15:u:Lst-2 R=Pe/Lu,
15:u:Fst-2 L=Pe/Lu,
11:u:Num-1 X=9,
14:u:Wrd-2 X=19/0,
13:u:Wrd-2 X=1/7,
13:u:Wrd-2 X=5/4,
13:u:Wrd-2 X=5/6,
12:u:Med-1 X=13,
14:u:Wrd-2 X=13/7,
13:u:Wrd-2 X=9/7,
12:u:Wrd-1 X=21,
13:u:Wrd-2 X=1/5,
13:u:Wrd-2 X=2/5,
12:u:Avg-1 X=10,
12:u:Med-1 X=14,
13:u:Wrd-2 X=3/1,
13:u:Wrd-2 X=5/5,
13:u:Wrd-2 X=7/7,
17:u:Lst-2 R=Pd/none,
14:u:Wrd-2 X=0/18,
12:u:Avg-1 X=23,
12:u:Med-1 X=23,
12:u:Ref-2RR=++,
12:u:Ref-2 R=++,
12:u:Ref-2 X=++,
12:u:Ref-2LL=++,
12:u:Avg-1 X=18,
12:u:Med-1 X=18,
14:u:Wrd-2 X=12/7,
12:u:Avg-1 X=25,
14:u:Wrd-2 X=15/7,
12:u:Avg-1 X=16,
12:u:Avg-1 X=27,
12:u:Med-1 X=27,
14:u:Wrd-2 X=4/13,
13:u:Wrd-2 X=1/8,
14:u:Wrd-2 X=11/7,
13:u:Wrd-2 X=8/8,
14:u:Wrd-2 X=15/4,
13:u:Wrd-2 X=7/9,
12:u:Pag-1 X=10,
14:u:Wrd-2 X=18/9,
14:u:Fst-2 L=S/Lu,
12:u:Avg-1 X=19,
12:u:Med-1 X=19,
13:u:Wrd-2 X=8/4,
13:u:Wrd-2 X=9/8,
13:u:Wrd-2 X=9/5,
11:u:Loc-1RR=4,
11:u:Loc-1 R=4,
11:u:Loc-1 X=4,
14:u:Lst-2 R=Pe/N,
14:u:Fst-2 L=Pe/N,
11:u:Loc-1RR=6,
11:u:Loc-1 R=6,
11:u:Loc-1 X=6,
11:u:Spc-1 X=6,
14:u:Wrd-2 X=4/14,
14:u:Wrd-2 X=18/8,
14:u:Wrd-2 X=8/16,
13:u:Wrd-2 X=3/9,
11:u:Pub-1RR=8,
11:u:Pub-1 X=8,
17:u:Lst-2 R=Pf/none,
11:u:Loc-1 R=8,
11:u:Loc-1 X=8,
11:u:Nme-1 X=9,
11:u:Nme-1 L=9,
16:u:Wrd-2 X=_x-1/0,
14:u:Wrd-2 X=0/23,
12:u:Wrd-1 X=23,
14:u:Wrd-2 X=23/6,
17:u:Fst-2 L=none/Pd,
15:u:Lst-2 R=Ll/Pd,
15:u:Fst-2 L=Ll/Pd,
14:u:Lst-2 R=N/Pd,
14:u:Fst-2 L=N/Pd,
12:u:Ln-1 X=156,
11:u:Spc-1 X=7,
12:u:Ln-1 X=139,
11:u:Spc-1 X=9,
12:u:Ln-1 X=149,
12:u:Ln-1 X=124,
12:u:Ln-1 X=118,
12:u:Ln-1 X=120,
17:u:Fst-2 L=none/Pi,
12:u:Ln-1 X=145,
11:u:Fst-1 R=C,
11:*:Fst-1 X=C,
11:u:Lst-1 X=C,
11:*:Lst-1 L=C,
13:u:Fst-2 L=C/N,
14:u:Wrd-2 X=0/21,
11:u:Lst-1 X=M,
11:*:Lst-1 L=M,
16:u:Lst-2 R=M/none,
12:u:Num-1 X=11,
12:u:Avg-1 X=20,
11:u:Ttl-1 X=7,
12:u:Avg-1 X=57,
12:u:Med-1 X=57,
11:u:Fst-1 R=Z,
11:*:Fst-1 X=Z,
11:u:Lst-1 X=Z,
16:u:Fst-2 L=none/Z,
11:*:Lst-1 L=Z,
14:u:Fst-2 L=Z/Ll,
14:u:Lst-2 R=Z/Lu,
14:u:Fst-2 L=Z/Lu,
13:u:Fst-2 L=Z/N,
13:u:Lst-2 R=Z/Z,
13:u:Fst-2 L=Z/Z,
16:u:Lst-2 R=Z/none,
12:u:Lst-1 X=Pc,
17:u:Lst-2 R=Pc/none,
12:u:Avg-1 X=52,
12:u:Med-1 X=52,
12:*:Lst-1 L=Pc,
12:u:Med-1 X=20,
12:*:Fst-1 X=Pc,
17:u:Fst-2 L=none/Pc,
15:u:Lst-2 R=Pc/Lu,
0=3.090158e-02
1=-7.932500e-02
2=-2.060901e-01
3=1.517190e-02
4=1.566211e-01
5=4.503809e-01
6=4.032548e-02
7=-1.078141e-01
8=-2.611865e+00
9=-5.497698e-01
10=1.122300e-01
12=2.102881e-02
13=-6.628213e-03
14=4.581927e-03
15=-2.591805e+00
16=-1.164743e-01
17=9.058153e-01
18=-9.615848e-02
19=-3.786291e+00
20=-2.472239e-02
21=2.057104e-02
22=-4.022999e-01
23=3.107076e-01
24=-3.192403e-01
25=-3.602393e+00
26=4.360131e-03
27=-6.486648e+00
28=-5.072343e-01
29=9.815838e-01
30=3.806925e-01
32=-1.302532e-02
33=-8.537849e-01
34=9.259573e-03
35=2.205023e-02
37=-1.599915e-01
38=5.900859e-02
39=1.569567e-02
40=3.944284e-01
41=-2.010734e+00
42=-3.203839e-02
43=-3.025148e-01
44=8.013350e-01
45=-6.712855e-01
46=-4.331251e+00
47=2.833085e-01
48=-5.142830e-01
49=8.496456e-03
50=4.464945e-02
51=-1.985769e+00
52=-1.473813e-01
53=-4.524238e-01
54=7.730510e-01
55=-1.895150e-01
56=1.042275e+00
57=-4.394596e-01
58=8.714368e-02
59=-3.471588e-01
60=1.408845e-01
61=-4.819506e-01
62=-8.685381e-02
63=4.547218e-01
64=-2.432257e-01
65=-5.487395e-02
67=-2.962985e-02
68=2.515486e-01
69=-2.217600e-02
70=-3.182410e-02
72=1.161079e-01
74=-2.474044e-01
75=7.641170e-03
77=3.257212e-02
78=-4.602134e-02
79=4.933986e-02
80=-9.510951e-01
82=4.544486e-02
83=1.102675e-01
85=-6.089658e-03
87=-1.858267e-01
88=4.331908e-01
89=-1.569965e+00
90=-1.719814e-01
92=-3.633770e-01
93=-4.476316e-02
94=2.216520e-01
95=-1.612528e-03
97=1.385377e-02
98=-9.987103e-02
99=6.132932e-02
100=1.872701e-01
102=-3.084504e-02
130=6.023188e-01
131=-2.564832e-01
132=1.437392e-02
133=-7.899726e-02
134=8.356646e-02
135=1.872701e-01
137=-3.084504e-02
140=-2.360247e-02
142=6.080279e-02
143=-2.849032e-01
144=5.740604e-02
145=7.811868e-02
147=-2.030232e-01
148=2.741020e-01
149=-7.054310e-01
150=4.874127e-01
152=-2.179090e-01
153=-7.976333e-01
154=2.074029e-02
155=3.700939e-01
157=-3.336460e-01
158=-2.852572e-01
159=4.235544e-03
160=3.049248e-02
161=-9.752622e-02
162=-2.050489e-01
163=-4.096630e-03
164=1.279192e-01
165=-2.173655e-01
166=-7.611470e-01
167=2.514367e-01
168=4.748506e-02
169=1.350511e-01
170=1.965169e-02
171=-8.057947e-02
172=-2.041724e-02
173=1.586742e-01
174=1.287186e-01
175=8.013833e-03
176=1.193927e-01
177=-4.647396e-02
178=4.950794e-03
179=-9.062447e-02
180=-9.319964e-02
181=-9.962599e-02
182=3.276091e-01
183=-1.327344e-01
184=1.641001e-01
185=1.872701e-01
187=-3.084504e-02
190=4.647772e-01
191=-1.169190e-02
192=-1.614501e-01
193=-4.558151e-02
194=-3.441970e-02
195=2.392084e-01
196=-2.670128e-02
197=6.526573e-02
198=1.158266e-02
199=4.618890e-02
200=4.226044e-02
201=-5.199824e-02
202=5.585533e-02
203=-9.459286e-03
204=9.949134e-02
205=8.130875e-03
206=-1.255818e-01
207=1.719887e-01
208=-1.104633e-01
209=1.032415e-01
210=3.036791e-02
212=-3.975278e-02
213=5.164962e-02
214=1.212593e-02
215=2.019002e-02
217=9.940571e-04
218=5.373246e-02
219=-1.479092e-01
220=-5.955346e-02
222=-2.910561e-03
223=2.164603e-02
224=5.039906e-02
225=8.679137e-01
227=-4.599276e-01
228=-1.216317e+00
229=2.607449e-01
230=-4.419555e-04
232=-1.419644e-01
233=-3.891188e-01
234=1.293035e-01
235=-9.981839e-02
236=-5.054505e+00
237=2.406108e-01
238=-9.320271e-02
239=3.181517e-01
240=-2.245146e-01
241=-7.936211e-06
242=9.845199e-02
243=-1.673697e-02
244=2.511258e-01
245=-1.708500e-01
248=-8.393784e-02
249=-1.345564e-01
250=-4.501632e-01
252=1.206950e-01
253=2.786432e-03
254=3.738012e-02
255=-1.324176e+00
257=2.479791e-01
258=5.030211e-02
259=-2.383938e-01
260=2.498830e-01
262=-2.280318e-02
263=-1.711022e+00
264=1.784354e-02
268=-2.030769e-03
269=1.905470e+00
270=2.599538e+00
273=-1.061381e-02
300=1.872701e-01
302=-3.084504e-02
305=1.872701e-01
307=-3.084504e-02
310=8.844212e-02
311=-1.296259e-01
312=-5.437539e-04
313=1.713030e-02
314=-2.298704e-01
315=3.603054e-02
316=-6.579040e-02
317=3.790805e-02
318=-8.862690e-03
319=2.235716e-01
320=1.020557e-02
321=-8.948022e-02
322=2.740413e-01
323=-7.419028e-03
324=-2.068126e-01
325=1.872701e-01
327=-3.084504e-02
330=1.872701e-01
332=-3.084504e-02
335=5.258647e-02
336=-1.085975e-01
337=1.038473e-02
338=9.050610e-02
339=-5.501619e-01
340=3.705530e-02
341=-8.937449e-02
342=2.551842e-01
343=6.882412e-02
344=-3.805767e-01
345=4.212398e-02
346=-7.965837e-02
347=8.596044e-02
348=7.352134e-02
349=-3.095201e-02
350=1.872701e-01
352=-3.084504e-02
355=3.140975e-04
356=-1.030024e-01
357=3.210548e-01
358=4.768864e-02
359=-7.923787e-01
360=1.872701e-01
362=-3.084504e-02
365=3.832222e-02
366=-8.964668e-02
367=-2.068160e-01
368=1.979497e-02
369=1.794115e-01
370=-5.359042e-03
371=-7.604757e-02
372=-2.019241e-01
373=8.083034e-03
374=1.743221e-01
375=2.837134e-02
376=-8.442232e-02
377=-2.051978e-01
378=1.622597e-02
379=1.772923e-01
380=1.872701e-01
382=-3.084504e-02
385=4.295302e-02
386=-8.708639e-02
387=-7.123520e-03
388=4.986915e-02
389=9.759701e-02
390=2.013448e-01
392=-1.966024e+00
393=2.774652e+00
394=-2.551501e-01
395=5.669450e-01
397=-1.099562e-01
398=5.458221e-02
399=-7.140393e-01
400=2.320100e-01
402=-6.950251e-02
403=-5.570307e-01
404=1.081892e-01
405=5.071925e-01
408=-1.028033e+00
409=1.915365e-02
410=-4.610256e-02
411=-1.011716e-01
412=-8.560011e-02
413=6.655518e-01
414=-1.207663e-01
415=-6.383417e-02
416=-2.560983e-01
417=3.019695e-01
418=-8.872704e-02
419=9.521212e-02
420=8.158174e-01
422=-4.689791e+00
425=-3.907984e+00
427=-3.288507e-02
428=1.161071e-01
429=3.110602e-02
430=-8.270168e-01
432=5.967672e-01
433=-3.305721e+00
434=-2.766889e-01
435=-3.336702e+00
437=-7.454684e-02
438=-5.815422e-02
439=1.190610e-02
440=-2.613528e-02
442=-2.090623e-01
444=4.799340e-01
445=-3.151428e-02
447=-1.251872e-02
448=3.147866e-02
449=1.478961e-01
450=1.123221e-01
451=3.704677e-01
452=8.231933e-02
454=-2.228487e-01
460=-1.215732e+00
461=7.678658e-02
462=1.675512e-01
463=-1.542002e-02
464=-1.280051e+00
465=6.816724e-04
466=-9.522951e-02
467=-2.298639e-01
468=-1.455392e-04
469=-8.870441e-01
470=-2.062797e-01
471=-1.382905e-01
472=-1.562137e+00
473=-8.604178e-01
474=5.359693e-01
475=-9.767534e-03
477=3.627722e-02
478=-3.627021e-01
479=4.572267e-02
480=1.425144e+00
482=-2.316277e-02
483=-1.525595e-01
484=-1.063345e-02
485=1.819233e-01
487=-1.772836e-01
488=2.042694e-01
489=9.460275e-02
490=1.384817e-01
492=3.283928e-02
493=-6.569617e-01
494=-3.493907e-03
495=9.594734e-02
496=-1.107002e-01
497=2.251944e-01
498=-8.104752e-02
499=-4.728040e-02
500=1.480162e-03
502=4.406410e-02
503=-7.878070e-01
504=2.565215e-02
505=-4.933476e-03
507=-1.539967e-02
509=1.818989e-01
510=-8.356640e-02
511=-2.788308e-02
512=3.699010e-01
513=-1.001913e-01
514=-9.941556e-03
517=-2.411953e-01
518=-3.806781e-03
519=3.397992e-01
520=-5.674768e-03
522=-6.631955e-02
523=4.845655e-02
524=7.523589e-02
525=5.155558e-02
526=-8.829292e-02
527=-1.042574e-01
528=5.857432e-03
529=-2.227920e-02
530=1.359777e-01
531=1.065682e-01
532=-5.129354e-02
534=-2.241719e-02
535=3.032051e-01
536=4.712723e-03
537=-8.148217e-02
538=-1.298533e-01
539=-5.939598e-02
540=-1.171897e+00
541=-5.337240e-02
542=2.998073e-01
543=-3.184319e-01
544=-4.739375e-01
545=-1.721573e-01
546=3.150066e-01
547=-2.002342e+00
548=4.753299e-01
549=-1.197751e+00
550=-9.042901e-01
551=-2.797746e-01
552=-2.598866e+00
553=-1.322617e+00
554=5.216837e-01
555=2.528657e-02
557=-6.202192e-02
558=3.295795e-01
559=1.618573e-01
560=9.692090e-01
562=2.351568e-02
570=-5.855134e-02
572=-2.357677e-02
573=-3.009952e+00
574=-1.634278e-06
578=3.389264e+00
583=-1.607751e-01
584=4.100374e-01
585=2.877611e-01
587=-1.010955e-01
590=4.586337e-02
591=-6.692298e-02
592=2.352476e-01
593=-1.345293e-02
594=-1.480096e-01
595=2.877611e-01
597=-1.010955e-01
600=2.886699e-02
601=-5.027539e-02
602=4.847251e-02
603=5.381994e-02
604=1.839350e-01
605=-8.591718e-03
606=-8.713085e-02
607=3.049921e-01
608=7.097017e-02
609=-5.161444e-01
610=1.011974e-02
611=-7.710121e-02
612=7.316045e-02
613=5.904829e-02
614=8.094839e-02
615=1.020568e-02
616=-8.361803e-02
617=2.283677e-01
618=3.885356e-02
619=1.004838e-01
620=7.696980e-02
622=-9.973178e-03
623=9.179963e-02
624=-4.384289e-02
625=1.048483e-01
627=5.640751e-02
628=-3.930032e+00
629=-2.323147e-01
630=1.720321e-01
632=1.969584e-02
633=-1.411227e+00
634=-7.642547e-03
635=2.858075e-02
636=-2.893681e-01
637=1.083575e-01
638=-2.105408e-01
639=9.293644e-02
640=2.017818e-01
641=-9.130155e-01
642=-9.675971e-02
643=1.170758e-01
644=1.097260e-01
645=1.784465e-04
647=4.315789e-02
648=-2.103403e-03
649=6.584312e-03
650=3.669209e-01
652=7.208729e-03
653=-1.097821e-01
654=-1.009949e-01
655=1.218655e+00
657=-3.215463e-01
659=-3.665750e-05
660=-2.604152e-01
662=1.103471e-01
663=-1.690467e-01
664=2.721326e-02
665=-1.900963e-01
667=1.402552e-01
668=2.296981e-02
669=-1.480401e-01
670=9.425954e-03
671=2.749954e-02
672=2.455387e-02
673=4.682960e-03
674=2.531274e-04
677=-1.735242e-02
678=-1.135383e-01
679=5.202393e-01
680=-8.085220e-03
682=3.021525e-01
683=-9.586392e-02
684=6.122712e-02
685=3.190321e-03
686=2.481598e-02
687=2.944341e-01
688=-7.460070e-02
689=-2.726299e-02
690=1.557355e-01
691=-1.049215e-01
692=3.073226e-02
693=4.615991e-02
694=-2.902480e-01
695=1.527324e-01
696=6.656365e-02
697=-9.850591e-01
700=4.059502e-01
701=-8.630423e-03
702=-7.533909e-02
703=-1.108940e-02
704=-1.959570e-01
705=-3.791179e-01
706=-5.345846e-02
707=2.728201e-01
708=-2.989610e-02
710=-5.852766e-01
711=1.711569e-01
712=-5.261277e-01
713=2.455573e-01
714=-2.281153e-01
716=-1.946809e-01
717=-1.350713e+00
718=-5.943056e-01
719=1.971846e-01
720=-2.200312e-02
721=-6.643549e-02
722=7.695288e-02
723=1.098010e-02
724=-1.508413e-01
725=3.030318e-02
726=-8.891554e-02
727=2.110000e-01
728=8.380023e-02
729=-3.222770e-01
730=2.776249e-01
732=5.276535e-02
733=-1.524088e+00
734=6.440054e-03
736=1.903914e+00
737=-1.835931e-01
741=8.681632e-02
751=9.396396e-02
756=3.493443e-02
761=1.313143e-03
765=2.524370e-02
766=-3.297432e-01
767=-7.932779e-02
768=7.507781e-02
769=-9.333744e-02
771=1.903914e+00
772=-1.835931e-01
776=8.532991e-01
777=-2.532056e-01
778=-1.462268e+00
780=2.890607e-01
782=-1.205239e+00
783=5.228072e-03
786=8.532991e-01
787=-2.532056e-01
788=-1.462268e+00
791=8.532991e-01
792=-2.532056e-01
793=-1.462268e+00
796=8.532991e-01
797=-2.532056e-01
798=-1.462268e+00
800=1.297610e-01
802=-1.268804e-01
803=1.263728e-01
804=-8.320289e-01
807=-2.751030e-01
809=4.441510e-01
810=-1.000257e+00
811=6.730136e-02
812=2.046361e-02
813=8.030419e-02
814=-3.254111e-01
815=6.045699e-02
816=1.557191e-01
817=-1.537991e-02
818=-1.474092e-01
819=-2.265635e-01
820=2.169696e-02
821=8.389121e-02
822=1.769938e-02
823=-2.978435e-01
824=-2.203073e-02
825=5.670237e-02
826=-1.446532e-01
827=-4.757040e-01
836=5.777468e-02
837=2.406700e-01
838=4.411678e-01
839=-4.879114e-01
840=5.978855e-04
841=-2.470995e-01
842=-2.645373e-01
843=-1.942615e-01
844=-5.226536e-03
846=6.599558e-01
848=7.544424e-02
849=8.616327e-02
850=1.075592e+00
852=2.434879e-02
853=-1.387139e+00
854=4.641234e-06
856=4.608074e-01
866=-1.647078e-01
867=9.447105e-01
868=-4.817692e-01
870=2.326371e-02
871=1.781569e-01
872=-2.919360e-02
873=-6.589255e-02
876=9.579519e-02
878=1.289154e+00
879=5.622718e-02
880=7.054211e-01
882=3.744502e-02
883=-3.714794e+00
884=-8.778553e-03
885=7.408784e-01
887=1.005117e-04
888=-2.722815e-01
889=-4.534400e-02
890=1.073119e-01
891=-4.747879e-01
892=6.219199e-03
893=-2.239923e-02
894=-3.131842e-02
900=1.719669e-01
902=1.655451e-02
903=2.435805e-02
904=3.809660e-03
920=2.707995e-02
922=1.049993e-02
923=-5.664536e-02
924=5.551946e-02
925=1.223068e-01
927=1.082646e-01
928=-3.048702e-04
929=7.993392e-03
930=3.886071e-01
932=7.076293e-02
933=-1.288111e-01
934=-2.459363e-01
935=-2.810892e-04
936=-2.095253e-02
937=9.215316e-02
938=-9.374362e-01
939=6.370834e-02
940=6.959959e-02
942=-1.360100e-01
943=-2.414740e-02
944=1.030670e-01
945=-1.431579e-01
947=1.159488e+00
948=-1.635246e+00
949=1.111897e-02
950=-6.859103e-03
952=1.767655e-02
955=-1.068089e+00
957=6.969296e-04
959=2.728642e+00
960=-6.551052e-02
962=8.482085e-02
963=-1.729622e+00
964=4.876079e-02
965=-1.119619e-01
967=1.691650e-01
968=-3.963574e-01
969=1.185180e-01
970=7.018411e-03
972=-2.185928e-01
975=-8.428373e-02
977=2.703632e-01
978=-4.166931e-01
979=1.459919e-03
980=-1.188134e-01
982=1.311861e-01
983=-6.941332e-03
987=-6.688546e-01
988=-3.631082e-01
989=1.148212e-02
994=3.618766e-01
995=-7.357802e-04
997=2.552573e-01
998=-1.632082e+00
999=-2.703837e-01
1000=-1.382467e-02
1002=-2.626002e-02
1003=1.147596e+00
1004=-7.237160e-01
1005=-1.049505e-01
1007=8.481859e-02
1008=9.256867e-03
1009=-1.538827e-02
1010=-4.569879e-02
1012=3.415710e-02
1013=-6.156673e-03
1014=6.012802e-03
1015=-1.797739e-04
1017=-9.554582e-03
1018=8.473493e-01
1019=-7.021631e-02
1020=2.311655e-03
1022=9.966019e-03
1025=1.694530e-01
1027=4.270202e-03
1028=-1.136378e+00
1029=1.022146e-02
1030=-3.297629e-01
1032=1.058321e-01
1033=-4.692473e-02
1034=-1.171208e-02
1035=9.210633e-02
1037=-2.750692e-02
1038=4.210186e-02
1039=1.320070e-03
1040=-7.755573e-03
1043=-1.513544e-01
1044=3.322492e-01
1045=-8.613126e-01
1047=-1.682218e-02
1048=-6.072567e-02
1049=5.042083e-02
1050=1.827585e-01
1052=-2.419099e-01
1053=5.707611e-01
1054=-1.280279e-01
1055=5.225001e-01
1056=-1.293600e+00
1057=-6.924789e-02
1058=1.837413e-02
1059=-9.608323e-03
1060=4.761301e-02
1062=-7.785300e-01
1064=6.251380e-07
1065=6.894196e-01
1067=-2.408409e-01
1068=-1.251195e-01
1069=-8.325872e-02
1070=3.601045e-03
1072=8.891748e-02
1073=5.223817e-01
1074=-3.172194e-01
1075=2.494638e-02
1077=1.508342e-01
1078=-4.802727e-02
1079=-9.611481e-04
1082=-9.375352e-02
1084=1.215308e-01
1085=-1.072717e+00
1086=-6.668607e-01
1087=5.109829e-02
1088=5.046220e-01
1089=-6.994075e-01
1090=-4.102723e-03
1092=-4.371342e-02
1093=7.272865e-01
1094=-5.068102e-02
1095=-1.344343e+00
1097=-5.025628e-02
1098=5.568820e-01
1099=-1.962560e-01
1100=-5.915640e-02
1101=-1.808644e+00
1102=-4.025290e-01
1103=6.822626e-01
1104=7.515609e-02
1107=-1.149362e-03
1108=1.327545e-03
1110=-5.585389e-01
1112=1.045439e-01
1113=6.290216e-02
1114=-6.571583e-01
1115=5.420703e-01
1116=-1.575173e+00
1117=-1.827044e-01
1118=6.804503e-02
1119=2.930870e-03
1120=-3.332165e-02
1121=-1.351433e+00
1122=-7.525380e-03
1123=1.805502e-02
1124=2.663020e-01
1127=5.897088e-02
1129=1.963695e-01
1130=2.034528e-01
1132=-1.488402e-02
1133=-1.924993e-02
1134=2.901504e-02
1135=-3.464732e-02
1137=-6.269758e-02
1138=1.032841e+00
1139=-2.413126e-04
1140=6.205207e-02
1142=-1.030130e-01
1143=1.180175e-01
1144=3.276792e-03
1145=-7.497219e-01
1147=4.136059e-01
1148=-3.703225e-01
1149=2.383714e-03
1150=-1.326779e-01
1152=9.030994e-02
1153=-9.694664e-02
1154=1.056021e-02
1155=-1.252429e+00
1157=4.563655e-01
1158=-1.665392e+00
1159=3.612333e-02
1160=-4.703877e-01
1161=-1.269893e+00
1162=1.693641e-01
1163=-5.444795e-01
1164=7.756698e-02
1165=-6.546870e-02
1167=3.154085e-01
1168=2.939513e-02
1169=-1.774136e-01
1170=3.711320e-03
1171=-3.706348e-01
1172=-1.652426e+00
1180=-3.566092e-01
1181=3.184982e-03
1182=3.479114e-01
1183=-1.075882e+00
1185=-5.693206e-02
1186=1.592049e-01
1187=6.608760e-02
1188=2.217735e-01
1189=9.662840e-03
1191=-3.675380e-01
1194=-4.298511e-02
1195=-1.302302e-01
1197=-1.170018e-03
1198=5.731254e-01
1199=-4.249999e-01
1200=-2.682559e+00
1202=8.722030e-01
1203=-4.240839e+00
1204=3.820567e-02
1205=5.196771e-02
1208=-4.636034e-01
1210=-1.310314e-01
1212=3.190820e-01
1213=-3.565217e-02
1214=1.121753e-03
1215=-3.335890e-01
1217=1.131141e-01
1218=-1.428416e-01
1219=1.246729e-02
1220=1.685522e-01
1222=-2.303475e-02
1223=3.340379e-01
1224=-5.138192e-02
1225=5.060838e-01
1227=-3.712613e-02
1228=1.225991e-02
1229=-1.140869e-02
1230=3.323867e-02
1232=2.134952e-02
1233=-7.869700e-01
1234=7.475937e-02
1235=1.666750e-01
1237=-1.071143e+00
1238=5.597370e-01
1239=5.517467e-01
1240=-6.496511e-01
1241=-2.982060e-01
1242=3.656422e-01
1243=1.168617e-02
1244=-1.075742e-01
1245=-1.206017e+00
1247=4.262591e-01
1248=-4.815150e-02
1249=-8.083779e-05
1250=-2.045011e+00
1252=1.108790e+00
1253=-3.871007e-01
1254=-4.562952e-03
1255=-4.155181e-04
1257=9.602560e-02
1258=-2.409794e-01
1259=5.265345e-02
1260=-6.848931e-01
1262=-1.482819e-02
1263=1.265559e-01
1264=3.110090e-02
1265=-1.434258e-01
1267=1.249196e-01
1268=-2.744062e-01
1269=4.681267e-02
1270=-1.436127e+00
1272=8.534524e-02
1273=-8.362492e-01
1274=1.385855e-01
1275=8.783846e-01
1277=-2.131518e-01
1278=5.917980e-01
1279=-1.814047e-01
1282=-1.085718e-01
1283=3.157480e-01
1284=-6.336161e-01
1285=-1.313943e+00
1287=-2.775858e-03
1288=-1.145850e-03
1289=2.153181e-01
1290=-7.866604e-01
1292=6.592756e-01
1293=-1.805115e-01
1294=-1.405104e-02
1295=7.716728e-02
1297=-9.254890e-04
1299=1.149500e-01
1300=1.192555e-01
1302=-8.941044e-03
1304=-3.082971e-03
1305=-2.095249e+00
1307=1.013547e+00
1308=-1.933845e-01
1309=3.711780e-02
1312=1.458151e-02
1314=-1.581996e-02
1315=-1.131099e+00
1317=-2.139610e-02
1318=6.083950e-01
1319=9.018468e-03
1320=-8.981532e-02
1322=-1.072085e-03
1323=8.082038e-01
1324=-5.414372e-02
1325=-5.960297e-02
1327=2.592811e-01
1328=-1.563057e+00
1329=1.192530e-01
1330=-1.509138e-02
1332=-6.282957e-03
1333=1.851453e-01
1334=-1.048103e+00
1335=-2.108290e+00
1337=-1.261554e-01
1338=-1.945204e-04
1339=3.845159e-01
1340=-7.589978e-01
1342=7.073980e-02
1343=-3.222364e+00
1344=2.128714e-01
1345=1.266862e-01
1347=-2.003310e-01
1348=-2.056333e-01
1349=1.971272e-01
1350=1.062869e+00
1361=7.990954e-02
1362=1.598130e-02
1363=-6.733848e-02
1371=-8.757751e-03
1374=3.252332e-01
1375=2.631121e-01
1377=-1.438888e-02
1378=-4.002648e-01
1379=-8.092364e-03
1380=9.412310e-03
1382=1.264168e-01
1383=-1.827062e-01
1384=-1.775797e-01
1385=-3.567012e-01
1387=2.428799e-02
1388=2.030200e-04
1389=3.223860e-02
1390=1.059043e-01
1392=-7.336015e-02
1393=1.607283e-01
1394=2.624829e-03
1395=-4.818836e-01
1397=3.266237e-02
1398=2.268444e-01
1399=-4.169732e-03
1400=-1.240636e+00
1402=-3.583839e-01
1403=7.823777e-01
1404=2.142329e-01
1405=6.297680e-01
1407=-8.118187e-01
1408=1.283882e-02
1409=4.969709e-01
1410=-3.857660e-02
1412=1.911422e-01
1413=-1.732299e+00
1414=5.704052e-02
1417=-9.089077e-02
1418=3.393424e-01
1420=1.746226e-01
1422=2.228972e-02
1423=-9.372134e-03
1424=-1.119730e-01
1425=-8.692013e-01
1427=-2.954670e-01
1428=2.465869e-02
1429=7.007037e-01
1430=-3.096810e-03
1432=-1.144238e-01
1433=-9.331448e-01
1434=2.240618e-01
1435=-5.408231e-01
1437=1.516520e+00
1438=-1.875433e+00
1439=6.462369e-02
1440=-2.220175e+00
1442=2.251257e-01
1443=2.773147e-02
1444=-6.257232e-01
1447=3.032410e-02
1448=-4.493456e-02
1452=5.351401e-02
1454=-1.433943e-02
1455=-9.436875e-03
1457=5.275472e-01
1458=-5.556439e-01
1459=-1.996677e-02
1460=-2.000980e+00
1462=1.427017e-03
1463=4.148775e-01
1464=-2.232887e-03
1467=4.098797e-03
1470=-8.916907e-03
1472=5.390361e-02
1473=4.465570e-02
1474=-7.583783e-02
1475=3.674321e-01
1477=-4.073167e-01
1478=2.507279e-02
1479=-6.421481e-01
1480=8.550566e-02
1482=-3.333342e-02
1483=-5.461902e-02
1484=1.164781e-01
1485=-1.655237e+00
1486=-1.201774e+00
1487=3.663967e-01
1488=-2.914437e+00
1489=4.198152e-01
1490=-1.710933e-02
1492=1.101128e-01
1493=-1.231544e-01
1494=3.650302e-02
1495=3.789164e-02
1497=3.161669e-01
1498=-3.023746e+00
1499=-1.987588e-01
1500=-1.649059e+00
1502=-1.125573e-02
1503=3.242206e-01
1504=-1.227151e-02
1507=7.863952e-01
1508=2.824001e-03
1509=-1.949609e-01
1510=-6.441313e-02
1511=-1.963990e+00
1512=2.172544e-02
1513=6.225132e-01
1514=-1.247915e-01
1516=-1.309710e-05
1517=-2.337680e-01
1518=1.142570e-01
1519=8.313407e-02
1520=4.922576e-01
1521=-8.715362e-01
1522=-2.708284e-01
1531=2.211177e-01
1532=5.061510e-03
1533=2.169116e-01
1534=-1.599410e-05
1536=-1.630805e+00
1537=-1.427794e+00
1538=-4.020078e-02
1541=4.054766e-01
1544=3.224379e-01
1545=4.200128e-02
1547=-7.897741e-02
1548=2.517944e-01
1549=4.884882e-02
1550=-6.781394e-01
1552=-2.838686e-02
1553=2.750165e-01
1554=1.532208e-01
1555=-1.992141e-01
1557=5.712145e-01
1560=-1.051908e+00
1562=8.123345e-02
1563=1.164809e-02
1564=-3.799407e-03
1567=-2.805819e-01
1568=4.054369e-01
1572=-9.623387e-02
1573=-6.609765e-03
1574=1.162037e-02
1579=1.146440e+00
1580=-8.316156e-01
1582=5.507954e-01
1583=-8.865058e-01
1584=7.159108e-03
1587=-1.610996e-02
1589=1.652466e-02
1590=-7.885555e-01
1592=1.092923e+00
1593=-2.124767e+00
1594=5.254790e-04
1595=-7.664868e-01
1597=-3.798521e-05
1598=-3.464907e-03
1599=3.089979e-02
1600=-2.472957e-01
1602=6.500999e-01
1603=-3.087642e-01
1604=1.398854e-04
1607=8.339829e-01
1609=-4.742060e-03
1610=-8.941714e-01
1612=5.059665e-01
1613=-8.446209e-01
1614=9.336028e-02
1615=7.767474e-02
1617=-9.269328e-02
1618=-6.050483e-02
1619=1.727064e-01
1620=1.040464e+00
1622=-1.260876e+00
1623=1.921917e+00
1624=-1.382268e+00
1625=-2.489952e-02
1627=-7.702866e-02
1628=6.664141e-02
1629=3.383445e-02
1630=-8.463328e-01
1632=3.244999e-01
1633=-9.410987e-01
1634=2.106409e-02
1635=-1.621668e-01
1637=3.064995e-02
1638=-4.741745e-01
1639=9.899851e-02
1640=4.934562e-03
1642=1.811483e-01
1643=-3.389741e+00
1644=2.064079e-02
1645=-5.754828e-02
1647=-4.305767e-02
1648=-2.673893e-01
1649=2.916048e-01
1650=-9.172429e-01
1652=5.646108e-01
1653=-2.631721e-01
1654=1.946039e-03
1657=-7.042222e-01
1658=1.098248e+00
1660=-1.035674e-01
1662=-8.137543e-04
1663=1.474758e-01
1664=-1.308406e-01
1665=-2.441955e-01
1667=7.249335e-01
1668=-1.966790e+00
1672=9.490014e-03
1674=-4.430532e-01
1675=-5.154290e-03
1677=9.194800e-02
1678=-1.124036e-01
1679=-4.662776e-02
1680=5.207031e-03
1682=3.457867e-01
1683=-1.554801e+00
1684=1.519428e-02
1685=-2.572981e+00
1687=8.021024e-01
1688=-1.602921e+00
1689=4.037356e-01
1690=-1.691763e-03
1692=7.301620e-02
1693=2.273018e-02
1694=-3.920168e-01
1695=-2.293708e-01
1697=5.936577e-01
1699=2.511260e-05
1700=-4.232104e-01
1702=6.728036e-01
1703=8.644469e-02
1704=-2.044668e-02
1705=-8.773301e-01
1707=3.661725e-01
1708=-9.988621e-01
1709=1.330008e-02
1712=-4.349115e-02
1713=3.446545e-01
1714=-1.076176e-01
1715=-6.131642e-03
1717=6.366948e-03
1718=-4.950803e-01
1719=4.517738e-01
1722=1.914625e+00
1724=-1.189859e-02
1725=-1.159137e+00
1727=-2.609538e-02
1728=-4.352689e-01
1729=2.410107e-01
1730=-3.210032e-03
1731=-1.202834e-02
1732=1.895904e-01
1733=-1.447917e+00
1734=2.593833e-02
1735=-4.319436e-01
1737=2.554220e-01
1742=-2.816386e-02
1743=3.405159e-01
1744=-1.140950e-01
1747=6.201894e-02
1748=-4.609216e-03
1750=-7.400750e-03
1752=2.340243e-01
1753=-9.118590e-01
1754=3.995662e-04
1757=6.947753e-03
1758=-7.784790e-02
1760=4.572572e-01
1762=-8.979358e-03
1763=-6.673201e-02
1764=-1.944090e-01
1765=-1.565409e-01
1767=4.971434e-02
1768=-1.433877e+00
1769=3.319781e-02
1770=-1.053163e+00
1772=8.962257e-02
1773=-1.486395e+00
1774=3.950266e-01
1775=2.891584e-01
1777=-5.284214e-02
1778=2.999312e-01
1779=-1.378375e-01
1780=-2.940320e+00
1782=-4.467568e-01
1783=1.440786e+00
1784=1.153701e-01
1785=-1.779270e-02
1787=-2.058121e+00
1788=8.044282e-01
1789=4.364602e-01
1790=1.388592e-02
1792=8.327229e-01
1793=-3.277197e-01
1794=-4.325828e-01
1795=-1.279965e+00
1797=1.087614e-03
1798=-1.357652e-02
1799=4.840305e-02
1801=1.322169e-02
1802=2.185716e-01
1805=-1.053700e+00
1806=4.364755e-02
1807=-1.656700e-02
1808=-1.222143e+00
1809=1.095590e+00
1811=-1.086121e-01
1812=2.693779e-01
1817=-2.272654e+00
1818=4.572983e-01
1821=-6.823119e-01
1824=-1.127693e-01
1825=-4.900804e-01
1827=-7.921085e-02
1828=5.179858e-01
1829=-1.191011e-02
1830=9.675642e-01
1832=-5.786550e-01
1834=1.320895e-01
1835=-1.328285e-01
1837=-6.041045e-04
1839=1.168714e-01
1840=1.470554e-01
1842=-5.452702e-02
1843=-4.187194e-02
1844=6.249951e-02
1845=-4.296218e-01
1847=-4.958239e-01
1848=-2.134047e-01
1849=9.357034e-01
1850=5.747693e-02
1852=-2.926802e-02
1853=1.946879e-02
1854=-2.717801e-02
1855=1.300235e+00
1857=-1.871342e-01
1858=-1.020346e+00
1859=-8.228214e-02
1860=2.362222e-01
1862=1.091516e-02
1863=-1.233145e-02
1864=-5.328967e-02
1865=5.674792e-03
1867=-2.145020e-01
1868=2.826365e-01
1872=-4.982198e-01
1873=8.439979e-01
1875=-2.240280e+00
1877=3.500048e-01
1878=9.526606e-02
1879=1.452242e-01
1880=-3.327276e-01
1882=-2.638639e-01
1883=4.339496e-01
1884=3.522670e-01
1885=2.243784e-02
1887=3.377650e-02
1888=7.284214e-03
1889=-8.258199e-02
1890=2.692613e-01
1892=-4.222336e-02
1893=9.716971e-02
1894=6.848960e-03
1895=3.583195e-01
1896=1.847656e-01
1897=-7.415725e-01
1905=-1.348607e-01
1906=-1.552739e-01
1907=2.331955e-01
1908=1.298851e-01
1910=3.842519e-03
1911=5.073577e-01
1912=-1.439777e+00
1916=-1.501300e+00
1919=3.624983e-02
1920=1.277146e-03
1922=-2.825237e-01
1923=5.425863e-01
1924=-2.649805e-04
1925=1.084359e-01
1927=3.659723e-02
1928=-1.831279e+00
1929=5.513374e-02
1930=1.468539e-01
1932=-1.873881e-01
1933=1.042444e+00
1934=-4.922585e-01
1935=2.165180e-01
1937=-2.757580e-01
1938=6.107462e-01
1939=-4.594237e-01
1940=3.910019e-02
1942=8.658710e-03
1943=-2.685177e+00
1944=5.358825e-02
1945=-1.546419e+00
1947=9.209590e-02
1948=-2.579536e-01
1949=2.555593e-03
1950=-8.848105e-01
1952=-1.976400e-01
1953=-5.738758e-01
1954=7.891704e-01
1955=-3.044733e+00
1957=-7.391822e-01
1958=3.977693e+00
1959=-3.416382e-01
1960=4.955874e-01
1962=-1.651775e-01
1963=-1.031615e-01
1964=-6.285505e-01
1965=3.118166e-01
1967=-4.690476e-02
1968=-1.459565e+00
1969=6.126854e-02
1972=-3.283121e-02
1974=1.349430e-03
1977=2.366060e-02
1979=-2.094397e-02
1980=1.983839e-01
1982=7.472528e-02
1983=3.797112e-02
1984=-6.792439e-01
1985=4.502769e-01
1987=-1.233043e-01
1988=2.870331e-03
1989=-2.746456e-01
1992=7.782604e-02
1993=-8.705277e-01
1994=7.062343e-03
1995=5.283217e-01
1997=-9.737260e-02
1998=2.481752e-01
1999=-3.835114e-04
2000=-8.314149e-02
2002=8.450755e-03
2003=-8.436430e-05
2005=-9.188555e-01
2007=-4.413213e-01
2008=-1.915504e-01
2009=7.163331e-01
2012=-2.672225e-02
2013=7.862992e-02
2015=-1.116502e-01
2017=1.134431e-01
2018=-6.548429e-01
2019=8.579924e-03
2020=1.007003e-02
2022=1.263404e+00
2023=-9.032676e-02
2024=-6.740709e-01
2025=7.099150e-01
2027=-1.568495e-01
2028=-5.037119e-01
2029=-7.999782e-02
2030=4.020929e-01
2032=-9.145642e-01
2033=3.735070e-02
2034=-1.850841e-02
2037=-1.042428e+00
2038=2.682532e-01
2039=1.706375e-02
2040=-2.082325e+00
2042=2.903103e-01
2043=-5.744850e-01
2044=-9.141879e-06
2045=1.058964e-03
2047=1.595826e-01
2048=-3.267441e+00
2050=-2.531027e-01
2052=4.959680e-01
2053=-3.357888e-01
2054=-5.672165e-03
2055=-1.925624e+00
2057=5.499584e-02
2058=9.550894e-02
2059=-2.195527e-02
2062=7.560800e-03
2063=-1.083591e+00
2064=7.138036e-02
2067=1.252753e-01
2069=5.731031e-04
2070=-1.902723e-01
2072=8.822176e-02
2074=6.296970e-04
2077=7.479859e-03
2078=-1.800373e-03
2080=-1.888696e-02
2082=2.194734e-01
2083=-1.114739e+00
2084=2.881494e-02
2085=2.040657e-01
2087=-1.786945e+00
2090=-2.691799e-02
2092=7.521847e-02
2094=1.488900e-03
2097=7.307563e-01
2098=-1.586453e-01
2102=-1.955021e-01
2104=3.371030e-02
2109=1.174096e-02
2110=-1.929134e-04
2112=1.536893e-01
2113=-5.516440e-02
2114=-1.948639e-03
2117=1.126924e-01
2119=-3.134149e-02
2120=-1.444660e+00
2122=-9.263935e-03
2123=-1.682522e-01
2124=3.865613e-01
2125=-3.208902e+00
2127=1.385424e-01
2128=-1.337085e+00
2129=1.898778e-01
2130=-2.040453e-01
2132=6.502112e-01
2133=-2.014468e+00
2134=1.218082e-01
2135=-1.768669e+00
2137=6.929921e-01
2138=-1.178084e-01
2139=4.656024e-03
2140=8.984177e-02
2142=-1.216859e-01
2144=8.330611e-01
2145=-2.079261e+00
2147=2.582458e-01
2149=6.280565e-04
2150=5.922679e-01
2152=-3.839164e-01
2153=-1.901725e+00
2154=3.153381e-01
2155=-1.789064e-01
2157=1.014340e+00
2158=-8.688237e-01
2159=5.846715e-03
2160=3.659029e-02
2161=1.015427e-02
2162=4.123727e-02
2163=-1.498234e-01
2164=-6.888421e-02
2165=5.432995e-02
2166=-3.852771e-01
2167=-3.727378e-01
2175=-1.649040e-01
2176=1.498181e-01
2177=1.591364e-01
2178=2.515886e-01
2180=-1.000794e-01
2181=-2.799853e+00
2182=-6.415738e-02
2183=-5.400235e-01
2184=-5.390614e-04
2186=5.966234e-01
2189=1.364258e-02
2192=-1.301482e-01
2193=1.145302e+00
2197=-5.596913e-01
2198=5.182202e-01
2199=2.032971e-01
2203=4.908411e-03
2204=-2.244740e-01
2205=1.815195e-01
2207=-2.032722e-01
2208=6.214322e-01
2209=-1.512737e+00
2210=2.383804e-02
2212=1.040647e-01
2213=-4.448208e-01
2215=-1.081225e+00
2217=4.862870e-02
2218=1.765161e-01
2219=-2.106671e-01
2220=-4.172734e-05
2225=-2.921573e+00
2227=1.150317e-03
2228=6.171742e-01
2229=7.060042e-02
2230=5.125945e-01
2232=-4.859222e-01
2233=5.325335e-02
2234=-4.025992e-03
2235=4.007708e-01
2237=-7.020178e-02
2238=-1.475970e+00
2239=-1.534833e-03
2240=-1.628605e+00
2242=3.906429e-02
2243=-1.228338e+00
2244=3.213641e-01
2247=-7.457298e-01
2248=6.056146e-01
2250=-3.512678e+00
2252=4.449971e-01
2253=-1.523917e+00
2254=3.563945e-02
2255=-2.660807e+00
2257=1.310389e-01
2258=-1.000023e-01
2259=-3.807530e-02
2262=-6.797708e-04
2263=-5.120923e-01
2264=2.052037e-02
2265=-3.273863e-01
2267=1.290149e-01
2269=-2.010512e-02
2270=-3.143765e+00
2272=-3.529700e-03
2273=-7.328085e-01
2274=2.848568e-01
2277=1.899305e-02
2278=-1.474336e-01
2282=-6.729738e-04
2285=3.146765e-01
2287=2.349144e-02
2288=-3.168308e-01
2289=-6.197213e-02
2290=-1.410857e-03
2292=-2.564864e-02
2293=-3.382217e-02
2294=2.662097e-01
2297=-4.572136e-03
2300=-6.325249e-01
2302=2.520730e-04
2303=-4.089252e-02
2304=2.899265e-01
2305=-9.947313e-02
2307=2.669101e-02
2308=-5.217991e-01
2309=2.068005e-02
2312=2.111680e-01
2313=-2.234006e+00
2314=3.076446e-02
2315=2.900499e-02
2316=4.649521e-03
2317=-4.674957e-01
2318=1.304990e+00
2322=1.737029e-01
2324=-3.247335e-03
2325=-5.049812e-02
2327=-9.666148e-02
2328=4.867181e-01
2329=-3.661259e-01
2332=-1.703726e-02
2333=6.376652e-02
2334=2.706607e-02
2335=-1.182923e-02
2337=1.186027e-01
2338=8.401857e-03
2339=-9.764769e-01
2342=-3.554150e-01
2343=4.554950e-01
2345=-1.604914e-03
2347=-6.046946e-01
2348=3.154140e-01
2349=7.451511e-02
2350=-1.939666e-02
2352=2.978458e-02
2353=-1.781657e+00
2354=3.209429e-02
2355=-1.264249e-01
2357=6.851768e-03
2358=4.416043e-03
2359=8.098391e-02
2362=-1.104941e-04
2364=1.220365e-03
2365=-8.760356e-03
2367=2.131330e-02
2368=-8.494657e-03
2369=-4.166075e-03
2370=-1.607853e+00
2372=1.122782e-01
2373=-9.640627e-01
2374=4.015909e-02
2377=3.481579e-03
2378=-1.281075e-02
2380=1.031174e-01
2382=2.559860e-03
2383=1.384669e-01
2384=-7.500574e-02
2385=3.955638e-01
2387=5.628205e-03
2389=-1.364690e-03
2390=-2.268542e-01
2392=1.672446e-01
2393=-1.985277e-01
2394=-4.572753e-03
2395=6.852856e-01
2397=4.612335e-03
2398=-6.831708e-01
2399=-6.504517e-02
2402=1.301138e-02
2405=-1.195220e-02
2407=2.812575e-02
2408=1.601904e-02
2409=-5.420803e-01
2410=2.636496e-01
2412=-1.413208e+00
2413=4.071858e-01
2414=4.201308e-04
2419=-3.519287e-03
2420=-6.384620e-01
2422=1.937764e+00
2423=-2.790410e+00
2424=-1.559330e-01
2427=1.831707e-01
2429=-7.861434e-03
2432=2.143047e-01
2433=-3.358321e-02
2434=-1.795869e-01
2436=-1.014611e-01
2446=2.722770e-02
2447=6.368901e-01
2448=1.940084e-04
2453=-1.298816e-01
2456=1.682655e-02
2459=-5.638413e-02
2462=-7.863981e-02
2463=9.363596e-01
2464=-7.698130e-03
2467=-5.235363e-01
2469=5.891061e-01
2472=-9.917540e-02
2474=1.812016e+00
2475=1.101583e-02
2477=5.231239e-03
2478=-2.913137e-01
2479=-1.587201e-02
2482=1.009153e-03
2488=-1.017093e+00
2489=1.035962e-03
2490=1.165919e-02
2492=-3.464989e-04
2497=-1.262796e-02
2499=1.289130e-02
2511=5.124973e-01
2512=-6.783090e-04
2524=3.317234e-01
2527=6.068313e-02
2529=-8.073919e-03
2530=-5.184075e-01
2532=-1.610775e-01
2533=1.653789e+00
2534=2.259854e-03
2535=-1.888913e+00
2537=4.200755e-01
2538=-1.063064e+00
2539=3.036876e-02
2540=-1.742785e+00
2542=-1.242061e-01
2543=3.741369e+00
2544=1.902283e-01
2545=-3.862389e-01
2547=-1.042968e-02
2548=-3.439345e-03
2549=1.001933e-01
2550=-2.296864e-01
2552=7.641141e-02
2553=8.440380e-02
2554=-2.006701e-02
2559=1.123955e-02
2562=-2.358093e-04
2564=4.591076e-03
2565=-2.416418e-03
2569=-2.721097e-03
2572=1.584162e-01
2574=-2.048415e-02
2575=3.439794e-01
2577=3.341030e-02
2578=-3.148310e-02
2579=-1.351490e+00
2580=1.647840e-01
2582=-4.837070e-02
2583=3.972846e-02
2584=1.294736e-02
2587=-7.426703e-01
2588=9.333096e-01
2592=5.504256e-01
2593=-5.706645e-01
2597=1.506943e-01
2602=2.262762e-01
2605=-8.443391e-02
2607=1.616690e+00
2609=-1.281543e-03
2617=8.220548e-01
2622=4.523035e-01
2637=1.845377e-03
2639=-2.745824e-02
2640=4.000948e-01
2642=-5.992909e-02
2643=-4.229442e-02
2644=-6.274399e-02
2645=8.661943e-01
2647=-9.065595e-02
2648=-6.108210e-01
2652=-5.759047e-04
2655=5.239578e-01
2657=-6.963554e-01
2658=1.314386e-02
2659=4.015398e-01
2660=-5.923607e-02
2662=1.914403e-01
2663=4.920141e-03
2664=-5.561286e-01
2665=-1.411159e-02
2667=-9.355237e-03
2668=6.615320e-03
2669=1.342081e-01
2670=6.980093e-01
2672=-3.349043e-02
2673=-4.634675e-01
2674=2.131300e-02
2675=-1.845709e-01
2677=-6.428926e-02
2678=1.968962e-01
2679=1.729899e-02
2680=9.919053e-02
2682=-1.299773e-02
2685=-2.236520e-01
2687=2.784045e-02
2688=-6.262866e-02
2689=-6.331703e-03
2690=2.606195e-03
2692=-1.066202e-03
2693=-7.196062e-02
2694=7.910218e-04
2697=-9.854197e-07
2699=9.868703e-07
2700=7.610547e-01
2702=1.480900e-02
2703=-3.125520e+00
2707=-8.020780e-07
2709=9.155146e-07
2710=-6.794020e-01
2712=1.410825e-01
2713=1.107112e-01
2714=-1.155703e+00
2715=1.312295e+00
2717=-2.979926e-01
2720=-6.826926e-03
2722=-2.035804e-02
2723=3.386147e-02
2724=1.429800e-03
2727=3.700026e-03
2728=-1.022466e-02
2730=-5.679441e-01
2732=3.252078e-01
2734=6.553125e-04
2737=1.113726e-02
2739=-7.075066e-03
2740=7.673363e-01
2742=-1.095796e-02
2743=-7.548931e-01
2744=4.073228e-04
2745=5.651652e-03
2747=-7.603584e-02
2748=-7.215803e-02
2749=1.961716e-01
2750=-5.620390e-01
2752=-1.868002e-01
2753=2.519662e-01
2754=7.001116e-02
2755=-5.408297e-03
2757=-9.465636e-03
2759=1.321898e-01
2760=3.037481e+00
2762=-1.920171e+00
2763=-8.748063e-01
2764=-1.023694e-01
2765=-2.180088e-02
2767=-8.679087e-02
2768=3.145735e-01
2769=1.497620e-01
2772=1.246892e+00
2773=-9.592742e-01
2774=3.193528e-02
2775=-9.740352e-04
2777=-1.740896e+00
2787=2.024992e-01
2790=1.567061e-01
2792=1.530619e-01
2793=-2.666733e-01
2794=-4.130232e-01
2799=7.858142e-02
2800=-3.276187e-01
2802=8.213392e-03
2803=-7.873883e-01
2804=3.678416e-02
2807=-3.101892e-01
2808=8.826695e-02
2812=3.333253e-04
2815=3.631494e-02
2817=-1.106466e+00
2819=5.916862e-01
2820=5.742970e-03
2822=-3.567000e-04
2827=-1.394268e-02
2829=7.613316e-02
2832=2.385933e-01
2833=-1.800482e-02
2835=4.500400e-02
2837=-1.404338e-02
2838=1.275134e+00
2839=-5.844846e-04
2840=-1.657140e-05
2842=-4.067159e-01
2843=1.074218e-01
2844=1.416048e-01
2847=-4.197325e-02
2850=-2.452046e-02
2852=2.587440e-02
2853=3.329758e-03
2855=4.232808e-05
2857=-8.271847e-03
2858=-6.214984e-03
2859=5.268765e-02
2860=-3.526683e-04
2862=-1.517455e+00
2863=1.852156e+00
2867=-9.927029e-01
2869=4.544966e+00
2870=8.661498e-01
2872=-5.298823e-02
2873=-8.569016e-02
2874=1.923225e-02
2877=-4.163455e-01
2879=7.891963e-01
2880=1.771740e-03
2882=-6.591457e-04
2885=1.620174e-01
2887=-1.494094e+00
2888=-9.866387e-03
2889=2.304615e-01
2890=-7.090133e-04
2892=1.024730e-03
2895=-4.659440e-03
2897=3.336130e-01
2902=1.036224e-01
2904=-3.444222e-04
2905=-5.103700e-01
2907=1.735353e-01
2908=-5.091797e-03
2909=-7.233461e-03
2910=-2.224914e-01
2912=3.879047e-01
2913=-1.454378e+00
2914=3.777135e-02
2915=-2.000163e+00
2917=3.679258e-01
2918=-5.894253e-01
2919=-3.897512e-02
2925=-2.712921e-01
2927=5.445557e-03
2928=-4.964350e-01
2929=9.975038e-01
2932=2.460387e-01
2935=-5.479444e-03
2937=7.861473e-03
2938=-2.874902e-03
2939=-6.302842e-03
2944=-5.718588e-03
2949=2.163850e-05
2950=1.777716e-01
2952=5.318926e-05
2953=-1.116312e+00
2957=-9.938644e-03
2958=2.316345e-01
2960=-1.475645e-01
2962=-2.524674e-02
2963=4.412358e-01
2965=1.487260e-01
2967=4.730594e-03
2968=-8.780015e-01
2969=-3.854002e-03
2970=-4.186087e-02
2972=4.985565e-02
2974=2.544663e-02
2975=-2.981925e-01
2976=-1.434862e-02
2977=-2.268370e-02
2978=-4.431154e-01
2979=3.558170e-01
2982=8.360381e-03
2983=-6.128905e-04
2985=1.212761e+00
2987=-4.170578e-03
2988=-9.395147e-01
2989=-7.844509e-02
2990=2.665343e-02
2992=1.118368e-01
2993=-1.460845e-01
2994=-3.886762e-03
2997=3.799861e-02
2998=-9.548643e-01
3002=4.408565e-01
3003=-1.760772e-02
3004=-7.836176e-02
3009=9.100857e-04
3010=-5.986948e-02
3012=4.359624e-01
3013=-9.163300e-01
3014=1.250143e-02
3015=1.820917e-02
3017=-3.985525e-05
3022=4.591087e-01
3024=6.616947e-03
3025=1.333086e+00
3027=-6.838255e-01
3028=5.938930e-02
3029=2.140215e-02
3032=9.065813e-05
3033=2.355416e-02
3034=-7.154200e-04
3037=-1.098779e-02
3038=3.374900e-03
3042=-1.098779e-02
3043=3.374900e-03
3045=1.482000e-02
3048=-5.025225e-01
3049=3.509826e-02
3052=-1.098779e-02
3053=3.374900e-03
3057=-1.098779e-02
3058=3.374900e-03
3062=-1.098779e-02
3063=3.374900e-03
3067=-7.872784e-02
3068=1.280818e+00
3070=-9.675701e-03
3073=2.224141e-01
3100=1.186012e-01
3102=-7.406448e-04
3103=-1.392841e-02
3105=4.038086e-03
3107=-1.726197e+00
3108=4.166484e-02
3109=5.308146e-01
3110=-1.857226e-02
3113=1.088361e-03
3115=3.049301e-01
3117=-1.671895e-01
3118=5.330639e-01
3119=-1.555652e+00
3120=-1.038893e-02
3122=1.481110e-02
3125=-5.584026e-03
3127=4.263854e-03
3130=3.022790e-01
3132=-1.587932e-02
3133=7.041110e-01
3134=-1.145971e-01
3137=-2.307332e-02
3140=2.217482e-03
3142=-5.803999e-02
3144=3.601747e-02
3145=-3.069472e-04
3147=4.390418e-02
3148=9.027907e-04
3149=-8.517057e-03
3150=-2.900168e-02
3152=2.229707e-01
3155=-4.508105e-02
3157=1.592550e-02
3162=1.309767e-02
3165=-8.009715e-03
3167=1.741020e-02
3168=-4.199787e-04
3170=-4.779305e-04
3171=1.171211e-02
3181=3.277313e-02
3182=1.417009e+00
3186=-2.136930e+00
3187=-1.357636e+00
3191=8.508386e-01
3195=-6.487395e-01
3197=-2.962371e-03
3199=2.600387e-03
3200=-3.491721e-03
3202=1.138175e+00
3203=-2.285596e-01
3207=1.249442e-01
3208=-2.730075e-01
3212=1.190150e-01
3213=-4.791985e-02
3217=2.687769e+00
3218=-6.335825e-01
3232=1.373824e+00
3233=-1.214278e-01
3237=-1.772202e-01
3245=-7.722891e-02
3247=4.619704e-01
3248=-2.530095e-02
3249=-1.417002e+00
3252=1.352274e-01
3253=-1.291813e+00
3254=3.273547e-02
3255=4.485676e-01
3257=-2.487027e-01
3258=1.016982e-02
3259=-2.156114e-02
3262=-1.558862e-01
3263=1.633642e-01
3264=2.445900e-01
3267=7.215760e-02
3272=-3.608689e-02
3273=3.424797e-02
3275=2.370009e-01
3276=2.093157e-03
3277=-1.323402e-02
3278=-7.638528e-01
3282=7.858964e-02
3283=-3.529402e-01
3284=9.998079e-03
3285=-3.830483e-01
3287=-2.548850e-03
3288=1.588219e-01
3289=-3.797026e-01
3292=-1.401359e-04
3293=4.450003e-01
3294=-1.112118e+00
3295=2.330685e-02
3298=-6.056170e-02
3302=3.036893e-02
3304=-8.764981e-02
3309=6.505315e-03
3310=1.208880e-02
3312=-2.816049e-02
3313=1.044814e+00
3314=-1.347964e-02
3317=6.035517e-01
3318=-2.191677e-01
3319=3.516289e-02
3322=4.607782e-02
3327=4.286760e-02
3330=-1.396447e-01
3332=2.867075e-02
3333=-8.727440e-01
3334=6.970904e-02
3337=-4.539330e-07
3339=2.225823e-05
3340=3.787704e-04
3342=-1.221308e-01
3344=1.527837e-01
3347=-3.010074e-03
3349=3.736712e-02
3350=-1.173827e+00
3352=3.798742e-01
3353=-3.740728e-02
3354=-1.004205e+00
3355=-1.919171e+00
3357=2.539952e-01
3358=-3.445539e-02
3359=-5.005371e-03
3360=5.464854e-01
3362=-1.118332e-01
3363=-8.473025e-03
3364=4.901569e-02
3365=5.268015e-01
3367=-1.699235e-01
3368=-1.568724e-02
3369=4.387875e-02
3374=2.484302e-03
3377=-3.795074e-02
3378=3.677565e-02
3382=-6.360879e-01
3384=1.116297e+00
3387=1.746547e-01
3392=-1.862887e-02
3394=5.058555e-02
3395=2.057348e+00
3397=-7.738715e-02
3399=4.266603e-05
3400=-2.941131e-02
3402=-3.359218e-01
3403=2.500379e+00
3404=-1.715704e-01
3405=1.806286e-01
3407=-7.020986e-02
3408=7.477809e-02
3409=-3.444014e-01
3412=1.437854e+00
3413=-1.260895e-01
3414=-8.059207e-02
3415=8.652097e-02
3417=3.862732e-01
3418=-1.116556e+00
3419=-5.619629e-04
3422=3.690333e-01
3423=-9.049033e-02
3425=3.669557e-01
3427=1.675786e-02
3428=2.827348e-02
3429=-2.478983e-02
3433=-1.280445e-01
3434=7.896112e-02
3437=-7.701017e-02
3439=1.204480e+00
3440=-3.954598e-02
3442=1.766136e+00
3444=-9.272779e-04
3447=5.346193e-02
3450=1.549189e+00
3452=-5.525625e-02
3453=-8.560695e-02
3457=1.043412e-02
3462=6.495529e-02
3467=1.773230e-03
3469=-9.595916e-04
3472=3.345238e-01
3477=3.198437e-01
3483=-4.427313e-02
3488=9.691268e-07
3492=2.379595e-02
3495=-1.292142e-01
3497=-1.132417e+00
3498=2.392170e+00
3502=4.364807e-01
3503=-7.975046e-02
3504=-4.356176e-02
3507=5.324426e-01
3509=-9.271219e-03
3512=-1.826157e-01
3513=6.201998e-01
3517=1.317755e+00
3519=-7.362929e-01
3522=3.903924e-02
3527=6.321419e-02
3534=5.239933e-03
3535=-1.099516e-01
3537=6.942590e-01
3542=2.472935e-03
3544=-3.619034e-03
3545=1.987596e-01
3547=-1.531110e-01
3548=8.967987e-03
3550=3.392114e-01
3552=-1.889717e-01
3553=2.642779e-03
3555=-2.311088e-03
3557=-1.289229e-01
3558=4.689695e-02
3559=-8.056537e-02
3560=-4.543653e-01
3562=2.315946e-01
3563=-3.319840e-01
3564=2.101463e-02
3567=-1.529416e-02
3569=1.016696e-01
3570=-3.794145e-01
3572=6.028560e-01
3573=-1.750785e-02
3574=8.805416e-03
3577=-2.005645e-01
3582=3.171544e-01
3587=8.898886e-01
3588=-1.388849e-02
3592=-5.542208e-02
3599=1.454681e-01
3602=-9.673058e-03
3604=1.208184e-01
3607=-1.342436e-03
3608=2.233603e-01
3610=-1.466750e-01
3612=1.935285e+00
3613=-1.116153e-02
3615=-4.280216e-03
3617=1.854263e-01
3624=1.726158e-02
3625=-5.244874e-03
3627=1.324273e-02
3632=-3.701946e-03
3634=6.876256e-03
3637=5.376475e-01
3638=-2.201391e-02
3642=1.181275e+00
3643=-1.324594e-03
3644=-7.872482e-02
3648=9.506651e-05
3652=9.015096e-02
3655=-1.687707e+00
3657=3.733385e-01
3658=6.769104e-02
3662=-2.735453e-02
3663=9.102952e-03
3664=-4.182029e-02
3665=-4.670755e-01
3668=1.109026e-01
3672=3.338431e-02
3677=8.353301e-01
3679=-7.915310e-02
3682=1.237183e+00
3687=5.022011e-01
3692=2.090424e-01
3697=6.966644e-01
3698=-1.080601e-01
3702=-3.128945e-02
3703=1.091825e-02
3717=-1.234620e-01
3718=6.175908e-02
3730=-1.441498e-01
3732=2.228388e+00
3733=-5.575601e-01
3735=-1.777112e+00
3737=3.250555e-01
3738=8.931111e-02
3740=-1.041609e-03
3742=4.447789e-01
3743=3.144968e-05
3744=-7.107418e-01
3745=-7.309692e-04
3747=1.172538e-01
3748=-2.174083e-01
3749=4.750743e-04
3752=-1.230104e-02
3753=1.920412e-02
3757=-1.756191e-02
3758=4.648714e-01
3760=-6.769270e-03
3762=1.011579e+00
3763=-1.545577e-01
3768=-2.526851e-01
3769=5.999734e-04
3772=1.307265e-02
3775=-1.036904e-01
3777=4.369625e-02
3779=1.585661e-02
3782=2.216082e-02
3787=-1.328998e-01
3788=8.909198e-01
3790=-2.160872e-02
3792=6.006138e-03
3794=2.813596e-03
3797=3.823324e-03
3798=-3.658528e-03
3802=6.470042e-01
3803=-2.665730e-02
3805=1.273967e-02
3812=1.575388e-02
3813=-2.002737e-01
3817=5.364669e-02
3822=-3.849768e-02
3823=6.439244e-01
3827=4.512168e-01
3829=-1.838379e-01
3830=3.026384e-01
3832=-1.049870e-01
3835=5.311751e-03
3837=-5.450313e-01
3839=1.538403e+00
3842=1.954188e-03
3847=1.004660e+00
3848=-3.203356e-01
3852=1.225475e-01
3853=-2.238945e-02
3857=1.738543e+00
3859=-8.672532e-01
3862=6.511498e-03
3867=1.079662e+00
3868=-7.115370e-01
3870=7.621394e-04
3872=-2.120070e-02
3873=1.259023e-02
3875=-1.068576e-03
3878=4.160559e-03
3880=2.916712e-03
3882=-3.267813e-04
3887=4.786185e-03
3888=-7.710786e-03
3892=4.047211e-01
3893=-1.527351e-01
3897=2.511091e-01
3899=-2.481052e-02
3900=9.229712e-07
3902=1.479349e-01
3903=-7.361184e-01
3907=2.421723e-02
3909=-5.599504e-04
3910=5.615351e-02
3912=-7.362539e-04
3913=-5.041776e-01
3914=1.455270e-01
3917=-1.866349e-03
3920=9.025552e-03
3927=6.630349e-02
3928=-1.524031e-03
3929=-1.219845e-02
3932=-7.944865e-02
3933=1.013865e-01
3937=1.013328e-01
3939=-3.889340e-03
3942=-2.902714e-03
3943=5.597763e-05
3947=-6.295687e-01
3949=7.185953e-01
3952=-6.017948e-01
3954=7.011331e-01
3959=1.721163e-01
3964=6.938258e-01
3967=-4.258872e-03
3969=1.418314e+00
3972=-4.564871e-02
3974=3.159375e-01
3975=2.539960e-01
3977=-5.279586e-04
3980=2.539960e-01
3982=-5.279586e-04
3987=2.598368e-01
3988=-5.661629e-01
3992=-8.965157e-03
3994=2.097494e-02
3997=1.907857e-02
3998=-3.893442e-02
4002=-1.305786e+00
4004=6.738918e-01
4008=-1.819707e-04
4013=-1.819707e-04
4017=2.735647e-04
4020=-5.227702e-03
4022=4.472149e-03
4027=-1.654892e-03
4029=2.211789e-01
4032=2.286385e-01
4037=1.600240e-02
4038=-2.723176e-02
4042=-4.774625e-02
4043=4.092535e-01
4045=-3.187101e-02
4047=-4.003651e-01
4048=-5.020235e-01
4049=6.175417e-01
4052=-1.061912e-03
4054=2.792791e-03
4057=-7.891490e-02
4058=1.212408e-01
4062=-3.381125e-01
4063=4.270312e-01
4067=-3.381125e-01
4068=4.270312e-01
4072=-2.694156e-03
4073=5.460956e-04
4077=4.229619e-03
4082=-7.140292e-03
4083=9.104250e-03
4085=-1.367124e+00
4087=2.951792e-01
4089=4.862526e-03
4090=-2.887663e-02
4094=1.537282e-02
4099=9.153576e-02
4102=1.508164e-01
4104=-6.215742e-02
4107=2.389318e-02
4108=-2.233367e-02
4109=-5.921060e-02
4112=-1.848221e-02
4114=4.950064e-02
4117=-8.609567e-01
4118=1.681602e-03
4119=3.528529e-02
4122=-6.097055e-02
4124=2.939541e-02
4127=-4.465037e-01
4129=2.478174e-01
4132=-8.507870e-01
4133=2.662109e-01
4137=-2.782054e-05
4138=1.147050e-03
4140=-2.876578e-01
4142=1.280746e-01
4147=-3.335263e-01
4148=1.431814e-01
4152=-4.839198e-02
4154=6.821390e-01
4157=-1.081687e-01
4159=1.032844e+00
4162=4.772546e-01
4163=-8.784049e-05
4167=-4.097257e-03
4169=9.012345e-03
4172=-2.867055e-03
4174=6.366971e-03
4177=1.328601e-02
4182=2.387910e-04
4184=-1.149307e-05
4187=-1.453987e-04
4188=8.052782e-05
4192=-1.420450e+00
4193=4.397773e+00
4197=-5.382183e-02
4198=4.677579e-01
4202=-1.299357e+00
4203=1.887741e+00
4205=-3.035832e-01
4207=5.372681e-03
4208=-5.089541e-01
4209=9.851955e-01
4210=-3.806741e-03
4212=1.121524e+00
4214=-2.692381e-03
4217=7.791839e-01
4219=-6.604371e-02
4222=5.797869e-03
4223=-3.803308e-03
4225=-4.488307e-03
4227=9.148147e-02
4228=-1.026704e-03
4229=-1.039109e-03
4232=1.724290e-01
4233=-1.114296e-01
4237=3.713134e-01
4242=2.291751e-01
4244=-9.857104e-04
4247=2.388142e-01
4248=-1.635507e-01
4252=4.246315e-03
4255=-1.944998e-01
4257=1.876759e+00
4262=4.703385e-01
4267=4.454657e-02
4272=6.205278e-02
4275=1.545042e-02
4277=-2.977155e-02
4282=5.422387e-01
4283=-1.251363e-01
4287=1.443180e-02
4288=-8.918655e-02
4291=8.968377e-03
4302=7.815864e-02
4317=5.522099e-02
4318=-4.071203e-01
4322=9.617243e-01
4323=-1.817581e-02
4337=7.277018e-02
4352=5.024520e-04
4358=5.039663e-04
4360=2.952901e-01
4362=-8.058731e-02
4371=4.083319e-01
4381=-1.536015e-01
4395=4.142056e-01
4397=-1.072991e-01
4400=-1.568318e-03
4402=7.144041e-01
4405=-2.266677e-02
4407=1.855629e-01
4410=7.693473e-03
4417=-1.505849e-02
4419=1.737501e-02
4422=-1.505849e-02
4424=1.737501e-02
4426=1.950829e-03
4427=-1.103476e+00
4428=1.847085e+00
4431=3.585723e-02
4432=-3.971948e-01
4433=6.454215e-02
4441=1.121738e-02
4442=-8.376714e-02
4443=8.680005e-02
4446=-4.737816e-01
4451=1.748267e+00
4460=-8.974918e-01
4461=9.329906e-03
4462=-1.549786e-01
4463=1.536297e-01
4467=-1.237542e-01
4468=2.287339e-01
4470=-1.844507e-01
4471=1.298649e-02
4472=2.422567e-01
4473=-1.137988e-01
4474=-2.314704e-01
4480=-1.039564e-01
4481=1.329270e-02
4482=1.440783e-01
4483=2.266591e-02
4484=-1.119157e-01
4487=2.633298e-02
4488=-2.787273e-01
4490=-1.796054e-03
4491=1.613269e+00
4492=7.603473e-01
4493=-2.333142e-02
4494=-8.743991e-03
4502=8.427441e-01
4503=-1.078460e+00
4504=5.380481e-03
4507=-5.200702e-03
4508=6.449199e-03
4510=-2.900833e-02
4512=2.407920e-01
4513=-4.049644e-01
4514=-8.016830e-01
4515=-7.254667e-02
4517=-6.790164e-02
4518=3.479637e-01
4521=1.076012e-02
4522=-1.513888e+00
4523=1.715603e+00
4526=8.979997e-02
4532=4.677723e-02
4536=-1.797033e-03
4537=-2.916753e-05
4539=3.258750e-01
4542=-2.298582e-01
4544=3.782872e-01
4547=-3.692530e-01
4549=4.447460e-01
4552=-3.692530e-01
4554=4.447460e-01
4571=-2.211879e-01
4572=4.687915e-03
4581=3.793143e-01
4585=-2.269376e-02
4587=1.458909e-01
4591=-1.352195e-03
4592=3.153299e-03
4601=-1.255448e-03
4602=2.360363e-03
4621=-1.308448e-03
4622=2.340683e-03
4626=-1.308448e-03
4627=2.340683e-03
