#mdl#2#11723
#rdr#61/19/0
1:*,
18:u:Tok-1 X=%x[ 0,0],
18:u:tok-1 X=%x[ 0,1],
18:u:tok-1LL=%X[-2,0],
18:u:tok-1 L=%X[-1,0],
18:u:tok-1 R=%X[ 1,0],
18:u:tok-1RR=%X[ 2,0],
27:u:tok-2 L=%X[-1,0]/%X[ 0,0],
27:u:tok-2 R=%X[ 0,0]/%X[ 1,0],
18:*:Fst-1 X=%x[ 0,2],
18:u:Fst-1 R=%x[ 1,2],
27:u:Fst-2 X=%x[ 0,2]/%x[ 0,4],
27:u:Fst-2 R=%x[ 1,2]/%x[ 1,4],
18:*:Lst-1 L=%x[-1,3],
18:u:Lst-1 X=%x[ 0,3],
27:u:Lst-2 L=%x[-1,3]/%x[-1,6],
27:u:Lst-2 X=%x[ 0,3]/%x[ 0,6],
18:u:Pre-1 X=%x[ 0,4],
18:u:Pre-2 X=%x[ 0,5],
18:u:Pre-2 R=%x[ 1,5],
18:u:Suf-1 X=%x[ 0,6],
18:u:Suf-2 L=%x[-1,7],
18:u:Suf-2 X=%x[ 0,7],
18:u:Cap-1 L=%x[-1,8],
18:u:Cap-1 X=%x[ 0,8],
18:u:Cap-1 R=%x[ 1,8],
27:u:Cap-2 L=%x[-1,8]/%x[ 0,8],
27:u:Cap-2 R=%x[ 0,8]/%x[ 1,8],
28:u:Cap-3 L=%x[-1,18]/%x[ 0,8],
18:*:Num-1 L=%x[-1,9],
18:*:Num-1 X=%x[ 0,9],
18:u:Num-1 R=%x[ 1,9],
28:u:Num-2 R=%x[ 0,9]/%x[ 0,17],
28:u:Num-2 R=%x[ 0,9]/%x[ 0,18],
19:u:Nme-1 X=%x[ 0,10],
19:u:Loc-1 X=%x[ 0,11],
19:u:Pub-1 X=%x[ 0,12],
19:u:Jnl-1 X=%x[ 0,13],
19:u:Key-1 L=%x[-1,14],
19:u:Key-1 X=%x[ 0,14],
19:u:Key-1 R=%x[ 1,14],
28:u:Key-2 X=%x[ 0,14]/%x[ 0,8],
29:u:Key-3 L=%x[-1,18]/%x[ 0,14],
29:u:Key-3 x=%x[ 0,14]/%x[ 0,18],
19:u:Pos-1 X=%x[ 0,15],
29:u:Pos-2 L=%x[-1,15]/%x[ 0,15],
29:u:Pos-2 R=%x[ 0,15]/%x[ 1,15],
19:u:Pct-1 L=%x[-1,16],
19:u:Pct-1 X=%x[ 0,16],
19:u:Pct-1 R=%x[ 1,16],
19:u:Brk-1 L=%x[-1,17],
19:u:Brk-1 X=%x[ 0,17],
19:u:Brk-1 R=%x[ 1,17],
19:*:Tmn-1 L=%x[-1,18],
19:u:Tmn-1 X=%x[ 0,18],
19:u:Tmn-1 R=%x[ 1,18],
29:u:Tmn-2 L=%x[-1,14]/%x[ 0,18],
29:u:Tmn-2 R=%x[ 0,18]/%x[ 1,14],
28:u:Tmn-3 X=%x[ 0,18]/%x[ 0,6],
28:u:Tmn-4 R=%x[ 0,18]/%x[ 1,8],
19:u:Id--1 X=%x[ 0,19],
#qrk#23
6:author,
4:date,
5:title,
6:editor,
8:location,
15:container-title,
6:volume,
5:pages,
9:publisher,
4:note,
3:url,
15:citation-number,
7:journal,
5:genre,
16:collection-title,
7:edition,
6:source,
10:translator,
4:isbn,
3:doi,
8:director,
6:medium,
8:producer,
#qrk#3921
1:*,
14:u:tok-1LL=_x-2,
14:u:tok-1 L=_x-1,
12:*:Fst-1 X=Lu,
12:u:Fst-1 R=Lu,
14:u:Fst-2 X=Lu/H,
14:u:Fst-2 R=Lu/M,
14:*:Lst-1 L=_x-1,
12:u:Lst-1 X=Ll,
19:u:Lst-2 L=_x-1/_x-1,
14:u:Lst-2 X=Ll/r,
11:u:Pre-1 X=H,
12:u:Pre-2 R=M.,
11:u:Suf-1 X=r,
14:u:Suf-2 L=_x-1,
12:u:Suf-2 X=er,
14:u:Cap-1 L=_x-1,
17:u:Cap-1 X=initial,
16:u:Cap-1 R=single,
22:u:Cap-2 L=_x-1/initial,
24:u:Cap-2 R=initial/single,
22:u:Cap-3 L=_x-1/initial,
14:*:Num-1 L=_x-1,
14:*:Num-1 X=none,
15:u:Num-1 R=roman,
19:u:Num-2 R=none/none,
11:u:Nme-1 X=F,
11:u:Loc-1 X=F,
11:u:Pub-1 X=F,
11:u:Jnl-1 X=T,
14:u:Key-1 L=_x-1,
14:u:Key-1 X=none,
14:u:Key-1 R=none,
22:u:Key-2 X=none/initial,
19:u:Key-3 L=_x-1/none,
19:u:Key-3 x=none/none,
15:u:Pos-1 X=first,
20:u:Pos-2 L=_x-1/first,
17:u:Pos-2 R=first/1,
14:u:Pct-1 L=_x-1,
14:u:Pct-1 X=none,
16:u:Pct-1 R=period,
14:u:Brk-1 L=_x-1,
14:u:Brk-1 X=none,
14:u:Brk-1 R=none,
14:*:Tmn-1 L=_x-1,
14:u:Tmn-1 X=none,
14:u:Tmn-1 R=weak,
19:u:Tmn-2 L=_x-1/none,
19:u:Tmn-2 R=none/none,
16:u:Tmn-3 X=none/r,
21:u:Tmn-4 R=none/single,
11:u:Id--1 X=F,
11:u:tok-1 X=m,
14:u:tok-1LL=_x-1,
11:u:Fst-1 R=N,
14:u:Fst-2 X=Lu/M,
13:u:Fst-2 R=N/1,
12:*:Lst-1 L=Ll,
11:u:Lst-1 X=P,
14:u:Lst-2 L=Ll/r,
13:u:Lst-2 X=P/,,
11:u:Pre-1 X=M,
12:u:Pre-2 X=M.,
12:u:Pre-2 R=19,
11:u:Suf-1 X=,,
12:u:Suf-2 L=er,
12:u:Suf-2 X=.,,
17:u:Cap-1 L=initial,
16:u:Cap-1 X=single,
15:u:Cap-1 R=other,
24:u:Cap-2 L=initial/single,
22:u:Cap-2 R=single/other,
21:u:Cap-3 L=none/single,
14:*:Num-1 L=none,
15:*:Num-1 X=roman,
14:u:Num-1 R=year,
20:u:Num-2 R=roman/none,
20:u:Num-2 R=roman/weak,
11:u:Jnl-1 X=F,
14:u:Key-1 L=none,
21:u:Key-2 X=none/single,
19:u:Key-3 L=none/none,
19:u:Key-3 x=none/weak,
11:u:Pos-1 X=1,
17:u:Pos-2 L=first/1,
13:u:Pos-2 R=1/2,
14:u:Pct-1 L=none,
16:u:Pct-1 X=period,
15:u:Pct-1 R=other,
14:u:Brk-1 L=none,
14:*:Tmn-1 L=none,
14:u:Tmn-1 X=weak,
19:u:Tmn-2 L=none/weak,
19:u:Tmn-2 R=weak/none,
16:u:Tmn-3 X=weak/,,
20:u:Tmn-4 R=weak/other,
12:u:tok-1RR=et,
11:*:Fst-1 X=N,
13:u:Fst-2 X=N/1,
11:*:Lst-1 L=P,
13:u:Lst-2 L=P/,,
11:u:Pre-1 X=1,
12:u:Pre-2 X=19,
12:u:Suf-2 L=.,,
12:u:Suf-2 X=7,,
16:u:Cap-1 L=single,
15:u:Cap-1 X=other,
17:u:Cap-1 R=initial,
23:u:Cap-2 R=other/initial,
20:u:Cap-3 L=weak/other,
15:*:Num-1 L=roman,
14:*:Num-1 X=year,
14:u:Num-1 R=none,
19:u:Num-2 R=year/none,
19:u:Num-2 R=year/weak,
20:u:Key-2 X=none/other,
19:u:Key-3 L=weak/none,
11:u:Pos-1 X=2,
13:u:Pos-2 L=1/2,
13:u:Pos-2 R=2/3,
16:u:Pct-1 L=period,
15:u:Pct-1 X=other,
14:u:Pct-1 R=none,
14:*:Tmn-1 L=weak,
14:u:Tmn-1 R=none,
22:u:Tmn-4 R=weak/initial,
12:u:Fst-1 R=Ll,
14:u:Fst-2 R=Ll/e,
14:u:Lst-2 X=Ll/e,
11:u:Suf-1 X=e,
12:u:Suf-2 X=re,
15:u:Cap-1 L=other,
15:u:Cap-1 R=lower,
23:u:Cap-2 L=other/initial,
23:u:Cap-2 R=initial/lower,
22:u:Cap-3 L=weak/initial,
14:*:Num-1 L=year,
11:u:Pos-1 X=3,
13:u:Pos-2 L=2/3,
13:u:Pos-2 R=3/4,
15:u:Pct-1 L=other,
19:u:Tmn-2 L=none/none,
16:u:Tmn-3 X=none/e,
20:u:Tmn-4 R=none/lower,
12:u:Tok-1 X=et,
12:u:tok-1 X=et,
12:*:Fst-1 X=Ll,
14:u:Fst-2 X=Ll/e,
14:u:Fst-2 R=Ll/t,
14:u:Lst-2 L=Ll/e,
14:u:Lst-2 X=Ll/t,
11:u:Pre-1 X=e,
12:u:Pre-2 R=te,
11:u:Suf-1 X=t,
12:u:Suf-2 L=re,
12:u:Suf-2 X=et,
15:u:Cap-1 X=lower,
23:u:Cap-2 L=initial/lower,
21:u:Cap-2 R=lower/lower,
20:u:Cap-3 L=none/lower,
20:u:Key-2 X=none/lower,
11:u:Pos-1 X=4,
13:u:Pos-2 L=3/4,
13:u:Pos-2 R=4/5,
16:u:Tmn-3 X=none/t,
12:u:tok-1 L=et,
14:u:Fst-2 X=Ll/t,
14:u:Fst-2 R=Lu/G,
14:u:Lst-2 L=Ll/t,
11:u:Pre-1 X=t,
12:u:Pre-2 X=te,
12:u:Pre-2 R=Ga,
12:u:Suf-2 L=et,
12:u:Suf-2 X=s,,
15:u:Cap-1 L=lower,
21:u:Cap-2 L=lower/lower,
23:u:Cap-2 R=lower/initial,
19:u:Num-2 R=none/weak,
11:u:Pos-1 X=5,
13:u:Pos-2 L=4/5,
13:u:Pos-2 R=5/6,
12:u:tok-1LL=et,
14:u:Fst-2 X=Lu/G,
14:u:Fst-2 R=Lu/E,
11:u:Pre-1 X=G,
12:u:Pre-2 X=Ga,
12:u:Pre-2 R=Ed,
12:u:Suf-2 L=s,,
12:u:Suf-2 X=d,,
23:u:Cap-2 L=lower/initial,
25:u:Cap-2 R=initial/initial,
16:u:Key-1 R=editor,
11:u:Pos-1 X=6,
13:u:Pos-2 L=5/6,
13:u:Pos-2 R=6/7,
16:u:Tmn-1 R=strong,
21:u:Tmn-2 R=weak/editor,
12:u:tok-1 X=ed,
20:u:tok-1 L=gallimard,,
14:u:Fst-2 X=Lu/E,
13:u:Lst-2 X=P/.,
11:u:Pre-1 X=E,
12:u:Pre-2 X=Ed,
11:u:Suf-1 X=.,
12:u:Suf-2 L=d,,
25:u:Cap-2 L=initial/initial,
23:u:Cap-2 R=initial/other,
21:u:Num-2 R=none/strong,
16:u:Key-1 X=editor,
24:u:Key-2 X=editor/initial,
21:u:Key-3 L=weak/editor,
23:u:Key-3 x=editor/strong,
11:u:Pos-1 X=7,
13:u:Pos-2 L=6/7,
13:u:Pos-2 R=7/8,
16:u:Tmn-1 X=strong,
21:u:Tmn-2 L=none/strong,
21:u:Tmn-2 R=strong/none,
18:u:Tmn-3 X=strong/.,
22:u:Tmn-4 R=strong/other,
20:u:tok-1LL=gallimard,,
14:u:tok-1RR=_x+1,
14:u:Fst-2 R=Lu/P,
13:u:Lst-2 L=P/.,
12:u:Pre-2 R=Pa,
12:u:Suf-2 L=d.,
12:u:Suf-2 X=6,,
23:u:Cap-2 L=initial/other,
22:u:Cap-3 L=strong/other,
16:u:Key-1 L=editor,
21:u:Key-3 L=strong/none,
11:u:Pos-1 X=8,
13:u:Pos-2 L=7/8,
16:u:Pos-2 R=8/last,
16:*:Tmn-1 L=strong,
21:u:Tmn-2 L=editor/weak,
15:u:tok-1 X=paris,
14:u:tok-1 R=_x+1,
14:u:tok-1RR=_x+2,
14:u:Fst-1 R=_x+1,
14:u:Fst-2 X=Lu/P,
19:u:Fst-2 R=_x+1/_x+1,
11:u:Pre-1 X=P,
12:u:Pre-2 X=Pa,
14:u:Pre-2 R=_x+1,
12:u:Suf-2 L=6,,
12:u:Suf-2 X=s.,
14:u:Cap-1 R=_x+1,
22:u:Cap-2 R=initial/_x+1,
14:u:Num-1 R=_x+1,
11:u:Nme-1 X=T,
11:u:Loc-1 X=T,
14:u:Key-1 R=_x+1,
21:u:Key-3 x=none/strong,
14:u:Pos-1 X=last,
16:u:Pos-2 L=8/last,
19:u:Pos-2 R=last/_x+1,
14:u:Pct-1 R=_x+1,
14:u:Brk-1 R=_x+1,
14:u:Tmn-1 R=_x+1,
21:u:Tmn-2 R=strong/_x+1,
21:u:Tmn-4 R=strong/_x+1,
14:u:Fst-2 X=Lu/R,
14:u:Fst-2 R=Lu/C,
11:u:Pre-1 X=R,
12:u:Pre-2 X=Ro,
12:u:Pre-2 R=C.,
12:u:Suf-2 X=o,,
17:u:Pos-2 R=first/0,
19:u:Tmn-2 L=_x-1/weak,
21:u:Tmn-4 R=weak/single,
11:u:tok-1 X=c,
14:u:Fst-2 X=Lu/C,
11:u:Pre-1 X=C,
12:u:Pre-2 X=C.,
12:u:Suf-2 L=o,,
24:u:Cap-2 R=single/initial,
21:u:Cap-3 L=weak/single,
11:u:Pos-1 X=0,
17:u:Pos-2 L=first/0,
13:u:Pos-2 R=0/1,
11:u:tok-1RR=&,
14:u:Fst-2 R=Lu/D,
12:u:Pre-2 R=D.,
24:u:Cap-2 L=single/initial,
13:u:Pos-2 L=0/1,
13:u:Pos-2 R=1/1,
11:u:tok-1 R=&,
11:u:Fst-1 R=P,
14:u:Fst-2 X=Lu/D,
13:u:Fst-2 R=P/&,
11:u:Pre-1 X=D,
11:u:Pre-2 R=&,
13:u:Key-1 R=and,
13:u:Pos-2 L=1/1,
13:u:Pct-1 R=amp,
18:u:Tmn-2 R=weak/and,
15:u:tok-1 X=BLANK,
11:*:Fst-1 X=P,
13:u:Key-1 X=and,
18:u:Key-3 L=weak/and,
18:u:Key-3 x=and/none,
22:u:Tmn-4 R=none/initial,
11:u:tok-1 L=&,
13:u:Lst-2 L=P/&,
11:u:Suf-2 L=&,
12:u:Suf-2 X=k,,
22:u:Cap-3 L=none/initial,
13:u:Key-1 L=and,
13:u:Pct-1 L=amp,
18:u:Tmn-2 L=and/weak,
12:u:Tok-1 X=C.,
11:u:tok-1LL=&,
12:u:Fst-1 R=Ps,
14:u:Fst-2 R=Ps/(,
12:u:Pre-2 R=(2,
12:u:Suf-2 X=C.,
22:u:Num-2 R=roman/strong,
13:u:Pos-2 R=2/2,
16:u:Brk-1 R=parens,
14:u:tok-1 X=2011,
12:u:tok-1RR=in,
12:*:Fst-1 X=Ps,
14:u:Fst-2 X=Ps/(,
14:u:Fst-2 R=Lu/B,
11:u:Pre-1 X=(,
12:u:Pre-2 X=(2,
12:u:Pre-2 R=Br,
12:u:Suf-2 X=).,
21:u:Num-2 R=year/parens,
21:u:Num-2 R=year/strong,
13:u:Pos-2 L=2/2,
16:u:Brk-1 X=parens,
24:u:Tmn-4 R=strong/initial,
12:u:tok-1LL=c.,
12:u:tok-1 R=in,
13:u:tok-1RR=the,
14:u:Fst-2 X=Lu/B,
14:u:Fst-2 R=Ll/i,
14:u:Lst-2 X=Ll/y,
11:u:Pre-1 X=B,
12:u:Pre-2 X=Br,
12:u:Pre-2 R=in,
11:u:Suf-1 X=y,
12:u:Suf-2 L=).,
12:u:Suf-2 X=gy,
24:u:Cap-3 L=strong/initial,
12:u:Key-1 R=in,
16:u:Brk-1 L=parens,
17:u:Tmn-2 R=none/in,
16:u:Tmn-3 X=none/y,
12:u:Tok-1 X=in,
12:u:tok-1 X=in,
13:u:tok-1 R=the,
16:u:tok-2 R=in/the,
14:u:Fst-2 X=Ll/i,
14:u:Lst-2 L=Ll/y,
14:u:Lst-2 X=Ll/n,
11:u:Pre-1 X=i,
12:u:Pre-2 X=in,
12:u:Pre-2 R=th,
11:u:Suf-1 X=n,
12:u:Suf-2 L=gy,
12:u:Suf-2 X=in,
12:u:Key-1 X=in,
18:u:Key-2 X=in/lower,
17:u:Key-3 L=none/in,
17:u:Key-3 x=in/none,
16:u:Tmn-3 X=none/n,
13:u:Tok-1 X=the,
13:u:tok-1 X=the,
12:u:tok-1 L=in,
12:u:tok-1RR=an,
16:u:tok-2 L=in/the,
14:u:Fst-2 R=Ll/c,
14:u:Lst-2 L=Ll/n,
12:u:Pre-2 X=th,
12:u:Suf-2 L=in,
12:u:Suf-2 X=he,
11:u:Pub-1 X=T,
12:u:Key-1 L=in,
13:u:Pos-2 R=3/3,
15:u:Pct-1 R=colon,
18:u:Tmn-1 R=moderate,
17:u:Tmn-2 L=in/none,
12:u:tok-1LL=in,
13:u:tok-1 L=the,
12:u:tok-1 R=an,
14:u:Fst-2 X=Ll/c,
14:u:Fst-2 R=Lu/A,
13:u:Lst-2 X=P/:,
11:u:Pre-1 X=c,
12:u:Pre-2 R=An,
11:u:Suf-1 X=:,
12:u:Suf-2 L=he,
23:u:Num-2 R=none/moderate,
23:u:Key-3 x=none/moderate,
13:u:Pos-2 L=3/3,
15:u:Pct-1 X=colon,
18:u:Tmn-1 X=moderate,
23:u:Tmn-2 L=none/moderate,
23:u:Tmn-2 R=moderate/none,
20:u:Tmn-3 X=moderate/:,
26:u:Tmn-4 R=moderate/initial,
11:u:Id--1 X=T,
12:u:tok-1 X=an,
13:u:tok-1LL=the,
14:u:Fst-2 X=Lu/A,
14:u:Fst-2 R=Ll/o,
13:u:Lst-2 L=P/:,
11:u:Pre-1 X=A,
12:u:Pre-2 X=An,
12:u:Pre-2 R=on,
26:u:Cap-3 L=moderate/initial,
23:u:Key-3 L=moderate/none,
15:u:Pct-1 L=colon,
18:*:Tmn-1 L=moderate,
16:u:tok-1 X=online,
12:u:tok-1 L=an,
14:u:Fst-2 X=Ll/o,
14:u:Fst-2 R=Ll/g,
11:u:Pre-1 X=o,
12:u:Pre-2 X=on,
12:u:Suf-2 X=ne,
13:u:Pos-2 R=4/4,
14:u:Fst-2 X=Ll/g,
14:u:Fst-2 R=Ll/m,
14:u:Lst-2 X=Ll/h,
11:u:Pre-1 X=g,
11:u:Suf-1 X=h,
12:u:Suf-2 L=ne,
12:u:Suf-2 X=th,
13:u:Pos-2 L=4/4,
16:u:Tmn-3 X=none/h,
14:u:Fst-2 X=Ll/m,
14:u:Lst-2 L=Ll/h,
11:u:Pre-1 X=m,
12:u:Suf-2 L=th,
14:u:Fst-2 R=Ll/a,
12:u:Suf-2 X=on,
14:u:Fst-2 X=Ll/a,
14:u:Lst-2 X=Ll/s,
11:u:Pre-1 X=a,
11:u:Suf-1 X=s,
12:u:Suf-2 L=on,
12:u:Suf-2 X=ts,
14:u:Cap-1 R=caps,
20:u:Cap-2 R=lower/caps,
13:u:Pos-2 R=5/5,
16:u:Tmn-3 X=none/s,
19:u:Tmn-4 R=none/caps,
13:u:tok-1RR=and,
14:u:Lst-2 L=Ll/s,
12:u:Pre-2 R=co,
12:u:Suf-2 L=ts,
12:u:Suf-2 X=A,,
14:u:Cap-1 X=caps,
20:u:Cap-2 L=lower/caps,
20:u:Cap-2 R=caps/lower,
19:u:Cap-3 L=none/caps,
19:u:Key-2 X=none/caps,
13:u:Pos-2 L=5/5,
20:u:Tmn-4 R=weak/lower,
13:u:tok-1 R=and,
12:u:Pre-2 X=co,
12:u:Pre-2 R=an,
12:u:Suf-2 X=t,,
14:u:Cap-1 L=caps,
20:u:Cap-2 L=caps/lower,
20:u:Cap-3 L=weak/lower,
13:u:Tok-1 X=and,
13:u:tok-1 X=and,
14:u:Lst-2 X=Ll/d,
12:u:Pre-2 X=an,
11:u:Suf-1 X=d,
12:u:Suf-2 L=t,,
12:u:Suf-2 X=nd,
19:u:Key-2 X=and/lower,
16:u:Tmn-3 X=none/d,
13:u:tok-1 L=and,
14:u:Lst-2 L=Ll/d,
12:u:Pre-2 X=im,
12:u:Suf-2 L=nd,
13:u:Pos-2 R=6/6,
18:u:Tmn-2 L=and/none,
13:u:tok-1LL=and,
12:u:Pre-2 R=Po,
13:u:Pos-2 L=6/6,
14:u:Fst-2 R=Ll/s,
12:u:Pre-2 X=Po,
12:u:Suf-2 L=s.,
19:u:tok-1 R=presented,
12:u:tok-1RR=at,
14:u:Fst-2 X=Ll/s,
14:u:Fst-2 R=Ll/p,
11:u:Pre-1 X=s,
12:u:Pre-2 X=se,
12:u:Pre-2 R=pr,
19:u:Tok-1 X=presented,
19:u:tok-1 X=presented,
12:u:tok-1 R=at,
22:u:tok-2 R=presented/at,
14:u:Fst-2 X=Ll/p,
11:u:Pre-1 X=p,
12:u:Pre-2 X=pr,
12:u:Pre-2 R=at,
12:u:Suf-2 X=ed,
13:u:Pos-2 R=7/7,
12:u:Tok-1 X=at,
12:u:tok-1 X=at,
19:u:tok-1 L=presented,
17:u:tok-1 R=society,
13:u:tok-1RR=for,
22:u:tok-2 L=presented/at,
14:u:Fst-2 R=Lu/S,
12:u:Pre-2 R=So,
12:u:Suf-2 L=ed,
12:u:Suf-2 X=at,
13:u:Pos-2 L=7/7,
17:u:Tok-1 X=Society,
17:u:tok-1 X=society,
19:u:tok-1LL=presented,
12:u:tok-1 L=at,
13:u:tok-1 R=for,
18:u:tok-1RR=research,
14:u:Fst-2 X=Lu/S,
14:u:Fst-2 R=Ll/f,
11:u:Pre-1 X=S,
12:u:Pre-2 X=So,
12:u:Pre-2 R=fo,
12:u:Suf-2 L=at,
12:u:Suf-2 X=ty,
13:u:Tok-1 X=for,
13:u:tok-1 X=for,
12:u:tok-1LL=at,
17:u:tok-1 L=society,
18:u:tok-1 R=research,
14:u:Fst-2 X=Ll/f,
14:u:Fst-2 R=Lu/R,
11:u:Pre-1 X=f,
12:u:Pre-2 X=fo,
12:u:Pre-2 R=Re,
12:u:Suf-2 L=ty,
12:u:Suf-2 X=or,
13:u:Pos-2 R=8/8,
18:u:Tok-1 X=Research,
18:u:tok-1 X=research,
17:u:tok-1LL=society,
13:u:tok-1 L=for,
12:u:Pre-2 X=Re,
12:u:Suf-2 L=or,
12:u:Suf-2 X=ch,
13:u:Pos-2 L=8/8,
13:u:tok-1LL=for,
18:u:tok-1 L=research,
21:u:tok-1RR=development,
12:u:Pre-2 R=Ch,
12:u:Suf-2 L=ch,
18:u:tok-1LL=research,
21:u:tok-1 R=development,
12:u:Pre-2 X=Ch,
12:u:Pre-2 R=De,
12:u:Suf-2 X=ld,
13:u:Pos-2 R=8/9,
21:u:tok-1 X=development,
12:u:Pre-2 X=De,
12:u:Pre-2 R=Bi,
12:u:Suf-2 L=ld,
12:u:Suf-2 X=nt,
11:u:Pos-1 X=9,
13:u:Pos-2 L=8/9,
13:u:Pos-2 R=9/9,
14:u:Lst-2 X=Ll/l,
12:u:Pre-2 X=Bi,
12:u:Pre-2 R=Me,
11:u:Suf-1 X=l,
12:u:Suf-2 L=nt,
12:u:Suf-2 X=al,
21:u:Key-1 R=proceedings,
13:u:Pos-2 L=9/9,
26:u:Tmn-2 R=none/proceedings,
16:u:Tmn-3 X=none/l,
17:u:tok-1 X=meeting,
21:u:tok-1LL=development,
14:u:Lst-2 L=Ll/l,
12:u:Pre-2 X=Me,
12:u:Pre-2 R=Mo,
12:u:Suf-2 L=al,
12:u:Suf-2 X=g,,
21:u:Key-1 X=proceedings,
29:u:Key-2 X=proceedings/initial,
26:u:Key-3 L=none/proceedings,
26:u:Key-3 x=proceedings/weak,
12:u:Pre-2 X=Mo,
12:u:Pre-2 R=Ca,
12:u:Suf-2 L=g,,
12:u:Suf-2 X=l,,
21:u:Key-1 L=proceedings,
16:u:Pos-2 R=9/last,
17:u:Tok-1 X=Canada.,
16:u:tok-1 X=canada,
12:u:Pre-2 X=Ca,
12:u:Suf-2 L=l,,
12:u:Suf-2 X=a.,
16:u:Pos-2 L=9/last,
12:u:Suf-2 X=n,,
12:u:Pre-2 R=(1,
12:u:Suf-2 L=n,,
12:u:Suf-2 X=G.,
12:u:tok-1 L=g.,
12:u:Pre-2 X=(1,
12:u:Suf-2 L=G.,
12:u:tok-1LL=g.,
17:u:tok-1 L=(1999).,
13:u:Fst-2 R=N/2,
12:u:Pre-2 R=29,
17:u:Num-1 R=numeric,
20:u:Tmn-4 R=none/other,
12:u:tok-1 X=29,
17:u:tok-1LL=(1999).,
13:u:Fst-2 X=N/2,
14:u:Fst-2 R=Lu/I,
11:u:Pre-1 X=2,
12:u:Pre-2 X=29,
12:u:Pre-2 R=In,
12:u:Suf-2 X=9.,
20:u:Cap-3 L=none/other,
17:*:Num-1 X=numeric,
22:u:Num-2 R=numeric/none,
24:u:Num-2 R=numeric/strong,
14:u:Fst-2 X=Lu/I,
11:u:Pre-1 X=I,
12:u:Pre-2 X=In,
12:u:Suf-2 L=9.,
17:*:Num-1 L=numeric,
14:u:Fst-2 R=Ll/l,
14:u:Fst-2 X=Ll/l,
11:u:Pre-1 X=l,
12:u:Pre-2 R=ma,
12:u:Suf-2 X=t.,
19:u:Tmn-2 R=strong/in,
12:u:Tok-1 X=In,
14:u:Fst-2 R=Lu/O,
12:u:Suf-2 L=t.,
12:u:Suf-2 X=In,
20:u:Key-2 X=in/initial,
19:u:Key-3 L=strong/in,
14:u:Fst-2 X=Lu/O,
11:u:Pre-1 X=O,
12:u:Suf-2 L=In,
23:u:Cap-2 R=single/single,
19:u:Tmn-2 L=in/strong,
23:u:Tmn-4 R=strong/single,
12:u:Pre-2 R=A.,
23:u:Cap-2 L=single/single,
23:u:Cap-3 L=strong/single,
11:u:tok-1 X=a,
12:u:Pre-2 X=A.,
12:u:Suf-2 X=A.,
22:u:Cap-2 R=single/lower,
20:u:Tmn-2 R=strong/and,
22:u:Tmn-4 R=strong/lower,
12:u:tok-1 L=a.,
12:u:Suf-2 L=A.,
22:u:Cap-2 L=single/lower,
22:u:Cap-2 R=lower/single,
22:u:Cap-3 L=strong/lower,
20:u:Key-3 L=strong/and,
16:u:tok-1RR=(ed.),,
22:u:Cap-2 L=lower/single,
20:u:Tmn-2 L=and/strong,
12:u:tok-1 L=d.,
12:u:Suf-2 X=rd,
21:u:Tmn-2 R=none/editor,
18:u:tok-1 R=handbook,
12:u:tok-1RR=of,
14:u:Fst-2 R=Lu/H,
12:u:Pre-2 R=Ha,
12:u:Suf-2 L=rd,
12:u:Suf-2 X=),,
21:u:Num-2 R=none/parens,
21:u:Key-3 L=none/editor,
18:u:Tmn-3 X=strong/,,
18:u:Tok-1 X=Handbook,
18:u:tok-1 X=handbook,
16:u:tok-1 L=(ed.),,
12:u:tok-1 R=of,
21:u:tok-2 R=handbook/of,
14:u:Lst-2 X=Ll/k,
12:u:Pre-2 X=Ha,
12:u:Pre-2 R=of,
11:u:Suf-1 X=k,
12:u:Suf-2 L=),,
12:u:Suf-2 X=ok,
21:u:Tmn-2 L=editor/none,
16:u:Tmn-3 X=none/k,
12:u:Tok-1 X=of,
12:u:tok-1 X=of,
16:u:tok-1LL=(ed.),,
18:u:tok-1 L=handbook,
21:u:tok-2 L=handbook/of,
14:u:Lst-2 L=Ll/k,
14:u:Lst-2 X=Ll/f,
12:u:Pre-2 X=of,
11:u:Suf-1 X=f,
12:u:Suf-2 L=ok,
12:u:Suf-2 X=of,
16:u:Tmn-3 X=none/f,
18:u:tok-1LL=handbook,
12:u:tok-1 L=of,
14:u:Lst-2 L=Ll/f,
12:u:Suf-2 L=of,
12:u:tok-1LL=of,
12:u:Suf-2 X=cs,
16:u:Key-1 R=volume,
23:u:Brk-1 R=opening-paren,
21:u:Tmn-2 R=none/volume,
13:u:Fst-2 R=N/3,
12:u:Suf-2 L=cs,
12:u:Suf-2 X=l.,
28:u:Num-2 R=none/opening-paren,
16:u:Key-1 X=volume,
24:u:Key-2 X=volume/initial,
21:u:Key-3 L=none/volume,
23:u:Key-3 x=volume/strong,
23:u:Brk-1 X=opening-paren,
13:u:Fst-2 X=N/3,
11:u:Pre-1 X=3,
12:u:Suf-2 L=l.,
22:u:Num-2 R=numeric/weak,
16:u:Key-1 L=volume,
23:u:Brk-1 L=opening-paren,
21:u:Tmn-2 L=volume/weak,
14:u:Tok-1 X=Part,
14:u:tok-1 X=part,
13:u:tok-1RR=pp.,
12:u:Suf-2 L=3,,
12:u:Suf-2 X=rt,
13:u:tok-1 R=pp.,
12:u:Pre-2 R=pp,
12:u:Suf-2 L=rt,
14:u:Key-1 R=page,
19:u:Tmn-2 R=weak/page,
17:u:tok-1RR=london:,
12:u:Suf-2 X=p.,
21:u:Cap-2 R=lower/other,
14:u:Key-1 X=page,
20:u:Key-2 X=page/lower,
19:u:Key-3 L=weak/page,
21:u:Key-3 x=page/strong,
16:u:Pct-1 R=hyphen,
23:u:Brk-1 R=closing-paren,
17:u:tok-1 R=london:,
14:u:Fst-2 R=Lu/L,
12:u:Pre-2 R=Lo,
12:u:Suf-2 L=p.,
21:u:Cap-2 L=lower/other,
28:u:Num-2 R=year/closing-paren,
14:u:Key-1 L=page,
16:u:Pct-1 X=hyphen,
23:u:Brk-1 X=closing-paren,
16:u:tok-1 X=london,
13:u:tok-1LL=pp.,
19:u:tok-1RR=retrieved,
14:u:Fst-2 X=Lu/L,
11:u:Pre-1 X=L,
12:u:Pre-2 X=Lo,
12:u:Pre-2 R=El,
12:u:Suf-2 X=n:,
16:u:Pct-1 L=hyphen,
23:u:Brk-1 L=closing-paren,
19:u:tok-1 R=retrieved,
14:u:tok-1RR=from,
12:u:Pre-2 X=El,
12:u:Suf-2 L=n:,
12:u:Suf-2 X=r.,
18:u:Key-1 R=accessed,
25:u:Tmn-2 R=strong/accessed,
14:u:tok-1 R=from,
12:u:Pre-2 R=fr,
12:u:Suf-2 L=r.,
18:u:Key-1 X=accessed,
26:u:Key-2 X=accessed/initial,
25:u:Key-3 L=strong/accessed,
23:u:Key-3 x=accessed/none,
14:u:Fst-2 R=Ll/h,
14:u:Lst-2 X=Ll/m,
12:u:Pre-2 R=ht,
11:u:Suf-1 X=m,
18:u:Key-1 L=accessed,
23:u:Tmn-2 L=accessed/none,
16:u:Tmn-3 X=none/m,
14:u:Fst-2 X=Ll/h,
11:u:Lst-1 X=N,
14:u:Lst-2 L=Ll/m,
13:u:Lst-2 X=N/2,
11:u:Pre-1 X=h,
12:u:Pre-2 X=ht,
11:u:Suf-1 X=2,
20:u:Cap-2 R=other/_x+1,
19:u:Tmn-2 R=none/_x+1,
16:u:Tmn-3 X=none/2,
19:u:Tmn-4 R=none/_x+1,
13:u:Fst-2 X=N/6,
11:u:Pre-1 X=6,
12:u:Pre-2 X=60,
12:u:Pre-2 R=Di,
12:u:Suf-2 X=0.,
20:u:Cap-2 L=_x-1/other,
20:u:Cap-3 L=_x-1/other,
21:u:Tmn-2 L=_x-1/strong,
12:u:Pre-2 X=Di,
12:u:Suf-2 X=es,
12:u:Suf-2 L=es,
14:u:Lst-2 X=Ll/c,
11:u:Suf-1 X=c,
12:u:Suf-2 X=ic,
16:u:Tmn-3 X=none/c,
14:u:Fst-2 R=Ll/r,
14:u:Lst-2 L=Ll/c,
12:u:Pre-2 X=fa,
12:u:Pre-2 R=re,
12:u:Suf-2 L=ic,
12:u:Suf-2 X=ue,
14:u:Fst-2 X=Ll/r,
14:u:Fst-2 R=Ll/b,
11:u:Pre-1 X=r,
12:u:Pre-2 X=re,
12:u:Suf-2 L=ue,
12:u:Suf-2 X=ce,
14:u:Fst-2 X=Ll/b,
11:u:Pre-1 X=b,
12:u:Pre-2 R=Pr,
12:u:Suf-2 L=ce,
12:u:Suf-2 X=en,
14:u:Fst-2 R=Lu/N,
12:u:Pre-2 X=Pr,
12:u:Pre-2 R=Ne,
12:u:Suf-2 L=en,
14:u:Fst-2 X=Lu/N,
11:u:Pre-1 X=N,
12:u:Pre-2 X=Ne,
18:u:Tmn-2 R=none/and,
18:u:Key-3 L=none/and,
14:u:Fst-2 R=Lu/U,
12:u:Pre-2 R=Un,
14:u:Fst-2 X=Lu/U,
11:u:Pre-1 X=U,
12:u:Pre-2 X=Un,
14:u:Fst-2 R=Ll/d,
12:u:Pre-2 R=di,
14:u:Fst-2 X=Ll/d,
11:u:Pre-1 X=d,
14:u:Fst-2 R=Lu/J,
12:u:Suf-2 X=as,
22:u:Cap-2 R=initial/caps,
14:u:Fst-2 X=Lu/J,
11:u:Pre-1 X=J,
12:u:Pre-2 R=Ar,
12:u:Suf-2 L=as,
22:u:Cap-2 L=initial/caps,
22:u:Cap-2 R=caps/initial,
12:u:tok-1RR=de,
12:u:Pre-2 X=Ar,
22:u:Cap-2 L=caps/initial,
12:u:tok-1 R=de,
12:u:Pre-2 R=de,
12:u:Tok-1 X=de,
12:u:tok-1 X=de,
15:u:tok-2 R=de/la,
12:u:Pre-2 X=de,
12:u:Suf-2 X=de,
12:u:tok-1 X=la,
12:u:tok-1 L=de,
15:u:tok-2 L=de/la,
14:u:Lst-2 X=Ll/a,
12:u:Pre-2 R=Ma,
11:u:Suf-1 X=a,
12:u:Suf-2 L=de,
12:u:Suf-2 X=la,
16:u:Tmn-3 X=none/a,
12:u:tok-1LL=de,
12:u:tok-1 L=la,
14:u:Lst-2 L=Ll/a,
12:u:Pre-2 X=Ma,
12:u:tok-1LL=la,
12:u:Pre-2 R=Pe,
12:u:Pre-2 X=Pe,
12:u:Suf-2 X=rs,
12:u:Suf-2 L=rs,
12:u:Pre-2 R=20,
14:u:tok-1 X=2014,
12:u:Pre-2 X=20,
22:u:Cap-2 R=other/single,
11:u:tok-1 X=j,
14:u:tok-1RR=vol.,
12:u:Lst-1 X=Lu,
14:u:Lst-2 X=Lu/J,
12:u:Pre-2 R=En,
11:u:Suf-1 X=J,
12:u:Suf-2 L=4,,
22:u:Cap-2 L=other/single,
16:u:Tmn-3 X=none/J,
14:u:tok-1 R=vol.,
14:u:Fst-2 R=Lu/V,
12:*:Lst-1 L=Lu,
12:u:Pre-2 X=En,
12:u:Pre-2 R=Vo,
21:u:Tmn-2 R=weak/volume,
14:u:Fst-2 X=Lu/V,
13:u:Fst-2 R=N/9,
11:u:Pre-1 X=V,
12:u:Pre-2 X=Vo,
21:u:Key-3 L=weak/volume,
14:u:tok-1 L=vol.,
12:u:Suf-2 X=9,,
21:u:Cap-2 R=other/lower,
14:u:tok-1LL=vol.,
12:u:Suf-2 L=9,,
21:u:Cap-2 L=other/lower,
12:u:Suf-2 X=1.,
14:u:Fst-2 R=Lu/F,
12:u:Pre-2 R=F.,
11:u:tok-1 X=f,
14:u:Fst-2 X=Lu/F,
11:u:Pre-1 X=F,
12:u:Pre-2 X=F.,
12:u:Suf-2 X=y,,
11:u:tok-1 X=s,
12:u:Pre-2 X=S.,
12:u:Suf-2 L=y,,
21:u:Key-2 X=page/single,
19:u:Tmn-4 R=weak/caps,
19:u:Cap-3 L=weak/caps,
12:u:tok-1 X=ma,
20:u:Cap-2 R=caps/other,
12:u:Pre-2 R=Ph,
20:u:Cap-2 L=caps/other,
12:u:Pre-2 X=Ph,
12:u:Pre-2 X=do,
14:u:Fst-2 X=Ll/n,
11:u:Pre-1 X=n,
12:u:Suf-2 X=ns,
14:u:Fst-2 R=Ll/v,
12:u:Suf-2 L=ns,
12:u:tok-1RR=by,
14:u:Fst-2 X=Ll/v,
11:u:Pre-1 X=v,
14:u:Lst-2 X=Lu/A,
11:u:Suf-1 X=A,
16:u:Tmn-3 X=none/A,
12:u:Tok-1 X=by,
12:u:tok-1 X=by,
14:u:Lst-2 L=Lu/A,
12:u:Pre-2 X=by,
12:u:Suf-2 X=by,
12:u:Pre-2 R=st,
12:u:Suf-2 X=us,
12:u:tok-1LL=by,
12:u:Pre-2 X=st,
12:u:Suf-2 L=us,
12:u:Suf-2 X=i.,
14:u:tok-1 X=proc,
12:u:Pre-2 R=Na,
12:u:Suf-2 L=i.,
14:u:tok-1 X=natl,
12:u:Pre-2 X=Na,
12:u:Pre-2 R=Ac,
14:u:tok-1 X=acad,
12:u:Pre-2 X=Ac,
12:u:Pre-2 R=Sc,
12:u:Suf-2 X=ad,
13:u:tok-1 X=sci,
14:u:Lst-2 X=Ll/i,
12:u:Pre-2 X=Sc,
11:u:Suf-1 X=i,
12:u:Suf-2 L=ad,
16:u:Tmn-3 X=none/i,
11:u:tok-1RR=a,
14:u:Lst-2 L=Ll/i,
19:u:Tmn-2 R=none/page,
11:u:tok-1 R=a,
14:u:Lst-2 X=Lu/S,
11:u:Pre-2 R=A,
11:u:Suf-1 X=S,
16:u:Tmn-3 X=none/S,
11:u:Tok-1 X=A,
14:u:Lst-2 L=Lu/S,
11:u:Pre-2 X=A,
12:u:Pre-2 R=10,
11:u:Suf-2 X=A,
19:u:Tmn-2 L=page/none,
11:u:tok-1 L=a,
13:u:Fst-2 R=N/4,
12:u:Pre-2 X=10,
11:u:Suf-2 L=A,
21:u:Cap-2 R=other/other,
11:u:tok-1LL=a,
13:u:Fst-2 X=N/4,
11:u:Pre-1 X=4,
21:u:Cap-2 L=other/other,
15:u:tok-1 X=adams,
12:u:Pre-2 X=Ad,
12:u:Fst-1 R=Pi,
16:u:Fst-2 R=Pi/“,
12:*:Fst-1 X=Pi,
16:u:Fst-2 X=Pi/“,
13:u:Pre-1 X=“,
12:u:Pre-2 R=Sp,
12:u:Pre-2 X=Sp,
12:u:Pre-2 R=Ro,
12:u:Suf-2 X=sh,
12:u:Suf-2 L=sh,
12:u:Suf-2 X=st,
12:u:Pre-2 R=Hi,
12:u:Pre-2 X=Hi,
12:u:Suf-2 X=os,
12:u:Suf-2 L=os,
14:u:Fst-2 R=Lu/T,
12:u:Suf-2 X=el,
21:u:tok-1RR=proceedings,
14:u:Fst-2 X=Lu/T,
14:u:Lst-2 X=Ll/o,
11:u:Pre-1 X=T,
12:u:Pre-2 R=Tr,
11:u:Suf-1 X=o,
12:u:Suf-2 L=el,
16:u:Tmn-3 X=none/o,
21:u:tok-1 R=proceedings,
12:u:Lst-1 X=Pf,
14:u:Lst-2 L=Ll/o,
16:u:Lst-2 X=Pf/”,
12:u:Pre-2 X=Tr,
13:u:Suf-1 X=”,
14:u:Suf-2 X=,”,
20:u:Tmn-3 X=strong/”,
21:u:Tok-1 X=Proceedings,
21:u:tok-1 X=proceedings,
24:u:tok-2 R=proceedings/of,
12:*:Lst-1 L=Pf,
16:u:Lst-2 L=Pf/”,
14:u:Suf-2 L=,”,
12:u:Suf-2 X=gs,
28:u:Key-3 L=strong/proceedings,
26:u:Key-3 x=proceedings/none,
21:u:tok-1 L=proceedings,
24:u:tok-2 L=proceedings/of,
16:u:tok-2 R=of/the,
12:u:Suf-2 L=gs,
26:u:Tmn-2 L=proceedings/none,
21:u:tok-1LL=proceedings,
16:u:tok-2 L=of/the,
22:u:tok-1RR=association,,
12:u:Pre-2 R=La,
12:u:Suf-2 X=rn,
22:u:tok-1 R=association,,
12:u:Pre-2 X=La,
12:u:Pre-2 R=As,
12:u:Suf-2 L=rn,
12:u:Suf-2 X=ge,
22:u:Tok-1 X=Association,,
21:u:tok-1 X=association,
12:u:Pre-2 X=As,
12:u:Suf-2 L=ge,
16:u:Num-1 R=double,
13:u:Lst-2 X=N/5,
11:u:Suf-1 X=5,
16:*:Num-1 X=double,
21:u:Num-2 R=double/none,
16:u:Tmn-3 X=none/5,
11:*:Lst-1 L=N,
16:*:Num-1 L=double,
13:u:Fst-2 R=N/5,
13:u:Fst-2 X=N/5,
11:u:Pre-1 X=5,
12:u:Suf-2 X=7.,
12:u:Pre-2 X=Le,
12:u:Pre-2 R=L.,
12:u:Suf-2 X=e,,
11:u:tok-1 X=l,
12:u:Pre-2 X=L.,
12:u:Suf-2 L=e,,
14:u:Fst-2 R=Lu/W,
14:u:Fst-2 X=Lu/W,
11:u:Pre-1 X=W,
12:u:Pre-2 R=Ho,
12:u:Suf-2 L=W.,
12:u:tok-1LL=w.,
12:u:tok-1 L=e.,
12:u:Pre-2 X=Ho,
12:u:Suf-2 L=E.,
12:u:tok-1LL=e.,
12:u:tok-1 R=r.,
12:u:Pre-2 R=R.,
12:u:Tok-1 X=R.,
12:u:Suf-2 X=R.,
12:u:tok-1 L=r.,
12:u:Suf-2 L=R.,
15:u:tok-1 R=1990.,
12:u:Suf-2 X=h.,
14:u:tok-1 X=1990,
12:u:Suf-2 L=h.,
12:u:Pre-2 R=to,
12:u:Pre-2 X=to,
12:u:Pre-2 R=po,
12:u:Pre-2 X=po,
12:u:Pre-2 R=Ve,
20:u:tok-1RR=conference,
12:u:Pre-2 X=Ve,
12:u:Suf-2 X=te,
20:u:tok-1 R=conference,
12:u:Pre-2 R=Co,
12:u:Suf-2 L=te,
20:u:Tok-1 X=Conference,
20:u:tok-1 X=conference,
20:u:tok-1LL=vertebrate,
14:u:tok-1 L=pest,
25:u:tok-2 L=pest/conference,
12:u:Pre-2 X=Co,
13:u:Fst-2 R=N/8,
26:u:Num-2 R=numeric/moderate,
24:u:Tmn-4 R=moderate/other,
13:u:Fst-2 X=N/8,
11:u:Pre-1 X=8,
24:u:Cap-3 L=moderate/other,
21:u:Cap-2 L=_x-1/single,
21:u:Cap-3 L=_x-1/single,
14:u:Fst-2 R=Lu/K,
14:u:Fst-2 X=Lu/K,
11:u:Pre-1 X=K,
12:u:Suf-2 X=r,,
12:u:Suf-2 L=r,,
12:u:Suf-2 X=P.,
12:u:Pre-2 R=Fo,
14:u:Lst-2 X=Ll/g,
12:u:Pre-2 X=Fo,
11:u:Suf-1 X=g,
12:u:Suf-2 X=ng,
16:u:Tmn-3 X=none/g,
14:u:Lst-2 L=Ll/g,
12:u:Suf-2 L=ng,
21:u:Tok-1 X=development,
12:u:Pre-2 R=wi,
14:u:Fst-2 X=Ll/w,
11:u:Pre-1 X=w,
12:u:Pre-2 X=wi,
12:u:Pre-2 R=St,
12:u:Pre-2 X=St,
12:u:Suf-2 X=m.,
12:u:Suf-2 L=m.,
12:u:Pre-2 R=Jo,
12:u:Pre-2 X=Jo,
12:u:Suf-2 L=B.,
12:u:tok-1LL=b.,
12:u:Pre-2 R=Sh,
12:u:Pre-2 X=Sh,
12:u:Suf-2 X=w,,
12:u:Suf-2 X=T.,
12:u:Pre-2 R=ed,
12:u:Suf-2 L=T.,
12:u:Pre-2 X=ed,
22:u:Key-2 X=editor/lower,
21:u:Key-3 x=editor/weak,
15:u:Tok-1 X=Proc.,
12:u:Suf-2 X=c.,
17:u:Num-1 R=ordinal,
15:u:tok-1 L=proc.,
12:u:Suf-2 L=c.,
20:u:Cap-2 R=other/caps,
17:*:Num-1 X=ordinal,
22:u:Num-2 R=ordinal/none,
24:u:Num-2 R=ordinal/strong,
21:u:Tmn-4 R=strong/caps,
15:u:tok-1LL=proc.,
19:u:tok-1RR=workshop,,
12:u:Suf-2 X=CS,
20:u:Cap-2 L=other/caps,
21:u:Cap-3 L=strong/caps,
17:*:Num-1 L=ordinal,
19:u:tok-1 R=workshop,,
15:u:tok-1RR=1992.,
12:u:Pre-2 R=Wo,
12:u:Suf-2 L=CS,
19:u:Tok-1 X=Workshop,,
18:u:tok-1 X=workshop,
15:u:tok-1 R=1992.,
12:u:Pre-2 X=Wo,
12:u:Suf-2 X=p,,
14:u:tok-1 X=1992,
12:u:Suf-2 X=2.,
12:u:Tok-1 X=M.,
12:u:Suf-2 X=M.,
12:u:tok-1 L=m.,
12:u:tok-1 R=h.,
12:u:Pre-2 X=Ki,
12:u:Pre-2 R=H.,
12:u:Suf-2 L=M.,
12:u:Suf-2 X=a,,
12:u:tok-1LL=m.,
12:u:Pre-2 X=H.,
12:u:Pre-2 R=Ta,
12:u:Suf-2 L=a,,
12:u:tok-1 L=h.,
12:u:Pre-2 X=Ta,
12:u:Suf-2 L=H.,
12:u:Pre-2 R=Ap,
12:u:Pre-2 X=Ap,
12:u:Suf-2 L=a.,
12:u:tok-1RR=to,
12:u:tok-1 R=to,
12:u:Tok-1 X=to,
12:u:tok-1 X=to,
12:u:Suf-2 X=to,
12:u:tok-1 L=to,
12:u:Suf-2 L=to,
12:u:tok-1LL=to,
12:u:Suf-2 X=se,
17:u:tok-1 X=machine,
12:u:Suf-2 L=se,
17:u:tok-1 L=machine,
13:u:tok-1RR=new,
13:u:tok-1 R=new,
12:u:Pre-2 X=ar,
12:u:Suf-2 X=e.,
13:u:Tok-1 X=New,
13:u:tok-1 X=new,
14:u:Lst-2 X=Ll/w,
12:u:Pre-2 R=Ge,
11:u:Suf-1 X=w,
12:u:Suf-2 L=e.,
12:u:Suf-2 X=ew,
16:u:Tmn-3 X=none/w,
13:u:tok-1 L=new,
14:u:Lst-2 L=Ll/w,
12:u:Pre-2 X=Ge,
12:u:Suf-2 L=ew,
19:u:tok-1 X=computing,
13:u:tok-1LL=new,
16:u:Num-1 R=volume,
16:*:Num-1 X=volume,
30:u:Num-2 R=volume/closing-paren,
23:u:Num-2 R=volume/strong,
15:u:Tok-1 X=1983.,
14:u:tok-1 X=1983,
20:u:tok-2 R=1983./_x+1,
12:u:Suf-2 X=3.,
16:*:Num-1 L=volume,
12:u:Pre-2 X=Al,
12:u:Suf-2 X=y.,
12:u:Suf-2 L=y.,
12:u:Pre-2 R=Te,
12:u:Suf-2 X=n.,
19:u:Tok-1 X=Technical,
19:u:tok-1 X=technical,
16:u:tok-1 R=report,
26:u:tok-2 R=technical/report,
12:u:Pre-2 X=Te,
12:u:Suf-2 L=n.,
16:u:Tok-1 X=Report,
16:u:tok-1 X=report,
19:u:tok-1 L=technical,
26:u:tok-2 L=technical/report,
19:u:tok-1LL=technical,
16:u:tok-1 L=report,
12:u:Pre-2 R=Wi,
16:u:tok-1LL=report,
12:u:Pre-2 X=Wi,
12:u:Suf-2 X=2,,
12:u:tok-1 X=20,
12:u:Suf-2 X=0,,
14:u:tok-1 X=dept,
12:u:Suf-2 L=0,,
19:u:tok-1 R=real-time,
19:u:Tok-1 X=Real-Time,
18:u:tok-1 X=realtime,
12:u:Pre-2 R=Sy,
12:u:Suf-2 X=me,
17:u:tok-1 X=systems,
19:u:tok-1 L=real-time,
20:u:tok-1RR=university,
12:u:Suf-2 L=me,
19:u:tok-1LL=real-time,
18:u:tok-1 L=systems,,
20:u:tok-1 R=university,
20:u:Tok-1 X=University,
20:u:tok-1 X=university,
18:u:tok-1LL=systems,,
23:u:tok-2 R=university/of,
20:u:tok-1 L=university,
23:u:tok-2 L=university/of,
20:u:tok-1LL=university,
15:u:tok-1RR=1993.,
13:u:Tok-1 X=May,
13:u:tok-1 X=may,
15:u:tok-1 R=1993.,
15:u:Tok-1 X=1993.,
14:u:tok-1 X=1993,
13:u:tok-1 L=may,
12:u:Suf-2 L=ay,
12:u:Pre-2 R=Su,
12:u:Pre-2 X=Su,
12:u:Suf-2 X=an,
12:u:Pre-2 R=Fa,
12:u:Suf-2 L=an,
12:u:Pre-2 X=Fa,
12:u:Suf-2 X=ve,
12:u:Suf-2 L=ve,
18:u:tok-1 X=analysis,
12:u:Pre-2 R=24,
13:u:tok-1 X=acm,
12:u:tok-1RR=on,
14:u:Lst-2 X=Lu/M,
12:u:Pre-2 X=AC,
11:u:Suf-1 X=M,
12:u:Suf-2 X=CM,
16:u:Tmn-3 X=none/M,
12:u:tok-1 R=on,
14:u:Lst-2 L=Lu/M,
12:u:Suf-2 L=CM,
12:u:Tok-1 X=on,
12:u:tok-1 X=on,
13:u:tok-1LL=acm,
12:u:tok-1 L=on,
12:u:tok-1LL=on,
21:u:tok-1 L=programming,
12:u:Pre-2 R=Ja,
21:u:tok-1LL=programming,
12:u:Pre-2 X=Ja,
12:u:Suf-2 X=ry,
15:u:Tok-1 X=1997.,
20:u:tok-1LL=languages,,
12:u:Suf-2 L=ry,
14:u:tok-1RR=with,
12:u:Pre-2 R=Al,
14:u:tok-1 R=with,
14:u:tok-1 X=with,
14:u:tok-1 L=with,
14:u:tok-1LL=with,
12:u:Suf-2 X=s:,
25:u:Tmn-4 R=moderate/single,
12:u:Suf-2 L=s:,
16:u:tok-1RR=center,
12:u:Suf-2 X=em,
12:u:Suf-2 L=em,
17:u:tok-1LL=problem,
18:u:tok-1RR=computer,
18:u:tok-1 R=computer,
18:u:Tok-1 X=Computer,
18:u:tok-1 X=computer,
18:u:tok-1 L=computer,
18:u:tok-1LL=computer,
12:u:Suf-2 L=ds,
12:u:Pre-2 R=Ru,
12:u:Suf-2 X=5,,
15:*:Num-1 X=idnum,
20:u:Num-2 R=idnum/none,
21:u:tok-1 R=university,,
12:u:Suf-2 L=5,,
21:u:Tok-1 X=University,,
12:u:Pre-2 R=Se,
14:u:Key-1 R=date,
19:u:Tok-1 X=September,
12:u:Pre-2 X=Se,
14:u:Key-1 X=date,
22:u:Key-2 X=date/initial,
19:u:Key-3 L=weak/date,
19:u:Key-3 x=date/none,
19:u:tok-1 L=september,
21:u:Tmn-2 L=date/strong,
12:u:Pre-2 R=Im,
12:u:Pre-2 X=Im,
12:u:Pre-2 R=so,
12:u:Pre-2 X=so,
12:u:Pre-2 R=or,
12:u:Pre-2 X=or,
15:u:tok-1RR=math.,
15:u:tok-1 X=trans,
20:u:Key-1 X=translator,
28:u:Key-2 X=translator/initial,
27:u:Key-3 x=translator/strong,
14:u:tok-1 X=math,
20:u:Key-1 L=translator,
14:u:tok-1RR=june,
12:u:Pre-2 R=12,
14:u:tok-1 R=june,
12:u:Pre-2 R=Ju,
14:u:tok-1 X=june,
12:u:Pre-2 X=Ju,
12:u:Suf-2 X=8.,
12:u:Pre-2 R=J.,
12:u:Pre-2 X=J.,
12:u:Pre-2 R=We,
12:u:Pre-2 X=We,
12:u:Pre-2 R=ap,
23:u:tok-1RR=international,
23:u:Tok-1 X=International,
15:u:tok-1 R=joint,
15:u:tok-1 X=joint,
23:u:tok-1 L=international,
23:u:tok-1LL=international,
15:u:tok-1 L=joint,
20:u:Tok-1 X=Artificial,
20:u:tok-1 X=artificial,
22:u:tok-1 X=intelligence,
20:u:tok-1 L=artificial,
20:u:tok-1LL=artificial,
23:u:tok-1 L=intelligence,,
13:u:Fst-2 R=N/6,
23:u:tok-1LL=intelligence,,
20:u:Num-2 R=range/none,
15:*:Num-1 L=range,
12:u:Pre-2 X=Au,
12:u:Pre-2 R=Bo,
12:u:Pre-2 X=Bo,
12:u:Suf-2 X=S.,
12:u:Suf-2 L=S.,
12:u:tok-1LL=s.,
19:u:Cap-2 R=caps/caps,
12:u:Pre-2 X=SI,
19:u:Cap-2 L=caps/caps,
21:u:tok-1 R=information,
21:u:Tok-1 X=Information,
21:u:tok-1 X=information,
21:u:tok-1 L=information,
12:u:Suf-2 X=5.,
12:u:Pre-2 R=Da,
12:u:Pre-2 X=Da,
12:u:tok-1 R=m.,
12:u:Lst-1 X=Pd,
12:*:Lst-1 L=Pd,
12:u:Pre-2 R=Th,
12:u:Pre-2 X=Th,
14:u:Lst-2 X=Lu/P,
11:u:Suf-1 X=P,
16:u:Tmn-3 X=none/P,
14:u:Lst-2 L=Lu/P,
14:u:Lst-2 X=Lu/D,
11:u:Suf-1 X=D,
16:u:Tmn-3 X=none/D,
12:u:Pre-2 R=pa,
21:u:tok-1RR=washington,,
12:u:Pre-2 X=pa,
12:u:Pre-2 R=39,
21:u:tok-1 R=washington,,
12:u:Pre-2 R=Wa,
20:u:tok-1 X=washington,
12:u:Pre-2 X=Wa,
21:u:tok-1LL=washington,,
13:u:Fst-2 R=P/",
12:u:Suf-2 X=m,,
13:u:Fst-2 X=P/",
11:u:Pre-1 X=",
12:u:Suf-2 L=m,,
23:u:tok-1 X=communication,
12:u:Pre-2 R=Mu,
12:u:Pre-2 X=Mu,
12:u:Pre-2 R=Op,
12:u:Pre-2 X=Op,
12:u:Suf-2 L=",,
12:u:Suf-2 X=1,,
12:u:Suf-2 L=1,,
12:u:Pre-2 X=Ra,
13:u:Tok-1 X=The,
12:u:Suf-2 X=ol,
12:u:Suf-2 L=ol,
12:u:Pre-2 R=Ev,
12:u:Pre-2 X=Ev,
15:u:tok-1RR=ieee,,
15:u:tok-1 R=ieee,,
12:u:Pre-2 R=IE,
15:u:Tok-1 X=IEEE,,
14:u:tok-1 X=ieee,
13:u:Fst-2 R=N/7,
12:u:Pre-2 X=IE,
12:u:Suf-2 X=E,,
13:u:Fst-2 X=N/7,
13:u:Lst-2 X=N/7,
11:u:Pre-1 X=7,
11:u:Suf-1 X=7,
12:u:Suf-2 L=E,,
16:u:Tmn-3 X=none/7,
13:u:Lst-2 L=N/7,
24:u:Num-2 R=numeric/parens,
14:u:Fst-2 R=Ll/j,
14:u:Fst-2 X=Ll/j,
11:u:Pre-1 X=j,
18:u:tok-1 X=learning,
12:u:Suf-2 X=g.,
12:u:Suf-2 L=g.,
13:u:tok-1RR=e.,,
12:u:Pre-2 R=No,
12:u:tok-1RR=j.,
12:u:Pre-2 X=No,
12:u:tok-1 R=j.,
12:u:Tok-1 X=J.,
12:u:Suf-2 X=J.,
14:u:tok-1 X=1987,
12:u:tok-1 L=j.,
12:u:Suf-2 L=J.,
12:u:tok-1LL=j.,
12:u:Pre-2 X=ca,
12:u:tok-1RR=1,,
12:u:tok-1 R=1,,
12:u:Pre-2 R=1,,
15:u:tok-1 X=logic,
15:u:tok-1 L=logic,
15:u:tok-1LL=logic,
14:u:Lst-2 X=Lu/T,
12:u:Pre-2 R=Bu,
11:u:Suf-1 X=T,
17:u:Key-1 R=journal,
22:u:Tmn-2 R=none/journal,
16:u:Tmn-3 X=none/T,
14:u:Lst-2 L=Lu/T,
12:u:Pre-2 X=Bu,
17:u:Key-1 X=journal,
25:u:Key-2 X=journal/initial,
22:u:Key-3 L=none/journal,
16:*:Num-1 X=single,
21:u:Num-2 R=single/none,
17:u:Key-1 L=journal,
22:u:Tmn-2 L=journal/none,
16:*:Num-1 L=single,
12:u:Pre-2 R=Ei,
17:u:Tok-1 X=Machine,
19:u:tok-1 R=learning,,
27:u:tok-2 R=machine/learning,,
12:u:Pre-2 R=Le,
19:u:Tok-1 X=Learning,,
27:u:tok-2 L=machine/learning,,
12:u:Pre-2 R=Ex,
21:u:tok-1LL=distributed,
12:u:Pre-2 R=15,
12:u:Pre-2 X=15,
12:u:Pre-2 R=Pl,
12:u:Pre-2 X=Pl,
12:u:Suf-2 X=le,
16:u:tok-1 R=morgan,
19:u:tok-1RR=kaufmann.,
12:u:Suf-2 L=le,
12:u:Pre-2 R=He,
12:u:Pre-2 R=Li,
12:u:Pre-2 X=Li,
12:u:Pre-2 R=Ea,
12:u:Pre-2 X=Ea,
21:u:tok-1RR=processing,,
21:u:tok-1 R=processing,,
21:u:Tok-1 X=Processing,,
12:u:Pre-2 R=25,
12:u:Pre-2 X=25,
12:u:tok-1RR=11,
12:u:tok-1 R=11,
12:u:Pre-2 R=11,
13:u:Lst-2 X=N/1,
11:u:Suf-1 X=1,
12:u:Suf-2 L=2.,
16:u:Tmn-3 X=none/1,
18:u:tok-1RR=national,
18:u:tok-1 R=national,
18:u:Tok-1 X=National,
18:u:tok-1 X=national,
18:u:tok-1 L=national,
18:u:tok-1LL=national,
13:u:tok-1 R=san,
12:u:Pre-2 R=Sa,
12:u:Suf-2 X=4.,
12:u:Pre-2 X=Sa,
12:u:Suf-2 L=4.,
12:u:tok-1 X=ca,
15:u:tok-1 X=press,
16:u:tok-1 X=editor,
16:u:tok-1 R=models,
16:u:Tok-1 X=Models,
16:u:tok-1 X=models,
12:u:Suf-2 X=ls,
16:u:tok-1 L=models,
12:u:Pre-2 R=Ad,
12:u:Suf-2 L=ls,
18:u:tok-1 X=advanced,
16:u:tok-1LL=models,
18:u:tok-1 L=advanced,
26:u:Tok-1 X=Morgan-Kaufmann,,
24:u:tok-1 X=morgankaufmann,
26:u:tok-1 L=morgan-kaufmann,,
14:u:Fst-2 R=Lu/Z,
12:u:Pre-2 R=pe,
12:u:Pre-2 X=pe,
12:u:Pre-2 R=su,
12:u:Pre-2 X=su,
12:u:Suf-2 L=ms,
12:u:Pre-2 R=sy,
12:u:Pre-2 X=sy,
14:u:tok-1RR=july,
14:u:tok-1 R=july,
14:u:Tok-1 X=July,
14:u:tok-1 X=july,
14:u:tok-1 L=july,
12:u:Suf-2 X=is,
12:u:Suf-2 L=is,
11:*:Fst-1 X=S,
13:u:Lst-2 L=P/',
12:u:Suf-2 L='',
12:u:Suf-2 X=f.,
12:u:Suf-2 L=f.,
14:u:tok-1RR=aug.,
14:u:tok-1RR=john,
14:u:tok-1 R=john,
14:u:Tok-1 X=John,
14:u:tok-1 X=john,
12:u:Suf-2 X=hn,
15:u:tok-1 X=wiley,
14:u:tok-1 L=john,
12:u:Suf-2 L=hn,
14:u:tok-1LL=john,
15:u:tok-1RR=1987.,
12:u:Pre-2 X=Cl,
12:u:tok-1 R=as,
12:u:Tok-1 X=as,
12:u:tok-1 X=as,
12:u:Pre-2 X=as,
12:u:tok-1 L=as,
13:u:tok-1 R=in:,
17:u:Tmn-2 R=weak/in,
12:u:tok-1LL=as,
17:u:Key-3 L=weak/in,
21:u:Key-3 x=in/moderate,
13:u:tok-1 L=in:,
13:u:tok-1LL=in:,
12:u:Pre-2 X=Mi,
12:u:Pre-2 R=(e,
12:u:Pre-2 X=(e,
15:u:Tok-1 X=Logic,
17:u:tok-1 L=(eds.),,
17:u:tok-1LL=(eds.),,
12:u:Pre-2 R=Ba,
16:u:tok-1RR=press,,
12:u:Pre-2 X=Ba,
16:u:tok-1 R=press,,
16:u:Tok-1 X=Press,,
15:u:tok-1RR=york,,
16:u:tok-1 L=press,,
14:u:Fst-2 R=Lu/Y,
12:u:Pre-2 R=Yo,
16:u:tok-1LL=press,,
14:u:Fst-2 X=Lu/Y,
11:u:Pre-1 X=Y,
12:u:Pre-2 X=I.,
12:u:Suf-2 X=h,,
12:u:Suf-2 L=h,,
14:u:tok-1 X=hard,
12:u:Pre-2 R=li,
12:u:Pre-2 X=li,
12:u:Suf-2 X=ar,
12:u:Pre-2 R=al,
12:u:Suf-2 L=ar,
12:u:Pre-2 X=al,
13:u:Fst-2 X=P/',
11:u:Pre-1 X=',
12:u:Pre-2 X='9,
13:u:Lst-2 L=N/1,
28:u:Num-2 R=none/closing-paren,
16:u:tok-1 X=berlin,
12:u:Pre-2 X=(B,
14:u:tok-1 X=1996,
12:u:Suf-2 X=y:,
13:u:Lst-2 X=P/",
11:u:Suf-1 X=",
18:u:Tmn-3 X=strong/",
13:u:Lst-2 L=P/",
12:u:Suf-2 L=,",
13:u:tok-1RR=no.,
13:u:tok-1 R=no.,
12:u:tok-1RR=5,,
12:u:tok-1 R=5,,
12:u:Pre-2 R=5,,
13:u:tok-1 L=no.,
12:u:Pre-2 X=5,,
12:u:Suf-2 L=o.,
13:u:tok-1LL=no.,
12:u:tok-1RR=p.,
19:u:tok-1RR=computing,
21:u:tok-1 R=conference,,
12:u:tok-1 X=or,
21:u:tok-1LL=conference,,
15:u:tok-1 X=april,
12:u:Pre-2 R=Lu,
14:u:Lst-2 X=Ll/v,
11:u:Suf-1 X=v,
16:u:Tmn-3 X=none/v,
14:u:Lst-2 L=Ll/v,
12:u:Pre-2 R=vo,
12:u:Pre-2 X=vo,
12:u:Pre-2 R=tr,
14:u:Tok-1 X=IEEE,
14:u:Lst-2 X=Lu/E,
11:u:Suf-1 X=E,
12:u:Suf-2 X=EE,
16:u:Tmn-3 X=none/E,
14:u:tok-1 L=ieee,
14:u:Lst-2 L=Lu/E,
12:u:Suf-2 L=EE,
14:u:tok-1LL=ieee,
11:u:tok-1 X=4,
12:u:Suf-2 X=i,,
12:u:Suf-2 L=i,,
17:u:tok-1RR=journal,
24:u:Tmn-2 R=strong/journal,
17:u:Tok-1 X=Journal,
17:u:tok-1 X=journal,
20:u:tok-2 R=journal/of,
24:u:Key-3 L=strong/journal,
22:u:Key-3 x=journal/none,
17:u:tok-1 L=journal,
20:u:tok-2 L=journal/of,
17:u:tok-1LL=journal,
17:u:tok-1LL=systems,
12:u:Tok-1 X=an,
12:u:Pre-2 X=ph,
14:u:tok-1LL=from,
12:u:Suf-2 L=".,
12:u:Pre-2 X=Do,
14:u:Fst-2 X=Ll/u,
11:u:Pre-1 X=u,
12:u:Pre-2 R=Fi,
12:u:Pre-2 X=va,
25:u:tok-1LL=complementarity,
21:u:tok-1 L=algorithms,,
12:u:Pre-2 R=16,
12:u:Suf-2 X=ct,
12:u:Suf-2 L=ct,
12:u:Suf-2 X=ee,
11:u:Pre-2 R=a,
11:u:Tok-1 X=a,
11:u:Pre-2 X=a,
11:u:Suf-2 X=a,
11:u:Suf-2 L=a,
27:u:Tmn-2 R=strong/translator,
12:u:Pre-2 R=Am,
12:u:Pre-2 X=Am,
12:u:Pre-2 X=Fe,
12:u:tok-1 X=27,
12:u:Pre-2 X=27,
12:u:Lst-1 X=Pe,
14:u:Lst-2 X=Pe/),
11:u:Suf-1 X=),
18:u:Tmn-3 X=strong/),
12:*:Lst-1 L=Pe,
14:u:Lst-2 L=Pe/),
14:u:Tok-1 X=ACM,,
12:u:Suf-2 X=M,,
12:u:Suf-2 L=M,,
14:u:tok-1LL=acm,,
12:u:Pre-2 R=Ke,
12:u:Pre-2 X=Ke,
12:u:Pre-2 X=Ko,
16:u:tok-1 X=system,
18:u:Tok-1 X=Science,,
17:u:tok-1 X=science,
12:u:Pre-2 R=Ri,
18:u:tok-1 L=science,,
12:u:Pre-2 X=Ri,
18:u:tok-1LL=science,,
23:u:tok-1 R=architectural,
19:u:tok-1RR=operating,
19:u:tok-1 R=operating,
19:u:Tok-1 X=Operating,
19:u:tok-1 X=operating,
19:u:tok-1 L=operating,
12:u:Pre-2 R=(A,
19:u:tok-1LL=operating,
12:u:Pre-2 X=(A,
17:u:tok-1 X=october,
12:u:Pre-2 X=Oc,
12:u:Pre-2 X=TR,
17:u:tok-1RR=editor,,
12:u:Pre-2 R=To,
12:u:Pre-2 X=To,
16:u:tok-1LL=neural,
20:u:tok-1LL=processing,
11:u:tok-1 X=2,
12:u:Suf-2 L=3.,
15:u:tok-1 X=tokyo,
14:u:Lst-2 X=Lu/N,
11:u:Suf-1 X=N,
16:u:Tmn-3 X=none/N,
14:u:Lst-2 L=Lu/N,
13:u:Lst-2 X=N/0,
11:u:Suf-1 X=0,
16:u:Tmn-3 X=none/0,
17:u:tok-1LL=sigplan,
13:u:Lst-2 L=N/0,
16:u:tok-1LL=design,
15:u:Tok-1 X=White,
15:u:tok-1 X=white,
12:u:Pre-2 X=Wh,
14:u:tok-1RR=york,
21:u:tok-1RR=engineering,
21:u:tok-1 R=engineering,
21:u:Tok-1 X=Engineering,
21:u:tok-1 X=engineering,
21:u:tok-1 L=engineering,
21:u:tok-1LL=engineering,
15:u:tok-1RR=york:,
14:u:tok-1RR=task,
15:u:Tok-1 X=York:,
14:u:tok-1 R=task,
12:u:Suf-2 X=k:,
14:u:Tok-1 X=Task,
14:u:tok-1 X=task,
15:u:tok-1 L=york:,
12:u:Suf-2 L=k:,
15:u:tok-1LL=york:,
16:u:tok-1 X=volume,
21:u:Key-3 x=volume/none,
16:u:tok-1 L=volume,
21:u:Tmn-2 L=volume/none,
12:u:Pre-2 R=Va,
17:u:tok-1 R=lecture,
15:u:tok-1RR=notes,
17:u:Tok-1 X=Lecture,
17:u:tok-1 X=lecture,
15:u:tok-1 R=notes,
29:u:tok-2 L=algorithms,/lecture,
23:u:tok-2 R=lecture/notes,
15:u:Tok-1 X=Notes,
15:u:tok-1 X=notes,
17:u:tok-1 L=lecture,
23:u:tok-2 L=lecture/notes,
18:u:tok-2 R=notes/in,
17:u:tok-1LL=lecture,
15:u:tok-1 L=notes,
17:u:tok-1RR=science,
18:u:tok-2 L=notes/in,
21:u:tok-2 R=in/computer,
15:u:tok-1LL=notes,
17:u:tok-1 R=science,
21:u:tok-2 L=in/computer,
17:u:Tok-1 X=Science,
14:u:tok-1 R=392,,
18:u:tok-1RR=springer,
22:u:tok-2 R=science/392,,
14:u:Tok-1 X=392,,
13:u:tok-1 X=392,
17:u:tok-1 L=science,
18:u:tok-1 R=springer,
17:u:tok-1RR=verlag,,
22:u:tok-2 L=science/392,,
23:u:tok-2 R=392,/springer,
18:u:tok-1 X=springer,
18:u:tok-1 L=springer,
12:u:Pre-2 X=N.,
12:u:Pre-2 R=Be,
12:u:Pre-2 X=Be,
16:u:tok-1RR=system,
16:u:tok-1 R=system,
26:u:tok-2 R=operating/system,
26:u:tok-2 L=operating/system,
16:u:tok-1 L=system,
16:u:tok-1LL=system,
12:u:Tok-1 X=F.,
12:u:Suf-2 X=F.,
12:u:Suf-2 L=F.,
12:u:tok-1 X=al,
22:u:tok-1 R=transactions,
22:u:Tok-1 X=Transactions,
22:u:tok-1 X=transactions,
22:u:tok-1 L=transactions,
22:u:tok-1LL=transactions,
22:u:tok-1LL=engineering,,
12:u:Pre-2 X=Hu,
12:u:Pre-2 R=Cr,
12:u:Pre-2 X=Cr,
12:u:tok-1 X=co,
17:u:tok-1RR=series,,
17:u:tok-1 R=series,,
16:u:Key-1 R=series,
21:u:Tmn-2 R=none/series,
17:u:Tok-1 X=Series,,
16:u:tok-1 X=series,
16:u:Key-1 X=series,
24:u:Key-2 X=series/initial,
21:u:Key-3 L=none/series,
21:u:Key-3 x=series/weak,
12:u:Suf-2 X=ss,
12:u:Suf-2 L=ss,
16:u:Tok-1 X=Tokyo,,
19:u:Key-3 x=date/weak,
12:u:Pre-2 R=71,
14:u:tok-1 L=hard,
14:u:tok-1LL=hard,
23:u:tok-1 R=computational,
23:u:Tok-1 X=Computational,
23:u:tok-1 X=computational,
23:u:tok-1 L=computational,
23:u:tok-1LL=computational,
13:u:tok-1RR=nj:,
20:u:tok-1RR=statistics,
12:u:Suf-2 X=ll,
20:u:tok-1 X=department,
11:u:tok-1 X=v,
12:u:tok-1 L=v.,
12:u:Pre-2 X=13,
22:u:tok-1 R=intelligence,
33:u:tok-2 R=artificial/intelligence,
22:u:Tok-1 X=Intelligence,
33:u:tok-2 L=artificial/intelligence,
22:u:tok-1 L=intelligence,
18:u:tok-1 R=seattle,,
22:u:tok-1LL=intelligence,
12:u:Pre-2 X=Sm,
12:u:Pre-2 R=Sk,
12:u:Suf-2 X=ia,
12:u:Suf-2 L=ia,
14:u:tok-1RR=(pp.,
14:u:tok-1 R=(pp.,
12:u:Pre-2 R=(p,
31:u:Num-2 R=numeric/closing-paren,
23:u:Tmn-2 L=volume/strong,
13:u:Lst-2 X=N/3,
11:u:Suf-1 X=3,
16:u:Tmn-3 X=none/3,
17:u:tok-1 L=(1995).,
17:u:tok-1LL=(1995).,
12:u:Pre-2 X=CM,
14:u:tok-1 X=tech,
24:u:tok-1 X=communications,
22:u:tok-1RR=optimization,
16:u:Num-1 R=triple,
16:*:Num-1 X=triple,
21:u:Num-2 R=triple/none,
16:*:Num-1 L=triple,
15:u:Tok-1 X=Ph.D.,
13:u:tok-1 X=phd,
17:u:tok-1 R=thesis,,
16:u:Key-1 R=thesis,
23:u:Tmn-2 R=strong/thesis,
16:u:tok-1 X=thesis,
15:u:tok-1 L=ph.d.,
16:u:Key-1 X=thesis,
22:u:Key-2 X=thesis/lower,
23:u:Key-3 L=strong/thesis,
21:u:Key-3 x=thesis/weak,
16:u:Key-1 L=thesis,
21:u:Tmn-2 L=thesis/none,
17:u:tok-1LL=thesis,,
15:u:tok-1 X=march,
12:u:Pre-2 X=Go,
12:u:Suf-2 X=r:,
12:u:Suf-2 L=r:,
12:u:Suf-2 L=8,,
13:u:Lst-2 L=N/4,
12:u:tok-1 R=f.,
12:u:Pre-2 X=(I,
12:u:Suf-2 X=v.,
12:u:Suf-2 L=v.,
22:u:Key-2 X=volume/lower,
14:u:Pos-2 R=9/10,
12:u:Pos-1 X=10,
14:u:Pos-2 L=9/10,
17:u:Pos-2 R=10/last,
17:u:Pos-2 L=10/last,
15:u:tok-1 X=smith,
16:u:tok-1 X=robert,
13:u:Pos-2 L=1/3,
16:u:Tok-1 X=System,
18:u:Tok-1 X=Prentice,
18:u:tok-1 X=prentice,
13:u:tok-1 X=jan,
20:u:tok-1RR=department,
20:u:tok-1 R=department,
20:u:Tok-1 X=Department,
23:u:tok-2 R=department/of,
20:u:tok-1 L=department,
23:u:tok-2 L=department/of,
20:u:tok-1LL=department,
19:u:tok-1 X=submitted,
12:u:Pre-2 R=Eu,
12:u:Pre-2 X=Eu,
12:u:Pre-2 R=Fe,
18:u:tok-1 X=february,
12:u:Pre-2 R=MI,
13:u:Pos-2 L=4/6,
13:u:Tok-1 X=MIT,
13:u:tok-1 X=mit,
12:u:Suf-2 X=IT,
12:u:Suf-2 L=IT,
12:u:Pre-2 R=Pu,
12:u:Pre-2 X=Pu,
17:u:tok-2 R=for/the,
17:u:tok-2 L=for/the,
12:u:Pre-2 R=21,
12:u:Pre-2 X=21,
12:u:Pre-2 R=41,
12:u:Pre-2 X=41,
17:u:tok-1 X=optical,
17:u:tok-1RR=appear.,
16:u:tok-1 X=appear,
20:u:Cap-2 R=lower/_x+1,
12:u:tok-1RR=f.,
19:u:Key-3 L=none/date,
20:u:tok-1RR=mechanical,
20:u:tok-1 R=mechanical,
23:u:tok-2 R=of/mechanical,
20:u:tok-1 X=mechanical,
23:u:tok-2 L=of/mechanical,
18:u:tok-1 X=products,
20:u:tok-1 L=mechanical,
24:u:Key-2 X=thesis/initial,
12:u:Pre-2 X=Nu,
21:u:Key-3 x=series/none,
22:u:tok-1RR=mathematics.,
22:u:tok-1 R=mathematics.,
21:u:tok-1 X=mathematics,
12:u:Pre-2 R=Cl,
12:u:Suf-2 X=od,
12:u:Suf-2 L=od,
12:u:Pre-2 X=Je,
12:u:Pre-2 X=Y.,
12:u:Suf-2 X=Y.,
12:u:tok-1 L=y.,
12:u:Suf-2 L=Y.,
12:u:Pre-2 X=ST,
17:u:Key-1 R=edition,
24:u:Tmn-2 R=strong/edition,
17:u:Key-1 X=edition,
25:u:Key-2 X=edition/initial,
24:u:Key-3 L=strong/edition,
22:u:Key-3 x=edition/none,
17:u:Key-1 L=edition,
22:u:Tmn-2 L=edition/none,
17:u:Tmn-2 L=in/weak,
19:u:tok-1 L=planning,,
19:u:tok-1LL=planning,,
14:u:tok-1LL=tate,
18:u:tok-1RR=523-530.,
34:u:tok-2 L=(eds.),/morgan-kaufmann,,
32:u:tok-2 R=morgan-kaufmann,/1990,,
15:u:Tok-1 X=1990,,
18:u:tok-1 R=523-530.,
32:u:tok-2 L=morgan-kaufmann,/1990,,
24:u:tok-2 R=1990,/523-530.,
12:u:Pre-2 R=52,
18:u:Tok-1 X=523-530.,
16:u:tok-1 X=523530,
26:u:tok-1LL=morgan-kaufmann,,
15:u:tok-1 L=1990,,
24:u:tok-2 L=1990,/523-530.,
23:u:tok-2 R=523-530./_x+1,
12:u:Pre-2 X=52,
12:u:Pre-2 R=un,
12:u:Pre-2 X=un,
12:u:Pre-2 R=23,
16:u:Tok-1 X=23529,,
15:u:tok-1 X=23529,
18:u:tok-1LL=norfolk,,
12:u:tok-1 L=va,
19:u:tok-2 L=va/23529,,
22:u:tok-2 R=23529,/1993.,
12:u:Pre-2 X=23,
12:u:Suf-2 L=VA,
12:u:Suf-2 L=.",
21:u:tok-1 L=algorithms.,
21:u:tok-1LL=algorithms.,
14:u:Fst-2 X=Ps/[,
11:u:Pre-1 X=[,
25:u:Brk-1 X=square-brackets,
25:u:Brk-1 L=square-brackets,
12:u:Pre-2 R=Ab,
18:u:tok-1 X=abstract,
12:u:Pre-2 X=Ab,
24:u:tok-1 X=springerverlag,
17:u:Tok-1 X=Berlin,,
18:u:Tok-1 X=Personal,
18:u:tok-1 X=personal,
18:u:tok-1 L=personal,
15:u:tok-1 R=meyer,
12:u:Pre-2 R=Cy,
14:u:tok-1LL=man,,
17:u:tok-1 R=special,
15:u:tok-1RR=issue,
17:u:Tok-1 X=Special,
17:u:tok-1 X=special,
15:u:tok-1 R=issue,
23:u:tok-2 R=special/issue,
12:u:Pre-2 R=Is,
15:u:tok-1 X=issue,
17:u:tok-1 L=special,
23:u:tok-2 L=special/issue,
12:u:Pre-2 X=Is,
17:u:tok-1LL=special,
15:u:tok-1LL=issue,
17:u:tok-1 L=(1996),,
13:u:tok-1RR=auf,
20:u:tok-2 L=(1996),/f.,
18:u:tok-2 R=f./meyer,
13:u:tok-1RR=der,
13:u:tok-1 R=der,
13:u:Tok-1 X=der,
13:u:tok-1 X=der,
13:u:tok-1 L=der,
18:u:tok-1 L=232-243.,
30:u:tok-2 L=232-243./proceedings,
18:u:tok-1LL=232-243.,
14:u:tok-1RR=23rd,
14:u:tok-1 R=23rd,
15:u:tok-1RR=icalp,
18:u:tok-2 R=the/23rd,
14:u:Tok-1 X=23rd,
14:u:tok-1 X=23rd,
15:u:tok-1 R=icalp,
18:u:tok-2 L=the/23rd,
20:u:tok-2 R=23rd/icalp,
15:u:Tok-1 X=ICALP,
15:u:tok-1 X=icalp,
14:u:tok-1 L=23rd,
20:u:tok-1RR=paderborn,,
20:u:tok-2 L=23rd/icalp,
27:u:tok-2 R=icalp/conference,,
12:u:Suf-2 X=LP,
15:u:tok-1RR=1996.,
20:u:tok-1 L=paderborn,,
15:u:tok-1 R=1996.,
25:u:tok-2 L=paderborn,/july,
20:u:tok-2 R=july/1996.,
15:u:Tok-1 X=1996.,
20:u:tok-1LL=paderborn,,
20:u:tok-2 L=july/1996.,
20:u:tok-2 R=1996./_x+1,
13:u:tok-1 R=phd,
21:u:Tmn-2 R=none/thesis,
21:u:Key-3 L=none/thesis,
15:u:tok-1RR=study,
15:u:tok-1 R=study,
15:u:tok-1 X=study,
12:u:Suf-2 X=dy,
15:u:tok-1 L=study,
12:u:Suf-2 L=dy,
15:u:tok-1LL=study,
12:u:tok-1RR=7,,
11:u:tok-1 X=7,
12:u:Suf-2 X=e:,
12:u:Suf-2 L=e:,
23:u:Tmn-2 R=strong/editor,
23:u:Key-3 L=strong/editor,
13:u:tok-1LL=2nd,
20:u:tok-1RR=cambridge,,
19:u:tok-1 X=cambridge,
13:u:Tok-1 X=MA.,
20:u:tok-1 L=cambridge,,
12:u:Pre-2 X=MA,
19:u:Cap-2 R=caps/_x+1,
12:u:Suf-2 X=15,
12:u:Pre-2 R=Or,
12:u:Suf-2 L=ie,
19:u:tok-1LL=published,
12:u:Pre-2 R=Em,
16:u:tok-1RR=social,
12:u:Pre-2 X=Em,
16:u:tok-1 R=social,
16:u:Tok-1 X=Social,
16:u:tok-1 X=social,
12:u:Pre-2 R=Ag,
16:u:tok-1 L=social,
12:u:Pre-2 X=Ag,
16:u:tok-1LL=social,
12:u:Pre-2 X=US,
12:u:Pre-2 X=(U,
12:u:Suf-2 X=ST,
12:u:Suf-2 L=ST,
18:u:tok-2 R=acm,/new,
14:u:Lst-2 L=Lu/V,
22:u:tok-1 X=environments,
12:u:Suf-2 X=ny,
12:u:Suf-2 L=ny,
12:u:Pre-2 R=Dr,
11:u:Tok-1 X=.,
13:u:Fst-2 X=P/.,
11:u:Pre-1 X=.,
11:u:Pre-2 X=.,
11:u:Suf-2 X=.,
15:u:tok-1 X=louis,
11:u:tok-1LL=.,
12:u:Pre-2 R=Gr,
12:u:Pre-2 X=Gr,
23:u:tok-1 L=bibliography,,
31:u:tok-2 L=bibliography,/lecture,
23:u:tok-1LL=bibliography,,
14:u:tok-1RR=323,,
12:u:Pre-2 R=32,
24:u:Cap-3 L=moderate/lower,
12:u:Pre-2 R=18,
12:u:Pre-2 X=18,
12:u:Pre-2 R=Zo,
12:u:Pre-2 R=Cu,
17:u:Tok-1 X=Current,
17:u:tok-1 X=current,
17:u:tok-1 L=current,
17:u:tok-1LL=current,
18:u:tok-1RR=academic,
19:u:tok-2 R=new/york:,
19:u:tok-2 L=new/york:,
16:u:tok-1 L=press.,
18:u:tok-1 X=sciences,
19:u:tok-1LL=sciences,,
12:u:Suf-2 X=L:,
18:u:tok-1 L=solving.,
18:u:tok-1LL=solving.,
14:u:tok-1 R=also,
14:u:tok-1RR=url:,
14:u:tok-1 R=url:,
12:u:Pre-2 R=UR,
17:u:Key-1 R=locator,
24:u:Tmn-2 R=strong/locator,
14:u:Tok-1 X=URL:,
13:u:tok-1 X=url,
12:u:Pre-2 X=UR,
17:u:Key-1 X=locator,
22:u:Key-2 X=locator/caps,
24:u:Key-3 L=strong/locator,
26:u:Key-3 x=locator/moderate,
12:u:Pre-2 X=ww,
17:u:Key-1 L=locator,
24:u:Tmn-2 L=locator/strong,
12:u:tok-1 X=12,
12:u:Pre-2 R=46,
12:u:Pre-2 X=46,
11:u:Tok-1 X=4,
11:u:Pre-2 X=4,
11:u:Suf-2 X=4,
13:u:Fst-2 X=N/0,
11:u:Pre-1 X=0,
19:u:Num-2 R=quad/none,
13:u:Tok-1 X=881,
13:u:tok-1 X=881,
11:u:tok-1LL=4,
14:u:tok-1 L=0054,
13:u:tok-1RR=18,,
18:u:tok-2 L=0054/881,
21:u:tok-2 R=881/october,
12:u:Pre-2 X=88,
12:u:Suf-2 L=54,
12:u:Suf-2 X=81,
14:*:Num-1 L=quad,
13:u:tok-1 R=18,,
17:u:tok-1 R=alberto,
17:u:Tok-1 X=Alberto,
17:u:tok-1 X=alberto,
17:u:tok-1 L=alberto,
17:u:tok-1LL=alberto,
20:u:tok-1 X=manuscript,
12:u:Suf-2 X=S,,
23:u:tok-1 X=instructional,
16:u:tok-1 R=appear,
19:u:tok-2 R=to/appear,
16:u:tok-1 L=appear,
19:u:tok-2 L=appear/in,
16:u:tok-1LL=appear,
15:u:tok-2 L=j./g.,
12:u:Pre-2 R=Fr,
12:u:Pre-2 X=Fr,
18:u:tok-1 X=preprint,
22:u:Key-3 x=edition/weak,
18:u:tok-1 X=machines,
14:u:Lst-2 X=Ll/u,
11:u:Suf-1 X=u,
16:u:Tmn-3 X=none/u,
14:u:Lst-2 L=Ll/u,
25:u:Tok-1 X=Internet-Draft,,
23:u:tok-1 X=internetdraft,
20:u:tok-1LL=encryption,
19:u:tok-1 L=option,'',
18:u:tok-1 R=internet,
35:u:tok-2 L=option,''/internet-draft,,
34:u:tok-2 R=internet-draft,/internet,
17:u:Tok-1 X=Working,
17:u:tok-1 X=working,
15:u:tok-1 X=group,
17:u:tok-1 L=working,
17:u:tok-1LL=working,
20:u:tok-1 L=relations.,
28:u:tok-2 L=relations./machine,
20:u:tok-1LL=relations.,
18:u:tok-1RR=239-266.,
22:u:tok-2 R=learning,/5,,
18:u:tok-1 X=practice,
19:u:tok-1 X=seminaire,
12:u:Pre-2 X=(S,
16:u:tok-1 X=boston,
13:u:tok-1 X=van,
13:u:tok-1LL=van,
15:u:tok-1 X=state,
12:u:Suf-2 X=ph,
12:u:Suf-2 L=ph,
16:u:Tok-1 X=Carlos,
16:u:tok-1 X=carlos,
16:u:tok-1 L=carlos,
16:u:tok-1LL=carlos,
17:u:tok-1RR=pattern,
17:u:tok-1 R=pattern,
17:u:tok-1 X=pattern,
21:u:tok-1 X=recognition,
17:u:tok-1 L=pattern,
17:u:Tok-1 X=Pattern,
24:u:Key-3 x=edition/strong,
18:u:Tok-1 X=Sciences,
18:u:tok-1LL=sciences,
19:u:tok-1RR=institute,
19:u:tok-1 R=institute,
12:u:Suf-2 X=a:,
19:u:tok-1 X=institute,
18:u:Tok-1 X=American,
18:u:tok-1 X=american,
21:u:tok-1 R=association,
30:u:tok-2 R=american/association,
21:u:Tok-1 X=Association,
18:u:tok-1 L=american,
30:u:tok-2 L=american/association,
18:u:tok-1LL=american,
21:u:tok-1 L=association,
21:u:tok-1LL=association,
13:u:tok-1 X=see,
12:u:Pre-2 R=Gl,
12:u:Pre-2 X=Gl,
15:u:Tok-1 X=Rees,,
14:u:tok-1 X=rees,
15:u:tok-1 L=rees,,
17:u:tok-1 L=(eds.).,
22:u:Tmn-2 R=none/edition,
17:u:tok-1LL=(eds.).,
23:u:Key-2 X=edition/lower,
16:u:tok-1RR=thomas,
32:u:tok-1LL=nearest-hyperrectangle,
29:u:tok-2 L=algorithms./machine,
13:u:tok-1RR=19,,
24:u:tok-2 R=learning,/vol.,
18:u:tok-1 R=toronto,,
21:u:tok-2 R=of/toronto,,
18:u:Tok-1 X=Toronto,,
21:u:tok-2 L=of/toronto,,
12:u:Pre-2 X=IJ,
13:u:tok-1 L=art,
13:u:tok-1LL=art,
12:u:Pre-2 R=Tu,
12:u:Pre-2 X=Tu,
16:u:tok-1LL=impact,
12:u:Pre-2 R=(C,
11:u:tok-1 R=-,
12:u:Fst-1 R=Pd,
14:u:Fst-2 R=Pd/-,
11:u:Pre-2 R=-,
12:*:Fst-1 X=Pd,
18:u:tok-1 R=edition,,
17:u:tok-1 X=edition,
17:u:tok-1RR=richard,
17:u:tok-1LL=richard,
11:u:tok-1RR=2,
11:u:tok-1 R=2,
11:u:Pre-2 R=2,
12:u:Suf-2 X=I,,
13:u:tok-1 X=web,
14:u:Lst-2 X=Pe/],
11:u:Suf-1 X=],
30:u:Num-2 R=none/square-brackets,
18:u:Tmn-3 X=strong/],
14:u:Lst-2 L=Pe/],
22:u:tok-1 X=northholland,
12:u:Suf-2 X=b.,
12:u:Suf-2 L=b.,
12:u:Pre-2 R=(P,
12:u:Pre-2 X=(P,
22:u:tok-1LL=construction,
12:u:Suf-2 X=io,
19:u:tok-1 X=engineers,
12:u:Pre-2 R=40,
12:u:Suf-2 L=io,
21:u:Tmn-2 R=strong/date,
21:u:Key-3 L=strong/date,
12:u:Suf-2 X=.),
12:u:Suf-2 L=.),
15:u:Tok-1 X=Press,
15:u:tok-1 L=press,
12:u:Suf-2 L=s),
25:u:Tmn-2 L=translator/none,
14:u:tok-1 X=1981,
15:u:tok-1RR=sept.,
15:u:Tok-1 X=Paris,
20:u:tok-1 L=universite,
26:u:tok-2 L=universite/paris,
16:u:tok-1LL=review,
12:u:Pre-2 R=Of,
12:u:Pre-2 X=Of,
16:u:tok-1 X=nature,
16:u:tok-1 L=nature,
18:u:Tok-1 X=Germany.,
21:u:tok-1LL=multi-agent,
16:u:tok-1 L=worlds,
25:u:tok-2 L=worlds/germany.,
23:u:tok-2 R=germany./_x+1,
12:u:tok-1 R=or,
12:u:Tok-1 X=or,
12:u:tok-1 L=or,
12:u:tok-1LL=or,
19:u:tok-2 R=models/of,
19:u:tok-2 L=models/of,
12:u:Pre-2 R=(N,
12:u:Pre-2 X=(N,
12:u:Pre-2 R=1.,
16:u:tok-1 X=change,
13:u:tok-1LL=ma:,
12:u:Pre-2 R=Av,
19:u:Tok-1 X=Available,
19:u:tok-1 X=available,
12:u:Pre-2 X=Av,
19:u:tok-1 L=available,
12:u:Pre-2 R=Ut,
18:u:tok-1RR=november,
18:u:tok-1 X=november,
13:u:tok-1RR=ii,,
12:u:Pre-2 R=II,
12:u:Pre-2 X=II,
12:u:Pre-2 X="C,
18:u:tok-1LL=toronto,,
12:u:Pre-2 R=Wr,
12:u:Pre-2 X=Wr,
11:u:Lst-1 X=S,
11:*:Lst-1 L=S,
15:u:tok-1RR=utah,,
15:u:tok-1 R=utah,,
17:u:tok-1 R=medical,
17:u:Tok-1 X=Medical,
17:u:tok-1 X=medical,
17:u:tok-1LL=medical,
12:u:Pre-2 X=Ci,
15:u:Tok-1 X=Draft,
15:u:tok-1 X=draft,
26:u:tok-1 L=specifications",,
16:u:tok-1 R=paper,,
32:u:tok-2 L=specifications",/draft,
22:u:tok-2 R=draft/paper,,
16:u:Tok-1 X=Paper,,
15:u:tok-1 X=paper,
26:u:tok-1LL=specifications",,
15:u:tok-1 L=draft,
22:u:tok-2 L=draft/paper,,
25:u:tok-2 R=paper,/november,
16:u:tok-1 L=paper,,
16:u:tok-1LL=paper,,
22:u:tok-1RR=recognition,,
22:u:tok-1 R=recognition,,
30:u:tok-2 R=pattern/recognition,,
22:u:Tok-1 X=Recognition,,
30:u:tok-2 L=pattern/recognition,,
27:u:Key-2 X=proceedings/lower,
15:u:tok-1 R=tech.,
15:u:Tok-1 X=Tech.,
15:u:tok-1 L=tech.,
15:u:tok-1LL=tech.,
12:u:tok-1RR=8,,
12:u:Tok-1 X=8,,
12:u:Pre-2 X=8,,
12:u:tok-1 L=8,,
13:u:tok-1RR=van,
15:u:tok-1RR=paper,
15:u:tok-1 L=paper,
15:u:tok-1LL=paper,
12:u:Pre-2 R=80,
16:u:tok-1RR=kernel,
16:u:tok-1 R=kernel,
16:u:Tok-1 X=Kernel,
16:u:tok-1 X=kernel,
16:u:tok-1 L=kernel,
12:u:Pre-2 X=du,
12:u:Suf-2 L=1.,
16:u:tok-1 X=speech,
12:u:Pre-2 X=(t,
21:u:Tok-1 X=Foundation,,
20:u:tok-1 X=foundation,
32:u:Brk-1 R=opening-square-bracket,
37:u:Num-2 R=none/opening-square-bracket,
32:u:Brk-1 X=opening-square-bracket,
32:u:Brk-1 R=closing-square-bracket,
32:u:Brk-1 L=opening-square-bracket,
32:u:Brk-1 X=closing-square-bracket,
21:u:tok-1 L=charleston,,
16:u:tok-1 R=71-84.,
26:u:tok-2 L=charleston,/acm,,
21:u:tok-2 R=acm,/71-84.,
13:u:tok-1 X=rep,
12:u:Pre-2 R=78,
17:u:tok-1RR=speech.,
17:u:tok-1 R=speech.,
12:u:tok-1 X=41,
31:u:Num-2 R=numeric/opening-paren,
12:u:Pre-2 R=It,
12:u:Pre-2 R=Hy,
14:u:Lst-2 X=Lu/G,
11:u:Suf-1 X=G,
16:u:Tmn-3 X=none/G,
15:u:tok-1 R=1969.,
14:u:Tok-1 X=Hard,
21:u:tok-2 L=report/hard,
24:u:tok-2 R=hard/real-time,
24:u:tok-2 L=hard/real-time,
29:u:tok-2 R=real-time/operating,
29:u:tok-2 L=real-time/operating,
23:u:tok-2 R=system/kernel,
23:u:tok-2 L=system/kernel,
22:u:tok-2 R=kernel/study,
15:u:Tok-1 X=Study,
22:u:tok-2 L=kernel/study,
20:u:tok-2 R=study/task,
13:u:tok-1RR=des,
13:u:tok-1 R=des,
13:u:Tok-1 X=des,
13:u:tok-1 X=des,
13:u:tok-1 L=des,
13:u:tok-1LL=des,
23:u:tok-2 L=as/university,
29:u:tok-2 R=toronto,/department,
14:u:Tok-1 X=131.,
13:u:tok-1 X=131,
18:u:tok-2 L=no./131.,
19:u:tok-2 R=131./_x+1,
15:u:tok-1 R=state,
15:u:Tok-1 X=State,
15:u:tok-1 L=state,
15:u:tok-1LL=state,
16:u:Tok-1 X=STACS,,
15:u:tok-1 X=stacs,
22:u:tok-1LL=isomor-phism,
18:u:tok-1 L=theorem,,
18:u:tok-1 R=163-174.,
25:u:tok-2 L=theorem,/stacs,,
25:u:tok-2 R=stacs,/163-174.,
22:u:tok-1 X=dissertation,
12:u:Suf-2 L=ev,
14:u:tok-1 X=1953,
12:u:tok-1 R=1.,
15:u:Tok-1 X=1808,,
14:u:tok-1 X=1808,
15:u:tok-1 L=spie,,
18:u:tok-1 R=259-273.,
21:u:tok-2 L=spie,/1808,,
24:u:tok-2 R=1808,/259-273.,
12:u:Suf-2 X=ak,
12:u:Suf-2 L=ak,
17:u:tok-1RR=section,
18:u:tok-1 L=editors.,
27:u:tok-2 R=university/press,,
27:u:tok-2 L=university/press,,
11:u:tok-1RR=:,
11:u:tok-1 R=:,
13:u:Fst-2 R=P/:,
11:u:Pre-2 R=:,
11:u:Tok-1 X=:,
13:u:Fst-2 X=P/:,
11:u:Pre-1 X=:,
11:u:Pre-2 X=:,
11:u:Suf-2 X=:,
11:u:tok-1 L=:,
11:u:Suf-2 L=:,
11:u:tok-1LL=:,
16:u:tok-1 X=credit,
12:u:Suf-2 X=du,
12:u:Suf-2 L=du,
16:u:tok-1 X=steven,
15:u:Tok-1 X=Pisa,,
14:u:tok-1 X=pisa,
16:u:tok-1 R=italy.,
28:u:tok-2 L=intelligence/pisa,,
22:u:tok-2 R=pisa,/italy.,
15:u:tok-1RR=ed.),,
15:u:tok-1LL=ed.),,
15:u:tok-2 L=c./i.,
15:u:tok-2 R=i./m.,
12:u:tok-1 X=24,
15:u:tok-1 R=world,
15:u:tok-1 X=world,
15:u:tok-1 L=world,
22:u:tok-1LL=distribution,
25:u:tok-2 L=(eds.),/working,
24:u:tok-2 R=working/models,
24:u:tok-2 L=working/models,
21:u:tok-1RR=perception,,
21:u:tok-1 R=perception,,
27:u:tok-2 R=human/perception,,
21:u:Tok-1 X=Perception,,
18:u:tok-1RR=391-410.,
27:u:tok-2 L=human/perception,,
25:u:tok-2 R=perception,/pp.,
12:u:tok-1 R=20,
25:u:Tmn-2 L=volume/moderate,
12:u:Suf-2 L=I:,
16:u:tok-1RR=wiley,,
16:u:tok-1 R=wiley,,
16:u:Tok-1 X=Wiley,,
16:u:tok-1 L=wiley,,
20:u:Tok-1 X=Submitted,,
16:u:tok-1LL=smooth,
22:u:tok-1 L=polynomials.,
15:u:tok-1 R=1998.,
33:u:tok-2 L=polynomials./submitted,,
26:u:tok-2 R=submitted,/1998.,
20:u:tok-1RR=(september,
12:u:Suf-2 X=lo,
12:u:Suf-2 L=lo,
12:u:Suf-2 X=):,
12:u:Suf-2 L=):,
20:u:tok-1 R=hillsdale,,
13:u:tok-1 R=und,
13:u:Tok-1 X=und,
13:u:tok-1 X=und,
13:u:tok-1 L=und,
22:u:tok-1RR=corporation,,
22:u:tok-1 R=corporation,,
22:u:Tok-1 X=Corporation,,
21:u:tok-1 X=corporation,
12:u:Pre-2 X=(D,
12:u:Pre-2 R=pi,
12:u:Pre-2 X=pi,
17:u:tok-1RR=review,,
17:u:tok-1 R=review,,
15:u:tok-1RR=rep.,,
16:u:tok-1 X=papers,
15:u:tok-1 X=genet,
12:u:Suf-2 X=iv,
12:u:Suf-2 L=iv,
18:u:Tok-1 X=Granada,,
17:u:tok-1 X=granada,
24:u:tok-1 L=colloquium'87,,
18:u:tok-1RR=331-375.,
33:u:tok-2 L=colloquium'87,/granada,,
22:u:tok-2 R=granada,/pp.,
13:u:tok-1RR=dc:,
23:u:tok-1RR=psychological,
23:u:tok-1 R=psychological,
23:u:Tok-1 X=Psychological,
23:u:tok-1 X=psychological,
23:u:tok-1 L=psychological,
17:u:tok-1RR=(2005).,
17:u:tok-1 R=(2005).,
14:u:tok-1 X=2005,
13:u:tok-1 X=nat,
13:u:tok-1LL=nat,
24:u:tok-1RR=person-centred,
24:u:tok-1 R=person-centred,
24:u:Tok-1 X=Person-Centred,
20:u:tok-1 X=approaches,
12:u:Pre-2 R=ps,
23:u:tok-1 X=psychotherapy,
12:u:Pre-2 X=ps,
12:u:Pre-2 R=Es,
12:u:Pre-2 X=Es,
22:u:tok-1 R=dissertation,
19:u:tok-1RR=abstracts,
22:u:Tok-1 X=Dissertation,
19:u:tok-1 R=abstracts,
32:u:tok-2 R=dissertation/abstracts,
21:u:Key-3 x=thesis/none,
19:u:Tok-1 X=Abstracts,
19:u:tok-1 X=abstracts,
22:u:tok-1 L=dissertation,
32:u:tok-2 L=dissertation/abstracts,
28:u:tok-2 R=the/person-centred,
28:u:tok-2 L=the/person-centred,
25:u:Tmn-2 L=editor/moderate,
15:u:Brk-1 R=other,
15:u:Brk-1 X=other,
15:u:Brk-1 L=other,
17:u:tok-1RR=(2003).,
17:u:tok-1 R=(2003).,
12:u:Pre-2 R=jo,
12:u:Pre-2 X=jo,
16:u:tok-1 X=centre,
21:u:tok-1RR=approaches.,
18:u:tok-1 L=64(6-a),,
24:u:tok-2 L=64(6-a),/1983.,
19:u:Tok-1 X=Gendlin).,
17:u:tok-1 X=gendlin,
17:u:tok-1LL=(eugene,
22:u:tok-2 L=t./gendlin).,
32:u:tok-2 R=gendlin)./dissertation,
12:u:tok-1 X=np,
16:u:tok-1RR=edited,
16:u:tok-1 R=edited,
16:u:Tok-1 X=Edited,
16:u:tok-1 X=edited,
19:u:tok-2 R=edited/by,
21:u:Key-3 x=editor/none,
16:u:tok-1 L=edited,
19:u:tok-2 L=edited/by,
16:u:tok-1LL=edited,
18:u:tok-1RR=america,,
18:u:tok-1 R=america,,
18:u:Tok-1 X=America,,
17:u:tok-1 X=america,
18:u:tok-1RR=chicago:,
18:u:tok-1 R=chicago:,
26:u:Key-2 X=translator/lower,
25:u:Key-3 x=translator/none,
20:u:tok-1LL=translated,
26:u:Tmn-2 L=edition/moderate,
15:u:tok-1RR=2000.,
15:u:tok-1 R=2000.,
15:u:tok-1 X=texts,
14:u:Suf-2 X=’.,
13:u:tok-1 X=age,
18:u:tok-1LL=reprint,,
12:u:Pre-2 R=XX,
12:u:Pre-2 X=XX,
14:u:tok-1 X=2010,
16:u:tok-1 X=essays,
25:u:Key-3 L=weak/translator,
15:u:Tok-1 X=Caryl,
15:u:tok-1 X=caryl,
17:u:tok-1 R=emerson,
23:u:tok-2 R=caryl/emerson,
12:u:Suf-2 X=yl,
14:u:tok-1 L=ed.,,
12:u:Suf-2 X=].,
14:u:tok-1RR=isbn,
14:u:tok-1 R=isbn,
12:u:Pre-2 R=IS,
14:u:Tok-1 X=ISBN,
14:u:tok-1 X=isbn,
12:u:Pre-2 X=IS,
12:u:Suf-2 X=BN,
14:u:tok-1 L=isbn,
12:u:Suf-2 L=BN,
21:u:tok-1 R=theoretical,
21:u:Tok-1 X=Theoretical,
21:u:tok-1 X=theoretical,
21:u:tok-1 L=theoretical,
21:u:tok-1LL=theoretical,
23:u:Key-2 X=locator/other,
22:u:Key-3 x=locator/none,
23:u:Tmn-2 R=none/accessed,
19:u:tok-1 R=cambridge,
19:u:tok-1LL=cambridge,
14:u:tok-1 X=2007,
15:u:tok-1 X=river,
17:u:tok-1LL=editors,
28:u:tok-2 L=(1995)./artificial,
25:u:tok-2 R=intelligence/in,
17:u:tok-1RR=capital,
25:u:tok-2 L=intelligence/in,
17:u:tok-1 R=capital,
18:u:tok-1RR=markets.,
21:u:tok-2 R=the/capital,
17:u:Tok-1 X=Capital,
17:u:tok-1 X=capital,
18:u:tok-1 R=markets.,
21:u:tok-2 L=the/capital,
26:u:tok-2 R=capital/markets.,
18:u:Tok-1 X=Markets.,
17:u:tok-1 X=markets,
17:u:tok-1 L=capital,
16:u:tok-1RR=irwin.,
26:u:tok-2 L=capital/markets.,
27:u:tok-2 R=markets./chicago:,
15:u:tok-1 R=phys.,
15:u:Tok-1 X=Phys.,
14:u:tok-1 X=phys,
13:u:tok-1 X=rev,
18:u:Num-2 R=all/none,
18:u:tok-1LL=imperial,
19:u:tok-2 R=of/tokyo,,
19:u:tok-2 L=of/tokyo,,
21:u:tok-2 R=tokyo,/vol.,
15:u:Tok-1 X=World,
15:u:tok-1LL=book.,
20:u:tok-1RR=washington,
22:u:tok-2 R=review,/vol.,
20:u:tok-2 R=the/social,
20:u:tok-2 L=the/social,
14:u:tok-1 X=2013,
12:u:Pre-2 R=(H,
17:u:tok-1 X=writers,
14:u:tok-1RR=(new,
18:u:tok-1LL=america,,
19:u:tok-1RR=companion,
19:u:tok-1 L=companion,
22:u:tok-2 L=companion/to,
19:u:tok-1LL=companion,
15:u:tok-1RR=2004.,
18:u:Tok-1 X="Charles,
23:u:tok-2 L=_x-1/"charles,
21:u:tok-2 R="charles/r.,
18:u:tok-1 L="charles,
16:u:tok-1RR=hise.",
21:u:tok-2 L="charles/r.,
16:u:tok-2 R=r./van,
16:u:tok-1 L=hise.",
20:u:tok-1 R=wikipedia.,
14:u:tok-1RR=last,
19:u:tok-2 L=hise."/in,
23:u:tok-2 R=in/wikipedia.,
20:u:Tok-1 X=Wikipedia.,
19:u:tok-1 X=wikipedia,
16:u:tok-1LL=hise.",
14:u:tok-1 R=last,
18:u:tok-1RR=modified,
23:u:tok-2 L=in/wikipedia.,
25:u:tok-2 R=wikipedia./last,
15:u:tok-1RR=2013.,
15:u:tok-1 R=2013.,
15:u:Tok-1 X=2013.,
13:u:tok-1LL=may,
21:u:Key-3 L=moderate/in,
18:u:Tok-1 X=Business,
18:u:tok-1 L=business,
15:u:tok-1RR=2008.,
15:u:tok-1 R=2008.,
15:u:Tok-1 X=2008.,
14:u:tok-1 X=2008,
20:u:tok-2 R=2008./_x+1,
20:u:Tok-1 X=Cambridge:,
30:u:tok-2 R=cambridge:/cambridge,
20:u:tok-1 L=cambridge:,
30:u:tok-2 L=cambridge:/cambridge,
20:u:tok-1LL=cambridge:,
14:u:tok-1 L=sec.,
12:u:Pre-2 R=p.,
22:u:Num-2 R=ordinal/weak,
12:u:Pre-2 X=p.,
22:u:tok-2 R=press,/2008.,
22:u:tok-2 L=press,/2008.,
15:u:tok-1 R=2012.,
21:u:Tok-1 X=Soderbergh,,
20:u:tok-1 X=soderbergh,
17:u:tok-1 R=steven,,
19:u:tok-1RR=director.,
26:u:tok-2 L=_x-1/soderbergh,,
29:u:tok-2 R=soderbergh,/steven,,
18:u:tok-1 X=director,
14:u:Tok-1 X=Che.,
13:u:tok-1 X=che,
17:u:tok-1LL=steven,,
19:u:tok-1 L=director.,
14:u:tok-1 R=dvd.,
24:u:tok-2 L=director./che.,
19:u:tok-2 R=che./dvd.,
12:u:Pre-2 R=DV,
13:u:tok-1 X=dvd,
16:u:Tok-1 X=United,
16:u:tok-1 X=united,
14:u:tok-1 L=doi:,
16:u:Tok-1 X=Louis.,
15:u:tok-1 X=moore,
16:u:Tok-1 X=1981),,
13:u:tok-1 R=78.,
23:u:tok-2 L=press,/1981),,
20:u:tok-2 R=1981),/78.,
21:u:tok-1RR=(director).,
21:u:tok-1 R=(director).,
22:u:tok-2 L=davidson,/j.,
24:u:tok-2 R=j./(director).,
21:u:Tok-1 X=(Director).,
21:u:tok-1LL=(director).,
18:u:tok-1 R=skinner:,
15:u:tok-2 L=b./f.,
21:u:tok-2 R=f./skinner:,
17:u:Tok-1 X=[Motion,
16:u:tok-1 X=motion,
19:u:tok-1 R=picture].,
27:u:tok-2 R=[motion/picture].,
12:u:Pre-2 X=[M,
19:u:Tok-1 X=picture].,
17:u:tok-1 X=picture,
17:u:tok-1 L=[motion,
27:u:tok-2 L=[motion/picture].,
26:u:tok-2 R=picture]./united,
37:u:Num-2 R=none/closing-square-bracket,
15:u:Tok-1 X=FITNE,
15:u:tok-1 X=fitne,
21:u:tok-1 R=(producer).,
20:u:tok-2 L=_x-1/fitne,
27:u:tok-2 R=fitne/(producer).,
12:u:Pre-2 X=FI,
12:u:Suf-2 X=NE,
21:u:Tok-1 X=(Producer).,
18:u:tok-1 X=producer,
15:u:tok-1 L=fitne,
15:u:tok-1RR=nurse,
27:u:tok-2 L=fitne/(producer).,
29:u:tok-2 R=(producer)./(2005).,
12:u:Suf-2 L=NE,
16:u:Tok-1 X=[DVD].,
12:u:Pre-2 X=[D,
18:u:tok-1 X=pictures,
16:u:Tok-1 X=Moore,,
28:u:tok-1RR=(writer/director).,
21:u:tok-2 L=_x-1/moore,,
19:u:tok-2 R=moore,/m.,
16:u:tok-1 L=moore,,
28:u:tok-1 R=(writer/director).,
19:u:tok-2 L=moore,/m.,
31:u:tok-2 R=m./(writer/director).,
12:u:Pre-2 R=(W,
28:u:Tok-1 X=(Writer/Director).,
24:u:tok-1 X=writerdirector,
16:u:tok-1LL=moore,,
17:u:tok-1RR=bowling,
31:u:tok-2 L=m./(writer/director).,
36:u:tok-2 R=(writer/director)./(2003).,
12:u:Pre-2 X=(W,
12:u:Suf-2 L=AV,
15:u:Tok-1 X=Paper,
25:u:tok-2 R=paper/presented,
25:u:tok-2 L=paper/presented,
21:u:tok-1 L=psychology,,
21:u:tok-1LL=psychology,,
17:u:tok-1LL=(2007).,
12:u:Suf-2 X=au,
15:u:Tok-1 X=2010,,
12:u:tok-1RR=12,
12:u:tok-1 R=12,
15:u:Tok-1 X=2005.,
12:u:tok-1LL=12,
25:u:tok-2 L=september/2005.,
25:u:tok-2 R=2005./retrieved,
12:u:Suf-2 X=df,
18:u:tok-1 L=program.,
15:u:tok-1RR=2011,,
15:u:tok-1 R=2011,,
15:u:Tok-1 X=2011,,
15:u:tok-1 L=2011,,
15:u:tok-1LL=2011,,
11:u:tok-1LL=+,
20:u:Tok-1 X=exhibition,
20:u:tok-1 X=exhibition,
18:u:tok-1 L=fashion,,
20:u:tok-1 R=catalogue,,
29:u:tok-2 L=fashion,/exhibition,
31:u:tok-2 R=exhibition/catalogue,,
20:u:Tok-1 X=catalogue,,
19:u:tok-1 X=catalogue,
18:u:tok-1LL=fashion,,
20:u:tok-1 L=exhibition,
18:u:tok-1RR=march-27,
31:u:tok-2 L=exhibition/catalogue,,
23:u:tok-2 R=catalogue,/11,
17:u:tok-1 X=andrade,
14:u:tok-1RR=dir.,
14:u:tok-1 R=dir.,
14:u:Tok-1 X=Dir.,
13:u:tok-1 X=dir,
14:u:tok-1 L=dir.,
14:u:tok-1LL=dir.,
15:u:Tok-1 X=Perf.,
14:u:tok-1 X=perf,
15:u:tok-1 L=perf.,
15:u:tok-1LL=perf.,
14:u:Suf-2 X=.”,
14:u:Suf-2 L=.”,
12:u:tok-1 R=24,
14:u:Tok-1 X=Bill,
14:u:tok-1 X=bill,
14:u:tok-1 L=bill,
15:u:tok-1 L=2006,,
16:u:tok-1 R=corpus,
16:u:tok-1 X=corpus,
19:u:tok-2 R=corpus/of,
16:u:tok-1 L=corpus,
19:u:tok-2 L=corpus/of,
16:u:tok-1LL=corpus,
19:u:tok-1LL=resources,
20:u:tok-1RR=engineers,,
20:u:tok-1 R=engineers,,
18:u:tok-1 X=movement,
22:u:Tmn-2 R=none/locator,
24:u:Key-3 x=locator/strong,
15:u:Tok-1 X=South,
15:u:tok-1 X=south,
14:u:tok-1 L=2012,
14:u:tok-1LL=2012,
12:u:Suf-2 X=ni,
16:u:tok-1RR=group.,
16:u:tok-1 R=group.,
16:u:Tok-1 X=Group.,
17:u:tok-1 X=ballard,
18:u:tok-1 R=ballard.,
21:u:tok-2 R=g./ballard.,
18:u:Tok-1 X=Ballard.,
21:u:tok-2 L=g./ballard.,
22:u:tok-2 R=ballard./new,
15:u:Lst-2 X=Ll/é,
12:u:Suf-1 X=é,
17:u:Tmn-3 X=none/é,
15:u:Lst-2 L=Ll/é,
17:u:tok-1 L=powers.,
17:u:tok-1LL=powers.,
16:u:Tok-1 X=Boston,
16:u:tok-1 R=globe,,
24:u:tok-2 L=powers./boston,
23:u:tok-2 R=boston/globe,,
16:u:Tok-1 X=Globe,,
15:u:tok-1 X=globe,
16:u:tok-1 L=boston,
23:u:tok-2 L=boston/globe,,
21:u:tok-2 R=globe,/june,
22:u:Tok-1 X=2003–2005.,
18:u:tok-1 X=20032005,
19:u:tok-1LL=chernobyl,
15:u:tok-1 L=forum,
16:u:tok-1RR=legacy,
28:u:tok-2 L=forum/2003–2005.,
26:u:tok-2 R=2003–2005./the,
15:u:Tok-1 X=Seem.,
14:u:tok-1 X=seem,
20:u:tok-2 L=mark/seem.,
19:u:tok-2 R=seem./new,
17:u:Tok-1 X=Dirlik,,
16:u:tok-1 X=dirlik,
19:u:tok-1 L=place.”,
18:u:tok-1 R=prazniak,
22:u:tok-2 L=place.”/in,
21:u:tok-2 R=in/prazniak,
18:u:Tok-1 X=Prazniak,
18:u:tok-1 X=prazniak,
19:u:tok-1LL=place.”,
17:u:tok-1RR=dirlik,,
21:u:tok-2 L=in/prazniak,
22:u:tok-2 R=prazniak/and,
18:u:tok-1 L=prazniak,
17:u:tok-1 R=dirlik,,
18:u:tok-1RR=15–51.,
22:u:tok-2 L=prazniak/and,
21:u:tok-2 R=and/dirlik,,
18:u:tok-1LL=prazniak,
18:u:tok-1 R=15–51.,
21:u:tok-2 L=and/dirlik,,
26:u:tok-2 R=dirlik,/15–51.,
21:u:tok-1 X=unpublished,
17:u:Tok-1 X=Federal,
17:u:tok-1 X=federal,
17:u:tok-1 L=federal,
17:u:tok-1LL=federal,
14:u:tok-1RR=eds.,
14:u:tok-1 R=eds.,
14:u:tok-1 L=eds.,
14:u:tok-1LL=eds.,
17:u:tok-1 X=comment,
26:u:tok-1 L=–––––.,
14:u:Suf-2 L=–.,
12:u:Pre-2 R=My,
16:u:Tok-1 X=Nature,
14:u:Suf-2 L=”,,
13:u:Suf-2 X=ým,
13:u:Suf-2 L=ým,
12:*:Fst-1 X=Pf,
15:u:Fst-2 X=Pf/»,
12:u:Pre-1 X=»,
13:u:tok-1 L=»,,
13:u:Suf-2 L=»,,
13:u:tok-1LL=»,,
13:u:Pre-2 X=n°,
12:u:tok-1RR=du,
12:u:Suf-2 L=au,
12:u:Tok-1 X=du,
12:u:tok-1 X=du,
12:u:tok-1 L=du,
13:u:Suf-2 X=té,
13:u:Suf-2 L=té,
14:u:tok-1 L=(ed.,
14:u:tok-1LL=(ed.,
13:u:tok-1 L=–,
16:u:Lst-2 L=Pd/–,
13:u:Suf-2 L=–,
13:u:tok-1LL=–,
20:u:Tok-1 X=———.,
25:u:tok-2 L=_x-1/———.,
16:u:Fst-2 X=Pd/—,
13:u:Pre-1 X=—,
16:u:Pre-2 X=——,
14:u:Suf-2 X=—.,
20:u:tok-1 L=———.,
14:u:Suf-2 L=—.,
15:u:Tok-1 X=2015.,
16:u:tok-2 R=./_x+1,
20:u:tok-1 L=flight,”,
13:u:Fst-2 X=P/,,
11:u:Pre-1 X=,,
15:u:tok-1RR=vols.,
16:u:tok-1RR=paris:,
16:u:tok-1 R=paris:,
13:u:Lst-2 X=P/*,
11:u:Suf-1 X=*,
12:u:Suf-2 X=.*,
16:u:Tmn-3 X=none/*,
15:u:tok-1LL=(eds),
13:u:tok-1 R=usa,
13:u:Tok-1 X=USA,
12:u:Suf-2 X=SA,
12:u:tok-1 X=en,
12:u:tok-1LL=en,
16:u:tok-1LL=sierra,
16:u:tok-1 L=norte,,
14:u:tok-1RR=coba,
23:u:tok-2 L=norte,/carlos,
24:u:tok-2 R=carlos/alberto,
16:u:tok-1LL=norte,,
14:u:tok-1 R=coba,
17:u:tok-1RR=andrade,
24:u:tok-2 L=carlos/alberto,
22:u:tok-2 R=alberto/coba,
14:u:Tok-1 X=Coba,
14:u:tok-1 X=coba,
17:u:tok-1 R=andrade,
13:u:tok-1RR=[et,
22:u:tok-2 L=alberto/coba,
22:u:tok-2 R=coba/andrade,
12:u:Suf-2 X=ba,
17:u:Tok-1 X=Andrade,
14:u:tok-1 L=coba,
13:u:tok-1 R=[et,
15:u:tok-1RR=al.];,
22:u:tok-2 L=coba/andrade,
21:u:tok-2 R=andrade/[et,
12:u:Pre-2 R=[e,
12:u:Suf-2 L=ba,
13:u:Tok-1 X=[et,
14:u:tok-1LL=coba,
17:u:tok-1 L=andrade,
15:u:tok-1 R=al.];,
17:u:tok-1RR=hernán,
21:u:tok-2 L=andrade/[et,
19:u:tok-2 R=[et/al.];,
12:u:Pre-2 X=[e,
15:u:Tok-1 X=al.];,
17:u:tok-1LL=andrade,
13:u:tok-1 L=[et,
17:u:tok-1 R=hernán,
19:u:tok-1RR=jaramillo,
19:u:tok-2 L=[et/al.];,
23:u:tok-2 R=al.];/hernán,
12:u:Suf-2 X=];,
14:u:Pre-2 X=L’,
21:u:tok-1 L=populations,
21:u:tok-1LL=populations,
20:u:tok-1 R=macmillan,,
15:u:tok-1RR=brown,
20:u:tok-2 L=(ed.),/the,
20:u:tok-1 X=monographs,
20:u:tok-1LL=underwater,
20:u:tok-2 R=2015./_x+1,
15:u:Tok-1 X=NASA,,
14:u:tok-1 X=nasa,
26:u:tok-1LL=nap-of-the-earth,
26:u:tok-2 L=flight,”/nasa,,
21:u:tok-2 R=nasa,/tech.,
12:u:Pre-2 X=NA,
12:u:Pre-2 X=(a,
20:u:Tok-1 X=Geological,
20:u:tok-1 X=geological,
28:u:tok-2 R=geological/society,
15:u:Tok-1 X=IJCV,,
14:u:tok-1 X=ijcv,
13:u:Tok-1 X=Т.,
12:u:tok-1 X=т,
23:u:tok-1LL=altslavischen,
21:u:tok-1 L=apokryphen.,
23:u:tok-1RR=(patristische,
25:u:tok-2 L=apokryphen./Т.,
16:u:tok-2 R=Т./1.,
15:u:Fst-2 X=Lu/Т,
12:u:Pre-1 X=Т,
13:u:Pre-2 X=Т.,
13:u:Suf-2 X=Т.,
12:u:tok-1 X=ad,
16:u:Tok-1 X=Wired,,
15:u:tok-1 X=wired,
18:u:tok-1 L=winner".,
16:u:tok-1RR=march.,
25:u:tok-2 L=winner"./wired,,
18:u:tok-2 R=wired,/7,
12:u:tok-1LL=20,
12:u:tok-1RR=m:,
18:u:tok-1RR=janeiro:,
16:u:tok-2 R=rio/de,
18:u:tok-1 R=janeiro:,
16:u:tok-2 L=rio/de,
21:u:tok-2 R=de/janeiro:,
15:u:tok-1 X=media,
21:u:Tok-1 X=(abstract).,
19:u:tok-1RR=planetary,
19:u:tok-1 R=planetary,
19:u:Tok-1 X=Planetary,
19:u:tok-1 X=planetary,
19:u:tok-1 L=planetary,
12:u:Pre-2 R=v.,
12:u:Tok-1 X=v.,
19:u:tok-1LL=planetary,
12:u:Pre-2 X=v.,
20:u:tok-2 R=of/natural,
20:u:tok-2 L=of/natural,
17:u:tok-1 R=little,,
18:u:tok-2 L=boston/-,
19:u:tok-2 R=-/little,,
18:u:tok-2 R=of/state,
18:u:tok-2 L=of/state,
26:u:Tok-1 X=Tullbergiinae).,,
23:u:tok-1 X=tullbergiinae,
15:u:tok-1LL=spain,
24:u:tok-1 L=(onychiuridae,,
18:u:tok-1 R=spixiana,
18:u:tok-1RR=(munich),
41:u:tok-2 L=(onychiuridae,/tullbergiinae).,,
35:u:tok-2 R=tullbergiinae).,/spixiana,
20:u:Num-2 R=none/other,
11:u:Tok-1 X=,,
11:u:Pre-2 X=,,
11:u:Suf-2 X=,,
15:u:tok-1RR=earth,
15:u:tok-1 R=earth,
19:u:Tok-1 X=Citeseer,,
18:u:tok-1 X=citeseer,
22:u:tok-1 L=linguistics,,
32:u:tok-2 L=linguistics,/citeseer,,
25:u:tok-2 R=citeseer,/2000.,
19:u:Tok-1 X=Westview,,
18:u:tok-1 X=westview,
16:u:tok-1LL=union,,
14:u:tok-1 R=1998,
28:u:tok-2 L=boulder,/westview,,
24:u:tok-2 R=westview,/1998,
16:u:tok-1RR=centre,
21:u:tok-1LL=psychologie,
16:u:tok-1 R=centre,
16:u:Tok-1 X=Centre,
16:u:tok-1 L=centre,
16:u:tok-1LL=centre,
18:u:tok-1 X=synthese,
15:u:Tok-1 X=Kon),,
13:u:tok-1 X=kon,
14:u:tok-1 L=g.a.,
15:u:tok-1RR=burns,
20:u:tok-2 L=g.a./kon),,
23:u:tok-2 R=kon),/london:,
15:u:tok-1LL=tesla,
15:u:Tok-1 X=N.p.,,
15:u:tok-1 L=blog,,
21:u:tok-2 L=blog,/n.p.,,
17:u:tok-2 R=n.p.,/2,
14:u:Tok-1 X=Web.,
14:u:tok-1LL=aug.,
12:u:tok-1 R=29,
20:u:tok-2 L=2006,/web.,
17:u:tok-2 R=web./29,
18:u:tok-1 R=release.,
24:u:tok-2 L=program./press,
24:u:tok-2 R=press/release.,
18:u:Tok-1 X=release.,
17:u:tok-1 X=release,
18:u:tok-1LL=program.,
24:u:tok-2 L=press/release.,
23:u:tok-2 R=release./_x+1,
20:u:tok-1LL=structure,,
16:u:Tok-1 X=Uysal,,
15:u:tok-1 X=uysal,
14:u:tok-1 L=i.t.,
14:u:tok-1 R=s.d.,
18:u:tok-1RR=golding,,
21:u:tok-2 L=i.t./uysal,,
21:u:tok-2 R=uysal,/s.d.,
12:u:Pre-2 X=Uy,
14:u:Tok-1 X=S.D.,
12:u:tok-1 X=sd,
14:u:tok-1LL=i.t.,
16:u:tok-1 L=uysal,,
18:u:tok-1 R=golding,,
14:u:tok-1RR=a.y.,
21:u:tok-2 L=uysal,/s.d.,
23:u:tok-2 R=s.d./golding,,
14:u:tok-1 R=a.y.,
18:u:tok-1RR=glikson,,
14:u:Tok-1 X=A.Y.,
12:u:tok-1 X=ay,
18:u:tok-1 R=glikson,,
23:u:tok-2 R=a.y./glikson,,
18:u:Tok-1 X=Glikson,,
17:u:tok-1 X=glikson,
14:u:tok-1 L=a.y.,
23:u:tok-2 L=a.y./glikson,,
14:u:tok-1LL=a.y.,
18:u:tok-1 L=glikson,,
16:u:tok-1RR=paris,,
16:u:tok-1 R=paris,,
16:u:Tok-1 X=Paris,,
16:u:tok-1 L=paris,,
14:u:Tok-1 X=27).,
17:u:tok-1LL=kreises,
24:u:tok-1 L=kempen-krefeld,
29:u:tok-1 R=kempen-niederrhein:,
29:u:tok-2 L=kempen-krefeld/27).,
34:u:tok-2 R=27)./kempen-niederrhein:,
23:u:Tok-1 X=JANSSEN-CILAG,
22:u:tok-1 X=janssencilag,
21:u:tok-1LL=l'entretien,
20:u:tok-1 L=infirmier.,
12:u:tok-1RR=40,
34:u:tok-2 L=infirmier./janssen-cilag,
29:u:tok-2 R=janssen-cilag/2010,,
12:u:Suf-2 X=AG,
16:u:Tok-1 X=Chapel,
16:u:tok-1 X=chapel,
18:u:tok-1LL=carolina,
13:u:tok-1RR=nc.,
23:u:tok-2 L=press./chapel,
22:u:tok-2 R=chapel/hill,,
19:u:tok-1LL=meteorite,
21:u:Tok-1 X=Bookseller,,
20:u:tok-1 X=bookseller,
15:u:tok-1LL=front,
16:u:tok-1 L=foot".,
15:u:tok-1RR=june.,
28:u:tok-2 L=foot"./bookseller,,
24:u:tok-2 R=bookseller,/20,
18:u:tok-1RR=products,
28:u:tok-2 L=_x-1/international,
31:u:tok-2 R=international/medical,
18:u:tok-1 R=products,
29:u:tok-1RR=anti-counterfeiting,
31:u:tok-2 L=international/medical,
26:u:tok-2 R=medical/products,
18:u:Tok-1 X=Products,
29:u:tok-1 R=anti-counterfeiting,
20:u:tok-1RR=taskforce.,
26:u:tok-2 L=medical/products,
38:u:tok-2 R=products/anti-counterfeiting,
29:u:Tok-1 X=Anti-Counterfeiting,
28:u:tok-1 X=anticounterfeiting,
18:u:tok-1 L=products,
20:u:tok-1 R=taskforce.,
38:u:tok-2 L=products/anti-counterfeiting,
40:u:tok-2 R=anti-counterfeiting/taskforce.,
20:u:Tok-1 X=Taskforce.,
19:u:tok-1 X=taskforce,
18:u:tok-1LL=products,
29:u:tok-1 L=anti-counterfeiting,
21:u:tok-1RR=counterfeit,
40:u:tok-2 L=anti-counterfeiting/taskforce.,
28:u:tok-2 R=taskforce./(2008).,
17:u:tok-1 L=crater,,
20:u:Tok-1 X=Sociologie,
20:u:tok-1 X=sociologie,
20:u:tok-1 L=sociologie,
20:u:tok-1LL=sociologie,
14:u:tok-1 R=465,,
19:u:tok-2 L=paper,/v.,
17:u:tok-2 R=v./465,,
14:u:Tok-1 X=465,,
13:u:tok-1 X=465,
18:u:tok-1RR=443-469,,
17:u:tok-2 L=v./465,,
18:u:tok-2 R=465,/pp.,
17:u:tok-1 X=societe,
13:u:tok-1LL=37,,
17:u:tok-1 L=(2013),,
16:u:tok-1 R=1–2,,
20:u:tok-1RR=133–154.,
20:u:tok-2 L=(2013),/h.,
19:u:tok-2 R=h./1–2,,
16:u:tok-1 X=bureau,
12:u:Pre-2 X=(h,
15:u:tok-1 X=ligne,
15:u:tok-1 L=ligne,
41:u:tok-1 R=http://articulo.revues.org/1731,
17:u:tok-2 L=ligne/:,
43:u:tok-2 R=:/http://articulo.revues.org/1731,
18:u:tok-1 L=ontario,,
26:u:tok-2 L=ontario,/canada.,
15:u:Tok-1 X=(Nat.,
15:u:tok-1LL=brit.,
14:u:tok-1 L=mus.,
16:u:tok-1 R=hist.),
15:u:tok-1RR=zool.,
20:u:tok-2 L=mus./(nat.,
22:u:tok-2 R=(nat./hist.),
16:u:Tok-1 X=Hist.),
14:u:tok-1 X=hist,
14:u:tok-1LL=mus.,
15:u:tok-1 L=(nat.,
15:u:tok-1 R=zool.,
15:u:tok-1RR=ser.*,
22:u:tok-2 L=(nat./hist.),
22:u:tok-2 R=hist.)/zool.,
15:u:Tok-1 X=Ser.*,
13:u:tok-1 X=ser,
16:u:tok-1LL=hist.),
15:u:tok-1 L=zool.,
21:u:tok-2 L=zool./ser.*,
20:u:tok-2 R=ser.*/_x+1,
23:u:Key-3 L=strong/series,
17:u:tok-1 R=france,,
17:u:Tok-1 X=France,,
18:u:Tok-1 X=AwwaRF.,,
16:u:tok-1 X=awwarf,
17:u:tok-1 R=denver.,
27:u:tok-2 L=systems./awwarf.,,
26:u:tok-2 R=awwarf.,/denver.,
12:u:Pre-2 X=Aw,
12:u:Suf-2 X=my,
12:u:Suf-2 L=my,
17:u:tok-1 X=faculty,
17:u:tok-1 X=academy,
18:u:Tok-1 X=faculty,,
24:u:tok-1 R=instructional,,
22:u:tok-2 L=for/faculty,,
33:u:tok-2 R=faculty,/instructional,,
24:u:Tok-1 X=instructional,,
18:u:tok-1 L=faculty,,
24:u:tok-1RR=organizational,
33:u:tok-2 L=faculty,/instructional,,
28:u:tok-2 R=instructional,/and,
18:u:tok-1LL=faculty,,
24:u:tok-1 L=instructional,,
24:u:tok-1 R=organizational,
28:u:tok-2 L=instructional,/and,
28:u:tok-2 R=and/organizational,
24:u:Tok-1 X=organizational,
24:u:tok-1 X=organizational,
24:u:tok-1LL=instructional,,
28:u:tok-2 L=and/organizational,
36:u:tok-2 R=organizational/development,
24:u:tok-1 L=organizational,
21:u:tok-1RR=206—225).,
36:u:tok-2 L=organizational/development,
26:u:tok-2 R=development/(pp.,
23:u:Tmn-2 R=weak/accessed,
19:u:tok-1 L=business,,
15:u:Tok-1 X=Adams,
18:u:tok-1 L=product.,
16:u:tok-1 R=media.,
193:u:tok-1RR=http://books.google.pt/books?id=r9aplqymsdcc&printsec=frontcover&dq=%22marketing+plan%22&hl=pt-pt&sa=x&ei=ujvwuu_0nbsf7aafsic4aq&redir_esc=y#v=onepage&q=%22marketing%20plan%22&f=false,
24:u:tok-2 L=product./adams,
22:u:tok-2 R=adams/media.,
16:u:Tok-1 X=Media.,
18:u:tok-1LL=product.,
15:u:tok-1 L=adams,
193:u:tok-1 R=http://books.google.pt/books?id=r9aplqymsdcc&printsec=frontcover&dq=%22marketing+plan%22&hl=pt-pt&sa=x&ei=ujvwuu_0nbsf7aafsic4aq&redir_esc=y#v=onepage&q=%22marketing%20plan%22&f=false,
22:u:tok-2 L=adams/media.,
200:u:tok-2 R=media./http://books.google.pt/books?id=r9aplqymsdcc&printsec=frontcover&dq=%22marketing+plan%22&hl=pt-pt&sa=x&ei=ujvwuu_0nbsf7aafsic4aq&redir_esc=y#v=onepage&q=%22marketing%20plan%22&f=false,
17:u:tok-1 R=(2014).,
18:u:tok-1 L=market,",
18:u:tok-1 R=industry,
18:u:tok-1RR=comment^,
26:u:tok-2 L=market,"/current,
26:u:tok-2 R=current/industry,
18:u:Tok-1 X=Industry,
18:u:tok-1 X=industry,
18:u:tok-1LL=market,",
18:u:tok-1 R=comment^,
26:u:tok-2 L=current/industry,
27:u:tok-2 R=industry/comment^,
18:u:Tok-1 X=Comment^,
18:u:tok-1 L=industry,
27:u:tok-2 L=industry/comment^,
22:u:tok-2 R=comment^/new,
13:u:Lst-2 X=S/^,
11:u:Suf-1 X=^,
12:u:Suf-2 X=t^,
16:u:Tmn-3 X=none/^,
18:u:Tok-1 X=Consumer,
18:u:tok-1 X=consumer,
17:u:tok-1LL=finance,
21:u:tok-1 L=companies,",
21:u:tok-1 R=installment,
17:u:tok-1RR=credit,,
30:u:tok-2 L=companies,"/consumer,
30:u:tok-2 R=consumer/installment,
21:u:Tok-1 X=Installment,
21:u:tok-1 X=installment,
21:u:tok-1LL=companies,",
18:u:tok-1 L=consumer,
17:u:tok-1 R=credit,,
30:u:tok-2 L=consumer/installment,
29:u:tok-2 R=installment/credit,,
17:u:Tok-1 X=Credit,,
18:u:tok-1LL=consumer,
21:u:tok-1 L=installment,
29:u:tok-2 L=installment/credit,,
22:u:tok-2 R=credit,/part,
17:u:tok-1 R=reserve,
25:u:tok-2 R=federal/reserve,
17:u:Tok-1 X=Reserve,
17:u:tok-1 X=reserve,
25:u:tok-2 L=federal/reserve,
17:u:tok-1 L=reserve,
18:u:tok-1 L=nations:,
20:u:tok-1RR=historical,
34:u:tok-2 L=nations:/anthropological,
29:u:tok-2 R=anthropological/and,
18:u:tok-1LL=nations:,
20:u:tok-1 R=historical,
29:u:tok-2 L=anthropological/and,
24:u:tok-2 R=and/historical,
21:u:tok-1RR=september).,
15:u:tok-1 L=gates,
19:u:tok-1LL=nicholls,,
17:u:tok-1RR=embrace,
21:u:tok-2 L=editors./in,
19:u:tok-1LL=honolulu,,
13:u:tok-1 L=hi:,
15:u:tok-2 L=hi:/.,
16:u:Tok-1 X=2011).,
30:u:tok-1 L=93(september/october,
37:u:tok-2 L=93(september/october/2011).,
21:u:tok-2 R=2011)./_x+1,
15:u:tok-1 R=bend,,
21:u:tok-2 R=south/bend,,
26:u:tok-2 L=springer/berlin,,
23:u:tok-2 R=berlin,/1997.,
22:u:tok-1 L=vehicles,”,
34:u:tok-2 L=vehicles,”/proceedings,
22:u:tok-1LL=vehicles,”,
21:u:tok-1RR=institution,
21:u:tok-1 R=institution,
25:u:tok-2 R=the/institution,
21:u:Tok-1 X=Institution,
21:u:tok-1 X=institution,
25:u:tok-2 L=the/institution,
24:u:tok-2 R=institution/of,
21:u:tok-1 L=institution,
24:u:tok-2 L=institution/of,
20:u:Tok-1 X=Mechanical,
21:u:tok-1LL=institution,
31:u:tok-2 R=mechanical/engineers,,
31:u:tok-2 L=mechanical/engineers,,
25:u:tok-2 R=engineers,/part,
15:u:tok-1 X=light,
17:u:Tok-1 X=Wagner,,
16:u:tok-1 X=wagner,
17:u:tok-1LL=wagner,,
15:u:Tok-1 X=arXiv,
15:u:tok-1 X=arxiv,
15:u:tok-1 L=arxiv,
15:u:tok-1LL=arxiv,
24:u:tok-2 L=arxiv/preprint,
18:u:tok-1LL=preprint,
14:u:tok-1 L=u.s.,
14:u:tok-1LL=u.s.,
21:u:tok-1LL=econometric,
18:u:tok-1 L=methods,,
22:u:tok-2 L=methods,/new,
18:u:tok-1LL=methods,,
20:u:tok-2 R=york:/john,
15:u:tok-1RR=1953.,
20:u:tok-2 L=york:/john,
21:u:tok-2 R=john/wiley,,
15:u:tok-1 R=1953.,
21:u:tok-2 L=john/wiley,,
22:u:tok-2 R=wiley,/1953.,
15:u:Tok-1 X=1953.,
22:u:tok-2 L=wiley,/1953.,
20:u:tok-2 R=1953./_x+1,
15:u:Tok-1 X=Menlo,
15:u:tok-1 X=menlo,
15:u:tok-1 R=park,,
21:u:tok-1RR=california:,
21:u:tok-2 R=menlo/park,,
15:u:Tok-1 X=Park,,
14:u:tok-1 X=park,
15:u:tok-1 L=menlo,
21:u:tok-1 R=california:,
21:u:tok-2 L=menlo/park,,
27:u:tok-2 R=park,/california:,
28:u:tok-2 L=solving./reprinted,
21:u:tok-1RR=monographs,,
26:u:tok-2 R=in/psychological,
21:u:tok-1 R=monographs,,
14:u:tok-1RR=j.f.,
26:u:tok-2 L=in/psychological,
35:u:tok-2 R=psychological/monographs,,
21:u:Tok-1 X=Monographs,,
14:u:tok-1 R=j.f.,
18:u:tok-1RR=dashiell,
35:u:tok-2 L=psychological/monographs,,
26:u:tok-2 R=monographs,/j.f.,
12:u:Tok-1 X=AD,
13:u:tok-1 R=807,
14:u:tok-1RR=258.,
19:u:tok-2 L=report/ad,
16:u:tok-2 R=ad/807,
12:u:Pre-2 X=AD,
12:u:Suf-2 X=AD,
26:u:tok-2 L=business,/april,,
22:u:Tok-1 X=(Unpublished,
22:u:tok-1 L=(unpublished,
22:u:tok-1LL=(unpublished,
23:u:Key-3 x=thesis/strong,
16:u:Tok-1 X=Hurst,,
15:u:tok-1 X=hurst,
18:u:tok-1 L=longman,,
15:u:tok-1 R=rees,,
15:u:tok-1RR=orme.,
25:u:tok-2 L=longman,/hurst,,
22:u:tok-2 R=hurst,/rees,,
18:u:tok-1LL=longman,,
16:u:tok-1 L=hurst,,
15:u:tok-1 R=orme.,
22:u:tok-2 L=hurst,/rees,,
21:u:tok-2 R=rees,/orme.,
15:u:Tok-1 X=Orme.,
14:u:tok-1 X=orme,
16:u:tok-1LL=hurst,,
21:u:tok-2 L=rees,/orme.,
20:u:tok-2 R=orme./_x+1,
19:u:tok-1RR=charnley,,
18:u:tok-2 L=saint/by,
15:u:tok-2 R=by/w.,
20:u:tok-1 X=governance,
13:u:tok-1LL=1st,
18:u:tok-1RR=(trans.),
18:u:tok-1 R=(trans.),
16:u:tok-1LL=senici,
23:u:tok-2 R=the/cambridge,
23:u:tok-2 L=the/cambridge,
29:u:tok-2 R=cambridge/companion,
17:u:tok-1RR=rossini,
29:u:tok-2 L=cambridge/companion,
17:u:tok-1 R=rossini,
20:u:tok-2 R=to/rossini,
17:u:Tok-1 X=Rossini,
17:u:tok-1 X=rossini,
20:u:tok-1 R=(cambridge,
20:u:tok-2 L=to/rossini,
28:u:tok-2 R=rossini/(cambridge,
23:u:Tok-1 X=Tannhäuser:,
20:u:tok-1 X=tannhauser,
17:u:tok-1LL=holland,
16:u:tok-1 R=texte,,
22:u:tok-1RR=materialien,,
31:u:tok-2 L=(eds.),/tannhäuser:,
30:u:tok-2 R=tannhäuser:/texte,,
16:u:Tok-1 X=Texte,,
23:u:tok-1 L=tannhäuser:,
22:u:tok-1 R=materialien,,
20:u:tok-1RR=kommentare,
30:u:tok-2 L=tannhäuser:/texte,,
29:u:tok-2 R=texte,/materialien,,
22:u:Tok-1 X=Materialien,,
21:u:tok-1 X=materialien,
23:u:tok-1LL=tannhäuser:,
16:u:tok-1 L=texte,,
20:u:tok-1 R=kommentare,
19:u:tok-1RR=(hamburg:,
29:u:tok-2 L=texte,/materialien,,
33:u:tok-2 R=materialien,/kommentare,
20:u:Tok-1 X=Kommentare,
20:u:tok-1 X=kommentare,
16:u:tok-1LL=texte,,
22:u:tok-1 L=materialien,,
19:u:tok-1 R=(hamburg:,
18:u:tok-1RR=rowohlt,,
33:u:tok-2 L=materialien,/kommentare,
30:u:tok-2 R=kommentare/(hamburg:,
18:u:tok-1RR=prepared,
18:u:tok-1 R=prepared,
18:u:Tok-1 X=prepared,
18:u:tok-1 X=prepared,
22:u:tok-2 R=prepared/for,
18:u:tok-1 L=prepared,
22:u:tok-2 L=prepared/for,
18:u:tok-1LL=prepared,
14:u:Tok-1 X=Mein,
14:u:tok-1 X=mein,
18:u:tok-1 L=richard,,
16:u:tok-1 R=leben,,
14:u:tok-1RR=eike,
23:u:tok-2 L=richard,/mein,
21:u:tok-2 R=mein/leben,,
16:u:Tok-1 X=Leben,,
18:u:tok-1LL=richard,,
14:u:tok-1 L=mein,
14:u:tok-1 R=eike,
17:u:tok-1RR=middell,
21:u:tok-2 L=mein/leben,,
21:u:tok-2 R=leben,/eike,
15:u:tok-1LL=ellis,
19:u:tok-1 L=(trans.),,
27:u:tok-2 L=(trans.),/wagner,,
20:u:tok-2 R=wagner,/24,
17:u:Tok-1 X=Claudio,
17:u:tok-1 X=claudio,
21:u:tok-1 R=monteverdi:,
15:u:tok-1RR=orfeo,
24:u:tok-2 L=(ed.),/claudio,
29:u:tok-2 R=claudio/monteverdi:,
15:u:Tok-1 X=Orfeo,
15:u:tok-1 X=orfeo,
17:u:tok-1LL=claudio,
21:u:tok-1 L=monteverdi:,
27:u:tok-2 L=monteverdi:/orfeo,
26:u:tok-2 R=orfeo/(cambridge,
12:u:Suf-2 X=eo,
25:u:tok-1LL=categorization,,
15:u:tok-1 L=cvpr.,
25:u:tok-2 L=cvpr./citeseer,,
25:u:tok-2 R=citeseer,/2011.,
13:u:tok-1RR=wa.,
27:u:tok-2 L=gates/foundation,,
30:u:tok-2 R=foundation,/seattle,,
24:u:tok-2 R=association/of,
24:u:tok-2 L=association/of,
17:u:Tok-1 X=(Bureau,
22:u:tok-1LL=correctional,
17:u:tok-1RR=justice,
29:u:tok-2 L=populations/(bureau,
20:u:tok-2 R=(bureau/of,
17:u:tok-1 L=(bureau,
17:u:tok-1 R=justice,
20:u:tok-2 L=(bureau/of,
20:u:tok-2 R=of/justice,
17:u:tok-1LL=centre,,
24:u:tok-2 L=paris,/france,,
31:u:tok-2 R=france,/architectural,
31:u:tok-2 L=france,/architectural,
31:u:tok-2 R=architectural/review,,
24:u:Tok-1 X=AFEP-IIPPE-AHE,
22:u:tok-1 X=afepiippeahe,
19:u:tok-1LL=keucheyan,
29:u:tok-2 L=2012/afep-iippe-ahe,
30:u:tok-2 R=afep-iippe-ahe/joint,
12:u:Pre-2 X=AF,
15:u:Tok-1 X=joint,
24:u:tok-1 L=afep-iippe-ahe,
30:u:tok-2 L=afep-iippe-ahe/joint,
27:u:tok-2 R=joint/conference,,
21:u:Tok-1 X=conference,,
24:u:tok-1LL=afep-iippe-ahe,
27:u:tok-2 L=joint/conference,,
28:u:tok-2 R=conference,/paris,,
14:u:Tok-1 X=Sci.,
15:u:tok-1LL=natl.,
15:u:tok-1 L=acad.,
20:u:tok-2 L=acad./sci.,
18:u:tok-2 R=sci./usa,
15:u:tok-1LL=acad.,
14:u:tok-1 L=sci.,
18:u:tok-2 L=sci./usa,
17:u:tok-1 R=academy,
17:u:Tok-1 X=Academy,
17:u:tok-1 L=academy,
20:u:tok-2 L=st./louis.,
26:u:tok-2 R=louis./retrieved,
16:u:tok-1 X=aashto,
25:u:tok-1 L=specifications.,
34:u:tok-2 L=specifications./american,
25:u:tok-1LL=specifications.,
17:u:tok-1RR=highway,
17:u:tok-1 R=highway,
23:u:tok-2 R=state/highway,
17:u:Tok-1 X=Highway,
17:u:tok-1 X=highway,
24:u:tok-1RR=transportation,
23:u:tok-2 L=state/highway,
21:u:tok-2 R=highway/and,
17:u:tok-1 L=highway,
24:u:tok-1 R=transportation,
19:u:tok-1RR=officials,
21:u:tok-2 L=highway/and,
28:u:tok-2 R=and/transportation,
24:u:Tok-1 X=Transportation,
24:u:tok-1 X=transportation,
17:u:tok-1LL=highway,
19:u:tok-1 R=officials,
19:u:tok-1RR=(aashto),,
28:u:tok-2 L=and/transportation,
34:u:tok-2 R=transportation/officials,
19:u:Tok-1 X=Officials,
19:u:tok-1 X=officials,
24:u:tok-1 L=transportation,
19:u:tok-1 R=(aashto),,
34:u:tok-2 L=transportation/officials,
29:u:tok-2 R=officials/(aashto),,
19:u:Tok-1 X=(AASHTO),,
24:u:tok-1LL=transportation,
19:u:tok-1 L=officials,
14:u:tok-1RR=d.c.,
29:u:tok-2 L=officials/(aashto),,
30:u:tok-2 R=(aashto),/washington,
17:u:Tok-1 X=Buckeye,
17:u:tok-1 X=buckeye,
24:u:tok-2 R=buckeye/corpus,
12:u:Suf-2 X=ye,
16:u:Tok-1 X=Corpus,
17:u:tok-1 L=buckeye,
24:u:tok-1RR=conversational,
24:u:tok-2 L=buckeye/corpus,
12:u:Suf-2 L=ye,
17:u:tok-1LL=buckeye,
24:u:tok-1 R=conversational,
27:u:tok-2 R=of/conversational,
24:u:Tok-1 X=Conversational,
24:u:tok-1 X=conversational,
27:u:tok-2 L=of/conversational,
32:u:tok-2 R=conversational/speech.,
17:u:Tok-1 X=Speech.,
24:u:tok-1 L=conversational,
32:u:tok-2 L=conversational/speech.,
22:u:tok-2 R=speech./_x+1,
18:u:Tok-1 X=Clitics,,
17:u:tok-1 X=clitics,
20:u:tok-1 L=phonology.,
20:u:tok-1 R=pro-nouns,,
29:u:tok-2 L=phonology./clitics,,
29:u:tok-2 R=clitics,/pro-nouns,,
20:u:Tok-1 X=Pro-nouns,,
18:u:tok-1 X=pronouns,
20:u:tok-1LL=phonology.,
18:u:tok-1 L=clitics,,
19:u:tok-1RR=movement,,
29:u:tok-2 L=clitics,/pro-nouns,,
24:u:tok-2 R=pro-nouns,/and,
18:u:tok-1LL=clitics,,
20:u:tok-1 L=pro-nouns,,
19:u:tok-1 R=movement,,
18:u:tok-1RR=321-362.,
24:u:tok-2 L=pro-nouns,/and,
23:u:tok-2 R=and/movement,,
19:u:Tok-1 X=Movement,,
20:u:tok-1LL=pro-nouns,,
18:u:tok-1 R=321-362.,
23:u:tok-2 L=and/movement,,
28:u:tok-2 R=movement,/321-362.,
14:u:tok-1 R=nist,
14:u:Tok-1 X=NIST,
14:u:tok-1 X=nist,
14:u:tok-1 L=nist,
14:u:tok-1LL=nist,
35:u:Tok-1 X=(http://webbook.nist.gov,,
28:u:tok-1 X=httpwebbooknistgov,
38:u:tok-2 L=g./(http://webbook.nist.gov,,
45:u:tok-2 R=(http://webbook.nist.gov,/retrieved,
18:u:tok-1 R=doctoral,
24:u:tok-1RR=dissertation).,
31:u:tok-2 R=(unpublished/doctoral,
18:u:Tok-1 X=doctoral,
18:u:tok-1 X=doctoral,
24:u:tok-1 R=dissertation).,
31:u:tok-2 L=(unpublished/doctoral,
33:u:tok-2 R=doctoral/dissertation).,
24:u:Tok-1 X=dissertation).,
18:u:tok-1 L=doctoral,
33:u:tok-2 L=doctoral/dissertation).,
12:u:Suf-2 X=EP,
12:u:Suf-2 L=EP,
15:u:Tok-1 X=Coll.,
14:u:tok-1 X=coll,
15:u:tok-1 R=folio,
17:u:tok-1RR=essais,,
26:u:tok-2 L=gallimard,/coll.,
21:u:tok-2 R=coll./folio,
15:u:Tok-1 X=Folio,
15:u:tok-1 X=folio,
15:u:tok-1 L=coll.,
17:u:tok-1 R=essais,,
21:u:tok-2 L=coll./folio,
23:u:tok-2 R=folio/essais,,
17:u:Tok-1 X=Essais,,
16:u:tok-1 X=essais,
15:u:tok-1LL=coll.,
15:u:tok-1 L=folio,
23:u:tok-2 L=folio/essais,,
23:u:tok-2 R=essais,/2000.,
20:u:tok-1 L=(dossier).,
13:u:tok-1RR=mei,
13:u:Tok-1 X=41.,
14:u:tok-1 L=nwav,
18:u:tok-2 L=nwav/41.,
18:u:tok-2 R=41./_x+1,
14:u:Tok-1 X=Clay,
14:u:tok-1 X=clay,
14:u:tok-1 L=clay,
14:u:Tok-1 X=Adv.,
13:u:tok-1 X=adv,
20:u:tok-1 L=maldacena,,
16:u:tok-1 R=theor.,
25:u:tok-2 L=maldacena,/adv.,
21:u:tok-2 R=adv./theor.,
16:u:tok-1LL=(1998),
12:u:Pre-2 X=[h,
14:u:Tok-1 X=JHEP,
14:u:tok-1 X=jhep,
18:u:tok-1 L=trivedi,,
15:u:tok-1 R=1005,,
13:u:tok-1RR=067,
23:u:tok-2 L=trivedi,/jhep,
20:u:tok-2 R=jhep/1005,,
12:u:Pre-2 X=JH,
15:u:Tok-1 X=1005,,
14:u:tok-1 X=1005,
18:u:tok-1LL=trivedi,,
14:u:tok-1 L=jhep,
13:u:tok-1 R=067,
16:u:tok-1RR=(2010),
20:u:tok-2 L=jhep/1005,,
19:u:tok-2 R=1005,/067,
12:u:Pre-2 R=06,
16:u:tok-1 L=insect,
13:u:tok-1 R=rev,
16:u:tok-1RR=genet.,
20:u:tok-2 L=insect/nat,
17:u:tok-2 R=nat/rev,
16:u:Tok-1 X=Genet.,
13:u:tok-1 L=rev,
27:u:tok-1 R=2000;(3):218-226.,
20:u:tok-2 L=rev/genet.,
34:u:tok-2 R=genet./2000;(3):218-226.,
16:u:Tok-1 X=Joyce.,
15:u:tok-1 X=joyce,
16:u:tok-1LL=blake,,
18:u:tok-1 L=dickens,,
25:u:tok-2 L=dickens,/joyce.,
27:u:tok-2 R=joyce./macmillan,,
16:u:Tok-1 X=Loving,
16:u:tok-1 X=loving,
16:u:tok-1 L=loving,
16:u:tok-1LL=loving,
0=-4.568566e-02
1=6.158327e-03
2=1.142244e-01
3=2.325608e-02
4=4.730105e-03
5=3.584910e-02
6=-2.636943e-03
7=3.812864e-02
8=3.545167e-02
9=9.110663e-02
10=9.416644e-02
12=3.143418e-02
13=1.034348e-01
14=-1.567089e-02
15=1.628389e-01
16=-6.476560e-03
18=-8.278238e-02
20=-1.214048e-01
21=-1.315865e-01
22=-1.029369e-01
23=7.484243e-01
24=2.611578e-01
25=2.978575e-01
26=-9.971393e-01
27=-8.162259e-01
28=-7.982354e-01
29=-9.032109e-01
31=-7.430772e-01
32=-2.963211e-01
36=-2.220316e-03
37=-1.678269e-01
40=-5.176344e-01
43=-1.521518e+00
45=-3.607397e-02
46=-6.111422e-01
47=6.492619e-01
48=1.778210e-01
49=-2.838759e-02
50=-4.986420e-01
51=-1.988166e-01
52=2.476860e-03
53=4.341339e-02
55=-7.403418e-04
59=1.951063e-02
69=-9.998400e-01
70=-1.967635e-01
71=6.691718e-01
72=-1.735316e-01
73=-2.845725e-02
74=-6.383404e-02
75=-4.488579e-01
76=-3.267355e-01
77=-2.352812e-02
78=-4.528832e-01
79=-4.456339e-02
81=9.381341e-02
82=-1.793294e-01
83=-2.552696e-02
84=4.216519e-02
86=-3.514880e-04
87=-4.098382e-01
88=-3.502064e-02
89=-3.743086e-02
90=1.550054e-01
92=-7.434897e-01
93=-1.128506e-01
94=-2.026159e-01
95=1.112456e+00
97=1.341743e-02
99=2.749531e-02
100=-4.153828e-01
101=-8.332499e-01
104=-8.669661e-02
105=-5.093841e-01
106=-2.668277e-01
109=-1.781296e-01
115=-5.307769e-01
116=5.186806e-02
117=-9.497586e-01
118=-3.655118e-01
119=7.522631e-01
120=-7.955508e-01
121=-8.449792e-01
122=-3.189686e-01
123=1.803920e-01
124=-9.580508e-05
127=-7.565300e-01
128=-4.149803e-01
138=-6.754240e-01
139=-2.975730e-01
140=-1.992730e+00
141=-9.225370e-03
142=1.328497e-02
143=8.925079e-01
144=1.123650e-02
145=8.500811e-02
146=-2.787741e-02
147=-1.061607e+00
148=-9.459699e-02
150=-1.473485e+00
151=-1.039917e+00
152=-1.602541e-01
158=-1.666200e-01
162=1.124508e-04
163=-1.603027e+00
166=-1.201656e+00
167=1.368121e+00
168=7.510886e-01
170=-1.408105e+00
174=-4.236268e-01
175=1.943112e-01
185=4.044912e-02
186=-1.858602e+00
188=8.015620e-02
189=-9.237568e-01
191=7.362394e-01
197=-3.837116e-02
207=-4.415567e-01
208=2.642416e-01
209=-3.813819e-01
210=-5.782905e-01
211=1.223435e-01
212=-7.813355e-01
213=-4.580948e-01
214=3.412153e-02
215=9.506393e-01
216=-2.770413e-02
219=-5.626461e-01
225=4.336440e-02
230=-8.581099e-01
231=-3.910028e-01
232=-1.331732e+00
233=-1.227334e+00
234=-5.304625e-01
235=-1.280062e+00
236=-9.741469e-02
237=-1.042260e+00
238=-4.242720e-02
239=9.918706e-01
240=2.816796e-01
242=-3.390551e-01
243=-9.412850e-01
254=-4.140009e-01
262=2.009993e-01
263=9.564434e-01
276=6.721460e-02
278=4.842429e-02
299=-9.847434e-01
300=1.835582e-01
301=-3.558172e-01
302=-7.799018e-01
303=-8.677400e-01
304=-1.213787e+00
305=5.079503e-01
307=-5.891514e-01
308=-1.536824e-02
311=9.666070e-01
312=-9.076634e-01
313=-4.379238e-01
315=-1.190640e-01
316=-6.702308e-02
322=-3.542249e-01
323=-7.625102e-05
324=-1.881303e+00
325=-2.585564e-01
326=-1.492266e-03
327=-8.873993e-01
328=-6.794762e-02
330=1.589858e-01
332=1.070979e-01
334=-4.773690e-01
335=6.196082e-01
346=-1.483518e-02
347=-8.468510e-01
348=-4.826104e-03
350=-5.706482e-01
351=7.680128e-03
354=-2.719076e-01
357=-1.331752e-01
358=-3.375959e-01
359=1.105712e+00
370=-7.792864e-01
372=6.427972e-02
376=1.551785e-02
377=-1.002692e-01
383=2.707043e+00
393=-2.493280e-01
397=-9.657104e-02
398=-2.354799e-01
407=2.218400e+00
414=-9.785112e-06
416=-1.072252e+00
417=-2.552322e-01
418=1.053188e-04
419=-8.811655e-03
422=-1.228980e-02
431=9.473579e-01
455=7.180819e-01
479=4.614262e-01
483=-2.220819e-01
486=-1.842675e-01
487=-1.458007e-01
503=6.456467e-01
510=3.947537e-02
514=1.211500e-02
549=3.676266e-02
551=1.748474e+00
552=1.477247e-01
554=-1.791426e-02
555=4.993131e-02
556=-4.606718e-02
557=-1.313912e-03
561=-2.558966e-02
563=1.421852e-01
574=3.628865e-02
575=1.477247e-01
577=-1.791426e-02
578=4.993131e-02
579=-4.606718e-02
580=-1.313912e-03
584=-2.558966e-02
586=1.421852e-01
597=3.628865e-02
598=1.644725e-01
599=-7.476238e-02
600=-1.644140e-02
601=6.917995e-02
602=2.043304e-01
603=3.713246e-02
604=-4.280323e-01
605=-1.237784e+00
606=5.425090e-02
607=5.293913e-02
608=-1.151708e-01
609=-7.000665e-01
610=6.997760e-02
611=6.360462e-04
612=-4.672497e-03
613=-4.066662e-02
614=-2.458238e-02
615=-3.705786e-03
616=-6.765187e-03
617=-1.085927e-01
618=-4.128920e-02
619=-1.532597e-01
620=-4.176674e-02
621=1.018798e+00
622=-2.049166e+00
623=1.731757e-01
625=-2.381528e-01
626=-3.396902e-01
629=-3.131922e-01
630=-1.106536e+00
644=-2.379462e-01
645=1.419403e-01
646=3.307839e-01
649=-1.217119e-01
651=4.792857e-05
653=-7.283026e-04
656=3.507995e-02
657=5.798322e-06
667=-2.673461e-01
668=-8.787080e-02
669=2.375753e-01
670=-7.013965e-02
671=-1.673465e-02
672=-2.265292e-02
673=4.375420e-02
675=-1.998999e-03
676=-3.490353e-01
679=7.702411e-01
680=4.476739e-03
681=-1.124593e-02
682=5.720787e-03
683=1.490178e-02
685=-1.677918e-02
687=-1.551393e-02
690=-5.402911e-01
692=-5.108071e-02
693=8.074107e-01
694=-2.836535e-01
695=1.245456e-01
698=-2.426163e-01
713=-1.490651e-01
714=1.376119e-02
716=-6.549964e-02
717=4.025599e-01
721=5.317824e-01
725=-3.424149e-02
736=-1.125567e-01
738=-3.491443e-01
739=-4.485931e-01
740=9.505731e-03
741=5.995846e-01
742=-8.929256e-05
744=-1.382424e-01
745=-1.367506e-01
748=-3.647157e-01
749=-2.282979e-02
765=4.272088e-03
766=7.852236e-03
783=1.523829e-03
786=5.115925e-01
787=-5.625434e-01
791=1.407547e-02
800=5.154616e-02
805=-1.153238e-01
806=-1.676240e-02
807=-6.898299e-01
809=1.346569e-01
813=7.183374e-01
814=-1.066453e-03
823=2.244379e-01
832=-7.053272e-02
836=-1.046468e-03
837=4.849203e-01
874=2.669203e-01
897=-1.579774e-01
898=1.077443e-01
899=-5.113726e-01
901=-5.648280e-01
903=2.846570e-01
909=6.708272e-01
910=-6.699038e-02
920=-1.693001e-05
921=6.413802e-01
928=4.567558e-01
929=-3.417128e-02
933=5.926837e-01
947=2.903865e-05
957=5.513937e-01
970=1.247016e-01
974=2.364332e-02
1005=6.117633e-01
1016=3.631504e-04
1020=-3.491671e-01
1029=7.764698e-01
1081=-2.986003e-01
1085=-7.347813e-02
1090=2.097426e-02
1101=5.244387e-01
1108=6.610512e-02
1112=2.982420e-02
1149=1.109249e+00
1150=1.318827e-01
1151=-1.053231e-04
1152=1.259837e-01
1153=1.323834e-01
1154=1.561660e-01
1155=-5.336660e-02
1156=-3.579326e-01
1157=-8.640836e-02
1158=6.543958e-03
1159=1.471974e-02
1160=-5.215059e-01
1162=2.960083e-03
1163=5.226888e-02
1164=-1.882269e-02
1166=7.255554e-02
1167=5.552920e-02
1170=7.946055e-02
1172=-4.655521e-02
1173=7.771173e-03
1175=-8.337195e-04
1176=1.478955e-02
1177=-1.858267e-02
1178=-1.718564e-02
1179=1.615594e-02
1181=1.425133e-01
1182=1.416605e-03
1190=4.637370e-02
1196=7.565503e-02
1198=-6.136565e-03
1199=-1.049998e-01
1201=-1.302058e-04
1204=-3.625365e-01
1205=5.713774e-01
1208=8.127304e-02
1209=-5.163970e-01
1217=2.805194e-01
1219=1.477247e-01
1221=-1.791426e-02
1222=4.993131e-02
1223=-4.606718e-02
1224=-1.313912e-03
1228=-2.558966e-02
1230=1.421852e-01
1241=3.628865e-02
1771=5.809536e-02
1772=-2.470877e-01
1773=2.329171e-02
1774=5.924092e-02
1775=-7.391354e-04
1776=1.575034e-01
1780=1.566043e-01
1781=4.740182e-01
1783=4.049521e-02
1784=3.984154e-02
1785=1.626795e-01
1786=4.267936e-02
1787=3.127297e-02
1788=4.732775e-02
1791=-5.193263e-02
1794=1.477247e-01
1796=-1.791426e-02
1797=4.993131e-02
1798=-4.606718e-02
1799=-1.313912e-03
1803=-2.558966e-02
1805=1.421852e-01
1816=3.628865e-02
1817=-1.235967e-03
1818=-2.320424e-02
1819=1.479723e-02
1822=-2.033013e-02
1825=1.569815e-02
1826=5.936617e-02
1829=6.041813e-05
1830=-1.592710e-01
1831=3.197817e-02
1834=5.937161e-04
1840=7.771173e-03
1842=-8.337195e-04
1843=1.478955e-02
1844=-1.858267e-02
1845=-1.718564e-02
1846=1.615594e-02
1848=1.425133e-01
1849=1.416605e-03
1857=4.637370e-02
1866=1.128914e-02
1883=5.953988e-03
1886=-1.235967e-03
1887=-2.320424e-02
1888=1.479723e-02
1891=-2.033013e-02
1894=1.569815e-02
1895=5.936617e-02
1898=6.041813e-05
1899=-1.592710e-01
1900=3.197817e-02
1903=5.937161e-04
1909=1.477247e-01
1911=-1.791426e-02
1912=4.993131e-02
1913=-4.606718e-02
1914=-1.313912e-03
1918=-2.558966e-02
1920=1.421852e-01
1931=3.628865e-02
1933=-2.967532e-02
1934=-8.209150e-04
1935=5.964809e-02
1940=1.575554e-05
1946=6.246520e-02
1955=1.477247e-01
1957=-1.791426e-02
1958=4.993131e-02
1959=-4.606718e-02
1960=-1.313912e-03
1964=-2.558966e-02
1966=1.421852e-01
1977=3.628865e-02
1978=9.441625e-03
1979=-9.426058e-07
1980=8.297736e-02
1981=1.633045e-02
1982=1.875854e-01
1983=4.983047e-02
1984=-6.519043e-02
1985=-6.124371e-01
1986=4.028598e-02
1987=6.020580e-02
1988=-1.176362e-01
1990=5.389731e-02
1991=3.617491e-02
1992=-1.548061e-02
1994=7.213163e-02
1995=-1.220629e-02
1996=-5.203508e-02
1998=6.881368e-02
2000=-1.506308e-03
2001=-4.109601e-04
2003=-6.403906e-02
2004=1.509914e-01
2006=-2.504843e-02
2010=1.934593e-03
2013=7.412732e-02
2018=4.192709e-02
2023=6.190634e-02
2024=1.231243e-01
2026=2.812353e-02
2027=1.292590e-01
2032=-2.637286e-01
2044=2.507986e-03
2047=-1.894961e-04
2049=-3.905237e-03
2050=1.344122e-01
2052=-3.073135e-02
2067=4.165424e-02
2069=1.649429e-01
2070=1.231243e-01
2072=2.812353e-02
2073=1.292590e-01
2078=-2.637286e-01
2090=2.507986e-03
2093=1.477247e-01
2095=-1.791426e-02
2096=4.993131e-02
2097=-4.606718e-02
2098=-1.313912e-03
2102=-2.558966e-02
2104=1.421852e-01
2115=3.628865e-02
2645=1.469160e-01
2646=-1.339349e-01
2647=6.577398e-02
2648=1.392246e-01
2649=1.156862e-01
2650=-3.750825e-02
2651=-1.549355e-01
2652=-1.937221e-01
2653=2.800308e-02
2654=1.018368e-01
2656=-4.826639e-01
2657=7.418054e-02
2658=4.006646e-02
2659=-1.273834e-02
2660=-5.215236e-02
2661=-1.288160e-01
2662=9.393255e-02
2663=-6.262733e-02
2664=-1.194719e-01
2665=1.504420e-01
2666=-9.309530e-03
2667=-6.159168e-02
2668=1.020635e+00
2670=2.662208e-01
2671=-7.482952e-01
2672=-6.336589e-01
2673=-6.531713e-01
2676=-3.754281e-01
2677=-2.057660e-01
2682=-1.346801e-02
2685=-1.761463e-01
2691=-4.744884e-01
2692=3.544156e-01
2693=2.009627e-01
2695=-2.176776e-01
2696=-1.478901e-01
2698=-1.026574e-01
2700=6.187490e-03
2704=5.532374e-02
2706=-1.887363e-01
2712=1.147025e-01
2714=-3.613537e-01
2715=-9.278196e-01
2716=6.558368e-01
2717=-1.706291e-01
2718=-3.101253e-03
2719=-4.374285e-02
2720=-2.343321e-01
2721=-9.985937e-02
2722=-2.528472e-04
2723=-2.016669e-01
2726=1.101689e-01
2727=3.153077e-05
2728=-5.766890e-04
2730=7.122110e-05
2732=-3.857244e-02
2734=-3.429249e-02
2737=-5.883202e-01
2738=-9.070521e-02
2739=-1.813892e-01
2740=1.026417e+00
2742=1.477869e-02
2745=-3.781266e-01
2746=-6.457553e-01
2749=-1.465712e+00
2750=-1.621351e-01
2751=-1.317819e-01
2753=-9.217022e-03
2754=-1.656464e-01
2760=-2.137244e-01
2761=4.484671e-03
2762=-3.083634e-01
2763=-8.234617e-02
2764=2.652121e-01
2765=-7.643931e-02
2768=1.946444e-01
2769=-5.500933e-02
2772=-4.226802e-01
2783=-5.438439e-01
2784=-3.466820e-02
2785=-1.177265e+00
2786=1.226776e-04
2787=1.988185e-02
2788=8.174073e-01
2789=3.685331e-03
2790=4.222581e-03
2791=-1.945214e-02
2792=-1.836905e-01
2795=-1.006103e+00
2796=-6.461414e-01
2797=-3.058042e-02
2807=1.131278e-01
2811=-3.435343e-01
2812=1.387809e+00
2813=1.662208e-01
2820=1.180256e+00
2833=2.083727e-01
2834=-7.642195e-01
2838=3.484415e-02
2847=5.449652e-02
2852=-1.110118e-01
2854=-1.220350e-01
2856=1.386589e-01
2857=-1.609693e-01
2859=-1.557837e-03
2860=9.643588e-01
2864=-3.750989e-01
2870=1.933815e-01
2876=-1.032528e-02
2877=-1.061862e+00
2878=-4.994377e-01
2879=-4.538974e-01
2880=-2.558025e-01
2883=-3.308943e-02
2884=8.059523e-01
2885=5.373679e-01
2887=-2.307558e-01
2907=3.627780e-01
2908=8.872266e-07
2921=6.272634e-02
2923=4.825614e-02
2944=-1.452914e-01
2945=1.339394e-01
2946=-5.320213e-01
2947=-8.307012e-02
2948=-6.530202e-01
2949=-9.507506e-02
2950=-2.802780e-03
2952=-4.338179e-01
2956=9.743856e-01
2957=-3.586470e-02
2958=-2.453682e-01
2967=-6.115595e-06
2968=1.965397e-01
2969=-7.481141e-01
2971=-9.205418e-04
2972=-2.962315e-01
2975=1.685181e-01
2976=-4.756035e-01
2979=-1.060061e-01
2980=3.861939e-01
2992=-7.122722e-02
2994=2.451173e-04
2995=-1.933940e-01
2997=2.479337e-02
2999=-1.479798e-01
3002=-8.512098e-02
3004=9.980662e-01
3017=5.871645e-02
3021=1.048074e-02
3028=1.423785e+00
3038=-9.320548e-02
3052=6.766615e-01
3061=-1.260006e-01
3062=-5.401252e-02
3063=1.078414e-03
3064=-1.535366e-01
3076=1.418361e+00
3132=-1.163195e-01
3137=8.765931e-03
3148=4.917029e-01
3155=7.843001e-02
3159=3.142634e-02
3194=4.215498e-02
3196=7.774676e-01
3197=4.802999e-02
3199=-4.105753e-02
3200=1.270299e-01
3201=-7.935331e-04
3209=3.075109e-02
3219=9.525233e-03
3220=2.181052e-01
3221=-1.592249e-01
3222=1.551694e-01
3223=1.328067e-01
3224=1.022128e-01
3225=1.554479e-01
3226=-2.693711e-01
3227=-1.093352e-01
3228=5.206128e-02
3229=1.469145e-01
3230=2.485623e-01
3231=-5.865192e-01
3232=1.608274e-01
3233=9.027861e-02
3234=8.602746e-02
3235=1.942224e-04
3236=9.294742e-02
3237=1.480317e-01
3238=-8.464673e-02
3239=-3.216032e-04
3240=1.233709e-01
3241=-4.302667e-01
3242=-1.148008e-01
3243=-1.358495e-01
3244=-2.042355e-01
3245=1.500218e-01
3246=-6.994343e-02
3247=-1.372739e-01
3248=3.683334e-01
3249=4.440590e-02
3250=6.496568e-02
3251=-8.684806e-04
3252=3.118186e-02
3253=7.561994e-02
3255=9.666902e-02
