#mdl#2#10782
#rdr#45/21/0
1:*,
18:u:Tok-1 X=%x[ 0,0],
18:u:tok-1 X=%x[ 0,1],
18:u:tok-1LL=%X[-2,0],
18:u:tok-1 L=%X[-1,0],
18:u:tok-1 R=%X[ 1,0],
18:u:tok-1RR=%X[ 2,0],
27:u:tok-2 L=%X[-1,0]/%X[ 0,0],
27:u:tok-2 R=%X[ 0,0]/%X[ 1,0],
18:*:Fst-1 X=%x[ 0,2],
18:*:Fst-1 R=%x[ 1,2],
18:*:Lst-1 L=%x[-1,3],
18:*:Lst-1 X=%x[ 0,3],
18:*:Pre-1 X=%x[ 0,4],
18:*:Pre-2 X=%x[ 0,5],
18:*:Pre-3 X=%x[ 0,6],
18:*:Pre-4 X=%x[ 0,7],
18:*:Suf-1 L=%x[-1,8],
18:*:Suf-1 X=%x[ 0,8],
18:*:Suf-2 L=%x[-1,9],
18:*:Suf-2 X=%x[ 0,9],
19:*:Suf-3 X=%x[ 0,10],
19:*:Suf-4 X=%x[ 0,11],
27:*:Fst-2 X=%x[ 0,2]/%x[ 0,4],
27:*:Lst-2 X=%x[ 0,3]/%x[ 0,8],
19:*:Cap-1 L=%x[-1,12],
19:*:Cap-1 X=%x[ 0,12],
19:*:Cap-1 R=%x[ 1,12],
29:*:Cap-2 L=%X[-1,12]/%X[ 0,12],
29:*:Cap-2 R=%X[ 0,12]/%X[ 1,12],
19:*:Num-1 L=%x[-1,13],
19:*:Num-1 X=%x[ 0,13],
19:*:Num-1 R=%x[ 1,13],
19:u:Nme-1 X=%x[ 0,14],
19:u:Mth-1 X=%x[ 0,15],
19:u:Loc-1 X=%x[ 0,16],
19:u:Pub-1 X=%x[ 0,17],
19:u:Jnl-1 X=%x[ 0,18],
19:*:Key-1 L=%x[-1,19],
19:*:Key-1 X=%x[ 0,19],
19:*:Key-1 R=%x[ 1,19],
19:*:Pos-1 X=%x[ 0,20],
19:*:Pct-1 L=%x[-1,21],
19:*:Pct-1 X=%x[ 0,21],
19:*:Pct-1 R=%x[ 1,21],
#qrk#25
6:author,
5:title,
6:editor,
9:booktitle,
4:date,
7:journal,
6:volume,
5:genre,
9:authority,
5:pages,
8:location,
9:publisher,
3:url,
4:note,
7:edition,
6:source,
10:translator,
4:isbn,
3:doi,
8:accessed,
7:section,
8:director,
6:medium,
8:producer,
5:event,
#qrk#2373
1:*,
11:u:tok-1 X=a,
14:u:tok-1LL=_x-2,
14:u:tok-1 L=_x-1,
12:*:Fst-1 X=Lu,
12:*:Fst-1 R=Lu,
14:*:Lst-1 L=_x-1,
11:*:Lst-1 X=P,
11:*:Pre-1 X=A,
14:*:Suf-1 L=_x-1,
11:*:Suf-1 X=.,
14:*:Suf-2 L=_x-1,
14:*:Fst-2 X=Lu/A,
13:*:Lst-2 X=P/.,
14:*:Cap-1 L=_x-1,
16:*:Cap-1 X=single,
17:*:Cap-1 R=initial,
21:*:Cap-2 L=_x-1/single,
24:*:Cap-2 R=single/initial,
14:*:Num-1 L=_x-1,
14:*:Num-1 X=none,
14:*:Num-1 R=none,
11:u:Nme-1 X=0,
11:u:Mth-1 X=0,
11:u:Loc-1 X=0,
11:u:Pub-1 X=1,
11:u:Jnl-1 X=1,
14:*:Key-1 L=_x-1,
14:*:Key-1 X=none,
14:*:Key-1 R=none,
11:*:Pos-1 X=0,
14:*:Pct-1 L=_x-1,
18:*:Pct-1 X=terminal,
18:*:Pct-1 R=internal,
14:u:tok-1LL=_x-1,
12:u:tok-1 R=r.,
11:*:Lst-1 L=P,
11:*:Pre-1 X=C,
12:*:Pre-2 X=Ca,
11:*:Suf-1 L=.,
11:*:Suf-1 X=,,
14:*:Fst-2 X=Lu/C,
13:*:Lst-2 X=P/,,
16:*:Cap-1 L=single,
17:*:Cap-1 X=initial,
16:*:Cap-1 R=single,
24:*:Cap-2 L=single/initial,
24:*:Cap-2 R=initial/single,
14:*:Num-1 L=none,
11:u:Pub-1 X=0,
11:u:Jnl-1 X=0,
14:*:Key-1 L=none,
18:*:Pct-1 L=terminal,
18:*:Pct-1 X=internal,
18:*:Pct-1 R=terminal,
13:u:tok-1RR=and,
11:*:Pre-1 X=R,
12:*:Pre-2 X=R.,
12:*:Pre-3 X=R.,
12:*:Pre-4 X=R.,
11:*:Suf-1 L=,,
12:*:Suf-2 X=R.,
12:*:Suf-3 X=R.,
12:*:Suf-4 X=R.,
14:*:Fst-2 X=Lu/R,
17:*:Cap-1 L=initial,
24:*:Cap-2 L=initial/single,
11:*:Pos-1 X=1,
18:*:Pct-1 L=internal,
13:u:tok-1 R=and,
12:*:Fst-1 R=Ll,
11:*:Pre-1 X=K,
12:*:Suf-2 X=r,,
13:*:Suf-3 X=er,,
14:*:Fst-2 X=Lu/K,
15:*:Cap-1 R=lower,
23:*:Cap-2 R=initial/lower,
11:u:Nme-1 X=1,
14:*:Pct-1 R=none,
13:u:Tok-1 X=and,
13:u:tok-1 X=and,
12:u:tok-1RR=de,
12:*:Fst-1 X=Ll,
12:*:Lst-1 X=Ll,
11:*:Pre-1 X=a,
12:*:Pre-2 X=an,
13:*:Pre-3 X=and,
13:*:Pre-4 X=and,
11:*:Suf-1 X=d,
12:*:Suf-2 L=r,,
12:*:Suf-2 X=nd,
13:*:Suf-3 X=and,
13:*:Suf-4 X=and,
14:*:Fst-2 X=Ll/a,
14:*:Lst-2 X=Ll/d,
15:*:Cap-1 X=lower,
14:*:Cap-1 R=caps,
23:*:Cap-2 L=initial/lower,
20:*:Cap-2 R=lower/caps,
14:*:Pct-1 X=none,
13:u:tok-1 L=and,
12:*:Lst-1 L=Ll,
11:*:Pre-1 X=W,
11:*:Suf-1 L=d,
12:*:Suf-2 L=nd,
12:*:Suf-2 X=P.,
14:*:Fst-2 X=Lu/W,
15:*:Cap-1 L=lower,
14:*:Cap-1 X=caps,
20:*:Cap-2 L=lower/caps,
11:*:Pos-1 X=2,
14:*:Pct-1 L=none,
13:u:tok-1LL=and,
11:*:Pre-1 X=d,
12:*:Pre-2 X=de,
11:*:Suf-1 X=e,
14:*:Fst-2 X=Ll/d,
14:*:Lst-2 X=Ll/e,
14:*:Cap-1 L=caps,
20:*:Cap-2 L=caps/lower,
23:*:Cap-2 R=lower/initial,
11:u:Loc-1 X=1,
12:*:Pre-2 X=Ro,
11:*:Suf-1 L=e,
12:*:Suf-2 X=r.,
13:*:Suf-3 X=er.,
23:*:Cap-2 L=lower/initial,
25:*:Cap-2 R=initial/initial,
11:*:Pre-1 X=F,
11:*:Suf-1 X=g,
12:*:Suf-2 L=r.,
12:*:Suf-2 X=ng,
13:*:Suf-3 X=ing,
14:*:Fst-2 X=Lu/F,
14:*:Lst-2 X=Ll/g,
25:*:Cap-2 L=initial/initial,
11:*:Pos-1 X=3,
15:*:Pct-1 R=other,
11:*:Pre-1 X=D,
12:*:Pre-2 X=Di,
11:*:Suf-1 L=g,
11:*:Suf-1 X=s,
12:*:Suf-2 L=ng,
14:*:Fst-2 X=Lu/D,
14:*:Lst-2 X=Ll/s,
15:*:Pct-1 X=other,
11:*:Suf-1 L=s,
11:*:Suf-1 X=t,
12:*:Suf-2 L='s,
13:*:Suf-3 X=ent,
14:*:Suf-4 X=ment,
14:*:Lst-2 X=Ll/t,
21:*:Cap-2 R=lower/lower,
15:*:Pct-1 L=other,
11:*:Pre-1 X=s,
11:*:Suf-1 L=t,
11:*:Suf-1 X=y,
12:*:Suf-2 L=nt,
14:*:Fst-2 X=Ll/s,
14:*:Lst-2 X=Ll/y,
21:*:Cap-2 L=lower/lower,
11:*:Pre-1 X=w,
11:*:Suf-1 L=y,
11:*:Suf-1 X=n,
12:*:Suf-2 X=in,
14:*:Fst-2 X=Ll/w,
14:*:Lst-2 X=Ll/n,
11:*:Pos-1 X=4,
12:u:tok-1RR=in,
11:*:Pre-1 X=S,
12:*:Pre-2 X=St,
11:*:Suf-1 L=n,
12:*:Suf-2 L=in,
14:*:Fst-2 X=Lu/S,
12:u:tok-1 R=in,
11:*:Pre-1 X=f,
12:*:Pre-2 X=fo,
13:*:Pre-3 X=for,
12:*:Suf-2 X=m.,
14:*:Fst-2 X=Ll/f,
12:*:Key-1 R=in,
12:u:Tok-1 X=In,
12:u:tok-1 X=in,
11:*:Pre-1 X=I,
12:*:Pre-2 X=In,
12:*:Pre-3 X=In,
12:*:Pre-4 X=In,
12:*:Suf-2 L=m.,
12:*:Suf-2 X=In,
12:*:Suf-3 X=In,
12:*:Suf-4 X=In,
14:*:Fst-2 X=Lu/I,
12:*:Key-1 X=in,
11:*:Pos-1 X=5,
12:u:tok-1 L=in,
12:*:Pre-2 X=C.,
12:*:Pre-3 X=C.,
12:*:Pre-4 X=C.,
12:*:Suf-2 L=In,
12:*:Suf-2 X=C.,
12:*:Suf-3 X=C.,
12:*:Suf-4 X=C.,
23:*:Cap-2 R=single/single,
12:*:Key-1 L=in,
12:u:tok-1LL=in,
11:*:Pre-1 X=B,
14:*:Fst-2 X=Lu/B,
23:*:Cap-2 L=single/single,
11:*:Pre-1 X=J,
12:*:Pre-2 X=Jo,
12:*:Suf-2 X=s,,
13:*:Suf-3 X=es,,
14:*:Fst-2 X=Lu/J,
11:*:Pos-1 X=6,
12:*:Suf-2 L=s,,
12:*:Pre-2 X=Sh,
11:*:Pos-1 X=7,
22:*:Cap-2 R=lower/single,
11:*:Pre-1 X=T,
14:*:Fst-2 X=Lu/T,
22:*:Cap-2 L=lower/single,
12:u:tok-1 L=t.,
12:*:Pre-2 X=De,
12:*:Suf-2 L=T.,
16:*:Key-1 R=editor,
11:*:Pos-1 X=8,
11:*:Pre-1 X=e,
12:*:Pre-2 X=ed,
13:*:Pre-3 X=edi,
14:*:Pre-4 X=edit,
14:*:Fst-2 X=Ll/e,
16:*:Key-1 X=editor,
15:u:Tok-1 X=Proc.,
14:u:tok-1 X=proc,
11:*:Fst-1 R=N,
11:*:Pre-1 X=P,
12:*:Pre-2 X=Pr,
13:*:Pre-3 X=Pro,
14:*:Pre-4 X=Proc,
12:*:Suf-2 X=c.,
13:*:Suf-3 X=oc.,
14:*:Suf-4 X=roc.,
14:*:Fst-2 X=Lu/P,
15:*:Cap-1 R=other,
23:*:Cap-2 R=initial/other,
17:*:Num-1 R=ordinal,
16:*:Key-1 L=editor,
15:u:tok-1 L=proc.,
11:*:Fst-1 X=N,
12:*:Suf-2 L=c.,
12:*:Suf-2 X=h.,
13:*:Suf-3 X=th.,
15:*:Cap-1 X=other,
23:*:Cap-2 L=initial/other,
20:*:Cap-2 R=other/caps,
17:*:Num-1 X=ordinal,
16:*:Pct-1 R=hyphen,
15:u:tok-1LL=proc.,
12:*:Lst-1 X=Lu,
12:*:Suf-2 L=h.,
15:*:Cap-1 L=other,
20:*:Cap-2 L=other/caps,
22:*:Cap-2 R=caps/initial,
17:*:Num-1 L=ordinal,
11:*:Pos-1 X=9,
16:*:Pct-1 X=hyphen,
12:*:Lst-1 L=Lu,
12:*:Pre-2 X=Re,
22:*:Cap-2 L=caps/initial,
16:*:Pct-1 L=hyphen,
18:u:tok-1 X=workshop,
15:u:tok-1 R=1992.,
14:u:tok-1RR=_x+1,
12:*:Pre-2 X=Wo,
13:*:Pre-3 X=Wor,
14:*:Pre-4 X=Work,
14:*:Num-1 R=year,
14:u:tok-1 R=_x+1,
14:u:tok-1RR=_x+2,
14:*:Fst-1 R=_x+1,
11:*:Pre-1 X=1,
12:*:Pre-2 X=19,
13:*:Pre-3 X=199,
14:*:Pre-4 X=1992,
12:*:Suf-2 X=2.,
13:*:Suf-3 X=92.,
14:*:Suf-4 X=992.,
13:*:Fst-2 X=N/1,
14:*:Cap-1 R=_x+1,
20:*:Cap-2 R=other/_x+1,
14:*:Num-1 X=year,
14:*:Num-1 R=_x+1,
14:*:Key-1 R=_x+1,
12:*:Pos-1 X=10,
14:*:Pct-1 R=_x+1,
11:*:Pre-1 X=M,
14:*:Fst-2 X=Lu/M,
12:*:Suf-2 X=a,,
11:u:tok-1 X=h,
11:*:Pre-1 X=H,
12:*:Pre-2 X=H.,
12:*:Suf-2 L=a,,
14:*:Fst-2 X=Lu/H,
12:u:tok-1 L=h.,
12:*:Pre-2 X=Ta,
12:*:Suf-2 L=H.,
12:u:tok-1RR=of,
12:*:Pre-2 X=Mo,
12:*:Suf-2 X=a.,
12:u:tok-1 R=of,
12:*:Pre-2 X=Ap,
13:*:Pre-3 X=App,
14:*:Pre-4 X=Appl,
12:*:Suf-2 L=a.,
12:*:Suf-2 X=on,
13:*:Suf-3 X=ion,
14:*:Suf-4 X=tion,
12:u:Tok-1 X=of,
12:u:tok-1 X=of,
12:u:tok-1RR=to,
11:*:Pre-1 X=o,
12:*:Pre-2 X=of,
12:*:Pre-3 X=of,
12:*:Pre-4 X=of,
11:*:Suf-1 X=f,
12:*:Suf-2 L=on,
12:*:Suf-2 X=of,
12:*:Suf-3 X=of,
12:*:Suf-4 X=of,
14:*:Fst-2 X=Ll/o,
14:*:Lst-2 X=Ll/f,
12:u:tok-1 L=of,
12:u:tok-1 R=to,
11:*:Pre-1 X=h,
11:*:Suf-1 L=f,
11:*:Suf-1 X=h,
12:*:Suf-2 L=of,
14:*:Fst-2 X=Ll/h,
14:*:Lst-2 X=Ll/h,
12:u:Tok-1 X=to,
12:u:tok-1 X=to,
12:u:tok-1LL=of,
11:*:Pre-1 X=t,
12:*:Pre-2 X=to,
12:*:Pre-3 X=to,
12:*:Pre-4 X=to,
11:*:Suf-1 L=h,
11:*:Suf-1 X=o,
12:*:Suf-2 X=to,
12:*:Suf-3 X=to,
12:*:Suf-4 X=to,
14:*:Fst-2 X=Ll/t,
14:*:Lst-2 X=Ll/o,
12:u:tok-1 L=to,
11:*:Suf-1 L=o,
11:*:Suf-1 X=a,
12:*:Suf-2 L=to,
14:*:Lst-2 X=Ll/a,
12:u:tok-1LL=to,
11:*:Pre-1 X=b,
11:*:Suf-1 L=a,
12:*:Suf-2 X=se,
14:*:Fst-2 X=Ll/b,
17:u:tok-1 X=machine,
11:*:Pre-1 X=m,
12:*:Suf-2 L=se,
12:*:Suf-2 X=ne,
13:*:Suf-3 X=ine,
14:*:Suf-4 X=hine,
14:*:Fst-2 X=Ll/m,
17:u:tok-1 L=machine,
12:*:Suf-2 L=ne,
13:u:tok-1RR=new,
11:*:Pre-1 X=i,
12:*:Suf-2 X=ts,
14:*:Fst-2 X=Ll/i,
13:u:tok-1 R=new,
12:*:Suf-2 L=ts,
12:*:Suf-2 X=e.,
13:u:Tok-1 X=New,
13:u:tok-1 X=new,
11:*:Pre-1 X=N,
12:*:Pre-2 X=Ne,
13:*:Pre-3 X=New,
13:*:Pre-4 X=New,
11:*:Suf-1 X=w,
12:*:Suf-2 L=e.,
12:*:Suf-2 X=ew,
13:*:Suf-3 X=New,
13:*:Suf-4 X=New,
14:*:Fst-2 X=Lu/N,
14:*:Lst-2 X=Ll/w,
13:u:tok-1 L=new,
11:*:Pre-1 X=G,
12:*:Pre-2 X=Ge,
11:*:Suf-1 L=w,
12:*:Suf-2 L=ew,
14:*:Fst-2 X=Lu/G,
12:*:Pre-2 X=Co,
13:*:Pre-3 X=Com,
14:*:Pre-4 X=Comp,
12:*:Suf-2 X=g,,
13:*:Suf-3 X=ng,,
14:*:Suf-4 X=ing,,
16:*:Num-1 R=volume,
33:*:Pct-1 R=internal-closing-parens,
12:*:Suf-2 L=g,,
12:*:Suf-2 X=),,
21:*:Cap-2 R=other/other,
16:*:Num-1 X=volume,
33:*:Pct-1 X=internal-closing-parens,
13:*:Pre-3 X=198,
12:*:Suf-2 L=),,
12:*:Suf-2 X=3.,
21:*:Cap-2 L=other/other,
16:*:Num-1 L=volume,
33:*:Pct-1 L=internal-closing-parens,
11:*:Suf-1 X=r,
12:*:Suf-2 X=er,
13:*:Suf-3 X=der,
14:*:Lst-2 X=Ll/r,
22:*:Cap-2 L=_x-1/initial,
11:*:Pre-1 X=V,
11:*:Suf-1 L=r,
12:*:Suf-2 L=er,
12:*:Suf-2 X=y.,
14:*:Fst-2 X=Lu/V,
13:*:Pre-3 X=Mod,
12:*:Suf-2 L=y.,
12:*:Suf-2 X=ge,
19:u:tok-1 R=technical,
12:*:Suf-2 L=ge,
12:*:Suf-2 X=n.,
13:*:Suf-3 X=on.,
14:*:Suf-4 X=ion.,
16:u:tok-1 R=report,
12:*:Pre-2 X=Te,
13:*:Pre-3 X=Tec,
14:*:Pre-4 X=Tech,
11:*:Suf-1 X=l,
12:*:Suf-2 L=n.,
12:*:Suf-2 X=al,
13:*:Suf-3 X=cal,
14:*:Suf-4 X=ical,
14:*:Lst-2 X=Ll/l,
16:u:Tok-1 X=Report,
16:u:tok-1 X=report,
13:*:Pre-3 X=Rep,
14:*:Pre-4 X=Repo,
11:*:Suf-1 L=l,
12:*:Suf-2 L=al,
12:*:Suf-2 X=rt,
13:*:Suf-3 X=ort,
14:*:Suf-4 X=port,
22:*:Cap-2 R=initial/caps,
16:u:tok-1 L=report,
12:*:Suf-2 L=rt,
22:*:Cap-2 L=initial/caps,
16:u:tok-1LL=report,
12:*:Pre-2 X=Wi,
14:*:Num-1 R=page,
21:*:Cap-2 R=other/lower,
14:*:Num-1 X=page,
11:*:Pre-1 X=v,
14:*:Fst-2 X=Ll/v,
21:*:Cap-2 L=other/lower,
21:*:Cap-2 R=lower/other,
14:*:Num-1 L=page,
17:*:Num-1 R=numeric,
13:u:tok-1RR=for,
11:*:Pre-1 X=2,
12:*:Suf-2 X=0,,
13:*:Fst-2 X=N/2,
21:*:Cap-2 L=lower/other,
23:*:Cap-2 R=other/initial,
17:*:Num-1 X=numeric,
13:u:tok-1 R=for,
13:*:Pre-3 X=Dep,
12:*:Suf-2 X=t.,
23:*:Cap-2 L=other/initial,
17:*:Num-1 L=numeric,
13:u:Tok-1 X=for,
13:u:tok-1 X=for,
13:*:Pre-4 X=for,
12:*:Suf-2 L=t.,
12:*:Suf-2 X=or,
13:*:Suf-3 X=for,
13:*:Suf-4 X=for,
13:u:tok-1 L=for,
13:*:Pre-3 X=Rea,
12:*:Suf-2 L=or,
12:*:Suf-2 X=me,
17:u:tok-1 X=systems,
13:u:tok-1LL=for,
20:u:tok-1RR=university,
12:*:Pre-2 X=Sy,
13:*:Pre-3 X=Sys,
14:*:Pre-4 X=Syst,
12:*:Suf-2 L=me,
13:*:Suf-3 X=ms,,
19:u:tok-1LL=real-time,
20:u:tok-1 R=university,
20:u:Tok-1 X=University,
20:u:tok-1 X=university,
23:u:tok-2 R=university/of,
11:*:Pre-1 X=U,
12:*:Pre-2 X=Un,
13:*:Pre-3 X=Uni,
14:*:Pre-4 X=Univ,
12:*:Suf-2 X=ty,
13:*:Suf-3 X=ity,
14:*:Suf-4 X=sity,
14:*:Fst-2 X=Lu/U,
20:u:tok-1 L=university,
23:u:tok-2 L=university/of,
12:*:Suf-2 L=ty,
20:u:tok-1LL=university,
12:*:Pre-2 X=Vi,
12:*:Pre-2 X=Ma,
11:u:Mth-1 X=1,
13:*:Pre-3 X=Mar,
14:*:Pre-4 X=Marc,
11:*:Suf-1 X=c,
14:*:Lst-2 X=Ll/c,
11:*:Suf-1 L=c,
12:*:Pre-2 X=Su,
12:*:Suf-2 X=an,
12:*:Pre-2 X=Ho,
12:*:Suf-2 L=an,
12:*:Suf-2 X=st,
13:*:Suf-3 X=ast,
12:*:Suf-2 X=te,
12:*:Suf-2 L=te,
12:*:Suf-2 X=ve,
13:*:Suf-3 X=ive,
11:*:Pre-1 X=p,
12:*:Suf-2 L=ve,
14:*:Fst-2 X=Ll/p,
18:u:tok-1 X=analysis,
21:u:tok-1RR=proceedings,
12:*:Suf-2 X=s.,
12:*:Suf-2 L=s.,
21:*:Key-1 R=proceedings,
21:u:tok-1 X=proceedings,
13:u:tok-1RR=the,
12:*:Suf-2 X=gs,
13:*:Suf-3 X=ngs,
14:*:Suf-4 X=ings,
21:*:Key-1 X=proceedings,
21:u:tok-1 L=proceedings,
13:u:tok-1 R=the,
16:u:tok-2 R=of/the,
12:*:Suf-2 L=gs,
21:*:Key-1 L=proceedings,
13:u:Tok-1 X=the,
13:u:tok-1 X=the,
21:u:tok-1LL=proceedings,
16:u:tok-2 L=of/the,
12:*:Pre-2 X=th,
13:*:Pre-3 X=the,
13:*:Pre-4 X=the,
12:*:Suf-2 X=he,
13:*:Suf-3 X=the,
13:*:Suf-4 X=the,
13:u:tok-1 L=the,
12:*:Suf-2 L=he,
12:*:Suf-2 X=th,
13:u:tok-1LL=the,
12:*:Pre-2 X=An,
12:*:Suf-2 L=th,
13:u:Tok-1 X=ACM,
13:u:tok-1 X=acm,
12:u:tok-1RR=on,
12:*:Pre-2 X=AC,
13:*:Pre-3 X=ACM,
13:*:Pre-4 X=ACM,
11:*:Suf-1 X=M,
12:*:Suf-2 X=CM,
13:*:Suf-3 X=ACM,
13:*:Suf-4 X=ACM,
14:*:Lst-2 X=Lu/M,
12:u:tok-1 R=on,
13:*:Pre-3 X=Sym,
11:*:Suf-1 L=M,
11:*:Suf-1 X=m,
12:*:Suf-2 L=CM,
14:*:Lst-2 X=Ll/m,
12:u:Tok-1 X=on,
12:u:tok-1 X=on,
13:u:tok-1LL=acm,
12:*:Pre-2 X=on,
12:*:Pre-3 X=on,
12:*:Pre-4 X=on,
11:*:Suf-1 L=m,
12:*:Suf-3 X=on,
12:*:Suf-4 X=on,
12:u:tok-1 L=on,
12:*:Suf-2 X=es,
13:*:Suf-3 X=les,
12:u:tok-1LL=on,
12:*:Suf-2 L=es,
14:*:Pre-4 X=Prog,
19:u:tok-1 X=languages,
11:*:Pre-1 X=L,
12:*:Pre-2 X=La,
14:*:Fst-2 X=Lu/L,
21:u:tok-1LL=programming,
12:*:Pre-2 X=Ja,
12:*:Suf-2 X=ry,
15:u:Tok-1 X=1997.,
14:*:Pre-4 X=1997,
12:*:Suf-2 L=ry,
12:*:Suf-2 X=7.,
13:*:Suf-3 X=97.,
14:*:Suf-4 X=997.,
11:*:Suf-1 L=i,
12:u:tok-1 L=g.,
12:*:Suf-2 L=G.,
12:u:tok-1LL=g.,
11:u:tok-1RR=a,
11:u:tok-1 R=a,
11:*:Suf-1 X=:,
12:*:Suf-2 X=s:,
13:*:Lst-2 X=P/:,
11:u:Tok-1 X=A,
11:*:Pre-2 X=A,
11:*:Pre-3 X=A,
11:*:Pre-4 X=A,
11:*:Suf-1 L=:,
11:*:Suf-1 X=A,
12:*:Suf-2 L=s:,
11:*:Suf-2 X=A,
11:*:Suf-3 X=A,
11:*:Suf-4 X=A,
14:*:Lst-2 X=Lu/A,
22:*:Cap-2 R=single/lower,
11:u:tok-1 L=a,
12:*:Pre-2 X=pr,
13:*:Pre-3 X=pro,
11:*:Suf-1 L=A,
12:*:Suf-2 X=em,
22:*:Cap-2 L=single/lower,
11:u:tok-1LL=a,
12:*:Suf-2 L=em,
18:u:tok-1RR=computer,
12:*:Pre-2 X=Ce,
13:*:Pre-3 X=Cen,
14:*:Pre-4 X=Cent,
13:*:Suf-3 X=ter,
18:u:tok-1 R=computer,
18:u:Tok-1 X=Computer,
18:u:tok-1 X=computer,
14:*:Suf-4 X=uter,
18:u:tok-1 L=computer,
18:u:tok-1LL=computer,
12:*:Suf-2 L=ds,
13:*:Suf-3 X=ial,
14:*:Suf-4 X=rial,
12:*:Suf-2 X=5,,
21:u:tok-1 R=university,,
12:*:Suf-2 L=5,,
12:*:Suf-2 X=rs,
13:*:Suf-3 X=ers,
21:u:Tok-1 X=University,,
12:*:Suf-2 L=rs,
12:*:Suf-2 X=y,,
12:*:Pre-2 X=Se,
12:*:Suf-2 L=y,,
13:*:Suf-3 X=ber,
14:*:Suf-4 X=mber,
11:*:Pre-1 X=E,
12:*:Pre-2 X=En,
14:*:Fst-2 X=Lu/E,
12:*:Pre-2 X=Im,
13:*:Pre-3 X=Imp,
12:*:Suf-2 X=ns,
13:*:Suf-3 X=ons,
14:*:Suf-4 X=ions,
12:u:Tok-1 X=in,
12:*:Pre-2 X=in,
12:*:Pre-3 X=in,
12:*:Pre-4 X=in,
12:*:Suf-2 L=ns,
12:*:Suf-3 X=in,
12:*:Suf-4 X=in,
16:u:tok-2 L=in/the,
12:*:Pre-2 X=di,
14:*:Suf-4 X=ons.,
12:*:Pre-2 X=Tr,
13:*:Pre-3 X=Tra,
14:*:Pre-4 X=Tran,
20:*:Key-1 X=translator,
13:*:Pre-3 X=Mat,
14:*:Pre-4 X=Math,
20:*:Key-1 L=translator,
12:*:Pre-2 X=So,
13:*:Pre-3 X=Sof,
14:*:Pre-4 X=Soft,
12:*:Suf-2 X=.,,
11:*:Pre-1 X=4,
12:*:Suf-2 L=.,,
13:*:Fst-2 X=N/4,
12:*:Suf-2 X=6,,
12:*:Suf-2 L=6,,
12:*:Suf-2 X=8.,
12:u:tok-1 R=p.,
11:u:tok-1 X=j,
12:*:Pre-2 X=J.,
12:*:Suf-2 X=e,,
11:u:tok-1 X=e,
11:u:tok-1RR=&,
12:*:Suf-2 L=e,,
11:u:tok-1 R=&,
11:*:Fst-1 R=P,
22:*:Cap-2 R=single/other,
11:u:Tok-1 X=&,
15:u:tok-1 X=BLANK,
11:*:Fst-1 X=P,
11:*:Pre-1 X=&,
11:*:Pre-2 X=&,
11:*:Pre-3 X=&,
11:*:Pre-4 X=&,
11:*:Suf-1 X=&,
11:*:Suf-2 X=&,
11:*:Suf-3 X=&,
11:*:Suf-4 X=&,
13:*:Fst-2 X=P/&,
13:*:Lst-2 X=P/&,
22:*:Cap-2 L=single/other,
11:u:tok-1 L=&,
11:*:Suf-1 L=&,
11:*:Suf-2 L=&,
11:u:tok-1LL=&,
12:*:Suf-2 X=D.,
12:*:Fst-1 R=Ps,
12:*:Suf-2 L=D.,
25:*:Pct-1 R=terminal-parens,
12:*:Fst-1 X=Ps,
11:*:Pre-1 X=(,
12:*:Pre-2 X=(1,
13:*:Pre-3 X=(19,
14:*:Pre-4 X=(199,
12:*:Suf-2 X=).,
14:*:Fst-2 X=Ps/(,
25:*:Pct-1 X=terminal-parens,
12:*:Suf-2 L=).,
22:*:Cap-2 L=other/single,
25:*:Pct-1 L=terminal-parens,
12:*:Suf-2 X=ic,
18:u:tok-1 X=approach,
12:*:Pre-2 X=ap,
13:*:Pre-3 X=app,
12:*:Suf-2 L=ic,
11:*:Pre-1 X=c,
12:*:Pre-2 X=co,
14:*:Fst-2 X=Ll/c,
23:u:tok-1RR=international,
23:u:tok-1 R=international,
23:u:Tok-1 X=International,
23:u:tok-1 X=international,
13:*:Pre-3 X=Int,
14:*:Pre-4 X=Inte,
13:*:Suf-3 X=nal,
14:*:Suf-4 X=onal,
23:u:tok-1 L=international,
23:u:tok-1LL=international,
13:*:Pre-3 X=Con,
14:*:Pre-4 X=Conf,
12:*:Suf-2 X=ce,
14:*:Suf-4 X=ence,
23:u:tok-2 R=on/artificial,
12:*:Suf-2 L=ce,
20:u:Tok-1 X=Artificial,
20:u:tok-1 X=artificial,
20:u:tok-1LL=conference,
13:u:tok-1RR=pp.,
23:u:tok-2 L=on/artificial,
12:*:Pre-2 X=Ar,
13:*:Pre-3 X=Art,
14:*:Pre-4 X=Arti,
14:*:Suf-4 X=cial,
22:u:tok-1 X=intelligence,
20:u:tok-1 L=artificial,
13:u:tok-1 R=pp.,
13:*:Suf-3 X=ce,,
14:*:Suf-4 X=nce,,
20:u:tok-1LL=artificial,
12:*:Pre-2 X=pp,
13:*:Pre-3 X=pp.,
13:*:Pre-4 X=pp.,
12:*:Suf-2 X=p.,
13:*:Suf-3 X=pp.,
13:*:Suf-4 X=pp.,
11:*:Lst-1 X=N,
11:*:Pre-1 X=6,
12:*:Suf-2 L=p.,
13:*:Fst-2 X=N/6,
11:*:Lst-1 L=N,
13:*:Suf-3 X=ey,,
19:u:tok-1 X=australia,
17:u:tok-1 L=sydney,,
12:*:Pre-2 X=Au,
13:*:Pre-3 X=Aus,
14:*:Pre-4 X=Aust,
13:*:Suf-3 X=ia.,
22:*:Cap-2 R=initial/_x+1,
12:*:Suf-2 X=n,,
13:*:Suf-3 X=in,,
12:*:Suf-2 L=n,,
14:*:Suf-4 X=ring,
12:u:tok-1 R=by,
12:u:Tok-1 X=by,
12:u:tok-1 X=by,
12:*:Pre-2 X=by,
12:*:Pre-3 X=by,
12:*:Pre-4 X=by,
12:*:Suf-2 X=by,
12:*:Suf-3 X=by,
12:*:Suf-4 X=by,
12:u:tok-1 L=by,
12:*:Pre-2 X=se,
12:*:Suf-2 L=by,
12:u:tok-1LL=by,
12:*:Pre-2 X=SI,
13:*:Pre-3 X=SIG,
18:u:tok-1 X=research,
21:u:tok-1 X=information,
13:*:Pre-3 X=Inf,
14:*:Pre-4 X=Info,
13:*:Pre-3 X=Ret,
14:*:Pre-4 X=Retr,
12:*:Suf-2 X=l,,
11:*:Pre-1 X=3,
12:*:Suf-2 X=7,,
13:*:Fst-2 X=N/3,
12:*:Suf-2 X=5.,
12:*:Pre-2 X=Ga,
12:*:Suf-2 X=o,,
12:*:Suf-2 L=o,,
12:*:Lst-1 X=Pd,
11:*:Suf-1 X=-,
14:*:Lst-2 X=Pd/-,
12:*:Lst-1 L=Pd,
11:*:Suf-1 L=-,
12:*:Pre-2 X=Th,
12:*:Suf-2 L=rd,
15:u:tok-1 R=pages,
12:*:Pre-2 X=pa,
13:*:Pre-3 X=pag,
14:*:Pre-4 X=page,
13:*:Suf-3 X=ges,
14:*:Suf-4 X=ages,
13:*:Suf-3 X=on,,
12:*:Pre-2 X=Me,
13:*:Pre-3 X=Mel,
12:*:Suf-2 X=m,,
15:*:Pct-1 R=quote,
11:*:Pre-1 X=",
12:*:Suf-2 L=m,,
13:*:Fst-2 X=P/",
15:*:Pct-1 X=quote,
23:u:tok-1 X=communication,
14:*:Pre-4 X=Comm,
15:*:Pct-1 L=quote,
12:*:Pre-2 X=Pa,
11:*:Pre-1 X=O,
12:*:Pre-2 X=Op,
13:*:Pre-3 X=Opt,
14:*:Pre-4 X=Opti,
14:*:Fst-2 X=Lu/O,
12:*:Suf-2 X=ed,
13:*:Suf-3 X=ted,
12:*:Suf-2 L=ed,
26:*:Pct-1 R=internal-unquote,
12:*:Suf-2 X=",,
26:*:Pct-1 X=internal-unquote,
12:*:Suf-2 L=",,
26:*:Pct-1 L=internal-unquote,
19:u:tok-1LL=systems",,
12:*:Suf-2 X=1,,
13:*:Suf-3 X=am,,
13:*:Suf-3 X=9).,
13:u:Tok-1 X=The,
13:*:Pre-3 X=The,
13:*:Pre-4 X=The,
13:*:Suf-3 X=The,
13:*:Suf-4 X=The,
14:*:Num-1 L=year,
13:*:Pre-3 X=Dis,
14:*:Pre-4 X=Disc,
13:*:Suf-3 X=ms.,
14:*:Suf-4 X=ems.,
18:u:tok-1 L=systems.,
18:u:tok-1LL=systems.,
14:u:tok-1 X=ieee,
14:u:tok-1RR=(1),,
12:*:Pre-2 X=IE,
13:*:Pre-3 X=IEE,
14:*:Pre-4 X=IEEE,
12:*:Suf-2 X=E,,
20:*:Cap-2 R=caps/other,
16:*:Num-1 R=double,
11:*:Pre-1 X=7,
12:*:Suf-2 L=E,,
13:*:Fst-2 X=N/7,
20:*:Cap-2 L=caps/other,
16:*:Num-1 X=double,
25:*:Pct-1 R=internal-parens,
11:u:tok-1 X=1,
16:*:Num-1 L=double,
25:*:Pct-1 X=internal-parens,
11:*:Pre-1 X=8,
13:*:Suf-3 X=98.,
13:*:Fst-2 X=N/8,
25:*:Pct-1 L=internal-parens,
12:*:Pre-2 X=Sc,
12:*:Suf-2 X=g:,
13:*:Suf-3 X=ng:,
14:*:Suf-4 X=ing:,
12:u:tok-1 X=an,
12:*:Suf-2 L=g:,
12:u:tok-1 L=an,
12:u:tok-1LL=an,
12:*:Pre-2 X=me,
13:*:Suf-3 X=sed,
18:u:tok-1 X=learning,
12:*:Suf-2 X=g.,
13:*:Suf-3 X=ng.,
14:*:Suf-4 X=ing.,
12:*:Suf-2 L=g.,
12:*:Suf-2 X=4,,
12:*:Pre-2 X=No,
12:u:tok-1 R=j.,
12:u:Tok-1 X=J.,
12:*:Pre-3 X=J.,
12:*:Pre-4 X=J.,
12:*:Suf-2 X=J.,
12:*:Suf-3 X=J.,
12:*:Suf-4 X=J.,
12:u:tok-1 L=j.,
18:u:tok-1RR=learning,
12:*:Suf-2 L=J.,
18:u:tok-1LL=learning,
12:u:tok-1RR=1,,
13:*:Pre-3 X=Cam,
19:u:tok-1RR=efficient,
14:*:Pre-4 X=prog,
11:*:Suf-1 X=T,
14:*:Lst-2 X=Lu/T,
11:*:Suf-1 L=T,
16:*:Num-1 R=single,
16:*:Num-1 X=single,
16:*:Num-1 L=single,
13:*:Pre-3 X=Moo,
12:*:Pre-2 X=Ch,
13:*:Pre-3 X=Cha,
16:u:tok-1 X=theory,
14:*:Pre-4 X=Theo,
13:*:Suf-3 X=nt.,
17:u:Tok-1 X=Machine,
19:u:tok-1 R=learning,,
27:u:tok-2 R=machine/learning,,
13:*:Pre-3 X=Mac,
14:*:Pre-4 X=Mach,
19:u:Tok-1 X=Learning,,
27:u:tok-2 L=machine/learning,,
12:*:Pre-2 X=Le,
13:*:Pre-3 X=Lea,
14:*:Pre-4 X=Lear,
12:*:Pre-2 X=48,
12:*:Suf-2 X=9,,
12:*:Suf-2 L=9,,
12:*:Pre-2 X=Ex,
12:*:Pre-2 X=Pe,
12:*:Pre-2 X=Pl,
13:*:Pre-3 X=Pla,
12:*:Suf-2 X=le,
12:*:Suf-2 L=le,
13:*:Pre-3 X=Mor,
14:*:Pre-4 X=Morg,
12:*:Suf-2 X=un,
12:*:Pre-2 X=He,
12:*:Suf-2 L=un,
12:*:Pre-2 X=Li,
11:*:Suf-1 X=2,
13:*:Lst-2 X=N/2,
11:*:Suf-1 L=2,
12:*:Suf-2 X=el,
12:*:Suf-2 L=el,
12:*:Pre-2 X=25,
18:u:Tok-1 X=National,
18:u:tok-1 X=national,
12:*:Pre-2 X=Na,
13:*:Pre-3 X=Nat,
14:*:Pre-4 X=Nati,
18:u:tok-1 L=national,
18:u:tok-1LL=national,
12:*:Suf-2 X=4.,
12:*:Pre-2 X=Sa,
12:*:Suf-2 L=4.,
14:u:tok-1 X=aaai,
12:*:Pre-2 X=AA,
13:*:Pre-3 X=AAA,
14:*:Pre-4 X=AAAI,
15:u:tok-1 X=press,
13:*:Pre-3 X=Pre,
14:*:Pre-4 X=Pres,
12:*:Suf-2 X=d,,
13:*:Suf-3 X=or.,
14:*:Suf-4 X=tor.,
16:u:tok-1 X=models,
14:*:Pre-4 X=Mode,
13:*:Suf-3 X=els,
14:*:Suf-4 X=dels,
16:u:tok-1 L=models,
16:u:tok-1LL=models,
12:*:Pre-2 X=Ad,
13:*:Pre-3 X=Adv,
14:*:Pre-4 X=Adva,
22:u:tok-1 X=applications,
26:u:Tok-1 X=Morgan-Kaufmann,,
24:u:tok-1 X=morgankaufmann,
23:u:tok-1 L=applications.,
13:*:Suf-3 X=nn,,
14:*:Suf-4 X=ann,,
23:u:tok-1LL=applications.,
12:*:Pre-2 X=Bl,
13:*:Pre-3 X=pre,
12:*:Suf-2 X=is,
12:*:Suf-2 L=is,
13:*:Suf-3 X=sis,
17:*:Pct-1 R=unquote,
17:*:Pct-1 X=unquote,
15:u:Tok-1 X=Conf.,
14:u:tok-1 X=conf,
12:*:Suf-2 X=f.,
13:*:Suf-3 X=nf.,
14:*:Suf-4 X=onf.,
17:*:Pct-1 L=unquote,
15:u:tok-1 L=conf.,
13:*:Pre-3 X=Rec,
12:*:Suf-2 L=f.,
13:*:Suf-3 X=ec.,
15:u:tok-1LL=conf.,
14:u:tok-1 X=john,
13:*:Pre-3 X=Joh,
14:*:Pre-4 X=John,
13:*:Suf-3 X=ns,,
14:*:Suf-4 X=ons,,
12:*:Suf-2 X=k,,
12:*:Suf-2 L=k,,
13:*:Suf-3 X=re,,
14:*:Suf-4 X=ure,,
12:*:Suf-2 X=n:,
13:*:Suf-3 X=in:,
12:*:Suf-2 L=n:,
13:*:Pre-3 X=Gal,
14:*:Pre-4 X=Gall,
12:*:Suf-2 X=re,
12:*:Suf-2 L=re,
17:u:tok-1RR=(eds.),,
12:*:Pre-2 X=Mi,
13:u:tok-1 X=eds,
17:u:tok-1 L=(eds.),,
12:*:Pre-2 X=Lo,
17:u:tok-1LL=(eds.),,
16:u:tok-1RR=press,,
14:*:Suf-4 X=ses,,
16:u:tok-1 R=press,,
16:u:Tok-1 X=Press,,
13:*:Suf-3 X=ss,,
14:*:Suf-4 X=ess,,
16:u:tok-1 L=press,,
14:u:tok-1 X=york,
16:u:tok-1LL=press,,
11:*:Pre-1 X=Y,
12:*:Pre-2 X=Yo,
13:*:Pre-3 X=Yor,
14:*:Pre-4 X=York,
14:*:Fst-2 X=Lu/Y,
12:*:Suf-2 X=t,,
12:*:Suf-2 L=t,,
12:*:Suf-2 X=I.,
12:*:Suf-2 X=h,,
12:*:Suf-2 L=h,,
12:*:Suf-2 X=d.,
12:*:Suf-2 L=d.,
12:*:Suf-2 X=ar,
13:*:Suf-3 X=ear,
12:*:Suf-2 L=ar,
12:*:Pre-2 X=al,
24:*:Pct-1 R=opening-parens,
24:*:Pct-1 X=opening-parens,
24:*:Pct-1 L=opening-parens,
13:*:Pre-3 X=Che,
16:u:tok-1 X=design,
12:*:Suf-2 L=rn,
12:*:Suf-2 X=gn,
13:*:Suf-3 X=ign,
14:*:Suf-4 X=sign,
12:*:Suf-2 L=gn,
11:*:Suf-1 X=",
13:*:Lst-2 X=P/",
11:*:Suf-1 L=",
12:*:Suf-2 L=,",
14:u:tok-1RR=vol.,
14:u:tok-1 R=vol.,
13:u:tok-1 X=vol,
13:u:tok-1RR=no.,
12:*:Pre-2 X=Vo,
13:*:Pre-3 X=Vol,
14:*:Pre-4 X=Vol.,
12:*:Suf-2 X=l.,
13:*:Suf-3 X=ol.,
14:*:Suf-4 X=Vol.,
13:u:tok-1 R=no.,
12:*:Suf-2 L=l.,
13:u:Tok-1 X=No.,
12:u:tok-1 X=no,
14:u:tok-1LL=vol.,
13:*:Pre-3 X=No.,
13:*:Pre-4 X=No.,
12:*:Suf-2 X=o.,
13:*:Suf-3 X=No.,
13:*:Suf-4 X=No.,
12:*:Suf-2 L=o.,
12:u:tok-1RR=p.,
14:*:Suf-4 X=ated,
12:*:Pre-2 X=vo,
13:*:Suf-3 X=ice,
12:*:Pre-2 X=tr,
13:*:Pre-3 X=tra,
14:u:Tok-1 X=IEEE,
11:*:Suf-1 X=E,
12:*:Suf-2 X=EE,
13:*:Suf-3 X=EEE,
14:*:Suf-4 X=IEEE,
14:*:Lst-2 X=Lu/E,
14:u:tok-1 L=ieee,
11:*:Suf-1 L=E,
12:*:Suf-2 L=EE,
14:u:tok-1LL=ieee,
11:u:tok-1 X=4,
15:u:tok-1RR=1986.,
15:u:tok-1 R=1986.,
14:*:Pre-4 X=1986,
12:*:Suf-2 X=6.,
13:*:Suf-3 X=86.,
14:*:Suf-4 X=986.,
12:*:Suf-2 X=i,,
12:*:Pre-2 X=sp,
13:*:Pre-3 X=spe,
14:*:Pre-4 X=spec,
17:u:tok-1RR=journal,
17:u:Tok-1 X=Journal,
17:u:tok-1 X=journal,
13:*:Pre-3 X=Jou,
14:*:Pre-4 X=Jour,
14:*:Suf-4 X=rnal,
17:u:tok-1 L=journal,
17:u:tok-1LL=journal,
18:u:tok-1 X=software,
12:*:Pre-2 X=10,
13:*:Suf-3 X=en,,
12:*:Pre-2 X=Bi,
14:u:tok-1 R=from,
14:u:Tok-1 X=from,
14:u:tok-1 X=from,
12:*:Pre-2 X=fr,
13:*:Pre-3 X=fro,
14:*:Pre-4 X=from,
12:*:Suf-2 X=om,
13:*:Suf-3 X=rom,
14:*:Suf-4 X=from,
14:u:tok-1 L=from,
12:*:Suf-2 L=om,
14:u:tok-1LL=from,
26:*:Pct-1 X=terminal-unquote,
26:*:Pct-1 L=terminal-unquote,
12:*:Suf-2 X=9.,
12:*:Pre-2 X=Do,
11:*:Suf-1 X=6,
13:*:Lst-2 X=N/6,
12:*:Pre-2 X=va,
13:*:Pre-3 X=com,
16:u:tok-1RR=48(2),,
36:u:tok-2 L=applications./mathematical,
35:u:tok-2 R=mathematical/programming,,
16:u:tok-1 R=48(2),,
18:u:tok-1RR=161-220,,
35:u:tok-2 L=mathematical/programming,,
29:u:tok-2 R=programming,/48(2),,
13:*:Pre-3 X=48(,
14:*:Pre-4 X=48(2,
12:*:Pre-2 X=16,
12:*:Suf-2 L=ct,
12:*:Suf-2 X=ee,
11:u:Tok-1 X=a,
11:*:Pre-2 X=a,
11:*:Pre-3 X=a,
11:*:Pre-4 X=a,
11:*:Suf-2 X=a,
11:*:Suf-3 X=a,
11:*:Suf-4 X=a,
11:*:Suf-2 L=a,
12:*:Pre-2 X=Am,
20:*:Num-1 X=year-range,
12:*:Lst-1 L=Pe,
11:*:Suf-1 L=),
16:*:Pct-1 L=parens,
14:u:Tok-1 X=ACM,,
14:*:Pre-4 X=ACM,,
12:*:Suf-2 X=M,,
13:*:Suf-3 X=CM,,
14:*:Suf-4 X=ACM,,
12:*:Suf-2 L=M,,
12:*:Pre-2 X=Kr,
16:u:tok-1 X=system,
17:u:tok-1 X=science,
13:*:Pre-3 X=Sci,
14:*:Pre-4 X=Scie,
18:u:tok-1 L=science,,
18:u:tok-1LL=science,,
13:*:Suf-3 X=ne,,
12:*:Pre-2 X=Ve,
13:*:Pre-3 X=Ros,
14:u:tok-1 L=page,
13:*:Pre-3 X=Ser,
12:*:Suf-2 X=A,,
12:*:Suf-2 L=A,,
15:u:tok-1RR=1994.,
17:u:tok-1 X=october,
12:*:Pre-2 X=Oc,
13:*:Pre-3 X=Oct,
14:*:Pre-4 X=Octo,
14:*:Pre-4 X=1994,
13:*:Suf-3 X=94.,
14:*:Suf-4 X=994.,
13:*:Suf-3 X=cts,
14:*:Pre-4 X=tran,
12:*:Pre-2 X=To,
12:*:Suf-2 L=3.,
18:u:tok-1 X=planning,
15:u:tok-1 X=tokyo,
13:*:Pre-3 X=Tok,
14:*:Pre-4 X=Toky,
13:*:Pre-3 X=Car,
11:*:Suf-1 X=N,
14:*:Lst-2 X=Lu/N,
11:*:Suf-1 L=N,
11:*:Suf-1 X=0,
13:*:Lst-2 X=N/0,
16:u:tok-1RR=design,
12:*:Suf-2 X=am,
16:u:tok-1 R=design,
12:*:Suf-2 L=am,
16:u:Tok-1 X=Design,
13:*:Pre-3 X=Des,
14:*:Pre-4 X=Desi,
14:*:Suf-4 X=ion,,
12:*:Pre-2 X=Ti,
13:*:Pre-3 X=Tim,
14:*:Pre-4 X=Time,
13:*:Pre-3 X=Ana,
14:*:Pre-4 X=Anal,
14:u:tok-1RR=york,
14:u:tok-1 R=york,
18:u:tok-1RR=software,
11:*:Suf-1 X=k,
12:*:Suf-2 X=rk,
13:*:Suf-3 X=ork,
14:*:Suf-4 X=York,
14:*:Lst-2 X=Ll/k,
21:u:tok-1 R=engineering,
11:*:Suf-1 L=k,
12:*:Suf-2 L=rk,
21:u:Tok-1 X=Engineering,
21:u:tok-1 X=engineering,
13:*:Pre-3 X=Eng,
14:*:Pre-4 X=Engi,
21:u:tok-1 L=engineering,
15:u:tok-1RR=york:,
15:u:tok-1 R=york:,
12:*:Suf-2 X=k:,
13:*:Suf-3 X=rk:,
14:*:Suf-4 X=ork:,
16:u:tok-1RR=volume,
13:*:Pre-3 X=Tas,
14:*:Pre-4 X=Task,
12:*:Suf-2 L=k:,
12:*:Suf-2 X=sk,
13:*:Suf-3 X=ask,
14:*:Suf-4 X=Task,
16:u:tok-1 R=volume,
16:u:Tok-1 X=Volume,
16:u:tok-1 X=volume,
14:u:tok-1LL=task,
14:*:Pre-4 X=Volu,
13:*:Suf-3 X=ume,
14:*:Suf-4 X=lume,
16:u:tok-1 L=volume,
16:u:tok-1LL=volume,
11:*:Pre-1 X=9,
12:*:Pre-2 X=91,
13:*:Pre-3 X=919,
14:*:Pre-4 X=9198,
11:*:Suf-1 X=F,
12:*:Suf-2 X=SF,
13:*:Suf-3 X=/SF,
14:*:Suf-4 X=L/SF,
13:*:Fst-2 X=N/9,
14:*:Lst-2 X=Lu/F,
12:*:Pre-2 X=Va,
17:u:tok-1RR=lecture,
17:u:Tok-1 X=Lecture,
17:u:tok-1 X=lecture,
15:u:tok-1 R=notes,
23:u:tok-2 R=lecture/notes,
13:*:Pre-3 X=Lec,
14:*:Pre-4 X=Lect,
13:*:Suf-3 X=ure,
14:*:Suf-4 X=ture,
13:*:Pre-3 X=Not,
14:*:Suf-4 X=otes,
21:u:tok-2 L=in/computer,
12:*:Pre-2 X=Sp,
13:*:Pre-3 X=Spr,
14:*:Pre-4 X=Spri,
13:*:Suf-3 X=ag,,
14:*:Suf-4 X=lag,,
13:*:Suf-3 X=hes,
15:u:tok-1RR=1996.,
12:*:Pre-2 X=ht,
13:*:Pre-3 X=htt,
14:*:Pre-4 X=http,
12:*:Suf-2 X=/,,
13:*:Suf-3 X=m/,,
14:*:Suf-4 X=om/,,
12:*:Pre-2 X=Be,
13:*:Pre-3 X=Ber,
13:*:Pre-3 X=Laz,
16:u:tok-1 R=system,
13:*:Suf-3 X=tem,
14:*:Suf-4 X=stem,
16:u:tok-1 L=system,
13:*:Suf-3 X=ian,
12:u:tok-1 X=al,
22:u:tok-1 R=transactions,
27:u:tok-2 R=ieee/transactions,
22:u:Tok-1 X=Transactions,
22:u:tok-1 X=transactions,
27:u:tok-2 L=ieee/transactions,
25:u:tok-2 R=transactions/on,
22:u:tok-1 L=transactions,
25:u:tok-2 L=transactions/on,
22:u:tok-1LL=transactions,
16:u:tok-1 X=series,
14:*:Pre-4 X=Seri,
16:u:tok-1RR=tokyo,,
16:u:tok-1 R=tokyo,,
16:u:Tok-1 X=Tokyo,,
13:*:Suf-3 X=yo,,
14:*:Suf-4 X=kyo,,
14:*:Suf-4 X=ber,,
13:*:Suf-3 X=ery,
13:*:Pre-3 X=163,
14:*:Pre-4 X=163-,
13:*:Pre-3 X=11,,
13:*:Pre-4 X=11,,
13:*:Suf-3 X=11,,
13:*:Suf-4 X=11,,
13:*:Pre-3 X=Lab,
20:u:tok-1 X=department,
14:*:Pre-4 X=Depa,
22:u:tok-1RR=intelligence,
22:u:tok-1 R=intelligence,
22:u:Tok-1 X=Intelligence,
22:u:tok-1 L=intelligence,
13:*:Suf-3 X=le,,
12:*:Pre-2 X=Sk,
13:*:Suf-3 X=on:,
14:*:Suf-4 X=ion:,
12:*:Suf-2 X=ue,
12:*:Suf-2 L=ue,
12:*:Suf-2 X=at,
12:*:Suf-2 L=at,
12:*:Suf-2 L=ia,
13:*:Suf-3 X=5).,
13:*:Pre-3 X=Sub,
13:*:Suf-3 X=ch,,
17:u:tok-1 L=(1995).,
17:u:tok-1LL=(1995).,
13:*:Pre-3 X=Vel,
14:*:Suf-4 X=ley,,
22:u:tok-1RR=applications,
22:u:tok-1 R=applications,
22:u:Tok-1 X=Applications,
16:*:Num-1 X=triple,
16:*:Num-1 L=triple,
13:*:Suf-3 X=tal,
13:u:tok-1 X=phd,
17:u:tok-1 R=thesis,,
12:*:Pre-2 X=Ph,
16:u:tok-1 X=thesis,
13:*:Suf-3 X=is,,
14:*:Suf-4 X=sis,,
17:u:tok-1 L=thesis,,
17:u:tok-1LL=thesis,,
13:*:Pre-3 X=Mic,
14:*:Pre-4 X=Mich,
12:*:Pre-2 X=20,
13:*:Suf-3 X=che,
12:*:Suf-2 X=r:,
13:*:Suf-3 X=red,
12:*:Suf-2 X=8,,
12:*:Suf-2 L=8,,
11:*:Suf-1 X=4,
13:*:Lst-2 X=N/4,
11:*:Suf-1 L=4,
20:u:tok-1LL=symposium,,
13:*:Pre-3 X=vol,
14:*:Pre-4 X=volu,
13:*:Suf-3 X=ia,,
13:*:Suf-3 X=van,
17:u:Tok-1 X=Digital,
17:u:tok-1 X=digital,
15:u:tok-1LL=barry,
20:u:tok-1 L=wilkinson,,
28:u:tok-2 L=wilkinson,/digital,
24:u:tok-2 R=digital/system,
13:*:Pre-3 X=Dig,
14:*:Pre-4 X=Digi,
14:*:Suf-4 X=ital,
16:u:Tok-1 X=System,
20:u:tok-1LL=wilkinson,,
17:u:tok-1 L=digital,
24:u:tok-2 L=digital/system,
23:u:tok-2 R=system/design,
17:u:tok-1LL=digital,
14:u:tok-1RR=hall,
23:u:tok-2 L=system/design,
25:u:tok-2 R=design/prentice,
14:*:Pre-4 X=Pren,
14:*:Suf-4 X=tice,
13:*:Pre-3 X=Hal,
14:*:Pre-4 X=Hall,
12:*:Pre-2 X=Er,
20:u:tok-1 R=department,
20:u:Tok-1 X=Department,
23:u:tok-2 R=department/of,
20:u:tok-1 L=department,
23:u:tok-2 L=department/of,
20:u:tok-1LL=department,
19:u:tok-1 X=submitted,
14:*:Pre-4 X=Subm,
13:*:Suf-3 X=rn,,
14:*:Suf-4 X=orn,,
13:u:tok-1 X=mit,
12:*:Pre-2 X=MI,
12:*:Suf-2 X=IT,
13:*:Suf-3 X=MIT,
12:*:Suf-2 L=IT,
13:*:Pre-3 X=Ste,
12:*:Pre-2 X=Pu,
13:*:Pre-3 X=Pub,
14:*:Pre-4 X=Publ,
17:u:tok-1 L=society,
15:u:tok-1 X=times,
13:*:Suf-3 X=st,,
12:*:Pre-2 X=21,
13:*:Pre-3 X=Chi,
17:u:tok-1RR=appear.,
13:*:Suf-3 X=cs,,
14:*:Suf-4 X=ics,,
16:u:tok-1 X=appear,
14:*:Pre-4 X=appe,
20:*:Cap-2 R=lower/_x+1,
13:*:Suf-3 X=95,,
14:*:Pre-4 X=Thes,
13:*:Suf-3 X=gh,,
13:*:Suf-3 X=2nd,
12:*:Pre-2 X=Nu,
13:*:Pre-3 X=Num,
14:*:Pre-4 X=Nume,
13:u:tok-1 X=inc,
13:*:Pre-3 X=Inc,
12:*:Pre-2 X=ST,
14:*:Pre-4 X=Plan,
14:*:Pre-4 X=Repr,
12:*:Suf-2 L=7.,
14:*:Suf-4 X=nted,
14:*:Pre-4 X=Read,
19:u:Tok-1 X=Planning,,
16:u:tok-1RR=allen,,
22:u:tok-2 L=in/planning,,
22:u:tok-2 R=planning,/j.,
12:*:Suf-2 X=ld,
16:u:Tok-1 X=23529,,
15:u:tok-1 X=23529,
18:u:tok-1LL=norfolk,,
12:u:tok-1 L=va,
19:u:tok-2 L=va/23529,,
22:u:tok-2 R=23529,/1993.,
12:*:Pre-2 X=23,
13:*:Pre-3 X=235,
14:*:Pre-4 X=2352,
12:*:Suf-2 L=VA,
13:*:Suf-3 X=29,,
14:*:Suf-4 X=529,,
12:*:Suf-2 L=.",
24:u:tok-1 X=representation,
21:u:tok-1 L=algorithms.,
12:u:tok-1RR=et,
21:u:tok-1LL=algorithms.,
13:u:Tok-1 X=al.,
12:u:tok-1 L=et,
16:u:tok-2 L=et/al.,
13:*:Pre-3 X=al.,
13:*:Pre-4 X=al.,
13:*:Suf-3 X=al.,
13:*:Suf-4 X=al.,
16:*:Pct-1 R=braces,
11:*:Pre-1 X=[,
12:*:Suf-2 X=],,
13:*:Suf-3 X=4],,
14:*:Fst-2 X=Ps/[,
16:*:Pct-1 X=braces,
12:*:Suf-2 L=],,
16:*:Pct-1 L=braces,
12:*:Pre-2 X=Ab,
13:*:Pre-3 X=Abs,
14:*:Pre-4 X=Abst,
26:u:tok-1RR=springer-verlag,,
26:u:Tok-1 X=Springer-Verlag,,
24:u:tok-1 X=springerverlag,
14:*:Pre-4 X=Berl,
12:*:Suf-2 L=L.,
13:*:Pre-3 X=Val,
12:*:Pre-2 X=Br,
18:u:Tok-1 X=Personal,
18:u:tok-1 X=personal,
12:u:tok-1LL=x.,
24:u:tok-1 R=communication.,
26:u:tok-2 L=(1995)./personal,
33:u:tok-2 R=personal/communication.,
13:*:Pre-3 X=Per,
14:*:Pre-4 X=Pers,
24:u:Tok-1 X=communication.,
18:u:tok-1 L=personal,
33:u:tok-2 L=personal/communication.,
29:u:tok-2 R=communication./_x+1,
14:*:Pre-4 X=comm,
15:u:tok-1RR=1985.,
17:u:tok-1RR=special,
17:u:tok-1 R=special,
15:u:tok-1RR=issue,
17:u:tok-1 X=special,
15:u:tok-1 R=issue,
23:u:tok-2 R=special/issue,
13:*:Pre-3 X=Spe,
15:u:tok-1 X=issue,
17:u:tok-1 L=special,
23:u:tok-2 L=special/issue,
18:u:tok-2 R=issue/on,
13:*:Suf-3 X=sue,
14:*:Suf-4 X=ssue,
17:u:tok-1LL=special,
15:u:tok-1 L=issue,
18:u:tok-2 L=issue/on,
15:u:tok-1LL=issue,
13:u:tok-1 R=der,
13:u:Tok-1 X=der,
13:u:tok-1 X=der,
13:*:Pre-3 X=der,
13:*:Pre-4 X=der,
13:*:Suf-4 X=der,
13:u:tok-1 L=der,
12:*:Pre-2 X=Ed,
14:*:Pre-4 X=vol.,
14:*:Suf-4 X=vol.,
20:u:Tok-1 X=Paderborn,,
19:u:tok-1 X=paderborn,
15:u:tok-1LL=icalp,
32:u:tok-2 L=conference,/paderborn,,
25:u:tok-2 R=paderborn,/july,
13:*:Pre-3 X=Pad,
14:*:Pre-4 X=Pade,
12:*:Suf-2 L=8.,
12:u:tok-1RR=7,,
12:*:Pre-2 X=7,,
12:*:Pre-3 X=7,,
12:*:Pre-4 X=7,,
12:*:Suf-3 X=7,,
12:*:Suf-4 X=7,,
13:*:Suf-3 X=05.,
13:*:Pre-3 X=Mas,
14:*:Pre-4 X=Mass,
13:*:Pre-3 X=Amh,
14:*:Pre-4 X=Amhe,
14:*:Suf-4 X=rst,,
12:*:Suf-2 X=ok,
13:*:Suf-3 X=ook,
14:*:Suf-4 X=book,
12:*:Suf-2 L=ok,
12:*:Suf-2 X=e:,
13:*:Suf-3 X=ge:,
14:*:Suf-4 X=dge:,
12:*:Suf-2 L=e:,
13:*:Suf-3 X=son,
12:u:tok-1 X=ed,
12:*:Pre-2 X=(E,
13:*:Pre-3 X=(Ed,
19:u:tok-1 X=cambridge,
14:*:Pre-4 X=Camb,
19:*:Cap-2 R=caps/_x+1,
13:*:Pre-3 X=Hol,
12:*:Suf-2 X=15,
12:u:tok-1 R=at,
12:u:Tok-1 X=at,
12:u:tok-1 X=at,
12:*:Pre-2 X=at,
12:*:Pre-3 X=at,
12:*:Pre-4 X=at,
12:*:Suf-3 X=at,
12:*:Suf-4 X=at,
12:u:tok-1 L=at,
12:u:tok-1LL=at,
12:*:Pre-2 X=is,
13:*:Suf-3 X=ch.,
13:*:Pre-3 X=25-,
23:u:tok-1 X=addisonwesley,
13:*:Pre-3 X=Add,
14:*:Pre-4 X=Addi,
14:*:Suf-4 X=ised,
21:u:tok-1 L=california,,
21:u:tok-1LL=california,,
13:*:Suf-3 X=hed,
14:*:Suf-4 X=shed,
13:u:tok-1 L=ma,,
22:u:tok-1 R=proceedings,,
13:*:Suf-3 X=gs,,
14:*:Suf-4 X=ngs,,
12:*:Pre-2 X=Em,
18:u:tok-2 R=acm,/new,
12:*:Suf-2 X=ny,
14:u:tok-1RR=lazy,
14:u:tok-1 R=lazy,
14:u:Tok-1 X=Lazy,
14:u:tok-1 X=lazy,
14:*:Pre-4 X=Lazy,
12:*:Suf-2 X=zy,
13:*:Suf-3 X=azy,
14:*:Suf-4 X=Lazy,
14:u:tok-1 L=lazy,
12:*:Suf-2 L=zy,
14:u:tok-1LL=lazy,
12:*:Pre-2 X=18,
14:*:Pre-4 X=(Eds,
17:u:tok-1RR=berlin:,
17:u:tok-1 R=berlin:,
14:*:Suf-4 X=lin:,
18:u:tok-1 X=sciences,
12:*:Suf-2 L=L:,
13:*:Suf-3 X=13.,
13:*:Suf-3 X=08.,
14:u:tok-1 X=also,
13:*:Pre-3 X=Dec,
12:*:Pre-2 X=ww,
13:*:Pre-3 X=www,
14:*:Pre-4 X=www.,
13:*:Suf-3 X=ps.,
14:*:Suf-4 X=.ps.,
11:u:Tok-1 X=4,
11:*:Pre-2 X=4,
11:*:Pre-3 X=4,
11:*:Pre-4 X=4,
11:*:Suf-2 X=4,
11:*:Suf-3 X=4,
11:*:Suf-4 X=4,
11:u:tok-1 L=4,
11:*:Pre-1 X=0,
11:*:Suf-2 L=4,
13:*:Fst-2 X=N/0,
12:*:Suf-2 X=S,,
16:u:tok-1 R=appear,
19:u:tok-2 R=to/appear,
14:*:Suf-4 X=pear,
16:u:tok-1 L=appear,
19:u:tok-2 L=appear/in,
16:u:tok-1LL=appear,
13:*:Pre-3 X=Mil,
14:*:Suf-4 X=king,
13:*:Suf-3 X=le:,
20:u:tok-1 R=processes,,
20:u:Tok-1 X=Processes,,
19:u:tok-1 X=processes,
13:*:Suf-3 X=per,
18:u:tok-1 X=preprint,
14:*:Pre-4 X=Prep,
13:*:Suf-3 X=ue,,
12:*:Suf-2 X=w.,
13:*:Pre-3 X=Lon,
14:*:Pre-4 X=Lond,
13:*:Pre-3 X=Edi,
14:*:Pre-4 X=Edit,
13:*:Pre-3 X=180,
13:*:Pre-3 X=Bro,
14:*:Suf-4 X=ited,
12:*:Pre-2 X=Pi,
13:u:Tok-1 X=van,
13:*:Pre-3 X=van,
13:*:Pre-4 X=van,
13:*:Suf-4 X=van,
12:*:Suf-2 X=os,
12:*:Suf-2 L=os,
12:*:Pre-2 X=do,
19:u:Tok-1 X=Preprint.,
13:u:tok-1LL=box,
18:u:tok-1 L=splines,,
28:u:tok-2 L=splines,/preprint.,
24:u:tok-2 R=preprint./_x+1,
14:*:Suf-4 X=int.,
13:*:Pre-3 X=Lit,
13:*:Suf-3 X=ny.,
12:*:Suf-2 X=a:,
12:*:Suf-2 L=a:,
12:*:Suf-2 L=5.,
13:*:Suf-3 X=See,
17:u:tok-1RR=(eds.).,
17:u:tok-1 X=revised,
32:u:tok-1LL=nearest-hyperrectangle,
29:u:tok-2 L=algorithms./machine,
13:u:tok-1RR=19,,
24:u:tok-2 R=learning,/vol.,
13:u:tok-1 L=art,
13:u:tok-1LL=art,
13:*:Pre-3 X=Pol,
14:*:Suf-4 X=ered,
12:*:Fst-1 X=Pd,
11:*:Pre-1 X=-,
11:*:Pre-2 X=-,
11:*:Pre-3 X=-,
11:*:Pre-4 X=-,
11:*:Suf-2 X=-,
11:*:Suf-3 X=-,
11:*:Suf-4 X=-,
14:*:Fst-2 X=Pd/-,
11:*:Suf-2 L=-,
14:*:Pre-4 X=Stev,
21:u:tok-2 R=learning,/2,
11:*:Pre-2 X=2,
11:*:Pre-3 X=2,
11:*:Pre-4 X=2,
11:*:Suf-2 X=2,
11:*:Suf-3 X=2,
11:*:Suf-4 X=2,
22:u:tok-1 X=northholland,
14:*:Pre-4 X=expr,
12:*:Pre-2 X=(P,
14:*:Suf-4 X=ches,
12:*:Suf-2 L=.),
13:*:Pre-3 X=Sun,
13:*:Suf-3 X=eld,
14:*:Pre-4 X=Mark,
13:*:Suf-3 X=le.,
25:u:Tok-1 X=Addison-Wesley,,
18:u:tok-1LL=reading,,
20:u:tok-2 L=ma,/second,
13:*:Pre-3 X=sec,
13:u:tok-1LL=ma,,
24:u:tok-2 R=edition,/1986.,
18:u:tok-2 L=paris/7,,
18:u:tok-2 R=7,/1992.,
14:*:Pre-4 X=pres,
16:u:tok-1 X=review,
13:*:Pre-3 X=Rev,
14:*:Pre-4 X=Revi,
13:*:Pre-3 X=Stu,
13:*:Suf-3 X=ew.,
14:*:Suf-4 X=iew.,
18:u:tok-1 X=handbook,
14:*:Pre-4 X=Hand,
18:u:Tok-1 X=Germany.,
17:u:tok-1 X=germany,
23:u:tok-2 R=germany./_x+1,
13:*:Pre-3 X=Ger,
14:*:Pre-4 X=Germ,
14:*:Suf-4 X=any.,
19:u:tok-1 R=presented,
19:u:tok-1LL=presented,
19:u:tok-1 X=available,
12:*:Pre-2 X=Av,
13:*:Pre-3 X=Ava,
14:*:Pre-4 X=Avai,
12:*:Suf-2 X=26,
12:u:tok-1 X=95,
12:*:Suf-2 X=d:,
14:*:Suf-4 X=ram,,
13:*:Suf-3 X=ham,
19:u:tok-1 L=november,,
12:u:tok-1 L=8,,
12:u:tok-1LL=8,,
17:u:tok-2 R=van/der,
17:u:tok-2 L=van/der,
14:*:Suf-4 X=aper,
13:*:Suf-3 X=-26,
12:*:Pre-2 X=95,
12:*:Suf-2 L=1.,
14:*:Pre-4 X=Spee,
13:*:Suf-3 X=r).,
13:*:Pre-3 X=Ski,
23:*:Pct-1 L=closing-brace,
13:*:Pre-3 X=STA,
13:*:Suf-3 X=he.,
12:*:Pre-2 X=(2,
17:u:Tok-1 X=Michael,
17:u:tok-1 X=michael,
13:*:Suf-3 X=ael,
14:*:Suf-4 X=hael,
17:u:tok-1 L=michael,
17:u:tok-1LL=michael,
13:*:Pre-3 X=Kri,
14:*:Pre-4 X=Micr,
14:*:Pre-4 X=Stud,
12:*:Pre-2 X=It,
13:*:Pre-3 X=Ita,
14:*:Pre-4 X=Ital,
12:u:tok-1 R=e,,
19:u:tok-2 L=8,/volume,
19:u:tok-2 R=volume/e,,
12:u:Tok-1 X=E,,
19:u:tok-2 L=volume/e,,
17:u:tok-2 R=e,/york,
12:*:Pre-2 X=E,,
12:*:Pre-3 X=E,,
12:*:Pre-4 X=E,,
12:*:Suf-3 X=E,,
12:*:Suf-4 X=E,,
19:*:Cap-2 L=_x-1/caps,
20:u:tok-2 R=report/no.,
14:*:Pre-4 X=STAC,
13:*:Suf-3 X=CS,,
14:*:Suf-4 X=ACS,,
21:u:tok-2 R=learning/in,
21:u:tok-2 L=learning/in,
13:*:Suf-3 X=ved,
22:u:tok-1 X=dissertation,
16:*:Key-1 X=thesis,
16:*:Key-1 L=thesis,
14:*:Pre-4 X=Chic,
13:*:Suf-3 X=er:,
14:*:Suf-4 X=ven,,
12:u:tok-1RR=3.,
14:*:Suf-4 X=rson,
21:u:tok-1RR=uncorrected,
24:u:tok-2 R=edition,/1994.,
13:*:Suf-3 X=um.,
14:*:Suf-4 X=aum.,
17:u:tok-1RR=section,
17:u:tok-1 R=section,
17:u:tok-1 X=section,
17:u:tok-1 L=section,
17:u:tok-1LL=section,
14:*:Suf-4 X=rne,,
27:u:tok-2 R=university/press,,
27:u:tok-2 L=university/press,,
18:u:tok-1 R=handbook,
21:u:tok-2 R=handbook/of,
18:u:tok-1 L=handbook,
21:u:tok-2 L=handbook/of,
18:u:tok-1LL=handbook,
16:u:tok-1 X=steven,
20:u:tok-1RR=scientific,
14:*:Pre-4 X=Poli,
13:*:Pre-3 X=Pis,
14:*:Pre-4 X=Pisa,
13:*:Suf-3 X=sa,,
14:*:Suf-4 X=isa,,
13:*:Pre-3 X=ed.,
14:*:Pre-4 X=ed.),
16:u:tok-1 L=model.,
19:u:tok-2 L=model./in,
13:*:Suf-3 X=ye,,
13:*:Pre-3 X=Sec,
13:*:Suf-3 X=ed,,
14:*:Suf-4 X=ted,,
14:*:Pre-4 X=1998,
14:*:Suf-4 X=998.,
18:u:tok-1LL=contract,
15:u:tok-1 R=[24],,
17:u:tok-1RR=chapter,
18:u:tok-2 R=in/[24],,
12:*:Pre-2 X=[2,
13:*:Pre-3 X=[24,
14:*:Pre-4 X=[24],
14:*:Suf-4 X=24],,
14:*:Pre-4 X=chap,
14:*:Suf-4 X=pter,
13:*:Suf-3 X=ed.,
15:u:tok-1LL=march,
13:u:Tok-1 X=Sun,
13:u:tok-1 X=sun,
23:u:tok-1 R=microsystems.,
14:u:tok-1RR=java,
18:u:tok-2 L=_x-1/sun,
27:u:tok-2 R=sun/microsystems.,
13:*:Pre-4 X=Sun,
13:*:Suf-3 X=Sun,
13:*:Suf-4 X=Sun,
23:u:Tok-1 X=Microsystems.,
22:u:tok-1 X=microsystems,
13:u:tok-1 L=sun,
14:u:tok-1 R=java,
15:u:tok-1RR=(tm):,
27:u:tok-2 L=sun/microsystems.,
28:u:tok-2 R=microsystems./java,
13:*:Pre-3 X=Jav,
14:*:Pre-4 X=Java,
12:*:Suf-2 X=va,
13:*:Suf-3 X=ava,
14:*:Suf-4 X=Java,
12:*:Suf-2 X=):,
12:*:Suf-2 L=):,
13:*:Pre-3 X=Erl,
14:*:Pre-4 X=Erlb,
13:u:tok-1LL=und,
22:u:tok-1LL=corporation,,
12:*:Pre-2 X=(D,
12:*:Pre-2 X=pi,
12:*:Pre-2 X=Ox,
13:*:Suf-3 X=ale,
21:u:tok-2 R=the/special,
17:u:Tok-1 X=special,
21:u:tok-2 L=the/special,
15:u:Tok-1 X=issue,
13:*:Pre-3 X=iss,
14:*:Pre-4 X=issu,
17:u:tok-2 R=on/lazy,
17:u:tok-2 L=on/lazy,
23:u:tok-2 R=lazy/learning,
23:u:tok-2 L=lazy/learning,
23:u:tok-2 R=in/artificial,
17:u:tok-1RR=review.,
23:u:tok-2 L=in/artificial,
17:u:tok-1 R=review.,
30:u:tok-2 R=intelligence/review.,
17:u:Tok-1 X=Review.,
30:u:tok-2 L=intelligence/review.,
22:u:tok-2 R=review./_x+1,
13:*:Pre-3 X=Las,
14:*:Pre-4 X=Last,
12:*:Pre-2 X=he,
17:u:Tok-1 X=Revised,
13:u:Tok-1 X=MI.,
12:u:tok-1 X=mi,
18:u:tok-1 L=detroit,,
22:u:tok-2 L=detroit,/mi.,
13:*:Pre-3 X=MI.,
13:*:Pre-4 X=MI.,
13:*:Suf-3 X=MI.,
13:*:Suf-4 X=MI.,
14:*:Suf-4 X=ber.,
14:*:Suf-4 X=lian,
20:u:tok-1RR=melbourne,,
20:u:tok-1 R=melbourne,,
14:*:Pre-4 X=Melb,
13:*:Pre-3 X=(20,
14:*:Pre-4 X=(200,
17:u:tok-1RR=(2005).,
17:u:tok-1 R=(2005).,
14:*:Suf-4 X=05).,
25:u:Tok-1 X=Person-Centered,
24:u:tok-1 X=personcentered,
24:u:tok-1RR=person-centred,
24:u:tok-1 R=person-centred,
23:u:tok-1 X=personcentred,
14:*:Suf-4 X=tred,
24:u:tok-1 L=person-centred,
24:u:tok-1LL=person-centred,
24:u:Tok-1 X=Person-Centred,
22:u:tok-1RR=ross-on-wye:,
22:u:tok-1 R=ross-on-wye:,
14:u:tok-1RR=pccs,
14:*:Pre-4 X=Ross,
13:*:Suf-3 X=ye:,
14:*:Suf-4 X=Wye:,
16:u:tok-1 R=velha:,
14:u:tok-1RR=vale,
18:u:tok-2 R=a/velha:,
16:u:Tok-1 X=Velha:,
15:u:tok-1 X=velha,
14:u:tok-1 R=vale,
18:u:tok-2 L=a/velha:,
21:u:tok-2 R=velha:/vale,
14:*:Pre-4 X=Velh,
13:*:Suf-3 X=ha:,
14:*:Suf-4 X=lha:,
14:u:tok-1 X=vale,
14:*:Pre-4 X=Vale,
14:*:Suf-4 X=Vale,
14:*:Suf-4 X=ale.,
17:u:tok-1RR=london:,
17:u:tok-1 R=london:,
14:*:Suf-4 X=don:,
22:u:Tok-1 X=Dissertation,
19:u:tok-1 R=abstracts,
32:u:tok-2 R=dissertation/abstracts,
14:*:Pre-4 X=Diss,
19:u:Tok-1 X=Abstracts,
19:u:tok-1 X=abstracts,
22:u:tok-1 L=dissertation,
32:u:tok-2 L=dissertation/abstracts,
14:*:Suf-4 X=acts,
22:u:tok-1LL=dissertation,
19:u:tok-1 L=abstracts,
17:u:Tok-1 X=Section,
19:u:tok-1LL=abstracts,
14:*:Pre-4 X=Sect,
28:u:tok-2 R=the/person-centred,
28:u:tok-2 L=the/person-centred,
13:*:Pre-3 X=hel,
14:*:Suf-4 X=Wye,,
13:u:Tok-1 X=NP.,
12:u:tok-1 X=np,
19:u:tok-1LL=gestalt!,,
18:u:tok-2 R=np./_x+1,
12:*:Pre-2 X=NP,
13:*:Pre-3 X=NP.,
13:*:Pre-4 X=NP.,
13:*:Suf-3 X=NP.,
13:*:Suf-4 X=NP.,
16:u:tok-1RR=edited,
16:u:tok-1 R=edited,
16:u:Tok-1 X=Edited,
16:u:tok-1 X=edited,
19:u:tok-2 R=edited/by,
16:u:tok-1 L=edited,
19:u:tok-2 L=edited/by,
16:u:tok-1LL=edited,
12:*:Suf-2 X=We,
13:*:Pre-3 X=200,
20:u:Tok-1 X=translated,
20:u:tok-1 X=translated,
23:u:tok-2 R=translated/by,
20:u:tok-1 L=translated,
23:u:tok-2 L=translated/by,
17:u:tok-1 R=oxford:,
13:*:Pre-3 X=Oxf,
14:*:Pre-4 X=Oxfo,
13:*:Suf-3 X=rd:,
14:*:Suf-4 X=ord:,
19:u:Tok-1 X=Kritische,
19:u:tok-1 X=kritische,
12:u:tok-1 L=5.,
25:u:tok-1 R=studienausgabe.,
22:u:tok-2 L=5./kritische,
35:u:tok-2 R=kritische/studienausgabe.,
14:*:Pre-4 X=Krit,
14:*:Suf-4 X=sche,
25:u:Tok-1 X=Studienausgabe.,
24:u:tok-1 X=studienausgabe,
12:u:tok-1LL=5.,
19:u:tok-1 L=kritische,
35:u:tok-2 L=kritische/studienausgabe.,
33:u:tok-2 R=studienausgabe./berlin:,
13:*:Suf-3 X=be.,
14:*:Suf-4 X=abe.,
13:*:Suf-3 X=st.,
14:*:Suf-2 L=’.,
14:*:Pre-4 X=Lite,
18:u:tok-1 L=reprint,,
20:u:tok-1 L=deutungen.,
19:u:tok-1RR=expanded.,
28:u:tok-2 L=deutungen./revised,
21:u:tok-2 R=revised/and,
14:u:tok-1 X=2010,
13:*:Pre-3 X=201,
14:*:Pre-4 X=2010,
16:u:tok-1 X=essays,
18:u:tok-1 X=holquist,
14:*:Pre-4 X=Holq,
19:u:tok-1 L=holquist,,
15:u:tok-1RR=caryl,
30:u:tok-2 L=holquist,/translated,
19:u:tok-1LL=holquist,,
15:u:tok-1 R=caryl,
17:u:tok-1RR=emerson,
18:u:tok-2 R=by/caryl,
15:u:Tok-1 X=Caryl,
15:u:tok-1 X=caryl,
17:u:tok-1 R=emerson,
18:u:tok-2 L=by/caryl,
23:u:tok-2 R=caryl/emerson,
14:*:Pre-4 X=Cary,
12:*:Suf-2 X=yl,
13:*:Suf-3 X=ryl,
14:*:Suf-4 X=aryl,
17:u:Tok-1 X=Emerson,
17:u:tok-1 X=emerson,
15:u:tok-1 L=caryl,
23:u:tok-2 L=caryl/emerson,
21:u:tok-2 R=emerson/and,
13:*:Pre-3 X=Eme,
14:*:Pre-4 X=Emer,
12:*:Suf-2 L=yl,
15:u:tok-1LL=caryl,
17:u:tok-1 L=emerson,
19:u:tok-1RR=holquist.,
21:u:tok-2 L=emerson/and,
21:u:tok-2 R=and/michael,
17:u:tok-1LL=emerson,
19:u:tok-1 R=holquist.,
17:u:tok-1RR=austin:,
21:u:tok-2 L=and/michael,
27:u:tok-2 R=michael/holquist.,
19:u:Tok-1 X=Holquist.,
17:u:tok-1 R=austin:,
27:u:tok-2 L=michael/holquist.,
27:u:tok-2 R=holquist./austin:,
14:*:Suf-4 X=ist.,
14:*:Suf-4 X=tin:,
14:u:Tok-1 X=ISBN,
14:u:tok-1 X=isbn,
12:*:Pre-2 X=IS,
13:*:Pre-3 X=ISB,
14:*:Pre-4 X=ISBN,
12:*:Suf-2 X=BN,
13:*:Suf-3 X=SBN,
14:*:Suf-4 X=ISBN,
14:u:tok-1 L=isbn,
12:*:Pre-2 X=0-,
12:*:Suf-2 L=BN,
13:*:Suf-3 X=-3.,
13:*:Pre-3 X=doi,
14:*:Pre-4 X=doi:,
17:u:Tok-1 X=(2009).,
14:u:tok-1 X=2009,
16:u:tok-1LL=green,,
13:u:tok-1 R="we,
14:u:tok-1RR=need,
20:u:tok-2 L=t./(2009).,
21:u:tok-2 R=(2009)./"we,
14:*:Suf-4 X=09).,
12:*:Pre-2 X="W,
13:*:Pre-3 X="We,
13:*:Pre-4 X="We,
13:*:Suf-3 X="We,
13:*:Suf-4 X="We,
19:u:tok-1RR=retrieved,
19:u:tok-1 R=retrieved,
19:u:Tok-1 X=Retrieved,
19:u:tok-1 X=retrieved,
14:*:Suf-4 X=eved,
19:u:tok-1 L=retrieved,
15:u:tok-1 X=chaos,
14:*:Pre-4 X=Chao,
18:u:Tok-1 X=Imperial,
18:u:tok-1 X=imperial,
27:u:tok-2 L=science,/imperial,
29:u:tok-2 R=imperial/university,
14:*:Pre-4 X=Impe,
18:u:tok-1 L=imperial,
29:u:tok-2 L=imperial/university,
18:u:tok-1LL=imperial,
19:u:tok-2 R=of/tokyo,,
19:u:tok-2 L=of/tokyo,,
21:u:tok-2 R=tokyo,/vol.,
17:u:Tok-1 X=Abraham,
17:u:tok-1 X=abraham,
13:*:Pre-3 X=Abr,
14:*:Pre-4 X=Abra,
14:*:Suf-4 X=aham,
17:u:tok-1 L=abraham,
15:u:Tok-1 X=Chaos,
13:*:Suf-3 X=aos,
14:*:Suf-4 X=haos,
15:u:tok-1 L=chaos,
13:*:Suf-3 X=nny,
14:*:Suf-4 X=enny,
20:u:Tok-1 X=Available:,
14:*:Suf-4 X=ble:,
14:u:tok-1 X=2008,
16:u:tok-1 L=hise.",
20:u:tok-1 R=wikipedia.,
14:u:tok-1RR=last,
19:u:tok-2 L=hise."/in,
23:u:tok-2 R=in/wikipedia.,
20:u:Tok-1 X=Wikipedia.,
19:u:tok-1 X=wikipedia,
16:u:tok-1LL=hise.",
14:u:tok-1 R=last,
18:u:tok-1RR=modified,
23:u:tok-2 L=in/wikipedia.,
25:u:tok-2 R=wikipedia./last,
13:*:Pre-3 X=Wik,
14:*:Pre-4 X=Wiki,
14:*:Suf-4 X=dia.,
14:*:Suf-4 X=Last,
14:*:Pre-4 X=2013,
14:*:Suf-4 X=013.,
15:u:Tok-1 X=2008.,
20:u:tok-2 R=2008./_x+1,
14:*:Pre-4 X=2008,
14:*:Suf-4 X=008.,
13:*:Pre-3 X=Vic,
14:*:Pre-4 X=Vict,
14:u:Tok-1 X=sec.,
13:u:tok-1 X=sec,
15:u:tok-1 L=1985,,
13:u:tok-1 R=1a,,
20:u:tok-2 L=1985,/sec.,
18:u:tok-2 R=sec./1a,,
14:*:Pre-4 X=sec.,
14:*:Suf-4 X=sec.,
13:u:Tok-1 X=1A,,
12:u:tok-1 X=1a,
15:u:tok-1LL=1985,,
14:u:tok-1 L=sec.,
18:u:tok-2 L=sec./1a,,
16:u:tok-2 R=1a,/p.,
12:*:Pre-2 X=1A,
13:*:Pre-3 X=1A,,
13:*:Pre-4 X=1A,,
13:*:Suf-3 X=1A,,
13:*:Suf-4 X=1A,,
12:*:Pre-2 X=p.,
12:*:Pre-3 X=p.,
12:*:Pre-4 X=p.,
12:*:Suf-3 X=p.,
12:*:Suf-4 X=p.,
22:u:tok-2 R=press,/2008.,
22:u:tok-2 L=press,/2008.,
21:u:Tok-1 X=Soderbergh,,
20:u:tok-1 X=soderbergh,
17:u:tok-1 R=steven,,
19:u:tok-1RR=director.,
26:u:tok-2 L=_x-1/soderbergh,,
29:u:tok-2 R=soderbergh,/steven,,
13:*:Pre-3 X=Sod,
14:*:Pre-4 X=Sode,
14:*:Suf-4 X=rgh,,
17:u:Tok-1 X=Steven,,
21:u:tok-1 L=soderbergh,,
19:u:tok-1 R=director.,
14:u:tok-1RR=che.,
29:u:tok-2 L=soderbergh,/steven,,
27:u:tok-2 R=steven,/director.,
19:u:Tok-1 X=director.,
18:u:tok-1 X=director,
21:u:tok-1LL=soderbergh,,
17:u:tok-1 L=steven,,
14:u:tok-1 R=che.,
14:u:tok-1RR=dvd.,
27:u:tok-2 L=steven,/director.,
24:u:tok-2 R=director./che.,
13:*:Pre-3 X=dir,
14:*:Pre-4 X=dire,
14:u:Tok-1 X=Che.,
13:u:tok-1 X=che,
17:u:tok-1LL=steven,,
19:u:tok-1 L=director.,
14:u:tok-1 R=dvd.,
24:u:tok-2 L=director./che.,
19:u:tok-2 R=che./dvd.,
14:*:Pre-4 X=Che.,
14:*:Suf-4 X=Che.,
14:u:Tok-1 X=DVD.,
13:u:tok-1 X=dvd,
19:u:tok-1LL=director.,
14:u:tok-1 L=che.,
19:u:tok-2 L=che./dvd.,
18:u:tok-2 R=dvd./new,
12:*:Pre-2 X=DV,
13:*:Pre-3 X=DVD,
14:*:Pre-4 X=DVD.,
13:*:Suf-3 X=VD.,
14:*:Suf-4 X=DVD.,
34:u:Tok-1 X=10.1163/157006598X00135.,
31:u:tok-1 X=101163157006598x00135,
17:u:tok-1LL=124-55.,
14:u:tok-1 L=doi:,
39:u:tok-2 L=doi:/10.1163/157006598x00135.,
39:u:tok-2 R=10.1163/157006598x00135./_x+1,
13:*:Pre-3 X=10.,
14:*:Pre-4 X=10.1,
12:*:Suf-2 L=i:,
13:*:Suf-3 X=35.,
14:*:Suf-4 X=135.,
15:u:tok-1 X=moore,
14:*:Pre-4 X=Moor,
21:u:tok-1RR=(director).,
21:u:tok-1 R=(director).,
21:u:Tok-1 X=(Director).,
13:*:Pre-3 X=(Di,
14:*:Pre-4 X=(Dir,
14:*:Suf-4 X=or).,
14:*:Pre-4 X=Skin,
14:*:Suf-4 X=ner:,
16:u:tok-1 X=motion,
17:u:tok-1 X=picture,
13:*:Pre-3 X=pic,
14:*:Pre-4 X=pict,
12:*:Suf-2 L=].,
15:u:Tok-1 X=FITNE,
15:u:tok-1 X=fitne,
21:u:tok-1 R=(producer).,
20:u:tok-2 L=_x-1/fitne,
27:u:tok-2 R=fitne/(producer).,
12:*:Pre-2 X=FI,
13:*:Pre-3 X=FIT,
14:*:Pre-4 X=FITN,
12:*:Suf-2 X=NE,
13:*:Suf-3 X=TNE,
14:*:Suf-4 X=ITNE,
21:u:Tok-1 X=(Producer).,
18:u:tok-1 X=producer,
15:u:tok-1 L=fitne,
15:u:tok-1RR=nurse,
27:u:tok-2 L=fitne/(producer).,
29:u:tok-2 R=(producer)./(2005).,
13:*:Pre-3 X=(Pr,
14:*:Pre-4 X=(Pro,
12:*:Suf-2 L=NE,
14:*:Suf-4 X=er).,
16:u:Tok-1 X=Moore,,
28:u:tok-1RR=(writer/director).,
21:u:tok-2 L=_x-1/moore,,
19:u:tok-2 R=moore,/m.,
14:*:Suf-4 X=ore,,
14:*:Pre-4 X=held,
14:*:Suf-4 X=held,
18:u:tok-1 X=victoria,
14:*:Pre-4 X=25-2,
14:*:Suf-4 X=5-26,
18:u:tok-2 R=mi./_x+1,
24:u:tok-2 R=retrieved/from,
24:u:tok-2 L=retrieved/from,
15:u:Tok-1 X=2005.,
12:u:tok-1LL=12,
25:u:tok-2 L=september/2005.,
25:u:tok-2 R=2005./retrieved,
14:*:Pre-4 X=2005,
14:*:Suf-4 X=005.,
14:*:Pre-4 X=2011,
14:*:Suf-4 X=011,,
18:u:tok-1 R=october.,
19:u:tok-2 L=sydney,/4,
20:u:tok-2 R=4/october.,
18:u:Tok-1 X=October.,
17:u:tok-1LL=sydney,,
20:u:tok-2 L=4/october.,
23:u:tok-2 R=october./_x+1,
18:u:tok-1LL=march-27,
17:u:tok-1 R=gallery,
28:u:tok-2 L=november,/national,
26:u:tok-2 R=national/gallery,
17:u:Tok-1 X=Gallery,
17:u:tok-1 X=gallery,
19:u:tok-1LL=november,,
19:u:tok-1RR=victoria,,
26:u:tok-2 L=national/gallery,
20:u:tok-2 R=gallery/of,
14:*:Suf-4 X=lery,
17:u:tok-1 L=gallery,
19:u:tok-1 R=victoria,,
20:u:tok-2 L=gallery/of,
22:u:tok-2 R=of/victoria,,
19:u:Tok-1 X=Victoria,,
17:u:tok-1LL=gallery,
14:u:tok-1RR=vic.,
22:u:tok-2 L=of/victoria,,
30:u:tok-2 R=victoria,/melbourne,,
14:*:Suf-4 X=ria,,
0=4.368699e-02
1=4.662068e-02
2=4.646671e-02
3=9.146692e-02
4=1.159936e-02
5=-3.125588e-03
6=1.007677e-03
7=5.624617e-02
8=1.686049e-02
9=4.822080e-02
10=8.117954e-04
11=6.764526e-02
12=-2.073995e-04
13=1.359541e-01
14=2.694201e-02
15=2.159006e-02
16=2.056112e-02
19=3.491910e-03
21=-1.570076e-02
22=6.217289e-03
23=1.146992e-02
25=4.050938e-01
26=-3.316200e-03
27=-4.640257e-01
29=4.159267e-02
33=-6.008354e-02
35=-3.021130e-02
46=-2.415325e-02
50=-2.894591e-01
51=4.688052e-01
52=6.827067e-03
54=-7.333622e-02
55=7.050565e-02
56=-1.573953e-01
57=3.903553e-05
58=-1.579723e-01
59=-4.446951e-03
60=-1.466170e-02
61=-8.719867e-03
64=5.090397e-02
69=2.071640e-04
72=6.601403e-06
75=-5.266908e-02
76=3.396927e-02
77=5.402090e-01
78=2.238259e-03
83=-5.991650e-02
88=-8.024164e-02
91=6.698315e-04
100=-8.911185e-02
101=-6.421051e-02
103=3.726867e-01
104=-2.777888e-02
105=-3.619069e-01
106=6.510708e-02
108=-2.186894e-01
109=7.163011e-02
110=8.593573e-02
113=-7.385330e-02
115=-6.964359e-02
125=-6.807344e-02
126=7.073270e-04
128=-6.256971e-02
129=2.488525e-01
135=-1.250346e-01
144=-1.420038e-01
145=1.253714e-02
147=7.165167e-02
149=2.607624e-02
151=-2.552104e-01
152=-4.821474e-03
153=-4.841773e-01
155=4.133440e-01
156=2.166974e-01
158=-1.325263e-01
159=1.089209e-01
160=-1.389009e-01
169=-5.939530e-03
179=5.391607e-03
181=2.758006e-01
184=1.186417e-01
189=1.005292e-03
201=-6.119565e-02
203=-9.391827e-02
207=3.551260e-01
208=5.646786e-02
211=-8.744042e-03
225=-4.991370e-02
228=-1.699928e-01
229=2.922037e-02
232=8.849873e-06
233=3.509433e-01
236=-2.111784e-01
237=4.029985e-03
254=1.128463e-02
259=1.446602e-01
260=2.321900e-03
263=6.991121e-05
268=4.812541e-06
279=4.821729e-02
285=2.267521e-01
286=1.242149e-01
303=-9.912146e-02
304=3.619485e-02
308=-9.346072e-02
309=9.190637e-02
310=1.005479e-02
311=2.586408e-01
337=9.955872e-02
351=-9.498178e-02
353=-2.941291e-01
354=-1.284598e-02
360=-1.290916e-01
361=-6.901886e-02
363=4.956234e-01
378=-3.642027e-03
385=1.443383e-02
386=5.063664e-03
389=4.332027e-01
415=5.408298e-01
419=5.036048e-05
435=4.547123e-04
441=4.962483e-01
467=1.591498e-01
493=8.323387e-02
504=-4.089952e-02
512=5.394259e-02
519=4.412981e-01
534=1.041488e-02
545=2.001498e-01
551=1.051067e-03
571=3.590647e-01
585=5.761336e-02
586=1.139116e-01
597=1.779805e-01
621=2.074015e-02
623=4.795283e-01
635=7.969115e-03
649=3.226805e-01
651=8.610782e-02
660=2.336841e-04
675=2.064397e-01
676=1.003136e-02
677=6.552100e-02
683=2.562798e-02
685=-3.086783e-02
696=3.553506e-02
698=8.337758e-03
700=2.064397e-01
701=1.003136e-02
702=6.552100e-02
708=2.562798e-02
710=-3.086783e-02
721=3.553506e-02
723=8.337758e-03
725=2.045462e-01
726=4.258047e-02
727=3.098648e-02
728=1.345373e-01
729=-9.684046e-02
730=2.047767e-01
731=-8.289978e-01
732=-1.212790e-01
733=1.102017e-01
734=-4.404760e-01
735=1.404361e-01
736=2.363942e-01
738=1.334313e-02
739=-6.420042e-02
740=5.801041e-03
741=-5.766412e-02
743=-6.077633e-02
744=-6.182645e-03
746=-1.174803e-02
747=-7.282560e-01
748=5.709074e-03
749=2.364221e-02
750=3.762915e-01
751=1.244758e-02
752=-3.857505e-06
753=6.351052e-03
776=1.611077e-01
778=2.941395e-02
779=-2.169441e-03
780=1.543103e-01
782=1.057913e-01
783=-6.488951e-02
785=2.177213e-03
786=-2.924755e-03
790=1.145970e-02
801=3.338158e-02
802=2.499524e-01
803=1.403994e-01
827=-3.509252e-02
828=3.157549e-01
831=-1.662912e-01
835=4.925345e-02
836=1.656799e-05
838=-2.290044e-01
851=8.566867e-01
853=-1.759480e-02
854=1.548849e-01
860=-7.807858e-02
863=-2.872753e-03
874=5.260840e-02
880=3.061757e-01
885=-7.521699e-02
887=6.607363e-05
888=-1.806978e-01
914=3.282639e-02
932=1.656039e-01
933=2.482161e-01
954=-3.535102e-05
957=3.106492e-05
958=4.214724e-01
961=-2.375497e-02
985=2.065794e-01
1010=1.587873e-01
1011=1.631936e-01
1035=5.471952e-02
1036=2.301557e-01
1042=3.516132e-02
1080=-6.127498e-03
1085=-6.125250e-02
1088=1.960318e-01
1110=3.504717e-02
1111=1.222955e-02
1140=2.503544e-01
1144=2.616995e-02
1166=2.943791e-01
1244=1.917022e-01
1276=1.593347e-02
1296=2.017599e-01
1310=6.762709e-02
1311=1.080544e-01
1348=3.278639e-01
1360=2.922533e-02
1374=1.493753e-01
1375=1.424305e-01
1376=1.496373e-01
1377=4.383465e-02
1378=2.687842e-02
1379=4.766597e-01
1380=3.078159e-02
1381=-1.715979e-01
1382=5.448311e-02
1383=8.151938e-02
1384=4.150794e-05
1385=1.013603e-01
1386=-2.915448e-03
1388=1.257817e-02
1390=2.969291e-02
1391=4.775689e-02
1394=-1.124134e-02
1396=2.983049e-02
1398=-9.340707e-03
1399=9.543509e-02
1400=2.592012e-01
1401=8.578725e-02
1404=3.214015e-01
1426=2.498009e-01
1427=2.558836e-01
1428=4.532543e-02
1429=-6.979983e-02
1430=5.849508e-02
1432=4.452701e-05
1433=-2.317721e-01
1435=1.707548e-02
1436=-2.646533e-02
1438=-6.794203e-01
1440=1.254383e-02
1451=2.835905e-02
1452=3.176039e-01
1453=-2.974847e-03
1460=2.070648e-03
1478=1.834602e-01
1485=6.272467e-02
1486=1.911489e-03
1504=9.296221e-02
1509=-1.638387e-04
1510=-5.956698e-02
1524=5.428763e-02
1530=1.761648e-01
1531=-8.151025e-08
1534=1.274416e-02
1564=5.452598e-02
1582=2.464014e-01
1583=9.790920e-02
1607=1.385408e-02
1608=2.475435e-01
1612=3.333838e-02
1634=1.048337e-01
1636=1.924185e-02
1644=1.621939e-02
1660=1.240093e-01
1661=3.632654e-03
1669=8.102540e-03
1685=-1.897386e-02
1686=1.189895e-01
1733=-2.858460e-01
1735=-5.286822e-02
1738=2.388496e-01
1764=2.989038e-01
1790=2.563416e-01
1816=3.960471e-01
1894=1.174366e-01
1926=6.879227e-02
1960=5.875774e-02
1961=9.625470e-02
1972=1.780380e-01
1996=6.188406e-02
1998=1.927451e-01
2010=2.740603e-02
2024=1.366954e-01
2025=2.064397e-01
2026=1.003136e-02
2027=6.552100e-02
2033=2.562798e-02
2035=-3.086783e-02
2046=3.553506e-02
2048=8.337758e-03
2675=3.844872e-02
2676=9.280748e-02
2677=2.154116e-02
2678=-3.947789e-02
2679=1.318722e-01
2680=2.360317e-02
2681=4.300995e-03
2682=6.954636e-04
2683=-9.884785e-03
2685=7.738607e-02
2686=-7.067604e-04
2687=9.640107e-03
2688=-1.144114e-02
2689=2.579981e-02
2690=-1.161497e-03
2691=-2.878695e-02
2692=-2.763445e-02
2694=-7.323834e-02
2696=1.558403e-01
2699=-8.936065e-03
2700=2.897800e-01
2701=-2.543866e-02
2704=2.729818e-03
2721=-1.342023e-02
2726=5.372640e-01
2727=2.697110e-01
2728=-4.609379e-03
2731=-1.477919e-02
2732=1.820730e-06
2734=-2.155565e-03
2735=2.548525e-02
2736=-1.067418e-02
2739=6.163667e-03
2747=3.130771e-02
2752=3.737732e-01
2756=4.700977e-02
2778=2.193221e-01
2779=-5.928451e-03
2781=1.391248e-02
2784=2.625406e-02
2785=1.812858e-02
2789=-1.032412e-03
2800=-2.230020e-03
2804=2.024442e-01
2810=-6.222450e-02
2820=5.442997e-02
2829=-2.818801e-03
2830=2.881394e-01
2831=7.823355e-02
2834=9.038851e-04
2836=-6.964670e-02
2856=5.626695e-01
2859=1.157331e-01
2882=6.043788e-01
2904=2.500152e-02
2908=1.497279e-01
2912=9.303456e-03
2934=1.457234e-01
2954=2.291729e-02
2959=-1.091307e-01
2960=1.085688e+00
2961=2.619668e-02
2979=5.192580e-02
2985=-2.184001e-03
2986=6.366543e-01
3012=3.261516e-01
3029=-8.096102e-03
3038=2.542939e-01
3060=3.459850e-02
3064=3.597815e-01
3090=2.664361e-01
3142=1.043021e-01
3168=8.030963e-02
3194=8.865996e-01
3209=2.247839e-02
3220=1.882702e-01
3226=8.019663e-02
3246=4.494525e-01
3272=1.745654e-01
3296=4.771105e-02
3298=5.198880e-01
3310=4.025001e-02
3324=6.691260e-02
3325=-1.547603e-02
3326=8.980652e-03
3327=-1.209137e-02
3328=8.650725e-02
3330=6.718958e-02
3332=-2.031555e-01
3336=1.918260e-01
3338=-5.514946e-01
3351=3.196429e-02
3376=7.136195e-03
3378=-2.866754e-03
3380=2.969652e-01
3428=1.527306e-01
3480=3.629871e-02
3487=8.578331e-03
3560=2.343214e-03
3586=6.260020e-02
3610=-6.853231e-03
3688=-1.797602e-01
3740=5.436048e-02
3760=2.717138e-02
3844=6.880348e-03
3911=6.356060e-03
3975=2.064397e-01
3976=1.003136e-02
3977=6.552100e-02
3983=2.562798e-02
3985=-3.086783e-02
3996=3.553506e-02
3998=8.337758e-03
4625=4.512649e-02
4626=5.543646e-02
4627=1.424889e-02
4628=-7.241381e-02
4629=1.995414e-03
4630=7.283147e-02
4633=3.191636e-02
4634=2.297129e-01
4635=1.265304e-03
4636=-3.598848e-02
4638=-8.297534e-02
4639=2.542888e-02
4644=-1.517903e-02
4646=1.411506e-02
4648=-3.517686e-03
4649=-5.031312e-02
4650=1.317625e-01
4676=3.839035e-01
4677=6.928558e-02
4689=2.243746e-02
4697=3.246955e-02
4702=1.101092e-01
4728=4.155398e-02
4734=8.383898e-02
4735=1.390310e-02
4754=2.420563e-02
4770=4.727280e-02
4780=9.273632e-02
4781=4.796796e-02
4784=3.391422e-02
4804=-8.368035e-02
4806=1.091211e-01
4809=6.252002e-02
4832=1.251922e-01
4854=6.013612e-02
4858=1.299791e-01
4879=4.484017e-05
4884=6.937072e-02
4904=9.656619e-03
4909=-4.784414e-02
4910=5.869859e-02
4911=9.762623e-03
4929=2.070214e-03
4931=4.018362e-03
4936=4.006731e-02
4962=3.430113e-01
4975=1.128784e-03
4988=5.096069e-02
5004=2.102626e-02
5014=2.097749e-01
5040=1.664327e-01
5066=5.573924e-03
5092=1.147572e-01
5118=7.190883e-02
5144=2.021524e-01
5159=1.771642e-02
5176=7.321979e-02
5196=3.046515e-01
5248=1.355863e-01
5275=2.064397e-01
5276=1.003136e-02
5277=6.552100e-02
5283=2.562798e-02
5285=-3.086783e-02
5296=3.553506e-02
5298=8.337758e-03
5925=-1.547603e-02
5926=8.980652e-03
5927=-1.209137e-02
5928=8.650725e-02
5930=6.718958e-02
5932=-2.031555e-01
5936=1.918260e-01
5938=-5.514946e-01
5951=3.196429e-02
5976=7.136195e-03
5978=-2.866754e-03
5980=2.969652e-01
6028=1.527306e-01
6080=3.629871e-02
6087=8.578331e-03
6160=2.343214e-03
6186=6.260020e-02
6210=-6.853231e-03
6288=-1.797602e-01
6340=5.436048e-02
6360=2.717138e-02
6444=6.880348e-03
6511=6.356060e-03
6575=4.512649e-02
6576=5.543646e-02
6577=1.424889e-02
6578=-7.241381e-02
6579=1.995414e-03
6580=7.283147e-02
6583=3.191636e-02
6584=2.297129e-01
6585=1.265304e-03
6586=-3.598848e-02
6588=-8.297534e-02
6589=2.542888e-02
6594=-1.517903e-02
6596=1.411506e-02
6598=-3.517686e-03
6599=-5.031312e-02
6600=1.317625e-01
6626=3.839035e-01
6627=6.928558e-02
6639=2.243746e-02
6647=3.246955e-02
6652=1.101092e-01
6678=4.155398e-02
6684=8.383898e-02
6685=1.390310e-02
6704=2.420563e-02
6720=4.727280e-02
6730=9.273632e-02
6731=4.796796e-02
6734=3.391422e-02
6754=-8.368035e-02
6756=1.091211e-01
6759=6.252002e-02
6782=1.251922e-01
6804=6.013612e-02
6808=1.299791e-01
6829=4.484017e-05
6834=6.937072e-02
6854=9.656619e-03
6859=-4.784414e-02
6860=5.869859e-02
6861=9.762623e-03
6879=2.070214e-03
6881=4.018362e-03
6886=4.006731e-02
6912=3.430113e-01
6925=1.128784e-03
6938=5.096069e-02
6954=2.102626e-02
6964=2.097749e-01
6990=1.664327e-01
7016=5.573924e-03
7042=1.147572e-01
7068=7.190883e-02
7094=2.021524e-01
7109=1.771642e-02
7126=7.321979e-02
7146=3.046515e-01
7198=1.355863e-01
7225=2.064397e-01
7226=1.003136e-02
7227=6.552100e-02
7233=2.562798e-02
7235=-3.086783e-02
7246=3.553506e-02
7248=8.337758e-03
7875=1.416845e-01
7876=-3.557684e-03
7877=1.657273e-01
7878=-2.482267e-02
7880=1.447076e-01
7881=2.537189e-03
7883=-5.183641e-02
7885=1.417287e-01
7886=-1.613082e+00
7888=-5.146659e-02
7900=2.433703e-01
7952=1.320485e-01
8001=1.206305e-01
8030=1.385609e-01
8056=7.921277e-03
8160=1.726360e+00
8161=-3.466093e-02
8225=1.956657e-02
8290=2.484175e-04
8446=7.232287e-02
8498=2.331426e-01
8525=-8.711691e-05
8526=1.910351e-02
8527=5.464052e-02
8528=2.368074e-02
8529=3.605078e-02
8530=1.182385e-03
8531=-7.729990e-02
8532=8.187146e-02
8533=1.427991e-01
8535=-3.964964e-03
8536=6.522599e-02
8538=-1.582908e-02
8539=1.006958e-02
8540=3.307187e-02
8541=2.975056e-02
8546=3.693408e-02
8547=2.294923e-02
8549=1.409761e-02
8550=2.135138e-01
8551=1.005344e-01
8554=1.372732e-01
8576=1.715651e-01
8577=6.200927e-03
8578=2.687999e-02
8579=-6.881164e-02
8580=6.841075e-02
8582=6.217693e-05
8583=-1.839385e-01
8585=1.166886e-03
8586=-3.662702e-02
8588=-5.397601e-01
8590=1.538177e-02
8597=3.172877e-02
8601=3.254555e-02
8602=1.175380e-01
8603=-6.792934e-04
8610=3.784059e-03
8628=1.679301e-01
8629=-2.919445e-01
8635=-5.712587e-03
8636=4.157391e-02
8654=1.117922e-01
8674=4.760787e-02
8680=1.526436e-01
8681=-1.004560e-01
8684=1.201459e-02
8706=7.616200e-01
8714=3.393493e-02
8732=1.980443e-01
8733=9.336281e-01
8754=7.911549e-03
8757=2.067429e-02
8758=2.704146e-01
8760=-3.840065e-03
8762=2.130015e-02
8786=6.213805e-02
8794=2.155063e-02
8810=8.729493e-02
8811=-1.275586e-04
8819=7.489202e-03
8836=1.087805e-01
8875=2.936328e-05
8888=1.737183e-01
8910=1.935961e-02
8914=3.021570e-01
8940=2.144853e-01
8966=4.252517e-01
9044=1.012318e-01
9096=1.208587e-01
9110=4.724899e-03
9111=8.713793e-02
9122=1.935985e-01
9146=5.170342e-02
9148=1.966171e-01
9160=2.974352e-02
9174=1.899012e-01
9175=3.350324e-01
9825=6.628221e-02
9826=-1.935970e-02
9827=1.142111e-01
9830=-2.344253e-03
9833=-3.674845e-01
9835=2.192886e-02
9836=-1.785136e-01
9838=-7.298578e-03
9846=4.227868e-02
9848=1.440682e-01
9850=-1.724191e-05
9877=1.740178e-03
9902=-4.620863e-05
9927=7.065721e-02
9980=-1.594613e-05
10006=6.210295e-03
10058=-1.298534e-03
10110=2.361076e-01
10111=-1.036730e-04
10175=5.973739e-04
10240=3.214090e-04
10396=1.937821e-01
10448=2.384924e-01
10475=2.064397e-01
10476=1.003136e-02
10477=6.552100e-02
10483=2.562798e-02
10485=-3.086783e-02
10496=3.553506e-02
10498=8.337758e-03
11125=1.195321e-01
11126=1.165728e-01
11127=8.504703e-02
11128=8.308929e-02
11129=-1.299674e+00
11130=1.468040e-01
11131=-4.605933e-01
11132=-1.242158e-01
11133=1.158829e-01
11134=-5.048449e-01
11135=1.243996e-01
11136=1.680359e-01
11138=1.755146e-01
11139=1.672032e-02
11140=2.047682e-02
11141=4.829066e-04
11142=-1.633885e-02
11143=-1.624802e-02
11146=6.844291e-02
11147=2.861802e-01
11148=2.253049e-02
11149=5.229498e-02
11150=4.013740e-01
11151=-7.418911e-04
11152=-1.148433e-01
11160=-4.933259e-02
11171=-1.852963e-02
11175=-2.287687e-01
11176=3.079609e-01
11177=3.514464e-02
11178=1.317025e-04
11180=7.976294e-02
11181=-2.784347e-02
11182=4.238026e-02
11183=-1.218028e-01
11185=-9.755217e-03
11186=-1.562847e-02
11200=-2.784576e-05
11201=2.908481e-02
11202=6.768382e-01
11203=2.844533e-02
11208=-4.884500e-02
11213=-5.431758e-02
11225=-7.347471e-02
11226=-2.458389e-01
11228=3.144067e-01
11230=-3.115623e-01
11232=-2.130756e-02
11233=-1.739768e-01
11235=9.659752e-02
11238=-1.098795e-02
11239=-6.930090e-02
11250=-1.448790e-02
11251=8.278193e-02
11253=-2.582779e-02
11254=1.071795e-01
11260=-9.308125e-02
11263=3.200817e-02
11269=-5.444636e-02
11270=5.922434e-02
11272=9.454027e-02
11274=5.913197e-02
11276=-1.605964e-02
11278=-8.099272e-02
11280=4.199189e-01
11283=-1.002489e-01
11285=-9.836016e-02
11306=3.557410e-02
11314=4.247228e-02
11328=-5.600954e-02
11332=2.355248e-01
11333=7.154658e-02
11350=-3.948697e-02
11353=-1.119811e-01
11357=3.184553e-05
11358=3.686927e-01
11361=-1.863131e-01
11362=1.767828e-02
11385=2.731562e-02
11410=2.039392e-01
11411=1.247861e-01
11431=1.188384e-02
11435=2.138865e-02
11436=3.043471e-01
11442=2.570597e-02
11476=-5.874261e-02
11478=-3.048339e-01
11485=-1.086292e-01
11486=-3.673769e-02
11488=3.852731e-01
11510=1.870865e-02
11511=3.873211e-03
11514=6.403626e-01
11540=2.837284e-01
11566=4.749307e-01
11637=4.092165e-04
11644=3.296156e-01
11676=6.784006e-04
11696=6.185815e-01
11710=4.884196e-02
11711=1.087365e-01
11722=1.798906e-01
11746=4.286890e-02
11748=5.113109e-01
11760=2.828677e-02
11774=2.714222e-01
11775=9.980005e-02
11776=1.249974e-01
11777=8.088761e-02
11778=8.942022e-02
11779=3.380983e-02
11780=1.402902e-03
11782=6.907729e-02
11783=1.252557e-01
11784=3.777218e-04
11785=5.029038e-05
11786=1.296241e-02
11787=-5.170204e-03
11788=3.122937e-02
11789=2.168466e-01
11790=2.511265e-02
11791=7.500758e-02
11794=5.473170e-02
11795=-8.775018e-02
11796=7.153133e-02
11797=2.304160e-01
11798=2.097563e-02
11799=1.170114e-01
11800=2.886516e-01
11801=-7.567008e-04
11802=-1.087334e-01
11804=1.180843e-01
11826=2.890834e-01
11827=4.879661e-03
11828=2.212152e-04
11830=9.112876e-02
11832=7.518408e-02
11833=-8.761829e-02
11835=9.545580e-03
11836=-2.390198e-02
11838=-4.530413e-02
11840=1.413703e-02
11847=1.830254e-02
11851=2.769181e-02
11852=5.691286e-01
11853=3.591594e-02
11863=-3.695901e-02
11866=4.962999e-04
11878=2.513469e-01
11879=-4.866302e-02
11883=-6.575993e-02
11885=2.385164e-02
11901=7.868812e-02
11903=-2.996006e-02
11904=8.223502e-02
11909=-8.177055e-04
11910=-8.291893e-02
11919=-1.198410e-02
11922=9.978356e-02
11924=5.254770e-02
11928=-2.915679e-02
11930=2.154923e-01
11933=-6.745236e-02
11934=2.499075e-02
11956=6.018184e-01
11959=7.560830e-03
11964=4.157908e-02
11978=-2.413308e-02
11982=2.199955e-01
11983=7.621468e-02
12007=6.775675e-03
12008=2.931596e-01
12012=2.687208e-02
12035=3.972945e-03
12038=3.224469e-01
12053=-3.438399e-01
12060=1.272767e-01
12069=1.154739e-03
12085=-1.210797e-02
12086=1.519518e-01
12126=-1.914244e-02
12128=-4.740664e-02
12135=-6.369156e-02
12138=2.602252e-01
12160=1.951394e-02
12161=1.104438e-02
12164=4.016534e-01
12190=2.479327e-01
12216=4.606475e-01
12294=2.047860e-01
12326=6.599553e-04
12346=2.467011e-01
12360=4.805066e-02
12361=1.018943e-01
12372=1.823263e-01
12396=3.934635e-02
12398=3.943625e-01
12410=3.929464e-02
12424=5.177257e-01
12425=-2.554095e-01
12426=2.672350e-01
12427=-1.173480e-01
12428=2.699525e-01
12429=-1.566989e-01
12430=8.850047e-02
12431=7.498119e-02
12432=5.302574e-02
12433=1.533047e-01
12434=2.786423e-02
12435=1.847311e-02
12436=2.548038e-02
12437=2.394335e-04
12438=2.433472e-02
12439=3.399746e-02
12440=2.944969e-02
12441=-1.976338e-01
12444=2.968440e-03
12446=-2.388795e-02
12447=1.724900e-02
12448=-7.516915e-02
12449=-8.990382e-03
12450=5.932732e-02
12451=4.462488e-02
12452=4.859729e-02
12453=1.855878e-01
12454=-7.687957e-01
12455=7.527953e-02
12456=4.440920e-02
12457=7.287264e-02
12458=1.123116e-01
12459=5.295064e-02
12460=3.876321e-02
12461=8.860628e-02
12462=-1.570611e-04
12463=1.246737e-01
12464=3.605646e-02
12465=2.194658e-02
12466=2.065669e-02
12469=3.675961e-03
12471=7.755689e-02
12472=5.455182e-03
12473=1.050899e-02
12474=-4.915036e-04
12475=1.132637e-01
12476=1.447341e-01
12477=3.307135e-02
12478=1.896650e-01
12479=9.077015e-02
12480=1.427408e-01
12481=7.260476e-02
12482=1.000443e-01
12483=-3.145309e-02
12484=1.397408e-02
12485=-1.581819e+00
12486=4.377965e-02
12487=8.403767e-05
12488=3.239463e-02
12489=3.129173e-02
12490=3.021176e-02
12491=-9.434306e-03
12496=-2.184794e-02
12497=1.552056e-02
12498=9.010133e-03
12499=-4.747281e-02
12500=-1.618546e-02
12501=-1.421652e-02
12502=5.656695e-02
12505=1.061541e-01
12507=-1.013419e+00
12508=1.799858e-01
12509=-4.984626e-01
12510=3.559693e-02
12511=7.020236e-01
12513=7.808498e-02
12515=9.709695e-04
12519=-6.141241e-01
12522=-1.866559e-01
12525=-3.196167e-01
12526=2.672576e-02
12527=-8.403060e-02
12528=1.371264e-01
12530=2.986730e-01
12531=-9.545765e-02
12532=-4.004027e-01
12533=2.431556e-01
12535=-1.931480e-01
12536=-1.682102e-01
12538=-4.632947e-03
12539=-6.575592e-02
12540=1.444801e-01
12544=-2.906061e-02
12549=5.382109e-02
12550=2.064397e-01
12551=1.003136e-02
12552=6.552100e-02
12558=2.562798e-02
12560=-3.086783e-02
12571=3.553506e-02
12573=8.337758e-03
13200=1.039181e-01
13201=2.457826e-01
13202=-3.966337e-02
13203=2.207373e-02
13204=9.458945e-02
13205=1.029713e-01
13207=7.246018e-02
13208=1.032063e-01
13209=5.077893e-02
13210=1.030241e-01
13211=7.055646e-02
13212=5.279710e-05
13213=7.840775e-02
13214=7.841535e-03
13215=-3.397482e-04
13216=-5.526354e-02
13219=9.240418e-02
13221=-1.478913e-02
13222=4.471192e-02
13223=9.716753e-03
13224=5.976091e-03
13225=6.049146e-01
13226=5.300593e-02
13227=-1.370378e-01
13229=3.844668e-02
13235=-6.133515e-02
13246=-2.303908e-02
13250=-2.432619e-01
13251=5.124488e-01
13252=-1.945905e+00
13253=-1.895797e-01
13254=-6.872845e-02
13255=9.279603e-02
13256=-1.488948e-01
13257=6.390578e-02
13258=-1.276897e-01
13260=1.201684e-03
13261=-6.448079e-03
13263=-3.624349e-02
13264=8.271459e-02
13265=-4.802910e-01
13269=1.421665e-04
13272=8.388611e-04
13276=3.208842e-02
13277=2.968366e-01
13278=3.244238e-02
13281=3.808836e-02
13288=-6.482017e-02
13300=-8.660356e-02
13301=-2.720049e-01
13302=-7.050855e-02
13303=3.486530e-01
13304=-2.799869e-02
13305=-3.517030e-01
13306=6.786657e-02
13308=-2.113391e-01
13309=7.241890e-02
13310=8.722122e-02
13313=-8.332710e-02
13315=-6.701584e-02
13325=-6.464513e-02
13326=4.481768e-02
13328=-5.801430e-02
13329=2.494110e-01
13335=-1.211626e-01
13344=-1.413345e-01
13345=8.565925e-03
13347=6.899588e-02
13349=1.904348e-02
13351=-4.301912e-02
13353=-1.923114e-01
13355=4.162513e-01
13356=2.171355e-01
13358=-1.232468e-01
13359=1.048563e-01
13360=-1.178289e-01
13363=-1.087265e-02
13379=5.620285e-03
13381=3.613957e-01
13384=1.189438e-01
13389=7.980547e-04
13403=-8.406690e-02
13407=3.771951e-01
13408=5.713302e-02
13411=-8.375509e-03
13425=-4.830466e-02
13428=-1.196879e-01
13429=2.948192e-02
13432=8.940810e-06
13433=3.620125e-01
13436=-2.070361e-01
13437=4.589068e-03
13454=1.166776e-02
13459=1.448752e-01
13468=4.828885e-06
13479=4.849514e-02
13485=2.967107e-01
13486=1.249723e-01
13504=3.649082e-02
13508=-9.032910e-02
13509=8.367543e-02
13510=1.143734e-02
13511=2.596277e-01
13537=9.473319e-02
13551=-6.577445e-02
13553=-2.493189e-01
13554=-1.270049e-02
13560=-1.250836e-01
13561=-5.086597e-02
13563=4.360999e-01
13585=8.078821e-03
13586=5.242544e-03
13589=1.286749e-01
13615=5.858661e-01
13619=5.951875e-05
13641=5.098742e-01
13667=1.535001e-01
13693=8.292258e-02
13704=-3.979298e-02
13712=5.179029e-02
13719=5.703369e-01
13734=2.584168e-02
13745=1.994470e-01
13751=8.346001e-04
13771=4.295930e-01
13785=5.534126e-02
13786=1.108603e-01
13797=1.778650e-01
13821=1.968635e-02
13823=4.578899e-01
13835=4.033921e-02
13849=3.161150e-01
13850=1.561338e-01
13851=1.978421e-02
13852=1.417884e-02
13853=5.284185e-02
13854=2.333137e-02
13855=1.144427e-01
13856=1.042323e-01
13857=9.647773e-02
13858=9.171254e-02
13859=1.908439e-03
13860=8.679645e-04
13861=6.412668e-03
13862=-8.548455e-02
13863=9.368009e-02
13864=-1.941365e-02
13865=7.847125e-03
13866=-1.767917e-03
13867=-3.785116e-02
13869=1.767691e-03
13871=7.909703e-02
13872=1.215132e-02
13873=3.372913e-05
13874=8.426341e-02
13875=6.205198e-01
13876=-2.263708e-02
13878=-1.017987e-01
13879=6.273291e-02
13900=-2.370581e-01
13901=4.206451e-01
13902=1.982908e-01
13903=-5.246733e-02
13904=-4.856484e-02
13905=8.557245e-02
13906=-1.367501e-01
13907=4.116146e-02
13908=-1.219838e-01
13910=-7.790076e-03
13911=-1.418828e-02
13915=3.064466e-03
13922=5.160312e-04
13925=-1.289008e-02
13926=7.114422e-03
13927=3.690497e-01
13928=1.184434e-02
13938=-5.618397e-02
13941=9.562610e-04
13950=-8.073195e-02
13951=-2.523745e-01
13953=3.498230e-01
13954=-3.247730e-02
13955=-3.364157e-01
13956=9.508566e-02
13957=-3.888660e-02
13958=-1.039083e-01
13959=3.871457e-02
13960=3.658391e-02
13963=-1.343727e-03
13964=-1.302933e-01
13975=-7.845975e-02
13976=7.803341e-02
13978=-3.882587e-02
13979=2.744448e-01
13985=-1.075295e-01
13994=-1.076252e-01
13995=4.130411e-02
13997=8.400049e-02
13999=5.880115e-02
14001=-4.142192e-02
14003=-1.912016e-01
14005=4.031787e-01
14006=1.839765e-01
14008=-1.127258e-01
14009=3.377936e-02
14010=-1.093790e-01
14029=6.148005e-02
14031=3.706327e-01
14034=4.679475e-02
14039=3.534496e-02
14053=-8.160628e-02
14057=3.371778e-01
14058=5.847133e-02
14075=-4.499568e-02
14078=-1.128936e-01
14079=8.545258e-03
14082=2.681187e-05
14083=3.219323e-01
14085=-2.026857e-03
14086=-9.376699e-02
14087=1.774157e-02
14104=-9.846200e-03
14110=3.752192e-04
14111=4.703785e-07
14129=6.336790e-05
14135=5.173604e-01
14136=-1.091466e-03
14154=5.754566e-03
14160=1.692438e-02
14161=1.911812e-01
14167=3.114042e-02
14201=-6.290017e-02
14203=-1.449154e-01
14210=-7.747089e-02
14213=3.623940e-01
14229=-4.601458e-03
14235=5.404749e-05
14239=4.700715e-01
14265=4.845485e-01
14285=7.206416e-04
14291=4.915340e-01
14369=3.364846e-01
14384=2.390608e-02
14395=1.912510e-01
14401=7.718872e-04
14421=4.210387e-01
14435=5.197180e-02
14436=9.224708e-02
14447=1.788141e-01
14471=4.900592e-02
14473=4.367984e-01
14485=3.012093e-02
14499=2.958337e-01
14500=3.847430e-01
14501=4.453410e-03
14502=7.856562e-02
14510=-8.937410e-02
14513=-1.125604e-01
14521=2.760485e-02
14523=2.849428e-01
14525=9.562582e-01
14577=1.594916e-02
15150=2.064397e-01
15151=1.003136e-02
15152=6.552100e-02
15158=2.562798e-02
15160=-3.086783e-02
15171=3.553506e-02
15173=8.337758e-03
15800=8.447700e-03
15801=1.883322e-01
15802=-8.721440e-03
15803=-4.703531e-02
15804=1.026151e-01
15805=6.350485e-02
15806=-4.710534e-03
15807=6.155073e-06
15808=2.909392e-01
15809=1.680030e-01
15810=5.598816e-03
15811=-2.610909e-03
15813=-5.675524e-02
15814=2.388778e-02
15819=-1.826541e-02
15821=-3.120926e-02
15824=-3.125962e-02
15825=3.628035e-01
15851=4.407576e-01
15855=1.058806e-05
15864=4.720754e-02
15872=3.120614e-04
15877=1.037960e-01
15903=5.003697e-02
15904=1.164144e-02
15906=-1.040671e-02
15909=2.210335e-02
15910=5.968335e-03
15929=8.452190e-02
15945=5.059077e-02
15955=1.102311e-01
15956=4.982819e-02
15959=3.639369e-02
15979=-3.135817e-04
15984=7.100310e-02
16007=1.337575e-01
16029=9.182808e-03
16033=1.351621e-01
16059=7.946227e-02
16079=1.600273e-02
16085=5.990713e-02
16086=9.945323e-03
16104=8.499822e-02
16106=4.037937e-03
16111=4.116185e-02
16137=3.446244e-01
16150=1.425659e-02
16163=4.111129e-02
16189=2.104745e-01
16215=1.673639e-01
16241=5.663418e-03
16267=1.154033e-01
16293=7.188101e-02
16319=1.534421e-01
16334=1.537911e-02
16351=5.355582e-02
16371=1.311736e-01
16451=-2.943446e-02
16452=1.537054e-03
16453=4.532571e-02
16455=5.174667e-02
16457=6.415078e-02
16458=-2.769573e-03
16460=6.943882e-02
16461=4.256602e-02
16463=-6.963942e-02
16464=2.745655e-02
16465=2.301183e-04
16469=-4.791458e-05
16470=1.885070e-03
16473=1.805272e-03
16474=3.129873e-02
16475=1.068239e-01
16501=5.403466e-02
16502=1.964588e-03
16503=1.403089e-01
16505=-6.636951e-03
16507=1.145351e-01
16510=2.002372e-02
16511=2.070407e-05
16527=-3.551722e-02
16535=1.091887e-01
16553=9.243247e-02
16556=7.782092e-02
16559=9.675701e-02
16560=4.268550e-02
16579=1.189336e-01
16584=-6.765024e-03
16585=-1.461493e-02
16595=4.439241e-02
16597=6.096340e-02
16605=1.770444e-01
16606=9.827728e-02
16631=1.339675e-02
16657=5.139170e-02
16683=1.319021e-01
16687=1.949021e-02
16735=3.761392e-02
16761=1.727933e-01
16813=-7.511689e-03
16839=1.234536e-01
16865=7.704051e-02
16969=8.496287e-02
17035=5.521204e-01
17071=6.489849e-02
17099=2.954187e-01
17100=1.538905e-01
17102=4.953984e-02
17108=1.667292e-02
17121=1.565077e-02
17123=1.343813e-01
17125=-2.674051e-03
17138=6.802690e-03
17150=-1.039421e-01
17151=-1.410635e-01
17152=-3.042053e-03
17153=-8.746835e-02
17154=7.957497e-02
17155=-2.667732e-02
17156=1.331244e-01
17157=4.553105e-03
17158=-2.250405e-01
17159=1.728041e-01
17160=2.430949e-01
17161=3.035766e-01
17162=2.847250e-01
17163=3.074838e-02
17164=1.635552e-02
17165=1.458151e-03
17166=-1.988985e-02
17168=3.799840e-02
17169=-1.649382e-02
17170=2.983642e-02
17171=1.292354e-01
17173=-1.213366e-01
17174=-5.490457e-03
17175=2.588370e-01
17176=7.564911e-01
17178=8.767424e-04
17179=-1.855596e-01
17196=-1.558816e-02
17201=-3.343761e-01
17202=5.094829e-01
17203=2.552599e-01
17204=-1.016351e+00
17205=4.479185e-01
17206=-8.255806e-04
17207=5.217389e-01
17210=2.323124e-02
17211=8.399251e-02
17213=8.340976e-03
17214=1.839367e-01
17215=1.469699e-02
17226=2.676517e-01
17227=1.715662e-01
17228=1.267783e-01
17231=9.073512e-01
17241=4.540141e-03
17252=3.668018e-02
17253=-1.033630e-02
17254=-3.375839e-03
17256=1.371257e-01
17259=9.702651e-02
17260=1.109336e-01
17261=1.685826e-01
17276=1.618855e-01
17279=-6.713240e-02
17284=6.196709e-01
17285=-8.142633e-02
17294=-5.852151e-02
17295=2.384447e-02
17297=8.157461e-02
17299=4.421576e-02
17304=2.074465e-02
17305=-1.973224e-02
17306=2.049070e-01
17309=5.406429e-02
17310=-2.210963e-02
17331=2.155244e-01
17334=6.804426e-02
17358=2.939444e-01
17376=6.432762e-01
17379=8.104324e-02
17383=-1.459639e-01
17385=1.677874e-03
17387=1.056053e-02
17404=2.440307e-02
17409=-9.608372e-02
17410=1.160246e-04
17418=6.078591e-03
17429=1.367834e-01
17435=2.036536e-04
17436=5.965081e-01
17454=6.349560e-02
17459=1.319785e-01
17460=1.833753e-01
17461=-6.527258e-01
17467=2.159327e-02
17487=1.219143e-01
17513=2.690654e-02
17535=9.373672e-02
17536=2.792754e-02
17565=1.955521e-01
17569=2.131200e-02
17643=7.702151e-02
17662=5.486338e-02
17669=3.116251e-02
17684=2.442883e-02
17695=1.837682e-01
17701=1.408388e-02
17721=6.434969e-01
17735=8.376009e-02
17736=1.298964e-01
17771=4.693882e-02
17773=4.740792e-01
17785=3.989257e-02
17800=-6.027043e-02
17801=2.681815e-02
17802=-4.342069e-02
17803=1.397156e-02
17805=4.916156e-03
17808=5.093654e-02
17810=9.262054e-02
17811=-3.752012e-03
17813=2.069847e-02
17816=3.879324e-04
17821=-1.628736e-03
17825=6.634701e-05
17853=-2.795995e-05
17860=3.764916e-01
17903=4.869199e-02
17930=3.924429e-05
17955=-5.076301e-03
18033=4.672822e-02
18085=2.736367e-01
18111=2.471486e-02
18163=3.260021e-01
18241=4.310544e-03
18351=4.349206e-02
18461=-3.197754e-01
18463=2.361930e-02
18466=3.208547e-03
18510=1.275952e-01
18813=4.635313e-02
18891=5.230139e-03
19100=-4.652289e-02
19101=1.538476e-02
19102=-3.066472e-02
19103=-8.105569e-02
19104=3.195250e-03
19105=8.875556e-02
19107=7.184646e-02
19108=-1.778412e-01
19110=1.966452e-01
19111=1.879699e-01
19112=1.063730e-01
19113=3.288005e-02
19114=6.977970e-03
19115=-1.168890e-01
19118=8.802349e-02
19121=-6.497604e-02
19124=-4.039360e-04
19125=5.466905e-02
19126=5.154698e-01
19129=7.659444e-02
19151=-1.941563e+00
19152=2.255893e-02
19153=1.884980e-01
19154=-4.116601e-02
19155=2.163074e-01
19157=4.202403e-02
19160=2.340719e-01
19161=2.359064e-01
19162=8.222994e-02
19163=3.324823e-03
19164=5.301561e-02
19172=3.061993e-03
19177=8.706271e-02
19181=4.096014e-01
19185=3.860637e-02
19203=-7.272529e-03
19210=4.518053e-02
19211=5.346842e-01
19226=1.798257e-01
19230=6.318761e-06
19235=-3.311728e-02
19238=7.014975e-02
19255=1.018750e-01
19256=-9.535923e-03
19262=4.777159e-03
19281=3.710353e-01
19289=4.143510e-02
19307=6.135867e-02
19329=1.260890e-02
19338=2.404006e-01
19363=8.429967e-02
19385=-7.862780e-01
19410=-3.126347e-02
19411=-2.837090e-02
19463=-9.102128e-02
19485=1.310417e-01
19519=8.280804e-02
19535=5.246438e-03
19645=1.621265e-01
19651=7.195469e-02
19654=6.396262e-02
19671=2.992265e-02
19685=1.333117e+00
19750=5.251919e-02
19751=-3.354630e-02
19752=8.384520e-03
19753=-2.975471e-02
19755=1.927131e-03
19756=3.937441e-02
19757=4.681906e-02
19758=-6.612093e-03
19760=1.450139e-02
19761=8.381875e-02
19763=1.875201e-02
19765=-6.071129e-07
19769=-4.853414e-02
19771=2.691109e-04
19773=3.253593e-02
19775=1.622435e-01
19776=-7.445306e-01
19801=1.802819e-01
19804=6.370057e-02
19810=5.215799e-03
19827=1.893517e-01
19853=1.559083e-01
19854=-1.498387e-02
19856=1.133144e-02
19860=-7.600449e-04
19885=-2.300731e-02
19905=1.360021e-01
19906=1.919646e-02
19931=1.202784e-01
19957=1.564087e-01
19960=9.152154e-03
19983=9.712448e-02
19985=1.338345e-04
19987=2.083407e-02
20035=6.261659e-02
20054=1.098564e-01
20060=2.601414e-02
20061=2.198197e-01
20113=1.316783e-01
20135=-1.246829e-03
20139=6.633709e-02
20165=9.618832e-02
20295=1.423480e-01
20321=8.130378e-02
20347=6.755216e-02
20373=3.605607e-01
20385=4.380765e-02
20399=5.705656e-02
20400=-6.027043e-02
20401=2.681815e-02
20402=-4.342069e-02
20403=1.397156e-02
20405=4.916156e-03
20408=5.093654e-02
20410=9.262054e-02
20411=-3.752012e-03
20413=2.069847e-02
20416=3.879324e-04
20421=-1.628736e-03
20425=6.634701e-05
20453=-2.795995e-05
20460=3.764916e-01
20503=4.869199e-02
20530=3.924429e-05
20555=-5.076301e-03
20633=4.672822e-02
20685=2.736367e-01
20711=2.471486e-02
20763=3.260021e-01
20841=4.310544e-03
20951=4.349206e-02
21050=5.251919e-02
21051=-3.354630e-02
21052=8.384520e-03
21053=-2.975471e-02
21055=1.927131e-03
21056=3.937441e-02
21057=4.681906e-02
21058=-6.612093e-03
21060=1.450139e-02
21061=8.381875e-02
21063=1.875201e-02
21065=-6.071129e-07
21069=-4.853414e-02
21071=2.691109e-04
21073=3.253593e-02
21075=1.622435e-01
21076=-7.445306e-01
21101=1.802819e-01
21104=6.370057e-02
21110=5.215799e-03
21127=1.893517e-01
21153=1.559083e-01
21154=-1.498387e-02
21156=1.133144e-02
21160=-7.600449e-04
21185=-2.300731e-02
21205=1.360021e-01
21206=1.919646e-02
21231=1.202784e-01
21257=1.564087e-01
21260=9.152154e-03
21283=9.712448e-02
21285=1.338345e-04
21287=2.083407e-02
21335=6.261659e-02
21354=1.098564e-01
21360=2.601414e-02
21361=2.198197e-01
21413=1.316783e-01
21435=-1.246829e-03
21439=6.633709e-02
21465=9.618832e-02
21595=1.423480e-01
21621=8.130378e-02
21647=6.755216e-02
21673=3.605607e-01
21685=4.380765e-02
21699=5.705656e-02
21700=1.528211e-01
21701=1.183861e-04
21702=1.606097e-01
21703=-9.170756e-02
21705=-1.188724e-04
21711=-5.508312e-02
21713=-8.601205e-02
21723=1.863840e-03
21725=3.990744e-01
21726=-6.350525e-04
21729=1.330205e-01
21751=1.221284e+00
21755=-2.895926e-03
21777=4.741539e-01
21855=7.508722e-01
21883=3.806209e-02
22115=5.403962e-03
22271=7.214975e-02
22323=1.850500e-01
22350=-7.591819e-03
22351=9.727667e-02
22352=-3.012245e-02
22353=6.721668e-02
22354=-3.772641e-04
22355=8.233021e-02
22357=-2.334677e-02
22358=1.678183e-01
22359=-3.091733e-01
22360=1.616843e-01
22361=2.274712e-01
22363=1.519588e-02
22364=-3.546486e-02
22365=3.403738e-02
22366=-2.022152e-03
22369=4.287977e-02
22371=6.869430e-02
22373=8.227402e-03
22374=5.937804e-02
22375=2.665154e-01
22376=1.805101e-01
22378=1.474633e-03
22401=7.041281e-02
22403=6.381740e-03
22405=4.583539e-02
22407=6.121156e-02
22408=-2.846670e-02
22410=8.313696e-03
22411=1.762540e-03
22415=1.153145e-02
22426=4.825141e-02
22427=4.078764e-02
22428=1.483759e-01
22453=1.721913e-01
22460=1.642423e-01
22476=1.151417e-01
22479=1.695688e-01
22480=2.443348e-05
22485=-5.991160e-02
22488=8.739572e-02
22499=4.620585e-02
22505=2.599479e-01
22509=1.602923e-03
22510=-6.565949e-02
22512=7.896247e-05
22513=-1.468575e-01
22539=3.606235e-02
22556=4.012398e-04
22557=1.119901e-01
22558=1.424135e-01
22582=5.886781e-05
22583=4.024221e-01
22610=2.699269e-01
22613=1.088779e-03
22629=6.293249e-05
22635=-8.712618e-02
22636=1.543576e-01
22660=6.885071e-02
22661=2.314336e-01
22710=-5.414894e-02
22713=1.349157e-01
22735=3.731794e-02
22736=1.385698e-02
22765=2.160128e-01
22769=6.089516e-02
22785=4.002992e-05
22791=3.144664e-01
22869=1.725240e-01
22901=9.295786e-02
22921=2.353633e-01
22935=6.380062e-02
22936=8.996918e-02
22973=2.654869e-01
22985=2.535315e-02
22999=1.894524e-01
23000=3.871798e-02
23001=2.448781e-03
23002=1.020662e-01
23008=-9.281962e-02
23013=7.124250e-03
23021=3.202443e-02
23023=1.076426e-02
23025=1.848241e-01
23077=8.375412e-02
23103=1.727798e-02
23126=7.469153e-03
23206=5.996845e-03
23363=4.680793e-02
23415=6.662524e-05
23650=5.808844e-02
23651=3.093920e-02
23652=9.862081e-02
23653=-4.418705e-02
23655=-2.789244e-02
23663=-5.724302e-03
23671=2.893278e-02
23673=1.072272e-01
23675=2.849797e-01
23676=9.661852e-03
23701=4.114624e-02
23705=-1.364889e-05
23727=2.687580e-01
23833=3.378963e-02
23883=-3.140069e-03
23936=2.371188e-02
24013=2.729004e-03
24065=3.053058e-02
24221=7.465349e-02
24273=2.126605e-01
24300=6.312406e-02
24302=4.948178e-02
24308=-2.671972e-02
24321=4.348512e-02
24323=2.498627e-02
24325=1.001849e-01
24403=9.221544e-03
24506=6.438674e-03
24715=5.132207e-03
24950=-2.283042e-02
24952=3.274036e-02
24953=1.884628e-01
24954=4.723686e-02
24955=1.700089e-01
24956=9.454782e-02
24957=7.469096e-02
24958=3.491899e-02
24959=-9.074505e-01
24960=1.406289e-02
24961=1.500040e-01
24962=1.036767e-02
24963=5.777622e-02
24964=7.522600e-03
24965=2.315926e-02
24966=-3.163512e-04
24969=-1.241723e-02
24974=6.350469e-02
24975=3.892687e-01
24976=-7.732352e-04
24977=-4.095075e-01
24979=8.868996e-03
24985=-5.418182e-02
24996=-2.097483e-02
25000=-2.405175e-01
25001=3.003123e-01
25002=2.401758e-03
25005=7.487688e-02
25006=-1.152479e-01
25007=2.458681e-04
25008=-1.269565e-01
25010=-5.961073e-02
25011=7.312486e-04
25014=7.900137e-02
25019=-1.863412e-01
25022=6.524217e-04
25024=-7.029543e-03
25025=-8.870001e-03
25026=2.803230e-02
25027=7.117394e-01
25028=2.816903e-02
25038=-6.006362e-02
25041=1.090530e-03
25050=-7.947608e-02
25051=-2.514767e-01
25053=3.044289e-01
25054=-2.746550e-02
25055=-3.373004e-01
25056=7.962737e-02
25057=-5.648944e-02
25058=-1.696373e-01
25059=1.275223e-01
25060=2.485358e-02
25061=-2.622662e-02
25063=-9.976309e-03
25065=-2.541825e-03
25079=3.716808e-01
25099=4.365949e-02
25101=-3.968977e-02
25103=-4.000315e-01
25105=4.243256e-01
25106=2.569651e-01
25108=-1.127593e-01
25110=-7.809476e-02
25131=8.147742e-01
25133=3.989649e-03
25134=-1.357553e-01
25157=3.876557e-01
25175=-4.199830e-02
25178=-1.303354e-01
25179=7.484449e-02
25182=9.048168e-06
25183=3.646510e-01
25186=-1.939727e-01
25187=5.673799e-03
25229=3.401090e-02
25235=2.966324e-01
25236=1.370207e-01
25253=-8.370065e-02
25254=4.789811e-02
25258=-8.217323e-02
25259=8.246735e-02
25260=1.106368e-02
25261=2.755815e-01
25287=1.828639e-01
25301=-5.774948e-02
25303=-2.986491e-01
25310=-1.079227e-01
25311=-3.872749e-02
25313=4.748584e-01
25335=8.984472e-02
25339=1.161075e-01
25365=4.811811e-01
25391=4.876696e-01
25417=1.458800e-01
25443=7.994547e-02
25462=4.522342e-03
25469=3.208920e-01
25495=1.879229e-01
25501=1.490105e-02
25521=4.163799e-01
25535=6.855875e-02
25536=9.158630e-02
25547=1.792153e-01
25571=4.741792e-02
25573=4.337108e-01
25585=3.105163e-02
25599=2.896017e-01
25600=-3.470181e-02
25601=1.656736e-01
25602=-1.455533e-02
25603=1.350752e-01
25604=1.165892e-01
25605=-5.723036e-02
25606=9.236700e-02
25607=1.652614e-01
25608=-5.138185e-02
25609=9.005133e-02
25610=-5.200797e-03
25611=-1.048312e+00
25612=2.295927e-04
25613=2.735795e-02
25614=2.029636e-02
25615=2.522308e-03
25616=1.592866e-02
25619=1.119047e-01
25622=1.200915e-02
25623=-6.760578e-02
25624=-4.787511e-02
25625=1.373896e-01
25626=4.074849e-02
25627=1.613310e-01
25628=-1.731402e-01
25629=1.161277e-01
25630=-1.565764e-01
25631=1.311838e-01
25632=1.567399e-01
25633=-8.255267e-02
25634=7.758009e-02
25635=2.518767e-01
25636=3.493558e-01
25637=1.570097e-04
25638=1.387010e-01
25639=1.163048e-01
25640=-3.853091e-02
25641=1.663823e-03
25644=7.728345e-02
25645=2.707899e-03
25646=4.681872e-02
25647=1.758619e-02
25648=4.145563e-04
25649=-2.970835e-02
25650=-3.474023e-02
25651=1.278490e-01
25652=2.852990e-02
25654=7.254219e-02
25655=7.859436e-02
25656=2.321639e-02
25657=1.083629e-01
25658=8.277951e-02
25659=5.408783e-02
25660=7.424506e-02
25661=1.255753e-01
25662=1.309081e-02
25663=1.445896e-01
25664=3.500772e-02
25665=1.210074e-03
25666=3.764440e-03
25669=1.334378e-01
25671=-2.086486e-02
25672=1.558608e-02
25673=-1.099500e-01
25674=1.486426e-03
25675=4.575928e-01
25676=9.983982e-02
25677=-4.551686e-01
25679=4.344671e-02
25683=-5.852365e-02
25685=-2.944470e-02
25696=-2.371904e-02
25700=-2.369710e-01
25701=4.959670e-01
25702=2.513988e-02
25703=1.511800e-03
25704=-7.033761e-02
25705=7.737718e-02
25706=-1.521535e-01
25707=3.431287e-02
25708=-1.514316e-01
25709=-3.497261e-03
25710=5.133443e-03
25711=-9.385956e-03
25714=7.239877e-02
25719=7.494477e-05
25722=3.020510e-05
25726=-2.896203e-01
25727=5.113660e-01
25728=-1.342333e+00
25729=-6.775801e-01
25750=-8.385914e-02
25751=-2.577290e-01
25753=3.207014e-01
25754=-4.330473e-02
25755=-3.446929e-01
25756=3.209566e-02
25757=-5.579856e-03
25758=-1.797326e-01
25759=7.234184e-02
25760=8.522443e-02
25763=-8.210951e-02
25775=-6.435243e-02
25776=7.811617e-02
25778=-5.870794e-02
25779=2.512153e-01
25785=-1.217378e-01
25794=-1.416588e-01
25795=8.651583e-03
25797=6.896147e-02
25799=1.922208e-02
25801=-6.599839e-04
25803=-2.321884e-01
25805=4.039208e-01
25806=2.115196e-01
25808=-1.226570e-01
25809=1.039012e-01
25810=-1.173352e-01
25829=1.065755e-02
25831=3.620469e-01
25834=1.196885e-01
25839=7.243372e-04
25853=-8.648387e-02
25857=5.876520e-01
25858=2.964357e-04
25875=-4.776441e-02
25878=-1.207625e-01
25879=2.989547e-02
25882=8.968443e-06
25883=3.629717e-01
25886=-2.060562e-01
25887=4.579359e-03
25904=1.191267e-02
25909=1.448968e-01
25918=4.815643e-06
25929=4.867065e-02
25935=2.994203e-01
25936=1.197250e-01
25953=-8.730327e-02
25954=3.711313e-02
25958=-9.002164e-02
25959=8.388015e-02
25960=9.698394e-03
25961=2.742339e-01
25987=9.476630e-02
26000=-1.546823e-01
26001=-6.431908e-02
26004=-1.220093e-02
26005=-1.906804e-01
26010=-1.205590e-01
26011=-4.439987e-02
26013=4.472813e-01
26039=4.815768e-01
26065=4.629855e-01
26091=4.089039e-01
26117=1.534894e-01
26143=8.291811e-02
26162=5.180220e-02
26169=5.718664e-01
26184=2.582185e-02
26195=1.994345e-01
26201=8.086739e-04
26221=4.151600e-01
26235=5.711782e-02
26236=1.111504e-01
26247=1.777803e-01
26271=1.970167e-02
26273=4.577658e-01
26285=4.058200e-02
26299=3.160943e-01
26300=-3.181488e-02
26301=-1.201324e-01
26302=-6.138197e-03
26303=-9.184841e-02
26305=8.825617e-02
26307=5.070554e-02
26308=-1.412994e-01
26310=2.469159e-03
26311=6.224868e-01
26312=2.123187e-01
26313=7.109218e-02
26314=1.212353e-02
26315=-4.311921e-02
26318=3.467275e-02
26321=-5.607757e-02
26325=4.408887e-02
26326=4.689915e-01
26329=1.373734e-01
26351=-1.468936e+00
26352=1.257028e-01
26353=1.638680e-01
26354=-3.464654e-02
26355=1.880246e-01
26357=1.934924e-02
26360=2.616606e-01
26361=2.462309e-01
26362=8.119456e-02
26363=2.784752e-02
26364=1.259891e-01
26372=2.476288e-03
26377=8.264162e-02
26381=4.147496e-01
26385=3.332790e-02
26410=2.325918e-01
26411=5.463505e-01
26430=9.025280e-03
26435=-9.532266e-02
26438=1.500792e+00
26455=1.359582e-01
26462=4.828069e-03
26481=3.544156e-01
26489=3.543396e-02
26507=6.187145e-02
26529=8.845170e-02
26538=2.430592e-01
26563=8.486922e-02
26568=9.060961e-03
26585=-2.775514e-01
26610=-2.921835e-02
26611=-3.176315e-02
26663=-1.686534e-01
26685=2.067337e-01
26719=7.187294e-02
26735=3.553982e-03
26845=1.422774e-01
26851=4.552845e-02
26871=3.583160e-02
26950=4.331856e-02
26951=-2.158514e-02
26952=-4.827603e-03
26953=2.541811e-02
26955=2.220741e-04
26956=3.550641e-03
26957=4.704767e-02
26958=-1.476299e-02
26960=1.849005e-01
26961=4.334677e-02
26962=6.849408e-04
26963=-2.463640e-02
26964=-1.475381e-03
26965=-1.278395e-04
26969=-2.394761e-04
26971=4.694982e-03
26973=3.330598e-02
26975=1.342986e-01
27001=3.638814e-02
27004=7.084137e-02
27010=3.657314e-02
27027=4.982309e-02
27053=1.973809e-01
27054=-6.905643e-02
27056=1.117718e-02
27060=-4.781756e-03
27079=1.487400e-02
27085=-2.952116e-02
27105=1.247330e-01
27106=5.117648e-03
27112=5.755463e-05
27134=1.719353e-01
27157=4.077852e-01
27183=7.582955e-02
27187=6.081573e-03
27209=1.760976e-01
27235=3.627690e-01
27254=2.524654e-02
27260=1.256470e-04
27261=9.402768e-02
27313=3.767936e-02
27335=4.673864e-02
27339=4.966485e-02
27365=7.038052e-02
27385=4.543844e-03
27469=8.633720e-02
27495=1.487965e-01
27521=8.330051e-02
27547=7.127292e-02
27573=2.274623e-01
27585=4.310327e-02
27599=5.981505e-02
27600=-1.187975e-02
27601=1.648152e-01
27602=-1.994502e-05
27603=-4.638229e-02
27604=1.298905e-01
27605=1.987687e-02
27606=-1.219622e-01
27608=-5.442101e-04
27609=9.087870e-05
27611=9.869697e-03
27612=1.926768e-04
27613=-9.978106e-04
27619=-1.849238e-05
27621=2.974410e-02
27623=-2.577470e-03
27625=1.535350e-01
27629=-2.087703e-03
27651=2.431581e-01
27660=-6.579253e-01
27662=3.120531e-03
27677=1.346044e-01
27703=2.479067e-02
27706=2.958278e-03
27709=-6.665668e-03
27729=1.076696e-01
27732=4.631213e-03
27734=1.388827e-01
27755=5.799456e-02
27756=2.970077e-01
27759=7.813875e-03
27762=1.093151e-04
27763=1.317317e-01
27779=3.405644e-02
27781=-6.436357e-02
27784=-9.338830e-03
27789=3.599327e-02
27833=3.235279e-02
27885=4.203928e-02
27886=3.892470e-01
27894=7.794323e-03
27910=3.199625e-03
27911=8.631814e-02
27917=2.112528e-02
27959=3.200041e-03
27963=4.140725e-02
27989=5.525698e-02
28119=5.110968e-02
28134=3.221384e-02
28145=1.499684e-01
28151=7.335143e-02
28171=4.197836e-01
28235=5.959314e-02
28250=9.037468e-02
28251=-2.596543e-05
28252=1.402080e-01
28253=-2.995242e-06
28255=9.612765e-04
28263=-1.626242e-02
28265=4.154121e-04
28276=5.030051e-03
28278=2.841439e-03
28280=1.040726e-05
28283=-3.451366e-04
28288=-5.536327e-03
28289=2.399800e-02
28294=4.181752e-04
28300=-3.313450e-05
28303=1.575674e-02
28326=3.641810e-03
28328=-9.082061e-02
28339=4.723939e-02
28378=1.540482e-02
28385=1.172159e-02
28430=1.014037e-02
28482=1.000628e-01
28508=-5.372014e-05
28544=6.270132e-02
28625=1.470663e-03
28638=-8.008064e-03
28794=-1.644483e-02
28950=-2.409021e-05
29275=1.932837e-03
29600=-1.200702e-03
29925=2.163745e-03
30250=-1.200702e-03
30575=2.163745e-03
30875=-9.366542e-04
30876=-7.216055e-02
30877=-3.782505e-03
30878=-5.065174e-02
30879=3.945783e-01
30880=-1.403366e-01
30881=1.708007e-01
30883=-9.230899e-03
30884=7.853499e-02
30885=5.285967e-01
30886=-1.882367e-01
30888=2.327883e-03
30890=-7.844219e-04
30894=2.847843e-03
30896=5.911685e-02
30898=1.136096e-03
30900=1.715485e-01
30901=8.665538e-02
30903=1.970878e-01
30904=-1.963171e-02
30926=-5.030292e-01
30927=1.559486e-01
30928=2.449827e-01
30930=5.132413e-01
30932=2.428182e-01
30935=-2.794668e-01
30951=1.261001e-01
30952=-3.223589e-02
30953=2.435699e-01
30966=1.927116e-02
30977=2.170729e-01
30978=-2.994541e-01
30979=3.691145e-03
30981=1.908096e-01
30984=1.194975e-01
30985=7.405138e-02
31004=-5.602582e-02
31020=5.105781e-02
31022=2.578892e-01
31024=4.480452e-02
31029=2.899528e-02
31030=-1.178612e-01
31031=2.797839e-01
31034=4.501719e-02
31036=7.813936e-03
31038=9.431511e-02
31054=7.384509e-04
31056=-9.120431e-04
31059=1.128332e-01
31079=1.725177e-02
31082=-7.812372e-01
31083=4.311007e-01
31085=2.596941e-03
31104=1.522796e-05
31108=-7.236411e-02
31110=4.653889e-01
31112=2.239340e-02
31129=4.855231e-01
31134=-1.195138e-01
31154=8.696285e-01
31159=-2.639613e-01
31160=2.237006e-01
31161=-1.301859e+00
31169=2.240364e-03
31179=1.167825e-01
31184=4.607869e-02
31185=9.191769e-01
31186=-2.040710e-01
31238=4.939538e-02
31261=3.215624e-02
31290=3.905638e-01
31394=5.711380e-02
31409=1.508149e-02
31446=1.839155e-01
31461=3.901017e-01
31496=5.907472e-02
31498=3.566025e-01
31510=3.426884e-02
31550=-1.205238e-03
31627=1.198791e-01
31875=2.149081e-03
32200=-1.200702e-03
32525=2.163745e-03
32850=-1.200702e-03
33175=2.163745e-03
33476=5.030051e-03
33478=2.841439e-03
33480=1.040726e-05
33483=-3.451366e-04
33488=-5.536327e-03
33489=2.399800e-02
33494=4.181752e-04
33500=-3.313450e-05
33503=1.575674e-02
33526=3.641810e-03
33528=-9.082061e-02
33539=4.723939e-02
33578=1.540482e-02
33585=1.172159e-02
33630=1.014037e-02
33682=1.000628e-01
33708=-5.372014e-05
33744=6.270132e-02
33825=1.470663e-03
33838=-8.008064e-03
33994=-1.644483e-02
34125=-2.135138e-01
34126=1.727346e-02
34127=-1.915092e-02
34128=9.811012e-02
34129=9.016776e-02
34130=-2.958875e-02
34131=1.756987e-01
34132=1.086149e-01
34133=3.493339e-02
34134=-8.299405e-04
34135=1.568935e-01
34136=1.430444e-01
34138=6.131403e-02
34139=1.254694e-02
34140=5.505283e-02
34141=-2.732532e-03
34144=1.055403e-01
34145=-2.328164e-02
34148=-5.539720e-02
34149=5.896349e-02
34150=1.175170e-01
34151=2.536054e-01
34153=1.569278e-02
34176=1.033806e-01
34177=1.967490e-01
34178=5.005817e-03
34179=-3.334611e-02
34180=2.024231e-02
34183=-1.509651e-01
34185=-2.867039e-03
34186=1.324465e-01
34189=4.468826e-02
34190=1.935579e-02
34197=1.616259e-02
34201=3.507302e-02
34202=5.041790e-02
34203=-1.501818e-04
34210=1.175630e-02
34216=3.656553e-03
34228=2.246152e-01
34229=-1.093510e-03
34231=9.797063e-02
34234=2.627090e-02
34235=8.530408e-03
34244=-1.952904e-02
34254=4.853070e-01
34274=4.877086e-02
34280=1.536223e-01
34281=2.589370e-01
34284=1.374863e-03
34285=-4.177606e-04
34306=4.472967e-02
34332=2.918978e-01
34353=-2.350420e-02
34354=9.066410e-02
34357=8.056120e-05
34358=2.717605e-01
34361=-4.224928e-02
34362=1.898914e-02
34410=4.237132e-01
34411=7.039627e-02
34419=1.129406e-04
34429=8.396173e-02
34435=6.897380e-02
34436=1.752609e-01
34442=2.305892e-02
34462=1.348776e-02
34485=-4.298349e-02
34488=2.323488e-01
34514=5.290147e-02
34540=3.685773e-01
34566=1.339830e-01
34644=5.399080e-01
34679=3.792207e-02
34696=1.631775e-01
34746=5.705601e-02
34748=1.736775e-01
34760=4.079955e-02
34774=1.881932e-01
34775=-6.850163e-03
34776=-4.089247e-03
34777=1.369126e-01
34781=6.647620e-04
34783=-2.240095e-02
34796=6.144057e-02
34798=1.014109e-01
34800=1.406594e-01
34826=-1.135787e-04
34852=7.753780e-02
34877=1.504589e-02
34956=5.015683e-03
35127=1.405123e-02
35190=3.421684e-04
35346=7.450706e-02
35398=2.361868e-01
35425=1.231660e-01
35426=2.664548e-02
35427=1.054571e-01
35428=-2.324153e-05
35433=7.485022e-02
35434=-2.036496e-02
35435=-1.229016e-01
35446=5.011189e-02
35448=1.526689e-01
35450=3.692596e-01
35451=7.438524e-02
35454=8.992710e-02
35501=2.712752e-03
35502=2.578577e-01
35554=6.198854e-02
35658=3.009607e-01
35996=1.654748e-01
36029=1.044057e-02
36048=9.502083e-01
36075=-8.429002e-04
36076=-2.624148e-02
36077=2.238411e-02
36078=-3.671391e-02
36079=3.432612e-01
36080=-2.818714e-01
36081=1.574591e-01
36082=-8.639993e-01
36083=-1.341693e-02
36084=1.090585e-01
36085=1.313906e-01
36086=4.107037e-02
36088=-2.221944e-03
36090=2.555565e-04
36096=6.631374e-03
36098=6.470119e-03
36100=1.792538e-01
36103=2.260755e-02
36104=-1.549171e-02
36126=1.364073e-02
36135=-2.533322e-01
36136=3.664642e-05
36151=5.960975e-02
36152=1.358289e-02
36166=1.984985e-02
36179=6.992426e-02
36181=1.631235e-01
36184=1.009520e-01
36185=1.754524e-02
36204=-3.703583e-02
36220=5.204104e-02
36222=2.701695e-01
36224=4.564265e-02
36229=2.997403e-02
36230=-1.730470e-01
36231=2.559715e-01
36234=5.494772e-02
36236=7.185823e-03
36238=9.177280e-02
36258=6.954791e-03
36259=3.105458e-02
36279=7.046356e-02
36282=-8.042218e-01
36283=4.444925e-01
36285=3.446774e-03
36304=3.858601e-02
36308=-9.241203e-02
36310=2.243489e-01
36312=6.812112e-03
36329=8.350412e-01
36354=1.332306e-01
36359=-2.676798e-01
36360=6.038681e-02
36361=7.454719e-01
36369=3.964970e-05
36379=1.725541e-01
36384=4.698969e-02
36385=9.090113e-01
36386=-6.235147e-01
36412=2.707579e-01
36438=2.488206e-02
36461=3.319083e-02
36490=1.342437e-01
36568=7.572285e-02
36594=5.259662e-02
36609=1.554089e-02
36646=2.927483e-01
36661=1.450698e-01
36698=3.575403e-01
36710=3.431268e-02
36725=9.925732e-02
36726=-2.097317e-04
36727=2.292001e-02
36738=-3.588736e-02
36750=-3.850544e-02
36751=3.697498e-02
36752=-2.857651e-03
36753=4.057670e-02
36755=1.647345e-02
36758=3.568588e-04
36761=-1.711812e-04
36762=1.072138e-02
36763=5.042054e-02
36764=7.865293e-02
36765=-1.869415e-04
36766=3.369969e-03
36769=6.472051e-03
36772=2.473340e-02
36775=3.663000e-02
36776=6.183531e-02
36801=1.497969e-01
36803=-4.495158e-02
36804=4.673768e-02
36805=-8.838386e-04
36807=1.473550e-02
36812=3.790471e-03
36814=6.199354e-02
36827=5.822870e-02
36828=8.016401e-02
36841=2.199058e-03
36853=1.839948e-01
36856=-7.027366e-02
36897=6.298462e-02
36905=1.133779e-01
36906=4.824248e-05
36912=2.763524e-03
36958=2.447326e-05
36983=4.677471e-04
36988=1.238671e-01
37038=9.874343e-02
37061=1.553996e-01
37105=3.773407e-03
37108=3.850058e-02
37113=-6.026919e-03
37135=2.751922e-02
37169=9.540226e-02
37269=1.030177e-01
37295=1.898791e-01
37321=5.199891e-02
37399=6.694604e-02
37400=1.685748e-02
37402=1.044757e-03
37403=-4.910480e-02
37414=4.124193e-02
37477=5.635892e-02
37589=4.255142e-02
38054=6.756110e-03
38127=-6.698952e-04
38704=5.787496e-03
39350=1.685748e-02
39352=1.044757e-03
39353=-4.910480e-02
39364=4.124193e-02
39427=5.635892e-02
39539=4.255142e-02
40000=-3.968427e-02
40001=3.658544e-02
40002=2.790218e-04
40003=5.534975e-02
40005=8.770754e-03
40008=9.138625e-04
40011=-5.899310e-04
40013=6.925160e-02
40014=7.887597e-02
40016=3.356414e-03
40019=1.145316e-05
40022=2.507218e-02
40025=2.469918e-02
40026=-3.140087e-05
40051=1.505202e-01
40053=-4.370488e-02
40054=9.298006e-02
40055=-6.196383e-03
40060=-2.914341e-02
40064=6.314567e-02
40077=9.127420e-02
40078=7.975253e-02
40091=2.183757e-03
40103=2.083800e-01
40106=-7.138623e-02
40147=6.305788e-02
40155=1.025707e-01
40156=8.447052e-05
40163=1.853129e-06
40208=2.441313e-05
40233=9.461030e-04
40238=1.250779e-01
40288=9.914182e-02
40311=1.917610e-01
40355=3.768176e-03
40358=3.856205e-02
40363=1.008409e-02
40385=2.764368e-02
40419=9.638269e-02
40519=-4.472096e-03
40545=1.899966e-01
40571=5.202423e-02
40649=6.699029e-02
40650=-4.596407e-02
40651=1.112152e-02
