#mdl#2#13405
#rdr#52/23/0
1:*,
18:u:Tok-1 X=%x[ 0,0],
18:u:tok-1 X=%x[ 0,1],
18:u:tok-1LL=%X[-2,0],
18:u:tok-1 L=%X[-1,0],
18:u:tok-1 R=%X[ 1,0],
18:u:tok-1RR=%X[ 2,0],
27:u:tok-2 L=%X[-1,0]/%X[ 0,0],
27:u:tok-2 R=%X[ 0,0]/%X[ 1,0],
18:*:Fst-1 X=%x[ 0,2],
18:*:Fst-1 R=%x[ 1,2],
18:*:Lst-1 L=%x[-1,3],
18:*:Lst-1 X=%x[ 0,3],
18:*:Pre-1 X=%x[ 0,4],
18:*:Pre-2 X=%x[ 0,5],
18:u:Pre-3 X=%x[ 0,6],
18:u:Pre-4 X=%x[ 0,7],
18:*:Suf-1 L=%x[-1,8],
18:*:Suf-1 X=%x[ 0,8],
18:*:Suf-2 L=%x[-1,9],
18:*:Suf-2 X=%x[ 0,9],
19:u:Suf-3 X=%x[ 0,10],
19:u:Suf-4 X=%x[ 0,11],
27:*:Fst-2 X=%x[ 0,2]/%x[ 0,4],
27:*:Lst-2 X=%x[ 0,3]/%x[ 0,8],
19:u:Cap-1 L=%x[-1,12],
19:*:Cap-1 X=%x[ 0,12],
19:u:Cap-1 R=%x[ 1,12],
29:u:Cap-2 L=%X[-1,12]/%X[ 0,12],
29:u:Cap-2 R=%X[ 0,12]/%X[ 1,12],
29:u:Cap-3 X=%X[ 0,12]/%X[-1,22],
19:u:Num-1 L=%x[-1,13],
19:*:Num-1 X=%x[ 0,13],
19:u:Num-1 R=%x[ 1,13],
29:u:Num-2 L=%x[ 0,13]/%x[-1,22],
19:u:Nme-1 X=%x[ 0,14],
19:u:Loc-1 X=%x[ 0,15],
19:u:Pub-1 X=%x[ 0,16],
19:u:Jnl-1 X=%x[ 0,17],
19:*:Key-1 X=%x[ 0,18],
29:u:Key-2 X=%x[ 0,18]/%x[ 0,12],
29:u:Key-3 X=%x[ 0,18]/%x[-1,22],
19:u:Pos-1 X=%x[ 0,19],
19:*:Pct-1 X=%x[ 0,20],
19:*:Brk-1 X=%x[ 0,21],
19:u:Tmn-1 L=%x[-1,22],
19:*:Tmn-1 X=%x[ 0,22],
19:u:Tmn-1 R=%x[ 1,22],
28:u:Tmn-2 X=%x[ 0,22]/%x[ 0,8],
28:u:Tmn-3 X=%x[ 0,22]/%x[ 0,9],
29:u:Tmn-4 R=%x[ 0,22]/%x[ 1,12],
19:u:Id--1 X=%x[ 0,23],
#qrk#24
6:author,
5:title,
6:editor,
15:container-title,
4:date,
7:journal,
6:volume,
5:genre,
9:publisher,
5:pages,
8:location,
3:url,
16:collection-title,
4:note,
7:edition,
6:source,
10:translator,
4:isbn,
3:doi,
8:accessed,
8:director,
6:medium,
8:producer,
15:citation-number,
#qrk#3698
1:*,
11:u:tok-1 X=a,
14:u:tok-1LL=_x-2,
14:u:tok-1 L=_x-1,
12:u:tok-1RR=r.,
12:*:Fst-1 X=Lu,
12:*:Fst-1 R=Lu,
14:*:Lst-1 L=_x-1,
11:*:Lst-1 X=P,
11:*:Pre-1 X=A,
14:*:Suf-1 L=_x-1,
11:*:Suf-1 X=.,
14:*:Suf-2 L=_x-1,
14:*:Fst-2 X=Lu/A,
13:*:Lst-2 X=P/.,
14:u:Cap-1 L=_x-1,
16:*:Cap-1 X=single,
17:u:Cap-1 R=initial,
21:u:Cap-2 L=_x-1/single,
24:u:Cap-2 R=single/initial,
21:u:Cap-3 X=single/_x-1,
14:u:Num-1 L=_x-1,
14:*:Num-1 X=none,
14:u:Num-1 R=none,
19:u:Num-2 L=none/_x-1,
11:u:Nme-1 X=F,
11:u:Loc-1 X=F,
11:u:Pub-1 X=F,
11:u:Jnl-1 X=F,
14:*:Key-1 X=none,
21:u:Key-2 X=none/single,
19:u:Key-3 X=none/_x-1,
11:u:Pos-1 X=0,
15:*:Pct-1 X=other,
14:*:Brk-1 X=none,
14:u:Tmn-1 L=_x-1,
16:*:Tmn-1 X=strong,
14:u:Tmn-1 R=weak,
18:u:Tmn-2 X=strong/.,
24:u:Tmn-4 R=strong/initial,
11:u:Id--1 X=F,
14:u:tok-1LL=_x-1,
12:u:tok-1 R=r.,
11:*:Lst-1 L=P,
11:*:Pre-1 X=C,
12:*:Pre-2 X=Ca,
11:*:Suf-1 L=.,
11:*:Suf-1 X=,,
14:*:Fst-2 X=Lu/C,
13:*:Lst-2 X=P/,,
16:u:Cap-1 L=single,
17:*:Cap-1 X=initial,
16:u:Cap-1 R=single,
24:u:Cap-2 L=single/initial,
24:u:Cap-2 R=initial/single,
24:u:Cap-3 X=initial/strong,
14:u:Num-1 L=none,
21:u:Num-2 L=none/strong,
22:u:Key-2 X=none/initial,
21:u:Key-3 X=none/strong,
11:u:Pos-1 X=3,
16:u:Tmn-1 L=strong,
14:*:Tmn-1 X=weak,
16:u:Tmn-1 R=strong,
16:u:Tmn-2 X=weak/,,
21:u:Tmn-4 R=weak/single,
12:u:Tok-1 X=R.,
11:u:tok-1 X=r,
13:u:tok-1RR=and,
11:*:Pre-1 X=R,
12:*:Pre-2 X=R.,
12:u:Pre-3 X=R.,
12:u:Pre-4 X=R.,
11:*:Suf-1 L=,,
12:*:Suf-2 X=R.,
12:u:Suf-3 X=R.,
12:u:Suf-4 X=R.,
14:*:Fst-2 X=Lu/R,
17:u:Cap-1 L=initial,
24:u:Cap-2 L=initial/single,
21:u:Cap-3 X=single/weak,
19:u:Num-2 L=none/weak,
19:u:Key-3 X=none/weak,
11:u:Pos-1 X=6,
14:u:Tmn-1 L=weak,
19:u:Tmn-3 X=strong/R.,
13:u:tok-1 R=and,
12:*:Fst-1 R=Ll,
11:*:Pre-1 X=K,
12:*:Pre-2 X=Ku,
12:*:Suf-2 L=R.,
12:*:Suf-2 X=r,,
13:u:Suf-3 X=er,,
14:*:Fst-2 X=Lu/K,
15:u:Cap-1 R=lower,
23:u:Cap-2 R=initial/lower,
11:u:Nme-1 X=T,
14:u:Tmn-1 R=none,
17:u:Tmn-3 X=weak/r,,
20:u:Tmn-4 R=weak/lower,
13:u:Tok-1 X=and,
13:u:tok-1 X=and,
12:*:Fst-1 X=Ll,
12:*:Lst-1 X=Ll,
11:*:Pre-1 X=a,
12:*:Pre-2 X=an,
13:u:Pre-3 X=and,
13:u:Pre-4 X=and,
11:*:Suf-1 X=d,
12:*:Suf-2 L=r,,
12:*:Suf-2 X=nd,
13:u:Suf-3 X=and,
13:u:Suf-4 X=and,
14:*:Fst-2 X=Ll/a,
14:*:Lst-2 X=Ll/d,
15:*:Cap-1 X=lower,
14:u:Cap-1 R=caps,
23:u:Cap-2 L=initial/lower,
20:u:Cap-2 R=lower/caps,
20:u:Cap-3 X=lower/weak,
11:u:Pub-1 X=T,
11:u:Jnl-1 X=T,
13:*:Key-1 X=and,
19:u:Key-2 X=and/lower,
18:u:Key-3 X=and/weak,
12:u:Pos-1 X=13,
14:*:Pct-1 X=none,
14:*:Tmn-1 X=none,
16:u:Tmn-2 X=none/d,
17:u:Tmn-3 X=none/nd,
19:u:Tmn-4 R=none/caps,
13:u:tok-1 L=and,
12:*:Lst-1 L=Ll,
11:*:Pre-1 X=W,
11:*:Suf-1 L=d,
12:*:Suf-2 L=nd,
12:*:Suf-2 X=P.,
14:*:Fst-2 X=Lu/W,
15:u:Cap-1 L=lower,
14:*:Cap-1 X=caps,
20:u:Cap-2 L=lower/caps,
20:u:Cap-2 R=caps/lower,
19:u:Cap-3 X=caps/none,
19:u:Num-2 L=none/none,
19:u:Key-2 X=none/caps,
19:u:Key-3 X=none/none,
16:*:Pct-1 X=hyphen,
14:u:Tmn-1 L=none,
22:u:Tmn-4 R=strong/lower,
12:u:tok-1 X=de,
13:u:tok-1LL=and,
11:*:Pre-1 X=d,
12:*:Pre-2 X=de,
11:*:Suf-1 X=e,
12:*:Suf-2 X=de,
14:*:Fst-2 X=Ll/d,
14:*:Lst-2 X=Ll/e,
14:u:Cap-1 L=caps,
20:u:Cap-2 L=caps/lower,
23:u:Cap-2 R=lower/initial,
22:u:Cap-3 X=lower/strong,
20:u:Key-2 X=none/lower,
12:u:Pos-1 X=19,
16:u:Tmn-2 X=none/e,
17:u:Tmn-3 X=none/de,
22:u:Tmn-4 R=none/initial,
12:*:Pre-2 X=Ro,
11:*:Suf-1 L=e,
12:*:Suf-2 L=de,
12:*:Suf-2 X=r.,
13:u:Suf-3 X=er.,
23:u:Cap-2 L=lower/initial,
25:u:Cap-2 R=initial/initial,
22:u:Cap-3 X=initial/none,
12:u:Pos-1 X=22,
19:u:Tmn-3 X=strong/r.,
21:u:tok-1RR=development,
11:*:Pre-1 X=F,
12:*:Pre-2 X=Fo,
11:*:Suf-1 X=g,
12:*:Suf-2 L=r.,
12:*:Suf-2 X=ng,
13:u:Suf-3 X=ing,
14:*:Fst-2 X=Lu/F,
14:*:Lst-2 X=Ll/g,
25:u:Cap-2 L=initial/initial,
12:u:Pos-1 X=25,
16:u:Tmn-2 X=none/g,
17:u:Tmn-3 X=none/ng,
11:*:Pre-1 X=D,
12:*:Pre-2 X=Di,
11:*:Suf-1 L=g,
11:*:Suf-1 X=s,
12:*:Suf-2 L=ng,
14:*:Fst-2 X=Lu/D,
14:*:Lst-2 X=Ll/s,
12:u:Pos-1 X=28,
16:u:Tmn-2 X=none/s,
20:u:Tmn-4 R=none/lower,
11:*:Suf-1 L=s,
11:*:Suf-1 X=t,
12:*:Suf-2 L='s,
12:*:Suf-2 X=nt,
14:u:Suf-4 X=ment,
14:*:Lst-2 X=Ll/t,
21:u:Cap-2 R=lower/lower,
20:u:Cap-3 X=lower/none,
12:u:Pos-1 X=31,
16:u:Tmn-2 X=none/t,
17:u:Tmn-3 X=none/nt,
11:*:Pre-1 X=s,
11:*:Suf-1 L=t,
11:*:Suf-1 X=y,
12:*:Suf-2 L=nt,
12:*:Suf-2 X=gy,
14:*:Fst-2 X=Ll/s,
14:*:Lst-2 X=Ll/y,
21:u:Cap-2 L=lower/lower,
16:u:Tmn-2 X=none/y,
17:u:Tmn-3 X=none/gy,
11:*:Pre-1 X=w,
11:*:Suf-1 L=y,
11:*:Suf-1 X=n,
12:*:Suf-2 X=in,
14:*:Fst-2 X=Ll/w,
14:*:Lst-2 X=Ll/n,
12:u:Pos-1 X=38,
16:u:Tmn-2 X=none/n,
17:u:Tmn-3 X=none/in,
12:u:tok-1RR=in,
11:*:Pre-1 X=S,
12:*:Pre-2 X=St,
13:u:Pre-3 X=Sta,
11:*:Suf-1 L=n,
12:*:Suf-2 L=in,
14:*:Fst-2 X=Lu/S,
12:u:Pos-1 X=41,
12:u:tok-1 R=in,
11:*:Pre-1 X=f,
12:*:Pre-2 X=fo,
13:u:Pre-3 X=for,
12:*:Suf-2 X=m.,
14:*:Fst-2 X=Ll/f,
12:u:Pos-1 X=44,
12:u:Tok-1 X=In,
12:u:tok-1 X=in,
12:u:tok-1 R=c.,
11:*:Pre-1 X=I,
12:*:Pre-2 X=In,
12:u:Pre-3 X=In,
12:u:Pre-4 X=In,
12:*:Suf-2 L=m.,
12:*:Suf-2 X=In,
12:u:Suf-3 X=In,
12:u:Suf-4 X=In,
14:*:Fst-2 X=Lu/I,
12:*:Key-1 X=in,
20:u:Key-2 X=in/initial,
19:u:Key-3 X=in/strong,
12:u:Pos-1 X=47,
17:u:Tmn-3 X=none/In,
21:u:Tmn-4 R=none/single,
12:u:Tok-1 X=C.,
11:u:tok-1 X=c,
12:u:tok-1 L=in,
12:*:Pre-2 X=C.,
12:u:Pre-3 X=C.,
12:u:Pre-4 X=C.,
12:*:Suf-2 L=In,
12:*:Suf-2 X=C.,
12:u:Suf-3 X=C.,
12:u:Suf-4 X=C.,
23:u:Cap-2 R=single/single,
21:u:Cap-3 X=single/none,
12:u:Pos-1 X=50,
19:u:Tmn-3 X=strong/C.,
23:u:Tmn-4 R=strong/single,
12:u:tok-1LL=in,
11:*:Pre-1 X=B,
12:*:Pre-2 X=B.,
12:*:Suf-2 L=C.,
12:*:Suf-2 X=B.,
14:*:Fst-2 X=Lu/B,
23:u:Cap-2 L=single/single,
23:u:Cap-3 X=single/strong,
12:u:Pos-1 X=53,
12:u:tok-1LL=c.,
11:*:Pre-1 X=J,
12:*:Pre-2 X=Jo,
12:*:Suf-2 L=B.,
12:*:Suf-2 X=s,,
13:u:Suf-3 X=es,,
14:*:Fst-2 X=Lu/J,
11:u:Loc-1 X=T,
12:u:Pos-1 X=56,
17:u:Tmn-3 X=weak/s,,
12:*:Suf-2 L=s,,
12:u:Pos-1 X=59,
12:u:Pos-1 X=63,
12:*:Pre-2 X=Sh,
12:*:Suf-2 X=w,,
12:u:Pos-1 X=66,
17:u:Tmn-3 X=weak/w,,
12:*:Suf-2 L=w,,
22:u:Cap-2 R=lower/single,
12:u:Pos-1 X=69,
11:*:Pre-1 X=T,
14:*:Fst-2 X=Lu/T,
22:u:Cap-2 L=lower/single,
12:u:Pos-1 X=72,
12:*:Pre-2 X=De,
12:u:Pos-1 X=75,
11:*:Pre-1 X=e,
12:*:Pre-2 X=ed,
13:u:Pre-3 X=edi,
14:u:Pre-4 X=edit,
14:*:Fst-2 X=Ll/e,
16:*:Key-1 X=editor,
22:u:Key-2 X=editor/lower,
21:u:Key-3 X=editor/weak,
12:u:Pos-1 X=78,
22:u:Tmn-4 R=weak/initial,
15:u:Tok-1 X=Proc.,
14:u:tok-1 X=proc,
18:u:tok-1 L=editors,,
11:*:Fst-1 R=N,
11:*:Pre-1 X=P,
12:*:Pre-2 X=Pr,
13:u:Pre-3 X=Pro,
14:u:Pre-4 X=Proc,
12:*:Suf-2 X=c.,
13:u:Suf-3 X=oc.,
14:u:Suf-4 X=roc.,
14:*:Fst-2 X=Lu/P,
15:u:Cap-1 R=other,
23:u:Cap-2 R=initial/other,
22:u:Cap-3 X=initial/weak,
17:u:Num-1 R=ordinal,
12:u:Pos-1 X=81,
19:u:Tmn-3 X=strong/c.,
22:u:Tmn-4 R=strong/other,
18:u:tok-1LL=editors,,
15:u:tok-1 L=proc.,
11:*:Fst-1 X=N,
11:*:Pre-1 X=5,
12:*:Suf-2 L=c.,
12:*:Suf-2 X=h.,
13:u:Suf-3 X=th.,
13:*:Fst-2 X=N/5,
15:*:Cap-1 X=other,
23:u:Cap-2 L=initial/other,
20:u:Cap-2 R=other/caps,
22:u:Cap-3 X=other/strong,
17:*:Num-1 X=ordinal,
24:u:Num-2 L=ordinal/strong,
20:u:Key-2 X=none/other,
12:u:Pos-1 X=84,
19:u:Tmn-3 X=strong/h.,
21:u:Tmn-4 R=strong/caps,
15:u:tok-1LL=proc.,
12:*:Lst-1 X=Lu,
12:*:Suf-2 L=h.,
15:u:Cap-1 L=other,
20:u:Cap-2 L=other/caps,
22:u:Cap-2 R=caps/initial,
21:u:Cap-3 X=caps/strong,
17:u:Num-1 L=ordinal,
12:u:Pos-1 X=88,
12:*:Lst-1 L=Lu,
12:*:Pre-2 X=Re,
11:*:Suf-1 L=S,
22:u:Cap-2 L=caps/initial,
12:u:Pos-1 X=91,
19:u:Tok-1 X=Workshop,,
18:u:tok-1 X=workshop,
15:u:tok-1 R=1992.,
14:u:tok-1RR=_x+1,
12:*:Pre-2 X=Wo,
13:u:Pre-3 X=Wor,
14:u:Pre-4 X=Work,
12:*:Suf-2 X=p,,
13:u:Suf-3 X=op,,
14:u:Suf-4 X=hop,,
14:u:Num-1 R=year,
12:u:Pos-1 X=94,
20:u:Tmn-4 R=weak/other,
14:u:tok-1 R=_x+1,
14:u:tok-1RR=_x+2,
14:*:Fst-1 R=_x+1,
11:*:Pre-1 X=1,
12:*:Pre-2 X=19,
13:u:Pre-3 X=199,
12:*:Suf-2 X=2.,
13:*:Fst-2 X=N/1,
14:u:Cap-1 R=_x+1,
20:u:Cap-2 R=other/_x+1,
20:u:Cap-3 X=other/weak,
14:*:Num-1 X=year,
14:u:Num-1 R=_x+1,
19:u:Num-2 L=year/weak,
12:u:Pos-1 X=97,
14:u:Tmn-1 R=_x+1,
21:u:Tmn-4 R=strong/_x+1,
11:*:Pre-1 X=M,
12:*:Suf-2 X=M.,
14:*:Fst-2 X=Lu/M,
12:*:Suf-2 L=M.,
12:*:Suf-2 X=a,,
11:u:Pos-1 X=5,
17:u:Tmn-3 X=weak/a,,
11:u:tok-1 X=h,
11:*:Pre-1 X=H,
12:*:Pre-2 X=H.,
12:*:Suf-2 L=a,,
12:*:Suf-2 X=H.,
14:*:Fst-2 X=Lu/H,
19:u:Tmn-3 X=strong/H.,
12:u:tok-1 L=h.,
12:*:Pre-2 X=Ta,
12:*:Suf-2 L=H.,
12:u:Pos-1 X=14,
12:u:Pos-1 X=18,
12:u:Pos-1 X=23,
12:u:tok-1RR=of,
12:*:Pre-2 X=Mo,
12:*:Suf-2 X=a.,
12:u:Pos-1 X=27,
19:u:Tmn-3 X=strong/a.,
12:u:tok-1 R=of,
12:*:Pre-2 X=Ap,
13:u:Pre-3 X=App,
14:u:Pre-4 X=Appl,
12:*:Suf-2 L=a.,
12:*:Suf-2 X=on,
13:u:Suf-3 X=ion,
14:u:Suf-4 X=tion,
12:u:Pos-1 X=32,
17:u:Tmn-3 X=none/on,
12:u:Tok-1 X=of,
12:u:tok-1 X=of,
12:u:tok-1RR=to,
11:*:Pre-1 X=o,
12:*:Pre-2 X=of,
12:u:Pre-3 X=of,
12:u:Pre-4 X=of,
11:*:Suf-1 X=f,
12:*:Suf-2 L=on,
12:*:Suf-2 X=of,
12:u:Suf-3 X=of,
12:u:Suf-4 X=of,
14:*:Fst-2 X=Ll/o,
14:*:Lst-2 X=Ll/f,
12:u:Pos-1 X=36,
16:u:Tmn-2 X=none/f,
17:u:Tmn-3 X=none/of,
12:u:tok-1 L=of,
12:u:tok-1 R=to,
11:*:Pre-1 X=h,
11:*:Suf-1 L=f,
11:*:Suf-1 X=h,
12:*:Suf-2 L=of,
14:*:Fst-2 X=Ll/h,
14:*:Lst-2 X=Ll/h,
16:u:Tmn-2 X=none/h,
12:u:Tok-1 X=to,
12:u:tok-1 X=to,
12:u:tok-1LL=of,
11:*:Pre-1 X=t,
12:*:Pre-2 X=to,
12:u:Pre-3 X=to,
12:u:Pre-4 X=to,
11:*:Suf-1 L=h,
11:*:Suf-1 X=o,
12:*:Suf-2 X=to,
12:u:Suf-3 X=to,
12:u:Suf-4 X=to,
14:*:Fst-2 X=Ll/t,
14:*:Lst-2 X=Ll/o,
12:u:Pos-1 X=45,
16:u:Tmn-2 X=none/o,
17:u:Tmn-3 X=none/to,
12:u:tok-1 L=to,
11:*:Suf-1 L=o,
11:*:Suf-1 X=a,
12:*:Suf-2 L=to,
12:*:Suf-2 X=ta,
14:*:Lst-2 X=Ll/a,
16:u:Tmn-2 X=none/a,
17:u:Tmn-3 X=none/ta,
12:u:tok-1LL=to,
11:*:Pre-1 X=b,
11:*:Suf-1 L=a,
12:*:Suf-2 L=ta,
14:*:Fst-2 X=Ll/b,
12:u:Pos-1 X=55,
17:u:tok-1 X=machine,
12:*:Suf-2 L=se,
12:*:Suf-2 X=ne,
13:u:Suf-3 X=ine,
14:u:Suf-4 X=hine,
17:u:Tmn-3 X=none/ne,
17:u:tok-1 L=machine,
12:*:Suf-2 L=ne,
18:u:Key-3 X=and/none,
12:u:Pos-1 X=64,
13:u:tok-1RR=new,
11:*:Pre-1 X=i,
12:*:Suf-2 X=ts,
14:*:Fst-2 X=Ll/i,
12:u:Pos-1 X=68,
17:u:Tmn-3 X=none/ts,
22:u:tok-1 X=architecture,
13:u:tok-1 R=new,
12:*:Suf-2 L=ts,
12:*:Suf-2 X=e.,
12:u:Pos-1 X=73,
19:u:Tmn-3 X=strong/e.,
13:u:Tok-1 X=New,
13:u:tok-1 X=new,
11:*:Pre-1 X=N,
12:*:Pre-2 X=Ne,
13:u:Pre-3 X=New,
13:u:Pre-4 X=New,
11:*:Suf-1 X=w,
12:*:Suf-2 L=e.,
12:*:Suf-2 X=ew,
13:u:Suf-3 X=New,
13:u:Suf-4 X=New,
14:*:Fst-2 X=Lu/N,
14:*:Lst-2 X=Ll/w,
12:u:Pos-1 X=77,
16:u:Tmn-2 X=none/w,
17:u:Tmn-3 X=none/ew,
13:u:tok-1 L=new,
11:*:Pre-1 X=G,
12:*:Pre-2 X=Ge,
11:*:Suf-1 L=w,
12:*:Suf-2 L=ew,
14:*:Fst-2 X=Lu/G,
12:u:Pos-1 X=82,
19:u:tok-1 X=computing,
13:u:tok-1LL=new,
15:u:tok-1RR=1983.,
12:*:Pre-2 X=Co,
13:u:Pre-3 X=Com,
14:u:Pre-4 X=Comp,
12:*:Suf-2 X=g,,
13:u:Suf-3 X=ng,,
14:u:Suf-4 X=ing,,
16:u:Num-1 R=volume,
12:u:Pos-1 X=86,
17:u:Tmn-3 X=weak/g,,
15:u:tok-1 R=1983.,
12:*:Suf-2 L=g,,
12:*:Suf-2 X=),,
21:u:Cap-2 R=other/other,
16:*:Num-1 X=volume,
21:u:Num-2 L=volume/weak,
23:*:Brk-1 X=closing-paren,
18:u:Tmn-2 X=strong/,,
19:u:Tmn-3 X=strong/),,
15:u:Tok-1 X=1983.,
14:u:tok-1 X=1983,
20:u:tok-2 R=1983./_x+1,
13:u:Pre-3 X=198,
14:u:Pre-4 X=1983,
12:*:Suf-2 L=),,
12:*:Suf-2 X=3.,
13:u:Suf-3 X=83.,
14:u:Suf-4 X=983.,
21:u:Cap-2 L=other/other,
16:u:Num-1 L=volume,
21:u:Num-2 L=year/strong,
12:u:Pos-1 X=95,
19:u:Tmn-3 X=strong/3.,
12:*:Pre-2 X=Al,
11:*:Suf-1 X=r,
12:*:Suf-2 X=er,
14:*:Lst-2 X=Ll/r,
22:u:Cap-2 L=_x-1/initial,
22:u:Cap-3 X=initial/_x-1,
16:u:Tmn-2 X=none/r,
17:u:Tmn-3 X=none/er,
11:*:Pre-1 X=V,
11:*:Suf-1 L=r,
12:*:Suf-2 L=er,
12:*:Suf-2 X=y.,
14:*:Fst-2 X=Lu/V,
19:u:Tmn-3 X=strong/y.,
13:u:Pre-3 X=Mod,
12:*:Suf-2 L=y.,
18:u:tok-1 X=language,
19:u:tok-1RR=technical,
11:*:Pre-1 X=l,
13:u:Pre-3 X=lan,
14:u:Pre-4 X=lang,
12:*:Suf-2 X=ge,
13:u:Suf-3 X=age,
14:*:Fst-2 X=Ll/l,
17:u:Tmn-3 X=none/ge,
18:u:tok-1 L=language,
19:u:tok-1 R=technical,
16:u:tok-1RR=report,
12:*:Suf-2 L=ge,
12:*:Suf-2 X=n.,
13:u:Suf-3 X=on.,
19:u:Tmn-3 X=strong/n.,
19:u:Tok-1 X=Technical,
19:u:tok-1 X=technical,
16:u:tok-1 R=report,
26:u:tok-2 R=technical/report,
12:*:Pre-2 X=Te,
13:u:Pre-3 X=Tec,
14:u:Pre-4 X=Tech,
11:*:Suf-1 X=l,
12:*:Suf-2 L=n.,
12:*:Suf-2 X=al,
13:u:Suf-3 X=cal,
14:u:Suf-4 X=ical,
14:*:Lst-2 X=Ll/l,
16:u:Tmn-2 X=none/l,
17:u:Tmn-3 X=none/al,
16:u:Tok-1 X=Report,
16:u:tok-1 X=report,
19:u:tok-1 L=technical,
26:u:tok-2 L=technical/report,
13:u:Pre-3 X=Rep,
14:u:Pre-4 X=Repo,
11:*:Suf-1 L=l,
12:*:Suf-2 L=al,
12:*:Suf-2 X=rt,
13:u:Suf-3 X=ort,
14:u:Suf-4 X=port,
22:u:Cap-2 R=initial/caps,
17:u:Tmn-3 X=none/rt,
19:u:tok-1LL=technical,
16:u:tok-1 L=report,
12:*:Suf-2 L=rt,
22:u:Cap-2 L=initial/caps,
16:u:tok-1LL=report,
12:*:Pre-2 X=Wi,
12:*:Suf-2 X=en,
14:u:Num-1 R=page,
17:u:Tmn-3 X=none/en,
20:u:Tmn-4 R=none/other,
12:*:Suf-2 L=en,
12:*:Suf-2 X=2,,
21:u:Cap-2 R=other/lower,
20:u:Cap-3 X=other/none,
14:*:Num-1 X=page,
19:u:Num-2 L=page/none,
11:*:Pre-1 X=v,
14:u:Suf-4 X=sion,
14:*:Fst-2 X=Ll/v,
21:u:Cap-2 L=other/lower,
21:u:Cap-2 R=lower/other,
14:u:Num-1 L=page,
17:u:Num-1 R=numeric,
13:u:tok-1RR=for,
11:*:Pre-1 X=2,
12:*:Suf-2 X=0,,
13:*:Fst-2 X=N/2,
21:u:Cap-2 L=lower/other,
23:u:Cap-2 R=other/initial,
17:*:Num-1 X=numeric,
22:u:Num-2 L=numeric/none,
16:*:Pct-1 X=period,
17:u:Tmn-3 X=weak/0,,
13:u:tok-1 R=for,
13:u:Pre-3 X=Dep,
12:*:Suf-2 L=0,,
12:*:Suf-2 X=t.,
13:u:Suf-3 X=pt.,
23:u:Cap-2 L=other/initial,
17:u:Num-1 L=numeric,
19:u:Tmn-3 X=strong/t.,
13:u:Tok-1 X=for,
13:u:tok-1 X=for,
18:u:tok-1RR=systems,,
13:u:Pre-4 X=for,
12:*:Suf-2 X=or,
13:u:Suf-3 X=for,
13:u:Suf-4 X=for,
17:u:Tmn-3 X=none/or,
13:u:tok-1 L=for,
18:u:tok-1 R=systems,,
12:*:Suf-2 L=or,
12:*:Suf-2 X=me,
17:u:Tmn-3 X=none/me,
18:u:Tok-1 X=Systems,,
17:u:tok-1 X=systems,
13:u:tok-1LL=for,
20:u:tok-1RR=university,
12:*:Pre-2 X=Sy,
13:u:Pre-3 X=Sys,
14:u:Pre-4 X=Syst,
12:*:Suf-2 L=me,
13:u:Suf-3 X=ms,,
14:u:Suf-4 X=ems,,
19:u:tok-1LL=real-time,
18:u:tok-1 L=systems,,
20:u:tok-1 R=university,
20:u:Tok-1 X=University,
20:u:tok-1 X=university,
18:u:tok-1LL=systems,,
23:u:tok-2 R=university/of,
11:*:Pre-1 X=U,
12:*:Pre-2 X=Un,
13:u:Pre-3 X=Uni,
14:u:Pre-4 X=Univ,
12:*:Suf-2 X=ty,
13:u:Suf-3 X=ity,
14:u:Suf-4 X=sity,
14:*:Fst-2 X=Lu/U,
17:u:Tmn-3 X=none/ty,
20:u:tok-1 L=university,
23:u:tok-2 L=university/of,
12:*:Suf-2 L=ty,
20:u:tok-1LL=university,
13:u:tok-1 R=may,
12:*:Pre-2 X=Vi,
13:u:Tok-1 X=May,
13:u:tok-1 X=may,
12:*:Pre-2 X=Ma,
13:u:Pre-3 X=May,
13:u:Pre-4 X=May,
12:*:Suf-2 X=ay,
13:u:Suf-3 X=May,
13:u:Suf-4 X=May,
17:u:Tmn-3 X=none/ay,
12:*:Suf-2 L=ay,
19:u:Num-2 L=year/none,
13:u:Pre-3 X=Mar,
14:u:Pre-4 X=Marc,
11:*:Suf-1 X=c,
14:*:Lst-2 X=Ll/c,
16:u:Tmn-2 X=none/c,
11:*:Suf-1 L=c,
11:u:Pos-1 X=4,
11:u:Pos-1 X=8,
12:*:Pre-2 X=Su,
12:*:Suf-2 X=an,
17:u:Tmn-3 X=none/an,
12:*:Suf-2 L=an,
12:*:Suf-2 X=st,
12:*:Suf-2 L=st,
12:*:Suf-2 X=te,
17:u:Tmn-3 X=none/te,
12:*:Suf-2 L=te,
12:*:Suf-2 X=ve,
13:u:Suf-3 X=ive,
14:u:Suf-4 X=tive,
17:u:Tmn-3 X=none/ve,
11:*:Pre-1 X=p,
12:*:Suf-2 L=ve,
14:*:Fst-2 X=Ll/p,
12:u:Pos-1 X=35,
18:u:tok-1 X=analysis,
21:u:tok-1RR=proceedings,
12:*:Suf-2 X=s.,
13:u:Suf-3 X=is.,
19:u:Tmn-3 X=strong/s.,
21:u:tok-1 R=proceedings,
12:*:Suf-2 L=s.,
12:u:Pos-1 X=42,
21:u:Tok-1 X=Proceedings,
21:u:tok-1 X=proceedings,
13:u:tok-1RR=the,
24:u:tok-2 R=proceedings/of,
12:*:Suf-2 X=gs,
13:u:Suf-3 X=ngs,
14:u:Suf-4 X=ings,
21:*:Key-1 X=proceedings,
29:u:Key-2 X=proceedings/initial,
26:u:Key-3 X=proceedings/none,
12:u:Pos-1 X=46,
17:u:Tmn-3 X=none/gs,
21:u:tok-1 L=proceedings,
13:u:tok-1 R=the,
24:u:tok-2 L=proceedings/of,
16:u:tok-2 R=of/the,
12:*:Suf-2 L=gs,
13:u:Tok-1 X=the,
13:u:tok-1 X=the,
21:u:tok-1LL=proceedings,
16:u:tok-2 L=of/the,
12:*:Pre-2 X=th,
13:u:Pre-3 X=the,
13:u:Pre-4 X=the,
12:*:Suf-2 X=he,
13:u:Suf-3 X=the,
13:u:Suf-4 X=the,
12:u:Pos-1 X=54,
17:u:Tmn-3 X=none/he,
13:u:tok-1 L=the,
16:u:tok-1 R=annual,
12:*:Suf-2 L=he,
12:*:Suf-2 X=th,
12:u:Pos-1 X=58,
17:u:Tmn-3 X=none/th,
16:u:tok-1 X=annual,
13:u:tok-1LL=the,
12:*:Pre-2 X=An,
12:*:Suf-2 L=th,
14:u:Suf-4 X=nual,
12:u:Pos-1 X=62,
13:u:tok-1 X=acm,
12:u:tok-1RR=on,
12:*:Pre-2 X=AC,
13:u:Pre-3 X=ACM,
11:*:Suf-1 X=M,
12:*:Suf-2 X=CM,
13:u:Suf-3 X=ACM,
14:*:Lst-2 X=Lu/M,
12:u:Pos-1 X=65,
16:u:Tmn-2 X=none/M,
17:u:Tmn-3 X=none/CM,
12:u:tok-1 R=on,
11:*:Suf-1 L=M,
11:*:Suf-1 X=m,
12:*:Suf-2 L=CM,
14:*:Lst-2 X=Ll/m,
16:u:Tmn-2 X=none/m,
12:u:Tok-1 X=on,
12:u:tok-1 X=on,
12:*:Pre-2 X=on,
12:u:Pre-3 X=on,
12:u:Pre-4 X=on,
11:*:Suf-1 L=m,
12:u:Suf-3 X=on,
12:u:Suf-4 X=on,
20:u:tok-1 X=principles,
12:u:tok-1 L=on,
12:*:Suf-2 X=es,
13:u:Suf-3 X=les,
17:u:Tmn-3 X=none/es,
12:u:tok-1LL=on,
12:*:Suf-2 L=es,
14:u:Pre-4 X=Prog,
12:u:Pos-1 X=85,
19:u:tok-1 X=languages,
15:u:tok-1RR=1997.,
11:*:Pre-1 X=L,
12:*:Pre-2 X=La,
13:u:Pre-3 X=Lan,
14:u:Pre-4 X=Lang,
14:*:Fst-2 X=Lu/L,
21:u:tok-1LL=programming,
12:*:Pre-2 X=Ja,
13:u:Pre-3 X=Jan,
12:*:Suf-2 X=ry,
12:u:Pos-1 X=92,
17:u:Tmn-3 X=none/ry,
15:u:Tok-1 X=1997.,
20:u:tok-1LL=languages,,
14:u:Pre-4 X=1997,
12:*:Suf-2 L=ry,
12:*:Suf-2 X=7.,
13:u:Suf-3 X=97.,
14:u:Suf-4 X=997.,
12:u:Pos-1 X=96,
19:u:Tmn-3 X=strong/7.,
11:u:Pos-1 X=7,
12:u:Pos-1 X=11,
12:u:Tok-1 X=G.,
11:u:tok-1 X=g,
12:*:Pre-2 X=G.,
12:u:Pre-3 X=G.,
12:u:Pre-4 X=G.,
12:*:Suf-2 X=G.,
12:u:Suf-3 X=G.,
12:u:Suf-4 X=G.,
19:u:Tmn-3 X=strong/G.,
12:u:tok-1 L=g.,
12:*:Suf-2 L=G.,
12:u:tok-1LL=g.,
12:u:Pos-1 X=21,
12:u:Pos-1 X=29,
11:u:tok-1RR=a,
18:u:Tmn-1 R=moderate,
11:u:tok-1 R=a,
11:*:Suf-1 X=:,
12:*:Suf-2 X=s:,
13:*:Lst-2 X=P/:,
18:*:Tmn-1 X=moderate,
20:u:Tmn-2 X=moderate/:,
25:u:Tmn-4 R=moderate/single,
11:u:Id--1 X=T,
11:u:Tok-1 X=A,
11:*:Pre-2 X=A,
11:u:Pre-3 X=A,
11:u:Pre-4 X=A,
11:*:Suf-1 L=:,
11:*:Suf-1 X=A,
12:*:Suf-2 L=s:,
11:*:Suf-2 X=A,
11:u:Suf-3 X=A,
11:u:Suf-4 X=A,
14:*:Lst-2 X=Lu/A,
22:u:Cap-2 R=single/lower,
23:u:Num-2 L=none/moderate,
23:u:Key-3 X=none/moderate,
12:u:Pos-1 X=39,
18:u:Tmn-1 L=moderate,
16:u:Tmn-2 X=none/A,
16:u:Tmn-3 X=none/A,
11:u:tok-1 L=a,
12:*:Pre-2 X=pr,
13:u:Pre-3 X=pro,
11:*:Suf-1 L=A,
11:*:Suf-2 L=A,
12:*:Suf-2 X=em,
22:u:Cap-2 L=single/lower,
12:u:Pos-1 X=43,
17:u:Tmn-3 X=none/em,
11:u:tok-1LL=a,
12:*:Suf-2 L=em,
18:u:tok-1RR=computer,
12:*:Pre-2 X=Ce,
13:u:Suf-3 X=ter,
18:u:tok-1 R=computer,
18:u:Tok-1 X=Computer,
18:u:tok-1 X=computer,
14:u:Suf-4 X=uter,
12:u:Pos-1 X=57,
18:u:tok-1 L=computer,
12:u:Pos-1 X=61,
12:*:Suf-2 L=ds,
13:u:Suf-3 X=ial,
14:u:Suf-4 X=rial,
12:u:Pos-1 X=71,
12:u:Pos-1 X=79,
12:*:Pre-2 X=CA,
21:u:tok-1 R=university,,
12:*:Suf-2 X=rs,
13:u:Suf-3 X=ers,
17:u:Tmn-3 X=none/rs,
21:u:Tok-1 X=University,,
12:*:Suf-2 L=rs,
12:*:Suf-2 X=y,,
13:u:Suf-3 X=ty,,
12:u:Pos-1 X=89,
17:u:Tmn-3 X=weak/y,,
19:u:Tok-1 X=September,
19:u:tok-1 X=september,
12:*:Pre-2 X=Se,
13:u:Pre-3 X=Sep,
14:u:Pre-4 X=Sept,
12:*:Suf-2 L=y,,
13:u:Suf-3 X=ber,
12:u:Pos-1 X=93,
19:u:tok-1 L=september,
12:*:Suf-2 X=0.,
19:u:Tmn-3 X=strong/0.,
11:*:Pre-1 X=E,
12:*:Pre-2 X=En,
14:*:Fst-2 X=Lu/E,
12:*:Pre-2 X=Im,
11:*:Suf-1 X=x,
14:*:Lst-2 X=Ll/x,
16:u:Tmn-2 X=none/x,
11:*:Suf-1 L=x,
12:*:Suf-2 X=ns,
13:u:Suf-3 X=ons,
14:u:Suf-4 X=ions,
17:u:Tmn-3 X=none/ns,
12:u:Tok-1 X=in,
16:u:tok-2 R=in/the,
12:*:Pre-2 X=in,
12:u:Pre-3 X=in,
12:u:Pre-4 X=in,
12:*:Suf-2 L=ns,
12:u:Suf-3 X=in,
12:u:Suf-4 X=in,
18:u:Key-2 X=in/lower,
17:u:Key-3 X=in/none,
16:u:tok-2 L=in/the,
11:*:Pre-1 X=n,
14:*:Fst-2 X=Ll/n,
12:*:Pre-2 X=or,
12:*:Pre-2 X=di,
13:u:Suf-3 X=ns.,
14:u:Suf-4 X=ons.,
20:u:tok-1 L=equations.,
12:*:Pre-2 X=Tr,
13:u:Pre-3 X=Tra,
20:*:Key-1 X=translator,
28:u:Key-2 X=translator/initial,
13:u:Pre-3 X=Mat,
14:u:Pre-4 X=Math,
12:*:Pre-2 X=So,
13:u:Pre-3 X=Sof,
14:u:Pre-4 X=Soft,
12:*:Suf-2 X=.,,
17:u:Tmn-3 X=weak/.,,
14:u:tok-1RR=june,
11:*:Pre-1 X=4,
12:*:Suf-2 L=.,,
13:u:Suf-3 X=2),,
13:*:Fst-2 X=N/4,
21:u:Num-2 L=page/strong,
12:*:Pre-2 X=Ju,
12:*:Suf-2 L=6,,
12:*:Suf-2 X=8.,
19:u:Tmn-3 X=strong/8.,
11:u:tok-1 X=p,
19:u:Num-2 L=page/weak,
11:u:tok-1 X=j,
12:*:Pre-2 X=J.,
12:u:tok-1LL=p.,
12:*:Pre-2 X=Du,
12:*:Suf-2 X=e,,
17:u:Tmn-3 X=weak/e,,
11:u:tok-1RR=&,
12:*:Suf-2 L=e,,
11:u:tok-1 R=&,
11:*:Fst-1 R=P,
22:u:Cap-2 R=single/other,
11:u:Tok-1 X=&,
15:u:tok-1 X=BLANK,
11:*:Fst-1 X=P,
11:*:Pre-1 X=&,
11:*:Pre-2 X=&,
11:u:Pre-3 X=&,
11:u:Pre-4 X=&,
11:*:Suf-1 X=&,
11:*:Suf-2 X=&,
11:u:Suf-3 X=&,
11:u:Suf-4 X=&,
13:*:Fst-2 X=P/&,
13:*:Lst-2 X=P/&,
22:u:Cap-2 L=single/other,
13:*:Pct-1 X=amp,
16:u:Tmn-2 X=none/&,
16:u:Tmn-3 X=none/&,
11:u:tok-1 L=&,
11:*:Suf-1 L=&,
11:*:Suf-2 L=&,
11:u:tok-1 X=d,
11:u:tok-1LL=&,
12:*:Pre-2 X=D.,
12:*:Suf-2 X=D.,
12:u:Pos-1 X=24,
19:u:Tmn-3 X=strong/D.,
12:u:tok-1 L=d.,
12:*:Fst-1 R=Ps,
12:*:Pre-2 X=K.,
12:*:Suf-2 L=D.,
12:u:Pos-1 X=26,
12:*:Fst-1 X=Ps,
11:*:Pre-1 X=(,
12:*:Pre-2 X=(1,
13:u:Pre-3 X=(19,
14:u:Pre-4 X=(199,
12:*:Suf-2 X=).,
14:*:Fst-2 X=Ps/(,
24:u:Num-2 L=numeric/strong,
16:*:Brk-1 X=parens,
19:u:Tmn-3 X=strong/).,
12:*:Suf-2 L=).,
22:u:Cap-2 L=other/single,
12:*:Suf-2 X=ic,
13:u:Suf-3 X=tic,
17:u:Tmn-3 X=none/ic,
12:*:Pre-2 X=ap,
13:u:Pre-3 X=app,
12:*:Suf-2 L=ic,
12:*:Suf-2 X=ch,
17:u:Tmn-3 X=none/ch,
12:*:Suf-2 L=ch,
11:*:Pre-1 X=c,
14:*:Fst-2 X=Ll/c,
23:u:tok-1RR=international,
23:u:Tok-1 X=International,
23:u:tok-1 X=international,
13:u:Pre-3 X=Int,
14:u:Pre-4 X=Inte,
13:u:Suf-3 X=nal,
14:u:Suf-4 X=onal,
23:u:tok-1 L=international,
20:u:tok-1 R=conference,
12:u:Pos-1 X=74,
20:u:Tok-1 X=Conference,
20:u:tok-1 X=conference,
23:u:tok-1LL=international,
23:u:tok-2 R=conference/on,
13:u:Pre-3 X=Con,
14:u:Pre-4 X=Conf,
12:*:Suf-2 X=ce,
13:u:Suf-3 X=nce,
14:u:Suf-4 X=ence,
12:u:Pos-1 X=76,
17:u:Tmn-3 X=none/ce,
23:u:tok-2 L=conference/on,
12:*:Suf-2 L=ce,
20:u:Tok-1 X=Artificial,
20:u:tok-1 X=artificial,
23:u:tok-1 R=intelligence,,
13:u:tok-1RR=pp.,
12:*:Pre-2 X=Ar,
13:u:Pre-3 X=Art,
14:u:Pre-4 X=Arti,
14:u:Suf-4 X=cial,
23:u:Tok-1 X=Intelligence,,
22:u:tok-1 X=intelligence,
20:u:tok-1 L=artificial,
34:u:tok-2 L=artificial/intelligence,,
13:u:Suf-3 X=ce,,
14:u:Suf-4 X=nce,,
12:u:tok-1 X=pp,
20:u:tok-1LL=artificial,
23:u:tok-1 L=intelligence,,
12:*:Pre-2 X=pp,
12:*:Suf-2 X=p.,
13:u:Suf-3 X=pp.,
19:u:Tmn-3 X=strong/p.,
13:u:tok-1 L=pp.,
11:*:Lst-1 X=N,
11:*:Pre-1 X=6,
12:*:Suf-2 L=p.,
13:*:Fst-2 X=N/6,
13:u:tok-1LL=pp.,
11:*:Lst-1 L=N,
13:u:Suf-3 X=ey,,
17:u:tok-1 L=sydney,,
12:*:Pre-2 X=Au,
13:u:Suf-3 X=ia.,
22:u:Cap-2 R=initial/_x+1,
12:*:Pre-2 X=Bo,
11:u:tok-1 X=s,
12:*:Pre-2 X=S.,
12:u:Pos-1 X=10,
12:*:Suf-2 X=n,,
13:u:Suf-3 X=in,,
17:u:Tmn-3 X=weak/n,,
12:*:Suf-2 L=n,,
12:u:tok-1RR=by,
14:u:Suf-4 X=ring,
12:u:tok-1 R=by,
12:u:Tok-1 X=by,
12:u:tok-1 X=by,
12:*:Pre-2 X=by,
12:u:Pre-3 X=by,
12:u:Pre-4 X=by,
12:*:Suf-2 X=by,
12:u:Suf-3 X=by,
12:u:Suf-4 X=by,
17:u:Tmn-3 X=none/by,
12:u:tok-1 L=by,
12:*:Pre-2 X=se,
12:*:Suf-2 L=by,
12:u:tok-1LL=by,
12:u:Pos-1 X=48,
12:u:Pos-1 X=52,
12:*:Pre-2 X=SI,
13:u:Pre-3 X=SIG,
18:u:tok-1RR=research,
18:u:tok-1 R=research,
18:u:Tok-1 X=Research,
18:u:tok-1 X=research,
13:u:Pre-3 X=Res,
14:u:Pre-4 X=Rese,
13:u:Suf-3 X=rch,
14:u:Suf-4 X=arch,
18:u:tok-1 L=research,
22:u:tok-2 L=research/and,
18:u:tok-1LL=research,
13:u:Pre-3 X=Inf,
14:u:Pre-4 X=Info,
13:u:Pre-3 X=Ret,
14:u:Pre-4 X=Retr,
12:*:Suf-2 X=l,,
12:u:Pos-1 X=87,
17:u:Tmn-3 X=weak/l,,
21:u:tok-1LL=information,
12:*:Suf-2 L=l,,
12:u:Pos-1 X=90,
11:*:Pre-1 X=3,
12:*:Suf-2 X=7,,
13:*:Fst-2 X=N/3,
17:u:Tmn-3 X=weak/7,,
12:*:Suf-2 L=7,,
12:*:Suf-2 X=5.,
12:*:Pre-2 X=Da,
12:u:tok-1RR=m.,
12:u:tok-1 R=m.,
12:*:Pre-2 X=Ga,
12:*:Suf-2 X=o,,
17:u:Tmn-3 X=weak/o,,
12:*:Suf-2 L=o,,
12:*:Lst-1 X=Pd,
11:*:Suf-1 X=-,
14:*:Lst-2 X=Pd/-,
12:*:Lst-1 L=Pd,
13:u:Suf-3 X=an.,
12:*:Pre-2 X=Th,
12:*:Suf-2 X=rd,
13:u:Pre-3 X=Man,
15:u:tok-1RR=pages,
15:u:tok-1 R=pages,
13:u:Pre-3 X=Dat,
14:u:Pre-4 X=Data,
13:u:Suf-3 X=ta,,
12:*:Pre-2 X=pa,
13:u:Suf-3 X=on,,
13:u:tok-1 R=c.,,
13:u:Tok-1 X=C.,,
21:u:tok-1LL=washington,,
13:u:Pre-3 X=C.,,
13:u:Pre-4 X=C.,,
13:u:Suf-3 X=C.,,
13:u:Suf-4 X=C.,,
13:u:tok-1 L=c.,,
12:*:Pre-2 X=Me,
12:*:Suf-2 X=m,,
12:u:Pos-1 X=20,
17:u:Tmn-3 X=weak/m,,
11:*:Pre-1 X=",
12:*:Suf-2 L=m,,
13:*:Fst-2 X=P/",
23:u:tok-1 X=communication,
14:u:Pre-4 X=Comm,
12:u:Pos-1 X=30,
12:u:Pos-1 X=40,
12:*:Pre-2 X=Pa,
12:*:Pre-2 X=Mu,
13:u:Pre-3 X=Mul,
14:u:Pre-4 X=Mult,
11:*:Pre-1 X=O,
12:*:Suf-2 X=ly,
14:*:Fst-2 X=Lu/O,
12:u:Pos-1 X=60,
12:*:Suf-2 L=ly,
12:*:Suf-2 X=ed,
13:u:Suf-3 X=ted,
17:u:Tmn-3 X=none/ed,
12:*:Suf-2 L=ed,
12:u:Pos-1 X=70,
19:u:tok-1 L=systems",,
12:*:Suf-2 L=",,
12:u:Pos-1 X=80,
12:*:Suf-2 X=1,,
12:*:Suf-2 L=1,,
13:u:Suf-3 X=am,,
13:u:Tok-1 X=The,
13:u:Pre-3 X=The,
13:u:Pre-4 X=The,
13:u:Suf-3 X=The,
13:u:Suf-4 X=The,
14:u:Num-1 L=year,
12:u:Pos-1 X=37,
13:u:Pre-3 X=Dis,
14:u:tok-1 X=ieee,
14:u:tok-1RR=(1),,
19:u:tok-2 L=the/ieee,,
12:*:Pre-2 X=IE,
13:u:Pre-3 X=IEE,
14:u:Pre-4 X=IEEE,
12:*:Suf-2 X=E,,
20:u:Cap-2 R=caps/other,
16:u:Num-1 R=double,
11:*:Pre-1 X=7,
12:*:Pre-2 X=77,
12:*:Suf-2 L=E,,
12:*:Suf-2 X=77,
13:*:Fst-2 X=N/7,
20:u:Cap-2 L=caps/other,
16:*:Num-1 X=double,
21:u:Num-2 L=double/weak,
11:u:tok-1 X=1,
11:*:Suf-1 L=7,
16:u:Num-1 L=double,
11:*:Pre-1 X=8,
13:*:Fst-2 X=N/8,
12:*:Pre-2 X=Sc,
14:u:tok-1 X=1994,
26:u:Tmn-4 R=moderate/initial,
12:u:Tok-1 X=An,
12:u:tok-1 X=an,
12:u:Pre-3 X=An,
12:u:Pre-4 X=An,
12:*:Suf-2 X=An,
12:u:Suf-3 X=An,
12:u:Suf-4 X=An,
26:u:Cap-3 X=initial/moderate,
17:u:Tmn-3 X=none/An,
12:u:tok-1 L=an,
12:*:Suf-2 L=An,
12:u:tok-1LL=an,
12:*:Pre-2 X=me,
13:u:Suf-3 X=sed,
14:u:Suf-4 X=ased,
18:u:tok-1 X=learning,
12:*:Suf-2 X=g.,
13:u:Suf-3 X=ng.,
14:u:Suf-4 X=ing.,
19:u:Tmn-3 X=strong/g.,
12:*:Suf-2 L=g.,
12:*:Suf-2 X=4,,
22:u:Num-2 L=numeric/weak,
12:*:Suf-2 X=1.,
12:*:Pre-2 X=Hi,
12:*:Pre-2 X=No,
13:u:Suf-3 X=an,,
12:u:Tok-1 X=J.,
12:u:Pre-3 X=J.,
12:u:Pre-4 X=J.,
12:*:Suf-2 X=J.,
12:u:Suf-3 X=J.,
12:u:Suf-4 X=J.,
19:u:Tmn-3 X=strong/J.,
12:u:tok-1 L=j.,
18:u:tok-1RR=learning,
12:*:Suf-2 L=J.,
18:u:tok-1 R=learning,
14:u:Suf-4 X=ning,
18:u:tok-1 L=learning,
18:u:tok-1LL=learning,
12:u:tok-1RR=1,,
13:u:Pre-3 X=Cam,
14:u:Pre-4 X=prog,
15:u:tok-1LL=logic,
11:*:Suf-1 X=T,
14:*:Lst-2 X=Lu/T,
16:u:Tmn-2 X=none/T,
11:*:Suf-1 L=T,
16:u:Num-1 R=single,
11:*:Suf-1 X=5,
13:*:Lst-2 X=N/5,
16:*:Num-1 X=single,
21:u:Num-2 L=single/weak,
16:u:Tmn-2 X=none/5,
11:u:tok-1 L=5,
11:*:Suf-1 L=5,
11:*:Suf-2 L=5,
16:u:Num-1 L=single,
12:*:Pre-2 X=33,
13:u:Suf-3 X=ton,
13:u:Pre-3 X=Moo,
12:*:Pre-2 X=Ch,
13:u:Pre-3 X=Cha,
16:u:Tok-1 X=Theory,
16:u:tok-1 X=theory,
14:u:Pre-4 X=Theo,
14:u:Suf-4 X=eory,
17:u:Tok-1 X=Machine,
19:u:tok-1 R=learning,,
27:u:tok-2 R=machine/learning,,
13:u:Pre-3 X=Mac,
14:u:Pre-4 X=Mach,
19:u:Tok-1 X=Learning,,
27:u:tok-2 L=machine/learning,,
12:*:Pre-2 X=Le,
13:u:Pre-3 X=Lea,
14:u:Pre-4 X=Lear,
12:*:Suf-2 X=9,,
17:u:Tmn-3 X=weak/9,,
12:*:Suf-2 L=9,,
14:u:Suf-4 X=tual,
12:*:Pre-2 X=Ex,
12:u:Pos-1 X=33,
12:*:Pre-2 X=El,
13:u:Pre-3 X=Ele,
12:u:Pos-1 X=67,
12:*:Pre-2 X=15,
12:*:Pre-2 X=Pe,
13:u:Suf-3 X=8).,
14:u:Pre-4 X=Netw,
12:*:Pre-2 X=Pl,
13:u:Pre-3 X=Pla,
12:*:Suf-2 X=le,
17:u:Tmn-3 X=none/le,
16:u:tok-1 R=morgan,
19:u:tok-1RR=kaufmann.,
12:*:Suf-2 L=le,
13:u:Suf-3 X=ce.,
13:u:Pre-3 X=Mor,
14:u:Pre-4 X=Morg,
12:*:Pre-2 X=He,
13:u:Pre-3 X=Her,
12:u:Pos-1 X=17,
12:*:Pre-2 X=Li,
12:*:Suf-2 X=i.,
19:u:Tmn-3 X=strong/i.,
12:*:Suf-2 L=i.,
11:*:Suf-1 X=2,
13:*:Lst-2 X=N/2,
11:*:Suf-1 L=2,
14:u:Pre-4 X=Para,
13:u:Suf-3 X=lel,
14:u:Suf-4 X=llel,
12:*:Suf-2 L=el,
12:u:Pos-1 X=83,
19:u:Tmn-4 R=weak/caps,
19:u:Cap-3 X=caps/weak,
13:u:Pre-3 X=Aug,
12:*:Pre-2 X=11,
11:*:Suf-1 X=1,
12:*:Suf-2 X=11,
13:*:Lst-2 X=N/1,
19:u:Tmn-4 R=none/_x+1,
18:u:Tok-1 X=National,
18:u:tok-1 X=national,
14:u:Pre-4 X=Nati,
18:u:tok-1 L=national,
18:u:tok-1LL=national,
12:*:Suf-2 X=4.,
13:u:Suf-3 X=34.,
19:u:Tmn-3 X=strong/4.,
12:*:Pre-2 X=Sa,
12:*:Suf-2 L=4.,
14:u:tok-1 X=aaai,
12:*:Pre-2 X=AA,
13:u:Pre-3 X=AAA,
14:u:Pre-4 X=AAAI,
15:u:tok-1 X=press,
13:u:Pre-3 X=Pre,
14:u:Pre-4 X=Pres,
12:*:Suf-2 X=d,,
17:u:Tmn-3 X=weak/d,,
12:*:Suf-2 L=d,,
13:u:Suf-3 X=or.,
14:u:Suf-4 X=tor.,
16:u:Tok-1 X=Models,
16:u:tok-1 X=models,
14:u:Pre-4 X=Mode,
14:u:Suf-4 X=dels,
16:u:tok-1 L=models,
18:u:Tok-1 X=Advanced,
18:u:tok-1 X=advanced,
16:u:tok-1LL=models,
12:*:Pre-2 X=Ad,
13:u:Pre-3 X=Adv,
14:u:Pre-4 X=Adva,
13:u:Suf-3 X=ced,
14:u:Suf-4 X=nced,
22:u:tok-1 X=applications,
14:u:Suf-4 X=ance,
13:u:Pre-3 X=pre,
12:*:Suf-2 L=ms,
14:u:tok-1RR=july,
14:u:tok-1 R=july,
12:*:Suf-2 X=is,
17:u:Tmn-3 X=none/is,
12:*:Suf-2 L=is,
11:*:Fst-1 X=S,
11:*:Pre-1 X=`,
12:*:Pre-2 X=``,
13:*:Fst-2 X=S/`,
13:u:Suf-3 X=sis,
14:u:Suf-4 X=ysis,
14:u:tok-1 X=conf,
11:*:Suf-1 L=',
12:*:Suf-2 X=f.,
19:u:Tmn-3 X=strong/f.,
13:u:Pre-3 X=Rec,
12:*:Suf-2 L=f.,
13:u:tok-1 X=4th,
12:*:Pre-2 X=4t,
13:u:Pre-3 X=4th,
11:*:Suf-1 X=p,
14:*:Lst-2 X=Ll/p,
13:u:Pre-3 X=Met,
15:u:tok-1 X=wiley,
13:u:Pre-3 X=Wil,
14:u:Pre-4 X=Wile,
12:*:Suf-2 L=hn,
15:u:tok-1RR=1987.,
15:u:tok-1 R=1987.,
13:u:Suf-3 X=ns,,
14:u:Suf-4 X=ons,,
12:*:Pre-2 X=Cl,
12:*:Suf-2 X=k,,
17:u:Tmn-3 X=weak/k,,
12:*:Suf-2 L=k,,
11:u:tok-1 X=l,
13:u:Suf-3 X=re,,
12:u:tok-1LL=as,
12:*:Suf-2 X=n:,
17:u:Key-3 X=in/weak,
21:u:Tmn-3 X=moderate/n:,
12:*:Suf-2 L=n:,
12:*:Suf-2 X=re,
17:u:Tmn-3 X=none/re,
12:*:Suf-2 L=re,
17:u:tok-1RR=(eds.),,
12:*:Pre-2 X=Mi,
13:u:tok-1 X=eds,
12:*:Pre-2 X=(e,
21:u:Key-3 X=editor/none,
17:u:tok-1 L=(eds.),,
12:*:Pre-2 X=Lo,
13:u:Pre-3 X=Log,
14:u:Pre-4 X=Logi,
17:u:tok-1LL=(eds.),,
16:u:tok-1RR=press,,
12:*:Pre-2 X=Ba,
16:u:tok-1 R=press,,
16:u:Tok-1 X=Press,,
15:u:tok-1RR=york,,
20:u:tok-2 R=press,/new,
13:u:Suf-3 X=ss,,
14:u:Suf-4 X=ess,,
16:u:tok-1 L=press,,
16:u:tok-1LL=press,,
11:*:Pre-1 X=Y,
12:*:Pre-2 X=Yo,
14:*:Fst-2 X=Lu/Y,
12:u:tok-1 R=i.,
12:*:Suf-2 X=t,,
13:u:Suf-3 X=nt,,
17:u:Tmn-3 X=weak/t,,
11:u:tok-1 X=i,
12:*:Pre-2 X=I.,
12:*:Suf-2 L=t,,
12:*:Suf-2 X=I.,
12:*:Suf-2 X=h,,
17:u:Tmn-3 X=weak/h,,
12:*:Suf-2 L=h,,
13:u:Suf-3 X=mes,
12:*:Suf-2 X=d.,
13:u:Suf-3 X=rd.,
14:u:Suf-4 X=ard.,
19:u:Tmn-3 X=strong/d.,
12:*:Suf-2 L=d.,
12:*:Suf-2 X=ar,
13:u:Suf-3 X=ear,
17:u:Tmn-3 X=none/ar,
12:*:Suf-2 L=ar,
12:*:Pre-2 X=al,
11:*:Suf-1 L=1,
23:*:Brk-1 X=opening-paren,
13:u:tok-1 R=d.,,
13:u:Tok-1 X=D.,,
13:u:Pre-3 X=D.,,
13:u:Pre-4 X=D.,,
13:u:Suf-3 X=D.,,
13:u:Suf-4 X=D.,,
14:u:Pre-4 X=Cher,
13:u:Suf-3 X=ern,
16:u:tok-1 X=design,
12:*:Suf-2 X=gn,
13:u:Suf-3 X=ign,
14:u:Suf-4 X=sign,
17:u:Tmn-3 X=none/gn,
12:*:Suf-2 L=gn,
11:*:Suf-1 X=",
13:*:Lst-2 X=P/",
18:u:Tmn-2 X=strong/",
11:*:Suf-1 L=",
12:*:Suf-2 L=,",
14:u:tok-1RR=vol.,
14:u:tok-1 R=vol.,
13:u:tok-1 X=vol,
13:u:tok-1RR=no.,
12:*:Pre-2 X=Vo,
13:u:Pre-3 X=Vol,
12:*:Suf-2 X=l.,
13:u:Suf-3 X=ol.,
19:u:Tmn-3 X=strong/l.,
14:u:tok-1 L=vol.,
13:u:tok-1 R=no.,
12:u:tok-1RR=5,,
12:*:Suf-2 L=l.,
13:u:Tok-1 X=No.,
12:u:tok-1 X=no,
14:u:tok-1LL=vol.,
12:u:tok-1 R=5,,
13:u:Pre-3 X=No.,
13:u:Pre-4 X=No.,
12:*:Suf-2 X=o.,
13:u:Suf-3 X=No.,
13:u:Suf-4 X=No.,
19:u:Tmn-3 X=strong/o.,
13:u:tok-1 L=no.,
12:*:Pre-2 X=5,,
12:*:Suf-2 L=o.,
13:u:tok-1LL=no.,
19:u:tok-1RR=computing,
21:u:tok-1 L=conference,,
12:*:Pre-2 X=Po,
13:u:Suf-3 X=nd,,
12:*:Suf-2 X=il,
12:*:Suf-2 L=il,
12:*:Pre-2 X=Ha,
13:u:Pre-3 X=Dav,
14:u:Pre-4 X=Davi,
14:u:Suf-4 X=ated,
12:*:Pre-2 X=vo,
13:u:Suf-3 X=ice,
14:u:Tok-1 X=IEEE,
11:*:Suf-1 X=E,
12:*:Suf-2 X=EE,
13:u:Suf-3 X=EEE,
14:u:Suf-4 X=IEEE,
14:*:Lst-2 X=Lu/E,
16:u:Tmn-2 X=none/E,
17:u:Tmn-3 X=none/EE,
14:u:tok-1 L=ieee,
11:*:Suf-1 L=E,
12:*:Suf-2 L=EE,
14:u:tok-1LL=ieee,
11:u:tok-1 X=4,
17:u:tok-1RR=journal,
17:u:Tok-1 X=Journal,
17:u:tok-1 X=journal,
20:u:tok-2 R=journal/of,
13:u:Pre-3 X=Jou,
14:u:Pre-4 X=Jour,
14:u:Suf-4 X=rnal,
17:*:Key-1 X=journal,
25:u:Key-2 X=journal/initial,
17:u:tok-1 L=journal,
20:u:tok-2 L=journal/of,
17:u:tok-1LL=journal,
17:u:tok-1 L=systems,
12:*:Pre-2 X=10,
13:u:Suf-3 X=en,,
19:u:tok-1RR=knowledge,
13:u:Suf-3 X=dge,
12:*:Pre-2 X=Bi,
13:u:Suf-3 X=ry,,
14:u:tok-1RR=from,
14:u:tok-1 R=from,
14:u:Tok-1 X=from,
14:u:tok-1 X=from,
12:*:Pre-2 X=fr,
13:u:Pre-3 X=fro,
14:u:Pre-4 X=from,
12:*:Suf-2 X=om,
13:u:Suf-3 X=rom,
14:u:Suf-4 X=from,
17:u:Tmn-3 X=none/om,
14:u:tok-1 L=from,
12:*:Suf-2 L=om,
14:u:tok-1LL=from,
12:*:Suf-2 X=9.,
19:u:Tmn-3 X=strong/9.,
12:*:Pre-2 X=Do,
13:u:Suf-3 X=ral,
11:*:Suf-1 L=6,
12:*:Pre-2 X=no,
13:u:Pre-3 X=com,
14:u:Suf-4 X=rity,
17:u:tok-1RR=theory,,
14:u:Suf-4 X=ory,,
12:*:Pre-2 X=16,
12:*:Suf-2 X=ee,
17:u:Tmn-3 X=none/ee,
12:*:Suf-2 L=ee,
11:u:Tok-1 X=a,
11:*:Pre-2 X=a,
11:u:Pre-3 X=a,
11:u:Pre-4 X=a,
11:*:Suf-2 X=a,
11:u:Suf-3 X=a,
11:u:Suf-4 X=a,
16:u:Tmn-3 X=none/a,
11:*:Suf-2 L=a,
27:u:Key-3 X=translator/strong,
12:*:Pre-2 X=Am,
13:u:Pre-3 X=Ame,
14:u:Pre-4 X=Amer,
13:u:Pre-3 X=Soc,
20:*:Num-1 X=year-range,
12:*:Pre-2 X=Fe,
14:u:Suf-4 X=man,,
12:*:Pre-2 X=27,
12:u:Pos-1 X=49,
12:u:Pos-1 X=51,
12:*:Lst-1 X=Pe,
11:*:Suf-1 X=),
14:*:Lst-2 X=Pe/),
18:u:Tmn-2 X=strong/),
12:*:Lst-1 L=Pe,
11:*:Suf-1 L=),
14:u:Tok-1 X=ACM,,
14:u:Pre-4 X=ACM,,
12:*:Suf-2 X=M,,
13:u:Suf-3 X=CM,,
14:u:Suf-4 X=ACM,,
17:u:Tmn-3 X=weak/M,,
12:*:Suf-2 L=M,,
18:u:tok-1RR=kennedy,,
18:u:tok-1 R=kennedy,,
18:u:Tok-1 X=Kennedy,,
17:u:tok-1 X=kennedy,
12:*:Pre-2 X=Ke,
13:u:Pre-3 X=Ken,
14:u:Pre-4 X=Kenn,
13:u:Suf-3 X=dy,,
14:u:Suf-4 X=edy,,
18:u:tok-1 L=kennedy,,
12:*:Pre-2 X=Kr,
16:u:tok-1 X=system,
21:u:tok-2 R=of/computer,
21:u:tok-2 L=of/computer,
17:u:tok-1 X=science,
13:u:Pre-3 X=Sci,
14:u:Pre-4 X=Scie,
18:u:tok-1 L=science,,
12:*:Pre-2 X=Ri,
12:*:Pre-2 X=Ve,
14:u:tok-1 L=page,
13:u:Pre-3 X=Ser,
14:u:Suf-4 X=ural,
12:*:Pre-2 X=(A,
12:*:Suf-2 X=A,,
17:u:Tmn-3 X=weak/A,,
12:*:Suf-2 L=A,,
17:u:tok-1 X=october,
12:*:Pre-2 X=Oc,
13:u:Pre-3 X=Oct,
14:u:Pre-4 X=Octo,
14:u:Suf-4 X=ober,
14:u:Pre-4 X=1994,
13:u:Suf-3 X=94.,
12:*:Pre-2 X=TR,
13:u:Suf-3 X=cts,
12:*:Pre-2 X=To,
16:u:Tok-1 X=Neural,
16:u:tok-1 X=neural,
20:u:tok-1RR=processing,
28:u:tok-2 R=neural/information,
13:u:Pre-3 X=Neu,
14:u:Pre-4 X=Neur,
16:u:tok-1 L=neural,
20:u:tok-1 R=processing,
28:u:tok-2 L=neural/information,
32:u:tok-2 R=information/processing,
20:u:Tok-1 X=Processing,
16:u:tok-1LL=neural,
32:u:tok-2 L=information/processing,
20:u:tok-1 L=processing,
20:u:tok-1LL=processing,
12:*:Suf-2 L=3.,
13:u:Pre-3 X=Cor,
13:u:Suf-3 X=ll,,
18:u:tok-1 X=planning,
13:u:Pre-3 X=Car,
11:*:Suf-1 X=N,
14:*:Lst-2 X=Lu/N,
16:u:Tmn-2 X=none/N,
11:*:Suf-1 L=N,
11:*:Suf-1 X=0,
13:*:Lst-2 X=N/0,
11:*:Suf-1 L=0,
12:*:Suf-2 L=90,
17:u:tok-1 X=program,
16:u:tok-1RR=design,
16:u:tok-1 R=design,
16:u:Tok-1 X=Design,
13:u:Pre-3 X=Des,
14:u:Pre-4 X=Desi,
14:u:Suf-4 X=ion,,
12:*:Pre-2 X=NY,
12:*:Pre-2 X=Ti,
13:u:Pre-3 X=Tim,
14:u:Pre-4 X=Time,
13:u:Pre-3 X=Ana,
14:u:Pre-4 X=Anal,
14:u:tok-1 R=york,
18:u:tok-1RR=software,
18:u:tok-1 R=software,
11:*:Suf-1 X=k,
12:*:Suf-2 X=rk,
13:u:Suf-3 X=ork,
14:*:Lst-2 X=Ll/k,
16:u:Tmn-2 X=none/k,
17:u:Tmn-3 X=none/rk,
11:*:Suf-1 L=k,
12:*:Suf-2 L=rk,
21:u:tok-1 X=engineering,
13:u:Pre-3 X=Eng,
14:u:Pre-4 X=Engi,
21:u:tok-1 L=engineering,
21:u:tok-1LL=engineering,
15:u:tok-1RR=york:,
14:u:tok-1 R=task,
16:u:tok-1RR=volume,
12:*:Suf-2 L=k:,
12:*:Suf-2 X=sk,
16:u:tok-1 R=volume,
21:u:Num-2 L=single/none,
16:u:tok-1 X=volume,
13:u:Suf-3 X=ume,
14:u:Suf-4 X=lume,
16:u:tok-1 L=volume,
16:u:tok-1LL=volume,
11:*:Suf-1 X=C,
14:*:Lst-2 X=Lu/C,
11:*:Suf-1 L=C,
11:*:Pre-1 X=9,
13:*:Fst-2 X=N/9,
13:u:Suf-3 X=mic,
12:*:Pre-2 X=Va,
17:u:tok-1RR=lecture,
13:u:Suf-3 X=ure,
14:u:Suf-4 X=ture,
13:u:Pre-3 X=Not,
17:u:tok-1RR=science,
15:u:tok-1LL=notes,
17:u:tok-1 R=science,
21:u:tok-2 L=in/computer,
18:u:tok-1 X=springer,
12:*:Pre-2 X=Sp,
13:u:Pre-3 X=Spr,
14:u:Pre-4 X=Spri,
13:u:Suf-3 X=ag,,
14:u:Suf-4 X=lag,,
16:u:Tok-1 X=Hughes,
16:u:tok-1 X=hughes,
17:u:tok-1 R=network,
21:u:tok-2 L=_x-1/hughes,
24:u:tok-2 R=hughes/network,
12:*:Pre-2 X=Hu,
13:u:Pre-3 X=Hug,
14:u:Pre-4 X=Hugh,
13:u:Suf-3 X=hes,
14:u:Suf-4 X=ghes,
17:u:Tok-1 X=Network,
17:u:tok-1 X=network,
16:u:tok-1 L=hughes,
17:u:tok-1RR=direcpc,
24:u:tok-2 L=hughes/network,
26:u:tok-2 R=network/systems,,
14:u:Suf-4 X=work,
16:u:tok-1LL=hughes,
17:u:tok-1 L=network,
17:u:tok-1 R=direcpc,
14:u:tok-1RR=home,
26:u:tok-2 L=network/systems,,
26:u:tok-2 R=systems,/direcpc,
13:u:Pre-3 X=Dir,
12:*:Suf-2 X=PC,
15:u:tok-1RR=1996.,
12:*:Pre-2 X=ht,
13:u:Pre-3 X=htt,
14:u:Pre-4 X=http,
12:*:Suf-2 X=/,,
15:*:Pct-1 X=colon,
13:u:Pre-3 X=And,
13:u:Pre-3 X=Ber,
16:u:tok-1 R=system,
13:u:Suf-3 X=tem,
14:u:Suf-4 X=stem,
16:u:tok-1 L=system,
12:*:Suf-2 X=V,,
17:u:Tmn-3 X=weak/V,,
12:*:Suf-2 L=V,,
12:*:Pre-2 X=F.,
12:*:Suf-2 X=F.,
12:*:Suf-2 L=F.,
13:u:Suf-3 X=ian,
12:u:tok-1 X=al,
12:*:Suf-2 X=k.,
19:u:Tmn-3 X=strong/k.,
13:u:Suf-3 X=ety,
13:u:Suf-3 X=ies,
22:u:tok-1 R=transactions,
22:u:Tok-1 X=Transactions,
22:u:tok-1 X=transactions,
25:u:tok-2 R=transactions/on,
22:u:tok-1 L=transactions,
22:u:tok-1RR=engineering,,
25:u:tok-2 L=transactions/on,
22:u:tok-1LL=transactions,
22:u:tok-1 R=engineering,,
22:u:Tok-1 X=Engineering,,
22:u:tok-1 L=engineering,,
22:u:tok-1LL=engineering,,
28:u:tok-2 L=systems",/advanced,
27:u:tok-2 R=advanced/software,
17:u:tok-1RR=series,,
16:u:tok-1 X=series,
14:u:Pre-4 X=Seri,
14:u:Pre-4 X=Engl,
12:*:Suf-2 X=ss,
14:u:Suf-4 X=ber,,
13:u:Suf-3 X=ean,
12:*:Pre-2 X=71,
23:u:tok-1 R=computational,
23:u:tok-1 L=computational,
13:u:Pre-3 X=Lab,
14:u:Pre-4 X=Labo,
12:*:Suf-2 L=ll,
14:u:Pre-4 X=Stat,
12:*:Suf-2 X=cs,
13:u:Suf-3 X=ics,
17:u:Tmn-3 X=none/cs,
20:u:tok-1 X=department,
14:u:Pre-4 X=Depa,
12:*:Suf-2 L=cs,
12:*:Suf-2 L=V.,
33:u:tok-2 L=artificial/intelligence,
22:u:tok-1 L=intelligence,
12:*:Pre-2 X=Sk,
12:*:Pre-2 X=te,
12:*:Suf-2 X=ue,
17:u:Tmn-3 X=none/ue,
12:*:Suf-2 L=ue,
12:*:Suf-2 X=at,
17:u:Tmn-3 X=none/at,
12:*:Suf-2 L=at,
13:u:Tok-1 X=via,
13:u:tok-1 X=via,
12:*:Pre-2 X=vi,
13:u:Pre-3 X=via,
13:u:Pre-4 X=via,
12:*:Suf-2 X=ia,
13:u:Suf-3 X=via,
13:u:Suf-4 X=via,
17:u:Tmn-3 X=none/ia,
13:u:tok-1 L=via,
12:*:Suf-2 L=ia,
12:*:Pre-2 X=(V,
12:*:Pre-2 X=(p,
14:u:tok-1LL=(pp.,
14:u:Suf-4 X=ver,,
13:u:Pre-3 X=Sub,
11:*:Suf-1 L=3,
17:u:tok-1 L=(1995).,
17:u:tok-1LL=(1995).,
13:u:Pre-3 X=Vel,
12:*:Pre-2 X=CS,
14:u:tok-1 X=tech,
14:u:Suf-4 X=ley,,
22:u:tok-1RR=applications,
22:u:tok-1 R=applications,
22:u:Tok-1 X=Applications,
24:u:tok-1 X=communications,
16:*:Num-1 X=triple,
16:u:Num-1 L=triple,
13:u:Suf-3 X=tal,
15:u:Tok-1 X=Ph.D.,
13:u:tok-1 X=phd,
17:u:tok-1 R=thesis,,
12:*:Pre-2 X=Ph,
13:u:Pre-3 X=Ph.,
14:u:Pre-4 X=Ph.D,
13:u:Suf-3 X=.D.,
14:u:Suf-4 X=h.D.,
16:u:tok-1 X=thesis,
13:u:Suf-3 X=is,,
14:u:Suf-4 X=sis,,
17:u:tok-1 L=thesis,,
17:u:tok-1LL=thesis,,
13:u:Suf-3 X=ogy,
14:u:Suf-4 X=logy,
12:*:Pre-2 X=20,
13:u:Suf-3 X=che,
12:*:Suf-2 X=r:,
12:*:Suf-2 L=r:,
13:u:Suf-3 X=red,
12:*:Suf-2 X=8,,
12:*:Suf-2 L=8,,
11:*:Suf-1 X=4,
13:*:Lst-2 X=N/4,
16:u:Tmn-2 X=none/4,
11:*:Suf-1 L=4,
12:*:Pre-2 X=(I,
18:u:Tok-1 X=Science.,
13:u:Pre-3 X=vol,
12:u:Pos-1 X=98,
16:u:tok-1 R=robert,
16:u:Tok-1 X=Robert,
16:u:tok-1 X=robert,
14:u:Pre-4 X=Robe,
13:u:Suf-3 X=ert,
14:u:Suf-4 X=bert,
16:u:tok-1 L=robert,
16:u:tok-1LL=robert,
27:u:tok-1LL=three-dimensional,
13:u:Pre-3 X=Bar,
14:u:Pre-4 X=Barr,
17:u:Tok-1 X=Digital,
17:u:tok-1 X=digital,
15:u:tok-1LL=barry,
20:u:tok-1 L=wilkinson,,
28:u:tok-2 L=wilkinson,/digital,
24:u:tok-2 R=digital/system,
13:u:Pre-3 X=Dig,
14:u:Pre-4 X=Digi,
14:u:Suf-4 X=ital,
16:u:Tok-1 X=System,
20:u:tok-1LL=wilkinson,,
17:u:tok-1 L=digital,
18:u:tok-1RR=prentice,
24:u:tok-2 L=digital/system,
23:u:tok-2 R=system/design,
17:u:tok-1LL=digital,
18:u:tok-1 R=prentice,
14:u:tok-1RR=hall,
23:u:tok-2 L=system/design,
25:u:tok-2 R=design/prentice,
18:u:Tok-1 X=Prentice,
18:u:tok-1 X=prentice,
14:u:Suf-4 X=tice,
14:u:tok-1 X=hall,
18:u:tok-1 L=prentice,
13:u:Pre-3 X=Hal,
14:u:Pre-4 X=Hall,
18:u:tok-1LL=prentice,
14:u:Pre-4 X=Andr,
12:*:Pre-2 X=Er,
13:u:tok-1 X=jan,
20:u:tok-1RR=department,
20:u:tok-1 R=department,
20:u:Tok-1 X=Department,
23:u:tok-2 R=department/of,
20:u:tok-1LL=department,
12:*:Pre-2 X=Up,
13:u:Pre-3 X=Upp,
12:*:Pre-2 X=Sw,
19:u:tok-1 X=submitted,
14:u:Pre-4 X=Subm,
12:*:Pre-2 X=Eu,
13:u:Suf-3 X=rn,,
14:u:Suf-4 X=orn,,
13:u:Tok-1 X=MIT,
13:u:tok-1 X=mit,
12:*:Pre-2 X=MI,
13:u:Pre-3 X=MIT,
13:u:Pre-4 X=MIT,
12:*:Suf-2 X=IT,
13:u:Suf-3 X=MIT,
13:u:Suf-4 X=MIT,
17:u:Tmn-3 X=none/IT,
13:u:tok-1 L=mit,
12:*:Suf-2 L=IT,
13:u:Pre-3 X=Ste,
23:u:tok-1 R=publications,,
12:*:Pre-2 X=Pu,
13:u:Pre-3 X=Pub,
13:u:Pre-3 X=Ant,
15:u:tok-1 X=times,
13:u:Pre-3 X=Riv,
14:u:Pre-4 X=Rive,
12:*:Pre-2 X=21,
13:u:Pre-3 X=Chi,
13:u:Suf-3 X=cs,,
14:u:Suf-4 X=ics,,
16:u:tok-1 X=appear,
14:u:Pre-4 X=appe,
20:u:Cap-2 R=lower/_x+1,
12:u:tok-1RR=f.,
22:u:Key-3 X=journal/none,
13:u:Suf-3 X=ds.,
13:u:Suf-3 X=gh,,
16:u:tok-1LL=series,
22:u:tok-1 R=mathematics.,
24:u:tok-1RR=prentice-hall,,
26:u:tok-2 L=in/computational,
36:u:tok-2 R=computational/mathematics.,
22:u:Tok-1 X=Mathematics.,
21:u:tok-1 X=mathematics,
24:u:tok-1 R=prentice-hall,,
14:u:tok-1RR=inc,,
36:u:tok-2 L=computational/mathematics.,
37:u:tok-2 R=mathematics./prentice-hall,,
13:u:Suf-3 X=cs.,
14:u:Suf-4 X=ics.,
14:u:Suf-4 X=all,,
13:u:tok-1 X=inc,
13:u:Pre-3 X=Inc,
12:*:Suf-2 X=od,
17:u:Tmn-3 X=none/od,
17:u:tok-1RR=jersey,,
13:u:Pre-3 X=Cli,
12:*:Pre-2 X=ST,
12:*:Pre-2 X=Ac,
13:u:Pre-3 X=Act,
14:u:Pre-4 X=Acti,
14:u:Pre-4 X=Plan,
14:u:Pre-4 X=Repr,
12:*:Suf-2 L=7.,
14:u:Suf-4 X=nted,
19:u:tok-1 L=reprinted,
13:u:Pre-3 X=TR9,
12:*:Suf-2 X=ld,
17:u:Tmn-3 X=none/ld,
12:*:Suf-2 L=ld,
13:u:Pre-3 X=Nor,
16:u:Tok-1 X=23529,,
15:u:tok-1 X=23529,
18:u:tok-1LL=norfolk,,
12:u:tok-1 L=va,
19:u:tok-2 L=va/23529,,
22:u:tok-2 R=23529,/1993.,
12:*:Pre-2 X=23,
13:u:Pre-3 X=235,
14:u:Pre-4 X=2352,
12:*:Suf-2 L=VA,
13:u:Suf-3 X=29,,
14:u:Suf-4 X=529,,
13:u:Pre-3 X=Aca,
12:*:Suf-2 X=et,
17:u:Tmn-3 X=none/et,
12:*:Suf-2 L=et,
12:*:Suf-2 L=.",
24:u:tok-1 X=representation,
21:u:tok-1 L=algorithms.,
12:u:tok-1RR=et,
21:u:tok-1LL=algorithms.,
12:u:tok-1 X=et,
12:*:Pre-2 X=et,
13:u:Tok-1 X=al.,
12:u:tok-1 L=et,
16:u:tok-2 L=et/al.,
13:u:Pre-3 X=al.,
13:u:Pre-4 X=al.,
13:u:Suf-3 X=al.,
13:u:Suf-4 X=al.,
11:*:Pre-1 X=[,
12:*:Pre-2 X=[4,
12:*:Suf-2 X=],,
14:*:Fst-2 X=Ps/[,
25:*:Brk-1 X=square-brackets,
12:*:Pre-2 X=Ab,
13:u:Pre-3 X=Abs,
14:u:Pre-4 X=Abst,
24:u:tok-1 X=springerverlag,
12:*:Suf-2 X=L.,
19:u:Tmn-3 X=strong/L.,
12:*:Suf-2 L=L.,
13:u:Pre-3 X=Val,
12:*:Pre-2 X=Br,
18:u:Tok-1 X=Personal,
18:u:tok-1 X=personal,
13:u:Pre-3 X=Per,
14:u:Pre-4 X=Pers,
18:u:tok-1 L=personal,
14:u:Pre-4 X=comm,
13:u:Pre-3 X=Alb,
14:u:Pre-4 X=Albe,
13:u:Suf-3 X=nd.,
15:u:tok-1RR=1985.,
21:u:tok-1 X=cybernetics,
17:u:tok-1 X=special,
15:u:tok-1 R=issue,
23:u:tok-2 R=special/issue,
15:u:tok-1 X=issue,
17:u:tok-1 L=special,
23:u:tok-2 L=special/issue,
18:u:tok-2 R=issue/on,
12:*:Pre-2 X=Is,
13:u:Suf-3 X=sue,
14:u:Suf-4 X=ssue,
17:u:tok-1LL=special,
15:u:tok-1 L=issue,
18:u:tok-2 L=issue/on,
15:u:tok-1LL=issue,
15:u:tok-1RR=eds.,,
13:u:Pre-3 X=Mon,
12:*:Pre-2 X=Ed,
24:u:Key-2 X=editor/initial,
20:u:Tok-1 X=Paderborn,,
19:u:tok-1 X=paderborn,
15:u:tok-1LL=icalp,
32:u:tok-2 L=conference,/paderborn,,
25:u:tok-2 R=paderborn,/july,
13:u:Pre-3 X=Pad,
14:u:Pre-4 X=Pade,
15:u:tok-1RR=study,
15:u:tok-1 R=study,
15:u:tok-1 X=study,
12:*:Suf-2 X=dy,
13:u:Suf-3 X=udy,
14:u:Suf-4 X=tudy,
17:u:Tmn-3 X=none/dy,
15:u:tok-1 L=study,
12:*:Suf-2 L=dy,
15:u:tok-1LL=study,
18:u:Tok-1 X=European,
18:u:tok-1 X=european,
14:u:Suf-4 X=pean,
18:u:tok-1LL=european,
12:u:tok-1RR=7,,
12:u:Tok-1 X=7,,
11:u:tok-1 X=7,
12:*:Pre-2 X=7,,
12:u:Pre-3 X=7,,
12:u:Pre-4 X=7,,
12:u:Suf-3 X=7,,
12:u:Suf-4 X=7,,
14:u:Pre-4 X=Hist,
13:u:Pre-3 X=Mas,
14:u:Pre-4 X=Mass,
18:u:Tok-1 X=Learning,
12:*:Suf-2 X=ok,
13:u:Suf-3 X=ook,
14:u:Suf-4 X=book,
17:u:Tmn-3 X=none/ok,
12:*:Suf-2 L=ok,
12:*:Suf-2 X=e:,
13:u:Suf-3 X=ge:,
14:u:Suf-4 X=dge:,
21:u:Tmn-3 X=moderate/e:,
12:*:Suf-2 L=e:,
11:*:Pre-2 X=3,
11:*:Suf-2 X=3,
14:u:Pre-4 X=Lind,
12:u:tok-1 X=ed,
12:*:Pre-2 X=(E,
23:u:Key-3 X=editor/strong,
20:u:tok-1RR=cambridge,,
20:u:tok-1 R=cambridge,,
19:u:tok-1 X=cambridge,
14:u:Pre-4 X=Camb,
12:*:Pre-2 X=MA,
19:u:Cap-2 R=caps/_x+1,
12:*:Suf-2 X=15,
17:u:Tmn-3 X=none/15,
12:u:tok-1 R=at,
12:u:Tok-1 X=at,
12:u:tok-1 X=at,
12:*:Pre-2 X=at,
12:u:Pre-3 X=at,
12:u:Pre-4 X=at,
12:u:Suf-3 X=at,
12:u:Suf-4 X=at,
12:u:tok-1 L=at,
12:u:tok-1LL=at,
13:u:Suf-3 X=hen,
13:u:Suf-3 X=ch.,
23:u:tok-1 X=addisonwesley,
13:u:Pre-3 X=Add,
14:u:Pre-4 X=Addi,
12:*:Pre-2 X=Fu,
12:*:Suf-2 X=ie,
17:u:Tmn-3 X=none/ie,
12:*:Suf-2 L=ie,
19:u:Tok-1 X=Published,
19:u:tok-1 X=published,
13:u:Suf-3 X=hed,
14:u:Suf-4 X=shed,
12:*:Suf-2 X=ox,
17:u:Tmn-3 X=none/ox,
12:*:Suf-2 L=ox,
16:u:tok-1RR=social,
16:u:tok-1 R=social,
20:u:tok-2 R=and/social,
16:u:Tok-1 X=Social,
16:u:tok-1 X=social,
20:u:tok-2 L=and/social,
14:u:Pre-4 X=Soci,
16:u:tok-1 L=social,
12:*:Pre-2 X=Ag,
16:u:tok-1LL=social,
14:u:Pre-4 X=Scho,
18:u:tok-2 R=acm,/new,
12:*:Suf-2 X=ny,
17:u:Tmn-3 X=none/ny,
12:*:Suf-2 L=ny,
12:*:Pre-2 X=Dr,
21:u:Num-2 L=volume/none,
14:u:tok-1LL=lazy,
14:u:Pre-4 X=Gran,
12:*:Pre-2 X=18,
17:u:tok-1RR=berlin:,
12:*:Suf-2 L=0.,
11:*:Suf-1 X=;,
13:*:Lst-2 X=P/;,
16:u:Tmn-2 X=weak/;,
11:*:Suf-1 L=;,
13:u:Pre-3 X=eds,
14:u:Pre-4 X=eds.,
18:u:Tok-1 X=Academic,
18:u:tok-1 X=academic,
14:u:Pre-4 X=Acad,
14:u:Suf-4 X=emic,
19:u:tok-1RR=sciences,,
19:u:tok-1 R=sciences,,
19:u:Tok-1 X=Sciences,,
18:u:tok-1 X=sciences,
14:u:Suf-4 X=ces,,
19:u:tok-1 L=sciences,,
19:u:tok-1LL=sciences,,
12:*:Suf-2 X=L:,
21:u:Tmn-3 X=moderate/L:,
12:*:Suf-2 L=L:,
13:u:Suf-3 X=13.,
13:u:Suf-3 X=08.,
14:u:Tok-1 X=Also,
14:u:tok-1 X=also,
17:u:tok-2 R=also/in,
13:u:Pre-3 X=Als,
14:u:Pre-4 X=Also,
12:*:Suf-2 X=so,
13:u:Suf-3 X=lso,
14:u:Suf-4 X=Also,
17:u:Tmn-3 X=none/so,
14:u:tok-1 L=also,
17:u:tok-2 L=also/in,
12:*:Suf-2 L=so,
13:u:Pre-3 X=Dec,
14:u:tok-1 R=url:,
14:u:Tok-1 X=URL:,
13:u:tok-1 X=url,
12:*:Pre-2 X=UR,
13:u:Pre-3 X=URL,
14:u:Pre-4 X=URL:,
13:u:Suf-3 X=RL:,
14:u:Suf-4 X=URL:,
24:u:Tmn-4 R=moderate/other,
14:u:tok-1 L=url:,
12:*:Pre-2 X=ww,
13:u:Pre-3 X=www,
14:u:Pre-4 X=www.,
24:u:Cap-3 X=other/moderate,
26:u:Num-2 L=numeric/moderate,
11:u:Tok-1 X=4,
11:*:Pre-2 X=4,
11:u:Pre-3 X=4,
11:u:Pre-4 X=4,
11:*:Suf-2 X=4,
11:u:Suf-3 X=4,
11:u:Suf-4 X=4,
16:u:Tmn-3 X=none/4,
11:u:tok-1 L=4,
11:*:Suf-2 L=4,
16:*:Num-1 X=digits,
17:u:tok-1 R=alberto,
17:u:Tok-1 X=Alberto,
17:u:tok-1 X=alberto,
13:u:Suf-3 X=rto,
14:u:Suf-4 X=erto,
17:u:tok-1 L=alberto,
17:u:tok-1LL=alberto,
20:u:tok-1 X=manuscript,
14:u:Pre-4 X=Manu,
12:*:Suf-2 X=S,,
17:u:Tmn-3 X=weak/S,,
12:*:Suf-2 L=S,,
16:u:tok-1 R=appear,
19:u:tok-2 R=to/appear,
12:*:Suf-2 X=To,
16:u:Tok-1 X=appear,
19:u:tok-2 L=to/appear,
19:u:tok-2 R=appear/in,
12:*:Suf-2 L=To,
14:u:Suf-4 X=pear,
16:u:tok-1 L=appear,
19:u:tok-2 L=appear/in,
16:u:tok-1LL=appear,
15:u:tok-2 R=j./g.,
15:u:tok-2 L=j./g.,
13:u:Pre-3 X=Mil,
14:u:Suf-4 X=king,
13:u:Suf-3 X=per,
12:*:Pre-2 X=Fr,
13:u:Suf-3 X=co,,
14:u:Tok-1 X=Jan.,
14:u:Pre-4 X=Jan.,
14:u:Suf-4 X=Jan.,
18:u:tok-1 X=preprint,
14:u:Suf-4 X=int,,
17:*:Key-1 X=edition,
25:u:Key-2 X=edition/initial,
13:u:Suf-3 X=ue,,
13:u:Pre-3 X=Ima,
14:u:Pre-4 X=Imag,
25:u:tok-2 L=academic/press,,
16:u:tok-1 X=london,
13:u:Pre-3 X=Lon,
14:u:Pre-4 X=Lond,
13:u:Pre-3 X=Edi,
14:u:Pre-4 X=Edit,
13:u:Suf-3 X=net,
17:u:tok-1 L=working,
20:u:tok-1 L=relations.,
28:u:tok-2 L=relations./machine,
20:u:tok-1LL=relations.,
18:u:tok-1RR=239-266.,
22:u:tok-2 R=learning,/5,,
18:u:tok-1 X=practice,
13:u:Pre-3 X=180,
18:u:tok-1 R=december,
12:*:Pre-2 X=7-,
14:u:Suf-4 X=ited,
12:*:Pre-2 X=(S,
22:u:Tok-1 X=Statistique,,
21:u:tok-1 X=statistique,
18:u:tok-1LL=europeen,
20:u:tok-1 R=sandbjerg,,
18:u:tok-1RR=denmark,,
25:u:tok-2 L=de/statistique,,
33:u:tok-2 R=statistique,/sandbjerg,,
12:*:Pre-2 X=Pi,
17:u:tok-1RR=society,
17:u:tok-1 R=society,
17:u:Tok-1 X=Society,
17:u:tok-1 X=society,
14:u:Suf-4 X=iety,
17:u:tok-1 L=society,
13:u:Pre-3 X=Arr,
13:u:tok-1LL=van,
12:*:Pre-2 X=(3,
12:*:Suf-2 X=ph,
17:u:Tmn-3 X=none/ph,
12:*:Suf-2 L=ph,
12:*:Suf-2 X=os,
17:u:Tmn-3 X=none/os,
12:*:Suf-2 L=os,
16:u:Tok-1 X=Carlos,
16:u:tok-1 X=carlos,
14:u:Pre-4 X=Carl,
13:u:Suf-3 X=los,
14:u:Suf-4 X=rlos,
16:u:tok-1 L=carlos,
16:u:tok-1LL=carlos,
12:*:Pre-2 X=do,
13:u:tok-1 X=www,
21:u:Num-2 L=double/none,
18:u:Tok-1 X=Sciences,
18:u:tok-1 L=sciences,
18:u:tok-1LL=sciences,
12:*:Suf-2 X=a:,
21:u:Tmn-3 X=moderate/a:,
19:u:tok-1 X=institute,
13:u:Pre-3 X=Ins,
14:u:Pre-4 X=Inst,
12:*:Suf-2 L=a:,
13:u:tok-1 X=see,
12:*:Suf-2 L=5.,
13:u:Suf-3 X=See,
14:u:Pre-4 X=Elec,
22:u:Key-3 X=edition/none,
32:u:tok-1LL=nearest-hyperrectangle,
29:u:tok-2 L=algorithms./machine,
13:u:tok-1RR=19,,
24:u:tok-2 R=learning,/vol.,
12:*:Pre-2 X=IJ,
13:u:Pre-3 X=IJC,
14:u:Pre-4 X=IJCA,
13:u:tok-1 L=art,
13:u:tok-1LL=art,
17:u:tok-1LL=harvard,
14:u:Pre-4 X=Step,
13:u:tok-1RR=k.,,
13:u:tok-1 R=k.,,
13:u:Tok-1 X=K.,,
13:u:Pre-3 X=K.,,
13:u:Pre-4 X=K.,,
13:u:Suf-3 X=K.,,
13:u:Suf-4 X=K.,,
14:u:Pre-4 X=Huma,
17:u:tok-1RR=london,,
12:*:Fst-1 X=Pd,
17:u:tok-1 X=edition,
14:u:Pre-4 X=Stev,
17:u:tok-1LL=richard,
18:u:tok-2 L=the/ieee,
11:u:tok-1RR=2,
11:u:tok-1 R=2,
21:u:tok-2 R=learning,/2,
11:*:Pre-2 X=2,
11:*:Suf-2 X=2,
26:u:tok-2 R=and/engineering,,
26:u:tok-2 L=and/engineering,,
13:u:Pre-3 X=Bal,
14:u:Pre-4 X=Ball,
12:*:Pre-2 X=Ot,
13:u:Suf-3 X=gy,,
14:u:Suf-4 X=ogy,,
11:*:Suf-1 X=],
14:*:Lst-2 X=Pe/],
18:u:Tmn-2 X=strong/],
11:*:Suf-1 L=],
12:*:Pre-2 X=IF,
13:u:tok-1RR=ed.,
22:u:tok-1 X=northholland,
14:u:Pre-4 X=Nort,
12:*:Pre-2 X=(P,
12:*:Pre-2 X=40,
14:u:Suf-4 X=58).,
12:*:Suf-2 X=.),
15:u:tok-1 L=(ed.),
12:*:Suf-2 L=.),
15:u:tok-1LL=(ed.),
12:*:Suf-2 L=9.,
18:u:tok-1LL=403-409.,
18:u:tok-1RR=brachman,
15:u:tok-2 R=in/r.,
28:u:tok-2 L=levesque,/readings,
12:*:Suf-2 X=0),
19:u:Tmn-3 X=strong/0),
14:u:Pre-4 X=Mark,
14:u:tok-1LL=mark,
13:u:Suf-3 X=le.,
25:u:tok-1 R=addison-wesley,,
13:u:Pre-3 X=sec,
12:*:Pre-2 X=1-,
22:u:tok-1 L=association,,
22:u:tok-1LL=association,,
14:u:Pre-4 X=pres,
13:u:Pre-3 X=Rev,
16:*:Key-1 X=review,
21:u:Key-3 X=review/none,
11:*:Suf-1 X=H,
14:*:Lst-2 X=Lu/H,
18:u:tok-1LL=stanford,
13:u:Pre-3 X=Stu,
18:u:tok-1 X=handbook,
13:u:Pre-3 X=Han,
14:u:Pre-4 X=Hand,
13:u:Pre-3 X=Geo,
14:u:Pre-4 X=Geor,
18:u:tok-1RR=germany.,
18:u:Tok-1 X=Germany.,
17:u:tok-1 X=germany,
23:u:tok-2 R=germany./_x+1,
13:u:Pre-3 X=Ger,
14:u:Pre-4 X=Germ,
11:*:Suf-1 L=?,
20:u:Tok-1 X=(NIPS*92),,
16:u:tok-1 X=nips92,
18:u:tok-1RR=855-862,,
22:u:tok-2 L=5/(nips*92),,
26:u:tok-2 R=(nips*92),/pages,
12:*:Pre-2 X=(N,
13:u:Pre-3 X=(NI,
14:u:Pre-4 X=(NIP,
14:u:Suf-4 X=92),,
13:u:Pre-3 X=God,
12:*:Suf-2 L=A:,
19:u:tok-1 R=presented,
19:u:tok-1LL=presented,
24:u:Tok-1 X=(International,
17:u:tok-1LL=thermec,
12:u:tok-1 L=97,
27:u:tok-2 L=97/(international,
35:u:tok-2 R=(international/conference,
13:u:Pre-3 X=(In,
14:u:Pre-4 X=(Int,
12:*:Suf-2 L=97,
12:u:tok-1LL=97,
24:u:tok-1 L=(international,
26:u:tok-1RR=thermomechanical,
35:u:tok-2 L=(international/conference,
24:u:tok-1LL=(international,
26:u:tok-1 R=thermomechanical,
22:u:tok-1RR=processing),,
29:u:tok-2 R=on/thermomechanical,
26:u:Tok-1 X=Thermomechanical,
26:u:tok-1 X=thermomechanical,
22:u:tok-1 R=processing),,
29:u:tok-2 L=on/thermomechanical,
39:u:tok-2 R=thermomechanical/processing),,
14:u:Pre-4 X=Ther,
22:u:Tok-1 X=Processing),,
26:u:tok-1 L=thermomechanical,
39:u:tok-2 L=thermomechanical/processing),,
27:u:tok-2 R=processing),/july,
13:u:Suf-3 X=g),,
14:u:Suf-4 X=ng),,
19:u:tok-1 X=available,
12:*:Pre-2 X=Av,
13:u:Pre-3 X=Ava,
14:u:Pre-4 X=Avai,
15:u:tok-1LL=1994.,
19:u:tok-1 L=available,
13:u:tok-1 R=www,
23:u:tok-2 L=available/via,
17:u:tok-2 R=via/www,
13:u:Tok-1 X=WWW,
19:u:tok-1LL=available,
78:u:tok-1RR=http://wwwbode.informatik.tu-muenchen.de/~wismuell/publications.html,
17:u:tok-2 L=via/www,
18:u:tok-2 R=www/from,
12:*:Pre-2 X=WW,
13:u:Pre-3 X=WWW,
13:u:Pre-4 X=WWW,
11:*:Suf-1 X=W,
12:*:Suf-2 X=WW,
13:u:Suf-3 X=WWW,
13:u:Suf-4 X=WWW,
14:*:Lst-2 X=Lu/W,
16:u:Tmn-2 X=none/W,
17:u:Tmn-3 X=none/WW,
11:*:Suf-1 L=W,
12:*:Suf-2 L=WW,
15:u:tok-1 L=hall,,
12:*:Suf-2 X=ke,
18:u:tok-1 X=november,
13:u:Pre-3 X=Nov,
14:u:Pre-4 X=Nove,
13:u:Suf-3 X=ll.,
14:u:Suf-4 X=ram,,
13:u:Pre-3 X=tel,
14:u:Pre-4 X=tele,
12:*:Pre-2 X="C,
12:*:Suf-2 X=ep,
18:u:tok-1LL=toronto,,
13:u:Tok-1 X=Bad,
13:u:tok-1 X=bad,
22:u:tok-1 R=honnef/bonn,,
25:u:tok-2 L=programming/bad,
26:u:tok-2 R=bad/honnef/bonn,,
13:u:Pre-3 X=Bad,
13:u:Pre-4 X=Bad,
12:*:Suf-2 X=ad,
13:u:Suf-3 X=Bad,
13:u:Suf-4 X=Bad,
17:u:Tmn-3 X=none/ad,
12:*:Suf-2 L=ad,
11:*:Lst-1 L=S,
19:u:Tok-1 X=November,,
12:*:Pre-2 X=Ci,
15:u:tok-1 X=paper,
13:u:Pre-3 X=Pap,
14:u:Pre-4 X=Pape,
15:u:tok-1RR=royal,
15:u:tok-1 R=royal,
19:u:tok-2 R=the/royal,
15:u:Tok-1 X=Royal,
15:u:tok-1 X=royal,
19:u:tok-2 L=the/royal,
13:u:Pre-3 X=Roy,
14:u:Pre-4 X=Roya,
13:u:Suf-3 X=yal,
14:u:Suf-4 X=oyal,
15:u:tok-1 L=royal,
15:u:tok-1LL=royal,
17:u:tok-1LL=society,
22:u:tok-1RR=recognition,,
22:u:tok-1 R=recognition,,
30:u:tok-2 R=pattern/recognition,,
22:u:Tok-1 X=Recognition,,
30:u:tok-2 L=pattern/recognition,,
27:u:tok-2 R=recognition,/vol.,
15:u:tok-1 R=tech.,
15:u:Tok-1 X=Tech.,
14:u:Suf-4 X=ech.,
15:u:tok-1 L=tech.,
15:u:tok-1LL=tech.,
12:u:tok-1RR=8,,
12:u:tok-1 R=8,,
12:u:tok-1 L=8,,
13:u:tok-1RR=van,
13:u:tok-1 R=van,
12:*:Pre-2 X=95,
12:*:Suf-2 L=1.,
15:u:Tok-1 X=AAAI.,
18:u:tok-1 L=aaai-91.,
24:u:tok-2 L=aaai-91./aaai.,
20:u:tok-2 R=aaai./_x+1,
13:u:Suf-3 X=AI.,
14:u:Suf-4 X=AAI.,
13:u:Suf-3 X=r).,
12:*:Pre-2 X=cr,
32:*:Brk-1 X=opening-square-bracket,
32:*:Brk-1 X=closing-square-bracket,
21:u:tok-1 L=charleston,,
16:u:tok-1 R=71-84.,
26:u:tok-2 L=charleston,/acm,,
21:u:tok-2 R=acm,/71-84.,
13:u:Pre-3 X=STA,
14:u:Pre-4 X=STAN,
14:u:Pre-4 X=Hern,
14:u:Pre-4 X=Trav,
12:*:Pre-2 X=78,
14:u:Suf-4 X=ron,,
13:u:Suf-3 X=he.,
12:*:Pre-2 X=(2,
13:u:Pre-3 X=Kri,
12:*:Suf-2 X=95,
17:u:Tmn-3 X=none/95,
17:u:Tok-1 X=Stephen,
17:u:tok-1 X=stephen,
14:u:Suf-4 X=phen,
17:u:tok-1 L=stephen,
14:u:Pre-4 X=Stud,
12:*:Pre-2 X=It,
13:u:Pre-3 X=Ita,
14:u:Pre-4 X=Ital,
21:u:tok-1RR=educational,
14:u:Pre-4 X=Perf,
15:u:Tok-1 X=Study,
12:u:Tok-1 X=E,,
19:u:tok-2 L=volume/e,,
17:u:tok-2 R=e,/york,
12:*:Pre-2 X=E,,
12:u:Pre-3 X=E,,
12:u:Pre-4 X=E,,
12:u:Suf-3 X=E,,
12:u:Suf-4 X=E,,
19:u:Cap-2 L=_x-1/caps,
19:u:Cap-3 X=caps/_x-1,
13:u:Pre-3 X=Can,
13:u:Suf-3 X=00.,
14:u:Suf-4 X=100.,
13:u:Suf-3 X=ved,
22:u:tok-1 X=dissertation,
16:*:Key-1 X=thesis,
23:u:Key-3 X=thesis/strong,
26:u:tok-1RR=stan-cs-92-1462,,
28:u:tok-2 L=university,/report,
14:u:Suf-4 X=ven,,
12:*:Suf-2 X=CA,
14:u:Pre-4 X=Mono,
13:u:tok-1LL=aca,
19:u:tok-1 L=monograph,
12:u:tok-1 R=3.,
21:u:tok-1RR=wilmington:,
23:u:tok-2 L=monograph/no.,
16:u:tok-2 R=no./3.,
12:*:Pre-2 X=3.,
21:u:tok-1 R=manuscript.,
26:u:tok-2 R=manuscript./_x+1,
14:u:Suf-4 X=ipt.,
15:u:Tok-1 X=1808,,
14:u:tok-1 X=1808,
15:u:tok-1 L=spie,,
18:u:tok-1 R=259-273.,
21:u:tok-2 L=spie,/1808,,
24:u:tok-2 R=1808,/259-273.,
14:u:Pre-4 X=1808,
13:u:Suf-3 X=08,,
14:u:Suf-4 X=808,,
12:*:Suf-2 X=ak,
12:*:Suf-2 L=ak,
17:u:tok-1RR=section,
17:u:tok-1 R=section,
17:u:tok-1 X=section,
17:u:tok-1 L=section,
17:u:tok-1LL=section,
27:u:tok-2 R=university/press,,
27:u:tok-2 L=university/press,,
18:u:tok-1 R=handbook,
18:u:Tok-1 X=Handbook,
21:u:tok-2 R=handbook/of,
18:u:tok-1 L=handbook,
21:u:tok-2 L=handbook/of,
18:u:tok-1LL=handbook,
16:u:tok-1RR=steven,
16:u:tok-1 X=steven,
16:u:tok-1 X=spring,
15:u:Tok-1 X=Pisa,,
14:u:tok-1 X=pisa,
16:u:tok-1 R=italy.,
28:u:tok-2 L=intelligence/pisa,,
22:u:tok-2 R=pisa,/italy.,
13:u:Pre-3 X=Pis,
14:u:Pre-4 X=Pisa,
13:u:Suf-3 X=sa,,
14:u:Suf-4 X=isa,,
12:*:Suf-2 L=h:,
14:u:Suf-4 X=osis,
13:u:Pre-3 X=ed.,
19:u:tok-1LL=geymonat,,
15:u:tok-1 L=ed.),,
18:u:tok-2 L=ed.),/c.,
15:u:tok-2 R=c./i.,
16:u:tok-1 L=model.,
19:u:tok-2 L=model./in,
21:u:Tok-1 X=Perception,,
18:u:tok-1RR=391-410.,
27:u:tok-2 L=human/perception,,
25:u:tok-2 R=perception,/pp.,
14:u:Pre-4 X=Perc,
14:u:Pre-4 X=Meta,
13:u:Pre-3 X=Sec,
12:*:Suf-2 L=6),
21:u:tok-2 R=society/for,
21:u:tok-2 L=society/for,
19:u:tok-1RR=practice,,
19:u:tok-1 R=practice,,
19:u:Tok-1 X=Practice,,
14:u:Suf-4 X=ice,,
20:u:Tok-1 X=Submitted,,
16:u:tok-1LL=smooth,
22:u:tok-1 L=polynomials.,
15:u:tok-1 R=1998.,
33:u:tok-2 L=polynomials./submitted,,
26:u:tok-2 R=submitted,/1998.,
13:u:Suf-3 X=ed,,
14:u:Suf-4 X=ted,,
18:u:tok-1LL=contract,
15:u:tok-1 R=[24],,
17:u:tok-1RR=chapter,
18:u:tok-2 R=in/[24],,
12:*:Pre-2 X=[2,
12:*:Suf-2 X=):,
21:u:Tmn-3 X=moderate/):,
12:*:Suf-2 L=):,
18:u:tok-1 L=society,,
18:u:tok-1LL=society,,
12:*:Pre-2 X=WG,
28:u:tok-2 R=harvard/university,
28:u:tok-2 L=harvard/university,
22:u:tok-1RR=corporation,,
22:u:tok-1 R=corporation,,
22:u:Tok-1 X=Corporation,,
21:u:tok-1 X=corporation,
14:u:Pre-4 X=Corp,
12:*:Pre-2 X="E,
22:u:tok-1LL=corporation,,
12:*:Pre-2 X=(D,
12:*:Pre-2 X=pi,
17:u:Tok-1 X=Review,,
13:u:Suf-3 X=ew,,
14:u:Suf-4 X=iew,,
15:u:tok-1RR=rep.,,
12:*:Pre-2 X=(R,
12:*:Pre-2 X=he,
13:u:Suf-3 X=dle,
17:u:tok-1 L=shapes.,
29:u:tok-2 L=shapes./proceedings,
17:u:tok-1LL=shapes.,
23:u:tok-2 R=royal/society,
23:u:tok-2 L=royal/society,
15:u:tok-1RR=b200,,
20:u:tok-2 R=of/london,,
15:u:tok-1 R=b200,,
18:u:tok-1RR=269-294.,
20:u:tok-2 L=of/london,,
23:u:tok-2 R=london,/b200,,
12:*:Pre-2 X=B2,
18:u:tok-1RR=edition.,
20:u:tok-1LL=difference,
12:*:Pre-2 X=63,
14:u:Suf-4 X=ber.,
18:u:Tok-1 X=Granada,,
17:u:tok-1 X=granada,
24:u:tok-1 L=colloquium'87,,
18:u:tok-1RR=331-375.,
33:u:tok-2 L=colloquium'87,/granada,,
22:u:tok-2 R=granada,/pp.,
20:u:tok-1RR=australian,
20:u:tok-1 R=australian,
14:u:Suf-4 X=lian,
12:*:Suf-2 X=10,
12:*:Suf-2 L=10,
13:u:Pre-3 X=(20,
14:u:Pre-4 X=(200,
14:u:tok-1 X=2005,
24:u:tok-1RR=person-centred,
24:u:tok-1 R=person-centred,
23:u:tok-1 X=personcentred,
14:u:Suf-4 X=tred,
24:u:tok-1 L=person-centred,
24:u:Tok-1 X=Person-Centred,
22:u:tok-1RR=ross-on-wye:,
22:u:tok-1 R=ross-on-wye:,
14:u:tok-1RR=pccs,
14:u:tok-1 X=2000,
23:u:tok-1 X=psychotherapy,
12:*:Pre-2 X=ps,
13:u:Pre-3 X=psy,
14:u:Pre-4 X=psyc,
12:*:Suf-2 X=py,
13:u:Suf-3 X=apy,
14:u:Suf-4 X=rapy,
17:u:Tmn-3 X=none/py,
16:u:tok-1RR=velha:,
16:u:tok-1 R=velha:,
14:u:tok-1RR=vale,
18:u:tok-2 R=a/velha:,
16:u:Tok-1 X=Velha:,
15:u:tok-1 X=velha,
14:u:tok-1 R=vale,
18:u:tok-2 L=a/velha:,
21:u:tok-2 R=velha:/vale,
14:u:Pre-4 X=Velh,
13:u:Suf-3 X=ha:,
14:u:Suf-4 X=lha:,
14:u:tok-1 X=vale,
14:u:Pre-4 X=Vale,
14:u:Suf-4 X=ale.,
17:u:tok-1RR=london:,
17:u:tok-1 R=london:,
14:u:tok-1 X=2003,
12:*:Pre-2 X=Es,
22:u:Tok-1 X=Dissertation,
19:u:tok-1 R=abstracts,
24:u:tok-1RR=international:,
32:u:tok-2 R=dissertation/abstracts,
14:u:Pre-4 X=Diss,
24:u:Key-2 X=thesis/initial,
19:u:Tok-1 X=Abstracts,
19:u:tok-1 X=abstracts,
22:u:tok-1 L=dissertation,
32:u:tok-2 L=dissertation/abstracts,
14:u:Suf-4 X=acts,
22:u:tok-1LL=dissertation,
19:u:tok-1 L=abstracts,
17:u:Tok-1 X=Section,
19:u:tok-1LL=abstracts,
14:u:Pre-4 X=Sect,
12:u:tok-1LL=b:,
22:u:tok-2 L=the/sciences,
22:u:tok-2 R=sciences/and,
22:u:tok-2 L=sciences/and,
13:u:Suf-3 X=B),,
14:u:Suf-4 X=-B),,
17:u:tok-1LL=sanders,
28:u:tok-2 R=the/person-centred,
28:u:tok-2 L=the/person-centred,
14:u:tok-1 X=2006,
16:u:tok-1RR=mental,
16:u:tok-1 R=mental,
16:u:Tok-1 X=mental,
16:u:tok-1 X=mental,
13:u:Pre-3 X=men,
14:u:Pre-4 X=ment,
16:u:tok-1 L=mental,
17:u:tok-1RR=(2003).,
13:u:tok-1 L=see,
12:u:tok-1LL=a:,
20:u:tok-1 L=humanities,
24:u:tok-2 L=humanities/and,
20:u:tok-1LL=humanities,
18:u:tok-1RR=64(6-a),,
26:u:tok-2 R=social/sciences,,
18:u:tok-1 R=64(6-a),,
26:u:tok-2 L=social/sciences,,
28:u:tok-2 R=sciences,/64(6-a),,
18:u:Tok-1 X=64(6-A),,
14:u:tok-1 X=646a,
28:u:tok-2 L=sciences,/64(6-a),,
24:u:tok-2 R=64(6-a),/1983.,
13:u:Pre-3 X=64(,
14:u:Pre-4 X=64(6,
13:u:Suf-3 X=A),,
14:u:Suf-4 X=-A),,
18:u:tok-1 L=64(6-a),,
24:u:tok-2 L=64(6-a),/1983.,
13:u:Tok-1 X=NP.,
12:u:tok-1 X=np,
19:u:tok-1LL=gestalt!,,
18:u:tok-2 R=np./_x+1,
12:*:Pre-2 X=NP,
13:u:Pre-3 X=NP.,
13:u:Pre-4 X=NP.,
13:u:Suf-3 X=NP.,
13:u:Suf-4 X=NP.,
16:u:tok-1RR=edited,
16:u:tok-1 R=edited,
16:u:tok-1 X=edited,
16:u:tok-1 L=edited,
19:u:tok-2 L=edited/by,
16:u:tok-1LL=edited,
17:u:tok-1 X=america,
13:u:Pre-3 X=Ess,
14:u:Pre-4 X=Essa,
16:u:tok-1 X=george,
18:u:tok-1RR=chicago:,
18:u:tok-1 R=chicago:,
13:u:Pre-3 X=200,
20:u:tok-1RR=routledge,,
20:u:tok-1 X=translated,
23:u:tok-2 R=translated/by,
20:u:tok-1 L=translated,
23:u:tok-2 L=translated/by,
20:u:tok-1LL=translated,
19:u:Tok-1 X=Kritische,
19:u:tok-1 X=kritische,
12:u:tok-1 L=5.,
25:u:tok-1 R=studienausgabe.,
22:u:tok-2 L=5./kritische,
35:u:tok-2 R=kritische/studienausgabe.,
14:u:Pre-4 X=Krit,
14:u:Suf-4 X=sche,
14:u:Pre-4 X=2000,
12:*:Fst-1 R=Pi,
12:*:Fst-1 X=Pi,
14:*:Suf-2 X=.,
14:*:Suf-2 L=.,
23:u:Num-2 L=page/moderate,
13:u:Pre-3 X=Kur,
14:u:Pre-4 X=Kurt,
13:u:Pre-3 X=Oth,
14:u:Pre-4 X=Othe,
13:u:Suf-3 X=0):,
13:u:tok-1 X=age,
15:u:tok-1LL=great,
18:u:tok-1 L=reprint,,
18:u:tok-1LL=reprint,,
14:u:Tok-1 X=4th.,
15:u:tok-1LL=books,
23:u:tok-1 L=xxiiixxiv.,
28:u:tok-2 L=xxiiixxiv./4th.,
21:u:tok-2 R=4th./edited,
14:u:Pre-4 X=4th.,
14:u:Suf-4 X=4th.,
25:u:Tok-1 X=Metamorphoseon.,
24:u:tok-1 X=metamorphoseon,
15:u:tok-1 L=ovid.,
31:u:tok-2 L=ovid./metamorphoseon.,
32:u:tok-2 R=metamorphoseon./edited,
14:u:Suf-4 X=eon.,
13:u:Pre-3 X=201,
16:u:tok-1 X=essays,
25:u:Key-3 X=translator/weak,
17:u:tok-1 R=edition,
17:u:Tok-1 X=edition,
17:u:tok-1 L=edition,
12:*:Suf-2 X=].,
19:u:Tmn-3 X=strong/].,
16:u:Tok-1 X=Dover.,
24:u:tok-1RR=0-486-67260-3.,
27:u:tok-2 L=equations./dover.,
21:u:tok-2 R=dover./isbn,
14:u:Tok-1 X=ISBN,
14:u:tok-1 X=isbn,
12:*:Pre-2 X=IS,
13:u:Pre-3 X=ISB,
14:u:Pre-4 X=ISBN,
12:*:Suf-2 X=BN,
13:u:Suf-3 X=SBN,
14:u:Suf-4 X=ISBN,
17:u:Tmn-3 X=none/BN,
14:u:tok-1 L=isbn,
12:*:Suf-2 L=BN,
13:u:Suf-3 X=2):,
13:u:Pre-3 X=doi,
14:u:Pre-4 X=doi:,
14:u:Suf-4 X=idge,
19:u:tok-1RR=retrieved,
19:u:Tok-1 X=Retrieved,
19:u:tok-1 X=retrieved,
14:u:Suf-4 X=eved,
19:*:Key-1 X=retrieved,
27:u:Key-2 X=retrieved/initial,
19:u:tok-1 L=retrieved,
19:u:tok-1RR=cambridge,
19:u:tok-1 R=cambridge,
19:u:Tok-1 X=Cambridge,
30:u:tok-2 R=cambridge/university,
19:u:tok-1 L=cambridge,
30:u:tok-2 L=cambridge/university,
19:u:tok-1LL=cambridge,
17:u:tok-1 L=(1999).,
17:u:tok-1LL=(1999).,
15:u:Tok-1 X=Upper,
15:u:tok-1 X=upper,
16:u:tok-1 R=saddle,
16:u:tok-1RR=river,,
22:u:tok-2 R=upper/saddle,
14:u:Pre-4 X=Uppe,
14:u:Suf-4 X=pper,
16:u:Tok-1 X=Saddle,
16:u:tok-1 X=saddle,
15:u:tok-1 L=upper,
16:u:tok-1 R=river,,
22:u:tok-2 L=upper/saddle,
23:u:tok-2 R=saddle/river,,
13:u:Pre-3 X=Sad,
14:u:Pre-4 X=Sadd,
14:u:Suf-4 X=ddle,
16:u:Tok-1 X=River,,
15:u:tok-1 X=river,
15:u:tok-1LL=upper,
16:u:tok-1 L=saddle,
23:u:tok-2 L=saddle/river,,
17:u:tok-1RR=stephen,
17:u:tok-1 R=stephen,
25:u:tok-2 R=intelligence/in,
15:u:tok-1 X=chaos,
14:u:Pre-4 X=Chao,
16:u:tok-1 L=chaos:,
13:u:Pre-3 X=Unp,
16:u:tok-1LL=chaos:,
15:u:Tok-1 X=Chaos,
13:u:Suf-3 X=aos,
14:u:Suf-4 X=haos,
15:u:tok-1 L=chaos,
22:u:tok-2 L=chaos/theory,
12:*:Suf-2 L=46,
12:*:Suf-2 L=12,
14:u:tok-1 X=2013,
12:*:Lst-1 X=Pf,
12:*:Lst-1 L=Pf,
13:*:Suf-1 X=,
14:*:Suf-2 X=,,
16:*:Lst-2 X=Pf/,
20:u:Tmn-2 X=strong/,
21:u:Tmn-3 X=strong/,,
13:*:Suf-1 L=,
14:*:Suf-2 L=,,
13:u:Suf-3 X=nny,
14:u:Suf-4 X=enny,
14:u:tok-1 X=2008,
15:u:tok-1 R=2002.,
18:u:Tok-1 X="Charles,
23:u:tok-2 L=_x-1/"charles,
21:u:tok-2 R="charles/r.,
13:u:Pre-3 X="Ch,
14:u:Pre-4 X="Cha,
18:u:tok-1 L="charles,
16:u:tok-1RR=hise.",
21:u:tok-2 L="charles/r.,
16:u:tok-2 R=r./van,
16:u:tok-1 L=hise.",
20:u:tok-1 R=wikipedia.,
14:u:tok-1RR=last,
19:u:tok-2 L=hise."/in,
23:u:tok-2 R=in/wikipedia.,
20:u:Tok-1 X=Wikipedia.,
19:u:tok-1 X=wikipedia,
16:u:tok-1LL=hise.",
14:u:tok-1 R=last,
18:u:tok-1RR=modified,
23:u:tok-2 L=in/wikipedia.,
25:u:tok-2 R=wikipedia./last,
13:u:Pre-3 X=Wik,
14:u:Pre-4 X=Wiki,
14:u:Suf-4 X=dia.,
15:u:tok-1RR=2013.,
15:u:Tok-1 X=2013.,
13:u:tok-1LL=may,
14:u:Pre-4 X=2013,
14:u:Suf-4 X=013.,
14:u:Pre-4 X=2006,
15:u:tok-1RR=2008.,
15:u:tok-1 R=2008.,
15:u:Tok-1 X=2008.,
20:u:tok-2 R=2008./_x+1,
14:u:Pre-4 X=2008,
14:u:Suf-4 X=008.,
14:u:Suf-4 X=00):,
18:u:tok-1 R=critical,
17:u:tok-1 R=action.,
17:u:Tok-1 X=Action.,
16:u:tok-1 X=action,
20:u:tok-1 R=cambridge:,
20:u:Tok-1 X=Cambridge:,
30:u:tok-2 R=cambridge:/cambridge,
20:u:tok-1 L=cambridge:,
30:u:tok-2 L=cambridge:/cambridge,
20:u:tok-1LL=cambridge:,
14:u:Tok-1 X=sec.,
13:u:tok-1 X=sec,
14:u:Pre-4 X=sec.,
14:u:Suf-4 X=sec.,
14:u:tok-1 L=sec.,
12:*:Pre-2 X=p.,
19:u:Tok-1 X=950-1100.,
17:u:tok-1 X=9501100,
20:u:tok-1LL=provincial,
28:u:tok-2 L=society,/950-1100.,
30:u:tok-2 R=950-1100./cambridge:,
13:u:Pre-3 X=950,
14:u:Pre-4 X=950-,
15:u:tok-1LL=2004.,
29:u:tok-2 L=reprint,/cambridge:,
22:u:tok-2 R=press,/2008.,
22:u:tok-2 L=press,/2008.,
21:u:Tok-1 X=Soderbergh,,
20:u:tok-1 X=soderbergh,
17:u:tok-1 R=steven,,
19:u:tok-1RR=director.,
26:u:tok-2 L=_x-1/soderbergh,,
29:u:tok-2 R=soderbergh,/steven,,
13:u:Pre-3 X=Sod,
14:u:Pre-4 X=Sode,
14:u:Suf-4 X=rgh,,
17:u:Tok-1 X=Steven,,
21:u:tok-1 L=soderbergh,,
19:u:tok-1 R=director.,
14:u:tok-1RR=che.,
29:u:tok-2 L=soderbergh,/steven,,
27:u:tok-2 R=steven,/director.,
19:u:Tok-1 X=director.,
18:u:tok-1 X=director,
21:u:tok-1LL=soderbergh,,
17:u:tok-1 L=steven,,
14:u:tok-1 R=che.,
14:u:tok-1RR=dvd.,
27:u:tok-2 L=steven,/director.,
24:u:tok-2 R=director./che.,
13:u:Pre-3 X=dir,
14:u:Pre-4 X=dire,
14:u:Tok-1 X=Che.,
13:u:tok-1 X=che,
17:u:tok-1LL=steven,,
19:u:tok-1 L=director.,
14:u:tok-1 R=dvd.,
24:u:tok-2 L=director./che.,
19:u:tok-2 R=che./dvd.,
14:u:Pre-4 X=Che.,
14:u:Suf-4 X=Che.,
14:u:Tok-1 X=DVD.,
13:u:tok-1 X=dvd,
19:u:tok-1LL=director.,
14:u:tok-1 L=che.,
19:u:tok-2 L=che./dvd.,
18:u:tok-2 R=dvd./new,
12:*:Pre-2 X=DV,
13:u:Pre-3 X=DVD,
14:u:Pre-4 X=DVD.,
13:u:Suf-3 X=VD.,
14:u:Suf-4 X=DVD.,
26:u:Key-3 X=retrieved/strong,
14:u:tok-1 L=doi:,
13:u:Pre-3 X=10.,
14:u:Pre-4 X=10.1,
12:*:Suf-2 L=i:,
15:u:tok-1 X=moore,
14:u:Pre-4 X=Moor,
21:u:tok-1LL=possessions,
21:u:tok-1 L=(cambridge:,
29:u:tok-2 L=(cambridge:/harvard,
21:u:tok-1LL=(cambridge:,
16:u:tok-1RR=1981),,
16:u:tok-1 R=1981),,
13:u:tok-1RR=78.,
23:u:tok-2 R=press,/1981),,
16:u:Tok-1 X=1981),,
13:u:tok-1 R=78.,
23:u:tok-2 L=press,/1981),,
20:u:tok-2 R=1981),/78.,
14:u:Suf-4 X=81),,
13:u:Tok-1 X=78.,
16:u:tok-1 L=1981),,
20:u:tok-2 L=1981),/78.,
18:u:tok-2 R=78./_x+1,
13:u:Pre-3 X=78.,
13:u:Pre-4 X=78.,
13:u:Suf-4 X=78.,
21:u:tok-1RR=(director).,
21:u:tok-1 R=(director).,
21:u:Tok-1 X=(Director).,
13:u:Pre-3 X=(Di,
14:u:Pre-4 X=(Dir,
14:u:Suf-4 X=or).,
21:u:tok-1LL=(director).,
18:u:tok-1RR=skinner:,
20:u:tok-2 L=(1999)./b.,
15:u:tok-2 R=b./f.,
18:u:tok-1 R=skinner:,
15:u:tok-2 L=b./f.,
21:u:tok-2 R=f./skinner:,
16:u:tok-1 X=motion,
17:u:tok-1 X=picture,
16:u:tok-1 R=united,
13:u:Pre-3 X=pic,
14:u:Pre-4 X=pict,
12:*:Suf-2 L=].,
18:u:tok-1 X=producer,
13:u:Pre-3 X=(Pr,
14:u:Pre-4 X=(Pro,
12:*:Pre-2 X=[D,
18:u:Tok-1 X=Chaffin,,
17:u:tok-1 X=chaffin,
23:u:tok-2 L=_x-1/chaffin,,
22:u:tok-2 R=chaffin,/c.,,
14:u:Pre-4 X=Chaf,
14:u:Suf-4 X=fin,,
18:u:tok-1 L=chaffin,,
22:u:tok-2 L=chaffin,/c.,,
22:u:tok-2 R=c.,/kennedy,,
18:u:tok-1LL=chaffin,,
19:u:tok-1RR=marshall,,
22:u:tok-2 L=c.,/kennedy,,
22:u:tok-2 R=kennedy,/k.,,
19:u:tok-1 R=marshall,,
22:u:tok-2 L=kennedy,/k.,,
23:u:tok-2 R=k.,/marshall,,
22:u:tok-1RR=(producers),,
17:u:Tok-1 X=Barron,,
16:u:tok-1 X=barron,
17:u:tok-1RR=heyman,,
22:u:tok-2 L=_x-1/barron,,
21:u:tok-2 R=barron,/d.,,
17:u:tok-1 L=barron,,
17:u:tok-1 R=heyman,,
21:u:tok-2 L=barron,/d.,,
21:u:tok-2 R=d.,/heyman,,
16:u:tok-1 L=moore,,
28:u:tok-1 R=(writer/director).,
19:u:tok-2 L=moore,/m.,
31:u:tok-2 R=m./(writer/director).,
12:*:Pre-2 X=(W,
15:u:tok-1LL=death,
18:u:tok-2 L=_x-1/the,
14:u:Suf-4 X=ell.,
24:u:tok-2 R=retrieved/from,
24:u:tok-2 L=retrieved/from,
19:u:tok-1LL=retrieved,
15:u:tok-1LL=short,
13:u:Suf-3 X=10,,
14:u:Suf-4 X=010,,
15:u:tok-1 L=2010,,
15:u:tok-1LL=2010,,
12:u:tok-1 L=12,
15:u:tok-1 R=2005.,
22:u:tok-2 L=12/september,
25:u:tok-2 R=september/2005.,
15:u:Tok-1 X=2005.,
12:u:tok-1LL=12,
25:u:tok-2 L=september/2005.,
25:u:tok-2 R=2005./retrieved,
14:u:Pre-4 X=2005,
12:*:Suf-2 X=df,
15:u:tok-1LL=woman,
16:u:tok-1 L=kills?,
14:u:tok-1 R=age:,
16:u:tok-1RR=extra,,
20:u:tok-2 L=kills?/the,
18:u:tok-2 R=the/age:,
12:*:Suf-2 L=s?,
14:u:Tok-1 X=Age:,
16:u:tok-1LL=kills?,
16:u:tok-1 R=extra,,
18:u:tok-2 L=the/age:,
21:u:tok-2 R=age:/extra,,
14:u:Pre-4 X=Age:,
14:u:Suf-4 X=Age:,
20:u:Cap-2 L=_x-1/other,
20:u:Cap-3 X=other/_x-1,
24:u:Tok-1 X=(WU2006.0058).,
20:u:tok-1 X=wu20060058,
16:u:tok-1LL=theses,
18:u:tok-1 L=program.,
33:u:tok-2 L=program./(wu2006.0058).,
29:u:tok-2 R=(wu2006.0058)./_x+1,
13:u:Pre-3 X=(WU,
14:u:Pre-4 X=(WU2,
15:u:tok-1RR=2011,,
15:u:tok-1 R=2011,,
20:u:Tok-1 X=television,
20:u:tok-1 X=television,
18:u:tok-1 R=program,,
26:u:tok-2 L=2010,/television,
29:u:tok-2 R=television/program,,
18:u:Tok-1 X=program,,
20:u:tok-1 L=television,
22:u:tok-1RR=broadcasting,
29:u:tok-2 L=television/program,,
29:u:tok-2 R=program,/australian,
18:u:tok-1 R=october.,
19:u:tok-2 L=sydney,/4,
20:u:tok-2 R=4/october.,
18:u:Tok-1 X=October.,
17:u:tok-1LL=sydney,,
20:u:tok-2 L=4/october.,
23:u:tok-2 R=october./_x+1,
17:u:tok-1 X=andrade,
14:u:tok-1RR=dir.,
14:u:tok-1 R=dir.,
14:u:Tok-1 X=Dir.,
13:u:tok-1 X=dir,
14:u:Pre-4 X=Dir.,
13:u:Suf-3 X=ir.,
14:u:Suf-4 X=Dir.,
14:u:tok-1 L=dir.,
14:u:tok-1LL=dir.,
15:u:tok-1 R=perf.,
15:u:Tok-1 X=Perf.,
14:u:tok-1 X=perf,
13:u:Suf-3 X=rf.,
14:u:Suf-4 X=erf.,
15:u:tok-1 L=perf.,
15:u:tok-1LL=perf.,
14:*:Suf-2 L=.,
17:u:Tok-1 X=Kurtis.,
16:u:tok-1 X=kurtis,
14:u:tok-1 L=bill,
14:u:tok-1 R=wgbh,
22:u:tok-2 L=bill/kurtis.,
22:u:tok-2 R=kurtis./wgbh,
14:u:Suf-4 X=tis.,
12:*:Suf-2 X=BH,
22:u:Num-2 L=numeric/_x-1,
13:u:Suf-3 X=ik,,
18:u:Tok-1 X=Morocco,,
17:u:tok-1 X=morocco,
17:u:tok-1LL=(lrec),,
20:u:tok-1 L=marrakech,,
29:u:tok-2 L=marrakech,/morocco,,
24:u:tok-2 R=morocco,/2008.,
14:u:Pre-4 X=Moro,
14:u:Suf-4 X=cco,,
35:u:Tok-1 X=(doi:10.1017/aog.2016.20),
28:u:tok-1 X=doi101017aog201620,
17:u:tok-1LL=57(73),,
17:u:tok-1 L=3946,
43:u:tok-2 L=3946/(doi:10.1017/aog.2016.20),
40:u:tok-2 R=(doi:10.1017/aog.2016.20)/_x+1,
12:*:Pre-2 X=(d,
13:u:Pre-3 X=(do,
14:u:Pre-4 X=(doi,
13:u:Suf-3 X=20),
14:u:Suf-4 X=.20),
15:u:tok-1RR=drugs,
26:u:tok-1 X=antituberculosis,
15:u:tok-1 R=drugs,
15:u:tok-1 X=drugs,
13:u:Suf-3 X=ugs,
14:u:Suf-4 X=rugs,
13:u:Tok-1 X=IF:,
12:u:tok-1 X=if,
15:u:tok-1 R=5,895,
19:u:tok-2 R=if:/5,895,
13:u:Pre-3 X=IF:,
13:u:Pre-4 X=IF:,
12:*:Suf-2 X=F:,
13:u:Suf-3 X=IF:,
13:u:Suf-4 X=IF:,
21:u:Tmn-3 X=moderate/F:,
15:u:Tok-1 X=5,895,
14:u:tok-1 X=5895,
13:u:tok-1 L=if:,
19:u:tok-2 L=if:/5,895,
20:u:tok-2 R=5,895/_x+1,
13:u:Pre-3 X=5,8,
14:u:Pre-4 X=5,89,
12:*:Suf-2 L=F:,
13:u:Suf-3 X=895,
14:u:Suf-4 X=,895,
17:u:Tok-1 X=Italian,
17:u:tok-1 X=italian,
13:u:tok-1LL=dm;,
21:u:tok-1 R=multicentre,
21:u:tok-2 L=the/italian,
29:u:tok-2 R=italian/multicentre,
21:u:Tok-1 X=Multicentre,
21:u:tok-1 X=multicentre,
17:u:tok-1 L=italian,
29:u:tok-2 L=italian/multicentre,
27:u:tok-2 R=multicentre/study,
13:u:Suf-3 X=tre,
14:u:Suf-4 X=ntre,
17:u:tok-1LL=italian,
21:u:tok-1 L=multicentre,
20:u:tok-1RR=resistance,
27:u:tok-2 L=multicentre/study,
18:u:tok-2 R=study/on,
21:u:tok-1LL=multicentre,
20:u:tok-1 R=resistance,
18:u:tok-2 L=study/on,
23:u:tok-2 R=on/resistance,
20:u:Tok-1 X=Resistance,
20:u:tok-1 X=resistance,
26:u:tok-1RR=antituberculosis,
23:u:tok-2 L=on/resistance,
23:u:tok-2 R=resistance/to,
14:u:Pre-4 X=Resi,
20:u:tok-1 L=resistance,
26:u:tok-1 R=antituberculosis,
23:u:tok-2 L=resistance/to,
29:u:tok-2 R=to/antituberculosis,
26:u:Tok-1 X=Antituberculosis,
20:u:tok-1LL=resistance,
17:u:tok-1RR=(smira),
29:u:tok-2 L=to/antituberculosis,
32:u:tok-2 R=antituberculosis/drugs,
14:u:Pre-4 X=Anti,
15:u:Tok-1 X=Drugs,
26:u:tok-1 L=antituberculosis,
17:u:tok-1 R=(smira),
16:u:tok-1RR=group.,
32:u:tok-2 L=antituberculosis/drugs,
23:u:tok-2 R=drugs/(smira),
13:u:Pre-3 X=Dru,
14:u:Pre-4 X=Drug,
12:*:Suf-2 X=A),
17:u:tok-1 X=ballard,
17:u:tok-1 L=stories,
20:u:tok-2 L=stories/of,
15:u:tok-2 R=of/j.,
17:u:tok-1LL=stories,
18:u:tok-1RR=ballard.,
15:u:tok-2 L=of/j.,
18:u:tok-1 R=ballard.,
21:u:tok-2 R=g./ballard.,
18:u:Tok-1 X=Ballard.,
21:u:tok-2 L=g./ballard.,
22:u:tok-2 R=ballard./new,
13:u:Suf-3 X=rne,
14:u:Suf-4 X=urne,
17:u:tok-1 L=powers.,
17:u:tok-1LL=powers.,
15:u:Tok-1 X=Civil,
15:u:tok-1 X=civil,
17:u:tok-2 L=a/civil,
23:u:tok-2 R=civil/action.,
13:u:Pre-3 X=Civ,
14:u:Pre-4 X=Civi,
13:u:Suf-3 X=vil,
14:u:Suf-4 X=ivil,
15:u:tok-1 L=civil,
23:u:tok-2 L=civil/action.,
22:u:tok-2 R=action./dir.,
19:u:Tok-1 X=Travolta,,
18:u:tok-1 X=travolta,
17:u:tok-1RR=duvall,,
24:u:tok-2 L=john/travolta,,
26:u:tok-2 R=travolta,/robert,
14:u:Suf-4 X=lta,,
19:u:tok-1 L=travolta,,
17:u:tok-1 R=duvall,,
26:u:tok-2 L=travolta,/robert,
24:u:tok-2 R=robert/duvall,,
17:u:Tok-1 X=Duvall,,
16:u:tok-1 X=duvall,
19:u:tok-1LL=travolta,,
14:u:tok-1RR=fry,,
24:u:tok-2 L=robert/duvall,,
25:u:tok-2 R=duvall,/stephen,
13:u:Pre-3 X=Duv,
14:u:Pre-4 X=Duva,
16:u:tok-1 X=viking,
13:u:Pre-3 X=Vik,
14:u:Pre-4 X=Viki,
17:u:Tok-1 X=Dirlik,,
16:u:tok-1 X=dirlik,
14:u:Pre-4 X=Dirl,
14:u:Suf-4 X=lik,,
19:u:tok-1 L=place.,
18:u:tok-1 R=prazniak,
22:u:tok-2 L=place./in,
21:u:tok-2 R=in/prazniak,
18:u:Tok-1 X=Prazniak,
18:u:tok-1 X=prazniak,
19:u:tok-1LL=place.,
17:u:tok-1RR=dirlik,,
21:u:tok-2 L=in/prazniak,
22:u:tok-2 R=prazniak/and,
14:u:Pre-4 X=Praz,
13:u:Suf-3 X=iak,
14:u:Suf-4 X=niak,
18:u:tok-1 L=prazniak,
17:u:tok-1 R=dirlik,,
18:u:tok-1RR=1551.,
22:u:tok-2 L=prazniak/and,
21:u:tok-2 R=and/dirlik,,
18:u:tok-1LL=prazniak,
18:u:tok-1 R=1551.,
21:u:tok-2 L=and/dirlik,,
26:u:tok-2 R=dirlik,/1551.,
16:u:tok-1LL=policy,
21:u:Tok-1 X=Unpublished,
21:u:tok-1 X=unpublished,
24:u:tok-1 L=depression.,
36:u:tok-2 L=depression./unpublished,
33:u:tok-2 R=unpublished/manuscript.,
14:u:Pre-4 X=Unpu,
21:u:Tok-1 X=Manuscript.,
24:u:tok-1LL=depression.,
21:u:tok-1 L=unpublished,
33:u:tok-2 L=unpublished/manuscript.,
14:u:Pre-4 X=Cong,
13:u:Tok-1 X=Vox,
13:u:tok-1 X=vox,
21:u:tok-1 L=mistake.,
17:u:tok-1 R=septem-,
18:u:tok-1RR=ber(17).,
25:u:tok-2 L=mistake./vox,
21:u:tok-2 R=vox/septem-,
13:u:Pre-3 X=Vox,
13:u:Pre-4 X=Vox,
13:u:Suf-3 X=Vox,
13:u:Suf-4 X=Vox,
12:*:Suf-2 X=m-,
16:u:Tok-1 X=Viking,
17:u:tok-1 L=osteen.,
24:u:tok-2 L=osteen./viking,
25:u:tok-2 R=viking/critical,
14:u:tok-1RR=eds.,
14:u:tok-1 R=eds.,
14:u:Tok-1 X=eds.,
14:u:Suf-4 X=eds.,
14:u:tok-1 L=eds.,
14:u:tok-1LL=eds.,
12:*:Suf-2 L=y;,
12:*:Pre-2 X=68,
14:*:Suf-2 L=.,
12:*:Suf-2 X=d;,
14:*:Suf-2 L=,,
13:*:Suf-2 L=m,
13:u:tok-1 L=,,
13:*:Suf-2 L=,,
13:u:tok-1LL=,,
13:u:tok-1RR=n,
12:*:Suf-1 L=,
13:*:Suf-2 L=n,
13:*:Suf-1 L=,
22:u:tok-1LL=grandfather.,
20:u:tok-1 L=edinburgh:,
17:u:tok-1 R=cadell.,
23:u:tok-2 L=edinburgh:/r.,
20:u:tok-2 R=r./cadell.,
20:u:tok-1 L=flight,,
25:u:Tok-1 X=Histopathology,,
24:u:tok-1 X=histopathology,
18:u:tok-1LL=sulindac,
21:u:tok-1 L=(clinoril).,
15:u:tok-1 R=1987,,
37:u:tok-2 L=(clinoril)./histopathology,,
31:u:tok-2 R=histopathology,/1987,,
21:u:tok-2 L=hall,/upper,
15:u:tok-1LL=hall,,
20:u:tok-2 R=river,/new,
16:u:tok-1LL=sierra,
16:u:tok-1 L=norte,,
14:u:tok-1RR=coba,
23:u:tok-2 L=norte,/carlos,
24:u:tok-2 R=carlos/alberto,
16:u:tok-1LL=norte,,
14:u:tok-1 R=coba,
17:u:tok-1RR=andrade,
24:u:tok-2 L=carlos/alberto,
22:u:tok-2 R=alberto/coba,
14:u:Tok-1 X=Coba,
14:u:tok-1 X=coba,
17:u:tok-1 R=andrade,
13:u:tok-1RR=[et,
22:u:tok-2 L=alberto/coba,
22:u:tok-2 R=coba/andrade,
13:u:Pre-3 X=Cob,
14:u:Pre-4 X=Coba,
12:*:Suf-2 X=ba,
13:u:Suf-3 X=oba,
14:u:Suf-4 X=Coba,
17:u:Tmn-3 X=none/ba,
17:u:Tok-1 X=Andrade,
14:u:tok-1 L=coba,
13:u:tok-1 R=[et,
15:u:tok-1RR=al.];,
22:u:tok-2 L=coba/andrade,
21:u:tok-2 R=andrade/[et,
12:*:Suf-2 L=ba,
13:u:Suf-3 X=ade,
14:u:Suf-4 X=rade,
13:u:Tok-1 X=[et,
14:u:tok-1LL=coba,
17:u:tok-1 L=andrade,
15:u:tok-1 R=al.];,
17:u:tok-1RR=hernn,
21:u:tok-2 L=andrade/[et,
19:u:tok-2 R=[et/al.];,
12:*:Pre-2 X=[e,
13:u:Pre-3 X=[et,
13:u:Pre-4 X=[et,
13:u:Suf-3 X=[et,
13:u:Suf-4 X=[et,
15:u:Tok-1 X=al.];,
17:u:tok-1LL=andrade,
13:u:tok-1 L=[et,
17:u:tok-1 R=hernn,
19:u:tok-1RR=jaramillo,
19:u:tok-2 L=[et/al.];,
23:u:tok-2 R=al.];/hernn,
14:u:Pre-4 X=al.],
12:*:Suf-2 X=];,
13:u:Suf-3 X=.];,
14:u:Suf-4 X=l.];,
17:u:Tmn-3 X=weak/];,
17:u:Tok-1 X=Hernn,
16:u:tok-1 X=hernan,
13:u:tok-1LL=[et,
15:u:tok-1 L=al.];,
19:u:tok-1 R=jaramillo,
18:u:tok-1RR=cisneros,
23:u:tok-2 L=al.];/hernn,
27:u:tok-2 R=hernn/jaramillo,
12:*:Suf-2 L=];,
13:*:Suf-2 X=n,
14:u:Suf-3 X=nn,
15:u:Suf-4 X=rnn,
18:u:Tmn-3 X=none/n,
13:*:Suf-2 L=n,
14:u:Tok-1 X=334.,
13:u:tok-1 X=334,
17:u:tok-2 L=m./334.,
18:u:tok-2 R=334./new,
13:u:Pre-3 X=334,
14:u:Pre-4 X=334.,
14:u:Suf-4 X=334.,
18:u:tok-2 R=in/child,
12:u:tok-1RR=63,
18:u:tok-2 L=in/child,
27:u:tok-2 R=child/development,
12:*:Suf-2 X=63,
15:u:Tok-1 X=NASA,,
14:u:tok-1 X=nasa,
26:u:tok-1LL=nap-of-the-earth,
26:u:tok-2 L=flight,/nasa,,
21:u:tok-2 R=nasa,/tech.,
12:*:Pre-2 X=NA,
13:u:Pre-3 X=NAS,
14:u:Pre-4 X=NASA,
13:u:Suf-3 X=SA,,
14:u:Suf-4 X=ASA,,
15:u:Tok-1 X=IJCV,,
14:u:tok-1 X=ijcv,
14:u:tok-1LL=shah,
19:u:tok-1 L=model,,
25:u:tok-2 L=model,/ijcv,,
21:u:tok-2 R=ijcv,/2002.,
14:u:Pre-4 X=IJCV,
13:u:Suf-3 X=CV,,
14:u:Suf-4 X=JCV,,
13:u:Suf-3 X=eng,
14:u:Suf-4 X=heng,
0=3.320351e-02
1=7.155085e-02
2=-8.174657e-02
3=3.990903e-02
4=8.607367e-02
5=8.302781e-02
6=7.049525e-02
7=5.612234e-02
8=1.027318e-01
9=1.326468e-01
10=4.029191e-02
11=1.794322e-01
12=-1.177514e-01
13=8.194687e-02
14=5.876326e-03
15=1.893226e-02
16=1.216398e-01
17=2.261838e-02
18=2.653505e-03
19=6.575916e-02
20=1.878646e-02
21=-7.561563e-02
22=-6.395408e-02
23=-8.506994e-02
24=5.698446e-01
25=1.476801e-01
26=-5.234516e-01
27=-3.344113e-01
28=6.862321e-02
29=-1.471044e-01
30=-8.418927e-02
32=-4.602693e-01
34=-4.540729e-01
36=-7.772983e-03
37=-1.474977e-01
40=-7.574392e-02
46=-4.795342e-02
48=-5.209040e-01
49=4.410596e-01
50=1.846613e-04
51=-4.457358e-02
52=-1.196057e-01
53=4.951072e-02
54=-1.116749e-01
55=7.194322e-04
56=-1.156846e-01
57=-5.367062e-02
58=-3.931076e-02
59=-2.662112e-04
60=-3.109799e-02
61=-1.395089e-01
62=2.505669e-02
63=1.777305e-02
68=-2.432735e-02
70=-2.713873e-02
72=-3.749822e-01
73=-5.455364e-02
74=7.973689e-01
75=5.695129e-02
76=-2.466490e-02
78=6.880710e-06
81=4.153158e-03
82=1.295510e-04
85=-2.568227e-01
96=-6.352172e-01
97=-8.990416e-01
98=-1.083353e-02
99=5.691357e-01
100=-2.569360e-03
101=-5.888578e-01
102=-1.852581e-03
103=-4.199422e-01
104=-1.457964e-02
105=7.176786e-02
106=4.511048e-02
107=-2.380010e-01
108=-2.573128e-01
109=-3.025271e-01
111=-1.977349e-01
120=-1.320916e-01
121=3.884136e-02
123=-2.035197e-01
124=4.402632e-01
129=1.239075e-01
130=-3.471055e-01
131=5.317568e-02
133=5.889319e-04
139=-3.628294e-01
141=1.169071e-01
144=-3.254263e-01
145=-6.494362e-01
146=-1.951143e-01
147=-5.267947e-01
148=2.610818e-02
149=6.451990e-01
150=2.712041e-01
151=-1.516561e-01
152=-3.444534e-01
154=-3.737990e-01
156=-1.182038e-01
157=-2.623127e-02
159=-8.347822e-03
169=-2.705388e-01
172=8.679021e-05
174=4.994096e-01
177=1.621478e-01
178=-5.998835e-02
180=4.712073e-02
181=-1.488117e-02
182=1.166960e-04
193=-3.323392e-01
195=-2.871516e-01
196=3.636026e-02
199=6.953798e-01
200=2.409471e-03
201=-2.933606e-02
216=-3.145737e-01
217=-1.336063e-01
218=-1.668180e-01
219=-1.925861e-01
220=2.508869e-02
221=-2.899760e-01
222=-8.171472e-02
224=3.955863e-01
225=5.607956e-02
226=3.368087e-02
229=-2.551855e-01
241=-7.305304e-02
243=-4.205719e-03
244=-1.352006e-02
248=5.698738e-04
249=3.103350e-01
250=4.048336e-02
253=1.104419e-02
258=2.531099e-01
259=4.416051e-03
264=-1.979435e-02
265=-2.349904e-01
267=-1.875785e-01
268=4.246162e-02
269=-1.315510e-01
272=9.481397e-02
274=3.160952e-01
283=1.709987e-05
289=-1.608521e-01
299=5.300611e-01
313=-3.558018e-01
315=-6.345286e-02
322=8.512340e-04
324=4.432188e-01
337=-3.994943e-01
339=-4.941221e-01
340=-3.704923e-02
341=-1.474069e-01
346=-2.918058e-01
349=6.033410e-01
350=-4.003281e-03
361=-1.470550e-01
362=1.352170e-03
370=5.713500e-02
374=1.271248e+00
385=-2.687118e-01
387=-6.668644e-02
389=-2.459816e-02
392=-8.809354e-02
399=8.818147e-01
403=1.435002e-02
409=-1.997103e-01
416=-8.615222e-05
418=1.422321e-02
424=7.222450e-01
449=6.275475e-01
474=9.133713e-02
484=-1.746747e-02
491=1.790967e-01
499=1.195089e+00
514=-9.197971e-03
524=4.667975e-01
536=9.197238e-02
538=8.109184e-02
549=2.579281e-01
574=4.690190e-01
576=9.104407e-02
601=8.183632e-02
603=1.508975e-06
610=1.722292e-03
624=2.152532e-01
625=2.361877e-03
626=7.456399e-02
634=-6.747247e-02
637=-3.873566e-02
646=1.952926e-02
647=1.324284e-01
648=2.152532e-01
649=2.361877e-03
650=7.456399e-02
658=-6.747247e-02
661=-3.873566e-02
670=1.952926e-02
671=1.324284e-01
685=2.547443e-02
696=2.581776e-01
697=1.167740e-01
698=-1.126749e-03
699=9.235682e-02
700=-1.085444e-01
701=1.025426e-01
702=-3.468910e-01
703=2.455897e-03
704=2.076411e-01
705=-3.604752e-01
706=2.007080e-01
707=-6.392229e-02
708=4.739376e-03
709=4.098996e-02
710=-3.193497e-02
711=7.091170e-02
712=6.041457e-02
714=-3.687959e-01
715=-8.639784e-03
717=-2.737787e-01
718=-2.613927e-02
720=4.933947e-01
721=6.661389e-02
722=-7.813739e-02
723=-2.314956e-03
724=-1.287503e+00
725=-9.603311e-02
728=-2.754734e-01
730=-3.240870e-01
733=-2.717144e-01
742=-2.607669e-02
745=2.268385e-01
746=-2.289991e-03
747=4.986259e-02
749=2.521060e-01
751=6.785861e-02
752=-1.626544e-02
754=-1.300750e-03
757=3.220208e-05
759=2.683747e-02
768=-6.204778e-02
769=2.245994e-03
770=5.094990e-01
771=1.347926e-01
776=-1.520306e-02
781=-1.051015e-02
792=-1.024244e-01
794=-3.783678e-02
795=3.584666e-01
796=-6.830806e-05
798=-4.282412e-02
800=-7.030880e-03
802=6.020748e-02
805=-3.188489e-02
816=-6.711313e-02
817=1.740768e-01
819=-5.232243e-02
820=1.157537e-01
825=5.592125e-03
826=-2.341594e-01
827=5.789972e-02
829=1.776785e-02
835=-1.598908e-02
844=2.500576e-02
845=2.621346e-01
846=6.784276e-02
848=-1.341469e-02
850=-2.659202e-01
852=-2.233449e-03
873=2.066878e-01
874=-2.600442e-03
878=3.387161e-02
892=1.262774e-02
895=3.395559e-01
896=1.102103e-01
913=-2.098487e-01
916=-2.258213e-01
917=-2.941312e-02
919=1.506833e-02
920=3.097265e-01
922=8.044780e-02
929=3.912536e-02
939=-3.935071e-04
944=2.179200e-03
945=-1.180101e-01
946=3.416826e-01
949=5.941542e-01
955=1.253527e-01
968=1.842581e-01
970=2.619488e-01
995=3.386969e-02
1018=7.836859e-03
1020=3.516463e-01
1034=3.126360e-04
1042=-1.949327e-01
1045=3.315313e-01
1058=1.222606e-03
1066=2.627585e-02
1084=9.773795e-03
1095=3.122286e-01
1099=2.011637e-02
1114=2.380630e-02
1120=5.130175e-01
1195=1.886089e-01
1201=1.145079e-03
1210=-2.342054e-03
1220=3.780147e-01
1232=1.288165e-01
1234=9.884919e-02
1270=2.037399e-01
1272=8.917716e-02
1296=1.824390e-01
1297=1.190790e-01
1298=-1.133926e-01
1299=9.449246e-03
1300=5.585590e-05
1301=4.853253e-02
1302=-2.762675e-01
1303=1.506024e-03
1304=7.717895e-02
1305=-3.629951e-02
1306=1.304066e-01
1307=-1.004176e-01
1308=2.343548e-01
1309=4.845139e-03
1310=1.024363e-01
1311=5.215568e-02
1312=1.076664e-02
1315=-2.548393e-04
1316=2.604553e-02
1318=-3.266020e-02
1319=1.316380e-01
1320=3.977684e-01
1321=1.691776e-02
1322=-5.003501e-06
1323=-1.561225e-04
1324=3.449479e-01
1328=-7.032594e-02
1330=-9.995261e-02
1333=-7.145953e-02
1342=-4.466685e-03
1345=3.009009e-01
1346=2.947907e-02
1347=1.524533e-01
1348=-1.470773e-01
1349=4.900235e-02
1351=3.763519e-01
1352=-8.287537e-02
1353=-6.188428e-01
1354=3.517304e-02
1355=-1.051065e-01
1356=-1.040432e-02
1357=-1.333928e+00
1359=3.324321e-02
1365=4.482069e-03
1369=7.689873e-03
1370=4.966333e-01
1378=1.041877e-02
1392=-9.546481e-02
1394=-1.398180e-03
1395=3.078389e-01
1396=-4.137594e-01
1400=-4.863994e-03
1402=1.077414e-01
1416=-5.748010e-02
1417=2.613129e-02
1419=-2.409391e-03
1420=3.560985e-01
1425=-2.229209e-02
1426=-1.873848e-01
1429=3.989824e-03
1444=4.404369e-02
1445=2.082176e-01
1446=-1.510084e-01
1448=-3.085854e-02
1452=-2.478520e-02
1453=-1.989015e-01
1470=3.216521e-01
1473=3.861213e-02
1474=-6.463227e-03
1476=4.876919e-02
1478=2.397551e-03
1494=4.809920e-04
1495=5.205264e-01
1515=-2.842851e-01
1516=-1.068793e-01
1519=3.899231e-02
1520=2.377061e-01
1523=1.362771e-02
1525=-3.086966e-01
1540=-3.225409e-01
1544=4.131458e-02
1545=9.099613e-02
1546=5.987226e-02
1570=1.807011e-01
1573=-4.348730e-02
1579=2.516155e-03
1595=2.488329e-02
1620=3.908619e-01
1642=-1.619978e-01
1645=3.915731e-01
1666=5.479944e-02
1670=8.128488e-01
1695=4.077515e-01
1720=6.258606e-01
1795=1.310165e-01
1801=1.155359e-02
1804=3.708960e-02
1813=1.164014e-02
1820=1.286610e-01
1832=1.583551e-01
1834=1.176202e-01
1845=3.406401e-01
1868=3.070994e-02
1870=1.273453e-01
1872=1.117026e-01
1896=2.152532e-01
1897=2.361877e-03
1898=7.456399e-02
1906=-6.747247e-02
1909=-3.873566e-02
1918=1.952926e-02
1919=1.324284e-01
2496=1.140549e-01
2497=8.939649e-02
2498=7.679083e-03
2499=4.241567e-02
2500=1.434209e-02
2501=3.247729e-03
2502=6.884134e-02
2503=-5.672085e-03
2504=5.225054e-02
2505=-3.974654e-02
2506=1.501486e-01
2508=-9.534510e-02
2509=-1.282707e-02
2510=7.231879e-02
2511=-8.086756e-03
2512=-6.702264e-02
2515=-2.473065e-03
2516=2.935098e-02
2518=-1.662280e-02
2519=-3.409100e-02
2520=3.707440e-01
2521=-1.325387e-01
2522=-4.378417e-01
2523=-1.262654e-01
2524=4.955388e-02
2542=-2.952936e-02
2544=-2.778543e-01
2545=2.557760e-01
2546=6.508316e-02
2547=-1.220247e-02
2548=-3.417885e-02
2549=-3.544231e-02
2553=-1.129276e-01
2554=7.006873e-03
2558=1.758691e-03
2559=-1.420683e-02
2564=-6.723754e-04
2565=1.347829e-02
2570=4.574554e-01
2572=-1.418878e-02
2574=7.765239e-02
2577=5.884214e-03
2578=1.600523e-02
2595=4.174492e-01
2596=-1.919978e-04
2601=2.618079e-02
2602=3.757014e-02
2616=-5.992918e-02
2620=1.424624e-01
2624=-1.124923e-02
2625=1.125497e-01
2626=-9.109348e-02
2627=1.108242e-01
2644=7.297381e-03
2645=5.948723e-01
2646=1.653682e-01
2648=-1.953575e-03
2649=2.485868e-06
2653=-9.370506e-02
2668=1.517811e-04
2670=4.930689e-01
2673=1.242276e-01
2692=-3.195536e-03
2695=4.183328e-01
2716=2.700340e-02
2720=2.040535e-01
2725=-2.578050e-01
2740=-8.665812e-02
2745=2.179192e-01
2746=6.170887e-02
2764=2.523121e-02
2768=6.592779e-02
2769=-3.110683e-01
2770=7.667388e-01
2773=-4.088697e-02
2795=9.995111e-02
2820=1.955821e-01
2836=-9.652934e-02
2842=-8.273793e-03
2845=2.588224e-01
2860=2.672528e-03
2866=2.639231e-02
2870=1.014807e+00
2895=1.110899e+00
2920=2.465448e-01
2945=1.136090e-01
2995=5.546583e-01
3001=1.174743e-02
3013=7.983067e-02
3020=3.821311e-01
3045=3.243159e-01
3070=5.001501e-01
3072=8.844838e-02
3096=9.924036e-02
3097=2.877168e-02
3098=-2.046801e-02
3099=4.373839e-02
3101=3.096386e-02
3103=-1.457364e-01
3104=2.163230e-02
3106=-1.521465e-01
3107=9.569071e-02
3109=-1.056273e-02
3111=5.327515e-04
3116=-7.870495e-03
3120=1.185538e-01
3121=1.492373e-01
3145=2.488225e-02
3147=-3.457673e-02
3149=1.460240e-01
3195=3.449744e-01
3245=4.996750e-02
3320=-1.171247e-01
3322=2.865859e-02
3344=3.570751e-02
3349=3.714136e-03
3364=6.010149e-02
3368=7.355249e-02
3370=-1.201730e-02
3445=-2.013117e-03
3495=4.306492e-02
3632=1.904462e-02
3696=2.152532e-01
3697=2.361877e-03
3698=7.456399e-02
3706=-6.747247e-02
3709=-3.873566e-02
3718=1.952926e-02
3719=1.324284e-01
4296=9.674634e-02
4297=7.581153e-02
4298=-8.140658e-05
4299=-4.771265e-02
4300=5.939316e-02
4301=1.997531e-02
4302=-2.914676e-02
4303=1.404671e-02
4304=6.572431e-03
4305=2.197788e-01
4306=-3.529709e-02
4309=-2.619999e-02
4310=6.000043e-03
4311=-3.769084e-02
4312=1.963668e-02
4315=2.635334e-03
4316=7.918110e-02
4317=3.486883e-02
4318=-4.781148e-03
4320=1.754364e-01
4321=-1.194568e-01
4324=8.382247e-02
4345=1.710522e-01
4346=7.912889e-02
4348=-2.133297e-03
4349=-5.052297e-03
4350=2.940913e-04
4353=-9.320024e-03
4358=1.054802e-02
4365=2.426141e-02
4370=1.895383e-01
4377=2.716338e-02
4395=1.260406e-01
4396=7.318947e-03
4398=-5.717057e-03
4401=6.658502e-02
4420=2.373215e-02
4425=1.461104e-01
4444=-4.188483e-02
4445=1.659008e-01
4446=2.903895e-02
4449=1.080240e-02
4468=-1.275664e-01
4470=1.728475e-01
4473=9.315404e-02
4492=1.776536e-04
4495=2.492419e-02
4516=5.297460e-05
4519=8.802649e-03
4520=1.050144e-01
4521=9.899270e-04
4522=-3.626106e-03
4540=1.035694e-01
4545=8.228184e-02
4546=1.844206e-02
4564=5.167793e-02
4568=7.150147e-02
4569=-3.418718e-02
4570=5.616852e-02
4595=9.990079e-02
4620=4.542264e-01
4636=-2.829736e-04
4645=2.909223e-01
4660=1.316158e-02
4670=1.896021e-01
4695=3.142650e-02
4720=1.965597e-01
4745=1.365456e-01
4795=2.594109e-01
4801=1.294156e-01
4804=5.250939e-03
4813=1.476364e-01
4820=3.091161e-01
4870=4.199516e-02
4896=2.152532e-01
4897=2.361877e-03
4898=7.456399e-02
4906=-6.747247e-02
4909=-3.873566e-02
4918=1.952926e-02
4919=1.324284e-01
5496=9.924036e-02
5497=2.877168e-02
5498=-2.046801e-02
5499=4.373839e-02
5501=3.096386e-02
5503=-1.457364e-01
5504=2.163230e-02
5506=-1.521465e-01
5507=9.569071e-02
5509=-1.056273e-02
5511=5.327515e-04
5516=-7.870495e-03
5520=1.185538e-01
5521=1.492373e-01
5545=2.488225e-02
5547=-3.457673e-02
5549=1.460240e-01
5595=3.449744e-01
5645=4.996750e-02
5720=-1.171247e-01
5722=2.865859e-02
5744=3.570751e-02
5749=3.714136e-03
5764=6.010149e-02
5768=7.355249e-02
5770=-1.201730e-02
5845=-2.013117e-03
5895=4.306492e-02
6032=1.904462e-02
6096=9.674634e-02
6097=7.581153e-02
6098=-8.140658e-05
6099=-4.771265e-02
6100=5.939316e-02
6101=1.997531e-02
6102=-2.914676e-02
6103=1.404671e-02
6104=6.572431e-03
6105=2.197788e-01
6106=-3.529709e-02
6109=-2.619999e-02
6110=6.000043e-03
6111=-3.769084e-02
6112=1.963668e-02
6115=2.635334e-03
6116=7.918110e-02
6117=3.486883e-02
6118=-4.781148e-03
6120=1.754364e-01
6121=-1.194568e-01
6124=8.382247e-02
6145=1.710522e-01
6146=7.912889e-02
6148=-2.133297e-03
6149=-5.052297e-03
6150=2.940913e-04
6153=-9.320024e-03
6158=1.054802e-02
6165=2.426141e-02
6170=1.895383e-01
6177=2.716338e-02
6195=1.260406e-01
6196=7.318947e-03
6198=-5.717057e-03
6201=6.658502e-02
6220=2.373215e-02
6225=1.461104e-01
6244=-4.188483e-02
6245=1.659008e-01
6246=2.903895e-02
6249=1.080240e-02
6268=-1.275664e-01
6270=1.728475e-01
6273=9.315404e-02
6292=1.776536e-04
6295=2.492419e-02
6316=5.297460e-05
6319=8.802649e-03
6320=1.050144e-01
6321=9.899270e-04
6322=-3.626106e-03
6340=1.035694e-01
6345=8.228184e-02
6346=1.844206e-02
6364=5.167793e-02
6368=7.150147e-02
6369=-3.418718e-02
6370=5.616852e-02
6395=9.990079e-02
6420=4.542264e-01
6436=-2.829736e-04
6445=2.909223e-01
6460=1.316158e-02
6470=1.896021e-01
6495=3.142650e-02
6520=1.965597e-01
6545=1.365456e-01
6595=2.594109e-01
6601=1.294156e-01
6604=5.250939e-03
6613=1.476364e-01
6620=3.091161e-01
6670=4.199516e-02
6696=2.152532e-01
6697=2.361877e-03
6698=7.456399e-02
6706=-6.747247e-02
6709=-3.873566e-02
6718=1.952926e-02
6719=1.324284e-01
6720=1.353894e-01
6721=-3.910820e-03
6722=1.765900e-01
6723=-4.550154e-03
6725=1.728962e-01
6726=1.888606e-03
6727=-5.703932e-02
6728=-2.459936e-01
6730=4.131447e-02
6736=1.756040e-02
6742=5.689985e-02
6744=4.378231e-01
6770=2.298138e-05
6794=1.916077e-01
6818=2.814621e-03
6819=1.145431e-01
6841=1.259839e-01
6869=2.257246e-01
6994=9.641417e-01
7119=2.531814e-02
7144=1.963504e-01
7244=8.169434e-02
7294=1.929571e-01
7320=1.192292e-01
7321=5.079853e-02
7322=-6.477906e-03
7323=2.806032e-03
7325=4.379770e-02
7326=-1.588362e-01
7327=2.232566e-03
7328=1.279107e-01
7330=4.371220e-02
7331=-6.133929e-01
7332=5.016472e-02
7333=2.329396e-02
7334=1.100415e-02
7335=6.855430e-02
7336=1.715095e-02
7339=1.936699e-02
7340=7.516812e-02
7342=-1.851052e-02
7344=8.253694e-02
7345=-9.799068e-03
7346=2.251913e-03
7368=-1.063899e-02
7369=-1.834613e-02
7370=2.246428e-01
7371=-1.247470e-04
7376=-6.488424e-03
7378=1.961393e-02
7381=8.891751e-05
7383=3.256869e-05
7390=6.759757e-02
7392=8.253694e-02
7393=-9.799068e-03
7394=2.251913e-03
7416=2.152532e-01
7417=2.361877e-03
7418=7.456399e-02
7426=-6.747247e-02
7429=-3.873566e-02
7438=1.952926e-02
7439=1.324284e-01
7440=2.165650e-01
7441=2.798018e-01
7442=-1.320506e-01
7443=-3.824790e-03
7444=-4.535049e-01
7445=1.096047e-01
7446=-1.603455e-01
7447=-1.705313e-03
7448=1.851447e-01
7449=-1.504705e+00
7450=1.759609e-01
7451=-5.978389e-02
7452=1.444199e-01
7453=1.121093e-01
7454=6.624456e-02
7455=4.144771e-02
7456=9.571595e-02
7458=-5.384176e-02
7459=-2.445569e-02
7460=2.086602e-01
7461=1.249194e-02
7462=-1.911268e-02
7463=-8.563988e-01
7464=5.708489e-01
7465=1.339581e-01
7466=-3.779820e-01
7467=-1.881527e-03
7468=-1.380047e-01
7469=-1.327462e-01
7472=-3.935217e-01
7474=-3.865318e-01
7476=-7.702053e-03
7477=-1.113764e-01
7486=-3.471302e-02
7488=-4.537057e-01
7489=4.166700e-01
7490=1.495825e-02
7491=-1.859238e-02
7492=-9.840057e-02
7493=5.446727e-02
7494=-8.029709e-02
7495=5.057352e-04
7496=-7.724562e-02
7498=-1.408857e-02
7499=-1.956374e-06
7500=-2.567010e-02
7501=-9.525628e-02
7502=-8.518766e-04
7503=2.335727e-02
7504=-8.687872e-04
7508=-5.159039e-03
7512=-3.231716e-01
7513=-4.722280e-02
7514=7.767893e-01
7515=5.911424e-02
7522=1.028832e-03
7524=-1.071295e-03
7525=-6.653825e-03
7536=-2.903625e-01
7537=-1.093358e+00
7539=5.243798e-01
7540=-7.056298e-04
7541=-5.264699e-01
7542=1.177086e-03
7543=-3.451466e-02
7544=-7.823374e-03
7546=8.988849e-02
7547=-1.608555e-03
7549=-7.772979e-02
7551=-1.069172e-01
7560=-1.130320e-02
7561=1.716317e-01
7563=-8.746240e-02
7564=1.149195e-01
7569=-1.883915e-02
7570=-2.813319e-01
7571=8.666186e-02
7573=2.293418e-02
7579=-1.014126e-01
7581=1.441047e-01
7585=-4.139162e-01
7586=-6.542461e-02
7587=-6.089974e-01
7589=6.601804e-01
7590=1.847225e-02
7592=-2.716532e-01
7594=-3.718999e-01
7596=-8.821444e-02
7614=7.359038e-01
7618=-3.003534e-02
7620=8.369753e-02
7622=3.905316e-04
7633=-2.569239e-01
7635=-1.286378e-01
7639=4.823482e-01
7640=1.966630e-02
7656=-1.433023e-01
7657=-1.214796e-01
7658=-1.729486e-03
7659=-6.597064e-02
7660=-2.570600e-01
7661=-2.576609e-01
7664=4.002888e-01
7666=6.384967e-02
7673=4.113276e-02
7681=-1.738082e-02
7688=8.129692e-06
7689=6.217737e-03
7690=2.397313e-01
7693=4.821220e-02
7699=1.271175e-02
7704=-1.682956e-02
7705=-1.681991e-01
7709=-1.163762e-01
7712=1.638439e-01
7714=3.949956e-01
7729=-1.338630e-01
7739=7.205904e-01
7753=-2.152526e-01
7755=-2.915904e-02
7762=1.259124e-02
7764=3.707634e-01
7777=-3.629675e-01
7779=-2.305286e-01
7781=-1.250134e-01
7786=-2.557364e-01
7789=5.302695e-01
7802=4.589786e-05
7810=5.224638e-02
7814=1.331400e+00
7825=-1.242442e-01
7827=-5.575078e-02
7828=6.776005e-03
7829=-1.393526e-02
7832=-6.160626e-02
7839=5.246820e-01
7843=1.962739e-02
7849=-1.614240e-01
7856=-4.683864e-04
7858=2.407276e-02
7864=7.311582e-01
7939=3.166790e-01
7954=-5.991693e-03
7957=2.819767e-03
7964=6.601123e-01
7976=1.387924e-01
7978=9.801486e-02
7989=2.669208e-01
8014=4.405103e-01
8016=2.449477e-02
8040=2.002982e-01
8041=3.127114e-01
8042=3.943752e-01
8043=2.882403e-02
8044=-7.029825e-03
8045=7.688648e-02
8046=-1.374785e-01
8047=2.708824e-02
8048=8.591219e-02
8049=-3.573969e-02
8050=6.809633e-02
8051=-9.402193e-02
8052=2.096449e-01
8053=6.136477e-02
8054=3.513869e-03
8055=5.886561e-02
8056=6.067668e-04
8057=-5.756627e-01
8059=4.884774e-02
8060=6.289897e-02
8061=-4.016233e-03
8062=8.301224e-01
8064=2.289484e-01
8065=1.289976e-03
8066=5.779369e-02
8074=-6.378396e-02
8077=-3.385187e-02
8084=7.617526e-04
8086=3.676083e-02
8088=6.410551e-03
8089=1.557914e-01
8090=-1.170666e-01
8091=3.179546e-01
8092=-1.576860e-02
8093=6.078628e-02
8094=1.119111e-01
8095=3.510741e-02
8096=3.632788e-02
8097=1.040286e-01
8098=-2.258310e-01
8099=-4.549724e-02
8100=3.626694e-01
8101=4.759148e-02
8102=3.848585e-02
8103=1.057450e-01
8104=-1.501010e-01
8107=5.104331e-02
8108=-1.249843e-01
8109=8.956656e-03
8110=-6.796839e-02
8112=4.621767e-02
8113=9.676826e-02
8114=-4.042825e-03
8115=1.570408e-01
8116=1.051763e-01
8117=8.894214e-02
8118=1.093572e-01
8119=5.151234e-02
8120=5.790019e-02
8121=3.570014e-02
8122=-9.241744e-01
8123=1.683310e-01
8124=-7.823047e-02
8125=6.156665e-02
8126=3.878926e-03
8127=5.547933e-02
8128=1.060272e-01
8130=9.483074e-03
8131=-4.445776e-02
8132=-1.488912e-01
8133=-5.182561e-03
8134=-5.681822e-02
8135=-7.656493e-02
8136=5.404292e-02
8137=2.227999e-01
8138=-7.512636e-02
8139=5.393933e-02
8140=1.268727e-01
8141=3.417739e-02
8142=1.053087e-01
8143=1.331626e-01
8144=-3.617947e-01
8145=1.711324e-01
8146=7.571849e-02
8147=1.603952e-01
8148=-7.164512e-02
8149=3.970894e-02
8150=3.253443e-02
8151=-1.426195e-02
8152=5.822660e-02
8154=8.419884e-03
8155=-5.872654e-03
8156=9.456310e-02
8158=-4.472465e-02
8159=-6.470269e-02
8160=2.607897e-01
8161=-1.358547e-03
8162=6.265192e-01
8163=-7.014620e-02
8164=1.269482e-01
8165=-5.725847e-01
8166=1.431426e-01
8167=-6.805077e-02
8168=2.690262e-02
8169=3.418797e-01
8170=-3.390320e-01
8171=1.096856e-01
8172=-1.924969e-01
8173=6.232721e-02
8174=5.338050e-02
8175=-1.801454e-02
8176=1.564945e-01
8177=3.366265e-01
8178=9.490273e-01
8179=-2.208652e-02
8180=6.448164e-02
8181=-5.364474e-02
8182=-3.255982e-02
8184=8.315555e-02
8185=2.983482e-01
8186=-7.973054e-02
8187=7.736915e-02
8188=1.181401e-01
8189=7.820307e-02
8190=1.048052e-01
8191=4.901188e-02
8192=1.683036e-01
8193=1.663999e-01
8194=9.059260e-02
8195=1.774230e-01
8196=-1.094445e-01
8197=4.470612e-02
8198=-1.257256e+00
8199=-9.418922e-02
8200=-1.342368e-01
8202=1.026500e-02
8203=5.219124e-02
8204=8.836791e-02
8205=-2.403710e-03
8206=-5.235733e-02
8207=-7.446197e-02
8208=5.383885e-01
8209=1.381273e-01
8210=-3.430963e-02
8211=-3.938272e-04
8212=7.400038e-02
8213=-9.984091e-02
8214=-7.876880e-02
8216=-4.255684e-01
8218=-4.252502e-01
8220=-1.169527e-02
8230=-3.896720e-02
8232=-8.521561e-05
8233=4.241333e-01
8234=-1.811199e+00
8235=-3.323059e-01
8236=-1.078161e-01
8237=8.128549e-02
8238=-9.943143e-02
8239=1.258312e-02
8240=-2.889420e-02
8241=-3.988397e-02
8242=-2.599111e-04
8243=-1.598873e-04
8244=-1.172424e-02
8245=-1.551267e-01
8247=-5.498991e-01
8248=-1.150736e+00
8251=-1.243638e+00
8252=-6.741096e-03
8256=-2.247001e-01
8257=-2.473417e-02
8258=6.463632e-01
8259=6.696886e-02
8260=-2.445133e-02
8262=7.080003e-03
8266=8.813604e-04
8268=-1.355162e-03
8269=-2.738278e-02
8280=-2.098413e-01
8281=-5.351070e-01
8282=-5.319221e-02
8283=4.906795e-01
8284=-2.585235e-03
8285=-4.052238e-01
8287=-2.517576e-01
8288=-2.941652e-02
8289=8.167463e-02
8290=8.239190e-02
8291=-2.130874e-01
8292=-2.016047e-02
8293=-1.447348e-01
8295=-1.147980e-01
8296=-3.674607e-02
8299=-5.794757e-02
8304=-1.228117e-01
8305=1.619195e-01
8307=-8.701434e-02
8308=4.414440e-01
8313=1.258913e-01
8315=6.707724e-02
8317=-4.847238e-03
8325=9.170785e-02
8329=-4.444008e-01
8331=-3.283542e-01
8332=5.037213e-02
8333=3.458136e-01
8334=2.730225e-01
8335=-1.305606e-01
8336=-1.046684e-01
8338=-3.561638e-01
8340=-4.569643e-02
8341=-4.550201e-02
8347=-5.885368e-02
8353=-3.934719e-02
8356=8.693187e-05
8358=7.391100e-01
8361=1.627198e-01
8362=-5.573524e-02
8364=4.148653e-02
8365=-1.342905e-02
8366=2.570911e-04
8377=-2.729895e-01
8379=-1.286082e-01
8380=3.553155e-02
8383=6.950242e-01
8384=1.660494e-02
8385=-2.736202e-02
8400=-3.196991e-02
8401=-1.195950e-01
8403=-6.741869e-02
8404=2.551233e-02
8405=-1.135208e-01
8406=-7.840431e-02
8408=3.847322e-01
8409=8.389350e-02
8410=4.300864e-02
8413=-3.571226e-02
8425=-6.644686e-02
8427=-3.805717e-03
8428=-1.364343e-02
8432=3.828281e-04
8433=3.120454e-01
8434=4.126497e-02
8437=9.198311e-03
8442=2.363766e-01
8449=-1.390002e-01
8452=4.729361e-02
8453=-6.672632e-02
8456=1.627009e-01
8458=4.109206e-01
8467=1.960738e-05
8473=-1.355764e-01
8483=5.477578e-01
8497=-2.062713e-01
8501=-5.922044e-04
8508=3.397917e-01
8521=-3.317054e-01
8522=9.546317e-04
8523=-2.185791e-01
8524=-3.463903e-02
8530=-2.766542e-01
8533=5.413060e-01
8554=5.363747e-02
8558=-3.027362e-05
8569=-1.254537e-01
8576=-6.425713e-02
8583=7.927770e-01
8587=1.914175e-02
8593=-1.457250e-01
8602=2.000698e-02
8608=6.661456e-01
8633=5.853173e-01
8658=8.500697e-02
8668=-1.616820e-02
8675=1.619562e-01
8683=1.218328e+00
8698=-7.965485e-03
8701=5.438414e-03
