#mdl#2#12263
#rdr#45/21/0
1:*,
18:u:Tok-1 X=%x[ 0,0],
18:u:tok-1 X=%x[ 0,1],
18:u:tok-1LL=%X[-2,0],
18:u:tok-1 L=%X[-1,0],
18:u:tok-1 R=%X[ 1,0],
18:u:tok-1RR=%X[ 2,0],
27:u:tok-2 L=%X[-1,0]/%X[ 0,0],
27:u:tok-2 R=%X[ 0,0]/%X[ 1,0],
18:*:Fst-1 X=%x[ 0,2],
18:*:Fst-1 R=%x[ 1,2],
18:*:Lst-1 L=%x[-1,3],
18:*:Lst-1 X=%x[ 0,3],
18:*:Pre-1 X=%x[ 0,4],
18:*:Pre-2 X=%x[ 0,5],
18:*:Pre-3 X=%x[ 0,6],
18:*:Pre-4 X=%x[ 0,7],
18:*:Suf-1 L=%x[-1,8],
18:*:Suf-1 X=%x[ 0,8],
18:*:Suf-2 L=%x[-1,9],
18:*:Suf-2 X=%x[ 0,9],
19:*:Suf-3 X=%x[ 0,10],
19:*:Suf-4 X=%x[ 0,11],
27:*:Fst-2 X=%x[ 0,2]/%x[ 0,4],
27:*:Lst-2 X=%x[ 0,3]/%x[ 0,8],
19:*:Cap-1 L=%x[-1,12],
19:*:Cap-1 X=%x[ 0,12],
19:*:Cap-1 R=%x[ 1,12],
29:*:Cap-2 L=%X[-1,12]/%X[ 0,12],
29:*:Cap-2 R=%X[ 0,12]/%X[ 1,12],
19:*:Num-1 L=%x[-1,13],
19:*:Num-1 X=%x[ 0,13],
19:*:Num-1 R=%x[ 1,13],
19:u:Nme-1 X=%x[ 0,14],
19:u:Loc-1 X=%x[ 0,15],
19:u:Pub-1 X=%x[ 0,16],
19:u:Jnl-1 X=%x[ 0,17],
19:*:Key-1 L=%x[-1,18],
19:*:Key-1 X=%x[ 0,18],
19:*:Key-1 R=%x[ 1,18],
19:*:Pos-1 X=%x[ 0,19],
19:*:Pct-1 L=%x[-1,20],
19:*:Pct-1 X=%x[ 0,20],
19:*:Pct-1 R=%x[ 1,20],
19:u:Loc-1 X=%x[ 0,21],
#qrk#27
6:author,
5:title,
6:editor,
9:booktitle,
4:date,
7:journal,
6:volume,
5:genre,
9:authority,
5:pages,
8:location,
9:publisher,
3:url,
4:note,
7:edition,
6:source,
10:translator,
4:isbn,
3:doi,
8:accessed,
7:section,
8:director,
6:medium,
8:producer,
5:event,
7:unknown,
15:citation-number,
#qrk#2821
1:*,
11:u:tok-1 X=a,
14:u:tok-1LL=_x-2,
14:u:tok-1 L=_x-1,
12:*:Fst-1 X=Lu,
12:*:Fst-1 R=Lu,
14:*:Lst-1 L=_x-1,
11:*:Lst-1 X=P,
11:*:Pre-1 X=A,
14:*:Suf-1 L=_x-1,
11:*:Suf-1 X=.,
14:*:Suf-2 L=_x-1,
14:*:Fst-2 X=Lu/A,
13:*:Lst-2 X=P/.,
14:*:Cap-1 L=_x-1,
16:*:Cap-1 X=single,
17:*:Cap-1 R=initial,
21:*:Cap-2 L=_x-1/single,
24:*:Cap-2 R=single/initial,
14:*:Num-1 L=_x-1,
14:*:Num-1 X=none,
14:*:Num-1 R=none,
11:u:Nme-1 X=F,
11:u:Loc-1 X=F,
11:u:Pub-1 X=F,
11:u:Jnl-1 X=T,
14:*:Key-1 L=_x-1,
14:*:Key-1 X=none,
14:*:Key-1 R=none,
11:*:Pos-1 X=0,
14:*:Pct-1 L=_x-1,
18:*:Pct-1 X=terminal,
18:*:Pct-1 R=internal,
14:u:tok-1LL=_x-1,
12:u:tok-1 L=a.,
12:u:tok-1 R=r.,
11:*:Lst-1 L=P,
11:*:Pre-1 X=C,
12:*:Pre-2 X=Ca,
11:*:Suf-1 L=.,
11:*:Suf-1 X=,,
12:*:Suf-2 L=A.,
14:*:Fst-2 X=Lu/C,
13:*:Lst-2 X=P/,,
16:*:Cap-1 L=single,
17:*:Cap-1 X=initial,
16:*:Cap-1 R=single,
24:*:Cap-2 L=single/initial,
24:*:Cap-2 R=initial/single,
14:*:Num-1 L=none,
11:u:Jnl-1 X=F,
14:*:Key-1 L=none,
11:*:Pos-1 X=3,
18:*:Pct-1 L=terminal,
18:*:Pct-1 X=internal,
18:*:Pct-1 R=terminal,
13:u:tok-1RR=and,
11:*:Pre-1 X=R,
12:*:Pre-2 X=R.,
12:*:Pre-3 X=R.,
12:*:Pre-4 X=R.,
11:*:Suf-1 L=,,
12:*:Suf-2 X=R.,
12:*:Suf-3 X=R.,
12:*:Suf-4 X=R.,
14:*:Fst-2 X=Lu/R,
17:*:Cap-1 L=initial,
24:*:Cap-2 L=initial/single,
11:*:Pos-1 X=6,
18:*:Pct-1 L=internal,
13:u:tok-1 R=and,
12:*:Fst-1 R=Ll,
11:*:Pre-1 X=K,
12:*:Pre-2 X=Ku,
12:*:Suf-2 L=R.,
12:*:Suf-2 X=r,,
13:*:Suf-3 X=er,,
14:*:Fst-2 X=Lu/K,
15:*:Cap-1 R=lower,
23:*:Cap-2 R=initial/lower,
11:u:Nme-1 X=T,
14:*:Pct-1 R=none,
13:u:Tok-1 X=and,
13:u:tok-1 X=and,
12:u:tok-1LL=r.,
12:*:Fst-1 X=Ll,
12:*:Lst-1 X=Ll,
11:*:Pre-1 X=a,
12:*:Pre-2 X=an,
13:*:Pre-3 X=and,
13:*:Pre-4 X=and,
11:*:Suf-1 X=d,
12:*:Suf-2 L=r,,
12:*:Suf-2 X=nd,
13:*:Suf-3 X=and,
13:*:Suf-4 X=and,
14:*:Fst-2 X=Ll/a,
14:*:Lst-2 X=Ll/d,
15:*:Cap-1 X=lower,
14:*:Cap-1 R=caps,
23:*:Cap-2 L=initial/lower,
20:*:Cap-2 R=lower/caps,
12:*:Pos-1 X=13,
14:*:Pct-1 X=none,
13:u:tok-1 L=and,
12:*:Lst-1 L=Ll,
11:*:Pre-1 X=W,
11:*:Suf-1 L=d,
12:*:Suf-2 L=nd,
12:*:Suf-2 X=P.,
14:*:Fst-2 X=Lu/W,
15:*:Cap-1 L=lower,
14:*:Cap-1 X=caps,
20:*:Cap-2 L=lower/caps,
14:*:Pct-1 L=none,
13:u:tok-1LL=and,
11:*:Pre-1 X=d,
12:*:Pre-2 X=de,
11:*:Suf-1 X=e,
14:*:Fst-2 X=Ll/d,
14:*:Lst-2 X=Ll/e,
14:*:Cap-1 L=caps,
20:*:Cap-2 L=caps/lower,
23:*:Cap-2 R=lower/initial,
11:u:Pub-1 X=T,
12:u:tok-1 L=de,
12:*:Pre-2 X=Ro,
11:*:Suf-1 L=e,
12:*:Suf-2 L=de,
12:*:Suf-2 X=r.,
13:*:Suf-3 X=er.,
14:*:Suf-4 X=ver.,
23:*:Cap-2 L=lower/initial,
25:*:Cap-2 R=initial/initial,
12:*:Pos-1 X=22,
11:*:Pre-1 X=F,
11:*:Suf-1 X=g,
12:*:Suf-2 L=r.,
12:*:Suf-2 X=ng,
13:*:Suf-3 X=ing,
14:*:Fst-2 X=Lu/F,
14:*:Lst-2 X=Ll/g,
25:*:Cap-2 L=initial/initial,
12:*:Pos-1 X=25,
15:*:Pct-1 R=other,
11:*:Pre-1 X=D,
12:*:Pre-2 X=Di,
11:*:Suf-1 L=g,
11:*:Suf-1 X=s,
12:*:Suf-2 L=ng,
14:*:Fst-2 X=Lu/D,
14:*:Lst-2 X=Ll/s,
12:*:Pos-1 X=28,
15:*:Pct-1 X=other,
11:*:Suf-1 L=s,
11:*:Suf-1 X=t,
12:*:Suf-2 L='s,
12:*:Suf-2 X=nt,
13:*:Suf-3 X=ent,
14:*:Suf-4 X=ment,
14:*:Lst-2 X=Ll/t,
21:*:Cap-2 R=lower/lower,
12:*:Pos-1 X=31,
15:*:Pct-1 L=other,
11:*:Pre-1 X=s,
11:*:Suf-1 L=t,
11:*:Suf-1 X=y,
12:*:Suf-2 L=nt,
14:*:Fst-2 X=Ll/s,
14:*:Lst-2 X=Ll/y,
21:*:Cap-2 L=lower/lower,
11:*:Pre-1 X=w,
11:*:Suf-1 L=y,
11:*:Suf-1 X=n,
12:*:Suf-2 X=in,
14:*:Fst-2 X=Ll/w,
14:*:Lst-2 X=Ll/n,
12:*:Pos-1 X=38,
12:u:tok-1RR=in,
11:*:Pre-1 X=S,
12:*:Pre-2 X=St,
13:*:Pre-3 X=Sta,
11:*:Suf-1 L=n,
12:*:Suf-2 L=in,
14:*:Fst-2 X=Lu/S,
12:*:Pos-1 X=41,
12:u:tok-1 R=in,
11:*:Pre-1 X=f,
12:*:Pre-2 X=fo,
13:*:Pre-3 X=for,
14:*:Fst-2 X=Ll/f,
12:*:Key-1 R=in,
12:*:Pos-1 X=44,
12:u:Tok-1 X=In,
12:u:tok-1 X=in,
12:u:tok-1 R=c.,
11:*:Pre-1 X=I,
12:*:Pre-2 X=In,
12:*:Pre-3 X=In,
12:*:Pre-4 X=In,
12:*:Suf-2 L=m.,
12:*:Suf-2 X=In,
12:*:Suf-3 X=In,
12:*:Suf-4 X=In,
14:*:Fst-2 X=Lu/I,
12:*:Key-1 X=in,
12:*:Pos-1 X=47,
12:u:tok-1 L=in,
12:*:Pre-2 X=C.,
12:*:Pre-3 X=C.,
12:*:Pre-4 X=C.,
12:*:Suf-2 L=In,
12:*:Suf-2 X=C.,
12:*:Suf-3 X=C.,
12:*:Suf-4 X=C.,
23:*:Cap-2 R=single/single,
12:*:Key-1 L=in,
12:*:Pos-1 X=50,
12:u:tok-1LL=in,
11:*:Pre-1 X=B,
14:*:Fst-2 X=Lu/B,
23:*:Cap-2 L=single/single,
12:*:Pos-1 X=53,
12:u:tok-1 L=b.,
11:*:Pre-1 X=J,
12:*:Suf-2 L=B.,
12:*:Suf-2 X=s,,
13:*:Suf-3 X=es,,
14:*:Fst-2 X=Lu/J,
12:*:Pos-1 X=56,
12:*:Suf-2 L=s,,
12:*:Pos-1 X=59,
12:*:Pos-1 X=63,
12:*:Pre-2 X=Sh,
12:*:Pos-1 X=66,
22:*:Cap-2 R=lower/single,
12:*:Pos-1 X=69,
11:*:Pre-1 X=T,
14:*:Fst-2 X=Lu/T,
22:*:Cap-2 L=lower/single,
12:*:Pos-1 X=72,
12:u:tok-1 L=t.,
12:*:Pre-2 X=De,
12:*:Suf-2 L=T.,
16:*:Key-1 R=editor,
12:*:Pos-1 X=75,
11:*:Pre-1 X=e,
12:*:Pre-2 X=ed,
13:*:Pre-3 X=edi,
14:*:Pre-4 X=edit,
14:*:Fst-2 X=Ll/e,
16:*:Key-1 X=editor,
12:*:Pos-1 X=78,
15:u:Tok-1 X=Proc.,
14:u:tok-1 X=proc,
11:*:Fst-1 R=N,
11:*:Pre-1 X=P,
12:*:Pre-2 X=Pr,
13:*:Pre-3 X=Pro,
14:*:Pre-4 X=Proc,
12:*:Suf-2 X=c.,
13:*:Suf-3 X=oc.,
14:*:Suf-4 X=roc.,
14:*:Fst-2 X=Lu/P,
15:*:Cap-1 R=other,
23:*:Cap-2 R=initial/other,
17:*:Num-1 R=ordinal,
16:*:Key-1 L=editor,
12:*:Pos-1 X=81,
15:u:tok-1 L=proc.,
11:*:Fst-1 X=N,
11:*:Pre-1 X=5,
12:*:Suf-2 L=c.,
12:*:Suf-2 X=h.,
13:*:Suf-3 X=th.,
13:*:Fst-2 X=N/5,
15:*:Cap-1 X=other,
23:*:Cap-2 L=initial/other,
20:*:Cap-2 R=other/caps,
17:*:Num-1 X=ordinal,
12:*:Pos-1 X=84,
16:*:Pct-1 R=hyphen,
12:*:Lst-1 X=Lu,
12:*:Suf-2 L=h.,
15:*:Cap-1 L=other,
20:*:Cap-2 L=other/caps,
22:*:Cap-2 R=caps/initial,
17:*:Num-1 L=ordinal,
12:*:Pos-1 X=88,
16:*:Pct-1 X=hyphen,
15:u:tok-1RR=1992.,
12:*:Lst-1 L=Lu,
12:*:Pre-2 X=Re,
11:*:Suf-1 L=S,
22:*:Cap-2 L=caps/initial,
12:*:Pos-1 X=91,
16:*:Pct-1 L=hyphen,
18:u:tok-1 X=workshop,
15:u:tok-1 R=1992.,
14:u:tok-1RR=_x+1,
12:*:Pre-2 X=Wo,
13:*:Pre-3 X=Wor,
14:*:Pre-4 X=Work,
14:*:Num-1 R=year,
12:*:Pos-1 X=94,
14:u:tok-1 R=_x+1,
14:u:tok-1RR=_x+2,
14:*:Fst-1 R=_x+1,
11:*:Pre-1 X=1,
12:*:Pre-2 X=19,
13:*:Pre-3 X=199,
14:*:Pre-4 X=1992,
12:*:Suf-2 X=2.,
13:*:Suf-3 X=92.,
14:*:Suf-4 X=992.,
13:*:Fst-2 X=N/1,
14:*:Cap-1 R=_x+1,
20:*:Cap-2 R=other/_x+1,
14:*:Num-1 X=year,
14:*:Num-1 R=_x+1,
14:*:Key-1 R=_x+1,
12:*:Pos-1 X=97,
14:*:Pct-1 R=_x+1,
11:*:Pre-1 X=M,
14:*:Fst-2 X=Lu/M,
12:*:Suf-2 X=a,,
11:*:Pos-1 X=5,
11:*:Pre-1 X=H,
12:*:Pre-2 X=H.,
12:*:Suf-2 L=a,,
14:*:Fst-2 X=Lu/H,
12:u:tok-1 L=h.,
12:*:Pre-2 X=Ta,
12:*:Suf-2 L=H.,
12:*:Pos-1 X=14,
12:u:tok-1LL=h.,
12:*:Pos-1 X=18,
12:*:Pos-1 X=23,
12:u:tok-1RR=of,
12:*:Pre-2 X=Mo,
12:*:Suf-2 X=a.,
12:*:Pos-1 X=27,
12:u:tok-1 R=of,
12:*:Pre-2 X=Ap,
13:*:Pre-3 X=App,
14:*:Pre-4 X=Appl,
12:*:Suf-2 L=a.,
12:*:Suf-2 X=on,
13:*:Suf-3 X=ion,
14:*:Suf-4 X=tion,
12:*:Pos-1 X=32,
12:u:Tok-1 X=of,
12:u:tok-1 X=of,
12:u:tok-1RR=to,
11:*:Pre-1 X=o,
12:*:Pre-2 X=of,
12:*:Pre-3 X=of,
12:*:Pre-4 X=of,
11:*:Suf-1 X=f,
12:*:Suf-2 L=on,
12:*:Suf-2 X=of,
12:*:Suf-3 X=of,
12:*:Suf-4 X=of,
14:*:Fst-2 X=Ll/o,
14:*:Lst-2 X=Ll/f,
12:u:tok-1 L=of,
12:u:tok-1 R=to,
11:*:Pre-1 X=h,
11:*:Suf-1 L=f,
11:*:Suf-1 X=h,
12:*:Suf-2 L=of,
14:*:Fst-2 X=Ll/h,
14:*:Lst-2 X=Ll/h,
12:u:tok-1 X=to,
12:u:tok-1LL=of,
11:*:Pre-1 X=t,
12:*:Pre-2 X=to,
12:*:Pre-3 X=to,
12:*:Pre-4 X=to,
11:*:Suf-1 L=h,
11:*:Suf-1 X=o,
12:*:Suf-2 X=to,
12:*:Suf-3 X=to,
12:*:Suf-4 X=to,
14:*:Fst-2 X=Ll/t,
14:*:Lst-2 X=Ll/o,
12:*:Pos-1 X=45,
12:u:tok-1 L=to,
11:*:Suf-1 L=o,
11:*:Suf-1 X=a,
12:*:Suf-2 L=to,
12:*:Suf-2 X=ta,
13:*:Suf-3 X=ata,
14:*:Lst-2 X=Ll/a,
12:u:tok-1LL=to,
11:*:Pre-1 X=b,
11:*:Suf-1 L=a,
12:*:Suf-2 X=se,
14:*:Fst-2 X=Ll/b,
12:*:Pos-1 X=55,
17:u:tok-1 X=machine,
12:*:Suf-2 L=se,
12:*:Suf-2 X=ne,
13:*:Suf-3 X=ine,
14:*:Suf-4 X=hine,
17:u:tok-1 L=machine,
12:*:Suf-2 L=ne,
12:*:Pos-1 X=64,
13:u:tok-1RR=new,
11:*:Pre-1 X=i,
14:*:Fst-2 X=Ll/i,
12:*:Pos-1 X=68,
13:u:tok-1 R=new,
12:*:Pre-2 X=ar,
12:*:Suf-2 X=e.,
13:*:Suf-3 X=re.,
12:*:Pos-1 X=73,
13:u:Tok-1 X=New,
13:u:tok-1 X=new,
11:*:Pre-1 X=N,
12:*:Pre-2 X=Ne,
13:*:Pre-3 X=New,
13:*:Pre-4 X=New,
11:*:Suf-1 X=w,
12:*:Suf-2 L=e.,
12:*:Suf-2 X=ew,
13:*:Suf-3 X=New,
13:*:Suf-4 X=New,
14:*:Fst-2 X=Lu/N,
14:*:Lst-2 X=Ll/w,
12:*:Pos-1 X=77,
13:u:tok-1 L=new,
11:*:Pre-1 X=G,
12:*:Pre-2 X=Ge,
11:*:Suf-1 L=w,
12:*:Suf-2 L=ew,
14:*:Fst-2 X=Lu/G,
12:*:Pos-1 X=82,
13:u:tok-1LL=new,
12:*:Pre-2 X=Co,
13:*:Pre-3 X=Com,
14:*:Pre-4 X=Comp,
12:*:Suf-2 X=g,,
13:*:Suf-3 X=ng,,
14:*:Suf-4 X=ing,,
16:*:Num-1 R=volume,
12:*:Pos-1 X=86,
33:*:Pct-1 R=internal-closing-parens,
12:u:tok-1 X=11,
12:*:Suf-2 L=g,,
12:*:Suf-2 X=),,
21:*:Cap-2 R=other/other,
16:*:Num-1 X=volume,
33:*:Pct-1 X=internal-closing-parens,
13:*:Pre-3 X=198,
12:*:Suf-2 L=),,
12:*:Suf-2 X=3.,
21:*:Cap-2 L=other/other,
16:*:Num-1 L=volume,
12:*:Pos-1 X=95,
33:*:Pct-1 L=internal-closing-parens,
11:*:Suf-1 X=r,
12:*:Suf-2 X=er,
14:*:Lst-2 X=Ll/r,
22:*:Cap-2 L=_x-1/initial,
11:*:Pre-1 X=V,
11:*:Suf-1 L=r,
12:*:Suf-2 L=er,
12:*:Suf-2 X=y.,
14:*:Fst-2 X=Lu/V,
13:*:Pre-3 X=Mod,
12:*:Suf-2 L=y.,
12:*:Suf-2 X=ge,
12:*:Suf-2 L=ge,
12:*:Suf-2 X=n.,
13:*:Suf-3 X=on.,
14:*:Suf-4 X=ion.,
16:u:tok-1 R=report,
12:*:Pre-2 X=Te,
13:*:Pre-3 X=Tec,
14:*:Pre-4 X=Tech,
11:*:Suf-1 X=l,
12:*:Suf-2 L=n.,
12:*:Suf-2 X=al,
13:*:Suf-3 X=cal,
14:*:Suf-4 X=ical,
14:*:Lst-2 X=Ll/l,
16:u:Tok-1 X=Report,
16:u:tok-1 X=report,
13:*:Pre-3 X=Rep,
14:*:Pre-4 X=Repo,
11:*:Suf-1 L=l,
12:*:Suf-2 L=al,
12:*:Suf-2 X=rt,
13:*:Suf-3 X=ort,
14:*:Suf-4 X=port,
22:*:Cap-2 R=initial/caps,
16:u:tok-1 L=report,
12:*:Suf-2 L=rt,
22:*:Cap-2 L=initial/caps,
16:u:tok-1LL=report,
12:*:Pre-2 X=Wi,
14:*:Num-1 R=page,
21:*:Cap-2 R=other/lower,
14:*:Num-1 X=page,
11:*:Pre-1 X=v,
14:*:Suf-4 X=sion,
14:*:Fst-2 X=Ll/v,
21:*:Cap-2 L=other/lower,
21:*:Cap-2 R=lower/other,
14:*:Num-1 L=page,
17:*:Num-1 R=numeric,
13:u:tok-1RR=for,
11:*:Pre-1 X=2,
12:*:Suf-2 X=0,,
13:*:Fst-2 X=N/2,
21:*:Cap-2 L=lower/other,
23:*:Cap-2 R=other/initial,
17:*:Num-1 X=numeric,
13:u:tok-1 R=for,
13:*:Pre-3 X=Dep,
12:*:Suf-2 L=0,,
23:*:Cap-2 L=other/initial,
17:*:Num-1 L=numeric,
13:u:Tok-1 X=for,
13:u:tok-1 X=for,
13:*:Pre-4 X=for,
12:*:Suf-2 L=t.,
12:*:Suf-2 X=or,
13:*:Suf-3 X=for,
13:*:Suf-4 X=for,
13:u:tok-1 L=for,
13:*:Pre-3 X=Rea,
12:*:Suf-2 L=or,
12:*:Suf-2 X=me,
17:u:tok-1 X=systems,
13:u:tok-1LL=for,
20:u:tok-1RR=university,
12:*:Pre-2 X=Sy,
13:*:Pre-3 X=Sys,
14:*:Pre-4 X=Syst,
12:*:Suf-2 L=me,
13:*:Suf-3 X=ms,,
19:u:tok-1LL=real-time,
18:u:tok-1 L=systems,,
20:u:tok-1 R=university,
20:u:Tok-1 X=University,
20:u:tok-1 X=university,
18:u:tok-1LL=systems,,
23:u:tok-2 R=university/of,
11:*:Pre-1 X=U,
12:*:Pre-2 X=Un,
13:*:Pre-3 X=Uni,
14:*:Pre-4 X=Univ,
12:*:Suf-2 X=ty,
13:*:Suf-3 X=ity,
14:*:Suf-4 X=sity,
14:*:Fst-2 X=Lu/U,
20:u:tok-1 L=university,
23:u:tok-2 L=university/of,
12:*:Suf-2 L=ty,
20:u:tok-1LL=university,
12:*:Pre-2 X=Vi,
12:*:Pre-2 X=Ma,
11:u:Loc-1 X=T,
13:*:Pre-3 X=Mar,
14:*:Pre-4 X=Marc,
11:*:Suf-1 X=c,
14:*:Lst-2 X=Ll/c,
11:*:Suf-1 L=c,
11:*:Pos-1 X=4,
11:*:Pos-1 X=8,
12:*:Pre-2 X=Su,
12:*:Suf-2 X=an,
12:*:Pos-1 X=12,
12:*:Pre-2 X=Ho,
12:*:Suf-2 L=an,
12:*:Pos-1 X=15,
12:*:Suf-2 X=st,
13:*:Suf-3 X=ast,
12:*:Suf-2 X=te,
12:*:Suf-2 L=te,
12:*:Suf-2 X=ve,
13:*:Suf-3 X=ive,
11:*:Pre-1 X=p,
12:*:Suf-2 L=ve,
14:*:Fst-2 X=Ll/p,
12:*:Pos-1 X=35,
18:u:tok-1 X=analysis,
12:*:Suf-2 X=s.,
13:*:Suf-3 X=is.,
12:*:Suf-2 L=s.,
21:*:Key-1 R=proceedings,
12:*:Pos-1 X=42,
21:u:Tok-1 X=Proceedings,
21:u:tok-1 X=proceedings,
13:u:tok-1RR=the,
24:u:tok-2 R=proceedings/of,
12:*:Suf-2 X=gs,
13:*:Suf-3 X=ngs,
14:*:Suf-4 X=ings,
21:*:Key-1 X=proceedings,
12:*:Pos-1 X=46,
21:u:tok-1 L=proceedings,
13:u:tok-1 R=the,
24:u:tok-2 L=proceedings/of,
16:u:tok-2 R=of/the,
12:*:Suf-2 L=gs,
21:*:Key-1 L=proceedings,
13:u:Tok-1 X=the,
13:u:tok-1 X=the,
21:u:tok-1LL=proceedings,
16:u:tok-2 L=of/the,
12:*:Pre-2 X=th,
13:*:Pre-3 X=the,
13:*:Pre-4 X=the,
12:*:Suf-2 X=he,
13:*:Suf-3 X=the,
13:*:Suf-4 X=the,
12:*:Pos-1 X=54,
13:u:tok-1 L=the,
12:*:Suf-2 L=he,
12:*:Suf-2 X=th,
12:*:Pos-1 X=58,
13:u:tok-1LL=the,
12:*:Pre-2 X=An,
12:*:Suf-2 L=th,
12:*:Pos-1 X=62,
13:u:Tok-1 X=ACM,
13:u:tok-1 X=acm,
12:u:tok-1RR=on,
12:*:Pre-2 X=AC,
13:*:Pre-3 X=ACM,
13:*:Pre-4 X=ACM,
11:*:Suf-1 X=M,
12:*:Suf-2 X=CM,
13:*:Suf-3 X=ACM,
13:*:Suf-4 X=ACM,
14:*:Lst-2 X=Lu/M,
12:*:Pos-1 X=65,
12:u:tok-1 R=on,
13:*:Pre-3 X=Sym,
11:*:Suf-1 L=M,
11:*:Suf-1 X=m,
12:*:Suf-2 L=CM,
14:*:Lst-2 X=Ll/m,
12:u:Tok-1 X=on,
12:u:tok-1 X=on,
13:u:tok-1LL=acm,
12:*:Pre-2 X=on,
12:*:Pre-3 X=on,
12:*:Pre-4 X=on,
11:*:Suf-1 L=m,
12:*:Suf-3 X=on,
12:*:Suf-4 X=on,
12:u:tok-1 L=on,
12:*:Suf-2 X=es,
13:*:Suf-3 X=les,
12:u:tok-1LL=on,
12:*:Suf-2 L=es,
21:u:tok-1 X=programming,
14:*:Pre-4 X=Prog,
12:*:Pos-1 X=85,
15:u:tok-1RR=1997.,
11:*:Pre-1 X=L,
12:*:Pre-2 X=La,
14:*:Fst-2 X=Lu/L,
21:u:tok-1LL=programming,
12:*:Pre-2 X=Ja,
12:*:Suf-2 X=ry,
12:*:Pos-1 X=92,
14:*:Pre-4 X=1997,
12:*:Suf-2 L=ry,
12:*:Suf-2 X=7.,
13:*:Suf-3 X=97.,
14:*:Suf-4 X=997.,
12:*:Pos-1 X=96,
11:*:Pos-1 X=7,
12:*:Pos-1 X=11,
12:u:tok-1 L=g.,
12:*:Suf-2 L=G.,
12:u:tok-1LL=g.,
12:*:Pos-1 X=21,
12:*:Pos-1 X=29,
11:u:tok-1RR=a,
11:u:tok-1 R=a,
11:*:Suf-1 X=:,
12:*:Suf-2 X=s:,
13:*:Lst-2 X=P/:,
11:u:Tok-1 X=A,
11:*:Pre-2 X=A,
11:*:Pre-3 X=A,
11:*:Pre-4 X=A,
11:*:Suf-1 L=:,
11:*:Suf-1 X=A,
12:*:Suf-2 L=s:,
11:*:Suf-2 X=A,
11:*:Suf-3 X=A,
11:*:Suf-4 X=A,
14:*:Lst-2 X=Lu/A,
22:*:Cap-2 R=single/lower,
12:*:Pos-1 X=39,
11:u:tok-1 L=a,
12:*:Pre-2 X=pr,
13:*:Pre-3 X=pro,
11:*:Suf-1 L=A,
11:*:Suf-2 L=A,
12:*:Suf-2 X=em,
12:*:Pos-1 X=43,
11:u:tok-1LL=a,
12:*:Suf-2 L=em,
18:u:tok-1RR=computer,
13:*:Suf-3 X=ter,
18:u:tok-1 R=computer,
18:u:Tok-1 X=Computer,
18:u:tok-1 X=computer,
14:*:Suf-4 X=uter,
12:*:Pos-1 X=57,
18:u:tok-1 L=computer,
12:*:Pos-1 X=61,
18:u:tok-1LL=computer,
12:*:Suf-2 L=ds,
13:*:Suf-3 X=ial,
14:*:Suf-4 X=rial,
12:*:Pos-1 X=71,
12:*:Pos-1 X=79,
21:u:tok-1 R=university,,
12:*:Suf-2 L=5,,
12:*:Suf-2 X=rs,
13:*:Suf-3 X=ers,
21:u:Tok-1 X=University,,
12:*:Suf-2 L=rs,
12:*:Suf-2 X=y,,
14:*:Suf-4 X=ity,,
12:*:Pos-1 X=89,
12:*:Pre-2 X=Se,
12:*:Suf-2 L=y,,
13:*:Suf-3 X=ber,
12:*:Pos-1 X=93,
12:*:Suf-2 X=0.,
11:*:Pre-1 X=E,
12:*:Pre-2 X=En,
14:*:Fst-2 X=Lu/E,
12:*:Pre-2 X=Im,
13:*:Pre-3 X=Imp,
12:*:Suf-2 L=cy,
12:*:Suf-2 X=ns,
13:*:Suf-3 X=ons,
14:*:Suf-4 X=ions,
12:u:Tok-1 X=in,
16:u:tok-2 R=in/the,
12:*:Pre-2 X=in,
12:*:Pre-3 X=in,
12:*:Pre-4 X=in,
12:*:Suf-2 L=ns,
12:*:Suf-3 X=in,
12:*:Suf-4 X=in,
16:u:tok-2 L=in/the,
14:*:Suf-4 X=ons.,
20:u:tok-1 L=equations.,
20:*:Key-1 R=translator,
12:*:Pre-2 X=Tr,
13:*:Pre-3 X=Tra,
14:*:Pre-4 X=Tran,
20:*:Key-1 X=translator,
13:*:Pre-3 X=Mat,
14:*:Pre-4 X=Math,
20:*:Key-1 L=translator,
12:*:Pre-2 X=So,
13:*:Pre-3 X=Sof,
14:*:Pre-4 X=Soft,
12:*:Suf-2 X=.,,
11:*:Pre-1 X=4,
12:*:Suf-2 L=.,,
13:*:Fst-2 X=N/4,
12:*:Suf-2 X=6,,
12:*:Suf-2 L=6,,
13:*:Pre-3 X=197,
12:*:Suf-2 X=8.,
12:u:tok-1 R=p.,
11:u:tok-1 X=j,
12:*:Pre-2 X=J.,
12:*:Suf-2 X=e,,
11:u:tok-1 X=e,
11:u:tok-1RR=&,
12:*:Suf-2 L=e,,
11:u:tok-1 R=&,
11:*:Fst-1 R=P,
22:*:Cap-2 R=single/other,
11:u:Tok-1 X=&,
15:u:tok-1 X=BLANK,
12:u:tok-1LL=e.,
12:u:tok-1RR=d.,
11:*:Fst-1 X=P,
11:*:Pre-1 X=&,
11:*:Pre-2 X=&,
11:*:Pre-3 X=&,
11:*:Pre-4 X=&,
11:*:Suf-1 X=&,
11:*:Suf-2 X=&,
11:*:Suf-3 X=&,
11:*:Suf-4 X=&,
13:*:Fst-2 X=P/&,
13:*:Lst-2 X=P/&,
22:*:Cap-2 L=single/other,
11:*:Suf-1 L=&,
11:*:Suf-2 L=&,
12:*:Suf-2 X=D.,
12:*:Pos-1 X=24,
12:*:Fst-1 R=Ps,
25:*:Pct-1 R=terminal-parens,
12:*:Fst-1 X=Ps,
11:*:Pre-1 X=(,
12:*:Pre-2 X=(1,
13:*:Pre-3 X=(19,
14:*:Pre-4 X=(199,
12:*:Suf-2 X=).,
14:*:Fst-2 X=Ps/(,
22:*:Cap-2 R=other/single,
25:*:Pct-1 X=terminal-parens,
12:*:Suf-2 L=).,
22:*:Cap-2 L=other/single,
25:*:Pct-1 L=terminal-parens,
12:*:Suf-2 X=ic,
13:*:Suf-3 X=tic,
18:u:tok-1 X=approach,
12:*:Pre-2 X=ap,
13:*:Pre-3 X=app,
12:*:Suf-2 L=ic,
12:*:Suf-2 X=ch,
12:*:Suf-2 L=ch,
11:*:Pre-1 X=c,
12:*:Pre-2 X=co,
14:*:Suf-4 X=ting,
14:*:Fst-2 X=Ll/c,
23:u:tok-1RR=international,
23:u:tok-1 R=international,
23:u:Tok-1 X=International,
23:u:tok-1 X=international,
13:*:Pre-3 X=Int,
14:*:Pre-4 X=Inte,
13:*:Suf-3 X=nal,
14:*:Suf-4 X=onal,
23:u:tok-1 L=international,
12:*:Pos-1 X=74,
23:u:tok-1LL=international,
13:*:Pre-3 X=Con,
14:*:Pre-4 X=Conf,
12:*:Suf-2 X=ce,
13:*:Suf-3 X=nce,
14:*:Suf-4 X=ence,
12:*:Pos-1 X=76,
12:*:Suf-2 L=ce,
20:u:Tok-1 X=Artificial,
20:u:tok-1 X=artificial,
13:u:tok-1RR=pp.,
12:*:Pre-2 X=Ar,
13:*:Pre-3 X=Art,
14:*:Pre-4 X=Arti,
14:*:Suf-4 X=cial,
22:u:tok-1 X=intelligence,
20:u:tok-1 L=artificial,
13:u:tok-1 R=pp.,
13:*:Suf-3 X=ce,,
14:*:Suf-4 X=nce,,
12:u:tok-1 X=pp,
20:u:tok-1LL=artificial,
17:u:tok-1RR=sydney,,
12:*:Pre-2 X=pp,
13:*:Pre-3 X=pp.,
13:*:Pre-4 X=pp.,
12:*:Suf-2 X=p.,
13:*:Suf-3 X=pp.,
13:*:Suf-4 X=pp.,
11:*:Lst-1 X=N,
11:*:Pre-1 X=6,
12:*:Suf-2 L=p.,
13:*:Fst-2 X=N/6,
17:u:Tok-1 X=Sydney,,
16:u:tok-1 X=sydney,
13:u:tok-1LL=pp.,
11:*:Lst-1 L=N,
13:*:Pre-3 X=Syd,
14:*:Pre-4 X=Sydn,
14:*:Suf-4 X=ney,,
17:u:tok-1 L=sydney,,
12:*:Pre-2 X=Au,
13:*:Pre-3 X=Aus,
14:*:Pre-4 X=Aust,
13:*:Suf-3 X=ia.,
22:*:Cap-2 R=initial/_x+1,
12:*:Pos-1 X=10,
12:*:Suf-2 X=n,,
12:*:Suf-2 L=n,,
12:u:tok-1RR=by,
14:*:Suf-4 X=ring,
12:u:tok-1 R=by,
12:u:Tok-1 X=by,
12:u:tok-1 X=by,
12:*:Pre-2 X=by,
12:*:Pre-3 X=by,
12:*:Pre-4 X=by,
12:*:Suf-2 X=by,
12:*:Suf-3 X=by,
12:*:Suf-4 X=by,
12:u:tok-1 L=by,
12:*:Pre-2 X=se,
12:*:Suf-2 L=by,
12:u:tok-1LL=by,
12:*:Pre-2 X=Ni,
12:*:Pos-1 X=48,
12:*:Pos-1 X=52,
12:*:Pre-2 X=SI,
13:*:Pre-3 X=SIG,
18:u:tok-1 R=research,
18:u:Tok-1 X=Research,
18:u:tok-1 X=research,
13:*:Pre-3 X=Res,
14:*:Pre-4 X=Rese,
13:*:Suf-3 X=rch,
14:*:Suf-4 X=arch,
18:u:tok-1 L=research,
21:u:tok-1 X=information,
13:*:Pre-3 X=Inf,
14:*:Pre-4 X=Info,
13:*:Pre-3 X=Ret,
14:*:Pre-4 X=Retr,
12:*:Suf-2 X=l,,
12:*:Pos-1 X=87,
12:*:Suf-2 L=l,,
12:*:Pos-1 X=90,
15:u:tok-1 R=1995.,
11:*:Pre-1 X=3,
12:*:Suf-2 X=7,,
13:*:Fst-2 X=N/3,
14:*:Pre-4 X=1995,
12:*:Suf-2 X=5.,
13:*:Suf-3 X=95.,
14:*:Suf-4 X=995.,
12:*:Pre-2 X=Ga,
12:*:Suf-2 X=o,,
12:*:Suf-2 L=o,,
12:*:Lst-1 X=Pd,
11:*:Suf-1 X=-,
14:*:Lst-2 X=Pd/-,
12:*:Lst-1 L=Pd,
11:*:Suf-1 L=-,
12:*:Pre-2 X=Th,
12:*:Suf-2 X=rd,
13:*:Pre-3 X=Man,
15:u:tok-1RR=pages,
15:u:tok-1 R=pages,
12:*:Pre-2 X=pa,
13:*:Pre-3 X=pag,
14:*:Pre-4 X=page,
13:*:Suf-3 X=ges,
14:*:Suf-4 X=ages,
13:*:Suf-3 X=on,,
12:*:Pre-2 X=Me,
13:*:Pre-3 X=Mel,
12:*:Suf-2 X=m,,
12:*:Pos-1 X=20,
15:*:Pct-1 R=quote,
11:*:Pre-1 X=",
12:*:Suf-2 L=m,,
13:*:Fst-2 X=P/",
15:*:Pct-1 X=quote,
23:u:tok-1 X=communication,
14:*:Pre-4 X=Comm,
12:*:Pos-1 X=30,
15:*:Pct-1 L=quote,
12:*:Pos-1 X=40,
12:*:Pre-2 X=Pa,
12:*:Pre-2 X=Mu,
14:*:Pre-4 X=Mult,
11:*:Pre-1 X=O,
12:*:Pre-2 X=Op,
13:*:Pre-3 X=Opt,
14:*:Pre-4 X=Opti,
14:*:Fst-2 X=Lu/O,
12:*:Pos-1 X=60,
12:*:Suf-2 X=ed,
13:*:Suf-3 X=ted,
12:*:Suf-2 L=ed,
12:*:Pos-1 X=70,
12:*:Suf-2 L=",,
12:*:Pos-1 X=80,
26:*:Pct-1 L=internal-unquote,
12:*:Suf-2 X=1,,
12:*:Suf-2 L=1,,
13:*:Suf-3 X=am,,
13:*:Suf-3 X=9).,
13:u:Tok-1 X=The,
13:*:Pre-3 X=The,
13:*:Pre-4 X=The,
13:*:Suf-3 X=The,
13:*:Suf-4 X=The,
14:*:Num-1 L=year,
12:*:Pos-1 X=37,
13:*:Pre-3 X=Dis,
13:*:Suf-3 X=ms.,
14:*:Suf-4 X=ems.,
18:u:tok-1 L=systems.,
18:u:tok-1LL=systems.,
14:u:tok-1 X=ieee,
14:u:tok-1RR=(1),,
12:*:Pre-2 X=IE,
13:*:Pre-3 X=IEE,
14:*:Pre-4 X=IEEE,
12:*:Suf-2 X=E,,
20:*:Cap-2 R=caps/other,
16:*:Num-1 R=double,
11:*:Pre-1 X=7,
11:*:Suf-1 X=7,
12:*:Suf-2 L=E,,
13:*:Fst-2 X=N/7,
13:*:Lst-2 X=N/7,
20:*:Cap-2 L=caps/other,
16:*:Num-1 X=double,
25:*:Pct-1 R=internal-parens,
11:u:tok-1 X=1,
11:*:Suf-1 L=7,
16:*:Num-1 L=double,
25:*:Pct-1 X=internal-parens,
11:*:Pre-1 X=8,
13:*:Suf-3 X=98.,
13:*:Fst-2 X=N/8,
25:*:Pct-1 L=internal-parens,
12:*:Pre-2 X=Sc,
12:u:Tok-1 X=An,
12:u:tok-1 X=an,
12:*:Pre-3 X=An,
12:*:Pre-4 X=An,
12:*:Suf-2 X=An,
12:*:Suf-3 X=An,
12:*:Suf-4 X=An,
12:u:tok-1 L=an,
12:*:Suf-2 L=An,
12:*:Pre-2 X=me,
13:*:Suf-3 X=sed,
14:*:Suf-4 X=ased,
18:u:tok-1 X=learning,
12:*:Suf-2 X=g.,
13:*:Suf-3 X=ng.,
14:*:Suf-4 X=ing.,
19:u:tok-1 L=learning.,
12:*:Suf-2 L=g.,
19:u:tok-1LL=learning.,
12:*:Pre-2 X=No,
13:*:Suf-3 X=an,,
12:u:Tok-1 X=J.,
12:*:Pre-3 X=J.,
12:*:Pre-4 X=J.,
12:*:Suf-2 X=J.,
12:*:Suf-3 X=J.,
12:*:Suf-4 X=J.,
12:*:Suf-2 L=J.,
18:u:tok-1 R=learning,
14:*:Suf-4 X=ning,
18:u:tok-1 L=learning,
12:*:Pre-2 X=ca,
18:u:tok-1LL=learning,
12:u:tok-1RR=1,,
13:*:Suf-3 X=02.,
13:*:Pre-3 X=Cam,
13:*:Suf-3 X=gic,
14:*:Suf-4 X=ogic,
14:*:Pre-4 X=prog,
11:*:Suf-1 L=T,
16:*:Num-1 R=single,
11:*:Suf-1 X=5,
13:*:Lst-2 X=N/5,
16:*:Num-1 X=single,
16:*:Num-1 L=single,
12:*:Pre-2 X=Ch,
13:*:Pre-3 X=Cha,
14:*:Pre-4 X=Appr,
16:u:Tok-1 X=Theory,
16:u:tok-1 X=theory,
14:*:Pre-4 X=Theo,
14:*:Suf-4 X=eory,
17:u:Tok-1 X=Machine,
19:u:tok-1 R=learning,,
27:u:tok-2 R=machine/learning,,
13:*:Pre-3 X=Mac,
14:*:Pre-4 X=Mach,
19:u:Tok-1 X=Learning,,
27:u:tok-2 L=machine/learning,,
12:*:Pre-2 X=Le,
13:*:Pre-3 X=Lea,
14:*:Pre-4 X=Lear,
12:*:Pre-2 X=48,
12:*:Suf-2 X=9,,
12:*:Suf-2 L=9,,
12:*:Pre-2 X=Ex,
12:*:Pos-1 X=33,
12:*:Pre-2 X=El,
13:*:Pre-3 X=Ele,
12:*:Pos-1 X=67,
12:*:Pre-2 X=Pe,
12:*:Pre-2 X=Pl,
13:*:Pre-3 X=Pla,
13:*:Suf-3 X=ce.,
13:*:Pre-3 X=Mor,
14:*:Pre-4 X=Morg,
12:*:Suf-2 X=un,
12:*:Suf-2 L=un,
12:*:Pos-1 X=17,
11:*:Suf-1 L=2,
12:*:Suf-2 L=el,
12:*:Pre-2 X=25,
14:*:Pre-4 X=Char,
12:*:Pos-1 X=83,
12:u:tok-1RR=11,
12:u:tok-1 R=11,
12:*:Pre-2 X=11,
12:*:Pre-3 X=11,
12:*:Pre-4 X=11,
11:*:Suf-1 X=1,
12:*:Suf-2 X=11,
12:*:Suf-3 X=11,
12:*:Suf-4 X=11,
13:*:Lst-2 X=N/1,
18:u:tok-1RR=national,
18:u:tok-1 R=national,
18:u:Tok-1 X=National,
18:u:tok-1 X=national,
12:*:Pre-2 X=Na,
13:*:Pre-3 X=Nat,
14:*:Pre-4 X=Nati,
18:u:tok-1 L=national,
18:u:tok-1LL=national,
12:*:Suf-2 X=4.,
12:*:Pre-2 X=Sa,
13:*:Pre-3 X=San,
12:*:Suf-2 L=4.,
12:*:Pre-2 X=AA,
13:*:Pre-3 X=AAA,
14:*:Pre-4 X=AAAI,
15:u:tok-1 X=press,
13:*:Pre-3 X=Pre,
14:*:Pre-4 X=Pres,
12:*:Suf-2 X=d,,
14:*:Pre-4 X=Mode,
12:*:Pre-2 X=Ad,
13:*:Pre-3 X=Adv,
14:*:Pre-4 X=Adva,
22:u:tok-1 X=applications,
26:u:Tok-1 X=Morgan-Kaufmann,,
24:u:tok-1 X=morgankaufmann,
23:u:tok-1 L=applications.,
13:*:Suf-3 X=nn,,
14:*:Suf-4 X=ann,,
23:u:tok-1LL=applications.,
13:*:Suf-3 X=ma.,
14:*:Suf-4 X=ance,
13:*:Pre-3 X=pre,
12:*:Pre-2 X=su,
12:*:Suf-2 L=ms,
12:*:Suf-2 X=is,
12:*:Suf-2 L=is,
13:*:Suf-3 X=sis,
17:*:Pct-1 R=unquote,
17:*:Pct-1 X=unquote,
15:u:Tok-1 X=Conf.,
14:u:tok-1 X=conf,
12:*:Suf-2 X=f.,
13:*:Suf-3 X=nf.,
14:*:Suf-4 X=onf.,
17:*:Pct-1 L=unquote,
15:u:tok-1 L=conf.,
13:*:Pre-3 X=Rec,
12:*:Suf-2 L=f.,
13:*:Suf-3 X=ec.,
15:u:tok-1LL=conf.,
12:*:Pre-2 X=4t,
13:*:Pre-3 X=4th,
11:*:Suf-1 X=p,
14:*:Lst-2 X=Ll/p,
11:*:Suf-1 L=p,
13:*:Pre-3 X=Pra,
14:*:Pre-4 X=Prac,
13:*:Pre-3 X=Met,
12:*:Suf-2 X=k,,
12:*:Suf-2 L=k,,
12:*:Pre-2 X=L.,
12:u:tok-1 R=as,
12:u:Tok-1 X=as,
12:u:tok-1 X=as,
12:*:Pre-2 X=as,
12:*:Pre-3 X=as,
12:*:Pre-4 X=as,
12:*:Suf-2 X=as,
12:*:Suf-3 X=as,
12:*:Suf-4 X=as,
12:*:Suf-2 L=as,
13:*:Suf-3 X=re,,
14:*:Suf-4 X=ure,,
12:*:Suf-2 X=n:,
13:*:Suf-3 X=in:,
12:*:Suf-2 L=n:,
13:*:Pre-3 X=Gal,
14:*:Pre-4 X=Gall,
12:*:Suf-2 X=re,
12:*:Suf-2 L=re,
17:u:tok-1RR=(eds.),,
12:*:Pre-2 X=Mi,
13:*:Pre-3 X=Min,
17:u:tok-1 L=(eds.),,
12:*:Pre-2 X=Lo,
13:*:Pre-3 X=Log,
14:*:Pre-4 X=Logi,
17:u:tok-1LL=(eds.),,
16:u:tok-1RR=press,,
14:*:Suf-4 X=ses,,
16:u:tok-1 R=press,,
16:u:Tok-1 X=Press,,
13:*:Suf-3 X=ss,,
14:*:Suf-4 X=ess,,
16:u:tok-1 L=press,,
14:u:tok-1 X=york,
16:u:tok-1LL=press,,
11:*:Pre-1 X=Y,
12:*:Pre-2 X=Yo,
13:*:Pre-3 X=Yor,
14:*:Pre-4 X=York,
14:*:Fst-2 X=Lu/Y,
15:u:tok-1 L=york,,
12:*:Suf-2 X=t,,
13:*:Suf-3 X=nt,,
12:*:Suf-2 L=t,,
12:*:Suf-2 X=I.,
12:*:Suf-2 X=h,,
12:*:Suf-2 L=h,,
12:*:Suf-2 X=d.,
12:*:Suf-2 L=d.,
12:*:Suf-2 X=ar,
13:*:Suf-3 X=ear,
12:*:Suf-2 L=ar,
12:*:Pre-2 X=al,
24:*:Pct-1 R=opening-parens,
11:*:Suf-1 L=1,
24:*:Pct-1 X=opening-parens,
24:*:Pct-1 L=opening-parens,
13:*:Pre-3 X=Che,
16:u:tok-1 X=design,
12:*:Suf-2 X=gn,
13:*:Suf-3 X=ign,
14:*:Suf-4 X=sign,
12:*:Suf-2 L=gn,
11:*:Suf-1 X=",
13:*:Lst-2 X=P/",
11:*:Suf-1 L=",
12:*:Suf-2 L=,",
16:u:tok-1LL=vlsi,",
14:u:tok-1RR=vol.,
18:u:tok-2 R=of/ieee,,
14:u:tok-1 R=vol.,
13:u:tok-1RR=81,,
18:u:tok-2 L=of/ieee,,
13:u:tok-1 X=vol,
13:u:tok-1RR=no.,
12:*:Pre-2 X=Vo,
13:*:Pre-3 X=Vol,
14:*:Pre-4 X=Vol.,
12:*:Suf-2 X=l.,
13:*:Suf-3 X=ol.,
14:*:Suf-4 X=Vol.,
14:u:tok-1 L=vol.,
12:*:Suf-2 L=l.,
13:u:Tok-1 X=No.,
12:u:tok-1 X=no,
13:*:Pre-3 X=No.,
13:*:Pre-4 X=No.,
12:*:Suf-2 X=o.,
13:*:Suf-3 X=No.,
13:*:Suf-4 X=No.,
12:*:Pre-2 X=5,,
12:*:Suf-2 L=o.,
12:u:tok-1RR=p.,
13:*:Pre-3 X=Dav,
14:*:Pre-4 X=Davi,
15:u:tok-1LL=david,
14:*:Suf-4 X=ated,
12:*:Pre-2 X=vo,
13:*:Suf-3 X=ice,
14:u:Tok-1 X=IEEE,
11:*:Suf-1 X=E,
12:*:Suf-2 X=EE,
13:*:Suf-3 X=EEE,
14:*:Suf-4 X=IEEE,
14:*:Lst-2 X=Lu/E,
14:u:tok-1 L=ieee,
11:*:Suf-1 L=E,
12:*:Suf-2 L=EE,
14:u:tok-1LL=ieee,
11:u:tok-1 X=4,
14:*:Pre-4 X=1986,
12:*:Suf-2 X=6.,
13:*:Suf-3 X=86.,
14:*:Suf-4 X=986.,
12:*:Pre-2 X=ex,
12:*:Pre-2 X=sp,
13:*:Pre-3 X=spe,
14:*:Pre-4 X=spec,
17:*:Key-1 R=journal,
17:u:tok-1 X=journal,
13:*:Pre-3 X=Jou,
14:*:Pre-4 X=Jour,
17:*:Key-1 X=journal,
17:u:tok-1 L=journal,
17:*:Key-1 L=journal,
17:u:tok-1LL=journal,
18:u:tok-1 X=software,
12:*:Pre-2 X=10,
13:*:Suf-3 X=en,,
12:*:Pre-2 X=Bi,
13:*:Suf-3 X=ry,,
18:u:tok-1 R=physical,
14:u:tok-1 R=from,
14:u:Tok-1 X=from,
14:u:tok-1 X=from,
12:*:Pre-2 X=fr,
13:*:Pre-3 X=fro,
14:*:Pre-4 X=from,
12:*:Suf-2 X=om,
13:*:Suf-3 X=rom,
14:*:Suf-4 X=from,
14:u:tok-1 L=from,
12:*:Suf-2 L=om,
26:*:Pct-1 X=terminal-unquote,
26:*:Pct-1 L=terminal-unquote,
12:*:Pre-2 X=Do,
13:*:Suf-3 X=ral,
11:*:Suf-1 X=6,
13:*:Lst-2 X=N/6,
11:*:Suf-1 L=6,
18:u:tok-1LL=multiple,
13:*:Pre-3 X=com,
14:*:Suf-4 X=ory,,
16:u:tok-1RR=48(2),,
36:u:tok-2 L=applications./mathematical,
35:u:tok-2 R=mathematical/programming,,
16:u:tok-1 R=48(2),,
18:u:tok-1RR=161-220,,
35:u:tok-2 L=mathematical/programming,,
29:u:tok-2 R=programming,/48(2),,
13:*:Pre-3 X=48(,
14:*:Pre-4 X=48(2,
12:*:Pre-2 X=16,
12:*:Suf-2 X=ee,
12:*:Pre-2 X=Am,
13:*:Pre-3 X=Soc,
20:*:Num-1 X=year-range,
12:*:Pos-1 X=49,
12:*:Pos-1 X=51,
12:*:Pre-2 X=17,
16:*:Pct-1 R=parens,
12:*:Lst-1 X=Pe,
11:*:Suf-1 X=),
14:*:Lst-2 X=Pe/),
16:*:Pct-1 X=parens,
12:*:Lst-1 L=Pe,
11:*:Suf-1 L=),
16:*:Pct-1 L=parens,
14:u:Tok-1 X=ACM,,
14:*:Pre-4 X=ACM,,
12:*:Suf-2 X=M,,
13:*:Suf-3 X=CM,,
14:*:Suf-4 X=ACM,,
12:*:Suf-2 L=M,,
12:*:Pre-2 X=Ke,
12:*:Pre-2 X=Kr,
13:*:Suf-3 X=iew,
14:*:Suf-4 X=view,
16:u:tok-1 X=system,
17:u:tok-1 X=science,
27:u:tok-2 L=computer/science,,
13:*:Pre-3 X=Sci,
14:*:Pre-4 X=Scie,
18:u:tok-1 L=science,,
13:*:Suf-3 X=ne,,
13:*:Pre-3 X=Ros,
14:*:Pre-4 X=Rose,
14:u:tok-1 L=page,
13:*:Pre-3 X=Ser,
14:*:Suf-4 X=ural,
12:*:Suf-2 X=A,,
12:*:Suf-2 L=A,,
17:u:tok-1 X=october,
15:u:tok-1 R=1994.,
12:*:Pre-2 X=Oc,
13:*:Pre-3 X=Oct,
14:*:Pre-4 X=Octo,
14:*:Pre-4 X=1994,
13:*:Suf-3 X=94.,
14:*:Suf-4 X=994.,
16:u:tok-1RR=neural,
12:*:Pre-2 X=To,
16:u:Tok-1 X=Neural,
16:u:tok-1 X=neural,
16:u:tok-1 L=neural,
16:u:tok-1LL=neural,
20:u:tok-1LL=processing,
11:u:tok-1 X=2,
16:u:tok-1LL=mateo,,
13:*:Pre-3 X=Cor,
15:u:tok-1 X=tokyo,
13:*:Pre-3 X=Tok,
14:*:Pre-4 X=Toky,
13:*:Pre-3 X=Car,
11:*:Suf-1 X=N,
14:*:Lst-2 X=Lu/N,
11:*:Suf-1 L=N,
11:*:Suf-1 X=0,
13:*:Lst-2 X=N/0,
11:*:Suf-1 L=0,
17:u:tok-1 X=program,
16:u:tok-1RR=design,
16:u:tok-1 R=design,
16:u:Tok-1 X=Design,
17:u:tok-1LL=program,
13:*:Pre-3 X=Des,
14:*:Pre-4 X=Desi,
14:*:Suf-4 X=ion,,
12:*:Pre-2 X=Ti,
13:*:Pre-3 X=Tim,
14:*:Pre-4 X=Time,
13:*:Pre-3 X=Ana,
14:*:Pre-4 X=Anal,
14:u:tok-1RR=york,
14:u:tok-1 R=york,
18:u:tok-1RR=software,
11:*:Suf-1 X=k,
12:*:Suf-2 X=rk,
13:*:Suf-3 X=ork,
14:*:Suf-4 X=York,
14:*:Lst-2 X=Ll/k,
21:u:tok-1 R=engineering,
11:*:Suf-1 L=k,
12:*:Suf-2 L=rk,
21:u:tok-1 X=engineering,
13:*:Pre-3 X=Eng,
14:*:Pre-4 X=Engi,
21:u:tok-1 L=engineering,
15:u:tok-1RR=york:,
15:u:tok-1 R=york:,
12:*:Suf-2 X=k:,
13:*:Suf-3 X=rk:,
14:*:Suf-4 X=ork:,
16:u:tok-1RR=volume,
13:*:Pre-3 X=Tas,
14:*:Pre-4 X=Task,
12:*:Suf-2 L=k:,
12:*:Suf-2 X=sk,
13:*:Suf-3 X=ask,
14:*:Suf-4 X=Task,
16:u:tok-1 R=volume,
16:u:Tok-1 X=Volume,
16:u:tok-1 X=volume,
14:u:tok-1LL=task,
14:*:Pre-4 X=Volu,
13:*:Suf-3 X=ume,
14:*:Suf-4 X=lume,
16:u:tok-1 L=volume,
16:u:tok-1LL=volume,
13:*:Suf-3 X=act,
11:*:Pre-1 X=9,
13:*:Fst-2 X=N/9,
12:*:Pre-2 X=Va,
17:u:tok-1RR=lecture,
17:u:Tok-1 X=Lecture,
17:u:tok-1 X=lecture,
15:u:tok-1 R=notes,
23:u:tok-2 R=lecture/notes,
13:*:Pre-3 X=Lec,
14:*:Pre-4 X=Lect,
13:*:Suf-3 X=ure,
14:*:Suf-4 X=ture,
13:*:Pre-3 X=Not,
14:*:Suf-4 X=otes,
18:u:tok-2 L=notes/in,
21:u:tok-2 R=in/computer,
15:u:tok-1LL=notes,
21:u:tok-2 L=in/computer,
12:*:Pre-2 X=Sp,
13:*:Pre-3 X=Spr,
14:*:Pre-4 X=Spri,
13:*:Suf-3 X=ag,,
14:*:Suf-4 X=lag,,
13:*:Pre-3 X=Dir,
12:*:Pre-2 X=ht,
13:*:Pre-3 X=htt,
14:*:Pre-4 X=http,
12:*:Suf-2 X=/,,
13:*:Suf-3 X=m/,,
14:*:Suf-4 X=om/,,
12:*:Pre-2 X=Be,
12:*:Suf-2 L=N.,
13:*:Pre-3 X=Laz,
16:u:tok-1 R=system,
13:*:Suf-3 X=tem,
14:*:Suf-4 X=stem,
16:u:tok-1 L=system,
12:*:Pre-2 X=F.,
12:*:Pre-3 X=F.,
12:*:Pre-4 X=F.,
12:*:Suf-2 X=F.,
12:*:Suf-3 X=F.,
12:*:Suf-4 X=F.,
12:*:Suf-2 L=F.,
13:*:Suf-3 X=ian,
12:u:tok-1LL=f.,
12:u:tok-1 X=al,
12:*:Suf-2 X=k.,
12:*:Suf-2 L=k.,
22:u:tok-1 R=transactions,
27:u:tok-2 R=ieee/transactions,
22:u:Tok-1 X=Transactions,
22:u:tok-1 X=transactions,
27:u:tok-2 L=ieee/transactions,
25:u:tok-2 R=transactions/on,
22:u:tok-1 L=transactions,
25:u:tok-2 L=transactions/on,
22:u:tok-1LL=transactions,
12:u:tok-1 X=co,
13:*:Pre-3 X=Co.,
16:u:tok-1 X=series,
14:*:Pre-4 X=Seri,
16:u:tok-1RR=tokyo,,
16:u:tok-1 R=tokyo,,
16:u:Tok-1 X=Tokyo,,
13:*:Suf-3 X=yo,,
14:*:Suf-4 X=kyo,,
14:*:Suf-4 X=ber,,
13:*:Suf-3 X=ean,
13:*:Suf-3 X=ery,
12:*:Pre-2 X=71,
13:*:Pre-3 X=71-,
14:*:Suf-4 X=are.,
13:*:Pre-3 X=163,
14:*:Pre-4 X=163-,
13:*:Pre-3 X=11,,
13:*:Pre-4 X=11,,
13:*:Suf-3 X=11,,
13:*:Suf-4 X=11,,
13:*:Pre-3 X=Lab,
14:*:Pre-4 X=Labo,
20:u:tok-1 X=department,
14:*:Pre-4 X=Depa,
14:*:Pre-4 X=Sand,
12:*:Suf-2 L=V.,
22:u:tok-1RR=intelligence,
22:u:tok-1 R=intelligence,
22:u:Tok-1 X=Intelligence,
22:u:tok-1 L=intelligence,
13:*:Suf-3 X=le,,
12:*:Pre-2 X=Sk,
13:*:Suf-3 X=on:,
14:*:Suf-4 X=ion:,
12:*:Pre-2 X=te,
12:*:Suf-2 X=ue,
12:*:Suf-2 L=ue,
12:*:Suf-2 X=at,
12:*:Suf-2 L=at,
13:*:Pre-3 X=Sub,
11:*:Suf-1 L=3,
13:*:Pre-3 X=Die,
17:u:tok-1 L=(1995).,
17:u:tok-1LL=(1995).,
14:*:Suf-4 X=ley,,
22:u:tok-1RR=applications,
22:u:tok-1 R=applications,
22:u:Tok-1 X=Applications,
16:*:Num-1 X=triple,
16:*:Num-1 L=triple,
13:*:Suf-3 X=tal,
13:u:tok-1 X=phd,
17:u:tok-1 R=thesis,,
12:*:Pre-2 X=Ph,
13:*:Suf-3 X=is,,
14:*:Suf-4 X=sis,,
17:u:tok-1LL=thesis,,
13:*:Pre-3 X=Mic,
20:u:tok-2 L=theory/and,
12:*:Pre-2 X=20,
12:*:Pre-2 X=Go,
13:*:Pre-3 X=Goo,
13:*:Suf-3 X=che,
12:*:Suf-2 X=r:,
13:*:Suf-3 X=red,
12:*:Suf-2 X=8,,
12:*:Suf-2 L=8,,
11:*:Suf-1 X=4,
13:*:Lst-2 X=N/4,
11:*:Suf-1 L=4,
13:*:Pre-3 X=vol,
14:*:Pre-4 X=volu,
13:*:Suf-3 X=ia,,
12:*:Pos-1 X=98,
14:*:Suf-4 X=ith.,
17:u:Tok-1 X=Digital,
17:u:tok-1 X=digital,
15:u:tok-1LL=barry,
20:u:tok-1 L=wilkinson,,
28:u:tok-2 L=wilkinson,/digital,
24:u:tok-2 R=digital/system,
13:*:Pre-3 X=Dig,
14:*:Pre-4 X=Digi,
14:*:Suf-4 X=ital,
16:u:Tok-1 X=System,
20:u:tok-1LL=wilkinson,,
17:u:tok-1 L=digital,
18:u:tok-1RR=prentice,
24:u:tok-2 L=digital/system,
23:u:tok-2 R=system/design,
17:u:tok-1LL=digital,
18:u:tok-1 R=prentice,
14:u:tok-1RR=hall,
23:u:tok-2 L=system/design,
25:u:tok-2 R=design/prentice,
14:*:Pre-4 X=Pren,
14:*:Suf-4 X=tice,
14:u:tok-1 X=hall,
18:u:tok-1 L=prentice,
13:*:Pre-3 X=Hal,
14:*:Pre-4 X=Hall,
20:u:Tok-1 X=Department,
23:u:tok-2 R=department/of,
20:u:tok-1 L=department,
23:u:tok-2 L=department/of,
20:u:tok-1LL=department,
13:*:Suf-3 X=en.,
19:u:tok-1 X=submitted,
14:*:Pre-4 X=Subm,
12:*:Pre-2 X=Eu,
13:*:Pre-3 X=Eur,
14:*:Pre-4 X=Euro,
13:*:Suf-3 X=rn,,
14:*:Suf-4 X=orn,,
13:*:Pre-3 X=Don,
13:*:Pre-3 X=Ste,
12:*:Pre-2 X=Pu,
13:*:Pre-3 X=Pub,
14:*:Pre-4 X=Publ,
14:*:Pre-4 X=Soci,
17:u:tok-1 L=society,
13:*:Pre-3 X=Ant,
15:u:tok-1 X=times,
12:*:Pre-2 X=21,
17:u:tok-1RR=appear.,
16:u:tok-1 X=appear,
14:*:Pre-4 X=appe,
20:*:Cap-2 R=lower/_x+1,
14:*:Pre-4 X=Thes,
13:*:Suf-3 X=gh,,
12:*:Pre-2 X=Nu,
13:*:Pre-3 X=Num,
14:*:Pre-4 X=Nume,
13:u:tok-1 X=inc,
13:*:Pre-3 X=Inc,
12:*:Pre-2 X=ST,
14:*:Pre-4 X=Plan,
14:*:Pre-4 X=Repr,
12:*:Suf-2 L=7.,
14:*:Suf-4 X=nted,
14:*:Pre-4 X=Read,
12:*:Suf-2 X=ld,
12:*:Suf-2 L=ld,
13:*:Pre-3 X=Nor,
12:*:Suf-2 L=et,
12:*:Suf-2 L=.",
24:u:tok-1 X=representation,
21:u:tok-1 L=algorithms.,
15:u:tok-1 X=keane,
21:u:tok-1LL=algorithms.,
12:u:tok-1 R=et,
13:*:Pre-3 X=Kea,
14:*:Pre-4 X=Kean,
12:*:Pre-2 X=et,
12:*:Pre-3 X=et,
12:*:Pre-4 X=et,
12:*:Suf-3 X=et,
12:*:Suf-4 X=et,
12:u:tok-1 L=et,
13:*:Pre-3 X=al.,
11:*:Pre-1 X=[,
12:*:Pre-2 X=[4,
13:*:Pre-3 X=[4],
14:*:Pre-4 X=[4],,
12:*:Suf-2 X=],,
13:*:Suf-3 X=4],,
14:*:Suf-4 X=[4],,
14:*:Fst-2 X=Ps/[,
16:*:Pct-1 X=braces,
16:*:Pct-1 L=braces,
26:u:tok-1RR=springer-verlag,,
26:u:Tok-1 X=Springer-Verlag,,
24:u:tok-1 X=springerverlag,
12:*:Suf-2 L=L.,
13:*:Pre-3 X=Val,
12:*:Pre-2 X=Br,
18:u:Tok-1 X=Personal,
18:u:tok-1 X=personal,
12:u:tok-1LL=x.,
24:u:tok-1 R=communication.,
26:u:tok-2 L=(1995)./personal,
33:u:tok-2 R=personal/communication.,
13:*:Pre-3 X=Per,
14:*:Pre-4 X=Pers,
24:u:Tok-1 X=communication.,
18:u:tok-1 L=personal,
33:u:tok-2 L=personal/communication.,
29:u:tok-2 R=communication./_x+1,
14:*:Pre-4 X=comm,
13:*:Suf-3 X=nd.,
14:*:Suf-4 X=and.,
15:u:tok-1RR=1985.,
14:u:Tok-1 X=Man,,
13:u:tok-1 X=man,
23:u:tok-2 L=systems,/man,,
18:u:tok-2 R=man,/and,
14:*:Pre-4 X=Man,,
14:*:Suf-4 X=Man,,
14:u:tok-1 L=man,,
17:u:tok-1RR=special,
18:u:tok-2 L=man,/and,
21:u:tok-1 X=cybernetics,
14:u:tok-1LL=man,,
17:u:tok-1 R=special,
15:u:tok-1RR=issue,
12:*:Pre-2 X=Cy,
13:*:Pre-3 X=Cyb,
14:*:Pre-4 X=Cybe,
17:u:tok-1 X=special,
15:u:tok-1 R=issue,
23:u:tok-2 R=special/issue,
14:*:Pre-4 X=Spec,
15:u:tok-1 X=issue,
17:u:tok-1 L=special,
23:u:tok-2 L=special/issue,
18:u:tok-2 R=issue/on,
13:*:Suf-3 X=sue,
14:*:Suf-4 X=ssue,
17:u:tok-1LL=special,
15:u:tok-1 L=issue,
18:u:tok-2 L=issue/on,
15:u:tok-1LL=issue,
12:*:Pre-2 X=Ed,
14:*:Pre-4 X=vol.,
14:*:Suf-4 X=vol.,
13:*:Suf-3 X=3rd,
20:u:Tok-1 X=Paderborn,,
19:u:tok-1 X=paderborn,
15:u:tok-1LL=icalp,
32:u:tok-2 L=conference,/paderborn,,
25:u:tok-2 R=paderborn,/july,
13:*:Pre-3 X=Pad,
14:*:Pre-4 X=Pade,
15:u:tok-1 R=study,
15:u:tok-1 X=study,
12:*:Suf-2 X=dy,
13:*:Suf-3 X=udy,
14:*:Suf-4 X=tudy,
15:u:tok-1 L=study,
12:*:Suf-2 L=dy,
15:u:tok-1LL=study,
14:*:Suf-4 X=pean,
18:u:tok-1LL=european,
12:*:Suf-2 L=8.,
12:u:tok-1RR=7,,
12:*:Pre-2 X=7,,
12:*:Pre-3 X=7,,
12:*:Pre-4 X=7,,
12:*:Suf-3 X=7,,
12:*:Suf-4 X=7,,
13:*:Pre-3 X=Mas,
14:*:Pre-4 X=Mass,
18:u:Tok-1 X=Learning,
12:*:Suf-2 X=ok,
13:*:Suf-3 X=ook,
14:*:Suf-4 X=book,
12:*:Suf-2 L=ok,
12:*:Suf-2 X=e:,
13:*:Suf-3 X=ge:,
14:*:Suf-4 X=dge:,
12:*:Suf-2 L=e:,
11:*:Suf-2 L=3,
12:u:tok-1 X=ed,
19:u:tok-1 X=cambridge,
14:*:Pre-4 X=Camb,
19:*:Cap-2 R=caps/_x+1,
13:*:Pre-3 X=Hol,
12:*:Suf-2 X=15,
12:u:tok-1RR=at,
12:u:tok-1 R=at,
12:u:Tok-1 X=at,
12:u:tok-1 X=at,
12:*:Pre-2 X=at,
12:*:Pre-3 X=at,
12:*:Pre-4 X=at,
12:*:Suf-3 X=at,
12:*:Suf-4 X=at,
12:u:tok-1 L=at,
12:u:tok-1LL=at,
12:*:Pre-2 X=is,
13:*:Suf-3 X=ch.,
13:*:Pre-3 X=25-,
23:u:tok-1 X=addisonwesley,
13:*:Pre-3 X=Add,
14:*:Pre-4 X=Addi,
12:*:Suf-2 X=ie,
13:*:Suf-3 X=lie,
12:*:Suf-2 L=ie,
21:u:tok-1 L=california,,
21:u:tok-1LL=california,,
13:*:Suf-3 X=84.,
19:u:Tok-1 X=Published,
19:u:tok-1 X=published,
13:*:Suf-3 X=hed,
14:*:Suf-4 X=shed,
19:u:tok-1 L=published,
22:u:tok-2 L=published/as,
13:u:tok-1 L=ma,,
12:*:Suf-2 X=ny,
12:*:Suf-2 L=ny,
12:*:Pre-2 X=Dr,
14:u:tok-1RR=lazy,
14:u:tok-1 R=lazy,
14:u:Tok-1 X=Lazy,
14:u:tok-1 X=lazy,
14:*:Pre-4 X=Lazy,
12:*:Suf-2 X=zy,
13:*:Suf-3 X=azy,
14:*:Suf-4 X=Lazy,
14:u:tok-1 L=lazy,
12:*:Suf-2 L=zy,
14:u:tok-1LL=lazy,
12:*:Pre-2 X=18,
14:*:Pre-4 X=(Eds,
17:u:tok-1RR=berlin:,
11:*:Suf-1 L=;,
12:*:Suf-2 L=L:,
13:*:Suf-3 X=08.,
12:*:Pre-2 X=ww,
13:*:Pre-3 X=www,
14:*:Pre-4 X=www.,
13:*:Suf-3 X=ps.,
14:*:Suf-4 X=.ps.,
11:u:tok-1RR=4,
11:u:Tok-1 X=4,
11:*:Pre-2 X=4,
11:*:Pre-3 X=4,
11:*:Pre-4 X=4,
11:*:Suf-2 X=4,
11:*:Suf-3 X=4,
11:*:Suf-4 X=4,
11:u:tok-1 L=4,
11:*:Pre-1 X=0,
11:*:Suf-2 L=4,
13:*:Fst-2 X=N/0,
21:u:Tok-1 X=Manuscript,,
20:u:tok-1 X=manuscript,
15:u:tok-1LL=under,
22:u:tok-1 L=constraints.,
34:u:tok-2 L=constraints./manuscript,,
27:u:tok-2 R=manuscript,/1995.,
14:*:Pre-4 X=Manu,
13:*:Suf-3 X=pt,,
14:*:Suf-4 X=ipt,,
12:*:Suf-2 X=S,,
12:*:Suf-2 L=S,,
20:u:tok-1 L=analysis",,
19:u:tok-1 R=software.,
25:u:tok-2 L=analysis",/ieee,
24:u:tok-2 R=ieee/software.,
19:u:Tok-1 X=Software.,
20:u:tok-1LL=analysis",,
24:u:tok-2 L=ieee/software.,
24:u:tok-2 R=software./_x+1,
12:u:Tok-1 X=To,
16:u:tok-1 R=appear,
19:u:tok-2 R=to/appear,
12:*:Pre-3 X=To,
12:*:Pre-4 X=To,
12:*:Suf-2 X=To,
12:*:Suf-3 X=To,
12:*:Suf-4 X=To,
16:u:Tok-1 X=appear,
19:u:tok-2 L=to/appear,
19:u:tok-2 R=appear/in,
12:*:Suf-2 L=To,
14:*:Suf-4 X=pear,
16:u:tok-1 L=appear,
19:u:tok-2 L=appear/in,
16:u:tok-1LL=appear,
13:*:Pre-3 X=Mil,
14:*:Suf-4 X=king,
13:*:Suf-3 X=le:,
13:*:Suf-3 X=per,
18:u:tok-1 X=preprint,
14:*:Pre-4 X=Prep,
14:*:Suf-4 X=int,,
13:*:Suf-3 X=ue,,
14:*:Suf-4 X=que,,
14:*:Suf-4 X=san,,
13:*:Suf-3 X=rg,,
14:*:Suf-4 X=erg,,
12:*:Suf-2 X=w.,
13:*:Pre-3 X=Lon,
14:*:Pre-4 X=Lond,
13:*:Pre-3 X=Edi,
14:*:Pre-4 X=Edit,
13:*:Pre-3 X=Gro,
14:*:Pre-4 X=Grou,
18:u:tok-1 X=practice,
13:*:Pre-3 X=180,
13:*:Pre-3 X=Bro,
14:*:Suf-4 X=ited,
12:*:Pre-2 X=(S,
22:u:Tok-1 X=Statistique,,
21:u:tok-1 X=statistique,
18:u:tok-1LL=europeen,
20:u:tok-1 R=sandbjerg,,
18:u:tok-1RR=denmark,,
25:u:tok-2 L=de/statistique,,
33:u:tok-2 R=statistique,/sandbjerg,,
13:u:tok-1LL=van,
26:u:tok-2 R=and/applications,
26:u:tok-2 L=and/applications,
12:*:Pre-2 X=(3,
12:*:Suf-2 X=os,
12:*:Suf-2 L=os,
12:*:Pre-2 X=do,
13:*:Suf-3 X=ny.,
12:*:Suf-2 L=5.,
14:*:Pre-4 X=Elec,
13:u:tok-1RR=19,,
13:u:tok-1 L=art,
13:u:tok-1LL=art,
12:*:Fst-1 X=Pd,
11:*:Pre-1 X=-,
11:*:Pre-2 X=-,
11:*:Pre-3 X=-,
11:*:Pre-4 X=-,
11:*:Suf-2 X=-,
11:*:Suf-3 X=-,
11:*:Suf-4 X=-,
14:*:Fst-2 X=Pd/-,
11:u:tok-1 L=-,
13:*:Pre-3 X=102,
14:*:Pre-4 X=102.,
11:*:Suf-2 L=-,
14:*:Suf-4 X=102.,
14:*:Pre-4 X=Stev,
19:u:tok-1 L=levesque,,
11:*:Pre-2 X=2,
11:*:Pre-3 X=2,
11:*:Pre-4 X=2,
11:*:Suf-2 X=2,
11:*:Suf-3 X=2,
11:*:Suf-4 X=2,
12:*:Pre-2 X=Ot,
11:*:Suf-1 X=],
14:*:Lst-2 X=Pe/],
11:*:Suf-1 L=],
12:*:Pre-2 X=IF,
22:u:tok-1 X=northholland,
14:*:Pre-4 X=Nort,
14:*:Pre-4 X=Co.,,
13:*:Suf-3 X=o.,,
14:*:Suf-4 X=Co.,,
12:*:Pre-2 X=(P,
14:*:Suf-4 X=-84.,
16:u:tok-1 L=77-84.,
21:u:tok-1RR=laboratory.,
25:u:tok-2 L=77-84./national,
27:u:tok-2 R=national/physical,
13:*:Pre-3 X=Phy,
14:*:Pre-4 X=Phys,
14:*:Pre-4 X=Mins,
12:*:Suf-2 X=`s,
13:*:Suf-3 X=y`s,
14:*:Suf-4 X=ky`s,
15:u:tok-1 L=(ed.),
12:*:Suf-2 L=.),
28:u:tok-2 L=levesque,/readings,
25:u:Tok-1 X=Representation,,
35:u:tok-2 L=knowledge/representation,,
31:u:tok-2 R=representation,/1985.,
13:*:Pre-3 X=Sun,
12:*:Suf-2 X=0),
13:*:Suf-3 X=eld,
14:*:Pre-4 X=Mark,
12:*:Pre-2 X=Ah,
18:u:tok-1LL=reading,,
20:u:tok-2 L=ma,/second,
13:*:Pre-3 X=sec,
13:u:tok-1LL=ma,,
24:u:tok-2 R=edition,/1986.,
14:*:Suf-4 X=ach.,
18:u:tok-2 L=paris/7,,
18:u:tok-2 R=7,/1992.,
22:u:tok-1LL=association,,
14:*:Pre-4 X=pres,
16:u:tok-1 R=review,
16:u:tok-1 X=review,
13:*:Pre-3 X=Rev,
14:*:Pre-4 X=Revi,
13:*:Suf-3 X=lt,,
11:*:Suf-1 X=H,
14:*:Lst-2 X=Lu/H,
14:*:Pre-4 X=Unit,
13:*:Pre-3 X=Stu,
13:*:Suf-3 X=ew.,
14:*:Suf-4 X=iew.,
18:u:tok-1 X=handbook,
13:*:Pre-3 X=Han,
14:*:Pre-4 X=Hand,
18:u:Tok-1 X=Germany.,
17:u:tok-1 X=germany,
23:u:tok-2 R=germany./_x+1,
13:*:Pre-3 X=Ger,
14:*:Pre-4 X=Germ,
14:*:Suf-4 X=any.,
12:*:Pre-2 X=97,
14:*:Pre-4 X=Ther,
12:*:Pre-2 X=Av,
13:*:Pre-3 X=Ava,
14:*:Pre-4 X=Avai,
18:u:tok-1 X=november,
13:*:Pre-3 X=Nov,
14:*:Pre-4 X=Nove,
12:*:Suf-2 X=26,
12:*:Suf-2 L=26,
15:u:tok-1RR=santa,
12:*:Suf-2 X=d:,
14:*:Suf-4 X=ram,,
13:*:Pre-3 X=tel,
14:*:Pre-4 X=tele,
12:*:Suf-2 X=ad,
19:u:tok-1RR=november,,
19:u:tok-1 R=november,,
19:u:Tok-1 X=November,,
19:u:tok-1 L=november,,
13:*:Pre-3 X=Pap,
14:*:Pre-4 X=Pape,
12:*:Suf-2 L=7),
12:*:Suf-2 X=27,
12:*:Suf-2 L=27,
13:*:Pre-3 X=She,
12:u:tok-1 L=8,,
12:u:tok-1LL=8,,
14:*:Suf-4 X=aper,
13:*:Suf-3 X=-26,
12:u:tok-1 L=11,
12:*:Suf-2 L=11,
12:u:tok-1LL=11,
12:*:Suf-2 L=1.,
13:*:Suf-3 X=r).,
13:*:Pre-3 X=Ski,
23:*:Pct-1 X=opening-brace,
23:*:Pct-1 R=closing-brace,
23:*:Pct-1 L=opening-brace,
23:*:Pct-1 X=closing-brace,
23:*:Pct-1 L=closing-brace,
14:*:Pre-4 X=71-8,
13:*:Pre-3 X=STA,
13:*:Suf-3 X=he.,
12:*:Pre-2 X=(2,
13:*:Pre-3 X=Kri,
12:*:Suf-2 X=95,
14:*:Pre-4 X=Micr,
14:*:Pre-4 X=Stud,
12:*:Pre-2 X=It,
13:*:Pre-3 X=Ita,
14:*:Pre-4 X=Ital,
13:*:Pre-3 X=Nic,
14:*:Pre-4 X=Perf,
15:u:Tok-1 X=Study,
12:u:tok-1 R=e,,
19:u:tok-2 L=8,/volume,
19:u:tok-2 R=volume/e,,
12:u:Tok-1 X=E,,
19:u:tok-2 L=volume/e,,
17:u:tok-2 R=e,/york,
12:*:Pre-2 X=E,,
12:*:Pre-3 X=E,,
12:*:Pre-4 X=E,,
12:*:Suf-3 X=E,,
12:*:Suf-4 X=E,,
19:*:Cap-2 L=_x-1/caps,
16:u:Tok-1 X=STACS,,
15:u:tok-1 X=stacs,
22:u:tok-1LL=isomor-phism,
18:u:tok-1 L=theorem,,
18:u:tok-1 R=163-174.,
25:u:tok-2 L=theorem,/stacs,,
25:u:tok-2 R=stacs,/163-174.,
14:*:Pre-4 X=STAC,
13:*:Suf-3 X=CS,,
14:*:Suf-4 X=ACS,,
13:*:Suf-3 X=74.,
14:*:Suf-4 X=174.,
21:u:tok-2 R=learning/in,
21:u:tok-2 L=learning/in,
13:*:Suf-3 X=ved,
16:*:Key-1 X=thesis,
13:*:Suf-3 X=er:,
14:*:Suf-4 X=ven,,
12:u:tok-1RR=3.,
28:u:tok-2 L=california,/second,
21:u:tok-1RR=uncorrected,
24:u:tok-2 R=edition,/1994.,
14:*:Suf-4 X=rne,,
27:u:tok-2 R=university/press,,
27:u:tok-2 L=university/press,,
18:u:tok-1 R=handbook,
18:u:Tok-1 X=Handbook,
21:u:tok-2 R=handbook/of,
18:u:tok-1 L=handbook,
21:u:tok-2 L=handbook/of,
18:u:tok-1LL=handbook,
20:u:tok-1RR=scientific,
14:*:Pre-4 X=rese,
14:*:Pre-4 X=Poli,
14:*:Suf-4 X=osis,
15:u:tok-1RR=ed.),,
13:*:Pre-3 X=ed.,
21:u:Tok-1 X=Perception,,
18:u:tok-1RR=391-410.,
27:u:tok-2 L=human/perception,,
25:u:tok-2 R=perception,/pp.,
14:*:Pre-4 X=Perc,
14:*:Pre-4 X=Meta,
13:*:Suf-3 X=ed,,
14:*:Suf-4 X=ted,,
14:*:Pre-4 X=1998,
14:*:Suf-4 X=998.,
13:*:Suf-3 X=ed.,
19:u:Tok-1 X=Approach.,
15:u:tok-1LL=march,
13:u:Tok-1 X=Sun,
13:u:tok-1 X=sun,
23:u:tok-1 R=microsystems.,
14:u:tok-1RR=java,
18:u:tok-2 L=_x-1/sun,
27:u:tok-2 R=sun/microsystems.,
13:*:Pre-4 X=Sun,
13:*:Suf-3 X=Sun,
13:*:Suf-4 X=Sun,
23:u:Tok-1 X=Microsystems.,
22:u:tok-1 X=microsystems,
13:u:tok-1 L=sun,
14:u:tok-1 R=java,
15:u:tok-1RR=(tm):,
27:u:tok-2 L=sun/microsystems.,
28:u:tok-2 R=microsystems./java,
13:*:Pre-3 X=Jav,
14:*:Pre-4 X=Java,
12:*:Suf-2 X=va,
13:*:Suf-3 X=ava,
14:*:Suf-4 X=Java,
12:*:Suf-2 X=):,
12:*:Suf-2 L=):,
12:*:Pre-2 X=WG,
22:u:tok-1RR=corporation,,
22:u:tok-1 R=corporation,,
14:*:Pre-4 X=Corp,
22:u:tok-1LL=corporation,,
12:*:Pre-2 X=pi,
14:*:Pre-4 X=Jenn,
12:*:Pre-2 X=Ox,
14:*:Suf-4 X=ech,,
12:*:Pre-2 X=(R,
13:*:Pre-3 X=(R.,
13:*:Pre-4 X=(R.,
13:*:Suf-3 X=(R.,
13:*:Suf-4 X=(R.,
22:u:tok-2 L=learning./to,
21:u:tok-2 R=the/special,
17:u:Tok-1 X=special,
21:u:tok-2 L=the/special,
15:u:Tok-1 X=issue,
13:*:Pre-3 X=iss,
14:*:Pre-4 X=issu,
17:u:tok-2 R=on/lazy,
17:u:tok-2 L=on/lazy,
23:u:tok-2 R=lazy/learning,
23:u:tok-2 L=lazy/learning,
23:u:tok-2 R=in/artificial,
17:u:tok-1RR=review.,
23:u:tok-2 L=in/artificial,
17:u:tok-1 R=review.,
30:u:tok-2 R=intelligence/review.,
17:u:Tok-1 X=Review.,
30:u:tok-2 L=intelligence/review.,
22:u:tok-2 R=review./_x+1,
13:*:Pre-3 X=Las,
14:*:Pre-4 X=Last,
12:*:Pre-2 X=he,
17:u:tok-1RR=studies,
20:u:tok-1LL=difference,
14:*:Suf-4 X=ber.,
20:u:tok-1RR=australian,
20:u:tok-1 R=australian,
20:u:Tok-1 X=Australian,
14:*:Suf-4 X=lian,
20:u:tok-1 L=australian,
20:u:tok-1RR=melbourne,,
20:u:tok-1 R=melbourne,,
14:*:Pre-4 X=Melb,
14:u:tok-1 X=2001,
13:*:Pre-3 X=(20,
14:*:Pre-4 X=(200,
17:u:tok-1RR=(2005).,
17:u:tok-1 R=(2005).,
14:*:Suf-4 X=05).,
24:u:tok-1RR=person-centred,
24:u:tok-1 R=person-centred,
23:u:tok-1 X=personcentred,
14:*:Suf-4 X=tred,
24:u:tok-1 L=person-centred,
24:u:tok-1LL=person-centred,
16:u:tok-1 L=(eds.),
24:u:Tok-1 X=Person-Centred,
22:u:tok-1RR=ross-on-wye:,
22:u:tok-1 R=ross-on-wye:,
14:u:tok-1RR=pccs,
14:*:Pre-4 X=Ross,
13:*:Suf-3 X=ye:,
14:*:Suf-4 X=Wye:,
22:u:tok-1RR=experiential,
23:u:tok-1 X=psychotherapy,
12:*:Pre-2 X=ps,
13:*:Pre-3 X=psy,
14:*:Pre-4 X=psyc,
14:u:tok-1 X=vale,
14:*:Pre-4 X=Vale,
24:u:tok-1LL=psychotherapy.,
17:u:tok-1RR=london:,
14:u:tok-1 X=2003,
14:*:Pre-4 X=Diss,
28:u:tok-2 R=the/person-centred,
28:u:tok-2 L=the/person-centred,
17:u:Tok-1 X=Gaylin),
16:u:tok-1 X=gaylin,
20:u:tok-2 L=n./gaylin),
22:u:tok-2 R=gaylin)/_x+1,
13:*:Pre-3 X=Gay,
14:*:Pre-4 X=Gayl,
12:*:Suf-2 X=n),
13:*:Suf-3 X=in),
14:*:Suf-4 X=lin),
13:*:Pre-3 X=hel,
13:u:Tok-1 X=NP.,
12:u:tok-1 X=np,
19:u:tok-1LL=gestalt!,,
18:u:tok-2 R=np./_x+1,
12:*:Pre-2 X=NP,
13:*:Pre-3 X=NP.,
13:*:Pre-4 X=NP.,
13:*:Suf-3 X=NP.,
13:*:Suf-4 X=NP.,
16:u:tok-1RR=edited,
16:u:tok-1 R=edited,
16:u:tok-1 X=edited,
16:u:tok-1 L=edited,
19:u:tok-2 L=edited/by,
16:u:tok-1LL=edited,
12:*:Suf-2 X=We,
13:*:Pre-3 X=200,
20:u:tok-1 X=translated,
23:u:tok-2 R=translated/by,
20:u:tok-1 L=translated,
23:u:tok-2 L=translated/by,
20:u:tok-1LL=translated,
17:u:tok-1RR=oxford:,
26:u:Tok-1 X=Nicholson-Smith.,
24:u:tok-1 X=nicholsonsmith,
16:u:tok-1 L=donald,
17:u:tok-1 R=oxford:,
20:u:tok-1RR=blackwell,,
33:u:tok-2 L=donald/nicholson-smith.,
34:u:tok-2 R=nicholson-smith./oxford:,
14:*:Pre-4 X=Nich,
13:*:Pre-3 X=Oxf,
14:*:Pre-4 X=Oxfo,
13:*:Suf-3 X=rd:,
14:*:Suf-4 X=ord:,
19:u:Tok-1 X=Kritische,
19:u:tok-1 X=kritische,
12:u:tok-1 L=5.,
25:u:tok-1 R=studienausgabe.,
22:u:tok-2 L=5./kritische,
35:u:tok-2 R=kritische/studienausgabe.,
14:*:Pre-4 X=Krit,
14:*:Suf-4 X=sche,
13:*:Suf-3 X=be.,
14:*:Suf-4 X=abe.,
13:*:Suf-3 X=st.,
14:*:Suf-2 L=’.,
13:*:Pre-3 X=Kur,
14:*:Pre-4 X=Kurt,
13:*:Pre-3 X=Oth,
14:*:Pre-4 X=Othe,
14:*:Pre-4 X=4th.,
14:*:Suf-4 X=4th.,
14:*:Pre-4 X=2001,
14:u:tok-1 X=2010,
13:*:Pre-3 X=201,
14:*:Pre-4 X=2010,
18:u:tok-1 X=holquist,
14:*:Pre-4 X=Holq,
19:u:Tok-1 X=Holquist.,
17:u:tok-1 R=austin:,
27:u:tok-2 L=michael/holquist.,
27:u:tok-2 R=holquist./austin:,
14:*:Suf-4 X=ist.,
14:*:Suf-4 X=tin:,
15:u:tok-1 X=dover,
13:*:Pre-3 X=Dov,
14:*:Pre-4 X=Dove,
12:*:Suf-2 X=].,
16:u:Tok-1 X=Dover.,
24:u:tok-1RR=0-486-67260-3.,
27:u:tok-2 L=equations./dover.,
21:u:tok-2 R=dover./isbn,
14:u:Tok-1 X=ISBN,
14:u:tok-1 X=isbn,
12:*:Pre-2 X=IS,
13:*:Pre-3 X=ISB,
14:*:Pre-4 X=ISBN,
12:*:Suf-2 X=BN,
13:*:Suf-3 X=SBN,
14:*:Suf-4 X=ISBN,
14:u:tok-1 L=isbn,
12:*:Pre-2 X=0-,
12:*:Suf-2 L=BN,
13:*:Suf-3 X=-3.,
13:*:Suf-3 X=2):,
13:*:Pre-3 X=doi,
14:*:Pre-4 X=doi:,
13:*:Pre-3 X=978,
14:*:Pre-4 X=978-,
17:u:Tok-1 X=(2009).,
14:u:tok-1 X=2009,
16:u:tok-1LL=green,,
13:u:tok-1 R="we,
14:u:tok-1RR=need,
20:u:tok-2 L=t./(2009).,
21:u:tok-2 R=(2009)./"we,
14:*:Suf-4 X=09).,
12:*:Pre-2 X="W,
13:*:Pre-3 X="We,
13:*:Pre-4 X="We,
13:*:Suf-3 X="We,
13:*:Suf-4 X="We,
19:u:tok-1RR=retrieved,
19:u:tok-1 R=retrieved,
19:u:Tok-1 X=Retrieved,
19:u:tok-1 X=retrieved,
14:*:Suf-4 X=eved,
19:u:tok-1 L=retrieved,
14:*:Suf-4 X=(2):,
13:*:Pre-3 X=(3r,
14:*:Pre-4 X=(3rd,
14:*:Suf-4 X=(3rd,
17:u:tok-1 L=(1999).,
17:u:tok-1LL=(1999).,
15:u:tok-1 X=chaos,
14:*:Pre-4 X=Chao,
14:*:Pre-4 X=Dieb,
14:*:Suf-4 X=olt,,
18:u:Tok-1 X=Imperial,
18:u:tok-1 X=imperial,
27:u:tok-2 L=science,/imperial,
29:u:tok-2 R=imperial/university,
14:*:Pre-4 X=Impe,
18:u:tok-1 L=imperial,
29:u:tok-2 L=imperial/university,
18:u:tok-1LL=imperial,
19:u:tok-2 R=of/tokyo,,
19:u:tok-2 L=of/tokyo,,
21:u:tok-2 R=tokyo,/vol.,
15:u:Tok-1 X=Chaos,
13:*:Suf-3 X=aos,
14:*:Suf-4 X=haos,
15:u:tok-1 L=chaos,
22:u:tok-2 R=chaos/theory,
22:u:tok-2 L=chaos/theory,
12:*:Suf-2 L=46,
13:*:Suf-3 X=nny,
14:*:Suf-4 X=enny,
13:*:Pre-3 X=art,
14:*:Suf-4 X=ble:,
14:u:tok-1 X=2008,
16:u:tok-1 L=hise.",
20:u:tok-1 R=wikipedia.,
14:u:tok-1RR=last,
19:u:tok-2 L=hise."/in,
23:u:tok-2 R=in/wikipedia.,
20:u:Tok-1 X=Wikipedia.,
19:u:tok-1 X=wikipedia,
16:u:tok-1LL=hise.",
14:u:tok-1 R=last,
18:u:tok-1RR=modified,
23:u:tok-2 L=in/wikipedia.,
25:u:tok-2 R=wikipedia./last,
13:*:Pre-3 X=Wik,
14:*:Pre-4 X=Wiki,
14:*:Suf-4 X=dia.,
14:*:Suf-4 X=Last,
14:*:Suf-4 X=een.,
13:*:Suf-3 X=ead,
16:u:tok-1 L=times,,
15:u:Tok-1 X=2008.,
20:u:tok-2 R=2008./_x+1,
14:*:Pre-4 X=2008,
14:*:Suf-4 X=008.,
14:u:tok-1 X=rose,
19:u:tok-1LL=marshall,,
15:u:tok-1 L=nancy,
13:*:Pre-3 X=Vic,
14:*:Pre-4 X=Vict,
14:u:Tok-1 X=sec.,
13:u:tok-1 X=sec,
15:u:tok-1 L=1985,,
13:u:tok-1 R=1a,,
20:u:tok-2 L=1985,/sec.,
18:u:tok-2 R=sec./1a,,
14:*:Pre-4 X=sec.,
14:*:Suf-4 X=sec.,
13:u:Tok-1 X=1A,,
12:u:tok-1 X=1a,
15:u:tok-1LL=1985,,
14:u:tok-1 L=sec.,
18:u:tok-2 L=sec./1a,,
16:u:tok-2 R=1a,/p.,
12:*:Pre-2 X=1A,
13:*:Pre-3 X=1A,,
13:*:Pre-4 X=1A,,
13:*:Suf-3 X=1A,,
13:*:Suf-4 X=1A,,
12:*:Pre-2 X=p.,
12:*:Pre-3 X=p.,
12:*:Pre-4 X=p.,
12:*:Suf-3 X=p.,
12:*:Suf-4 X=p.,
22:u:tok-2 L=press,/2008.,
14:*:Pre-4 X=Milw,
13:*:Suf-3 X=kee,
14:*:Suf-4 X=ukee,
14:*:Pre-4 X=2012,
21:u:Tok-1 X=Soderbergh,,
20:u:tok-1 X=soderbergh,
17:u:tok-1 R=steven,,
19:u:tok-1RR=director.,
26:u:tok-2 L=_x-1/soderbergh,,
29:u:tok-2 R=soderbergh,/steven,,
13:*:Pre-3 X=Sod,
14:*:Pre-4 X=Sode,
14:*:Suf-4 X=rgh,,
18:u:tok-1 X=director,
14:*:Pre-4 X=Che.,
14:*:Suf-4 X=Che.,
13:u:tok-1 X=dvd,
12:*:Pre-2 X=DV,
13:*:Pre-3 X=DVD,
14:*:Pre-4 X=DVD.,
13:*:Suf-3 X=VD.,
14:*:Suf-4 X=DVD.,
16:u:Tok-1 X=United,
16:u:tok-1 X=united,
16:u:tok-1LL=united,
21:u:tok-1RR=(director).,
14:*:Suf-4 X=or).,
18:u:tok-1 R=skinner:,
15:u:tok-2 L=b./f.,
21:u:tok-2 R=f./skinner:,
14:*:Pre-4 X=Skin,
14:*:Suf-4 X=ner:,
16:u:tok-1 X=motion,
12:*:Pre-2 X=[M,
13:*:Pre-3 X=[Mo,
14:*:Pre-4 X=[Mot,
17:u:tok-1 X=picture,
16:u:tok-1 R=united,
13:*:Pre-3 X=pic,
14:*:Pre-4 X=pict,
13:*:Suf-3 X=e].,
14:*:Suf-4 X=re].,
12:*:Suf-2 L=].,
15:u:Tok-1 X=FITNE,
15:u:tok-1 X=fitne,
21:u:tok-1 R=(producer).,
20:u:tok-2 L=_x-1/fitne,
27:u:tok-2 R=fitne/(producer).,
12:*:Pre-2 X=FI,
13:*:Pre-3 X=FIT,
14:*:Pre-4 X=FITN,
12:*:Suf-2 X=NE,
13:*:Suf-3 X=TNE,
14:*:Suf-4 X=ITNE,
21:u:Tok-1 X=(Producer).,
18:u:tok-1 X=producer,
15:u:tok-1 L=fitne,
15:u:tok-1RR=nurse,
27:u:tok-2 L=fitne/(producer).,
29:u:tok-2 R=(producer)./(2005).,
13:*:Pre-3 X=(Pr,
14:*:Pre-4 X=(Pro,
12:*:Suf-2 L=NE,
14:*:Suf-4 X=er).,
22:u:tok-1 L=(producers),,
24:u:tok-2 L=(producers),/&,
14:*:Pre-4 X=held,
14:*:Suf-4 X=held,
18:u:tok-1 X=victoria,
15:u:Tok-1 X=25-26,
14:u:tok-1 X=2526,
16:u:tok-1 L=(2006,,
17:u:tok-1 R=march).,
13:u:tok-1RR=why,
22:u:tok-2 L=(2006,/25-26,
23:u:tok-2 R=25-26/march).,
14:*:Pre-4 X=25-2,
14:*:Suf-4 X=5-26,
13:*:Suf-3 X=h).,
14:*:Suf-4 X=ch).,
24:u:tok-2 R=retrieved/from,
13:*:Suf-3 X=10,,
14:*:Suf-4 X=010,,
15:u:tok-1 L=2010,,
15:u:tok-1LL=2010,,
20:*:Cap-2 L=_x-1/other,
15:u:tok-1RR=2011,,
15:u:tok-1 R=2011,,
14:*:Pre-4 X=2011,
14:*:Suf-4 X=011,,
15:u:tok-1 L=2011,,
11:u:tok-1LL=+,
20:u:tok-1LL=aboriginal,
20:u:tok-1 R=television,
18:u:tok-1RR=program,,
19:u:tok-2 L=art/2010,,
26:u:tok-2 R=2010,/television,
20:u:Tok-1 X=television,
20:u:tok-1 X=television,
18:u:tok-1 R=program,,
26:u:tok-2 L=2010,/television,
29:u:tok-2 R=television/program,,
18:u:Tok-1 X=program,,
20:u:tok-1 L=television,
22:u:tok-1RR=broadcasting,
29:u:tok-2 L=television/program,,
29:u:tok-2 R=program,/australian,
20:u:tok-1LL=television,
18:u:tok-1 L=program,,
22:u:tok-1 R=broadcasting,
29:u:tok-2 L=program,/australian,
33:u:tok-2 R=australian/broadcasting,
22:u:Tok-1 X=Broadcasting,
22:u:tok-1 X=broadcasting,
18:u:tok-1LL=program,,
33:u:tok-2 L=australian/broadcasting,
35:u:tok-2 R=broadcasting/corporation,,
14:*:Pre-4 X=Broa,
18:u:tok-1 R=october.,
19:u:tok-2 L=sydney,/4,
20:u:tok-2 R=4/october.,
18:u:Tok-1 X=October.,
17:u:tok-1LL=sydney,,
20:u:tok-2 L=4/october.,
23:u:tok-2 R=october./_x+1,
20:u:Tok-1 X=exhibition,
20:u:tok-1 X=exhibition,
18:u:tok-1 L=fashion,,
20:u:tok-1 R=catalogue,,
29:u:tok-2 L=fashion,/exhibition,
31:u:tok-2 R=exhibition/catalogue,,
13:*:Pre-3 X=exh,
14:*:Pre-4 X=exhi,
20:u:Tok-1 X=catalogue,,
19:u:tok-1 X=catalogue,
18:u:tok-1LL=fashion,,
20:u:tok-1 L=exhibition,
18:u:tok-1RR=march-27,
31:u:tok-2 L=exhibition/catalogue,,
23:u:tok-2 R=catalogue,/11,
13:*:Pre-3 X=cat,
14:*:Pre-4 X=cata,
14:*:Suf-4 X=gue,,
20:u:tok-1LL=exhibition,
20:u:tok-1 L=catalogue,,
18:u:tok-1 R=march-27,
23:u:tok-2 L=catalogue,/11,
21:u:tok-2 R=11/march-27,
18:u:Tok-1 X=March-27,
17:u:tok-1 X=march27,
20:u:tok-1LL=catalogue,,
21:u:tok-2 L=11/march-27,
28:u:tok-2 R=march-27/november,,
13:*:Suf-3 X=-27,
14:*:Suf-4 X=h-27,
18:u:tok-1 L=march-27,
17:u:tok-1RR=gallery,
28:u:tok-2 L=march-27/november,,
28:u:tok-2 R=november,/national,
18:u:tok-1LL=march-27,
17:u:tok-1 R=gallery,
28:u:tok-2 L=november,/national,
26:u:tok-2 R=national/gallery,
17:u:Tok-1 X=Gallery,
17:u:tok-1 X=gallery,
19:u:tok-1LL=november,,
19:u:tok-1RR=victoria,,
26:u:tok-2 L=national/gallery,
20:u:tok-2 R=gallery/of,
14:*:Suf-4 X=lery,
17:u:tok-1 L=gallery,
19:u:tok-1 R=victoria,,
20:u:tok-2 L=gallery/of,
22:u:tok-2 R=of/victoria,,
19:u:Tok-1 X=Victoria,,
17:u:tok-1LL=gallery,
14:u:tok-1RR=vic.,
22:u:tok-2 L=of/victoria,,
30:u:tok-2 R=victoria,/melbourne,,
14:*:Suf-4 X=ria,,
21:u:Tok-1 X=Macunaíma.,
19:u:tok-1 X=macunaima,
16:u:tok-1LL=mário,
13:u:tok-1 L=de.,
25:u:tok-2 L=de./macunaíma.,
32:u:tok-2 R=macunaíma./translated,
14:*:Pre-4 X=Macu,
15:*:Suf-4 X=íma.,
19:u:Tok-1 X=Goodland.,
18:u:tok-1 X=goodland,
22:u:tok-2 L=a./goodland.,
23:u:tok-2 R=goodland./new,
14:*:Pre-4 X=Good,
14:u:tok-1RR=dir.,
14:u:tok-1 R=dir.,
14:u:Tok-1 X=Dir.,
13:u:tok-1 X=dir,
14:*:Pre-4 X=Dir.,
13:*:Suf-3 X=ir.,
14:*:Suf-4 X=Dir.,
14:u:tok-1 L=dir.,
14:u:tok-1LL=dir.,
15:u:Tok-1 X=Perf.,
14:u:tok-1 X=perf,
16:u:tok-1 L=twohy.,
17:u:tok-1 R=charlie,
16:u:tok-1RR=sheen.,
22:u:tok-2 L=twohy./perf.,
23:u:tok-2 R=perf./charlie,
13:*:Suf-3 X=rf.,
14:*:Suf-4 X=erf.,
17:u:Tok-1 X=Charlie,
17:u:tok-1 X=charlie,
16:u:tok-1LL=twohy.,
15:u:tok-1 L=perf.,
16:u:tok-1 R=sheen.,
18:u:tok-1RR=artisan,,
23:u:tok-2 L=perf./charlie,
24:u:tok-2 R=charlie/sheen.,
14:*:Suf-4 X=rlie,
16:u:Tok-1 X=Sheen.,
15:u:tok-1 X=sheen,
15:u:tok-1LL=perf.,
17:u:tok-1 L=charlie,
18:u:tok-1 R=artisan,,
24:u:tok-2 L=charlie/sheen.,
25:u:tok-2 R=sheen./artisan,,
14:*:Pre-4 X=Shee,
14:*:Suf-4 X=tis.,
13:*:Pre-3 X=WGB,
14:*:Pre-4 X=WGBH,
12:*:Suf-2 X=BH,
13:*:Suf-3 X=GBH,
14:*:Suf-4 X=WGBH,
14:u:Tok-1 X=Rose,
20:u:tok-2 L=nancy/rose,
21:u:tok-2 R=rose/review,
13:*:Suf-3 X=ose,
14:*:Suf-4 X=Rose,
13:*:Pre-3 X=Ahe,
14:*:Pre-4 X=Ahea,
14:*:Suf-4 X=head,
17:u:Tok-1 X=art.nr.,
15:u:tok-1 X=artnr,
16:u:tok-1 L=print,,
32:u:tok-1 R=s2405-4569(17)30002-0.,
24:u:tok-2 L=print,/art.nr.,
40:u:tok-2 R=art.nr./s2405-4569(17)30002-0.,
14:*:Pre-4 X=art.,
13:*:Suf-3 X=nr.,
14:*:Suf-4 X=.nr.,
32:u:Tok-1 X=S2405-4569(17)30002-0.,
27:u:tok-1 X=s2405456917300020,
16:u:tok-1LL=print,,
17:u:tok-1 L=art.nr.,
40:u:tok-2 L=art.nr./s2405-4569(17)30002-0.,
37:u:tok-2 R=s2405-4569(17)30002-0./_x+1,
12:*:Pre-2 X=S2,
13:*:Pre-3 X=S24,
14:*:Pre-4 X=S240,
13:*:Suf-3 X=-0.,
14:*:Suf-4 X=2-0.,
12:*:Pos-1 X=99,
20:u:tok-1 L=sclerosis.,
25:u:tok-2 L=sclerosis./ieee,
20:u:tok-1LL=sclerosis.,
35:u:Tok-1 X=(doi:10.1017/aog.2016.20),
28:u:tok-1 X=doi101017aog201620,
17:u:tok-1LL=57(73),,
17:u:tok-1 L=39–46,
43:u:tok-2 L=39–46/(doi:10.1017/aog.2016.20),
40:u:tok-2 R=(doi:10.1017/aog.2016.20)/_x+1,
12:*:Pre-2 X=(d,
13:*:Pre-3 X=(do,
14:*:Pre-4 X=(doi,
13:*:Suf-3 X=20),
14:*:Suf-4 X=.20),
17:u:tok-1LL=cirillo,
15:u:tok-1RR=drugs,
26:u:tok-1 X=antituberculosis,
15:u:tok-1 R=drugs,
15:u:tok-1 X=drugs,
13:*:Suf-3 X=ugs,
14:*:Suf-4 X=rugs,
15:u:tok-1 L=drugs,
13:u:Tok-1 X=IF:,
12:u:tok-1 X=if,
15:u:tok-1 R=5,895,
19:u:tok-2 R=if:/5,895,
13:*:Pre-3 X=IF:,
13:*:Pre-4 X=IF:,
12:*:Suf-2 X=F:,
13:*:Suf-3 X=IF:,
13:*:Suf-4 X=IF:,
15:u:Tok-1 X=5,895,
14:u:tok-1 X=5895,
13:u:tok-1 L=if:,
19:u:tok-2 L=if:/5,895,
20:u:tok-2 R=5,895/_x+1,
13:*:Pre-3 X=5,8,
14:*:Pre-4 X=5,89,
12:*:Suf-2 L=F:,
13:*:Suf-3 X=895,
14:*:Suf-4 X=,895,
13:u:tok-1 L=dm;,
17:u:tok-1 R=italian,
21:u:tok-1RR=multicentre,
17:u:tok-2 L=dm;/the,
21:u:tok-2 R=the/italian,
12:*:Suf-2 L=M;,
17:u:Tok-1 X=Italian,
17:u:tok-1 X=italian,
13:u:tok-1LL=dm;,
21:u:tok-1 R=multicentre,
21:u:tok-2 L=the/italian,
29:u:tok-2 R=italian/multicentre,
21:u:Tok-1 X=Multicentre,
21:u:tok-1 X=multicentre,
17:u:tok-1 L=italian,
29:u:tok-2 L=italian/multicentre,
27:u:tok-2 R=multicentre/study,
13:*:Suf-3 X=tre,
14:*:Suf-4 X=ntre,
17:u:tok-1LL=italian,
21:u:tok-1 L=multicentre,
20:u:tok-1RR=resistance,
27:u:tok-2 L=multicentre/study,
18:u:tok-2 R=study/on,
21:u:tok-1LL=multicentre,
20:u:tok-1 R=resistance,
18:u:tok-2 L=study/on,
23:u:tok-2 R=on/resistance,
20:u:Tok-1 X=Resistance,
20:u:tok-1 X=resistance,
26:u:tok-1RR=antituberculosis,
23:u:tok-2 L=on/resistance,
23:u:tok-2 R=resistance/to,
14:*:Pre-4 X=Resi,
20:u:tok-1 L=resistance,
26:u:tok-1 R=antituberculosis,
23:u:tok-2 L=resistance/to,
29:u:tok-2 R=to/antituberculosis,
26:u:Tok-1 X=Antituberculosis,
20:u:tok-1LL=resistance,
17:u:tok-1RR=(smira),
29:u:tok-2 L=to/antituberculosis,
32:u:tok-2 R=antituberculosis/drugs,
14:*:Pre-4 X=Anti,
15:u:Tok-1 X=Drugs,
26:u:tok-1 L=antituberculosis,
17:u:tok-1 R=(smira),
16:u:tok-1RR=group.,
32:u:tok-2 L=antituberculosis/drugs,
23:u:tok-2 R=drugs/(smira),
13:*:Pre-3 X=Dru,
14:*:Pre-4 X=Drug,
17:u:Tok-1 X=(SMIRA),
15:u:tok-1 X=smira,
26:u:tok-1LL=antituberculosis,
16:u:tok-1 R=group.,
24:u:tok-1RR=drug-resistant,
23:u:tok-2 L=drugs/(smira),
24:u:tok-2 R=(smira)/group.,
13:*:Pre-3 X=(SM,
14:*:Pre-4 X=(SMI,
12:*:Suf-2 X=A),
13:*:Suf-3 X=RA),
14:*:Suf-4 X=IRA),
12:*:Suf-2 L=A),
13:*:Suf-3 X=up.,
14:*:Suf-4 X=oup.,
0=7.449887e-03
1=1.136717e-01
2=1.243059e-01
3=9.740456e-02
4=1.341680e-01
5=6.704389e-02
6=8.164030e-02
7=7.887760e-02
8=3.052799e-02
9=1.158635e-01
10=1.281883e-01
11=7.543560e-02
12=4.709528e-02
13=1.062562e-01
14=-2.913106e-02
15=7.560469e-02
16=-1.368585e-02
17=4.075078e-03
19=4.540915e-02
21=-8.227237e-02
22=1.105948e-02
23=-1.060355e-02
24=3.704479e-02
25=4.210609e-05
27=3.727049e-01
28=1.200351e-01
29=-2.138710e-01
30=1.945665e-02
31=2.630854e-02
37=-5.196183e-02
54=-1.464033e-01
55=4.282155e-01
56=6.491615e-04
57=4.691496e-02
58=-5.705583e-02
59=8.407157e-02
60=-9.949072e-02
61=5.625909e-02
62=-1.312992e-01
65=-2.254095e-03
67=-3.522350e-04
68=5.717207e-02
69=9.488606e-03
72=-1.528038e-03
76=2.830423e-02
81=-1.636795e-02
82=1.110364e-03
83=3.001188e-01
84=6.182533e-02
91=6.134997e-06
94=-1.282759e-01
109=-3.305300e-01
110=-1.677131e-04
111=5.033157e-01
112=-5.518385e-05
113=-3.151089e-01
114=2.886216e-02
115=-8.249442e-02
116=-7.103781e-03
117=5.446266e-02
118=4.517027e-02
119=-1.790963e-04
120=-1.211691e-03
121=-3.392518e-02
123=-1.843081e-01
136=5.480325e-02
138=-6.491009e-02
139=3.701087e-01
144=5.122469e-02
145=-1.801111e-01
154=-1.286539e-01
157=5.288588e-02
163=-1.922587e-01
164=-3.050470e-03
165=-3.190119e-01
167=4.843566e-01
168=1.467139e-01
170=-1.661778e-02
171=4.482631e-02
172=-1.687317e-01
193=1.739880e-02
195=3.443715e-01
198=1.428366e-01
220=8.896833e-03
223=4.942471e-01
224=4.675786e-02
244=7.220858e-06
246=-1.162146e-01
247=3.631187e-02
251=3.235886e-01
254=-2.497006e-01
255=5.664417e-03
279=1.040543e-01
280=5.671008e-04
283=1.277023e-03
288=5.439795e-02
301=5.920867e-02
307=2.192286e-01
308=6.440573e-02
327=-6.202885e-02
328=3.126076e-02
332=-1.673740e-01
333=8.995804e-02
334=3.378198e-02
335=2.610979e-01
337=-1.020144e-01
341=4.276948e-02
363=1.030070e-01
381=-3.701376e-01
388=-1.138540e-01
389=-3.098203e-02
391=5.178455e-01
396=1.450289e-01
416=6.177846e-03
419=4.167795e-01
436=-5.834088e-02
447=4.460547e-01
451=3.400021e-03
475=4.016190e-01
503=2.857680e-01
531=2.162472e-01
544=-1.120540e-01
552=9.488486e-02
559=6.101101e-01
587=2.222206e-01
604=-2.201230e-02
615=3.172854e-01
619=9.585504e-02
631=7.667089e-02
632=7.352074e-02
643=1.640462e-01
669=4.120814e-02
671=2.444063e-01
699=3.395224e-01
727=2.759578e-01
729=1.087484e-01
757=7.304646e-03
783=2.326175e-01
784=2.252803e-02
785=5.431620e-02
788=-4.621313e-03
791=3.904341e-02
793=-6.053159e-02
794=-3.082907e-02
804=1.700467e-05
806=2.617304e-02
809=1.126079e-01
810=2.326175e-01
811=2.252803e-02
812=5.431620e-02
815=-4.621313e-03
818=3.904341e-02
820=-6.053159e-02
821=-3.082907e-02
831=1.700467e-05
833=2.617304e-02
836=1.126079e-01
837=1.255541e-01
838=5.275316e-03
839=4.466114e-02
840=8.707947e-02
841=-1.435442e-01
842=2.616042e-01
843=-1.006074e+00
844=-2.970979e-03
845=1.668067e-01
846=-3.919548e-01
847=1.771026e-01
848=2.290356e-01
850=4.815021e-02
851=-5.908712e-02
852=5.434318e-02
853=1.079953e-02
856=-1.029379e-03
858=-2.096595e-03
859=-3.116434e-01
860=1.397618e-01
861=4.498859e-02
862=1.338976e-01
864=3.824294e-01
865=1.412347e-01
866=-1.324700e-01
867=2.272328e-03
892=8.874721e-02
893=2.290007e-04
894=7.848471e-02
895=-6.857677e-02
896=1.727742e-01
898=9.606492e-02
899=-3.418181e-05
901=4.566200e-03
906=5.329042e-02
918=-2.865943e-06
919=6.031577e-03
920=2.150041e-01
921=8.077563e-02
928=-9.482566e-03
931=-2.627730e-02
947=-3.851738e-02
948=3.183223e-01
951=-1.858668e-01
955=6.020197e-02
956=2.193401e-02
973=6.945905e-01
976=1.022156e-01
982=-1.215482e-02
991=-1.676935e-02
996=6.355724e-02
1004=3.644846e-01
1005=2.603131e-04
1009=-1.031220e-01
1060=1.084633e-01
1061=1.559036e-01
1088=2.650292e-01
1091=-1.625449e-04
1117=6.689998e-02
1120=5.924101e-02
1126=6.866008e-04
1144=2.138211e-01
1145=1.153077e-01
1171=7.572119e-02
1172=2.017728e-01
1178=5.825702e-02
1225=-4.742593e-02
1226=-1.144755e-02
1228=1.779769e-01
1253=5.657073e-03
1284=3.018557e-01
1288=5.945563e-03
1312=2.653874e-01
1368=2.163315e-02
1396=1.942036e-01
1452=1.626009e-01
1456=6.161150e-02
1468=1.067007e-01
1469=6.772045e-02
1508=1.863746e-01
1536=1.956786e-01
1564=3.110382e-01
1566=1.393990e-01
1593=6.572847e-02
1594=1.423302e-01
1595=1.067085e-01
1596=-1.945957e-02
1597=1.397952e-01
1598=5.395123e-03
1599=-1.549438e-01
1600=6.494831e-03
1601=8.985346e-02
1602=-1.134341e-03
1603=1.215572e-01
1604=-1.047828e-01
1606=-1.381673e-02
1608=5.220661e-02
1609=1.212652e-01
1612=-9.798686e-03
1614=9.353389e-02
1615=4.125474e-02
1616=3.506326e-02
1617=1.412143e-02
1618=1.656390e-02
1619=1.301732e-01
1620=2.922128e-01
1621=1.054468e-01
1624=1.977270e-01
1648=2.204145e-01
1649=3.587147e-02
1650=1.077157e-01
1652=6.513035e-02
1654=1.517315e-02
1655=-2.463730e-01
1657=5.516969e-02
1658=-9.584722e-03
1660=-7.271465e-01
1662=7.257694e-02
1675=1.187771e-02
1676=1.997619e-01
1677=5.608754e-03
1684=1.973268e-05
1703=-1.610813e-05
1704=1.904881e-01
1711=7.319460e-02
1732=4.745136e-02
1738=-4.004348e-02
1741=6.686339e-05
1752=6.219094e-02
1760=2.430905e-01
1761=-6.849175e-02
1764=4.943361e-02
1785=1.723556e-02
1816=2.708348e-01
1817=5.654717e-02
1843=6.747926e-03
1844=2.442655e-01
1848=1.333908e-02
1874=2.199244e-02
1882=1.148633e-02
1900=1.146568e-01
1901=2.586615e-03
1909=4.637727e-03
1928=9.756300e-02
1979=-4.526706e-04
1984=2.419832e-01
1989=6.658876e-02
2012=3.272534e-01
2040=2.307120e-01
2068=7.751315e-01
2152=9.095164e-02
2208=8.003570e-02
2212=7.776926e-02
2224=1.133288e-01
2225=6.421987e-02
2236=1.301999e-01
2262=9.381640e-03
2264=1.197173e-01
2292=1.866708e-01
2306=3.434490e-02
2320=2.969298e-01
2322=1.402262e-01
2349=2.326175e-01
2350=2.252803e-02
2351=5.431620e-02
2354=-4.621313e-03
2357=3.904341e-02
2359=-6.053159e-02
2360=-3.082907e-02
2370=1.700467e-05
2372=2.617304e-02
2375=1.126079e-01
3105=2.451241e-02
3106=8.871707e-02
3107=7.396427e-02
3108=-4.005607e-02
3110=1.322485e-02
3111=5.817934e-02
3112=3.516313e-06
3113=3.889085e-04
3114=1.031810e-01
3115=1.921719e-01
3116=2.641810e-02
3117=2.156453e-02
3118=-3.371499e-02
3120=-1.717878e-02
3121=-1.713219e-02
3122=-7.076025e-03
3123=-2.411347e-02
3124=-4.773126e-02
3125=1.913628e-02
3126=1.708578e-01
3128=7.419656e-02
3129=-6.631343e-03
3131=-5.654156e-02
3132=1.986524e-01
3133=-5.006289e-02
3136=2.673968e-02
3160=2.959312e-01
3161=2.710992e-01
3162=-3.089446e-02
3164=-3.297558e-02
3168=-6.488242e-03
3169=5.649577e-02
3170=-8.411301e-02
3171=2.745495e-03
3188=4.869164e-01
3192=1.112630e-01
3216=1.720229e-01
3217=-6.286802e-05
3219=2.681139e-02
3222=2.683963e-02
3223=5.133357e-02
3244=1.198185e-01
3249=3.158846e-02
3250=-8.838731e-03
3260=4.675079e-02
3272=1.796169e-01
3273=8.400376e-02
3276=3.601486e-02
3300=3.201529e-01
3303=1.562459e-01
3328=3.059482e-01
3352=1.354574e-02
3356=1.208911e-01
3360=4.974194e-03
3384=6.634858e-02
3406=1.633319e-02
3411=-3.121653e-01
3412=5.899645e-01
3413=1.354051e-02
3433=3.233769e-02
3438=3.376603e-02
3439=-4.885936e-03
3440=2.634351e-01
3468=3.610679e-01
3487=-1.674986e-03
3496=1.555918e-01
3501=9.448337e-03
3524=3.979556e-01
3543=1.104803e-03
3552=1.355918e-01
3580=3.943652e-01
3608=1.256170e-01
3636=1.023774e-01
3664=3.042805e-01
3692=1.119455e-01
3700=3.207680e-02
3720=2.345869e-01
3724=5.235527e-02
3748=2.349141e-01
3774=2.820751e-02
3776=6.215760e-01
3804=4.926152e-02
3818=6.244272e-02
3832=4.994524e-02
3834=1.400017e-01
3861=-6.187930e-03
3862=4.696222e-02
3863=-8.015875e-02
3864=6.938909e-02
3866=5.821385e-02
3869=6.160909e-03
3871=-1.201223e-02
3872=1.742706e-01
3874=-2.333738e-02
3882=-4.026288e-02
3888=2.635497e-04
3889=7.796821e-02
3916=3.563488e-02
3920=2.879024e-01
3972=1.419455e-01
4028=1.081209e-01
4035=1.323367e-03
4142=2.066508e-01
4196=-9.973598e-02
4252=-3.563989e-02
4330=7.961890e-03
4493=1.099933e-02
4574=5.646594e-02
4617=2.326175e-01
4618=2.252803e-02
4619=5.431620e-02
4622=-4.621313e-03
4625=3.904341e-02
4627=-6.053159e-02
4628=-3.082907e-02
4638=1.700467e-05
4640=2.617304e-02
4643=1.126079e-01
5373=4.885702e-04
5374=7.508585e-02
5375=1.248071e-02
5376=-3.705767e-02
5377=5.574417e-02
5378=5.958071e-02
5379=1.263139e-05
5381=3.666474e-03
5382=1.477257e-01
5383=-2.946287e-02
5384=-6.668794e-02
5386=-7.998993e-02
5388=-5.656152e-02
5389=2.246522e-02
5392=2.642271e-03
5394=8.271671e-02
5396=-3.386212e-03
5398=6.627693e-02
5400=2.494587e-01
5401=-1.507511e-02
5404=8.757150e-04
5428=1.908101e-01
5438=-1.935195e-02
5448=1.590047e-02
5449=2.999095e-02
5456=9.208153e-02
5484=5.753106e-02
5485=7.864370e-03
5487=-1.382561e-03
5490=8.653170e-02
5491=1.962139e-04
5512=5.179495e-02
5517=2.294458e-03
5528=2.827299e-02
5539=-7.390080e-02
5540=8.889675e-02
5541=6.193027e-02
5544=3.288534e-02
5568=3.396915e-01
5571=1.094767e-01
5596=9.795411e-02
5620=1.445284e-01
5624=1.258697e-01
5647=3.015832e-02
5652=4.281397e-02
5674=1.442016e-02
5679=-3.528609e-02
5680=8.648406e-02
5701=2.110083e-02
5706=2.256394e-02
5708=1.321694e-03
5736=3.665033e-01
5764=-6.661026e-03
5769=8.634522e-03
5792=2.004928e-01
5820=5.684474e-02
5848=4.070404e-01
5876=1.324773e-01
5904=1.378706e-01
5932=3.421993e-01
5968=1.051174e-01
5988=2.314915e-01
5992=5.512194e-02
6044=3.628730e-01
6100=5.285749e-02
6129=2.326175e-01
6130=2.252803e-02
6131=5.431620e-02
6134=-4.621313e-03
6137=3.904341e-02
6139=-6.053159e-02
6140=-3.082907e-02
6150=1.700467e-05
6152=2.617304e-02
6155=1.126079e-01
6885=-6.187930e-03
6886=4.696222e-02
6887=-8.015875e-02
6888=6.938909e-02
6890=5.821385e-02
6893=6.160909e-03
6895=-1.201223e-02
6896=1.742706e-01
6898=-2.333738e-02
6906=-4.026288e-02
6912=2.635497e-04
6913=7.796821e-02
6940=3.563488e-02
6944=2.879024e-01
6996=1.419455e-01
7052=1.081209e-01
7059=1.323367e-03
7166=2.066508e-01
7220=-9.973598e-02
7276=-3.563989e-02
7354=7.961890e-03
7517=1.099933e-02
7598=5.646594e-02
7641=4.885702e-04
7642=7.508585e-02
7643=1.248071e-02
7644=-3.705767e-02
7645=5.574417e-02
7646=5.958071e-02
7647=1.263139e-05
7649=3.666474e-03
7650=1.477257e-01
7651=-2.946287e-02
7652=-6.668794e-02
7654=-7.998993e-02
7656=-5.656152e-02
7657=2.246522e-02
7660=2.642271e-03
7662=8.271671e-02
7664=-3.386212e-03
7666=6.627693e-02
7668=2.494587e-01
7669=-1.507511e-02
7672=8.757150e-04
7696=1.908101e-01
7706=-1.935195e-02
7716=1.590047e-02
7717=2.999095e-02
7724=9.208153e-02
7752=5.753106e-02
7753=7.864370e-03
7755=-1.382561e-03
7758=8.653170e-02
7759=1.962139e-04
7780=5.179495e-02
7785=2.294458e-03
7796=2.827299e-02
7807=-7.390080e-02
7808=8.889675e-02
7809=6.193027e-02
7812=3.288534e-02
7836=3.396915e-01
7839=1.094767e-01
7864=9.795411e-02
7888=1.445284e-01
7892=1.258697e-01
7915=3.015832e-02
7920=4.281397e-02
7942=1.442016e-02
7947=-3.528609e-02
7948=8.648406e-02
7969=2.110083e-02
7974=2.256394e-02
7976=1.321694e-03
8004=3.665033e-01
8032=-6.661026e-03
8037=8.634522e-03
8060=2.004928e-01
8088=5.684474e-02
8116=4.070404e-01
8144=1.324773e-01
8172=1.378706e-01
8200=3.421993e-01
8236=1.051174e-01
8256=2.314915e-01
8260=5.512194e-02
8312=3.628730e-01
8368=5.285749e-02
8397=2.326175e-01
8398=2.252803e-02
8399=5.431620e-02
8402=-4.621313e-03
8405=3.904341e-02
8407=-6.053159e-02
8408=-3.082907e-02
8418=1.700467e-05
8420=2.617304e-02
8423=1.126079e-01
9153=1.297306e-01
9154=-4.358890e-03
9155=1.751981e-01
9156=-3.156077e-02
9158=5.516056e-02
9161=-1.653996e-01
9163=1.198828e-01
9164=-2.004545e+00
9169=6.770433e-02
9176=9.464054e-02
9180=1.687643e-01
9236=1.658427e-01
9289=5.704002e-02
9320=2.573580e-01
9348=1.033561e-02
9460=1.668278e+00
9461=-1.582525e-02
9628=1.457589e-01
9768=4.425597e-02
9824=1.270771e-01
9909=5.225198e-02
9910=9.585615e-02
9911=7.163241e-02
9912=-2.795783e-02
9913=1.544150e-01
9914=1.978364e-02
9915=-6.173530e-02
9916=5.958101e-02
9917=1.279616e-01
9919=-1.439969e-02
9920=1.046445e-01
9922=-8.314049e-02
9923=3.193463e-02
9924=5.703924e-02
9925=7.721815e-02
9928=-5.441189e-03
9930=1.413579e-01
9931=1.664181e-01
9932=4.741402e-05
9933=8.186646e-02
9934=8.185151e-02
9936=1.395215e-01
9937=8.892334e-02
9940=7.159389e-02
9964=2.291370e-01
9965=2.540570e-02
9966=5.323134e-02
9968=6.393499e-02
9970=7.080514e-02
9971=-1.323937e-01
9973=2.002987e-04
9974=-7.786660e-03
9976=-1.802188e-01
9978=8.400887e-02
9991=2.728620e-02
9992=1.592036e-01
9993=1.324904e-02
10000=1.924364e-05
10020=1.832814e-01
10021=-3.791684e-01
10027=1.026393e-03
10028=4.860961e-02
10045=-1.958365e-03
10048=6.096450e-02
10057=3.370468e-03
10068=6.930738e-02
10076=1.694468e-01
10077=-7.914864e-02
10080=3.985726e-02
10101=2.064127e-02
10104=5.394634e-01
10132=2.062225e-01
10133=6.474682e-01
10159=7.405431e-02
10160=2.493047e-01
10164=1.231903e-02
10190=2.549616e-02
10198=1.150572e-02
10216=7.266240e-02
10217=2.383218e-03
10225=4.295836e-03
10244=7.940126e-02
10300=1.686316e-01
10328=3.335825e-01
10356=1.918690e-01
10378=3.464456e-02
10384=2.738327e-01
10468=5.986668e-02
10524=1.066391e-01
10528=7.105316e-02
10540=6.616298e-02
10541=5.551239e-02
10552=1.348308e-01
10578=1.119678e-02
10580=1.115839e-01
10608=1.644351e-01
10622=4.464103e-02
10636=2.621782e-01
10665=2.463906e-01
11421=5.517488e-02
11423=9.351879e-02
11426=-9.468510e-04
11429=-1.332208e-01
11444=7.500819e-02
11448=-1.253772e-02
11476=-6.251510e-05
11531=8.245985e-02
11588=-1.270695e-04
11616=8.007234e-03
11728=8.582106e-02
12036=5.312139e-02
12092=4.036703e-01
12177=2.326175e-01
12178=2.252803e-02
12179=5.431620e-02
12182=-4.621313e-03
12185=3.904341e-02
12187=-6.053159e-02
12188=-3.082907e-02
12198=1.700467e-05
12200=2.617304e-02
12203=1.126079e-01
12933=7.375452e-02
12934=1.322510e-01
12935=1.882172e-01
12936=5.500025e-02
12937=-3.623744e-01
12938=1.432158e-01
12939=-3.415261e-01
12940=6.061414e-02
12941=1.611662e-01
12942=-7.410353e-01
12943=1.579932e-01
12944=2.003546e-01
12946=1.248975e-01
12947=7.971162e-02
12948=7.696429e-02
12949=-2.228830e-03
12951=-8.663850e-02
12952=-6.285882e-03
12954=2.371081e-01
12955=5.961740e-02
12956=5.124795e-01
12957=2.160386e-01
12958=1.275868e-01
12960=4.443696e-01
12961=1.740169e-01
12962=-1.840852e-01
12963=1.232022e-02
12970=-4.118175e-02
12987=-1.179165e-01
12988=4.670172e-01
12989=6.180225e-03
12990=4.022219e-02
12991=-2.074586e-01
12992=9.018199e-02
12994=6.605108e-02
12995=-9.794671e-02
12997=7.519987e-05
12998=-6.811391e-04
13002=1.148453e-02
13009=7.671780e-02
13014=-6.015613e-06
13015=3.049901e-03
13016=4.994176e-01
13017=6.618745e-02
13024=6.612958e-06
13027=-4.757782e-02
13042=-3.883736e-03
13044=4.360114e-01
13046=-2.566472e-01
13049=-7.837895e-02
13051=7.810569e-02
13054=-8.319912e-03
13069=8.514996e-02
13071=-4.034215e-02
13072=2.681273e-02
13078=-6.101496e-02
13081=2.391518e-02
13087=-2.380266e-02
13088=6.379293e-02
13090=7.108322e-02
13092=5.552049e-02
13096=-4.236623e-02
13098=-2.188622e-01
13100=4.938251e-01
13103=-4.218432e-03
13105=-9.641416e-02
13108=4.111071e-04
13156=2.209839e-01
13157=9.632645e-02
13177=1.665810e-05
13179=-1.111938e-02
13184=3.317127e-01
13187=-1.904076e-01
13188=6.595605e-03
13213=2.436869e-02
13216=2.039842e-02
13240=3.002715e-01
13241=1.066515e-01
13265=-1.088601e-01
13267=5.579688e-02
13268=3.131134e-01
13274=4.451578e-02
13314=-1.416043e-02
13321=-9.800390e-02
13322=-1.207477e-02
13324=3.608885e-01
13329=2.159376e-02
13349=5.373096e-03
13352=8.715266e-01
13380=3.625731e-01
13384=5.029931e-03
13408=3.763067e-01
13492=2.925449e-01
13548=3.440041e-01
13552=8.080183e-02
13564=6.953251e-02
13565=6.937233e-02
13576=1.492027e-01
13602=4.341803e-02
13604=2.682036e-01
13632=3.541548e-01
13660=2.979247e-01
13662=5.971395e-02
13689=3.557054e-02
13690=1.565341e-01
13691=1.896570e-01
13692=1.311797e-02
13693=1.140319e-03
13694=1.513781e-02
13695=2.117262e-02
13696=6.128499e-02
13697=1.112262e-01
13699=9.195752e-02
13700=4.468464e-02
13702=1.045021e-01
13703=2.603223e-02
13704=7.592102e-02
13705=1.404394e-01
13706=-1.046542e-01
13708=-3.058403e-02
13710=2.301683e-01
13711=5.598976e-01
13712=4.817501e-01
13713=2.591184e-02
13714=2.260598e-02
13716=3.401950e-01
13717=1.670739e-01
13718=-1.885928e-01
13719=4.107829e-03
13720=7.598035e-02
13743=-1.145986e-01
13744=4.999595e-01
13745=1.473876e-03
13746=4.021647e-02
13748=8.057072e-02
13750=9.117586e-02
13751=-1.176844e-04
13753=1.557143e-02
13754=-1.342899e-03
13756=-2.942559e-02
13758=3.890017e-02
13765=6.220715e-02
13770=-5.125704e-06
13771=2.334883e-03
13772=5.033397e-01
13773=6.397371e-02
13780=1.629894e-05
13783=-3.937996e-02
13799=-2.786074e-05
13800=3.745759e-01
13801=-5.383426e-04
13807=5.532195e-02
13808=-1.690190e-05
13825=8.531840e-02
13827=-1.404867e-02
13828=2.484551e-02
13834=-5.427381e-02
13843=-1.659806e-02
13846=7.472666e-02
13848=5.386938e-02
13852=-4.136092e-02
13856=1.735856e-01
13857=3.807143e-04
13859=-5.262095e-06
13860=3.004882e-02
13861=-3.062607e-02
13864=4.858596e-05
13884=9.681489e-01
13887=1.706103e-01
13912=1.965116e-01
13913=9.741451e-02
13933=2.269286e-05
13939=6.708435e-03
13940=2.677888e-01
13944=6.324198e-03
13969=1.562470e-02
13970=8.784374e-03
13978=5.384049e-03
13996=1.149057e-01
13997=2.202717e-03
14005=1.668452e-03
14024=1.285656e-01
14070=-4.312639e-03
14080=2.229629e-01
14105=7.252982e-03
14108=4.907728e-01
14136=2.787706e-01
14140=6.382650e-03
14164=4.877081e-01
14248=1.555400e-01
14304=2.672500e-01
14308=7.333494e-02
14320=6.728837e-02
14321=6.519516e-02
14332=1.444511e-01
14358=1.199596e-02
14360=2.346465e-01
14388=6.369373e-01
14416=3.506405e-01
14418=1.072541e-01
14445=-1.609776e-01
14446=1.561581e-01
14447=-1.729135e-01
14448=3.464440e-01
14449=-2.957619e-01
14450=7.565847e-02
14451=9.263498e-02
14452=1.126062e-01
14453=1.408601e-01
14454=1.205595e-01
14455=-9.886771e-02
14456=1.379287e-02
14457=1.659140e-01
14458=5.667663e-02
14460=6.648082e-02
14461=-3.797634e-02
14462=1.657097e-01
14463=1.664522e-04
14464=-2.145729e-04
14466=-2.315451e-01
14467=7.636796e-03
14468=-2.069302e-02
14469=-4.372560e-04
14470=-8.864827e-02
14472=7.482916e-02
14473=3.541040e-01
14474=2.734369e-01
14475=2.295839e-01
14476=-5.607254e-01
14477=2.244213e-01
14478=1.777970e-01
14479=1.911208e-01
14480=1.232838e-01
14481=3.432434e-01
14482=9.656489e-02
14483=2.256003e-01
14484=-1.747803e-01
14485=2.517831e-01
14486=2.509966e-01
14487=1.772230e-01
14488=-3.099373e-02
14489=-4.927467e-02
14490=-1.703110e-01
14491=9.729950e-02
14492=2.784825e-01
14493=5.327361e-01
14494=1.827723e-01
14495=-2.178876e-02
14496=8.021733e-02
14497=1.558360e-03
14498=3.033151e-04
14500=1.287308e-01
14501=5.589169e-02
14502=1.833283e-02
14503=1.916349e-01
14504=1.284060e-01
14505=7.237508e-02
14506=7.214986e-02
14507=-3.576426e-03
14508=1.426792e-01
14509=-1.193400e+00
14510=4.584192e-02
14511=4.377925e-02
14512=7.605047e-02
14513=1.728759e-01
14514=6.671190e-02
14515=-1.045098e-02
14516=7.749935e-03
14517=2.220313e-05
14518=4.543575e-03
14520=-1.519918e-01
14521=1.437928e-04
14522=-5.809025e-03
14523=-5.416488e-04
14526=-3.919598e-02
14527=-2.561158e-02
14528=6.155659e-02
14529=-2.495922e-02
14531=1.820421e-01
14533=-1.154764e+00
14534=3.359748e-01
14535=-1.461321e-01
14536=6.135983e-02
14537=7.570378e-01
14539=1.127116e-01
14541=4.695939e-02
14545=-7.200854e-01
14547=-6.414767e-02
14549=1.878784e-01
14553=2.326175e-01
14554=2.252803e-02
14555=5.431620e-02
14558=-4.621313e-03
14561=3.904341e-02
14563=-6.053159e-02
14564=-3.082907e-02
14574=1.700467e-05
14576=2.617304e-02
14579=1.126079e-01
15309=8.545188e-02
15310=1.597019e-01
15311=-6.946141e-02
15312=1.644149e-02
15313=1.780523e-01
15314=5.082261e-02
15315=7.142664e-02
15316=8.531604e-02
15317=5.516586e-02
15318=1.187754e-01
15319=1.151315e-01
15320=1.150655e-01
15321=3.777644e-02
15322=9.485440e-02
15323=-7.988609e-02
15324=1.132545e-02
15325=-8.752165e-03
15326=6.621359e-03
15328=2.136687e-01
15330=2.528686e-01
15331=2.141017e-03
15332=-5.747301e-03
15333=3.000315e-02
15334=4.439692e-05
15336=6.152072e-01
15337=1.745593e-01
15338=-2.303338e-01
15340=5.264111e-02
15346=-5.000278e-02
15363=-1.375085e-02
15364=5.051639e-01
15365=-1.518007e+00
15366=-1.091561e-01
15367=-4.540653e-02
15368=4.937545e-02
15369=-5.759956e-02
15370=7.421661e-02
15371=-1.201901e-01
15373=2.080636e-03
15376=-6.950786e-02
15377=5.508454e-02
15378=-1.807656e-01
15379=-7.545312e-02
15381=-2.283659e-06
15385=2.455961e-02
15390=-7.416432e-06
15391=1.584447e-04
15392=2.465792e-01
15393=6.284148e-02
15396=7.495433e-04
15400=6.559650e-06
15403=-9.868110e-02
15418=-3.023409e-01
15419=-5.548193e-02
15420=4.580828e-01
15421=-4.879023e-05
15422=-2.953391e-01
15423=8.141966e-02
15424=-7.954417e-02
15425=-9.376851e-02
15426=5.493616e-02
15427=4.705644e-02
15428=-6.669457e-04
15429=-1.903499e-04
15430=-3.203756e-02
15445=6.290760e-02
15447=-5.725359e-02
15448=3.950798e-01
15453=7.820908e-02
15454=-1.737066e-01
15463=-1.240581e-01
15466=6.120344e-02
15472=-1.799032e-02
15474=-2.415555e-01
15476=4.694401e-01
15477=1.474309e-01
15479=-1.572466e-02
15480=4.454724e-02
15481=-1.626183e-01
15502=1.767227e-02
15504=3.452323e-01
15507=1.430527e-01
15529=7.740415e-03
15532=4.963205e-01
15533=4.746390e-02
15553=8.985794e-06
15555=-1.025003e-01
15556=3.898334e-02
15560=3.259981e-01
15563=-2.427381e-01
15564=5.317892e-03
15588=1.042385e-01
15589=5.986592e-04
15592=1.181437e-03
15597=9.035630e-02
15610=5.960252e-02
15616=2.889240e-01
15617=6.503497e-02
15637=3.155348e-02
15641=-1.604157e-01
15642=8.471047e-02
15643=3.460860e-02
15644=2.753102e-01
15646=-9.751352e-02
15650=4.159006e-02
15672=1.004173e-01
15690=-2.831107e-01
15697=-1.097436e-01
15698=-2.777827e-02
15700=4.704151e-01
15705=1.366477e-01
15725=5.778991e-03
15728=8.834331e-02
15745=-5.659859e-02
15756=4.819396e-01
15760=3.243692e-03
15784=4.442951e-01
15812=2.778908e-01
15840=2.111824e-01
15853=-1.088388e-01
15861=9.232923e-02
15868=6.128501e-01
15896=2.101195e-01
15913=-2.100159e-02
15924=3.155724e-01
15928=9.044804e-02
15940=7.445287e-02
15941=7.152602e-02
15952=1.602128e-01
15978=3.868552e-02
15980=2.314023e-01
16008=3.237970e-01
16036=3.182603e-01
16038=1.020422e-01
16065=1.260376e-01
16066=4.676504e-02
16067=4.030778e-02
16068=1.068808e-03
16069=2.509314e-02
16070=1.104770e-01
16071=8.408938e-02
16072=1.211682e-01
16073=1.060894e-01
16074=3.408787e-03
16075=9.997765e-02
16076=2.817170e-02
16078=1.155554e-01
16079=-3.375860e-04
16080=9.160207e-02
16081=1.835522e-02
16083=-1.462435e-02
16084=-1.171580e-02
16085=1.650213e-01
16086=2.354492e-01
16087=9.690895e-03
16089=7.453016e-02
16090=1.534862e-01
16091=4.331334e-05
16092=6.527849e-01
16093=-1.366786e-01
16094=-1.232098e-01
16096=7.984464e-02
16102=-4.527689e-02
16119=-1.290628e-01
16120=3.658127e-01
16121=2.113875e-02
16122=-2.133506e-02
16123=-1.405591e-02
16124=1.062382e-01
16125=-4.758264e-02
16126=7.347769e-02
16127=-1.122905e-01
16129=2.700216e-03
16133=-1.671696e-05
16134=2.829232e-02
16141=7.391876e-02
16146=-9.143322e-03
16147=7.805213e-04
16148=2.272709e-01
16149=6.014019e-02
16156=8.972531e-06
16159=-4.731419e-02
16174=-1.760396e-01
16176=4.698737e-01
16177=-1.454682e-02
16178=-2.756772e-01
16179=9.831564e-02
16181=-8.543572e-02
16182=3.524801e-02
16183=3.598833e-02
16184=-3.087146e-04
16186=-6.340165e-02
16201=5.967638e-02
16204=3.332287e-01
16209=3.170973e-02
16210=-1.503589e-01
16219=-3.315715e-02
16220=2.580082e-02
16222=7.331518e-02
16224=2.271937e-02
16228=-1.031905e-02
16230=-8.769970e-02
16231=1.984670e-01
16232=3.925067e-01
16233=1.444381e-01
16235=-4.550165e-03
16236=8.060359e-02
16237=-1.138634e-01
16258=3.035941e-02
16260=3.929941e-01
16263=4.690909e-02
16285=2.151605e-02
16288=4.794383e-01
16289=4.895717e-02
16309=1.582783e-05
16311=-2.439443e-02
16312=1.749880e-02
16316=2.917016e-01
16319=-4.639663e-02
16320=7.469575e-03
16339=-3.235905e-02
16344=2.857261e-02
16372=1.505145e-01
16373=5.096362e-03
16381=4.691038e-05
16393=9.122442e-03
16399=1.520457e-02
16400=1.631626e-01
16406=4.637989e-02
16446=-1.328655e-04
16453=-6.229490e-02
16456=3.332994e-01
16461=7.079552e-02
16481=7.520484e-03
16484=6.327983e-01
16501=-1.637572e-02
16512=4.032952e-01
16516=5.014180e-03
16540=4.338088e-01
16624=3.349425e-01
16652=2.082142e-01
16680=3.405742e-01
16684=9.114622e-02
16696=7.168848e-02
16697=7.598410e-02
16708=1.540663e-01
16734=3.504028e-02
16736=2.571645e-01
16764=3.012461e-01
16792=3.067539e-01
16794=1.606657e-01
16821=2.326175e-01
16822=2.252803e-02
16823=5.431620e-02
16826=-4.621313e-03
16829=3.904341e-02
16831=-6.053159e-02
16832=-3.082907e-02
16842=1.700467e-05
16844=2.617304e-02
16847=1.126079e-01
17577=2.326175e-01
17578=2.252803e-02
17579=5.431620e-02
17582=-4.621313e-03
17585=3.904341e-02
17587=-6.053159e-02
17588=-3.082907e-02
17598=1.700467e-05
17600=2.617304e-02
17603=1.126079e-01
18333=2.522536e-02
18334=1.404694e-01
18335=-4.345025e-03
18336=-2.408507e-02
18337=4.333983e-02
18338=3.489870e-02
18339=-4.064642e-03
18341=1.985302e-02
18342=1.251737e-01
18343=5.209229e-03
18344=-7.766346e-02
18346=-7.362823e-02
18348=-3.720009e-02
18349=5.133981e-02
18350=1.658800e-02
18354=-5.385858e-04
18356=-9.028366e-03
18358=5.030233e-02
18360=3.127821e-01
18361=-8.384012e-03
18388=2.567833e-01
18408=1.371474e-02
18416=1.033338e-01
18444=6.121312e-02
18445=1.078603e-02
18447=-2.495305e-02
18451=4.524978e-03
18472=1.229545e-01
18477=1.570382e-02
18488=2.712737e-02
18499=-2.474426e-02
18500=1.126052e-01
18501=6.375523e-02
18504=3.528162e-02
18531=1.220152e-01
18556=1.072500e-01
18584=4.488920e-01
18607=2.568642e-04
18612=1.105520e-01
18634=2.611635e-02
18639=-3.091899e-02
18640=8.740583e-02
18641=8.108675e-03
18661=3.477720e-02
18666=3.155367e-02
18668=2.176432e-03
18696=3.785674e-01
18724=-1.815718e-03
18729=1.027551e-02
18752=2.017755e-01
18780=8.889275e-02
18808=4.198107e-01
18836=1.332285e-01
18864=1.425755e-01
18892=7.890359e-02
18928=7.250921e-02
18948=9.165079e-02
18952=4.983518e-02
19060=4.774041e-02
19089=-9.040850e-03
19090=-1.400068e-02
19091=8.896452e-03
19092=3.873603e-02
19093=-3.144650e-03
19094=3.695826e-02
19095=5.506651e-02
19096=2.476933e-02
19097=-5.924540e-03
19098=-1.872334e-03
19099=6.134833e-02
19100=3.953058e-02
19102=-2.430331e-02
19104=-2.370179e-02
19110=-3.741712e-02
19112=1.553812e-01
19113=5.217021e-02
19116=5.127615e-02
19123=9.267201e-03
19144=5.024080e-02
19145=1.057623e-03
19146=3.841103e-02
19148=-6.432522e-02
19150=5.454546e-02
19153=4.572032e-02
19172=-7.295840e-03
19180=5.300332e-02
19199=2.233181e-02
19200=1.044679e-01
19203=6.078898e-02
19206=1.643118e-01
19207=4.916093e-02
19228=3.047595e-02
19244=4.490729e-02
19246=3.329501e-02
19256=2.604024e-01
19257=8.563061e-02
19284=5.459326e-02
19312=4.392452e-02
19340=1.311975e-01
19342=-2.107719e-01
19344=5.500840e-03
19396=-2.205386e-03
19424=2.261628e-01
19480=1.229590e-02
19508=2.113672e-01
19536=5.766502e-06
19648=8.204509e-02
19704=-1.284478e-02
19720=1.471959e-01
19758=2.017874e-02
19760=7.004226e-02
19788=1.974664e-01
19816=4.311970e-02
19845=2.601389e-01
19846=-1.303459e-03
19847=1.774454e-02
19853=3.801173e-02
19868=7.943227e-02
19888=4.676419e-03
19899=-4.984167e-02
19912=7.417133e-03
19926=-6.383530e-02
19927=-7.235352e-02
19928=2.353598e-02
19929=-8.652349e-02
19930=1.273498e-01
19931=-2.917224e-02
19932=4.389899e-03
19933=9.738986e-03
19934=-5.157907e-02
19935=1.403338e-01
19936=2.490279e-01
19937=2.497751e-01
19938=7.353390e-01
19939=3.974616e-02
19941=4.532055e-05
19942=6.247161e-04
19944=2.969074e-01
19945=1.742673e-02
19946=1.897524e-01
19947=1.675686e-01
19949=5.858895e-02
19953=3.949958e-01
19954=4.990971e-01
19955=-1.384141e-01
19956=4.645948e-02
19957=3.609733e-02
19981=-4.315539e-01
19982=3.884333e-01
19983=5.242584e-01
19984=-6.975818e-01
19985=6.382369e-01
19987=5.501150e-01
19989=-1.960653e-04
19990=2.714166e-02
19991=5.059138e-02
19992=6.656261e-04
19993=4.836821e-02
19994=1.253646e+00
19995=8.063922e-02
20008=1.042256e-01
20009=1.045786e-01
20010=6.549545e-02
20013=1.237626e-01
20037=-1.991990e-02
20038=1.223737e-02
20040=1.846716e-01
20043=8.415385e-02
20044=1.585883e-01
20045=2.486829e-01
20062=3.320460e-02
20065=-1.294548e-01
20070=1.316138e-01
20071=-4.786693e-02
20080=-2.490588e-02
20083=5.623999e-02
20085=4.320388e-02
20092=2.276820e-01
20093=-5.492094e-02
20094=1.689513e-01
20097=3.496558e-02
20098=-5.603443e-02
20101=7.536394e-02
20121=1.762611e-01
20124=1.086560e-01
20146=1.479535e-02
20149=-1.792938e-02
20150=3.932315e-01
20170=6.474732e-01
20173=9.036509e-02
20177=-9.458404e-02
20182=6.423036e-06
20200=1.365620e-01
20205=-5.134440e-02
20207=1.785384e-02
20209=2.626900e-02
20227=1.882395e-01
20233=-3.364678e-02
20234=7.680496e-01
20242=8.271412e-04
20254=4.413938e-02
20259=5.906579e-02
20260=2.667517e-01
20261=-1.537281e-01
20267=4.812763e-02
20289=1.040791e-01
20308=3.767378e-05
20317=5.004459e-02
20322=3.223819e-01
20341=5.671210e-02
20342=1.132779e-02
20373=9.797902e-02
20377=1.159296e-02
20395=3.921278e-02
20401=8.880108e-02
20457=2.407203e-01
20478=1.063491e-01
20485=5.254061e-02
20513=1.062098e-01
20521=6.446176e-04
20541=2.362649e-01
20545=4.834809e-02
20557=1.263155e-01
20558=5.983206e-02
20595=2.787742e-02
20597=2.488745e-01
20611=4.993568e-02
20639=3.519619e-02
20653=4.932791e-02
20682=-7.400007e-02
20683=2.742832e-02
20684=-8.806916e-02
20685=3.662758e-02
20687=1.360380e-02
20690=3.296547e-02
20692=2.212562e-01
20695=9.071276e-03
20698=2.141382e-02
20703=-5.268105e-02
20705=3.368281e-02
20707=1.984275e-01
20737=1.426558e-02
20739=-1.909840e-02
20746=2.038286e-01
20765=-3.601087e-05
20793=6.344100e-02
20822=2.875681e-02
20849=-9.305728e-03
20933=3.266467e-02
20989=2.060429e-01
21017=2.707072e-02
21073=4.577553e-01
21277=8.192237e-02
21297=-2.146839e-04
21409=6.116954e-02
21449=-4.731220e-02
21451=2.256228e-02
21502=1.701210e-01
21829=4.647745e-02
22194=-3.704109e-01
22195=-4.568119e-03
22196=-1.443294e-02
22197=-5.750028e-02
22199=6.867090e-02
22201=9.730640e-02
22202=-2.839528e-01
22204=6.404265e-02
22205=1.701577e-01
22206=1.025716e-01
22207=1.939520e-02
22208=5.338029e-02
22209=-2.949290e-02
22210=1.000668e-02
22212=1.687670e-01
22215=-6.802349e-04
22219=1.760860e-02
22221=3.218671e-03
22222=4.705621e-01
22225=3.253852e-02
22228=2.424430e-06
22249=-1.366025e+00
22250=1.563103e-01
22251=2.723588e-01
22253=2.720108e-01
22255=1.494664e-01
22258=1.490546e-01
22259=1.025587e-01
22260=2.264561e-01
22261=3.778170e-02
22262=1.092838e-01
22263=9.333542e-02
22264=5.736523e-03
22269=5.302363e-03
22276=3.310347e-02
22277=5.191505e-02
22281=8.444061e-01
22285=1.410387e-02
22305=-1.102049e-02
22312=9.034010e-02
22313=4.324353e-01
22330=1.587413e-01
22338=1.122765e-03
22339=-4.205435e-06
22342=1.158271e-01
22348=-1.716856e-05
22361=8.030922e-02
22362=-1.858888e-02
22389=4.724567e-01
22417=4.290966e-02
22441=1.211704e-02
22450=2.370651e-01
22475=5.717500e-02
22477=3.254423e-01
22483=6.479509e-05
22501=-6.533698e-01
22502=2.991906e-03
22504=4.621932e-04
22528=-1.539017e-01
22529=-3.319332e-02
22585=-6.346696e-02
22609=2.013817e-01
22641=-4.527257e-02
22645=8.865127e-02
22663=4.283612e-02
22669=1.352592e-01
22725=1.461161e-02
22781=1.022828e-01
22789=6.474506e-03
22792=3.391375e-02
22809=-2.411229e-05
22813=4.611869e-02
22825=2.126236e-01
22907=4.156622e-02
22921=4.737651e-02
22950=4.325961e-02
22951=4.148295e-03
22952=2.851228e-02
22953=5.738533e-02
22954=3.073891e-05
22955=4.947453e-03
22956=6.411328e-02
22957=1.533745e-02
22958=-4.547291e-03
22959=-4.150773e-03
22960=7.168314e-02
22961=7.831365e-02
22963=9.412701e-03
22965=-2.793106e-03
22971=-5.010364e-03
22973=1.694463e-01
22977=1.199829e-01
22978=-7.788419e-01
23005=1.088156e-01
23008=3.420349e-03
23014=1.623327e-02
23033=3.337784e-01
23061=1.359405e-01
23064=1.303895e-02
23117=1.373484e-01
23118=4.302785e-02
23145=2.955084e-01
23173=2.592127e-01
23176=9.815884e-03
23201=8.613068e-02
23205=5.587492e-03
23257=7.566095e-02
23278=1.605128e-02
23284=6.342224e-06
23285=1.667144e-01
23341=2.382499e-01
23369=2.405572e-02
23397=3.860892e-02
23509=2.076596e-02
23537=9.624587e-02
23565=3.123438e-02
23593=1.305977e-02
23621=2.713562e-01
23635=3.470567e-02
23649=4.285149e-02
23663=3.921976e-02
23722=5.654735e-03
24181=7.761584e-03
24462=-7.400007e-02
24463=2.742832e-02
24464=-8.806916e-02
24465=3.662758e-02
24467=1.360380e-02
24470=3.296547e-02
24472=2.212562e-01
24475=9.071276e-03
24478=2.141382e-02
24483=-5.268105e-02
24485=3.368281e-02
24487=1.984275e-01
24517=1.426558e-02
24519=-1.909840e-02
24526=2.038286e-01
24545=-3.601087e-05
24573=6.344100e-02
24602=2.875681e-02
24629=-9.305728e-03
24713=3.266467e-02
24769=2.060429e-01
24797=2.707072e-02
24853=4.577553e-01
25057=8.192237e-02
25077=-2.146839e-04
25189=6.116954e-02
25218=4.325961e-02
25219=4.148295e-03
25220=2.851228e-02
25221=5.738533e-02
25222=3.073891e-05
25223=4.947453e-03
25224=6.411328e-02
25225=1.533745e-02
25226=-4.547291e-03
25227=-4.150773e-03
25228=7.168314e-02
25229=7.831365e-02
25231=9.412701e-03
25233=-2.793106e-03
25239=-5.010364e-03
25241=1.694463e-01
25245=1.199829e-01
25246=-7.788419e-01
25273=1.088156e-01
25276=3.420349e-03
25282=1.623327e-02
25301=3.337784e-01
25329=1.359405e-01
25332=1.303895e-02
25385=1.373484e-01
25386=4.302785e-02
25413=2.955084e-01
25441=2.592127e-01
25444=9.815884e-03
25469=8.613068e-02
25473=5.587492e-03
25525=7.566095e-02
25546=1.605128e-02
25552=6.342224e-06
25553=1.667144e-01
25609=2.382499e-01
25637=2.405572e-02
25665=3.860892e-02
25777=2.076596e-02
25805=9.624587e-02
25833=3.123438e-02
25861=1.305977e-02
25889=2.713562e-01
25903=3.470567e-02
25917=4.285149e-02
25931=3.921976e-02
25974=1.806645e-01
25975=2.428543e-03
25976=1.664083e-01
25977=-7.390888e-02
25979=-1.158592e-03
25985=-3.368569e-01
25990=3.455916e-01
25997=8.055255e-02
26001=1.279594e+00
26002=-6.106497e-04
26005=1.053500e-01
26029=4.776236e-01
26033=-1.107068e-01
26057=1.339763e+00
26141=6.702017e-01
26171=1.001845e-02
26449=1.758992e-01
26589=4.412311e-02
26645=1.165149e-01
26730=2.437095e-02
26731=9.887089e-02
26732=1.397225e-02
26733=6.651790e-03
26735=7.461721e-02
26737=1.861045e-02
26738=1.936490e-01
26740=1.723596e-01
26741=2.249165e-01
26743=3.679429e-02
26745=8.683054e-02
26749=-3.584222e-02
26751=1.819394e-01
26753=2.704198e-02
26754=2.931512e-02
26755=3.077988e-02
26757=1.332823e-01
26758=3.553972e-01
26760=1.988895e-04
26785=5.037459e-02
26786=3.871654e-04
26787=5.333377e-02
26788=-1.192427e-01
26789=6.739009e-02
26791=5.307817e-02
26794=1.814101e-02
26795=1.042431e-02
26797=1.596298e-02
26812=6.611347e-03
26813=1.296122e-01
26814=8.272479e-02
26821=1.067714e-05
26824=-1.721784e-03
26841=2.140070e-01
26848=3.436287e-01
26849=7.261369e-03
26866=1.212177e-01
26869=9.846079e-02
26875=-8.828437e-03
26878=1.032170e-01
26884=-1.408590e-02
26889=4.384044e-02
26897=2.924924e-01
26898=6.606262e-05
26902=-9.179589e-02
26953=6.799339e-02
26954=5.350219e-04
26974=6.906058e-03
26981=2.587893e-01
27010=2.875035e-01
27019=4.560601e-03
27031=1.873529e-02
27037=-1.625748e-03
27038=1.628368e-01
27064=1.383319e-01
27065=2.332467e-01
27121=1.343557e-01
27146=9.633609e-03
27177=2.632662e-01
27181=6.621515e-03
27205=1.905927e-01
27289=1.565009e-01
27325=6.292166e-04
27345=2.030298e-01
27349=7.734620e-02
27361=1.109603e-01
27362=5.673965e-02
27401=4.867669e-01
27429=1.701281e-01
27443=3.861716e-02
27457=2.711152e-01
27486=-2.353233e-03
27487=-8.723461e-03
27488=7.903707e-02
27489=-5.180904e-03
27491=6.620298e-03
27492=6.785061e-02
27494=-1.482482e-01
27496=-2.504501e-05
27499=3.585054e-02
27502=5.894973e-02
27509=8.616995e-02
27513=1.545931e-01
27542=9.755961e-02
27569=6.683119e-02
27597=3.002043e-03
27622=1.969921e-02
27708=2.713626e-02
27877=2.890230e-01
27961=1.492501e-01
28101=8.399067e-03
28157=5.069287e-02
28215=1.952704e-01
28242=1.321078e-01
28243=7.362769e-03
28244=7.848210e-02
28245=-3.798828e-02
28247=-2.296348e-02
28265=7.384726e-02
28269=2.624168e-01
28297=6.195521e-02
28325=5.228781e-01
28439=8.877621e-03
28550=3.486399e-02
28857=4.755875e-02
28913=3.132457e-01
28998=5.016664e-02
29000=5.642150e-02
29001=-6.632795e-04
29006=-4.860929e-02
29021=8.446783e-02
29025=1.316790e-01
29053=1.722347e-03
29081=1.433657e-02
29109=4.578989e-03
29220=2.789465e-02
29613=2.333875e-02
29669=5.197718e-02
29754=-8.961311e-03
29755=5.044684e-02
29756=9.740360e-02
29757=1.958072e-01
29758=6.602915e-02
29759=1.441044e-01
29760=1.151584e-01
29761=1.287350e-01
29762=8.198670e-02
29763=-7.625753e-01
29764=1.204425e-01
29765=1.331302e-01
29766=4.746203e-02
29767=9.433524e-02
29768=-1.141417e-01
29769=1.156764e-01
29770=-7.777397e-03
29771=5.601547e-03
29773=-4.191911e-03
29775=2.455853e-01
29776=1.499842e-02
29777=-1.238828e-02
29778=2.193991e-01
29779=1.299082e-01
29781=4.336541e-01
29782=1.614246e-01
29783=-1.879784e-01
29784=1.361927e-02
29785=2.735919e-02
29791=-4.486288e-02
29808=-1.157658e-01
29809=4.734905e-01
29810=2.291066e-03
29811=4.457296e-02
29813=9.306355e-02
29814=-4.401022e-02
29815=6.721985e-02
29816=-1.055481e-01
29818=-1.422227e-02
29821=9.521277e-05
29822=5.566365e-02
29823=1.297852e-02
29826=-1.775881e-04
29827=-1.544707e-01
29830=8.663991e-02
29835=-6.289126e-06
29836=2.404474e-03
29837=5.111425e-01
29838=6.586169e-02
29845=8.238166e-06
29848=-9.183215e-02
29863=-1.747418e-01
29864=-6.941854e-05
29865=4.799669e-01
29867=-2.808642e-01
29868=9.277134e-02
29869=-4.056200e-02
29870=-3.815575e-02
29871=4.119524e-01
29872=2.720195e-02
29873=-6.108530e-03
29893=4.942649e-01
29913=1.061148e-01
29917=-1.666948e-02
29919=-2.845310e-01
29920=4.602273e-03
29921=4.945442e-01
29922=1.629596e-01
29924=-9.918407e-06
29926=-1.137240e-01
29949=8.680716e-01
29951=5.687700e-04
29952=-1.459299e-02
29974=1.353921e-02
29977=4.906236e-01
29998=9.860743e-06
30000=-1.014114e-01
30001=7.087227e-02
30005=3.289206e-01
30008=-2.283394e-01
30009=8.586915e-03
30055=5.675444e-02
30061=3.935318e-01
30062=7.328740e-02
30082=3.895420e-02
30086=-1.173911e-01
30087=7.148366e-02
30088=4.648709e-02
30089=3.048352e-01
30091=-9.002616e-02
30095=4.027306e-02
30117=9.754517e-02
30135=-2.668486e-04
30136=1.838439e-05
30142=-9.664382e-02
30143=-1.264093e-02
30145=4.214367e-01
30150=2.897492e-01
30169=4.178142e-02
30170=7.615783e-03
30173=7.921330e-02
30190=-1.213461e-03
30201=3.979548e-01
30205=5.486513e-03
30229=3.827887e-01
30257=2.702526e-01
30285=2.272452e-01
30313=3.188952e-01
30341=2.039266e-01
30369=3.259922e-01
30373=8.808803e-02
30385=8.339184e-02
30386=7.502781e-02
30397=1.535388e-01
30423=3.459894e-02
30425=2.568039e-01
30453=2.985468e-01
30481=3.058633e-01
30510=8.114248e-02
30511=1.716344e-01
30512=7.551577e-03
30513=1.610693e-01
30514=2.634468e-01
30515=-4.843515e-03
30516=1.294595e-01
30517=1.143279e-01
30518=-3.993012e-02
30519=1.975853e-01
30520=9.303878e-03
30521=-8.624528e-01
30522=1.721014e-02
30523=5.413216e-02
30524=1.137255e-04
30525=-6.125716e-03
30526=-7.605699e-03
30527=1.455213e-01
30528=1.305479e-01
30529=1.223618e-01
30531=-6.811083e-03
30532=1.703431e-02
30533=-1.824382e-02
30537=-3.584178e-02
30538=9.282149e-02
30539=2.673306e-02
30540=1.020755e-02
30541=9.781661e-02
30542=6.642372e-02
30543=7.815179e-02
30544=7.540299e-02
30545=1.004649e-01
30546=1.449893e-01
30547=1.708525e-01
30548=1.197974e-01
30549=3.809216e-06
30550=1.417488e-01
30551=1.121822e-01
30552=6.849968e-02
30553=-8.347506e-03
30554=7.976232e-03
30555=9.930125e-06
30556=2.097290e-01
30558=-4.669920e-02
30559=1.369285e-04
30560=-2.461666e-02
30561=2.121041e-02
30564=5.889674e-01
30565=1.916356e-01
30566=-2.087444e-01
30567=1.733495e-02
30568=8.103084e-02
30574=-5.059010e-02
30591=-1.396582e-01
30592=4.917540e-01
30593=1.457233e-03
30594=9.019825e-02
30595=-4.655207e-02
30596=8.766293e-02
30597=-5.910707e-02
30598=6.134624e-02
30599=-1.245705e-01
30601=9.257011e-04
30602=-1.231136e-03
30603=2.703810e-03
30605=5.670399e-02
30606=1.350334e-02
30609=-7.459506e-04
30613=2.548608e-02
30619=-6.022602e-01
30620=2.872648e-01
30621=-1.120882e+00
30622=-4.385645e-01
30628=5.072303e-05
30646=-1.736910e-01
30647=-4.289949e-03
30648=3.836666e-01
30649=-9.087404e-04
30651=1.547671e-02
30652=-7.496961e-02
30653=-4.890417e-02
30654=5.255122e-02
30655=1.364100e-01
30656=-2.819150e-04
30658=-6.600721e-03
30673=6.367929e-02
30675=-6.033809e-02
30676=3.983747e-01
30681=7.825439e-02
30682=-1.741496e-01
30691=-1.245068e-01
30694=6.127012e-02
30700=-1.071164e-02
30702=-7.286233e-02
30703=-1.715999e-05
30704=4.404058e-01
30705=1.609567e-01
30707=-4.615617e-03
30708=5.162324e-02
30709=-1.611368e-01
30730=1.778007e-02
30732=4.059845e-01
30735=1.431434e-01
30757=8.571756e-03
30760=5.260185e-01
30761=3.411842e-04
30781=9.942766e-06
30783=-1.066142e-01
30784=3.970846e-02
30788=3.267832e-01
30791=-2.412709e-01
30792=4.548124e-03
30816=1.042416e-01
30817=5.935139e-04
30820=1.082228e-03
30825=9.032457e-02
30838=5.993484e-02
30844=4.597948e-01
30845=6.680392e-02
30865=3.612076e-02
30869=-1.602780e-01
30870=8.515505e-02
30871=3.979249e-02
30872=3.035260e-01
30874=-9.773166e-02
30878=4.159293e-02
30900=1.004212e-01
30918=-3.176070e-02
30925=-1.079910e-01
30926=-1.408022e-02
30928=4.833143e-01
30933=1.391249e-01
30956=6.289716e-01
30973=-2.856709e-02
30984=3.594721e-01
30988=3.257729e-03
31012=2.079105e-01
31040=2.778764e-01
31068=2.111901e-01
31081=-1.081793e-01
31089=8.980025e-02
31096=7.504947e-01
31124=2.100449e-01
31152=3.160108e-01
31156=9.041017e-02
31168=7.461095e-02
31169=7.167624e-02
31180=1.602182e-01
31206=3.868673e-02
31208=2.313428e-01
31236=3.238224e-01
31264=3.182562e-01
31266=1.011275e-01
31320=2.498629e-02
32049=-2.398058e-01
32050=-9.082975e-02
32051=-7.426754e-03
32052=-5.987377e-02
32054=6.898527e-02
32056=4.893800e-02
32057=-2.089388e-01
32059=8.818995e-02
32060=1.103344e+00
32061=8.887889e-02
32062=2.219641e-01
32063=4.661915e-02
32064=-2.409751e-02
32065=3.394693e-02
32068=1.552142e-04
32070=-3.845322e-05
32074=2.901829e-02
32076=2.235835e-02
32077=4.930687e-01
32080=6.499657e-02
32083=2.494328e-06
32104=-9.842596e-01
32105=2.301141e-01
32106=9.187993e-02
32108=2.506137e-01
32110=3.201539e-03
32113=4.458985e-01
32114=1.194163e-01
32115=2.268426e-01
32116=9.257103e-02
32117=9.324111e-02
32118=8.220792e-02
32119=4.342846e-03
32124=4.836235e-03
32132=-1.000635e-02
32136=8.525173e-01
32140=1.257437e-02
32167=2.008541e-01
32168=4.413241e-01
32189=1.497799e-02
32193=1.386980e-02
32194=-1.647576e-01
32197=7.971866e-01
32216=1.067855e-01
32217=-1.493160e-04
32244=4.237552e-01
32272=4.310514e-02
32296=1.045551e-01
32305=2.367989e-01
32329=-1.744313e-03
32330=5.813223e-02
32332=7.633606e-01
32338=6.543244e-05
32356=-1.560983e-01
32357=2.946461e-03
32359=1.092080e-03
32383=-1.388625e-01
32384=-4.082499e-02
