#mdl#2#12654
#rdr#45/21/0
1:*,
18:u:Tok-1 X=%x[ 0,0],
18:u:tok-1 X=%x[ 0,1],
18:u:tok-1LL=%X[-2,0],
18:u:tok-1 L=%X[-1,0],
18:u:tok-1 R=%X[ 1,0],
18:u:tok-1RR=%X[ 2,0],
27:u:tok-2 L=%X[-1,0]/%X[ 0,0],
27:u:tok-2 R=%X[ 0,0]/%X[ 1,0],
18:*:Fst-1 X=%x[ 0,2],
18:*:Fst-1 R=%x[ 1,2],
18:*:Lst-1 L=%x[-1,3],
18:*:Lst-1 X=%x[ 0,3],
18:*:Pre-1 X=%x[ 0,4],
18:*:Pre-2 X=%x[ 0,5],
18:*:Pre-3 X=%x[ 0,6],
18:*:Pre-4 X=%x[ 0,7],
18:*:Suf-1 L=%x[-1,8],
18:*:Suf-1 X=%x[ 0,8],
18:*:Suf-2 L=%x[-1,9],
18:*:Suf-2 X=%x[ 0,9],
19:*:Suf-3 X=%x[ 0,10],
19:*:Suf-4 X=%x[ 0,11],
27:*:Fst-2 X=%x[ 0,2]/%x[ 0,4],
27:*:Lst-2 X=%x[ 0,3]/%x[ 0,8],
19:*:Cap-1 L=%x[-1,12],
19:*:Cap-1 X=%x[ 0,12],
19:*:Cap-1 R=%x[ 1,12],
29:*:Cap-2 L=%X[-1,12]/%X[ 0,12],
29:*:Cap-2 R=%X[ 0,12]/%X[ 1,12],
19:*:Num-1 L=%x[-1,13],
19:*:Num-1 X=%x[ 0,13],
19:*:Num-1 R=%x[ 1,13],
19:u:Nme-1 X=%x[ 0,14],
19:u:Loc-1 X=%x[ 0,15],
19:u:Pub-1 X=%x[ 0,16],
19:u:Jnl-1 X=%x[ 0,17],
19:*:Key-1 L=%x[-1,18],
19:*:Key-1 X=%x[ 0,18],
19:*:Key-1 R=%x[ 1,18],
19:*:Pos-1 X=%x[ 0,19],
19:*:Pct-1 L=%x[-1,20],
19:*:Pct-1 X=%x[ 0,20],
19:*:Pct-1 R=%x[ 1,20],
19:u:Loc-1 X=%x[ 0,21],
#qrk#27
6:author,
5:title,
6:editor,
9:booktitle,
4:date,
7:journal,
6:volume,
5:genre,
9:authority,
5:pages,
8:location,
9:publisher,
3:url,
4:note,
7:edition,
6:source,
10:translator,
4:isbn,
3:doi,
8:accessed,
7:section,
8:director,
6:medium,
8:producer,
5:event,
7:unknown,
15:citation-number,
#qrk#2827
1:*,
11:u:tok-1 X=a,
14:u:tok-1LL=_x-2,
14:u:tok-1 L=_x-1,
12:u:tok-1RR=r.,
12:*:Fst-1 X=Lu,
12:*:Fst-1 R=Lu,
14:*:Lst-1 L=_x-1,
11:*:Lst-1 X=P,
11:*:Pre-1 X=A,
14:*:Suf-1 L=_x-1,
11:*:Suf-1 X=.,
14:*:Suf-2 L=_x-1,
14:*:Fst-2 X=Lu/A,
13:*:Lst-2 X=P/.,
14:*:Cap-1 L=_x-1,
16:*:Cap-1 X=single,
17:*:Cap-1 R=initial,
21:*:Cap-2 L=_x-1/single,
24:*:Cap-2 R=single/initial,
14:*:Num-1 L=_x-1,
14:*:Num-1 X=none,
14:*:Num-1 R=none,
11:u:Nme-1 X=F,
11:u:Loc-1 X=F,
11:u:Pub-1 X=F,
11:u:Jnl-1 X=F,
14:*:Key-1 L=_x-1,
14:*:Key-1 X=none,
14:*:Key-1 R=none,
11:*:Pos-1 X=0,
14:*:Pct-1 L=_x-1,
18:*:Pct-1 X=terminal,
18:*:Pct-1 R=internal,
14:u:tok-1LL=_x-1,
12:u:tok-1 R=r.,
11:*:Lst-1 L=P,
11:*:Pre-1 X=C,
12:*:Pre-2 X=Ca,
11:*:Suf-1 L=.,
11:*:Suf-1 X=,,
14:*:Fst-2 X=Lu/C,
13:*:Lst-2 X=P/,,
16:*:Cap-1 L=single,
17:*:Cap-1 X=initial,
16:*:Cap-1 R=single,
24:*:Cap-2 L=single/initial,
24:*:Cap-2 R=initial/single,
14:*:Num-1 L=none,
14:*:Key-1 L=none,
18:*:Pct-1 L=terminal,
18:*:Pct-1 X=internal,
18:*:Pct-1 R=terminal,
13:u:tok-1RR=and,
11:*:Pre-1 X=R,
12:*:Pre-2 X=R.,
12:*:Pre-3 X=R.,
12:*:Pre-4 X=R.,
11:*:Suf-1 L=,,
12:*:Suf-2 X=R.,
12:*:Suf-3 X=R.,
12:*:Suf-4 X=R.,
14:*:Fst-2 X=Lu/R,
17:*:Cap-1 L=initial,
24:*:Cap-2 L=initial/single,
11:*:Pos-1 X=6,
18:*:Pct-1 L=internal,
13:u:tok-1 R=and,
12:*:Fst-1 R=Ll,
11:*:Pre-1 X=K,
12:*:Pre-2 X=Ku,
12:*:Suf-2 X=r,,
13:*:Suf-3 X=er,,
14:*:Fst-2 X=Lu/K,
15:*:Cap-1 R=lower,
23:*:Cap-2 R=initial/lower,
11:u:Nme-1 X=T,
14:*:Pct-1 R=none,
13:u:Tok-1 X=and,
13:u:tok-1 X=and,
12:u:tok-1LL=r.,
12:*:Fst-1 X=Ll,
12:*:Lst-1 X=Ll,
11:*:Pre-1 X=a,
12:*:Pre-2 X=an,
13:*:Pre-3 X=and,
13:*:Pre-4 X=and,
11:*:Suf-1 X=d,
12:*:Suf-2 L=r,,
12:*:Suf-2 X=nd,
13:*:Suf-3 X=and,
13:*:Suf-4 X=and,
14:*:Fst-2 X=Ll/a,
14:*:Lst-2 X=Ll/d,
15:*:Cap-1 X=lower,
14:*:Cap-1 R=caps,
23:*:Cap-2 L=initial/lower,
20:*:Cap-2 R=lower/caps,
11:u:Pub-1 X=T,
11:u:Jnl-1 X=T,
14:*:Pct-1 X=none,
13:u:tok-1 L=and,
12:*:Lst-1 L=Ll,
11:*:Pre-1 X=W,
11:*:Suf-1 L=d,
12:*:Suf-2 L=nd,
12:*:Suf-2 X=P.,
14:*:Fst-2 X=Lu/W,
15:*:Cap-1 L=lower,
14:*:Cap-1 X=caps,
20:*:Cap-2 L=lower/caps,
20:*:Cap-2 R=caps/lower,
14:*:Pct-1 L=none,
13:u:tok-1LL=and,
11:*:Pre-1 X=d,
12:*:Pre-2 X=de,
11:*:Suf-1 X=e,
12:*:Suf-2 X=de,
14:*:Fst-2 X=Ll/d,
14:*:Lst-2 X=Ll/e,
14:*:Cap-1 L=caps,
23:*:Cap-2 R=lower/initial,
12:*:Pre-2 X=Ro,
11:*:Suf-1 L=e,
12:*:Suf-2 L=de,
12:*:Suf-2 X=r.,
13:*:Suf-3 X=er.,
14:*:Suf-4 X=ver.,
23:*:Cap-2 L=lower/initial,
25:*:Cap-2 R=initial/initial,
12:*:Pos-1 X=22,
11:*:Pre-1 X=F,
11:*:Suf-1 X=g,
12:*:Suf-2 L=r.,
12:*:Suf-2 X=ng,
13:*:Suf-3 X=ing,
14:*:Fst-2 X=Lu/F,
14:*:Lst-2 X=Ll/g,
25:*:Cap-2 L=initial/initial,
12:*:Pos-1 X=25,
15:*:Pct-1 R=other,
11:*:Pre-1 X=D,
12:*:Pre-2 X=Di,
11:*:Suf-1 L=g,
11:*:Suf-1 X=s,
12:*:Suf-2 L=ng,
14:*:Fst-2 X=Lu/D,
14:*:Lst-2 X=Ll/s,
12:*:Pos-1 X=28,
15:*:Pct-1 X=other,
11:*:Suf-1 L=s,
11:*:Suf-1 X=t,
12:*:Suf-2 L='s,
12:*:Suf-2 X=nt,
14:*:Suf-4 X=ment,
14:*:Lst-2 X=Ll/t,
21:*:Cap-2 R=lower/lower,
12:*:Pos-1 X=31,
15:*:Pct-1 L=other,
11:*:Pre-1 X=s,
11:*:Suf-1 L=t,
11:*:Suf-1 X=y,
12:*:Suf-2 L=nt,
14:*:Fst-2 X=Ll/s,
14:*:Lst-2 X=Ll/y,
21:*:Cap-2 L=lower/lower,
11:*:Pre-1 X=w,
11:*:Suf-1 L=y,
11:*:Suf-1 X=n,
12:*:Suf-2 X=in,
14:*:Fst-2 X=Ll/w,
14:*:Lst-2 X=Ll/n,
12:*:Pos-1 X=38,
12:u:tok-1RR=in,
11:*:Pre-1 X=S,
12:*:Pre-2 X=St,
13:*:Pre-3 X=Sta,
11:*:Suf-1 L=n,
12:*:Suf-2 L=in,
14:*:Fst-2 X=Lu/S,
12:*:Pos-1 X=41,
12:u:tok-1 R=in,
11:*:Pre-1 X=f,
12:*:Pre-2 X=fo,
13:*:Pre-3 X=for,
14:*:Fst-2 X=Ll/f,
12:*:Key-1 R=in,
12:*:Pos-1 X=44,
12:u:Tok-1 X=In,
12:u:tok-1 X=in,
11:*:Pre-1 X=I,
12:*:Pre-2 X=In,
12:*:Pre-3 X=In,
12:*:Pre-4 X=In,
12:*:Suf-2 L=m.,
12:*:Suf-2 X=In,
12:*:Suf-3 X=In,
12:*:Suf-4 X=In,
14:*:Fst-2 X=Lu/I,
12:*:Key-1 X=in,
12:*:Pos-1 X=47,
12:u:Tok-1 X=C.,
11:u:tok-1 X=c,
12:u:tok-1 L=in,
12:*:Pre-2 X=C.,
12:*:Pre-3 X=C.,
12:*:Pre-4 X=C.,
12:*:Suf-2 L=In,
12:*:Suf-2 X=C.,
12:*:Suf-3 X=C.,
12:*:Suf-4 X=C.,
23:*:Cap-2 R=single/single,
12:*:Key-1 L=in,
12:*:Pos-1 X=50,
12:u:tok-1LL=in,
11:*:Pre-1 X=B,
12:*:Suf-2 L=C.,
14:*:Fst-2 X=Lu/B,
23:*:Cap-2 L=single/single,
12:*:Pos-1 X=53,
11:*:Pre-1 X=J,
12:*:Suf-2 L=B.,
12:*:Suf-2 X=s,,
13:*:Suf-3 X=es,,
14:*:Fst-2 X=Lu/J,
11:u:Loc-1 X=T,
12:*:Pos-1 X=56,
12:*:Suf-2 L=s,,
12:*:Pos-1 X=59,
12:*:Pos-1 X=63,
12:*:Pre-2 X=Sh,
12:*:Pos-1 X=66,
22:*:Cap-2 R=lower/single,
12:*:Pos-1 X=69,
11:*:Pre-1 X=T,
14:*:Fst-2 X=Lu/T,
22:*:Cap-2 L=lower/single,
12:*:Pos-1 X=72,
12:u:tok-1 L=t.,
12:*:Pre-2 X=De,
12:*:Suf-2 L=T.,
16:*:Key-1 R=editor,
12:*:Pos-1 X=75,
11:*:Pre-1 X=e,
12:*:Pre-2 X=ed,
13:*:Pre-3 X=edi,
14:*:Pre-4 X=edit,
14:*:Fst-2 X=Ll/e,
16:*:Key-1 X=editor,
12:*:Pos-1 X=78,
15:u:Tok-1 X=Proc.,
14:u:tok-1 X=proc,
11:*:Fst-1 R=N,
11:*:Pre-1 X=P,
12:*:Pre-2 X=Pr,
13:*:Pre-3 X=Pro,
14:*:Pre-4 X=Proc,
12:*:Suf-2 X=c.,
13:*:Suf-3 X=oc.,
14:*:Suf-4 X=roc.,
14:*:Fst-2 X=Lu/P,
15:*:Cap-1 R=other,
23:*:Cap-2 R=initial/other,
17:*:Num-1 R=ordinal,
16:*:Key-1 L=editor,
12:*:Pos-1 X=81,
15:u:tok-1 L=proc.,
11:*:Fst-1 X=N,
11:*:Pre-1 X=5,
12:*:Suf-2 L=c.,
12:*:Suf-2 X=h.,
13:*:Suf-3 X=th.,
13:*:Fst-2 X=N/5,
15:*:Cap-1 X=other,
23:*:Cap-2 L=initial/other,
20:*:Cap-2 R=other/caps,
17:*:Num-1 X=ordinal,
12:*:Pos-1 X=84,
16:*:Pct-1 R=hyphen,
15:u:tok-1LL=proc.,
12:*:Lst-1 X=Lu,
11:*:Suf-1 X=S,
12:*:Suf-2 L=h.,
14:*:Lst-2 X=Lu/S,
15:*:Cap-1 L=other,
20:*:Cap-2 L=other/caps,
22:*:Cap-2 R=caps/initial,
17:*:Num-1 L=ordinal,
12:*:Pos-1 X=88,
16:*:Pct-1 X=hyphen,
12:*:Lst-1 L=Lu,
12:*:Pre-2 X=Re,
11:*:Suf-1 L=S,
22:*:Cap-2 L=caps/initial,
12:*:Pos-1 X=91,
16:*:Pct-1 L=hyphen,
18:u:tok-1 X=workshop,
15:u:tok-1 R=1992.,
14:u:tok-1RR=_x+1,
12:*:Pre-2 X=Wo,
13:*:Pre-3 X=Wor,
14:*:Pre-4 X=Work,
14:*:Num-1 R=year,
12:*:Pos-1 X=94,
14:u:tok-1 R=_x+1,
14:u:tok-1RR=_x+2,
14:*:Fst-1 R=_x+1,
11:*:Pre-1 X=1,
12:*:Pre-2 X=19,
13:*:Pre-3 X=199,
14:*:Pre-4 X=1992,
12:*:Suf-2 X=2.,
13:*:Suf-3 X=92.,
14:*:Suf-4 X=992.,
13:*:Fst-2 X=N/1,
14:*:Cap-1 R=_x+1,
20:*:Cap-2 R=other/_x+1,
14:*:Num-1 X=year,
14:*:Num-1 R=_x+1,
14:*:Key-1 R=_x+1,
12:*:Pos-1 X=97,
14:*:Pct-1 R=_x+1,
12:u:Tok-1 X=M.,
11:*:Pre-1 X=M,
12:*:Pre-2 X=M.,
12:*:Pre-3 X=M.,
12:*:Pre-4 X=M.,
12:*:Suf-2 X=M.,
12:*:Suf-3 X=M.,
12:*:Suf-4 X=M.,
14:*:Fst-2 X=Lu/M,
12:u:tok-1 L=m.,
12:*:Suf-2 L=M.,
12:*:Suf-2 X=a,,
11:*:Pos-1 X=5,
11:u:tok-1 X=h,
11:*:Pre-1 X=H,
12:*:Pre-2 X=H.,
12:*:Suf-2 L=a,,
14:*:Fst-2 X=Lu/H,
12:u:tok-1 L=h.,
12:*:Pre-2 X=Ta,
12:*:Suf-2 L=H.,
12:*:Pos-1 X=14,
12:*:Pos-1 X=18,
12:*:Pos-1 X=23,
12:u:tok-1RR=of,
12:*:Pre-2 X=Mo,
12:*:Suf-2 X=a.,
12:*:Pos-1 X=27,
12:u:tok-1 R=of,
12:*:Pre-2 X=Ap,
13:*:Pre-3 X=App,
14:*:Pre-4 X=Appl,
12:*:Suf-2 L=a.,
12:*:Suf-2 X=on,
13:*:Suf-3 X=ion,
14:*:Suf-4 X=tion,
12:*:Pos-1 X=32,
12:u:Tok-1 X=of,
12:u:tok-1 X=of,
12:u:tok-1RR=to,
11:*:Pre-1 X=o,
12:*:Pre-2 X=of,
12:*:Pre-3 X=of,
12:*:Pre-4 X=of,
11:*:Suf-1 X=f,
12:*:Suf-2 L=on,
12:*:Suf-2 X=of,
12:*:Suf-3 X=of,
12:*:Suf-4 X=of,
14:*:Fst-2 X=Ll/o,
14:*:Lst-2 X=Ll/f,
12:u:tok-1 L=of,
12:u:tok-1 R=to,
11:*:Pre-1 X=h,
11:*:Suf-1 L=f,
11:*:Suf-1 X=h,
12:*:Suf-2 L=of,
14:*:Fst-2 X=Ll/h,
14:*:Lst-2 X=Ll/h,
12:u:Tok-1 X=to,
12:u:tok-1 X=to,
12:u:tok-1LL=of,
11:*:Pre-1 X=t,
12:*:Pre-2 X=to,
12:*:Pre-3 X=to,
12:*:Pre-4 X=to,
11:*:Suf-1 L=h,
11:*:Suf-1 X=o,
12:*:Suf-2 X=to,
12:*:Suf-3 X=to,
12:*:Suf-4 X=to,
14:*:Fst-2 X=Ll/t,
14:*:Lst-2 X=Ll/o,
12:*:Pos-1 X=45,
12:u:tok-1 L=to,
11:*:Suf-1 L=o,
11:*:Suf-1 X=a,
12:*:Suf-2 L=to,
12:*:Suf-2 X=ta,
13:*:Suf-3 X=ata,
14:*:Lst-2 X=Ll/a,
12:u:tok-1LL=to,
11:*:Pre-1 X=b,
11:*:Suf-1 L=a,
12:*:Suf-2 L=ta,
12:*:Suf-2 X=se,
14:*:Fst-2 X=Ll/b,
12:*:Pos-1 X=55,
17:u:tok-1 X=machine,
12:*:Suf-2 L=se,
12:*:Suf-2 X=ne,
13:*:Suf-3 X=ine,
14:*:Suf-4 X=hine,
17:u:tok-1 L=machine,
12:*:Suf-2 L=ne,
12:*:Pos-1 X=64,
13:u:tok-1RR=new,
11:*:Pre-1 X=i,
14:*:Fst-2 X=Ll/i,
12:*:Pos-1 X=68,
13:u:tok-1 R=new,
12:*:Pre-2 X=ar,
12:*:Suf-2 X=e.,
13:*:Suf-3 X=re.,
12:*:Pos-1 X=73,
13:u:Tok-1 X=New,
13:u:tok-1 X=new,
11:*:Pre-1 X=N,
12:*:Pre-2 X=Ne,
13:*:Pre-3 X=New,
13:*:Pre-4 X=New,
11:*:Suf-1 X=w,
12:*:Suf-2 L=e.,
12:*:Suf-2 X=ew,
13:*:Suf-3 X=New,
13:*:Suf-4 X=New,
14:*:Fst-2 X=Lu/N,
14:*:Lst-2 X=Ll/w,
12:*:Pos-1 X=77,
13:u:tok-1 L=new,
11:*:Pre-1 X=G,
12:*:Pre-2 X=Ge,
11:*:Suf-1 L=w,
12:*:Suf-2 L=ew,
14:*:Fst-2 X=Lu/G,
12:*:Pos-1 X=82,
13:u:tok-1LL=new,
12:*:Pre-2 X=Co,
13:*:Pre-3 X=Com,
14:*:Pre-4 X=Comp,
12:*:Suf-2 X=g,,
13:*:Suf-3 X=ng,,
14:*:Suf-4 X=ing,,
16:*:Num-1 R=volume,
12:*:Pos-1 X=86,
33:*:Pct-1 R=internal-closing-parens,
12:u:tok-1 X=11,
12:*:Suf-2 L=g,,
12:*:Suf-2 X=),,
21:*:Cap-2 R=other/other,
16:*:Num-1 X=volume,
33:*:Pct-1 X=internal-closing-parens,
13:*:Pre-3 X=198,
12:*:Suf-2 L=),,
12:*:Suf-2 X=3.,
21:*:Cap-2 L=other/other,
16:*:Num-1 L=volume,
12:*:Pos-1 X=95,
33:*:Pct-1 L=internal-closing-parens,
11:*:Suf-1 X=r,
12:*:Suf-2 X=er,
14:*:Lst-2 X=Ll/r,
22:*:Cap-2 L=_x-1/initial,
11:*:Pre-1 X=V,
11:*:Suf-1 L=r,
12:*:Suf-2 L=er,
12:*:Suf-2 X=y.,
14:*:Fst-2 X=Lu/V,
13:*:Pre-3 X=Mod,
12:*:Suf-2 L=y.,
11:*:Pre-1 X=l,
12:*:Suf-2 X=ge,
14:*:Fst-2 X=Ll/l,
12:*:Suf-2 L=ge,
12:*:Suf-2 X=n.,
13:*:Suf-3 X=on.,
14:*:Suf-4 X=ion.,
16:u:tok-1 R=report,
12:*:Pre-2 X=Te,
13:*:Pre-3 X=Tec,
14:*:Pre-4 X=Tech,
11:*:Suf-1 X=l,
12:*:Suf-2 L=n.,
12:*:Suf-2 X=al,
13:*:Suf-3 X=cal,
14:*:Suf-4 X=ical,
14:*:Lst-2 X=Ll/l,
16:u:Tok-1 X=Report,
16:u:tok-1 X=report,
13:*:Pre-3 X=Rep,
14:*:Pre-4 X=Repo,
11:*:Suf-1 L=l,
12:*:Suf-2 L=al,
12:*:Suf-2 X=rt,
13:*:Suf-3 X=ort,
14:*:Suf-4 X=port,
22:*:Cap-2 R=initial/caps,
16:u:tok-1 L=report,
12:*:Suf-2 L=rt,
22:*:Cap-2 L=initial/caps,
16:u:tok-1LL=report,
12:*:Pre-2 X=Wi,
12:*:Suf-2 X=en,
14:*:Num-1 R=page,
21:*:Cap-2 R=other/lower,
14:*:Num-1 X=page,
11:*:Pre-1 X=v,
14:*:Suf-4 X=sion,
14:*:Fst-2 X=Ll/v,
21:*:Cap-2 L=other/lower,
21:*:Cap-2 R=lower/other,
14:*:Num-1 L=page,
17:*:Num-1 R=numeric,
13:u:tok-1RR=for,
11:*:Pre-1 X=2,
12:*:Suf-2 X=0,,
13:*:Fst-2 X=N/2,
21:*:Cap-2 L=lower/other,
23:*:Cap-2 R=other/initial,
17:*:Num-1 X=numeric,
13:u:tok-1 R=for,
13:*:Pre-3 X=Dep,
12:*:Suf-2 L=0,,
12:*:Suf-2 X=t.,
23:*:Cap-2 L=other/initial,
17:*:Num-1 L=numeric,
13:*:Pre-4 X=for,
12:*:Suf-2 X=or,
13:*:Suf-3 X=for,
13:*:Suf-4 X=for,
13:u:tok-1 L=for,
18:u:tok-1 R=systems,,
13:*:Pre-3 X=Rea,
12:*:Suf-2 L=or,
12:*:Suf-2 X=me,
18:u:Tok-1 X=Systems,,
17:u:tok-1 X=systems,
13:u:tok-1LL=for,
20:u:tok-1RR=university,
12:*:Pre-2 X=Sy,
13:*:Pre-3 X=Sys,
14:*:Pre-4 X=Syst,
12:*:Suf-2 L=me,
13:*:Suf-3 X=ms,,
14:*:Suf-4 X=ems,,
19:u:tok-1LL=real-time,
20:u:tok-1 R=university,
20:u:Tok-1 X=University,
20:u:tok-1 X=university,
23:u:tok-2 R=university/of,
11:*:Pre-1 X=U,
12:*:Pre-2 X=Un,
13:*:Pre-3 X=Uni,
14:*:Pre-4 X=Univ,
12:*:Suf-2 X=ty,
13:*:Suf-3 X=ity,
14:*:Suf-4 X=sity,
14:*:Fst-2 X=Lu/U,
20:u:tok-1 L=university,
23:u:tok-2 L=university/of,
12:*:Suf-2 L=ty,
20:u:tok-1LL=university,
13:u:tok-1 R=may,
12:*:Pre-2 X=Vi,
13:u:tok-1 X=may,
15:u:tok-1 R=1993.,
12:*:Pre-2 X=Ma,
13:*:Pre-3 X=May,
13:*:Pre-4 X=May,
12:*:Suf-2 X=ay,
13:*:Suf-3 X=May,
13:*:Suf-4 X=May,
14:*:Pre-4 X=1993,
13:*:Suf-3 X=93.,
14:*:Suf-4 X=993.,
13:*:Pre-3 X=Mar,
14:*:Pre-4 X=Marc,
11:*:Suf-1 X=c,
14:*:Lst-2 X=Ll/c,
11:*:Suf-1 L=c,
11:*:Pos-1 X=4,
11:*:Pos-1 X=8,
12:*:Suf-2 X=an,
12:*:Pos-1 X=12,
12:*:Suf-2 L=an,
12:*:Pos-1 X=15,
12:*:Suf-2 X=st,
13:*:Suf-3 X=ast,
12:*:Suf-2 X=te,
12:*:Suf-2 L=te,
12:*:Suf-2 X=ve,
11:*:Pre-1 X=p,
12:*:Suf-2 L=ve,
14:*:Fst-2 X=Ll/p,
12:*:Pos-1 X=35,
18:u:tok-1 X=analysis,
21:u:tok-1RR=proceedings,
12:*:Suf-2 X=s.,
13:*:Suf-3 X=is.,
12:*:Suf-2 L=s.,
21:*:Key-1 R=proceedings,
12:*:Pos-1 X=42,
21:u:tok-1 X=proceedings,
13:u:tok-1RR=the,
12:*:Suf-2 X=gs,
13:*:Suf-3 X=ngs,
14:*:Suf-4 X=ings,
21:*:Key-1 X=proceedings,
12:*:Pos-1 X=46,
13:u:tok-1 R=the,
16:u:tok-2 R=of/the,
12:*:Suf-2 L=gs,
21:*:Key-1 L=proceedings,
13:u:Tok-1 X=the,
13:u:tok-1 X=the,
21:u:tok-1LL=proceedings,
16:u:tok-2 L=of/the,
12:*:Pre-2 X=th,
13:*:Pre-3 X=the,
13:*:Pre-4 X=the,
12:*:Suf-2 X=he,
13:*:Suf-3 X=the,
13:*:Suf-4 X=the,
12:*:Pos-1 X=54,
13:u:tok-1 L=the,
12:*:Suf-2 L=he,
12:*:Suf-2 X=th,
12:*:Pos-1 X=58,
13:u:tok-1LL=the,
12:*:Pre-2 X=An,
12:*:Suf-2 L=th,
12:*:Pos-1 X=62,
13:u:Tok-1 X=ACM,
13:u:tok-1 X=acm,
12:u:tok-1RR=on,
12:*:Pre-2 X=AC,
13:*:Pre-3 X=ACM,
13:*:Pre-4 X=ACM,
11:*:Suf-1 X=M,
12:*:Suf-2 X=CM,
13:*:Suf-3 X=ACM,
13:*:Suf-4 X=ACM,
14:*:Lst-2 X=Lu/M,
12:*:Pos-1 X=65,
19:u:tok-1 X=symposium,
12:u:tok-1 R=on,
13:*:Pre-3 X=Sym,
14:*:Pre-4 X=Symp,
11:*:Suf-1 L=M,
11:*:Suf-1 X=m,
12:*:Suf-2 L=CM,
14:*:Lst-2 X=Ll/m,
12:u:Tok-1 X=on,
12:u:tok-1 X=on,
12:*:Pre-2 X=on,
12:*:Pre-3 X=on,
12:*:Pre-4 X=on,
11:*:Suf-1 L=m,
12:*:Suf-3 X=on,
12:*:Suf-4 X=on,
12:u:tok-1 L=on,
13:*:Pre-3 X=Pri,
14:*:Pre-4 X=Prin,
12:*:Suf-2 X=es,
13:*:Suf-3 X=les,
12:u:tok-1LL=on,
12:*:Suf-2 L=es,
14:*:Pre-4 X=Prog,
12:*:Pos-1 X=85,
11:*:Pre-1 X=L,
12:*:Pre-2 X=La,
14:*:Fst-2 X=Lu/L,
21:u:tok-1LL=programming,
12:*:Pre-2 X=Ja,
12:*:Suf-2 X=ry,
12:*:Pos-1 X=92,
14:*:Pre-4 X=1997,
12:*:Suf-2 L=ry,
12:*:Suf-2 X=7.,
13:*:Suf-3 X=97.,
14:*:Suf-4 X=997.,
12:*:Pos-1 X=96,
11:*:Pos-1 X=7,
12:*:Pos-1 X=11,
12:u:tok-1 L=g.,
12:*:Suf-2 L=G.,
12:u:tok-1LL=g.,
12:*:Pos-1 X=21,
12:*:Pos-1 X=29,
11:u:tok-1RR=a,
11:u:tok-1 R=a,
11:*:Suf-1 X=:,
12:*:Suf-2 X=s:,
13:*:Lst-2 X=P/:,
11:u:Tok-1 X=A,
11:*:Pre-2 X=A,
11:*:Pre-3 X=A,
11:*:Pre-4 X=A,
11:*:Suf-1 L=:,
11:*:Suf-1 X=A,
12:*:Suf-2 L=s:,
11:*:Suf-2 X=A,
11:*:Suf-3 X=A,
11:*:Suf-4 X=A,
14:*:Lst-2 X=Lu/A,
22:*:Cap-2 R=single/lower,
12:*:Pos-1 X=39,
11:u:tok-1 L=a,
12:*:Pre-2 X=pr,
13:*:Pre-3 X=pro,
11:*:Suf-1 L=A,
11:*:Suf-2 L=A,
12:*:Suf-2 X=em,
12:*:Pos-1 X=43,
11:u:tok-1LL=a,
12:*:Suf-2 L=em,
18:u:tok-1RR=computer,
12:*:Pre-2 X=Ce,
13:*:Pre-3 X=Cen,
13:*:Suf-3 X=ter,
18:u:tok-1 R=computer,
18:u:Tok-1 X=Computer,
18:u:tok-1 X=computer,
14:*:Suf-4 X=uter,
12:*:Pos-1 X=57,
18:u:tok-1 L=computer,
12:*:Suf-2 X=ds,
12:*:Pos-1 X=61,
18:u:tok-1LL=computer,
12:*:Suf-2 L=ds,
13:*:Suf-3 X=ial,
14:*:Suf-4 X=rial,
12:*:Pos-1 X=71,
12:*:Pos-1 X=79,
12:*:Suf-2 X=5,,
12:*:Suf-2 L=5,,
12:*:Suf-2 X=rs,
13:*:Suf-3 X=ers,
21:u:Tok-1 X=University,,
12:*:Suf-2 L=rs,
12:*:Suf-2 X=y,,
12:*:Pos-1 X=89,
12:*:Pre-2 X=Se,
13:*:Pre-3 X=Sep,
14:*:Pre-4 X=Sept,
12:*:Suf-2 L=y,,
13:*:Suf-3 X=ber,
12:*:Pos-1 X=93,
14:*:Pre-4 X=1990,
12:*:Suf-2 X=0.,
11:*:Pre-1 X=E,
12:*:Pre-2 X=En,
14:*:Fst-2 X=Lu/E,
12:*:Pre-2 X=Im,
13:*:Pre-3 X=Imp,
12:*:Suf-2 L=cy,
12:*:Suf-2 X=ns,
13:*:Suf-3 X=ons,
14:*:Suf-4 X=ions,
12:u:Tok-1 X=in,
12:*:Pre-2 X=in,
12:*:Pre-3 X=in,
12:*:Pre-4 X=in,
12:*:Suf-2 L=ns,
12:*:Suf-3 X=in,
12:*:Suf-4 X=in,
16:u:tok-2 L=in/the,
12:*:Pre-2 X=di,
20:u:tok-1 L=equations.,
20:*:Key-1 R=translator,
12:*:Pre-2 X=Tr,
13:*:Pre-3 X=Tra,
14:*:Pre-4 X=Tran,
20:*:Key-1 X=translator,
20:*:Key-1 L=translator,
12:*:Pre-2 X=So,
13:*:Pre-3 X=Sof,
14:*:Pre-4 X=Soft,
12:*:Suf-2 X=.,,
11:*:Pre-1 X=4,
12:*:Suf-2 L=.,,
13:*:Fst-2 X=N/4,
14:u:tok-1 X=june,
12:*:Pre-2 X=Ju,
13:*:Pre-3 X=Jun,
14:*:Pre-4 X=June,
12:*:Suf-2 L=6,,
13:*:Pre-3 X=197,
12:*:Suf-2 X=8.,
12:u:tok-1 R=p.,
11:u:tok-1 X=j,
12:*:Pre-2 X=J.,
12:*:Suf-2 X=e,,
11:u:tok-1 X=e,
11:u:tok-1RR=&,
12:*:Pre-2 X=E.,
12:*:Suf-2 L=e,,
11:*:Fst-1 R=P,
22:*:Cap-2 R=single/other,
11:u:Tok-1 X=&,
15:u:tok-1 X=BLANK,
11:*:Fst-1 X=P,
11:*:Pre-1 X=&,
11:*:Pre-2 X=&,
11:*:Pre-3 X=&,
11:*:Pre-4 X=&,
11:*:Suf-1 X=&,
11:*:Suf-2 X=&,
11:*:Suf-3 X=&,
11:*:Suf-4 X=&,
13:*:Fst-2 X=P/&,
13:*:Lst-2 X=P/&,
22:*:Cap-2 L=single/other,
11:u:tok-1 L=&,
11:*:Suf-1 L=&,
11:*:Suf-2 L=&,
12:*:Suf-2 X=D.,
12:*:Pos-1 X=24,
12:*:Fst-1 R=Ps,
12:*:Suf-2 L=D.,
25:*:Pct-1 R=terminal-parens,
12:*:Fst-1 X=Ps,
11:*:Pre-1 X=(,
12:*:Pre-2 X=(1,
13:*:Pre-3 X=(19,
14:*:Pre-4 X=(199,
12:*:Suf-2 X=).,
14:*:Fst-2 X=Ps/(,
22:*:Cap-2 R=other/single,
25:*:Pct-1 X=terminal-parens,
12:*:Suf-2 L=).,
22:*:Cap-2 L=other/single,
25:*:Pct-1 L=terminal-parens,
12:*:Suf-2 X=ic,
12:*:Pre-2 X=ap,
13:*:Pre-3 X=app,
12:*:Suf-2 L=ic,
12:*:Suf-2 X=ch,
12:*:Suf-2 L=ch,
11:*:Pre-1 X=c,
12:*:Pre-2 X=co,
14:*:Suf-4 X=ting,
14:*:Fst-2 X=Ll/c,
23:u:tok-1RR=international,
23:u:tok-1 R=international,
23:u:Tok-1 X=International,
13:*:Pre-3 X=Int,
14:*:Pre-4 X=Inte,
13:*:Suf-3 X=nal,
14:*:Suf-4 X=onal,
23:u:tok-1 L=international,
12:*:Pos-1 X=74,
23:u:tok-1LL=international,
13:*:Pre-3 X=Con,
14:*:Pre-4 X=Conf,
12:*:Suf-2 X=ce,
13:*:Suf-3 X=nce,
14:*:Suf-4 X=ence,
12:*:Pos-1 X=76,
12:*:Suf-2 L=ce,
20:u:Tok-1 X=Artificial,
20:u:tok-1 X=artificial,
13:u:tok-1RR=pp.,
12:*:Pre-2 X=Ar,
13:*:Pre-3 X=Art,
14:*:Pre-4 X=Arti,
14:*:Suf-4 X=cial,
22:u:tok-1 X=intelligence,
20:u:tok-1 L=artificial,
13:u:tok-1 R=pp.,
13:*:Suf-3 X=ce,,
14:*:Suf-4 X=nce,,
12:u:tok-1 X=pp,
20:u:tok-1LL=artificial,
12:*:Pre-2 X=pp,
13:*:Pre-3 X=pp.,
13:*:Pre-4 X=pp.,
12:*:Suf-2 X=p.,
13:*:Suf-3 X=pp.,
13:*:Suf-4 X=pp.,
11:*:Lst-1 X=N,
11:*:Pre-1 X=6,
11:*:Suf-1 X=8,
12:*:Suf-2 L=p.,
13:*:Fst-2 X=N/6,
13:*:Lst-2 X=N/8,
13:u:tok-1LL=pp.,
11:*:Lst-1 L=N,
17:u:tok-1 L=sydney,,
12:*:Pre-2 X=Au,
13:*:Pre-3 X=Aus,
14:*:Pre-4 X=Aust,
13:*:Suf-3 X=ia.,
22:*:Cap-2 R=initial/_x+1,
12:*:Pre-2 X=Bo,
12:*:Pos-1 X=10,
12:*:Suf-2 X=n,,
12:*:Suf-2 L=n,,
12:u:tok-1RR=by,
13:*:Pre-3 X=con,
14:*:Pre-4 X=cont,
12:u:tok-1 R=by,
12:u:Tok-1 X=by,
12:u:tok-1 X=by,
12:*:Pre-2 X=by,
12:*:Pre-3 X=by,
12:*:Pre-4 X=by,
12:*:Suf-2 X=by,
12:*:Suf-3 X=by,
12:*:Suf-4 X=by,
12:u:tok-1 L=by,
12:*:Pre-2 X=se,
12:*:Suf-2 L=by,
12:u:tok-1LL=by,
12:*:Pos-1 X=48,
12:*:Pos-1 X=52,
12:*:Pre-2 X=SI,
13:*:Pre-3 X=SIG,
18:u:tok-1 R=research,
18:u:Tok-1 X=Research,
18:u:tok-1 X=research,
13:*:Pre-3 X=Res,
14:*:Pre-4 X=Rese,
13:*:Suf-3 X=rch,
14:*:Suf-4 X=arch,
18:u:tok-1 L=research,
21:u:tok-1 X=information,
13:*:Pre-3 X=Inf,
14:*:Pre-4 X=Info,
13:*:Pre-3 X=Ret,
14:*:Pre-4 X=Retr,
12:*:Suf-2 X=l,,
12:*:Pos-1 X=87,
12:*:Pos-1 X=90,
11:*:Pre-1 X=3,
12:*:Suf-2 X=7,,
13:*:Fst-2 X=N/3,
12:*:Pre-2 X=Da,
12:u:tok-1RR=m.,
12:u:tok-1 R=m.,
12:*:Pre-2 X=Ga,
12:*:Suf-2 X=o,,
12:*:Suf-2 L=o,,
12:*:Lst-1 L=Pd,
11:*:Suf-1 L=-,
12:*:Pre-2 X=Th,
13:*:Pre-3 X=Man,
15:u:tok-1RR=pages,
13:*:Pre-3 X=Dat,
14:*:Pre-4 X=Data,
12:*:Pre-2 X=pa,
13:*:Pre-3 X=pag,
14:*:Pre-4 X=page,
13:*:Suf-3 X=on,,
12:*:Pre-2 X=Me,
13:*:Pre-3 X=Mel,
12:*:Suf-2 X=m,,
12:*:Pos-1 X=20,
15:*:Pct-1 R=quote,
11:*:Pre-1 X=",
12:*:Suf-2 L=m,,
13:*:Fst-2 X=P/",
15:*:Pct-1 X=quote,
23:u:tok-1 X=communication,
14:*:Pre-4 X=Comm,
12:*:Pos-1 X=30,
15:*:Pct-1 L=quote,
12:*:Pos-1 X=40,
12:*:Pre-2 X=Pa,
12:*:Pre-2 X=Mu,
13:*:Pre-3 X=Mul,
11:*:Pre-1 X=O,
12:*:Pre-2 X=Op,
13:*:Pre-3 X=Opt,
14:*:Pre-4 X=Opti,
14:*:Fst-2 X=Lu/O,
12:*:Pos-1 X=60,
12:*:Suf-2 X=ed,
13:*:Suf-3 X=ted,
12:*:Suf-2 L=ed,
12:*:Pos-1 X=70,
12:*:Suf-2 X=",,
26:*:Pct-1 X=internal-unquote,
12:*:Suf-2 L=",,
12:*:Pos-1 X=80,
26:*:Pct-1 L=internal-unquote,
12:*:Suf-2 X=1,,
13:*:Suf-3 X=am,,
13:*:Suf-3 X=9).,
13:u:Tok-1 X=The,
13:*:Pre-3 X=The,
13:*:Pre-4 X=The,
13:*:Suf-3 X=The,
13:*:Suf-4 X=The,
14:*:Num-1 L=year,
12:*:Pos-1 X=37,
13:*:Pre-3 X=Dis,
18:u:tok-1 L=systems.,
18:u:tok-1LL=systems.,
14:u:tok-1 X=ieee,
14:u:tok-1RR=(1),,
12:*:Pre-2 X=IE,
13:*:Pre-3 X=IEE,
14:*:Pre-4 X=IEEE,
12:*:Suf-2 X=E,,
20:*:Cap-2 R=caps/other,
16:*:Num-1 R=double,
11:*:Pre-1 X=7,
12:*:Suf-2 L=E,,
13:*:Fst-2 X=N/7,
20:*:Cap-2 L=caps/other,
16:*:Num-1 X=double,
25:*:Pct-1 R=internal-parens,
11:u:tok-1 X=1,
11:*:Suf-1 L=7,
16:*:Num-1 L=double,
25:*:Pct-1 X=internal-parens,
11:*:Pre-1 X=8,
13:*:Fst-2 X=N/8,
25:*:Pct-1 L=internal-parens,
12:*:Pre-2 X=Sc,
12:u:tok-1 X=an,
12:u:tok-1 L=an,
12:u:tok-1LL=an,
12:*:Pre-2 X=me,
13:*:Suf-3 X=sed,
14:*:Suf-4 X=ased,
18:u:tok-1 X=learning,
12:*:Pre-2 X=le,
12:*:Suf-2 X=g.,
13:*:Suf-3 X=ng.,
14:*:Suf-4 X=ing.,
12:*:Suf-2 L=g.,
19:u:tok-1LL=learning.,
13:u:tok-1RR=e.,,
13:u:tok-1 R=e.,,
13:u:Tok-1 X=E.,,
13:*:Pre-3 X=E.,,
13:*:Pre-4 X=E.,,
13:*:Suf-3 X=E.,,
13:*:Suf-4 X=E.,,
12:*:Pre-2 X=No,
13:*:Suf-3 X=an,,
12:u:Tok-1 X=J.,
12:*:Pre-3 X=J.,
12:*:Pre-4 X=J.,
12:*:Suf-2 X=J.,
12:*:Suf-3 X=J.,
12:*:Suf-4 X=J.,
12:u:tok-1 L=j.,
18:u:tok-1RR=learning,
12:*:Suf-2 L=J.,
12:u:tok-1LL=j.,
18:u:tok-1 R=learning,
14:*:Suf-4 X=ning,
18:u:tok-1 L=learning,
18:u:tok-1LL=learning,
12:u:tok-1RR=1,,
13:*:Suf-3 X=02.,
13:*:Pre-3 X=Cam,
19:u:tok-1RR=efficient,
13:*:Suf-3 X=gic,
14:*:Suf-4 X=ogic,
14:*:Pre-4 X=prog,
11:*:Suf-1 X=T,
14:*:Lst-2 X=Lu/T,
11:*:Suf-1 L=T,
16:*:Num-1 R=single,
11:*:Suf-1 X=5,
13:*:Lst-2 X=N/5,
16:*:Num-1 X=single,
16:*:Num-1 L=single,
13:*:Pre-3 X=Moo,
12:*:Pre-2 X=Ch,
13:*:Pre-3 X=Cha,
14:*:Pre-4 X=Appr,
16:u:Tok-1 X=Theory,
16:u:tok-1 X=theory,
14:*:Pre-4 X=Theo,
13:*:Suf-3 X=ory,
14:*:Suf-4 X=eory,
17:u:Tok-1 X=Machine,
19:u:tok-1 R=learning,,
27:u:tok-2 R=machine/learning,,
13:*:Pre-3 X=Mac,
14:*:Pre-4 X=Mach,
19:u:Tok-1 X=Learning,,
27:u:tok-2 L=machine/learning,,
12:*:Pre-2 X=Le,
13:*:Pre-3 X=Lea,
14:*:Pre-4 X=Lear,
12:*:Suf-2 X=9,,
12:*:Suf-2 L=9,,
12:*:Pre-2 X=Ex,
12:*:Pos-1 X=33,
12:*:Pre-2 X=El,
13:*:Pre-3 X=Ele,
12:*:Pos-1 X=67,
12:*:Pre-2 X=Pe,
12:*:Pre-2 X=Pl,
13:*:Pre-3 X=Pla,
12:*:Suf-2 X=le,
12:*:Suf-2 L=le,
13:*:Suf-3 X=ce.,
13:*:Pre-3 X=Mor,
14:*:Pre-4 X=Morg,
12:*:Pos-1 X=17,
12:*:Pre-2 X=Li,
11:*:Suf-1 L=2,
13:*:Pre-3 X=Par,
12:*:Pre-2 X=25,
14:*:Pre-4 X=Char,
12:*:Pos-1 X=83,
13:*:Pre-3 X=Aug,
11:*:Suf-1 X=1,
13:*:Lst-2 X=N/1,
18:u:tok-1 R=national,
18:u:Tok-1 X=National,
18:u:tok-1 X=national,
12:*:Pre-2 X=Na,
13:*:Pre-3 X=Nat,
14:*:Pre-4 X=Nati,
18:u:tok-1 L=national,
18:u:tok-1LL=national,
12:*:Suf-2 X=4.,
12:*:Pre-2 X=Sa,
13:*:Pre-3 X=San,
12:*:Suf-2 L=4.,
14:u:tok-1 X=aaai,
12:*:Pre-2 X=AA,
13:*:Pre-3 X=AAA,
14:*:Pre-4 X=AAAI,
15:u:tok-1 X=press,
13:*:Pre-3 X=Pre,
14:*:Pre-4 X=Pres,
16:u:tok-1 X=editor,
13:*:Suf-3 X=or.,
14:*:Suf-4 X=tor.,
16:u:tok-1 R=models,
16:u:Tok-1 X=Models,
16:u:tok-1 X=models,
14:*:Pre-4 X=Mode,
13:*:Suf-3 X=els,
14:*:Suf-4 X=dels,
16:u:tok-1 L=models,
16:u:tok-1LL=models,
12:*:Pre-2 X=Ad,
13:*:Pre-3 X=Adv,
14:*:Pre-4 X=Adva,
26:u:Tok-1 X=Morgan-Kaufmann,,
24:u:tok-1 X=morgankaufmann,
23:u:tok-1 L=applications.,
13:*:Suf-3 X=nn,,
14:*:Suf-4 X=ann,,
23:u:tok-1LL=applications.,
12:*:Pre-2 X=Bl,
13:*:Suf-3 X=ma.,
14:*:Suf-4 X=ance,
13:*:Pre-3 X=pre,
12:*:Pre-2 X=su,
12:*:Suf-2 X=ms,
12:*:Suf-2 L=ms,
12:*:Suf-2 X=is,
12:*:Suf-2 L=is,
11:*:Fst-1 X=S,
13:*:Suf-3 X=sis,
17:*:Pct-1 R=unquote,
17:*:Pct-1 X=unquote,
12:*:Suf-2 X=f.,
17:*:Pct-1 L=unquote,
15:u:tok-1 L=conf.,
13:*:Pre-3 X=Rec,
12:*:Suf-2 L=f.,
13:*:Suf-3 X=ec.,
15:u:tok-1LL=conf.,
12:*:Pre-2 X=4t,
13:*:Pre-3 X=4th,
13:*:Pre-3 X=Pra,
14:*:Pre-4 X=Prac,
13:*:Suf-3 X=ns,,
12:u:tok-1 R=as,
12:u:Tok-1 X=as,
12:u:tok-1 X=as,
12:*:Pre-2 X=as,
12:*:Pre-3 X=as,
12:*:Pre-4 X=as,
12:*:Suf-2 X=as,
12:*:Suf-3 X=as,
12:*:Suf-4 X=as,
12:*:Suf-2 L=as,
13:*:Suf-3 X=re,,
14:*:Suf-4 X=ure,,
12:*:Suf-2 X=n:,
13:*:Suf-3 X=in:,
12:*:Suf-2 L=n:,
13:*:Pre-3 X=Gal,
14:*:Pre-4 X=Gall,
12:*:Suf-2 X=re,
13:*:Suf-3 X=ire,
14:*:Suf-4 X=aire,
12:*:Suf-2 L=re,
12:*:Pre-2 X=Mi,
13:*:Pre-3 X=Min,
13:u:tok-1 X=eds,
17:u:tok-1 L=(eds.),,
12:*:Pre-2 X=Lo,
13:*:Pre-3 X=Log,
14:*:Pre-4 X=Logi,
17:u:tok-1LL=(eds.),,
16:u:tok-1RR=press,,
12:*:Pre-2 X=Ba,
14:*:Suf-4 X=ses,,
16:u:tok-1 R=press,,
16:u:Tok-1 X=Press,,
13:*:Suf-3 X=ss,,
14:*:Suf-4 X=ess,,
16:u:tok-1 L=press,,
16:u:tok-1LL=press,,
11:*:Pre-1 X=Y,
12:*:Pre-2 X=Yo,
13:*:Pre-3 X=Yor,
14:*:Pre-4 X=York,
14:*:Fst-2 X=Lu/Y,
12:u:tok-1 R=i.,
12:*:Suf-2 X=t,,
13:*:Suf-3 X=nt,,
12:u:Tok-1 X=I.,
11:u:tok-1 X=i,
12:*:Pre-2 X=I.,
12:*:Pre-3 X=I.,
12:*:Pre-4 X=I.,
12:*:Suf-2 L=t,,
12:*:Suf-2 X=I.,
12:*:Suf-3 X=I.,
12:*:Suf-4 X=I.,
12:u:tok-1 L=i.,
12:*:Suf-2 L=I.,
12:u:tok-1LL=i.,
12:*:Suf-2 X=h,,
12:*:Suf-2 L=h,,
12:*:Suf-2 X=d.,
12:*:Suf-2 L=d.,
12:*:Suf-2 X=ar,
13:*:Suf-3 X=ear,
12:*:Suf-2 L=ar,
24:*:Pct-1 R=opening-parens,
24:*:Pct-1 X=opening-parens,
24:*:Pct-1 L=opening-parens,
13:*:Pre-3 X=Che,
16:u:tok-1 X=design,
12:*:Suf-2 X=gn,
13:*:Suf-3 X=ign,
14:*:Suf-4 X=sign,
12:*:Suf-2 L=gn,
11:*:Suf-1 X=",
13:*:Lst-2 X=P/",
11:*:Suf-1 L=",
12:*:Suf-2 L=,",
14:u:tok-1RR=vol.,
14:u:tok-1 R=vol.,
13:u:tok-1 X=vol,
12:*:Pre-2 X=Vo,
13:*:Pre-3 X=Vol,
14:*:Pre-4 X=Vol.,
12:*:Suf-2 X=l.,
13:*:Suf-3 X=ol.,
14:*:Suf-4 X=Vol.,
12:*:Suf-2 L=l.,
12:u:tok-1 X=no,
12:*:Suf-2 X=o.,
13:u:tok-1 L=no.,
12:*:Pre-2 X=5,,
12:*:Suf-2 L=o.,
12:u:tok-1RR=p.,
12:*:Pre-2 X=Ha,
13:*:Pre-3 X=Dav,
14:*:Pre-4 X=Davi,
15:u:tok-1LL=david,
14:*:Suf-4 X=ated,
12:*:Pre-2 X=vo,
13:*:Suf-3 X=ice,
14:u:tok-1RR=ieee,
14:u:Tok-1 X=IEEE,
11:*:Suf-1 X=E,
12:*:Suf-2 X=EE,
13:*:Suf-3 X=EEE,
14:*:Suf-4 X=IEEE,
14:*:Lst-2 X=Lu/E,
14:u:tok-1 L=ieee,
11:*:Suf-1 L=E,
12:*:Suf-2 L=EE,
14:u:tok-1LL=ieee,
11:u:tok-1 X=4,
12:*:Pre-2 X=sp,
13:*:Pre-3 X=spe,
14:*:Pre-4 X=spec,
17:u:tok-1RR=journal,
17:*:Key-1 R=journal,
17:u:tok-1 X=journal,
13:*:Pre-3 X=Jou,
14:*:Pre-4 X=Jour,
14:*:Suf-4 X=rnal,
17:*:Key-1 X=journal,
17:u:tok-1 L=journal,
20:u:tok-2 L=journal/of,
17:*:Key-1 L=journal,
17:u:tok-1LL=journal,
18:u:tok-1 X=software,
12:*:Pre-2 X=10,
12:*:Suf-2 X=3,,
13:*:Suf-3 X=en,,
13:*:Suf-3 X=dge,
12:*:Pre-2 X=Bi,
13:*:Suf-3 X=3).,
14:u:tok-1 R=from,
14:u:Tok-1 X=from,
14:u:tok-1 X=from,
12:*:Pre-2 X=fr,
13:*:Pre-3 X=fro,
14:*:Pre-4 X=from,
12:*:Suf-2 X=om,
13:*:Suf-3 X=rom,
14:*:Suf-4 X=from,
14:u:tok-1 L=from,
12:*:Suf-2 L=om,
14:u:tok-1LL=from,
26:*:Pct-1 X=terminal-unquote,
26:*:Pct-1 L=terminal-unquote,
12:*:Pre-2 X=Do,
13:*:Suf-3 X=ral,
11:*:Suf-1 X=6,
13:*:Lst-2 X=N/6,
11:*:Suf-1 L=6,
18:u:tok-1LL=multiple,
13:*:Pre-3 X=com,
14:*:Suf-4 X=rity,
12:*:Pre-2 X=16,
12:*:Suf-2 X=ee,
13:*:Pre-3 X=Soc,
20:*:Num-1 X=year-range,
12:*:Pre-2 X=17,
16:*:Pct-1 R=parens,
12:*:Lst-1 X=Pe,
11:*:Suf-1 X=),
14:*:Lst-2 X=Pe/),
16:*:Pct-1 X=parens,
12:*:Lst-1 L=Pe,
11:*:Suf-1 L=),
16:*:Pct-1 L=parens,
14:u:Tok-1 X=ACM,,
14:*:Pre-4 X=ACM,,
12:*:Suf-2 X=M,,
13:*:Suf-3 X=CM,,
14:*:Suf-4 X=ACM,,
12:*:Suf-2 L=M,,
14:u:tok-1LL=acm,,
12:*:Pre-2 X=Ke,
13:*:Suf-3 X=iew,
14:*:Suf-4 X=view,
16:u:tok-1 X=system,
17:u:tok-1 X=science,
27:u:tok-2 L=computer/science,,
13:*:Pre-3 X=Sci,
14:*:Pre-4 X=Scie,
18:u:tok-1 L=science,,
13:*:Suf-3 X=ne,,
13:*:Pre-3 X=Ros,
14:*:Pre-4 X=Rose,
13:*:Pre-3 X=Ser,
14:*:Suf-4 X=ural,
12:*:Pre-2 X=(A,
12:*:Suf-2 X=A,,
12:*:Suf-2 L=A,,
17:u:tok-1 X=october,
12:*:Pre-2 X=Oc,
13:*:Pre-3 X=Oct,
14:*:Pre-4 X=Octo,
12:*:Pre-2 X=To,
16:u:Tok-1 X=Neural,
16:u:tok-1 X=neural,
13:*:Pre-3 X=Neu,
14:*:Pre-4 X=Neur,
16:u:tok-1 L=neural,
16:u:tok-1LL=neural,
20:u:tok-1LL=processing,
11:u:tok-1 X=2,
12:*:Suf-2 L=3.,
18:u:tok-1 X=planning,
15:u:tok-1 X=tokyo,
13:*:Pre-3 X=Tok,
14:*:Pre-4 X=Toky,
13:*:Pre-3 X=Car,
11:*:Suf-1 X=N,
14:*:Lst-2 X=Lu/N,
11:*:Suf-1 L=N,
11:*:Suf-1 X=0,
13:*:Lst-2 X=N/0,
11:*:Suf-1 L=0,
17:u:tok-1 X=program,
16:u:tok-1RR=design,
16:u:tok-1 R=design,
16:u:Tok-1 X=Design,
17:u:tok-1LL=program,
13:*:Pre-3 X=Des,
14:*:Pre-4 X=Desi,
14:*:Suf-4 X=ion,,
12:*:Pre-2 X=NY,
12:*:Pre-2 X=Ti,
13:*:Pre-3 X=Tim,
14:*:Pre-4 X=Time,
14:u:tok-1RR=york,
14:u:tok-1 R=york,
18:u:tok-1RR=software,
11:*:Suf-1 X=k,
12:*:Suf-2 X=rk,
13:*:Suf-3 X=ork,
14:*:Suf-4 X=York,
14:*:Lst-2 X=Ll/k,
11:*:Suf-1 L=k,
12:*:Suf-2 L=rk,
21:u:tok-1 X=engineering,
13:*:Pre-3 X=Eng,
14:*:Pre-4 X=Engi,
15:u:tok-1 R=york:,
12:*:Suf-2 X=k:,
13:*:Suf-3 X=rk:,
14:*:Suf-4 X=ork:,
15:u:tok-1 L=york:,
11:u:tok-1 R=8,
16:u:tok-1RR=volume,
20:u:tok-2 L=york:/task,
16:u:tok-2 R=task/8,
13:*:Pre-3 X=Tas,
14:*:Pre-4 X=Task,
12:*:Suf-2 L=k:,
12:*:Suf-2 X=sk,
13:*:Suf-3 X=ask,
14:*:Suf-4 X=Task,
16:u:tok-1 R=volume,
11:*:Pre-2 X=8,
11:*:Pre-3 X=8,
11:*:Pre-4 X=8,
11:*:Suf-2 X=8,
11:*:Suf-3 X=8,
11:*:Suf-4 X=8,
16:u:tok-1 X=volume,
14:u:tok-1LL=task,
14:*:Pre-4 X=Volu,
13:*:Suf-3 X=ume,
14:*:Suf-4 X=lume,
16:u:tok-1 L=volume,
16:u:tok-1LL=volume,
18:u:Tok-1 X=contract,
18:u:tok-1 X=contract,
15:u:tok-1 L=estec,
23:u:tok-1 R=9198/90/nl/sf,
24:u:tok-2 L=estec/contract,
32:u:tok-2 R=contract/9198/90/nl/sf,
13:*:Suf-3 X=act,
14:*:Suf-4 X=ract,
23:u:Tok-1 X=9198/90/NL/SF,
20:u:tok-1 X=919890nlsf,
15:u:tok-1LL=estec,
18:u:tok-1 L=contract,
32:u:tok-2 L=contract/9198/90/nl/sf,
28:u:tok-2 R=9198/90/nl/sf/_x+1,
11:*:Pre-1 X=9,
12:*:Pre-2 X=91,
13:*:Pre-3 X=919,
14:*:Pre-4 X=9198,
11:*:Suf-1 X=F,
12:*:Suf-2 X=SF,
13:*:Suf-3 X=/SF,
14:*:Suf-4 X=L/SF,
13:*:Fst-2 X=N/9,
14:*:Lst-2 X=Lu/F,
12:*:Pre-2 X=Va,
17:u:tok-1RR=lecture,
17:u:Tok-1 X=Lecture,
17:u:tok-1 X=lecture,
15:u:tok-1 R=notes,
23:u:tok-2 R=lecture/notes,
13:*:Pre-3 X=Lec,
14:*:Pre-4 X=Lect,
13:*:Suf-3 X=ure,
14:*:Suf-4 X=ture,
15:u:Tok-1 X=Notes,
15:u:tok-1 X=notes,
17:u:tok-1 L=lecture,
23:u:tok-2 L=lecture/notes,
18:u:tok-2 R=notes/in,
13:*:Pre-3 X=Not,
14:*:Pre-4 X=Note,
13:*:Suf-3 X=tes,
14:*:Suf-4 X=otes,
17:u:tok-1LL=lecture,
15:u:tok-1 L=notes,
18:u:tok-2 L=notes/in,
21:u:tok-2 R=in/computer,
15:u:tok-1LL=notes,
21:u:tok-2 L=in/computer,
12:*:Pre-2 X=Sp,
13:*:Pre-3 X=Spr,
14:*:Pre-4 X=Spri,
13:*:Suf-3 X=ag,,
14:*:Suf-4 X=lag,,
13:*:Pre-3 X=Dir,
15:u:tok-1RR=1996.,
12:*:Pre-2 X=ht,
13:*:Pre-3 X=htt,
14:*:Pre-4 X=http,
12:*:Suf-2 X=/,,
13:*:Suf-3 X=m/,,
14:*:Suf-4 X=om/,,
12:*:Pre-2 X=Be,
12:*:Suf-2 L=N.,
13:*:Pre-3 X=Laz,
16:u:tok-1 R=system,
13:*:Suf-3 X=tem,
14:*:Suf-4 X=stem,
16:u:tok-1 L=system,
12:*:Pre-2 X=F.,
12:*:Pre-3 X=F.,
12:*:Pre-4 X=F.,
12:*:Suf-2 X=F.,
12:*:Suf-3 X=F.,
12:*:Suf-4 X=F.,
12:*:Suf-2 L=F.,
13:*:Suf-3 X=ian,
12:*:Suf-2 X=k.,
12:*:Suf-2 L=k.,
22:u:tok-1 R=transactions,
27:u:tok-2 R=ieee/transactions,
22:u:Tok-1 X=Transactions,
22:u:tok-1 X=transactions,
27:u:tok-2 L=ieee/transactions,
25:u:tok-2 R=transactions/on,
22:u:tok-1 L=transactions,
25:u:tok-2 L=transactions/on,
22:u:tok-1LL=transactions,
22:u:tok-1LL=engineering,,
13:*:Pre-3 X=Co.,
16:u:tok-1 X=series,
14:*:Pre-4 X=Seri,
16:u:tok-1RR=tokyo,,
16:u:tok-1 R=tokyo,,
16:u:Tok-1 X=Tokyo,,
13:*:Suf-3 X=yo,,
14:*:Suf-4 X=kyo,,
14:*:Suf-4 X=ber,,
13:*:Suf-3 X=ery,
14:*:Suf-4 X=are.,
13:*:Pre-3 X=163,
14:*:Pre-4 X=163-,
13:*:Suf-3 X=11,,
12:*:Suf-2 X=ll,
13:*:Pre-3 X=Lab,
14:*:Pre-4 X=Labo,
12:*:Suf-2 L=ll,
14:*:Pre-4 X=Stat,
20:u:tok-1 X=department,
14:*:Pre-4 X=Depa,
14:*:Pre-4 X=Sand,
12:*:Suf-2 L=V.,
22:u:tok-1RR=intelligence,
22:u:tok-1 R=intelligence,
33:u:tok-2 R=artificial/intelligence,
22:u:Tok-1 X=Intelligence,
33:u:tok-2 L=artificial/intelligence,
22:u:tok-1 L=intelligence,
12:*:Pre-2 X=Sk,
13:*:Suf-3 X=on:,
14:*:Suf-4 X=ion:,
12:*:Pre-2 X=te,
12:*:Suf-2 X=ue,
12:*:Suf-2 L=ue,
12:*:Suf-2 X=at,
12:*:Suf-2 L=at,
13:*:Suf-3 X=5).,
13:*:Pre-3 X=Sub,
13:*:Suf-3 X=ly.,
17:u:tok-1 L=(1995).,
17:u:tok-1LL=(1995).,
14:*:Suf-4 X=ley,,
22:u:Tok-1 X=Applications,
13:*:Pre-3 X=(11,
14:*:Pre-4 X=(11),
16:*:Num-1 X=triple,
16:*:Num-1 L=triple,
13:*:Suf-3 X=tal,
13:u:tok-1 X=phd,
17:u:tok-1 R=thesis,,
12:*:Pre-2 X=Ph,
16:u:tok-1 X=thesis,
13:*:Suf-3 X=is,,
14:*:Suf-4 X=sis,,
17:u:tok-1 L=thesis,,
17:u:tok-1LL=thesis,,
12:*:Pre-2 X=20,
12:*:Suf-2 X=r:,
13:*:Suf-3 X=red,
12:*:Suf-2 X=8,,
12:*:Suf-2 L=8,,
11:*:Suf-1 X=4,
13:*:Lst-2 X=N/4,
11:*:Suf-1 L=4,
13:*:Pre-3 X=vol,
14:*:Pre-4 X=volu,
13:*:Suf-3 X=ia,,
12:*:Pos-1 X=98,
13:*:Suf-3 X=99,,
17:u:Tok-1 X=Digital,
17:u:tok-1 X=digital,
15:u:tok-1LL=barry,
20:u:tok-1 L=wilkinson,,
28:u:tok-2 L=wilkinson,/digital,
24:u:tok-2 R=digital/system,
13:*:Pre-3 X=Dig,
14:*:Pre-4 X=Digi,
14:*:Suf-4 X=ital,
16:u:Tok-1 X=System,
20:u:tok-1LL=wilkinson,,
17:u:tok-1 L=digital,
24:u:tok-2 L=digital/system,
23:u:tok-2 R=system/design,
17:u:tok-1LL=digital,
14:u:tok-1RR=hall,
23:u:tok-2 L=system/design,
25:u:tok-2 R=design/prentice,
18:u:Tok-1 X=Prentice,
18:u:tok-1 X=prentice,
14:u:tok-1 R=hall,
23:u:tok-2 R=prentice/hall,
14:*:Pre-4 X=Pren,
14:*:Suf-4 X=tice,
14:u:tok-1 X=hall,
18:u:tok-1 L=prentice,
13:*:Pre-3 X=Hal,
14:*:Pre-4 X=Hall,
13:*:Suf-3 X=all,
14:*:Suf-4 X=Hall,
20:u:Tok-1 X=Department,
23:u:tok-2 R=department/of,
13:*:Suf-3 X=en.,
19:u:tok-1 X=submitted,
14:*:Pre-4 X=Subm,
12:*:Pre-2 X=Eu,
13:*:Pre-3 X=Eur,
14:*:Pre-4 X=Euro,
13:u:Tok-1 X=MIT,
12:*:Pre-2 X=MI,
13:*:Pre-4 X=MIT,
12:*:Suf-2 X=IT,
13:*:Suf-3 X=MIT,
13:*:Suf-4 X=MIT,
12:*:Suf-2 L=IT,
13:*:Pre-3 X=Don,
13:*:Pre-3 X=Ste,
12:*:Pre-2 X=Pu,
13:*:Pre-3 X=Pub,
14:*:Pre-4 X=Publ,
14:*:Pre-4 X=Soci,
17:u:tok-1 L=society,
13:*:Pre-3 X=Ant,
15:u:tok-1 X=times,
12:*:Pre-2 X=21,
19:u:tok-1 L=networks.,
19:u:tok-1LL=networks.,
17:u:tok-1RR=appear.,
16:u:tok-1 X=appear,
14:*:Pre-4 X=appe,
20:*:Cap-2 R=lower/_x+1,
13:*:Pre-3 X=Sal,
14:*:Pre-4 X=Thes,
13:*:Suf-3 X=gh,,
13:u:tok-1 X=inc,
13:*:Pre-3 X=Inc,
12:*:Pre-2 X=Je,
12:*:Pre-2 X=ST,
14:*:Pre-4 X=Plan,
14:*:Pre-4 X=Repr,
12:*:Suf-2 L=7.,
14:*:Suf-4 X=nted,
14:*:Pre-4 X=Read,
12:*:Suf-2 X=ld,
13:*:Pre-3 X=Nor,
16:u:Tok-1 X=23529,,
15:u:tok-1 X=23529,
18:u:tok-1LL=norfolk,,
12:u:tok-1 L=va,
19:u:tok-2 L=va/23529,,
22:u:tok-2 R=23529,/1993.,
12:*:Pre-2 X=23,
13:*:Pre-3 X=235,
14:*:Pre-4 X=2352,
12:*:Suf-2 L=VA,
13:*:Suf-3 X=29,,
14:*:Suf-4 X=529,,
12:*:Suf-2 L=.",
24:u:tok-1 X=representation,
21:u:tok-1 L=algorithms.,
21:u:tok-1LL=algorithms.,
13:*:Pre-3 X=Kea,
14:*:Pre-4 X=Kean,
12:u:tok-1LL=et,
11:*:Pre-1 X=[,
12:*:Pre-2 X=[4,
13:*:Pre-3 X=[4],
14:*:Pre-4 X=[4],,
12:*:Suf-2 X=],,
13:*:Suf-3 X=4],,
14:*:Suf-4 X=[4],,
14:*:Fst-2 X=Ps/[,
16:*:Pct-1 X=braces,
16:*:Pct-1 L=braces,
26:u:tok-1RR=springer-verlag,,
26:u:Tok-1 X=Springer-Verlag,,
24:u:tok-1 X=springerverlag,
12:*:Suf-2 L=L.,
13:*:Pre-3 X=Val,
12:*:Pre-2 X=Br,
18:u:Tok-1 X=Personal,
18:u:tok-1 X=personal,
12:u:tok-1LL=x.,
24:u:tok-1 R=communication.,
26:u:tok-2 L=(1995)./personal,
33:u:tok-2 R=personal/communication.,
13:*:Pre-3 X=Per,
14:*:Pre-4 X=Pers,
24:u:Tok-1 X=communication.,
18:u:tok-1 L=personal,
33:u:tok-2 L=personal/communication.,
29:u:tok-2 R=communication./_x+1,
14:*:Pre-4 X=comm,
17:u:tok-1RR=special,
17:u:tok-1 R=special,
15:u:tok-1RR=issue,
17:u:tok-1 X=special,
15:u:tok-1 R=issue,
23:u:tok-2 R=special/issue,
15:u:tok-1 X=issue,
17:u:tok-1 L=special,
23:u:tok-2 L=special/issue,
18:u:tok-2 R=issue/on,
13:*:Suf-3 X=sue,
14:*:Suf-4 X=ssue,
17:u:tok-1LL=special,
15:u:tok-1 L=issue,
18:u:tok-2 L=issue/on,
15:u:tok-1LL=issue,
12:*:Pre-2 X=Ed,
14:*:Pre-4 X=vol.,
14:*:Suf-4 X=vol.,
15:u:tok-1 R=study,
15:u:tok-1 X=study,
12:*:Suf-2 X=dy,
13:*:Suf-3 X=udy,
14:*:Suf-4 X=tudy,
15:u:tok-1 L=study,
12:*:Suf-2 L=dy,
15:u:tok-1LL=study,
12:u:tok-1RR=7,,
12:*:Pre-2 X=7,,
12:*:Pre-3 X=7,,
12:*:Pre-4 X=7,,
12:*:Suf-3 X=7,,
12:*:Suf-4 X=7,,
13:*:Pre-3 X=Mas,
14:*:Pre-4 X=Mass,
18:u:Tok-1 X=Learning,
12:*:Suf-2 X=ok,
13:*:Suf-3 X=ook,
14:*:Suf-4 X=book,
12:*:Suf-2 L=ok,
12:*:Suf-2 X=e:,
13:*:Suf-3 X=ge:,
14:*:Suf-4 X=dge:,
12:*:Suf-2 L=e:,
12:u:tok-1 X=ed,
12:*:Pre-2 X=(E,
13:*:Pre-3 X=(Ed,
19:u:tok-1 X=cambridge,
14:*:Pre-4 X=Camb,
20:u:tok-1 L=cambridge,,
19:*:Cap-2 R=caps/_x+1,
12:*:Suf-2 X=15,
12:u:tok-1RR=at,
12:u:tok-1 R=at,
12:u:Tok-1 X=at,
12:u:tok-1 X=at,
12:*:Pre-2 X=at,
12:*:Pre-3 X=at,
12:*:Pre-4 X=at,
12:*:Suf-3 X=at,
12:*:Suf-4 X=at,
12:u:tok-1 L=at,
12:u:tok-1LL=at,
12:*:Pre-2 X=is,
13:*:Suf-3 X=ch.,
13:*:Pre-3 X=25-,
23:u:tok-1 X=addisonwesley,
13:*:Pre-3 X=Add,
14:*:Pre-4 X=Addi,
12:*:Suf-2 X=ie,
13:*:Suf-3 X=lie,
12:*:Suf-2 L=ie,
19:u:Tok-1 X=Published,
19:u:tok-1 X=published,
13:*:Suf-3 X=hed,
14:*:Suf-4 X=shed,
19:u:tok-1 L=published,
22:u:tok-2 L=published/as,
22:u:tok-1 R=proceedings,,
22:u:Tok-1 X=Proceedings,,
13:*:Suf-3 X=gs,,
14:*:Suf-4 X=ngs,,
14:*:Pre-4 X=Scho,
18:u:tok-2 R=acm,/new,
12:*:Suf-2 X=ny,
12:*:Suf-2 L=ny,
12:*:Pre-2 X=Dr,
14:u:tok-1RR=lazy,
14:u:tok-1 R=lazy,
14:u:Tok-1 X=Lazy,
14:u:tok-1 X=lazy,
14:*:Pre-4 X=Lazy,
12:*:Suf-2 X=zy,
13:*:Suf-3 X=azy,
14:*:Suf-4 X=Lazy,
14:u:tok-1 L=lazy,
12:*:Suf-2 L=zy,
14:u:tok-1LL=lazy,
12:*:Pre-2 X=18,
11:*:Suf-1 L=;,
12:*:Suf-2 X=lt,
18:u:tok-1 X=sciences,
12:*:Suf-2 L=L:,
13:*:Suf-3 X=13.,
13:*:Suf-3 X=08.,
14:u:tok-1 X=also,
13:*:Pre-3 X=Dec,
51:u:Tok-1 X=www.cs.rice.edu/~matthias/411web/mono.ps.,
42:u:tok-1 X=wwwcsriceedumatthias411webmonops,
18:u:tok-1LL=calculi.,
14:u:tok-1 L=url:,
56:u:tok-2 L=url:/www.cs.rice.edu/~matthias/411web/mono.ps.,
56:u:tok-2 R=www.cs.rice.edu/~matthias/411web/mono.ps./_x+1,
12:*:Pre-2 X=ww,
13:*:Pre-3 X=www,
14:*:Pre-4 X=www.,
13:*:Suf-3 X=ps.,
14:*:Suf-4 X=.ps.,
11:u:Tok-1 X=4,
11:*:Pre-2 X=4,
11:*:Pre-3 X=4,
11:*:Pre-4 X=4,
11:*:Suf-2 X=4,
11:*:Suf-3 X=4,
11:*:Suf-4 X=4,
11:u:tok-1 L=4,
11:*:Pre-1 X=0,
11:*:Suf-2 L=4,
13:*:Fst-2 X=N/0,
21:u:Tok-1 X=Manuscript,,
20:u:tok-1 X=manuscript,
15:u:tok-1LL=under,
22:u:tok-1 L=constraints.,
34:u:tok-2 L=constraints./manuscript,,
27:u:tok-2 R=manuscript,/1995.,
14:*:Pre-4 X=Manu,
13:*:Suf-3 X=pt,,
14:*:Suf-4 X=ipt,,
12:*:Suf-2 X=S,,
12:*:Suf-2 L=S,,
20:u:tok-1 L=analysis",,
19:u:tok-1 R=software.,
25:u:tok-2 L=analysis",/ieee,
24:u:tok-2 R=ieee/software.,
19:u:Tok-1 X=Software.,
20:u:tok-1LL=analysis",,
24:u:tok-2 L=ieee/software.,
24:u:tok-2 R=software./_x+1,
13:*:Pre-3 X=Van,
12:u:Tok-1 X=To,
16:u:tok-1 R=appear,
19:u:tok-2 R=to/appear,
12:*:Pre-3 X=To,
12:*:Pre-4 X=To,
12:*:Suf-2 X=To,
12:*:Suf-3 X=To,
12:*:Suf-4 X=To,
16:u:Tok-1 X=appear,
19:u:tok-2 L=to/appear,
19:u:tok-2 R=appear/in,
12:*:Suf-2 L=To,
14:*:Suf-4 X=pear,
16:u:tok-1 L=appear,
19:u:tok-2 L=appear/in,
16:u:tok-1LL=appear,
13:*:Pre-3 X=Mil,
14:*:Suf-4 X=king,
13:*:Suf-3 X=le:,
13:*:Suf-3 X=per,
13:*:Suf-3 X=co,,
17:*:Key-1 R=edition,
18:u:tok-1 X=preprint,
14:*:Suf-4 X=int,,
17:*:Key-1 X=edition,
17:*:Key-1 L=edition,
13:*:Suf-3 X=ue,,
14:*:Suf-4 X=san,,
13:*:Suf-3 X=rg,,
14:*:Suf-4 X=erg,,
12:*:Suf-2 X=w.,
13:*:Suf-3 X=73,,
13:*:Pre-3 X=Lon,
14:*:Pre-4 X=Lond,
13:*:Pre-3 X=Edi,
14:*:Pre-4 X=Edit,
17:u:Tok-1 X=Working,
17:u:tok-1 X=working,
17:u:tok-1 L=working,
14:*:Pre-4 X=Grou,
18:u:tok-1 X=practice,
13:*:Pre-3 X=180,
13:*:Pre-3 X=Bro,
17:u:Tok-1 X=Invited,
17:u:tok-1 X=invited,
18:u:tok-1 R=lectures,
27:u:tok-2 L=networks./invited,
26:u:tok-2 R=invited/lectures,
13:*:Pre-3 X=Inv,
14:*:Pre-4 X=Invi,
14:*:Suf-4 X=ited,
18:u:Tok-1 X=lectures,
18:u:tok-1 X=lectures,
17:u:tok-1 L=invited,
17:u:tok-1RR=semstat,
26:u:tok-2 L=invited/lectures,
22:u:tok-2 R=lectures/for,
13:*:Pre-3 X=lec,
14:*:Pre-4 X=lect,
13:*:Suf-3 X=res,
14:*:Suf-4 X=ures,
17:u:tok-1LL=invited,
18:u:tok-1 L=lectures,
17:u:tok-1 R=semstat,
20:u:tok-1RR=(seminaire,
22:u:tok-2 L=lectures/for,
21:u:tok-2 R=for/semstat,
13:*:Pre-3 X=Sem,
14:*:Pre-4 X=SemS,
13:*:Suf-3 X=tat,
14:*:Suf-4 X=Stat,
12:*:Pre-2 X=(S,
13:*:Pre-3 X=(Se,
14:*:Pre-4 X=(Sem,
12:*:Suf-2 X=30,
12:*:Suf-2 L=30,
12:*:Pre-2 X=Pi,
13:u:tok-1LL=van,
13:*:Suf-3 X=zer,
12:*:Suf-2 X=os,
12:*:Suf-2 L=os,
12:*:Pre-2 X=do,
12:*:Suf-2 X=a:,
12:*:Suf-2 L=5.,
13:*:Suf-3 X=See,
14:*:Pre-4 X=Elec,
13:u:tok-1RR=19,,
13:u:tok-1 L=art,
13:u:tok-1LL=art,
11:u:tok-1 L=-,
13:*:Pre-3 X=102,
14:*:Pre-4 X=102.,
11:*:Suf-2 L=-,
14:*:Suf-4 X=102.,
14:*:Pre-4 X=Stev,
12:*:Pre-2 X=Ot,
11:*:Suf-1 X=],
14:*:Lst-2 X=Pe/],
11:*:Suf-1 L=],
12:*:Pre-2 X=IF,
22:u:tok-1 X=northholland,
14:*:Pre-4 X=Nort,
12:*:Pre-2 X=(P,
13:*:Pre-3 X=Phy,
14:*:Pre-4 X=Phys,
14:*:Pre-4 X=Mins,
12:*:Suf-2 X=`s,
13:*:Suf-3 X=y`s,
14:*:Suf-4 X=ky`s,
15:u:tok-1 L=(ed.),
12:*:Suf-2 L=.),
15:u:tok-1LL=(ed.),
12:*:Suf-2 L=9.,
12:*:Suf-2 X=0),
13:*:Suf-3 X=eld,
13:*:Pre-3 X=sec,
14:*:Pre-4 X=pres,
16:u:tok-1 R=review,
16:u:tok-1 X=review,
13:*:Pre-3 X=Rev,
14:*:Pre-4 X=Revi,
11:*:Suf-1 X=H,
14:*:Lst-2 X=Lu/H,
14:*:Pre-4 X=Unit,
13:*:Pre-3 X=Stu,
13:*:Suf-3 X=ew.,
14:*:Suf-4 X=iew.,
18:u:tok-1 X=handbook,
14:*:Pre-4 X=Hand,
19:u:tok-1LL=presented,
14:*:Pre-4 X=Ther,
12:*:Pre-2 X=Av,
13:*:Pre-3 X=Ava,
14:*:Pre-4 X=Avai,
18:u:tok-1 X=november,
13:*:Pre-3 X=Nov,
14:*:Pre-4 X=Nove,
12:*:Suf-2 X=26,
12:*:Suf-2 L=26,
15:u:tok-1RR=santa,
12:*:Suf-2 X=d:,
14:*:Suf-4 X=ram,,
13:*:Pre-3 X=tel,
14:*:Pre-4 X=tele,
13:u:Tok-1 X=Bad,
13:u:tok-1 X=bad,
22:u:tok-1 R=honnef/bonn,,
25:u:tok-2 L=programming/bad,
26:u:tok-2 R=bad/honnef/bonn,,
13:*:Pre-3 X=Bad,
13:*:Pre-4 X=Bad,
12:*:Suf-2 X=ad,
13:*:Suf-3 X=Bad,
13:*:Suf-4 X=Bad,
13:*:Pre-3 X=Hon,
14:*:Pre-4 X=Honn,
12:*:Suf-2 L=ad,
14:*:Suf-4 X=onn,,
13:*:Suf-3 X=da,,
19:u:Tok-1 X=November,,
19:u:tok-1 L=november,,
14:*:Pre-4 X=Salt,
13:*:Suf-3 X=alt,
14:*:Suf-4 X=Salt,
13:*:Pre-3 X=Pap,
14:*:Pre-4 X=Pape,
12:*:Suf-2 L=27,
13:*:Pre-3 X=She,
12:u:Tok-1 X=8,,
12:*:Pre-2 X=8,,
12:*:Pre-3 X=8,,
12:*:Pre-4 X=8,,
12:*:Suf-3 X=8,,
12:*:Suf-4 X=8,,
12:u:tok-1 L=8,,
12:u:tok-1LL=8,,
14:*:Suf-4 X=aper,
13:*:Suf-3 X=-26,
12:u:tok-1LL=11,
12:*:Suf-2 L=1.,
15:u:Tok-1 X=AAAI.,
18:u:tok-1 L=aaai-91.,
24:u:tok-2 L=aaai-91./aaai.,
20:u:tok-2 R=aaai./_x+1,
13:*:Suf-3 X=AI.,
14:*:Suf-4 X=AAI.,
13:*:Suf-3 X=r).,
13:*:Pre-3 X=Ski,
23:*:Pct-1 X=opening-brace,
23:*:Pct-1 R=closing-brace,
23:*:Pct-1 L=opening-brace,
23:*:Pct-1 X=closing-brace,
13:*:Pre-3 X=STA,
13:*:Suf-3 X=he.,
12:*:Pre-2 X=(2,
12:*:Suf-2 X=95,
14:*:Pre-4 X=Stud,
12:*:Pre-2 X=It,
13:*:Pre-3 X=Ita,
14:*:Pre-4 X=Ital,
21:u:tok-1RR=educational,
14:*:Pre-4 X=Perf,
15:u:Tok-1 X=Study,
12:u:tok-1 R=e,,
19:u:tok-2 L=8,/volume,
19:u:tok-2 R=volume/e,,
12:u:Tok-1 X=E,,
19:u:tok-2 L=volume/e,,
17:u:tok-2 R=e,/york,
12:*:Pre-2 X=E,,
12:*:Pre-3 X=E,,
12:*:Pre-4 X=E,,
12:*:Suf-3 X=E,,
12:*:Suf-4 X=E,,
19:*:Cap-2 L=_x-1/caps,
14:*:Pre-4 X=STAC,
13:*:Suf-3 X=CS,,
14:*:Suf-4 X=ACS,,
21:u:tok-2 R=learning/in,
21:u:tok-2 L=learning/in,
13:*:Suf-3 X=ved,
16:*:Key-1 X=thesis,
13:*:Suf-3 X=er:,
14:*:Suf-4 X=ven,,
12:u:tok-1RR=3.,
14:*:Suf-4 X=rne,,
27:u:tok-2 R=university/press,,
27:u:tok-2 L=university/press,,
18:u:tok-1 R=handbook,
21:u:tok-2 R=handbook/of,
18:u:tok-1 L=handbook,
21:u:tok-2 L=handbook/of,
18:u:tok-1LL=handbook,
16:u:tok-1 X=steven,
20:u:tok-1RR=scientific,
13:*:Pre-3 X=Pis,
14:*:Pre-4 X=Pisa,
13:*:Suf-3 X=sa,,
14:*:Suf-4 X=isa,,
14:*:Suf-4 X=aly.,
14:*:Suf-4 X=osis,
15:u:tok-1RR=ed.),,
13:*:Pre-3 X=ed.,
19:u:tok-1LL=geymonat,,
15:u:tok-1 L=ed.),,
18:u:tok-2 L=ed.),/c.,
15:u:tok-2 R=c./i.,
15:u:tok-1LL=ed.),,
15:u:tok-2 L=c./i.,
15:u:tok-2 R=i./m.,
15:u:tok-1RR=1973,,
15:u:tok-2 L=i./m.,
16:u:tok-2 R=m./e.,,
15:u:tok-1 R=1973,,
16:u:tok-2 L=m./e.,,
19:u:tok-2 R=e.,/1973,,
14:*:Pre-4 X=1973,
14:*:Suf-4 X=973,,
15:u:tok-1LL=march,
13:*:Pre-3 X=Jav,
14:*:Pre-4 X=Java,
12:*:Suf-2 X=va,
13:*:Suf-3 X=ava,
14:*:Suf-4 X=Java,
12:*:Suf-2 X=):,
12:*:Suf-2 L=):,
12:*:Pre-2 X=WG,
22:u:tok-1LL=corporation,,
12:*:Pre-2 X=(D,
12:*:Pre-2 X=pi,
13:*:Pre-3 X=Jen,
14:*:Pre-4 X=Jenn,
12:*:Pre-2 X=Ox,
14:*:Suf-4 X=ech,,
22:u:tok-2 L=learning./to,
21:u:tok-2 R=the/special,
17:u:Tok-1 X=special,
21:u:tok-2 L=the/special,
15:u:Tok-1 X=issue,
13:*:Pre-3 X=iss,
14:*:Pre-4 X=issu,
17:u:tok-2 R=on/lazy,
17:u:tok-2 L=on/lazy,
23:u:tok-2 R=lazy/learning,
23:u:tok-2 L=lazy/learning,
23:u:tok-2 R=in/artificial,
17:u:tok-1RR=review.,
23:u:tok-2 L=in/artificial,
17:u:tok-1 R=review.,
30:u:tok-2 R=intelligence/review.,
17:u:Tok-1 X=Review.,
30:u:tok-2 L=intelligence/review.,
22:u:tok-2 R=review./_x+1,
13:*:Pre-3 X=Las,
14:*:Pre-4 X=Last,
12:*:Pre-2 X=he,
20:u:tok-1LL=difference,
14:*:Suf-4 X=ber.,
18:u:Tok-1 X=Granada,,
17:u:tok-1 X=granada,
24:u:tok-1 L=colloquium'87,,
18:u:tok-1RR=331-375.,
33:u:tok-2 L=colloquium'87,/granada,,
22:u:tok-2 R=granada,/pp.,
14:*:Suf-4 X=ada,,
20:u:tok-1RR=australian,
20:u:tok-1 R=australian,
14:*:Suf-4 X=lian,
20:u:tok-1RR=melbourne,,
20:u:tok-1 R=melbourne,,
14:*:Pre-4 X=Melb,
13:*:Pre-3 X=(20,
14:*:Pre-4 X=(200,
17:u:tok-1RR=(2005).,
17:u:tok-1 R=(2005).,
14:*:Suf-4 X=05).,
24:u:tok-1RR=person-centred,
24:u:tok-1 R=person-centred,
23:u:tok-1 X=personcentred,
14:*:Suf-4 X=tred,
24:u:tok-1 L=person-centred,
24:u:tok-1LL=person-centred,
24:u:Tok-1 X=Person-Centred,
22:u:tok-1RR=ross-on-wye:,
22:u:tok-1 R=ross-on-wye:,
14:u:tok-1RR=pccs,
14:*:Pre-4 X=Ross,
13:*:Suf-3 X=ye:,
14:*:Suf-4 X=Wye:,
12:*:Suf-2 X=py,
13:*:Suf-3 X=apy,
14:*:Suf-4 X=rapy,
14:u:tok-1 X=vale,
14:*:Pre-4 X=Vale,
17:u:tok-1RR=london:,
17:u:tok-1 R=london:,
14:*:Suf-4 X=don:,
14:*:Pre-4 X=Diss,
17:u:tok-1LL=sanders,
28:u:tok-2 R=the/person-centred,
28:u:tok-2 L=the/person-centred,
17:u:Tok-1 X=Gaylin),
16:u:tok-1 X=gaylin,
20:u:tok-2 L=n./gaylin),
22:u:tok-2 R=gaylin)/_x+1,
13:*:Pre-3 X=Gay,
14:*:Pre-4 X=Gayl,
12:*:Suf-2 X=n),
13:*:Suf-3 X=in),
14:*:Suf-4 X=lin),
13:*:Pre-3 X=hel,
17:u:tok-1RR=(2003).,
17:u:tok-1 R=(2003).,
14:*:Suf-4 X=03).,
13:u:Tok-1 X=NP.,
12:u:tok-1 X=np,
19:u:tok-1LL=gestalt!,,
18:u:tok-2 R=np./_x+1,
12:*:Pre-2 X=NP,
13:*:Pre-3 X=NP.,
13:*:Pre-4 X=NP.,
13:*:Suf-3 X=NP.,
13:*:Suf-4 X=NP.,
16:u:tok-1RR=edited,
16:u:tok-1 R=edited,
16:u:Tok-1 X=Edited,
16:u:tok-1 X=edited,
16:u:tok-1 L=edited,
19:u:tok-2 L=edited/by,
16:u:tok-1LL=edited,
18:u:tok-1 L=america,,
12:*:Suf-2 X=We,
13:*:Pre-3 X=200,
20:u:tok-1 X=translated,
23:u:tok-2 R=translated/by,
20:u:tok-1 L=translated,
23:u:tok-2 L=translated/by,
20:u:tok-1LL=translated,
13:*:Pre-3 X=Oxf,
14:*:Pre-4 X=Oxfo,
13:*:Suf-3 X=rd:,
14:*:Suf-4 X=ord:,
18:u:tok-1 L=william.,
15:u:Tok-1 X=1799,,
14:u:tok-1 X=1799,
15:u:tok-1LL=texts,
16:u:tok-1 L=(1798,,
15:u:tok-1 R=1805,,
16:u:tok-1RR=1850).,
22:u:tok-2 L=(1798,/1799,,
21:u:tok-2 R=1799,/1805,,
13:*:Pre-3 X=179,
14:*:Pre-4 X=1799,
14:*:Suf-4 X=799,,
14:*:Pre-4 X=1805,
13:*:Suf-3 X=05,,
14:*:Suf-4 X=805,,
14:*:Suf-2 L=’.,
13:*:Pre-3 X=Kur,
14:*:Pre-4 X=Kurt,
13:*:Pre-3 X=Oth,
14:*:Pre-4 X=Othe,
18:u:Tok-1 X=Reprint,,
17:u:tok-1 X=reprint,
18:u:tok-1 L=reprint,,
18:u:tok-1LL=reprint,,
14:*:Pre-4 X=4th.,
14:*:Suf-4 X=4th.,
14:u:tok-1 X=2010,
13:*:Pre-3 X=201,
14:*:Pre-4 X=2010,
16:u:tok-1 X=essays,
15:u:tok-1 X=dover,
13:*:Pre-3 X=Dov,
14:*:Pre-4 X=Dove,
12:*:Suf-2 X=].,
14:u:tok-1RR=isbn,
16:u:Tok-1 X=Dover.,
14:u:tok-1 R=isbn,
24:u:tok-1RR=0-486-67260-3.,
27:u:tok-2 L=equations./dover.,
21:u:tok-2 R=dover./isbn,
14:u:Tok-1 X=ISBN,
14:u:tok-1 X=isbn,
12:*:Pre-2 X=IS,
13:*:Pre-3 X=ISB,
14:*:Pre-4 X=ISBN,
12:*:Suf-2 X=BN,
13:*:Suf-3 X=SBN,
14:*:Suf-4 X=ISBN,
14:u:tok-1 L=isbn,
12:*:Suf-2 L=BN,
13:*:Suf-3 X=-3.,
13:*:Suf-3 X=2):,
13:*:Pre-3 X=doi,
14:*:Pre-4 X=doi:,
14:*:Suf-4 X=idge,
17:u:Tok-1 X=(2009).,
14:u:tok-1 X=2009,
16:u:tok-1LL=green,,
13:u:tok-1 R="we,
14:u:tok-1RR=need,
20:u:tok-2 L=t./(2009).,
21:u:tok-2 R=(2009)./"we,
14:*:Suf-4 X=09).,
12:*:Pre-2 X="W,
13:*:Pre-3 X="We,
13:*:Pre-4 X="We,
13:*:Suf-3 X="We,
13:*:Suf-4 X="We,
19:u:tok-1RR=retrieved,
19:u:tok-1 R=retrieved,
13:*:Suf-3 X=430,
14:*:Suf-4 X=8430,
19:u:Tok-1 X=Retrieved,
19:u:tok-1 X=retrieved,
14:*:Suf-4 X=eved,
19:u:tok-1 L=retrieved,
14:*:Suf-4 X=(2):,
19:u:tok-1RR=cambridge,
19:u:tok-1 R=cambridge,
19:u:Tok-1 X=Cambridge,
30:u:tok-2 R=cambridge/university,
19:u:tok-1 L=cambridge,
30:u:tok-2 L=cambridge/university,
19:u:tok-1LL=cambridge,
17:u:tok-1LL=(1999).,
15:u:tok-1 X=chaos,
14:*:Pre-4 X=Chao,
18:u:Tok-1 X=Imperial,
18:u:tok-1 X=imperial,
27:u:tok-2 L=science,/imperial,
29:u:tok-2 R=imperial/university,
14:*:Pre-4 X=Impe,
18:u:tok-1 L=imperial,
29:u:tok-2 L=imperial/university,
18:u:tok-1LL=imperial,
19:u:tok-2 R=of/tokyo,,
19:u:tok-2 L=of/tokyo,,
21:u:tok-2 R=tokyo,/vol.,
15:u:Tok-1 X=Chaos,
13:*:Suf-3 X=aos,
14:*:Suf-4 X=haos,
15:u:tok-1 L=chaos,
22:u:tok-2 L=chaos/theory,
20:u:tok-1RR=hampshire:,
12:*:Suf-2 L=46,
14:u:tok-1 X=2013,
13:u:tok-1 R=28,,
13:*:Suf-3 X=nny,
14:*:Suf-4 X=enny,
13:*:Pre-3 X=art,
14:*:Suf-4 X=ble:,
14:u:tok-1 X=2008,
16:u:tok-1 L=hise.",
20:u:tok-1 R=wikipedia.,
14:u:tok-1RR=last,
19:u:tok-2 L=hise."/in,
23:u:tok-2 R=in/wikipedia.,
20:u:Tok-1 X=Wikipedia.,
19:u:tok-1 X=wikipedia,
16:u:tok-1LL=hise.",
14:u:tok-1 R=last,
18:u:tok-1RR=modified,
23:u:tok-2 L=in/wikipedia.,
25:u:tok-2 R=wikipedia./last,
13:*:Pre-3 X=Wik,
14:*:Pre-4 X=Wiki,
14:*:Suf-4 X=dia.,
14:*:Suf-4 X=Last,
15:u:Tok-1 X=2013.,
13:u:tok-1LL=may,
14:*:Pre-4 X=2013,
14:*:Suf-4 X=013.,
14:*:Suf-4 X=een.,
16:u:tok-1 L=times,,
15:u:tok-1RR=2008.,
15:u:tok-1 R=2008.,
15:u:Tok-1 X=2008.,
20:u:tok-2 R=2008./_x+1,
14:*:Pre-4 X=2008,
14:*:Suf-4 X=008.,
14:u:tok-1 X=rose,
19:u:tok-1LL=marshall,,
15:u:tok-1 L=nancy,
13:*:Pre-3 X=Vic,
14:*:Pre-4 X=Vict,
20:u:tok-1 R=cambridge:,
20:u:Tok-1 X=Cambridge:,
30:u:tok-2 R=cambridge:/cambridge,
20:u:tok-1 L=cambridge:,
30:u:tok-2 L=cambridge:/cambridge,
20:u:tok-1LL=cambridge:,
14:u:Tok-1 X=sec.,
13:u:tok-1 X=sec,
15:u:tok-1 L=1985,,
13:u:tok-1 R=1a,,
20:u:tok-2 L=1985,/sec.,
18:u:tok-2 R=sec./1a,,
14:*:Pre-4 X=sec.,
14:*:Suf-4 X=sec.,
13:u:Tok-1 X=1A,,
12:u:tok-1 X=1a,
15:u:tok-1LL=1985,,
14:u:tok-1 L=sec.,
18:u:tok-2 L=sec./1a,,
16:u:tok-2 R=1a,/p.,
12:*:Pre-2 X=1A,
13:*:Pre-3 X=1A,,
13:*:Pre-4 X=1A,,
13:*:Suf-3 X=1A,,
13:*:Suf-4 X=1A,,
12:*:Pre-2 X=p.,
12:*:Pre-3 X=p.,
12:*:Pre-4 X=p.,
12:*:Suf-3 X=p.,
12:*:Suf-4 X=p.,
15:u:tok-1 L=2004.,
24:u:tok-2 L=2004./reprint,,
29:u:tok-2 R=reprint,/cambridge:,
15:u:tok-1LL=2004.,
29:u:tok-2 L=reprint,/cambridge:,
22:u:tok-2 R=press,/2008.,
22:u:tok-2 L=press,/2008.,
18:u:Tok-1 X=Othello.,
17:u:tok-1 X=othello,
22:u:tok-1LL=shakespeare,,
19:u:tok-1 R=milwaukee,
19:u:tok-1RR=repertory,
27:u:tok-2 L=william./othello.,
28:u:tok-2 R=othello./milwaukee,
13:*:Suf-3 X=lo.,
14:*:Suf-4 X=llo.,
14:*:Pre-4 X=Milw,
13:*:Suf-3 X=kee,
14:*:Suf-4 X=ukee,
14:u:tok-1 X=2012,
14:*:Pre-4 X=2012,
21:u:Tok-1 X=Soderbergh,,
20:u:tok-1 X=soderbergh,
17:u:tok-1 R=steven,,
19:u:tok-1RR=director.,
26:u:tok-2 L=_x-1/soderbergh,,
29:u:tok-2 R=soderbergh,/steven,,
13:*:Pre-3 X=Sod,
14:*:Pre-4 X=Sode,
14:*:Suf-4 X=rgh,,
17:u:Tok-1 X=Steven,,
21:u:tok-1 L=soderbergh,,
19:u:tok-1 R=director.,
14:u:tok-1RR=che.,
29:u:tok-2 L=soderbergh,/steven,,
27:u:tok-2 R=steven,/director.,
19:u:Tok-1 X=director.,
18:u:tok-1 X=director,
21:u:tok-1LL=soderbergh,,
17:u:tok-1 L=steven,,
14:u:tok-1 R=che.,
14:u:tok-1RR=dvd.,
27:u:tok-2 L=steven,/director.,
24:u:tok-2 R=director./che.,
13:*:Pre-3 X=dir,
14:*:Pre-4 X=dire,
14:u:Tok-1 X=Che.,
13:u:tok-1 X=che,
17:u:tok-1LL=steven,,
19:u:tok-1 L=director.,
14:u:tok-1 R=dvd.,
24:u:tok-2 L=director./che.,
19:u:tok-2 R=che./dvd.,
14:*:Pre-4 X=Che.,
14:*:Suf-4 X=Che.,
13:u:tok-1 X=dvd,
12:*:Pre-2 X=DV,
13:*:Pre-3 X=DVD,
14:*:Pre-4 X=DVD.,
13:*:Suf-3 X=VD.,
14:*:Suf-4 X=DVD.,
15:u:tok-1 X=moore,
14:*:Pre-4 X=Moor,
21:u:tok-1RR=(director).,
21:u:tok-1 R=(director).,
21:u:Tok-1 X=(Director).,
13:*:Pre-3 X=(Di,
14:*:Pre-4 X=(Dir,
14:*:Suf-4 X=or).,
14:*:Pre-4 X=Skin,
14:*:Suf-4 X=ner:,
17:u:Tok-1 X=[Motion,
16:u:tok-1 X=motion,
19:u:tok-1 R=picture].,
16:u:tok-1RR=united,
27:u:tok-2 R=[motion/picture].,
12:*:Pre-2 X=[M,
13:*:Pre-3 X=[Mo,
14:*:Pre-4 X=[Mot,
17:u:tok-1 X=picture,
13:*:Pre-3 X=pic,
14:*:Pre-4 X=pict,
13:*:Suf-3 X=e].,
14:*:Suf-4 X=re].,
12:*:Suf-2 L=].,
15:u:Tok-1 X=FITNE,
15:u:tok-1 X=fitne,
21:u:tok-1 R=(producer).,
20:u:tok-2 L=_x-1/fitne,
27:u:tok-2 R=fitne/(producer).,
12:*:Pre-2 X=FI,
13:*:Pre-3 X=FIT,
14:*:Pre-4 X=FITN,
12:*:Suf-2 X=NE,
13:*:Suf-3 X=TNE,
14:*:Suf-4 X=ITNE,
21:u:Tok-1 X=(Producer).,
18:u:tok-1 X=producer,
15:u:tok-1 L=fitne,
15:u:tok-1RR=nurse,
27:u:tok-2 L=fitne/(producer).,
29:u:tok-2 R=(producer)./(2005).,
13:*:Pre-3 X=(Pr,
14:*:Pre-4 X=(Pro,
12:*:Suf-2 L=NE,
14:*:Suf-4 X=er).,
22:u:tok-1 L=(producers),,
24:u:tok-2 L=(producers),/&,
16:u:Tok-1 X=Moore,,
28:u:tok-1RR=(writer/director).,
21:u:tok-2 L=_x-1/moore,,
19:u:tok-2 R=moore,/m.,
14:*:Suf-4 X=ore,,
16:u:tok-1 L=moore,,
28:u:tok-1 R=(writer/director).,
19:u:tok-2 L=moore,/m.,
31:u:tok-2 R=m./(writer/director).,
28:u:Tok-1 X=(Writer/Director).,
24:u:tok-1 X=writerdirector,
16:u:tok-1LL=moore,,
17:u:tok-1RR=bowling,
31:u:tok-2 L=m./(writer/director).,
36:u:tok-2 R=(writer/director)./(2003).,
12:*:Pre-2 X=(W,
13:*:Pre-3 X=(Wr,
14:*:Pre-4 X=(Wri,
14:*:Pre-4 X=held,
14:*:Suf-4 X=held,
18:u:tok-1 X=victoria,
15:u:Tok-1 X=25-26,
14:u:tok-1 X=2526,
16:u:tok-1 L=(2006,,
17:u:tok-1 R=march).,
13:u:tok-1RR=why,
22:u:tok-2 L=(2006,/25-26,
23:u:tok-2 R=25-26/march).,
14:*:Pre-4 X=25-2,
14:*:Suf-4 X=5-26,
13:*:Suf-3 X=h).,
14:*:Suf-4 X=ch).,
24:u:tok-2 R=retrieved/from,
19:u:tok-1LL=retrieved,
15:u:Tok-1 X=2010,,
13:*:Suf-3 X=10,,
14:*:Suf-4 X=010,,
15:u:tok-1 L=2010,,
15:u:tok-1LL=2010,,
20:*:Cap-2 L=_x-1/other,
15:u:tok-1 R=jenny,
16:u:tok-1RR=holzer,
20:u:tok-2 L=_x-1/about,
21:u:tok-2 R=about/jenny,
15:u:Tok-1 X=Jenny,
15:u:tok-1 X=jenny,
16:u:tok-1 R=holzer,
15:u:tok-1RR=2011,,
21:u:tok-2 L=about/jenny,
22:u:tok-2 R=jenny/holzer,
16:u:Tok-1 X=Holzer,
16:u:tok-1 X=holzer,
15:u:tok-1 L=jenny,
15:u:tok-1 R=2011,,
14:u:tok-1RR=dvd,,
22:u:tok-2 L=jenny/holzer,
22:u:tok-2 R=holzer/2011,,
14:*:Pre-4 X=Holz,
14:*:Suf-4 X=lzer,
14:*:Pre-4 X=2011,
14:*:Suf-4 X=011,,
20:u:tok-1LL=aboriginal,
20:u:tok-1 R=television,
18:u:tok-1RR=program,,
19:u:tok-2 L=art/2010,,
26:u:tok-2 R=2010,/television,
20:u:Tok-1 X=television,
20:u:tok-1 X=television,
18:u:tok-1 R=program,,
26:u:tok-2 L=2010,/television,
29:u:tok-2 R=television/program,,
18:u:Tok-1 X=program,,
20:u:tok-1 L=television,
22:u:tok-1RR=broadcasting,
29:u:tok-2 L=television/program,,
29:u:tok-2 R=program,/australian,
18:u:tok-1 R=october.,
19:u:tok-2 L=sydney,/4,
20:u:tok-2 R=4/october.,
18:u:Tok-1 X=October.,
17:u:tok-1LL=sydney,,
20:u:tok-2 L=4/october.,
23:u:tok-2 R=october./_x+1,
18:u:tok-1 L=march-27,
17:u:tok-1RR=gallery,
28:u:tok-2 L=march-27/november,,
28:u:tok-2 R=november,/national,
18:u:tok-1LL=march-27,
17:u:tok-1 R=gallery,
28:u:tok-2 L=november,/national,
26:u:tok-2 R=national/gallery,
17:u:Tok-1 X=Gallery,
17:u:tok-1 X=gallery,
19:u:tok-1LL=november,,
19:u:tok-1RR=victoria,,
26:u:tok-2 L=national/gallery,
20:u:tok-2 R=gallery/of,
14:*:Suf-4 X=lery,
17:u:tok-1 L=gallery,
19:u:tok-1 R=victoria,,
20:u:tok-2 L=gallery/of,
22:u:tok-2 R=of/victoria,,
19:u:Tok-1 X=Victoria,,
17:u:tok-1LL=gallery,
14:u:tok-1RR=vic.,
22:u:tok-2 L=of/victoria,,
30:u:tok-2 R=victoria,/melbourne,,
14:*:Suf-4 X=ria,,
14:*:Pre-4 X=Macu,
15:*:Suf-4 X=íma.,
14:u:Tok-1 X=Dir.,
13:u:tok-1 X=dir,
14:*:Pre-4 X=Dir.,
13:*:Suf-3 X=ir.,
14:*:Suf-4 X=Dir.,
14:u:tok-1 L=dir.,
14:u:tok-1LL=dir.,
15:u:Tok-1 X=Perf.,
14:u:tok-1 X=perf,
16:u:tok-1 L=twohy.,
17:u:tok-1 R=charlie,
16:u:tok-1RR=sheen.,
22:u:tok-2 L=twohy./perf.,
23:u:tok-2 R=perf./charlie,
13:*:Suf-3 X=rf.,
14:*:Suf-4 X=erf.,
17:u:Tok-1 X=Charlie,
17:u:tok-1 X=charlie,
16:u:tok-1LL=twohy.,
15:u:tok-1 L=perf.,
16:u:tok-1 R=sheen.,
18:u:tok-1RR=artisan,,
23:u:tok-2 L=perf./charlie,
24:u:tok-2 R=charlie/sheen.,
14:*:Suf-4 X=rlie,
16:u:Tok-1 X=Sheen.,
15:u:tok-1 X=sheen,
15:u:tok-1LL=perf.,
17:u:tok-1 L=charlie,
18:u:tok-1 R=artisan,,
24:u:tok-2 L=charlie/sheen.,
25:u:tok-2 R=sheen./artisan,,
14:*:Pre-4 X=Shee,
18:u:Tok-1 X=Artisan,,
17:u:tok-1 X=artisan,
17:u:tok-1LL=charlie,
16:u:tok-1 L=sheen.,
17:u:tok-1RR=monica,,
25:u:tok-2 L=sheen./artisan,,
24:u:tok-2 R=artisan,/santa,
17:u:Tok-1 X=Kurtis.,
16:u:tok-1 X=kurtis,
14:u:tok-1 L=bill,
14:u:tok-1 R=wgbh,
22:u:tok-2 L=bill/kurtis.,
22:u:tok-2 R=kurtis./wgbh,
14:*:Suf-4 X=tis.,
13:*:Pre-3 X=WGB,
14:*:Pre-4 X=WGBH,
12:*:Suf-2 X=BH,
13:*:Suf-3 X=GBH,
14:*:Suf-4 X=WGBH,
12:*:Pre-2 X=[7,
12:*:Suf-2 X=7],
12:*:Suf-2 L=7],
18:u:Tok-1 X=Morocco,,
17:u:tok-1 X=morocco,
17:u:tok-1LL=(lrec),,
20:u:tok-1 L=marrakech,,
29:u:tok-2 L=marrakech,/morocco,,
24:u:tok-2 R=morocco,/2008.,
14:*:Pre-4 X=Moro,
14:*:Suf-4 X=cco,,
14:u:Tok-1 X=Rose,
20:u:tok-2 L=nancy/rose,
21:u:tok-2 R=rose/review,
13:*:Suf-3 X=ose,
14:*:Suf-4 X=Rose,
14:*:Pre-4 X=art.,
13:*:Suf-3 X=nr.,
14:*:Suf-4 X=.nr.,
13:*:Suf-3 X=-0.,
14:*:Suf-4 X=2-0.,
20:u:tok-1 L=sclerosis.,
25:u:tok-2 L=sclerosis./ieee,
20:u:tok-1LL=sclerosis.,
12:*:Pre-2 X=(d,
13:*:Pre-3 X=(do,
14:*:Pre-4 X=(doi,
13:*:Suf-3 X=20),
14:*:Suf-4 X=.20),
15:u:tok-1RR=drugs,
26:u:tok-1 X=antituberculosis,
15:u:tok-1 R=drugs,
15:u:tok-1 X=drugs,
13:*:Suf-3 X=ugs,
14:*:Suf-4 X=rugs,
15:u:tok-1 L=drugs,
21:u:tok-1LL=respiratory,
18:u:tok-1 L=journal.,
13:u:Tok-1 X=IF:,
12:u:tok-1 X=if,
15:u:tok-1 R=5,895,
19:u:tok-2 R=if:/5,895,
13:*:Pre-3 X=IF:,
13:*:Pre-4 X=IF:,
12:*:Suf-2 X=F:,
13:*:Suf-3 X=IF:,
13:*:Suf-4 X=IF:,
15:u:Tok-1 X=5,895,
14:u:tok-1 X=5895,
13:u:tok-1 L=if:,
19:u:tok-2 L=if:/5,895,
20:u:tok-2 R=5,895/_x+1,
13:*:Pre-3 X=5,8,
14:*:Pre-4 X=5,89,
12:*:Suf-2 L=F:,
13:*:Suf-3 X=895,
14:*:Suf-4 X=,895,
17:u:tok-1LL=italian,
21:u:tok-1 L=multicentre,
20:u:tok-1RR=resistance,
27:u:tok-2 L=multicentre/study,
18:u:tok-2 R=study/on,
21:u:tok-1LL=multicentre,
20:u:tok-1 R=resistance,
18:u:tok-2 L=study/on,
23:u:tok-2 R=on/resistance,
20:u:Tok-1 X=Resistance,
20:u:tok-1 X=resistance,
26:u:tok-1RR=antituberculosis,
23:u:tok-2 L=on/resistance,
23:u:tok-2 R=resistance/to,
14:*:Pre-4 X=Resi,
20:u:tok-1 L=resistance,
26:u:tok-1 R=antituberculosis,
23:u:tok-2 L=resistance/to,
29:u:tok-2 R=to/antituberculosis,
26:u:Tok-1 X=Antituberculosis,
20:u:tok-1LL=resistance,
17:u:tok-1RR=(smira),
29:u:tok-2 L=to/antituberculosis,
32:u:tok-2 R=antituberculosis/drugs,
14:*:Pre-4 X=Anti,
15:u:Tok-1 X=Drugs,
26:u:tok-1 L=antituberculosis,
17:u:tok-1 R=(smira),
16:u:tok-1RR=group.,
32:u:tok-2 L=antituberculosis/drugs,
23:u:tok-2 R=drugs/(smira),
13:*:Pre-3 X=Dru,
14:*:Pre-4 X=Drug,
17:u:Tok-1 X=(SMIRA),
15:u:tok-1 X=smira,
26:u:tok-1LL=antituberculosis,
16:u:tok-1 R=group.,
24:u:tok-1RR=drug-resistant,
23:u:tok-2 L=drugs/(smira),
24:u:tok-2 R=(smira)/group.,
13:*:Pre-3 X=(SM,
14:*:Pre-4 X=(SMI,
12:*:Suf-2 X=A),
13:*:Suf-3 X=RA),
14:*:Suf-4 X=IRA),
12:*:Suf-2 L=A),
13:*:Suf-3 X=up.,
14:*:Suf-4 X=oup.,
0=7.910139e-02
1=1.531294e-01
2=3.046574e-02
3=-1.419673e-02
4=1.235923e-02
5=-4.602434e-03
6=2.770704e-02
7=6.106357e-02
8=6.256596e-03
9=3.800914e-02
10=1.350168e-04
11=6.886727e-02
13=1.331027e-01
14=1.654646e-01
15=5.624532e-02
16=1.120067e-01
17=5.525494e-02
19=1.082331e-01
21=1.403643e-01
22=7.214301e-02
23=8.745434e-02
24=-8.072519e-03
27=3.571535e-01
28=7.749742e-02
29=-3.045814e-01
30=-1.126620e-02
31=2.616463e-04
37=-1.564338e-01
38=-1.503809e-01
54=-3.243343e-01
55=4.042345e-01
56=1.182410e-02
57=8.301704e-03
58=-9.909327e-02
59=1.134590e-01
60=-9.365786e-02
61=6.685124e-02
62=-2.280030e-01
64=1.170050e-04
65=-2.114521e-03
67=-3.872571e-03
68=3.135353e-02
76=6.894036e-03
81=-3.411582e-01
82=2.168435e-05
83=4.402851e-01
84=4.600212e-02
86=6.132051e-03
87=9.464456e-02
94=-6.380279e-02
109=-3.326474e-01
111=5.264373e-01
113=-2.346184e-01
114=8.641620e-02
115=-6.405082e-02
116=-5.261553e-02
117=4.713322e-02
118=4.740562e-02
119=2.276075e-03
120=-1.270369e-02
121=-6.067431e-02
135=-5.747588e-02
136=6.934818e-02
138=-5.975501e-02
139=2.025432e-01
144=1.072493e-01
145=-1.867310e-01
154=-1.608271e-01
157=7.068788e-02
159=4.659379e-02
163=-7.555230e-02
165=-3.619983e-01
166=2.399756e-02
167=4.882251e-01
168=1.694510e-01
169=-1.209904e-02
170=-9.058758e-02
171=6.054597e-02
172=-1.095987e-01
193=3.146160e-02
195=3.588144e-01
198=9.376903e-02
219=-2.255057e-02
223=5.037758e-01
224=1.043453e-01
227=-7.088002e-02
246=-6.554289e-03
247=4.663335e-02
249=-4.367228e-02
251=3.925817e-01
254=-1.506551e-01
279=8.343873e-02
280=2.349540e-05
283=2.096575e-02
288=7.756871e-02
298=-9.665567e-02
301=5.134911e-02
307=3.572312e-01
308=1.052132e-01
328=2.120230e-02
332=-4.415859e-03
333=2.441127e-02
334=4.998336e-02
335=2.794403e-01
337=-5.603155e-03
341=2.787713e-02
363=1.357912e-01
379=-4.443918e-02
381=-2.722991e-01
382=-1.844560e-02
388=-1.431892e-01
389=-2.713962e-03
391=6.426315e-01
419=3.622149e-01
436=-1.194565e-01
447=7.025765e-01
451=4.589242e-03
475=4.263265e-01
503=2.076755e-01
531=1.691584e-01
544=-1.364576e-01
552=9.403189e-02
559=6.895537e-01
587=9.035667e-02
598=2.688978e-03
604=-3.606314e-02
615=2.881749e-01
619=5.356134e-02
631=7.597934e-02
632=8.866088e-02
643=1.807091e-01
669=4.543576e-03
671=5.063520e-01
699=4.383762e-01
713=4.462994e-02
727=4.319823e-01
729=8.524834e-02
757=3.946220e-03
783=1.921898e-01
784=5.554417e-02
785=5.554775e-02
791=7.706250e-02
806=3.795237e-02
809=7.482195e-02
810=1.921898e-01
811=5.554417e-02
812=5.554775e-02
818=7.706250e-02
833=3.795237e-02
836=7.482195e-02
850=1.282578e-02
864=1.920334e-01
865=-2.285212e-02
866=8.494788e-02
867=1.570590e-01
868=-1.208022e-01
869=2.233388e-01
870=-9.594112e-01
871=-4.021642e-02
872=9.329905e-02
873=-4.498745e-01
874=1.977910e-01
875=2.446119e-01
877=5.720320e-02
878=-6.878555e-02
879=7.313686e-02
880=1.176330e-01
881=1.368937e-02
882=-4.109365e-02
883=5.544002e-02
885=6.599089e-02
886=-7.187901e-01
887=1.485586e-01
889=2.329025e-03
891=3.035452e-01
892=8.250131e-02
893=-1.045963e-01
894=1.762803e-02
895=-2.147332e-02
901=-6.838484e-02
902=-1.721581e-03
904=-4.088987e-02
919=1.240398e-01
921=6.336660e-02
922=-1.369166e-01
923=1.687665e-01
925=9.425755e-02
926=-5.352935e-02
928=6.448194e-04
929=9.860267e-03
933=1.710325e-02
946=3.058034e-03
947=2.568716e-01
948=8.143067e-02
950=8.545773e-03
958=-2.067823e-05
974=-4.214906e-04
975=3.844829e-01
976=2.138614e-03
978=-4.218351e-02
982=4.766182e-02
983=2.953638e-02
999=-9.497216e-03
1000=5.198360e-01
1002=-2.199822e-02
1003=1.723945e-01
1009=-4.938330e-02
1012=3.983317e-02
1023=4.665677e-02
1031=3.571776e-01
1032=1.136642e-02
1036=-3.846430e-02
1038=2.671108e-03
1086=4.724497e-03
1087=8.582803e-02
1088=1.975055e-01
1091=-1.571729e-02
1115=3.639930e-01
1118=-2.434653e-02
1120=5.446787e-04
1144=4.516002e-02
1145=9.931402e-03
1147=1.848854e-01
1162=-1.070365e-03
1171=2.414561e-01
1172=3.320175e-01
1198=8.674799e-02
1199=1.954934e-01
1205=2.913232e-02
1252=-6.141277e-02
1255=1.330393e-01
1279=4.369445e-02
1280=7.448739e-03
1311=2.698565e-01
1315=1.153557e-02
1339=2.897039e-01
1423=1.636396e-01
1468=-1.884650e-03
1479=2.885153e-01
1483=3.271170e-02
1495=9.210096e-02
1496=9.162656e-02
1535=1.960857e-01
1563=1.969991e-01
1577=4.888124e-02
1591=5.212070e-01
1593=4.934288e-02
1620=1.365457e-01
1621=1.309881e-01
1622=1.394515e-01
1623=1.348012e-02
1624=1.986052e-01
1625=2.639633e-03
1626=-1.170396e-01
1627=-7.495421e-03
1628=2.110966e-02
1630=1.162804e-01
1631=6.989966e-02
1633=1.497277e-02
1634=9.742996e-02
1635=7.118156e-02
1636=5.680902e-02
1639=-4.407734e-02
1641=7.248669e-02
1642=1.491439e-01
1644=2.201575e-01
1645=1.266484e-01
1646=1.499966e-02
1647=2.348041e-01
1648=5.282280e-02
1650=-5.570701e-03
1651=4.073056e-01
1657=-4.230420e-02
1675=1.885797e-01
1676=3.488305e-01
1677=1.142041e-01
1678=-2.661217e-02
1679=8.861599e-02
1681=1.709838e-02
1682=-1.381499e-01
1684=2.403206e-02
1685=-2.158875e-02
1687=-9.932621e-01
1689=6.688889e-02
1702=1.334692e-02
1703=2.600413e-01
1704=3.903217e-03
1731=1.319833e-01
1736=-4.761974e-02
1738=7.543123e-02
1739=1.593869e-02
1756=-1.846064e-03
1759=8.631046e-02
1765=-3.528460e-02
1768=3.774530e-03
1779=3.955136e-02
1787=1.896799e-01
1788=-1.680628e-02
1791=2.531580e-02
1800=1.784118e-03
1812=3.337056e-03
1842=4.992605e-03
1843=2.333751e-01
1844=7.412452e-02
1867=2.037003e-02
1870=3.562431e-03
1871=2.902667e-01
1875=2.972392e-02
1901=3.884368e-02
1927=1.185655e-01
1928=3.415836e-03
1936=3.745561e-03
1954=2.360825e-02
1955=9.123180e-02
2008=-1.297792e-03
2011=1.949908e-01
2039=3.522079e-01
2067=2.272415e-01
2095=8.897397e-01
2179=1.008403e-01
2218=9.397132e-03
2224=-9.539725e-04
2235=1.122960e-01
2239=5.112632e-02
2251=9.988023e-02
2252=9.204147e-02
2263=2.089341e-01
2289=5.594461e-02
2291=1.109486e-01
2319=1.947632e-01
2333=3.361806e-02
2347=5.154766e-01
2349=6.898278e-02
2376=1.921898e-01
2377=5.554417e-02
2378=5.554775e-02
2384=7.706250e-02
2399=3.795237e-02
2402=7.482195e-02
3132=8.556152e-02
3133=1.074371e-01
3134=1.096003e-01
3135=3.114439e-02
3136=8.847645e-04
3137=3.673979e-02
3138=3.302421e-02
3139=-4.974662e-03
3140=3.876058e-03
3141=6.814264e-02
3142=1.242577e-01
3143=7.099604e-03
3144=2.662215e-02
3145=1.769598e-02
3147=-7.411631e-03
3151=-1.830665e-02
3152=2.674669e-01
3153=1.120085e-01
3154=2.732600e-02
3155=3.807775e-02
3156=-9.117966e-02
3159=1.941985e-01
3160=-2.147871e-02
3187=2.970117e-01
3188=1.398210e-01
3189=-1.846046e-02
3190=3.981163e-06
3191=-1.292309e-02
3192=-1.237251e-02
3195=-2.739637e-02
3196=4.817923e-02
3197=-4.723912e-02
3198=8.574876e-03
3200=3.158467e-03
3201=-2.446076e-04
3215=2.507489e-01
3219=2.010440e-01
3243=2.109060e-01
3244=-2.359198e-03
3246=2.749744e-02
3249=2.128144e-02
3250=4.045535e-02
3251=1.230163e-03
3271=1.875406e-01
3276=7.850332e-02
3280=8.332613e-03
3287=2.727175e-02
3298=-1.032280e-05
3299=3.706890e-01
3300=5.536973e-02
3303=5.822187e-02
3307=-9.567176e-02
3327=3.120456e-01
3330=1.061997e-01
3355=3.538674e-01
3379=5.932379e-03
3383=2.465324e-01
3411=1.682024e-01
3438=-1.032057e-01
3439=5.128308e-01
3440=2.894512e-02
3460=1.725085e-02
3465=1.460316e-02
3466=-8.646794e-03
3467=4.854074e-01
3495=2.436531e-01
3514=-1.917369e-01
3523=2.719681e-01
3551=5.620821e-01
3570=4.814969e-04
3579=1.541333e-01
3607=1.858097e-01
3635=1.837381e-01
3691=9.112843e-01
3719=8.287080e-02
3747=2.721947e-01
3751=7.381826e-02
3775=1.774897e-01
3801=4.564188e-03
3803=5.893753e-01
3831=3.827486e-02
3845=6.101915e-02
3859=-1.771870e-03
3861=6.620453e-02
3888=-7.217137e-04
3889=3.850304e-02
3890=-9.871035e-02
3891=1.074676e-01
3893=2.146450e-01
3895=-1.140565e-02
3896=1.185308e-04
3898=-8.752460e-02
3899=2.815557e-01
3901=-6.711824e-03
3907=1.256436e-04
3915=-9.259931e-05
3916=5.937552e-02
3943=2.998937e-02
3947=1.883507e-01
3971=5.352346e-03
3999=1.636718e-01
4000=4.265268e-03
4055=8.325623e-02
4062=1.620680e-02
4169=1.332668e-01
4195=-4.754059e-02
4223=-1.943872e-01
4279=-1.199271e-02
4357=5.629635e-03
4447=6.780965e-03
4520=1.812571e-02
4601=6.138800e-02
4644=1.921898e-01
4645=5.554417e-02
4646=5.554775e-02
4652=7.706250e-02
4667=3.795237e-02
4670=7.482195e-02
5400=2.731656e-02
5401=1.034745e-01
5403=-2.130647e-02
5404=-1.359668e-03
5405=4.455061e-02
5408=3.205175e-02
5409=3.511244e-01
5410=5.324574e-04
5411=-7.486214e-02
5413=-2.640788e-01
5415=-2.265796e-02
5416=2.002911e-02
5417=4.119796e-02
5421=9.468500e-02
5422=6.920914e-03
5425=1.421750e-02
5427=1.820433e-01
5455=2.826602e-01
5456=2.775814e-02
5458=-1.006423e-02
5468=1.069767e-04
5476=2.679394e-02
5483=8.472998e-02
5486=2.327177e-04
5511=4.907048e-02
5517=9.045666e-02
5539=8.474089e-02
5555=3.286532e-02
5566=-9.810704e-02
5567=1.261711e-01
5568=1.316276e-01
5571=4.581600e-02
5593=-1.566413e-03
5595=4.453998e-01
5598=6.898644e-02
5623=5.491014e-02
5647=8.310433e-02
5651=2.505922e-01
5679=5.060412e-02
5706=-3.738739e-02
5707=7.116259e-02
5733=2.957896e-02
5735=2.818879e-02
5763=2.532958e-01
5778=1.267200e-05
5791=5.752073e-02
5819=1.396341e-01
5847=6.407487e-02
5875=2.084736e-01
5903=1.952612e-01
5959=1.541557e-01
5995=1.502387e-01
5998=1.656845e-03
6015=3.005284e-01
6019=7.419463e-02
6043=4.687663e-02
6071=4.247935e-02
6127=-1.914163e-03
6156=1.921898e-01
6157=5.554417e-02
6158=5.554775e-02
6164=7.706250e-02
6179=3.795237e-02
6182=7.482195e-02
6912=-7.217137e-04
6913=3.850304e-02
6914=-9.871035e-02
6915=1.074676e-01
6917=2.146450e-01
6919=-1.140565e-02
6920=1.185308e-04
6922=-8.752460e-02
6923=2.815557e-01
6925=-6.711824e-03
6931=1.256436e-04
6939=-9.259931e-05
6940=5.937552e-02
6967=2.998937e-02
6971=1.883507e-01
6995=5.352346e-03
7023=1.636718e-01
7024=4.265268e-03
7079=8.325623e-02
7086=1.620680e-02
7193=1.332668e-01
7219=-4.754059e-02
7247=-1.943872e-01
7303=-1.199271e-02
7381=5.629635e-03
7471=6.780965e-03
7544=1.812571e-02
7625=6.138800e-02
7668=2.731656e-02
7669=1.034745e-01
7671=-2.130647e-02
7672=-1.359668e-03
7673=4.455061e-02
7676=3.205175e-02
7677=3.511244e-01
7678=5.324574e-04
7679=-7.486214e-02
7681=-2.640788e-01
7683=-2.265796e-02
7684=2.002911e-02
7685=4.119796e-02
7689=9.468500e-02
7690=6.920914e-03
7693=1.421750e-02
7695=1.820433e-01
7723=2.826602e-01
7724=2.775814e-02
7726=-1.006423e-02
7736=1.069767e-04
7744=2.679394e-02
7751=8.472998e-02
7754=2.327177e-04
7779=4.907048e-02
7785=9.045666e-02
7807=8.474089e-02
7823=3.286532e-02
7834=-9.810704e-02
7835=1.261711e-01
7836=1.316276e-01
7839=4.581600e-02
7861=-1.566413e-03
7863=4.453998e-01
7866=6.898644e-02
7891=5.491014e-02
7915=8.310433e-02
7919=2.505922e-01
7947=5.060412e-02
7974=-3.738739e-02
7975=7.116259e-02
8001=2.957896e-02
8003=2.818879e-02
8031=2.532958e-01
8046=1.267200e-05
8059=5.752073e-02
8087=1.396341e-01
8115=6.407487e-02
8143=2.084736e-01
8171=1.952612e-01
8227=1.541557e-01
8263=1.502387e-01
8266=1.656845e-03
8283=3.005284e-01
8287=7.419463e-02
8311=4.687663e-02
8339=4.247935e-02
8395=-1.914163e-03
8424=1.921898e-01
8425=5.554417e-02
8426=5.554775e-02
8432=7.706250e-02
8447=3.795237e-02
8450=7.482195e-02
9180=2.109440e-01
9181=-1.229986e-02
9182=1.539916e-01
9183=2.128998e-02
9185=2.077797e-01
9187=-2.836757e-01
9190=2.005979e-01
9191=-7.870227e-01
9196=5.868453e-02
9207=2.434959e-01
9235=-8.430583e-05
9263=1.537535e-01
9266=1.220766e-03
9291=5.018666e-03
9316=4.482528e-02
9347=2.349518e-01
9487=1.328671e+00
9488=-1.215727e-02
9655=7.107354e-02
9795=4.759692e-02
9851=1.306758e-01
9936=7.542636e-02
9937=8.126344e-02
9938=2.140553e-03
9939=1.772300e-02
9940=1.486157e-01
9941=-9.160863e-03
9942=-2.256128e-02
9943=3.118803e-02
9944=7.891956e-02
9946=3.275932e-03
9947=8.366676e-02
9949=1.812084e-02
9950=7.535638e-02
9951=4.939421e-02
9952=3.709229e-02
9955=-2.383241e-02
9957=1.916957e-01
9958=1.704228e-01
9960=1.541654e-01
9961=3.097452e-02
9963=1.815427e-01
9964=6.823718e-02
9966=-3.403421e-03
9967=7.704618e-02
9991=1.565698e-01
9992=2.133715e-03
9993=7.215374e-02
9994=-2.135220e-02
9995=8.501709e-02
9997=2.270838e-02
9998=-1.109874e-01
10000=-2.172376e-04
10001=-1.077238e-02
10003=-2.345974e-01
10005=1.275406e-01
10018=1.993153e-02
10019=2.204048e-01
10020=5.316550e-03
10047=1.175625e-01
10048=-2.181403e-01
10052=-3.805778e-02
10054=2.796479e-03
10055=4.914331e-02
10072=-4.003393e-03
10075=1.155447e-01
10084=4.926640e-03
10095=4.104945e-02
10103=2.122032e-01
10104=-1.010744e-01
10107=2.158702e-02
10116=2.450870e-03
10128=2.980689e-03
10131=7.524527e-01
10159=2.255571e-01
10160=6.276371e-01
10183=2.273674e-02
10186=1.229267e-02
10187=3.008767e-01
10191=4.144553e-02
10217=1.046080e-01
10243=7.301489e-02
10252=3.419650e-03
10270=1.417555e-02
10271=1.264739e-01
10327=1.626461e-01
10355=3.567987e-01
10383=1.837201e-01
10411=3.230381e-01
10495=8.667256e-02
10551=1.357858e-01
10555=5.470502e-02
10568=8.749575e-02
10579=2.128913e-01
10605=8.170270e-02
10607=1.246295e-01
10635=1.877676e-01
10649=3.794084e-02
10663=4.973615e-01
10692=2.786028e-01
11448=8.808560e-02
11449=-8.768794e-03
11450=9.811600e-02
11451=2.518783e-04
11458=1.002514e-02
11471=7.642926e-03
11475=6.602540e-02
11503=-2.619514e-04
11531=6.017289e-03
11559=7.943554e-04
11755=8.989940e-02
11826=5.477256e-03
12063=6.700241e-02
12119=2.098284e-01
12204=1.921898e-01
12205=5.554417e-02
12206=5.554775e-02
12212=7.706250e-02
12227=3.795237e-02
12230=7.482195e-02
12960=1.803083e-01
12961=2.285341e-01
12962=2.675993e-01
12963=-8.907625e-03
12964=-1.984568e-01
12965=2.657828e-01
12966=-1.795399e-01
12967=3.623930e-02
12968=1.514106e-01
12969=-3.663020e-01
12970=1.600087e-01
12971=1.751894e-01
12973=1.206843e-01
12974=1.265573e-01
12975=6.602206e-02
12976=6.396126e-02
12977=2.613155e-03
12978=-6.270210e-04
12979=8.720898e-02
12981=2.315668e-01
12982=4.801192e-02
12983=2.421187e-01
12985=7.862721e-03
12987=3.647462e-01
12988=9.978420e-02
12989=-1.825305e-01
12990=-7.309735e-03
12997=-1.274354e-01
12998=-1.158632e-02
13014=-2.605561e-01
13015=4.122679e-01
13016=2.235618e-02
13017=7.955808e-03
13019=1.226498e-01
13020=-2.876657e-02
13021=7.740397e-02
13022=-9.102444e-02
13024=1.054397e-03
13025=-3.625249e-03
13027=-3.241996e-04
13029=1.258508e-02
13036=6.030779e-03
13041=-9.201387e-02
13042=1.203647e-03
13043=4.322788e-01
13044=5.066011e-02
13046=4.806285e-03
13054=-4.999983e-02
13071=4.723559e-01
13072=4.882148e-04
13073=-1.527483e-01
13074=1.197612e-03
13076=-5.372360e-03
13078=8.602614e-02
13079=5.540645e-03
13095=-1.109356e-02
13096=8.914449e-02
13098=-6.771147e-02
13099=9.536309e-02
13105=-1.000212e-01
13108=4.857074e-02
13115=4.275604e-02
13117=8.761059e-02
13119=4.148409e-02
13123=-4.308731e-02
13125=-1.731982e-01
13127=5.014246e-01
13128=1.244188e-04
13130=-4.620875e-02
13132=-7.379952e-02
13152=1.008867e-03
13153=3.844381e-02
13183=2.153905e-01
13184=1.627180e-01
13187=-2.042336e-02
13206=-5.077039e-03
13211=4.001162e-01
13214=-1.271991e-01
13239=8.897138e-03
13240=2.307749e-04
13241=6.840541e-03
13243=8.463762e-02
13258=-2.007122e-02
13267=3.626928e-01
13268=1.629407e-01
13290=1.307331e-02
13294=5.436794e-02
13295=4.004261e-01
13301=3.242962e-02
13341=-7.678564e-02
13348=-1.237923e-01
13351=2.513428e-01
13379=4.693913e-01
13407=3.104796e-01
13411=7.955682e-03
13435=3.986944e-01
13512=4.711768e-02
13519=2.798248e-01
13564=-5.312750e-03
13575=3.052479e-01
13579=4.455441e-02
13591=7.433689e-02
13592=9.744190e-02
13603=1.744861e-01
13629=5.716266e-03
13631=5.700900e-01
13659=4.946314e-01
13673=5.017731e-02
13687=5.166935e-01
13689=6.210309e-02
13716=1.331551e-01
13717=2.746173e-01
13718=2.809682e-01
13719=-4.430740e-02
13720=-8.384121e-04
13721=-1.543391e-02
13722=1.411120e-01
13723=1.030053e-01
13724=1.439378e-01
13726=5.243368e-02
13727=4.464434e-02
13729=7.823407e-02
13730=2.222054e-01
13731=6.764128e-02
13732=4.176602e-02
13735=9.603166e-02
13737=2.533217e-01
13738=2.716527e-01
13739=2.532136e-01
13740=1.254164e-01
13741=4.599581e-01
13743=3.225316e-01
13744=8.569536e-02
13745=-1.776761e-01
13746=-6.401595e-03
13747=3.343401e-02
13753=-7.469914e-02
13754=-1.844961e-03
13771=4.337868e-01
13772=1.574209e-02
13773=1.109203e-02
13774=3.665068e-02
13775=1.145769e-01
13777=8.083163e-02
13778=-6.963100e-02
13780=6.574536e-03
13781=-5.141980e-03
13783=-2.080316e-03
13784=5.232363e-03
13785=1.468580e-02
13792=1.151342e-02
13798=1.130011e-03
13799=4.409614e-01
13800=4.748710e-02
13802=8.950747e-03
13810=-4.095475e-02
13825=-1.477602e-02
13827=4.214065e-01
13828=-2.862559e-01
13834=5.223304e-02
13852=7.810348e-02
13855=5.522364e-02
13861=-8.849340e-02
13864=3.314253e-02
13873=8.517793e-02
13875=4.902477e-02
13879=-4.161894e-02
13881=-1.619886e-01
13883=3.099528e-01
13884=6.175040e-03
13886=-2.367743e-02
13887=6.760987e-03
13896=1.845959e-03
13908=9.548168e-04
13911=7.180120e-01
13914=2.150823e-02
13939=1.959470e-01
13940=1.666303e-01
13963=1.303650e-03
13966=2.937596e-03
13967=3.416317e-01
13971=4.596515e-02
13996=2.677560e-05
13997=2.769994e-02
13999=2.984737e-02
14014=-2.101302e-02
14023=1.023119e-01
14024=-8.937028e-05
14032=2.691121e-03
14051=1.456044e-01
14097=-7.281964e-02
14104=-3.583180e-02
14107=2.005966e-01
14132=9.152087e-03
14135=3.545764e-01
14163=3.207628e-01
14167=8.533844e-03
14191=4.563641e-01
14275=1.826132e-01
14314=7.000826e-03
14320=-2.379562e-03
14331=2.151709e-01
14335=3.990602e-02
14347=7.429547e-02
14348=9.966692e-02
14359=1.725229e-01
14385=3.901367e-02
14387=2.534172e-01
14415=4.913149e-01
14429=4.369263e-02
14443=5.033984e-01
14445=5.885736e-02
14472=-7.914949e-02
14473=1.822679e-01
14474=-6.174081e-02
14475=3.311751e-01
14476=-2.377384e-01
14477=2.279808e-01
14478=5.118731e-02
14479=1.401348e-01
14480=8.257697e-02
14481=3.367348e-02
14482=-1.003425e-01
14483=9.419656e-03
14484=1.058095e-01
14485=1.099291e-01
14486=1.490688e-01
14487=7.049241e-02
14488=-1.381780e-01
14489=1.579861e-01
14490=5.677725e-02
14491=5.252619e-02
14493=6.300869e-03
14494=9.460220e-02
14495=-1.327904e-02
14496=-9.937132e-02
14497=-7.365580e-01
14499=2.105101e-01
14500=3.168705e-01
14501=3.400209e-01
14502=1.373065e-01
14503=6.568798e-02
14504=1.141887e-02
14505=7.263267e-02
14506=3.256031e-01
14507=2.150568e-02
14508=2.884573e-01
14509=-3.473336e-01
14510=2.126020e-01
14511=1.051070e-01
14512=2.277804e-01
14513=3.536671e-01
14514=1.231198e-01
14515=2.382692e-01
14516=3.145551e-02
14518=2.474064e-01
14519=1.580271e-01
14520=4.496541e-02
14521=2.358496e-01
14522=2.306353e-01
14523=-8.766592e-02
14524=2.540519e-02
14525=7.653987e-02
14526=8.222154e-02
14527=2.048592e-01
14528=1.174585e-01
14529=7.108547e-02
14530=6.219846e-02
14531=-4.480624e-02
14532=5.096195e-02
14533=1.580581e-01
14534=-1.008099e-02
14535=8.296834e-02
14536=2.459596e-03
14537=-6.538616e-01
14538=8.698989e-02
14539=6.662076e-02
14540=1.414773e-01
14541=2.831540e-02
14542=7.273352e-03
14543=6.868178e-03
14544=2.483597e-02
14545=1.027066e-01
14547=1.099170e-01
14548=9.880640e-02
14549=7.404594e-02
14550=5.070624e-02
14553=1.568534e-01
14554=-1.172376e-02
14555=2.860449e-01
14556=-1.000807e-01
14557=6.526114e-02
14558=-1.530295e-01
14559=1.287971e-01
14560=-1.250131e-01
14561=-2.364624e-01
14562=1.161490e-01
14563=-1.821243e-01
14564=2.788215e-02
14565=6.678952e-02
14566=1.235182e-01
14567=9.553483e-02
14568=-3.584545e-02
14569=1.225037e-01
14570=1.012872e-01
14571=1.417923e-01
14572=-2.084215e-01
14573=2.595237e-02
14574=8.211195e-02
14575=-3.241810e-04
14576=-8.945101e-03
14578=2.567209e-03
14580=1.921898e-01
14581=5.554417e-02
14582=5.554775e-02
14588=7.706250e-02
14603=3.795237e-02
14606=7.482195e-02
15336=1.629390e-01
15337=2.582136e-01
15338=-1.572456e-01
15339=-9.607171e-03
15340=1.957322e-02
15341=-4.216114e-03
15342=2.754953e-02
15343=1.626280e-01
15344=7.191098e-03
15345=4.399231e-02
15346=7.140272e-02
15347=1.289447e-01
15349=8.382402e-02
15350=-4.279582e-01
15351=2.796729e-02
15352=2.208065e-02
15353=5.167598e-02
15354=2.409394e-02
15355=1.189568e-01
15357=1.309541e-01
15358=1.165024e-01
15359=8.701343e-02
15360=-1.793292e-02
15361=3.366068e-04
15363=3.685513e-01
15364=9.305553e-02
15365=-2.136694e-01
15366=-9.555595e-03
15367=2.015609e-02
15373=-1.511793e-01
15374=-1.276544e-02
15391=4.830941e-01
15392=-1.157969e+00
15393=-1.314602e-01
15394=-8.406870e-02
15395=6.259614e-02
15396=-8.871064e-02
15397=9.385074e-02
15398=-1.009794e-01
15400=-2.657099e-04
15401=-4.763198e-04
15403=-2.415362e-03
15405=-6.565605e-02
15406=-6.344337e-02
15412=7.530465e-03
15417=-1.094673e-01
15419=3.835885e-01
15420=5.833401e-02
15422=5.724402e-03
15423=6.236851e-02
15430=-5.726025e-02
15436=-1.236505e-02
15445=-2.646336e-01
15446=-7.372599e-02
15447=5.214880e-01
15449=-1.719369e-01
15450=9.044455e-02
15451=-6.122285e-02
15452=-4.986414e-02
15453=4.783281e-02
15454=5.387240e-02
15455=1.354501e-03
15456=-1.211816e-02
15457=-4.665892e-02
15471=-4.544011e-02
15472=8.224505e-02
15474=-5.298423e-02
15475=2.034370e-01
15480=1.083718e-01
15490=-1.082023e-01
15493=6.729214e-02
15495=4.480884e-02
15499=-6.992539e-02
15501=-5.138684e-03
15502=2.276496e-02
15503=4.736167e-01
15504=1.702057e-01
15506=-6.188965e-02
15507=5.957332e-02
15508=-1.011288e-01
15529=4.144779e-02
15531=3.598691e-01
15534=1.068184e-01
15559=4.986402e-01
15560=1.498207e-01
15563=-6.823236e-02
15582=-5.685668e-03
15583=4.719142e-02
15585=-4.169799e-02
15587=3.969794e-01
15590=-1.461694e-01
15615=8.359267e-02
15616=2.398724e-05
15619=2.092667e-02
15624=1.000787e-01
15634=-9.148649e-02
15637=5.177074e-02
15643=3.617368e-01
15644=1.099564e-01
15664=2.164075e-02
15668=-4.157634e-03
15669=4.218001e-02
15670=5.127712e-02
15671=3.061714e-01
15673=-1.644976e-03
15677=2.899546e-02
15699=1.345316e-01
15717=-1.303513e-01
15718=-1.466150e-02
15724=-1.381045e-01
15725=-2.591264e-03
15727=5.789286e-01
15772=-1.152907e-01
15783=1.260695e+00
15787=4.715868e-03
15811=7.202278e-01
15839=2.527476e-01
15867=1.667596e-01
15880=-1.317087e-01
15888=9.306385e-02
15895=6.918475e-01
15923=8.520719e-02
15934=6.280586e-03
15940=-2.378136e-02
15951=2.881517e-01
15955=5.044848e-02
15967=7.523401e-02
15968=8.644959e-02
15979=1.785190e-01
16005=4.288337e-03
16007=4.827373e-01
16035=4.980008e-01
16049=4.270376e-02
16063=3.970379e-01
16065=8.139544e-02
16092=2.186931e-01
16093=3.380690e-02
16094=-5.497312e-03
16095=-4.143060e-02
16096=3.342186e-02
16097=5.256389e-03
16098=8.027518e-02
16099=1.432228e-01
16100=5.458827e-03
16101=5.897402e-03
16102=4.614183e-02
16103=3.593455e-02
16105=1.059158e-01
16107=6.699925e-02
16108=1.897404e-01
16109=2.784965e-03
16111=9.957402e-02
16112=1.703702e-01
16113=1.246703e-01
16114=1.640533e-02
16115=3.068325e-02
16116=1.200074e-01
16117=6.434728e-03
16119=5.337818e-01
16120=3.126708e-02
16121=-1.394395e-01
16122=-4.934664e-02
16123=9.981702e-03
16129=-1.382642e-01
16130=-1.198769e-02
16146=-2.834293e-01
16147=3.404343e-01
16148=1.309994e-01
16149=-5.272382e-03
16150=-2.971949e-03
16151=1.238622e-01
16152=-8.041536e-02
16153=7.669923e-02
16154=-9.531437e-02
16156=-4.822762e-05
16157=-1.791374e-03
16159=-3.663361e-04
16161=1.605193e-02
16168=6.180530e-03
16173=-2.738987e-01
16174=-2.580650e-02
16175=3.152924e-01
16176=4.754451e-02
16178=4.566588e-03
16179=3.405464e-02
16186=-4.865590e-02
16201=-2.425024e-01
16203=5.345020e-01
16204=-3.724009e-04
16205=-1.617545e-01
16206=1.068057e-01
16207=-8.693672e-02
16208=-6.484064e-03
16209=1.991082e-02
16210=4.264376e-02
16227=-2.136107e-02
16228=7.012447e-02
16231=1.763384e-01
16236=3.667720e-02
16237=-1.301732e-01
16246=-5.782748e-03
16247=2.272671e-02
16249=7.986477e-02
16251=3.778421e-02
16255=-6.451621e-02
16257=-1.875642e-01
16258=5.796800e-02
16259=4.717885e-01
16260=2.097289e-01
16262=-5.233052e-02
16263=5.705155e-02
16264=-8.122113e-02
16284=1.295177e-03
16285=1.410094e-02
16287=4.235288e-01
16290=3.844162e-02
16315=4.843651e-01
16316=1.550092e-01
16319=-2.113977e-02
16339=1.059546e-01
16343=3.698912e-01
16346=-1.135078e-01
16347=2.005473e-02
16373=3.549916e-03
16390=-1.688140e-02
16393=-1.253482e-04
16399=1.668944e-01
16400=1.875094e-02
16420=1.103549e-02
16424=-1.338896e-02
16426=4.516475e-02
16427=2.085110e-01
16433=3.680384e-02
16473=-1.547940e-02
16474=-1.403606e-03
16480=-1.065334e-01
16483=2.320791e-01
16511=4.144664e-01
16539=3.907274e-01
16543=6.813889e-03
16567=4.066752e-01
16624=3.553747e-04
16651=2.962014e-01
16679=9.658808e-02
16696=-6.385645e-03
16707=3.458236e-01
16711=5.108849e-02
16723=7.469222e-02
16724=8.350561e-02
16735=1.761534e-01
16761=5.744593e-03
16763=5.429049e-01
16791=4.953970e-01
16805=4.222479e-02
16819=5.347067e-01
16821=7.585163e-02
16848=1.921898e-01
16849=5.554417e-02
16850=5.554775e-02
16856=7.706250e-02
16871=3.795237e-02
16874=7.482195e-02
17604=1.921898e-01
17605=5.554417e-02
17606=5.554775e-02
17612=7.706250e-02
17627=3.795237e-02
17630=7.482195e-02
18360=4.758971e-02
18361=1.295717e-01
18362=-1.873146e-03
18363=-1.892639e-03
18365=8.253188e-02
18366=-2.919050e-02
18368=4.307790e-02
18369=1.462003e-01
18370=1.149293e-03
18371=-3.119926e-02
18373=-4.191516e-02
18375=-1.689874e-02
18376=1.725829e-02
18377=4.007322e-02
18379=-5.183108e-03
18381=7.850636e-02
18383=-1.526420e-04
18384=-1.712278e-01
18385=8.730890e-03
18387=1.847755e-01
18415=3.035013e-01
18418=-2.002101e-03
18428=1.615688e-03
18443=8.035913e-02
18446=2.212264e-04
18471=5.349271e-02
18472=3.356000e-03
18474=-2.060840e-03
18477=1.301906e-02
18478=8.351078e-03
18499=2.817523e-01
18515=3.100165e-02
18526=-4.871918e-02
18527=1.482438e-01
18528=1.342263e-01
18531=6.724126e-02
18553=-3.086865e-06
18558=1.088305e-01
18583=7.610591e-02
18611=2.623262e-01
18634=5.540851e-03
18639=2.777698e-01
18661=9.269261e-04
18666=-3.605154e-02
18667=8.552367e-02
18688=1.399248e-02
18693=3.126646e-02
18695=4.725642e-02
18723=2.608458e-01
18738=3.297531e-05
18747=-1.601757e-02
18751=3.898574e-02
18779=1.403827e-01
18807=9.489026e-02
18835=2.145175e-01
18863=1.965850e-01
18919=5.323875e-02
18936=5.759767e-03
18955=1.251841e-01
18975=1.745132e-01
18979=7.132500e-02
19087=-1.783335e-03
19116=-4.068195e-03
19117=-2.731169e-02
19119=1.093275e-01
19120=-4.367329e-02
19121=5.912533e-03
19122=1.644940e-01
19123=1.626976e-02
19124=-6.073650e-04
19126=6.095238e-02
19127=3.821477e-02
19129=-8.337832e-04
19130=3.041404e-04
19131=-2.717028e-02
19135=1.359983e-04
19139=4.682880e-02
19140=2.954422e-01
19142=7.102368e-03
19143=5.789320e-02
19150=1.714085e-04
19171=1.522983e-02
19173=1.093914e-01
19175=-1.792128e-01
19177=1.070292e-01
19180=2.045834e-02
19207=9.407749e-02
19227=8.449318e-02
19230=4.065124e-02
19233=2.812611e-01
19234=7.842485e-02
19260=-1.005922e-02
19264=2.315084e-02
19271=3.785549e-02
19273=6.432190e-02
19283=2.180737e-01
19284=1.157376e-01
19311=6.058428e-02
19339=6.256327e-02
19367=1.558855e-01
19369=-3.420383e-01
19371=3.852248e-02
19423=5.252565e-03
19450=2.716265e-02
19451=1.695275e-01
19507=2.925575e-02
19563=-6.154510e-03
19675=7.822164e-02
19731=-6.530700e-05
19747=3.341635e-01
19785=1.066663e-01
19787=7.282002e-02
19815=3.117790e-01
19843=3.268207e-02
19872=3.306124e-01
19873=-1.173723e-03
19874=3.590740e-02
19880=7.947814e-02
19882=-1.401863e-01
19893=4.709289e-03
19895=3.541212e-02
19899=-2.182713e-02
19912=4.192436e-02
19926=-7.791023e-02
19927=-5.521113e-02
19928=7.998984e-02
19929=4.114104e-03
19930=9.304336e-03
19931=-1.450614e-02
19932=2.402320e-01
19933=1.901973e-05
19934=-8.972903e-03
19935=8.756113e-02
19936=2.142789e-01
19937=2.340956e-01
19938=1.572711e-01
19939=8.232467e-02
19941=-1.023575e-02
19942=-2.823990e-02
19944=1.082129e-01
19945=-4.548848e-02
19946=4.561517e-01
19947=1.017010e-01
19949=-9.860588e-02
19950=-5.114201e-02
19951=5.136054e-04
19953=4.510038e-01
19954=5.748714e-01
19955=-1.192579e-01
19956=1.495544e-03
19957=-1.090170e-01
19963=-5.349968e-02
19981=-4.174381e-01
19982=1.170406e-01
19983=3.298311e-01
19984=-7.465452e-01
19985=8.436816e-01
19987=3.718169e-01
19990=2.290271e-02
19991=1.047953e-01
19992=1.217549e-02
19993=4.840587e-02
19994=4.686895e-01
19995=8.824986e-02
20008=5.258592e-02
20009=1.724381e-01
20010=1.504682e-01
20011=-7.211204e-02
20013=2.617608e-01
20037=-4.215452e-02
20038=3.486263e-02
20040=1.803759e-01
20043=9.406318e-02
20044=2.004423e-01
20045=2.768766e-01
20062=1.977099e-01
20065=-3.182635e-01
20070=1.429243e-01
20071=-7.916472e-02
20074=5.056798e-02
20083=7.746776e-02
20085=3.316346e-02
20092=1.007693e-01
20093=-1.286400e-02
20094=2.419708e-01
20097=5.745701e-02
20098=-2.386812e-02
20101=9.852485e-02
20121=1.561442e-01
20124=8.539618e-02
20150=3.574647e-01
20170=7.376779e-01
20173=1.371348e-01
20177=-1.884492e-01
20179=6.735046e-02
20182=5.665727e-03
20200=1.780051e-01
20205=-2.997317e-02
20207=3.361759e-02
20209=1.917767e-01
20224=-8.168744e-04
20227=2.520637e-01
20234=4.390306e-01
20254=1.112776e-01
20259=7.241502e-02
20260=3.166461e-01
20261=-3.747350e-01
20267=2.889560e-02
20289=1.567285e-01
20317=3.710967e-02
20322=3.406487e-01
20341=6.489497e-02
20373=1.039739e-01
20377=9.583253e-03
20401=2.339405e-02
20457=1.940163e-01
20478=8.826816e-02
20485=8.701798e-03
20513=7.754668e-02
20521=5.369621e-03
20530=-2.102483e-04
20541=2.726026e-01
20545=6.263395e-02
20557=1.047687e-01
20558=8.921458e-02
20595=1.379463e-02
20597=2.741225e-01
20639=3.514994e-02
20682=-8.927827e-02
20683=3.181990e-02
20684=-3.968723e-01
20685=3.467627e-02
20687=3.099450e-02
20690=2.691203e-05
20692=2.720306e-01
20695=1.338453e-01
20703=-1.063921e-02
20707=7.118710e-03
20709=-2.818426e-03
20737=1.948989e-02
20746=2.155060e-01
20764=3.196095e-04
20765=-1.392554e-02
20766=3.362233e-04
20768=4.508695e-03
20793=6.215158e-02
20822=5.093990e-02
20849=-1.426974e-02
20933=3.096457e-02
20989=2.114219e-01
21017=2.397623e-02
21073=1.976060e-01
21277=1.404403e-01
21297=-5.766368e-04
21409=5.329203e-02
21440=-1.155036e-02
21448=-3.403026e-04
21449=-5.498615e-02
21451=3.012411e-02
21502=1.344538e-01
21521=-8.485858e-03
21746=-2.543990e-02
21829=6.917770e-02
22194=-3.375712e-01
22195=-6.656241e-02
22196=-6.863867e-03
22197=-3.338625e-02
22199=1.724342e-01
22201=4.759345e-02
22202=-9.349021e-02
22203=7.837979e-04
22204=9.474315e-02
22205=2.537603e-01
22206=1.298995e-01
22207=4.385623e-02
22209=-1.950153e-02
22212=3.243471e-01
22213=2.810139e-04
22215=1.532991e-02
22219=1.710634e-02
22221=2.888252e-02
22222=5.377736e-01
22249=-1.412785e+00
22250=9.339852e-02
22251=2.005910e-01
22252=-1.827142e-02
22253=2.223719e-01
22255=4.129757e-02
22258=2.023634e-01
22259=1.181061e-01
22260=7.390105e-02
22261=3.484400e-02
22262=5.079696e-02
22263=8.935478e-02
22276=3.026055e-02
22277=5.324065e-02
22278=-6.152840e-03
22281=2.485194e-01
22285=1.233677e-02
22305=-1.002797e-03
22312=7.571020e-02
22313=5.890025e-01
22330=1.957143e-01
22334=3.800625e-06
22338=9.289485e-03
22342=1.803875e-01
22360=2.031994e-02
22361=1.476854e-01
22362=-2.899370e-02
22374=2.752598e-03
22389=6.417973e-01
22417=7.879555e-02
22450=2.332748e-01
22473=1.716656e-04
22477=2.570568e-01
22501=-2.575451e-01
22504=2.353632e-02
22522=-8.340621e-04
22529=-7.528880e-02
22535=1.637505e-02
22585=-4.881753e-02
22601=1.724158e-06
22609=1.056850e-01
22641=-2.351455e-02
22645=8.096523e-02
22663=3.500772e-02
22669=3.686582e-02
22753=-2.728828e-04
22781=8.029533e-02
22792=1.285124e-02
22809=4.652378e-02
22813=6.400017e-02
22825=6.172998e-01
22907=6.044071e-02
22921=1.998028e-03
22950=5.743233e-02
22951=1.725529e-02
22952=4.663148e-04
22953=1.542499e-02
22954=-2.107954e-02
22955=7.866651e-03
22956=2.799410e-02
22958=7.934369e-05
22960=6.742785e-02
22961=6.756722e-02
22963=5.213106e-02
22965=-8.421728e-04
22966=-1.731439e-01
22969=-1.395586e-02
22971=8.245232e-03
22973=1.031930e-01
22975=-1.745171e-02
22977=1.067476e-01
22978=-7.901845e-01
23005=9.273501e-02
23008=5.053348e-02
23014=2.199075e-02
23015=-5.046907e-03
23033=3.482751e-01
23037=3.713811e-02
23061=1.643725e-01
23062=-5.786752e-02
23064=1.745203e-02
23098=2.365362e-03
23117=2.099819e-01
23118=3.763988e-02
23145=3.012394e-01
23148=2.580256e-02
23173=1.723500e-01
23176=9.350892e-03
23201=1.532960e-01
23205=3.742717e-02
23257=6.573353e-02
23278=3.076043e-02
23285=2.525143e-01
23341=8.584176e-02
23369=1.113759e-01
23397=2.184400e-02
23509=2.243431e-02
23537=7.688824e-02
23565=3.492733e-02
23593=6.095639e-02
23621=2.166862e-01
23649=3.554434e-02
23663=5.556385e-02
23706=-8.927827e-02
23707=3.181990e-02
23708=-3.968723e-01
23709=3.467627e-02
23711=3.099450e-02
23714=2.691203e-05
23716=2.720306e-01
23719=1.338453e-01
23727=-1.063921e-02
23731=7.118710e-03
23733=-2.818426e-03
23761=1.948989e-02
23770=2.155060e-01
23788=3.196095e-04
23789=-1.392554e-02
23790=3.362233e-04
23792=4.508695e-03
23817=6.215158e-02
23846=5.093990e-02
23873=-1.426974e-02
23957=3.096457e-02
24013=2.114219e-01
24041=2.397623e-02
24097=1.976060e-01
24301=1.404403e-01
24321=-5.766368e-04
24433=5.329203e-02
24462=5.743233e-02
24463=1.725529e-02
24464=4.663148e-04
24465=1.542499e-02
24466=-2.107954e-02
24467=7.866651e-03
24468=2.799410e-02
24470=7.934369e-05
24472=6.742785e-02
24473=6.756722e-02
24475=5.213106e-02
24477=-8.421728e-04
24478=-1.731439e-01
24481=-1.395586e-02
24483=8.245232e-03
24485=1.031930e-01
24487=-1.745171e-02
24489=1.067476e-01
24490=-7.901845e-01
24517=9.273501e-02
24520=5.053348e-02
24526=2.199075e-02
24527=-5.046907e-03
24545=3.482751e-01
24549=3.713811e-02
24573=1.643725e-01
24574=-5.786752e-02
24576=1.745203e-02
24610=2.365362e-03
24629=2.099819e-01
24630=3.763988e-02
24657=3.012394e-01
24660=2.580256e-02
24685=1.723500e-01
24688=9.350892e-03
24713=1.532960e-01
24717=3.742717e-02
24769=6.573353e-02
24790=3.076043e-02
24797=2.525143e-01
24853=8.584176e-02
24881=1.113759e-01
24909=2.184400e-02
25021=2.243431e-02
25049=7.688824e-02
25077=3.492733e-02
25105=6.095639e-02
25133=2.166862e-01
25161=3.554434e-02
25175=5.556385e-02
25218=1.859041e-01
25219=2.253235e-03
25220=1.086808e-01
25221=-1.290393e-01
25223=5.711023e-03
25225=-2.338842e-01
25229=-2.467975e-01
25231=-1.139601e-03
25234=9.029594e-02
25239=2.727374e-02
25241=3.004309e-03
25245=1.072983e+00
25246=-2.300228e-02
25273=5.310298e-01
25277=-8.486444e-02
25301=5.054675e-01
25329=4.067916e-03
25384=1.571360e-04
25385=4.424487e-01
25415=2.789673e-02
25693=8.141211e-02
25833=4.249731e-02
25889=1.266912e-01
25974=7.754433e-02
25975=1.248799e-01
25976=-2.410136e-02
25977=1.103972e-01
25978=1.551761e-02
25979=3.151221e-03
25980=-1.321157e-01
25981=-1.499603e-02
25982=2.305023e-01
25984=1.629269e-01
25985=2.619673e-01
25987=1.325357e-01
25989=4.433587e-02
25992=-7.608137e-02
25993=1.896511e-02
25994=-7.206575e-02
25995=2.095055e-01
25997=4.714266e-05
25999=2.977539e-02
26001=1.988115e-01
26002=3.487313e-01
26004=4.481782e-03
26011=-4.164036e-02
26029=1.085402e-01
26030=4.708244e-04
26031=3.560256e-02
26032=-1.912163e-01
26033=7.464581e-02
26035=6.739579e-02
26036=-1.440262e-02
26038=1.100474e-02
26039=7.660212e-03
26056=1.211913e-02
26057=1.819320e-01
26058=8.202175e-02
26068=-1.367725e-06
26085=2.008584e-01
26086=1.612789e-03
26092=2.011584e-01
26093=8.637737e-05
26110=9.955158e-02
26113=1.385444e-01
26114=3.520907e-06
26122=8.051936e-02
26133=3.373318e-02
26141=3.211689e-01
26142=3.252895e-04
26146=-3.362482e-02
26148=8.903801e-04
26196=4.118552e-03
26197=1.020453e-01
26198=1.384396e-01
26218=2.085999e-02
26225=3.557029e-01
26230=1.564150e-03
26254=6.422609e-01
26274=5.352115e-06
26275=6.150033e-02
26281=-1.269695e-05
26282=1.295154e-01
26308=1.192411e-01
26309=3.070605e-01
26360=1.209929e-02
26362=-9.204167e-02
26365=1.130702e-01
26389=2.864924e-02
26421=2.312012e-01
26425=1.230416e-02
26449=1.853398e-01
26506=6.231228e-05
26533=1.486451e-01
26578=-1.096254e-03
26589=5.755912e-01
26593=4.373833e-02
26605=9.910431e-02
26606=8.659587e-02
26645=2.825162e-01
26673=1.900096e-01
26687=3.927238e-02
26701=5.030728e-01
26730=1.036988e-02
26731=-2.832782e-02
26732=7.762834e-02
26733=5.118320e-04
26735=4.395412e-02
26743=7.320411e-02
26746=5.135837e-02
26753=3.800955e-02
26756=8.445406e-04
26757=1.861609e-01
26785=-1.050779e-03
26786=1.465300e-01
26813=5.438168e-02
26816=1.836290e-03
26841=2.576966e-02
26897=4.446192e-03
26952=2.984484e-02
27121=4.878763e-01
27205=7.193292e-02
27401=2.924840e-02
27459=3.028104e-01
27486=1.246247e-01
27487=1.664109e-02
27488=5.342231e-02
27491=-6.147959e-03
27509=3.751563e-02
27513=2.531452e-01
27514=-3.315716e-04
27541=4.187560e-02
27569=2.619108e-01
27597=3.225187e-03
27683=2.751748e-02
27877=1.080866e-02
28101=4.465554e-02
28157=1.878538e-01
28242=2.208583e-03
28244=5.635977e-02
28245=4.125863e-03
28263=2.659087e-03
28265=4.300031e-02
28269=1.074058e-01
28297=6.835446e-05
28325=1.219422e-02
28353=2.039338e-02
28464=3.124570e-02
28857=1.275493e-02
28913=3.576343e-02
28998=8.334664e-02
28999=1.453814e-01
29000=2.087880e-01
29001=5.467300e-02
29002=-2.902688e-04
29003=2.608204e-01
29004=1.659214e-01
29005=1.629663e-01
29006=-1.044081e-02
29007=-7.564237e-01
29008=9.270713e-02
29009=1.197590e-01
29010=1.237080e-01
29011=1.066687e-01
29012=4.329171e-02
29013=1.042214e-01
29014=1.766388e-01
29015=1.164575e-02
29017=8.878195e-02
29019=1.041036e-01
29020=3.024845e-02
29021=-1.705852e-02
29022=4.098877e-01
29023=5.519531e-02
29025=3.608084e-01
29026=9.616656e-02
29027=-2.719482e-01
29028=-7.940102e-03
29029=3.045799e-04
29035=-1.363756e-01
29036=-8.840771e-03
29052=-2.959640e-01
29053=4.155641e-01
29054=8.983899e-03
29055=2.680177e-02
29056=-6.665902e-02
29057=1.088586e-01
29058=-8.344728e-02
29059=7.167837e-02
29060=-7.600479e-02
29062=-2.037662e-02
29063=-6.226550e-04
29065=5.497272e-04
29066=5.715060e-02
29071=-2.103529e-01
29074=7.636003e-03
29079=-6.096268e-02
29080=1.126426e-03
29081=4.464692e-01
29082=5.040829e-02
29084=3.822680e-03
29085=6.736316e-02
29092=-5.294531e-02
29107=-1.669938e-01
29109=5.003504e-01
29110=-1.339639e-03
29111=-1.650272e-01
29112=8.885223e-02
29115=1.129350e-01
29116=2.458287e-02
29117=-9.014051e-03
29118=-1.423408e-04
29137=5.209533e-01
29157=7.733063e-02
29161=-6.625362e-02
29163=-2.681941e-01
29164=1.342964e-01
29165=4.997141e-01
29166=2.209938e-01
29168=-5.579657e-02
29169=-8.268643e-03
29170=-8.241803e-02
29193=9.458120e-01
29195=1.675211e-02
29196=-7.096731e-02
29215=-3.154929e-02
29221=5.054146e-01
29244=-5.531141e-03
29245=1.226159e-01
29247=-3.503843e-02
29249=3.980477e-01
29252=-1.380079e-01
29296=-6.301288e-02
29299=-9.470068e-03
29305=3.736940e-01
29306=1.441648e-01
29326=2.584524e-02
29330=-1.827280e-02
29331=3.514304e-02
29332=5.305979e-02
29333=3.508457e-01
29335=-1.515379e-03
29339=2.881370e-02
29361=1.539956e-01
29379=-2.817595e-02
29380=-1.304392e-04
29386=-1.027331e-01
29389=6.142997e-01
29394=4.670061e-02
29413=4.330157e-02
29414=5.714591e-03
29417=3.613124e-02
29436=3.839157e-04
29445=3.398193e-01
29449=7.513539e-03
29473=4.058122e-01
29501=2.986437e-01
29529=1.757049e-01
29557=3.122586e-01
29585=9.440052e-02
29596=1.412288e-02
29602=-3.619582e-03
29613=2.992071e-01
29617=4.980309e-02
29629=8.602630e-02
29630=8.374583e-02
29641=1.762244e-01
29667=5.768032e-03
29669=5.426441e-01
29697=4.961551e-01
29711=5.102556e-02
29725=5.298515e-01
29754=2.295282e-02
29755=2.448617e-01
29756=7.887288e-03
29758=-3.052097e-02
29759=-1.559009e-02
29760=2.561869e-02
29761=1.612144e-01
29762=2.618396e-02
29763=6.293696e-02
29764=1.193247e-01
29765=1.276291e-01
29766=-8.463521e-04
29767=1.234592e-01
29768=1.511483e-01
29769=4.254224e-02
29770=1.068168e-01
29771=9.747480e-03
29772=3.122328e-02
29773=1.137626e-01
29775=2.518776e-02
29776=1.086993e-01
29777=-5.191741e-02
29778=1.105271e-01
29779=1.611200e-03
29780=-1.584542e-01
29781=3.658423e-01
29782=1.026311e-01
29783=-2.977012e-01
29784=-9.986495e-03
29785=3.667748e-02
29791=-1.520924e-01
29792=-1.461669e-01
29808=-3.032150e-01
29809=4.793471e-01
29810=1.413477e-02
29811=2.915125e-02
29812=-8.635063e-02
29813=1.177059e-01
29814=-8.920516e-02
29815=7.150230e-02
29816=-1.448947e-01
29818=4.327190e-05
29819=-2.122882e-03
29820=1.692392e-02
29822=6.377252e-02
29830=6.360714e-03
29836=-7.651140e-01
29837=4.909554e-01
29838=-1.074232e+00
29839=-2.514616e-01
29841=4.493932e-03
29863=-1.906009e-01
29865=3.132645e-01
29866=-3.152827e-04
29867=-1.229362e-01
29868=-7.084462e-04
29869=-1.623282e-02
29871=4.512006e-02
29872=6.470425e-02
29873=1.261028e-03
29874=-6.764528e-03
29889=-5.529476e-02
29890=7.110099e-02
29892=-5.471603e-02
29893=9.222465e-01
29898=1.083301e-01
29899=-1.797532e-01
29908=-1.541432e-01
29911=6.695851e-02
29913=4.460181e-02
29917=-6.531020e-02
29921=4.395895e-01
29922=2.214891e-01
29924=-5.594265e-02
29925=5.897294e-02
29926=-8.683620e-02
29947=4.263418e-02
29949=4.206529e-01
29952=1.069179e-01
29977=5.806723e-01
29978=1.331550e-01
29981=-2.361770e-02
30000=-5.902263e-03
30001=7.045590e-02
30003=-4.144437e-02
30005=3.951739e-01
30008=-1.458082e-01
30033=8.361580e-02
30034=2.498461e-05
30037=2.076618e-02
30042=1.000820e-01
30052=-9.103596e-02
30055=5.903742e-02
30061=3.751439e-01
30062=1.100861e-01
30082=3.380437e-02
30086=-4.151672e-03
30087=4.237159e-02
30088=5.372808e-02
30089=2.819209e-01
30091=-5.340472e-03
30095=2.899699e-02
30117=1.345526e-01
30135=-3.258485e-02
30136=-1.106153e-02
30145=5.784999e-01
30173=1.695193e-01
30190=-4.600659e-02
30201=3.326547e-01
30205=4.761249e-03
30229=2.855225e-01
30257=2.527531e-01
30285=1.668113e-01
30298=-1.003944e-01
30306=9.308091e-02
30313=6.931060e-01
30341=8.516290e-02
30352=7.434319e-03
30358=-5.725559e-03
30369=2.879420e-01
30373=5.040663e-02
30385=8.100323e-02
30386=8.681984e-02
30397=1.784350e-01
30423=4.318959e-03
30425=4.823757e-01
30453=4.979780e-01
30467=4.268814e-02
30481=3.941811e-01
30483=8.126143e-02
30510=-3.221198e-01
30511=-1.783344e-01
30512=-5.743959e-03
30513=-3.030670e-02
30515=1.721772e-01
30518=-7.928580e-02
30519=2.358831e-03
30520=9.257398e-02
30521=6.874743e-01
30522=1.177954e-01
30523=7.610274e-02
30524=1.154135e-02
30525=-1.168258e-02
30528=1.390283e-01
30529=2.540103e-04
30531=4.088240e-02
30535=1.626635e-02
30537=5.211546e-02
30538=6.284329e-01
30541=6.289495e-02
30565=-1.064728e+00
30566=8.900100e-02
30567=1.794960e-01
30568=-1.606315e-02
30569=8.802468e-02
30574=2.565058e-01
30575=1.023889e-01
30576=7.438261e-02
30577=7.482691e-02
30578=5.249633e-02
30593=4.135573e-02
30597=2.339988e-01
30601=1.061224e-02
30621=-3.813497e-04
30628=8.530802e-02
30629=6.023282e-01
30650=1.826540e-02
30654=3.582833e-02
30655=-1.395839e-01
30658=4.952155e-01
30676=1.782219e-02
30677=3.666867e-01
30690=2.523474e-03
30705=2.713752e-01
30733=7.850687e-02
30766=2.345950e-01
30790=-4.853096e-02
30793=2.600348e-01
30817=-2.572500e-01
30820=2.503949e-02
30845=-7.724014e-02
30851=1.639793e-02
30901=-7.151092e-02
30925=1.707134e-01
30957=-2.752237e-02
30961=7.776951e-02
30979=2.904731e-02
