#mdl#2#12145
#rdr#45/21/0
1:*,
18:u:Tok-1 X=%x[ 0,0],
18:u:tok-1 X=%x[ 0,1],
18:u:tok-1LL=%X[-2,0],
18:u:tok-1 L=%X[-1,0],
18:u:tok-1 R=%X[ 1,0],
18:u:tok-1RR=%X[ 2,0],
27:u:tok-2 L=%X[-1,0]/%X[ 0,0],
27:u:tok-2 R=%X[ 0,0]/%X[ 1,0],
18:*:Fst-1 X=%x[ 0,2],
18:*:Fst-1 R=%x[ 1,2],
18:*:Lst-1 L=%x[-1,3],
18:*:Lst-1 X=%x[ 0,3],
18:*:Pre-1 X=%x[ 0,4],
18:*:Pre-2 X=%x[ 0,5],
18:*:Pre-3 X=%x[ 0,6],
18:*:Pre-4 X=%x[ 0,7],
18:*:Suf-1 L=%x[-1,8],
18:*:Suf-1 X=%x[ 0,8],
18:*:Suf-2 L=%x[-1,9],
18:*:Suf-2 X=%x[ 0,9],
19:*:Suf-3 X=%x[ 0,10],
19:*:Suf-4 X=%x[ 0,11],
27:*:Fst-2 X=%x[ 0,2]/%x[ 0,4],
27:*:Lst-2 X=%x[ 0,3]/%x[ 0,8],
19:*:Cap-1 L=%x[-1,12],
19:*:Cap-1 X=%x[ 0,12],
19:*:Cap-1 R=%x[ 1,12],
29:*:Cap-2 L=%X[-1,12]/%X[ 0,12],
29:*:Cap-2 R=%X[ 0,12]/%X[ 1,12],
19:*:Num-1 L=%x[-1,13],
19:*:Num-1 X=%x[ 0,13],
19:*:Num-1 R=%x[ 1,13],
19:u:Nme-1 X=%x[ 0,14],
19:u:Loc-1 X=%x[ 0,15],
19:u:Pub-1 X=%x[ 0,16],
19:u:Jnl-1 X=%x[ 0,17],
19:*:Key-1 L=%x[-1,18],
19:*:Key-1 X=%x[ 0,18],
19:*:Key-1 R=%x[ 1,18],
19:*:Pos-1 X=%x[ 0,19],
19:*:Pct-1 L=%x[-1,20],
19:*:Pct-1 X=%x[ 0,20],
19:*:Pct-1 R=%x[ 1,20],
19:u:Loc-1 X=%x[ 0,21],
#qrk#23
6:author,
5:title,
6:editor,
15:container-title,
4:date,
7:journal,
6:volume,
5:genre,
9:publisher,
5:pages,
8:location,
3:url,
4:note,
7:edition,
6:source,
10:translator,
4:isbn,
3:doi,
8:accessed,
8:director,
6:medium,
8:producer,
15:citation-number,
#qrk#2825
1:*,
12:u:Tok-1 X=A.,
11:u:tok-1 X=a,
14:u:tok-1LL=_x-2,
14:u:tok-1 L=_x-1,
12:*:Fst-1 X=Lu,
12:*:Fst-1 R=Lu,
14:*:Lst-1 L=_x-1,
11:*:Lst-1 X=P,
11:*:Pre-1 X=A,
12:*:Pre-2 X=A.,
12:*:Pre-3 X=A.,
12:*:Pre-4 X=A.,
14:*:Suf-1 L=_x-1,
11:*:Suf-1 X=.,
14:*:Suf-2 L=_x-1,
12:*:Suf-2 X=A.,
12:*:Suf-3 X=A.,
12:*:Suf-4 X=A.,
14:*:Fst-2 X=Lu/A,
13:*:Lst-2 X=P/.,
14:*:Cap-1 L=_x-1,
16:*:Cap-1 X=single,
17:*:Cap-1 R=initial,
21:*:Cap-2 L=_x-1/single,
24:*:Cap-2 R=single/initial,
14:*:Num-1 L=_x-1,
14:*:Num-1 X=none,
14:*:Num-1 R=none,
11:u:Nme-1 X=F,
11:u:Loc-1 X=F,
11:u:Pub-1 X=F,
11:u:Jnl-1 X=F,
14:*:Key-1 L=_x-1,
14:*:Key-1 X=none,
14:*:Key-1 R=none,
11:*:Pos-1 X=0,
14:*:Pct-1 L=_x-1,
18:*:Pct-1 X=terminal,
18:*:Pct-1 R=internal,
14:u:tok-1LL=_x-1,
12:u:tok-1 L=a.,
12:u:tok-1 R=r.,
11:*:Lst-1 L=P,
11:*:Pre-1 X=C,
12:*:Pre-2 X=Ca,
11:*:Suf-1 L=.,
11:*:Suf-1 X=,,
12:*:Suf-2 L=A.,
14:*:Fst-2 X=Lu/C,
13:*:Lst-2 X=P/,,
16:*:Cap-1 L=single,
17:*:Cap-1 X=initial,
16:*:Cap-1 R=single,
24:*:Cap-2 L=single/initial,
24:*:Cap-2 R=initial/single,
14:*:Num-1 L=none,
14:*:Key-1 L=none,
11:*:Pos-1 X=3,
18:*:Pct-1 L=terminal,
18:*:Pct-1 X=internal,
18:*:Pct-1 R=terminal,
12:u:Tok-1 X=R.,
11:u:tok-1 X=r,
13:u:tok-1RR=and,
11:*:Pre-1 X=R,
12:*:Pre-2 X=R.,
12:*:Pre-3 X=R.,
12:*:Pre-4 X=R.,
11:*:Suf-1 L=,,
12:*:Suf-2 X=R.,
12:*:Suf-3 X=R.,
12:*:Suf-4 X=R.,
14:*:Fst-2 X=Lu/R,
17:*:Cap-1 L=initial,
24:*:Cap-2 L=initial/single,
11:*:Pos-1 X=6,
18:*:Pct-1 L=internal,
13:u:tok-1 R=and,
12:*:Fst-1 R=Ll,
11:*:Pre-1 X=K,
12:*:Suf-2 L=R.,
12:*:Suf-2 X=r,,
13:*:Suf-3 X=er,,
14:*:Fst-2 X=Lu/K,
15:*:Cap-1 R=lower,
23:*:Cap-2 R=initial/lower,
11:u:Nme-1 X=T,
11:*:Pos-1 X=9,
14:*:Pct-1 R=none,
13:u:Tok-1 X=and,
13:u:tok-1 X=and,
12:u:tok-1LL=r.,
12:*:Fst-1 X=Ll,
12:*:Lst-1 X=Ll,
11:*:Pre-1 X=a,
12:*:Pre-2 X=an,
13:*:Pre-3 X=and,
13:*:Pre-4 X=and,
11:*:Suf-1 X=d,
12:*:Suf-2 L=r,,
12:*:Suf-2 X=nd,
13:*:Suf-3 X=and,
13:*:Suf-4 X=and,
14:*:Fst-2 X=Ll/a,
14:*:Lst-2 X=Ll/d,
15:*:Cap-1 X=lower,
14:*:Cap-1 R=caps,
23:*:Cap-2 L=initial/lower,
20:*:Cap-2 R=lower/caps,
11:u:Pub-1 X=T,
11:u:Jnl-1 X=T,
12:*:Pos-1 X=13,
14:*:Pct-1 X=none,
13:u:tok-1 L=and,
12:*:Lst-1 L=Ll,
11:*:Pre-1 X=W,
12:*:Pre-2 X=W.,
11:*:Suf-1 L=d,
12:*:Suf-2 L=nd,
14:*:Fst-2 X=Lu/W,
15:*:Cap-1 L=lower,
14:*:Cap-1 X=caps,
20:*:Cap-2 L=lower/caps,
20:*:Cap-2 R=caps/lower,
12:*:Pos-1 X=16,
14:*:Pct-1 L=none,
13:u:tok-1LL=and,
11:*:Pre-1 X=d,
12:*:Pre-2 X=de,
11:*:Suf-1 X=e,
14:*:Fst-2 X=Ll/d,
14:*:Lst-2 X=Ll/e,
14:*:Cap-1 L=caps,
23:*:Cap-2 R=lower/initial,
12:u:tok-1 L=de,
12:*:Pre-2 X=Ro,
11:*:Suf-1 L=e,
12:*:Suf-2 L=de,
12:*:Suf-2 X=r.,
13:*:Suf-3 X=er.,
14:*:Suf-4 X=ver.,
23:*:Cap-2 L=lower/initial,
25:*:Cap-2 R=initial/initial,
12:*:Pos-1 X=22,
11:*:Pre-1 X=F,
11:*:Suf-1 X=g,
12:*:Suf-2 L=r.,
12:*:Suf-2 X=ng,
13:*:Suf-3 X=ing,
14:*:Fst-2 X=Lu/F,
14:*:Lst-2 X=Ll/g,
25:*:Cap-2 L=initial/initial,
12:*:Pos-1 X=25,
15:*:Pct-1 R=other,
11:*:Pre-1 X=D,
12:*:Pre-2 X=Di,
11:*:Suf-1 L=g,
11:*:Suf-1 X=s,
12:*:Suf-2 L=ng,
14:*:Fst-2 X=Lu/D,
14:*:Lst-2 X=Ll/s,
12:*:Pos-1 X=28,
15:*:Pct-1 X=other,
11:*:Suf-1 L=s,
11:*:Suf-1 X=t,
12:*:Suf-2 L='s,
14:*:Lst-2 X=Ll/t,
21:*:Cap-2 R=lower/lower,
12:*:Pos-1 X=31,
15:*:Pct-1 L=other,
11:*:Pre-1 X=s,
11:*:Suf-1 L=t,
11:*:Suf-1 X=y,
12:*:Suf-2 L=nt,
14:*:Fst-2 X=Ll/s,
14:*:Lst-2 X=Ll/y,
21:*:Cap-2 L=lower/lower,
11:*:Pre-1 X=w,
11:*:Suf-1 L=y,
11:*:Suf-1 X=n,
12:*:Suf-2 X=in,
14:*:Fst-2 X=Ll/w,
14:*:Lst-2 X=Ll/n,
12:*:Pos-1 X=38,
12:u:tok-1RR=in,
11:*:Pre-1 X=S,
12:*:Pre-2 X=St,
13:*:Pre-3 X=Sta,
11:*:Suf-1 L=n,
12:*:Suf-2 L=in,
14:*:Fst-2 X=Lu/S,
12:*:Pos-1 X=41,
12:u:tok-1 R=in,
11:*:Pre-1 X=f,
12:*:Pre-2 X=fo,
13:*:Pre-3 X=for,
14:*:Fst-2 X=Ll/f,
12:*:Key-1 R=in,
12:*:Pos-1 X=44,
12:u:Tok-1 X=In,
12:u:tok-1 X=in,
12:u:tok-1 R=c.,
11:*:Pre-1 X=I,
12:*:Pre-2 X=In,
12:*:Pre-3 X=In,
12:*:Pre-4 X=In,
12:*:Suf-2 L=m.,
12:*:Suf-2 X=In,
12:*:Suf-3 X=In,
12:*:Suf-4 X=In,
14:*:Fst-2 X=Lu/I,
12:*:Key-1 X=in,
12:*:Pos-1 X=47,
11:u:tok-1 X=c,
12:u:tok-1 L=in,
12:*:Pre-2 X=C.,
12:*:Suf-2 L=In,
23:*:Cap-2 R=single/single,
12:*:Key-1 L=in,
12:*:Pos-1 X=50,
12:u:tok-1LL=in,
11:*:Pre-1 X=B,
12:*:Pre-2 X=B.,
12:*:Suf-2 L=C.,
14:*:Fst-2 X=Lu/B,
23:*:Cap-2 L=single/single,
12:*:Pos-1 X=53,
12:u:tok-1LL=c.,
12:u:tok-1 L=b.,
11:*:Pre-1 X=J,
12:*:Suf-2 L=B.,
12:*:Suf-2 X=s,,
13:*:Suf-3 X=es,,
14:*:Fst-2 X=Lu/J,
11:u:Loc-1 X=T,
12:*:Pos-1 X=56,
12:*:Suf-2 L=s,,
12:*:Pos-1 X=59,
12:*:Pos-1 X=63,
12:*:Pre-2 X=Sh,
12:*:Pos-1 X=66,
22:*:Cap-2 R=lower/single,
12:*:Pos-1 X=69,
11:*:Pre-1 X=T,
14:*:Fst-2 X=Lu/T,
22:*:Cap-2 L=lower/single,
12:*:Pos-1 X=72,
12:u:tok-1 L=t.,
12:*:Pre-2 X=De,
12:*:Suf-2 L=T.,
16:*:Key-1 R=editor,
12:*:Pos-1 X=75,
11:*:Pre-1 X=e,
12:*:Pre-2 X=ed,
13:*:Pre-3 X=edi,
14:*:Pre-4 X=edit,
14:*:Fst-2 X=Ll/e,
16:*:Key-1 X=editor,
12:*:Pos-1 X=78,
15:u:Tok-1 X=Proc.,
14:u:tok-1 X=proc,
11:*:Fst-1 R=N,
11:*:Pre-1 X=P,
12:*:Pre-2 X=Pr,
13:*:Pre-3 X=Pro,
14:*:Pre-4 X=Proc,
12:*:Suf-2 X=c.,
13:*:Suf-3 X=oc.,
14:*:Suf-4 X=roc.,
14:*:Fst-2 X=Lu/P,
15:*:Cap-1 R=other,
23:*:Cap-2 R=initial/other,
17:*:Num-1 R=ordinal,
16:*:Key-1 L=editor,
12:*:Pos-1 X=81,
15:u:tok-1 L=proc.,
11:*:Fst-1 X=N,
11:*:Pre-1 X=5,
12:*:Suf-2 L=c.,
12:*:Suf-2 X=h.,
13:*:Suf-3 X=th.,
13:*:Fst-2 X=N/5,
15:*:Cap-1 X=other,
23:*:Cap-2 L=initial/other,
20:*:Cap-2 R=other/caps,
17:*:Num-1 X=ordinal,
12:*:Pos-1 X=84,
16:*:Pct-1 R=hyphen,
15:u:tok-1LL=proc.,
12:*:Lst-1 X=Lu,
11:*:Suf-1 X=S,
12:*:Suf-2 L=h.,
14:*:Lst-2 X=Lu/S,
15:*:Cap-1 L=other,
20:*:Cap-2 L=other/caps,
22:*:Cap-2 R=caps/initial,
17:*:Num-1 L=ordinal,
12:*:Pos-1 X=88,
16:*:Pct-1 X=hyphen,
12:*:Lst-1 L=Lu,
12:*:Pre-2 X=Re,
11:*:Suf-1 L=S,
22:*:Cap-2 L=caps/initial,
12:*:Pos-1 X=91,
16:*:Pct-1 L=hyphen,
19:u:Tok-1 X=Workshop,,
18:u:tok-1 X=workshop,
14:u:tok-1RR=_x+1,
12:*:Pre-2 X=Wo,
13:*:Pre-3 X=Wor,
14:*:Pre-4 X=Work,
12:*:Suf-2 X=p,,
13:*:Suf-3 X=op,,
14:*:Suf-4 X=hop,,
14:*:Num-1 R=year,
12:*:Pos-1 X=94,
14:u:tok-1 R=_x+1,
14:u:tok-1RR=_x+2,
14:*:Fst-1 R=_x+1,
11:*:Pre-1 X=1,
12:*:Pre-2 X=19,
13:*:Pre-3 X=199,
14:*:Pre-4 X=1992,
12:*:Suf-2 X=2.,
13:*:Fst-2 X=N/1,
14:*:Cap-1 R=_x+1,
20:*:Cap-2 R=other/_x+1,
14:*:Num-1 X=year,
14:*:Num-1 R=_x+1,
14:*:Key-1 R=_x+1,
12:*:Pos-1 X=97,
14:*:Pct-1 R=_x+1,
12:u:Tok-1 X=M.,
11:u:tok-1 X=m,
11:*:Pre-1 X=M,
12:*:Pre-2 X=M.,
12:*:Pre-3 X=M.,
12:*:Pre-4 X=M.,
12:*:Suf-2 X=M.,
12:*:Suf-3 X=M.,
12:*:Suf-4 X=M.,
14:*:Fst-2 X=Lu/M,
12:u:tok-1 L=m.,
12:u:tok-1 R=h.,
12:*:Suf-2 L=M.,
12:*:Suf-2 X=a,,
11:*:Pos-1 X=5,
12:u:Tok-1 X=H.,
11:u:tok-1 X=h,
12:u:tok-1LL=m.,
11:*:Pre-1 X=H,
12:*:Pre-2 X=H.,
12:*:Pre-3 X=H.,
12:*:Pre-4 X=H.,
12:*:Suf-2 L=a,,
12:*:Suf-2 X=H.,
12:*:Suf-3 X=H.,
12:*:Suf-4 X=H.,
14:*:Fst-2 X=Lu/H,
12:*:Suf-2 L=H.,
12:*:Pos-1 X=14,
12:*:Pos-1 X=18,
12:*:Pos-1 X=23,
12:u:tok-1RR=of,
12:*:Pre-2 X=Mo,
12:*:Suf-2 X=a.,
12:*:Pos-1 X=27,
12:u:tok-1 R=of,
12:*:Pre-2 X=Ap,
13:*:Pre-3 X=App,
14:*:Pre-4 X=Appl,
12:*:Suf-2 L=a.,
12:*:Suf-2 X=on,
13:*:Suf-3 X=ion,
14:*:Suf-4 X=tion,
12:*:Pos-1 X=32,
12:u:Tok-1 X=of,
12:u:tok-1 X=of,
12:u:tok-1RR=to,
11:*:Pre-1 X=o,
12:*:Pre-2 X=of,
12:*:Pre-3 X=of,
12:*:Pre-4 X=of,
11:*:Suf-1 X=f,
12:*:Suf-2 L=on,
12:*:Suf-2 X=of,
12:*:Suf-3 X=of,
12:*:Suf-4 X=of,
14:*:Fst-2 X=Ll/o,
14:*:Lst-2 X=Ll/f,
12:*:Pos-1 X=36,
12:u:tok-1 L=of,
12:u:tok-1 R=to,
11:*:Pre-1 X=h,
11:*:Suf-1 L=f,
11:*:Suf-1 X=h,
12:*:Suf-2 L=of,
14:*:Fst-2 X=Ll/h,
14:*:Lst-2 X=Ll/h,
12:u:Tok-1 X=to,
12:u:tok-1 X=to,
12:u:tok-1LL=of,
11:*:Pre-1 X=t,
12:*:Pre-2 X=to,
12:*:Pre-3 X=to,
12:*:Pre-4 X=to,
11:*:Suf-1 L=h,
11:*:Suf-1 X=o,
12:*:Suf-2 X=to,
12:*:Suf-3 X=to,
12:*:Suf-4 X=to,
14:*:Fst-2 X=Ll/t,
14:*:Lst-2 X=Ll/o,
12:*:Pos-1 X=45,
12:u:tok-1 L=to,
11:*:Suf-1 L=o,
11:*:Suf-1 X=a,
12:*:Suf-2 L=to,
12:*:Suf-2 X=ta,
14:*:Lst-2 X=Ll/a,
12:u:tok-1LL=to,
11:*:Pre-1 X=b,
11:*:Suf-1 L=a,
12:*:Suf-2 L=ta,
12:*:Suf-2 X=se,
14:*:Fst-2 X=Ll/b,
12:*:Pos-1 X=55,
17:u:tok-1 X=machine,
11:*:Pre-1 X=m,
12:*:Suf-2 L=se,
12:*:Suf-2 X=ne,
13:*:Suf-3 X=ine,
14:*:Suf-4 X=hine,
14:*:Fst-2 X=Ll/m,
17:u:tok-1 L=machine,
12:*:Suf-2 L=ne,
12:*:Pos-1 X=64,
13:u:tok-1RR=new,
11:*:Pre-1 X=i,
12:*:Suf-2 X=ts,
14:*:Fst-2 X=Ll/i,
12:*:Pos-1 X=68,
13:u:tok-1 R=new,
12:*:Suf-2 L=ts,
12:*:Suf-2 X=e.,
13:*:Suf-3 X=re.,
12:*:Pos-1 X=73,
13:u:Tok-1 X=New,
13:u:tok-1 X=new,
11:*:Pre-1 X=N,
12:*:Pre-2 X=Ne,
13:*:Pre-3 X=New,
13:*:Pre-4 X=New,
11:*:Suf-1 X=w,
12:*:Suf-2 L=e.,
12:*:Suf-2 X=ew,
13:*:Suf-3 X=New,
13:*:Suf-4 X=New,
14:*:Fst-2 X=Lu/N,
14:*:Lst-2 X=Ll/w,
12:*:Pos-1 X=77,
13:u:tok-1 L=new,
11:*:Pre-1 X=G,
12:*:Pre-2 X=Ge,
11:*:Suf-1 L=w,
12:*:Suf-2 L=ew,
14:*:Fst-2 X=Lu/G,
12:*:Pos-1 X=82,
19:u:tok-1 X=computing,
13:u:tok-1LL=new,
12:*:Pre-2 X=Co,
13:*:Pre-3 X=Com,
14:*:Pre-4 X=Comp,
12:*:Suf-2 X=g,,
13:*:Suf-3 X=ng,,
14:*:Suf-4 X=ing,,
16:*:Num-1 R=volume,
12:*:Pos-1 X=86,
33:*:Pct-1 R=internal-closing-parens,
12:*:Suf-2 L=g,,
12:*:Suf-2 X=),,
21:*:Cap-2 R=other/other,
16:*:Num-1 X=volume,
33:*:Pct-1 X=internal-closing-parens,
13:*:Pre-3 X=198,
12:*:Suf-2 L=),,
12:*:Suf-2 X=3.,
21:*:Cap-2 L=other/other,
16:*:Num-1 L=volume,
12:*:Pos-1 X=95,
33:*:Pct-1 L=internal-closing-parens,
11:*:Suf-1 X=r,
12:*:Suf-2 X=er,
14:*:Lst-2 X=Ll/r,
22:*:Cap-2 L=_x-1/initial,
11:*:Pre-1 X=V,
11:*:Suf-1 L=r,
12:*:Suf-2 L=er,
12:*:Suf-2 X=y.,
14:*:Fst-2 X=Lu/V,
13:*:Pre-3 X=Mod,
12:*:Suf-2 L=y.,
18:u:tok-1 X=language,
12:*:Suf-2 X=ge,
19:u:tok-1 R=technical,
12:*:Suf-2 L=ge,
12:*:Suf-2 X=n.,
13:*:Suf-3 X=on.,
14:*:Suf-4 X=ion.,
16:u:tok-1 R=report,
12:*:Pre-2 X=Te,
13:*:Pre-3 X=Tec,
14:*:Pre-4 X=Tech,
11:*:Suf-1 X=l,
12:*:Suf-2 L=n.,
12:*:Suf-2 X=al,
13:*:Suf-3 X=cal,
14:*:Suf-4 X=ical,
14:*:Lst-2 X=Ll/l,
16:u:Tok-1 X=Report,
16:u:tok-1 X=report,
13:*:Pre-3 X=Rep,
14:*:Pre-4 X=Repo,
11:*:Suf-1 L=l,
12:*:Suf-2 L=al,
12:*:Suf-2 X=rt,
13:*:Suf-3 X=ort,
14:*:Suf-4 X=port,
22:*:Cap-2 R=initial/caps,
16:u:tok-1 L=report,
12:*:Suf-2 L=rt,
22:*:Cap-2 L=initial/caps,
16:u:tok-1LL=report,
12:*:Pre-2 X=Wi,
12:*:Suf-2 X=en,
14:*:Num-1 R=page,
12:*:Suf-2 L=en,
21:*:Cap-2 R=other/lower,
14:*:Num-1 X=page,
11:*:Pre-1 X=v,
14:*:Suf-4 X=sion,
14:*:Fst-2 X=Ll/v,
21:*:Cap-2 L=other/lower,
21:*:Cap-2 R=lower/other,
14:*:Num-1 L=page,
17:*:Num-1 R=numeric,
13:u:tok-1RR=for,
11:*:Pre-1 X=2,
12:*:Suf-2 X=0,,
13:*:Fst-2 X=N/2,
21:*:Cap-2 L=lower/other,
23:*:Cap-2 R=other/initial,
17:*:Num-1 X=numeric,
13:u:tok-1 R=for,
13:*:Pre-3 X=Dep,
12:*:Suf-2 L=0,,
12:*:Suf-2 X=t.,
23:*:Cap-2 L=other/initial,
17:*:Num-1 L=numeric,
13:u:Tok-1 X=for,
13:u:tok-1 X=for,
18:u:tok-1RR=systems,,
13:*:Pre-4 X=for,
12:*:Suf-2 L=t.,
12:*:Suf-2 X=or,
13:*:Suf-3 X=for,
13:*:Suf-4 X=for,
13:u:tok-1 L=for,
13:*:Pre-3 X=Rea,
12:*:Suf-2 L=or,
12:*:Suf-2 X=me,
17:u:tok-1 X=systems,
13:u:tok-1LL=for,
20:u:tok-1RR=university,
12:*:Pre-2 X=Sy,
13:*:Pre-3 X=Sys,
14:*:Pre-4 X=Syst,
12:*:Suf-2 L=me,
19:u:tok-1LL=real-time,
20:u:tok-1 R=university,
20:u:Tok-1 X=University,
20:u:tok-1 X=university,
23:u:tok-2 R=university/of,
11:*:Pre-1 X=U,
12:*:Pre-2 X=Un,
13:*:Pre-3 X=Uni,
14:*:Pre-4 X=Univ,
12:*:Suf-2 X=ty,
13:*:Suf-3 X=ity,
14:*:Suf-4 X=sity,
14:*:Fst-2 X=Lu/U,
20:u:tok-1 L=university,
13:u:tok-1RR=may,
23:u:tok-2 L=university/of,
12:*:Suf-2 L=ty,
20:u:tok-1LL=university,
13:u:tok-1 R=may,
13:u:Tok-1 X=May,
13:u:tok-1 X=may,
15:u:tok-1 R=1993.,
12:*:Pre-2 X=Ma,
13:*:Pre-3 X=May,
13:*:Pre-4 X=May,
12:*:Suf-2 X=ay,
13:*:Suf-3 X=May,
13:*:Suf-4 X=May,
13:u:tok-1 L=may,
14:*:Pre-4 X=1993,
12:*:Suf-2 L=ay,
13:*:Suf-3 X=93.,
14:*:Suf-4 X=993.,
13:*:Pre-3 X=Mar,
14:*:Pre-4 X=Marc,
11:*:Suf-1 X=c,
14:*:Lst-2 X=Ll/c,
11:*:Suf-1 L=c,
11:*:Pos-1 X=4,
11:*:Pos-1 X=8,
12:*:Pre-2 X=Su,
12:*:Suf-2 X=an,
12:*:Pos-1 X=12,
12:*:Pre-2 X=Ho,
12:*:Suf-2 L=an,
12:*:Suf-2 X=st,
13:*:Suf-3 X=ast,
12:*:Suf-2 L=st,
12:*:Suf-2 X=te,
12:*:Suf-2 L=te,
12:*:Suf-2 X=ve,
13:*:Suf-3 X=ive,
11:*:Pre-1 X=p,
12:*:Suf-2 L=ve,
14:*:Fst-2 X=Ll/p,
12:*:Pos-1 X=35,
18:u:tok-1 X=analysis,
21:u:tok-1RR=proceedings,
12:*:Suf-2 X=s.,
21:u:tok-1 R=proceedings,
12:*:Suf-2 L=s.,
21:*:Key-1 R=proceedings,
12:*:Pos-1 X=42,
21:u:tok-1 X=proceedings,
13:u:tok-1RR=the,
12:*:Suf-2 X=gs,
13:*:Suf-3 X=ngs,
14:*:Suf-4 X=ings,
21:*:Key-1 X=proceedings,
12:*:Pos-1 X=46,
13:u:tok-1 R=the,
16:u:tok-2 R=of/the,
12:*:Suf-2 L=gs,
21:*:Key-1 L=proceedings,
13:u:Tok-1 X=the,
13:u:tok-1 X=the,
21:u:tok-1LL=proceedings,
16:u:tok-2 L=of/the,
12:*:Pre-2 X=th,
13:*:Pre-3 X=the,
13:*:Pre-4 X=the,
12:*:Suf-2 X=he,
13:*:Suf-3 X=the,
13:*:Suf-4 X=the,
12:*:Pos-1 X=54,
13:u:tok-1 L=the,
12:*:Suf-2 L=he,
12:*:Suf-2 X=th,
12:*:Pos-1 X=58,
13:u:tok-1LL=the,
12:*:Pre-2 X=An,
12:*:Suf-2 L=th,
12:*:Pos-1 X=62,
13:u:Tok-1 X=ACM,
13:u:tok-1 X=acm,
12:u:tok-1RR=on,
12:*:Pre-2 X=AC,
13:*:Pre-3 X=ACM,
13:*:Pre-4 X=ACM,
11:*:Suf-1 X=M,
12:*:Suf-2 X=CM,
13:*:Suf-3 X=ACM,
13:*:Suf-4 X=ACM,
14:*:Lst-2 X=Lu/M,
12:*:Pos-1 X=65,
19:u:tok-1 X=symposium,
13:u:tok-1 L=acm,
12:u:tok-1 R=on,
13:*:Pre-3 X=Sym,
14:*:Pre-4 X=Symp,
11:*:Suf-1 L=M,
11:*:Suf-1 X=m,
12:*:Suf-2 L=CM,
14:*:Lst-2 X=Ll/m,
12:u:Tok-1 X=on,
12:u:tok-1 X=on,
13:u:tok-1LL=acm,
12:*:Pre-2 X=on,
12:*:Pre-3 X=on,
12:*:Pre-4 X=on,
11:*:Suf-1 L=m,
12:*:Suf-3 X=on,
12:*:Suf-4 X=on,
12:u:tok-1 L=on,
13:*:Pre-3 X=Pri,
14:*:Pre-4 X=Prin,
12:*:Suf-2 X=es,
13:*:Suf-3 X=les,
12:u:tok-1LL=on,
21:u:tok-1 R=programming,
12:*:Suf-2 L=es,
21:u:Tok-1 X=Programming,
21:u:tok-1 X=programming,
14:*:Pre-4 X=Prog,
14:*:Suf-4 X=ming,
12:*:Pos-1 X=85,
21:u:tok-1 L=programming,
15:u:tok-1RR=1997.,
11:*:Pre-1 X=L,
12:*:Pre-2 X=La,
14:*:Suf-4 X=ges,,
14:*:Fst-2 X=Lu/L,
21:u:tok-1LL=programming,
12:*:Pre-2 X=Ja,
12:*:Suf-2 X=ry,
12:*:Pos-1 X=92,
14:*:Pre-4 X=1997,
12:*:Suf-2 L=ry,
12:*:Suf-2 X=7.,
13:*:Suf-3 X=97.,
14:*:Suf-4 X=997.,
12:*:Pos-1 X=96,
11:u:tok-1 X=w,
11:*:Pos-1 X=7,
12:*:Pos-1 X=11,
11:u:tok-1 X=g,
12:u:tok-1 L=g.,
12:*:Suf-2 L=G.,
12:u:tok-1LL=g.,
12:*:Pos-1 X=21,
12:*:Pos-1 X=29,
11:u:tok-1RR=a,
11:u:tok-1 R=a,
11:*:Suf-1 X=:,
12:*:Suf-2 X=s:,
13:*:Lst-2 X=P/:,
11:u:Tok-1 X=A,
11:*:Pre-2 X=A,
11:*:Pre-3 X=A,
11:*:Pre-4 X=A,
11:*:Suf-1 L=:,
11:*:Suf-1 X=A,
12:*:Suf-2 L=s:,
11:*:Suf-2 X=A,
11:*:Suf-3 X=A,
11:*:Suf-4 X=A,
14:*:Lst-2 X=Lu/A,
22:*:Cap-2 R=single/lower,
12:*:Pos-1 X=39,
11:u:tok-1 L=a,
12:*:Pre-2 X=pr,
11:*:Suf-1 L=A,
11:*:Suf-2 L=A,
12:*:Pos-1 X=43,
11:u:tok-1LL=a,
18:u:tok-1RR=computer,
13:*:Suf-3 X=ter,
18:u:tok-1 R=computer,
18:u:Tok-1 X=Computer,
18:u:tok-1 X=computer,
14:*:Suf-4 X=uter,
12:*:Pos-1 X=57,
18:u:tok-1 L=computer,
12:*:Pos-1 X=61,
18:u:tok-1LL=computer,
12:*:Suf-2 L=ds,
13:*:Suf-3 X=ial,
14:*:Suf-4 X=rial,
12:*:Pos-1 X=71,
12:*:Pos-1 X=79,
21:u:tok-1 R=university,,
12:*:Suf-2 X=rs,
13:*:Suf-3 X=ers,
21:u:Tok-1 X=University,,
12:*:Suf-2 L=rs,
12:*:Suf-2 X=y,,
13:*:Suf-3 X=ty,,
14:*:Suf-4 X=ity,,
12:*:Pos-1 X=89,
12:*:Pre-2 X=Se,
13:*:Pre-3 X=Sep,
14:*:Pre-4 X=Sept,
12:*:Suf-2 L=y,,
13:*:Suf-3 X=ber,
12:*:Pos-1 X=93,
14:*:Pre-4 X=1990,
11:*:Pre-1 X=E,
12:*:Pre-2 X=En,
14:*:Fst-2 X=Lu/E,
12:*:Pre-2 X=Im,
13:*:Pre-3 X=Imp,
12:*:Suf-2 X=cy,
13:*:Suf-3 X=ncy,
12:*:Suf-2 L=cy,
12:*:Suf-2 X=ns,
13:*:Suf-3 X=ons,
14:*:Suf-4 X=ions,
12:u:Tok-1 X=in,
16:u:tok-2 R=in/the,
12:*:Pre-2 X=in,
12:*:Pre-3 X=in,
12:*:Pre-4 X=in,
12:*:Suf-2 L=ns,
12:*:Suf-3 X=in,
12:*:Suf-4 X=in,
16:u:tok-2 L=in/the,
12:*:Pre-2 X=di,
13:*:Suf-3 X=ns.,
14:*:Suf-4 X=ons.,
20:u:tok-1 L=equations.,
20:*:Key-1 R=translator,
12:*:Pre-2 X=Tr,
13:*:Pre-3 X=Tra,
14:*:Pre-4 X=Tran,
20:*:Key-1 X=translator,
13:*:Pre-3 X=Mat,
14:*:Pre-4 X=Math,
20:*:Key-1 L=translator,
12:*:Pre-2 X=So,
13:*:Pre-3 X=Sof,
14:*:Pre-4 X=Soft,
12:*:Suf-2 X=.,,
11:*:Pre-1 X=4,
12:*:Suf-2 L=.,,
13:*:Fst-2 X=N/4,
12:*:Suf-2 X=6,,
14:u:tok-1 X=june,
12:*:Pre-2 X=Ju,
13:*:Pre-3 X=Jun,
14:*:Pre-4 X=June,
12:*:Suf-2 X=8.,
11:u:tok-1 X=j,
12:u:tok-1RR=e.,
12:*:Pre-2 X=J.,
12:u:tok-1 R=e.,
12:*:Suf-2 X=e,,
12:u:Tok-1 X=E.,
11:u:tok-1 X=e,
11:u:tok-1RR=&,
12:*:Pre-2 X=E.,
12:*:Pre-3 X=E.,
12:*:Pre-4 X=E.,
12:*:Suf-2 L=e,,
12:*:Suf-2 X=E.,
12:*:Suf-3 X=E.,
12:*:Suf-4 X=E.,
12:u:tok-1 L=e.,
11:*:Fst-1 R=P,
12:*:Suf-2 L=E.,
22:*:Cap-2 R=single/other,
11:u:Tok-1 X=&,
15:u:tok-1 X=BLANK,
12:u:tok-1LL=e.,
11:*:Fst-1 X=P,
11:*:Pre-1 X=&,
11:*:Pre-2 X=&,
11:*:Pre-3 X=&,
11:*:Pre-4 X=&,
11:*:Suf-1 X=&,
11:*:Suf-2 X=&,
11:*:Suf-3 X=&,
11:*:Suf-4 X=&,
13:*:Fst-2 X=P/&,
13:*:Lst-2 X=P/&,
22:*:Cap-2 L=single/other,
11:*:Suf-1 L=&,
11:*:Suf-2 L=&,
12:*:Pre-2 X=D.,
12:*:Suf-2 X=D.,
12:*:Pos-1 X=24,
12:*:Fst-1 R=Ps,
12:*:Suf-2 L=D.,
12:*:Pos-1 X=26,
25:*:Pct-1 R=terminal-parens,
12:*:Fst-1 X=Ps,
11:*:Pre-1 X=(,
12:*:Pre-2 X=(1,
13:*:Pre-3 X=(19,
14:*:Pre-4 X=(199,
12:*:Suf-2 X=).,
14:*:Fst-2 X=Ps/(,
22:*:Cap-2 R=other/single,
25:*:Pct-1 X=terminal-parens,
12:*:Suf-2 L=).,
22:*:Cap-2 L=other/single,
25:*:Pct-1 L=terminal-parens,
12:*:Suf-2 X=ic,
18:u:tok-1 X=approach,
12:*:Pre-2 X=ap,
13:*:Pre-3 X=app,
12:*:Suf-2 L=ic,
11:*:Pre-1 X=c,
12:*:Pre-2 X=co,
14:*:Suf-4 X=ting,
14:*:Fst-2 X=Ll/c,
23:u:tok-1RR=international,
23:u:tok-1 R=international,
23:u:Tok-1 X=International,
23:u:tok-1 X=international,
13:*:Pre-3 X=Int,
14:*:Pre-4 X=Inte,
13:*:Suf-3 X=nal,
14:*:Suf-4 X=onal,
23:u:tok-1 L=international,
12:*:Pos-1 X=74,
23:u:tok-1LL=international,
13:*:Pre-3 X=Con,
14:*:Pre-4 X=Conf,
12:*:Suf-2 X=ce,
13:*:Suf-3 X=nce,
14:*:Suf-4 X=ence,
12:*:Pos-1 X=76,
12:*:Suf-2 L=ce,
20:u:Tok-1 X=Artificial,
20:u:tok-1 X=artificial,
13:u:tok-1RR=pp.,
12:*:Pre-2 X=Ar,
13:*:Pre-3 X=Art,
14:*:Pre-4 X=Arti,
14:*:Suf-4 X=cial,
22:u:tok-1 X=intelligence,
20:u:tok-1 L=artificial,
13:u:tok-1 R=pp.,
13:*:Suf-3 X=ce,,
14:*:Suf-4 X=nce,,
12:u:tok-1 X=pp,
20:u:tok-1LL=artificial,
12:*:Pre-2 X=pp,
13:*:Pre-3 X=pp.,
13:*:Pre-4 X=pp.,
12:*:Suf-2 X=p.,
13:*:Suf-3 X=pp.,
13:*:Suf-4 X=pp.,
11:*:Lst-1 X=N,
11:*:Pre-1 X=6,
11:*:Suf-1 X=8,
12:*:Suf-2 L=p.,
13:*:Fst-2 X=N/6,
13:*:Lst-2 X=N/8,
13:u:tok-1LL=pp.,
11:*:Lst-1 L=N,
13:*:Suf-3 X=ey,,
17:u:tok-1 L=sydney,,
12:*:Pre-2 X=Au,
13:*:Pre-3 X=Aus,
14:*:Pre-4 X=Aust,
13:*:Suf-3 X=ia.,
22:*:Cap-2 R=initial/_x+1,
11:u:tok-1 X=s,
12:*:Pre-2 X=S.,
12:*:Suf-2 X=S.,
12:*:Pos-1 X=10,
12:*:Suf-2 L=S.,
12:*:Suf-2 X=n,,
12:*:Suf-2 L=n,,
12:u:tok-1RR=by,
13:*:Pre-3 X=con,
14:*:Pre-4 X=cont,
12:u:tok-1 R=by,
12:u:Tok-1 X=by,
12:u:tok-1 X=by,
12:*:Pre-2 X=by,
12:*:Pre-3 X=by,
12:*:Pre-4 X=by,
12:*:Suf-2 X=by,
12:*:Suf-3 X=by,
12:*:Suf-4 X=by,
12:u:tok-1 L=by,
12:*:Suf-2 L=by,
12:u:tok-1LL=by,
12:*:Pos-1 X=48,
12:*:Pos-1 X=52,
12:*:Pre-2 X=SI,
13:*:Pre-3 X=SIG,
18:u:tok-1 X=research,
13:*:Pre-3 X=Res,
14:*:Pre-4 X=Rese,
13:*:Suf-3 X=rch,
14:*:Suf-4 X=arch,
14:*:Pre-4 X=Deve,
21:u:tok-1 X=information,
13:*:Pre-3 X=Inf,
14:*:Pre-4 X=Info,
13:*:Pre-3 X=Ret,
14:*:Pre-4 X=Retr,
12:*:Suf-2 X=l,,
13:*:Suf-3 X=al,,
12:*:Pos-1 X=87,
12:*:Suf-2 L=l,,
12:*:Pos-1 X=90,
11:*:Pre-1 X=3,
13:*:Fst-2 X=N/3,
12:*:Suf-2 X=5.,
13:*:Suf-3 X=95.,
14:*:Suf-4 X=995.,
12:*:Pre-2 X=Da,
12:u:tok-1 R=m.,
12:*:Pre-2 X=Ka,
12:*:Suf-2 X=o,,
12:*:Suf-2 L=o,,
12:*:Lst-1 X=Pd,
11:*:Suf-1 X=-,
14:*:Lst-2 X=Pd/-,
12:*:Lst-1 L=Pd,
11:*:Suf-1 L=-,
12:*:Pre-2 X=Th,
12:*:Suf-2 X=rd,
12:*:Pre-2 X=mo,
13:*:Pre-3 X=Man,
15:u:tok-1RR=pages,
13:*:Pre-3 X=Dat,
14:*:Pre-4 X=Data,
12:*:Pre-2 X=pa,
13:*:Pre-3 X=pag,
14:*:Pre-4 X=page,
13:*:Suf-3 X=ges,
14:*:Suf-4 X=ages,
13:*:Suf-3 X=on,,
13:*:Pre-3 X=C.,,
13:*:Pre-4 X=C.,,
13:*:Suf-3 X=C.,,
13:*:Suf-4 X=C.,,
12:*:Pre-2 X=Me,
12:*:Pos-1 X=20,
15:*:Pct-1 R=quote,
11:*:Pre-1 X=",
13:*:Fst-2 X=P/",
15:*:Pct-1 X=quote,
23:u:tok-1 X=communication,
14:*:Pre-4 X=Comm,
12:*:Pos-1 X=30,
15:*:Pct-1 L=quote,
12:*:Pos-1 X=40,
12:*:Pre-2 X=Pa,
12:*:Pre-2 X=Mu,
11:*:Pre-1 X=O,
12:*:Suf-2 X=ly,
14:*:Fst-2 X=Lu/O,
12:*:Pos-1 X=60,
12:*:Suf-2 X=ed,
13:*:Suf-3 X=ted,
12:*:Suf-2 L=ed,
12:*:Pos-1 X=70,
26:*:Pct-1 R=internal-unquote,
12:*:Suf-2 X=",,
26:*:Pct-1 X=internal-unquote,
19:u:tok-1 L=systems",,
12:*:Suf-2 L=",,
12:*:Pos-1 X=80,
26:*:Pct-1 L=internal-unquote,
19:u:tok-1LL=systems",,
12:*:Suf-2 X=1,,
12:*:Pre-2 X=Ra,
14:*:Suf-4 X=dge,,
13:*:Suf-3 X=9).,
13:u:Tok-1 X=The,
13:*:Pre-3 X=The,
13:*:Pre-4 X=The,
13:*:Suf-3 X=The,
13:*:Suf-4 X=The,
14:*:Num-1 L=year,
12:*:Pos-1 X=37,
13:*:Pre-3 X=Dis,
14:*:Pre-4 X=Disc,
13:*:Suf-3 X=ms.,
14:*:Suf-4 X=ems.,
18:u:tok-1 L=systems.,
18:u:tok-1LL=systems.,
14:u:tok-1 X=ieee,
14:u:tok-1RR=(1),,
12:*:Pre-2 X=IE,
13:*:Pre-3 X=IEE,
14:*:Pre-4 X=IEEE,
20:*:Cap-2 R=caps/other,
16:*:Num-1 R=double,
11:*:Pre-1 X=7,
12:*:Suf-2 L=E,,
13:*:Fst-2 X=N/7,
20:*:Cap-2 L=caps/other,
16:*:Num-1 X=double,
25:*:Pct-1 R=internal-parens,
11:u:tok-1 X=1,
16:*:Num-1 L=double,
25:*:Pct-1 X=internal-parens,
11:*:Pre-1 X=8,
13:*:Fst-2 X=N/8,
25:*:Pct-1 L=internal-parens,
12:*:Pre-2 X=Sc,
12:u:tok-1 X=an,
12:u:tok-1 L=an,
12:u:tok-1LL=an,
12:*:Pre-2 X=me,
13:*:Suf-3 X=sed,
14:*:Suf-4 X=ased,
18:u:tok-1 X=learning,
12:*:Suf-2 X=g.,
13:*:Suf-3 X=ng.,
14:*:Suf-4 X=ing.,
19:u:tok-1 L=learning.,
12:*:Suf-2 L=g.,
19:u:tok-1LL=learning.,
12:*:Suf-2 X=4,,
12:u:tok-1RR=j.,
12:*:Pre-2 X=No,
13:*:Suf-3 X=an,,
12:u:tok-1 R=j.,
12:u:Tok-1 X=J.,
12:*:Pre-3 X=J.,
12:*:Pre-4 X=J.,
12:*:Suf-2 X=J.,
12:*:Suf-3 X=J.,
12:*:Suf-4 X=J.,
18:u:tok-1RR=learning,
12:*:Suf-2 L=J.,
12:u:tok-1LL=j.,
18:u:tok-1 R=learning,
14:*:Suf-4 X=ning,
18:u:tok-1 L=learning,
18:u:tok-1LL=learning,
12:u:tok-1RR=1,,
13:*:Suf-3 X=02.,
13:*:Pre-3 X=Cam,
13:*:Suf-3 X=gic,
14:*:Suf-4 X=ogic,
11:*:Suf-1 X=T,
14:*:Lst-2 X=Lu/T,
11:*:Suf-1 L=T,
16:*:Num-1 R=single,
11:*:Suf-1 X=5,
13:*:Lst-2 X=N/5,
16:*:Num-1 X=single,
16:*:Num-1 L=single,
12:*:Pre-2 X=Ch,
13:*:Pre-3 X=Cha,
13:*:Suf-3 X=es:,
14:*:Pre-4 X=Appr,
16:u:tok-1 X=theory,
14:*:Pre-4 X=Theo,
17:u:Tok-1 X=Machine,
19:u:tok-1 R=learning,,
27:u:tok-2 R=machine/learning,,
13:*:Pre-3 X=Mac,
14:*:Pre-4 X=Mach,
19:u:Tok-1 X=Learning,,
27:u:tok-2 L=machine/learning,,
12:*:Pre-2 X=Le,
13:*:Pre-3 X=Lea,
14:*:Pre-4 X=Lear,
12:*:Suf-2 X=9,,
12:*:Suf-2 L=9,,
12:*:Pre-2 X=Ex,
12:*:Pos-1 X=33,
12:*:Pre-2 X=El,
13:*:Pre-3 X=Ele,
12:*:Pos-1 X=67,
12:*:Pre-2 X=Pe,
12:*:Pre-2 X=Pl,
13:*:Pre-3 X=Pla,
12:*:Suf-2 X=le,
12:*:Suf-2 L=le,
13:*:Suf-3 X=ce.,
13:*:Pre-3 X=Mor,
14:*:Pre-4 X=Morg,
12:*:Suf-2 X=un,
12:*:Suf-2 L=un,
12:*:Pos-1 X=17,
12:*:Pre-2 X=Li,
12:*:Suf-2 L=i.,
11:*:Suf-1 X=2,
13:*:Lst-2 X=N/2,
11:*:Suf-1 L=2,
13:*:Pre-3 X=Par,
12:*:Suf-2 L=el,
14:*:Pre-4 X=Char,
12:*:Pos-1 X=83,
13:*:Pre-3 X=Aug,
12:*:Pre-2 X=11,
12:*:Pre-3 X=11,
12:*:Pre-4 X=11,
11:*:Suf-1 X=1,
12:*:Suf-2 X=11,
12:*:Suf-3 X=11,
12:*:Suf-4 X=11,
13:*:Lst-2 X=N/1,
12:*:Pre-2 X=Na,
13:*:Pre-3 X=Nat,
14:*:Pre-4 X=Nati,
12:*:Suf-2 X=4.,
12:*:Pre-2 X=Sa,
13:*:Pre-3 X=San,
12:*:Suf-2 L=4.,
15:u:tok-1 X=press,
13:*:Pre-3 X=Pre,
14:*:Pre-4 X=Pres,
12:*:Suf-2 X=d,,
12:*:Suf-2 L=d,,
13:*:Suf-3 X=or.,
14:*:Suf-4 X=tor.,
16:u:tok-1 R=models,
16:u:Tok-1 X=Models,
16:u:tok-1 X=models,
14:*:Pre-4 X=Mode,
13:*:Suf-3 X=els,
14:*:Suf-4 X=dels,
16:u:tok-1 L=models,
16:u:tok-1LL=models,
12:*:Pre-2 X=Ad,
13:*:Pre-3 X=Adv,
14:*:Pre-4 X=Adva,
22:u:tok-1 X=applications,
26:u:Tok-1 X=Morgan-Kaufmann,,
24:u:tok-1 X=morgankaufmann,
23:u:tok-1 L=applications.,
14:*:Suf-4 X=ann,,
23:u:tok-1LL=applications.,
12:*:Pre-2 X=Bl,
13:*:Suf-3 X=ma.,
13:*:Pre-3 X=pre,
12:*:Suf-2 X=ms,
12:*:Suf-2 L=ms,
14:u:tok-1RR=july,
14:u:tok-1 R=july,
13:*:Pre-3 X=Jul,
14:*:Pre-4 X=July,
13:*:Suf-3 X=uly,
14:*:Suf-4 X=July,
12:*:Suf-2 X=is,
12:*:Suf-2 L=is,
13:*:Suf-3 X=sis,
17:*:Pct-1 R=unquote,
17:*:Pct-1 X=unquote,
15:u:Tok-1 X=Conf.,
14:u:tok-1 X=conf,
12:*:Suf-2 X=f.,
13:*:Suf-3 X=nf.,
14:*:Suf-4 X=onf.,
17:*:Pct-1 L=unquote,
15:u:tok-1 L=conf.,
13:*:Pre-3 X=Rec,
12:*:Suf-2 L=f.,
15:u:tok-1LL=conf.,
13:u:tok-1 X=4th,
12:*:Pre-2 X=4t,
13:*:Pre-3 X=4th,
11:*:Suf-1 X=p,
14:*:Lst-2 X=Ll/p,
11:*:Suf-1 L=p,
13:*:Pre-3 X=Met,
13:*:Pre-3 X=Wil,
13:*:Suf-3 X=ns,,
13:*:Suf-3 X=87.,
14:*:Suf-4 X=987.,
12:*:Suf-2 X=k,,
12:*:Suf-2 L=k,,
11:u:tok-1 X=l,
13:*:Pre-3 X=L.,,
13:*:Pre-4 X=L.,,
13:*:Suf-3 X=L.,,
13:*:Suf-4 X=L.,,
13:*:Suf-3 X=re,,
14:*:Suf-4 X=ure,,
12:*:Suf-2 X=n:,
13:*:Suf-3 X=in:,
12:*:Suf-2 L=n:,
12:*:Suf-2 X=re,
12:*:Suf-2 L=re,
12:*:Pre-2 X=Mi,
13:*:Pre-3 X=Min,
13:u:tok-1 X=eds,
17:u:tok-1 L=(eds.),,
12:*:Pre-2 X=Lo,
13:*:Pre-3 X=Log,
14:*:Pre-4 X=Logi,
17:u:tok-1LL=(eds.),,
16:u:tok-1RR=press,,
14:*:Suf-4 X=ses,,
16:u:tok-1 R=press,,
16:u:Tok-1 X=Press,,
13:*:Suf-3 X=ss,,
14:*:Suf-4 X=ess,,
16:u:tok-1 L=press,,
16:u:tok-1LL=press,,
11:*:Pre-1 X=Y,
12:*:Pre-2 X=Yo,
13:*:Pre-3 X=Yor,
14:*:Pre-4 X=York,
14:*:Fst-2 X=Lu/Y,
12:*:Suf-2 X=t,,
13:*:Suf-3 X=nt,,
12:*:Suf-2 L=t,,
12:*:Suf-2 X=h,,
12:*:Suf-2 L=h,,
12:*:Suf-2 X=d.,
12:*:Suf-2 L=d.,
12:*:Suf-2 X=ar,
13:*:Suf-3 X=ear,
12:*:Suf-2 L=ar,
12:*:Pre-2 X=al,
24:*:Pct-1 R=opening-parens,
24:*:Pct-1 X=opening-parens,
24:*:Pct-1 L=opening-parens,
13:*:Pre-3 X=mod,
13:*:Pre-3 X=Che,
16:u:tok-1 X=design,
12:*:Suf-2 X=gn,
13:*:Suf-3 X=ign,
14:*:Suf-4 X=sign,
12:*:Suf-2 L=gn,
11:*:Suf-1 X=",
13:*:Lst-2 X=P/",
11:*:Suf-1 L=",
12:*:Suf-2 L=,",
14:u:tok-1RR=vol.,
14:u:tok-1 R=vol.,
13:u:tok-1 X=vol,
13:u:tok-1RR=no.,
12:*:Pre-2 X=Vo,
13:*:Pre-3 X=Vol,
14:*:Pre-4 X=Vol.,
12:*:Suf-2 X=l.,
13:*:Suf-3 X=ol.,
14:*:Suf-4 X=Vol.,
14:u:tok-1 L=vol.,
12:*:Suf-2 L=l.,
12:u:tok-1 X=no,
13:*:Pre-3 X=No.,
13:*:Pre-4 X=No.,
12:*:Suf-2 X=o.,
13:*:Suf-3 X=No.,
13:*:Suf-4 X=No.,
13:u:tok-1 L=no.,
12:*:Pre-2 X=5,,
12:*:Suf-2 L=o.,
19:u:tok-1 L=computing,
13:*:Pre-3 X=Apr,
14:*:Pre-4 X=Apri,
12:*:Suf-2 X=il,
13:*:Suf-3 X=ril,
14:*:Suf-4 X=pril,
12:*:Pre-2 X=Ha,
13:*:Pre-3 X=Dav,
14:*:Pre-4 X=Davi,
15:u:tok-1LL=david,
14:*:Suf-4 X=ated,
12:*:Pre-2 X=vo,
13:*:Suf-3 X=ice,
14:u:tok-1RR=ieee,
14:u:tok-1 R=ieee,
14:u:Tok-1 X=IEEE,
11:*:Suf-1 X=E,
12:*:Suf-2 X=EE,
13:*:Suf-3 X=EEE,
14:*:Suf-4 X=IEEE,
14:*:Lst-2 X=Lu/E,
14:u:tok-1 L=ieee,
11:*:Suf-1 L=E,
12:*:Suf-2 L=EE,
14:u:tok-1LL=ieee,
11:u:tok-1 X=4,
12:u:tok-1RR=a.,
12:u:tok-1 R=a.,
12:*:Pre-2 X=ex,
12:*:Pre-2 X=sp,
13:*:Pre-3 X=spe,
14:*:Pre-4 X=spec,
17:u:tok-1RR=journal,
17:*:Key-1 R=journal,
17:u:tok-1 X=journal,
13:*:Pre-3 X=Jou,
14:*:Pre-4 X=Jour,
14:*:Suf-4 X=rnal,
17:*:Key-1 X=journal,
17:u:tok-1 L=journal,
20:u:tok-2 L=journal/of,
17:*:Key-1 L=journal,
17:u:tok-1LL=journal,
12:*:Pre-2 X=10,
12:*:Pre-2 X=Bi,
13:*:Suf-3 X=ry,,
14:u:tok-1 R=from,
14:u:Tok-1 X=from,
14:u:tok-1 X=from,
12:*:Pre-2 X=fr,
13:*:Pre-3 X=fro,
14:*:Pre-4 X=from,
12:*:Suf-2 X=om,
13:*:Suf-3 X=rom,
14:*:Suf-4 X=from,
14:u:tok-1 L=from,
12:*:Suf-2 L=om,
26:*:Pct-1 X=terminal-unquote,
26:*:Pct-1 L=terminal-unquote,
12:*:Pre-2 X=Do,
11:*:Suf-1 L=6,
13:*:Pre-3 X=com,
14:*:Suf-4 X=ory,,
12:*:Pre-2 X=16,
12:*:Suf-2 X=ct,
12:*:Pre-2 X=Am,
13:*:Pre-3 X=Soc,
20:*:Num-1 X=year-range,
13:*:Pre-3 X=259,
14:*:Pre-4 X=259-,
12:*:Suf-2 X=16,
12:*:Suf-2 L=16,
12:*:Pos-1 X=49,
12:*:Pos-1 X=51,
16:*:Pct-1 R=parens,
12:*:Lst-1 X=Pe,
11:*:Suf-1 X=),
14:*:Lst-2 X=Pe/),
16:*:Pct-1 X=parens,
12:*:Lst-1 L=Pe,
11:*:Suf-1 L=),
12:*:Suf-2 L=4),
16:*:Pct-1 L=parens,
14:u:Tok-1 X=ACM,,
14:*:Pre-4 X=ACM,,
12:*:Suf-2 X=M,,
13:*:Suf-3 X=CM,,
14:*:Suf-4 X=ACM,,
12:*:Suf-2 L=M,,
18:u:tok-1RR=kennedy,,
18:u:tok-1 R=kennedy,,
12:*:Pre-2 X=Ke,
13:*:Pre-3 X=Ken,
14:*:Pre-4 X=Kenn,
13:*:Suf-3 X=dy,,
14:*:Suf-4 X=edy,,
13:*:Suf-3 X=iew,
14:*:Suf-4 X=view,
18:u:Tok-1 X=Science,,
17:u:tok-1 X=science,
27:u:tok-2 L=computer/science,,
13:*:Pre-3 X=Sci,
14:*:Pre-4 X=Scie,
18:u:tok-1 L=science,,
18:u:tok-1LL=science,,
13:*:Pre-3 X=Ros,
14:*:Pre-4 X=Rose,
13:*:Pre-3 X=Ser,
12:*:Pre-2 X=(A,
17:u:tok-1 X=october,
12:*:Pre-2 X=Oc,
13:*:Pre-3 X=Oct,
14:*:Pre-4 X=Octo,
13:*:Suf-3 X=cts,
12:*:Pre-2 X=To,
12:*:Suf-2 L=3.,
13:*:Pre-3 X=Cor,
18:u:tok-1 X=planning,
13:*:Suf-3 X=es.,
11:*:Suf-1 X=N,
14:*:Lst-2 X=Lu/N,
11:*:Suf-1 L=N,
11:*:Suf-1 X=0,
13:*:Lst-2 X=N/0,
11:*:Suf-1 L=0,
16:u:tok-1RR=design,
16:u:tok-1 R=design,
16:u:Tok-1 X=Design,
17:u:tok-1LL=program,
13:*:Pre-3 X=Des,
14:*:Pre-4 X=Desi,
14:*:Suf-4 X=ion,,
12:*:Pre-2 X=Ti,
13:*:Pre-3 X=Tim,
14:*:Pre-4 X=Time,
13:*:Pre-3 X=Ana,
14:*:Pre-4 X=Anal,
11:*:Suf-1 X=k,
14:*:Lst-2 X=Ll/k,
18:u:Tok-1 X=Software,
11:*:Suf-1 L=k,
14:*:Suf-4 X=ware,
18:u:tok-1 L=software,
13:*:Pre-3 X=Eng,
14:*:Pre-4 X=Engi,
15:u:tok-1RR=york:,
16:u:tok-1RR=volume,
11:u:tok-1 X=8,
16:u:tok-1 R=volume,
16:u:tok-1 X=volume,
13:*:Suf-3 X=ume,
14:*:Suf-4 X=lume,
16:u:tok-1 L=volume,
16:u:tok-1LL=volume,
11:*:Suf-1 X=C,
14:*:Lst-2 X=Lu/C,
18:u:tok-1 X=contract,
11:*:Suf-1 L=C,
13:*:Suf-3 X=act,
23:u:Tok-1 X=9198/90/NL/SF,
20:u:tok-1 X=919890nlsf,
15:u:tok-1LL=estec,
18:u:tok-1 L=contract,
32:u:tok-2 L=contract/9198/90/nl/sf,
28:u:tok-2 R=9198/90/nl/sf/_x+1,
11:*:Pre-1 X=9,
12:*:Pre-2 X=91,
13:*:Pre-3 X=919,
14:*:Pre-4 X=9198,
11:*:Suf-1 X=F,
12:*:Suf-2 X=SF,
13:*:Suf-3 X=/SF,
14:*:Suf-4 X=L/SF,
13:*:Fst-2 X=N/9,
14:*:Lst-2 X=Lu/F,
12:*:Pre-2 X=Va,
17:u:tok-1RR=lecture,
13:*:Pre-3 X=Lec,
14:*:Pre-4 X=Lect,
13:*:Suf-3 X=ure,
14:*:Suf-4 X=ture,
13:*:Pre-3 X=Not,
15:u:tok-1LL=notes,
21:u:tok-2 L=in/computer,
12:*:Pre-2 X=Sp,
13:*:Pre-3 X=Spr,
14:*:Pre-4 X=Spri,
13:*:Suf-3 X=ag,,
14:*:Suf-4 X=lag,,
16:u:Tok-1 X=Hughes,
16:u:tok-1 X=hughes,
17:u:tok-1 R=network,
21:u:tok-2 L=_x-1/hughes,
24:u:tok-2 R=hughes/network,
12:*:Pre-2 X=Hu,
13:*:Pre-3 X=Hug,
14:*:Pre-4 X=Hugh,
13:*:Suf-3 X=hes,
14:*:Suf-4 X=ghes,
16:u:tok-1 L=hughes,
17:u:tok-1RR=direcpc,
24:u:tok-2 L=hughes/network,
26:u:tok-2 R=network/systems,,
14:*:Suf-4 X=work,
16:u:tok-1LL=hughes,
17:u:tok-1 L=network,
17:u:tok-1 R=direcpc,
14:u:tok-1RR=home,
26:u:tok-2 L=network/systems,,
26:u:tok-2 R=systems,/direcpc,
13:*:Pre-3 X=Dir,
14:*:Pre-4 X=Dire,
12:*:Suf-2 X=PC,
13:*:Suf-3 X=cPC,
14:*:Suf-4 X=ecPC,
15:u:tok-1RR=1996.,
12:*:Pre-2 X=ht,
13:*:Pre-3 X=htt,
14:*:Pre-4 X=http,
12:*:Suf-2 X=/,,
13:*:Suf-3 X=m/,,
14:*:Suf-4 X=om/,,
14:*:Pre-4 X=Oct,,
12:*:Suf-2 L=/,,
13:*:Suf-3 X=ct,,
14:*:Suf-4 X=Oct,,
13:*:Pre-3 X=Laz,
12:u:Tok-1 X=F.,
11:u:tok-1 X=f,
12:*:Pre-2 X=F.,
12:*:Pre-3 X=F.,
12:*:Pre-4 X=F.,
12:*:Suf-2 X=F.,
12:*:Suf-3 X=F.,
12:*:Suf-4 X=F.,
12:*:Suf-2 L=F.,
12:u:tok-1 X=al,
12:*:Suf-2 X=k.,
13:*:Suf-3 X=ety,
22:u:tok-1 R=transactions,
27:u:tok-2 L=ieee/transactions,
22:u:tok-1 L=transactions,
25:u:tok-2 L=transactions/on,
22:u:tok-1LL=transactions,
12:u:tok-1 X=co,
13:*:Pre-3 X=Co.,
16:u:tok-1 X=series,
14:*:Pre-4 X=Seri,
14:*:Suf-4 X=ber,,
13:*:Suf-3 X=ean,
12:*:Pre-2 X=71,
13:*:Pre-3 X=71-,
14:*:Suf-4 X=are.,
13:*:Pre-3 X=163,
14:*:Pre-4 X=163-,
13:u:tok-1RR=11,,
13:u:tok-1 R=11,,
13:*:Pre-3 X=11,,
13:*:Pre-4 X=11,,
13:*:Suf-3 X=11,,
13:*:Suf-4 X=11,,
13:*:Pre-3 X=Lab,
14:*:Pre-4 X=Stat,
12:*:Suf-2 X=cs,
13:*:Suf-3 X=ics,
14:*:Pre-4 X=Sand,
12:*:Suf-2 L=V.,
22:u:tok-1RR=intelligence,
22:u:tok-1 L=intelligence,
13:*:Suf-3 X=on:,
14:*:Suf-4 X=ion:,
12:*:Pre-2 X=te,
12:*:Suf-2 X=ue,
12:*:Suf-2 L=ue,
12:*:Suf-2 X=at,
12:*:Suf-2 L=at,
13:*:Suf-3 X=5).,
14:u:tok-1LL=(pp.,
13:*:Pre-3 X=Sub,
13:*:Suf-3 X=ly.,
17:u:tok-1 L=(1995).,
17:u:tok-1LL=(1995).,
12:*:Pre-2 X=CM,
13:*:Pre-3 X=CMU,
14:u:tok-1 X=tech,
14:*:Suf-4 X=ley,,
22:u:tok-1RR=applications,
22:u:tok-1 R=applications,
22:u:Tok-1 X=Applications,
16:*:Num-1 R=triple,
16:*:Num-1 X=triple,
16:*:Num-1 L=triple,
13:*:Suf-3 X=tal,
13:u:tok-1 X=phd,
17:u:tok-1 R=thesis,,
12:*:Pre-2 X=Ph,
16:u:tok-1 X=thesis,
13:*:Suf-3 X=is,,
14:*:Suf-4 X=sis,,
17:u:tok-1 L=thesis,,
13:*:Pre-3 X=Mic,
12:*:Pre-2 X=20,
12:*:Pre-2 X=Go,
13:*:Pre-3 X=Goo,
13:*:Suf-3 X=red,
12:*:Suf-2 X=8,,
12:*:Suf-2 L=8,,
11:*:Suf-1 X=4,
13:*:Lst-2 X=N/4,
11:*:Suf-1 L=4,
12:u:tok-1 R=f.,
13:*:Pre-3 X=vol,
14:*:Pre-4 X=volu,
12:*:Pos-1 X=98,
17:u:Tok-1 X=Digital,
17:u:tok-1 X=digital,
15:u:tok-1LL=barry,
20:u:tok-1 L=wilkinson,,
28:u:tok-2 L=wilkinson,/digital,
24:u:tok-2 R=digital/system,
13:*:Pre-3 X=Dig,
14:*:Pre-4 X=Digi,
14:*:Suf-4 X=ital,
20:u:tok-1LL=wilkinson,,
18:u:tok-1RR=prentice,
24:u:tok-2 L=digital/system,
23:u:tok-2 R=system/design,
17:u:tok-1LL=digital,
18:u:tok-1 R=prentice,
14:u:tok-1RR=hall,
23:u:tok-2 L=system/design,
25:u:tok-2 R=design/prentice,
14:*:Pre-4 X=Pren,
14:*:Suf-4 X=tice,
13:*:Pre-3 X=Hal,
14:*:Pre-4 X=Hall,
13:*:Suf-3 X=en.,
19:u:tok-1 X=submitted,
14:*:Pre-4 X=Subm,
12:*:Pre-2 X=Eu,
13:*:Pre-3 X=Eur,
14:*:Pre-4 X=Euro,
13:*:Suf-3 X=rn,,
13:u:Tok-1 X=MIT,
13:u:tok-1 X=mit,
12:*:Pre-2 X=MI,
13:*:Pre-3 X=MIT,
13:*:Pre-4 X=MIT,
12:*:Suf-2 X=IT,
13:*:Suf-3 X=MIT,
13:*:Suf-4 X=MIT,
13:u:tok-1 L=mit,
12:*:Suf-2 L=IT,
13:*:Pre-3 X=Don,
13:*:Pre-3 X=Ste,
13:*:Pre-3 X=SIA,
14:*:Pre-4 X=SIAM,
12:*:Suf-2 X=AM,
13:*:Suf-3 X=IAM,
14:*:Suf-4 X=SIAM,
12:*:Pre-2 X=Pu,
13:*:Pre-3 X=Pub,
15:u:tok-1RR=royal,
15:u:tok-1 R=royal,
15:u:Tok-1 X=Royal,
15:u:tok-1 X=royal,
17:u:tok-1RR=society,
13:*:Pre-3 X=Roy,
14:*:Pre-4 X=Roya,
13:*:Suf-3 X=yal,
14:*:Suf-4 X=oyal,
17:u:tok-1 R=society,
17:u:Tok-1 X=Society,
17:u:tok-1 X=society,
15:u:tok-1LL=royal,
14:*:Pre-4 X=Soci,
14:*:Suf-4 X=iety,
13:*:Pre-3 X=Ant,
15:u:tok-1 X=times,
12:*:Pre-2 X=21,
13:*:Suf-3 X=ied,
17:u:tok-1RR=appear.,
13:*:Suf-3 X=cs,,
14:*:Suf-4 X=ics,,
16:u:tok-1 X=appear,
14:*:Pre-4 X=appe,
20:*:Cap-2 R=lower/_x+1,
14:*:Pre-4 X=Thes,
12:*:Pre-2 X=Nu,
13:*:Pre-3 X=Num,
14:*:Pre-4 X=Nume,
12:*:Pre-2 X=ST,
14:*:Pre-4 X=Plan,
19:u:Tok-1 X=Reprinted,
19:u:tok-1 X=reprinted,
22:u:tok-2 R=reprinted/in,
14:*:Pre-4 X=Repr,
12:*:Suf-2 L=7.,
14:*:Suf-4 X=nted,
19:u:tok-1 L=reprinted,
22:u:tok-2 L=reprinted/in,
14:*:Pre-4 X=Read,
12:*:Suf-2 X=ld,
13:*:Pre-3 X=Nor,
16:u:Tok-1 X=23529,,
15:u:tok-1 X=23529,
18:u:tok-1LL=norfolk,,
12:u:tok-1 L=va,
19:u:tok-2 L=va/23529,,
22:u:tok-2 R=23529,/1993.,
12:*:Pre-2 X=23,
13:*:Pre-3 X=235,
14:*:Pre-4 X=2352,
12:*:Suf-2 L=VA,
13:*:Suf-3 X=29,,
14:*:Suf-4 X=529,,
13:*:Pre-3 X=Kar,
12:*:Suf-2 X=et,
12:*:Suf-2 L=et,
12:*:Suf-2 L=.",
24:u:tok-1 X=representation,
17:u:tok-1LL=genetic,
21:u:tok-1 L=algorithms.,
15:u:tok-1 R=keane,
12:u:tok-1RR=et,
24:u:tok-2 L=algorithms./in,
18:u:tok-2 R=in/keane,
15:u:Tok-1 X=Keane,
15:u:tok-1 X=keane,
21:u:tok-1LL=algorithms.,
12:u:tok-1 R=et,
13:u:tok-1RR=al.,
18:u:tok-2 L=in/keane,
18:u:tok-2 R=keane/et,
13:*:Pre-3 X=Kea,
14:*:Pre-4 X=Kean,
13:*:Suf-3 X=ane,
14:*:Suf-4 X=eane,
15:u:tok-1 L=keane,
13:u:tok-1 R=al.,
14:u:tok-1RR=[4],,
18:u:tok-2 L=keane/et,
16:u:tok-2 R=et/al.,
12:*:Pre-2 X=et,
12:*:Pre-3 X=et,
12:*:Pre-4 X=et,
12:*:Suf-3 X=et,
12:*:Suf-4 X=et,
13:u:Tok-1 X=al.,
15:u:tok-1LL=keane,
12:u:tok-1 L=et,
14:u:tok-1 R=[4],,
16:u:tok-2 L=et/al.,
18:u:tok-2 R=al./[4],,
13:*:Pre-3 X=al.,
13:*:Pre-4 X=al.,
13:*:Suf-3 X=al.,
13:*:Suf-4 X=al.,
16:*:Pct-1 R=braces,
12:u:tok-1LL=et,
11:*:Pre-1 X=[,
12:*:Pre-2 X=[4,
13:*:Pre-3 X=[4],
14:*:Pre-4 X=[4],,
12:*:Suf-2 X=],,
13:*:Suf-3 X=4],,
14:*:Suf-4 X=[4],,
14:*:Fst-2 X=Ps/[,
16:*:Pct-1 X=braces,
16:*:Pct-1 L=braces,
12:*:Pre-2 X=Ab,
13:*:Pre-3 X=Abs,
14:*:Pre-4 X=Abst,
26:u:tok-1RR=springer-verlag,,
12:*:Suf-2 X=L.,
12:*:Suf-2 L=L.,
13:*:Pre-3 X=Val,
18:u:Tok-1 X=Personal,
18:u:tok-1 X=personal,
12:u:tok-1LL=x.,
24:u:tok-1 R=communication.,
26:u:tok-2 L=(1995)./personal,
33:u:tok-2 R=personal/communication.,
13:*:Pre-3 X=Per,
14:*:Pre-4 X=Pers,
24:u:Tok-1 X=communication.,
18:u:tok-1 L=personal,
33:u:tok-2 L=personal/communication.,
29:u:tok-2 R=communication./_x+1,
14:*:Pre-4 X=comm,
13:*:Suf-3 X=nd.,
14:*:Suf-4 X=and.,
16:u:tok-1LL=lambda,
15:u:tok-1RR=1985.,
17:u:tok-1RR=special,
17:u:tok-1 R=special,
15:u:tok-1RR=issue,
17:u:tok-1 X=special,
15:u:tok-1 R=issue,
23:u:tok-2 R=special/issue,
13:*:Pre-3 X=Spe,
14:*:Pre-4 X=Spec,
15:u:tok-1 X=issue,
17:u:tok-1 L=special,
23:u:tok-2 L=special/issue,
18:u:tok-2 R=issue/on,
12:*:Pre-2 X=Is,
13:*:Suf-3 X=sue,
14:*:Suf-4 X=ssue,
17:u:tok-1LL=special,
15:u:tok-1 L=issue,
18:u:tok-2 L=issue/on,
15:u:tok-1LL=issue,
12:*:Pre-2 X=Ed,
13:*:Suf-3 X=3rd,
13:*:Pre-3 X=Pad,
12:*:Suf-2 X=dy,
13:*:Suf-3 X=udy,
14:*:Suf-4 X=tudy,
12:*:Suf-2 L=dy,
14:*:Suf-4 X=pean,
12:*:Pre-2 X=98,
12:*:Suf-2 L=8.,
12:u:tok-1RR=7,,
13:*:Pre-3 X=Mas,
14:*:Pre-4 X=Mass,
18:u:Tok-1 X=Learning,
12:*:Suf-2 X=ok,
13:*:Suf-3 X=ook,
14:*:Suf-4 X=book,
12:*:Suf-2 L=ok,
12:*:Suf-2 X=e:,
13:*:Suf-3 X=ge:,
14:*:Suf-4 X=dge:,
12:*:Suf-2 L=e:,
12:u:tok-1 X=ed,
12:*:Pre-2 X=(E,
13:*:Pre-3 X=(Ed,
19:u:tok-1 X=cambridge,
14:*:Pre-4 X=Camb,
12:u:tok-1 X=ma,
20:u:tok-1 L=cambridge,,
12:*:Pre-2 X=MA,
19:*:Cap-2 R=caps/_x+1,
13:*:Pre-3 X=Hol,
12:*:Suf-2 X=15,
12:u:tok-1RR=at,
12:u:tok-1 R=at,
12:u:Tok-1 X=at,
12:u:tok-1 X=at,
12:*:Pre-2 X=at,
12:*:Pre-3 X=at,
12:*:Pre-4 X=at,
12:*:Suf-3 X=at,
12:*:Suf-4 X=at,
12:u:tok-1 L=at,
12:u:tok-1LL=at,
12:*:Pre-2 X=is,
13:*:Suf-3 X=ch.,
23:u:tok-1 X=addisonwesley,
13:*:Pre-3 X=Add,
14:*:Pre-4 X=Addi,
14:u:tok-1 X=lisp,
18:u:tok-2 R=lisp/and,
14:u:tok-1 L=lisp,
18:u:tok-2 L=lisp/and,
12:*:Suf-2 L=sp,
14:u:tok-1LL=lisp,
12:*:Suf-2 X=ie,
13:*:Suf-3 X=lie,
12:*:Suf-2 L=ie,
13:*:Suf-3 X=84.,
16:u:tok-1 L=social,
12:*:Suf-2 X=ny,
12:*:Suf-2 L=ny,
12:*:Pre-2 X=Dr,
14:u:tok-1RR=lazy,
14:u:tok-1 R=lazy,
14:u:Tok-1 X=Lazy,
14:u:tok-1 X=lazy,
14:*:Pre-4 X=Lazy,
12:*:Suf-2 X=zy,
13:*:Suf-3 X=azy,
14:*:Suf-4 X=Lazy,
14:u:tok-1 L=lazy,
12:*:Suf-2 L=zy,
14:u:tok-1LL=lazy,
14:*:Pre-4 X=Gran,
12:*:Pre-2 X=18,
11:*:Suf-1 L=;,
18:u:tok-1 X=sciences,
12:*:Suf-2 X=L:,
12:*:Suf-2 L=L:,
13:*:Suf-3 X=13.,
13:*:Suf-3 X=08.,
14:u:tok-1 X=also,
14:u:Tok-1 X=URL:,
13:u:tok-1 X=url,
18:u:tok-1 L=calculi.,
51:u:tok-1 R=www.cs.rice.edu/~matthias/411web/mono.ps.,
23:u:tok-2 L=calculi./url:,
56:u:tok-2 R=url:/www.cs.rice.edu/~matthias/411web/mono.ps.,
12:*:Pre-2 X=UR,
13:*:Pre-3 X=URL,
14:*:Pre-4 X=URL:,
13:*:Suf-3 X=RL:,
14:*:Suf-4 X=URL:,
51:u:Tok-1 X=www.cs.rice.edu/~matthias/411web/mono.ps.,
42:u:tok-1 X=wwwcsriceedumatthias411webmonops,
18:u:tok-1LL=calculi.,
14:u:tok-1 L=url:,
56:u:tok-2 L=url:/www.cs.rice.edu/~matthias/411web/mono.ps.,
56:u:tok-2 R=www.cs.rice.edu/~matthias/411web/mono.ps./_x+1,
12:*:Pre-2 X=ww,
13:*:Pre-3 X=www,
14:*:Pre-4 X=www.,
13:*:Suf-3 X=ps.,
14:*:Suf-4 X=.ps.,
12:u:tok-1 X=12,
11:u:tok-1RR=4,
11:u:Tok-1 X=4,
11:*:Pre-2 X=4,
11:*:Pre-3 X=4,
11:*:Pre-4 X=4,
11:*:Suf-2 X=4,
11:*:Suf-3 X=4,
11:*:Suf-4 X=4,
11:u:tok-1 L=4,
11:*:Suf-2 L=4,
21:u:Tok-1 X=Manuscript,,
20:u:tok-1 X=manuscript,
15:u:tok-1LL=under,
22:u:tok-1 L=constraints.,
34:u:tok-2 L=constraints./manuscript,,
27:u:tok-2 R=manuscript,/1995.,
14:*:Pre-4 X=Manu,
13:*:Suf-3 X=pt,,
14:*:Suf-4 X=ipt,,
12:*:Suf-2 X=S,,
12:*:Suf-2 L=S,,
20:u:tok-1 L=analysis",,
19:u:tok-1 R=software.,
25:u:tok-2 L=analysis",/ieee,
24:u:tok-2 R=ieee/software.,
19:u:Tok-1 X=Software.,
20:u:tok-1LL=analysis",,
24:u:tok-2 L=ieee/software.,
24:u:tok-2 R=software./_x+1,
12:u:Tok-1 X=To,
16:u:tok-1 R=appear,
19:u:tok-2 R=to/appear,
12:*:Pre-3 X=To,
12:*:Pre-4 X=To,
12:*:Suf-2 X=To,
12:*:Suf-3 X=To,
12:*:Suf-4 X=To,
16:u:Tok-1 X=appear,
19:u:tok-2 L=to/appear,
19:u:tok-2 R=appear/in,
12:*:Suf-2 L=To,
14:*:Suf-4 X=pear,
16:u:tok-1 L=appear,
19:u:tok-2 L=appear/in,
16:u:tok-1LL=appear,
14:*:Suf-4 X=king,
19:u:tok-1 X=discourse,
13:*:Suf-3 X=rse,
14:*:Suf-4 X=urse,
19:u:Tok-1 X=Discourse,
14:u:tok-1LL=logo,
22:u:tok-1 L=instruction.,
20:u:tok-1 R=processes,,
32:u:tok-2 L=instruction./discourse,
30:u:tok-2 R=discourse/processes,,
20:u:Tok-1 X=Processes,,
19:u:tok-1 X=processes,
22:u:tok-1LL=instruction.,
18:u:tok-1RR=183-201.,
30:u:tok-2 L=discourse/processes,,
24:u:tok-2 R=processes,/11,,
13:*:Suf-3 X=per,
13:*:Suf-3 X=co,,
17:*:Key-1 R=edition,
18:u:tok-1 X=preprint,
14:*:Pre-4 X=Prep,
14:*:Suf-4 X=int,,
17:*:Key-1 X=edition,
17:*:Key-1 L=edition,
13:*:Suf-3 X=ue,,
14:*:Suf-4 X=que,,
14:*:Suf-4 X=san,,
13:*:Suf-3 X=rg,,
14:*:Suf-4 X=erg,,
12:*:Suf-2 X=w.,
13:*:Pre-3 X=Lon,
14:*:Pre-4 X=Lond,
13:*:Pre-3 X=Edi,
14:*:Pre-4 X=Edit,
13:*:Suf-3 X=net,
17:u:Tok-1 X=Working,
17:u:tok-1 X=working,
17:u:tok-1 L=working,
17:u:tok-1LL=working,
18:u:tok-1 X=practice,
14:*:Suf-4 X=ited,
12:*:Pre-2 X=(S,
22:u:Tok-1 X=Statistique,,
21:u:tok-1 X=statistique,
18:u:tok-1LL=europeen,
20:u:tok-1 R=sandbjerg,,
18:u:tok-1RR=denmark,,
25:u:tok-2 L=de/statistique,,
33:u:tok-2 R=statistique,/sandbjerg,,
12:*:Pre-2 X=Pi,
13:u:tok-1LL=van,
12:*:Pre-2 X=(3,
12:*:Pre-2 X=do,
13:*:Pre-3 X=Lit,
12:*:Suf-2 X=a:,
12:*:Suf-2 L=5.,
14:*:Pre-4 X=Elec,
13:u:tok-1RR=19,,
13:u:tok-1 L=art,
13:u:tok-1LL=art,
13:*:Pre-3 X=Hum,
14:*:Pre-4 X=Huma,
11:u:Tok-1 X=-,
12:*:Fst-1 X=Pd,
11:*:Pre-1 X=-,
11:*:Pre-2 X=-,
11:*:Pre-3 X=-,
11:*:Pre-4 X=-,
11:*:Suf-2 X=-,
11:*:Suf-3 X=-,
11:*:Suf-4 X=-,
14:*:Fst-2 X=Pd/-,
13:*:Pre-3 X=102,
14:*:Pre-4 X=102.,
11:*:Suf-2 L=-,
14:*:Suf-4 X=102.,
14:*:Pre-4 X=Stev,
18:u:tok-2 R=the/ieee,
21:u:tok-2 R=learning,/2,
11:*:Pre-2 X=2,
11:*:Pre-3 X=2,
11:*:Pre-4 X=2,
11:*:Suf-2 X=2,
11:*:Suf-3 X=2,
11:*:Suf-4 X=2,
14:*:Pre-4 X=Karl,
11:*:Suf-1 X=],
14:*:Lst-2 X=Pe/],
11:*:Suf-1 L=],
12:*:Pre-2 X=IF,
22:u:tok-1 X=northholland,
14:*:Pre-4 X=Nort,
14:u:Tok-1 X=Co.,,
14:*:Pre-4 X=Co.,,
13:*:Suf-3 X=o.,,
14:*:Suf-4 X=Co.,,
14:*:Pre-4 X=expr,
12:*:Pre-2 X=(P,
13:*:Pre-3 X=985,
14:*:Pre-4 X=985-,
14:*:Suf-4 X=ancy,
14:*:Suf-4 X=-84.,
14:*:Pre-4 X=Mins,
12:*:Suf-2 X=`s,
13:*:Suf-3 X=y`s,
14:*:Suf-4 X=ky`s,
15:u:tok-1 L=(ed.),
12:*:Suf-2 L=.),
15:u:tok-1LL=(ed.),
13:*:Pre-3 X=Sun,
12:*:Suf-2 X=0),
13:*:Suf-3 X=eld,
13:*:Suf-3 X=le.,
12:*:Pre-2 X=Ah,
19:u:tok-1RR=approach.,
14:*:Suf-4 X=ach.,
14:*:Pre-4 X=pres,
16:u:tok-1RR=review,
16:u:tok-1 R=review,
16:u:tok-1 X=review,
13:*:Pre-3 X=Rev,
14:*:Pre-4 X=Revi,
11:*:Suf-1 X=H,
14:*:Lst-2 X=Lu/H,
15:u:tok-2 R=e./a.,
15:u:tok-2 L=e./a.,
14:*:Pre-4 X=Unit,
13:*:Pre-3 X=Stu,
13:*:Suf-3 X=ew.,
14:*:Suf-4 X=iew.,
18:u:tok-1 X=handbook,
13:*:Pre-3 X=Han,
14:*:Pre-4 X=Hand,
12:*:Pre-2 X=(N,
19:u:tok-1 R=presented,
19:u:Tok-1 X=presented,
19:u:tok-1 X=presented,
22:u:tok-2 R=presented/at,
19:u:tok-1 L=presented,
22:u:tok-2 L=presented/at,
19:u:tok-1LL=presented,
24:u:tok-1LL=(international,
26:u:tok-1 R=thermomechanical,
22:u:tok-1RR=processing),,
29:u:tok-2 R=on/thermomechanical,
26:u:Tok-1 X=Thermomechanical,
26:u:tok-1 X=thermomechanical,
22:u:tok-1 R=processing),,
29:u:tok-2 L=on/thermomechanical,
39:u:tok-2 R=thermomechanical/processing),,
14:*:Pre-4 X=Ther,
22:u:Tok-1 X=Processing),,
26:u:tok-1 L=thermomechanical,
39:u:tok-2 L=thermomechanical/processing),,
27:u:tok-2 R=processing),/july,
13:*:Suf-3 X=g),,
14:*:Suf-4 X=ng),,
19:u:tok-1 X=available,
12:*:Pre-2 X=Av,
13:*:Pre-3 X=Ava,
14:*:Pre-4 X=Avai,
15:u:tok-1RR=santa,
12:*:Suf-2 X=d:,
13:*:Pre-3 X=tel,
14:*:Pre-4 X=tele,
12:*:Suf-2 X=ad,
13:*:Suf-3 X=da,,
13:*:Pre-3 X=Pap,
14:*:Pre-4 X=Pape,
19:u:tok-2 R=the/royal,
13:*:Pre-3 X=She,
12:u:Tok-1 X=8,,
12:*:Pre-2 X=8,,
12:*:Pre-3 X=8,,
12:*:Pre-4 X=8,,
12:*:Suf-3 X=8,,
12:*:Suf-4 X=8,,
14:*:Suf-4 X=aper,
15:u:tok-1 L=paper,
15:u:tok-1LL=paper,
12:*:Suf-2 L=1.,
13:*:Suf-3 X=r).,
21:u:tok-1 L=charleston,,
16:u:tok-1 R=71-84.,
26:u:tok-2 L=charleston,/acm,,
21:u:tok-2 R=acm,/71-84.,
14:*:Pre-4 X=71-8,
13:*:Pre-3 X=STA,
12:u:tok-1RR=9,,
12:u:Tok-1 X=9,,
11:u:tok-1 X=9,
16:u:tok-2 R=9,/pp.,
12:*:Pre-2 X=9,,
12:*:Pre-3 X=9,,
12:*:Pre-4 X=9,,
12:*:Suf-3 X=9,,
12:*:Suf-4 X=9,,
13:*:Suf-3 X=he.,
14:*:Suf-4 X=uhe.,
12:*:Pre-2 X=(2,
12:*:Suf-2 X=95,
14:*:Pre-4 X=Micr,
12:*:Pre-2 X=It,
13:*:Pre-3 X=Ita,
14:*:Pre-4 X=Ital,
14:*:Pre-4 X=Perf,
15:u:Tok-1 X=Study,
19:*:Cap-2 L=_x-1/caps,
20:u:tok-2 R=report/no.,
16:u:Tok-1 X=STACS,,
15:u:tok-1 X=stacs,
22:u:tok-1LL=isomor-phism,
18:u:tok-1 L=theorem,,
18:u:tok-1 R=163-174.,
25:u:tok-2 L=theorem,/stacs,,
25:u:tok-2 R=stacs,/163-174.,
14:*:Pre-4 X=STAC,
13:*:Suf-3 X=CS,,
14:*:Suf-4 X=ACS,,
13:*:Suf-3 X=74.,
14:*:Suf-4 X=174.,
21:u:tok-2 R=learning/in,
21:u:tok-2 L=learning/in,
13:*:Suf-3 X=ved,
22:u:tok-1 X=dissertation,
16:*:Key-1 X=thesis,
16:*:Key-1 L=thesis,
17:u:tok-1RR=section,
17:u:tok-1 R=section,
17:u:tok-1 X=section,
17:u:tok-1 L=section,
17:u:tok-1LL=section,
27:u:tok-2 R=university/press,,
27:u:tok-2 L=university/press,,
18:u:tok-1 R=handbook,
18:u:Tok-1 X=Handbook,
21:u:tok-2 R=handbook/of,
18:u:tok-1 L=handbook,
21:u:tok-2 L=handbook/of,
18:u:tok-1LL=handbook,
16:u:tok-1 X=steven,
14:*:Suf-4 X=fied,
15:u:Tok-1 X=Pisa,,
14:u:tok-1 X=pisa,
16:u:tok-1 R=italy.,
28:u:tok-2 L=intelligence/pisa,,
22:u:tok-2 R=pisa,/italy.,
13:*:Pre-3 X=Pis,
14:*:Pre-4 X=Pisa,
13:*:Suf-3 X=sa,,
14:*:Suf-4 X=isa,,
14:*:Suf-4 X=aly.,
14:*:Suf-4 X=osis,
13:*:Pre-3 X=ed.,
21:u:Tok-1 X=Perception,,
18:u:tok-1RR=391-410.,
27:u:tok-2 L=human/perception,,
25:u:tok-2 R=perception,/pp.,
14:*:Pre-4 X=Perc,
13:*:Suf-3 X=ye,,
14:*:Pre-4 X=Meta,
12:*:Pre-2 X=64,
13:*:Pre-3 X=Sec,
16:u:tok-1LL=vision,
20:u:Tok-1 X=Submitted,,
16:u:tok-1LL=smooth,
22:u:tok-1 L=polynomials.,
15:u:tok-1 R=1998.,
33:u:tok-2 L=polynomials./submitted,,
26:u:tok-2 R=submitted,/1998.,
13:*:Suf-3 X=ed,,
14:*:Suf-4 X=ted,,
19:u:Tok-1 X=Approach.,
13:u:Tok-1 X=Sun,
13:u:tok-1 X=sun,
23:u:tok-1 R=microsystems.,
14:u:tok-1RR=java,
18:u:tok-2 L=_x-1/sun,
27:u:tok-2 R=sun/microsystems.,
13:*:Pre-4 X=Sun,
13:*:Suf-3 X=Sun,
13:*:Suf-4 X=Sun,
23:u:Tok-1 X=Microsystems.,
22:u:tok-1 X=microsystems,
13:u:tok-1 L=sun,
14:u:tok-1 R=java,
15:u:tok-1RR=(tm):,
27:u:tok-2 L=sun/microsystems.,
28:u:tok-2 R=microsystems./java,
13:*:Pre-3 X=Jav,
14:*:Pre-4 X=Java,
12:*:Suf-2 X=va,
13:*:Suf-3 X=ava,
14:*:Suf-4 X=Java,
12:*:Suf-2 X=):,
12:*:Suf-2 L=):,
12:*:Pre-2 X=WG,
22:u:tok-1RR=corporation,,
22:u:tok-1 R=corporation,,
22:u:Tok-1 X=Corporation,,
21:u:tok-1 X=corporation,
14:*:Pre-4 X=Corp,
22:u:tok-1LL=corporation,,
12:*:Pre-2 X=pi,
12:*:Pre-2 X=Ox,
14:*:Suf-4 X=ech,,
18:u:tok-1RR=160-168,,
22:u:tok-2 L=computing/9,,
22:u:tok-2 L=learning./to,
21:u:tok-2 R=the/special,
17:u:Tok-1 X=special,
21:u:tok-2 L=the/special,
15:u:Tok-1 X=issue,
13:*:Pre-3 X=iss,
14:*:Pre-4 X=issu,
17:u:tok-2 R=on/lazy,
17:u:tok-2 L=on/lazy,
23:u:tok-2 R=lazy/learning,
23:u:tok-2 L=lazy/learning,
23:u:tok-2 R=in/artificial,
17:u:tok-1RR=review.,
23:u:tok-2 L=in/artificial,
17:u:tok-1 R=review.,
30:u:tok-2 R=intelligence/review.,
17:u:Tok-1 X=Review.,
30:u:tok-2 L=intelligence/review.,
22:u:tok-2 R=review./_x+1,
13:*:Pre-3 X=Las,
14:*:Pre-4 X=Last,
12:*:Pre-2 X=he,
20:u:tok-1LL=difference,
14:*:Suf-4 X=ber.,
18:u:Tok-1 X=Granada,,
17:u:tok-1 X=granada,
24:u:tok-1 L=colloquium'87,,
18:u:tok-1RR=331-375.,
33:u:tok-2 L=colloquium'87,/granada,,
22:u:tok-2 R=granada,/pp.,
14:*:Suf-4 X=ada,,
13:*:Pre-3 X=(20,
14:*:Pre-4 X=(200,
17:u:tok-1RR=(2005).,
17:u:tok-1 R=(2005).,
14:*:Suf-4 X=05).,
24:u:tok-1RR=person-centred,
24:u:tok-1 R=person-centred,
23:u:tok-1 X=personcentred,
14:*:Suf-4 X=tred,
24:u:tok-1 L=person-centred,
24:u:tok-1LL=person-centred,
16:u:tok-1 L=(eds.),
16:u:tok-1LL=(eds.),
24:u:Tok-1 X=Person-Centred,
22:u:tok-1RR=ross-on-wye:,
22:u:tok-1 R=ross-on-wye:,
14:u:tok-1RR=pccs,
14:*:Pre-4 X=Ross,
13:*:Suf-3 X=ye:,
14:*:Suf-4 X=Wye:,
14:u:tok-1 X=vale,
14:*:Pre-4 X=Vale,
15:u:Tok-1 X=Vale.,
14:u:tok-1LL=vale,
17:u:tok-2 L=&/vale.,
20:u:tok-2 R=vale./_x+1,
14:*:Suf-4 X=ale.,
22:u:Tok-1 X=Dissertation,
19:u:tok-1 R=abstracts,
32:u:tok-2 R=dissertation/abstracts,
14:*:Pre-4 X=Diss,
19:u:Tok-1 X=Abstracts,
19:u:tok-1 X=abstracts,
22:u:tok-1 L=dissertation,
32:u:tok-2 L=dissertation/abstracts,
14:*:Suf-4 X=acts,
22:u:tok-1LL=dissertation,
19:u:tok-1 L=abstracts,
17:u:Tok-1 X=Section,
19:u:tok-1LL=abstracts,
14:*:Pre-4 X=Sect,
17:u:tok-1LL=sanders,
28:u:tok-2 R=the/person-centred,
28:u:tok-2 L=the/person-centred,
34:u:tok-2 R=person-centred/approach.,
34:u:tok-2 L=person-centred/approach.,
14:u:tok-1 X=2006,
13:*:Pre-3 X=hel,
14:*:Suf-4 X=Wye,,
16:u:tok-1RR=edited,
16:u:tok-1 R=edited,
16:u:tok-1 X=edited,
16:u:tok-1 L=edited,
19:u:tok-2 L=edited/by,
16:u:tok-1LL=edited,
18:u:tok-1 L=america,,
12:*:Suf-2 X=We,
13:*:Pre-3 X=200,
20:u:tok-1 X=translated,
23:u:tok-2 R=translated/by,
20:u:tok-1 L=translated,
23:u:tok-2 L=translated/by,
20:u:tok-1LL=translated,
17:u:tok-1 R=oxford:,
13:*:Pre-3 X=Oxf,
14:*:Pre-4 X=Oxfo,
13:*:Suf-3 X=rd:,
14:*:Suf-4 X=ord:,
13:*:Suf-3 X=st.,
14:*:Suf-2 X=’.,
14:*:Suf-2 L=’.,
14:*:Pre-4 X=Lite,
14:u:Tok-1 X=4th.,
15:u:tok-1LL=books,
23:u:tok-1 L=xxiii–xxiv.,
28:u:tok-2 L=xxiii–xxiv./4th.,
21:u:tok-2 R=4th./edited,
14:*:Pre-4 X=4th.,
14:*:Suf-4 X=4th.,
14:*:Suf-4 X=eon.,
13:*:Pre-3 X=201,
14:*:Pre-4 X=2010,
16:u:tok-1 X=essays,
14:*:Pre-4 X=Holq,
19:u:Tok-1 X=Holquist.,
17:u:tok-1 R=austin:,
27:u:tok-2 L=michael/holquist.,
27:u:tok-2 R=holquist./austin:,
14:*:Suf-4 X=ist.,
14:*:Suf-4 X=tin:,
13:*:Pre-3 X=Dov,
14:*:Pre-4 X=Dove,
12:*:Suf-2 X=].,
16:u:Tok-1 X=Dover.,
24:u:tok-1RR=0-486-67260-3.,
27:u:tok-2 L=equations./dover.,
21:u:tok-2 R=dover./isbn,
14:u:Tok-1 X=ISBN,
14:u:tok-1 X=isbn,
12:*:Pre-2 X=IS,
13:*:Pre-3 X=ISB,
14:*:Pre-4 X=ISBN,
12:*:Suf-2 X=BN,
13:*:Suf-3 X=SBN,
14:*:Suf-4 X=ISBN,
14:u:tok-1 L=isbn,
12:*:Suf-2 L=BN,
13:*:Suf-3 X=2):,
13:*:Pre-3 X=doi,
14:*:Pre-4 X=doi:,
17:u:Tok-1 X=(2009).,
14:u:tok-1 X=2009,
16:u:tok-1LL=green,,
13:u:tok-1 R="we,
14:u:tok-1RR=need,
20:u:tok-2 L=t./(2009).,
21:u:tok-2 R=(2009)./"we,
14:*:Suf-4 X=09).,
12:*:Pre-2 X="W,
13:*:Pre-3 X="We,
13:*:Pre-4 X="We,
13:*:Suf-3 X="We,
13:*:Suf-4 X="We,
19:u:tok-1RR=retrieved,
19:u:Tok-1 X=Retrieved,
19:u:tok-1 X=retrieved,
14:*:Suf-4 X=eved,
19:u:tok-1 L=retrieved,
14:*:Suf-4 X=(2):,
13:*:Pre-3 X=(3r,
14:*:Pre-4 X=(3rd,
14:*:Suf-4 X=(3rd,
17:u:tok-1LL=(1999).,
15:u:tok-1 X=chaos,
14:*:Pre-4 X=Chao,
14:*:Pre-4 X=Impe,
12:*:Suf-2 L=46,
14:u:tok-1 X=2013,
13:*:Pre-3 X=(Ne,
14:*:Pre-4 X=(New,
14:*:Suf-4 X=(New,
18:u:tok-1LL=america,,
13:u:tok-1 R=28,,
13:*:Suf-3 X=nny,
14:*:Suf-4 X=enny,
14:u:tok-1 X=2008,
16:u:tok-1 L=hise.",
20:u:tok-1 R=wikipedia.,
14:u:tok-1RR=last,
19:u:tok-2 L=hise."/in,
23:u:tok-2 R=in/wikipedia.,
20:u:Tok-1 X=Wikipedia.,
19:u:tok-1 X=wikipedia,
16:u:tok-1LL=hise.",
14:u:tok-1 R=last,
18:u:tok-1RR=modified,
23:u:tok-2 L=in/wikipedia.,
25:u:tok-2 R=wikipedia./last,
13:*:Pre-3 X=Wik,
14:*:Pre-4 X=Wiki,
14:*:Suf-4 X=dia.,
14:u:Tok-1 X=Last,
14:u:tok-1 X=last,
20:u:tok-1 L=wikipedia.,
18:u:tok-1 R=modified,
25:u:tok-2 L=wikipedia./last,
23:u:tok-2 R=last/modified,
14:*:Suf-4 X=Last,
18:u:Tok-1 X=modified,
18:u:tok-1 X=modified,
20:u:tok-1LL=wikipedia.,
14:u:tok-1 L=last,
23:u:tok-2 L=last/modified,
22:u:tok-2 R=modified/may,
14:*:Pre-4 X=modi,
15:u:tok-1RR=2013.,
15:u:tok-1 R=2013.,
15:u:Tok-1 X=2013.,
13:u:tok-1LL=may,
14:*:Pre-4 X=2013,
14:*:Suf-4 X=013.,
14:*:Suf-4 X=een.,
14:*:Pre-4 X=2006,
13:*:Suf-3 X=ead,
16:u:tok-1 L=times,,
15:u:tok-1 R=2008.,
15:u:Tok-1 X=2008.,
20:u:tok-2 R=2008./_x+1,
14:*:Pre-4 X=2008,
14:*:Suf-4 X=008.,
15:u:Tok-1 X=Nancy,
15:u:tok-1 X=nancy,
25:u:tok-2 L=marshall,/nancy,
13:*:Pre-3 X=Nan,
14:*:Pre-4 X=Nanc,
14:u:tok-1 X=rose,
19:u:tok-1LL=marshall,,
15:u:tok-1 L=nancy,
12:*:Pre-2 X=p.,
22:u:tok-2 L=press,/2008.,
14:u:tok-1 X=2012,
14:*:Pre-4 X=2012,
17:u:Tok-1 X=Steven,,
21:u:tok-1 L=soderbergh,,
19:u:tok-1 R=director.,
14:u:tok-1RR=che.,
29:u:tok-2 L=soderbergh,/steven,,
27:u:tok-2 R=steven,/director.,
19:u:Tok-1 X=director.,
18:u:tok-1 X=director,
21:u:tok-1LL=soderbergh,,
17:u:tok-1 L=steven,,
14:u:tok-1 R=che.,
14:u:tok-1RR=dvd.,
27:u:tok-2 L=steven,/director.,
24:u:tok-2 R=director./che.,
13:*:Pre-3 X=dir,
14:*:Pre-4 X=dire,
14:u:Tok-1 X=Che.,
13:u:tok-1 X=che,
17:u:tok-1LL=steven,,
19:u:tok-1 L=director.,
14:u:tok-1 R=dvd.,
24:u:tok-2 L=director./che.,
19:u:tok-2 R=che./dvd.,
14:*:Pre-4 X=Che.,
14:*:Suf-4 X=Che.,
14:u:Tok-1 X=DVD.,
13:u:tok-1 X=dvd,
19:u:tok-1LL=director.,
14:u:tok-1 L=che.,
19:u:tok-2 L=che./dvd.,
18:u:tok-2 R=dvd./new,
12:*:Pre-2 X=DV,
13:*:Pre-3 X=DVD,
14:*:Pre-4 X=DVD.,
13:*:Suf-3 X=VD.,
14:*:Suf-4 X=DVD.,
14:u:tok-1 L=doi:,
13:*:Pre-3 X=10.,
14:*:Pre-4 X=10.1,
12:*:Suf-2 L=i:,
14:*:Suf-4 X=or).,
18:u:tok-1 R=skinner:,
15:u:tok-2 L=b./f.,
21:u:tok-2 R=f./skinner:,
14:*:Pre-4 X=Skin,
14:*:Suf-4 X=ner:,
16:u:tok-1 X=motion,
17:u:tok-1 X=picture,
13:*:Pre-3 X=pic,
14:*:Pre-4 X=pict,
12:*:Suf-2 L=].,
15:u:Tok-1 X=FITNE,
15:u:tok-1 X=fitne,
21:u:tok-1 R=(producer).,
20:u:tok-2 L=_x-1/fitne,
27:u:tok-2 R=fitne/(producer).,
12:*:Pre-2 X=FI,
13:*:Pre-3 X=FIT,
14:*:Pre-4 X=FITN,
12:*:Suf-2 X=NE,
13:*:Suf-3 X=TNE,
14:*:Suf-4 X=ITNE,
21:u:Tok-1 X=(Producer).,
18:u:tok-1 X=producer,
15:u:tok-1 L=fitne,
15:u:tok-1RR=nurse,
27:u:tok-2 L=fitne/(producer).,
29:u:tok-2 R=(producer)./(2005).,
13:*:Pre-3 X=(Pr,
14:*:Pre-4 X=(Pro,
12:*:Suf-2 L=NE,
14:*:Suf-4 X=er).,
16:u:Tok-1 X=[DVD].,
12:*:Pre-2 X=[D,
13:*:Pre-3 X=[DV,
14:*:Pre-4 X=[DVD,
13:*:Suf-3 X=D].,
14:*:Suf-4 X=VD].,
18:u:Tok-1 X=Chaffin,,
17:u:tok-1 X=chaffin,
23:u:tok-2 L=_x-1/chaffin,,
22:u:tok-2 R=chaffin,/c.,,
14:*:Pre-4 X=Chaf,
14:*:Suf-4 X=fin,,
18:u:tok-1 L=chaffin,,
22:u:tok-2 L=chaffin,/c.,,
22:u:tok-2 R=c.,/kennedy,,
18:u:tok-1LL=chaffin,,
19:u:tok-1RR=marshall,,
22:u:tok-2 L=c.,/kennedy,,
22:u:tok-2 R=kennedy,/k.,,
22:u:tok-1RR=(producers),,
14:*:Pre-4 X=held,
14:*:Suf-4 X=held,
15:u:Tok-1 X=Paper,
25:u:tok-2 R=paper/presented,
25:u:tok-2 L=paper/presented,
12:*:Suf-2 X=48,
13:*:Suf-3 X=148,
14:*:Suf-4 X=.148,
24:u:tok-2 R=retrieved/from,
24:u:tok-2 L=retrieved/from,
19:u:tok-1LL=retrieved,
20:*:Cap-2 L=_x-1/other,
15:u:tok-1RR=2011,,
15:u:tok-1 R=2011,,
14:*:Pre-4 X=2011,
14:*:Suf-4 X=011,,
18:u:tok-1 R=october.,
19:u:tok-2 L=sydney,/4,
20:u:tok-2 R=4/october.,
18:u:Tok-1 X=October.,
17:u:tok-1LL=sydney,,
20:u:tok-2 L=4/october.,
23:u:tok-2 R=october./_x+1,
13:*:Pre-3 X=exh,
14:*:Pre-4 X=exhi,
21:u:Tok-1 X=Macunaíma.,
19:u:tok-1 X=macunaima,
16:u:tok-1LL=mário,
13:u:tok-1 L=de.,
25:u:tok-2 L=de./macunaíma.,
32:u:tok-2 R=macunaíma./translated,
14:*:Pre-4 X=Macu,
15:*:Suf-4 X=íma.,
20:u:Tok-1 X=Translated,
13:u:tok-1LL=de.,
21:u:tok-1 L=macunaíma.,
32:u:tok-2 L=macunaíma./translated,
21:u:tok-1LL=macunaíma.,
15:u:tok-2 R=by/e.,
19:u:tok-1RR=goodland.,
15:u:tok-2 L=by/e.,
19:u:tok-1 R=goodland.,
22:u:tok-2 R=a./goodland.,
19:u:Tok-1 X=Goodland.,
18:u:tok-1 X=goodland,
22:u:tok-2 L=a./goodland.,
23:u:tok-2 R=goodland./new,
14:*:Pre-4 X=Good,
14:u:tok-1RR=dir.,
14:u:tok-1 R=dir.,
14:u:Tok-1 X=Dir.,
13:u:tok-1 X=dir,
14:*:Pre-4 X=Dir.,
13:*:Suf-3 X=ir.,
14:*:Suf-4 X=Dir.,
14:u:tok-1 L=dir.,
14:u:tok-1LL=dir.,
15:u:Tok-1 X=Perf.,
14:u:tok-1 X=perf,
16:u:tok-1 L=twohy.,
17:u:tok-1 R=charlie,
16:u:tok-1RR=sheen.,
22:u:tok-2 L=twohy./perf.,
23:u:tok-2 R=perf./charlie,
13:*:Suf-3 X=rf.,
14:*:Suf-4 X=erf.,
17:u:Tok-1 X=Charlie,
17:u:tok-1 X=charlie,
16:u:tok-1LL=twohy.,
15:u:tok-1 L=perf.,
16:u:tok-1 R=sheen.,
18:u:tok-1RR=artisan,,
23:u:tok-2 L=perf./charlie,
24:u:tok-2 R=charlie/sheen.,
14:*:Suf-4 X=rlie,
16:u:Tok-1 X=Sheen.,
15:u:tok-1 X=sheen,
15:u:tok-1LL=perf.,
17:u:tok-1 L=charlie,
18:u:tok-1 R=artisan,,
24:u:tok-2 L=charlie/sheen.,
25:u:tok-2 R=sheen./artisan,,
14:*:Pre-4 X=Shee,
13:*:Pre-3 X=WGB,
14:*:Pre-4 X=WGBH,
12:*:Suf-2 X=BH,
13:*:Suf-3 X=GBH,
14:*:Suf-4 X=WGBH,
12:*:Pre-2 X=[7,
12:*:Suf-2 X=7],
12:*:Suf-2 L=7],
18:u:Tok-1 X=Morocco,,
17:u:tok-1 X=morocco,
17:u:tok-1LL=(lrec),,
20:u:tok-1 L=marrakech,,
29:u:tok-2 L=marrakech,/morocco,,
24:u:tok-2 R=morocco,/2008.,
14:*:Pre-4 X=Moro,
14:*:Suf-4 X=cco,,
14:u:Tok-1 X=Rose,
20:u:tok-2 L=nancy/rose,
21:u:tok-2 R=rose/review,
13:*:Suf-3 X=ose,
14:*:Suf-4 X=Rose,
13:*:Pre-3 X=Ahe,
14:*:Pre-4 X=Ahea,
14:*:Suf-4 X=head,
35:u:Tok-1 X=(doi:10.1017/aog.2016.20),
28:u:tok-1 X=doi101017aog201620,
17:u:tok-1LL=57(73),,
17:u:tok-1 L=39–46,
43:u:tok-2 L=39–46/(doi:10.1017/aog.2016.20),
40:u:tok-2 R=(doi:10.1017/aog.2016.20)/_x+1,
12:*:Pre-2 X=(d,
13:*:Pre-3 X=(do,
14:*:Pre-4 X=(doi,
13:*:Suf-3 X=20),
14:*:Suf-4 X=.20),
15:u:tok-1RR=drugs,
26:u:tok-1 X=antituberculosis,
15:u:tok-1 R=drugs,
15:u:tok-1 X=drugs,
13:*:Suf-3 X=ugs,
14:*:Suf-4 X=rugs,
21:u:tok-1LL=respiratory,
18:u:tok-1 L=journal.,
13:u:Tok-1 X=IF:,
12:u:tok-1 X=if,
15:u:tok-1 R=5,895,
19:u:tok-2 R=if:/5,895,
13:*:Pre-3 X=IF:,
13:*:Pre-4 X=IF:,
12:*:Suf-2 X=F:,
13:*:Suf-3 X=IF:,
13:*:Suf-4 X=IF:,
15:u:Tok-1 X=5,895,
14:u:tok-1 X=5895,
13:u:tok-1 L=if:,
19:u:tok-2 L=if:/5,895,
20:u:tok-2 R=5,895/_x+1,
13:*:Pre-3 X=5,8,
14:*:Pre-4 X=5,89,
12:*:Suf-2 L=F:,
13:*:Suf-3 X=895,
14:*:Suf-4 X=,895,
17:u:tok-1LL=italian,
21:u:tok-1 L=multicentre,
20:u:tok-1RR=resistance,
27:u:tok-2 L=multicentre/study,
18:u:tok-2 R=study/on,
21:u:tok-1LL=multicentre,
20:u:tok-1 R=resistance,
18:u:tok-2 L=study/on,
23:u:tok-2 R=on/resistance,
20:u:Tok-1 X=Resistance,
20:u:tok-1 X=resistance,
26:u:tok-1RR=antituberculosis,
23:u:tok-2 L=on/resistance,
23:u:tok-2 R=resistance/to,
14:*:Pre-4 X=Resi,
20:u:tok-1 L=resistance,
26:u:tok-1 R=antituberculosis,
23:u:tok-2 L=resistance/to,
29:u:tok-2 R=to/antituberculosis,
26:u:Tok-1 X=Antituberculosis,
20:u:tok-1LL=resistance,
17:u:tok-1RR=(smira),
29:u:tok-2 L=to/antituberculosis,
32:u:tok-2 R=antituberculosis/drugs,
14:*:Pre-4 X=Anti,
15:u:Tok-1 X=Drugs,
26:u:tok-1 L=antituberculosis,
17:u:tok-1 R=(smira),
16:u:tok-1RR=group.,
32:u:tok-2 L=antituberculosis/drugs,
23:u:tok-2 R=drugs/(smira),
13:*:Pre-3 X=Dru,
14:*:Pre-4 X=Drug,
13:*:Pre-3 X=(SM,
14:*:Pre-4 X=(SMI,
12:*:Suf-2 X=A),
13:*:Suf-3 X=RA),
14:*:Suf-4 X=IRA),
12:*:Suf-2 L=A),
13:*:Suf-3 X=up.,
14:*:Suf-4 X=oup.,
0=1.430992e-02
1=4.561101e-02
2=3.938870e-02
3=2.716436e-02
5=3.405604e-02
6=-2.740377e-04
7=-3.000859e-03
8=9.111562e-02
9=4.170548e-03
10=-7.936477e-04
12=9.386183e-02
13=5.284564e-02
15=-1.500685e-02
17=8.463011e-02
18=-1.408950e-04
19=1.481998e-02
20=5.017659e-02
21=6.813510e-02
23=3.272299e-01
24=4.336814e-02
25=-3.376547e-01
26=-1.396265e-01
27=1.400647e-02
31=-2.207006e-01
33=-1.470650e-01
42=-2.620565e-02
44=-5.860203e-02
46=-2.448862e-01
47=2.866904e-01
48=3.341801e-03
49=2.650943e-03
50=-5.594174e-02
51=8.275198e-02
52=-8.068529e-02
53=4.838798e-02
54=-2.903625e-02
56=-8.451425e-03
58=-4.831881e-03
59=4.084463e-02
60=7.014161e-06
64=-1.717310e-02
66=4.633229e-02
69=-1.143129e-01
70=2.192006e-04
71=4.215513e-01
72=2.283560e-02
73=-3.908413e-03
75=9.114166e-02
79=2.382752e-04
81=-1.018671e-01
92=-1.193257e-01
93=-4.197420e-01
94=-4.749321e-04
95=3.210776e-01
96=-4.807792e-03
97=-5.845054e-01
98=7.137882e-02
99=-2.592030e-01
100=-1.276011e-03
101=5.136791e-02
102=3.273501e-02
103=-1.344782e-01
104=-3.574192e-01
107=-7.559195e-03
110=-5.704543e-02
115=-9.383450e-02
116=4.855829e-02
118=-1.660934e-01
119=3.451772e-01
124=5.331085e-02
125=-1.662527e-01
127=1.044908e-03
129=-4.911847e-02
135=4.063349e-02
139=-2.075416e-01
140=-8.652891e-02
141=-4.172584e-01
142=6.974346e-03
143=3.723099e-01
144=1.918094e-01
145=-4.442421e-02
146=-1.233010e-01
147=5.128909e-03
148=-1.529064e-01
165=3.217670e-02
167=3.159870e-01
170=1.424588e-01
185=-2.466783e-02
187=-1.779393e-01
191=3.966011e-01
192=8.954459e-03
193=-1.567359e-02
207=-6.968099e-03
208=3.507397e-03
209=-1.543852e-01
210=-3.456380e-02
211=1.710000e-02
212=-3.443186e-02
213=-1.135784e-02
215=2.513890e-01
216=1.972984e-02
219=-1.421173e-04
223=1.413156e-03
239=1.202670e-01
240=1.074594e-02
242=1.194132e-02
247=1.172312e-01
254=-7.331787e-02
256=-7.036523e-02
257=6.423627e-02
263=2.810221e-01
287=6.248528e-01
300=-1.358864e-01
302=-3.476700e-01
303=-4.639924e-02
306=-2.493071e-02
309=-1.400518e-01
311=4.484071e-01
332=3.466549e-02
335=2.314438e-01
349=-4.849958e-03
356=1.554274e-02
359=6.578333e-01
363=3.532871e-02
383=4.246192e-01
407=2.126576e-01
431=6.881627e-02
441=-9.248788e-02
455=6.894020e-01
461=1.983982e-06
470=-3.842866e-03
472=4.150996e-06
479=2.738232e-01
491=2.008087e-02
493=6.383474e-02
503=1.790555e-01
527=3.063814e-01
529=7.040345e-02
567=2.596473e-03
576=9.256842e-02
577=-4.410310e-05
598=2.097288e-01
599=1.435860e-02
600=5.307461e-02
601=-3.524067e-03
605=-9.071245e-03
608=-8.591262e-02
617=1.820550e-05
619=2.361285e-02
620=7.039323e-02
621=2.097288e-01
622=1.435860e-02
623=5.307461e-02
624=-3.524067e-03
628=-9.071245e-03
631=-8.591262e-02
640=1.820550e-05
642=2.361285e-02
643=7.039323e-02
644=1.442958e-01
645=4.480425e-02
646=6.945947e-02
647=1.654846e-01
648=-1.039139e-01
649=1.436179e-01
650=-1.119514e+00
651=-2.400198e-02
652=1.892091e-01
653=-8.907838e-01
654=1.871634e-01
656=-1.191660e-02
657=-6.626428e-02
658=-2.546850e-04
659=-8.795857e-03
661=-9.420005e-01
662=-3.815793e-04
663=1.872698e-02
664=-1.273712e+00
665=7.399298e-02
666=-1.886328e-01
667=4.313298e-01
668=4.431228e-02
669=-1.946927e-01
670=4.876672e-02
671=-2.323274e-02
675=-6.920233e-02
677=-9.802166e-02
679=-1.225148e-01
688=-2.252261e-02
691=8.763422e-02
692=3.834716e-04
693=1.311883e-02
695=1.424028e-01
697=1.010574e-01
700=-2.687904e-05
702=-4.483106e-03
704=1.298746e-03
713=-2.652131e-02
714=8.311420e-03
715=4.370628e-01
716=5.882723e-02
723=-8.436851e-03
738=-1.091052e-01
739=2.075970e-01
741=-1.544880e-02
742=-4.010737e-01
744=2.736435e-04
746=3.277885e-02
748=-1.854197e-01
759=-5.387776e-02
760=4.717731e-01
762=-2.188272e-02
763=1.172090e-01
769=-9.838551e-02
771=4.688350e-05
787=3.083887e-01
792=-4.994815e-02
793=7.322632e-02
835=8.843987e-02
836=6.750869e-02
855=-1.948478e-01
859=1.948753e-01
861=4.693774e-02
867=2.662185e-02
884=4.985836e-02
886=2.007894e-01
901=3.262730e-03
905=1.018323e-01
907=2.455556e-01
953=-2.927698e-02
955=2.181809e-01
976=4.960382e-02
1003=1.272560e-01
1007=6.129607e-02
1027=3.146961e-01
1099=1.758641e-01
1105=7.579839e-05
1114=-1.619515e-04
1116=1.598492e-03
1123=1.569373e-01
1135=4.409624e-02
1137=7.307337e-02
1171=2.195216e-01
1173=5.396670e-02
1196=9.603978e-02
1197=1.159924e-01
1198=8.456080e-02
1199=1.001790e-02
1200=1.002299e-01
1201=1.248049e-02
1202=-1.139763e-01
1203=-3.689256e-03
1204=8.981378e-02
1206=1.159299e-01
1207=-2.371061e-02
1208=4.668569e-04
1209=4.211546e-02
1210=9.574319e-04
1211=9.974442e-02
1214=-7.655576e-02
1215=5.319568e-02
1216=6.154027e-02
1217=3.827029e-02
1218=4.441522e-02
1219=2.515900e-01
1220=8.147607e-02
1223=2.727349e-01
1227=-2.880605e-05
1229=-7.510873e-02
1243=1.618529e-01
1244=4.954194e-01
1245=2.989034e-02
1246=-7.170730e-03
1247=8.259365e-02
1249=3.921773e-02
1250=-3.086900e-01
1252=1.408402e-02
1254=-1.045810e+00
1256=-4.157208e-04
1262=2.442199e-03
1266=5.048046e-02
1267=2.762471e-01
1268=9.681514e-04
1273=-4.446063e-04
1290=-2.249943e-04
1291=1.203720e-01
1292=-2.232489e-02
1298=3.815924e-02
1315=8.991509e-03
1321=-8.319629e-02
1323=1.541117e-04
1339=1.436943e-01
1340=-3.373660e-02
1343=4.405250e-03
1387=2.525846e-01
1388=3.389484e-02
1407=-6.424737e-02
1411=1.500378e-01
1413=-3.055411e-04
1414=2.423073e-02
1434=3.863750e-02
1435=5.524766e-02
1444=2.282575e-03
1459=1.338195e-01
1467=4.231791e-02
1505=-7.898404e-02
1507=2.959279e-01
1531=3.368695e-01
1555=9.942710e-02
1579=4.827363e-01
1647=4.148715e-02
1657=5.014847e-03
1668=1.038084e-02
1675=7.236700e-02
1687=6.171536e-02
1689=8.379412e-02
1699=1.966268e-01
1723=1.098371e-01
1725=7.700610e-02
1748=2.097288e-01
1749=1.435860e-02
1750=5.307461e-02
1751=-3.524067e-03
1755=-9.071245e-03
1758=-8.591262e-02
1767=1.820550e-05
1769=2.361285e-02
1770=7.039323e-02
2300=5.082485e-02
2301=6.986509e-02
2302=1.446661e-03
2303=-2.676434e-03
2305=1.260030e-02
2306=7.747220e-03
2307=-2.035063e-02
2308=-2.373445e-02
2309=5.430732e-03
2310=1.610186e-01
2311=-7.212411e-03
2312=-5.114995e-03
2313=1.572643e-02
2314=-1.427167e-04
2315=-3.348071e-02
2317=-3.579809e-02
2318=-1.763161e-05
2319=8.759999e-02
2320=8.086550e-02
2321=8.895660e-02
2322=-1.802150e-01
2323=1.735945e-01
2324=-3.675507e-02
2327=8.326332e-03
2344=-1.889195e-02
2347=3.186013e-01
2349=-4.199617e-02
2354=-7.452187e-02
2356=1.834704e-02
2357=3.538317e-03
2360=-7.520183e-02
2366=2.386726e-03
2371=3.379418e-01
2375=9.306033e-02
2395=3.055254e-01
2396=-6.180720e-04
2398=5.476058e-02
2401=7.978223e-03
2402=2.753092e-02
2404=-1.175370e-01
2419=2.450729e-01
2425=-5.688249e-02
2427=2.895367e-02
2442=-8.022642e-06
2443=2.352638e-01
2444=3.400549e-02
2447=2.395565e-02
2450=-2.908223e-01
2467=3.284919e-01
2470=1.407184e-01
2488=-9.806230e-03
2491=3.715211e-01
2511=1.587288e-02
2515=3.974568e-01
2516=1.890932e-02
2517=-6.165264e-02
2539=1.302944e-01
2540=1.653570e-04
2557=1.163005e-02
2561=1.134711e-02
2562=-2.115733e-01
2563=5.268697e-01
2587=4.201859e-02
2603=-3.532213e-02
2611=1.851122e-01
2635=4.609816e-01
2649=-1.212942e-02
2659=1.007496e+00
2683=1.182219e-01
2707=1.083326e-02
2748=1.675623e-02
2755=4.614371e-01
2761=7.897623e-03
2772=2.698668e-02
2779=2.632292e-01
2803=3.744404e-01
2827=3.333506e-01
2829=8.020480e-02
2852=5.813773e-03
2853=4.417140e-02
2854=-7.202492e-02
2855=3.308240e-02
2857=6.380440e-02
2859=-9.620383e-02
2860=1.159077e-02
2862=-3.137726e-01
2863=2.268324e-03
2864=-1.734647e-01
2866=3.745298e-03
2871=-2.639501e-03
2875=2.348696e-03
2876=2.985264e-02
2899=2.479945e-02
2901=-3.945674e-04
2903=2.115769e-01
2947=5.844331e-02
2995=9.230003e-02
3067=-4.035254e-01
3090=9.559393e-02
3109=4.525930e-02
3115=-5.707020e-03
3159=6.425988e-03
3163=-1.949612e-01
3211=9.252091e-02
3230=6.515720e-03
3235=1.547571e-03
3406=-7.382914e-04
3419=2.000810e-03
3475=-5.921024e-04
3787=1.951632e-02
3971=2.596473e-03
4339=1.967528e-02
4523=2.596473e-03
4891=1.967528e-02
5060=2.097288e-01
5061=1.435860e-02
5062=5.307461e-02
5063=-3.524067e-03
5067=-9.071245e-03
5070=-8.591262e-02
5079=1.820550e-05
5081=2.361285e-02
5082=7.039323e-02
5612=1.929623e-03
5613=9.071894e-02
5615=-2.467979e-02
5616=-4.334023e-02
5617=6.205097e-02
5620=-1.061965e-02
5621=2.460709e-01
5622=2.841461e-03
5624=-1.721321e-02
5625=1.265958e-02
5627=3.414912e-02
5629=-3.738013e-02
5631=5.338254e-02
5632=4.678393e-02
5635=2.316721e-01
5636=-1.062758e-01
5639=3.389923e-03
5659=1.961939e-01
5660=9.036585e-02
5662=-1.647536e-02
5666=-7.602431e-02
5678=3.235637e-02
5683=1.242113e-01
5707=4.577461e-02
5708=2.258457e-02
5710=-5.873063e-05
5713=8.495621e-02
5714=1.182847e-03
5731=5.576272e-02
5754=-1.165893e-01
5755=1.376973e-01
5756=7.785510e-02
5759=5.725624e-02
5779=2.355012e-01
5782=1.121088e-01
5803=3.181602e-02
5827=3.697152e-02
5828=4.577535e-02
5846=4.635975e-02
5851=7.320114e-02
5852=8.734841e-03
5869=3.737671e-02
5874=-3.882613e-02
5875=8.095372e-02
5899=4.846824e-03
5923=4.884669e-02
5947=1.447868e-01
5971=3.384555e-02
5995=1.754165e-01
6019=1.219136e-02
6060=1.615954e-02
6067=2.157015e-01
6073=6.616963e-02
6084=3.146767e-02
6091=1.805792e-01
6139=8.940382e-02
6141=1.902125e-02
6164=2.097288e-01
6165=1.435860e-02
6166=5.307461e-02
6167=-3.524067e-03
6171=-9.071245e-03
6174=-8.591262e-02
6183=1.820550e-05
6185=2.361285e-02
6186=7.039323e-02
6726=4.045365e-02
6731=8.097237e-04
6979=1.023214e-01
7099=1.953480e-02
7283=2.596473e-03
7651=1.967528e-02
7835=2.596473e-03
8203=1.967528e-02
8372=5.813773e-03
8373=4.417140e-02
8374=-7.202492e-02
8375=3.308240e-02
8377=6.380440e-02
8379=-9.620383e-02
8380=1.159077e-02
8382=-3.137726e-01
8383=2.268324e-03
8384=-1.734647e-01
8386=3.745298e-03
8391=-2.639501e-03
8395=2.348696e-03
8396=2.985264e-02
8419=2.479945e-02
8421=-3.945674e-04
8423=2.115769e-01
8467=5.844331e-02
8515=9.230003e-02
8587=-4.035254e-01
8610=9.559393e-02
8629=4.525930e-02
8635=-5.707020e-03
8679=6.425988e-03
8683=-1.949612e-01
8731=9.252091e-02
8750=6.515720e-03
8755=1.547571e-03
8924=1.929623e-03
8925=9.071894e-02
8927=-2.467979e-02
8928=-4.334023e-02
8929=6.205097e-02
8932=-1.061965e-02
8933=2.460709e-01
8934=2.841461e-03
8936=-1.721321e-02
8937=1.265958e-02
8939=3.414912e-02
8941=-3.738013e-02
8943=5.338254e-02
8944=4.678393e-02
8947=2.316721e-01
8948=-1.062758e-01
8951=3.389923e-03
8971=1.961939e-01
8972=9.036585e-02
8974=-1.647536e-02
8978=-7.602431e-02
8990=3.235637e-02
8995=1.242113e-01
9019=4.577461e-02
9020=2.258457e-02
9022=-5.873063e-05
9025=8.495621e-02
9026=1.182847e-03
9043=5.576272e-02
9066=-1.165893e-01
9067=1.376973e-01
9068=7.785510e-02
9071=5.725624e-02
9091=2.355012e-01
9094=1.121088e-01
9115=3.181602e-02
9139=3.697152e-02
9140=4.577535e-02
9158=4.635975e-02
9163=7.320114e-02
9164=8.734841e-03
9181=3.737671e-02
9186=-3.882613e-02
9187=8.095372e-02
9211=4.846824e-03
9235=4.884669e-02
9259=1.447868e-01
9283=3.384555e-02
9307=1.754165e-01
9331=1.219136e-02
9372=1.615954e-02
9379=2.157015e-01
9385=6.616963e-02
9396=3.146767e-02
9403=1.805792e-01
9451=8.940382e-02
9453=1.902125e-02
9476=2.097288e-01
9477=1.435860e-02
9478=5.307461e-02
9479=-3.524067e-03
9483=-9.071245e-03
9486=-8.591262e-02
9495=1.820550e-05
9497=2.361285e-02
9498=7.039323e-02
10028=2.052744e-01
10029=-3.209198e-03
10030=1.841643e-01
10031=-5.792596e-02
10033=5.567886e-01
10036=-1.984189e-01
10040=-1.803289e-03
10043=3.874111e-02
10049=2.491989e-02
10051=2.174858e-01
10099=1.592627e-01
10123=1.320157e-04
10144=1.037711e-01
10171=3.254890e-01
10289=-7.435701e-05
10291=2.251972e+00
10327=5.178508e-04
10411=1.206586e-01
10507=5.011304e-02
10555=1.499662e-01
10557=2.991461e-02
10580=2.824570e-02
10581=7.084612e-02
10582=8.414590e-02
10583=1.296609e-02
10584=1.032985e-01
10585=2.819095e-02
10586=-2.005923e-02
10587=3.348389e-02
10588=1.167670e-01
10590=-1.209602e-02
10592=-1.459208e-02
10593=1.855570e-02
10594=2.574187e-03
10595=-6.214267e-03
10598=-9.725222e-04
10599=6.472771e-02
10600=8.094258e-02
10601=3.985569e-02
10603=1.259619e-01
10604=1.573099e-01
10607=1.007552e-01
10611=-2.443164e-05
10627=1.587849e-01
10628=7.355530e-03
10629=2.123886e-02
10630=-5.212657e-03
10631=7.049574e-02
10633=3.403978e-02
10634=-3.985380e-02
10640=3.664475e-03
10646=5.890109e-04
10650=5.729801e-02
10651=2.743668e-01
10652=2.042642e-03
10657=-3.803399e-04
10675=1.089883e-01
10676=-3.319678e-01
10682=1.496304e-04
10696=-1.191074e-03
10699=1.002175e-01
10723=1.189060e-01
10724=-4.299388e-02
10727=2.212093e-03
10747=6.141284e-01
10771=2.202591e-01
10772=3.754704e-02
10791=-7.230877e-03
10795=1.641565e-01
10798=3.414686e-02
10818=5.403689e-02
10819=4.394417e-02
10828=1.961301e-03
10837=3.333917e-03
10841=-2.219330e-03
10843=9.392769e-02
10851=3.398646e-02
10889=-4.849160e-03
10891=1.794397e-01
10915=3.417260e-01
10939=7.040670e-02
10963=2.957629e-01
11031=5.042571e-02
11035=-6.710453e-05
11052=7.318439e-03
11059=1.122935e-01
11071=6.588242e-02
11073=6.303242e-02
11083=2.356023e-01
11105=5.420426e-02
11107=1.127953e-01
11132=4.116269e-01
11134=-8.227773e-04
11684=9.667069e-02
11685=-1.039095e-02
11686=1.094432e-01
11687=-2.189153e-03
11689=-2.406099e-05
11692=-3.990952e-01
11703=8.531821e-06
11705=1.003066e-01
11707=-5.626709e-02
11778=9.591201e-02
11779=9.816648e-06
11995=5.660634e-04
12067=2.376753e-03
12163=8.141457e-02
12211=1.578195e-01
12236=2.097288e-01
12237=1.435860e-02
12238=5.307461e-02
12239=-3.524067e-03
12243=-9.071245e-03
12246=-8.591262e-02
12255=1.820550e-05
12257=2.361285e-02
12258=7.039323e-02
12788=1.554690e-01
12789=1.552177e-01
12790=7.508903e-02
12791=1.625580e-01
12792=-3.523183e-01
12793=1.118203e-01
12794=-1.497832e-01
12796=1.494146e-01
12797=-5.395380e-01
12798=9.716651e-02
12800=1.321124e-01
12801=3.907812e-02
12802=-2.057709e-02
12803=5.876018e-02
12805=-6.855029e-02
12806=-5.413724e-03
12807=9.966831e-02
12808=6.494739e-02
12809=1.023778e-01
12810=-2.803803e-01
12811=3.716290e-01
12812=3.936429e-02
12813=-2.712565e-01
12814=-6.389411e-02
12819=-1.775641e-01
12821=-1.180530e-01
12830=-1.862070e-02
12832=-4.620583e-02
12834=-2.254240e-01
12835=2.835727e-01
12836=1.236795e-02
12837=6.529330e-04
12838=-3.643509e-01
12839=9.427712e-02
12841=5.693903e-02
12842=-2.191415e-02
12844=-3.189564e-05
12846=-1.598363e-02
12848=1.573338e-04
12854=3.799304e-02
12857=-9.093372e-02
12858=3.439979e-03
12859=4.587377e-01
12860=1.603501e-02
12869=-8.352147e-02
12880=-1.753539e-01
12881=-1.475204e-01
12882=-6.188021e-04
12883=2.968075e-01
12885=-1.979851e-01
12887=-4.163690e-02
12888=-1.430098e-02
12890=4.044803e-02
12891=-8.701206e-03
12903=-7.330412e-02
12904=6.296914e-02
12906=-1.334333e-01
12907=7.303806e-02
12913=-1.242039e-01
12915=7.263254e-02
12923=8.212919e-02
12927=-7.112849e-02
12929=-2.145311e-01
12931=5.018320e-01
12932=1.581184e-03
12934=-1.035909e-01
12936=-1.060425e-01
12953=9.206667e-04
12975=-1.251017e-01
12979=2.601083e-01
12980=1.328501e-02
12995=-5.229299e-03
12998=-1.513611e-02
12999=-1.018296e-02
13003=2.594732e-01
13005=1.786177e-02
13011=2.586820e-02
13027=1.236516e-02
13028=4.842593e-02
13030=4.005855e-02
13044=-4.644373e-02
13045=9.334721e-04
13049=8.829585e-02
13051=2.508542e-01
13075=1.334962e-01
13088=-8.672039e-02
13090=-1.576045e-01
13097=-1.204527e-01
13099=3.671295e-01
13120=3.541436e-02
13123=2.511369e-01
13147=5.336869e-01
13151=4.550816e-02
13171=4.868690e-01
13236=3.209909e-02
13239=4.771875e-02
13243=2.179895e-01
13249=2.654157e-06
13258=-2.842685e-03
13267=3.200186e-01
13279=4.602468e-02
13281=7.416731e-02
13291=1.823487e-01
13313=2.006137e-02
13315=2.628464e-01
13317=3.745529e-02
13340=1.334811e-01
13341=1.846192e-01
13342=7.074907e-02
13343=3.359006e-02
13344=-6.746440e-03
13345=4.667562e-03
13347=3.620040e-02
13348=9.168342e-02
13350=-1.485080e-03
13351=-8.989016e-02
13352=4.221017e-02
13353=1.108462e-01
13354=-1.660566e-02
13355=1.661444e-01
13356=-2.387196e-01
13357=-2.009456e-03
13358=-2.163382e-05
13359=1.609622e-01
13360=9.540426e-02
13361=1.884390e-01
13362=5.906906e-02
13363=3.189189e-01
13364=3.651625e-02
13365=-2.565475e-01
13366=-5.772760e-02
13367=6.364464e-02
13371=-7.714765e-02
13373=-1.076539e-01
13384=-3.871372e-02
13386=-9.184787e-03
13387=4.350395e-01
13388=4.831529e-03
13389=3.253350e-03
13390=9.704978e-06
13391=9.244543e-02
13393=6.833516e-02
13394=-2.987659e-02
13396=5.016976e-03
13397=-5.793398e-01
13398=-4.266701e-03
13400=7.468228e-04
13406=3.220479e-02
13409=-3.999852e-02
13410=2.337487e-03
13411=4.945639e-01
13412=2.721992e-02
13417=-3.950434e-02
13421=-6.159257e-02
13434=-5.821021e-04
13435=2.599468e-01
13436=-2.588117e-01
13437=-4.989863e-02
13438=-4.791739e-03
13440=-1.547301e-02
13442=3.138593e-02
13456=5.029077e-02
13458=-9.373539e-02
13459=1.009456e-03
13465=-1.111499e-01
13467=9.505781e-05
13475=9.370941e-02
13479=-8.126540e-06
13481=-1.453138e-01
13483=2.112134e-01
13487=1.289788e-03
13507=7.698885e-01
13510=6.003944e-02
13527=-1.136911e-01
13531=2.259304e-01
13532=6.415601e-02
13550=-6.217257e-01
13551=-5.811816e-02
13555=1.419673e-01
13557=-2.147088e-03
13578=7.509917e-04
13579=6.220447e-02
13580=3.921030e-02
13582=1.776290e-02
13601=-1.236016e-04
13603=1.310493e-01
13611=6.359892e-03
13627=5.889957e-02
13640=-8.505200e-02
13642=-1.376433e-01
13649=-1.074677e-01
13651=2.943660e-01
13672=4.536872e-02
13675=1.900457e-01
13699=1.131390e-01
13703=6.091859e-02
13723=4.874458e-01
13795=1.799368e-01
13801=2.206267e-06
13810=-3.528702e-04
13819=2.328233e-01
13831=4.245908e-02
13833=7.472484e-02
13843=2.018573e-01
13846=-1.411055e-02
13865=1.645654e-02
13867=2.429785e-01
13869=5.593517e-02
13892=-2.076033e-01
13893=1.621382e-01
13894=-6.728084e-02
13895=2.522415e-01
13896=-2.177973e-01
13897=6.387666e-02
13898=2.011462e-02
13899=6.669201e-02
13900=3.821269e-02
13901=1.943629e-02
13902=-1.408384e-01
13904=1.025947e-01
13905=1.107413e-01
13906=-1.246621e-03
13907=-2.061171e-01
13909=7.457869e-02
13911=-1.926374e-02
13912=6.875009e-02
13913=9.604717e-03
13914=7.905501e-02
13915=6.043646e-02
13916=1.110682e-01
13917=8.679122e-02
13918=1.265058e-01
13919=6.545393e-02
13920=1.542626e-01
13921=-6.272235e-03
13922=1.549758e-01
13923=1.941813e-01
13924=1.104324e-01
13925=-3.111910e-01
13926=-8.509413e-02
13927=1.804110e-01
13928=9.371169e-02
13929=-1.215682e-02
13930=-3.360551e-02
13931=-1.411141e-03
13932=-5.163772e-01
13933=-2.085202e-04
13934=-7.550361e-02
13935=1.383739e-01
13936=1.352718e-01
13937=-9.550700e-02
13938=1.009209e-02
13939=8.249592e-02
13940=3.074151e-02
13941=2.897774e-02
13942=1.020917e-01
13943=-6.877547e-03
13944=2.099493e-02
13945=4.998402e-02
13946=-5.544525e-01
13947=5.147467e-02
13948=3.748575e-04
13949=1.014012e-03
13950=5.757565e-02
13951=4.148601e-02
13952=1.323300e-03
13953=-1.355825e-02
13955=1.028316e-01
13956=6.106210e-03
13957=5.290689e-02
13958=4.910293e-02
13959=4.832017e-02
13961=9.139272e-02
13962=4.228231e-03
13963=1.731119e-01
13964=-1.106004e-01
13965=1.121037e-01
13966=-5.607243e-01
13967=1.678488e-01
13968=-8.421129e-02
13969=-2.844359e-02
13970=2.402838e-01
13971=-3.254233e-01
13972=9.970441e-02
13973=1.171876e-01
13974=9.963988e-02
13975=-7.793690e-02
13976=1.026091e-01
13978=1.236344e-01
13980=5.957435e-02
13981=-4.186543e-03
13982=3.629762e-02
13983=5.037468e-02
13984=2.097288e-01
13985=1.435860e-02
13986=5.307461e-02
13987=-3.524067e-03
13991=-9.071245e-03
13994=-8.591262e-02
14003=1.820550e-05
14005=2.361285e-02
14006=7.039323e-02
14536=5.798494e-02
14537=1.152445e-01
14538=-1.011101e-01
14539=6.969932e-02
14540=1.023973e-03
14541=3.145108e-02
14543=7.867929e-02
14544=1.109740e-01
14545=4.615054e-02
14546=1.107317e-01
14547=2.039463e-04
14548=7.075264e-02
14549=-5.340304e-01
14550=-1.840419e-03
14551=-4.776428e-02
14553=9.341870e-02
14554=-2.256331e-05
14555=1.608543e-02
14556=4.747082e-02
14557=6.132877e-02
14559=5.095221e-01
14560=4.085563e-02
14561=-3.106812e-01
14562=-7.940514e-02
14563=3.173835e-02
14567=-2.130860e-01
14569=-1.419550e-01
14578=-2.490843e-02
14580=-5.673401e-02
14582=-1.765083e-01
14583=4.430097e-01
14584=-1.500453e+00
14585=-2.134264e-01
14586=-4.358698e-02
14587=3.474216e-02
14588=-7.493599e-02
14589=1.218370e-01
14590=-2.137011e-02
14592=-4.160305e-03
14594=-1.029122e-01
14595=-4.104963e-02
14596=-8.867166e-02
14602=4.671496e-02
14605=-1.097759e-01
14607=2.448543e-01
14608=2.496024e-02
14609=-8.578988e-04
14611=6.737826e-02
14615=1.005847e-04
14617=-9.472010e-02
14628=-2.213879e-01
14629=-3.921640e-01
14630=-1.632374e-01
14631=2.964286e-01
14632=-4.381772e-03
14633=-2.261683e-01
14634=9.480933e-02
14635=-2.478138e-01
14636=-6.753944e-04
14637=5.270624e-02
14638=3.417182e-02
14639=-1.282489e-01
14640=-8.704851e-02
14643=-6.883137e-03
14646=-1.983067e-02
14651=-9.040381e-02
14652=4.961531e-02
14654=-1.497848e-01
14655=3.469568e-01
14660=5.388070e-02
14661=-1.048938e-01
14665=-3.065254e-02
14671=4.428074e-02
14675=-7.432726e-02
14677=-2.703569e-01
14678=3.585059e-02
14679=3.623884e-01
14680=1.986712e-01
14681=-6.034452e-03
14682=-1.184976e-01
14683=2.256691e-03
14684=-1.474978e-01
14701=3.260815e-02
14703=3.171976e-01
14706=1.428337e-01
14721=-2.304797e-02
14723=-1.562446e-01
14727=4.341936e-01
14728=1.122624e-02
14729=-1.445153e-02
14743=-6.192898e-03
14746=-8.588144e-03
14747=1.830013e-02
14749=-1.108189e-02
14751=2.556878e-01
14752=1.749258e-02
14753=-2.055171e-05
14755=-1.292158e-04
14759=1.287105e-03
14775=1.266041e-01
14776=1.160661e-02
14778=1.219366e-02
14783=1.171412e-01
14790=-6.909040e-02
14792=-7.730340e-02
14793=6.463784e-02
14797=7.117996e-02
14799=2.844786e-01
14823=6.049092e-01
14836=-1.278882e-01
14838=-1.591691e-01
14839=-4.424345e-02
14845=-1.351489e-01
14847=3.965859e-01
14868=3.506238e-02
14885=-2.352824e-03
14892=1.408376e-02
14895=6.739564e-01
14899=3.456680e-02
14919=4.879802e-01
14943=2.122545e-01
14967=6.299523e-02
14977=-8.842036e-02
14991=6.773913e-01
14997=2.087373e-06
15006=-3.584170e-03
15008=9.931401e-05
15015=3.073895e-01
15027=4.230103e-02
15029=7.286195e-02
15039=1.967368e-01
15063=2.891190e-01
15065=5.864059e-02
15088=1.588466e-01
15089=3.204534e-02
15090=6.156448e-02
15091=1.757842e-01
15092=2.919314e-02
15093=8.105087e-02
15094=1.411779e-04
15095=4.712770e-02
15096=1.026883e-01
15098=-1.981654e-03
15100=2.170863e-02
15101=-2.122658e-02
15103=1.698574e-01
15105=-6.621486e-02
15106=4.158729e-02
15107=8.805228e-02
15108=4.939826e-02
15109=8.354280e-02
15110=8.740061e-02
15111=5.233366e-01
15112=1.545180e-02
15113=-3.786288e-07
15114=-1.384684e-01
15115=2.176044e-02
15119=-1.913460e-01
15121=-1.288349e-01
15130=-2.138363e-02
15132=-5.094584e-02
15134=-2.342158e-01
15135=2.484804e-01
15136=1.505217e-01
15137=-1.410779e-02
15138=-3.685266e-02
15139=1.110438e-01
15140=-2.042889e-02
15141=6.941062e-02
15142=-2.663347e-02
15145=-6.452722e-06
15146=-6.105526e-03
15147=-7.682333e-03
15148=-2.675284e-04
15154=4.084559e-02
15157=-1.042160e-01
15158=-2.066501e-02
15159=3.274867e-01
15160=2.520250e-02
15163=9.747771e-02
15169=-8.474281e-02
15181=-2.585431e-01
15183=3.048599e-01
15184=-3.779858e-02
15185=-2.105476e-01
15186=1.179285e-01
15187=-1.733763e-01
15188=-2.408576e-01
15189=-9.671513e-04
15190=3.090697e-02
15203=-8.447193e-02
15204=5.660202e-02
15206=-2.316598e-02
15207=2.418236e-01
15213=-1.414461e-01
15215=1.401111e-04
15223=6.209906e-02
15227=-2.845956e-02
15229=-2.643611e-01
15230=1.719023e-01
15231=3.451952e-01
15232=1.927686e-01
15233=-5.163233e-03
15234=-1.107828e-01
15235=6.708938e-03
15236=-1.160736e-01
15253=7.196183e-03
15255=3.662906e-01
15257=1.108280e-02
15258=4.596449e-02
15273=-2.219502e-02
15275=-1.313485e-01
15279=3.668930e-01
15280=1.314961e-02
15298=-1.583841e-02
15299=3.304061e-04
15303=1.479871e-01
15305=3.154974e-02
15307=-9.258458e-01
15311=2.271630e-02
15327=7.037436e-02
15342=-6.502046e-02
15344=-4.406214e-02
15345=4.311109e-04
15351=1.932000e-01
15375=2.274457e-01
15388=-9.113122e-02
15390=-1.517600e-01
15391=-1.260136e-02
15396=2.049287e-03
15397=-1.245927e-01
15399=3.368680e-01
15420=3.521529e-02
15423=2.203512e-01
15447=5.733852e-01
15451=4.822252e-02
15471=4.873503e-01
15543=3.420750e-01
15549=2.199289e-06
15558=-3.101574e-03
15567=3.193079e-01
15579=3.767111e-02
15581=7.355346e-02
15591=1.884627e-01
15613=1.074461e-02
15615=2.715232e-01
15617=7.060917e-02
15640=2.097288e-01
15641=1.435860e-02
15642=5.307461e-02
15643=-3.524067e-03
15647=-9.071245e-03
15650=-8.591262e-02
15659=1.820550e-05
15661=2.361285e-02
15662=7.039323e-02
16192=2.097288e-01
16193=1.435860e-02
16194=5.307461e-02
16195=-3.524067e-03
16199=-9.071245e-03
16202=-8.591262e-02
16211=1.820550e-05
16213=2.361285e-02
16214=7.039323e-02
16744=4.174301e-03
16745=1.523642e-01
16746=-2.689012e-03
16747=-1.836143e-02
16749=5.074656e-02
16750=-3.376911e-02
16752=-2.594093e-03
16753=1.783881e-01
16754=5.048681e-03
16756=-1.388710e-02
16757=1.012829e-02
16758=-1.839488e-03
16759=8.420114e-02
16763=4.603978e-02
16764=-9.540007e-03
16765=-1.849131e-02
16767=2.604771e-01
16791=3.089592e-01
16794=-1.960388e-03
16795=8.268573e-04
16798=-2.305785e-02
16803=4.213959e-03
16810=8.395907e-05
16815=1.151680e-01
16839=4.877462e-02
16840=2.076098e-02
16842=-2.293320e-01
16845=1.849751e-03
16846=2.937669e-03
16863=5.535576e-01
16886=-5.923880e-02
16887=2.187333e-01
16888=8.009864e-02
16891=6.128886e-02
16911=1.980227e-02
16914=1.189332e-01
16935=2.965190e-02
16955=3.002201e-03
16959=3.736580e-02
16960=5.250314e-02
16978=1.717932e-02
16983=3.757068e-01
16984=9.417072e-03
17001=2.735505e-02
17006=-3.718043e-02
17007=8.209493e-02
17031=4.663473e-03
17055=4.567459e-02
17079=1.558790e-01
17103=5.454322e-03
17127=1.726631e-01
17151=1.253186e-02
17192=1.612194e-02
17199=2.123715e-01
17205=5.270357e-02
17216=3.264211e-02
17223=9.652416e-02
17271=4.634777e-02
17273=2.758967e-02
17296=-5.213146e-04
17297=-7.989961e-03
17298=2.029990e-02
17299=3.813341e-02
17300=-1.393558e-02
17301=1.958326e-02
17302=9.372700e-02
17303=-8.315739e-03
17304=2.459604e-02
17305=-1.973229e-02
17306=7.406027e-02
17308=-1.945458e-02
17309=1.459127e-02
17310=-1.947449e-04
17311=-1.953828e-02
17317=2.472839e-02
17318=2.106552e-02
17319=7.246912e-02
17343=5.681078e-02
17344=3.694720e-03
17345=4.581501e-02
17347=-8.271170e-02
17349=5.568815e-02
17350=3.831961e-03
17351=7.968448e-04
17352=1.226915e-02
17367=-1.619233e-02
17375=1.386318e-02
17390=2.560889e-03
17391=8.752176e-02
17394=6.364535e-06
17397=8.870018e-02
17398=2.724817e-02
17423=8.155236e-01
17431=5.833656e-02
17439=2.325902e-01
17440=1.019680e-01
17463=7.458964e-02
17487=5.660961e-02
17511=1.017068e-01
17514=2.326073e-02
17559=-4.576661e-04
17607=2.453117e-02
17631=6.155042e-02
17655=4.152580e-02
17751=2.776668e-01
17789=1.806316e-01
17821=6.287460e-02
17823=8.655580e-02
17825=2.236381e-02
17848=2.631363e-01
17849=-2.066366e-02
17850=1.638696e-02
17856=2.367694e-02
17858=-7.311769e-02
17869=5.763645e-02
17886=5.687945e-03
17894=-2.375680e-02
17906=1.549820e-02
17917=-2.875811e-02
17918=-1.132311e-01
17919=-3.158938e-03
17920=-6.557132e-02
17921=2.907879e-02
17923=2.194588e-01
17924=4.478056e-02
17925=7.449367e-02
17926=8.128423e-02
17927=1.926376e-01
17928=9.723354e-02
17929=3.329893e-02
17930=3.121738e-02
17931=-8.211443e-05
17932=-1.944022e-02
17934=8.078546e-02
17935=-3.111110e-04
17936=5.215634e-02
17938=7.907405e-02
17940=1.942896e-01
17941=3.562891e-01
17943=2.570954e-02
17944=-2.439235e-03
17948=-1.340645e-05
17950=-9.123969e-02
17961=-3.921741e-02
17964=-4.471165e-01
17965=1.049629e-01
17966=4.188036e-01
17967=-2.604679e-01
17968=7.264329e-01
17970=9.952138e-01
17971=5.359233e-02
17973=2.723390e-02
17975=5.517595e-03
17976=2.150029e-01
17977=1.327415e-01
17987=7.060992e-02
17988=9.983744e-02
17989=1.407848e-01
17990=-8.114745e-03
17992=2.366223e-01
18012=-2.942455e-02
18013=2.211635e-02
18015=1.429463e-01
18017=-1.039863e-02
18018=2.704921e-02
18019=1.490103e-01
18033=8.272384e-02
18036=-5.565762e-02
18041=6.349402e-01
18042=-9.731653e-02
18044=6.603620e-02
18052=8.537331e-02
18059=4.772948e-01
18060=-4.183386e-04
18061=1.491936e-01
18064=7.387521e-02
18065=-1.616936e-02
18066=3.195208e-03
18067=3.024421e-02
18084=2.089030e-01
18086=6.529775e-03
18087=1.152566e-01
18108=-9.768953e-06
18109=1.025431e-01
18125=4.931095e-02
18128=3.758897e-02
18132=-1.760485e-01
18133=8.479014e-02
18134=2.936210e-01
18140=2.614967e-02
18151=6.484467e-02
18155=1.948318e-02
18156=-8.887003e-02
18159=7.760151e-02
18174=2.252410e-01
18178=3.779382e-01
18180=6.342937e-02
18228=8.746565e-02
18249=6.425617e-02
18273=6.267105e-02
18276=1.774649e-01
18280=4.263878e-02
18295=2.079488e-02
18300=4.234315e-02
18348=7.504677e-02
18365=1.548822e-02
18378=5.044159e-03
18389=9.807900e-04
18396=2.636279e-01
18408=6.397296e-02
18410=7.307284e-02
18442=1.899073e-02
18444=3.034615e-01
18469=-3.161773e-02
18470=2.726376e-02
18471=-1.798445e-01
18472=1.458739e-02
18474=1.965206e-02
18476=2.590760e-04
18477=-1.171554e-03
18479=1.498986e-01
18481=4.885646e-02
18488=-5.342157e-03
18490=1.648937e-02
18492=3.511704e-05
18516=1.678366e-02
18518=-4.530937e-02
18520=1.493906e-02
18525=2.954754e-01
18540=-3.859359e-04
18564=5.351963e-02
18589=4.453313e-02
18612=-7.820258e-03
18660=1.244159e-04
18684=2.378432e-02
18732=3.665599e-01
18780=4.864300e-01
18930=4.033758e-02
18948=-9.869166e-09
19029=-1.814641e-01
19033=2.747861e-02
19077=1.258330e-01
19332=3.810675e-02
19573=-1.063461e-01
19574=5.860993e-03
19575=-1.570038e-02
19576=-3.705641e-02
19578=6.902640e-02
19580=5.753185e-02
19581=4.002165e-01
19582=8.847472e-04
19583=4.829736e-02
19584=2.974810e-01
19585=5.688078e-02
19587=-1.819317e-03
19588=1.338191e-02
19590=1.201892e-04
19592=2.705592e-02
19596=1.577792e-02
19597=1.060766e+00
19600=2.918727e-02
19620=-1.106558e+00
19621=1.473057e-01
19622=9.248275e-02
19623=-1.686126e-02
19624=2.888440e-01
19627=1.015617e-01
19629=1.362926e-01
19630=4.515632e-02
19632=2.667030e-03
19633=1.299028e-01
19639=4.848449e-04
19643=3.341235e-02
19644=-9.754262e-03
19648=1.981594e-01
19652=1.183776e-02
19668=-1.270764e-03
19673=5.559727e-01
19675=5.153447e-02
19679=4.254359e-04
19689=1.135638e-01
19692=6.317060e-04
19698=-2.176334e-02
19716=1.780706e-01
19722=1.027065e-01
19740=9.149884e-01
19743=-1.465601e-02
19764=4.965712e-02
19781=8.992446e-02
19784=-7.880873e-03
19788=-7.854698e-01
19790=-2.944227e-01
19811=1.666933e-01
19812=8.902935e-02
19815=3.609633e-01
19834=2.050484e-02
19836=-5.092661e-01
19838=3.412277e-03
19884=-2.264588e-02
19905=1.030788e-01
19932=-3.198537e-03
19936=9.463541e-02
19951=4.268739e-02
19956=5.285156e-02
20021=1.652511e-02
20034=5.052618e-03
20045=2.835134e-02
20052=6.224309e-02
20066=2.166178e-01
20083=1.883376e-03
20100=2.005078e-02
20125=6.524560e-02
20126=-1.456314e-02
20127=6.842550e-03
20128=-4.427145e-03
20129=-1.387631e-01
20130=2.960446e-02
20131=2.144226e-03
20133=5.035623e-02
20134=-4.441002e-02
20135=8.766185e-02
20137=-1.844056e-03
20139=-1.763480e-02
20140=-1.032434e-01
20144=3.818104e-05
20146=9.899737e-02
20148=1.129581e-01
20149=-9.230606e-01
20172=1.261991e-01
20175=1.844098e-02
20181=1.866988e-02
20196=2.335654e-01
20200=1.115727e-02
20220=2.222487e-01
20223=1.827581e-02
20249=5.003006e-03
20268=2.216604e-01
20269=7.698207e-03
20292=3.147933e-01
20295=3.623848e-02
20316=1.967976e-01
20319=4.134372e-03
20336=6.115370e-02
20340=1.634158e-01
20342=3.635173e-02
20343=3.843828e-03
20388=1.142222e-01
20432=1.413571e-04
20436=1.024921e-01
20460=8.348543e-02
20484=1.814961e-02
20580=8.989662e-02
20604=1.438696e-02
20628=5.601610e-02
20652=2.348401e-01
20654=4.009758e-02
20692=5.623018e-03
20748=-9.089255e-05
21060=2.007852e-02
21229=-3.161773e-02
21230=2.726376e-02
21231=-1.798445e-01
21232=1.458739e-02
21234=1.965206e-02
21236=2.590760e-04
21237=-1.171554e-03
21239=1.498986e-01
21241=4.885646e-02
21248=-5.342157e-03
21250=1.648937e-02
21252=3.511704e-05
21276=1.678366e-02
21278=-4.530937e-02
21280=1.493906e-02
21285=2.954754e-01
21300=-3.859359e-04
21324=5.351963e-02
21349=4.453313e-02
21372=-7.820258e-03
21420=1.244159e-04
21444=2.378432e-02
21492=3.665599e-01
21540=4.864300e-01
21690=4.033758e-02
21708=-9.869166e-09
21781=6.524560e-02
21782=-1.456314e-02
21783=6.842550e-03
21784=-4.427145e-03
21785=-1.387631e-01
21786=2.960446e-02
21787=2.144226e-03
21789=5.035623e-02
21790=-4.441002e-02
21791=8.766185e-02
21793=-1.844056e-03
21795=-1.763480e-02
21796=-1.032434e-01
21800=3.818104e-05
21802=9.899737e-02
21804=1.129581e-01
21805=-9.230606e-01
21828=1.261991e-01
21831=1.844098e-02
21837=1.866988e-02
21852=2.335654e-01
21856=1.115727e-02
21876=2.222487e-01
21879=1.827581e-02
21905=5.003006e-03
21924=2.216604e-01
21925=7.698207e-03
21948=3.147933e-01
21951=3.623848e-02
21972=1.967976e-01
21975=4.134372e-03
21992=6.115370e-02
21996=1.634158e-01
21998=3.635173e-02
21999=3.843828e-03
22044=1.142222e-01
22088=1.413571e-04
22092=1.024921e-01
22116=8.348543e-02
22140=1.814961e-02
22236=8.989662e-02
22260=1.438696e-02
22284=5.601610e-02
22308=2.348401e-01
22310=4.009758e-02
22333=1.702126e-01
22335=1.345131e-01
22336=-1.224637e-01
22338=-2.028619e-03
22340=-1.904348e-01
22345=-2.260394e-02
22348=4.755842e-02
22354=4.194134e-02
22356=1.017327e+00
22357=-3.580349e-02
22360=3.939874e-02
22380=8.761443e-01
22384=-5.815580e-02
22404=1.183138e+00
22428=4.607694e-03
22476=9.762939e-01
22644=1.030051e-03
22716=3.233172e-01
22812=3.673172e-02
22860=1.430691e-01
22885=2.670335e-02
22886=8.456835e-02
22887=1.725870e-02
22888=1.095213e-01
22889=8.871208e-03
22890=8.353631e-02
22891=-1.452555e-01
22892=-4.176149e-02
22893=1.794034e-01
22895=1.485277e-01
22898=-3.801377e-02
22899=-2.846758e-04
22900=-2.744806e-02
22902=-2.333258e-02
22903=4.519590e-02
22904=6.914746e-02
22906=1.154780e-01
22908=1.372341e-01
22909=1.392385e-01
22911=2.259538e-02
22916=-1.900687e-05
22918=-1.204482e-02
22932=7.008795e-02
22934=-2.841389e-03
22935=-2.139084e-01
22936=5.995024e-02
22938=-1.361443e-02
22941=3.911413e-03
22945=1.227786e-02
22955=2.365340e-03
22956=1.604084e-01
22957=6.116573e-02
22980=1.230388e-01
22985=-6.603319e-03
22987=1.429472e-01
22989=-5.058095e-02
23001=8.436895e-02
23010=-5.004226e-02
23028=2.572667e-01
23033=-5.743346e-02
23034=7.380144e-02
23050=3.138042e-03
23054=2.114537e-02
23076=5.401803e-02
23077=6.295190e-02
23100=2.080241e-01
23102=7.085746e-02
23125=4.280298e-01
23142=4.459644e-02
23146=9.080505e-02
23148=-3.650295e-02
23194=-8.773105e-02
23196=1.751126e-01
23217=5.177793e-02
23244=1.007097e-01
23248=4.554015e-02
23268=1.509724e-01
23340=1.759203e-01
23346=6.742146e-04
23357=1.545063e-03
23364=6.304471e-01
23376=5.819229e-02
23378=9.271966e-02
23412=1.623409e-01
23414=2.063988e-02
23437=-2.253635e-02
23438=3.492061e-03
23439=9.556649e-02
23440=3.881902e-02
23445=-9.504381e-02
23447=-1.638610e-03
23449=8.073887e-03
23452=3.212132e-02
23458=4.568634e-02
23459=2.313555e-02
23460=1.619380e-01
23485=1.112292e-01
23508=6.691853e-02
23532=1.395655e-02
23553=6.682211e-03
23748=1.607437e-01
23820=1.758451e-01
23964=6.234171e-02
23966=1.973847e-01
23989=1.563491e-01
23990=9.786012e-03
23991=7.992759e-02
23992=-6.769776e-02
23994=-2.214838e-02
24008=2.917328e-04
24010=9.731642e-02
24012=4.718529e-01
24013=5.152719e-04
24036=3.805475e-01
24060=5.395907e-01
24084=6.011305e-03
24204=-5.376715e-02
24300=6.172077e-03
24348=2.312430e-02
24372=5.375349e-03
24468=6.087992e-02
24516=1.472884e-01
24541=5.949433e-02
24543=5.942494e-02
24544=6.594914e-03
24549=-2.121455e-02
24551=-1.005241e-05
24562=8.897298e-02
24564=1.356775e-01
24588=-1.142024e-03
24612=-1.540439e-02
24636=8.711521e-03
24900=2.242628e-02
25068=6.504953e-02
25070=6.039158e-02
25093=1.104550e-02
25094=4.162467e-02
25095=4.597408e-02
25096=2.090154e-01
25097=2.771899e-04
25098=1.121364e-01
25099=5.664894e-02
25100=1.211022e-01
25101=6.593569e-02
25102=-9.106295e-01
25103=3.429284e-02
25105=6.688844e-02
25106=2.507819e-02
25107=-1.555006e-03
25108=1.615751e-01
25111=-4.283556e-04
25112=5.306651e-02
25113=4.036198e-02
25114=6.039177e-02
25116=4.508562e-01
25117=3.718277e-02
25118=-2.931143e-01
25119=-6.839345e-02
25120=2.444028e-04
25124=-1.892245e-01
25126=-1.273502e-01
25135=-2.131833e-02
25137=-5.098844e-02
25139=-2.420471e-01
25140=2.842155e-01
25141=3.379996e-03
25142=8.810118e-03
25143=-3.787237e-02
25144=7.034598e-02
25145=-5.880275e-02
25146=5.622173e-02
25147=-1.807835e-02
25149=-4.649479e-02
25151=-5.458195e-03
25152=7.799911e-02
25153=-9.023637e-03
25159=4.347333e-02
25162=-4.553418e-02
25163=2.011539e-03
25164=5.012192e-01
25165=1.544622e-02
25168=8.367957e-02
25174=-8.816105e-02
25186=-2.572428e-01
25187=-9.894300e-04
25188=3.080943e-01
25189=-9.697607e-03
25190=-2.146432e-01
25191=9.851775e-02
25192=-1.790438e-01
25193=-1.427595e-01
25194=2.699217e-01
25195=1.978267e-02
25196=-8.982165e-02
25200=-1.737480e-03
25203=-1.422582e-02
25212=3.390293e-01
25232=-9.294685e-02
25233=-4.364380e-02
25234=-2.915813e-01
25235=1.903909e-02
25236=4.960354e-01
25237=2.254774e-01
25238=-5.148504e-03
25239=-1.113061e-01
25241=-1.162225e-01
25258=-1.178836e-01
25260=9.018904e-01
25280=-1.248537e-01
25284=4.251693e-01
25289=-2.247580e-02
25300=-6.166589e-03
25303=-1.194959e-02
25304=2.585793e-02
25305=-1.841351e-02
25308=2.581269e-01
25309=4.510235e-02
25310=7.428812e-03
25312=-1.357157e-04
25316=1.849905e-03
25347=-6.292339e-02
25349=-6.198948e-02
25350=3.557652e-02
25354=8.160406e-02
25356=2.894818e-01
25380=6.727215e-01
25393=-8.542414e-02
25395=-1.628577e-01
25396=-1.794658e-03
25402=-1.213421e-01
25404=4.303976e-01
25425=4.285653e-02
25428=6.557380e-02
25449=1.536702e-02
25452=5.963717e-01
25456=4.731984e-02
25476=4.864481e-01
25500=2.130204e-01
25524=5.387185e-02
25548=3.694680e-01
25554=2.548851e-06
25563=-6.019957e-04
25572=3.185633e-01
25584=3.639374e-02
25586=7.601717e-02
25596=1.879996e-01
25620=2.708016e-01
25645=6.536739e-03
25646=1.123589e-01
25647=2.579676e-02
25648=6.536866e-02
25649=-3.192888e-02
25650=2.745977e-02
25651=1.269283e-02
25652=6.862809e-02
25653=1.001278e-01
25654=4.893453e-02
25655=1.091759e-01
25656=1.636731e-03
25657=7.114012e-02
25658=3.457305e-02
25659=4.512342e-04
25660=-4.417728e-02
25662=8.624895e-02
25663=4.921599e-02
25664=-7.122955e-03
25665=5.611455e-02
25666=5.950475e-02
25667=-2.033894e-01
25668=4.968066e-01
25669=1.042359e-01
25670=-3.320186e-01
25671=-8.235276e-02
25672=4.067344e-02
25676=-2.142771e-01
25678=-1.428039e-01
25687=-2.522655e-02
25689=-5.715127e-02
25691=-2.579226e-01
25692=4.378492e-01
25693=8.198472e-03
25694=3.988452e-03
25695=-6.188355e-03
25696=8.969626e-02
25697=-7.654672e-02
25698=5.124484e-02
25699=-2.716356e-02
25701=6.715226e-05
25703=-2.482829e-03
25704=3.363048e-02
25705=1.173354e-04
25709=-9.652732e-03
25711=4.694408e-02
25714=-3.456311e-03
25715=-6.868697e-01
25716=6.308115e-01
25717=-1.346751e+00
25719=-7.066171e-02
25720=1.072470e-01
25724=1.522909e-05
25738=-2.447689e-01
25740=2.693593e-01
25741=-5.546467e-03
25742=-2.119619e-01
25743=1.388979e-02
25744=-2.442539e-01
25745=-1.982681e-02
25746=4.961809e-02
25747=3.716328e-02
25748=-9.850930e-02
25749=-8.443545e-02
25752=-1.873579e-03
25755=-1.940417e-02
25760=-9.024223e-02
25761=7.925152e-02
25763=-1.549559e-01
25764=4.397514e-01
25769=5.382185e-02
25770=-1.594282e-01
25772=1.258180e-03
25774=-4.685243e-02
25780=3.859032e-02
25784=-2.926072e-02
25786=-2.717424e-01
25787=-3.382750e-05
25788=3.299014e-01
25789=2.482935e-01
25790=-6.023263e-03
25791=-1.169806e-01
25792=1.688231e-02
25793=-1.411909e-01
25810=3.266031e-02
25812=3.310129e-01
25815=1.429103e-01
25830=-7.952920e-02
25832=-1.584995e-01
25836=4.378946e-01
25837=9.669362e-03
25838=-1.428125e-02
25852=-6.524504e-03
25855=-1.242361e-02
25856=2.644085e-02
25857=-5.815792e-02
25860=2.543495e-01
25861=1.548480e-02
25862=1.701134e-02
25864=-1.372167e-04
25868=1.285035e-03
25884=1.266279e-01
25887=1.209106e-02
25892=1.171325e-01
25899=-6.887377e-02
25901=-6.555461e-02
25902=6.516140e-02
25906=7.085313e-02
25908=2.924041e-01
25932=6.050300e-01
25944=-9.057184e-02
25945=-9.384432e-02
25947=-1.590931e-01
25948=-2.180399e-02
25949=-5.700129e-02
25954=-1.304363e-01
25956=4.079706e-01
25971=-5.593111e-02
25980=1.804151e-01
25994=-2.339145e-03
26001=1.436403e-02
26004=5.678201e-01
26008=3.449736e-02
26028=3.045546e-01
26052=2.122565e-01
26076=6.299567e-02
26086=-3.905860e-02
26100=6.772861e-01
26106=2.138291e-06
26115=-3.721936e-03
26117=4.201237e-06
26124=3.067487e-01
26136=5.886548e-02
26138=7.318889e-02
26148=1.966612e-01
26172=2.890656e-01
26174=5.779091e-02
26199=-1.534521e-04
26220=1.646432e-02
26749=-5.837232e-02
26750=-1.009938e-01
26751=-2.166865e-02
26752=-2.728686e-02
26754=7.161894e-02
26757=7.191227e-01
26758=5.288574e-04
26759=3.060731e-03
26760=2.838305e-01
26761=1.525893e-01
26763=-2.810436e-03
26764=1.923492e-02
26768=2.006045e-02
26772=3.358311e-02
26773=4.600679e-01
26776=3.799217e-01
26796=-8.915440e-01
26797=1.381181e-01
26798=8.585025e-02
26799=-1.501745e-02
26800=2.000421e-01
26803=1.730036e-01
26805=5.652182e-01
26806=4.474325e-02
26807=3.879314e-02
26809=1.111960e-01
26820=-3.435342e-03
26824=6.737359e-01
26828=1.007592e-02
26844=-2.367751e-04
26849=5.791088e-01
26851=7.775543e-02
26855=4.660777e-06
26876=4.127152e-01
26891=4.280286e-03
26892=2.925185e-01
26898=1.278360e-01
26916=1.314599e-01
26919=-1.487783e-02
26940=5.005587e-02
26957=1.660719e-01
26964=-2.665169e-01
26966=-2.395069e-01
26987=1.703650e-01
26989=-3.176604e-02
26991=3.665540e-01
27010=2.087437e-02
27012=-5.489521e-01
27014=3.554861e-03
27060=-2.546320e-02
27065=1.484057e-03
27081=1.262754e-01
27112=9.416378e-02
27127=5.145362e-02
27132=5.975646e-02
27197=1.931261e-02
27210=8.573873e-03
27221=2.832639e-02
27228=6.340956e-02
27276=2.253466e-02
27301=5.834504e-02
27302=-1.636294e-02
27303=-5.885118e-03
27304=5.365192e-02
27306=1.349115e-03
27308=2.899361e-02
27309=1.388484e-02
27310=7.001048e-03
27311=2.664042e-02
27313=-1.800052e-02
27315=-1.861998e-05
27316=-1.486816e-01
27320=3.815619e-05
27322=8.263266e-02
27324=1.008486e-01
27348=1.629904e-02
27350=-3.794810e-03
27351=1.623913e-02
27357=3.736792e-02
27372=9.883043e-02
27396=2.599367e-01
27397=-7.412620e-02
27399=7.363536e-03
27403=1.653403e-02
27420=6.163263e-05
27426=-2.148619e-02
27444=1.410217e-01
27445=1.801762e-02
27468=1.201164e-01
27471=2.364178e-01
27492=5.433775e-01
27512=9.598236e-03
27516=8.640729e-02
27519=1.316553e-04
27540=6.883162e-01
27564=4.931778e-01
27608=2.093496e-06
27612=6.555201e-02
27636=7.735979e-02
27660=3.592521e-02
27756=8.960989e-02
27780=1.395834e-02
27804=7.970151e-02
27828=1.458631e-01
27830=4.008947e-02
27853=-4.613520e-02
27854=1.304496e-01
27855=-7.951881e-04
27856=-2.071660e-03
27857=7.136490e-02
27858=6.033218e-02
27859=-1.573341e-02
27860=3.073420e-03
27861=4.063438e-04
27865=-1.306753e-03
27866=2.448513e-02
27867=-1.186008e-02
27868=4.080410e-02
27871=3.655072e-02
27872=5.811091e-02
27874=-2.436118e-04
27876=1.269893e-01
27900=3.086111e-01
